0.03818139
0.02544247
0.00521573
0.06852438
0.04481433
0.02536229
0.03565622
0.05884905
0.01260187
0.00141338
-0.03548378
0.05605211
0.00091138
0.00589016
0.00886566
-0.02068004
-0.02712447
-0.07467951
-0.04793796
0.00881716
-0.02496707
0.02305536
0.01278501
-0.04667687
-0.05102374
-0.02450054
0.01616101
0.01157982
-0.04383670
-0.05129600
0.02382732
0.07052179
0.03583229
0.05591855
0.00880865
0.05256663
-0.08515646
0.00131106
-0.04581629
-0.01134946
-0.00326210
-0.03178889
0.00751178
-0.01073311
-0.00103419
0.01108470
-0.03540428
-0.05871351
0.00643427
0.02447869
0.03502833
-0.02419564
-0.02726742
0.02110600
-0.00920346
-0.01429371
-0.06264142
0.05492015
0.02901670
0.04204734
0.04101621
0.01166189
0.06619458
0.03760963
-0.01484608
0.02297121
-0.02561066
-0.01657333
-0.01110184
-0.00829446
0.03298181
-0.04055736
0.02942265
-0.06263233
0.07708877
-0.01723142
-0.00303570
0.03189685
0.06226924
0.03690805
-0.04385610
0.04386937
-0.07458156
-0.01223509
-0.00125511
0.00601986
-0.01721181
-0.07773998
-0.04467917
0.00578016
-0.01165541
0.04269575
0.02342169
-0.03686441
0.02317606
0.01423768
0.07134134
-0.04066383
0.04289809
-0.03809208
-0.02549233
0.04576055
-0.02329136
0.02262540
0.04559932
0.02326778
0.02122669
-0.01471259
-0.02368683
0.00138044
-0.00634587
-0.02347475
0.03140291
0.05315480
0.02378228
0.03629567
-0.00635451
0.02930418
0.01514977
-0.01152850
0.00710612
0.03532253
0.02960085
0.01303002
0.08752450
-0.03667833
0.01443164
0.02117596
