-0.03336289
0.04171550
-0.14959848
-0.17296575
-0.41306075
0.01523796
0.08647239
-0.07236382
0.01434284
-0.10019703
0.12688209
-0.11593723
-0.44333604
0.08639811
-0.10298672
0.22829868
0.38681090
0.12543574
0.21551582
0.08809935
0.23391961
0.11519400
-0.10513248
0.23707008
0.23836711
-0.07784762
0.10747354
0.05658729
0.12599342
-0.38776326
-0.00864097
-0.42545885
0.00796238
0.11756188
-0.07259065
-0.30576652
-0.13489801
-0.16145742
0.06003940
-0.01134564
-0.01264056
0.12882048
0.09591096
0.30042255
-0.40163410
-0.43587777
0.08505023
-0.01989760
0.21850923
-0.20876372
0.00660707
0.30648297
0.23910636
-0.03744703
-0.14035805
0.16354331
0.10277458
-0.13170913
-0.17621286
-0.13592480
0.04791564
0.26781011
-0.32118690
-0.43399981
-0.11211065
-0.36246705
-0.18781848
-0.28675517
0.35326466
-0.00416768
0.07661965
0.13355565
0.00616109
-0.21104625
-0.02941988
0.05790062
-0.22693585
-0.07390681
-0.14072753
-0.07516146
-0.47691303
0.21011931
0.04154836
0.00787507
-0.31419608
-0.24689507
-0.48016384
0.04246046
-0.06164792
-0.11516846
-0.41778561
-0.16464253
0.49485466
-0.35075209
0.06865456
-0.02796085
0.46641722
-0.09279922
-0.07429341
-0.09127860
-0.27845562
0.27898502
0.00818915
-0.47148848
-0.22149247
0.33041218
0.15414524
-0.01358165
0.50076115
0.02362678
0.25125593
-0.13420464
-0.33599412
-0.17619310
0.31452894
-0.08745596
0.00945951
-0.43016165
-0.17301068
-0.32458594
-0.15933025
-0.15928024
-0.13466659
0.60358816
-0.27982759
0.30900243
-0.24113441
0.00468314
