0.03826178
0.02570203
0.00535577
0.06881957
0.04428617
0.02516063
0.03546302
0.05864691
0.01298107
0.00179663
-0.03528123
0.05568818
0.00080886
0.00568371
0.00878441
-0.02024342
-0.02728812
-0.07462572
-0.04841778
0.00848006
-0.02515404
0.02276499
0.01263744
-0.04627952
-0.05075966
-0.02458878
0.01643346
0.01131849
-0.04340638
-0.05136206
0.02390464
0.07024141
0.03543608
0.05666202
0.00867997
0.05279183
-0.08542524
0.00126284
-0.04609815
-0.01174400
-0.00340634
-0.03193615
0.00724304
-0.01049099
-0.00119922
0.01101344
-0.03574575
-0.05860992
0.00665708
0.02493034
0.03485809
-0.02418737
-0.02717856
0.02105157
-0.00920088
-0.01454665
-0.06222124
0.05505244
0.02888094
0.04196093
0.04080285
0.01195410
0.06612684
0.03761726
-0.01508730
0.02235685
-0.02580437
-0.01694660
-0.01114429
-0.00870228
0.03328545
-0.04027941
0.02963098
-0.06258698
0.07669160
-0.01707805
-0.00330675
0.03146495
0.06254826
0.03656117
-0.04384584
0.04383038
-0.07479333
-0.01250393
-0.00157682
0.00562565
-0.01792832
-0.07804385
-0.04475137
0.00514120
-0.01204292
0.04305892
0.02364951
-0.03634953
0.02284809
0.01444651
0.07109096
-0.04115121
0.04331242
-0.03819988
-0.02546261
0.04610176
-0.02278288
0.02260060
0.04533562
0.02372974
0.02144659
-0.01447823
-0.02342855
0.00109736
-0.00597722
-0.02371036
0.03108510
0.05335683
0.02358410
0.03649513
-0.00632419
0.02925943
0.01430125
-0.01131310
0.00727311
0.03480897
0.02947576
0.01320691
0.08785290
-0.03648290
0.01397362
0.02155401
