-0.03412973
0.04276326
-0.14805259
-0.17615300
-0.41526327
0.01503848
0.08460148
-0.07139095
0.01497336
-0.09936150
0.12968260
-0.11985265
-0.44963238
0.08675969
-0.10735310
0.22967874
0.38850126
0.12896957
0.21981385
0.08967835
0.23417519
0.11408327
-0.10131155
0.23915392
0.24169594
-0.08587021
0.11208385
0.06561093
0.12730692
-0.38886139
-0.01085931
-0.43376666
0.00569976
0.11285160
-0.07653564
-0.31418881
-0.13455333
-0.16373260
0.06942332
-0.00365245
-0.01334427
0.13066550
0.10331640
0.30414817
-0.40194413
-0.43511197
0.08907317
-0.01749925
0.22301842
-0.21182089
0.00151253
0.31047687
0.24259605
-0.03010218
-0.13897608
0.16190921
0.10560607
-0.13339718
-0.18185779
-0.14061213
0.04742499
0.26660547
-0.32400584
-0.43682781
-0.10944397
-0.36632127
-0.19115594
-0.28140521
0.35418957
-0.00331605
0.07400022
0.13831970
0.00657685
-0.20851965
-0.03435312
0.06003126
-0.22558707
-0.07449625
-0.14877328
-0.08101406
-0.48239776
0.20915759
0.04105506
0.00307966
-0.31798559
-0.24494968
-0.48342201
0.04353857
-0.05739382
-0.11067391
-0.41554111
-0.16838597
0.49723470
-0.34957278
0.06787889
-0.02975926
0.46558645
-0.09277602
-0.07494342
-0.08632889
-0.28220049
0.27922931
0.01570058
-0.47582674
-0.22618809
0.33084044
0.15213667
-0.01262137
0.49832571
0.02351869
0.25404575
-0.12983234
-0.33855835
-0.18287599
0.31576121
-0.08943190
0.00876245
-0.43214518
-0.17555746
-0.32376397
-0.15682529
-0.16454560
-0.13137315
0.60030067
-0.28303045
0.31621116
-0.24614272
0.00758713
