-0.05594626
0.01344519
-0.04915391
0.11041060
0.06091204
0.04292811
-0.02833246
0.08689511
-0.01412249
0.07206128
-0.07030284
-0.06729348
-0.02840786
-0.03976620
-0.03062601
0.10228092
0.10707491
0.05495762
0.08014522
0.02846480
0.06863435
-0.09004076
0.02247056
-0.00565142
0.08313978
-0.08998571
0.03539645
0.01943093
0.05124852
-0.06628889
-0.06016399
-0.02910633
-0.08313116
0.01579227
-0.02608463
0.01954266
0.00018540
-0.01737670
-0.07689816
0.07410808
0.08580129
-0.06867983
-0.14195967
0.03341153
0.06213641
-0.04093449
-0.12581773
-0.19752939
0.06928725
0.06194317
0.07491662
-0.08777090
0.05284575
0.02777428
0.13438132
0.04041902
-0.04182032
0.03562571
-0.06909069
-0.02758519
-0.07318164
0.05234114
0.01587441
-0.10934792
-0.04818536
0.07387250
-0.08326079
0.06406391
0.00545599
-0.01169123
-0.19340543
0.06014457
0.03519861
0.06574127
-0.02913156
0.02814488
0.04970798
0.05485045
0.01478634
0.03812068
-0.03407568
0.04555233
-0.01583803
-0.13576645
-0.12202699
-0.10754465
-0.06309028
-0.00580199
0.00585708
0.02230659
0.02389077
-0.07963876
-0.05634312
-0.02858726
-0.04318396
-0.02495175
-0.03845844
-0.08347272
0.03117695
0.11266116
-0.01690460
0.02615570
0.01203122
-0.08523583
0.00691313
0.03964551
0.07809569
0.07962456
0.00469630
0.07635880
-0.01003883
0.01227949
0.04786637
0.00179120
0.00538540
0.05880503
-0.06610397
0.06928867
-0.07276535
-0.06358166
0.06527632
-0.02757017
0.01619476
0.11002754
0.13288192
-0.08333898
-0.01254304
-0.00701425
