-0.01972770,0.00922826,-0.00764485,-0.14669019,0.00229610,0.01521922,0.05556026,0.17207304,0.02474252,-0.00869953,0.01023328,0.02303683,0.02265071,0.00967074,-0.06471767,0.01087979,0.09990856,0.04983340,0.12845138,0.04526031,0.15380272,0.01385521,0.01851968,-0.03192250,-0.09222843,-0.07126361,-0.02469502,0.03506162,-0.00278278,-0.06837124,0.08747602,0.03035055,0.06278888,-0.19978587,0.14818925,-0.06752726,-0.10255521,0.02703715,-0.01098179,0.02664233,0.12484665,-0.00699136,0.10716746,-0.00772157,-0.09444492,-0.14810391,0.09142897,-0.04297489,-0.02175712,-0.07925957,-0.08609303,0.11406720,0.04374279,0.06381015,-0.04734206,0.00203777,0.17172830,0.02273018,-0.07305544,0.21890756,0.17915489,0.00391091,-0.05714970,-0.03666478,0.11744716,-0.10083210,-0.27831781,0.17701411,-0.09901361,0.07112880,-0.12239102,0.01435020,0.03797911,-0.13194486,0.05726703,-0.11459130,-0.04007914,0.05262514,-0.02000214,0.02624317,-0.04658372,0.03301186,0.02937430,0.01546944,-0.16626415,-0.00187518,0.01930144,-0.00531062,0.06063578,0.09263773,-0.04658747,-0.04180411,-0.00992061,0.11321297,-0.08011098,0.19713770,0.03856021,-0.11838216,0.05165726,-0.03448863,0.17531081,0.04361894,0.01913957,-0.01756165,-0.01728849,-0.15736181,0.06305005,0.04542509,0.10537502,-0.07354517,-0.05557398,-0.01970786,0.15116438,0.10482740,-0.09675977,-0.05495118,-0.24055356,0.00862969,0.04773559,-0.25486025,-0.14211717,-0.12513533,-0.01603484,-0.00497273,-0.03251753,0.03944336,-0.14678885,0.11252938
-0.03767498,-0.00954519,-0.12701580,-0.03005986,0.04243542,-0.07164314,0.12595227,-0.04111768,0.13329235,0.01799542,0.03971013,0.01369734,-0.14606559,-0.05852311,0.00811154,-0.04279803,0.05213166,-0.01823761,-0.00413130,0.05061024,0.12950434,-0.00948599,0.14282377,-0.04299598,-0.02191924,-0.21535917,0.02827619,0.06090658,-0.05885448,0.05632372,-0.02740505,-0.15467192,0.29750013,-0.02185807,0.06803276,-0.12056035,-0.08522546,0.12422087,-0.08803044,0.12526260,-0.00385918,0.04891160,-0.04268378,0.08276678,-0.09552519,0.07291102,0.00409106,-0.03528292,0.01336019,0.09932977,0.11267402,-0.03790764,0.17313249,0.11604040,0.05268962,0.09962798,0.03359037,-0.07460825,0.00766936,-0.03432962,0.01039033,-0.08844586,-0.08344190,0.07570171,-0.13223535,-0.13821295,0.00615810,0.19563091,0.13929380,0.04163621,0.01412068,0.02037839,-0.09303651,-0.05855693,-0.13075088,0.00390699,0.00020144,-0.15017053,-0.00602685,-0.10960589,-0.02017354,-0.00578353,-0.04933704,0.06658377,-0.00723022,0.16457863,-0.12960070,-0.09884809,-0.03644287,-0.16184136,0.00546838,-0.19204310,-0.04188331,-0.01695620,-0.08966840,0.15463306,0.13471133,-0.04479003,0.09142312,0.12638007,-0.11275524,-0.23897961,0.02682966,-0.01283759,0.04219001,-0.00221152,0.07469782,-0.09144836,-0.03351805,0.07728849,-0.04120787,-0.02942974,0.13213314,0.17082974,0.14539900,0.04559156,0.21732451,-0.13313664,-0.09468220,0.08346826,-0.13362288,-0.12519751,0.05575319,0.03433159,0.03698816,0.04873677,0.03833435,-0.11961086
0.04387057,0.00853996,0.02934672,0.02919105,0.03984912,0.13775982,0.04464201,-0.14403979,0.02027278,-0.02039913,0.05831864,-0.10419933,-0.00322322,0.13334323,0.02613988,0.02391368,0.03416216,-0.02491539,0.02998475,-0.10059369,0.02821833,0.03038156,-0.01556585,-0.05597042,0.00844764,-0.03074406,0.05179106,0.06896055,0.01233611,0.09133419,0.00542485,0.04942330,0.08761957,0.14409643,-0.03224105,0.09703138,0.11044770,0.06919228,0.16067165,0.10537473,0.02165348,-0.00799980,-0.00019445,0.03397449,0.17925473,-0.00998929,0.02666672,-0.09356114,-0.01041445,-0.16845420,0.11910664,-0.02646208,-0.00444455,-0.03844783,-0.10687867,-0.06019859,-0.05926795,0.10595614,0.17642698,-0.02076451,0.03087351,-0.07361469,-0.03972134,-0.00846601,-0.04009316,0.09831871,-0.05060138,-0.10353842,-0.00561289,-0.01172055,0.09466426,0.03713636,-0.13811180,-0.06771438,0.05176079,-0.01484568,0.00790130,0.04213756,-0.13959567,-0.12983294,-0.14444973,-0.07201818,0.03474558,0.00695689,-0.03831409,0.11011716,-0.09703821,-0.00178126,-0.11039399,-0.02801322,0.01196226,-0.04872538,0.00401009,0.14207967,-0.03088332,0.02177126,0.22306597,-0.01358968,0.00637495,-0.04786986,0.06659101,0.00602365,-0.03449520,-0.00567001,-0.06854778,0.12145258,-0.06049395,-0.03380034,-0.10790331,-0.03041604,-0.10033452,0.12405112,0.07910530,-0.04818819,-0.04079066,0.09023307,-0.15480244,-0.03799804,-0.07439336,0.07753297,-0.07700107,0.05626029,0.06302388,-0.00632712,-0.06487332,-0.12632820,0.10373078,0.14502339
0.07540271,0.07167644,-0.04373341,0.04446319,-0.02464963,-0.02702605,0.03433746,-0.00630879,-0.08886284,0.02970337,-0.03100285,-0.18351428,-0.08483440,-0.00828215,0.10060629,0.00249552,0.01995267,-0.08001023,0.23930600,0.06186067,-0.04983805,0.01043268,-0.06849085,0.12378060,-0.08246697,0.09150495,-0.08915564,-0.02890898,-0.08423633,0.14921676,-0.07865775,-0.12745346,0.14339471,0.18407467,-0.03887102,0.10673001,0.02477418,-0.03286970,0.06909782,-0.15379421,0.15618330,0.05745881,-0.03904899,0.00496930,-0.00966978,0.03746677,-0.11089662,-0.02619752,-0.00830691,0.05904642,0.06045220,0.00806822,-0.13169752,0.00171094,-0.08072370,-0.07959840,0.07897078,-0.17746910,-0.01413555,-0.00530554,0.02155097,0.12298981,0.12798467,0.15867062,0.00686061,0.05002052,0.13737883,-0.09446722,-0.14687660,0.05239259,-0.04117289,0.05388896,-0.18560882,-0.02167414,0.06064186,-0.06952904,-0.08602092,0.11570079,0.01534295,-0.02245544,-0.00415945,0.09058640,-0.15476041,-0.08394232,0.01544018,-0.02592021,0.14845435,0.04306181,-0.04140268,-0.13689654,0.03205766,0.09383717,0.20271809,0.02010475,-0.04514421,-0.03256075,0.10563207,-0.06456479,-0.01375389,-0.14949973,0.01372134,-0.00856042,-0.13851835,0.24812047,-0.03308701,-0.16266114,-0.12007035,-0.01710176,-0.29553032,0.14147986,0.09673309,0.05466780,-0.12071815,0.05604221,-0.10857878,-0.18575804,0.09110588,-0.13330998,0.18287811,-0.03820581,-0.10713902,-0.24288474,-0.03856006,-0.06828969,0.11582208,0.03008378,-0.15785615,0.22132519
0.16148803,0.11612935,0.02604220,-0.05862213,-0.11652920,0.00419100,-0.01981584,0.07308724,0.14211664,-0.05322000,-0.08877524,-0.12484715,-0.00172739,0.02980029,-0.02577743,-0.05277827,-0.18419118,0.12973934,0.07445914,0.09693184,-0.07975253,-0.06411109,-0.06538817,-0.00762173,-0.11279438,-0.05070578,-0.05575121,-0.03818994,0.10069703,-0.18696302,0.04357366,0.01519637,-0.22650760,0.02560518,0.01945251,-0.12902334,0.07888120,0.05793577,0.30176544,0.12011194,0.08199480,0.10588981,0.00465212,0.01037947,0.10233760,0.11630444,0.02889393,0.14016348,-0.08403636,-0.08443848,0.16178443,0.02512642,-0.05711908,0.04869469,-0.13008283,0.07549433,0.12640555,0.11319506,0.00663663,-0.03074181,0.04644968,-0.00036009,-0.00546164,-0.11303370,-0.02108009,-0.11018251,0.11951077,-0.00024471,0.11455889,0.00938168,0.24640261,0.20749173,-0.06296758,-0.04344289,-0.02499918,-0.02972221,-0.16296963,-0.01201484,0.06252713,0.13175246,-0.14716037,-0.13636774,-0.18985814,-0.02996774,-0.02558368,0.01078918,-0.15355489,-0.09655535,-0.11035933,-0.05043074,-0.07895894,0.00707222,-0.00150046,-0.03502378,-0.07908206,0.08647913,-0.11184683,-0.06683850,0.07657667,-0.07367917,-0.05173403,0.02566556,0.05207674,0.08756845,-0.04189311,-0.03324527,0.05187337,0.09175807,-0.00602466,-0.07063875,-0.03258738,-0.23791210,-0.13184758,0.12432589,-0.05691062,-0.05217481,0.06770308,-0.04469817,0.06424516,0.11395966,-0.05912184,0.03281047,-0.06905571,0.09013443,0.08442559,-0.02141777,0.15384959,0.06416202
0.01468144,-0.03885548,0.10454024,-0.15567368,-0.10277069,0.06959984,-0.22974238,-0.04978382,0.05260772,-0.10967971,-0.10487019,0.08624920,0.06508560,-0.04622236,0.06556038,0.05691907,-0.08362567,0.02246159,-0.02851525,-0.02706794,0.00166821,-0.02639377,0.01514610,-0.05428479,0.11588756,-0.00560877,-0.08260719,-0.00792401,-0.13857418,0.05572900,-0.13997065,-0.03211101,-0.01871732,-0.05413211,-0.01745064,0.14295696,-0.09197856,0.16349776,0.02177168,-0.04491331,-0.01893677,-0.06306279,0.07016493,0.07320736,-0.03452542,-0.01049413,0.04185202,-0.06053010,-0.18223083,-0.10319083,0.02111875,-0.03629167,0.05111359,-0.03327455,0.15976848,0.02564133,0.09792785,-0.11906096,0.00554527,-0.17530769,0.12164617,-0.02929407,0.06648075,-0.16085389,0.10912456,0.04595032,-0.14205727,-0.02258283,-0.08670166,0.09734351,0.03016435,-0.18865333,0.16882959,0.01761971,0.08990241,0.04015821,0.09007756,0.14008802,0.03254292,-0.02449654,-0.01317799,-0.01202241,0.15008715,0.09752847,0.06309652,-0.05845370,0.04472615,-0.04501734,0.14929444,0.03652805,0.05464553,0.09840096,-0.04075110,0.01224966,-0.01877072,0.06166881,-0.09617612,0.18702896,-0.12919074,0.03852203,-0.04317411,-0.02039653,-0.04556850,-0.03109828,0.03877926,0.02029723,0.01554932,-0.08538415,0.05918418,0.02163847,0.04916652,0.11045093,-0.00756800,0.05441716,-0.17049602,0.02582488,-0.01748465,-0.00773688,0.13608015,0.08374853,-0.04741843,-0.08596277,-0.19834757,0.00405082,-0.08188304,0.00254448,-0.05524626,-0.02974285
0.03847257,-0.00633485,0.10672844,0.13190234,0.06819300,0.13344049,-0.24922387,0.03509997,-0.06184972,0.08912920,-0.00735929,-0.13035221,-0.09193621,0.10563627,-0.06261659,0.16255611,0.13017440,-0.09263960,0.06349427,0.10180397,-0.00791108,-0.00700747,0.00931843,-0.03585124,0.08600135,0.01309718,0.02928961,-0.03561630,0.16276385,0.01790207,-0.02461616,-0.00995207,-0.26354095,0.05537938,-0.04548762,-0.05851767,-0.03667165,0.02171147,-0.02171840,0.13453275,-0.04699939,-0.08992334,-0.06379591,0.00646653,0.08361316,0.12592195,0.02378578,-0.01866553,-0.00220884,-0.03477529,0.04114955,0.03793848,-0.09784109,-0.04849103,0.14587767,0.04900376,-0.16457327,-0.14195044,-0.02747059,-0.00647346,-0.05961697,0.14089589,0.05628042,0.00956026,-0.05708174,-0.11017673,-0.01074401,0.04962464,0.02985469,0.01849489,0.16977912,0.03471872,-0.12891921,0.00773320,0.00846571,0.02729251,-0.13213822,-0.10967515,0.00849805,-0.08334066,-0.12226659,-0.11976319,-0.07069979,0.04486884,0.07673816,-0.05014604,-0.01763111,-0.08695464,0.07296069,-0.09098554,0.00436967,-0.06208025,-0.03151245,-0.01217457,0.00117021,-0.00433854,0.10411186,-0.10399888,0.08891680,0.01885330,0.03350085,0.07344911,-0.12553635,-0.06636064,-0.05652601,-0.01041640,-0.00955179,0.09128399,0.12877083,0.11990761,0.03622591,-0.06599016,0.08036093,0.01337779,0.07946429,-0.13020492,0.03233963,-0.01144599,-0.08335461,-0.00668451,-0.09676003,-0.01978691,-0.04581219,-0.06159606,0.02465171,-0.03424016,0.00587645,0.02128874
0.06214895,0.01084458,-0.07162709,0.03310096,-0.04402082,0.00125986,0.12526830,0.01611862,0.11268890,0.06288746,-0.06183376,-0.03828466,-0.04575166,-0.28330466,0.02393274,-0.03060511,-0.01600100,0.03859641,0.05882738,-0.02588348,-0.02718098,0.17490223,0.03580850,-0.00245683,-0.15609805,-0.06089124,-0.09387810,0.03777952,0.01475296,0.03647192,0.05195278,0.09541269,0.04902806,-0.05001996,0.09747659,-0.08603215,-0.05803314,0.01039549,-0.15283319,0.08713211,0.05662961,-0.06042280,-0.07977699,0.03472405,0.21090598,0.04803092,-0.06676610,0.15071268,0.11605595,0.07335985,-0.03057408,0.02204355,-0.02346857,0.00660751,-0.07446757,0.08612899,-0.14613089,-0.07476448,-0.15706152,-0.01538889,0.02363085,0.11354382,0.05663122,-0.07740679,-0.19578113,0.05492776,0.02307473,0.05306829,0.10916667,0.22665924,0.04629281,0.25780872,0.08181288,0.04665482,0.08006632,-0.00252806,-0.09016254,0.00704147,-0.09837884,0.01967709,-0.10711718,-0.00865762,0.11405715,0.09741986,0.01810893,-0.10720179,0.03398639,-0.08211736,-0.01147892,0.09166084,0.09535845,-0.00054225,0.02796200,-0.17193595,0.16726807,-0.10918938,-0.03184524,-0.00246452,0.12750430,-0.12247045,0.00815739,0.04083864,0.07097812,0.02719188,0.02663647,0.01126483,-0.25632361,0.03411829,-0.11430825,0.04680419,-0.05196101,0.01564884,0.11411636,-0.17680925,0.00579443,-0.06384189,-0.06677859,0.14738737,-0.06219624,-0.13175057,-0.09699250,0.17608944,-0.05993703,-0.04388944,0.13077049,-0.07931889,0.03860227,-0.14581117
-0.11565021,0.04114298,-0.02144497,0.15976746,-0.01854201,0.10148144,0.08135667,0.00819012,0.05594881,0.09886414,-0.06021328,0.07411043,-0.00663618,0.11942197,-0.16079588,0.01734500,-0.02867234,-0.01617914,-0.09141834,0.05756880,0.18989678,-0.03865686,0.00115340,-0.01741537,0.08355176,-0.00492921,-0.14056894,0.16266835,0.04333390,-0.14598481,-0.09072831,0.05857615,-0.03804338,0.04842927,-0.06353664,-0.06589998,0.07482204,0.12690654,-0.03926165,0.19093007,-0.00700337,0.06128480,-0.07627217,0.12664007,0.01102887,0.16382359,0.05683471,-0.03253348,0.00864959,0.11821515,-0.06051129,-0.10005668,0.11054149,0.08768533,-0.19451818,-0.05390188,0.01491328,0.12959577,0.16870271,-0.07195452,-0.02609997,-0.11125312,-0.00259145,-0.06915562,0.10193577,0.12325655,0.00125662,0.07657997,-0.08008947,0.06098318,-0.03392067,-0.10907666,-0.00592353,0.07432413,-0.01191628,0.04054987,-0.23951210,-0.16567482,0.04093664,-0.04660748,0.07241090,-0.07802388,-0.07076710,-0.06709379,-0.04233505,-0.08435908,-0.05713446,-0.00868673,0.09348831,-0.12850696,-0.17718463,0.08268439,-0.08346234,-0.12514119,0.04223405,-0.11209963,-0.15988539,-0.13936406,0.06488720,-0.15576167,0.04370037,-0.01466052,-0.14688079,-0.16390672,-0.00337647,0.02587157,-0.12566051,-0.09170000,0.26439580,-0.00424784,0.03697496,0.19182068,0.25535417,-0.06609251,-0.10230405,-0.13341995,-0.16188799,-0.02474508,0.03612376,-0.12128070,-0.05023665,-0.07421471,0.12010939,0.15813248,0.01963989,-0.00514850,0.05913899,0.10378786
0.01872221,0.00578344,0.13409346,-0.12184692,0.02232471,-0.03873819,-0.16512001,0.18280342,-0.04078557,-0.02059704,0.07251588,-0.09372755,0.11894339,-0.16256897,-0.21271537,-0.01351612,0.15547037,0.08225692,-0.07153036,0.22737399,0.04036077,-0.01053548,0.02432035,-0.00667447,-0.07925671,0.29763266,0.02045307,0.05669157,0.07216221,0.36429274,0.11758980,0.10116811,-0.12970862,-0.02910163,0.13648283,-0.00571321,0.07637675,0.03985430,0.16071226,0.23909670,0.00078947,0.04058143,0.02252265,0.11782817,-0.16686825,0.11264272,0.00886971,0.03259480,0.01874310,0.15036076,-0.05682871,-0.03192978,-0.04000020,0.10166374,-0.22280954,-0.15578970,0.02821561,-0.10845611,-0.21551497,-0.02674950,0.07716192,-0.03844190,0.08717027,0.05010004,-0.04192037,0.17328297,-0.11347728,0.09483092,0.01165454,-0.19505456,0.12800862,-0.02111774,-0.12551337,-0.06215054,-0.03174187,-0.07045317,0.01085196,-0.03139771,0.04198967,-0.01586050,0.07664091,-0.00537264,-0.14603840,-0.03658547,0.03454145,0.04003201,-0.03854994,-0.04142126,0.00625350,0.19682851,-0.00469910,0.00015049,-0.01161922,-0.01752578,-0.15724184,-0.10322754,0.12980209,0.15671022,-0.01449030,-0.13883334,0.01395496,-0.25653142,0.00144926,0.17155896,0.00302522,0.14950344,0.01358860,0.03030714,0.04334411,0.02864400,-0.03151312,0.02840668,0.02126496,-0.03082963,0.01154669,0.15869735,-0.14372176,-0.04973572,-0.25218287,0.05491722,0.01119549,-0.01807880,-0.09998654,-0.00614578,-0.05713010,-0.04739578,-0.02685315,-0.18598586
-0.00619806,-0.06186474,-0.20240855,0.04050223,-0.09336074,-0.01755180,-0.18699163,0.09039745,-0.07038795,-0.05407543,0.00175391,0.05372693,-0.10374849,-0.11093538,0.13730152,-0.02784189,-0.08910373,-0.07120027,0.04263582,0.05248915,-0.12328164,0.04455705,-0.13159235,0.04972079,0.19717655,-0.09109141,0.03440754,-0.00268461,-0.09872806,0.03164151,0.09251826,-0.07238076,0.09100400,-0.12895665,-0.03138269,-0.10877567,0.01429122,-0.00388408,-0.02763570,-0.08175035,0.04126641,0.02474559,0.06525373,0.05173898,-0.03836699,0.04585987,-0.04845225,0.17533503,0.04059691,-0.03697490,0.00161772,0.01528136,-0.04706563,0.04811132,-0.02776653,0.12365124,0.23133126,0.05129190,-0.12896603,0.06185669,-0.01937190,0.14784972,-0.05343166,-0.27641216,0.01630730,0.03527426,0.09446381,-0.09537508,-0.00266786,0.00137896,0.15823968,0.05476935,-0.04227180,-0.02546299,-0.06980123,0.00800706,0.08506630,-0.00694126,-0.00694693,0.02119576,0.07314879,-0.00870356,0.13286746,-0.07980565,-0.08179856,-0.00299053,-0.03058131,0.00430002,-0.01198727,-0.15681295,0.05950995,-0.06711864,-0.08531037,0.10477958,-0.04579778,-0.04822953,0.14301066,0.08741590,-0.14388701,0.07944454,0.10843629,-0.10972805,0.15565485,-0.02319910,-0.03459630,-0.05019735,0.01305846,-0.10411370,0.01241378,0.07756399,0.01978873,0.04884651,-0.04538789,-0.00330705,0.07360578,0.04205959,-0.15104869,-0.06000122,0.09327067,-0.12137091,0.17299995,-0.19324671,-0.00239292,-0.01607510,-0.03249057,0.06874301,0.03575970,0.05658033
-0.01192311,-0.24727862,-0.04457588,0.01079691,0.04488705,-0.02986955,0.11008357,0.06693607,-0.04496392,-0.07641477,-0.11264668,-0.07860073,0.01657735,-0.05356159,0.09566256,-0.12642600,-0.02929233,-0.04318818,0.06707763,0.12018502,-0.04408967,-0.07507110,-0.01771575,0.02337717,-0.10572188,0.04157854,-0.09387316,0.04071276,0.06763779,0.20267034,-0.16344346,-0.11538117,-0.01213462,0.13467778,0.03957287,0.10525828,0.10944261,-0.07624196,-0.02072687,0.07862758,0.06199761,0.08548140,0.01877484,0.04517158,0.08861315,0.02555046,-0.08537985,0.00659247,0.03050805,0.02094961,-0.02607243,0.02890965,-0.08776081,0.01316955,-0.01111528,0.10337747,-0.22704650,0.09547984,0.04379747,-0.01724047,0.07966675,-0.13687678,-0.04313264,0.02351532,0.02683618,0.01960653,-0.02013077,-0.08315022,0.18271734,-0.05277225,0.12220214,0.00386052,-0.22805092,-0.05300224,-0.13297011,-0.08452050,-0.00912865,-0.04612452,-0.01439848,-0.01475355,-0.15344647,-0.02291047,0.02712259,0.04243078,-0.07327971,-0.15615140,0.08343460,-0.06091423,0.18204077,0.17924799,-0.00296706,0.10465702,0.13814826,0.04226836,-0.01237540,-0.02020492,0.02337749,-0.11076026,-0.00382608,0.14825633,-0.16949764,-0.15349314,-0.02374232,-0.13958476,0.04903251,0.02528214,-0.02605045,0.06045038,-0.00326452,0.04168296,0.01646166,-0.06215857,0.07079403,0.00790447,0.19380285,0.01608416,-0.06332545,-0.09070424,-0.19245075,-0.00888737,0.11260473,0.02513525,-0.02534465,0.04194572,0.07492509,0.08137584,-0.01469958,0.03463274
0.02524612,-0.17108977,-0.01960529,-0.01661251,0.13500404,0.03107058,-0.00045867,-0.10319673,0.10710318,-0.07642467,0.01005142,-0.08485238,-0.02947009,-0.13327791,-0.05253581,0.00608555,0.11723184,-0.02449644,0.02507196,-0.06283437,-0.02050485,0.08565462,0.00957419,-0.06623723,0.06408256,-0.05550244,0.11268146,0.03113928,0.09268408,0.06528056,0.11396956,-0.09793366,0.02579282,-0.04515886,-0.16932754,0.01872203,-0.00359222,0.09700426,0.07041734,-0.01220229,0.02528904,-0.00711043,0.01267621,-0.04512930,0.07333848,0.00094143,-0.07859681,0.02580924,0.12575126,0.03443614,0.00210582,0.06621733,0.05382799,0.14962737,0.05667243,0.08727879,-0.03700747,-0.10428102,0.07754892,-0.03458952,-0.07341254,-0.05858363,0.00753670,-0.01825373,0.03096334,-0.11596437,0.07207660,0.06139319,-0.20031896,0.06290662,0.08512123,0.16665424,-0.10088437,-0.01422716,-0.06185374,0.05696468,-0.21938926,-0.08552727,-0.03675750,-0.03785280,0.06719696,-0.05281038,-0.09306870,0.08823757,0.04025129,0.01872602,-0.20214918,-0.13694997,0.07183362,0.15796714,-0.10952590,0.11873718,-0.02059947,0.23891331,0.06117915,-0.00573885,0.10140583,0.06644469,-0.08570772,-0.12636933,-0.01913376,-0.15914632,0.06490184,-0.01696703,0.05539385,-0.06648234,-0.00135263,-0.04312715,-0.19383678,-0.09060199,-0.07438831,-0.01324057,-0.01126702,0.04116526,0.01626112,-0.14785074,0.15869974,0.03876048,-0.12653898,0.00834714,-0.04667511,0.06828436,-0.08342087,0.10920918,-0.07470077,0.02812983,0.02661672,0.08101691
0.00036031,0.04923017,0.11856410,-0.06079926,0.02970225,-0.09144506,-0.12673736,0.11952277,0.08560380,0.12841165,0.03563504,-0.05544650,0.18496127,0.12961711,0.01261916,-0.11915124,-0.18100357,0.00661000,0.02484288,0.04260232,-0.03658666,0.07363253,-0.02891316,0.06841885,-0.12548870,-0.01777822,0.16147253,0.08081662,0.11119802,-0.11561894,-0.18611552,0.05681783,-0.03289793,-0.04722814,0.09482822,-0.00625647,-0.07900286,0.17920689,-0.16029477,-0.07559540,-0.09006024,-0.04210654,0.04008401,-0.08181675,-0.08473647,0.09036174,0.06389631,0.04809076,0.13957420,-0.03559981,0.05164618,-0.06401399,0.04224592,0.21527627,-0.11002092,-0.02835529,-0.04166333,-0.15464167,-0.09579809,-0.10075285,-0.16389661,0.00090415,-0.03258000,0.03442715,-0.02385216,-0.16683981,0.10317315,-0.11991277,0.03108297,0.16322114,0.14948553,0.28901464,0.03304906,-0.11503771,-0.08685903,-0.11669417,0.00738250,-0.09303445,-0.02892044,-0.08623200,-0.03625500,-0.00171781,0.09641068,0.06599555,0.10547090,0.13323499,0.00963826,0.00778704,-0.23058285,-0.17235923,0.09789106,-0.01796614,0.00505866,0.21444006,0.09551699,0.01988583,-0.01822453,-0.10928567,-0.20371054,-0.00379677,0.04193154,-0.01373750,-0.04658413,-0.04508828,0.06680433,-0.02147576,0.12040334,0.12618710,-0.02704821,0.08706134,-0.00191928,-0.04833619,0.12237553,0.03680459,0.06369137,0.00511113,-0.16356920,0.14687730,-0.14178579,0.11526059,0.00238529,-0.23440446,-0.12095166,0.18253751,-0.05926159,0.02452498,-0.04572611,-0.08145796
0.00455284,-0.00210136,0.03797434,0.01955768,0.00137294,0.00038521,0.03585598,-0.04164013,0.01297994,-0.03823191,-0.03809524,0.06377970,0.15949495,-0.03282821,-0.08416320,0.24181651,0.05936749,-0.03672783,-0.11943448,0.05640157,0.04983396,-0.04845881,-0.24944480,-0.17175253,-0.05082814,0.04826154,-0.11587368,0.26331994,0.07442064,-0.01850071,0.05408503,0.05232133,0.08665107,0.09501548,0.05550219,0.06057735,0.26229218,-0.02993703,0.02780662,0.08786264,0.04554830,-0.09441073,-0.05334171,-0.14951892,0.23575085,0.05337475,-0.05723418,-0.10300729,-0.05931292,0.18759838,-0.07748752,-0.08619598,-0.10081776,-0.14007491,-0.20328560,0.08030742,0.00169032,-0.02352899,0.09783285,-0.00889343,-0.04680687,0.09194781,0.04868744,0.19977669,0.05790122,-0.04695657,-0.03388435,0.10861228,-0.09166782,-0.02238580,-0.10869309,0.01552611,-0.32390222,0.02335828,-0.03838246,0.02509315,0.03301879,-0.12141400,0.03799684,-0.07148613,0.09379347,-0.12922274,0.01281270,0.09987576,0.03731951,0.06415586,0.03939489,-0.03782752,0.03085697,0.04915686,0.02220049,-0.10152867,0.18356450,-0.00597471,-0.12274628,0.06583780,0.10130857,0.10878492,-0.03448322,0.04453398,-0.06321351,0.21706642,0.12327249,-0.12645099,-0.15316263,0.06149219,0.04544477,-0.14647761,-0.02633820,0.00438764,0.00486891,0.01238598,-0.11010887,-0.08486218,-0.07565639,0.06783359,0.06738134,0.05666952,-0.05993066,-0.03842873,0.04153607,-0.10046051,0.03442993,0.05312022,0.06609218,-0.06244197,0.04848423,0.01960545
0.03545070,-0.14890593,0.05887706,0.15446679,-0.00054471,0.00969449,0.05310022,-0.04673706,-0.06525815,0.21007411,-0.05220516,0.05635581,-0.07769503,0.02058918,0.01765729,0.14596963,-0.13832974,-0.06051496,-0.03277418,0.00073328,0.04464201,0.01646909,-0.15841079,-0.08405210,0.01189275,-0.11604212,0.10505943,0.13334492,0.06170894,-0.01382704,0.16449100,-0.05276525,-0.17899175,-0.10813406,-0.02033372,-0.05775266,0.08313375,-0.11689732,0.01881582,-0.08244475,0.05728004,-0.00831826,-0.11649778,0.03601302,-0.21283649,0.10926101,-0.05674352,0.00148101,0.12827063,0.04304790,0.19770691,-0.02394056,-0.09541436,0.07229285,-0.06882848,0.00756631,0.02454074,0.06905507,-0.08283245,-0.04921300,0.05170712,-0.04172103,-0.04463649,-0.08526626,0.02495640,-0.03495692,0.05963479,0.05008879,0.14117146,0.03192284,0.20259145,0.10398827,-0.18548580,0.02517912,0.06408922,-0.06377464,-0.16485372,-0.03945091,0.08849581,-0.10171146,0.03175901,0.04150230,0.00366397,0.14558947,0.11222501,-0.06334064,-0.10400400,-0.02083390,-0.18120292,0.25633609,0.02671272,-0.08232379,0.05087189,0.06518470,-0.02198594,-0.00146907,-0.04396571,0.01952240,0.14896682,-0.09306055,-0.06744438,0.03810449,-0.00948744,0.02656280,0.11041860,0.06763230,0.04616266,-0.15966785,-0.04534687,0.01899874,-0.04205595,0.02290084,0.10768072,-0.00011512,-0.03667665,0.01778337,0.02048434,0.00508595,-0.07543422,-0.07009756,-0.11364856,0.13777696,-0.08892307,-0.12182784,0.08022961,0.05041295,-0.14669980,-0.06296809
0.02974943,-0.00915238,-0.03343619,0.01959720,0.02960778,-0.04738063,0.16536745,0.00907449,0.04524446,0.14345568,-0.22675821,0.06006261,0.07541326,0.06558923,-0.04998550,0.12447934,-0.00623991,0.07792013,-0.06178855,-0.05256619,-0.03985209,0.05388460,-0.25414386,0.01270243,-0.01981429,-0.04298685,-0.07825647,-0.14726193,-0.06881171,0.18829413,-0.06696361,-0.10224404,-0.09468725,0.00113523,0.03632225,0.13717170,-0.12749608,0.02562118,0.06567484,-0.18115638,0.13484550,0.10591047,-0.08448449,0.04254405,0.11328264,-0.06371514,0.05177864,0.08755881,-0.07102801,-0.01666372,0.04135402,0.11424691,0.04737562,0.06273689,-0.07554805,0.09419116,0.01623949,-0.04384248,0.05320882,-0.16455761,0.07388835,-0.09781399,-0.05999659,0.12535757,-0.04012692,0.03551180,-0.02952885,0.06555392,-0.08341789,0.03953408,-0.12549703,0.09658513,-0.10289977,-0.00435196,0.04697033,-0.03999925,-0.18443632,-0.13541812,0.00071202,0.02145978,0.00227952,-0.08713347,-0.06411936,-0.00818344,0.02749518,0.03513488,-0.12634541,-0.14268006,-0.18389846,-0.00443593,-0.07551593,0.08587898,-0.10762004,0.07084617,-0.00367828,-0.01594031,0.16816971,-0.06731031,0.02352095,-0.00569556,-0.02420849,-0.12017315,-0.02213031,0.03211363,0.10878681,0.05036891,0.13604131,0.04854712,0.12248640,-0.07207312,-0.03117860,0.00248006,-0.15900901,-0.01867933,0.22793192,0.09319423,0.04432485,0.06019165,0.00802386,0.01163419,0.08559781,0.07989650,-0.08460057,-0.01111145,0.10057113,0.00732231,0.00016860,-0.04915962
-0.13542385,0.06199623,0.08245557,-0.10976678,-0.04969388,0.07099506,0.01714499,-0.07259110,-0.06594790,0.00762845,0.05781054,0.08919071,0.00177281,0.20825127,0.23071787,-0.05356349,-0.12075159,-0.07789086,0.23738843,0.08637937,0.13040553,-0.03038741,0.21599543,0.03057228,-0.07883953,0.06805772,0.07203285,0.02472393,-0.10592901,-0.15391301,0.02053242,0.01040445,0.01940879,0.03280687,-0.04519648,-0.03398028,-0.02206605,0.07059040,0.03619172,-0.05274066,-0.03006297,0.06695855,0.01939904,0.07803425,0.05777173,-0.04733240,-0.10481363,0.03979929,-0.02868155,-0.06759026,0.02872025,-0.07330873,0.00577809,0.13587552,-0.09132113,-0.06024637,-0.12763917,-0.12645017,0.08431515,-0.09505274,0.11681383,0.14649035,0.00487814,-0.27256909,0.05023604,-0.10246627,-0.06244507,0.16192740,-0.01319662,0.00020323,-0.06337112,0.03036581,-0.09326986,-0.04076757,-0.03756431,-0.07122675,-0.24083056,-0.10718358,-0.02015281,0.01597123,0.11291001,-0.01963606,0.02759075,-0.03833221,-0.01258671,-0.01928557,-0.03817965,-0.03057041,-0.21715517,-0.09737051,-0.01721571,0.08318610,0.07437016,-0.04345041,-0.28460035,-0.06714617,0.09976873,0.14805984,0.04738278,-0.11995047,0.04080836,0.11890218,0.13325483,-0.03197723,0.00649983,0.19690825,-0.05496252,-0.04090345,0.18015043,0.21725795,0.18708232,-0.06305026,-0.03766596,0.03807556,0.05024784,0.00018714,0.07346418,0.03708244,-0.04316197,-0.15957886,0.12855960,0.03621491,-0.10370421,-0.06473553,-0.02652532,-0.03289792,0.05136759,-0.05342608
-0.01929989,-0.01403894,-0.04663369,-0.01021243,-0.21337397,-0.03116216,-0.24638519,0.06594298,0.08773111,0.02581053,0.09465983,-0.20787032,-0.11785220,-0.07887977,-0.07430445,-0.05841412,0.04671749,0.00293265,0.11300560,0.01095994,0.05739319,-0.27168876,-0.16946712,-0.04978643,0.01868692,0.00539095,0.10167359,0.07582894,-0.05435450,0.06362790,-0.07167119,-0.09426808,-0.00988915,0.11678679,0.02179600,0.03880665,-0.07619511,0.10063393,-0.03858309,-0.08117736,-0.01397392,-0.12124570,0.00986431,0.00525245,-0.03547373,0.12389846,-0.09451260,-0.08048458,-0.21117973,0.03789184,0.04675331,0.14563312,0.19484894,0.05167823,0.04259209,0.10316077,-0.05692760,0.09080877,0.09444849,-0.06122123,0.00820691,0.00763184,-0.11934925,-0.04227778,-0.11770436,-0.18398291,0.16421494,0.18420336,-0.01781380,-0.06221532,-0.17000638,-0.01305530,0.15343040,0.04253498,-0.03811860,-0.05081031,0.05297717,0.14767815,-0.13932060,-0.02917980,0.04040398,0.06487039,0.07308885,0.02063064,0.07684614,-0.00232433,0.15051407,0.14640099,-0.12356745,0.14420383,0.06132968,0.17905916,0.00660973,0.02484700,-0.01476086,0.06278066,-0.14251468,0.06986634,-0.00009201,0.00348726,-0.00765387,0.10673521,-0.24522129,0.03849493,0.08298533,0.00370106,-0.03355015,0.10402200,0.06226192,-0.00329632,-0.00587275,0.03020445,-0.16053963,0.07741594,0.05490768,0.02576710,-0.08591799,0.06130698,0.05961290,-0.01807365,-0.09943332,-0.14833631,0.14851202,-0.08282157,-0.13737012,0.07181046,-0.09868632,0.13614112
0.08611472,0.02609712,0.01885260,0.14513752,-0.05896526,0.11413313,-0.00503437,-0.01838489,-0.05151426,-0.18333995,-0.08791077,0.02123163,0.22722542,0.02080382,0.00705001,-0.17338201,0.09694424,0.00271020,0.01765711,0.02336252,-0.09055812,-0.14042698,0.13333677,0.11587720,0.04550888,0.06363195,-0.14696807,-0.12377639,-0.04987970,-0.05410409,-0.03229357,0.00241882,0.17439504,-0.09760416,0.01707004,-0.21304728,-0.17721979,0.18704018,-0.06709365,0.04793949,-0.07002950,-0.22079326,0.00885127,-0.00890038,-0.01556157,0.15069498,-0.01130800,-0.08474990,-0.13453928,-0.01036547,-0.00137105,-0.03068233,0.04007097,-0.06174439,0.05351642,0.08118189,-0.00044956,0.02914873,-0.17138493,-0.19386736,-0.02219318,-0.21561283,-0.05119689,0.01186693,-0.09071314,0.05551190,0.09173313,0.06202843,0.27438504,0.00281670,0.00740032,-0.05496112,0.05259230,-0.00773268,0.07492623,0.08902354,-0.04707139,-0.08940471,0.07181545,0.03092879,-0.02247650,-0.12819342,0.18706080,0.01489174,-0.01365140,-0.02462626,0.02014501,0.16622902,-0.14572367,0.05635739,0.00590852,-0.09411248,-0.05588241,0.15329026,-0.20168638,-0.07631110,0.08682805,0.14305167,-0.06347817,-0.04021272,0.03796646,0.06447591,0.23987107,0.00264873,0.00617197,-0.05136886,0.20441745,0.04982198,-0.11985905,-0.08356970,0.04559789,0.00260294,-0.00237227,-0.05319865,-0.15622634,-0.06808949,0.03662855,-0.16794538,0.15540285,0.14745022,0.11288442,0.00814541,0.08906327,-0.10569259,-0.04528265,-0.03236639,0.08695824,0.27532902
0.02971265,0.28018600,-0.06298798,-0.04529276,-0.12745240,-0.15924507,-0.08055019,0.00920785,-0.01490603,-0.07007315,0.09402522,0.21447632,-0.06809109,0.00986455,-0.05902851,-0.07750041,0.01007712,0.08662843,0.15643142,0.02236733,0.02493131,-0.09248252,-0.10712016,-0.02328110,0.00154905,0.00940991,-0.00012337,-0.07024735,-0.09978732,-0.07206420,-0.02342041,-0.14261462,-0.04381113,-0.10632674,0.05535507,-0.06524337,-0.18310279,-0.06218417,-0.03032305,0.05663670,-0.02540645,0.02406554,-0.03515924,-0.05166747,0.04087121,-0.04936133,-0.16528627,-0.08660979,0.10856250,0.09793492,-0.04983444,-0.05136010,-0.05982869,0.04878029,0.11380203,-0.09711222,0.09424815,0.04884637,-0.12020819,0.01897645,0.03763207,-0.08877309,-0.01397682,-0.10938736,0.08714321,-0.09989975,0.05357572,0.01653260,-0.00178841,0.23237059,0.04684503,-0.18565631,-0.04224221,0.03768189,0.09566639,-0.07688599,0.04649896,-0.03653731,-0.01063870,-0.06809747,0.11465047,0.09065628,-0.08835970,-0.02933902,0.02330167,-0.01350847,-0.02944078,0.04097906,-0.00510979,0.02277543,0.05118527,0.06834837,0.04443803,0.12286805,-0.00395568,0.08681354,-0.16174819,-0.00527699,0.01673976,0.12181746,0.06293719,-0.02399070,0.07075269,-0.01615071,-0.05978768,-0.03059637,0.03050143,-0.03287806,-0.01209023,0.04956483,0.02722365,0.05093975,-0.05529305,0.15075071,-0.13041796,0.19943529,0.00795646,-0.02826514,0.10923500,0.05627079,0.13798757,-0.04246346,0.03610623,-0.01371532,-0.14177448,0.04817936,0.05060572,-0.03565253
0.06636550,0.06683724,-0.04937785,-0.03273922,0.04836878,-0.08335143,0.18850711,0.10277518,0.07548691,0.01179748,-0.05047631,0.14617971,0.11214408,0.10186098,0.08192475,0.08232982,0.01201836,-0.24991025,-0.01377390,-0.00835165,-0.02367150,0.04360441,-0.10745666,0.00997621,0.04759349,0.08860907,-0.16506276,-0.02671336,0.00241885,0.10278155,0.18296750,-0.14925461,0.03036283,-0.04800960,0.01558628,-0.13488843,0.07520054,0.11918132,-0.08684813,0.06229810,-0.12968631,0.06378732,-0.12026142,0.16167298,-0.02102334,-0.06008263,-0.01396398,0.12516050,-0.14264806,-0.06674385,-0.04824008,-0.12667200,-0.09702432,0.17398454,0.12255792,0.03443785,0.07605509,0.13776781,-0.01211493,0.02140754,0.05697663,-0.07272602,-0.17021975,0.00120445,0.16235234,-0.05406331,-0.10176182,0.00950949,-0.15268087,-0.06016970,-0.16871729,-0.07833291,0.14580178,-0.00574871,0.00186719,0.08328691,-0.09429176,-0.01828123,0.05641516,-0.05241490,-0.09778146,-0.00204361,-0.11365172,-0.05805204,0.08949038,-0.12064355,0.32818207,0.02678035,-0.06060658,-0.11844229,0.20801356,0.13723992,-0.12709676,0.12529512,0.08443385,0.15110625,-0.13433419,-0.05563314,0.09276923,-0.07933377,-0.04759440,-0.15378956,-0.18602364,-0.00821330,0.06624054,-0.01489957,0.02357902,-0.21277463,0.00573825,-0.09669174,-0.03062217,-0.13721685,0.10088903,-0.12396324,0.32318723,0.06559010,0.03324886,0.07756726,0.02711489,0.15875016,-0.07773176,0.06092326,0.09258518,-0.04918681,-0.07679678,-0.06476136,-0.09952900,-0.05942827
0.03094761,-0.00033707,0.06778410,-0.22866635,-0.02570342,-0.13161451,0.10600604,-0.08753500,0.05806459,0.10859622,-0.00239479,0.02516969,-0.09973460,0.09209062,-0.11065100,-0.07255561,-0.09641874,-0.02003816,-0.08627631,0.08793615,-0.00784918,0.11085702,-0.19986284,-0.05520999,-0.07711715,0.00886313,-0.05000053,-0.16715440,0.01709674,-0.08205260,0.15653574,-0.14614628,-0.10841893,0.02361993,-0.01102108,0.02698692,-0.14156702,-0.01775615,-0.09366404,0.10421792,0.01806801,-0.21512863,0.18023293,0.05552788,0.00722554,-0.12484972,0.13453393,-0.15484771,-0.24129346,-0.03779249,0.02903663,-0.03305969,-0.00653400,0.16632442,-0.02317199,0.00836425,-0.15766528,0.13555630,0.03943574,-0.00823885,-0.09368683,0.11166251,-0.00564557,0.01054057,0.14499840,0.00803506,-0.14891402,-0.03847265,-0.02024373,0.02168834,0.10269653,-0.09169289,0.14066102,-0.03267704,0.08988799,0.08625057,0.06901410,0.04234647,0.07155836,0.16976683,0.10387743,-0.00389769,0.19378126,-0.01358777,-0.12956265,-0.20333993,0.12621960,-0.01847578,-0.04167467,-0.14455700,0.10992937,-0.04791263,-0.04765021,-0.04783525,-0.03632138,-0.05245047,0.06007460,-0.01681341,-0.15858665,-0.02263793,-0.06874312,-0.10164673,0.14389609,0.04196380,-0.02388560,-0.07318700,0.02505899,-0.21644506,-0.07656393,0.10300869,0.14411022,0.25271145,0.02290875,0.06583653,0.00643296,-0.01957284,0.04315308,-0.05469633,0.00529483,-0.06349089,0.03916111,0.17313054,0.02208181,0.05890768,-0.22311357,0.13043736,0.00767854,0.11653797
0.01167040,0.05230825,0.01621734,0.07436264,0.02393857,0.05339034,0.11518843,-0.12499421,-0.05706620,0.02504169,-0.04697235,0.02104247,-0.08055280,0.00543541,-0.04469022,0.22231346,-0.00963939,0.01054240,0.03294142,-0.03505310,0.06296448,0.15502672,0.02948464,-0.05039641,-0.01312366,-0.02635487,0.16244535,0.17425333,-0.01675218,0.10529057,0.13816687,-0.04959730,-0.03152071,-0.03706872,-0.05700003,0.02306251,0.05517980,0.11984296,-0.02347244,0.05523266,0.02362236,0.01262844,0.00085090,0.08298434,-0.03671538,-0.05082973,0.11976148,0.12034258,0.06106833,-0.00424124,-0.00516840,-0.00533984,0.00856606,0.01252698,-0.04911009,0.06123212,-0.13993160,-0.13409340,-0.09928983,-0.04853843,-0.08888718,-0.08407585,-0.03417495,0.02255628,-0.01638639,0.05104931,-0.06676053,-0.09871372,-0.01709254,-0.00225401,0.12381837,-0.03510969,-0.04173408,-0.03066428,-0.12737802,-0.20430462,0.07317960,-0.13331859,0.11340949,0.03071846,0.02414947,-0.16173077,0.04262671,-0.00117709,0.02166268,0.02925277,-0.00082329,-0.10575774,-0.00632988,0.05260893,-0.00302239,0.17433658,0.25717688,-0.07605994,0.03935619,-0.01687368,0.23282616,-0.05318205,0.03553587,-0.22705416,-0.01739257,-0.02272622,-0.07364750,-0.02836982,-0.05896869,0.07997596,-0.07080121,0.09800247,0.04091708,-0.04686533,0.03700189,-0.12000030,-0.00055000,-0.09647452,0.05143480,0.07324157,0.00621050,-0.02789479,-0.07494180,-0.03909785,-0.09842332,0.00713407,0.03202118,-0.12663122,0.10325586,-0.00109883,-0.07617619,-0.02114999
-0.04967223,0.09964602,-0.09621354,-0.03091841,0.02223995,0.09513502,0.11975860,0.06229365,0.03239261,-0.06414107,0.13180228,-0.04765912,-0.19725087,-0.00763777,-0.12087340,0.05287155,-0.19986153,0.03632668,-0.02882128,-0.07979573,-0.05767064,0.11556496,-0.05051735,0.05230542,0.15021455,-0.07942687,-0.00281686,-0.03965001,0.26434484,-0.10981732,0.09750499,-0.03313220,0.15471716,-0.06189159,-0.08746149,0.00033332,-0.03254282,-0.03048243,-0.01612999,-0.12547173,0.03196589,0.02782968,-0.00511165,-0.01473477,0.06994604,-0.15013899,-0.02165277,-0.16463345,-0.02767025,0.10323814,0.03307367,-0.08459746,0.18296649,0.12917051,0.13033840,-0.01053277,-0.06485487,0.02743089,-0.05601964,-0.10333155,0.03463319,0.04858297,-0.00793139,0.08331211,0.01675662,0.06802377,-0.00427178,0.00253603,0.02261651,-0.11900142,0.02836911,-0.08577995,-0.11167222,0.08810685,0.03304533,-0.13332513,0.14897797,0.18660150,0.01391605,0.07701068,-0.14996855,0.09452312,-0.09153830,0.05738883,-0.00616253,-0.16424581,0.04669127,0.10058911,0.14736915,-0.04264843,0.11275279,-0.14113750,-0.01312783,0.16976205,0.05581469,-0.11572333,-0.15964039,0.18738894,0.16595668,-0.04339581,0.12919383,-0.09619717,0.08210799,0.22002314,-0.04603154,0.03797491,0.07958270,-0.06491230,0.10801552,-0.03392673,-0.05331429,-0.08326481,-0.27477190,0.01747578,-0.18292323,-0.01436561,-0.00969633,-0.02308874,-0.03475901,-0.07882594,0.13960069,-0.01989784,0.13042493,0.01413880,-0.03246936,-0.12339931,-0.11702116,0.00382267
-0.14195684,0.11041237,-0.02477181,0.11403503,-0.18024893,0.16998015,-0.11431301,-0.07568450,-0.04672515,-0.17799139,-0.00726037,-0.06681284,0.03481164,0.04751308,-0.01745364,-0.12307815,-0.00948921,0.12337782,-0.19045126,0.21436277,0.21338131,-0.00448339,0.05816736,0.07081130,0.02275951,-0.04381096,-0.04747292,0.03175983,-0.07353515,0.04298726,-0.26455736,-0.07815602,0.02194611,0.02695250,0.14166591,0.19086929,0.10984220,-0.05612637,-0.23721725,-0.01398850,0.18513767,-0.09804092,-0.04756024,-0.06581249,-0.12274356,-0.03393056,0.06937225,-0.05852614,-0.02851966,-0.17227277,-0.09472463,-0.01030284,-0.00469250,-0.00403263,0.21999046,0.07195354,-0.00456369,0.00546291,-0.18946604,0.08896285,-0.00646180,0.00283513,-0.09399383,-0.04687985,-0.05206329,-0.01281760,-0.15601291,-0.01481088,0.08344443,-0.11979083,-0.06268471,0.13614465,0.10151818,0.06431048,-0.07176746,0.03477881,-0.05356930,0.01738910,0.03984533,0.00741031,-0.06085609,0.03527731,-0.04498118,-0.06523776,-0.02630902,0.02073500,0.25701123,0.00814847,-0.02544041,0.01008726,-0.05539373,0.08093603,-0.20488152,0.01212522,-0.00934394,0.07396548,0.14960830,0.01210083,-0.08759497,-0.05639501,0.10138156,-0.12347385,0.09452422,0.10863023,0.07876270,0.00363600,0.06685603,0.00924011,-0.00035986,0.10331870,-0.02657785,0.09592190,-0.14574212,-0.02562284,-0.00767542,-0.01410852,0.13814814,-0.02036911,0.04587660,-0.06564657,0.05508614,0.06832167,0.01446859,0.01014779,-0.06624094,0.03937246,-0.09835205,-0.06777387
0.02747897,-0.06661382,0.05216353,0.00141023,-0.09338387,0.00013075,-0.05888749,-0.00484222,-0.02876825,0.12793268,0.00501366,0.00560448,0.07835991,-0.01164852,-0.01501358,-0.15673147,0.11350331,-0.04184033,-0.10126667,-0.00600592,-0.08505367,0.07683375,0.02724654,-0.04068000,-0.06874196,-0.07119977,0.15265933,-0.01566781,0.05549667,-0.01224947,0.14396727,0.15276396,0.00931357,-0.00960560,0.01321095,0.09424227,0.04802657,0.14304252,0.00910191,-0.04552579,-0.02301923,0.09683505,-0.04005180,0.02010454,0.01284256,-0.03458597,-0.02788218,0.11899378,-0.10938790,0.13065077,0.13544723,-0.04723909,-0.07467958,0.04883409,0.16663799,-0.06999087,0.05295649,-0.16841197,0.28418228,0.08324502,-0.17124850,0.15482584,-0.01752835,0.07410536,-0.06418058,-0.07061916,-0.26374349,0.07439536,0.04196384,-0.09414373,0.13342206,-0.12188337,0.03226655,-0.00205784,-0.19705407,-0.12196146,0.02923813,-0.15653680,-0.08496694,-0.03354424,-0.01714559,0.14632235,-0.20601447,0.03288285,-0.05407294,-0.06908238,-0.09390230,-0.06408012,-0.01548724,-0.08417758,0.04543490,0.09176338,0.03785230,0.11828043,0.14474526,0.04248032,0.10292338,0.11831895,0.08646695,-0.08160609,0.20776626,0.00769199,0.00266491,0.06003948,0.09024146,-0.03784341,-0.09297097,0.09743737,-0.17187825,-0.08666946,0.01493052,0.13542891,0.06891465,-0.07756114,0.07370731,-0.17813982,-0.03241752,-0.06651992,-0.07835092,0.02689995,0.17215063,0.01808245,0.15058988,-0.10130112,0.09067177,0.06211605,-0.11671472,-0.08164077
0.01219170,-0.07139748,0.09503061,0.19254823,-0.02659916,0.04192282,0.01975603,-0.12383060,0.00984677,0.02551870,0.00811172,0.13938761,0.04042339,-0.05098958,-0.09585463,-0.02442365,0.06200432,0.04363074,0.15115634,0.05176203,0.01897576,0.14580417,0.07929324,-0.05037029,0.07881163,-0.03425066,0.01324755,-0.14109306,0.03862300,0.00031876,0.04928592,-0.04863541,0.01516397,0.02608377,-0.03939742,0.00336766,-0.01286983,-0.02944073,0.09307939,-0.08758510,-0.10207282,0.21162388,-0.08427853,-0.01395141,0.06899714,0.11066207,-0.03235873,-0.08221786,0.04207361,0.18247397,-0.05442467,-0.05927398,-0.12685847,0.12245131,-0.16710450,0.11495578,-0.04220686,0.05274347,0.14843175,0.01840979,0.00222454,-0.05844232,0.02922340,0.02055243,-0.14880824,0.15443739,-0.06800583,-0.00471485,0.03314847,-0.11418030,0.05307957,0.14061426,-0.13543177,0.09197860,0.00393075,-0.02618662,0.05124911,-0.17299534,0.03424527,-0.07201354,-0.11826688,-0.20992735,0.00391311,0.03859104,-0.01824881,-0.01038002,-0.12940964,-0.09230334,-0.11897907,0.02379206,0.14039302,0.08186173,0.05379371,-0.09840225,-0.03232148,0.07210389,0.08783200,-0.07774729,-0.10961054,-0.03355234,0.03857477,0.02143004,0.06577870,0.10712481,-0.11153737,0.10806272,-0.08899389,0.07259785,-0.03415107,0.00363111,-0.08018829,0.08520045,-0.02327707,0.09517411,-0.00443815,0.02102829,-0.10325683,-0.04131754,-0.06736796,-0.06240702,-0.06368198,0.08448432,-0.05023297,0.00097287,-0.00220944,-0.00400080,-0.15084031,0.02286687
0.06354941,-0.11375950,0.05878751,-0.02441810,-0.07185832,0.03206920,-0.16728128,0.13377994,0.01797923,-0.06317092,0.02082120,0.09621605,-0.16366263,-0.02873951,-0.04197983,-0.02966982,0.07013484,-0.04144899,-0.01276758,-0.19911718,-0.09121778,-0.16647714,0.19420499,-0.01155414,-0.08224846,-0.08718134,-0.06527398,0.04987909,0.07335170,-0.25689569,-0.06983929,-0.06349754,-0.00138690,-0.04045805,-0.00317823,0.01611651,-0.10856081,-0.13153987,-0.03386086,-0.09311446,0.07424552,0.09648976,-0.04203681,-0.11671478,-0.06557576,-0.02903434,0.06462324,-0.12263032,0.04716805,-0.09441459,-0.13575266,-0.12518348,0.10350621,-0.06601444,-0.03230018,0.01091696,0.13222924,0.18331140,-0.08238941,0.06913614,0.07337645,0.04499019,0.10766402,-0.02144121,-0.04774494,0.06577322,-0.08316387,-0.06742969,-0.11497486,0.01541875,0.12012510,0.08196080,0.05912027,0.01542366,0.23205630,-0.04269503,-0.02761702,0.04544143,0.12179001,-0.05067355,0.12687050,0.09862604,-0.01225780,-0.04702633,-0.02237673,0.02799308,-0.02628305,0.05495585,-0.11126921,-0.03573789,0.16465186,0.16265212,0.09505301,-0.21186915,0.01072664,0.02724824,-0.01983477,0.03458601,0.14871202,0.10677715,0.07038163,-0.22840708,-0.09743496,0.06358806,0.08922563,0.08895473,0.06175518,0.04264199,-0.06202720,-0.13044845,0.01861647,0.07259457,0.03924594,-0.01414396,0.19591638,-0.03544322,0.03608748,0.03551556,0.01822361,-0.04761590,0.13228120,-0.03087759,0.00619331,-0.06744508,-0.07686217,-0.09007667,0.11492392,0.09956156
0.10764583,0.11502241,-0.01658858,0.04283108,-0.07449480,-0.09699774,0.03313891,0.03465239,-0.07790139,0.13854246,0.03999295,0.08952232,0.19097550,-0.02575351,-0.07301632,0.06635661,-0.00924070,-0.06163388,-0.02361660,-0.01632350,0.00363607,0.04106482,0.06096107,0.03077628,0.01467119,0.12509239,-0.06817668,-0.07350208,0.00768001,-0.18495362,0.01442496,0.14492939,0.15497154,-0.09756817,-0.10215688,0.08512034,0.01194185,0.02701684,0.11025637,0.12798415,0.00399093,-0.05226599,0.01243068,-0.17754394,0.14178340,0.20350483,0.01443401,-0.03754069,0.11169879,0.06276392,0.04769557,0.05663726,-0.11726477,-0.10891695,-0.01532928,-0.05580633,-0.12965257,0.02540936,0.08787543,0.01537157,0.03523089,0.01647099,0.06927358,0.11463816,-0.10056725,-0.21766622,0.10593155,0.03686282,-0.05435069,-0.09575424,0.13039359,0.13698159,0.12261064,-0.12538376,-0.11453193,-0.22097665,0.02980964,-0.05577414,0.01408566,-0.08504689,0.00024023,-0.09595637,0.15144898,0.12646054,0.06395051,0.13845962,0.04711430,-0.06049236,-0.18732616,0.13406833,-0.00134991,0.02312374,-0.11171745,0.07564256,0.00472478,-0.04374998,0.08843993,0.20290415,-0.01611036,-0.00879712,-0.05145471,-0.16310549,-0.20562221,-0.11247384,0.03595924,-0.07897769,0.01164545,-0.09500910,-0.04076554,-0.11788423,0.04659836,0.06291043,-0.11450943,-0.04964678,0.16252567,0.03094350,-0.00766695,-0.19076771,-0.05731819,-0.10219858,-0.06813505,0.09671105,-0.09408377,-0.08626691,0.24105476,-0.01002219,0.03453575,-0.04958079
0.03632535,0.05132318,-0.04934105,0.05997959,-0.04473710,-0.09791474,0.06655087,0.03924176,0.07964065,0.03280680,0.05331446,-0.02585749,0.04283544,0.04927599,0.11126069,-0.18136510,0.01008336,0.03738873,0.04053079,0.03202807,-0.15667693,-0.04998068,0.21606585,-0.01293459,-0.04717692,-0.04001726,0.00707766,0.10240487,-0.02825276,0.12176012,-0.07693049,0.03691518,0.03665353,0.03626608,0.03055434,-0.14452070,-0.01009398,0.08098449,-0.28521428,-0.09757618,0.08029057,-0.24792750,-0.00156595,-0.07069162,0.01882782,-0.26853052,0.01905810,0.08148332,0.07995834,0.07004589,-0.05103727,0.04343122,0.03406522,-0.07361891,0.03032643,0.05104387,-0.07535931,0.03247925,-0.08860750,0.07262095,0.09285210,0.10754500,-0.03734158,-0.04982248,-0.17909873,0.07758427,-0.12673365,0.00681214,-0.26064345,-0.06953788,0.02628793,-0.11470154,0.14983495,0.00034487,0.09443542,0.11876975,0.14893739,0.05146027,0.09166822,-0.00270006,0.07397380,-0.01137714,-0.03584420,-0.07233547,0.01070430,0.01922501,-0.17246674,0.11008081,-0.03580514,-0.12843910,-0.03437043,0.00477254,-0.11555397,0.03943793,0.02212746,0.10020646,-0.15324908,-0.05355654,0.06994873,0.02662966,-0.08165668,-0.17043783,-0.02884716,0.00395652,-0.08410646,0.08942714,0.03266007,0.01977899,-0.06811813,0.08326798,0.05266206,0.05627186,-0.05038233,0.00306499,-0.35281864,0.03361914,0.01764171,0.02053655,0.06985827,-0.12140780,0.13214904,0.03763513,-0.13096014,0.10169235,-0.18336304,-0.00455578,-0.09306089,0.06635738
-0.06587054,0.19307792,-0.06660377,-0.00424563,-0.05419848,0.06562789,-0.03240072,-0.01269118,-0.17629601,-0.15878516,0.03681688,0.08114252,0.03865674,0.12038615,-0.03877137,-0.08583079,0.00924465,-0.01798567,-0.03748906,0.01992507,-0.04450375,-0.02629843,0.02497783,0.08802152,0.02330358,0.05458076,-0.10901815,-0.03295350,0.12412951,-0.06690593,-0.09801859,-0.14296831,-0.03644045,-0.09305099,0.24612850,0.06884354,-0.28817925,0.11048532,0.08052538,0.04104319,0.13340645,-0.06797677,0.01915503,-0.12395260,0.08488574,-0.04734088,0.02827651,0.07651846,-0.22166488,0.14530978,0.08718829,0.03828037,0.05894815,0.06738822,-0.02448872,0.11966214,0.17249241,-0.07290255,-0.01888780,0.12697078,-0.07105873,-0.09916896,-0.01178612,-0.06749411,-0.08491237,0.02828907,-0.08016959,-0.06611444,-0.03348150,0.03817445,0.04301048,0.19011830,0.13684802,-0.00354321,-0.02884339,-0.03387986,0.20043352,-0.10658254,-0.10736662,0.01715856,-0.05611230,0.07912699,-0.02676973,-0.05667480,-0.16582632,0.07520388,-0.16511458,-0.03647394,0.06769842,0.26917189,-0.02779768,-0.03338406,0.01296949,-0.04167736,0.00095685,-0.04110340,0.07299818,-0.12900765,-0.07729102,0.07374109,-0.10506130,-0.06235056,-0.14709669,-0.02852429,0.03327918,0.04945377,-0.08744270,-0.22394042,0.03334984,-0.06330121,-0.08277420,0.03923094,0.13056964,0.06218608,-0.16174860,0.04870212,0.25877887,0.19516237,0.11344805,-0.05732195,-0.13197365,-0.11007027,0.14446796,-0.06693593,0.03835968,0.09911388,-0.15990676,0.00167346
0.06964386,-0.03347171,0.05312902,-0.03778120,-0.00068959,-0.04633246,-0.00059433,0.10518427,0.05235561,0.12670039,-0.09073497,-0.04635736,-0.04394729,-0.12329916,-0.04648212,0.26085296,0.25355190,0.01535209,0.02380284,0.05010502,-0.10622872,-0.07054120,0.06554512,0.11716253,-0.09570808,-0.02781784,-0.24187878,-0.09913734,0.02412003,0.15465316,0.03357751,-0.10906231,-0.05603639,-0.02338967,-0.16744511,-0.00347989,-0.19975865,0.07258565,-0.00122061,0.00094028,0.17278077,0.02145441,-0.00150308,-0.14621024,-0.16512100,-0.07170495,-0.04403083,-0.13918196,-0.00571830,-0.08382848,-0.16063482,-0.14669704,0.05715111,-0.00691371,0.05286382,-0.01793450,-0.05726987,0.01570095,0.06804524,0.00524629,-0.04704654,-0.02541406,-0.06624258,0.01688800,0.05618591,-0.13696754,-0.07416341,0.00451344,0.13751343,0.13614938,0.00005828,0.14009418,0.08943461,0.04531180,-0.11366504,-0.08871377,-0.03716807,0.08568311,0.05241329,0.05324653,0.05984952,-0.08358267,-0.15543911,-0.08340278,-0.14300661,0.21447921,0.00587258,0.18280099,0.02880595,-0.02537212,-0.06410764,0.05218383,-0.11081409,-0.01699303,-0.02133651,0.13253936,0.06523921,0.13084710,-0.12697262,-0.03960191,0.04046448,0.11390354,0.18374081,-0.08428283,-0.06856991,0.08258393,-0.17751937,-0.14834210,0.07153927,0.19257028,0.05462153,0.01126000,0.05055542,-0.01708367,0.05445965,0.00342324,-0.03096814,0.07490398,0.22685443,0.03271236,-0.10215881,0.19074255,-0.03150204,-0.02155324,0.03504755,-0.21034414,0.02288608,0.10841962
-0.01273946,-0.06287326,0.18931961,-0.05746990,0.00562757,-0.06510845,0.04791190,0.10395113,0.21647827,0.04474752,-0.20798258,-0.00195406,-0.14881705,-0.05684116,-0.02095126,0.10456279,-0.08314484,0.17709276,0.21972883,0.00529764,0.10671625,0.00009507,0.19485259,-0.01433462,0.05145844,0.04370906,0.14752980,-0.03337448,0.07163338,0.18179390,0.02814463,-0.05758878,0.05496883,-0.20421894,0.18728217,0.15656678,0.03204951,-0.12277697,0.07288402,0.02405255,0.05485737,-0.01909157,-0.01499134,-0.08623067,-0.06205676,0.14950143,-0.21328953,-0.03415482,-0.05590048,0.01459811,0.11325642,0.01577359,-0.14696789,0.05194587,0.17712377,-0.04758185,-0.01166635,-0.01190200,0.01906034,0.02635598,-0.22610463,-0.25089723,-0.00912359,-0.06644082,-0.12670848,-0.06182522,0.05052708,-0.00229147,-0.06270488,-0.07767064,0.06679472,-0.04348937,0.04812252,-0.01467321,-0.05493713,-0.00213045,0.01097819,-0.07649919,0.06577815,-0.11956668,-0.08516997,0.07596428,0.15205970,-0.06179731,-0.17733936,0.07255410,-0.06123992,0.07032851,-0.04505385,0.00111298,0.00960090,-0.04895948,-0.13324480,-0.08763701,0.11004145,-0.05236328,0.00930042,0.07935450,0.13968557,0.04509458,0.19417919,0.17828967,-0.11479657,0.00807218,-0.07329340,0.12632778,0.08524508,-0.10405187,0.08459693,0.09154154,-0.18818130,0.04206950,0.11122541,-0.19875991,0.18621527,-0.23625502,0.25841051,0.05197807,-0.18050422,-0.03290167,0.06610236,-0.14007890,-0.02573794,0.06645162,-0.04533160,-0.03804282,-0.06894208,0.04213044
-0.17862275,0.05176259,0.02259773,0.08269005,0.08230919,-0.05337073,0.16650702,0.19242424,0.06007714,-0.12880431,0.03851625,-0.13539340,-0.00188898,-0.27678528,0.21016245,-0.11835901,0.04710348,0.23256901,0.11275001,-0.02201177,-0.01241305,-0.10621411,-0.27439502,0.09106895,-0.00947663,0.01429958,-0.06008847,0.06347129,0.11063153,0.03495551,0.00273092,0.05962837,-0.27364182,-0.04075020,0.19441605,-0.13726309,-0.06918839,-0.04033940,-0.02631721,-0.02540824,0.07684243,-0.01238378,-0.02494878,0.01846457,0.07346058,0.03937285,-0.03947250,-0.10318703,0.06358024,0.05719353,0.18210189,0.05113219,0.21526638,0.04848035,0.02488413,0.08914203,0.01919888,0.04984134,0.16271587,0.01791964,0.02789961,0.04954718,-0.13338019,-0.16444786,0.18661310,-0.07614595,-0.06124367,-0.04438626,-0.12448721,-0.01569660,-0.17866012,-0.01406833,0.02459536,-0.00057707,-0.08811023,0.08995488,0.14755677,-0.00340970,-0.00511748,-0.07577073,0.00310256,0.05747472,-0.01326804,-0.02974609,-0.06632897,-0.10766704,-0.00194065,0.04675095,-0.09507563,0.00928375,0.04290659,-0.13537060,0.11321196,-0.08525614,-0.07829551,-0.02399357,0.16291317,0.03218040,-0.08791168,-0.04829473,0.10176226,-0.05266691,-0.00279870,-0.13137780,0.00530181,0.14753781,-0.04344166,0.07519203,0.02860481,-0.00861943,0.03792341,0.09448586,-0.03604583,-0.21712300,-0.11222472,-0.11679693,-0.22509059,-0.10113773,0.23530000,0.16032842,-0.05319915,0.07256456,-0.12124507,-0.02429968,0.05736586,0.06586556,-0.08006292,-0.11354408
-0.01303598,-0.02769191,0.06841174,0.00303881,-0.02749067,-0.03617044,0.09941663,-0.00925592,-0.04447808,0.03721094,-0.03776782,-0.14735997,0.15698329,0.01828852,0.12503880,0.09046800,-0.10716724,0.15186007,0.03908446,-0.00566196,0.06330829,-0.15310659,0.05163765,0.00536046,0.08030578,0.07576247,0.08633168,-0.14160365,0.05586638,0.04179307,0.04190579,0.03682476,-0.09638989,0.08390964,0.02754043,0.18792574,0.02324823,-0.04828336,0.11941907,-0.00709174,-0.03286429,-0.03806564,0.02198058,-0.01461282,-0.03235442,0.08667915,0.16265085,-0.11380915,0.01096173,-0.01498616,-0.06536673,-0.08178391,-0.15322043,0.20281181,-0.15094984,0.05184020,0.04085527,-0.02912542,0.13063596,0.05111082,-0.10878090,-0.06306774,0.07946015,-0.02140722,-0.19889461,-0.21510947,0.06217080,0.07108971,0.10562982,0.01736421,-0.09495910,-0.08374999,-0.07263447,-0.02142224,0.02262015,-0.01775420,-0.13329263,-0.04192709,0.01666831,0.08559034,-0.12381218,-0.01696192,-0.02767852,0.04990039,0.01073740,-0.08630566,0.01446294,-0.13542920,-0.02608800,0.06222762,0.01523897,0.06956861,0.07249459,0.19891839,0.00218265,0.06138238,0.09824214,0.00245719,0.17337076,0.03633844,-0.13392499,-0.09761196,-0.11952236,-0.04629457,-0.26863551,0.07866623,-0.02028470,0.01355711,-0.18788004,-0.00659390,-0.02570096,0.02433949,0.05789592,-0.12735079,-0.03311422,0.00234100,-0.02155350,0.03704412,-0.18460733,-0.13111065,-0.05455077,0.03736050,0.04052459,-0.05133406,0.05678946,0.04552536,0.06735576,0.01262140
-0.07007135,-0.00189471,-0.03073480,0.10292088,-0.04622136,-0.01415704,-0.17362577,-0.01082755,0.02947792,0.02748913,0.11137380,0.00373811,-0.11688685,-0.02863626,0.11998492,-0.07842076,-0.08571843,0.14836256,-0.00340943,0.02631129,-0.04730805,-0.01745949,0.03647783,0.01387872,-0.05014884,0.15167215,0.03343353,-0.00829668,-0.16952609,-0.01025087,-0.16440356,-0.10341246,0.04428760,-0.13489920,0.00453096,-0.27494812,-0.02366164,0.10662790,0.05702864,-0.00167837,0.00769452,0.12450694,0.02743501,0.01038896,0.00042744,-0.14624593,0.15031859,0.12069517,-0.07950755,-0.03441305,-0.01389359,-0.03533042,0.03278990,0.02096477,0.04722959,0.01249001,-0.04474519,0.00370335,0.09420308,-0.12557799,-0.08785524,-0.05651242,0.02104257,-0.02770792,0.03130027,-0.13627556,0.05166593,0.16455440,-0.11150654,-0.13355508,-0.23388892,-0.12321223,-0.03524399,0.02225631,0.08255293,-0.21425374,-0.03014784,0.27781442,0.00245060,-0.09342777,0.17062482,0.01547685,-0.03209986,0.04032264,-0.06925867,0.03393121,0.10902069,-0.00791401,0.19685774,-0.12878016,0.12559754,-0.03772461,-0.07598060,-0.00840061,0.04646056,-0.04854357,0.02880150,0.02575428,0.02908401,0.08540481,0.02956034,0.00923477,0.19191132,-0.01587592,0.03456140,-0.19574766,0.11940700,0.03184687,-0.12629628,0.00556314,0.02031182,-0.03918175,0.08073898,0.05031458,0.01297074,0.05315656,-0.07805140,0.16370375,-0.05701721,-0.04165361,0.04014074,0.20320491,0.06865670,0.02084814,-0.07411496,-0.03963795,-0.09752613,0.00290119
0.04177168,0.09956650,0.00026027,-0.15681182,0.07538096,0.17744954,-0.16941512,0.06196367,-0.02847147,-0.04339545,0.01945532,-0.00880519,0.02270585,0.12607813,0.05107783,0.19605534,0.11055209,0.00044746,0.06281190,-0.01929802,-0.21344437,0.00469047,-0.00470937,-0.02531841,0.04293274,-0.15333535,0.10220799,-0.07308630,0.01449576,-0.13813418,-0.04620839,-0.13823284,0.06969654,0.21088490,0.00136950,-0.19066228,0.04700973,0.12504266,-0.09537522,-0.07171829,0.04758023,-0.05645367,0.05735027,0.05590422,-0.07554252,-0.08861987,-0.09352621,0.06851537,-0.01419698,0.02539017,-0.14215077,-0.01858901,-0.13408093,-0.01827985,0.06157848,-0.11858244,0.05924534,0.05498983,-0.07241335,-0.04415879,-0.03951237,-0.12830101,-0.07079103,0.04379310,0.02719933,0.08314595,0.02723000,0.03890266,-0.08047585,0.02395609,0.09306718,-0.18588391,0.10902519,0.02793729,0.02394119,0.13146701,0.04562319,-0.00516869,0.00290226,0.04056497,0.00535775,0.08705509,-0.02465175,-0.01709153,-0.03301679,0.11996306,0.06673413,0.05691890,0.05611826,0.03831484,0.01455980,0.07752461,-0.31728190,-0.10450608,0.08746495,-0.00966359,-0.08215120,0.02658637,-0.01752601,0.17056732,0.09304734,-0.02302662,0.14098029,0.02332029,-0.07129904,-0.02898852,-0.08984958,-0.05481562,0.03342053,0.15927723,0.04916873,-0.11060205,-0.12996043,-0.01947624,0.13412812,-0.13120694,-0.16836978,-0.07215707,0.18680194,-0.07700077,0.00983965,-0.06714383,0.08541664,-0.01975818,-0.06083557,0.08778573,-0.09910260,-0.09267163
-0.02606092,0.01889558,0.06786496,0.03770193,0.04805009,0.07548520,-0.11408951,0.18018289,-0.06592049,0.00462557,-0.03531018,0.04527051,-0.01609913,-0.03837115,-0.11341884,-0.20957057,0.08033016,0.09448162,-0.03053696,-0.12769111,0.08296558,-0.05278606,0.32476434,0.00898072,-0.03906358,0.13277562,0.11218292,0.07104483,0.05450942,0.17288955,0.02871431,-0.04993405,-0.04585392,0.03982243,-0.12045016,-0.04012672,0.06868775,-0.08111408,-0.13842291,-0.12282093,-0.09281065,-0.03502993,0.05071073,0.17339146,0.00763169,0.04711416,0.04305523,-0.13227995,0.18110970,0.17507812,0.11596818,-0.04822556,0.05197514,-0.02168377,-0.19485819,-0.15181452,-0.17599729,-0.06319007,0.03017688,-0.01753634,0.07381371,-0.05467207,0.04372907,-0.05349669,0.09436936,-0.11608370,-0.04679068,-0.09037860,-0.06521685,0.10953315,-0.07615014,0.11063471,-0.04641832,0.00208619,-0.12478074,0.18800639,-0.01029447,-0.01510315,-0.01047390,0.00407571,-0.01672887,-0.10128735,-0.03405638,0.01613554,-0.14003396,0.01860680,-0.10474274,-0.13942046,-0.09644049,-0.16671561,0.05998043,0.06839652,-0.02059078,0.04083923,0.15267728,-0.03331920,0.11773106,0.13253854,0.17139940,-0.06723744,0.03153623,0.06454876,-0.13413402,-0.21640545,0.08279695,-0.07492367,-0.05529008,-0.16440125,-0.09246894,0.04569463,0.02807374,-0.16727743,-0.13899745,-0.13049977,-0.01686926,0.00776739,-0.04776389,0.06536403,0.08542909,0.11628328,0.05186873,0.08109578,-0.00320880,-0.03414097,0.06872772,0.07492908,-0.09255030,0.17365672
0.10984921,0.10762019,0.10262178,-0.03013754,0.04326935,0.10355622,0.29901505,0.16754818,0.04080952,-0.10434608,0.03195366,-0.16210935,0.13125189,0.00107458,-0.16121213,0.16739722,0.00144095,0.01139600,0.00374119,-0.06840149,0.07868648,0.10025740,0.06589703,0.11289492,0.04814306,0.04672916,0.10134355,0.11966790,-0.11566094,-0.16128325,0.06117518,-0.12220565,0.02211345,0.05723650,-0.02421930,-0.07904877,0.02885995,-0.24617945,-0.02810628,0.12112638,0.05541953,0.13766597,-0.07449014,-0.06539173,0.04216582,0.01062676,0.19872360,0.11701030,0.13606028,0.08855484,0.04735189,0.07780513,-0.00262581,0.22619876,0.03973838,0.09068462,-0.08044907,-0.00966209,0.05389599,-0.14112143,0.00414562,0.06198857,-0.01132802,-0.02227994,-0.15895501,-0.18344177,-0.15862335,-0.04861162,0.10761814,0.11460093,0.07974864,-0.25684872,-0.14780538,-0.03332689,0.07535329,0.14113089,0.04891996,0.00123212,-0.10679000,-0.06084323,0.17096023,-0.08308143,-0.08424629,0.04338358,-0.09996363,-0.08471619,-0.06646107,-0.01797391,-0.12663451,-0.09905094,-0.07051209,-0.04993847,-0.27840951,-0.00808065,-0.08102751,0.00697103,0.00626598,0.05258342,-0.09831876,0.01385355,-0.00785300,0.00109670,0.02231544,-0.03856995,0.07741159,0.02736645,-0.05340875,0.06570415,0.06684764,-0.01291074,0.04494181,-0.10019332,0.08178765,0.09671785,0.11439006,0.05819893,0.02052796,0.05264296,-0.24549165,0.00876413,-0.01592946,-0.08458616,-0.04317506,-0.10676106,-0.07924225,-0.00933623,-0.23495239,0.12924354
-0.05955057,-0.14795612,-0.01109166,0.05624706,0.07252087,0.17235725,0.00388226,0.07353288,0.00668386,0.09332576,0.17023623,0.00840477,0.09416544,0.03567238,-0.09537590,0.17865662,-0.05255160,0.03265640,-0.04484338,0.03523405,0.14342049,-0.02792791,-0.01949371,-0.04988153,0.03379419,-0.00962060,-0.15316744,-0.21136788,-0.04834981,0.19458587,0.05283467,0.18256055,0.01692070,0.06011075,0.24613385,-0.12440202,-0.05588089,-0.02655509,-0.10461830,-0.06601884,0.01172227,0.14636205,-0.12029081,-0.00596963,0.03861219,0.01330914,-0.05862643,0.05484262,-0.00788814,0.06141601,0.04532202,0.01892431,-0.12503514,0.07343302,-0.12637675,-0.11161993,-0.11106670,0.11189215,-0.05307755,-0.12056226,-0.05169153,0.01582523,0.00003891,0.13194461,0.05231555,-0.07816361,-0.03575464,0.08388075,0.05751474,0.14997880,0.15841570,-0.08105161,0.10937924,0.05871986,-0.21864620,0.08973772,0.07888567,0.16146868,0.02682994,-0.16642839,-0.12970321,-0.14616162,-0.10875608,0.13085927,0.05276163,0.03043991,-0.07428209,0.03129650,-0.12906671,0.03273802,-0.05162192,0.09741645,0.03096745,-0.06614926,-0.07556758,0.03633865,0.15355799,-0.11195221,0.01749384,-0.04262977,0.12245556,0.02317238,-0.01546670,-0.15408163,-0.01509368,0.02601897,-0.04189721,0.07505807,-0.06500509,0.10229073,0.00114164,-0.02508551,0.05281705,-0.01859851,0.04102417,-0.01632925,0.06163412,0.02651558,-0.11748862,0.04521669,-0.11143622,-0.07237073,-0.13564892,-0.00532340,-0.02072914,-0.03712044,0.08198369,0.06065035
-0.01516409,0.13684008,-0.01321545,0.05683206,0.10208271,-0.14292327,0.02934294,0.00827284,0.00089112,-0.15185201,-0.10730588,0.04115033,0.07139388,-0.07667097,0.11726787,-0.06562646,0.05612682,-0.05038514,-0.05341452,-0.12277715,-0.01936456,0.13492057,0.03414641,0.01326824,-0.02671767,-0.05791803,0.07285349,-0.20179027,-0.13307787,-0.14032006,0.07993841,0.12186770,0.02210079,-0.05631771,0.03343239,0.06007050,0.21855760,0.00320469,-0.05276883,-0.09603654,0.02806946,-0.02328809,0.01836555,0.05995517,0.08298613,0.19978805,-0.12898855,-0.08382524,-0.08955217,-0.12905359,0.12405702,0.11863685,0.26783794,-0.11301775,-0.11882523,-0.04787546,0.15452084,0.10371487,0.00309469,-0.09869738,0.02626521,-0.03190960,-0.02317221,-0.02274992,0.09746443,0.09660071,-0.03090605,0.09260794,-0.02708214,-0.01608075,-0.03709495,-0.02946028,0.11889198,0.04645036,-0.00329040,-0.06879561,0.12501335,-0.01221508,0.09616336,0.02868288,0.09266791,0.07808644,-0.10714667,-0.14737558,0.06286032,0.05482925,0.01800170,-0.02206114,0.05374873,0.03717724,-0.05664083,0.10074318,0.02059451,0.09558675,0.03704743,-0.18173225,-0.20157845,-0.09935633,0.01237364,-0.02893515,-0.12932748,0.08429206,-0.08712714,0.12085170,-0.11523919,-0.07503697,-0.02283560,-0.07783020,-0.12439438,0.06077035,-0.12549840,-0.03842786,0.21597104,0.07073073,-0.17852862,0.01272006,-0.02863320,0.06663950,0.08753572,-0.21834379,-0.06874415,0.04206844,-0.03192780,-0.09673610,-0.05560000,0.00724176,0.06041495,0.04703033
-0.00164103,0.02267365,-0.00330182,-0.00364214,0.01282090,-0.01000901,0.05612775,0.08304755,0.07744007,0.01316627,0.13509180,0.13069360,-0.06696708,0.16122007,0.06904875,-0.02982872,0.12880507,0.20168917,-0.07970997,0.08893378,0.07587235,-0.03769716,0.06031877,0.02164456,-0.02258388,-0.31360009,-0.16723680,-0.04810365,0.15775315,-0.04586422,0.02710171,0.05709115,0.00500704,-0.21694434,-0.04706785,0.05025088,-0.14208655,0.05455629,-0.08344144,0.00026954,0.08994822,-0.09204290,-0.00012663,0.06210091,-0.04364124,0.03812265,-0.10172033,0.20530024,-0.08856928,0.07019723,-0.06937955,0.04207241,-0.01045918,-0.14894463,0.08732808,-0.19778533,-0.02148620,-0.20116147,0.08422653,-0.01652762,-0.13034207,0.00840116,0.12837693,-0.30762509,0.11658116,0.10876764,0.06055603,-0.08114779,-0.18740289,-0.04780352,-0.08892617,-0.07734340,-0.22530940,0.07792263,0.06209446,0.01116947,-0.00947514,0.18314962,0.08955543,-0.04098489,-0.09526682,-0.08806187,-0.14809334,-0.12607898,-0.07150760,-0.06460326,0.16703248,-0.05935872,-0.29500788,-0.00204513,0.01234846,0.17778313,0.00445987,0.01739701,0.00905424,-0.09704526,0.01527099,0.04949395,-0.05553922,-0.09749775,-0.12095702,0.14243601,0.03349125,0.01781870,0.13674955,0.07598996,-0.00227830,0.01082314,0.02283815,-0.07344578,-0.00560705,-0.09227877,0.07434618,0.04426212,0.07207578,-0.01528812,-0.12710829,0.01567254,0.04660675,-0.00519451,0.08256677,-0.15968466,0.16425708,0.14249445,0.02048402,-0.04541306,-0.05618017,0.00417291
0.08862513,-0.08198537,0.16853613,0.02063533,-0.14894685,0.04301152,0.11696739,-0.05070449,0.01345088,0.13767032,-0.03889113,-0.10426053,0.19371931,-0.08024306,0.09366091,-0.01120161,-0.00340805,0.08874726,0.14892668,-0.13528292,0.09535697,0.04782889,0.05673314,-0.01225724,-0.11533012,-0.12961341,0.25325057,0.11796762,0.01089134,-0.10881314,-0.02879988,-0.02580426,-0.12397343,-0.15294567,-0.20707595,-0.20536347,-0.05046582,0.05280479,0.00002900,-0.08452230,0.08828678,-0.02897159,0.01495524,0.10476684,0.05997616,0.08439695,-0.08957756,-0.14709584,-0.07301128,0.14275035,-0.05408529,0.11198209,-0.12998712,-0.01996326,0.29010212,-0.02761321,-0.10232458,0.04645319,-0.11639547,0.07711941,0.02310052,0.06300607,-0.06607743,0.09078069,-0.13623929,0.20739442,-0.06691402,0.12498713,0.00336408,-0.09119031,-0.00039702,-0.00031175,0.13208166,0.05997643,0.02819635,-0.01794169,-0.06315484,0.11915821,0.00933770,0.12868197,0.34845620,-0.03606683,0.08256692,-0.05164240,0.04495789,-0.09194919,0.03664881,0.05158235,0.01232334,-0.08105837,-0.18573321,0.01785006,0.11471175,-0.10076607,-0.06050366,-0.12596464,0.03901184,-0.28223374,-0.06446708,0.03783493,-0.07129143,-0.09443740,-0.14099333,0.04007555,0.06135171,0.13417152,-0.00567252,-0.19908024,-0.00355480,0.00317157,-0.04917269,-0.00381973,-0.03337416,-0.20089775,-0.06813841,-0.02794699,-0.02605036,0.05213907,0.09736551,0.29624301,-0.03948832,-0.13065606,0.00628860,0.03582104,0.01407856,0.00750111,0.08082111,-0.06360542
-0.06713643,-0.03675996,0.02059528,0.00627277,-0.05171585,-0.19483653,0.07900068,0.09559052,0.00315942,-0.06144057,0.02742492,-0.05744657,0.17565592,0.08787537,0.04039102,0.16977684,0.10449022,-0.15247238,-0.01915530,0.09093849,0.05444195,-0.00251602,0.00620257,-0.12637143,0.00295767,0.15560298,-0.01379385,0.11014236,0.11107636,0.05729023,-0.10127360,-0.03423870,-0.17339502,0.02664322,-0.15079184,-0.03575132,0.09645978,0.02433747,0.01694015,-0.17425218,0.18949841,-0.14883015,0.04761412,-0.02523580,0.03574827,-0.21530604,-0.09726539,0.05873663,-0.04519398,0.06699833,-0.08123510,0.01318022,0.06708811,-0.02330926,0.16414006,-0.11091420,0.24895951,0.13542877,-0.15246993,-0.12036071,0.13228554,-0.07410672,0.08441691,-0.16505767,-0.09208451,-0.14695679,0.11244415,-0.04183644,0.02034723,0.15847558,-0.30558836,-0.01347559,0.06576169,-0.01804346,0.14501500,-0.19339646,0.13516410,0.01630403,0.13514158,0.01465841,-0.01197993,0.02014684,0.27430174,0.00866747,-0.09580550,0.06416006,0.05891975,-0.05491457,-0.13504447,-0.03057247,0.00016283,-0.03164243,0.06931724,-0.12241633,0.11865140,-0.06204697,-0.05039280,0.10500176,-0.03945813,-0.04345981,0.08709285,0.01537291,-0.05145798,0.02417794,0.05254360,-0.00749880,-0.13419774,-0.10768141,-0.09656582,-0.02223532,-0.16730541,0.03226402,-0.02930284,0.08897723,-0.05907125,0.16314381,0.01117152,-0.01620465,0.06257603,-0.04168433,0.07247533,-0.10866173,-0.02967908,0.10305548,-0.00310394,0.01871584,0.11323144,0.01464746
-0.12931912,0.14669910,0.05198234,-0.06782424,0.05573445,0.19653186,-0.09912451,-0.09457464,0.05235657,-0.04241760,-0.02903670,0.14099014,-0.08329167,0.03384175,-0.05910206,0.02088784,0.02868504,-0.01709376,0.11401527,-0.03290334,-0.14087994,0.00408737,0.10788653,-0.09183355,0.02408911,0.05187370,-0.23570938,-0.02628703,-0.02053915,0.07944466,-0.16903324,-0.13040844,-0.12600379,-0.13910706,0.01888689,0.08024520,0.02300072,0.05008357,-0.05065675,0.02177446,0.09059292,0.00094460,0.07774498,-0.02111231,-0.10773528,0.02481599,-0.26809838,0.00933672,0.17605118,-0.02942732,0.10994685,-0.01493083,0.25901243,0.30790654,-0.16070439,0.09843235,-0.01966781,0.00738583,-0.12464265,0.02261638,-0.10100925,0.04571545,0.03283386,0.06669531,-0.01595873,0.02812060,-0.07947239,-0.03866566,0.09032949,-0.18584304,0.01686845,0.08472983,0.27294317,0.01822564,0.04435484,0.05381962,-0.03217650,0.16133612,-0.04642360,0.01200781,0.00501201,-0.02050118,-0.02890706,-0.06489324,-0.02845813,-0.17102128,0.04833574,0.04817707,-0.11115822,-0.03934180,0.02276501,0.02574412,-0.05493622,-0.09834442,0.13953547,0.06759275,-0.13531302,-0.18507127,0.05021905,0.13310434,-0.03258950,-0.06644628,0.13511385,-0.20387350,0.10657510,-0.06198933,0.00535539,0.12075245,0.01020897,-0.00560361,-0.08857284,-0.04698045,-0.03482438,0.14711267,-0.03028756,-0.09176950,-0.11157984,-0.00470952,0.18879139,-0.16602702,0.05161762,-0.08647608,0.07426822,-0.17107809,-0.04040310,0.05061361,0.09715503,0.01347247
0.06348174,-0.23200594,0.11735380,0.02809891,-0.16263373,-0.01026107,-0.22760969,-0.01090765,-0.00594123,-0.00400973,-0.01013518,0.09109334,-0.08227896,0.10814233,0.08184713,-0.16010922,0.06842775,0.11805474,0.05233940,-0.09057482,0.02291364,0.32121179,-0.05291747,-0.04480578,-0.09844762,0.01339037,0.17757601,-0.03310886,-0.19882163,-0.02872038,0.04966159,0.01574454,-0.07017095,0.00305541,-0.09674518,0.17566049,0.07626365,0.13482511,0.02579903,-0.02410731,-0.05101925,-0.09650955,-0.10100007,-0.04311628,0.10114819,0.08143847,0.05325308,0.11398781,-0.00189027,0.04324632,-0.36365479,0.16713907,0.03734971,0.23172081,-0.31129351,-0.18464205,-0.19859290,0.05329502,0.05898258,0.09664034,0.00963280,-0.15932003,0.01411001,-0.12602313,0.07289478,-0.21114941,-0.01159037,-0.17643496,0.01632990,-0.01507639,-0.12484605,0.04030763,-0.13370115,-0.01433822,-0.01722447,0.02836652,0.24029627,0.24531028,0.14137606,-0.05678073,-0.10182455,0.12352229,-0.01664507,0.06900612,0.13705128,-0.08840375,-0.10506507,-0.07101810,0.26843825,-0.08415091,-0.02765257,0.00858408,-0.23636585,0.04164423,-0.07564297,0.00742594,-0.01384484,-0.04213088,0.02316664,-0.09188049,-0.04636824,0.00402588,0.07779838,0.00951146,0.06627481,-0.03284178,0.02431704,-0.11112888,0.05413624,0.03005540,0.12181997,0.06857521,0.07987037,-0.02044228,0.05322923,-0.03760163,0.39477098,-0.09187337,-0.03769303,0.11183780,-0.02439067,-0.15437235,-0.07876375,-0.09655434,-0.07979619,-0.04503673,0.10662619,-0.14123246
0.14077586,-0.16685225,-0.12232373,-0.04175882,-0.05144238,0.05516312,-0.01075578,-0.02421310,0.05200070,0.08108314,0.02712062,0.05820053,-0.12674201,0.01496968,0.11910324,-0.08816025,0.04092908,0.07278786,-0.03625489,0.16954784,-0.01885854,-0.00166447,-0.21093643,0.02894750,0.11131976,0.01091223,-0.04606647,-0.04933470,-0.06132168,-0.13397080,-0.07890733,-0.00206917,0.07853559,-0.07382756,-0.14696705,-0.02925378,0.14109749,-0.04478990,-0.17133367,0.10523970,0.01537137,0.03884466,0.05110500,-0.14622580,0.02429794,-0.03199251,-0.13784812,-0.03134106,0.10233513,0.28010023,0.09783887,0.04639519,-0.02234201,-0.12264656,0.04851298,-0.06917530,-0.10634373,-0.03559940,-0.12861371,0.03320937,0.04015382,0.05140302,-0.04614684,0.09036798,0.04915159,-0.01015047,-0.04885469,-0.00271522,0.21467736,0.16458298,-0.22420791,-0.19989896,0.05441113,-0.06894990,0.15687080,0.04186622,0.09247094,0.02381538,-0.05809100,0.08030836,-0.05186183,-0.06700920,-0.14552441,-0.03199944,-0.03651730,0.24577540,-0.08203099,-0.05019581,-0.16602309,0.01694193,0.02035987,-0.02542083,-0.05963423,0.10358243,-0.03531234,0.00365552,0.12579083,0.13752399,-0.19830851,-0.19649808,-0.15278226,0.07188230,-0.10896979,0.11330985,-0.25450629,0.14478707,0.06975087,0.04738685,0.04474775,-0.01688765,0.08360423,-0.08464489,0.16253492,-0.18706824,-0.06749479,-0.08176367,0.10883525,-0.08634350,-0.03423385,-0.01103824,0.20838159,-0.16425888,-0.07162972,-0.08993849,0.11818092,0.00454070,-0.13867360,0.05831502
0.01016157,0.04549859,0.00464312,0.03036682,0.00997499,0.07441279,0.00783094,0.10242417,-0.04276644,0.05690693,-0.04935824,0.03687715,-0.06338435,0.04351021,0.03877740,-0.15185724,0.10055042,0.07516471,-0.04838966,-0.14792536,0.18030328,-0.36714649,-0.02826007,-0.01550384,-0.11373833,-0.14714397,-0.04100787,-0.06173952,0.08427336,0.07051784,0.06482713,-0.13897511,0.00892370,0.00882842,-0.11970245,0.01292951,-0.09413292,-0.06314804,0.11762608,-0.16568047,0.02559199,0.00452619,-0.01670444,-0.24412476,-0.04689605,-0.02331936,-0.04435893,0.14244644,0.04125763,-0.08974680,0.04293820,0.11538649,0.07182917,0.15567613,0.01990769,0.06875464,0.14542897,-0.05664289,-0.03510489,-0.05669337,-0.08766107,0.02174232,-0.01191181,-0.04581338,0.07117023,0.19474496,-0.15703785,0.08350855,-0.08397155,0.07733249,0.09154500,-0.09784511,0.09689846,0.02236519,-0.09461484,-0.19413815,0.12919669,-0.09439746,-0.01417760,0.03424573,-0.00614655,-0.05188978,-0.04718189,-0.03064289,0.06816715,0.10311034,0.12418157,0.19302355,0.04299038,-0.03089136,0.04610225,-0.08034321,0.02404067,-0.05043372,0.15116020,-0.05709545,-0.08671672,0.10490616,-0.02069646,0.09147714,-0.03138613,0.09565135,0.14823984,-0.01369482,-0.06965819,0.02911399,0.07936736,0.01261795,-0.05578547,0.06858517,0.21239746,0.00341950,-0.12158559,-0.08851969,-0.10735785,0.06689613,-0.01925595,-0.08865976,-0.01501668,0.06152647,-0.08302315,-0.16989326,0.05909618,0.06120453,-0.04398623,-0.00312718,-0.04626147,-0.07663751
0.15333544,0.13050641,-0.06634290,0.11720660,-0.27013412,-0.04611744,0.09451310,0.05534270,-0.03742116,0.06122852,0.14793728,-0.19536017,0.12739314,0.05713665,-0.15974997,-0.17196903,0.10437131,-0.10660505,-0.03828067,0.09270070,-0.13917500,0.01617861,-0.00469184,-0.05749633,0.12034667,0.00523891,-0.14114143,0.01748367,0.28086370,-0.10621564,0.12241894,-0.11380140,-0.04797281,0.22505975,-0.05526061,0.13284564,0.12818824,-0.02270191,0.02159946,0.09012328,0.18584114,0.12208460,-0.06524157,0.16784273,0.01102787,-0.01849289,0.00963230,-0.05445243,-0.01361963,-0.23397753,0.11446377,-0.09865721,-0.03834822,-0.02673118,-0.09713141,0.02458263,-0.20438464,0.05568106,0.09299385,-0.03605806,0.01687096,-0.14630389,-0.02370357,-0.05130309,0.10776117,-0.03575939,0.06432249,-0.09059892,0.08876473,0.12129665,-0.28219652,0.13211849,0.18495661,0.02539719,-0.03923173,-0.01833778,0.03822737,-0.03552557,-0.02752721,-0.11927445,0.23151934,-0.17710629,0.04468009,0.09952239,-0.12946394,0.03430081,-0.11728724,0.06018555,0.05865384,0.09066150,0.00953692,-0.06454584,0.09583431,0.00842228,0.11436815,0.04370381,0.03052074,-0.08873213,0.02869742,0.07161330,0.09442805,-0.01801738,-0.02544748,0.06053468,-0.17338213,-0.06473807,0.07637953,0.03143935,0.12446956,-0.05979296,0.10277171,0.03605611,0.12200220,0.03535593,-0.03289548,0.00990429,0.10473989,-0.03260438,0.01650680,-0.01349057,-0.00212478,-0.08963743,-0.13885541,-0.08625836,-0.00471438,-0.05410838,0.02425827,-0.25889176
-0.04603491,0.09427051,0.08272421,-0.05415458,-0.14011928,-0.09825723,-0.08860376,-0.05210609,0.20843512,-0.00076277,-0.10403284,0.08680107,-0.12316532,-0.11232817,0.08761907,-0.08199757,0.00219852,-0.12494054,0.14016233,-0.08962164,0.15287240,-0.16796863,0.10172330,-0.05809349,0.09411962,-0.02564482,0.10423345,0.00043057,0.13129961,-0.01544705,-0.00256522,0.09526403,-0.12191597,-0.08786688,-0.11114242,-0.00608679,-0.08418647,-0.02311506,-0.04631438,0.01006514,0.17365134,0.06501648,0.07667122,0.09103308,-0.16164061,-0.09191543,-0.01878286,0.10635428,-0.09841523,-0.13068116,-0.06218872,-0.03277449,-0.02110815,-0.04242069,-0.13959087,0.08983045,-0.03701809,0.08356715,0.11229844,0.04719763,0.02426188,0.07805788,-0.04863644,0.21446995,0.01736679,0.06331876,0.10475583,-0.15385461,0.24174365,-0.16731474,0.11846778,-0.04175848,-0.17873541,-0.04609088,0.12579046,0.04558459,0.09586054,-0.24888639,-0.02550001,-0.04943573,-0.04047569,-0.09117904,-0.18867327,0.15641338,-0.01947078,0.12395563,-0.09146202,0.00696235,-0.18430027,0.12579919,0.18963869,0.09595105,-0.09388772,0.15361504,-0.10329142,-0.20883989,0.05318727,-0.07077640,0.10920159,-0.05250742,-0.02297856,-0.11462460,-0.13514179,-0.14318594,0.13042022,-0.02676098,-0.06192099,0.04089153,-0.09357244,0.09818891,0.11046958,-0.06371538,0.13660768,-0.00802576,-0.21837468,-0.09985695,0.15945369,0.14583796,0.09830377,0.03412628,0.01150424,0.04591411,-0.08527946,0.04492316,0.02371918,0.04822762,-0.08514516,0.00312861
-0.00647341,-0.13261895,-0.11700279,0.07539172,0.03852018,-0.05867581,-0.00952378,-0.06127784,-0.09937660,-0.03485162,-0.05937188,-0.06660810,0.07951900,-0.03490690,-0.10411906,0.05575094,-0.04928848,0.07203851,0.02124763,-0.04520903,-0.00420876,-0.20827360,0.02034260,-0.03740203,-0.03988744,0.17558067,-0.11462278,0.02091991,0.12280913,-0.17729701,0.14086394,-0.11957335,0.15524653,-0.04613359,0.01891851,0.02983432,-0.02719885,0.10354542,-0.00451860,0.11040603,-0.01258303,-0.17584410,-0.01810080,0.05174347,-0.09984051,0.04099600,-0.21505821,-0.04557405,-0.00004955,0.01364422,-0.09082671,0.27446458,-0.15974782,0.13599660,0.19708289,0.03013653,0.16592902,-0.09302045,0.04557267,0.01845416,0.08174016,0.07241445,-0.09046496,-0.00875231,0.07126662,0.07449660,-0.05412215,-0.00094902,0.02361204,0.09668923,-0.08062050,-0.00043760,-0.12540272,0.00998607,-0.10658525,-0.16353655,-0.02157743,0.04454850,0.09231990,0.05463600,0.03234922,0.03644931,-0.16849469,-0.05299804,-0.09478350,-0.08672538,-0.01931748,-0.09443751,0.07085051,-0.14419162,0.09634825,-0.02937632,-0.11833341,0.03471553,0.00490028,-0.02080129,-0.23471171,0.09144785,-0.05060128,-0.02058627,-0.02731506,-0.01506532,0.00109871,0.10315515,0.02851197,0.08487866,0.04351328,0.08549710,-0.02084863,0.01547414,-0.02856774,-0.00929509,0.06035888,0.09131430,0.06911231,-0.12484744,-0.12063006,0.10107511,0.08927034,-0.07379143,-0.04655612,0.07903591,-0.06263970,-0.10964511,-0.15621591,0.08474108,0.12175331,0.09557784
-0.05245122,-0.02627758,0.00253518,-0.04857914,-0.03080601,0.03716148,0.19018380,-0.18425064,-0.04303202,0.12657724,-0.10861070,0.04060624,0.02985153,-0.02319375,-0.02268616,-0.01569898,0.14876817,0.08534009,-0.06349967,0.05433077,-0.12356676,0.09407135,-0.08361145,0.15503888,-0.00586284,0.18212847,-0.08004291,0.14934082,0.02439867,-0.01175403,-0.14570457,-0.06252405,-0.12639339,0.02300412,0.05258237,-0.24385551,-0.21252342,-0.01732549,-0.01525086,0.06865008,-0.14576368,-0.02718988,0.05761010,0.14921305,0.10810219,-0.03542093,0.07192102,-0.05542680,-0.21528269,-0.16645385,-0.07417053,-0.15861398,-0.11826196,0.09213360,0.06342475,0.06200878,0.15014091,0.00984975,0.06457753,-0.05003667,0.11670798,0.08215757,0.06452762,-0.09693511,-0.07863183,-0.01425793,0.12557805,-0.01602419,-0.08844928,-0.08108198,0.15955959,0.15340807,0.20104551,0.04025978,0.02564534,0.04945408,0.24340509,0.06125324,-0.10903645,0.02277399,-0.07162294,-0.04528865,-0.03016108,0.04144947,-0.13149118,0.07410315,-0.03046626,-0.06484164,0.04356072,-0.04137470,0.07677970,0.08373661,-0.12299029,0.20685075,0.21642867,-0.05696930,-0.06473066,-0.09761222,0.12761970,-0.11241826,-0.12760732,0.08372887,0.00988916,0.19432072,-0.02387037,0.00502928,0.19096160,-0.00722179,-0.02097780,0.12834124,0.01887292,-0.14592063,0.03762644,-0.00826568,-0.11863855,0.17460933,0.02367034,-0.20947152,-0.06360710,0.02048512,0.05528241,-0.19639413,-0.11566135,-0.05702960,-0.01309233,-0.06921732,0.11643312,-0.03169071
-0.02706970,0.07434463,0.04638503,0.10466030,0.06776080,-0.21737042,-0.10736760,0.02066833,0.02946015,0.02884142,0.06928606,0.08524230,-0.14996769,-0.07484443,0.08583586,-0.12667768,-0.06037572,-0.10158430,-0.03733683,0.18701133,0.12543422,-0.12999380,-0.03802898,0.04450332,-0.02152545,0.01594289,0.04425110,-0.05628029,0.08609454,-0.16084288,0.03120505,0.00320008,-0.14178583,-0.01915093,0.03173080,0.02842508,-0.00895477,0.07115796,-0.10711751,-0.00663158,-0.07537923,-0.02849242,-0.02646529,-0.06113048,-0.05091094,-0.04173453,0.04802946,0.06296404,-0.10863276,-0.10570220,0.00520863,-0.06004676,-0.03302373,-0.09774160,0.12924494,-0.09358772,0.23798212,-0.03718557,-0.18712534,-0.06936344,0.12075862,-0.02315243,-0.01776665,0.04899841,-0.04339847,0.03094127,-0.00915385,0.10547261,-0.05729154,-0.05428469,0.01127081,-0.01801084,0.03631271,-0.02299141,0.02289404,-0.02936888,0.12945348,0.19189698,-0.02842722,-0.01805878,0.16332796,0.11494169,0.10378639,0.00841455,-0.10871239,-0.16342007,-0.04061591,0.05839729,0.07345591,0.09222341,0.16376591,-0.03757030,-0.09658294,0.18042643,0.00442037,0.04459356,0.04359062,-0.06073387,0.02780350,-0.01723592,-0.04253152,-0.00474906,0.11651056,0.05848582,-0.01458080,-0.00194139,-0.17357220,-0.02169510,-0.00255839,-0.06256131,-0.05385843,-0.01495373,-0.09507311,-0.12340840,0.01799706,-0.00697369,-0.00554284,0.06016031,0.20117952,0.07403924,-0.18301915,-0.10211826,0.01883965,-0.06059060,-0.05752159,0.06201936,0.04894362,0.06861427
0.15444696,0.03892029,-0.08682135,0.04031445,0.18673822,-0.03093090,-0.21754169,0.24040352,0.04705951,-0.12813084,-0.11136176,0.01805186,0.08901555,0.12656011,0.03599751,0.17010188,-0.10888029,0.19160421,-0.13102630,0.12220591,-0.05988426,0.00905911,-0.13993241,-0.10542087,-0.04338162,0.28145251,0.02696627,0.05155644,0.11322848,0.06706198,0.09581763,0.04693818,0.14199519,-0.04598730,-0.20821221,0.04726702,-0.24252976,-0.08238613,0.11532367,-0.14929169,0.12013546,-0.12082741,-0.11769807,-0.06184759,-0.08961691,0.06603918,0.27202421,-0.14817414,0.10996504,0.00357546,0.01331966,0.01373110,0.00617951,0.17517810,0.11841040,-0.00821155,-0.09293264,-0.03886482,-0.00609452,0.01792854,0.15855004,-0.04651726,-0.03223928,-0.03570418,0.13900560,0.05428766,0.13145854,-0.00254180,-0.05445084,-0.14849067,-0.03265594,-0.08181649,-0.00589291,0.09373490,0.03428970,0.00811317,0.10052957,-0.02793034,0.00737528,-0.06327272,0.02943171,0.04385069,-0.00722119,0.02446058,-0.01281183,-0.04117883,0.00440894,-0.14697304,-0.19308619,0.13442090,-0.10117376,-0.08854721,0.04311528,0.11258624,-0.00982484,0.06206659,-0.07722374,-0.16757792,-0.05099384,-0.03002616,0.06708116,-0.12907389,0.10581222,-0.19253930,-0.15698560,-0.10045296,-0.10453167,0.06686208,0.03819096,-0.02875111,-0.06304909,0.04683611,0.06684008,-0.14317630,0.05024254,-0.04501688,0.08311503,-0.05433669,-0.07325756,-0.04915851,0.18501569,-0.03276950,0.01381620,-0.00540245,-0.06143839,-0.04778727,0.16651306,0.04388929
0.04812159,0.14109442,0.04019860,-0.07581528,0.00905677,-0.01762978,-0.17390233,-0.03243276,0.06762552,0.03205658,-0.09155365,0.10512315,0.11337955,0.10250027,-0.01407754,-0.10565772,-0.03369971,-0.09360081,-0.08170897,0.12483887,0.00964144,0.14624946,0.07800476,0.02906966,-0.00348236,-0.08740515,-0.05593941,-0.10043985,0.06618915,-0.02445799,-0.04261754,-0.10621874,0.15574938,-0.06840058,-0.10956620,-0.03731536,0.12145531,-0.05779681,-0.08873413,-0.14332028,-0.05169769,0.05651790,0.04043590,-0.02650093,-0.06203886,-0.16819917,-0.17437762,-0.02205379,-0.12319782,-0.16872004,-0.02662707,0.00135084,-0.00062483,0.00394710,0.01062915,0.00172304,0.09830628,0.00481811,-0.10818134,-0.07676311,0.01908833,0.06398257,0.07605740,-0.10400384,0.06443340,-0.03832515,0.29538617,0.00265858,0.03983094,-0.00112196,0.05115232,-0.02658740,0.02821474,-0.02320097,-0.11648527,-0.10983693,0.11916918,0.06928740,0.01245012,0.04208477,0.11493915,0.00611500,0.01566043,-0.06634293,-0.05135909,-0.04814514,0.12682830,0.03366949,0.02468329,0.00392081,-0.04166026,-0.16935115,-0.03099604,-0.11081588,-0.05384126,0.02227604,-0.06469658,0.04049052,0.19547012,-0.02254459,0.02276405,0.00258708,0.00631910,-0.01144483,0.04165514,0.07882788,0.10059300,0.15570769,-0.25834426,0.03238185,0.16099431,0.00290207,0.18293722,-0.02458777,-0.13876796,-0.10984542,-0.09570841,0.04704419,0.05438178,-0.04512774,-0.02787393,0.00638050,0.11301676,-0.02293356,-0.06687828,0.08791759,-0.12603554,0.03456667
0.12295445,-0.01541757,-0.00745213,-0.00131780,-0.05677869,0.14472349,0.09496468,0.03943269,0.00857875,0.12590960,0.04404206,-0.02911061,-0.04368978,-0.13779892,0.07623844,-0.15867266,-0.00085413,-0.04973030,-0.04586205,0.13671535,0.03858254,-0.21271819,0.13173668,-0.07367072,0.05992276,-0.15676160,-0.21826044,-0.03384445,-0.03626586,0.11918221,-0.13685425,-0.16731748,0.03168926,-0.01727650,0.02026502,-0.08717997,0.01948475,0.05714672,-0.01475264,-0.01245790,-0.04992122,0.00943360,0.00187951,-0.01985349,-0.01010017,-0.00024919,0.09434646,-0.09208022,0.09090815,-0.13777564,-0.20159653,0.09954113,-0.00217751,-0.01197918,0.08119307,-0.10468902,-0.01785978,-0.18444330,-0.15215963,-0.01648224,-0.13770312,-0.05066292,-0.16256373,0.02297612,-0.04127545,-0.04552441,-0.00030528,-0.07900898,-0.07450102,0.06260837,0.22497049,-0.11727363,-0.06372721,0.05954939,0.02711869,0.17514367,0.30815855,0.06436437,-0.04400944,0.05796694,0.01811925,0.04982704,-0.02450109,-0.06624948,0.05774315,-0.05106384,-0.18704043,-0.08084586,-0.00652250,-0.03949106,0.06021871,0.03964402,0.20002317,-0.06562149,0.07113497,-0.04086760,-0.14521924,0.28736216,0.00051609,-0.02880913,0.26412460,0.03192877,-0.03613728,0.10068923,0.22845902,-0.04909516,0.04663059,-0.11208889,-0.01768884,-0.04229031,0.08433631,-0.07013272,0.14542472,0.10499732,0.01598128,-0.02113738,-0.10903949,-0.09062401,0.14837000,-0.16411418,0.10182350,0.00740922,-0.03147716,0.06460971,-0.09488678,0.05727747,0.02599138,-0.00446232
0.06164275,-0.09504686,0.03320896,0.01260877,-0.04235400,-0.17800263,0.09636936,-0.07164218,-0.05784021,-0.12873283,-0.05433169,-0.03283804,-0.01147942,-0.12308429,-0.01274656,0.17251033,-0.03475235,0.13492110,-0.09547695,-0.04772533,0.15550779,0.01592330,0.15139467,0.04124519,0.02480664,0.15899979,0.02727148,0.03365028,0.20159350,0.10083179,0.11314660,-0.03264589,0.13135707,0.10450902,-0.10225374,-0.07130644,0.00093471,0.07886522,0.11979255,-0.10752415,0.02931875,-0.08287537,-0.06028417,-0.07878664,0.09257105,-0.03975037,-0.01208019,-0.01928254,0.11855252,0.09499053,0.01459412,0.01203282,0.11180738,-0.03820639,-0.23354743,-0.09890462,-0.08814002,-0.02636474,0.08475241,0.05124344,-0.04652330,-0.01340010,-0.01450011,-0.00505954,-0.13562053,-0.07912352,0.02703143,0.06324635,0.14859356,0.13699754,0.35464406,-0.12058422,0.14033706,-0.01278962,0.13107285,0.04863401,-0.00983603,-0.06411828,-0.08273130,-0.09353220,-0.09285977,0.11983385,-0.09984200,0.07670073,-0.12353959,-0.19979599,0.20734432,-0.10556046,-0.05148324,0.06324697,-0.01011573,0.10692566,-0.06957810,0.08987083,-0.18520290,-0.00652279,0.15830085,-0.22588775,-0.01881676,-0.02327295,0.00679346,0.03152060,0.00691776,-0.02500599,0.10392191,-0.04822150,-0.01627322,-0.09335420,0.15254250,-0.07740117,0.17150235,0.02327347,0.04260968,-0.04277712,0.07828173,0.08040573,0.04684389,0.08743595,-0.07671638,-0.13256602,-0.09776753,-0.04792255,0.14031158,0.02100910,0.09921253,-0.01842127,-0.05333107,-0.04690371
-0.01190006,-0.04493884,0.03868735,0.04824070,-0.12211553,-0.00006898,-0.00889902,0.11610509,0.00705272,-0.05456497,0.01389848,-0.08088275,0.09551622,0.09729513,0.18654636,0.10583461,-0.14495821,-0.12549654,0.01560628,-0.04301022,-0.01795123,-0.04471399,0.10125660,0.09350035,0.00270110,-0.03522501,0.06357747,0.04735308,-0.00731438,-0.02399306,0.10521105,-0.24721706,-0.15623048,-0.07944930,0.05809429,0.00691725,-0.19378282,0.10327227,0.05988006,-0.00741566,0.04501296,0.02362154,0.07041991,-0.00102177,-0.01376133,0.09604982,-0.06926726,-0.05858443,0.07348846,-0.20854934,-0.24798930,0.12287719,0.04792940,-0.05149992,0.08536828,-0.01730518,0.16609426,-0.01874245,-0.06228363,-0.19140518,0.06841835,-0.08257228,0.09587535,0.02459164,0.13003585,-0.11388188,-0.04781843,-0.02751961,-0.04549683,0.05264679,-0.02956073,-0.13324127,0.02449009,-0.00581895,-0.02869584,-0.00397347,0.08050039,0.06048400,-0.08972643,0.16458820,0.03310816,-0.03899934,0.00440704,-0.16449425,-0.02236050,0.01008265,-0.02855298,0.06947728,-0.06943895,-0.03250981,0.08311503,0.08814884,-0.07055748,-0.27434215,0.14328365,0.02285305,-0.24858755,-0.13814455,0.02417424,0.05901774,0.03206491,-0.04023854,-0.00474095,0.04086082,-0.01904069,-0.07889575,-0.02222347,0.00390512,-0.11498825,-0.17453150,0.08908520,0.09895540,-0.08676291,-0.04178436,-0.00407024,0.05078076,-0.05119500,-0.08492981,-0.11177499,-0.02078858,0.28150645,0.03952608,-0.09350808,-0.01172063,-0.11633880,-0.00988811,-0.11689946,-0.01952965
-0.07069401,-0.00166006,0.11075488,-0.04577127,0.04030831,-0.12614523,0.02710113,0.00296030,0.02399723,-0.24288836,0.03826630,-0.06721254,0.02689975,0.02045216,0.02017767,0.19921383,-0.03786345,-0.02305534,0.03930992,0.04007887,-0.14015141,0.10863952,0.00736243,-0.03074173,-0.01455322,-0.15097877,-0.01374914,0.13408709,-0.04409473,0.00760532,0.06209874,-0.08400672,0.02791048,0.02325064,-0.11822140,0.24159841,-0.19388051,0.08940850,-0.00632229,-0.18408357,0.06392499,0.12977558,-0.00244624,-0.03082941,0.04866407,-0.02387387,0.07871838,0.14257599,0.24176231,0.01646640,0.15875237,-0.03531811,-0.11753198,-0.03298232,-0.11764865,-0.08463656,-0.19084470,0.15880714,-0.20557751,0.14517578,-0.10129316,0.09472895,-0.05617718,0.10113976,-0.08013447,-0.04916732,0.05336872,0.19958456,0.12195282,-0.08913198,0.02195933,0.00886791,-0.04584240,0.01411026,-0.13730954,0.20572506,-0.08965717,0.02726359,-0.05466029,-0.10080839,-0.03523006,-0.12934554,-0.09548886,0.04962544,-0.10304300,-0.06107900,0.11423568,0.02863331,0.02989878,0.03485302,-0.05852082,-0.00969302,0.03314305,-0.11561480,0.13503899,-0.05583344,-0.05091447,0.05861255,0.14093055,-0.16880094,0.24128045,-0.06847142,-0.17687058,0.17055146,0.04334674,0.01066610,0.12019923,0.03414966,0.00874994,0.10852271,0.03501815,0.00245665,0.10748822,0.16299248,-0.01302305,-0.03939822,-0.13509196,-0.14585750,0.02427024,0.13358918,-0.14621143,-0.02052275,-0.03044160,0.04020719,-0.10740792,-0.07088872,0.13019097,0.09845228
0.14443865,-0.02442844,-0.05967960,0.14525066,0.12862757,0.13651852,0.01112770,-0.11632104,-0.00823298,0.15417856,-0.01858756,-0.01926520,-0.06440845,0.00605734,0.14544097,-0.05227259,-0.06617038,-0.04521669,-0.10128136,0.14614244,0.09377225,-0.02288727,0.11818804,-0.08898725,-0.03369976,0.01650495,0.22526570,0.05528599,-0.00076558,0.01917255,0.00803508,0.04677314,-0.04097167,-0.03702825,0.00657748,-0.00629461,-0.14266005,-0.09314647,0.08515400,-0.02062467,0.02502248,-0.10343266,-0.04304963,-0.00151503,0.16733639,-0.05501153,-0.23359555,-0.10829752,-0.06417424,0.06482569,0.07538322,-0.09307130,-0.01620432,-0.03262798,-0.13466217,-0.05321840,0.08356393,0.12834182,0.15264897,0.00898033,-0.06720094,0.05747489,-0.10788430,0.18238221,-0.32132518,0.08628007,-0.00947272,-0.03086978,-0.00134277,0.14020345,-0.03126609,-0.00786183,-0.21799053,0.00108688,0.00149008,0.11833996,-0.06001798,0.05956759,0.00474442,0.01316931,0.00058322,0.04664142,0.07918335,0.02217016,-0.11143648,0.02759360,0.12006388,-0.02582183,0.16336173,0.00167919,0.06139485,0.18965262,0.06743690,-0.13459969,-0.15971775,-0.02655573,-0.09757892,0.08438660,-0.07640186,-0.00694005,0.00079036,-0.00948170,-0.00321632,-0.20928210,0.06434579,-0.01865565,0.05542895,0.02204181,0.03731299,-0.09050906,-0.00120589,-0.01073894,-0.03814150,0.04901169,0.05692891,-0.25675189,-0.04585440,-0.12586325,-0.05222931,0.05944594,-0.02494357,0.01909337,0.09539334,0.01292432,0.00947338,-0.10376616,0.15618315,0.01015836
0.07688082,0.13340972,0.07864198,-0.03910490,-0.01694280,0.01161285,0.02097328,-0.12213218,-0.12313600,-0.08360373,-0.01937068,-0.03251487,-0.12292627,0.03396132,-0.02414124,0.00033948,-0.00217872,0.16878666,-0.01495523,-0.05662175,0.03894296,0.09055138,0.06645113,0.05183326,-0.08211350,0.00583799,-0.19810162,0.03296207,0.02130942,0.15283321,0.30930078,-0.03992187,0.05009551,-0.07013097,0.10722956,-0.01466372,0.14671995,-0.05750215,-0.12842004,-0.11569546,-0.13021569,0.02512781,0.03404014,-0.19789261,-0.00063627,0.19668828,0.13229692,-0.14677216,-0.08103274,0.13136071,0.07295018,-0.11975886,-0.01630679,0.09832477,0.15265554,0.08717506,-0.02683908,0.00270038,0.07282549,-0.03116422,0.24360804,-0.07569714,0.04699831,-0.00958764,0.05862960,-0.08009215,-0.22738691,-0.31505170,-0.06560544,-0.04141876,-0.08719437,0.19419472,0.01087149,-0.01279247,0.13040364,0.04808334,-0.00895399,0.04461873,-0.00961046,0.05300673,0.15922670,-0.14813340,-0.08434130,-0.15785368,0.00118504,0.01548158,0.01209332,0.02915263,0.00319925,0.01959574,0.02664136,-0.11831465,0.04961045,0.11063192,0.02201439,-0.13971518,0.06596379,0.09038103,0.19246906,-0.01799482,0.12937038,-0.12480716,-0.06946081,-0.10165909,0.08811231,-0.10736719,-0.05663219,-0.00636715,0.15487309,0.09757274,-0.01903098,-0.02962466,-0.04845136,0.06139885,0.20624559,-0.18883531,-0.06468881,0.05929819,-0.04669492,0.14022966,-0.03537443,-0.00974991,0.09805141,0.00552576,-0.16161092,0.13243777,0.01162166,-0.02161970
0.16884258,0.01572387,0.09178610,-0.08009010,0.10791710,-0.20984457,-0.00192584,0.02032027,-0.00952929,-0.16256110,-0.08102394,0.03310420,-0.16788062,0.03032787,0.13809778,0.03364445,0.28866923,-0.04152963,-0.11505146,-0.07970598,0.11839483,-0.20031710,-0.16739734,0.05561634,0.07451215,-0.07991719,-0.10755599,0.00470308,-0.01866667,0.01284002,-0.08718614,0.12293949,-0.10230990,-0.10137042,0.11115637,-0.04049806,-0.08430064,-0.03364501,-0.05769515,-0.14125656,0.00778043,0.13488591,0.00648451,0.04742166,-0.02063883,-0.13484718,0.20426385,0.00891704,-0.01691143,-0.02206215,0.14956045,0.11979692,0.04587922,-0.14042383,0.17831634,-0.18276434,0.12175354,0.06239017,0.04633673,-0.04360256,-0.20381449,0.07811939,-0.00336678,0.02130569,0.00412292,0.06426924,0.10521747,-0.20193736,-0.09975228,0.11554284,-0.14890896,0.04991420,-0.06139027,0.03691768,-0.01084958,-0.11643641,0.01684113,0.11618862,-0.03719582,-0.01780177,0.02685813,-0.02823441,0.05704412,0.01595872,-0.05238660,0.05168741,-0.05060687,-0.00350243,0.00791495,-0.03971431,0.00689096,-0.01803194,0.03520066,-0.01184497,-0.10149051,0.02978978,-0.27581796,-0.13413876,-0.01440375,0.01668132,0.18490309,-0.18745983,0.15154374,0.04618977,0.06127258,-0.03389991,-0.01106232,-0.14944491,0.10130008,0.03898251,0.07042132,-0.04272686,-0.08055563,-0.13340707,-0.07972846,-0.07296246,-0.00685386,0.08049928,-0.05035074,-0.05698781,-0.05025586,0.00238367,0.03265671,-0.04001616,-0.01558678,0.15557563,-0.04859431,0.05334563
-0.11370301,-0.12867422,-0.07225649,-0.14512944,0.01554268,0.16730446,-0.05640793,0.11449520,-0.04296044,-0.07994621,0.32819188,-0.03807149,-0.03019819,-0.04175548,0.17685179,-0.10016315,0.10436342,0.02419802,-0.09696487,-0.02178507,0.07351340,0.06170661,-0.12921089,-0.01449041,0.07619549,-0.07878402,0.05877943,0.16607182,-0.08257931,0.06652194,0.21722510,-0.01895154,0.08547950,0.04279672,-0.07498610,0.19517437,0.02940409,-0.01995751,-0.11962458,-0.00217487,0.12421692,0.06379975,0.05245546,-0.12246764,-0.04098884,0.09154312,0.06369866,0.13051501,0.09834570,0.05591040,-0.13906577,-0.03547187,-0.01733332,0.06958439,0.15052503,0.04111683,-0.03520276,0.10404135,-0.07824501,-0.18699771,-0.14066836,-0.13994390,-0.06600160,0.08057270,-0.16657819,-0.10651569,-0.00237578,0.00141025,-0.15158252,-0.07790881,0.15758947,0.06282308,-0.01167957,-0.04794154,0.20039277,-0.15231244,-0.08183697,-0.00258837,-0.04397171,0.16266064,-0.24200428,0.04088435,0.08956337,0.13164493,-0.12222844,0.05293375,0.05198548,-0.01679085,-0.05935732,-0.22563750,0.01582296,0.01557850,0.08719016,0.17311479,-0.18679269,0.11537234,-0.08007673,-0.02480156,0.03928133,-0.09246232,-0.11462864,0.11098646,-0.03215323,-0.12917414,-0.12465560,0.13428722,-0.00244050,0.04997766,0.11573317,-0.09539810,0.07530256,-0.04190890,0.07694674,0.04230812,0.02156967,-0.10106295,-0.03066173,0.00472341,0.19133799,-0.06964207,-0.28960487,0.15215567,-0.04381469,-0.05287891,0.00231304,0.07410645,-0.03077804,-0.04893272
-0.16824749,-0.04731822,0.04480175,-0.13423106,0.09706750,0.00616620,0.11437251,0.07347553,0.11890033,0.10031634,0.08455439,-0.01280223,0.10580849,-0.01235464,-0.16754666,0.14283769,0.06243091,0.09523481,-0.07578232,-0.05374045,0.00734176,-0.17047733,-0.03277381,0.09655440,-0.01671183,0.06758479,-0.00098469,0.12771443,0.04193028,0.04116419,0.08601998,-0.06175801,-0.22227454,-0.09853295,-0.09433135,0.16821533,-0.02644183,-0.13304672,0.01794515,0.17098805,0.04256272,-0.04783629,-0.01138767,0.02395460,0.21410866,-0.09038609,0.13231339,0.07199456,0.01899121,0.07730190,-0.06058993,-0.06831367,-0.09857388,-0.11255141,-0.02535782,-0.00504594,0.06295257,-0.05931311,-0.11739210,-0.02190626,0.01007212,-0.06134312,0.02617249,-0.18120639,0.07740818,0.02196265,0.02304486,-0.11505835,0.17625874,0.02697820,-0.00873701,-0.00802511,0.03367300,-0.03243107,-0.15439340,-0.03480070,0.10599339,-0.08438942,0.00606771,0.00597656,0.06545042,0.15284574,0.02588500,-0.05549132,-0.03473264,-0.00035456,-0.00886551,0.13148320,-0.11289967,0.01004612,0.04318436,-0.11351481,0.01180122,0.33041048,-0.24638726,0.02604391,0.03378133,0.03171510,-0.19168983,0.03246403,0.08572315,-0.08296394,-0.14799917,0.10852966,-0.14409116,-0.18166095,0.05541072,0.10596769,0.07022083,0.05794074,0.24768743,0.00241055,-0.16206768,0.01452002,-0.03230436,-0.12239718,0.06846193,0.11900205,-0.01274323,-0.01387330,0.02787246,0.02298359,-0.10098446,-0.04461493,0.03713519,-0.03992282,0.03527262,-0.03807498
0.07248072,0.04804715,0.10589032,0.00251560,-0.05322563,0.08392480,-0.04727179,-0.00904922,-0.07677200,-0.13847132,-0.07720718,0.10823298,0.05198721,0.10874479,-0.18449126,0.06396703,-0.07954153,-0.05514638,0.01255994,0.02370694,-0.06229983,-0.06898649,0.04040997,0.01159841,-0.12369168,-0.04833633,0.20795290,-0.02084171,-0.04365472,-0.07948836,-0.02077361,0.01965640,-0.08028193,0.09417945,-0.00750853,-0.19829676,-0.05660266,-0.20350817,-0.02855092,-0.00222673,0.17244986,-0.04346645,-0.04305880,0.01366359,0.20205405,-0.06910555,-0.17768259,-0.06585702,-0.08957846,-0.01257334,-0.08759309,0.11533440,0.00713998,0.04422408,-0.05378028,-0.09909195,-0.00985352,-0.11820265,0.02325548,-0.02609393,0.08237301,-0.00256411,0.06628275,-0.04360698,-0.01573019,0.09939519,-0.13137087,-0.12099665,0.11682316,0.06849086,-0.20076582,-0.04435573,0.22925089,0.01323748,0.00427515,-0.03451040,0.13042761,0.15186207,0.03238231,-0.05817005,0.04262621,-0.13593346,0.00207048,0.03393221,0.07922850,-0.03486903,-0.10431330,0.01236010,-0.08369233,0.02411825,0.01265620,-0.03844041,0.04219491,0.03432757,0.05706504,-0.07582004,-0.00516674,-0.02633409,0.15647922,-0.12152748,0.03463892,0.00910975,0.02746322,0.08067144,0.00191658,-0.00358849,0.13892907,-0.00804795,-0.08424071,-0.01553337,-0.04821180,-0.04107355,-0.11030663,0.25289184,0.18765581,0.01436117,-0.00383196,0.12347777,0.23987539,-0.03446935,0.09058460,0.03249141,0.01157610,0.09278675,-0.30243576,-0.05530571,0.16353855,0.07580234
-0.13009557,0.00516776,0.03864888,-0.00462552,-0.03598643,0.17553052,0.05083469,-0.00092982,-0.02714047,0.00795469,0.06172645,-0.03517654,0.09930871,0.04812798,0.03386360,-0.17642891,-0.26390254,0.04297208,-0.09754896,0.12109000,-0.08525287,0.16722567,0.09467947,0.02541083,-0.03871777,0.19738473,-0.18644533,0.13423280,0.03561100,0.05129076,0.26481843,-0.13041173,-0.02857242,0.00911821,-0.10914625,0.00523631,-0.03724206,0.01279590,-0.15982428,0.15305792,-0.17307034,0.06001073,0.07040813,0.13576646,0.12500545,-0.03943696,0.03677600,0.10014381,0.02474053,0.06617844,0.07271440,0.01153693,-0.00322615,0.06904475,0.12371618,0.16351807,0.02556995,0.00305521,-0.03893470,-0.00394314,0.01082723,-0.10891735,-0.06240709,-0.10242003,0.04860829,-0.05293759,-0.23395169,-0.23940845,-0.04171815,-0.07227636,-0.10900811,0.13137589,0.09852623,-0.03366144,0.06633064,0.08633300,-0.05055330,0.00152632,-0.02674288,0.02463345,0.01320220,-0.14201303,-0.25649184,-0.06915413,0.16338152,0.02180262,-0.05498339,-0.18624935,-0.12637685,-0.07798751,-0.03809423,0.12239064,-0.21839353,-0.16727366,-0.10236656,-0.12111793,0.17814285,-0.04151817,-0.07261521,-0.03266258,0.13937278,0.00014890,0.10494563,-0.03414072,-0.10552187,-0.00954649,0.21638422,0.06132109,0.03649352,0.01338030,0.11256934,0.04013057,-0.00502745,0.16340391,0.04435662,-0.02730018,-0.11561768,-0.14784448,-0.01102215,-0.07354975,-0.05791694,-0.02273082,0.14306417,0.18005025,0.00135762,0.01773256,-0.00260637,0.00135025
