0.09825297,0.02920641,0.01948254,-0.04871698,-0.02712705,-0.14646730,0.02257657,-0.03967740,0.01001432,-0.08251750,0.07168780,-0.10158323,0.02011539,0.04771723,0.04209991,0.06049363,0.02944647,-0.03777446,0.01602532,0.02875983,0.02785795,-0.05227926,0.03307141,0.04322634,-0.04950780,0.06642693,-0.07096153,-0.03386300,0.01991984,-0.01509128,0.05251196,0.08859665,-0.00469368,-0.05291669,0.07437254,0.10347643,-0.07133595,-0.05507384,-0.13665709,-0.13787133,-0.11039918,0.02748662,0.03220074,0.01427007,0.06772354,-0.04296602,0.00064048,0.07285716,0.03975992,-0.08179234,0.10921525,0.01724821,-0.03585600,0.14332350,-0.04599216,-0.02990740,0.01007470,0.08469952,0.02175402,-0.02935864,0.02762748,-0.00758908,-0.06901138,-0.00566275,0.07389735,-0.07422065,-0.02353332,0.02976926,0.10855886,-0.00145742,0.06703491,-0.03779372,0.07871014,-0.02822191,-0.00939643,-0.00523620,-0.05194726,-0.03795099,0.09086043,0.05309434,-0.08942700,0.13091277,0.03739744,-0.10894538,-0.06289780,0.02913113,-0.12704244,-0.01085883,-0.04524532,0.04264702,-0.02925866,0.06287295,0.03323013,0.11298302,-0.00759939,-0.04409728,-0.03430585,0.04842843,-0.04995537,-0.00319938,0.06186134,0.04462409,0.01988697,-0.01764415,-0.08858791,-0.03493573,0.01411381,-0.03190099,0.03730306,-0.14356989,0.00489448,0.05860674,-0.03996614,0.03040808,0.11132815,-0.00492242,-0.14194852,-0.02579302,-0.08835219,0.04085084,-0.03183987,0.05415834,0.07330456,-0.00430137,-0.09234976,0.01001023,-0.02120446,-0.11543441
0.04532787,0.05686104,0.01551580,-0.12476387,-0.06862590,-0.07726326,0.01391083,-0.00554072,0.04938873,-0.08736581,-0.01286476,-0.02893735,-0.02890539,-0.03660008,0.00678597,-0.06785258,-0.12472577,-0.09422273,0.04483054,0.06750121,-0.01978571,-0.03856002,0.02278051,-0.01772754,-0.06361732,0.07587105,-0.08018655,-0.01827204,-0.00849717,-0.02361642,0.04358353,0.05859771,-0.04595374,-0.04862729,0.09466742,0.02899120,-0.04254984,-0.08029506,-0.03515857,0.01729664,0.02450757,0.17276427,0.09653625,0.00863005,-0.10309061,0.04446839,-0.04688588,0.02770789,-0.07111569,-0.08728345,0.07456609,0.02585720,0.04150464,0.01785919,-0.07472437,-0.09689793,-0.04807773,0.00636928,-0.01527116,-0.07344393,-0.03099496,0.03314646,0.00648613,-0.01769011,0.02826825,-0.11090837,0.12807988,0.06409057,0.16664010,-0.09497660,0.00468841,-0.02636829,0.02155475,-0.06791723,0.02699240,-0.04553058,0.04252823,-0.05224562,0.00040640,-0.03286002,-0.04810021,0.12269615,0.06521891,-0.00960958,-0.02040956,0.11420820,0.01418055,-0.02956814,-0.05455375,0.09153000,-0.02610973,-0.01920149,0.06271151,-0.04209117,-0.08461158,0.00374465,0.11019620,0.01137692,-0.06338511,0.06195198,0.14230512,-0.04560425,-0.07530445,0.07752003,-0.02877336,0.06833117,0.02952350,0.03921746,-0.06545367,0.00079111,0.12530975,0.04150632,-0.14067833,0.01578363,0.05479195,-0.03896169,-0.03516450,0.01486416,-0.06588480,0.06540803,0.01954571,-0.02908257,-0.01751665,-0.12132371,-0.00763637,0.03880599,-0.05698019,-0.15422595
0.03371361,-0.00417901,0.00465676,-0.04585551,0.00637776,-0.04163158,-0.01533943,0.05508682,0.01984128,0.08047394,-0.08158098,-0.01948975,0.04442575,-0.05336707,0.02778536,0.03635224,0.03953769,-0.09281546,-0.02916329,0.01250444,-0.09606801,0.03847514,0.09005534,0.03857741,-0.03272030,0.00343608,0.00520761,0.01504747,0.06126627,0.04861899,0.02596921,0.15258107,0.01224627,-0.01091880,-0.10647560,-0.02602374,0.05517624,-0.02439895,0.02949954,-0.05899561,0.02434899,-0.01350120,0.04204862,-0.02875899,0.08015244,0.01853235,-0.05530602,0.01297469,-0.04143767,0.05584510,0.01656141,-0.09764374,-0.06539238,0.00150000,-0.03973347,-0.05147967,-0.06343766,0.07652008,0.04917972,0.04184281,-0.05666621,0.04624116,0.00578890,0.01877552,0.11273386,-0.00718571,-0.02817625,-0.00556132,0.03970092,-0.01425700,0.02413953,-0.03562251,0.01677800,-0.02049153,0.01872684,-0.01640806,-0.01682441,-0.00789655,-0.03419448,0.06505334,0.05536708,0.00914089,0.02301123,-0.00721091,-0.12565005,0.02027788,0.06680116,-0.03565041,0.04868987,-0.06017157,-0.00267337,0.01009860,0.06070284,-0.11498849,0.01039174,0.01052534,0.00146654,0.05361482,0.07430635,-0.06544490,-0.03045810,0.05918625,-0.05714837,0.00621718,-0.00840122,0.09620392,-0.03537871,0.01724302,-0.04734781,-0.01685546,0.03299697,0.00433329,0.00592695,0.03142126,0.04901730,-0.04370045,-0.13371682,0.04343295,-0.03978471,0.00155603,0.06186708,-0.01128212,0.04299930,0.09759892,-0.04477950,0.01445280,0.02238981,-0.08475607
0.03632646,-0.03960090,-0.02392811,0.02644061,0.02188404,0.00155250,-0.01758557,0.02589334,-0.04048166,-0.07465123,0.06776671,0.03590779,-0.07840049,0.02660359,0.03630942,0.04729221,-0.02738079,0.03490043,-0.11223067,-0.01737290,0.06772715,0.01513931,-0.00225177,-0.02604662,-0.01460147,0.04276802,0.06173476,0.02181997,0.02795358,0.05416401,0.04029020,-0.02481491,-0.02535275,0.00448013,0.05371075,-0.02901190,-0.01011995,0.01295425,-0.02115186,-0.03331282,-0.05242636,0.04109398,-0.09422282,-0.02991786,0.04509295,-0.07724123,0.02339769,-0.01488878,0.04166154,0.01867543,0.03304584,-0.02629202,0.02593667,0.08964218,-0.00131191,-0.01759298,0.02316179,0.05708066,0.01604102,-0.00504489,0.01746905,0.02622391,0.02052137,0.01408174,0.01629684,0.02673141,-0.00840738,-0.01033419,0.03851395,-0.01109635,-0.02466721,-0.01688384,-0.08833433,0.05802598,-0.00511246,0.01721394,-0.02504649,0.06966422,0.04738655,-0.02380105,-0.01578945,-0.01685105,-0.02036694,0.00395069,-0.01242569,-0.01097402,-0.03156611,0.01504379,0.04943409,0.00374934,-0.00105770,-0.00657999,-0.01215670,0.03444643,-0.09460319,-0.01593203,0.05795234,0.02499416,-0.01708869,0.03487085,0.01264163,0.01520399,0.04828766,-0.02910800,-0.01737360,-0.09118664,-0.03067148,-0.03593690,0.05061516,0.02794214,0.00904900,0.00726530,-0.05595431,-0.00272325,0.02944665,0.00409061,0.04735061,0.00901460,-0.00269484,-0.03404081,0.03092794,0.01208818,0.03252141,0.02587645,-0.04737474,-0.02064906,-0.06905854,0.00746662
0.00776877,0.06240603,-0.00503584,-0.10705152,-0.09921492,-0.08365718,-0.10950354,0.02844634,0.06439519,-0.01754973,-0.01966724,-0.11476406,0.03649936,0.03872495,0.05143053,-0.01042442,0.04661727,0.05633235,0.16987228,0.01088550,0.03909075,-0.05934533,0.01761152,0.17467232,-0.27163535,0.05214441,-0.06021315,-0.06388269,-0.10533771,0.01881534,-0.04225437,-0.03347740,0.02715532,0.05848964,-0.04547379,0.05614303,-0.05026278,-0.00951060,0.02033260,-0.01526713,0.03580808,0.06843691,0.09780092,-0.04791876,-0.03008213,0.01534468,-0.04568875,0.04834487,0.00230443,0.04029750,0.05649006,-0.03768507,-0.08891741,0.08943067,-0.03888435,-0.05231345,-0.01738446,-0.01114169,-0.01302823,-0.01875028,-0.03448170,0.17366733,0.09284830,0.02909631,0.00416148,-0.11230902,0.07952009,0.09708969,-0.05201554,0.07846615,-0.06838142,0.05953613,0.05485936,-0.09980164,-0.04723583,-0.00290226,0.06010556,0.00777511,-0.08329991,0.03145278,-0.15494767,0.06548388,-0.07503041,0.04980272,-0.04011375,-0.04431919,-0.02215228,0.04464246,-0.13138360,-0.04791679,0.01819460,0.00640868,0.23200516,0.05584830,-0.05360636,0.04953514,-0.00326789,0.15261544,0.03852004,0.09954475,-0.07704742,-0.04534357,-0.00921224,0.02666300,-0.08812991,-0.02488018,0.11460130,0.10641281,-0.02108097,0.08432059,0.13542370,-0.11585420,-0.04578075,0.00733724,0.07231718,0.03562491,-0.15952623,-0.03447527,0.00640243,0.14112069,0.00320026,0.05476377,-0.08817085,-0.00471886,0.07855959,0.02941481,0.00896665,-0.10085405
0.05112948,-0.01330757,0.00141421,-0.02731059,0.11550675,-0.03438205,0.05291284,0.11673784,-0.07912429,-0.06825962,0.01936338,-0.03578377,-0.02840464,-0.07541197,-0.00967405,0.27248621,0.04746033,0.00599731,-0.19027619,-0.03787588,0.02600159,-0.03946806,-0.15497112,0.00727566,-0.05748887,0.04564749,-0.05961956,-0.01290718,0.05692456,0.10266892,0.08219865,0.15725259,0.07477643,-0.04468616,0.10094532,-0.08367264,-0.07109571,-0.07056796,-0.01032749,-0.15363248,0.01578928,-0.13588837,-0.02164842,-0.06486834,0.10743356,-0.06970806,0.15053013,-0.10149436,0.10206233,0.03621363,0.00969486,0.04919346,-0.05720083,0.01395338,0.07302140,-0.06207922,-0.07616333,0.00942568,-0.00604948,-0.01997046,0.03652675,0.00848556,0.02035356,0.13269113,-0.00219780,-0.00294964,-0.08560140,-0.04752352,0.00062270,0.10635058,0.07453935,-0.07337989,0.06507002,0.00951301,0.03163953,0.10082572,0.06402253,0.04435170,0.07295589,0.04626570,0.09187029,0.08329682,0.02998564,0.03487302,0.01843277,-0.04168630,0.04260596,0.01937774,0.03361039,0.10526601,-0.05693834,-0.12534899,-0.15288830,-0.00908392,0.03123686,0.06887113,-0.10317115,-0.06370265,0.01139498,-0.00075040,0.15983671,0.04855787,0.07458006,-0.04053741,-0.03141820,0.00448267,-0.09810627,-0.07138119,0.06888258,-0.06673247,-0.06087860,0.06221721,0.00081795,-0.20098682,0.05712543,0.09052172,-0.06651625,0.03967054,0.00776623,0.04707818,-0.17619486,0.11596040,-0.02259178,0.05888896,-0.02451281,-0.03991793,-0.05127501,0.00548382
-0.00807232,-0.03887262,-0.02880627,0.07598457,0.03696831,0.10360509,0.00970698,0.00555091,-0.02994107,-0.02084985,0.07529130,0.02049301,-0.05793833,0.03658824,-0.08597705,-0.01108946,0.00061993,0.03881432,-0.00226850,0.07289494,0.03080972,-0.01957809,-0.03748019,0.01439587,-0.03425730,-0.03984562,0.10185017,0.02831149,0.07454461,-0.00903715,-0.02341064,0.05845654,0.00644661,-0.06975438,0.09555832,0.01165207,0.02430572,0.02046166,-0.08204032,-0.01940234,0.04416711,0.01433978,-0.06802478,-0.02486023,0.01113868,0.00815123,-0.03852922,-0.03503918,-0.00981895,-0.02258108,-0.08504099,0.03183183,0.04178968,-0.01203361,0.00299452,0.01231694,-0.11012831,0.01079491,0.06514271,-0.01127512,-0.03985872,0.00463852,-0.02811729,0.03383806,-0.04567684,0.04211876,-0.03021640,-0.01795527,-0.01927135,0.01217218,0.08192023,-0.11958933,-0.08060066,0.08151471,0.08925071,0.10277042,-0.06778436,-0.02423584,-0.02154802,0.03258515,0.15764965,0.00951671,-0.03443073,-0.00021799,-0.02983855,-0.04324515,0.06420613,0.06506426,-0.02737073,-0.02346185,-0.01012971,0.13544078,-0.02773823,0.00854280,0.10285860,-0.03028900,0.03719323,0.06949043,-0.04714313,-0.11346161,-0.00967476,-0.07528840,0.08728147,0.01628554,-0.00042796,-0.10626300,-0.01250248,-0.02249997,0.03363324,-0.03930923,-0.00413673,0.02058896,-0.11391229,0.03781215,-0.02132309,-0.11140333,0.21444787,-0.06696229,0.00884708,-0.00918828,-0.04446312,0.03887567,0.00712252,-0.05161321,-0.05313380,0.00325824,0.06577979,0.00053226
-0.03537457,-0.03776561,-0.02756887,-0.07626432,0.04750772,-0.12455233,-0.04243964,0.05393512,0.05689570,0.00542881,-0.01510512,-0.00758572,0.00646396,-0.03714260,0.06392453,-0.00339683,0.08316211,-0.05298607,-0.00377398,-0.03380695,-0.00273436,-0.00196252,-0.02769863,0.05212040,0.01790811,-0.09420042,0.02340324,0.05061089,0.02167741,-0.01563848,0.02482410,-0.06724501,-0.00407858,0.00703384,-0.04988821,0.01613784,-0.00075997,-0.07188371,0.08742589,-0.04886654,0.11831994,0.09185719,0.07425272,0.05305261,-0.05578237,0.00131879,0.05353940,0.03740688,0.01692234,0.05010289,0.09146921,0.00204804,-0.06381481,0.12895420,-0.06976469,-0.06200236,0.06995746,0.00071988,0.05540677,0.02548756,-0.08271191,0.04399444,0.03260367,-0.00355643,0.02232193,-0.09108063,0.00051580,0.03245505,0.02102640,0.04347617,-0.00796902,0.00668958,0.08118729,0.02562869,-0.03494896,-0.00463003,0.06860571,0.00366189,0.01815072,0.09082862,-0.08414161,0.00610379,0.03786440,0.08314064,0.02599627,-0.03933702,0.01796285,-0.04564506,-0.04475906,0.02753131,-0.00331656,0.05954241,0.00683428,0.02214902,-0.10934623,-0.01193747,-0.00071794,0.05891032,-0.01217924,-0.03323917,-0.05816749,0.01391554,-0.01837892,-0.06176458,0.01768644,0.04152229,0.07228074,0.01076810,0.02472783,0.03958272,0.09821089,-0.02730250,0.08329251,-0.05182816,0.07618874,0.06683404,-0.08550563,0.04971447,-0.02252203,-0.01758761,-0.04054952,-0.11339632,-0.04041687,0.01823847,0.04848935,0.02892261,-0.00454931,-0.05007579
0.13373737,-0.04660625,0.01536114,0.04257155,-0.01820506,-0.08215158,-0.10444894,-0.09027572,-0.01690408,-0.06615085,0.02920358,-0.09688331,-0.04602702,-0.06579161,0.01112468,0.03444828,-0.01221835,-0.08698644,-0.08040741,0.06202517,0.09995575,-0.10229797,0.09410111,-0.06147571,0.03571744,0.10923197,0.06626209,0.03468996,0.07711554,0.03469941,0.03889504,0.18308033,-0.08274683,-0.04155310,0.00501310,0.08894257,-0.07739335,0.01325758,-0.12358727,-0.07811140,0.01505754,-0.03914745,-0.11435126,-0.02886990,0.09508836,0.04394897,-0.05987459,0.07216529,0.06968479,-0.03529348,-0.05745884,-0.02070522,0.00443931,0.05873612,-0.02172375,0.04598360,0.01153788,0.09289291,0.00943531,-0.00036526,-0.04687873,0.04596920,-0.11561958,0.00863396,-0.00851150,-0.02431135,-0.03251396,0.09613633,-0.00708351,-0.00901708,-0.01617298,-0.03047386,-0.00317408,0.06098033,0.06726082,-0.06297313,-0.01890324,-0.07091667,0.08392483,0.07541537,0.06710491,0.09980543,0.09681129,-0.14177126,-0.06334748,0.07579088,-0.11327120,-0.08853088,0.08604807,0.04321102,-0.04855211,0.09067632,0.01924068,0.02927423,0.00413689,-0.01775280,-0.02419403,0.01193898,-0.06928069,0.00729445,-0.10366614,0.06855080,-0.00403706,0.00571649,-0.04412401,-0.01905941,-0.05057472,-0.03291898,-0.05719142,-0.03256785,0.01909401,-0.00873797,-0.00933397,0.05865816,0.00892816,-0.01325310,-0.00877922,-0.06064597,-0.07034434,0.01120694,-0.06392580,0.02993355,0.11246058,0.00798475,-0.09775823,0.03436381,-0.03649549,-0.03959253
0.00734066,0.08224052,-0.00661805,0.00143321,0.03307597,0.00979919,-0.02670527,-0.00645394,-0.06886548,-0.00327678,0.08883156,0.16862202,0.07896966,-0.03236267,0.00515014,-0.00522397,-0.04807599,0.04537605,0.05668269,-0.17713369,-0.08878013,0.03954284,0.00108713,0.01858202,-0.06363884,-0.03045594,-0.14227191,-0.00599542,0.04000553,0.06017265,-0.04525497,0.00037349,-0.00409411,0.07962380,-0.08046499,0.05066973,0.01394817,-0.00136052,0.03192292,0.06904961,0.03345342,-0.02248663,-0.02069288,0.06877682,-0.12148037,0.01080366,-0.06658826,-0.02791897,-0.02573111,-0.11162645,0.01230622,0.08034060,0.00066937,-0.00777796,-0.03037843,0.00632428,0.00754104,0.04302400,-0.07309538,-0.10440914,-0.03420129,0.14618304,-0.02769157,-0.08430295,-0.09330459,-0.07619317,-0.06768858,0.06037277,0.07451774,-0.02992602,-0.06204460,-0.02289008,-0.04705688,0.01875952,0.07611258,0.01137268,0.10691621,0.00986737,-0.02608649,-0.00921021,0.05055305,0.01307257,0.05180770,-0.01040454,-0.06193408,0.06024185,-0.09109803,-0.00538810,0.08678350,0.02407689,0.02230252,0.05244947,0.04716976,0.02767197,-0.06829837,0.03122305,-0.03489400,-0.04924860,-0.01366688,-0.14160006,0.00286706,0.01179426,-0.02409487,0.00925860,-0.07281122,-0.06838425,0.04222458,-0.00553155,0.04005222,0.04206228,-0.06851698,0.01911013,-0.05316113,-0.05144802,0.09724874,-0.09838089,0.04812657,-0.04379383,-0.10428645,0.06961779,0.00290189,0.04074547,0.08229017,0.19519714,0.07200538,0.10307887,-0.10243930,-0.02119435
0.05302253,-0.07179926,0.02397883,-0.02073949,-0.05338954,0.10135131,0.13836798,-0.02435325,0.07049620,-0.02175658,0.00141515,0.00009003,-0.02246337,-0.06913547,-0.05154519,-0.04035815,-0.04178279,-0.00914104,0.08481614,-0.04842732,-0.03636462,0.22968304,0.03236351,-0.04905571,-0.03274285,0.00486061,-0.00627350,0.00646626,0.02912759,0.02676517,0.03091286,-0.03819668,0.03738259,0.06538811,0.04085186,0.03182371,-0.01314891,-0.02950158,-0.04249159,0.13981777,-0.05501219,0.05752001,-0.18777552,0.08508375,-0.03507455,-0.01112407,0.06255253,0.05610755,0.08999357,0.03766682,-0.01207911,-0.02596319,0.04318325,0.02446902,-0.13881388,0.03010515,-0.06692404,-0.06682901,0.12271379,-0.02920450,-0.02117506,-0.03381132,0.02841051,-0.09666386,0.04470972,0.00617707,-0.02693060,0.04487335,0.02853055,-0.14810421,0.06820310,0.05158143,-0.07232080,-0.01086190,-0.00914671,0.04225311,-0.07304302,-0.00987393,-0.02747531,0.03769306,-0.03149187,-0.00447055,-0.05635509,-0.03506421,0.01548907,-0.08464840,0.03836389,-0.18592450,-0.04892293,0.00271949,0.04087374,0.09890371,-0.06882259,-0.01207027,-0.01717756,-0.00650408,0.06096839,-0.03078101,0.04454898,-0.01543600,-0.00069614,-0.05817657,-0.06038150,-0.07245235,0.01174473,0.05532114,0.08587255,-0.02682999,0.05702458,-0.00251772,-0.03529131,-0.04899455,0.02177384,-0.06619848,0.02952105,-0.07230937,0.02015440,0.11496648,0.02332992,-0.03832176,-0.01827617,0.12824903,-0.03790529,0.01098275,-0.10375550,0.04336395,0.03381438,-0.03700042
-0.10058484,-0.01582401,0.00917111,-0.01281265,0.02066394,0.02279906,0.02214073,-0.05791709,-0.07194600,-0.03117250,-0.06330673,0.00197670,-0.02290318,0.00366281,0.00681525,0.09109145,-0.05043529,0.05202362,0.05839834,-0.06550426,0.05601808,-0.03265093,-0.02980835,-0.02646259,-0.00057821,0.05402005,0.07130907,-0.07375326,-0.00177607,-0.02581183,0.14222421,0.12800375,-0.05407721,0.00638261,0.02178529,-0.05261387,0.18842107,-0.01034654,0.04887354,0.05969849,0.05120550,0.00354027,0.03022830,0.02470659,0.02540572,0.00788937,-0.00818426,-0.12707710,0.00746872,-0.07280840,-0.03736811,-0.09779461,-0.02009333,-0.02969306,-0.14567231,-0.01488231,-0.03699686,0.02853936,0.00031415,-0.04760269,0.05634286,0.01247190,0.07560050,-0.01209975,0.07075653,-0.01211215,-0.11015774,0.07696470,0.06977788,0.03229922,-0.04211381,-0.08516316,-0.04668461,-0.00556070,0.01784153,0.03701207,-0.05471767,-0.05420261,0.03411586,0.04295529,0.09132637,-0.08110826,-0.05730051,0.07871233,-0.06133528,-0.06750240,0.02607316,-0.04807376,0.09751488,-0.01831857,0.03095429,0.03101303,-0.06957717,-0.03130459,-0.06199254,-0.05822133,-0.13868892,0.03940538,0.01188182,-0.00790550,-0.02936247,-0.02552814,0.11845009,-0.02302691,-0.03566745,-0.02862708,0.01332940,-0.03938026,-0.07401489,-0.03765814,-0.04151626,0.04776457,0.04899073,0.08411030,0.07936580,0.02793137,0.06171034,0.02565362,0.11820509,-0.07745712,-0.05422189,0.08265215,0.02401332,-0.02840267,-0.00023583,-0.06244158,-0.07327261,0.04440616
-0.01040752,0.13636108,-0.02192617,-0.05863468,-0.00593106,-0.02630985,0.00841255,-0.01220384,0.06420925,-0.08033592,-0.05426161,0.10441487,0.17589949,-0.01111206,0.05131577,0.02525119,0.07645477,-0.10308884,0.08500209,-0.03314485,-0.08970159,0.13038495,0.01124885,0.02310196,-0.03081511,0.04553949,-0.18952495,0.03994462,-0.14054944,-0.01500192,-0.04158416,-0.07925926,0.07113575,-0.00944474,-0.03769814,0.03856243,0.04631722,0.05287636,-0.04387747,-0.08105955,0.02810070,0.05060268,0.03534129,0.11405201,-0.02892679,-0.03999743,0.00900051,0.03532489,0.12230875,-0.00253517,-0.03691683,-0.02305991,0.00586900,-0.02247823,-0.16163510,-0.05167735,-0.02300482,0.05076024,-0.13711576,0.03079013,-0.01649033,-0.12076359,0.03438870,0.06123155,0.00353453,-0.04007350,0.03872815,0.01548009,-0.04615471,0.05246238,-0.06307103,0.12924811,0.13621455,-0.04626397,0.05676994,-0.02085284,-0.07704876,0.04825533,0.01426880,-0.01264067,-0.14052123,-0.03769851,-0.00996126,-0.03378516,-0.08213979,0.12999193,-0.00083257,-0.00744536,-0.12272239,0.01708248,-0.09900566,0.07561414,-0.09474116,-0.13919973,-0.04908913,0.04080397,0.00346660,0.02133920,-0.03111765,0.12981035,-0.10504789,0.04364432,-0.00853645,-0.16904233,0.00674306,-0.03368729,-0.04148298,0.03387767,0.04219979,-0.04070110,-0.12746705,-0.05218152,0.05348675,0.15675026,0.14678034,0.09883638,-0.04294728,-0.04597576,0.07918122,0.00408136,-0.06477942,0.07434837,0.00326041,-0.02858777,0.01325194,0.06116242,0.07988703,-0.07575373
-0.00561097,0.02686907,-0.02800369,-0.04779346,0.01508424,0.05583797,0.05403292,0.02083063,0.06112777,-0.00042875,0.00518754,0.03212149,-0.11057595,-0.02634292,-0.00021027,-0.02263087,-0.00168979,-0.03658379,0.07063664,-0.01132438,0.02067849,0.16626485,0.06131955,0.04059743,-0.02371923,0.03621047,0.03197665,-0.00513004,-0.09789339,-0.00682040,0.02664829,0.02387647,0.03930490,-0.03329499,0.01710787,0.05077667,0.03245217,-0.02376716,-0.07095894,0.09948741,-0.01914831,-0.03590632,0.02216548,0.05106163,-0.08838050,-0.11266389,0.02027588,-0.00183754,0.00354667,0.02923694,-0.10286818,-0.00716181,0.10952866,-0.02392709,-0.03591168,0.04123667,-0.03032562,0.01221880,0.05270320,0.00319665,-0.07029498,-0.00778290,-0.02233518,-0.13090748,0.06307088,-0.01208773,-0.03778659,0.00331619,-0.02369910,-0.12047788,0.06383635,-0.04521394,-0.03167651,-0.04821796,0.08196343,0.08032005,-0.03039730,-0.00591925,-0.03108862,-0.01818870,0.00075946,0.02402782,-0.08432869,0.03273665,-0.06754950,-0.04850785,0.01324377,-0.13280004,-0.00120948,-0.04700851,0.00172045,0.06730240,-0.08054802,0.01101337,0.08413786,-0.01792081,-0.05636324,-0.00251527,-0.00577750,0.00759347,0.03232418,-0.11342019,0.06601842,-0.01120083,0.07404698,-0.04743257,0.05050484,-0.08563994,0.08384901,-0.00669559,0.00616705,-0.02116218,0.07626342,-0.10373046,0.04588727,-0.02850977,0.00622093,0.09868700,0.04636806,-0.04796183,-0.08497743,0.09577256,-0.05604534,0.00212215,-0.11531863,0.04073798,0.01553535,-0.01800429
-0.01632266,-0.02077480,0.06370772,0.01576582,-0.11467984,-0.12893631,-0.08031247,0.08971490,0.03611462,0.04145126,0.18822007,-0.02882469,0.02606735,-0.07332874,-0.04483686,-0.12759390,-0.02247533,0.03741980,-0.09055796,0.02045608,0.06768120,-0.07245339,0.00347863,-0.01766124,0.06047242,-0.04896604,0.11288084,-0.13663125,0.00328719,0.00827425,-0.03442814,-0.12485017,-0.08197897,-0.09571501,-0.05062792,0.03771169,0.09444761,-0.04457453,-0.05382505,-0.01968687,0.03828616,0.00250848,-0.02969390,0.13654542,-0.02351112,0.14478385,-0.03155727,0.08401600,0.05369954,0.03869003,0.00494983,0.00315699,0.10655986,0.11482242,0.04261087,0.01978404,0.14627346,-0.08646066,-0.02380350,-0.02771360,0.04482166,0.04702404,0.08752867,0.09987580,-0.00743995,-0.04785756,-0.03818373,0.09225803,0.05832682,-0.05417288,0.03961835,-0.01750824,0.07987200,0.04441580,-0.12958942,0.13673609,-0.07847033,0.00431789,-0.06390284,0.08860637,0.01801918,-0.01673931,-0.08825235,0.01181312,-0.07966013,0.08560754,0.02887717,-0.01708581,-0.03024552,-0.00131521,-0.03564269,0.07198963,-0.05662655,0.05191413,0.00359349,0.00770899,-0.01746154,0.07500413,-0.10058100,-0.12585779,-0.06192950,-0.05348104,-0.02283105,-0.08082122,-0.12225036,-0.13679682,0.04125471,-0.06304547,-0.09752487,0.00848076,0.11271463,-0.14916494,-0.04595846,0.05908279,0.09492387,0.01813750,0.12089189,0.02731909,-0.17994353,0.08213023,0.02376528,-0.17223266,0.03285464,-0.02303591,0.01692985,-0.04158232,0.16958769,-0.01569669
-0.04384967,0.08551521,0.01932324,0.08729087,-0.06141742,-0.09736872,-0.11465982,-0.03809221,0.03068684,-0.05594074,-0.03549435,0.12121391,-0.06425976,0.01265771,0.03371168,-0.04951185,0.03857901,-0.08266246,0.03928286,-0.05378528,-0.10074326,-0.09526505,-0.01508907,-0.05754796,0.02247094,-0.06185839,-0.04147253,-0.02072163,-0.13186315,-0.04549422,-0.01296738,-0.11118595,0.00496474,-0.08749419,-0.01958173,-0.05239397,-0.03030931,0.03947885,-0.04196902,-0.05158490,0.03675461,-0.06828640,-0.13181542,-0.00932255,-0.11793891,-0.07700689,-0.05801433,-0.08415695,-0.12141122,-0.03228019,-0.06124905,0.03339274,0.12411103,-0.13754690,0.04213901,-0.10510494,0.09668010,-0.00211147,-0.03118379,-0.07766809,0.08055312,0.02274508,0.10618268,-0.16333342,0.10984439,0.15232526,0.02691985,-0.00684524,-0.08909391,0.00593263,-0.22320302,-0.05918622,0.13844402,0.22554371,0.00134442,0.03576856,0.11418323,0.18044589,0.02294217,0.03164994,0.07641189,-0.01139400,0.00493136,0.01249112,-0.05116480,-0.00883021,0.06931578,0.00692522,0.15435559,-0.10842533,0.05118057,0.04912503,-0.12743446,-0.09675311,-0.03425803,-0.03355757,-0.29122442,0.08531801,-0.09153199,0.12649979,0.04985435,0.00805809,0.07676797,0.04179189,0.11071909,-0.05026094,0.01614628,0.01439839,-0.00005285,0.07420732,-0.03863661,-0.06088493,0.05806303,0.06882237,-0.01081210,0.03247612,-0.15654208,0.14999779,0.22786365,-0.11072600,0.15620017,0.00711652,0.04957194,0.11197643,-0.20491251,0.04490085,0.03080035,0.08528159
-0.00865767,0.00223131,0.04791734,-0.00627845,0.00669838,-0.05550341,0.05134017,-0.01986246,-0.10384792,0.00265840,0.03325178,0.01052521,0.02530768,-0.04319724,0.01545068,-0.01312810,-0.03781632,-0.02179763,-0.00070636,0.03882077,-0.01987543,-0.00705137,0.00023585,-0.06365032,-0.08186234,0.00562656,0.02727089,-0.05150414,-0.03324264,0.05460947,-0.03447164,-0.01349956,0.04064773,-0.00213653,-0.04696786,0.03037456,0.03996943,0.04986127,0.00198076,0.05888211,0.06888452,0.05309889,-0.00316413,0.01805373,0.00783592,0.01256496,0.07863726,-0.07962461,-0.00726122,0.02516728,-0.00795156,0.02294706,-0.02686295,-0.03730012,0.03325226,0.06605055,0.05224559,0.05123213,-0.01877597,0.04726988,-0.08890528,0.03083537,0.02139881,-0.02791701,0.08754182,0.00000278,0.06178182,0.01867959,-0.00809385,0.08843141,0.02460976,0.00622498,0.00852731,-0.00460374,-0.00063506,0.03143219,0.04730332,-0.02402994,0.00173742,-0.00815135,-0.03366783,0.05737898,0.03143243,-0.03424468,0.02032698,0.03454080,0.00072312,0.00664786,-0.04040257,-0.01621930,-0.00142890,0.00953897,-0.05687039,0.04054277,0.02325137,-0.06029893,-0.02570136,-0.01690486,0.07170723,-0.02893053,-0.05353879,-0.01902720,0.09829763,-0.04783699,0.01821694,0.02399069,-0.00659493,0.03979173,0.06644385,-0.04087421,-0.02614139,-0.00453224,-0.06856823,0.01778917,-0.00796694,-0.08881561,-0.02998982,0.01556780,-0.00308012,0.01152441,-0.02109735,-0.02992857,-0.01621389,-0.03216606,-0.03413355,-0.07709980,-0.08562893,-0.01131261
0.05420609,0.05872357,-0.01369788,0.05964405,0.06245140,0.00502385,-0.04933063,-0.04597845,0.06106618,-0.09132196,-0.04342955,0.02104814,-0.13229460,0.12210283,-0.08031544,0.06715208,-0.05220943,-0.01427607,0.04040115,0.13031794,-0.02556712,-0.01218243,0.06540996,-0.00457174,-0.14727581,0.04762420,0.03064654,-0.04184777,-0.03975866,0.15711492,0.18537934,0.05090846,-0.09389517,0.03764800,-0.11537912,0.11590810,0.04441979,0.02737149,0.02305883,-0.10734026,-0.03037162,0.04949917,-0.01464936,0.03882240,0.03791317,0.10059135,-0.10579149,0.07552531,-0.06183219,0.06309247,-0.05106744,-0.00829743,-0.05081922,0.04734891,-0.10201371,0.00472288,-0.11704706,0.13462059,0.04449175,-0.09118400,-0.01856620,0.04822709,-0.02807071,0.02456843,0.10398474,-0.09656332,0.04877809,-0.02860302,0.14429449,0.03001213,0.06756934,0.05091365,0.04038898,0.00318527,0.03926946,0.00891593,-0.06857776,-0.11327321,-0.08755853,0.00746315,-0.00080664,-0.01164192,-0.02641796,-0.01693951,-0.00903374,0.05314347,-0.16214678,-0.05231483,0.02726707,0.01212365,-0.09737525,0.03735769,0.03937144,-0.01908975,-0.02875527,-0.12156928,0.02583216,0.02537574,-0.02031658,-0.03107702,0.01560431,0.06606520,0.01209294,0.08262566,0.00761766,-0.02222248,-0.07751366,-0.05247332,-0.04690114,-0.08052376,-0.05539562,-0.01837095,-0.02810081,-0.00479090,0.04916186,0.03055155,-0.03921299,0.06161284,-0.12961037,0.00383245,-0.02372489,-0.06013517,-0.06287864,-0.00001829,-0.09197977,-0.02247295,0.06970929,-0.13498077
-0.06805193,0.10535265,0.12635335,-0.04068056,0.04772504,-0.03164767,0.05919128,-0.01869200,0.00589599,-0.00993270,-0.08433872,0.03730941,0.02208820,-0.00439943,-0.00790018,-0.02943525,-0.01144037,0.03742906,-0.02195475,-0.03507454,-0.12594379,-0.03481711,-0.16111259,0.03738852,0.03214508,-0.00256110,-0.01592918,-0.00565349,-0.06571420,0.01081988,0.04200744,0.05195554,0.16945040,0.01290664,-0.11990925,0.01638710,0.05737014,-0.04305425,0.05686202,0.04941078,0.03931988,0.02729991,0.01924290,0.00419348,0.01239279,0.01897511,-0.00028989,0.01005463,-0.05776808,0.07188243,-0.11688713,-0.07312774,-0.01779164,0.02774980,-0.01498835,-0.09849349,-0.04041277,0.03289131,0.00171328,0.04212080,-0.03399894,-0.04101612,0.03951783,-0.00145947,0.01834208,-0.05241246,-0.05266039,-0.01182355,-0.09167804,0.02111028,0.10411005,-0.01952577,-0.00034519,-0.02489669,0.11385040,-0.03699829,0.02841812,-0.00449565,0.01510142,0.02214095,0.04103001,-0.02963621,-0.01927064,0.06539237,-0.01816436,0.02178226,0.09988891,-0.12444314,0.02995864,-0.11471137,-0.01701626,-0.04842459,0.06205323,0.04080623,-0.05745932,0.06627824,-0.09696694,0.04349707,0.00805408,0.06144547,-0.05600100,-0.07465148,0.05278129,-0.00824273,0.03294111,0.13001755,0.04328788,-0.04560953,0.02970552,-0.07904365,-0.02766313,-0.05636441,-0.02517342,0.19432405,-0.07437801,-0.04687043,-0.05700674,-0.04087653,-0.02256919,0.06779460,-0.01939944,-0.08204742,0.01721435,0.04697461,0.08613589,0.02775418,0.00588696,-0.02532280
0.05296914,0.12974623,0.02736991,-0.08961356,-0.03592277,-0.12399235,0.00592837,0.04748865,0.06065090,0.03045133,-0.02124151,0.03996988,0.15019140,0.08285131,0.09570467,0.03584969,0.02597968,0.01878108,0.04252621,0.01506856,-0.10284713,0.06871214,0.04203283,0.07455572,-0.10486036,-0.09766445,-0.08331827,-0.04235714,0.02294538,-0.08549919,0.08522732,0.05102969,-0.08776937,-0.02296172,-0.02022070,0.06048426,-0.09159072,-0.01445399,0.15714130,-0.11675194,0.07607711,0.09964699,0.05496516,-0.06944255,-0.13114183,-0.01074032,0.02202791,0.11175369,0.06351905,-0.13203536,0.05384861,-0.01658539,-0.03311877,0.10186600,-0.01575512,-0.02920697,0.14212917,0.01253475,-0.00767635,-0.05416852,-0.08238224,0.03826371,-0.00260916,0.00174278,0.03128262,0.04140842,0.08538484,0.08655729,-0.01290413,0.04044403,0.04591907,0.01577073,0.19957720,-0.09455425,-0.12669601,-0.08824914,-0.08766356,-0.01394371,-0.01103470,-0.00152036,-0.16206448,0.04092928,-0.09371635,-0.07013194,-0.04117834,0.04534922,0.04459251,0.04990790,-0.19021837,0.11041714,-0.03624863,-0.02732918,0.05195331,-0.07010338,-0.01024392,-0.02326457,-0.02123432,-0.09894094,0.06128882,0.07520587,-0.06502239,0.06055263,-0.08788250,-0.01835159,-0.14847918,0.03346429,-0.01017466,0.12481949,-0.02011028,0.01595470,0.01242704,-0.12081340,0.05344898,-0.17130785,0.03631733,0.04234589,-0.07697541,0.01912053,-0.03879615,0.02547283,-0.04225976,-0.06498142,0.03877692,-0.11830226,0.03140295,0.10011651,0.00290839,-0.09520937
-0.07605947,-0.00000137,-0.03052167,-0.00575345,-0.04778787,-0.03357021,0.11319239,0.03047990,-0.04512534,0.07532325,0.00277595,0.00188203,-0.01978274,0.02145311,0.12452903,0.04868831,0.10353451,0.03704931,-0.04609623,-0.00302179,0.02839790,0.11874499,-0.01606013,-0.04277267,-0.12913698,-0.05006114,0.05998807,0.01525901,0.18832223,-0.00710299,-0.10633830,-0.05530928,-0.01765676,0.00810138,0.00575272,-0.03265561,-0.07162544,-0.03028056,0.06647043,0.00884651,-0.05472118,0.04988978,-0.00885259,0.02211998,-0.00802632,0.17352740,-0.08452763,0.00285907,-0.00353312,-0.01426158,-0.02160649,-0.02736516,-0.04615040,-0.09048680,-0.14142947,0.03936809,-0.06883691,-0.02334068,-0.12363926,-0.05018463,-0.01045024,0.12320857,-0.10546515,0.01779069,0.02519577,0.04440681,0.03724817,-0.16547702,-0.03565684,-0.06962471,-0.09515271,-0.12965609,0.21712627,-0.00196868,0.00775092,-0.04820028,-0.07574984,-0.04019341,0.02413835,0.00242971,-0.07129714,0.01987609,-0.01995927,-0.02394086,-0.01073397,0.02796633,-0.05514605,-0.07119261,0.02913537,0.01601561,-0.01590136,0.00822064,-0.01791871,0.05307254,-0.05224595,0.05062339,-0.00724193,0.20917669,0.06382650,0.07695577,0.06476896,-0.05319551,0.11967870,-0.02951588,0.03522459,-0.00658371,-0.05933561,0.01876855,-0.00329635,-0.03156911,-0.01755479,0.04058742,-0.01398248,0.03505806,-0.05600119,0.00258247,0.04709509,0.08328114,-0.06476995,0.03899300,-0.09072017,-0.03605957,-0.02691147,-0.01210415,-0.01505036,0.02177723,-0.02131341,0.14454779
-0.00887087,0.13774155,-0.02955720,-0.08859396,-0.11572663,-0.12231661,0.08415292,-0.00579761,0.00911835,0.05045763,-0.13839053,-0.02532138,0.17378826,0.08171861,-0.03393034,0.06875524,0.00087334,-0.19436565,0.11147901,-0.01929819,-0.13968845,0.09959096,0.00884494,0.03034533,0.01082110,-0.04452915,0.01932798,0.01672131,-0.16185932,-0.04024569,-0.03143752,-0.15899692,0.04219509,0.07897536,-0.11489928,0.06611082,-0.02472275,0.00758563,-0.03699359,-0.04318208,0.06670527,0.07060651,0.07660768,-0.00960469,0.00875184,-0.02009585,0.01851258,0.07316391,-0.00878558,0.04033605,0.05419011,0.06041888,0.05268056,-0.06483080,-0.02025399,0.00981524,0.01876498,-0.08446683,-0.04193595,-0.05172331,-0.08630253,0.14458397,0.06625648,0.02907983,0.01377072,0.08675731,0.01661843,-0.05813268,-0.00013610,-0.03765510,0.14572532,0.07186630,0.14924778,-0.06959113,-0.02558180,-0.15256444,-0.05319999,-0.02390850,-0.13139741,-0.02030350,-0.08673613,0.04038839,0.02269885,0.03320891,0.06137440,0.11651811,0.02467909,0.03418741,-0.00501934,0.06238914,0.04785524,-0.05203120,0.08679454,-0.13824376,-0.00368284,0.03408312,0.04092327,0.00779381,-0.05621021,0.00151620,0.03736957,0.15329228,-0.06691412,0.08415159,-0.03707205,0.07937910,-0.04744199,0.09592542,-0.05244270,0.04371068,0.02987531,-0.05052367,-0.00192615,-0.04493850,0.09428772,-0.05303927,-0.17142762,0.02763242,-0.06655428,0.08351646,-0.05795992,-0.04353131,-0.01497033,-0.07743889,0.04251315,0.13312185,0.07412627,-0.19173880
0.05190308,-0.02838190,-0.02524374,0.00485961,0.06094272,0.00033105,-0.11966473,0.01867124,0.01919235,-0.09720389,-0.11258380,0.02038197,-0.13428794,-0.03215178,-0.22687270,-0.04082625,-0.07617225,-0.00704092,0.12134528,-0.01482882,-0.01567990,-0.16073705,0.05376111,0.03992590,0.09866906,0.10549845,-0.08777796,-0.03920208,-0.17990419,-0.03590181,0.16005512,0.06477303,-0.04289598,0.03312419,-0.00431770,0.05344953,0.11484911,0.10081314,-0.09880570,-0.03712809,0.09291768,0.00663712,-0.00143137,-0.09274834,0.01589044,-0.29782400,0.07255425,-0.02391782,-0.00340662,0.06043243,-0.00415458,0.00338978,0.02134017,0.12741233,0.16165322,0.04421200,0.11018100,-0.05931516,0.12109253,0.01917228,-0.06105749,-0.12155477,0.10935062,-0.01509473,-0.03142618,-0.02203557,-0.07859620,0.20323367,0.04368172,0.06599319,0.12345809,0.14940573,-0.28951499,-0.00010659,-0.13684455,0.15560214,0.03054520,0.15420461,-0.03962643,0.00781174,0.04646553,0.00315665,0.17694132,0.03979645,0.05623267,0.06128683,0.12932888,0.08090087,-0.15156156,0.00001101,-0.05513957,-0.01550632,-0.00511888,-0.05310502,-0.01926769,-0.11375518,0.00878532,-0.28532305,-0.01450820,-0.04016653,-0.05455543,0.06956159,-0.18959655,0.05525224,-0.04993135,0.04477323,0.03302879,-0.11786395,-0.04972297,-0.05152748,0.06696893,-0.08016592,0.12851679,0.01597239,-0.04429800,-0.01399116,-0.13334319,-0.15436165,0.07324994,0.01119006,0.14102764,0.06464246,-0.00435260,-0.02178550,0.02005136,-0.03890882,0.03421692,-0.22127315
-0.02711483,-0.07984354,0.01665458,0.01027177,-0.06870959,-0.07978994,-0.05516804,-0.03597222,0.04127676,0.00120443,-0.02865843,-0.05127628,-0.01854145,0.09091445,-0.03166737,0.00780921,-0.00547212,-0.02878014,0.02962390,0.03614081,0.01949370,0.07780042,-0.01502398,0.00788822,0.01477418,-0.00260853,-0.04998828,0.00108160,0.05107240,-0.04617542,0.04071670,0.03889641,0.05289108,0.00199896,0.04696409,0.02897623,0.00850660,-0.02754958,0.04389958,0.02861354,-0.05407738,-0.00460974,-0.01305790,-0.02273511,0.04170309,-0.01628675,0.07022301,-0.02646287,-0.01116854,0.08343700,-0.02537438,-0.04075470,0.09867932,0.09049957,0.05225636,0.00175704,0.00495528,-0.02031909,-0.04127190,0.04326720,-0.02432206,-0.01313380,-0.01916091,-0.01161520,-0.00100377,0.14358659,0.00922911,-0.05012586,-0.00949841,-0.02539625,-0.03069421,-0.03205916,-0.02362302,0.02395526,-0.00780138,0.03223581,0.00742412,0.02616551,-0.08094406,-0.01291804,0.01083088,-0.04585661,0.08025204,0.00111504,-0.02500393,0.07460329,0.08641084,-0.00848191,0.00691944,-0.06145656,-0.07648668,0.09357651,-0.05856114,0.05048419,-0.01639981,-0.01605812,-0.01448482,0.00854710,0.06513403,0.03521796,0.00634973,0.03166383,0.00413563,-0.02595848,-0.03973160,0.01292036,-0.02029693,-0.02993850,-0.07513591,-0.06846723,0.07192048,-0.06076838,0.03371064,0.07596405,0.02851545,0.00524811,-0.04340324,0.02301315,0.03311339,0.00502995,0.02350391,0.06297225,-0.09617312,-0.05083774,0.03929728,0.03791821,-0.01072286,-0.03779261
0.02255292,0.01155874,-0.01656790,0.07443404,-0.07581817,0.02775986,-0.04120690,0.02762016,0.07479372,0.06582822,-0.00205776,-0.06917832,0.06365422,0.04532128,0.01899548,0.00312992,0.04331438,-0.00950302,0.08515352,-0.01309709,-0.05220652,-0.09428252,-0.00658024,0.08081894,-0.02477613,-0.06448522,-0.01340077,-0.02989541,-0.01066961,-0.07161172,0.05263240,0.03792966,-0.03676573,0.02738885,0.03404012,0.00575963,0.05619819,0.02658465,-0.09853579,-0.01494296,0.01265100,0.01223090,-0.07884152,0.00179503,-0.04280256,0.02466504,-0.03788604,0.01191781,-0.00044723,-0.02077353,-0.02192764,-0.03238860,-0.03269590,0.05428073,0.03200800,0.04534622,0.01402912,-0.00936899,-0.01951676,0.00796540,0.00627888,0.02835364,-0.07551869,0.06435491,0.03112862,0.05187168,0.07883394,0.06129574,0.05396268,0.01279951,0.08239678,-0.00258845,0.10269526,-0.18515003,0.03002849,-0.04286187,-0.02551404,-0.00569518,0.02117454,-0.07009559,0.00765269,0.03089271,0.05539602,-0.07411446,-0.00525171,0.01539368,-0.02175089,-0.02060258,0.02518055,0.01316161,0.00068867,-0.12889178,0.09893961,0.02065444,-0.01428098,0.01276011,-0.04804745,0.04529160,-0.00743175,-0.05202442,-0.05925096,-0.05317629,-0.00776866,0.00378776,-0.08048891,0.07925342,0.02890701,-0.00916692,-0.06633132,0.01631433,0.00389534,-0.05387685,-0.12411926,0.09053967,0.01148976,-0.05485407,0.04284408,-0.05533554,0.01089649,0.08769453,0.02773539,-0.07572651,-0.06088238,0.03572500,-0.00856677,0.01959932,-0.00090319,-0.08580600
-0.07353877,0.01166214,0.01797020,-0.06882095,0.01042062,0.03742128,0.00904206,-0.04087210,0.09437475,0.05110678,-0.02830176,-0.12315865,-0.04441332,0.01296750,0.11682824,0.13260719,-0.00259581,-0.02065409,0.01614585,-0.04566721,0.06087208,0.05295335,0.02176927,-0.08207652,-0.07464777,0.02507694,-0.09762319,-0.00816301,-0.02222978,0.06668717,-0.00234335,0.13770087,0.03704192,0.02843784,-0.08353201,-0.11528900,-0.03416342,-0.03299244,-0.13608992,0.03027861,0.02710564,0.00911235,0.07024512,0.07814393,-0.04960133,0.02498776,-0.08488648,0.04999427,0.01167555,-0.04954628,0.06663095,-0.06642260,-0.03492644,0.04869462,0.04544848,0.01351131,0.02978560,0.05718115,0.03032832,0.01216788,-0.05285648,0.02422646,0.01442788,0.01806363,0.01380770,-0.01368812,-0.01873678,-0.00168972,-0.04738850,-0.01488671,0.09983898,0.05329229,0.05081183,-0.01813357,-0.02672549,0.07802960,-0.03080578,-0.06185684,0.09174419,0.05279654,0.03559968,0.01196099,0.01846931,-0.03400018,-0.10751718,-0.07807662,0.04605086,0.01213999,0.10132013,0.07965730,-0.04209580,0.01627457,0.02596811,0.01539867,-0.04001122,0.00078959,0.04459680,-0.00454761,0.03777827,-0.08376882,0.01006395,0.16584037,-0.03772394,0.03251063,0.03090492,-0.02208609,-0.05398941,-0.00913874,0.01060997,-0.03423029,0.00179900,-0.03026677,-0.07350051,0.13990623,0.09886819,0.02870873,-0.10736337,-0.05738352,0.00409482,0.10709289,0.03597805,-0.06810708,0.01915715,-0.03628931,-0.03177394,0.00215151,0.00723190,-0.02481943
-0.01956691,0.01169310,0.00820880,-0.01907979,0.01707092,0.03458057,0.12132637,0.02459393,-0.02045567,0.03247093,-0.00091643,-0.01254577,0.10466635,0.00622712,0.03925426,-0.02506009,-0.05620898,0.08657218,0.00747451,-0.00663878,-0.05323223,0.11930763,-0.05896286,-0.02879441,0.02670819,-0.05468430,0.02587521,-0.03973182,-0.08114237,-0.03251477,-0.09364350,-0.06832694,0.05670648,-0.05198644,-0.06312896,-0.06970241,-0.00364084,-0.00234862,-0.01839932,0.09774967,0.06725471,0.02299933,0.01376104,0.03253723,-0.01126566,-0.06803545,0.06897050,0.00365282,-0.04928444,0.08343932,-0.03725382,0.00854012,0.04471999,0.03939124,0.00366189,-0.14201434,0.10267253,-0.15379706,0.03682567,-0.00979677,0.07515080,0.02187233,-0.05111201,0.03914118,-0.01702152,-0.00843787,0.02934004,0.01938585,-0.00212945,-0.02530363,0.03341516,0.02601718,-0.04050261,-0.04964155,-0.04067287,-0.00427720,0.00255859,0.04117966,-0.03385520,-0.07651383,0.02285977,0.11146969,0.08056763,0.08973967,-0.02347107,-0.12598388,0.10335434,-0.01419415,-0.11708147,-0.02166203,0.11766949,-0.11169639,0.02229743,0.13179690,-0.18275429,0.02569812,0.03777956,0.10206899,-0.02740513,0.03615580,-0.00608748,-0.03593530,0.00635616,0.03857812,-0.04924453,0.09673100,0.02274895,-0.00678874,-0.05965647,0.00734360,0.05360183,-0.02408112,0.02533298,0.01233650,-0.06303491,0.08986260,0.06049739,-0.00515864,-0.03465914,0.05082830,0.03356647,0.02483159,0.00997387,0.07140008,-0.01184779,0.02294071,-0.06541049,0.02100387
0.05178559,0.10484465,0.03805492,-0.07346737,-0.07354059,-0.06882700,-0.08642308,0.05756839,0.06383494,0.04078519,-0.02809647,-0.01962848,0.00932598,-0.03582211,0.01049070,-0.09950794,-0.01586856,-0.09230916,0.03475913,0.00722420,0.01018024,-0.01845290,-0.01552270,0.02080880,-0.04083706,-0.11280454,0.00513816,-0.05343944,-0.01869079,0.07924500,-0.00564055,-0.07688793,-0.00861237,0.10587372,0.05965512,-0.10419697,0.01891103,-0.07538444,-0.13020897,-0.03141502,-0.09262741,0.08829720,0.06953671,0.02260833,-0.15360300,-0.07839404,0.01783974,0.07428361,0.03212496,0.00501739,0.11978859,0.03758786,-0.04399984,0.16490193,-0.02318638,0.00138201,0.04066104,-0.10010268,0.05088258,-0.04870022,-0.02440708,0.00930249,-0.03784758,0.08091812,0.02591968,-0.01788876,0.04586519,0.09670178,0.08566900,-0.04561018,0.02729381,0.13329427,0.14169517,-0.05800135,-0.01048817,-0.11336259,0.03775436,0.04924315,-0.01349929,0.04678890,-0.09038179,0.09014583,0.10009526,0.00339383,0.03867297,0.04445658,0.04555343,-0.06304371,0.01139430,-0.04442379,-0.02009782,-0.03658488,0.05893668,0.09412345,0.00379476,0.03521609,0.07518434,0.05524026,0.02493339,0.04345611,-0.04896680,-0.03618698,-0.10263304,-0.06170131,0.03257248,0.10017917,0.03237690,0.00817060,0.01554325,0.02833550,0.05218891,-0.06356231,-0.08964760,-0.01586655,0.10848477,0.05058587,0.01073012,0.08919536,-0.16957712,0.14299779,0.01537727,-0.16183266,-0.00630600,-0.03087930,0.04757757,0.02168947,-0.05228874,-0.01615114
-0.07471669,-0.00229999,0.00175842,0.01923286,-0.02116323,-0.03225718,0.03567687,0.00602970,0.04912896,-0.02613250,-0.01219255,0.01304214,-0.08177191,0.01055219,-0.03277561,0.03714140,0.04974264,0.01957776,0.07244569,-0.01209315,-0.03388691,-0.02387256,-0.04600922,-0.01686463,-0.11269964,0.00850983,-0.01910253,-0.04331328,0.07905123,-0.00579074,-0.02589701,-0.03525078,-0.01945021,-0.00247886,0.04845961,-0.02229314,-0.01017934,-0.04139353,0.00801216,-0.03122780,-0.01811785,-0.00808121,-0.01136938,0.00502660,-0.04774316,0.00475578,-0.02254995,-0.00058753,0.00916021,0.03469182,0.02199474,-0.00500625,-0.02662651,0.02156389,-0.02663756,0.00227597,0.06019906,-0.09660041,-0.06654385,-0.07179919,-0.02976046,0.06329072,-0.08769114,0.04083577,0.01610896,0.02488778,0.00859434,0.01680296,-0.01036172,-0.01568866,0.04517908,-0.03185193,0.00045622,-0.00062166,-0.02024184,-0.00926458,-0.03021716,0.01439595,-0.05318324,-0.00770792,-0.01906989,-0.04721950,0.09194577,-0.02229174,0.01674370,0.05438239,0.01558804,0.01077641,-0.02270639,0.00709191,-0.03038473,0.03541338,-0.02761789,0.02595567,-0.09672242,0.02981243,0.02724224,0.04878037,0.05439997,0.06613652,0.02502282,-0.00051416,0.00944530,0.04037190,0.02215638,-0.00117095,-0.05111522,-0.04733258,-0.03207229,-0.02351046,0.05893847,-0.02264202,0.04363972,0.02983074,-0.09396289,0.00461639,0.00247624,-0.04317660,0.02205298,0.02675596,-0.02142421,-0.01216518,-0.03133570,0.03186294,0.01579630,-0.00992023,0.01359274,-0.01087791
0.09430264,-0.01833990,0.00518114,-0.02756356,0.04006049,0.00054001,-0.00061352,0.05274670,-0.01416667,0.08812080,0.04287798,-0.09135836,-0.03079363,-0.04671552,0.03875380,0.01062411,-0.05632703,0.00453420,0.00306036,0.05989525,0.01214397,0.02727214,0.04987945,0.00552818,0.04249874,0.04287931,0.03966484,0.01039938,0.05524433,-0.00647310,-0.05453632,0.04546522,0.05749634,-0.02746316,-0.04296191,0.08007071,0.02201833,0.00679968,0.06020367,-0.00505709,-0.03252711,0.04755548,-0.01308691,0.02137381,0.00842516,0.01960036,-0.01262684,0.00062822,0.00940745,0.02038931,-0.04529198,-0.00443247,0.00655942,0.03325438,0.02765946,0.03998248,-0.06952458,0.03714192,-0.09459919,0.01871800,-0.03971794,-0.06256095,-0.08753224,0.01150436,-0.08244746,0.04130326,-0.03161193,0.15167928,-0.01002449,0.01658048,-0.09319396,-0.06855454,-0.00739606,0.00231521,-0.01378887,0.00413462,-0.02684135,-0.04850280,0.05093921,0.01335280,0.00795208,-0.05986779,-0.01076752,0.03564240,-0.04094543,-0.00747015,-0.06029507,0.03241159,0.03258997,-0.01825014,0.00716255,0.03754148,0.05454638,-0.09408346,0.08365232,0.02181280,0.05260035,-0.12744953,0.04030287,-0.08662800,-0.01238058,0.04071632,-0.02423047,0.00903660,0.03348105,-0.11584416,-0.05478260,-0.08345849,-0.02642664,0.01604081,0.01162582,-0.00686065,-0.00755259,-0.02973398,-0.05949582,0.01883070,0.09713250,-0.00656825,0.00165400,0.06037916,0.00275403,-0.03870992,-0.05101271,-0.00392071,-0.04647771,-0.04580517,-0.02445431,0.03206242
-0.02396792,-0.04624731,0.08860149,0.08279466,-0.01363268,0.07135419,-0.04315040,0.00549166,0.03098883,0.06209807,0.08514333,-0.00650543,0.05685761,-0.00487480,-0.02530604,-0.09801139,0.02589373,0.08477358,-0.03063151,0.02560801,0.03174195,0.03781826,-0.02319555,-0.03122495,0.07780446,0.02384354,-0.02444709,-0.04292553,0.02132881,0.00712623,-0.00659160,0.07145820,0.09584807,-0.05161370,-0.03064096,0.04788625,0.05169096,-0.00877362,-0.00751740,0.00520129,-0.00688370,0.01065633,-0.07081448,0.05062947,0.04798360,-0.02029342,0.00340602,-0.00004785,-0.04841587,-0.04620980,0.01056753,-0.03110589,0.08805633,0.02193182,-0.06057945,0.03054333,0.06427570,0.02327171,0.02142050,0.10552035,0.03235305,0.03755605,-0.01865441,-0.04214424,-0.03153558,0.02672349,-0.02250938,0.03870896,0.08383074,0.00621951,0.00650118,-0.02395954,0.08203761,0.07103983,-0.01964685,0.00682828,0.02753725,-0.00023628,0.06148729,0.04695789,-0.00296353,-0.07024363,-0.02157413,-0.01154780,-0.03859081,-0.02365145,0.01849652,-0.04092166,-0.00642493,0.00216802,-0.03661167,0.04073471,-0.00496810,0.07536645,-0.02595438,0.01681354,-0.00309883,0.00158196,-0.04253457,-0.03831407,0.00218177,-0.05263141,0.00132366,-0.04742877,-0.05440734,-0.06671799,-0.04339437,-0.04684824,0.01519165,-0.01907670,-0.01901355,0.05253615,-0.05555958,0.17451152,0.04449816,-0.00410598,-0.01966511,-0.01771209,0.02073339,0.02099179,0.10236193,-0.06885995,0.03964671,-0.04092050,-0.01531298,-0.02462725,0.03461649,0.01282031
-0.00633659,0.00958618,0.08666871,0.02777345,-0.13812540,0.00409182,0.13625592,-0.03125420,0.01807098,-0.04905143,-0.02135444,-0.04053694,0.02069285,-0.03307503,-0.01744048,-0.05616933,0.00398886,0.00300996,0.10830511,-0.05151713,0.00877770,0.09327967,-0.05566777,-0.12227828,-0.06920642,0.00494497,-0.02746483,0.04153816,-0.02343893,0.02672397,0.01740448,-0.11414310,0.00279815,0.13001700,0.05368480,-0.01926112,-0.03246813,-0.06468074,0.04169711,0.11314853,0.01668007,0.06592839,-0.20941153,0.03968095,-0.07776442,0.04365890,0.03849434,0.01363118,0.11233614,-0.02916884,0.09029897,-0.08584709,-0.05981635,0.05215748,-0.03228197,-0.00876853,0.09177780,-0.11898454,-0.01003456,-0.08740576,0.01340466,-0.04436382,0.12372067,0.00864591,-0.04823085,-0.06781550,0.02088105,0.02213758,0.04161412,-0.10610834,0.10118230,0.11485730,-0.06773459,-0.04485736,-0.05242935,0.00008070,-0.05741068,-0.05228934,-0.07452701,0.03112574,-0.10848339,-0.00975866,-0.04113027,-0.01343151,0.03942775,-0.03988848,0.03675176,-0.05046419,-0.08119290,-0.01356227,0.03736306,-0.00728725,-0.00439671,0.06164062,-0.09771132,-0.00182493,0.13476026,0.01510461,0.04138915,0.10559538,-0.04322679,-0.07963362,-0.07587618,-0.08731253,-0.01222116,-0.01136735,0.05233782,0.05399212,-0.00707205,0.02271322,-0.02013746,-0.03817662,0.02356078,-0.03847966,0.07994784,-0.00681397,0.02668429,-0.02645392,0.04253100,-0.05475413,0.01548813,0.04032127,-0.00099094,-0.01296906,0.19260731,0.07072078,-0.01686941,-0.09190952
-0.01663063,-0.09490467,0.00037092,0.00502129,0.05384500,0.05963800,-0.04337994,-0.06827594,0.11581844,-0.14796974,-0.00367712,0.01547579,0.12417571,0.02638381,0.03296087,-0.01215695,-0.03803580,0.01150402,0.00817728,0.02449217,-0.05643567,-0.00925874,-0.03383730,0.04285702,-0.04463608,-0.07303075,-0.06862013,-0.08458383,-0.00068454,0.01059136,-0.00792309,-0.00633908,0.00323247,-0.08570527,0.04702672,0.00114935,0.04202527,-0.17399859,-0.02734490,-0.02678849,0.01704928,-0.22371674,-0.00782781,0.09852284,-0.11895537,0.00387049,-0.01207078,0.02388540,0.04634206,0.00322486,0.02228815,-0.09273610,0.05711055,0.06877060,-0.01058918,-0.07892115,-0.02543943,0.06686970,0.02226034,0.00485159,0.06530841,0.03219546,0.00350032,0.01121370,-0.07051289,-0.02231571,0.05032442,0.04775464,-0.03111421,-0.01516926,0.02241244,-0.01348108,-0.02065161,-0.00478964,0.02828743,-0.17647642,0.01575280,-0.04635123,-0.17686355,-0.01200745,0.08461089,-0.15957205,-0.04534601,-0.02806023,0.05000574,-0.01398702,-0.11458306,-0.04238244,0.14269589,-0.06054917,0.08532380,0.04560502,-0.03242388,-0.04231742,-0.01880487,0.02006497,0.01366691,-0.01676187,-0.05245449,0.03464951,0.05616077,0.07499295,-0.10670865,0.10285790,0.01866957,-0.08376427,-0.07582516,-0.03799269,0.03186271,-0.05046930,0.09912107,0.00289140,-0.00931825,-0.04911932,0.02672190,0.02894818,0.05774459,-0.02356333,0.03855740,-0.02086524,-0.02198054,0.00071904,0.05773953,0.03150533,0.04612977,0.01199918,0.02152241,-0.01748706
0.12044241,-0.10493646,0.04382392,0.13787660,-0.04174208,-0.03050585,-0.06348053,-0.02582723,0.09707435,0.02133089,-0.03204748,-0.20413320,-0.01659857,0.01096508,-0.08599774,0.09623113,-0.07293049,-0.07431415,-0.02734773,0.01960281,0.03692892,0.06496203,-0.07123843,-0.01141931,-0.04294205,0.18654184,-0.10653622,0.01040346,0.02082805,0.06539038,0.09167468,0.30759147,0.03565053,0.03231224,0.07030845,0.21947718,-0.01930765,-0.10357682,-0.10582940,0.03543195,-0.09974897,0.00295435,-0.04472038,-0.15850182,0.00734593,0.04329373,-0.07973688,-0.03750663,-0.12664548,-0.00844909,-0.12348352,-0.07977226,-0.03613621,0.14052661,0.01079020,0.04405335,-0.07795117,0.02661105,0.00659733,0.03321001,-0.13921119,0.04152440,-0.12079714,-0.03796097,0.01894140,-0.06163600,0.03941581,0.14496787,0.09087074,-0.06435312,0.11884928,-0.19487138,0.00762257,0.11928924,0.13197905,-0.01642803,-0.03618350,-0.17047338,0.02668656,0.21649282,-0.03317734,0.10679482,0.02672158,-0.02750292,-0.25392765,0.15163286,-0.13358927,-0.17938703,0.06226493,0.14337300,-0.02016332,-0.04124658,0.10848421,0.01478457,-0.15050475,-0.00852837,0.14141804,-0.03185209,-0.15535064,-0.04484343,-0.09358801,-0.04704534,-0.05389418,-0.01647645,-0.16616580,-0.06734928,-0.02461923,-0.19567990,-0.06481138,-0.07173212,0.08916479,-0.01495227,-0.26877737,0.08711635,0.10027515,-0.06556740,-0.01075170,-0.06055120,-0.06749077,0.09348980,-0.14697877,-0.26621684,0.03954930,-0.02388000,-0.33014444,-0.04536455,-0.14197308,-0.16350305
-0.07327536,0.07027289,0.01704970,0.10019527,0.01380669,-0.02433855,-0.03194423,0.02413831,0.02237009,0.00684592,0.01258954,0.04743287,-0.05084395,-0.06756104,0.04671029,0.08882081,0.10903239,-0.03030631,-0.03345770,-0.04380174,-0.03533196,-0.07731102,-0.07497008,0.02924449,0.05709906,-0.02488707,-0.01095898,0.00158383,-0.04607498,0.00165114,-0.12811218,0.04066403,-0.00601207,-0.00135730,0.00237771,0.08558302,0.07650023,0.02824760,0.18326297,-0.12295224,0.08927033,0.04776439,-0.05320118,0.05837221,0.03136114,-0.02800865,-0.00763189,-0.04735448,0.02617749,0.05087686,0.11330105,0.02780372,0.00099601,0.00137756,-0.05160305,-0.03301566,0.01828392,-0.03584335,0.03277942,0.04691606,-0.05789266,-0.03414589,0.05748525,0.17040302,-0.09708357,-0.03366531,0.00707690,-0.01619989,-0.00305732,0.08066412,0.04000987,0.00665486,0.04350501,0.00617974,-0.00242900,-0.08690669,-0.07798900,-0.07875366,0.00969012,0.00787148,-0.01291516,-0.01785511,0.05661152,0.05763035,0.01533560,0.04855836,0.00058338,-0.02258555,0.02328778,0.02659570,-0.02532736,0.00580303,-0.02440743,-0.02671863,0.05479032,-0.02649023,-0.09630536,-0.00879702,-0.00006448,0.02702319,-0.01241645,0.00060976,0.01731392,-0.04507712,-0.00539047,-0.08122516,-0.02546555,-0.02272176,-0.03665040,-0.02709482,-0.04825774,0.00267269,0.01049953,0.01256679,0.02264333,-0.00609983,0.03897535,0.01310579,0.04567673,0.00411865,-0.07193883,-0.07835192,-0.02456402,-0.02917137,0.03760679,0.06220356,0.03114295,-0.01440305
-0.08212546,0.07505505,0.00249614,-0.01212465,-0.03441687,-0.13056529,-0.01108794,0.06900202,-0.17880258,0.16496705,-0.15975291,-0.03915662,-0.13320766,-0.12336144,-0.04927081,-0.01057745,0.09632892,0.04371583,-0.00723455,-0.10501418,0.14399046,0.09478585,-0.00441930,-0.01206018,0.00474302,0.06125645,-0.00388964,-0.05629424,0.07647822,-0.14710693,0.05374496,0.00724312,0.01979261,0.14415300,-0.06263465,-0.05644883,-0.07470062,0.23923166,0.05863756,0.06531674,0.09511951,0.18752560,-0.00726400,-0.05005487,0.10793325,-0.06000848,-0.06379013,-0.01351416,-0.07000712,-0.06801760,-0.02010706,-0.05854638,-0.09703951,-0.08521953,0.02678666,0.05121691,-0.08154884,-0.07559399,-0.11426859,-0.12629299,0.01130571,-0.01523210,-0.01399538,-0.05556938,-0.08933874,0.06844489,-0.04284146,-0.15389557,0.07845984,-0.16497754,-0.07579104,0.04506300,-0.04919171,-0.00652214,0.00609195,0.21433291,-0.04493466,0.08647449,0.12823850,-0.03135361,-0.10036376,0.22522955,-0.04099400,-0.02271215,0.00999870,0.07956292,0.10833432,0.01128641,-0.10233757,-0.00083721,-0.15846817,-0.05562104,0.11304601,-0.05048781,0.07943247,0.06772115,-0.06845637,0.08405156,-0.04254954,-0.07080640,-0.05227101,-0.04095010,0.02747100,-0.24163678,-0.08440755,0.03011099,0.11267447,-0.07471184,-0.06836089,-0.08052675,0.00751245,0.01243291,-0.00567180,0.05613063,-0.03849897,0.01939030,-0.12590609,0.03310280,-0.11051121,-0.06642868,0.04363193,-0.08190354,-0.08007544,-0.02420997,-0.21141995,0.15719789,-0.04172997,0.06399321
0.00404523,0.09020778,-0.03087507,-0.00216627,0.00088147,0.00329365,-0.00110804,0.00865993,-0.06999995,0.01204729,0.11965565,0.10785201,0.08360311,-0.02847162,0.06386141,0.01569660,-0.05222687,0.05395172,0.01269665,-0.11952654,-0.06239095,0.00583302,-0.00134624,-0.01523085,-0.09759225,-0.09698760,-0.07556108,0.02214248,0.03874490,0.07899959,-0.12291700,-0.03356009,-0.02857606,0.05707362,-0.11859690,0.00007053,-0.06356234,-0.01176515,0.03123424,0.03912529,-0.03372976,-0.00969942,-0.01624227,0.09460928,-0.08805923,0.07690846,-0.10213201,0.01367432,-0.05212462,-0.08032118,-0.01792634,0.01732115,0.01755788,-0.07564276,-0.07795572,-0.05056181,0.00960719,0.04724017,-0.08261982,-0.04451181,-0.02295713,0.14479715,-0.05103035,-0.02408914,-0.02572939,-0.07711048,-0.02790954,-0.00962148,0.04529160,-0.00909270,-0.06075517,-0.04759760,0.05611368,0.00506117,0.09771221,-0.04574385,0.07957575,-0.06738189,0.00799595,0.00672834,0.03112432,-0.01713074,-0.04389747,-0.02028280,-0.06351799,-0.01135232,-0.11243798,-0.02978765,0.09005692,0.03291614,0.01187865,-0.03329951,0.04456000,0.04253549,-0.04262280,0.03969425,-0.03531036,0.03869767,-0.02483867,-0.08196469,0.01310902,-0.00201546,0.02557794,-0.03068490,-0.00885411,-0.03511693,0.06505223,0.02961293,0.01698755,0.04787735,-0.13339314,0.06246901,-0.12409266,-0.09340934,0.09445451,-0.11323401,0.09087912,-0.01055377,-0.13414215,-0.00963900,-0.08092797,-0.00118467,0.02093094,0.09818844,0.01771479,0.05783516,-0.10025006,0.05193065
-0.02135773,0.10584737,0.04886429,0.00203592,0.15146017,0.50421232,0.33981493,0.17246164,-0.01384996,-0.12090979,0.00379136,0.24111860,0.03744927,-0.27613109,-0.03272222,-0.12567008,0.23746386,0.05511413,0.04897028,-0.10379975,-0.21465157,-0.08282688,-0.06236243,-0.03929041,-0.04346503,0.34581533,0.24774230,-0.23946448,-0.04800510,0.00453386,0.16140825,-0.09189143,0.10960397,-0.23179805,-0.14653780,0.12292516,0.32022431,0.02387884,-0.35655409,-0.11342470,0.09794159,-0.00596431,-0.00037265,0.00171385,-0.11701811,0.05535961,-0.03260636,-0.05870219,0.11858442,-0.49040714,0.03799479,0.16879523,-0.56331366,-0.20578782,-0.20026590,0.14267106,-0.08260141,0.08923547,0.26845825,-0.41502184,-0.01762884,0.19561011,0.09242617,0.00426282,-0.26384321,-0.48868307,-0.04495966,0.06136371,-0.09430561,0.02489311,0.01616737,-0.06691364,0.10041650,0.01750583,-0.13174306,-0.13646141,-0.26139638,0.12385409,0.15137802,0.05007428,-0.24790549,0.23621556,-0.03346298,-0.01580621,0.00726184,0.03295269,-0.30145311,-0.12625206,-0.04045999,0.38519716,0.36108893,-0.23817679,0.14167760,-0.39162639,0.00617050,0.19120586,0.05633141,-0.15805921,-0.19349664,-0.29520318,-0.28037110,-0.34573913,-0.04529741,0.27228972,0.11737269,-0.28823063,-0.08486148,0.01991316,0.52989197,0.21425204,0.05116448,0.17043886,0.17440228,0.02009071,-0.30055192,0.17042215,-0.09930170,0.14081329,0.12802179,0.28042811,0.22589026,-0.31158540,0.58384991,0.33257753,-0.00482921,0.00835997,0.19401263,-0.01497193
-0.01240597,0.01308774,0.00251542,-0.07658078,-0.02771197,-0.02944916,0.08119310,0.02640889,0.04125027,0.03427603,-0.07427872,0.01295098,0.00586041,-0.06041328,0.03618430,0.10296362,0.00054317,-0.05500499,0.10520177,0.00724778,0.06600544,-0.00231641,0.10305083,0.07319494,-0.05394447,-0.04830496,-0.07439369,-0.04642968,-0.04495717,-0.03601130,-0.07890370,-0.03854036,-0.07390447,-0.06455840,-0.03423661,0.03391235,-0.12014647,-0.09227072,-0.06298183,0.06907023,0.01209845,-0.03556045,0.06769804,0.05010337,0.07337904,-0.00819496,0.00605798,0.09506918,-0.09639407,0.04377637,0.21505812,0.06316552,-0.06737401,0.06402954,-0.17377083,-0.03419677,0.09250185,-0.14383687,-0.10627942,0.07186955,0.00714148,-0.01904247,0.03974288,-0.05357706,-0.01850464,-0.09513636,0.04154720,0.00747274,-0.01421613,0.02059048,0.08956152,0.13731392,0.11876117,-0.06816409,-0.01208949,-0.15306453,0.03783205,-0.18014829,-0.01197711,-0.00513451,-0.09250364,0.13956672,0.06222941,0.03612394,-0.02796328,0.01881242,-0.03292624,0.01403981,-0.09626617,0.06113745,-0.01465300,-0.07009658,0.03538650,0.05506847,-0.07589495,0.04134677,-0.03129573,0.03507939,0.05019042,0.06832522,-0.08590291,0.03937019,-0.02526806,0.01742878,-0.01937799,0.11743516,0.03180864,-0.01531160,-0.06065826,-0.05516303,0.01056537,-0.03315723,0.02416209,-0.07452507,0.04978333,0.08988956,-0.15986106,-0.01784986,-0.02001707,0.15432736,0.04377824,0.02585251,-0.00558706,0.05384186,-0.00483943,0.09901343,0.00146895,-0.17585932
-0.03260371,0.03033132,-0.04179110,-0.00847072,-0.08350359,0.05950998,0.02031666,0.00609317,0.08610450,-0.13720605,0.02735444,0.00803301,-0.03680171,0.05572733,0.02186756,-0.02745870,-0.04536022,0.03847238,0.07806140,0.02823206,-0.10127796,-0.00832765,-0.01853881,-0.02192380,-0.15247384,0.06938865,0.00405499,-0.06484772,0.07081699,0.08270638,0.01181992,0.01609620,-0.00816681,-0.02684199,-0.08567776,0.11124930,0.00676913,-0.01975393,-0.01295809,-0.03949000,-0.11149016,-0.02972933,-0.02629376,0.03266140,-0.02052966,0.04183097,0.03261047,-0.02205983,0.00777273,0.01673779,-0.00931540,-0.07455426,0.04387833,-0.00441279,0.00203308,-0.02776316,0.11338460,0.01443629,0.04803269,0.00482207,-0.03979139,0.12309472,-0.06678496,0.05869605,0.10675658,-0.03341201,0.02432001,-0.05200926,0.03234193,0.02434443,-0.03640459,-0.05470614,0.06952568,-0.01829659,0.02822357,-0.08305976,0.03307004,-0.02973360,-0.07281767,0.07826713,-0.05425078,-0.10130903,0.08406766,-0.01926944,-0.02894432,0.02504998,-0.03201862,-0.08316502,0.04116640,0.04318396,-0.02857423,-0.00758486,-0.07160334,0.04972903,-0.05304439,-0.02858232,0.04304287,0.02965906,0.05705593,0.10560533,-0.03819999,-0.01821754,-0.02185496,0.09358007,0.06720132,0.01518531,-0.01400085,-0.05998215,0.07566579,-0.02565809,-0.02824654,-0.00108509,-0.02672865,-0.00716160,-0.01815121,-0.05394195,-0.02349324,0.00292859,0.04308085,0.00264265,0.00830650,0.06958444,0.00473985,-0.04325507,-0.01430755,-0.01703373,-0.04545603,-0.06161667
0.06990519,0.02739962,0.02151041,-0.00099486,0.00948378,0.05955104,0.04187227,0.04315024,0.02882420,-0.01953836,0.01070946,0.00192143,0.04876819,0.01915102,0.00279261,-0.00309448,-0.06172639,0.04223552,-0.00083120,0.03225830,0.01056938,-0.01737395,0.01314413,-0.01166951,0.01554425,-0.04707378,0.03177046,0.03780358,-0.08515074,0.07215439,-0.01386849,0.01299156,0.02750847,-0.00155381,-0.06138137,0.00750720,-0.02924359,0.01937606,-0.02868137,-0.00072536,-0.08064812,0.03714532,-0.01492159,0.06699049,0.00742486,0.04028574,-0.05435125,0.04269557,-0.06137642,-0.00660378,-0.07980010,-0.06497635,0.03055215,-0.04113215,-0.00476523,-0.01659401,-0.02354550,0.10968539,0.03995866,0.05671678,-0.01516668,0.00935141,0.08697027,0.00834179,0.06958413,-0.07016628,0.01210128,-0.01621289,0.02051134,0.00482022,0.03817966,0.01231314,0.06917115,0.00428424,0.05590567,-0.02369045,-0.00040364,-0.02745329,-0.01109228,0.02609950,0.00584584,0.00733095,-0.08590873,0.02228915,-0.03996005,-0.04704123,-0.00615457,-0.07827730,-0.01593891,0.01693522,0.00944086,-0.07971790,0.04877554,0.00134161,0.05046726,-0.03734119,-0.02801967,0.01584980,-0.07724619,0.00511908,-0.01845369,-0.03489925,0.02118277,0.00267074,0.00499776,0.02781385,0.07110237,0.01682113,0.01069311,0.03369749,-0.07794745,0.03746175,-0.05963624,-0.02300045,0.04086974,-0.01663273,-0.00162564,0.08154959,-0.01282642,-0.04480108,-0.04423905,-0.01369201,-0.01757162,-0.06686729,0.00701253,0.02269232,0.00572550,-0.02382129
0.01141614,0.10853205,0.03754253,0.00385399,0.04145724,-0.05913484,-0.12847856,-0.07317667,-0.13429333,0.01222541,0.10040500,0.19886085,0.12207997,-0.07058205,-0.04279674,-0.01043556,-0.14801632,0.01974346,0.08677016,-0.23509391,-0.10318405,0.05313063,0.01136246,0.04884162,-0.02714363,-0.05615900,-0.27478611,0.01587705,0.04229781,0.08715150,-0.03342879,0.04320128,0.00073626,0.13400219,-0.08202700,0.13056421,0.01615645,0.02039953,0.09727614,0.15812945,0.08714284,-0.04027876,-0.00457261,0.06661751,-0.12366851,-0.10431454,-0.02630427,-0.04752241,-0.04562909,-0.09937526,0.01757883,0.10592045,0.08213837,0.06361844,0.03795726,-0.04795314,0.01806186,0.04561571,-0.10273968,-0.06919198,-0.01631793,0.13089873,-0.03605724,-0.18007165,-0.12906833,-0.04264348,-0.07549822,0.14928114,0.13001885,-0.03729490,-0.04775650,0.01894393,-0.17541230,0.00574920,0.13388611,0.07575513,0.19670536,-0.01669241,-0.03188746,0.00123739,0.10974940,0.03136020,0.06844012,0.03391983,-0.06300423,0.11983479,-0.08514298,0.09290492,0.10325067,-0.03856007,0.01372267,0.10454746,0.05848797,0.05934677,-0.05597032,0.01699997,-0.04807601,-0.12829494,0.00861189,-0.23710001,-0.01151481,0.07179814,-0.05414942,-0.06923820,-0.13027777,-0.06814262,0.08238460,-0.00226179,-0.00774017,0.03289249,-0.07376918,-0.03962883,-0.09923077,-0.06812519,0.23580338,-0.16836649,0.02016341,-0.09467702,-0.14328405,0.06287456,0.03456902,0.08894303,0.04969936,0.25231397,0.11741196,0.14284194,-0.19821879,-0.02875062
-0.07078721,-0.00326630,-0.00861155,-0.04055584,-0.12437589,0.06075264,0.04585191,0.03678184,0.09510233,-0.02878392,0.01077573,0.06137303,0.08746666,0.01855506,0.04479530,-0.06073018,0.04176256,0.04813362,0.01815736,0.00778078,-0.06221046,-0.10101175,-0.07060390,0.04210901,-0.06131227,-0.13333257,0.04946852,0.00269045,-0.01581254,-0.08744336,0.00752655,-0.06778143,0.05243009,0.05820969,-0.02617656,-0.09688946,0.07067190,0.03049348,0.13661528,0.01310368,0.07692964,-0.05594543,0.03721616,0.11486753,-0.12772819,-0.11108017,0.00201968,-0.09668358,-0.06759421,0.10756932,-0.10856169,-0.00391554,-0.01083451,-0.13227805,0.05159357,-0.02981500,0.09313127,-0.14568551,0.03097647,-0.08540719,-0.05168090,-0.06665920,0.11645592,0.11488730,-0.02829688,-0.03642987,-0.10088383,-0.13360707,-0.10182096,0.11657347,0.10652886,-0.11344964,-0.00219733,-0.03988005,0.03475640,-0.05882566,-0.09302405,0.04690342,-0.07280096,-0.03016295,0.05665125,0.01166586,-0.04029172,0.15415816,0.05677139,0.01631022,0.05198927,0.05793366,-0.07824234,-0.05798854,-0.05864570,-0.00400639,0.00644695,0.00868317,0.02794788,-0.05039422,-0.09239773,0.06481552,0.09653078,-0.07573459,-0.01044118,0.05991669,0.08805056,-0.10396738,-0.07722400,0.05991993,0.08843412,0.07738934,0.02282111,0.02170677,0.01496915,0.00726317,0.06799863,-0.08156793,-0.06313674,-0.05425742,0.05076139,-0.03227926,-0.01397496,0.05075734,0.01034407,-0.11608890,-0.00023293,-0.04471184,0.14094709,0.12596947,0.12206741,0.05430128
-0.01774768,-0.04482471,-0.00847659,0.01577311,-0.07063331,-0.08524857,-0.09096390,-0.09176236,-0.00734161,-0.00258775,-0.01863675,-0.04606259,0.02398213,0.02284313,-0.00289879,-0.00257638,-0.08108935,-0.03159271,0.00228055,0.00660676,0.01496344,0.07936127,0.01053191,-0.00156735,0.00078359,-0.07351756,-0.09619322,0.01240580,0.05058815,0.01283415,0.02032692,0.02450169,0.00054707,0.00705211,0.04204257,0.04056397,-0.03902558,-0.01148483,0.05961535,0.05660674,-0.02220899,-0.01005768,-0.03874270,0.01492913,0.05753126,-0.05489793,0.04031350,-0.02546950,-0.01162123,0.05243978,-0.01255686,-0.03703189,0.13397758,0.08377647,0.06888043,-0.06916395,0.00482915,0.01615972,-0.04998103,0.08687849,0.01920333,-0.02345939,-0.02500479,-0.06656491,0.00009550,0.15427561,0.02645579,-0.00926448,0.01684631,-0.04360187,-0.04987586,-0.03269447,-0.04769189,0.03895225,0.04062026,0.03499297,0.06819078,-0.05291856,-0.04433987,-0.01669551,0.04997369,-0.03945534,0.02296178,0.01988348,-0.00258355,0.07602730,0.03935735,0.05676317,0.02934467,-0.11064360,-0.05949879,0.07124653,-0.03728115,0.04822170,0.04279649,-0.01655237,-0.03511313,0.00320995,0.04585621,0.00114934,0.01174652,0.05928652,0.03414396,-0.08933356,-0.02636636,0.04279097,0.02288593,-0.01918158,-0.07520776,-0.04488639,0.03948069,-0.07598431,-0.02911727,0.02363400,0.10059435,-0.04947192,-0.01713231,0.00166470,-0.00846629,-0.03901835,-0.01130628,0.06698981,-0.10080165,-0.04196094,0.07983924,0.05054080,-0.09020579,0.01673612
0.01895318,0.00333950,0.02650358,0.02339085,-0.02929603,0.05826694,-0.00260549,0.02513105,-0.01611439,0.01106140,0.01044282,0.03466076,-0.06967783,0.01234211,-0.03397195,0.01716892,-0.01449233,-0.05202610,0.06598258,-0.00749323,0.05105083,0.06516596,-0.01063976,-0.01492425,0.02792841,0.07841184,-0.01771025,0.02134199,-0.04199644,-0.00773356,0.03876159,-0.04455705,0.02989396,0.00257673,0.06558917,0.04748715,-0.03513186,0.04246321,-0.07376710,0.04257490,-0.04587795,0.05295938,0.01484049,0.01928186,-0.03213799,0.05384600,0.01223693,-0.08111893,0.00449079,0.01085072,0.00524435,-0.00097593,0.00747216,0.03397429,0.06526028,0.01560250,0.01093439,0.06986511,-0.01228863,0.02321596,-0.00984773,0.04656738,-0.02307791,-0.07560422,0.00014445,-0.05904993,-0.04570509,-0.00805918,-0.05322655,-0.03409199,-0.10860150,0.01146997,0.04193160,-0.01216879,0.00329816,-0.01080462,0.05262864,0.04590314,-0.02284415,-0.02214019,0.03908055,-0.03125053,-0.02473749,-0.00871862,0.00817092,-0.00151649,0.03324910,-0.02312501,0.01338273,-0.08419668,-0.01763874,-0.04794068,0.02267578,-0.01945765,0.09084056,-0.01458514,0.04064895,-0.03482990,-0.03745272,0.06282824,0.00888379,0.04539351,-0.06598631,0.02180899,0.04108322,-0.05430164,-0.05689852,-0.03661852,0.01837939,0.02434379,0.00673145,-0.00797020,-0.03951999,0.00622365,0.02592510,0.01111521,-0.06113607,0.09145851,-0.02079025,0.01879125,-0.04831000,0.01433045,-0.01327808,-0.02165481,0.02934701,0.04610447,-0.04070692,-0.01598460
0.07840855,-0.00183127,0.01998192,0.62157989,0.01399876,-0.01223226,-0.02303249,-0.06983700,-0.03642830,-0.00317376,-0.02367275,0.00953270,-0.02829466,-0.05010075,0.00499092,-0.03195782,-0.03710329,-0.07109662,0.03674959,-0.02319659,-0.01335862,0.02374773,0.06035811,-0.03118923,0.00970718,0.04019395,-0.00237665,-0.02984800,0.04523090,0.00536894,-0.01615965,0.01053010,-0.00739008,-0.03344839,0.03653177,0.00292637,-0.03446090,0.03217063,-0.12153920,-0.01462816,-0.03458906,0.00297683,-0.02229767,-0.02835091,0.03523640,0.03483051,0.00083409,0.02040003,-0.00499713,-0.05360685,-0.01631055,0.01890247,0.01699204,0.09163903,-0.02614410,0.00072819,-0.04473234,0.07136264,-0.01718753,0.00580267,0.03490508,0.01618289,-0.00844647,-0.11212865,0.04644219,0.05647423,0.04668663,0.02868014,0.05812789,-0.03123463,-0.02555566,0.01278296,-0.03860261,0.02030670,0.05919744,0.06297059,-0.00098389,0.01811039,0.04699435,0.04449547,0.02159258,-0.05182584,-0.02643532,-0.09838516,-0.00305206,-0.00791033,-0.03743606,-0.12490654,0.05364897,-0.04409432,0.00651897,-0.03893412,-0.08646130,0.01640509,-0.04475114,0.05279792,-0.08301751,-0.04577871,-0.02309857,0.04640847,0.01598191,0.01113157,-0.03147167,0.00528808,0.10321072,0.01705155,-0.02678875,-0.05065779,-0.02506351,-0.02565686,-0.06852924,-0.00157874,0.00906609,0.06896207,0.03338876,0.05462695,-0.06316119,0.09812301,0.03898665,-0.03231496,0.07960731,0.06561451,0.01314165,0.07072490,-0.08169012,-0.08325525,-0.02653770,-0.01742500
-0.01501241,0.09771661,0.00572887,-0.07813150,-0.01621796,-0.00504085,0.02377579,0.01882261,-0.03574635,-0.04434118,-0.07965368,0.07989229,0.05660644,-0.02369960,-0.05562832,-0.04652208,0.07845911,0.05366068,-0.00176855,-0.08472098,0.06272078,0.00946199,0.07656078,-0.02881333,-0.06422105,0.02224086,0.01639914,-0.04438950,-0.01255908,0.00837022,-0.07446689,-0.09739830,-0.05900240,-0.04374481,0.07922585,-0.12342167,-0.08162744,0.08158394,0.11119964,-0.03192842,-0.09664424,-0.05124668,0.09540723,0.06211286,0.01035309,-0.02885820,0.09673750,0.08744166,-0.05218813,-0.01475235,0.02426195,0.01496026,-0.00682438,0.02085487,-0.03031888,-0.02584376,0.09183776,-0.07063538,0.05151472,-0.04763421,0.02486494,0.01255839,0.09598818,0.05291647,0.07652166,0.03104991,0.01085730,-0.05521559,-0.00291100,0.06546421,-0.04934729,0.06295847,0.02305478,-0.06436464,-0.03343152,-0.06070619,0.01846840,0.10559797,-0.04925136,0.00709459,-0.06503499,0.14398341,-0.05969319,-0.02645696,0.05581770,0.03567669,-0.00129159,0.00320774,0.02299159,-0.00447687,-0.03704285,-0.00884233,-0.06148807,0.12167481,-0.05453699,-0.02431494,0.05205324,0.01357239,0.00069173,0.07181947,-0.07332124,0.08152697,-0.03774356,0.08117481,0.06395818,0.01099376,-0.05431018,-0.06032642,0.00923553,0.05464274,0.04623048,-0.03117887,0.00337352,-0.02811544,0.17432088,-0.01924510,-0.02830216,0.06607697,-0.04650600,0.00343636,0.01387136,0.05068036,0.01412874,-0.01357037,0.13913514,0.03968012,0.02202237,-0.05464968
0.04651136,0.12105920,0.00313336,-0.00630093,-0.00959190,0.12431341,0.02651279,0.04123370,-0.05972342,-0.06082901,0.04294104,-0.00912115,-0.06443495,-0.03181168,-0.03049589,-0.09954869,-0.10893951,0.04141698,0.03945917,-0.00585992,-0.10151831,-0.04033668,0.11273633,0.02907756,-0.04072000,-0.04839196,0.04689469,0.05473607,0.04290027,0.07418051,-0.00089155,0.04734681,-0.00418973,0.01865206,0.02989065,-0.08063151,-0.02732419,-0.09177507,-0.13108422,0.01186013,-0.01804750,0.01807280,0.00426294,-0.09159710,0.02939321,-0.14505446,-0.04761492,0.08452720,0.14440319,0.03512118,0.00900039,-0.03325758,0.04984126,0.05236807,-0.12589963,-0.02717525,-0.11414703,-0.01431040,-0.09991743,0.15201527,0.07507654,0.05132348,-0.00461309,0.01097355,-0.09315469,0.06546412,-0.05867046,-0.00628397,0.02014832,-0.01639135,0.19634047,0.04661388,0.04667880,-0.02832918,-0.01766532,0.05588525,0.06022749,-0.03044542,0.07807129,-0.02673322,-0.00613295,-0.01488934,-0.10887170,0.00465518,-0.02067313,0.02201797,-0.09011087,-0.00951514,-0.09620322,-0.01851780,-0.17369378,-0.01326102,-0.03395372,0.03435161,0.04722439,0.04937592,0.06856994,0.08550003,0.12605780,-0.04697178,0.13376950,-0.05945384,0.04520752,0.10065356,0.06098359,-0.03993505,-0.05238348,0.09883785,0.03864345,0.03605887,0.10752372,-0.01108053,-0.16422242,0.16971353,-0.00984258,-0.07201245,-0.08987198,0.02343252,-0.02377101,-0.02264734,0.17620502,-0.01620771,0.01694122,0.09297775,-0.04293121,-0.01918778,-0.02208454,-0.03905274
-0.00258146,-0.19984162,-0.07168335,0.17247361,-0.01754031,0.06825708,0.09044658,-0.04304759,0.01481946,0.04190848,0.01972257,-0.03064629,0.08607969,-0.06358003,-0.05815325,0.04154681,0.04944118,0.04771733,-0.00783429,-0.02765969,0.02367909,0.24760139,0.02681442,-0.06771620,0.04123290,0.01003672,0.04625150,0.00820010,0.05387639,0.03080667,0.02597283,-0.05632478,0.00787542,0.05939218,-0.05223232,0.05140265,0.02757865,-0.01330799,0.07352359,0.18643899,-0.05675289,0.05234613,-0.22867015,0.04576557,0.07650519,0.03426066,0.06790087,0.01087172,0.19065587,0.05084594,0.00319630,-0.00862670,0.01817820,0.02485066,-0.14809822,0.01609126,-0.05866269,0.00165038,0.08283140,-0.00410045,-0.02053064,-0.01517124,0.14176096,0.08342694,-0.01352310,-0.00243146,-0.06042644,0.01260838,0.08785176,-0.10754255,-0.01536234,0.11038327,-0.13945636,-0.00988403,-0.05373487,0.00919744,-0.03144571,-0.03803620,-0.02539513,-0.01155210,-0.02416553,-0.11603218,0.00001313,-0.04077045,0.04485837,-0.02372464,0.02130465,-0.10358316,-0.05046338,0.00986617,0.00580528,0.08285263,-0.01917099,-0.05785219,0.01094255,0.03177822,0.06701956,-0.05523527,0.03289032,-0.04360063,-0.00271715,-0.04464215,-0.05183729,-0.11630896,-0.03938464,0.06993049,0.03014585,0.00864489,0.07214297,0.05454518,-0.05269286,-0.00416230,0.15584436,-0.01409173,0.08202340,-0.12634388,0.02435885,0.05400266,-0.02810738,-0.02747199,0.03219541,0.15813978,-0.00855595,-0.00530483,0.12487569,0.00696530,0.07943816,-0.00573313
0.07743796,-0.10212769,-0.04596085,-0.00096735,0.12054310,-0.06269016,0.02315952,0.08682688,-0.06665826,0.06795623,-0.17510663,0.06693953,0.00028372,0.06021349,0.10297831,0.02725435,0.13902591,0.09156132,-0.09791998,-0.06306528,0.19024399,0.13361317,0.00147976,0.07000831,0.07216488,-0.10243499,-0.03254041,0.08289976,0.05948247,-0.14005856,-0.05888313,-0.00017603,-0.04573498,0.06532975,0.09511768,-0.09621483,-0.05809520,-0.00770337,0.07618579,0.02786265,0.09034245,-0.07609665,0.00162626,-0.01771432,-0.16789700,-0.01534383,-0.24704795,0.03324301,-0.05321401,-0.03678375,0.00176793,-0.09482943,-0.02335783,-0.00038942,-0.09470992,0.17475040,-0.28317606,0.07975961,-0.10806326,-0.01357936,0.04309779,-0.04802660,0.10039590,0.01890075,-0.09205841,-0.00254806,-0.01938047,-0.04753042,-0.03756393,-0.21239695,-0.08068078,-0.03649662,0.13723826,-0.00058020,-0.09986316,-0.02678323,-0.12363280,0.11426777,-0.15856801,-0.00753086,0.02156009,0.09293395,-0.04237382,-0.03978169,0.07119861,-0.02040032,-0.08172248,-0.15530419,0.01378988,-0.09475689,0.09988315,0.02297986,0.02712258,0.02284743,-0.08633310,-0.02417431,-0.01008789,0.21697220,-0.03926268,0.02831395,0.23219101,0.04443914,-0.07571278,0.02726298,-0.15551901,-0.05607276,-0.14237352,-0.01742577,-0.02723528,-0.08985065,0.10003921,0.00753785,0.02951158,0.12127399,-0.09822392,0.14821415,0.01446740,0.02648543,-0.03303641,0.11756451,-0.00874851,-0.03788415,0.02144528,0.03440204,0.02687877,0.14519931,0.06340490,0.05371555
0.01052966,0.07248074,0.03916026,-0.09061902,0.05618162,-0.03429210,0.03320097,0.05317291,-0.03039246,-0.08000904,0.01022888,-0.10404306,0.03714345,0.02882808,-0.00664054,-0.06718144,0.04140380,0.06073170,-0.03556541,0.00430049,0.00936830,-0.08299569,-0.06549800,0.01318487,-0.03309879,-0.04582998,0.08215724,0.06518411,-0.09006187,-0.02916239,0.08714288,0.03030726,0.04017542,0.01552713,-0.06381638,-0.06049642,0.00206814,0.01705866,-0.00665112,-0.02490633,0.04652234,0.06945927,0.04215066,0.03240766,-0.18903781,0.12886333,0.00555072,0.09284754,-0.06945986,0.10731363,-0.00190859,-0.07141815,-0.02792890,0.11135674,0.00460047,0.02692385,0.09894086,-0.03489820,-0.03101668,-0.01200890,-0.02518897,-0.02632575,-0.05080837,0.03446277,-0.02931977,-0.02031833,-0.00439825,-0.00170089,0.00117996,0.07121648,0.01149173,-0.02808462,0.09934312,-0.05810880,-0.01912401,-0.00594496,-0.02799327,0.00399262,-0.09207047,-0.06717799,-0.02595603,0.05541517,-0.01624311,0.11515365,0.00276385,0.03444839,-0.02711195,0.01564854,0.01873153,0.01289789,-0.01735279,0.00857643,0.03166909,0.00638367,-0.02652944,0.03204240,0.06041848,-0.03410158,0.10392670,0.01081611,-0.03020194,-0.06432426,-0.03100350,0.05858056,0.01797470,0.05265149,0.13116015,-0.08871534,0.00654295,0.08162117,0.03900218,-0.07099323,-0.01403096,0.04979366,0.10200664,0.05764076,0.07318405,-0.04536193,-0.02806542,-0.00821296,-0.02053764,-0.13473381,-0.06479777,0.12682228,0.05134447,0.03129334,0.02042257,-0.04640939
0.12660247,-0.06032627,0.00415508,-0.00244961,0.08311120,-0.14589530,0.01248483,0.02264341,-0.13687027,0.10151727,-0.11641420,0.06942996,-0.08753525,0.00381206,0.02057040,-0.03186759,0.09119463,0.06295780,-0.08397234,-0.05868483,0.12036129,0.12713899,0.00503210,-0.00811745,-0.05463882,0.01302344,-0.02454489,0.01552471,-0.09175008,-0.04681585,0.01046854,0.00529180,0.00745254,0.11709742,0.02371099,-0.10498247,-0.00745710,0.12147237,0.05381579,0.06697231,0.19515912,0.06399182,-0.01445968,-0.07842957,-0.11570983,-0.05444562,-0.06813920,-0.17399871,-0.06927818,-0.03192750,0.01292235,0.03009278,-0.12361209,-0.09271049,-0.04221721,0.37228420,-0.11688580,0.04132884,-0.13829741,-0.00291125,-0.16914789,-0.05273155,0.23299471,-0.02024099,0.08100673,0.00981904,-0.00221428,0.00099885,0.03137023,-0.12409827,-0.09293783,-0.01545122,0.03054859,-0.00667295,-0.14173011,0.07074223,-0.08632360,0.08466589,-0.08021561,-0.06855970,-0.06242348,0.24705668,0.08939671,-0.03308428,0.04047051,-0.02479796,0.00306337,-0.11437288,-0.14397493,-0.10938918,0.01930548,0.07392088,-0.09924106,0.05421573,-0.03477734,-0.14722708,-0.05128135,0.12956677,-0.00176198,0.00431611,0.12794138,-0.02003480,-0.02561111,-0.05864730,-0.12616372,0.13749562,-0.17119011,-0.05459699,-0.01084244,-0.14993262,0.10540940,-0.14345641,-0.01224513,0.17758821,-0.17454506,0.00449356,-0.11437098,0.01410080,-0.02724562,0.08660376,0.00413871,-0.12172623,-0.01307635,0.04902618,-0.09402220,0.02490221,0.02390235,-0.07062807
-0.06756168,0.04992023,0.01990470,0.32775429,0.03279619,0.05824107,-0.06457980,-0.01995901,0.00573508,-0.01871782,0.01759740,0.01328365,-0.00136798,-0.03594286,-0.04201299,0.07695888,0.03769656,0.02483845,0.04279118,0.05233987,0.00166684,-0.04182904,-0.11665364,-0.06074585,0.00534285,0.03497420,0.04445817,0.02712333,-0.03175506,-0.05298245,0.02355143,0.07086584,0.00257880,0.00807968,0.09983735,0.00188114,0.01552004,-0.01247362,0.04332836,-0.01980644,0.02152709,-0.02447288,-0.06753095,0.09201446,-0.01898008,-0.04383271,-0.00368397,-0.00115977,-0.05037101,-0.00793080,-0.07153264,0.01581451,0.01446687,-0.08185612,-0.02558520,-0.01898438,0.05705938,0.00056992,-0.01860235,-0.09401209,-0.09906852,-0.02053360,0.05320728,0.02221174,-0.01202819,-0.08432281,-0.00692610,0.00910387,-0.04616186,0.10443270,-0.03013736,-0.03084052,0.02595516,0.06954854,0.05883192,0.00712843,-0.07972842,-0.06278797,0.00958634,-0.02382442,0.07462052,-0.02490563,-0.02770430,0.00262029,0.00559579,0.02592729,0.04183767,0.02748248,-0.02247547,-0.04117223,0.05575493,0.05913011,-0.00454138,0.01941883,0.04650230,0.00042348,-0.03650182,0.02233218,-0.00299853,-0.00446509,0.02319944,-0.00596889,0.09096017,-0.06032976,0.01298308,0.00311705,-0.01281571,0.00338446,-0.02809562,-0.05413254,-0.08897468,0.03875109,0.02558528,0.05864565,0.02886912,0.02933689,0.11293709,-0.04188304,0.06832598,0.04032652,-0.00277611,-0.00957019,-0.03535064,-0.04088770,0.00176229,0.06627904,0.01454587,-0.01070200
0.00926159,0.09444471,-0.01771136,-0.10099776,-0.01185150,0.03802507,-0.04171962,0.01196260,0.09025493,0.03828080,-0.12071306,-0.03692273,0.03037065,0.05095270,0.01186423,-0.04549985,0.09584880,-0.03923968,0.05999256,0.01753756,-0.04815656,-0.21550474,-0.07864384,0.06424920,-0.04275024,-0.08832279,-0.14494966,0.03007265,0.04722307,0.01072534,-0.12716894,-0.03002936,-0.06443880,0.12114118,0.00491746,0.03593893,0.01927266,-0.09809534,0.09968460,0.01583033,0.08641942,0.05088447,0.03165579,0.02334399,-0.10102132,-0.00527070,-0.01587222,-0.01282526,-0.03209367,0.06801651,0.05003884,-0.03151840,-0.05352267,-0.06681240,-0.05010429,-0.01831099,0.11529338,-0.01730542,0.01174365,-0.02655142,-0.06191362,0.02594578,-0.04646317,0.15520440,0.05053056,0.04953190,0.05158406,-0.01256640,0.01654155,0.08776020,0.02687948,-0.01558617,0.07362740,-0.08856917,-0.03424333,-0.04524121,-0.00479295,-0.11973246,-0.06872806,-0.05616682,-0.07086084,0.08581383,-0.00729419,0.00429859,0.03119554,0.09878179,0.01435958,0.06284513,-0.14578579,0.10534420,0.00815503,-0.02452202,0.16491097,-0.14244074,-0.05693298,-0.01850087,0.05000173,0.05710169,-0.00494006,0.12755714,-0.06108468,0.05458501,0.01411461,-0.18928471,-0.11161454,0.09270480,0.07602816,0.06209881,0.01863679,0.01947255,-0.01343822,-0.02311257,-0.13368328,-0.09949215,-0.02284917,0.07481609,-0.06302358,-0.06156263,0.04835708,0.10716940,-0.02151249,-0.12952831,0.00080614,0.07516307,0.06036673,0.04746582,0.13616969,-0.16992326
0.00323441,0.03363195,-0.03033637,0.09623630,-0.12957644,-0.07911544,-0.04914513,0.04389159,-0.00249715,0.03660157,-0.00178325,0.04448926,0.04882697,-0.11613452,0.01487720,-0.06779993,0.09983779,-0.04364522,-0.00466262,-0.00370267,0.02014717,-0.09771959,-0.08353356,-0.02177273,0.04941825,-0.02527736,0.09969138,-0.02590431,-0.04441945,-0.00999879,-0.09340857,-0.01761388,-0.05505470,0.10529829,-0.00702511,-0.03059317,-0.02608866,-0.00895803,0.09946690,-0.00749942,0.07373874,0.02324255,-0.13021031,-0.03277991,-0.03538019,-0.05194380,0.00308684,0.01264249,0.04204565,0.01404814,0.11536396,0.04025766,-0.06796698,-0.02805463,-0.03170282,-0.08137947,0.08253689,-0.09142358,-0.04676464,-0.03159966,0.03075448,-0.05251219,-0.00587899,0.02872889,0.00119592,-0.00454451,0.15045017,0.04156474,0.00546208,0.04317075,0.02123202,0.01434128,-0.00588513,0.04457071,-0.08986405,-0.02563813,0.04541222,-0.02590153,-0.04616353,-0.03362139,0.00363113,-0.04300161,0.05020972,-0.00355641,0.10953747,0.05422517,-0.00633336,-0.00847729,-0.02708944,0.13354319,0.08395422,-0.03505080,-0.08041325,0.01020261,-0.08838899,-0.00548789,0.04029455,0.13143440,-0.03527457,0.09390136,0.02452207,0.03065903,-0.00101570,-0.04133773,0.02807410,-0.01329667,0.04424785,0.02150000,-0.05654844,0.02591760,-0.01279684,-0.02094796,-0.08246280,-0.07234237,-0.03287622,0.03986152,0.14391427,-0.07124842,-0.01577674,-0.04993971,0.07044943,-0.08520190,0.00325962,0.06498626,0.09016301,-0.05142349,0.08451781,-0.01570342
0.01878694,-0.11285855,0.05464438,-0.00912437,-0.16880800,0.04154076,-0.03204210,0.00483280,0.04066577,0.11378420,0.06423236,-0.03759966,0.03939371,-0.09244236,-0.05938446,0.00491361,-0.01867846,-0.04022653,-0.06103818,-0.10115171,0.06201411,-0.00388948,-0.03987155,0.19618168,-0.07419610,0.01384739,0.08005504,-0.06532897,0.02267075,0.04964920,0.06014568,0.08865409,-0.00095383,0.01651276,0.10069229,0.14724652,0.00423807,0.04735169,-0.00148866,-0.00739535,-0.02232725,-0.04362066,0.19527683,-0.02273818,0.06269585,-0.07647426,0.00427689,0.00006564,-0.00408381,0.01945501,-0.08394988,-0.04171957,0.01248110,0.06397023,0.00154789,0.07683691,-0.04392592,0.03144849,0.00752191,0.00243508,-0.02207738,0.02651955,-0.04004814,0.06321912,0.00921183,0.07060616,-0.00331816,0.01668519,0.02204079,-0.00398271,0.06986237,-0.10918190,0.00277647,0.19864993,0.07581649,-0.02036750,-0.06778857,-0.05490480,-0.06630528,-0.40967023,0.03968406,-0.04232033,0.04987668,-0.25968549,-0.01979092,0.02804984,0.05082373,-0.24604306,0.01270497,0.08315917,-0.01394894,-0.23103210,0.04454590,-0.05218921,-0.06365555,0.06304926,-0.08349320,0.01876344,-0.02499138,-0.19032091,-0.09859630,-0.04609568,0.01641985,-0.06833627,-0.04674434,0.01330884,-0.01813991,-0.07579476,-0.03135566,0.01732732,-0.01585666,-0.17295006,-0.03982165,0.01381496,0.06432428,-0.08849211,0.03035248,-0.02455059,0.02745203,-0.04653769,0.01709211,-0.01750528,-0.01871860,0.02304632,0.09808750,-0.01587374,0.00951635,0.02807813
-0.06301865,-0.01826548,-0.01061753,0.02813151,0.00689319,0.04482058,0.01529286,0.00041171,-0.03645110,-0.04608075,-0.11171738,0.09683955,-0.00565517,-0.01679114,-0.04907111,-0.04530843,-0.02563507,-0.07859587,0.05770858,-0.09976591,-0.02871885,-0.04971949,-0.07279284,0.04272583,0.03223110,-0.04945705,0.04048617,0.05108523,-0.14564626,-0.14863668,0.03429079,0.01782063,0.01254242,0.02089564,-0.07670987,0.00081263,0.09850679,-0.00475337,0.15103889,0.12109479,0.12794621,-0.05458291,-0.03818189,0.02351159,-0.13485962,-0.05671317,0.03380185,-0.18466288,-0.00071404,0.03614602,-0.08067939,-0.06579464,0.08511150,-0.22722863,-0.17395762,-0.06214133,0.11432659,-0.12332179,0.02307036,-0.03086987,-0.06224208,-0.01319752,0.08875517,0.18697779,-0.04717543,0.00220833,-0.07999440,-0.05382957,-0.12302119,0.07038353,-0.11847805,-0.03738422,0.13590938,0.00988759,0.06053780,-0.05689089,-0.02719280,0.11273026,-0.14227930,-0.10330629,-0.04845980,-0.09006517,-0.04300643,0.10277609,-0.01391675,-0.02017687,0.10698029,0.05468567,0.00800843,-0.01827447,-0.06429980,0.02819619,-0.04342936,-0.13787332,0.09528643,-0.00933534,0.15661828,0.02966417,-0.01284751,0.02490906,-0.02786098,-0.03416675,0.05200154,-0.14664072,-0.00374760,-0.04314488,-0.07324107,0.04220341,-0.01422788,0.01822550,-0.12748271,0.02504147,-0.00101582,0.06108239,0.02517087,-0.05326832,0.00033823,0.06834397,0.08122183,-0.07660464,0.00260592,0.05269280,-0.01494474,-0.01789615,0.05537608,0.06793842,0.09525266,0.07538209
-0.01664666,0.17814866,0.07149545,-0.05756507,0.02847673,-0.02431719,0.12008449,0.04513639,0.00742567,-0.06120275,-0.09519517,0.01180451,0.05412617,-0.04258361,0.04624917,-0.05919014,0.04659971,0.02473149,0.08674929,-0.01588291,-0.10851645,0.02614927,-0.07509553,0.04924092,0.01033330,-0.10317978,-0.03058977,0.01711004,-0.01875947,-0.02543141,0.04241758,-0.03326945,0.16653667,-0.00887671,-0.05024853,0.06355213,0.04668980,-0.06652965,0.03404643,0.04221614,0.07758798,0.05590079,0.02744742,-0.02711306,-0.11778919,-0.00614257,0.05507821,0.01199102,-0.03965185,0.07966893,0.03147155,-0.02973444,-0.00277574,-0.00532133,0.05592744,0.07058568,-0.01116256,-0.03013007,-0.01904159,-0.03276848,-0.03731431,-0.01249581,0.00963341,-0.02344712,0.02689472,-0.03083795,-0.09189983,-0.07386353,-0.04656034,-0.06854296,0.02567150,-0.02985535,0.07495036,-0.04912872,0.06659959,-0.06491671,0.00781190,-0.01570802,0.00070233,-0.05392315,-0.04421376,-0.00879525,-0.05734461,0.02994763,-0.01755669,-0.03394815,0.07143794,-0.01735593,-0.10804599,-0.02169889,-0.00050469,-0.06970778,0.06136645,0.00736052,-0.02359550,0.01972682,-0.02253920,-0.05082260,0.00047143,0.05835134,0.01503834,-0.03881280,0.02336335,0.04318640,0.03952128,0.12675974,0.02732433,-0.04134751,0.04754738,0.04236389,0.04330676,-0.03835502,0.03405377,-0.09985422,0.06455473,-0.02382500,-0.02316092,0.02206495,0.08139815,0.05888726,-0.02077199,0.03434579,-0.14090370,-0.04447780,0.05884182,0.07171825,-0.01535899,-0.09622975
0.06813773,0.07635853,0.03230389,-0.08320296,-0.01850952,-0.04545128,0.04765724,-0.00341338,0.04488669,0.03212548,-0.01388314,-0.02862395,0.05026063,-0.02730309,0.03644947,-0.11086847,0.02226805,0.08462820,0.08602406,0.05757652,-0.05413743,0.07405885,0.02803752,0.01068981,-0.07733540,0.03971050,-0.15445103,-0.02827527,-0.11396819,-0.02019125,-0.00816963,-0.04873585,-0.05758850,0.00109242,-0.08543198,-0.06396126,-0.16120210,-0.09175679,0.10024944,-0.02766695,-0.09414062,0.04754975,0.07655824,0.07449497,-0.01625846,0.00632521,0.05855118,0.06406952,0.05680821,0.04728609,0.04966839,-0.05352482,-0.01062991,0.16100313,0.07232165,0.08986231,0.12909493,0.01155451,-0.06880177,-0.13025075,0.06794891,-0.00515521,-0.02622774,0.01886223,0.06871431,-0.11569223,0.13273615,-0.01906566,-0.02004003,-0.00247900,0.06547004,0.08028818,0.03569926,-0.05207394,-0.05526611,0.01306040,-0.03681406,-0.01579897,0.02189357,-0.00487477,-0.03863738,0.07149898,0.03639316,0.04195236,-0.03464760,0.11135167,-0.02384548,-0.02882960,-0.01209434,-0.04315680,0.03449661,-0.01060709,0.05138670,-0.03530551,-0.10720875,-0.00392622,0.13173363,0.01127948,0.02338610,-0.01276455,-0.00394544,0.08838643,0.03839169,-0.07349319,-0.06976023,0.01988448,0.07346892,-0.01022217,-0.00892776,0.13308187,0.08780755,-0.07966810,-0.07195322,0.01571282,0.07865397,0.12186474,-0.13214462,0.03621169,-0.11049446,0.05927253,0.05384425,-0.05272623,-0.03343397,0.01667539,0.04829249,0.00257713,0.09176775,-0.05489749
0.01767081,0.07954044,-0.00788346,-0.09032749,-0.05607244,-0.06770092,0.03972024,0.04287452,-0.01036089,-0.02155423,0.02556557,-0.04876673,-0.02325055,-0.00290314,-0.05439831,0.04694133,0.01295662,0.00741857,0.03492939,-0.01281874,0.08009084,-0.04258088,-0.06025426,0.03482646,-0.01214249,0.03399763,-0.04434108,0.08499172,-0.09679373,-0.01771993,0.03394261,0.04372489,-0.02226912,0.05930340,-0.01838550,-0.03802194,-0.08576497,-0.03330858,-0.03004930,-0.11550163,0.00530117,0.02241799,0.05764139,-0.05780204,0.06538849,0.05219422,-0.06122239,0.08939742,0.00736407,0.02049226,0.16748370,-0.00789160,-0.04873813,-0.01292873,0.13754269,0.00192462,0.08243476,0.06550623,-0.04148247,0.01414160,-0.05243649,0.05602968,0.03410927,0.09602115,-0.08373684,-0.01321725,0.05303558,0.08749261,0.00437592,-0.03821657,0.06296601,-0.02974293,0.16417761,-0.05024962,0.07347050,-0.09799889,0.01155218,-0.03746998,0.01621413,0.06527942,-0.06776727,-0.04371388,0.03593078,0.03279589,0.00787281,0.14439437,-0.06632006,0.02375362,0.04758662,0.00713326,-0.09783217,-0.09958930,0.14060722,0.13987653,-0.11241589,-0.01623701,0.12967382,0.14035448,-0.03239329,0.00637539,-0.19549964,0.02966354,0.10491956,0.07184464,-0.07615337,0.03070847,0.02561228,0.00582925,-0.03443534,-0.13531153,0.08401877,-0.16115975,-0.12111869,-0.03112187,0.01044272,0.05898111,0.02943982,-0.06029960,0.02864707,0.08231591,0.01324554,-0.16062368,0.07512300,0.07422528,0.06065844,0.00229897,-0.06062650,-0.16426970
0.01510601,0.09803072,-0.00550620,-0.04777130,0.09810883,-0.00355244,0.00593278,-0.02003157,0.03982735,-0.06922985,-0.13925141,0.04151350,-0.03214635,0.08056757,-0.14817421,-0.02094989,-0.01913608,-0.11446817,0.20526405,0.01608090,-0.09136986,0.09566101,-0.05030565,0.13883412,-0.11172225,0.00083538,0.00508759,0.01794924,-0.04340870,0.00965632,0.09255192,-0.03670720,0.02306638,-0.00585834,0.08893232,0.14758506,0.00175216,0.04911192,0.09286662,0.12874073,-0.03451675,0.05086340,0.03233694,-0.02241550,-0.05648577,-0.11371932,0.01255977,-0.02916052,-0.12505038,0.00947582,-0.07742510,0.05629764,-0.02965819,-0.08712882,-0.09098931,-0.07994623,-0.08999941,-0.11407427,-0.05074438,-0.06008867,-0.02668455,-0.04055505,-0.08766386,-0.01040908,0.14041981,-0.00839339,0.14817764,-0.13196205,-0.06491069,-0.00974901,0.05725309,0.01717723,-0.11934542,-0.06144830,0.15020579,-0.06938071,0.01627359,-0.03249355,-0.16036303,-0.01755104,0.04946323,0.12132753,0.01505739,-0.00106448,0.13236596,-0.07358535,0.04511590,-0.08350183,-0.16010615,0.06473920,0.09598219,-0.08822984,-0.01291576,-0.13033235,-0.07043774,-0.04202548,0.05927895,0.06584556,0.09233635,0.10159851,0.04979511,-0.02129862,-0.03771386,0.05394715,0.07236677,0.14683391,-0.03850784,-0.01253158,-0.01107044,0.06704714,-0.16798832,0.08134879,-0.05023614,-0.07511035,-0.05005207,-0.02144816,0.13336700,0.11994777,0.00702944,-0.05968473,-0.07810264,-0.00802450,-0.06167688,0.09599481,-0.07638516,0.06909326,-0.05302034,-0.10401085
0.02541522,0.00722582,-0.01710099,-0.07375350,0.04714024,-0.06771052,0.13977186,-0.07137224,0.06042077,0.02505539,-0.06533316,0.04936647,0.02466849,-0.01105112,0.09194742,-0.16498186,0.05960065,0.01338512,0.07934593,-0.03728259,0.01011169,-0.08917432,-0.06425641,0.01685966,-0.02649834,-0.00582637,-0.02556158,0.01203761,-0.06576645,-0.11691643,0.12486056,0.00647891,-0.07124946,0.02844054,0.00925094,0.10767215,0.03474192,0.00173139,-0.01439823,-0.12532152,-0.03795693,0.05909427,0.07005064,0.04939338,-0.08213538,0.02085784,0.01932887,0.02550465,-0.17840816,0.03141939,0.16216065,-0.04080152,-0.04708369,0.12173583,-0.11876483,-0.03787095,0.09728421,-0.07090588,-0.13328463,-0.04970337,-0.03457250,0.01421232,0.05393127,0.00525476,0.06878711,-0.03662876,0.12623337,0.03715877,0.11799891,-0.02288839,0.04558123,0.13088790,0.07202387,-0.08883531,0.07023975,-0.07789959,0.02208175,-0.07698325,-0.03997070,0.01607468,-0.08519778,0.04456382,0.04243099,-0.01535340,0.12476163,0.02286688,0.01162170,-0.01245341,0.00252320,-0.12531438,-0.03079799,-0.07397970,0.09188128,0.06552947,-0.18579760,0.06176569,-0.00677696,-0.06171890,0.03742607,0.09586205,-0.12540361,-0.04510150,-0.11204431,-0.04627450,0.01716728,0.04572003,-0.04103206,0.05193537,-0.02628855,0.14675701,-0.02928114,-0.10084734,-0.01890202,-0.00323379,0.00993852,0.10608512,-0.15906844,-0.02036647,-0.06981111,0.05809536,-0.06714927,-0.07523335,-0.08020912,0.03365063,0.03477700,-0.00401004,-0.02888076,0.03889437
-0.08285463,0.02239657,-0.00560604,0.00746238,0.09225082,-0.03211902,-0.00191420,0.04587944,-0.15855916,-0.11488217,-0.11390564,0.06504843,0.00909494,-0.13361427,0.00297363,-0.02170596,-0.03536312,0.26174566,0.11453529,0.02459828,0.07992863,0.01451738,0.02026801,0.05843790,-0.19213420,-0.03152221,-0.03052218,-0.18913768,0.06423278,0.02205290,0.01822447,-0.03524195,-0.00591644,0.10020928,-0.15615897,-0.02056885,0.02714485,0.14050765,-0.05332395,0.05426803,0.18244627,0.04162690,-0.04754481,0.17011665,0.04260034,-0.04112294,-0.03638317,0.03527070,-0.07467666,-0.00115320,-0.01124603,-0.28470680,-0.00601940,-0.06356920,0.05592396,0.00473637,0.05346410,0.10880300,-0.04385805,0.01336548,-0.04159771,0.13616435,0.02865128,0.05147368,-0.05537215,-0.00341510,0.10259938,-0.05513128,0.08506168,-0.05238769,-0.03166002,0.01300749,-0.03295554,0.00068549,-0.02837716,0.01097355,-0.03847329,0.08304844,0.00485080,0.01775765,-0.00064804,0.04422896,0.00574377,0.01893686,0.22442800,0.13725702,-0.05683063,-0.05243172,-0.02946672,-0.04194931,-0.03054301,-0.11831100,-0.01362369,0.00140692,0.15391888,0.04432299,-0.02668908,0.01765281,-0.07552683,0.02885116,0.00548062,0.15275820,-0.09685857,-0.12825635,0.10569465,0.04876947,-0.00308495,-0.10656487,0.09466484,-0.23950961,0.08637711,0.08047440,-0.01670489,-0.00280031,-0.00807387,-0.04505388,-0.04359752,-0.02135487,-0.13831820,-0.12892202,0.00116530,-0.07964040,-0.06904766,-0.11643895,-0.30149761,0.08448944,-0.02432333,0.03052482
-0.04794601,-0.00991379,-0.02253901,0.54076070,-0.00425068,-0.03970732,0.01644728,0.00856872,-0.09720872,0.02305901,0.02503704,0.06098306,-0.02215721,0.07521082,-0.00538663,0.04526259,-0.00762223,-0.04678261,-0.12572916,0.03914717,0.05845049,-0.09816246,-0.01809977,0.03140875,0.07166987,0.00278987,0.05957104,0.04091891,0.03225083,0.01085104,-0.06761125,-0.09647599,-0.01071719,-0.00430172,0.00411657,-0.16252278,-0.05390199,0.00915367,-0.07863586,-0.11634661,0.01832281,-0.00696881,-0.28631574,-0.07822327,0.10117687,-0.08837651,-0.02084572,0.03774381,0.13735327,0.00841196,0.02075122,0.05990468,-0.03120518,-0.05218236,0.00089755,-0.05363027,-0.01063356,-0.00933226,0.00708324,-0.01947439,0.05369680,-0.05944142,-0.04516463,-0.01046192,-0.04698067,0.03743494,0.03473629,-0.00359380,-0.06192301,0.08568784,-0.07788789,0.04674535,-0.08232333,0.22320323,-0.12381063,0.01203561,0.04709035,0.01060607,0.13742109,-0.18187863,0.04586989,-0.04912244,-0.06703540,-0.03784525,0.09042098,-0.06206964,-0.09728599,0.12308645,0.03278844,-0.02486635,0.02489359,0.05514943,-0.11068140,-0.00359179,0.07869557,0.02140786,0.08621646,-0.10219751,0.06956731,-0.02097902,0.12779006,0.04939115,0.05235512,-0.03390096,0.06069292,-0.11166739,-0.09218559,0.05768030,0.03055782,-0.03622760,-0.08339710,0.08905581,0.00940326,-0.02381999,-0.00551088,0.06896691,0.17698023,-0.05770089,-0.06862023,-0.05158902,0.04479986,0.06642495,0.09983805,-0.02537161,-0.02756873,-0.14132850,-0.02914506,0.05477264
-0.01149130,0.05588531,0.03916357,0.11529169,-0.12337587,0.17509034,-0.04597349,0.06184317,0.04297543,0.01358000,0.06360143,-0.03200091,0.07215061,-0.03722606,0.00930111,-0.11601308,0.14323419,0.03047189,-0.06536799,-0.03203477,-0.00240560,-0.09864633,0.09261621,-0.14527565,-0.10076637,-0.10546838,-0.01047419,-0.02237235,-0.07082897,-0.04046705,-0.07048079,-0.05656449,0.02694572,0.04663523,-0.00867291,0.02298441,0.00098792,-0.02295644,0.13477767,-0.04512922,0.04195747,-0.05208744,-0.09652219,0.01692031,-0.06288315,0.12905268,-0.04530168,-0.02363712,-0.05168974,0.06718048,0.07817669,-0.14788325,-0.01546520,-0.09308150,0.12975551,0.02866259,-0.00177540,-0.03273531,-0.02183509,-0.02864306,-0.02339558,0.00903810,0.12003060,0.17738949,-0.06824076,0.09761545,-0.05938402,0.00763323,0.03434023,0.06284013,0.02265776,0.03332246,0.05325135,0.04887531,-0.05587982,0.05048532,-0.07666324,-0.09253023,0.03244973,-0.00035446,-0.00459695,0.01593368,0.09567767,-0.03953589,-0.04926493,-0.00458734,0.06259450,0.06032922,0.08048677,-0.03571044,-0.01653560,-0.01152605,0.00587017,0.01553740,0.00893487,0.02887411,-0.09904514,-0.02752637,0.04922499,-0.15594408,0.02412914,0.05319831,-0.07729395,0.02202859,-0.07603324,0.02139754,0.11441486,-0.04563805,-0.01504954,-0.01817721,0.06382304,-0.09721206,0.04113138,-0.05106847,0.01418711,0.04869002,-0.07326304,-0.07396931,0.09881650,0.01609291,0.07823280,0.03109372,-0.00781874,-0.03217749,0.05451637,0.05965294,0.08501463,0.07053090
-0.14415753,-0.00177749,-0.01773553,0.00446840,-0.03962283,-0.05965260,0.03331841,0.14432061,-0.07506044,0.00713233,-0.13953914,-0.03396261,-0.02817276,-0.06929648,-0.06233918,0.05763962,0.03069563,-0.05377379,0.11360843,-0.02282489,0.08871590,-0.02795861,0.02771877,-0.08653066,0.07009314,-0.02421734,-0.00270863,-0.06528865,0.06833657,-0.18462145,0.02155924,0.02344921,0.00728867,0.00471279,-0.07527029,0.03133880,0.01099123,0.10090341,0.03484287,0.04410502,-0.05326223,0.04139733,0.00099510,0.03399034,0.07001209,-0.04533165,-0.04695415,0.11666521,-0.06651058,0.01544528,-0.01681223,-0.14307372,-0.00401071,0.07514009,0.08421726,-0.15018226,-0.08632243,-0.06183904,0.00983785,-0.10140941,0.07582915,0.00413412,-0.12633753,-0.01234395,-0.17181809,0.04861512,-0.01458405,-0.10608574,0.00142142,-0.02150045,0.07455367,0.09540551,-0.05714111,0.01011888,0.07632366,0.16283931,0.06072366,0.12854797,-0.00950912,-0.02249412,-0.04413259,0.02568374,-0.08461399,-0.10888769,0.00478124,0.17605329,0.10869967,-0.05774333,0.01401350,0.07855653,-0.12761839,-0.08018328,0.19906276,-0.07386740,0.00399459,0.06814275,-0.05280812,0.02384787,0.02750860,-0.06352126,-0.10574125,-0.04350815,0.09838368,-0.09806563,-0.05918201,-0.18632823,0.25910956,0.04473125,-0.03208394,0.03764764,-0.01698305,0.18619242,-0.04157623,-0.08304216,0.03483040,0.07751817,-0.02323016,0.06870963,-0.00882405,-0.01678247,0.02670957,0.03321747,-0.06402352,-0.08367184,-0.05887650,0.12701225,-0.10084618,0.04595070
-0.04425215,0.07238576,0.03645207,0.01843654,0.05746065,-0.02032695,-0.00820191,-0.09658308,0.07441954,-0.06225501,-0.01053490,-0.10941530,0.03159254,-0.10257605,-0.13372244,0.11302906,0.05049353,0.04331524,0.05121423,0.02436057,0.09112348,-0.01554372,-0.11110768,-0.05167062,-0.02774194,0.02296628,-0.10085765,-0.09076029,-0.15516908,0.06152263,0.04970597,0.04525749,-0.08569486,-0.01905523,0.00720715,-0.03299221,0.07253999,-0.03338253,-0.12336971,-0.12858014,-0.07393146,0.06609846,0.01379940,0.12826015,-0.03440074,0.03808202,-0.00486994,0.02810619,-0.10260287,0.02756777,0.21244262,0.01578677,-0.13633667,0.16601720,-0.13215931,-0.00728515,-0.04499634,0.06159206,-0.07043845,-0.13484646,0.00663950,0.05243456,0.00667232,-0.00295827,0.04779112,-0.00466400,0.05754108,-0.10486086,0.03418644,-0.08107949,0.09477948,-0.08925741,0.11226051,-0.00474826,-0.10353715,0.01125935,-0.09595942,-0.01458396,-0.03106348,0.01927108,0.07227036,0.05330379,-0.04698516,-0.08251648,-0.11580461,-0.12823401,0.06957357,-0.01047167,0.14834465,0.09713496,-0.09061440,0.03236621,-0.11706134,-0.00347091,-0.06965292,-0.14768115,-0.21024582,-0.00174980,0.00434110,-0.03600611,-0.05473130,0.15433021,0.00601126,-0.02168164,-0.12414694,-0.04307486,0.06085651,-0.00424791,0.06031248,0.01427949,-0.02718940,-0.07091009,0.02264606,0.04037034,0.09480987,-0.07305933,-0.04971123,-0.08953891,-0.07758145,0.03392470,-0.09941958,-0.07805315,-0.07256502,-0.05618627,-0.07447374,0.04249942,0.10931221,-0.12999576
