0.09740101
-0.19290674
0.04332267
0.17937997
-0.08023558
0.24005425
-0.11201719
-0.07875060
0.13820238
-0.24162453
0.19787838
-0.32045755
0.03526554
0.57152158
-0.05951369
-0.02555817
0.09795795
-0.04749508
-0.20452143
0.00030384
0.30268881
0.04982631
-0.02919694
0.23858920
0.19353080
0.10817629
0.27912423
0.06272642
-0.17285012
0.04872790
0.01927922
-0.60479611
0.39255777
-0.07901708
0.16131778
-0.13182777
0.03942790
-0.17957097
-0.36977303
-0.09759042
0.24883796
-0.50122744
-0.12704630
0.18035552
0.26864117
-0.03305227
0.04020160
-0.23219357
-0.22097412
-0.76807058
-0.14138146
-0.03036495
0.15214044
0.02234354
-0.11351191
0.51425231
-0.06077006
0.10859448
0.22945328
-0.05860679
0.15876925
0.30503803
0.01552954
-0.17050280
0.02567877
0.03452952
-0.04497155
0.11571845
-0.01089788
-0.24639201
0.20303807
0.05195758
0.08217430
-0.03779440
-0.09407331
0.10865849
-0.05779878
0.05460592
0.06592742
-0.02324775
0.00300771
-0.04215463
-0.03793334
-0.04962441
-0.10784303
0.03455589
-0.03930178
-0.10872085
-0.07173876
0.00969080
0.00906746
-0.07135258
-0.08731560
0.00470991
-0.06616133
-0.02310177
-0.00810124
0.06963216
0.01558729
0.09741688
-0.03420141
0.06892776
-0.09715392
0.07014200
0.07680194
0.11351240
0.01178281
0.04720057
0.04343495
-0.07425568
-0.00970817
-0.04225750
-0.01553022
-0.09881856
-0.14637916
-0.04641168
-0.10261115
-0.01429051
-0.03749751
0.07458339
0.04304298
-0.09869686
-0.02007170
0.20106481
-0.14984107
-0.06746459
-0.10094786
-0.08595669
-0.00356522
-0.11571842
0.04687769
-0.03482766
0.06492902
-0.07714666
-0.02463481
0.06664753
-0.07923862
-0.17105275
-0.03780816
0.02510431
0.04250508
0.02804811
0.14516857
0.04034641
0.00096284
-0.04895095
0.02983857
0.03659545
-0.07828490
0.05843028
-0.03154503
0.00001357
0.03971136
0.12735674
-0.08756302
0.03985899
0.10033460
-0.07451005
-0.00162184
0.03599746
0.04710348
0.04547143
-0.01789526
-0.07703414
0.05909542
-0.04373844
0.07947011
0.05171036
0.02116129
0.03750615
0.06132969
0.03560944
-0.12312934
0.02254234
0.05609464
0.05336412
-0.03527817
0.07124384
0.00082379
-0.05659998
-0.01147062
-0.04407556
0.04871925
0.03701434
-0.01738824
0.00121621
-0.10723124
0.03751941
-0.03002555
-0.03350640
0.01156535
0.03138423
-0.06573980
0.00831051
-0.01727030
0.00782227
0.25945327
-0.02743078
0.02243454
-0.02712962
-0.07470072
0.04894581
0.07829838
0.02833506
-0.06622124
-0.00512602
0.01578916
0.13513269
0.12039672
-0.01477399
-0.14303818
-0.17764471
0.01265035
0.13414328
0.08395021
0.11076791
-0.00328190
0.05263060
0.02345347
0.00647311
0.00182913
0.02397747
0.20584407
0.09541639
-0.03492673
-0.17747261
-0.01039959
0.00090581
0.01616628
0.00059650
-0.04853632
-0.01070932
-0.09321231
-0.06748763
0.11836694
0.01259670
0.00647085
-0.00941430
0.07525969
0.05732926
-0.08830743
-0.06342372
0.01631705
-0.03568479
-0.06137544
0.02327442
0.01979414
-0.00908596
-0.07360602
0.09465346
-0.02870448
-0.04916850
-0.02997916
-0.00095690
-0.13449495
-0.01301257
-0.03561739
0.09063858
-0.01152220
0.00881345
0.01664244
0.04792126
-0.03121849
0.06642680
0.02274419
0.16847697
0.02096343
0.08055889
0.02527198
0.00473659
0.04904960
-0.02023568
0.05111193
0.03318394
0.02388134
-0.02046979
0.00600177
0.07229681
-0.01923391
0.15953492
0.02219326
0.08522057
0.02579234
-0.05198412
0.03177506
0.08480095
0.11434527
0.03553794
-0.02120728
0.08336986
0.02708845
-0.08851913
0.09121311
0.09508702
-0.01211774
-0.08536255
0.00861195
0.01257997
-0.07644472
0.00935539
-0.05450131
-0.08501237
0.01855318
-0.06777643
-0.06856766
0.02352515
0.01346825
0.10998637
-0.08791118
0.10159232
-0.05190064
0.03681478
-0.03480773
0.04562668
-0.08652048
-0.02399289
-0.01504251
0.02704367
-0.02396317
-0.00553868
0.08843172
0.28200471
-0.25186199
-0.01541034
-0.01650126
-0.00146231
-0.03306657
-0.03357162
-0.11046482
0.05601998
-0.01366210
-0.01000569
0.09012490
0.07486984
-0.12805218
-0.21124141
-0.02978637
-0.13783680
0.06486068
-0.09555494
-0.12769853
0.10024134
0.01480193
-0.04445294
-0.08716851
-0.00396329
-0.24002500
0.05723889
0.10228454
-0.00335800
-0.09956951
0.09570870
0.05933238
-0.11028451
0.19294460
-0.14884862
0.06142157
-0.04267680
-0.07541557
-0.03401611
0.02729359
-0.05355331
0.02999314
-0.03175910
0.40600517
0.02316693
0.03286640
0.04119519
-0.00566292
-0.03288041
-0.09091909
-0.03352542
0.03903692
0.06989145
-0.00864861
0.03068662
0.09599241
-0.04414988
-0.06429591
-0.30198964
-0.22589959
-0.41151318
-0.43698254
0.07582609
-0.24987708
-0.08291240
-0.03414968
0.17640200
-0.10418443
0.02340303
-0.20421802
-0.01215728
0.03663484
0.21835333
-0.12326161
0.03865289
0.05746351
0.00208023
-0.08177494
-0.17243899
-0.06442602
-0.10048931
0.02985381
-0.18017566
0.04838209
-0.03895023
-0.06345566
-0.15157168
-0.03910247
-0.03372084
-0.24624984
0.00549341
0.13207158
-0.00836500
0.08772509
-0.29041892
0.27721137
0.10686754
0.04144722
-0.15540601
-0.09435240
-0.17287180
-0.04397952
-0.06576236
-0.05742704
0.00066827
0.05993250
0.13543779
-0.07207198
0.07148152
-0.08574035
0.08366047
0.01069530
0.03323432
-0.07085899
0.01996658
-0.11349693
0.01634481
0.06822579
-0.21934161
0.00046143
-0.02574535
-0.32159492
0.01535838
0.07936535
-0.03481980
-0.14595701
0.07287988
-0.00002082
0.04702435
0.25688162
-0.47095349
-0.06663851
0.48159268
0.26234457
0.35384992
0.39258420
-0.34655058
-0.19475004
-0.09805770
0.08993314
-0.05776173
-0.16485979
0.15234445
-0.38826260
-0.20399748
-0.23079284
-0.21718018
-0.08620784
-0.14926325
-0.20054480
-0.27061030
-0.12592196
-0.16972825
0.21768188
-0.15391041
-0.24068816
0.21508084
-0.25295612
0.42893547
0.00371574
0.04045900
-0.46713090
-0.02930307
0.21095872
0.16175802
0.00061145
0.18605416
-0.13775305
0.34398675
-0.56661505
-0.27615425
-0.50557125
0.28335321
-0.58810723
-0.70092165
0.28765365
0.33374986
-0.17869636
0.21806327
0.02288083
-0.30102584
0.10171285
-0.17964509
-0.11182610
0.07292537
-0.39713350
-0.10195879
-0.10435600
0.07970328
-0.05981231
-0.53055680
0.06543164
0.03653549
-0.05382654
-0.06270869
-0.02860135
0.00522008
0.04767369
-0.06875267
0.09793590
0.03527790
-0.02034425
-0.03992619
0.03815335
-0.11065528
-0.10533375
-0.00853378
-0.02035819
-0.06920268
-0.02969019
-0.11889830
-0.05211816
0.09930810
-0.06572211
-0.06066493
0.03203614
-0.14647999
-0.01559211
-0.06189643
0.00223213
-0.00941816
-0.12984006
0.04738559
0.09745175
-0.02690119
-0.03198045
-0.02766994
0.03019465
-0.02865683
-0.01734466
-0.01305337
-0.08275380
-0.05672513
0.04488242
0.05957166
-0.02367006
0.01852939
-0.07209489
0.00604301
-0.01375101
0.07847530
-0.00476511
0.15869801
0.05710590
-0.01921705
0.10147643
-0.02086955
-0.03306515
0.05455406
0.03136234
0.05496704
-0.01768758
-0.02651072
0.05209546
0.05495042
0.03088455
-0.27935037
-0.17911494
-0.03632464
0.08017652
-0.09283800
0.26679707
0.05282560
0.52659500
0.02373829
-0.02700448
-0.11597924
0.08299831
-0.00539368
0.12544286
0.04683906
0.13354363
-0.06859872
-0.07454599
-0.07601003
-0.07558826
-0.13243333
-0.43549526
-0.36437362
-0.02390859
-0.00153081
-0.01001763
-0.02768575
0.01860144
-0.00214965
0.10780536
-0.10217115
-0.06289401
0.06395141
0.02239780
-0.10495378
-0.10544030
0.04100407
-0.00664251
-0.00312540
-0.14617929
-0.02881941
0.00485720
0.05533389
-0.24216761
-0.22614805
-0.16632140
-0.00929626
0.02920226
-0.00060500
-0.23830324
-0.10281127
-0.10042139
0.00479917
0.35259703
-0.12483373
-0.00112671
0.02398008
-0.12844545
0.19505775
0.09342702
-0.01641736
0.06690737
0.00978302
0.00481747
0.07345719
0.05486272
0.07760929
0.07537023
-0.14311500
-0.03166648
-0.09155786
0.10004564
-0.06113260
-0.11791537
0.09443919
0.00542280
-0.02725498
0.07135364
0.11113714
-0.03930742
0.08559057
-0.02615554
0.08752213
-0.01172047
0.12672530
-0.01962282
-0.04981039
0.04135345
0.02153716
0.03268394
-0.06046218
-0.05742609
0.03795371
0.12734371
-0.02647689
0.02065882
0.00109308
-0.01029560
-0.12208976
0.05402731
0.03319270
0.11389040
0.14028934
-0.00669421
0.01049964
-0.11846442
-0.02147591
0.09727191
-0.11037964
-0.03991578
0.11623448
0.07395148
0.07851097
-0.01469471
-0.02533456
0.18448064
-0.01711991
-0.36413801
0.06105933
0.03499141
-0.18360436
-0.05516281
0.01201163
-0.01155343
0.01085585
0.12387495
0.05982422
0.04521019
0.12616017
-0.05211598
-0.28954920
-0.02543451
-0.03518887
-0.28003383
-0.00167854
0.02080948
-0.01864731
0.03646909
0.10084350
-0.03162997
0.14493525
0.02769821
0.09159169
0.01753485
-0.06827451
-0.00642602
-0.17919643
0.07656845
0.15092351
0.01375046
0.01434965
-0.03167164
-0.06908362
-0.02636261
0.00265044
-0.30310294
0.01517456
0.01571397
-0.06748863
-0.04607615
-0.02427900
0.03488686
0.04438782
-0.00003809
0.00827996
-0.05339096
-0.03312192
0.00134883
-0.00864613
-0.07510845
0.00942775
-0.09889399
-0.17616665
0.05866757
-0.00608525
-0.00818496
-0.00151022
-0.14255972
0.02765081
0.13266031
-0.04534369
0.00349874
0.04762141
0.14190884
-0.06617538
0.04543213
0.02962200
0.03378598
-0.02973694
0.01095957
0.06180504
