-0.00504407
0.00136887
-0.00394336
0.00646125
-0.00148919
-0.00190836
0.00053346
0.00027463
0.00030279
0.00139867
0.00062668
-0.00083980
0.00092963
0.00305255
0.00054793
-0.00531547
-0.00119580
0.00157254
0.00098040
0.00140039
-0.00359086
-0.00125604
-0.00226454
0.00457283
-0.00143574
0.00708785
0.00132091
0.00114151
0.00135623
-0.00059839
-0.00075759
0.00152378
-0.00027394
-0.00266620
-0.00975003
-0.00294129
0.00367652
-0.00080697
-0.00378552
-0.00078704
0.00136432
0.00104068
0.00226564
-0.00066159
0.00061480
0.00107048
0.00091614
-0.00128928
0.00007137
0.00052995
0.00045932
-0.00084730
-0.00052598
0.00370814
0.00013428
0.00137071
-0.00926989
0.00169413
0.00464864
-0.00043084
-0.00091174
0.00059390
-0.00036343
0.00013480
0.00314856
0.00947815
0.00033457
0.00366409
0.00405543
-0.01124720
-0.00673568
-0.00069925
0.00526692
-0.00889253
-0.00858648
0.00544828
0.00422914
0.00516536
0.01204578
0.00193294
0.01040214
-0.00228316
-0.00108277
-0.00775600
0.00467267
0.01516866
-0.00767299
-0.00775561
0.00513825
-0.00106600
0.00467418
-0.00192799
-0.00357272
0.00827927
0.00835543
-0.01074109
0.00361706
0.00067779
-0.00363075
0.00430562
0.01101034
0.00423495
0.00362886
0.00331258
-0.00100949
0.00023365
-0.00017701
-0.00724876
-0.00930163
0.00050050
-0.00557895
-0.00535072
-0.00309495
0.00121534
-0.00339574
0.00279650
-0.00446733
0.00940592
-0.00469393
0.00114124
-0.00225972
-0.00219812
0.00463982
-0.00467877
0.01169350
-0.00868648
0.00052599
-0.00788550
0.00109336
0.00355534
0.00492398
-0.00515276
-0.00023380
0.00173715
0.00048919
0.00044564
-0.00071640
0.00711780
-0.00321586
0.00260016
-0.00046343
-0.00187609
0.00303067
-0.00172869
-0.00114723
-0.00017795
0.00542498
-0.00184896
-0.00154049
0.00387562
0.00363006
0.00176244
-0.00041888
0.00052788
-0.00138467
0.00181625
0.00519792
-0.00016769
0.00322178
0.00194479
0.00042212
0.00147860
-0.00011618
-0.00075453
0.00027817
0.00355759
0.00336833
-0.00235359
-0.00065503
0.00169332
0.00278531
-0.00520003
-0.00014945
0.00120998
-0.00059097
-0.00099565
-0.00253606
-0.00458878
0.00459792
-0.00079534
0.00089417
0.00008153
-0.00133966
0.00232785
0.00285374
0.01243196
0.00314241
-0.00295428
-0.00394302
0.00445067
0.00256609
0.00339886
-0.00091040
-0.00445993
0.00090093
-0.00516819
-0.00292681
-0.00735423
0.00049652
-0.00186897
-0.00189259
-0.00023462
0.00436763
0.00225760
-0.00001912
0.00188872
-0.01253233
-0.00802561
-0.00080721
0.00238465
0.00017169
0.00568511
-0.00558215
0.00141183
0.00107483
0.00182892
-0.00507712
0.00101295
-0.00224188
0.00048901
-0.00001244
0.00075470
0.00383184
-0.00355945
-0.00160580
0.00656383
-0.00059850
0.00261321
0.00224976
0.00120367
-0.00106590
-0.00186332
0.00422390
0.00343097
-0.00154204
-0.00409278
-0.00271615
0.00051966
-0.00195760
-0.00091512
-0.00125439
0.00588166
0.00541214
0.00130987
-0.00504797
-0.00531722
0.00163851
-0.00911179
-0.00227254
0.00306698
0.00108512
0.00305077
-0.00557640
0.00207002
0.00233088
0.00294003
0.00954379
-0.00162009
-0.00685629
0.00560196
0.01115438
0.00217470
0.01413052
-0.02454526
0.00313730
0.00974586
-0.00219781
-0.00444794
0.00164351
0.00499894
-0.00709981
-0.00135664
-0.00283484
-0.00749269
-0.00140797
0.00984850
0.00297181
-0.00068947
-0.00940305
0.01535041
-0.00556623
-0.01175069
-0.01380132
-0.01076483
0.00868612
-0.00530519
-0.01006976
-0.00156089
0.00334528
-0.00132922
-0.00578722
0.00776757
-0.00812132
-0.00145449
-0.00364920
0.00586879
0.00125321
-0.00154631
0.00996698
-0.00262221
0.00564707
-0.00213328
0.00481680
0.00013471
-0.00750993
-0.00112303
0.00744955
0.00021129
-0.00278512
0.00743375
-0.00944729
-0.00368430
-0.00407022
0.00850888
-0.00577872
0.01464963
0.00476741
0.00517604
-0.00217812
-0.00189963
0.00062460
-0.00312896
0.00136083
0.00240475
0.00206284
-0.00326024
0.00554465
-0.00287346
0.00176227
0.00007187
0.00212258
0.00132700
-0.00148433
-0.00150561
-0.00002680
-0.00001276
0.00108784
-0.00303567
0.00163172
0.00263425
-0.00345445
-0.00136654
0.00384587
0.00229292
0.00133712
0.00144334
0.00374668
-0.00105380
-0.00009244
-0.00140643
0.00461033
-0.00372097
0.00109189
-0.00037678
-0.00105386
-0.00030968
0.00051944
0.00516150
0.00185357
0.00378332
-0.00652903
-0.00612983
0.00374744
0.00219604
0.00069209
-0.00078338
-0.00017817
0.00181471
0.00329778
-0.00035204
0.00303437
-0.00059179
0.00137838
0.00478673
-0.00045108
-0.00249457
-0.00394127
-0.00151733
-0.00057540
-0.00110084
0.00083574
0.00107038
0.00186295
0.00039646
-0.00077140
0.01046157
0.01122889
-0.01748533
0.01133312
0.00388843
-0.01604295
0.01352611
-0.02802900
0.00455908
-0.00161162
0.01422649
0.00291609
-0.00381945
-0.00243831
-0.00555289
-0.00208832
0.00310885
-0.00749642
-0.01452959
0.01773759
0.00673532
-0.00911933
-0.00273970
0.01184379
0.00639287
-0.01414275
-0.00643222
0.01978631
-0.00308416
0.00327399
-0.00338096
-0.00067959
0.00025417
0.00459923
0.01033531
0.00925167
-0.00511815
-0.01524479
-0.00512935
0.02208517
0.00300310
-0.00508443
0.00189388
0.00569261
-0.00458204
-0.00507115
-0.00220612
-0.00214288
0.00411579
-0.01051950
-0.00373630
0.00650113
0.01579871
0.00595434
0.00150427
0.00366999
0.00618856
0.00849514
0.00322143
-0.01577247
0.00067678
-0.00125081
-0.00096835
-0.00169582
-0.00709485
-0.00512467
0.00400649
0.00124868
-0.00222146
0.00055468
-0.00621194
-0.00269223
-0.00487540
-0.00674119
0.00514969
0.00062999
-0.00779624
-0.00349095
-0.00213425
-0.00260674
-0.00588466
-0.00286240
-0.00071139
0.00243966
0.00553958
-0.00246763
-0.00093474
0.00227393
-0.00054292
0.00294389
-0.00187361
-0.00103953
-0.00110343
0.00053041
0.00387757
-0.00469392
-0.00132076
-0.00338434
0.00043633
0.00248049
0.00688170
0.00015071
-0.00123373
-0.00079917
0.00194575
-0.00046236
-0.00462158
-0.00500011
0.00093105
0.00403139
-0.00131905
-0.00228027
-0.00434289
0.00291422
0.00214684
0.00087352
-0.00028078
-0.00249475
-0.00637339
-0.00372096
-0.00230514
0.00062440
0.00411195
-0.00054283
-0.00217846
0.01110463
-0.00677433
0.00275599
0.00056815
0.00174807
0.00205097
0.00061667
0.00011443
-0.00419927
0.00190599
0.00257930
0.00178828
0.00109024
0.00047769
0.00265378
0.00448224
-0.00019466
0.00274585
-0.00267233
0.00224958
0.00174010
-0.00271614
0.00039613
0.00169929
0.00265398
0.00312087
-0.00023843
-0.00287492
-0.00116714
0.00364872
0.00108413
-0.00008613
0.00273184
0.00184428
0.00409135
0.00226878
0.00385389
-0.00040144
0.00289154
-0.00067054
-0.00154078
-0.00218880
-0.00289546
0.00181094
-0.00203931
0.00157931
-0.00145394
0.00157521
-0.00092535
-0.00023895
0.00090203
-0.00235213
0.00061890
-0.00131190
0.00063980
-0.00308810
-0.00321826
0.00270339
0.00205614
-0.00227015
-0.00450802
0.00426290
-0.00063577
0.00007732
-0.00004481
0.00094819
0.00122801
-0.00178282
0.00053695
-0.00431936
-0.00076021
0.00039560
0.00127007
0.00215396
-0.00091881
0.00144397
-0.00566506
-0.00005169
-0.00408223
0.00401244
-0.00260273
0.00016107
0.00262250
0.00242636
-0.00407612
0.00217500
0.00047726
-0.00431106
-0.00103760
-0.00057166
0.00016013
-0.00491155
-0.00076650
0.00108010
0.00045168
-0.00243962
-0.00118288
0.00308010
-0.00226834
0.00168233
0.00269314
-0.00241514
0.00358370
-0.00042898
0.00214753
-0.00311174
-0.00005490
0.00043549
-0.00462921
0.00006118
-0.00225574
0.00702269
-0.00105473
0.00122567
0.00020354
-0.00205882
-0.00618743
0.00414610
0.00414083
0.00050044
0.00261214
-0.00270038
0.00068363
0.00131569
-0.00336234
-0.00186397
-0.00145883
-0.00148003
0.00184680
-0.00232498
0.00271344
0.00590126
-0.00011770
-0.00786810
0.00025490
0.00310577
-0.00564379
0.00267215
-0.00374450
0.00578677
-0.00021992
-0.00570118
-0.00640633
0.00028807
-0.00443307
-0.00404200
0.00637736
-0.00257684
0.00127548
0.00040350
-0.01153359
-0.01111044
-0.00496382
0.00192125
0.00173206
0.00219725
-0.00724448
-0.00828293
0.00803321
0.00367785
0.00110864
0.00269696
-0.00477653
-0.00291428
0.00256197
0.00083624
0.00048012
-0.00087049
0.00228034
-0.00503115
0.00087249
-0.00502459
-0.00160308
-0.00674333
0.00219573
-0.01100174
-0.00747743
-0.00021632
-0.00146687
0.00483578
0.00479834
0.00213244
-0.00184650
-0.00472591
0.00312373
0.00316922
0.00568527
-0.00853374
-0.00343332
0.00402902
0.00026862
0.00197827
0.00243563
-0.00055165
0.00139585
0.00793568
0.00155199
0.00117503
0.00173052
-0.00134178
-0.00090775
0.00287255
0.00308538
0.00087991
-0.00315809
0.00427836
-0.00700118
0.00646259
0.00933555
0.00190796
0.00070376
-0.00037505
-0.00615405
0.00362626
0.00349476
-0.00240735
0.00179093
0.00079083
-0.00408023
0.01253025
0.00620705
0.01202863
0.00780420
-0.00841641
0.00888361
0.01658343
0.00807053
-0.01158991
0.00664224
-0.00703533
0.00474864
0.00273425
0.00594111
0.00063777
0.00346057
-0.00638475
0.00483332
-0.01108317
-0.00386114
0.00230242
-0.00383092
-0.00183487
-0.00474019
-0.01376356
-0.00205139
-0.00339937
-0.00351590
-0.01808830
-0.00726925
0.00317612
0.01386258
0.00289041
0.00573104
0.00607368
-0.00666750
0.00478875
-0.00099696
-0.00184331
