-0.27827993
0.17387655
-0.24979369
-0.88096362
0.41262135
0.01510839
0.51027244
0.26684541
0.40593609
0.03386809
0.88817465
0.47128302
0.00818154
-0.80833828
0.42590007
0.00960452
-0.26003510
0.18181899
0.30969676
0.10815987
0.28345138
-0.33273998
0.64789504
-0.00291344
0.74751794
0.01862791
0.28187686
-0.58661455
-0.04982575
-0.42596951
0.75364244
-0.36557862
-0.52976590
-0.43299982
-0.23954391
0.61852086
0.24069858
0.52910918
0.40765482
-0.50416738
-0.30622771
0.55613655
-0.34991181
0.71019113
0.60582745
0.57244217
-0.18193190
-0.08484016
-0.32778472
-0.09606586
0.24517190
-0.00308027
0.50513655
-0.19853885
-0.02712760
-0.37479174
0.34986898
0.71311790
0.11047433
0.33697203
0.32412076
-0.21858917
0.60765225
0.55358684
0.21348876
-0.01142728
0.07535867
-0.11979910
-0.02285960
0.04537055
0.06229759
0.06270304
-0.20807263
-0.06971654
-0.52878296
0.03918467
0.00701835
-0.25771058
0.04344944
-0.00180696
0.57688707
0.08597594
-0.05291029
-0.01003231
0.00014359
-0.12309957
-0.07036719
0.02696919
0.02466352
0.15651408
-0.03264289
0.01294523
-0.18505397
0.02009361
-0.10405843
-0.07593848
0.20557614
0.16011086
-0.19375362
0.13384679
-0.02305860
-0.13722111
0.55616599
0.33359870
-0.10147978
0.22386391
-0.05419287
-0.08000814
0.16092408
-0.14703853
0.00299619
-0.09976236
0.11598498
0.41289461
-0.13658421
-0.11163592
0.11897138
0.12023585
-0.04028670
-0.00037066
-0.17201212
-0.10355369
0.62727821
-0.02349497
-0.06388304
-0.17491393
0.07259976
0.02354684
-0.10739111
0.00385824
-0.08565705
0.09455366
-0.05306360
0.11847939
-0.03823601
-0.07847166
-0.14011469
0.00615048
-0.06805758
-0.01847349
0.17012964
-0.03049796
0.00479464
0.10679799
0.13683897
0.01478464
-0.12227843
-0.05853457
-0.06313616
-0.05743416
0.08653820
0.00971794
-0.04757446
-0.01640349
0.08849129
-0.04046241
0.04542327
0.05544697
-0.05182391
-0.04661991
-0.01806898
0.01042612
-0.22636443
0.01809039
-0.08061311
0.03388830
0.03910816
-0.01685563
-0.04776933
0.01129300
0.11528544
-0.09046308
0.02206877
0.25319615
0.04013088
-0.09658287
0.02881083
0.05866325
0.01913969
-0.00257195
0.02461406
0.04231352
0.07687753
-0.03046123
0.05275981
-0.03298035
-0.00386366
-0.05183144
0.14191873
-0.00437041
-0.01769425
-0.07060962
-0.02381641
-0.04066032
0.01400314
-0.06119773
0.02446378
-0.01890254
0.05018024
0.02499940
-0.04717108
-0.01535621
0.06576945
-0.04649071
-0.01397411
0.06455501
-0.00664224
-0.08288913
-0.05135349
-0.08383796
0.04136840
0.01901993
-0.02763337
-0.00782995
-0.00813550
0.03013444
-0.03517279
-0.00465503
0.01479204
-0.04194772
-0.01770036
0.02757210
-0.02871233
-0.06906043
-0.00853160
0.11865848
-0.01774507
0.07559246
-0.00841915
-0.02262502
0.04202132
0.00118137
-0.03763465
0.04485385
0.01747163
-0.11927511
-0.00456631
-0.09720340
0.03174570
0.01123115
-0.03747727
0.01171342
-0.01303009
-0.00889173
-0.00119261
-0.07270550
0.01593174
0.02171984
-0.08171834
0.01573921
0.06349070
0.03948157
0.01622823
-0.00241030
-0.08217549
-0.03939757
-0.06063643
-0.04106890
-0.20087637
-0.03059320
0.18883528
-0.01445786
0.06374758
-0.16135924
-0.07753437
0.02210674
-0.02830160
0.02728664
0.01326546
-0.10383715
-0.17902914
0.29271278
0.12658939
-0.11809792
-0.10662175
-0.00479064
0.03644240
-0.18094154
-0.12607624
0.46526822
0.03880658
-0.21845765
0.05242939
-0.08858196
0.19556612
-0.22174953
-0.09377266
-0.12250772
0.06381989
-0.04465148
0.01536014
0.07132719
-0.22800289
-0.03015458
0.09054697
0.50814342
0.02461244
0.04968559
0.10961374
-0.11829873
-0.02752035
-0.03193804
-0.01040955
-0.00551248
-0.32924482
-0.07166110
0.06587572
-0.13113868
0.04304222
0.26685855
-0.21091309
-0.05989316
-0.02857983
0.00946169
-0.03220418
0.38459909
0.10228328
0.29267031
-0.02976300
0.01714431
0.01605325
0.14258204
0.06899445
0.00800877
-0.16354370
0.00230351
0.08126380
-0.12096931
0.08710742
-0.06092320
-0.05029002
-0.07704760
-0.02471663
-0.10725112
0.05940556
-0.01432239
-0.02173981
-0.00721676
-0.03821160
-0.08294268
-0.01730057
-0.06292221
0.05146183
-0.02790175
0.16989838
0.14685151
0.12679176
-0.10864187
0.00758575
-0.01378807
0.04155830
-0.10008235
0.06011277
-0.07320002
-0.05461989
0.06937255
0.02314151
-0.00904717
0.12892781
0.07657610
0.16900112
-0.06869901
-0.09495519
-0.12883314
0.02942939
-0.19394703
0.03295812
0.11447463
0.23098204
0.07507925
-0.03280666
-0.04828517
0.07722989
0.03511970
0.00839437
0.10837041
0.12236652
0.05014715
0.11804144
0.05296047
0.05075553
-0.05874839
0.04566457
-0.04579760
0.07825723
0.01636611
0.11808002
0.08091094
0.41724694
0.35494995
-0.07657339
0.14750114
0.06642717
-0.66273838
0.02408160
-0.66826284
0.04298718
-0.15593149
-0.02823446
-0.06487384
-0.12768221
0.00966323
-0.06978627
0.29996812
-0.02775816
-0.02536285
-0.03438324
-0.09720556
0.00395270
0.16396292
-0.03939946
-0.04156679
-0.00947074
0.03686746
-0.22447766
-0.05277634
0.02694145
0.01735978
-0.02080042
0.28772026
0.02381554
0.04580641
0.49898139
-0.00392069
-0.07310409
-0.10076590
-0.05353875
0.00233991
0.21634319
0.05146352
-0.24399501
0.00282609
0.15626849
0.56371498
0.05130163
-0.03765243
0.06416651
0.01794318
-0.11050740
-0.04483251
-0.06896332
0.22003062
-0.03927149
0.00725393
-0.52928454
0.26503471
-0.16371152
0.20211987
-0.05475964
-0.17444988
-0.05925072
-0.19811718
0.09812922
-0.02380801
0.03551105
0.05701086
-0.00837035
0.05337132
-0.06894802
-0.09512277
0.04433875
0.12282718
-0.22843635
-0.01548846
0.02203590
0.05156982
0.02560336
0.01320813
-0.02325438
0.25902814
-0.03732166
-0.08412642
-0.08328459
-0.03429485
-0.16126743
-0.09882466
0.06779265
0.07793190
0.04418655
-0.05282295
-0.03778969
0.05152094
-0.00146871
-0.06982953
-0.04194502
0.24202755
-0.03052174
-0.04138924
-0.01985939
-0.10493592
0.10854439
0.03014158
-0.19002014
-0.06891899
0.15828463
0.06463546
-0.05053715
-0.02322494
0.20059243
0.00848637
-0.04447779
-0.02266642
0.01823920
-0.03712430
-0.06843133
0.08561292
-0.08366299
0.13818538
0.09047098
0.04737086
0.14059190
0.04223934
-0.05931458
-0.01351022
-0.06768773
0.12777859
0.08797884
-0.05186589
-0.08559794
-0.04788860
0.03964136
0.03493709
0.03843598
0.01987047
0.03674182
0.10253763
-0.05241706
-0.03458269
0.00338089
-0.02427157
-0.03690384
0.15231976
0.02305746
-0.06140646
0.15491252
0.00726097
-0.00286310
-0.26343185
-0.07298200
-0.02800265
0.17057931
-0.03439049
-0.03999444
0.03339437
0.00729230
0.07760327
0.08176599
0.19118305
-0.10391676
-0.12923124
0.01526059
-0.01145069
-0.05689119
-0.05622076
-0.09566820
0.03495854
-0.14881553
-0.04529563
-0.05419828
-0.00517907
-0.00861501
0.01617030
-0.07918329
0.05118986
0.20783781
0.21288449
-0.22918470
-0.08771426
-0.05961421
-0.17092921
-0.02230188
-0.06563948
0.01300663
-0.14044517
0.09027852
0.05824628
0.17757040
-0.00990002
-0.08943696
-0.49660265
0.46532196
0.14165455
-0.23080368
-0.05741887
0.04020758
-0.28214884
0.65732253
-0.08443172
0.11562939
0.00923727
0.02126651
0.25094643
0.00547415
0.00133962
-0.03363644
-0.34537286
-0.10974973
0.19603238
-0.18148704
0.09264192
-0.25924838
0.43575874
-0.02838952
-0.10999873
-0.04034463
0.37427473
0.22232899
0.06846806
-0.05641789
-0.27372986
0.31903908
0.28227448
0.45177203
0.05587144
0.34350705
-0.18598971
-0.17936906
0.06811281
-0.19559593
0.07237894
-0.12231166
0.16122790
0.04995441
-0.03068523
0.09723987
0.01434605
0.44284305
-0.24737486
-0.28470433
-0.00173158
0.17734493
-0.00585122
-0.02242782
-0.20035063
-0.15069658
0.43294421
0.13047931
-0.07876305
-0.00559472
0.43358397
-0.05952083
0.01136511
-0.04334101
0.00554363
0.07339231
0.07439892
-0.05224733
0.01279431
0.07350387
-0.17625314
-0.18620346
-0.00766874
0.10428800
-0.00065680
0.04295235
-0.03348353
-0.06597401
0.07388657
-0.24737671
-0.09225086
0.00000051
0.31673878
0.01176525
-0.17085817
0.02014425
0.02890463
-0.00886390
0.11884154
-0.04849804
-0.01347679
-0.06662624
0.05378655
0.00837922
0.09437994
0.02592032
0.05480300
-0.10655179
-0.04723044
0.15652803
0.15982246
0.01888025
-0.08538245
0.01087906
0.12653217
0.02056951
0.08156322
-0.00164670
0.12382751
0.05473473
-0.01466942
-0.08695801
-0.02470401
0.09181043
0.03679022
0.04226913
0.02621406
-0.09399696
0.06728516
0.07730219
-0.23613779
0.11277237
0.06339125
-0.03582912
0.01987805
-0.00604457
0.01390230
-0.06965888
0.08253291
-0.02136086
0.01901870
-0.01314618
0.10154025
-0.02501320
-0.00600324
-0.01512613
0.08273850
0.08130359
0.03395711
0.05777985
0.09748876
-0.05814692
-0.09063691
0.05012082
-0.02977426
0.02945824
0.02153358
0.01142413
-0.03953507
0.02870879
-0.02326879
0.04254690
0.00509321
0.57767338
0.06840203
0.00360736
-0.02807157
-0.04277280
-0.05705471
-0.08953999
0.03798562
-0.08928772
-0.06992121
0.07277185
-0.05609644
-0.07148228
-0.08220664
-0.05765270
0.08770646
0.07606041
-0.01379438
-0.10244969
-0.03848793
0.04279675
0.11156220
-0.00688903
-0.03885996
-0.03508721
0.03779322
-0.01516217
-0.06429521
0.01835985
-0.01145230
0.02828749
0.04692803
0.00034585
-0.07407803
0.12017767
-0.00408039
