0.00381288
0.02650839
-0.00596890
-0.00508269
-0.01293722
-0.02220862
0.10012237
0.01434155
-0.00774518
-0.01340840
0.00157799
-0.03528411
-0.01959075
-0.00932170
0.02237049
-0.02570775
-0.01378209
-0.02432034
-0.02643081
0.03068364
0.02239777
-0.00237813
0.01001273
-0.03658707
0.00813362
-0.00476029
-0.02289207
0.02125832
-0.01297568
0.02442149
0.02233027
0.00917056
-0.02180456
0.01362972
0.03219360
0.00855260
0.03340381
0.00824819
-0.01130740
0.00601759
0.02862933
0.01133073
0.00288563
-0.00291027
0.04713359
0.00051281
-0.01191771
0.03056105
0.00883182
0.00524028
-0.00498375
0.04646371
0.01951249
0.01951431
-0.00141555
0.00729305
-0.01284594
0.00469862
-0.01558970
-0.00129529
0.01107866
0.02333696
-0.02079885
0.00289127
0.08714857
-0.00593233
-0.03294287
0.01866417
0.01266783
-0.00387517
-0.00771593
-0.00178534
0.07992758
-0.00422529
-0.05257823
-0.00510777
0.08630322
-0.05103701
0.00385178
0.05892731
-0.01957137
-0.03389036
0.02325882
-0.07068757
0.02649565
-0.01219163
0.00743694
-0.03241742
0.04988595
0.03213158
0.02831205
-0.06025617
-0.00000636
0.04858922
-0.05673548
-0.02932070
-0.00838200
-0.03111598
-0.05202094
0.01853143
0.09225962
-0.07122273
-0.02609386
-0.05873763
0.00080389
-0.05301998
0.00886436
0.02753600
-0.04066747
0.06091866
-0.02171059
0.07544711
-0.01902881
-0.08578042
-0.01143175
0.00190323
0.08165442
0.20698638
0.07514543
0.05709368
0.09852161
-0.00490437
-0.04238565
0.09232578
0.07440357
-0.03287443
-0.04492472
-0.03801326
0.01469702
0.00089698
0.00158877
-0.02198912
0.00925275
-0.00576832
0.00509160
-0.00053754
0.00327317
-0.01502727
0.01659576
-0.00954995
0.01129252
0.00745473
-0.00543220
0.00950944
-0.00601456
0.00143198
-0.01381381
0.01260971
-0.02133352
-0.00331876
0.00467822
0.01017403
0.03880830
-0.00429980
0.02756272
-0.00330181
-0.01539154
0.01541866
-0.00330909
0.01084109
-0.00187677
0.00363124
-0.03039153
0.02574405
0.01942426
0.00456340
-0.01598171
-0.00873118
0.00814957
-0.01411756
-0.01354195
-0.01180178
0.00740232
0.02470397
0.01382987
-0.00827208
-0.00512484
0.01220395
-0.01682430
-0.01327619
0.00329822
-0.00791653
0.01557235
-0.00184796
0.00362795
-0.00673430
-0.02235713
-0.01129213
-0.00355605
-0.00556444
0.00381198
-0.00679454
0.03720426
0.00660372
0.00940419
-0.01859758
0.00923002
0.00818197
0.01903258
-0.00461067
0.01000709
-0.01311862
0.00524654
0.00419593
-0.00255483
-0.01805254
0.00682098
-0.00854069
0.01835327
-0.02108231
0.00062724
0.01049829
-0.00563254
-0.01383025
0.00921338
-0.00822880
0.00010566
-0.03016425
0.00895513
0.02663266
-0.02478969
-0.00722323
-0.01188995
0.01066398
-0.00258047
0.02546666
-0.02871770
0.01605923
0.00075293
-0.01543823
0.00039439
0.00118575
0.02281294
0.00184264
0.00371205
0.00013219
-0.01460387
0.00967033
-0.00205902
0.00702039
0.00879827
-0.00907148
0.01315406
-0.02623787
-0.00417790
-0.02406111
-0.00010726
-0.00308063
0.01558009
0.00114683
-0.00731556
-0.03175899
0.01291671
-0.00923347
0.00415025
0.00202362
0.09255435
-0.04626064
0.05129180
0.05800597
0.05609850
-0.06591388
-0.09655678
0.10006318
-0.04149770
-0.06899104
0.11659610
-0.11425832
-0.03363678
-0.00177078
-0.04419959
0.08798234
0.03335177
0.03536855
-0.02400902
-0.01906052
0.02813908
-0.01572642
-0.01027812
-0.03333242
-0.01131671
-0.06108961
-0.00644689
-0.08292381
0.03897533
-0.03611753
-0.10057523
0.14186111
0.04703048
0.00045983
0.01472563
0.14799871
0.03904904
0.08434070
-0.19048068
0.05609237
0.06118231
-0.13168307
-0.01260236
-0.02569681
-0.05449245
-0.00544537
-0.00193999
-0.02298407
0.08442937
-0.06783513
-0.05523068
0.09677631
-0.06150144
0.02629555
0.02440393
-0.18592665
0.04178221
-0.12974870
-0.01297979
0.05825565
0.07019202
-0.02523593
0.05299301
0.02833961
0.00844972
-0.00906520
0.00722799
0.00581506
0.00316837
0.00890520
0.01666119
-0.01426085
0.00243342
-0.00470541
0.01933308
0.00556329
-0.00279511
-0.01649407
0.00552021
0.00921111
-0.00155610
0.00709283
-0.00781425
-0.01397873
-0.01060837
0.03257364
-0.00649490
-0.00570715
0.02441539
0.00116040
-0.00858850
0.02299793
-0.00026142
0.01041578
0.01648773
-0.00676340
0.00655889
0.00657329
-0.03078281
-0.01948258
0.00089619
0.03211678
0.00965530
-0.00102711
-0.02381024
-0.00990030
0.00430575
0.01270529
-0.01526251
-0.03667134
0.01782174
0.01282672
-0.01955534
-0.03325785
0.00613685
-0.03603595
-0.01270543
-0.00494905
0.01348487
0.01596290
-0.00972269
-0.00258304
0.03032581
-0.08103152
0.00294913
0.00221051
-0.04258432
0.00115766
-0.48128605
0.00044766
0.06045986
0.01944070
0.06615564
0.00787062
-0.16167511
0.01623211
0.00372361
-0.03117115
0.06647652
-0.03263832
-0.02308478
0.01800262
-0.03125076
-0.35282883
-0.00405292
0.02360692
0.04540994
0.02935271
-0.03545287
-0.00218130
0.07980256
0.00741579
0.01850253
0.01260588
0.00338105
-0.00573979
-0.04542998
0.11264759
0.03023503
0.06109407
0.03177104
-0.00202362
-0.00346170
-0.01812672
-0.12413400
0.25189680
-0.05462894
-0.03802288
0.02464827
0.00587300
-0.01967092
0.04748337
-0.00469089
0.05254335
-0.02861196
-0.00507653
0.00924240
0.06270503
-0.02028231
0.12044496
0.02447520
-0.03371151
0.07046788
-0.09467585
0.00525633
0.03093433
-0.01887844
0.00887618
-0.00814673
-0.06626526
-0.08210029
-0.03971551
-0.00576367
0.02520346
0.01583605
-0.00180647
-0.03533711
0.00509660
-0.00563235
-0.00815794
-0.03157339
0.02184754
0.01342465
0.02765561
-0.03497121
0.01606723
0.00514485
-0.03815234
-0.00534933
0.00284791
-0.03324767
-0.01040353
0.01831152
-0.00238008
-0.01978139
0.01757409
0.02509134
-0.00155819
0.00486946
-0.01334991
0.01721319
0.04401587
-0.00563414
0.01210538
0.00406272
0.01558482
-0.02320226
-0.00470156
0.02704555
0.00418235
0.00695643
0.00489972
0.02850880
0.00640248
0.00469886
0.01058438
0.01563955
0.00373950
-0.00872911
0.00598540
-0.02485033
-0.03867584
0.00546339
-0.01890790
-0.01025842
-0.00374283
-0.00272840
0.01776842
0.00936537
-0.00052298
-0.01985174
-0.01310964
-0.00508182
-0.00925623
0.00838305
0.00881593
-0.00248910
-0.00301651
-0.01914347
-0.00023548
0.01555198
0.01103606
-0.00640037
0.00462967
-0.01886653
-0.01029502
-0.00096020
0.01811637
0.00319324
0.00586549
0.00460394
-0.01330211
-0.02539870
-0.00709250
-0.00777402
0.00743250
0.00962500
-0.02400995
-0.03173304
-0.01016118
-0.00332108
0.05263878
0.02504570
0.00857055
-0.01381187
0.01781842
0.00183844
0.01139739
-0.00623810
-0.00564089
0.00370583
-0.00690158
-0.00879429
-0.00202813
0.00779587
0.00757646
0.00882966
0.00700369
-0.03002977
0.01747541
0.02779242
0.00917013
-0.01209272
0.01383768
0.01002464
0.00920238
-0.00435334
-0.00028230
-0.04952762
0.01320269
0.04277377
-0.00317441
-0.00085815
-0.01145857
-0.02491274
0.01595567
-0.01406918
0.02399270
-0.00270231
0.01700510
-0.00320201
0.02624520
-0.00748878
-0.00437219
-0.01181176
-0.01553580
-0.02383097
-0.00601026
-0.00789792
-0.00479207
-0.00008667
0.01356087
0.01646783
0.00522352
-0.00718935
0.00507593
0.00991819
0.00715781
-0.03787519
-0.00487662
-0.00259353
0.04820846
0.02487577
0.00487816
0.00695698
-0.01801794
0.04755392
-0.01708673
0.01687492
-0.07408520
0.00984318
0.02896618
-0.00759181
0.01855777
-0.00636474
0.01187418
0.00261612
0.01252911
-0.00645643
0.04111017
0.00029454
0.01216309
-0.00987570
-0.01198470
0.00567159
0.01340260
0.01861931
-0.02411224
0.01165267
-0.01110426
-0.00301339
-0.00556305
-0.00502721
0.00667538
0.00402637
-0.00107848
0.00737563
0.00826896
-0.01028945
-0.00896996
0.00989634
-0.00368310
-0.01034092
0.00011618
-0.00993813
-0.02236184
-0.03829387
-0.00871818
0.01184085
0.02632292
0.03735707
0.02281055
0.01178216
-0.01896035
-0.00208798
-0.01563381
0.00213517
-0.01182158
0.00035180
-0.00932606
0.02731639
0.01183804
-0.00717641
0.00304485
-0.00141995
-0.02367664
0.00247400
-0.00218835
-0.01611631
-0.00677598
-0.01229558
-0.00337301
-0.00078930
-0.00636185
0.04074627
-0.01294000
0.01491623
0.02011782
-0.01503474
0.00835906
0.00627157
0.01974767
0.00553846
-0.00874620
0.02041999
-0.00449307
-0.00081561
0.02240068
-0.01984889
0.00837380
0.02222471
0.04215303
0.03144309
0.01737418
-0.04819837
0.01356021
-0.02055451
-0.00571973
-0.02263327
0.00542378
-0.02949335
0.02287416
-0.03418284
-0.00156146
0.00682463
0.02222763
0.02767977
0.00356167
0.01677528
0.03813389
-0.02339316
0.01526282
-0.05023285
0.01270067
-0.01615937
0.00306099
-0.03446507
-0.02765746
-0.05525471
-0.01928263
0.04976794
0.06430364
0.02045656
-0.02574730
-0.01980187
0.03648097
0.07774350
0.04638962
0.04065477
-0.01590026
0.02178350
-0.01784603
0.01300616
-0.06066833
-0.01508549
-0.00993687
-0.05429858
-0.01225333
-0.04113723
-0.01330442
-0.01974829
0.01789170
-0.00377585
0.05876492
0.00571622
-0.04492216
0.04629518
0.01904209
-0.01400693
-0.00912967
0.06077792
-0.00234416
-0.08636128
-0.03028734
0.00997420
-0.02716025
0.05201673
-0.11841900
-0.05649313
0.00267941
-0.06480891
-0.00356721
-0.00035041
0.04771816
-0.00288332
-0.02437085
0.02387435
-0.03780599
-0.03414258
-0.02874178
0.03314256
0.01983497
