-0.05068972
0.04838871
0.01156022
0.05381602
0.08857913
0.00317225
-0.01128522
0.07628030
-0.02339248
-0.01114695
-0.02531065
0.06627542
-0.00063857
0.04720512
-0.04897906
-0.01793424
-0.00879762
0.00146233
-0.01014833
-0.03301794
-0.01081746
-0.06682914
-0.04319263
-0.05476329
-0.01901154
0.06588949
-0.00405773
0.01837437
-0.12617707
0.04418641
0.07226082
0.05888399
-0.02901876
0.02288632
0.01412433
0.02611622
-0.04098269
-0.00305417
-0.04543302
0.01687923
0.03956313
0.01852094
0.03441632
-0.00933690
-0.01750994
-0.03795119
0.03676663
0.11210784
-0.00549032
-0.08009355
0.01865903
-0.04972598
0.00353461
-0.08866650
0.02575817
0.06091812
0.02679992
-0.10728411
0.02018719
0.03520123
0.04553193
0.16931219
-0.05967187
-0.00372851
0.01496373
0.07256532
-0.06665981
-0.00553451
-0.04308520
-0.00912146
-0.08950911
0.00388490
-0.02681310
0.02227998
-0.02730104
0.03048944
-0.02592953
0.00883050
-0.03297333
0.00154829
0.04975863
0.00863749
-0.00253298
0.02676501
0.01521768
-0.12865178
-0.00402161
-0.01659660
-0.06100159
0.05961097
0.02132427
-0.04407132
0.07388112
-0.07664056
0.08747362
-0.02900336
0.20724642
-0.01319350
-0.02489208
-0.05098011
0.00462675
-0.00385349
-0.02995115
0.05612685
0.05205101
0.04952209
0.02343162
-0.04235237
-0.04886840
-0.06016615
-0.05041251
0.01110710
-0.09633268
-0.01139098
-0.03426301
0.02957166
-0.07275037
-0.00943318
-0.04845840
0.03134533
-0.04101625
0.04952754
-0.02037570
-0.03309757
0.10193496
-0.17145859
0.00863433
0.03774953
-0.06669787
-0.02753012
0.01835919
0.00527193
-0.05434467
-0.03427121
0.08273890
0.02827311
0.02298865
0.06403016
-0.01482665
0.01653106
-0.00908196
0.05678925
0.04275070
0.00340878
-0.07731726
-0.05243136
0.12397634
0.01973309
-0.03309163
0.01923967
0.01253404
0.09796495
-0.11193959
0.01873911
-0.07259910
-0.12584807
0.08140109
0.04255559
0.00439139
-0.09863675
-0.01842196
-0.02579059
0.02063724
-0.01986372
0.01207453
0.13012089
0.02541035
-0.04619395
-0.02901788
-0.04511888
0.02210749
0.04342156
-0.08511589
-0.00131538
0.04244356
-0.03077142
-0.08446491
-0.00777250
0.00469713
-0.11411563
0.04327261
0.00800465
-0.00496466
-0.03439831
0.03367630
-0.03601279
-0.07570662
0.07682662
-0.00777676
-0.00436408
0.02212019
0.01708223
-0.04939016
0.00509997
0.10088845
0.09609170
0.01020620
0.09913016
-0.03823117
-0.04907277
-0.04170588
-0.04369074
0.09591089
-0.02635655
0.00695185
-0.01149131
0.01862577
-0.02006159
0.01104753
0.11943727
0.04813123
-0.01891446
0.02178541
0.05126392
0.04903496
0.04840534
-0.12456300
-0.00228578
0.08330251
-0.03273623
0.02500023
0.07333028
-0.04202769
-0.00593206
0.02958979
-0.05748230
-0.03579461
-0.00251898
0.01722335
0.01877698
-0.01220386
0.04230624
0.02452587
0.03442448
-0.04303265
0.04406080
-0.02558179
-0.00212152
-0.01810566
0.00590996
0.05034978
-0.03193137
-0.03044694
0.04162959
0.00855222
0.01689622
-0.04921579
-0.07008312
0.01932238
-0.03488777
-0.03448157
0.00361857
0.05102052
0.01943383
0.04739502
-0.01246356
-0.07194296
0.04463073
-0.01331958
-0.04014373
-0.00309796
-0.09172202
0.04122974
0.05475768
-0.00471784
0.00864816
-0.03553331
0.03033373
0.03838992
0.00216558
0.00374943
-0.02117663
-0.09549939
0.07755898
0.02794964
-0.09825131
-0.12780756
-0.00707874
0.08590525
-0.04392451
0.06289901
-0.03709855
-0.09046527
-0.10693104
-0.01093802
0.02620937
0.04448022
0.06096435
-0.01189149
0.00939423
-0.01483300
-0.03030010
-0.02933335
-0.06626429
-0.04002229
-0.08899041
0.05091482
0.02278838
0.05402833
0.01051781
0.02333341
0.02749618
-0.02207437
0.06295052
-0.02411102
-0.02586733
-0.06568410
0.00863718
-0.34301656
0.00097186
-0.03774962
-0.02752210
0.03187039
0.07081126
-0.01916750
-0.03999832
0.02699902
-0.09798690
-0.06074282
0.02408816
-0.09716181
0.02191037
0.02941789
-0.09626909
-0.01530941
-0.01207238
0.04313677
-0.02199923
0.03026464
0.00274335
0.02719740
-0.12342985
0.02523290
0.03793298
0.05623288
0.00562039
-0.04946198
-0.08864126
0.01489742
-0.01302027
0.01346782
-0.05863652
-0.05574787
0.06590712
0.00033152
0.00835921
0.03342947
0.02324061
0.00125780
0.05677911
-0.00823016
-0.02793756
0.00864933
-0.15290907
0.00184727
0.01731564
0.07247315
0.02639280
0.10229716
-0.01244382
0.03167086
0.00269054
-0.00633205
-0.01138848
-0.00707567
0.06443783
-0.04554232
-0.03198289
0.04001360
-0.08667213
-0.04768373
0.10987315
-0.04973800
0.05458695
0.00319554
0.00812838
-0.00487009
-0.10334529
-0.06781694
0.04188062
0.07091387
-0.09004549
-0.04573474
-0.01973634
-0.00369296
0.02225097
-0.05466712
0.02803746
-0.05814067
-0.07527609
0.04858463
-0.02275779
0.03336541
-0.14225085
0.01709704
0.00017434
-0.02980755
-0.10883964
0.01799387
0.03193275
-0.07153182
-0.00193201
0.01766711
-0.01220633
0.10078305
0.00965726
0.01784680
-0.05244051
-0.03354422
-0.00761355
-0.01357542
0.08608651
-0.01417752
0.02951640
-0.08054788
0.01557128
-0.11319317
0.02282801
0.06229552
0.07470755
0.00491919
-0.00223720
0.04972651
0.04991281
-0.03982587
0.09417483
0.01269315
0.01723730
-0.03334251
-0.02842362
0.01922170
-0.06205522
0.03710023
0.07269490
-0.08638733
0.01855720
-0.06448550
-0.05855388
0.00164961
-0.04975868
-0.06600903
0.02762195
0.08317640
-0.08222555
-0.03491113
-0.03311997
0.07278381
0.01209647
-0.03738550
-0.08657250
-0.00119753
-0.02229019
0.04734955
0.01496512
0.01374660
0.06461578
0.00503488
-0.00313368
-0.09279725
-0.06537530
0.02884156
-0.10482831
-0.03956355
-0.04003973
0.06912928
0.04682813
-0.04277360
-0.14931671
-0.07068647
0.09647516
-0.03155480
0.01772360
0.01725359
-0.03160422
0.04465222
-0.05172463
-0.09259559
0.02239356
-0.08745261
-0.03306955
0.09554020
-0.04204474
-0.06195959
-0.08714657
-0.03923211
-0.01469318
0.04929873
-0.00106364
-0.06069932
0.01191010
-0.04291819
0.04037003
-0.04880272
0.04619151
0.01424576
0.01293722
0.07945750
0.07614314
0.08224689
-0.00274437
0.06448959
0.00343707
0.01801323
0.04672297
0.04192053
0.04336319
-0.00640722
0.00710173
-0.05807498
0.05496298
-0.04594712
-0.03206153
0.06652793
-0.00982425
-0.06409176
0.09977749
-0.08237852
-0.13856654
0.03747061
0.06895463
0.00768136
0.04512925
0.01864858
0.02250401
-0.02770224
0.02784870
-0.04186037
-0.01282662
0.07981325
0.02707732
0.07194523
0.01868869
-0.05705227
-0.05140499
0.05591868
-0.05287576
-0.04749761
0.01816351
-0.07175024
-0.03212517
-0.03594184
-0.00299049
-0.01441053
0.03936212
0.00118394
0.05764692
-0.00284026
0.05628546
-0.00274516
0.02713887
0.07095672
-0.01597121
-0.03606484
-0.00273435
0.01209960
0.00641855
-0.01767229
0.00673672
-0.01589214
0.03181579
-0.01461895
0.06178517
-0.00950312
-0.02963260
0.01866295
0.05981296
-0.01143010
-0.00692938
0.03583707
0.01078670
0.03781022
0.00493395
0.02191004
-0.04442728
-0.02586631
-0.02218127
0.02340860
-0.08305479
-0.02881004
0.05288873
-0.22076836
0.07430330
0.06885036
-0.09991001
-0.06673763
-0.01478405
0.02439610
0.02268250
-0.06006289
0.00238614
0.00054098
-0.03747760
-0.01564452
0.11838692
-0.04263991
-0.08186202
0.06666039
0.08852028
-0.02691772
0.00193626
0.05824196
0.05845736
-0.01283923
-0.01005121
0.00959214
-0.01698064
0.03168172
0.02861009
0.01533677
0.04588745
-0.00013737
0.00122208
-0.00835372
-0.04828306
-0.19443773
-0.02384974
-0.06217842
0.00921019
0.00633675
-0.06829263
0.04924430
0.07763448
-0.03394506
0.07535791
-0.04176773
0.04540009
0.01165489
-0.01672902
-0.08201358
0.00750954
0.04573651
-0.03463110
0.00395327
0.13850938
-0.02749479
-0.02456651
0.01152309
0.02697554
0.03728515
0.01770975
0.01640277
0.01893771
-0.01340727
-0.07054784
-0.04431902
-0.00044040
0.04296718
0.04204641
-0.01055784
0.00952668
0.02471917
0.03054824
0.01174084
0.04490178
-0.04999505
0.07430679
-0.02398128
-0.03255791
0.00759391
-0.13230522
0.05175597
-0.02564470
-0.00855485
-0.00986492
-0.00901615
-0.00963851
0.02874588
0.06989228
0.01601554
0.01900594
-0.03083374
0.04555737
-0.02129161
-0.00542023
0.05246395
-0.10331894
0.00473148
0.03887868
0.03275930
-0.03231313
-0.01410889
-0.05511065
0.06053280
0.04725923
0.00558138
0.03911695
0.01350185
0.02357207
0.00456726
-0.02641494
0.04129077
-0.03491139
-0.01223515
0.02270537
0.00396676
0.08534421
-0.05401534
-0.01844500
-0.00598081
-0.04449810
0.02816202
-0.04643031
0.12084283
0.08201930
-0.01017248
0.05591223
0.05786051
-0.03289085
0.01846524
0.07874146
0.00081746
0.04876188
-0.02526630
0.12134047
-0.02266632
0.07836176
-0.01709353
0.02180681
0.01950839
0.03170233
-0.01128643
-0.05804626
-0.00937441
0.00327740
0.02175333
0.01505621
-0.00572518
-0.03552959
0.08147283
0.04253664
0.07589979
-0.00455526
0.04992259
0.02707097
0.07108212
-0.10348853
0.01055255
0.06282876
0.06063407
0.02927627
-0.01022822
-0.01301917
0.00895301
0.13609351
-0.03371711
-0.00841700
-0.04284647
-0.07590688
0.11991923
-0.04288895
0.04402595
0.00446028
-0.03828841
0.04594116
-0.09635605
0.10570116
-0.06508192
-0.05442986
0.08228992
-0.02753932
-0.00938609
0.04888791
-0.03482503
-0.01601403
-0.07306073
-0.05804060
-0.04735935
0.01134741
