-0.04338909
-0.07814640
-0.01518662
0.04936362
-0.12378412
0.00607399
-0.12156687
-0.07433362
-0.03069888
0.01662350
-0.00583675
-0.11751627
-0.01516547
-0.07042374
-0.03399760
-0.05622767
-0.01612606
-0.02035788
-0.00727044
-0.16619940
-0.13490884
0.06676378
-0.10481068
-0.11138896
-0.02612362
-0.13638103
-0.07359501
0.05689335
0.06064587
-0.04064817
-0.03535756
-0.04841975
-0.13162239
0.07331692
-0.08289880
-0.02317459
-0.00748283
-0.10762258
-0.10366067
0.13692912
-0.01703619
0.06888290
-0.03577234
-0.07789377
-0.04151073
0.01828951
-0.02234028
-0.00297493
-0.06365772
0.03043682
0.06886932
-0.01068044
-0.15771776
0.08816769
-0.05609789
-0.01441619
-0.06416297
0.07766215
-0.05522046
0.01223493
-0.00261748
-0.03438169
0.03127581
0.02123997
-0.05953075
-0.07488252
-0.04557256
-0.01607800
-0.05080386
0.02950327
0.09737668
-0.07929838
-0.00658548
-0.00917865
-0.09838183
0.00276889
-0.03066351
-0.06991489
-0.04740724
-0.05469431
-0.01888751
-0.05642161
-0.04259976
-0.10609063
-0.03889162
-0.00883578
0.01833970
-0.08630922
-0.04179197
-0.06573457
-0.02556315
0.03630473
-0.24891473
-0.00593769
-0.06600017
-0.01037106
-0.06727576
0.02430661
-0.00066734
-0.01948021
-0.07074305
-0.06168454
-0.05562643
0.02773784
-0.03322129
0.05660463
0.01388128
-0.01732604
-0.01443059
-0.06072231
-0.01140700
-0.04417260
0.06115885
0.04566477
0.01286582
-0.04435470
-0.05259291
-0.03478229
0.02062131
-0.10367019
0.00707762
0.09555150
-0.00947460
-0.05659692
-0.06097026
0.01499027
0.00298327
-0.06883355
-0.04885762
-0.00175271
-0.05903739
-0.05856109
0.02024022
0.02279376
-0.04082550
0.03409830
-0.01378783
-0.05678350
0.06196717
0.03475103
0.00280428
-0.05220218
-0.04093502
0.01550508
-0.07934939
0.14866102
-0.02638814
-0.02721331
-0.00195041
-0.15979552
-0.02327340
-0.09722516
0.07078242
-0.03640504
-0.06326230
-0.04050275
-0.08667241
-0.13646431
-0.06818583
0.00117990
-0.04189859
-0.00593776
0.00205440
-0.07426979
-0.00268643
-0.10328846
-0.07205433
0.02072643
0.21014018
0.00399822
-0.01478038
-0.05380516
-0.02497945
-0.18158461
-0.05893464
-0.11692950
-0.05497140
-0.07166730
-0.04473149
-0.07215744
-0.00667489
-0.06835008
-0.00435462
-0.11431025
-0.06950965
0.00039778
-0.12191579
-0.08283488
-0.11100022
-0.01636030
-0.00094720
0.03882160
-0.12937066
-0.00665682
-0.06602571
-0.07061066
-0.00683465
-0.10215104
-0.01969241
-0.00253934
0.06075158
-0.05232928
-0.03944639
-0.07299040
0.02726670
-0.08564114
-0.06685372
-0.02985595
-0.06522099
-0.00915957
-0.01326688
0.01549727
-0.06940109
-0.06991325
-0.07443427
0.00177250
-0.00177448
-0.00698133
-0.05960259
0.02168555
-0.01921870
-0.07985406
-0.02683088
-0.04500642
-0.01338841
-0.13882706
-0.08151039
-0.01573710
-0.09358168
-0.03879762
-0.06867587
0.00428516
-0.04903738
-0.01942123
-0.03780372
-0.05677279
-0.00134989
-0.04213418
-0.03663595
0.06032560
-0.01534112
-0.04421495
-0.01533787
-0.03770014
-0.05299819
-0.03692871
0.05895159
-0.06134525
0.06321697
0.12823968
-0.05749633
-0.10340832
0.01304517
0.00161305
-0.01882030
0.01595723
0.02831488
-0.01815807
-0.04793150
-0.01980172
-0.05789386
-0.00008092
-0.07767887
-0.03523494
-0.04041237
-0.01936107
-0.04683543
-0.04651155
-0.06825107
-0.04620541
-0.05551200
-0.02561073
-0.01849732
-0.00895203
-0.01095471
-0.08639143
0.01436927
0.03518350
0.02353100
0.03997649
-0.08614984
-0.04744239
-0.06571683
-0.00451765
0.03273969
-0.03498435
-0.10084035
-0.12032121
-0.11681952
-0.02136577
-0.07699016
0.00472365
0.04864702
-0.01444820
-0.10189702
-0.00297326
-0.00534841
-0.15534499
-0.03570461
-0.01607377
-0.06021717
-0.06282917
0.02086004
-0.07026621
-0.18365128
-0.03284707
0.04191856
0.00365358
0.19983971
-0.02490091
-0.02613245
-0.01308377
-0.02711043
-0.01245714
-0.03452960
-0.05107443
-0.04157625
-0.08073618
0.00155450
-0.08442208
0.01075127
-0.04924501
-0.10266754
0.05083568
-0.03848860
-0.08144198
0.00916812
-0.01269000
-0.03395589
-0.04601508
-0.00037160
-0.03576838
-0.03362639
-0.14295611
-0.03549907
-0.04686761
0.01581814
0.01611805
-0.01916281
-0.06260674
-0.03463256
-0.09352035
-0.05836574
-0.00956247
-0.01437256
-0.10020287
-0.02666830
0.03804221
0.01118189
0.06677537
0.01565466
-0.08342086
-0.03389270
-0.08738130
-0.05501359
0.02167497
-0.05681864
-0.02190361
0.00285152
-0.04025410
-0.05572776
-0.01037954
-0.02104626
-0.06818568
-0.02755531
0.01332457
-0.00714204
-0.06766780
0.01463553
-0.02731007
0.00324776
-0.02554705
-0.05941170
-0.00564670
-0.00283065
-0.04842230
-0.05329300
-0.03817105
-0.00508160
-0.05960610
-0.00608549
-0.08299150
-0.06694053
0.07331932
-0.02819705
-0.01964569
0.05943067
-0.08141704
-0.01628403
0.04248852
-0.03617285
-0.02481630
-0.09663890
-0.04899697
-0.10687166
-0.02943572
0.03676264
0.02061415
-0.03997860
-0.01500438
-0.02084251
0.00915580
-0.02892796
0.00154682
0.02429179
0.06738424
-0.06461980
-0.03172404
-0.10226375
-0.01868404
0.00719462
-0.00150165
-0.06916341
-0.07497216
0.00746405
-0.04357320
-0.02095480
-0.03723963
-0.02107933
-0.01069564
-0.02161016
0.09717060
-0.03585961
0.01376536
0.03644913
-0.07242155
-0.06923322
0.01638180
0.03373990
-0.09683223
-0.03516896
0.03345479
0.04935183
-0.07882241
-0.01838975
-0.09936941
0.04666622
-0.02928839
0.02951362
0.06740370
-0.05312670
-0.02019864
-0.04882175
-0.01190493
-0.02079291
-0.04403193
0.03763125
-0.07186928
0.01635556
0.07581827
-0.03803900
-0.04650432
-0.11369088
0.04582831
-0.07720871
-0.02142842
-0.04694518
-0.04726690
-0.01164580
0.00310222
-0.04181685
0.04616933
-0.00757803
-0.10546185
-0.10936949
0.01231328
0.00687342
-0.06577741
-0.05205645
-0.03255987
-0.06754006
0.05044623
-0.02297340
0.00860550
0.01202748
-0.01071971
0.01008599
-0.04765842
0.02838605
0.00268053
-0.04049155
-0.09339724
0.00556460
-0.02819801
-0.04377780
-0.03832554
-0.08292524
-0.10266333
0.06559002
-0.01102280
-0.03389120
-0.02924439
-0.08563265
-0.02198721
0.01363842
-0.00211081
0.02568302
-0.02388400
-0.02420631
-0.09316710
-0.03905610
-0.03099681
-0.02699956
-0.04134172
-0.00244179
-0.01986911
0.02483208
-0.03316412
-0.00539404
-0.04204630
0.00112063
0.00361576
-0.05135124
-0.03236231
0.01475797
-0.14113343
0.00650020
-0.00036541
0.09624397
-0.02855139
0.03229050
-0.10131987
-0.06055343
0.04078364
0.03991545
-0.02042186
-0.05277693
-0.02517063
-0.05040793
-0.05235865
0.00215828
-0.02591655
-0.04155241
-0.01981180
-0.04327522
-0.00758030
-0.01557636
-0.03692400
-0.04928848
0.03740755
-0.04256389
0.02074079
0.03204469
-0.06046762
0.01851153
0.11669528
0.04073361
-0.00616210
-0.11068603
-0.06149538
0.00363409
0.00185337
-0.11933427
-0.06487173
-0.08303384
0.00825410
-0.05345730
-0.04137800
-0.09484152
-0.01000768
0.01929330
0.03826438
0.02350376
-0.04026667
0.01351155
-0.03980028
-0.06900898
0.00093100
-0.03208153
-0.02543648
-0.02815714
-0.04912987
-0.04495857
-0.06375390
0.01459242
-0.03059904
0.00758354
0.02328421
-0.08396273
-0.04697166
0.03242623
-0.01738757
-0.11735290
-0.02206163
-0.03414362
-0.03924366
-0.21532725
-0.05009648
-0.03282131
-0.02890017
-0.03634319
-0.02509562
-0.06631857
-0.02696733
-0.11718588
-0.05274092
-0.01722144
-0.02735024
-0.07366454
-0.04029481
-0.03631085
-0.05980445
0.03438120
-0.07279509
-0.05077611
-0.08668637
-0.06066649
-0.10334128
-0.05704192
-0.00637887
-0.02831029
0.02205655
-0.01653471
-0.03323967
0.00131402
-0.03946213
-0.00792803
-0.04192370
-0.05503427
-0.04011309
-0.06385186
0.00926304
-0.07194533
-0.03876036
0.00154261
-0.10209113
-0.13322780
-0.00028256
-0.07413217
-0.06377067
-0.11037768
-0.12272544
-0.05460358
-0.11330904
-0.05596525
-0.06428945
-0.03548413
-0.05916275
-0.06314304
-0.12768012
0.03700674
-0.07286821
-0.08560976
-0.05165644
-0.02509185
0.00434441
-0.10649721
-0.00001749
0.00231876
-0.05346167
-0.04318035
-0.10908183
-0.06168156
-0.08333315
0.03081175
0.01486479
-0.06530544
-0.04426216
-0.00917095
-0.04745225
-0.05112891
-0.01844122
-0.09943130
0.02176770
-0.05737785
-0.00369880
-0.08102639
-0.04613350
-0.04322472
-0.06668378
-0.04492921
-0.03511734
-0.01713393
0.00544385
-0.07270367
0.00239098
-0.13979597
-0.09504750
-0.14297812
0.00855824
-0.05064390
-0.00536421
-0.14267480
0.02088245
0.00333974
0.01002582
-0.08913688
-0.00382498
0.00235675
-0.03230395
-0.01139550
-0.06476070
-0.06921265
-0.05195859
0.00500660
-0.08382085
0.03919809
0.00265912
-0.04344593
0.00527337
-0.09700125
-0.01579406
0.02457253
-0.03739596
-0.06098229
-0.03968955
-0.06332863
-0.07237466
-0.07335655
-0.08379788
0.04244097
-0.09717507
-0.07754708
-0.07586721
-0.01885996
-0.06865611
-0.04112119
-0.09109783
-0.06141286
-0.01554687
0.00924218
0.03271080
-0.04327900
-0.00683653
-0.08399636
-0.03747084
-0.02208092
-0.02406293
0.02420357
-0.06554729
0.01148930
-0.08725703
-0.09999184
-0.08092236
-0.15972957
-0.03002831
-0.07314711
-0.03522084
-0.02138544
-0.02149441
-0.06625642
-0.03153452
-0.08364213
-0.00039154
-0.03138733
-0.12461019
0.00544987
-0.01774653
-0.05639093
-0.05122991
-0.03102253
0.03821048
0.01386393
-0.08040703
0.01963772
-0.00589452
0.09668776
-0.10093791
0.00634234
-0.05580242
-0.04682800
-0.09273471
-0.06563576
0.07117226
-0.02634233
-0.03111393
-0.04263898
-0.05234836
