0.01468131
-0.05406622
-0.06289103
0.00448400
0.02408190
-0.07309827
-0.02978727
0.00451539
-0.01362027
-0.03081672
0.04089036
-0.00068334
0.02973729
-0.02749773
0.02078739
-0.10357135
-0.07094006
-0.07568932
0.02542008
-0.02760744
-0.07908710
0.02395122
-0.06228000
-0.05319883
0.01222157
-0.03975801
0.03442790
-0.02772152
0.03983511
-0.05562385
0.00270145
-0.01250782
-0.08254340
0.05501489
0.00040294
0.02556873
0.00044042
0.05615218
-0.03236019
-0.00460948
0.02664741
0.01916351
0.02105353
-0.02998363
0.04197600
-0.00149488
-0.00725053
-0.04245558
0.06280773
-0.01128303
0.05246979
-0.01423091
-0.09682197
0.00363582
0.04650438
-0.01577443
-0.03907882
0.04141787
0.00896970
0.07389877
-0.01924731
0.00922845
0.02221847
-0.08385696
-0.03010908
-0.00972409
0.01909584
-0.01419401
-0.00958007
0.04774693
0.02390059
-0.06074223
-0.01515205
0.04614523
-0.07924373
0.11300786
0.06331961
-0.08393214
-0.06804069
-0.05452228
-0.06286878
0.02426596
0.00092899
-0.05125221
-0.05632635
-0.00551430
0.00316432
0.01135010
0.00751134
0.03605589
-0.00101749
0.03050688
-0.15428099
-0.03426555
0.04492710
0.00612215
0.01426635
0.00208284
-0.03410982
0.01471722
0.02149805
-0.01050943
-0.08613030
0.06414393
-0.00243588
0.00763180
0.00835378
-0.02138684
0.08397003
-0.01036271
0.00391615
0.05538728
0.00628892
0.00541419
0.02080806
-0.02413981
-0.00392970
0.05038740
-0.03335768
-0.06904140
-0.02713066
0.06591441
0.01577465
-0.10326599
-0.04742298
0.02301309
-0.00321975
-0.01635490
0.03522902
0.08872476
0.00626577
-0.01140572
-0.07479850
-0.07772220
0.01677242
0.01384429
-0.10805378
-0.02789790
-0.02171434
-0.10014595
0.02042405
-0.00478578
-0.02321267
0.00528940
-0.06164699
0.05128882
-0.01215347
0.05216873
-0.01003801
-0.04781676
0.09615034
0.02241029
0.01326145
0.00645476
0.02293292
-0.03225623
-0.03325391
-0.03765391
-0.01774631
-0.08688994
-0.03235804
0.00241238
0.02046613
0.05160113
-0.00262734
0.01787105
-0.06020774
0.00526854
0.07729872
0.00101624
-0.03096013
0.02944978
0.03629405
-0.00284928
-0.01369665
-0.03402565
-0.02765436
0.02639681
0.06033990
0.04147023
-0.00414887
-0.02256205
0.02773752
-0.00065800
-0.00786154
0.05457554
-0.04104187
0.02777779
-0.10357688
0.00757831
0.02731410
0.11898270
-0.06198354
0.04093949
-0.03752536
-0.11893062
-0.04115038
-0.10247036
-0.04844276
0.05731098
0.07112851
-0.06864203
-0.01413456
0.09711277
0.02378834
0.05895803
0.04307404
-0.04676667
-0.00760720
-0.03297125
-0.04904045
0.05182625
0.00900715
-0.06208215
-0.01670986
-0.00583928
0.10343616
0.05789968
-0.05989341
0.06685436
0.02962901
-0.03901192
-0.03886601
-0.07651369
-0.01104692
-0.09243375
-0.02567809
0.06977867
-0.06479205
0.02551651
0.06764328
-0.01561829
-0.05429688
0.06346367
0.00239664
-0.02523191
-0.04624501
0.05859169
-0.09216537
0.03820473
-0.02961790
-0.08045597
0.11557197
0.02067064
0.06802353
-0.01448610
-0.05853320
0.05549531
0.04858078
-0.02699150
0.01092582
-0.19178697
-0.05815320
-0.02885598
-0.11110047
0.07640124
0.03410513
0.03130380
-0.08725273
0.03328998
0.03909097
0.03865329
0.00356674
0.01983372
-0.00511765
0.10319380
-0.02467600
0.03252139
-0.02872143
0.02079398
0.00253497
-0.00889066
-0.02627786
-0.04962173
-0.00637493
-0.05730280
-0.04226620
0.00252783
-0.07674237
0.04094649
0.02661577
-0.03743099
-0.01840968
0.08706285
0.01921833
-0.03542462
-0.01904191
0.06462480
0.03367643
0.03382481
-0.07798015
-0.10784085
0.00230785
0.01026206
-0.04025777
-0.02076361
-0.02811836
-0.02697341
-0.05414520
-0.02842786
-0.01619540
0.00064060
-0.00694726
0.01121697
-0.19562988
0.07399815
-0.00890531
-0.01404258
1.21566021
0.03208656
0.04010820
0.02035966
-0.00385721
0.00749399
-0.05016865
-0.06150954
-0.03502360
-0.02479884
0.02492176
-0.03013381
-0.00611418
-0.05013674
-0.06352193
0.11062010
0.00886258
0.02053080
-0.05565735
0.04304368
-0.01100277
0.04946256
-0.03787364
-0.03128626
0.00146678
-0.04739142
0.08334586
0.01137634
-0.04275045
0.02335486
0.01995832
0.04739518
-0.06203964
-0.01771428
-0.10600126
0.00428008
0.02018206
0.04400164
0.00963829
0.03833982
-0.02184094
-0.00474364
0.03728847
0.05991478
0.00576526
0.04628485
-0.01671165
0.01252923
-0.02696927
-0.08302484
0.05355546
-0.02924228
0.06851994
-0.03156772
-0.02041789
-0.03902845
-0.03974172
-0.02503079
-0.04943277
-0.07557610
-0.03555524
-0.00009704
0.02835609
0.06165251
-0.00609945
0.02263514
-0.03427502
-0.03241110
0.01955920
0.01180433
0.07063712
-0.00069882
-0.03507435
0.22629201
0.00849780
0.03054393
0.01456481
-0.02295662
0.05767329
0.01720013
-0.03649160
0.04588062
0.02843102
-0.01118641
-0.05170989
0.01328094
-0.05129276
0.02143364
0.04683365
0.02243286
-0.03800905
-0.01583393
0.07387276
0.00172582
-0.10753682
-0.00711069
0.06569161
0.01351865
-0.02609290
-0.01105767
-0.00445620
0.01506115
0.01806348
0.01926165
0.02248659
0.01968282
0.02629353
-0.02845070
-0.01564752
0.06646746
0.01033790
-0.04954178
-0.00999362
0.06900647
-0.03970474
0.06135259
0.02187678
-0.05098773
-0.02815517
0.01516222
0.08158998
-0.01225980
0.06199798
0.02992300
0.07139842
-0.05647882
-0.02016604
-0.02607721
-0.05591038
0.04473632
0.00815822
-0.05421580
0.02664497
0.00633298
-0.00867848
0.09559683
-0.02909452
0.00036620
0.00321071
-0.01710097
0.06390020
-0.03517727
-0.05450002
0.04541783
-0.02597656
0.03640262
-0.00806532
-0.02572072
0.04382928
-0.00962652
0.05326893
0.00799859
-0.01975425
0.10663623
0.00304170
0.01199225
0.03619245
-0.07508665
-0.02658575
0.06823888
0.00600763
0.02865398
0.02477011
-0.03897465
0.01345239
-0.02850474
-0.00794312
0.05414926
-0.02825674
-0.00574987
0.03173703
0.05421958
0.03893136
-0.00494028
0.02905431
0.01463651
0.01005770
-0.00252024
-0.05511717
-0.04838497
0.02511184
-0.04350232
0.06938343
0.00073598
-0.00230087
0.02150633
0.02052390
-0.02646253
-0.01413904
0.02332165
-0.07995364
-0.01661974
0.00262487
-0.08320449
-0.00398433
0.05249740
0.01772690
-0.03411919
0.02100692
0.00935874
0.04777462
-0.02585203
0.02176960
-0.00990638
0.08658890
0.04402102
0.05788564
-0.12249678
0.02135485
0.00609901
0.01027308
0.09312964
0.00353670
-0.01683851
-0.00762798
0.04402218
0.01022090
0.05077353
0.04490165
0.02691698
-0.02349288
-0.06707112
-0.00132976
0.02378152
-0.02492867
-0.06776033
-0.00553603
0.07364779
-0.07234810
0.04634599
-0.05055877
0.04206828
-0.02899187
-0.01075948
-0.00186972
0.03562913
0.00740383
0.05602428
-0.00591332
0.00258729
-0.04287260
0.00343463
0.03572233
0.04298426
0.04255432
0.00066562
0.06507152
0.03204718
-0.02803268
-0.04006667
-0.01989581
0.02684353
0.01571325
0.02700701
0.00172082
0.02738234
-0.02852780
-0.00957639
-0.00378731
0.04818957
-0.03159037
0.02101421
-0.02036765
0.05442050
-0.07172479
-0.00869151
0.02695206
-0.07834854
-0.00907073
0.09507413
0.03214965
0.01144810
0.05657163
-0.07661428
-0.02583493
0.06266672
0.05786838
0.03081107
-0.07574534
0.02412263
-0.01341589
0.00280024
0.03053181
0.03741911
-0.00635797
0.03066418
-0.01602271
0.01347353
-0.04714457
0.01653653
0.03059105
-0.01461173
-0.04842666
0.00845946
0.01582460
-0.04095890
-0.00437652
-0.03515521
0.01747412
0.01667192
-0.02694103
-0.00659269
0.01395173
0.05197861
0.03494690
0.02169402
0.05344402
0.04445953
0.02374410
0.00315672
0.03113283
0.05190444
-0.07217720
0.05811373
0.01629185
-0.00094155
0.04136197
0.01054714
-0.06447141
-0.08172292
-0.08533150
0.03643991
-0.03434015
-0.04310421
-0.03292799
-0.10633694
0.00610392
-0.01010393
-0.04373153
0.01188398
-0.11803702
0.03008006
-0.03351801
-0.03258433
-0.01167894
0.02357566
0.06787901
0.04860443
0.01241911
0.03385285
0.04889867
-0.06646723
-0.02884006
-0.00305309
-0.05125588
0.02342847
-0.02985978
0.04644743
-0.11161508
-0.03412990
-0.02475615
0.03260456
-0.02013562
0.03948390
-0.10728098
0.04570867
-0.00982055
-0.00638207
-0.01093877
0.02489826
-0.10018231
-0.04959179
-0.10216949
-0.01209409
0.06544963
-0.01013828
-0.02935284
0.06428593
-0.05845902
-0.11556248
0.02929624
0.00370992
-0.00975650
0.01914360
-0.04232638
0.03337648
0.01370921
0.01070731
-0.06715491
-0.02755273
0.01403756
0.02491222
-0.04019914
-0.03007187
0.06573075
0.03585729
0.02323786
-0.04435514
0.05449824
-0.01801275
0.04873631
0.01514251
0.02600276
-0.02826057
0.06910815
-0.02340199
-0.04098733
-0.05144616
-0.03529619
-0.01311260
-0.00028889
0.01219657
0.04226682
0.04372289
0.00070688
0.02911981
0.01318583
-0.05916003
-0.00707484
0.00204811
-0.01414825
0.03923527
0.00911842
-0.04100842
-0.04410530
0.03238918
-0.05892205
0.01673200
0.10010216
-0.01013224
0.02073023
0.02364299
-0.00475884
-0.01925559
-0.00531172
-0.03429752
-0.02299534
0.06883618
0.02859568
-0.05790592
0.01508494
0.03288633
0.03764246
-0.03715416
0.05970614
0.02336592
-0.04566352
-0.06918228
-0.00118021
-0.01101437
0.01109794
-0.07913240
-0.00117677
0.02691878
0.06200772
-0.02181372
0.05655863
0.05056104
-0.02125926
-0.04257905
0.03246282
0.05192997
0.00902234
0.02224869
-0.10605267
0.04322551
0.09746704
-0.03166983
0.01808163
-0.00616623
