-0.06043394
-0.06657387
-0.05341128
-0.00374733
-0.10855272
-0.02519000
-0.12747204
-0.08072888
0.00124537
0.02183010
-0.07459971
-0.11654665
0.03709678
-0.05208012
-0.02333296
-0.14723556
-0.08168071
-0.09028987
-0.01363969
-0.06403526
-0.13043810
-0.01530645
-0.06100750
-0.16938528
-0.05622713
-0.12685890
-0.03796907
0.02993377
0.03839343
-0.08922680
-0.03281080
-0.04268045
-0.13963817
-0.00286146
-0.01990299
-0.04580954
0.03991941
-0.03952314
-0.05023928
0.07628058
0.02843729
0.05137242
-0.01247933
-0.09788227
-0.07145668
-0.00010540
-0.02602932
-0.04515208
-0.02963590
-0.03973561
0.05143183
-0.08154384
-0.11938503
-0.02440003
-0.12422249
-0.06676675
-0.08039740
0.07683818
-0.02008498
0.02332864
-0.04226567
-0.15424688
-0.05927875
-0.03345089
-0.01927822
-0.11394296
-0.00787423
-0.03755810
-0.01736367
0.02017218
0.03002268
-0.10167094
0.02065869
-0.00772662
-0.09008662
-0.03815266
-0.02186109
-0.00589181
-0.10825928
-0.12728815
-0.07337260
-0.06853443
-0.10027059
-0.09752472
-0.03709490
0.01030870
-0.03028010
-0.03004022
0.01384898
-0.10163053
0.02255294
0.05015300
-0.17362273
-0.05337719
-0.03973911
0.02126767
-0.10779519
-0.00120917
-0.04818782
0.02997445
-0.02047155
-0.00022645
-0.10002408
-0.02301803
-0.04075366
-0.05245004
-0.03525538
0.02681860
0.00460678
-0.04466320
0.02924763
-0.02660475
0.01138136
0.00672870
-0.00364479
-0.05118744
-0.00060767
-0.00683825
0.02142607
-0.06955562
-0.02502603
-0.03730789
-0.07190674
-0.15625270
-0.11505646
0.05445588
-0.06835591
-0.10097665
0.01483660
-0.02754852
-0.03934161
-0.08911862
-0.00082797
-0.01671979
0.02379634
0.00123554
-0.08041936
-0.05669889
0.00207972
0.00501740
-0.00662637
-0.06484493
-0.02544086
-0.14579816
-0.10586162
0.04332819
-0.05048802
0.00164042
0.03663335
-0.14401099
0.01515870
-0.16362375
0.03870938
-0.05271059
-0.01862557
-0.07572900
-0.05535151
-0.07826215
-0.04400966
-0.03578367
-0.03981133
0.02560179
-0.00092414
-0.04939022
-0.08207012
-0.05610291
-0.12688524
-0.06535147
0.10304131
-0.04626890
0.01197178
-0.00101654
-0.05897990
-0.10034748
-0.02342630
-0.10944498
-0.10949759
-0.05506292
-0.06311123
-0.06146379
0.05872431
-0.07155397
0.05399258
-0.03139562
-0.04534713
-0.00938963
-0.12156472
-0.07264727
-0.09959349
-0.02157699
0.02331953
0.04978967
-0.12476552
0.02298456
-0.09452539
-0.07145665
-0.01764451
-0.11833517
-0.02236970
-0.02290299
0.04679675
-0.02332081
-0.05878295
0.02321818
-0.00102047
-0.12596141
-0.08517434
-0.02060008
-0.07013106
-0.07829729
0.00934739
0.02392456
-0.11426020
-0.16562341
-0.05160150
-0.01617301
0.05213992
-0.02164240
-0.14453396
0.01354741
-0.08121133
-0.11852673
-0.01563041
-0.06833644
0.05367327
-0.05708583
-0.06096909
0.00751010
-0.11142519
-0.00807385
0.01228285
-0.08650832
-0.10784163
-0.01542172
-0.01128583
-0.05525357
-0.02617571
-0.02149316
-0.11140690
0.05763366
-0.07100539
-0.08554569
0.07035210
-0.10610235
-0.04553210
-0.04605514
-0.00925814
-0.03447089
0.03410897
0.03616982
0.00426742
-0.15946925
-0.06208279
-0.01567982
-0.08727885
-0.03376294
0.04881693
0.02690724
-0.09588704
-0.05632791
-0.09075789
-0.03789270
-0.03512239
-0.03692440
-0.02847281
0.10866833
-0.01606625
-0.02031721
-0.07194868
-0.03285555
-0.02663933
-0.07200663
0.04133266
-0.09256308
0.00766929
-0.03285090
-0.02939441
-0.03494453
-0.01722773
0.04876114
-0.07431187
-0.11607854
0.01752559
-0.01290429
0.01751723
-0.05107989
-0.10684443
-0.08503333
-0.01080244
-0.02608546
-0.05283655
-0.03899918
0.03131424
-0.05243309
-0.10461892
-0.05509520
-0.08269610
-0.14362478
-0.11650333
0.02263727
-0.00064085
-0.09533873
-0.00418219
-0.11617583
-0.14909674
0.00501484
0.00458017
0.02826505
0.12884133
0.03429087
0.02533098
0.01315158
-0.10017153
-0.05480026
-0.04295684
-0.05909918
-0.04969357
-0.04680163
-0.02949337
-0.03155942
-0.00435507
-0.11285730
-0.07737450
0.10809390
-0.03001719
-0.00147219
-0.07018139
-0.05346557
0.05746942
0.05017537
-0.09798778
-0.04246080
-0.05831760
-0.09633316
0.00943982
-0.06891246
0.00474876
-0.01101615
-0.00705174
0.01338392
-0.05244455
-0.10048469
-0.05257902
-0.05350472
-0.07974485
0.04661396
-0.00679395
0.12134607
-0.01007354
0.05452636
0.01772109
0.01486692
-0.08199205
-0.01020526
-0.01301576
0.01055866
-0.03239050
-0.09061856
0.00186125
-0.08493327
-0.03433124
-0.06629615
-0.11072751
-0.05013258
-0.11442517
-0.07548846
0.01741620
-0.06380842
0.04242681
-0.02561854
0.01515451
0.00354292
-0.07779168
-0.00249867
0.07651851
-0.01424802
-0.06004861
-0.00581341
0.00387338
-0.01589214
-0.02893215
0.69522947
0.00281227
0.04301631
-0.09977844
0.00773776
0.02981948
-0.09847028
-0.04613308
0.07738197
-0.03601266
-0.08210562
-0.07076006
0.01958896
-0.02783871
-0.02931723
0.03132356
0.01820516
-0.12056012
0.06079454
0.04422266
-0.03746717
-0.08381209
-0.03470324
0.10543335
0.06785068
-0.05579997
0.04170573
-0.15437660
0.03244822
0.00824130
0.00881625
-0.02192105
-0.02182542
-0.00773819
-0.09824283
-0.03276253
0.04320864
-0.06180589
-0.03863038
-0.04299898
0.00804427
-0.07446475
0.05266196
0.02929887
-0.05501835
-0.01306767
0.07247324
0.06350872
-0.09665858
0.03246542
0.04493941
0.03674247
-0.13731788
-0.00506685
-0.10867492
-0.03612018
-0.00509981
-0.05817358
-0.01473003
-0.07258962
-0.04303596
-0.08651907
-0.02861260
-0.01888121
-0.01871774
0.09306197
-0.04963223
-0.03229182
0.01990197
-0.08637413
-0.02264653
-0.09168901
0.02657787
-0.12771913
-0.10355594
0.03113503
-0.09528381
0.05422231
0.04727288
-0.04421445
0.02128254
-0.04103041
-0.14686291
-0.16847573
0.00525937
-0.10676234
0.04830883
-0.09349883
-0.05505814
-0.05790798
-0.01793281
-0.04343792
-0.13058603
-0.02416028
-0.00699080
-0.02586444
-0.05090245
0.01660422
0.08953252
-0.06503285
-0.07991458
0.03513081
-0.00437494
0.02834708
0.00925521
-0.08545752
-0.13572812
0.01707745
-0.03457123
-0.00037896
-0.01380759
-0.04786450
-0.04646086
-0.03943606
-0.02589643
-0.01045965
-0.05974199
-0.05133532
-0.07955297
-0.06588291
-0.08035821
0.02650493
0.07187320
-0.01922742
-0.07009923
-0.02337606
-0.07920574
0.00082827
0.01461150
0.01263020
-0.01275548
-0.02233150
0.02533973
-0.06958537
-0.15327840
0.00113751
-0.08695520
0.06813698
-0.04779699
0.01884431
-0.07961188
-0.14138910
0.00720544
-0.00860154
0.01838050
-0.00732429
0.01856122
-0.05247444
-0.08251822
-0.04202497
-0.00678919
0.00809813
-0.06453652
-0.09928823
0.08851431
-0.07703502
-0.02419698
-0.10050723
0.14704862
-0.06292127
-0.06317791
-0.03845030
-0.02140804
0.02565444
0.11039649
0.00908827
-0.03289107
-0.14905839
-0.12869781
0.00095794
0.01666321
-0.07075854
-0.06339848
-0.05261315
0.02613161
-0.02040596
-0.13057135
-0.07948104
0.02280805
-0.01712378
-0.02889847
-0.10358135
-0.02117117
0.03824856
-0.07362474
-0.08337763
-0.07761019
-0.03428126
-0.00428458
-0.00819028
-0.10041749
-0.11125261
-0.03707621
0.00748601
-0.06729424
-0.05203650
0.07261988
-0.10060564
0.05942075
0.03062605
-0.08892409
-0.05040158
-0.00582652
-0.00862371
0.00127960
-0.25012171
-0.01321346
-0.01023186
-0.02142844
-0.02736187
0.00918954
-0.08926551
-0.03005196
-0.06395455
-0.02176181
-0.03459517
-0.06575236
-0.04134934
-0.10337503
-0.04073509
-0.04080168
0.05595346
-0.06214797
-0.10414318
-0.12423525
-0.05410559
-0.04665497
-0.04440115
-0.06055605
-0.05761196
0.03699616
-0.02679473
-0.10736348
-0.01675815
-0.00285925
-0.02022008
-0.02613185
-0.01646874
0.02231057
-0.10203120
-0.03691014
-0.03749280
-0.06983342
-0.07113481
-0.05565434
-0.15173991
0.03955267
-0.07431185
-0.02936031
-0.05618830
-0.10084428
-0.08463080
-0.12945318
-0.05012864
-0.06266731
-0.09025905
-0.06946361
-0.10825272
-0.05598530
0.04180389
-0.10288107
-0.02652756
0.06739161
-0.03501811
0.05568284
-0.05732037
-0.08355665
-0.05297411
-0.13501896
-0.06352420
-0.05501517
-0.09239344
-0.08988982
-0.01867545
-0.01778314
-0.10325131
-0.08286764
-0.05540473
0.01149137
-0.06352150
0.04312333
-0.11421400
0.01568052
-0.05209078
-0.00558995
-0.02268238
-0.12386718
-0.12129190
-0.04453413
-0.14000033
-0.01103756
-0.00068755
-0.03331000
-0.06820020
-0.00743024
-0.13760388
-0.06392626
-0.06220124
-0.02178493
-0.03915345
0.01336194
-0.12366998
-0.00029912
0.01239404
-0.06942765
-0.05532764
-0.07440985
0.06153378
-0.03099084
-0.04215671
-0.05976688
-0.05085011
-0.02590041
-0.04206618
-0.04101890
0.04817233
-0.05549336
0.01151584
0.00434682
-0.08658953
-0.01497628
0.00151313
-0.06127850
-0.10164974
-0.09464423
-0.15040144
-0.08009636
-0.03790711
-0.12631378
-0.04739006
-0.04892671
-0.10660405
-0.07617951
-0.02475290
-0.07670750
0.02327067
-0.07585404
-0.05107541
-0.05126886
0.13336384
-0.03496010
-0.00936854
0.00383594
-0.09576315
0.03268186
-0.01730144
0.03993603
-0.01739237
-0.00249429
-0.02446320
-0.08934059
-0.07135396
-0.06061411
-0.17233521
0.01727283
-0.06362808
-0.14222242
0.02685736
-0.02551337
-0.03546091
-0.06667122
-0.00127733
0.00350622
-0.02220576
-0.07408351
-0.03296105
0.01799209
-0.07051258
-0.10698722
-0.01073450
0.03361217
-0.02325918
-0.13493733
0.06060123
-0.07017303
0.06889617
-0.10628571
-0.01385414
0.00672299
-0.05731353
-0.07582334
-0.05211795
0.04621520
0.03033347
-0.04644549
-0.02377566
-0.02088442
