-0.06392498
0.00614849
-0.04314630
-0.25576538
0.19396514
-0.21418887
0.11460330
0.02871137
-0.24261497
-0.36332458
0.56520176
0.11561523
-0.17087926
-0.05919481
0.64671814
-0.10834706
-0.05860430
-0.09598198
-0.45724863
-0.03685850
0.41762084
0.46884039
0.63560796
0.21157986
0.66374582
-0.21121943
0.07909933
0.44384283
0.05850473
-0.26554054
-0.06959139
-0.29675645
-0.21055302
0.17769204
0.36265561
-0.03044890
-0.17010827
0.39088771
-1.02860272
-0.24417114
-0.09659609
0.06593939
0.04536192
-0.39379150
0.41352946
-1.14941454
0.08746097
0.06750228
0.32810566
0.06291534
0.33728337
0.46949321
0.34288168
0.24700856
-0.28354844
-0.07003626
0.09052619
-0.02156372
0.29107711
0.66706711
0.33234298
-0.09673958
0.02596146
-0.34052876
-0.03503656
0.32462534
-0.45750183
-0.02178002
-0.25826222
-0.30618551
-0.36872116
-0.06895319
0.16737770
0.38595438
-0.40797141
-0.07161937
0.31383267
0.14486997
0.50371224
0.25287130
0.14409448
-0.04480373
0.09755955
0.05267196
0.13561258
0.01181556
-0.27910635
-0.10277056
0.48752514
-0.37862653
0.64706844
-0.23755790
-0.55886227
0.82695186
-0.15010162
0.59841233
0.25990152
0.21389656
0.15238430
0.43291155
0.09304259
0.01215030
-0.07188844
-0.62434953
0.22147894
-0.60759687
-0.28380835
0.38180974
0.03168520
-0.02843333
-0.05718698
0.22372824
0.97900897
-0.37592790
-0.16488992
0.04561588
-0.19522016
0.15847833
-0.26724458
0.02377292
0.33788255
0.98460770
0.80507064
-0.20436095
-0.48111454
-0.22166190
-0.56219810
0.79121220
