0.51430202
-0.40508384
-0.49950030
0.00261133
0.29744259
0.47749674
-0.89795208
-0.70949560
-0.69096559
0.15494788
0.38349295
-0.00008992
0.20741351
0.15306233
-0.47405586
0.09982063
0.06124111
0.57089204
0.08877139
0.20759772
0.11827984
-0.32727051
0.25645849
-0.20730481
-0.14414462
-0.54592371
0.43389705
-0.99381584
0.30990222
-0.07322501
0.19658490
0.15196130
0.76723647
-0.52775216
-0.22894323
-0.36107755
0.17212324
0.31289262
-0.10702030
-0.22608311
-0.14154726
-0.03278844
0.10468895
0.62101251
1.00227296
0.82505292
-0.16754371
-0.38328794
0.51259035
-0.20429914
-0.74382639
-0.17284688
0.43965837
-0.44467664
0.50582480
0.04918469
0.06616077
0.07193962
-0.27285153
-0.61912137
-0.45977041
0.35044983
0.34103352
-0.22301225
-0.26562011
0.97386879
0.21345013
0.08332165
-0.31146306
0.23441541
-0.30653226
-0.58773845
-1.08246469
0.01378907
0.65318155
0.61013001
-0.58201510
0.90845281
0.10262708
0.28516868
0.41664508
0.20264550
-0.27753568
-0.74107450
-0.13498667
-0.01499020
-0.11341476
0.20820005
-0.38199762
-0.03084071
-0.44214481
0.55191761
-0.53797776
-1.10468853
0.56322867
-0.10153064
-0.73756278
0.04425167
-0.17781126
-0.39370903
0.84056050
0.58579087
0.74494171
-0.37172985
0.01153705
-0.46382758
-0.45102471
-1.07886302
0.00611557
0.10810728
-0.22394438
0.40779945
-0.12766327
0.09325239
-0.03406560
-0.41901654
0.54060930
0.76099330
0.59363180
-0.38480654
0.19176723
0.31412762
0.02532305
-0.24567397
1.24808490
-0.14328447
0.59883308
0.12107298
