0.00349772
-0.05831751
-0.05940840
-0.03421870
0.02965918
-0.01388265
-0.03417066
0.03661228
-0.01633563
-0.04209997
0.00438123
0.03401340
0.01055918
0.01040509
0.00282949
-0.05929401
-0.02235727
-0.02602666
0.02499953
-0.03585788
-0.06861049
0.02282991
-0.04349023
-0.03549488
0.02193774
0.01373805
-0.00262419
-0.03475768
0.00170653
-0.01939209
0.03746258
0.01638223
-0.01521368
0.03185738
-0.02945408
-0.01271543
0.02372340
0.05293727
-0.01931336
0.02652733
-0.00484846
0.00427987
0.06287450
-0.00524682
0.04947975
-0.00057368
0.01679994
-0.01265428
-0.00454395
-0.01976662
0.00091531
0.05375259
-0.06537750
0.02388218
0.02873153
0.00697267
-0.03605111
0.01655407
-0.02561710
0.00424051
-0.00888784
0.04114052
0.04284241
-0.01572813
-0.01157460
0.00500330
0.02328482
0.01806813
-0.05762313
-0.00210880
-0.00586317
-0.02333372
-0.01610932
0.06756891
-0.05456960
0.07736692
0.04274076
-0.05625022
-0.06774724
-0.03684109
-0.00445768
0.00990183
-0.01368276
-0.01134433
-0.00627966
0.00831400
0.03324553
-0.00174769
0.01713715
0.03827120
0.02027118
0.00369505
-0.10748905
-0.02024703
0.01486279
0.00385347
-0.02838447
0.02728425
-0.01973654
0.02659633
-0.00906730
-0.01675401
-0.07823610
0.02696167
0.01991050
0.08751620
-0.01530127
-0.03669159
0.07278123
-0.01972369
-0.02183465
0.01296810
0.02411153
0.00533844
-0.02876773
-0.00393141
0.00166909
-0.01219749
-0.00195371
-0.05369849
0.02231123
0.07537202
-0.02145328
-0.05574196
-0.07241823
0.01274596
0.02069403
-0.06732382
-0.01400760
0.03546459
0.01740231
-0.00688898
-0.04021751
-0.04728403
-0.02321894
0.01938689
-0.04100440
-0.06870549
-0.01785960
-0.00888900
0.00731440
0.01630425
-0.07077666
-0.00980292
-0.07429095
0.06245038
0.03966374
0.04130867
0.01849261
-0.05177448
0.04145840
-0.00630920
0.00043661
0.02712594
-0.00970678
-0.03657663
0.01679358
-0.00190429
-0.02672924
-0.04753420
-0.02622831
-0.00189007
0.04443999
0.01630012
-0.00362503
0.00930925
-0.04835051
-0.03792763
0.03355760
0.02442184
-0.00202626
-0.02196874
0.05722041
-0.05331907
0.00071146
0.01161437
-0.00420424
-0.02898873
0.03955094
0.01495652
-0.02823798
0.00402584
0.02389922
-0.03819176
-0.02121597
0.04390206
-0.04151629
-0.03507353
-0.06103159
-0.02145371
0.02786676
0.03570809
-0.04056859
0.06941389
-0.00376522
-0.03685812
-0.02741504
-0.11230770
-0.04443491
-0.01302295
0.00291781
-0.02623526
-0.01368309
0.09305049
-0.03000529
0.05298394
0.02690616
-0.04745907
0.00072336
0.00765704
0.00419430
0.06417190
0.01672279
-0.07666000
-0.02965506
0.08373924
0.01671184
0.03858823
-0.07776505
0.06111930
0.03697522
-0.04210801
-0.02239344
0.00019612
-0.00752552
-0.09482894
-0.04085724
0.02554689
-0.01907541
0.00480365
0.02047561
-0.01341685
-0.05098884
0.03595663
-0.00899695
-0.02116817
-0.01413181
-0.01844647
-0.01393999
0.05576381
-0.03044203
-0.05270101
0.04894164
0.02774497
0.03143315
0.01347403
-0.06844419
-0.01609796
0.05030850
0.02210316
-0.03055014
-0.08962636
-0.05563978
-0.03915625
-0.08571945
0.09031535
0.01406656
0.01904060
-0.02686083
0.00985697
0.05928734
0.01476421
-0.01958996
0.03565654
-0.04469188
0.05991692
-0.00576092
-0.02127673
-0.00758361
-0.01642326
-0.05963403
0.02749269
-0.00342125
0.00651065
0.01164830
-0.06658825
-0.05459610
-0.02161446
-0.00868757
0.01177887
0.05890006
-0.02777184
-0.05108416
0.01280708
0.01814752
-0.00125814
0.00490121
0.02701890
0.04073745
-0.03581651
-0.09733083
-0.05153088
0.05831082
0.01851279
-0.06179114
-0.03765360
0.05571097
-0.00157302
-0.03859541
-0.00588017
0.00130540
0.01954044
0.00971041
0.00363439
-0.11842255
0.06946994
0.02956069
0.04450575
1.38268518
-0.00612542
0.01890343
-0.12704974
0.02092922
-0.01847487
-0.00870087
-0.03629277
-0.03429707
-0.07829053
0.05229852
-0.12686354
-0.03182027
-0.02701490
-0.05407777
0.03398884
-0.01059891
-0.02374743
-0.02248076
0.02948611
-0.02080199
-0.01639436
-0.00277695
-0.09546931
0.01015106
-0.02274879
0.08072325
0.01099814
-0.01118665
-0.00525295
-0.02546233
0.00432803
-0.02641003
-0.04513383
-0.07730164
0.00887485
-0.01735223
0.02683139
-0.04171688
-0.02205256
-0.04591223
-0.02209005
0.05335154
0.06667909
0.02166776
-0.00561104
0.01626366
0.04013406
-0.02520806
-0.00202921
0.02798937
-0.02171362
0.00856098
-0.00631460
0.01171916
-0.02269273
-0.02676984
0.00905818
-0.05976349
-0.06495321
-0.07198172
-0.05792473
0.01084260
0.02163956
-0.00600813
0.01217577
-0.00828829
-0.00416787
-0.02000793
0.01458079
0.02011923
-0.01757038
-0.00896288
0.22902028
-0.01754818
0.04460775
-0.02181913
0.01510945
0.06202405
-0.02326431
0.02374786
0.00485084
-0.01833966
0.00728835
0.00682030
-0.04725310
-0.04340466
0.02849410
0.09142387
-0.01949343
-0.00741466
0.01679692
0.06067508
0.02170268
-0.02160719
-0.00088577
0.02451302
0.03616766
0.00216833
-0.00147108
0.02887841
0.00250708
0.02396794
0.05029695
0.02151392
-0.01174417
0.01225104
0.00802220
0.01161757
0.04179095
0.03913073
0.00523417
0.00572836
0.06665464
-0.02481904
0.01998631
0.02097102
-0.00856008
-0.01741159
0.00016118
0.04738899
-0.01342082
0.01661358
-0.00776025
0.01151766
-0.11631776
-0.00385537
-0.00058983
0.01298570
0.04943310
-0.03098621
-0.02914316
-0.00391806
0.00675416
0.00572648
-0.05390022
0.00822208
0.01050173
-0.00797242
-0.03902445
0.00873694
-0.00174327
-0.00455136
0.04239486
-0.01319863
0.03552329
0.01720745
0.00211208
-0.02895741
-0.01703811
0.00696892
0.00531618
-0.07431050
0.14257318
0.04799145
-0.00880472
0.07097857
-0.04553429
-0.01597884
0.01419532
-0.01868363
0.03904870
0.00129415
-0.05360784
0.00957361
-0.04422173
0.02754736
0.03726239
-0.03716412
-0.00400219
0.04176818
-0.00065855
0.02061091
-0.02804613
0.02933805
0.01230177
0.01219008
-0.03616797
-0.03466081
-0.00037648
0.05087576
-0.06817906
0.01591541
-0.01248141
-0.05397716
0.00715671
0.01997833
0.03470498
-0.05139352
0.02859419
-0.02798311
0.00663670
-0.00648419
-0.04940278
-0.00177074
0.01250595
0.00380074
-0.03023137
-0.01982344
0.03425641
0.03915198
-0.00322715
-0.08746504
-0.03899312
0.06931441
0.01387301
0.03786435
-0.06438270
0.02483339
0.01798347
0.03521854
0.06876505
-0.00395250
-0.02498805
0.00284994
0.02804821
0.01387243
0.03174855
0.03503173
-0.00079839
-0.04383170
-0.06138650
0.01699781
0.00376903
-0.02261920
-0.02324850
0.01854189
0.02365144
-0.02271294
-0.05106587
-0.07985242
0.02240764
0.01986680
0.04798878
0.02144659
0.04182156
-0.00328584
0.04771265
0.01841328
0.02776913
-0.02901851
0.01387587
0.06834716
0.02270973
0.02021110
-0.00361217
0.04687338
-0.00490867
-0.00533417
-0.01391517
-0.05573426
0.01696886
-0.01762260
-0.01384310
0.06946424
0.03374339
-0.03060475
0.00504154
-0.03962187
0.02697568
-0.01926725
0.00620189
-0.04733752
0.02911953
-0.04671317
-0.00353032
0.05476081
-0.04727804
0.00442650
0.11394331
-0.02079742
0.06243952
-0.00772210
0.01318705
-0.02540065
0.02187929
0.03110580
0.02805391
-0.06996503
-0.03038043
0.05914160
0.02637690
0.01459291
0.04172518
-0.01792016
0.00407084
-0.01446012
0.05874699
-0.02929237
0.05054155
0.01607331
-0.00359619
0.02129370
0.02694999
0.07896238
-0.03570259
0.01297350
-0.03025773
-0.02753370
0.05910239
0.01099710
-0.00894568
-0.02213708
0.07759767
0.02248134
0.05969829
0.01546637
0.00978716
-0.01106741
0.01484847
0.03324556
-0.01680698
-0.01168816
0.01956936
0.01114183
-0.01157844
0.02167273
-0.04120669
-0.00092730
-0.05949273
-0.08177748
0.00607573
-0.07841735
-0.01990088
-0.01233566
-0.02970560
-0.01811105
0.03205776
-0.00653657
-0.03463501
-0.05719418
-0.00934601
-0.00077416
-0.00584757
0.02170246
-0.03570960
0.05570890
-0.00145903
-0.01807784
-0.00276354
0.05052456
-0.01268621
0.00522714
0.02542432
-0.02689401
0.05029096
0.00449358
0.05499249
-0.04513995
-0.01852761
-0.01094913
0.02124749
-0.02653598
0.01485526
-0.05318526
0.01858721
-0.03224069
-0.07509660
0.00229588
0.05360079
-0.03780309
0.00558201
-0.00359335
-0.03295254
0.04345470
-0.01605201
0.00607308
0.06578083
-0.04085579
-0.01991877
-0.00040779
-0.00341483
-0.01137802
0.01458371
-0.04075341
0.03688449
0.02593124
0.01627808
0.01086195
-0.03635633
0.03934503
0.02791972
0.01633348
0.00379710
0.03552013
0.01923673
-0.02290280
0.01762935
-0.00887860
-0.03748836
0.05946210
0.04118752
-0.00704714
-0.02423882
0.07180187
-0.04443492
-0.01437612
0.01038659
0.04746919
-0.01080458
0.00637479
0.01464552
0.04206192
0.02812207
-0.02385330
0.10682087
0.03906637
-0.03213880
-0.02522324
-0.01517150
-0.00038038
-0.00879765
-0.01230659
-0.08139148
-0.03865246
0.03120531
-0.03777177
0.04727470
0.02843238
-0.03199098
0.03358465
0.03492168
0.00007647
-0.01590719
0.00226059
-0.04170144
0.01652355
0.02917653
-0.01553403
-0.03141834
0.02189638
0.02638326
-0.00266156
-0.05564088
0.00551319
0.04851523
-0.02069925
-0.04863242
-0.01242260
-0.02639393
0.02877525
-0.04282859
-0.02025722
0.00083192
0.04579290
-0.03688906
0.01217044
0.00897891
0.00992760
-0.00582611
0.03788792
-0.00865258
-0.00593219
-0.00359981
-0.00538567
-0.01597975
0.09941746
-0.09006685
-0.04685390
-0.03790452
