-0.02826844
0.04427591
0.05678326
-0.04759070
0.16136196
-0.02671562
0.17336537
0.09878648
-0.01635290
-0.09734113
0.04804175
0.07709589
-0.16099577
0.02155865
0.00106601
0.29267085
0.15740961
0.11005906
-0.08495618
0.01661378
0.18766494
-0.12081161
0.00686370
0.27938828
0.11396011
0.10981686
-0.00549535
-0.05190952
-0.28676081
0.12391357
-0.04171332
-0.05935793
0.18512179
-0.03651467
0.02476105
0.08152025
-0.17232980
-0.08628818
-0.03685163
-0.13840410
-0.14638440
-0.15844014
-0.12758532
0.15427560
-0.02494214
-0.15789068
0.03507476
0.07032006
-0.10180956
-0.09384635
-0.06024724
-0.10749417
0.25148654
-0.15908477
0.13973168
0.14688547
0.07514141
-0.26052693
-0.04213743
-0.13689500
0.07529607
0.07806268
-0.04517259
0.04666902
-0.08927276
0.07656756
-0.08282396
0.03650146
-0.00569198
-0.17846684
-0.06357776
0.07420197
-0.05455910
-0.19573377
0.08495065
-0.03190770
-0.10666398
0.06825887
0.09366444
0.09794080
0.04335725
-0.03563758
0.11908611
0.20870736
0.00234388
-0.16841945
0.11457880
-0.10271080
-0.20386977
-0.01069938
-0.19423717
-0.23219915
0.37621170
-0.04397305
0.10098357
-0.08432368
0.10338799
0.07963341
0.01105863
-0.06327171
-0.05192100
-0.06127546
0.17478979
-0.06725934
-0.05034106
-0.00106193
-0.02072931
-0.13633911
-0.19682959
-0.03203611
-0.13236304
-0.05752114
-0.34629613
-0.06463744
0.03649415
0.01750503
-0.02601504
-0.01216328
-0.08162075
-0.00937757
-0.06589100
-0.08784059
0.01072500
0.12658618
0.12424498
-0.22253861
-0.01607781
0.19209482
-0.13527210
-0.05640367
-0.06635316
-0.05421177
-0.10380767
0.03460474
-0.30050340
-0.04525499
0.08934098
0.11803997
0.00950223
-0.10324187
-0.03061982
0.01330652
0.01326059
0.09451737
0.12995766
-0.17491975
-0.05902555
-0.02630895
-0.17794712
0.20803212
-0.15327986
0.17576650
-0.12652604
-0.03900964
-0.03566070
0.03399868
0.02554447
-0.01680628
0.08290965
-0.09100184
-0.01549639
-0.15012543
-0.04543113
-0.12166522
-0.02362279
0.05243470
0.21403940
0.06996514
-0.28291351
-0.14104308
-0.09471790
-0.08285090
-0.11221997
0.04419803
-0.07839633
0.33971009
0.01875193
-0.04476298
0.09455249
-0.10529389
-0.07546646
0.03624538
-0.11586475
0.00297496
0.06806061
-0.15762907
0.03478429
0.12822483
0.03638002
-0.09195678
-0.12503645
-0.24507236
0.25011611
-0.16512306
0.12243158
0.01173099
0.00600620
0.32122082
0.04876354
0.02623856
-0.15216222
-0.03020104
0.08781312
-0.25849730
-0.08887393
-0.05388739
0.01003625
-0.05719641
0.13767898
0.09650066
-0.16173756
-0.12476710
0.01135257
0.27988318
-0.10663667
-0.18548630
-0.20121241
-0.15776964
0.43846133
-0.28522515
0.09330127
0.20301165
-0.09283862
0.03908631
-0.12384594
0.24978593
0.02370832
-0.15107581
0.08314125
-0.00353312
-0.17983760
0.00199941
0.26600677
-0.14723438
-0.04157545
0.13083118
-0.08339936
0.00830651
0.07005237
-0.25479594
0.06921441
0.08152034
-0.20864011
0.20148428
0.02574659
-0.07864679
-0.01012572
-0.01378725
-0.15976413
-0.08802187
-0.13740052
0.34906891
0.06000134
-0.01246925
0.13835776
-0.13185698
-0.17633696
-0.09631784
0.03390822
0.03031683
0.02492187
-0.04943487
-0.06061006
-0.05583123
-0.01441674
-0.35475916
-0.00138659
-0.05534159
-0.07444607
-0.11135719
-0.03776814
0.04043828
-0.14193931
0.13207534
0.03346506
-0.06613152
0.01469819
-0.01511771
-0.06695165
-0.14033704
0.05397877
0.12092938
-0.12158006
-0.04503321
-0.13276209
0.04065198
0.11958025
-0.07117701
-0.23217770
0.01843743
-0.04114920
-0.00666463
-0.12587908
-0.08932123
0.16280168
0.00601081
0.07900189
0.14609011
0.22288959
-0.12586620
-0.10447937
0.11856060
-0.07261161
-0.02270552
0.31658632
-0.15245545
-0.06740551
-0.08625251
-0.56389207
-0.15100101
-0.05138760
-0.09406418
0.11220271
0.10446394
-0.01644255
0.04515665
-0.08334014
-0.04926407
-0.14150243
0.07821648
-0.19172163
0.08614354
0.13987345
-0.32544893
-0.08435505
-0.10345991
0.03499797
0.01439743
-0.09151983
-0.12840489
0.09227219
-0.06974602
-0.05281818
0.19238649
-0.19416825
-0.00210135
-0.14802738
-0.09940610
-0.05300540
-0.22685714
0.12517406
0.02662290
0.13905445
0.08616690
-0.04123233
-0.28961992
0.03218724
-0.26401103
0.00133736
-0.23566754
-0.18502884
-0.22662844
0.00027782
0.00862314
-0.03981275
-0.14127088
-0.03881139
0.08944212
-0.02972630
0.12283643
-0.02417593
-0.04187301
0.03873106
0.01199689
0.11626480
-0.00751143
-0.11711708
0.16216563
-0.11858866
-0.04497072
-0.08914742
-0.11364522
-0.04277102
-0.20340103
-0.27153683
-0.05772466
0.04430340
-0.15248555
-0.24283667
0.00574913
-0.05576237
-2.04844117
-0.06017847
-0.17350982
0.05574383
-0.09789167
-0.23719805
0.00966599
-0.04309721
-0.16293669
0.02376933
0.03088975
0.02594556
-0.07097318
-0.01290455
-0.13034977
-0.27947196
-0.13300572
0.03091962
-0.19128302
-0.12651935
-0.10616593
0.06770547
-0.09689003
-0.25992772
-0.21837987
-0.01903804
-0.15786922
0.13233259
-0.10564394
-0.11181478
-0.17375553
-0.01034809
0.01612329
-0.09743770
0.17677251
-0.10879581
-0.18208008
0.02617515
-0.05091105
-0.08040798
-0.35279950
-0.00164394
-0.11595250
-0.10296416
0.05952550
-0.03010535
-0.23980100
-0.19465843
0.05144279
-0.01363352
-0.20179571
-0.14303005
0.24292809
-0.14119394
0.06624106
-0.02511862
-0.22633810
0.04945459
-0.03584320
0.09388013
-0.02956087
0.02117657
0.08828150
-0.03487790
-0.10528522
-0.08589996
0.05585320
-0.06742891
-0.24318442
-0.07043272
-0.05618650
-0.01753687
-0.09245044
0.05540438
0.11693183
0.00214109
0.10851595
-0.16258332
-0.08948572
0.03318512
-0.39966741
-0.08683342
0.10122085
0.07913512
-0.04867904
0.03590840
-0.20967224
0.03027617
-0.03024835
-0.01863460
-0.02217883
0.03048255
-0.01217231
-0.01589582
-0.05130836
0.00791688
-0.00315597
-0.23369420
-0.18726596
-0.01813750
0.15583368
-0.15750252
-0.17267554
-0.07227469
-0.11358763
0.10372160
0.09527866
-0.23699678
0.06792703
-0.05468936
-0.06679517
-0.00780338
0.05114191
0.04134545
-0.05039037
-0.04864575
-0.05169076
-0.01476011
-0.03104136
0.05905135
0.20838201
-0.17838210
-0.18989833
-0.01247874
0.08902553
0.02735867
-0.01019140
-0.26954702
-0.16074786
-0.10075804
-0.12746552
-0.05905042
-0.05424688
-0.03252906
0.30500114
-0.06428429
0.06834415
-0.11187507
-0.02565099
-0.09503667
0.01607142
0.09546764
-0.06531771
-0.01740696
-0.09197805
-0.16614102
-0.06452483
-0.05035625
0.19642010
0.24655557
-0.12083323
-0.19729674
-0.04612129
0.02381478
-0.28763339
-0.03872882
-0.02411615
0.01929441
-0.25606728
0.06005888
-0.04095063
0.03916901
-0.07818296
0.00059337
-0.08941319
-0.15220921
-0.07179157
0.20418569
0.16193900
-0.18657312
-0.05608909
0.08511250
-0.02921873
-0.08090854
-0.11970742
-0.08084889
0.16673361
0.00632699
-0.18536937
-0.10276742
-0.11673814
-0.03249322
-0.14574838
-0.19210769
0.03419793
0.14530481
-0.06413181
0.02373938
-0.03820026
-0.01347474
0.02571915
0.09764037
0.07765708
-0.17458624
0.02727568
-0.01943442
-0.32009831
0.07316118
-0.30123937
-0.18523727
0.09738245
0.11597349
-0.08543183
-0.04875716
-0.16588654
0.31417155
-0.10790654
-0.15834573
0.00390026
-0.01878141
-0.04527602
0.14544484
0.04411449
0.05056646
-0.16837373
-0.05698064
0.01129158
-0.12216248
0.03713383
-0.01526479
0.01010464
-0.21152215
0.04466104
0.07581199
0.15040004
0.04257312
-0.06685434
-0.05576591
-0.01171487
0.02427462
-0.11001715
-0.01619188
0.05534332
-0.11090019
0.01097641
-0.04988631
0.03328272
-0.09242620
-0.09724584
0.24438220
0.02702561
-0.04949213
0.19705293
-0.06525125
0.11530871
0.22063938
-0.16844414
0.02133749
-0.06353914
0.06537759
0.09746764
0.16086474
0.21043229
-0.08219942
-0.02146247
0.05773316
-0.03478879
0.12937537
-0.06983466
-0.12750597
0.09496555
-0.00070440
-0.18503912
-0.00972836
-0.17464854
0.04444937
0.06817479
0.02601707
0.20282604
0.05141696
0.11998178
0.22960967
0.15198730
-0.21729510
-0.10882034
0.15819055
0.01267747
0.07733298
-0.15195858
-0.02002959
-0.16815394
0.00002822
-0.14256263
-0.00307583
-0.07161029
0.03068323
0.21486188
0.05169941
0.14316802
0.13572703
-0.07210625
-0.29970324
0.08539116
0.07721908
-0.16371349
0.19798501
0.02738577
-0.07147790
-0.01212606
-0.08973746
-0.08534738
0.14198740
0.00613974
-0.07607318
0.02015248
0.02933966
0.11531339
-0.23834027
-0.08123277
-0.09787274
-0.03125707
0.09070668
-0.02556919
-0.05662405
0.08395062
-0.17096914
0.04817276
-0.19605969
-0.04954779
0.11116665
0.03043420
-0.15271568
0.05313848
0.05998808
0.11032643
0.08765335
0.03731832
-0.02569933
0.02787137
0.08923668
0.01462509
0.22827111
-0.01238480
-0.08744162
0.09613090
-0.02991704
0.00422784
0.01022668
-0.07883894
-0.10953969
0.04713474
-0.15764792
-0.13106833
0.17481710
-0.12867568
0.01159773
-0.07709087
-0.05250292
-0.00844638
0.13035032
0.07845794
-0.03636440
-0.02600918
0.28693023
-0.12583850
-0.01909178
0.28566039
-0.04688299
-0.01075294
0.01707566
0.02522910
-0.05872630
-0.10247778
-0.10920020
0.12650430
-0.04098065
-0.06774675
0.06317192
0.10677465
-0.11567629
-0.03697063
-0.03806002
0.17459606
-0.27729863
0.06304712
-0.04060199
0.12598799
-0.07000109
-0.05420208
-0.02630616
0.01363580
-0.00161976
-0.04428289
-0.22699004
0.10662510
0.02521816
-0.01558042
