0.01754025
0.12263350
-0.05733554
0.06844623
0.00879776
0.00132663
-0.05185378
0.02097049
-0.03401949
0.04085216
0.02326243
0.00634890
0.08662320
-0.19657265
0.04018374
0.07303287
0.01268408
-0.10108279
0.03136007
-0.10253347
-0.17752707
-0.02204787
-0.02024783
-0.11359654
-0.04035124
-0.04146458
-0.15698850
0.06671679
0.01471088
0.05747340
0.08703683
-0.15590592
0.06619310
0.00174824
0.03978043
0.12781906
0.11984260
-0.07732108
-0.03758267
-0.01179372
-0.03936474
0.01358266
0.01281744
-0.04271658
0.08106197
-0.12161405
-0.00652471
0.02652844
0.03357564
-0.00771879
0.05572977
-0.01302600
0.02969815
0.05053952
0.11022846
-0.10374437
-0.13030232
-0.06751923
-0.03662106
-0.01198149
0.10853745
0.15355493
-0.03713321
-0.00486259
-0.03043202
-0.07728717
-0.04630449
-0.07505898
-0.11740512
-0.04053978
-0.02333833
0.09003485
-0.00150791
-0.15663837
0.00157672
-0.11738370
0.04553261
-0.14137442
0.00564034
-0.11594238
0.03722614
0.03949067
-0.00189930
-0.03749859
-0.02778065
-0.08253447
0.12223356
-0.12624598
-0.02896547
-0.00342572
-0.05169072
0.00455793
-0.10425714
0.09365063
0.01961823
-0.03247249
0.13806981
0.16596699
0.08812875
-0.05896448
-0.08252295
-0.01669931
-0.07962369
0.16308250
0.04062692
-0.41689578
0.00928946
-0.00270274
-0.06544066
-0.08148883
-0.00498172
-0.02675647
0.11009298
0.10084939
0.03637792
0.08259664
-0.11058778
0.05725765
-0.01930635
-0.15808824
-0.15641165
0.05119953
-0.00794452
0.11922469
0.18416724
0.04508850
0.18617305
-0.08340430
0.06640562
0.26714587
0.03695237
-0.00599309
0.27987045
-0.05638168
0.07697412
0.00169414
-0.02964220
-0.07021437
0.04247133
-0.02823858
0.01658080
-0.05420644
-0.06534766
0.14619416
-0.10648428
0.02769275
0.05644779
0.09572012
-0.07545693
-0.01048650
-0.04685583
0.07421094
-0.08538014
-0.02990072
0.08435405
-0.01294625
0.01592179
-0.10775182
0.03696103
-0.03998802
0.08765222
-0.00921120
0.14366360
0.03462945
-0.02260810
-0.04822470
0.00933105
-0.05089000
0.41301373
0.01257909
0.09349164
0.15349272
0.00233990
0.00572797
-0.00956944
0.13859873
0.08689391
-0.01251609
0.09389415
-0.17093705
0.00595757
0.01958029
0.06378710
-0.02108360
-0.03202117
0.17562175
0.06138198
-0.01655208
-0.14442545
-0.12238473
-0.14350645
0.03674829
0.04555436
-0.03453654
0.12425222
0.07069214
-0.06197272
-0.07143680
-0.17701884
0.14289993
0.07577731
-0.06864370
-0.27663302
-0.03268786
-0.02369657
-0.09354738
-0.03713388
-0.00180898
0.00558382
0.12802079
-0.02612248
-0.01340320
-0.04162909
-0.09205201
0.04219709
0.26518875
-0.01898448
0.01223624
-0.24167608
0.06780861
0.06649818
-0.06572060
-0.01787855
-0.02027251
-0.01440499
-0.12652017
-0.14723402
0.21592085
-0.10440682
-0.05890818
0.01618053
-0.00940367
0.04635955
-0.04226740
0.04140472
-0.06130719
-0.25998622
-0.10078186
-0.03715596
-0.11395093
-0.17865755
0.07005360
0.10307863
0.14681661
-0.01043115
-0.21751221
0.00638663
-0.06299129
0.02937785
0.14702909
0.03931500
0.05149027
-0.00799741
0.01955766
0.00921441
-0.11120518
-0.00954097
0.12889390
0.02923630
0.05343607
0.00371089
0.00462816
0.03155859
-0.00016299
-0.01307220
0.03193339
-0.05571549
0.00838795
-0.05403640
0.01598849
0.00580838
0.03401138
-0.04636396
0.09675065
0.04684583
-0.07672817
0.06027910
0.13784738
0.08459485
0.16494125
-0.11012068
-0.03796141
-0.01058034
0.21604277
0.01990723
0.01563971
-0.07648420
-0.01565249
0.01439932
0.07434277
-0.00370003
0.12529120
0.08731339
-0.05144176
-0.02140090
-0.07328905
-0.12674831
0.04627144
0.02602008
0.00481831
0.00849695
0.09214139
0.12271434
0.06646964
0.00720814
-0.07366014
-0.02292604
-0.03226521
0.14358649
-0.01729675
0.12398352
-0.14041641
-0.02400621
0.01345145
-0.08816139
0.20680006
-0.02662701
-0.02537929
0.00507949
0.22738609
0.05637472
0.11134674
0.05151825
-0.03124807
-0.04744979
-0.11646426
0.03142521
-0.06505658
-0.07475246
-0.06473760
0.10592998
-0.37487137
0.06616741
-0.04797629
0.02838222
-0.09031446
-0.12378173
0.01704921
0.02325615
0.00504682
-0.08791048
-0.04024490
-0.13961589
0.03686887
-0.08114225
-0.23914842
-0.05145310
-0.03589377
0.04142561
-0.06881642
0.01253226
-0.00787719
-0.04853950
-0.12424351
0.05806817
0.00473961
0.02265541
-0.06126685
-0.01348894
0.04984634
-0.09137226
0.06576499
0.02636821
-0.04001315
-0.06251601
-0.00528196
-0.25408906
0.01502917
-0.04698124
0.14631726
-0.15723391
0.13325158
-0.00935972
0.02178813
-0.06375817
0.03576225
0.01084315
0.10662302
0.11277223
0.08674284
0.06745750
-0.00415509
-0.05676394
0.03948954
0.01409756
0.02066537
-0.03740004
-0.02459640
-0.11556299
0.01421584
-0.09222669
-0.09523844
0.05038517
-0.04537655
-0.04454208
-0.00571039
-0.10549349
-0.08871572
0.06660115
-0.01556698
0.09228184
0.04858590
-0.01359863
0.06335922
-0.02327583
-0.00103279
0.01271927
-0.10459424
-0.02022671
-0.01772247
0.01089386
-0.04705023
-0.03166641
0.08464250
-0.05531249
-0.02692967
0.12874429
0.07269450
-0.05184154
0.11261509
0.13291083
0.13639586
0.05733183
0.13012582
0.21534024
-0.00461764
-0.13917370
-0.04614096
-0.03375493
-0.18499410
0.11943141
0.08950827
-0.08714207
-0.08830591
-0.01164840
-0.10177122
0.05212091
0.09931317
-0.00190706
-0.10229877
0.09750052
-0.03452817
0.02621825
-0.06016958
0.01839574
-0.00844523
-0.03453152
-0.12765588
0.17590173
-0.09270813
-0.04000327
-0.01444157
0.08424088
0.00163752
-0.00538220
0.02027063
0.03061219
0.04451728
-0.03895511
0.09817342
0.09895480
0.17270248
-0.04146066
-0.05123006
0.01619005
-0.05397751
0.04261421
-0.03089392
-0.16735311
0.10061083
-0.01182409
-0.00425226
-0.10523690
-0.00226675
-0.01865434
-0.03513477
-0.01490169
-0.12247864
0.02206439
0.05531758
0.05020687
-0.09538421
0.00379610
-0.11238866
0.05989150
0.01885984
-0.16527633
-0.03755559
-0.05739601
0.03532624
0.03080973
0.03860895
-0.28027144
-0.00774941
-0.05080196
-0.10761819
0.07760252
0.03870340
-0.00080226
0.00990483
0.02570831
0.03694938
-0.01408145
-0.06411624
0.22805095
0.00132020
-0.00803635
0.08469948
-0.11765853
-0.04419634
0.08968448
0.05269783
0.06240313
-0.03837037
-0.06759822
-0.05129155
-0.05659227
-0.03189285
0.08175679
-0.06359621
0.09566807
0.01254440
0.00747001
0.26079264
-0.14995323
0.12194391
-0.18278441
-0.03364889
-0.04529301
0.24959400
-0.03870475
0.06076945
-0.00948114
-0.07909591
-0.11953198
0.00402581
-0.03238320
0.03274214
0.05934932
-0.09555937
-0.12545574
0.00864737
0.01028531
-0.00552867
-0.02006709
-0.01382183
0.05579502
-0.00933593
0.09815371
-0.01912071
-0.03996292
0.13732238
-0.03886755
0.04563064
-0.08878956
-0.02992511
-0.10315460
0.02220607
-0.03362215
-0.01010991
0.03376436
-0.08569796
0.00077736
0.07223215
0.08000820
-0.07910680
0.08883128
0.07205793
-0.00744855
0.02483039
0.18661162
0.04230063
-0.01928912
-0.27951455
-0.05602194
-0.04358756
0.04492624
-0.26953062
0.01383964
0.07633462
-0.03671039
0.07566639
-0.01429600
-0.02094912
0.07233036
0.00283934
0.05215383
0.04821994
-0.00723355
0.16562849
0.13243650
0.05676563
0.00398528
0.05308355
-0.07103594
-0.11629322
-0.03712597
0.00841017
-0.04813865
-0.10900486
-0.07989410
0.03880976
0.03518807
0.04936369
0.02405417
-0.01930250
-0.05729781
0.15188393
0.01044222
0.00181372
-0.00409175
0.17097118
0.03002333
-0.15991698
0.09752417
-0.04848860
-0.00155570
-0.09295210
0.01304110
-0.06205516
0.09615954
0.08815356
-0.03031273
-0.02916232
-0.11136857
0.00124000
0.04786401
-0.19845389
0.13380663
0.11421575
0.03206415
-0.29416090
0.01785264
-0.00422833
-0.05959558
-0.01836828
-0.05584562
0.15918609
-0.16121215
0.10095955
-0.06807803
-0.07350634
-0.04016705
-0.07221163
0.07769028
0.11626528
0.03109075
-0.09414642
0.14352514
0.05717261
0.00269463
-0.05381129
-0.00843930
0.08015512
-0.29389957
-0.11232933
0.06291094
0.01046716
0.04655093
0.06568641
-0.07725351
-0.04648521
-0.00921047
0.02996550
-0.01200109
0.11094207
-0.01091719
-0.02344023
-0.04774515
0.05903037
-0.07946720
0.04562727
-0.00395554
-0.05720383
0.04224186
-0.07631384
0.05798700
0.08241212
0.04841309
0.09958929
0.00041983
0.00588618
0.09269229
0.04179638
0.02284403
0.13542432
-0.05240401
-0.08560742
-0.06499042
-0.02103855
-0.00909569
-0.03086443
0.05307204
0.05940680
0.06525096
-0.13285904
0.10396995
-0.04297640
-0.05726832
-0.12191840
0.01084217
0.03631122
0.01042880
0.03435214
-0.05710577
-0.05952911
-0.14799535
-0.10790398
0.00192811
0.00306459
0.28356770
0.01249575
-0.01470879
0.01713301
0.08013831
0.11837978
0.02596989
-0.13211049
-0.03116361
-0.15267503
0.00540192
0.02992609
-0.02037001
-0.06539269
0.00255953
-0.00415537
-0.05299361
-0.01262951
0.23231959
-0.06931822
-0.02497089
0.04439897
0.02148241
0.10027406
0.02031813
-0.05790534
-0.05750994
0.07604678
0.00313901
0.10119973
0.09282178
-0.02525208
0.05653621
0.07063620
-0.00116674
-0.08577344
-0.07005591
-0.06870896
0.00929016
-0.02109380
0.01637861
-0.05318843
-0.20993866
0.09952222
-0.05336921
0.03807766
0.04192861
0.03616263
0.08455079
0.07406791
-0.04985742
0.11627363
-0.00031187
-0.05778304
0.01850815
-0.08181024
0.09590804
0.00853199
