0.14908090
0.12386955
-0.19382021
-0.26515856
0.32723007
-0.26682803
0.24729554
0.06149056
-0.07344853
0.02149164
0.01267546
0.30995226
-0.26778433
0.40405244
-0.03464144
0.03957105
-0.16680293
-0.12975904
-0.13566244
0.42645249
0.39993402
-0.37808889
0.17935809
0.22312637
-0.11832156
0.22210629
0.21237125
-0.18153469
-0.23391803
0.06984878
-0.09208707
0.13828579
0.16264558
-0.19472770
0.00046062
-0.10237131
-0.22683464
0.29074371
0.28177673
-0.36748353
-0.05287905
-0.30600455
-0.05943105
0.23933291
-0.04361985
-0.06252762
-0.15611425
-0.11906351
0.12894122
-0.07088339
-0.29995069
0.09922981
0.23311022
-0.28561026
0.00834324
-0.14151902
0.04569753
-0.35179314
0.10764875
-0.19651270
-0.18129069
0.00852861
-0.47774276
-0.27280903
-0.02486389
0.13101965
0.08673501
-0.03256670
0.08995707
-0.12802117
-0.14076445
0.00869963
-0.19639073
-0.14970285
0.20500818
0.00990628
0.01410459
0.24861464
0.03096553
0.18979277
-0.07718837
-0.05543465
0.05663376
0.27113688
0.04461893
0.06145122
-0.22658396
0.23620282
0.09038998
0.04190223
0.01712827
-0.13278741
0.67356008
-0.24921145
0.09923144
-0.01565686
0.32357439
-0.22846201
-0.05136809
-0.07176695
0.04280236
0.14499694
-0.04578668
-0.18873763
0.16547948
0.34195575
-0.10741489
-0.02914225
0.11800069
0.21754274
-0.05750953
0.04177475
-0.29145771
-0.37388158
-0.14621784
-0.04232987
0.07205941
0.02579354
-0.16783248
0.25269920
-0.10749751
-0.58916771
-0.16664211
0.05571263
-0.10991129
-0.12644181
-0.06491912
0.12672810
-0.00748347
-0.24770461
0.13205321
0.11670711
-0.04267983
-0.05389104
-0.17239134
-0.30079427
-0.06975017
-0.03741935
-0.20132017
-0.25913969
-0.00491174
0.08948565
0.01871235
0.03011205
0.01447293
-0.90343678
-0.06011001
-0.10303025
-0.05396759
0.28271765
-0.01992940
0.10962411
-0.12144038
0.07946490
0.09044481
-0.17963177
0.18165171
0.36239520
0.17089777
-0.01404056
0.01918414
0.00757987
-0.14421904
0.05424345
0.05020581
0.23258875
0.12299464
-0.19728024
-0.77247888
-0.04364204
-0.14282674
0.10637529
0.07325964
0.37031963
0.09344104
0.46839741
0.04973439
0.00496810
-0.15052682
0.08105143
-0.07236922
-0.00433973
-0.04983355
0.35236445
0.21686225
-0.11803827
0.31860822
0.14512637
0.22797142
-0.00363513
-0.08218222
-0.46216914
0.20373210
-0.05365156
-0.02050039
0.10104152
0.03108074
0.20516089
-0.08095491
-0.09007342
-0.17378779
0.13865872
0.18480498
0.08322202
-0.08121715
0.16175890
0.12297537
-0.01357149
0.08016647
-0.03000149
0.07308292
-0.18209232
0.16284548
0.23462662
-0.00142275
-0.32270774
-0.16258898
-0.06537008
0.30020815
-0.02040249
-0.01561345
0.20377693
0.11529751
-0.04250173
0.00114022
0.17405915
0.15371957
-0.09374087
0.07514239
-0.04673399
0.12180647
-0.05295333
0.11573412
0.00754467
-0.00540730
0.15249598
0.05558981
0.13327825
-0.01329873
-0.08251532
0.03526844
-0.10056421
-0.07093190
-0.05125053
-0.10646101
0.00999778
-0.27320838
0.08397292
-0.13280047
-0.44827771
0.04661109
0.26252314
-0.08080836
-0.06877896
-0.07104493
-0.08160405
-0.27690461
-0.11386295
0.07990089
0.01815718
0.17550538
-0.21506745
0.18738516
-0.01922976
0.20729157
0.10183505
-0.06929258
0.03865486
0.12809858
0.01173762
0.02532364
0.02877172
0.02881023
-0.09899727
-0.16961823
0.15130810
-0.11425086
-0.21760018
-0.04513768
-0.27204314
0.28565705
0.15509665
0.07077046
-0.22723380
-0.13153297
-0.00596331
0.10761972
0.29012901
0.15142868
-0.03591563
0.06329676
0.06600799
-0.21061279
0.01962790
0.22969671
0.07017080
0.00004188
0.36176184
-0.05216098
-0.11936443
-0.08678307
-0.05447107
-0.06690755
0.03110517
0.29387587
0.26488885
-0.23535258
-0.15411651
-2.01845574
-0.14088665
-0.03357669
0.16252910
0.06745441
-0.18524258
0.02989254
-0.18568973
-0.03903352
-0.07365005
-0.03048985
-0.03575076
0.01402290
-0.07191413
0.08359396
-0.11020812
-0.02092412
0.17563750
-0.03742760
-0.05480088
-0.08987748
0.05271715
-0.04320405
-0.10024910
-0.09828809
0.19748887
-0.12204643
0.02731012
0.00973159
-0.08424883
-0.00039363
0.06287581
-0.06099879
0.08641627
0.06486356
-0.08482855
-0.06252687
0.51020074
-0.06535953
-0.19927001
-0.12726641
-0.19249547
-0.02550410
0.18653242
-0.08900211
-0.12348973
-0.04275216
-0.07135104
-0.07415043
0.07401679
-0.24353842
0.05051339
0.08191964
-0.10627545
-0.12754180
0.01929515
0.10775397
-0.10230037
-0.00513747
0.05568340
-0.12699461
-0.07795692
-0.10604717
-0.07957505
0.09790097
-0.01246173
-0.21976127
-0.01756880
-0.02725833
-0.04788725
-0.23732756
-0.02226939
-0.02175339
-0.21151944
0.19605714
-0.23574446
-0.06468097
-0.00626886
-0.20780823
0.19940963
0.10168502
-0.23552327
0.01005207
0.03039083
0.16760443
0.01907937
0.18226337
-0.05928002
-0.07492286
-0.10551545
-0.03629662
0.04347658
-0.04528501
-0.14976133
0.01256954
-0.14570034
-0.05575275
-0.38615742
0.18542136
-0.01058755
0.07304019
-0.09139860
-0.28766984
-0.20149127
-0.01518994
-0.01098813
-0.09787060
0.13675120
0.00503108
-0.06698278
0.13030842
-0.10676014
-0.10307952
-0.34423849
0.10380187
-0.20770727
-0.24391237
0.11163157
-0.00168064
-0.15775645
-0.16871995
0.01110889
-0.01013046
-0.11654657
-0.10476897
0.03781513
0.11231469
0.20839901
-0.30999097
-0.11691459
-0.11297447
-0.16701853
0.05309164
0.05443995
0.08304060
-0.30208430
0.01402735
-0.04024250
-0.30689698
0.09099620
-0.10908899
-0.24868158
-0.02189016
0.01847602
0.20135206
-0.35365278
0.15859915
-0.05019151
-0.09207485
0.07905246
-0.02276639
-0.15633999
-0.02715725
-0.31175482
0.04640526
0.29467291
0.12873708
-0.23297130
-0.17375155
0.02624666
0.15768880
0.04089670
0.08511581
-0.23571844
-0.04367566
-0.06111278
-0.01297806
0.00433711
-0.08275715
-0.01366115
-0.17325990
-0.09586068
-0.02587020
0.09955158
-0.08861918
0.01660310
-0.17565094
0.00613475
0.19212028
0.16927856
-0.30246651
-0.07308713
-0.05580588
-0.10246243
0.24454702
-0.10663477
-0.14905995
0.01743883
-0.59003001
0.07538821
-0.13651082
0.00812556
-0.02157679
0.02864382
0.03120814
0.02134619
-0.15258683
-0.14292231
-0.10508286
-0.03057620
-0.10962820
0.01345879
-0.01071274
-0.12893231
0.06732141
-0.01436373
-0.24257222
0.24263415
-0.19213407
0.18521835
-0.26676765
0.14724712
-0.15644801
0.10884201
0.19280165
-0.18106902
-0.09503008
-0.05122874
0.11341745
0.01757673
0.10675535
0.03209423
-0.20287657
-0.13674307
0.06284939
-0.02101123
0.02917742
-0.01708594
-0.09839585
0.10205140
-0.01973051
-0.16746055
0.10425309
-0.15721905
-0.10945390
0.05651513
-0.07329963
-0.61231685
-0.18453839
-0.22979610
0.08543469
0.17076682
-0.08855272
-0.29190788
0.07550022
0.09526348
0.21858764
-0.12138112
0.12861322
0.15085372
0.14100945
-0.05571961
-0.12265582
-0.10041353
-0.12752554
-0.08483136
-0.05652939
0.02110053
0.05847831
-0.19348265
-0.01685768
-0.03577053
0.05057386
-0.01827292
0.03363589
0.12767233
0.03392622
0.04059378
-0.10905822
0.10633926
0.12692410
0.03407925
-0.13775845
-0.08233949
0.10152986
0.01094065
0.03751940
0.10497200
0.39405885
-0.06254902
-0.09286482
-0.09731649
-0.01767780
-0.21787895
-0.01364027
-0.08483426
0.19414097
-0.01405290
0.11295447
0.01645415
0.13462088
0.10232576
0.12413016
0.04528023
-0.16306660
0.07018116
0.04406957
0.08368187
0.04064761
0.15754966
-0.02135148
-0.08936339
-0.13259992
-0.06582039
0.03925152
0.02924799
-0.11381217
0.04797197
-0.01235112
-0.04698035
0.03695389
0.08514339
0.02389720
-0.15197563
-0.04888796
-0.11015423
-0.07534090
0.07837822
0.28217164
-0.11962882
-0.01361643
-0.08968085
0.03798176
0.23843150
-0.15550789
0.18208458
0.28728020
0.01803432
0.08641916
0.01138480
0.07231184
0.23695102
-0.21529883
0.12827788
0.05234408
0.05755372
-0.02292428
-0.10375099
0.00236618
-0.10316157
-0.03593115
0.25473005
-0.05297840
0.03291885
0.01888037
0.19944137
-0.16244170
-0.03033235
-0.11299010
-0.11067536
0.00722870
-0.13550286
0.01557727
-0.07968947
0.07580030
-0.11706456
0.03191671
-0.10667651
0.00778093
-0.04689381
0.06366167
-0.09957922
-0.01950591
0.18548450
-0.07409130
-0.17412886
0.06341989
-0.09202935
0.25220245
0.05650491
0.10384460
-0.11955440
0.11596256
-0.08445545
0.23553666
-0.15993808
-0.01127994
-0.21256255
0.20120572
-0.11597177
-0.14829306
-0.00421315
-0.01971387
0.13074808
0.06951278
0.08524373
-0.14833410
0.23103708
-0.21775049
-0.09448164
0.06128173
-0.23996115
0.11155261
-0.01776282
-0.18717973
-0.03882470
0.00607800
0.06698363
0.31552315
0.19603027
0.05220919
-0.00913389
-0.14536805
0.10152469
0.05460760
0.09940232
-0.23386993
0.04038763
0.00884444
0.19417991
0.11585488
0.13870566
-0.13352694
-0.20897241
0.00143755
-0.10050928
0.11219494
-0.02152579
-0.03248389
0.03037833
-0.22317234
0.09587687
-0.27256140
0.14125174
0.09317441
0.11129976
0.21801266
0.04220118
0.23710775
-0.04916988
-0.15893352
-0.10374516
-0.16156855
0.01201101
0.08985457
-0.16743532
0.05967196
0.12637740
-0.07250781
-0.16503096
0.10823156
-0.00962122
-0.03092808
-0.19600424
-0.06531366
0.08646484
-0.10105791
0.04469813
-0.46216568
0.17706113
-0.11506020
-0.02077670
0.02329461
0.15582140
0.03559970
-0.25429028
-0.04413957
-0.00425005
-0.10922385
-0.00815355
