0.11832538
-0.00886593
-0.03197268
-0.03481689
-0.05155623
0.08359679
-0.02017897
-0.02448861
-0.07859660
-0.01379044
-0.03468432
0.02088526
-0.11004643
-0.04032649
-0.00777332
0.14109428
-0.03945072
-0.04107766
-0.05442957
0.02916498
-0.00921009
-0.11259891
-0.19389401
0.09514927
-0.10878065
-0.03657440
0.00667034
0.01753253
0.19039853
0.04039061
-0.04757271
-0.00815961
-0.00872812
0.10418606
-0.00397944
-0.06349698
-0.00156116
-0.06741406
-0.08724556
-0.07893176
0.06640740
0.06124919
0.04462151
-0.01640930
0.16516538
-0.02991859
-0.19959104
0.04157444
0.07152401
0.00769419
-0.09405670
0.08710998
-0.07223433
-0.09147536
-0.07446533
-0.00102621
0.01153346
0.07101861
-0.00479648
-0.01921352
-0.01356968
-0.01469674
-0.09182246
-0.17064497
0.06107644
0.06020505
0.06060455
0.10597444
-0.03515756
0.08550918
0.08154924
-0.10033803
-0.05338214
0.09424009
0.02306040
0.06072034
-0.03731146
-0.04866312
0.13928036
0.24359596
0.07780785
-0.00903316
-0.00072215
-0.20524277
0.11260273
0.00014136
-0.09244709
0.12347782
-0.06841658
-0.05175429
0.10884984
0.11847660
0.01932607
-0.00018189
0.10109862
-0.05553813
-0.04993798
-0.09068216
-0.11420146
-0.12351289
0.00845288
0.05291694
0.08148985
0.14074153
-0.02454207
-0.12060450
-0.07031688
0.04386880
-0.01941372
-0.07143506
0.01724509
0.12547547
-0.11604531
0.02461584
0.02993680
0.02855258
0.00325514
0.08767903
0.11951635
0.03599502
0.04729317
-0.01674117
-0.05377705
-0.11644668
0.18615547
-0.02361521
0.05691331
-0.06521408
