0.07723890,0.03072636,0.01078834,-0.01765881,-0.18761279,-0.17259315,0.05425442,0.03879457,0.16451517,-0.11562403,0.01544907,0.05811967,-0.02307395,0.12162787,0.23637961,0.05376652,-0.02764805,-0.06547015,-0.14246897,-0.19024594,0.08498415,0.03914412,0.11058562,-0.01173849,0.02320177,-0.00042133,0.07468880,0.05525374,0.11400630,-0.18436866,0.03635908,0.19708338,-0.07323825,0.13783836,-0.12569243,0.18062565,0.10466679,0.04850503,0.05499595,-0.10239198,-0.07836890,0.01764865,0.02576839,-0.30276689,-0.03086867,0.12123508,-0.09534352,-0.01895910,-0.16262890,-0.01827628,0.01666426,-0.03086643,-0.08051223,0.07486666,0.00761289,0.03796337,-0.03605237,0.01881152,0.04991388,0.00176032,0.02494789,0.04200550,0.03991055,-0.05686406,-0.02865553,-0.07746533,0.02861884,-0.03129672,0.04084235,0.03293938,0.05693183,0.12127373,-0.02342175,0.02978689,0.11957641,-0.13451216,-0.06901582,0.01759860,-0.00817364,0.07689728,0.01058793,0.04457507,0.06378868,0.09944849,0.01809048,0.13626990,0.06821153,-0.00504292,-0.12686367,-0.12180949,0.00621033,0.04526265,0.00735323,-0.02360268,0.08356527,0.04617119,-0.02155439,-0.05519739,0.04916201,-0.10798444,0.02667323,-0.11738244,0.15327264,0.02019116,0.03669107,0.01749252,0.08443529,-0.08728811,0.04454731,-0.19570638,0.14276409,-0.03430007,-0.06411701,-0.11829928,-0.00558938,0.08824073,0.04134510,-0.14423534,-0.18318444,-0.02830501,-0.04057604,-0.13732269,0.13384286,-0.00490771,0.11072350,-0.03632261,-0.08718237,0.06179058,0.01489296,-0.06359544,-0.05084034,-0.08874923,-0.02406337,0.10590427,0.01255614,0.00707183,-0.02254826,-0.01705183,-0.00520089,-0.28327546,-0.16101773,0.16167958,0.12486485,-0.06210146,-0.02263264,-0.16752897,0.01402009,-0.00092140,-0.11199354,-0.09753910,-0.05851911,0.18111935,0.05782330,0.10769981,0.03965848,0.12733656,-0.04433742,-0.02169419,-0.05903608,0.11174023,-0.06422034,-0.02674143,-0.00049750,-0.02759498,-0.11382787,0.04877372,-0.02236707,-0.12589766,-0.07455689,-0.20396301,-0.00796740,0.04271884,-0.14822838,0.05390345,0.01695671,-0.03138225,-0.05088419,0.00975411,0.03333182,-0.05120915,-0.04212699,-0.14484452,0.02057537,0.09513779,-0.01419993,0.02799189,-0.00573434,0.07210241,0.06040758,-0.07236373,0.02379209,0.00527794,0.05049019,0.08307897,0.13129637,-0.00209839,0.16474862,0.26382521,-0.01546712,0.06888835,0.13013005,0.09697855,0.10154578,-0.00456367,0.00066684,0.07298592,-0.04992320,0.03496312,0.13447870,0.08436430,0.02457686,-0.09609402,0.00480572,0.03248669,0.00905212,-0.12260474,0.00373691,-0.00446393,-0.03847099,0.01169000,-0.12107443,0.02274474,-0.12595083,0.03537054,0.06646844,-0.05504250,0.04951935,-0.02688523,0.08976828,0.03163175,0.03736848,-0.05069379,-0.00521384,0.01956426,-0.12463158,-0.12887751,-0.09470539,-0.06976856,-0.12487356,-0.10103697,-0.29467222,-0.04946231,-0.08111162,-0.01706303,0.02261993,-0.07293818,-0.17892180,0.07967497,0.00614712,-0.13307543,0.04346841,0.09588814,0.15878028,-0.09168664,-0.01401187,-0.04933959,-0.23252609,-0.08747584,-0.08139047,0.10467660,-0.08114942,0.07715695,-0.02456518,0.05300992,-0.04193509,-0.00213184,-0.00804344,0.04310666,0.08332321,0.07122072,-0.00882019,0.08461603,0.06372458,-0.12648676,-0.12095562,-0.14589506,-0.00265475,0.08983087,0.01682477,-0.11759911,-0.11697478,0.09836999,-0.04442234,0.10807831,0.24426983,-0.07083442,0.10521391,-0.04467739,0.07194722,-0.03620288,-0.00132219,-0.10845057,-0.00264607,0.17377344,0.02835573,-0.04129047,0.12374633,0.10686115,-0.06919902,-0.04989243,0.02574775,0.05871123,0.03560260,0.08179174,0.01863951,-0.03648090,0.04501960,0.02369237,0.02879744,0.03374105,0.00191487,0.01507280,0.09834021,0.14718878,-0.07559563,0.02842513,0.05379207,0.05769461,-0.11361909,0.10231287,-0.04264568,0.10559568,0.05764667,0.07912422,-0.02462578,0.03063961,0.05028914,0.00295712,0.04910009,-0.01047743,-0.06427053,-0.12366695,-0.00392385,-0.11244330,0.11939409,-0.11045791,0.04351972,0.11772913,0.01031997,0.03820856,0.03408099,-0.02574111,0.12320884,-0.09434317,0.08159751,-0.12738672,-0.03261858,-0.04172326,-0.10476679,-0.08579333,-0.04437293,-0.04123585,-0.00297223,-0.13063587,0.01311314,0.01637735,0.19965477,-0.09324633,-0.13151644,0.21622638,-0.02976707,-0.11849063,0.01796980,-0.04008058,-0.06188460,-0.06653858,-0.05863127,0.09234974,-0.09915239,0.09771287,0.01621833,0.03503853,-0.03296960,-0.09649034,0.01391409,0.18905610,0.09731794,0.09640857,0.27673757,0.06413314,-0.16138759,0.00167382,0.14234859,-0.04572215,-0.06378357,0.10613701,-0.05254440,0.06675585,0.10579875,0.03841424,0.04974668,-0.00487493,-0.05737394,0.21544465,0.01095446,0.06731456,0.02375398,-0.02744880,-0.03143284,0.11548248,-0.12067080,0.00463388,0.01342801,-0.04459273,-0.09933870,-0.18839516,0.08728556,-0.02665130,0.05220551,-0.11221179,-0.10462297,0.13864876,-0.01123382,-0.00986668,0.01981870,-0.05073759,-0.21539491,-0.02613856,-0.16366737,0.05083035,0.01029455,-0.15332802,-0.05049048,-0.12261444,0.04231102,0.00225578,-0.11033355,0.04476162,-0.08129435,-0.06059005,0.01029165,0.12477854,-0.04145050,-0.21758401,-0.03986357,0.08093844,0.04228634,0.09478592,-0.08710929,0.07510410,0.08810069,0.01646359,0.03921048,0.01961115,-0.06152007,-0.14142710,-0.10305906,0.00849585,0.14143263,-0.01519215,-0.11973599,0.01371157,-0.03828531,0.12089745,0.05273591,0.00855956,-0.17170982,0.11281697,0.12287769,0.25922740,0.29093066,-0.09720922,0.06110859,0.02809066,0.12640150,0.04024723,0.02950462,0.05508491,-0.07377764,-0.11146004,0.01091062,-0.06317696,-0.07256656,-0.17592157,0.00760103,0.17268527,0.15791087,-0.02659923,-0.00519779,-0.02883533,-0.04859685,-0.08126324,0.04777772,-0.13467063,0.07520244,-0.06340402,0.03370655,-0.03463399,0.05160096,0.04585904,-0.08922990,0.08553556,0.09846631,-0.06092986,0.07311319,-0.08252395,0.05647923,-0.02049221,-0.00073130,-0.04107663,0.04939623,-0.04671603,-0.10431084,0.28758940,-0.08647099,-0.12596467,-0.02429315,0.08136937,-0.05740000,0.15517779,-0.03991450,0.08108387
0.01374169,-0.05051906,0.03173332,-0.19036935,-0.01097173,0.08990467,-0.01564160,-0.03514324,-0.08004157,-0.09651539,-0.11400823,0.04324813,0.13243373,0.10522239,0.05086837,-0.03475347,0.04618742,-0.07044230,0.07914664,0.19269653,0.07481618,-0.00267552,0.00267114,0.07086198,-0.03522356,0.03076792,0.09161083,0.02734063,0.01788828,0.03440969,0.09085486,-0.04914256,-0.06576186,-0.10567633,-0.11188861,0.07265077,-0.00730145,-0.10025050,0.11274568,0.07600462,-0.02248694,-0.06548129,0.05254279,-0.19197190,0.14143418,-0.06429748,0.02354424,0.10433741,0.11601826,-0.03487623,0.05616002,-0.13381912,-0.01001089,0.05036416,-0.05568964,0.01697377,0.10577750,-0.05001654,0.12683243,0.02407099,0.10139107,-0.09864632,-0.10688230,0.05804693,-0.02308608,0.06575584,-0.03089611,-0.00561056,0.00828597,0.01800478,-0.03994098,-0.10001117,-0.03144432,0.11097527,0.04543756,-0.08869182,-0.05024061,-0.01554330,-0.02564682,-0.00551840,0.02265949,-0.02335682,0.01118476,-0.03229566,-0.00200322,-0.07432035,-0.12540632,0.08800378,0.07015779,-0.17123805,0.07368059,0.01518850,-0.03826348,0.04357792,0.04495072,0.05961618,-0.23677886,0.00750237,-0.03905067,0.04917496,0.02019165,-0.02555666,-0.02732747,0.03531609,0.05015718,0.04421398,-0.01105136,-0.02509695,0.08301710,0.03991104,0.00305756,-0.14528817,-0.12983020,-0.02978544,-0.08010702,-0.34933248,-0.00677532,0.10059334,-0.14077933,-0.10558437,0.03205748,0.01758527,-0.04008594,0.02246088,0.11160141,-0.11334962,-0.01228591,0.01009382,-0.16187058,0.01562238,-0.06217207,0.02213327,0.08856612,-0.07579108,0.06996837,-0.07476394,0.15223601,0.01692437,0.00464034,0.19477865,-0.16566834,0.02988416,-0.04357560,0.05045196,0.00134873,0.12525964,0.01444093,0.05403063,0.16724150,-0.02802472,0.12366310,0.12413970,0.05449727,-0.04628192,0.05285195,-0.03769376,-0.19978215,0.09184897,0.07501128,-0.00668077,0.12844270,0.06034618,-0.07785328,-0.15285605,0.12464713,-0.08046175,0.14615595,0.02823252,0.02055361,0.05698809,-0.09544539,0.02178515,0.05783883,-0.03702441,-0.08681037,-0.04732751,-0.03525899,-0.06319688,0.01349650,-0.01401731,-0.04555135,-0.05951547,-0.02198867,-0.09425655,-0.00990603,-0.11624612,-0.03214974,0.03619717,-0.09250398,-0.02170867,-0.03525018,0.10465522,-0.02644448,-0.06822396,0.02466108,0.05068470,-0.09299079,0.00281425,-0.00613404,0.07529944,-0.04376118,0.10207701,-0.02907659,0.01523281,0.07589813,-0.16513661,-0.09215056,-0.10421669,0.08728223,0.06609865,-0.04908507,-0.06059230,0.10132173,-0.10124099,-0.02574660,-0.03399345,-0.02112371,-0.15702362,0.10747109,0.06811113,-0.07700998,0.04491616,0.18052544,-0.01467843,0.02852243,-0.03085824,-0.01551168,0.04214357,-0.01160430,-0.01167217,0.05864343,0.00363576,-0.10558109,0.06897371,-0.02198567,-0.17149372,-0.09353603,-0.00309821,-0.01809148,0.14572302,-0.11699438,0.04950815,0.00719525,0.00867018,0.23256177,0.26021063,0.09694576,0.07066080,0.01113859,0.06131550,-0.11622281,-0.07215720,0.02671073,-0.01095481,-0.00984616,0.01935578,0.14646341,-0.08987749,0.04274039,-0.04488350,-0.05131712,-0.13216414,0.03662523,0.05195532,0.05236642,0.01828908,-0.00842701,-0.08417991,0.00423335,-0.04232454,-0.15894890,0.12379392,-0.11381996,-0.03214773,-0.01220230,-0.03668726,-0.02673453,0.06230655,0.14824860,-0.01913996,0.07849942,-0.03616280,-0.03994482,-0.00353787,0.17366585,0.10448430,-0.07775959,0.02673668,0.06078149,0.05050515,0.01068551,0.03937796,-0.08236717,0.13058420,-0.11724085,0.01893104,-0.02927928,0.15242888,0.03307007,-0.05405929,0.00150532,-0.16716391,0.12498634,0.00090097,0.06328296,-0.03334805,0.01422738,-0.01728191,-0.08914785,0.06586227,-0.05262588,0.00085022,-0.01385288,-0.05648498,-0.04249239,-0.07144191,0.04384093,0.22171433,0.15558432,0.05473674,0.04396326,0.06266242,0.03919059,0.19479452,-0.05020124,0.01683909,0.06628069,-0.08164777,-0.16863485,-0.03744274,-0.08202589,0.01614024,0.04510516,-0.17517060,-0.16384652,0.00530084,0.02044819,0.02521704,0.00559916,0.00013308,-0.00015264,0.20922244,0.11347888,-0.09025352,-0.07584937,0.02419226,0.01045672,-0.06436031,0.06024567,0.03538370,-0.01754251,0.04325413,0.01442723,-0.00364741,-0.00785333,0.02241756,0.03530195,0.06499957,0.00503476,-0.04150448,0.05983339,0.06241033,-0.02311560,0.03147884,-0.09193594,0.08198952,-0.15821254,-0.01622853,0.04912932,-0.07249185,-0.09910409,0.18937887,0.02681108,0.11239602,0.05655541,-0.01145381,0.05934080,0.00719172,0.06966349,0.06000965,0.05319284,-0.04389168,0.14521517,-0.01365312,-0.05081750,-0.04775448,0.01788598,0.05519908,0.04440534,0.07608561,0.01489384,0.03875909,-0.01523719,-0.03632740,-0.06229694,-0.03379587,0.03211752,-0.03876559,0.03788672,-0.12067705,-0.09957200,-0.05197063,0.03567242,0.07948605,0.05929767,-0.00814161,-0.08833484,-0.00858002,-0.12339208,-0.08199067,0.21901178,-0.10833252,-0.04506674,-0.03736265,0.06353692,0.04031190,-0.07965676,0.04396469,0.10380978,0.06844459,-0.03744362,-0.07465737,0.11466695,0.00572272,0.05012477,-0.05218106,-0.07180452,0.12205774,-0.04644188,0.11860052,-0.00928140,0.00476244,-0.12004431,0.00271813,0.08059242,-0.01358619,0.07192325,-0.05188325,-0.08801988,0.01791496,0.03060939,0.02157725,0.00089090,-0.01232892,-0.11835174,0.05053166,-0.04834192,-0.01429399,-0.00196562,0.05023376,0.01558521,-0.05717068,-0.02435525,0.00938834,0.04098663,-0.12390576,-0.31371954,0.02759065,-0.03902333,0.03305522,-0.04187822,0.01190140,0.25673348,0.02635375,-0.10419776,-0.00651406,0.03357121,-0.08260860,-0.21267112,-0.01880898,0.10472301,-0.08878038,0.04296840,-0.06324994,0.12947847,-0.04888701,0.12858211,0.07838643,-0.11118746,-0.11672352,-0.01478404,-0.02652784,-0.01750831,0.05481182,-0.13199958,0.00728359,-0.04936798,-0.04568095,-0.15930264,-0.00056134,-0.16818385,0.10038050,-0.03284476,-0.02918189,-0.07054573,0.02414859,0.06888550,-0.10176011,0.08376035,0.05570345,-0.09598938,0.03523165,-0.00586590,-0.38007534,0.04036187,-0.08098047,0.05524579,0.00257427,-0.04999445,0.02313100,-0.01286968,-0.07775395
-0.07719391,-0.04527463,-0.06772620,0.00016835,0.00757558,-0.04660540,0.03675856,0.03886131,0.00453185,0.03078514,-0.01851767,0.05289339,0.07980429,0.00000190,0.11545099,-0.01950146,-0.06229682,-0.00605568,0.02398721,0.06810355,-0.05934110,0.03997596,-0.00337851,0.10737109,0.00963059,-0.01969439,-0.00540744,0.04908262,-0.05131105,0.02629266,0.06286822,0.14473715,-0.10446624,0.10851065,0.00264576,-0.05240440,-0.00463881,-0.02750439,-0.13661200,0.02413310,0.01631994,-0.03513606,0.03631873,0.01242726,-0.05597688,0.03756630,0.01142436,0.07388300,0.14862257,-0.00817472,-0.09169549,-0.04273930,0.04991666,-0.00411934,0.06438086,-0.04482484,0.04546541,-0.16121359,-0.03024576,0.04069022,0.11495368,0.06835056,-0.03152211,0.06176983,-0.00190401,0.13665292,0.14455882,-0.02767576,0.02451336,0.05203068,0.10502400,0.01101810,0.08863872,-0.03581443,0.05560445,-0.00745312,0.03334406,0.03429022,0.04256279,-0.14852218,-0.00976811,0.05802874,0.01393554,0.01095170,-0.06267333,0.04711135,0.02943155,-0.07922770,0.03089498,-0.16940761,0.00398156,0.08623834,-0.02119104,0.02399776,0.08769874,-0.16852351,-0.09554624,0.03728798,0.04243894,-0.02183995,0.00651523,0.17871788,0.03847261,-0.03564781,-0.09439255,-0.00406137,-0.10551194,-0.08423499,-0.07698584,0.02645440,-0.11618424,-0.03978362,0.15695055,-0.04691389,0.05498193,0.21690544,0.03050887,-0.01741809,-0.02191598,0.02527508,-0.07794742,0.00140320,0.11704619,-0.06045340,-0.04395029,0.03775899,-0.04395986,0.04456374,0.07200194,-0.02239379,0.05759850,-0.06425767,0.02235740,0.05082650,0.06968657,-0.01050927,-0.03351745,-0.06833583,-0.02334739,-0.09551273,0.05756076,-0.07345340,-0.06265822,0.07784908,0.06051418,0.01261714,0.03586899,-0.01727766,-0.00183609,-0.13721146,-0.04976046,0.24629639,-0.01467054,0.05154897,0.02619351,-0.00938788,-0.00629650,-0.09427075,-0.06111412,0.03517265,0.04357000,-0.13028240,0.00267244,0.00393905,-0.01484972,0.02615773,-0.01183247,-0.01073924,0.17990176,0.13211140,0.06893963,0.02558279,-0.07425063,0.02083881,0.04415411,-0.00953514,0.01611640,-0.00874987,-0.05422480,-0.00320672,-0.12162642,0.06142296,0.01198547,-0.01260561,0.10580730,0.03198359,-0.00012538,0.02618816,0.02766597,0.01388662,-0.02872475,0.11862157,0.10121511,0.01023903,-0.03840873,-0.03243644,-0.13661532,0.07256508,0.03383808,-0.00322137,0.20232041,0.10463470,0.05107423,0.04743177,0.00941083,0.01067990,-0.04754845,-0.05201847,0.12340376,-0.06514384,0.01064492,0.17859110,-0.04989827,0.09133665,0.06479280,0.10012334,-0.03121436,-0.16610134,-0.03419086,-0.02645893,-0.03903766,0.00327642,-0.04190560,0.01754569,-0.05571702,-0.03173738,0.15113400,-0.03502235,0.06551228,0.07275280,0.14097452,-0.19762570,-0.01960010,0.02024445,-0.02887959,0.03799726,0.11811439,0.02537061,-0.04544058,-0.07236149,-0.03899410,-0.01465103,0.02656749,-0.05540699,0.12157156,-0.27112129,-0.05112720,-0.02148459,-0.00285952,-0.18059784,0.05423304,0.02442442,-0.04458588,-0.01065996,0.09791392,-0.03564889,-0.10017101,0.05507552,-0.04262149,-0.03305596,0.17932159,-0.02710372,0.02459627,0.05164912,0.00104978,-0.12298535,-0.09488931,0.04542887,0.02752992,0.10344990,0.03399478,-0.02872078,0.03358504,-0.02388717,0.02010082,-0.04247504,0.03884768,-0.04716384,0.12534115,0.01678136,0.04656638,0.09315655,-0.00600390,-0.09006193,0.16241790,-0.00107420,0.08532165,0.07228412,0.05994844,-0.03338356,-0.11245354,0.03970426,-0.01017281,0.06193391,0.00905891,0.05008843,0.03439559,0.08698065,-0.03180823,-0.16648386,0.05112879,0.05196084,0.02617809,0.04850807,0.02225168,-0.07651153,0.03363402,-0.03554329,0.15569451,0.03965917,-0.03255246,-0.03818551,-0.00978634,-0.08549302,0.02831048,-0.01003279,-0.04114616,0.12338474,-0.07216988,0.03594044,-0.04086839,0.07249808,-0.04554700,0.00628302,0.10982700,0.02513814,0.03587534,-0.01708385,-0.04196783,0.08291218,0.06546134,0.08373839,0.01514980,-0.02952768,0.05242256,-0.05906824,-0.00863837,-0.02964806,-0.10478923,-0.07167315,-0.00455787,-0.05658376,-0.04174922,0.01586802,0.10876569,-0.01253808,0.09223355,0.03212392,-0.06616104,0.05110381,-0.02565077,-0.04549525,0.02112465,-0.04011497,0.05731332,0.01952032,0.01136224,-0.11119233,-0.01276462,-0.07945094,0.03449987,-0.15129551,-0.17640321,-0.01191235,0.00956267,-0.03195563,-0.01183907,0.04356167,-0.00203236,0.09260758,0.04494363,-0.16048899,-0.01527952,-0.09321004,0.01893453,0.03248098,-0.00731076,0.00923167,-0.12383689,0.02575691,-0.11807688,0.01964456,-0.10465676,-0.03463801,-0.05035332,0.07074256,0.03792064,-0.12963760,0.03729564,0.01420883,0.09609038,-0.07438723,-0.01938485,0.04332752,0.03270221,-0.05792565,-0.05954563,0.07599029,-0.12494189,-0.03546818,-0.18309186,-0.09721284,-0.02648683,-0.23253904,0.08676985,-0.04404809,0.09516810,0.06277044,0.11989675,-0.02439851,0.13813651,0.07358563,0.02210534,-0.04296665,-0.07387963,-0.02899831,-0.02378731,-0.08992214,-0.06669246,-0.02964970,-0.21605557,0.09328517,0.00409132,-0.00697092,0.09798142,0.00484588,-0.05500830,-0.03183732,0.08556060,0.03811017,-0.06273767,-0.00491401,0.03795960,0.05496221,0.00358308,-0.02312326,-0.07032360,-0.07726274,0.06097100,0.04332828,0.01634840,-0.07076330,-0.07534391,0.05789712,0.07504494,-0.01982296,-0.07328003,-0.13954683,0.00311944,-0.03388907,-0.04795250,0.00098457,-0.04156513,-0.01561872,0.08789161,-0.03920035,-0.24816450,-0.05980533,0.01727938,0.08776143,0.17201968,-0.03195531,-0.08479859,0.03987454,0.07066640,0.09994965,0.05130050,-0.02934726,0.00194374,0.02081591,-0.06144492,-0.00952933,0.02669745,-0.05584807,-0.04468235,0.11938149,-0.10305505,0.12386882,0.13518494,0.01507410,-0.03935592,-0.01515200,0.02225480,-0.12734437,0.20211717,0.03925742,0.03294016,-0.01070272,0.07772422,0.02461404,-0.02803654,-0.03898776,-0.05271315,0.06862145,-0.00434590,-0.09588242,-0.01708177,0.03305312,-0.09036519,-0.01260525,-0.09390128,0.07762107,-0.02213179,0.06556851,-0.04344741,-0.10214613,-0.17154023,0.04813892,-0.01619242,0.01567509,-0.07183255,-0.08623366
-0.05105053,0.01909873,-0.07410181,-0.01567598,-0.09198979,-0.03237131,-0.01272199,0.03764270,0.03166008,-0.18341157,0.08459817,0.03492736,-0.16560973,0.03739137,0.04033876,-0.02768714,0.12832369,-0.01611797,-0.17265819,0.11586606,-0.02550384,-0.00508597,-0.02933541,-0.18328060,-0.03438894,-0.00219454,-0.02664182,-0.01844336,-0.01133857,-0.02036181,-0.06044576,-0.05209111,-0.28135592,0.09864378,0.06321204,0.04857357,-0.10333219,0.14796869,-0.07676759,0.36469978,0.01080378,-0.01173107,-0.00599157,-0.00868948,-0.06881900,0.09681573,0.19108701,-0.09255337,0.07970908,-0.12006860,-0.03917911,0.06421705,0.02601813,-0.05239376,0.01130508,-0.03868238,-0.06700712,-0.15224747,-0.05501171,-0.08472524,0.10356948,0.10083675,0.04478997,-0.05043647,-0.05632805,-0.12016886,-0.04858654,0.04907411,0.00542964,0.08092251,0.00916119,-0.03970097,0.02280014,-0.03762817,-0.10761368,-0.01662130,-0.00837519,-0.15199535,-0.03730156,-0.07288941,-0.01580984,0.08669899,-0.04628960,0.05100227,-0.02800662,-0.05634689,0.10440024,-0.00583950,0.06764723,0.07453715,-0.06916440,0.01455639,0.11729650,-0.10256404,-0.09941058,0.05070738,0.10666674,0.06183254,0.01299832,-0.03387638,-0.09074473,-0.05558703,0.02544500,0.09715449,0.03114731,-0.02465546,-0.01106271,0.06702768,0.11836996,-0.04331479,0.18103902,0.00043972,0.08991298,-0.09362434,-0.01245118,-0.08351683,0.03522349,-0.04081042,0.10872478,-0.03992759,0.02292492,-0.01487918,-0.05220853,-0.03185925,0.18283129,-0.03340041,0.01134517,0.00516224,-0.11855668,-0.38865480,-0.01934472,-0.12421742,-0.07562398,-0.08493897,-0.08707359,0.01739056,0.02592553,0.03824059,-0.10280027,-0.22860190,-0.03538518,-0.09242658,0.03281561,-0.02377686,-0.08880353,-0.23620699,0.00333163,-0.04009975,0.02128339,-0.02444876,0.00408347,0.05554864,-0.16060196,-0.03828978,0.02941160,-0.06482894,0.00789093,0.11963947,0.00947739,-0.01330763,-0.03216161,-0.03330210,0.05996296,0.11776962,-0.02435823,-0.07389951,-0.08908992,-0.17237262,-0.00367841,0.20158099,-0.08371600,-0.11641076,-0.03495253,-0.01511569,0.02025990,-0.17135115,-0.05701987,0.10809678,-0.10187388,-0.01573323,-0.00581734,0.00593477,0.07549053,0.01093023,0.08692894,-0.01105821,0.06693007,-0.01176509,0.01250508,0.11075710,0.09319256,0.00259144,0.02044638,0.10263772,0.08860864,-0.10253157,-0.02777943,-0.02174763,-0.01596358,0.07128474,0.11752360,-0.05689376,-0.00150470,0.04407576,0.00319439,0.05266675,0.05313276,-0.15100165,-0.09031737,-0.04877982,-0.05159784,0.01838177,0.06862008,0.09623110,0.30209216,0.06491029,0.00294453,-0.14268857,0.10653664,0.03420548,-0.06858844,-0.05940596,-0.05329690,0.06314450,0.10247026,-0.14949454,-0.14284977,-0.06355718,-0.16445711,0.08571019,-0.09051100,-0.06948769,-0.05040087,0.20754221,-0.01572910,-0.06107846,0.00152385,-0.07291982,-0.02468171,0.03220191,0.02770711,-0.05774804,0.02346950,-0.12269467,-0.14781444,-0.03401572,-0.02228602,-0.00015490,0.07797503,0.09935046,0.06494423,0.03334492,0.01173318,-0.17335559,0.33360541,-0.11512475,-0.08801422,-0.38102347,-0.03797017,-0.00143257,0.13086456,-0.09738792,-0.01614441,0.11697569,0.01050883,0.21415140,0.01265466,0.06690277,0.13336146,0.04549623,-0.10232911,0.01363707,-0.02026129,0.01220505,0.08117330,-0.01912250,-0.24093908,-0.01547438,-0.12983029,0.12521893,-0.08284495,-0.05700069,0.01190533,-0.04844633,0.06190396,-0.02834282,0.00274502,0.04967900,0.05389254,0.02106973,0.04670949,-0.06429099,0.01151516,-0.01111034,-0.02046103,-0.00235405,-0.05065558,0.05178867,0.00802662,0.12145104,0.04482286,-0.04519363,0.03215470,0.04610879,0.08689868,-0.07360901,0.12681521,0.20885743,0.02827922,0.06513121,0.05193871,0.04643002,-0.21635297,-0.12946978,-0.06410266,0.00792184,-0.07650670,-0.11168938,-0.17195334,-0.01384491,-0.01696561,-0.05157520,0.01656442,-0.09705085,-0.04213243,-0.10039319,-0.12885375,-0.00674875,-0.02426426,-0.13067938,-0.03845592,-0.04640727,0.03681778,-0.13177443,0.00726582,-0.02046340,0.08172496,-0.12535551,-0.02031765,0.07013095,-0.00336708,0.04415263,0.07927268,-0.05517731,-0.15978330,0.06677994,-0.06727588,0.00199308,-0.01313425,-0.05064053,-0.02830704,0.03440046,0.01607704,-0.00111313,-0.19094141,-0.06751135,0.02653375,-0.00144524,0.01274052,0.19638123,-0.02810462,0.07259311,-0.10793145,-0.05334091,0.05160310,0.02464683,-0.06589808,0.30982792,0.03330942,0.10681880,-0.11026043,0.08042367,0.04662088,-0.18502317,0.03859729,-0.11503021,-0.01057573,-0.10056312,0.10792316,0.09625443,0.15289512,0.03652970,0.12190243,-0.02523004,0.01608631,0.00986048,0.03786399,0.11608738,0.01232145,-0.02573622,0.02359454,0.02158157,0.02570677,-0.06747538,-0.22339794,-0.03649589,0.00920382,-0.00537338,-0.02860937,-0.02908341,-0.01994210,0.05386828,-0.10145003,-0.03212053,0.00512217,0.05868028,-0.05481742,-0.16932592,0.02466328,-0.08172270,-0.14597674,0.08061446,0.12375250,-0.10120007,0.05444283,0.04420386,-0.06049484,0.01962980,-0.15412574,-0.02342832,0.17577736,0.04821933,-0.11759321,-0.13120450,0.20395295,0.03992110,-0.07945230,-0.00597889,0.11396281,-0.23344570,-0.07528956,-0.16844767,-0.13942789,-0.05060888,-0.00785252,0.04780504,-0.04769047,-0.19775829,0.07140677,0.03457550,0.01420940,-0.07166399,0.03462980,-0.03124809,0.04482599,-0.09073655,-0.02824592,-0.05375840,0.15249752,0.00729345,-0.10338660,-0.06141310,0.03951326,0.04916013,0.30370164,-0.08573960,-0.23200983,0.00731119,-0.07499035,-0.09409217,-0.12368535,-0.06229299,0.03923178,0.07031746,0.03155755,-0.05657442,0.05513116,0.07506237,-0.12325539,-0.20497331,0.01752555,-0.06902881,-0.01903086,-0.13628724,0.00528274,0.29494169,0.04488290,0.00985499,-0.04008527,-0.09916201,0.01091194,0.04286682,0.08635579,-0.03893149,0.03634775,-0.02696773,-0.02574106,0.01642081,0.12046759,0.06698041,-0.18877591,0.24399266,0.07571491,0.10181727,-0.02839861,-0.13906007,0.11481697,-0.04644961,-0.04899927,0.04810417,0.17709936,-0.04808320,0.02402657,-0.08276714,-0.03068679,0.11110987,-0.05787638,0.03513509,0.03927101,-0.02092485,0.05149351,-0.02308423
-0.10118042,-0.11949586,0.02644752,-0.06726952,-0.03575486,0.01685537,0.15113242,-0.03173640,0.08405686,0.10010064,0.01447610,0.11541049,-0.05121434,-0.00151620,-0.18149261,-0.13628039,0.08971563,-0.20620058,-0.01489074,0.08103754,-0.00578249,-0.00719452,-0.00586667,0.00383186,-0.02652191,-0.01642561,-0.06592229,-0.06511375,0.00213441,0.09260719,-0.07366464,-0.02223350,0.11046957,-0.14646015,0.06872310,0.03153592,0.05746048,0.10554694,0.06299402,-0.11555133,-0.00082226,0.08287102,-0.22113602,-0.25696743,0.13774657,-0.06551857,-0.02699421,0.01886019,0.12762927,0.04968425,-0.02037006,-0.03822574,0.04904817,-0.01745579,-0.00890075,-0.04581691,-0.00477587,0.14355722,-0.08198068,-0.08175536,0.12002600,0.07539351,-0.00264896,0.08178379,0.05669034,-0.01375193,-0.01326096,0.04406847,-0.07521506,-0.20889705,-0.05968524,-0.13317393,-0.08531367,-0.04095558,-0.04549044,0.00814933,-0.07429032,0.12465739,-0.05946002,0.07970756,-0.13749652,0.09123380,0.06639016,-0.08861095,0.27706534,-0.09029336,-0.11542885,0.06504916,-0.00980605,0.05453962,-0.04373991,-0.00781797,0.00951810,0.08572913,-0.15645127,-0.12375403,0.00261131,-0.22608858,-0.12321019,0.09522268,-0.16772877,-0.02658693,-0.01907075,0.06089649,0.10263813,0.19903511,-0.08429209,0.01824637,0.10952284,-0.05728364,-0.06809281,-0.08536775,0.02767542,0.04593198,-0.05436577,-0.14390053,-0.04720714,-0.09853303,-0.17442621,-0.09355878,0.09171544,0.13949190,-0.02504238,-0.00041712,-0.11477434,-0.08419859,0.01861602,0.01205751,-0.06531245,0.16705935,0.01132885,0.01347754,-0.09722935,-0.02243188,-0.04596809,0.02228335,-0.03573691,-0.14614379,0.11829103,0.00769935,0.05485625,0.07657140,-0.00984714,-0.15305202,0.03521972,0.07361654,0.01818408,0.09475645,0.04268226,0.04756678,0.07394318,-0.04996033,0.10158955,-0.10021720,-0.00968550,-0.01753631,0.19530436,-0.09916299,0.00306641,-0.00495512,-0.07401115,-0.07262617,0.04696599,0.15000877,0.25047749,-0.07846194,0.05089533,0.02449860,-0.10363697,-0.08546450,-0.03799057,0.08077136,-0.08441207,0.06027015,0.04370023,0.16808334,-0.01258116,0.05508905,0.06344699,0.10708455,-0.09935710,-0.03168143,-0.09466825,0.02134056,-0.14428408,-0.06675455,-0.10720102,-0.16331010,0.09878894,-0.09207881,-0.01592137,0.05272004,-0.01905570,-0.02748259,0.12043750,-0.03660083,0.01551923,0.04809246,0.11608802,0.04593609,0.12489195,-0.06086439,-0.08155272,0.01269589,-0.06706797,0.05873591,0.05048865,0.12506442,-0.16691592,0.03837474,0.02093615,0.04034134,0.01878694,-0.08039749,-0.02366262,-0.05616956,0.02218681,-0.03270398,-0.02499977,0.10949572,0.09893622,-0.03482616,-0.02442046,-0.14906716,-0.02971850,0.00127413,0.14451993,-0.03762633,0.10940551,0.04237013,-0.01522453,-0.10265794,0.19490187,-0.02179112,-0.08968947,-0.11445964,-0.07919756,0.03328978,0.01614498,0.05954739,-0.29100299,0.02351998,-0.01341299,0.06588700,-0.15402849,0.09612539,0.09418207,0.00375183,0.09139228,0.02096946,-0.05963281,-0.00204950,0.04966639,0.03480492,-0.02790413,0.00894600,0.09164552,0.07582702,0.11701129,-0.03475692,0.04233890,0.12473186,-0.06099743,-0.01079823,0.03487543,-0.14924201,0.05058110,-0.05625050,-0.14015280,-0.11968377,0.03805471,-0.00637456,-0.02956424,0.00174991,0.01911766,0.05823270,0.01397779,0.15360442,-0.06320538,0.02907427,0.03722312,0.13197316,0.03080163,0.07497407,0.08178755,0.10908338,-0.15107025,-0.01558742,0.09263775,0.12672360,0.06021047,0.08957408,0.09265836,0.19596492,-0.01130393,-0.00895107,-0.05656268,0.03283010,0.12400339,0.07041737,-0.07883313,0.08489098,0.01319135,0.13013889,-0.01467846,0.05500614,0.09238856,-0.07379564,0.01810622,-0.11588125,0.02565292,-0.00226990,0.07830092,-0.09312610,-0.01546277,0.07133178,-0.00258860,0.10549205,0.02333325,-0.02371140,-0.03581581,0.12127451,0.10145932,-0.05602348,-0.10294633,0.10741132,0.07947028,-0.18308610,-0.10086179,0.04314678,0.11206917,0.05162022,-0.01050019,0.02237581,-0.06195960,0.02309343,-0.06471913,-0.02137612,0.06396345,0.00785400,-0.05429371,-0.05247980,0.02590745,-0.01588429,-0.01823002,-0.04834418,0.05653952,0.00078291,-0.02053485,0.04702869,0.01546826,0.03701497,-0.01852068,0.01968745,-0.11589915,-0.11181918,-0.06656317,-0.00781714,0.09403883,-0.00520310,-0.05201665,-0.03372888,0.04825782,0.01699396,-0.06298469,0.01398541,-0.05327508,0.05337443,0.04754007,-0.07609612,0.01379692,0.08916648,0.01996615,-0.14393941,-0.00120757,-0.01494576,-0.04679362,0.15742427,-0.09510240,0.05483889,-0.29054800,0.00127948,-0.15552302,-0.02044335,0.10599966,-0.05065585,-0.01859052,0.11016671,0.01356768,-0.06473272,-0.05372529,-0.00570507,0.00741661,0.02026865,0.20324317,0.02797357,0.02674694,-0.01386555,-0.07514782,0.07518712,-0.28400922,-0.06013835,0.00934064,-0.00106723,-0.03078004,-0.01450846,-0.00411126,-0.09963144,-0.16150841,0.02004805,0.04971282,-0.09574023,-0.01802612,0.04420832,0.03407347,-0.02728212,0.09234183,-0.09798256,0.13507135,0.00255761,0.10361031,0.03972211,0.12929034,-0.07057032,-0.20475267,0.01475952,-0.06388509,-0.00433851,0.21083428,-0.10811145,0.04676398,-0.07447252,0.02170213,-0.20492174,0.03798020,0.05325956,-0.12799424,0.02817343,-0.00399891,0.01950566,0.02232364,-0.22256450,0.10404687,-0.04256948,0.02623861,-0.01928184,0.08654512,-0.11412646,-0.11940918,-0.02490265,0.06090087,0.05682475,0.03070214,0.03743112,-0.02396544,0.03954952,-0.23014264,0.01312843,-0.01773189,0.07569988,0.29640740,0.09392020,0.08666285,-0.07688519,-0.09319230,-0.15254164,-0.03719993,-0.05832649,-0.08435535,0.01417690,0.03948140,0.12793171,-0.19517592,0.03006077,0.21569227,-0.01319637,0.07631531,-0.07197863,0.09239154,0.06641468,-0.02721744,0.00997746,-0.10727715,-0.00453828,-0.05487200,0.00826713,-0.06200394,-0.06654901,-0.04718094,-0.18774053,0.03059162,0.00412509,0.06266093,-0.15862186,0.00449951,0.06180394,0.08903588,-0.12976852,0.07757570,-0.03673539,0.34478611,-0.00147871,0.08226956,-0.03262008,0.09758120,0.07764348,0.10577947,-0.04213864,0.01285530,-0.09750793,-0.15770677,0.17177683
-0.01620342,-0.02249908,0.02701944,-0.05218987,-0.04051120,-0.03914146,0.06720203,-0.02086436,0.05865340,-0.04842794,0.00136583,-0.04918434,-0.08803191,-0.03305663,0.18877640,0.10803864,0.03957899,-0.09367741,0.06414212,0.11237673,-0.06320659,0.12817070,0.07232242,-0.07476817,-0.01188461,0.02781877,0.02936216,0.07209532,0.01845956,0.02376996,0.06776983,0.00466422,0.08256374,0.05596380,-0.05417393,-0.11125682,0.06012071,-0.08881511,0.02590814,-0.12473071,-0.08743251,-0.03085996,0.07946663,0.25929874,-0.05115517,0.04570520,-0.08003983,-0.03555052,-0.19511499,0.10147903,0.01593253,0.03522695,0.14449468,-0.05956898,0.07287706,0.07399496,0.03267730,0.12533607,0.04160148,0.07133811,-0.06247929,0.00469611,0.09585267,0.00676763,0.03071307,-0.06571101,-0.03197806,-0.11410040,0.00391777,0.07171796,-0.00785151,0.10905835,0.02607527,0.11007510,-0.00090302,0.12254529,-0.09295281,0.13514818,0.00640428,0.06368461,-0.02675601,0.05669107,0.17070052,0.07589207,0.01208916,0.01646991,-0.01304827,0.00713994,-0.06425337,-0.01464617,0.05519313,0.03750848,-0.10713606,0.05690660,0.07721695,0.15040316,0.02311403,0.13808155,-0.09401934,-0.05293734,0.11134149,-0.07019567,0.00448841,-0.01683439,0.00377884,0.02296004,-0.01725825,-0.02660016,-0.09614581,0.09368102,0.00242889,-0.00132477,-0.06527978,-0.07579940,0.08931448,-0.07341886,0.09036321,0.02479535,-0.13602404,-0.00330624,0.00765427,-0.00236766,-0.03241504,0.01438151,-0.11967762,-0.01693097,-0.03978033,-0.08739468,0.08167721,0.00116738,0.01880638,0.06907998,0.06747207,-0.10486581,0.15315431,0.05053613,-0.06062622,-0.08323552,-0.03188312,-0.01131424,0.06266733,-0.08668052,0.00145165,-0.03466592,0.03671648,0.12164326,-0.01357033,0.12956712,0.03357857,-0.00664417,0.04404286,-0.05460774,0.05145465,-0.05035147,-0.00320260,-0.03938994,0.14834495,0.12438376,0.04323089,-0.01778901,-0.02798310,-0.04402287,0.05606110,-0.28517148,0.03624690,0.02079176,-0.09952115,0.10450513,0.11013707,-0.12692155,-0.03530657,-0.00826157,0.04746225,-0.05064064,0.02564648,0.01494658,-0.00450065,-0.02127497,0.07102352,-0.05434788,-0.05882902,0.00534274,0.00566226,0.04408345,-0.00503745,-0.08502876,-0.07464961,0.10829382,0.03118167,-0.00569745,0.06558966,-0.00497867,-0.06459638,-0.08014609,-0.00299429,0.05280849,-0.24220364,0.13134448,-0.09145047,-0.10881553,0.17549154,0.14351396,0.18678269,-0.01052195,-0.14612462,-0.08336318,-0.14419959,-0.00381129,0.09173880,-0.00066213,-0.18707804,0.01067033,0.04178353,-0.00095504,-0.07095991,-0.01086695,0.07753819,-0.43483907,-0.07220280,-0.04161267,-0.09056317,0.01532823,-0.07078463,0.06121435,0.04352611,0.04934417,-0.01799776,-0.04161129,0.16991653,-0.07152919,0.10564435,0.14590980,0.06353311,-0.17749502,0.02314202,-0.09589169,-0.00817047,-0.07306108,0.00508034,-0.10521656,-0.16043532,0.03095953,-0.11168919,-0.04317420,0.23011062,-0.12416887,-0.02416805,0.05744489,0.03404925,0.06067121,0.01111269,-0.05642135,0.00582562,0.01001272,-0.05206442,-0.28270546,0.01459997,-0.12298785,0.04515083,0.02246065,0.00002504,-0.02773590,0.07920843,0.09062038,-0.12313960,0.03278620,0.01390689,0.00218409,0.02605525,-0.05865434,0.17897119,0.01243413,-0.04325946,-0.05788945,-0.04050982,-0.15934490,0.13920268,0.07768615,0.06700908,-0.09457188,0.01977104,-0.01180764,-0.03276493,0.08928490,-0.18955764,0.06330914,0.30814153,0.04539673,-0.00614454,-0.03846024,0.04125040,-0.13196130,-0.09233625,0.10433792,-0.00050862,0.02386318,0.03951800,-0.14157838,0.00419551,0.05322792,0.03682741,-0.08958223,-0.00691003,-0.22888274,-0.09160133,-0.04665326,-0.00707561,-0.01091034,0.00927193,-0.06446447,-0.03513895,-0.01341214,0.07553764,0.16706724,0.02757112,0.06120691,-0.09275124,0.02485437,0.05526045,-0.06494331,0.04843175,0.02818026,0.03518373,-0.04314090,-0.13208641,-0.08050182,0.01945655,0.09383094,0.04174371,0.03460058,-0.08371843,0.12660229,-0.01458989,-0.01717593,0.18015502,-0.03054444,-0.08996702,-0.07468498,0.03120180,-0.20433751,0.07226074,0.03429938,0.15699236,-0.03959189,-0.04704194,-0.01646957,-0.04371112,-0.07422773,-0.04159092,0.06334851,-0.07635644,-0.04614480,-0.04444797,0.01306482,-0.08537491,-0.02112643,-0.02601080,0.15837733,-0.00744707,0.03362007,-0.11914074,0.09723458,0.01299767,-0.00994679,0.04369536,-0.10702404,-0.13326995,-0.01215502,-0.11444828,0.12246601,-0.03455173,-0.19363731,-0.09645917,0.01718465,-0.08931615,0.00385614,0.00859285,-0.07561639,0.18939441,0.01845472,0.03340580,-0.04561990,0.04274946,0.07963170,-0.11017947,0.13652937,-0.02495428,-0.07447688,-0.08346872,-0.03222247,0.02602492,-0.05478999,0.05833384,-0.03025534,0.14006101,0.06753016,-0.02093497,-0.06443812,0.05205563,-0.18806623,-0.10869048,0.12954067,0.05930576,-0.13772468,-0.10286204,-0.14770156,-0.04788434,-0.01671796,-0.04306706,0.03562553,-0.27223164,-0.03405305,0.04717802,0.03108715,-0.06395773,-0.02382399,-0.24304490,0.00260644,-0.09335700,0.02240376,-0.10722119,0.14549764,-0.08414894,0.04517996,-0.29320008,0.04416927,0.13362417,-0.11132711,-0.18639015,-0.18074569,-0.02075513,0.02641498,0.07249080,-0.00025559,0.02499993,-0.05175935,0.08096490,0.18118060,-0.10063744,-0.13197620,0.02096862,0.27609619,-0.05152689,-0.09673468,-0.04025152,0.16316000,-0.01578058,-0.15620491,-0.04247665,0.04307275,-0.00079622,0.09084472,0.03181081,-0.10491265,-0.10906053,0.04747288,0.22260770,0.12102111,-0.00131403,0.03764289,-0.01867390,-0.01127678,0.04609102,-0.00750521,0.03622056,-0.00917352,-0.10377025,0.16057584,-0.04193629,-0.03110533,0.04653170,0.09874824,-0.02424701,0.05469140,0.01360414,0.00142371,-0.18813005,-0.05662211,-0.04789607,0.00635120,0.04003949,-0.02912480,0.14856443,-0.04368803,0.04565233,0.06472355,-0.04968220,-0.02408661,0.06447423,-0.00585312,0.01950680,-0.08601138,-0.01779816,-0.06272274,0.04791999,0.00250905,0.00759080,-0.03903833,-0.09171687,-0.03227672,-0.19240625,-0.14262621,0.03269706,0.06021742,-0.04588614,0.08908888,0.04933040,-0.11530693,0.07710160,-0.05322123,-0.01320240,0.04906626
0.08040790,0.04670600,-0.00634769,-0.02310272,0.05882971,0.07392203,-0.02126422,0.07035729,0.12689646,-0.01981653,0.02065169,-0.11033338,-0.05092072,-0.03929158,-0.04091697,-0.00295275,0.00706047,0.12860037,0.05702604,-0.03282579,-0.03680435,0.06672650,0.07148297,-0.14402486,-0.00747320,0.00130707,-0.03043153,-0.07762192,0.02292228,0.02553962,-0.04433981,0.02516869,-0.01952168,0.03479233,-0.05402552,0.05223203,0.05265551,-0.13334249,0.08243441,0.13552696,0.00965923,0.02500837,-0.02572894,0.27168387,0.03890234,-0.06403963,-0.08793634,-0.02886571,0.19315919,0.00712132,0.06560697,0.00049710,-0.07280524,-0.14261883,0.01186172,0.01371004,0.14366797,-0.04593458,0.01725268,0.10129708,-0.00911707,0.09601413,0.00600048,-0.07362802,-0.06010579,0.04560934,0.08260413,-0.04720132,-0.02015110,-0.07092190,-0.07948319,0.02501118,0.13508269,0.00417409,-0.02936018,-0.05912684,-0.01669545,-0.10892739,-0.02765789,0.11802273,0.03904238,-0.06227608,0.03985868,-0.15043338,0.11233005,-0.08106048,0.02958990,0.03621487,0.00517601,-0.01491821,0.16044608,-0.00919867,0.01831275,-0.06645929,0.10369061,-0.11827523,-0.02666230,-0.22587585,0.06649627,0.00166348,0.01920963,0.06345072,0.00416573,-0.02682758,0.09802610,-0.07591080,0.18901278,-0.04348747,0.11424239,0.04003198,-0.05449812,0.04022978,0.05429452,-0.01129484,-0.09092910,-0.00795903,-0.08042764,-0.08196399,-0.16477899,0.03449098,0.00329159,0.12499819,-0.14287184,0.10670383,-0.16679443,-0.02712696,-0.01453360,0.04539187,-0.02831326,0.01685737,0.00222134,-0.02175383,0.04193985,-0.05616000,0.07545921,0.06216653,-0.02767056,-0.02091768,0.03151822,0.35770941,-0.11207247,-0.10312163,0.04598712,-0.10058621,0.06302473,0.05586831,0.00526697,-0.10166950,-0.01503688,-0.20399660,0.00427279,-0.09014217,0.02024645,-0.03345909,-0.07713317,-0.10469695,0.12429429,0.02699078,0.10044912,-0.12331843,0.09404719,0.10446516,-0.05047373,-0.16944517,0.13823101,0.03858849,-0.06811906,0.05555519,-0.07315601,0.10056399,0.00289126,-0.09276336,-0.03258030,0.03158138,-0.14926168,-0.00170027,-0.01566941,0.02950803,-0.05714866,-0.05741381,-0.04430273,-0.03543866,-0.18529300,-0.05997926,0.05349812,0.00674094,0.10323134,0.01351255,0.07358178,-0.00719682,0.01396257,0.02522484,0.04175548,-0.11487716,-0.05178129,-0.01061407,-0.17272843,-0.07095412,0.06750348,0.07165989,0.08698878,0.15595321,-0.17679772,-0.08134888,-0.03322379,0.02295006,-0.00313877,-0.06335815,-0.03908596,-0.09090125,0.12748915,-0.09230912,-0.09495577,0.01729475,-0.01906074,0.03187118,0.06148688,0.12573490,-0.02418068,-0.01231343,-0.10779379,0.01476990,0.07530178,-0.13657396,0.10339105,-0.00297005,-0.01773281,0.00108710,0.02843232,-0.05472745,-0.09326666,0.04678471,0.03332508,-0.02481703,-0.03558218,0.05518886,-0.05756726,-0.05083445,-0.04016380,0.01529665,-0.11813166,-0.12271420,-0.05633030,0.03357443,-0.09501899,0.40344372,0.15455979,-0.02805987,-0.15262660,0.03089108,-0.03902235,-0.04270097,-0.03006296,0.00285737,0.00787652,-0.01384188,0.01499097,0.00554606,0.07902342,-0.09892346,0.07058416,-0.02634736,0.02896470,0.01195851,-0.02599964,-0.00394514,-0.02107331,-0.16001743,0.19418074,-0.05300708,0.02349150,0.10700838,0.00110573,0.00683639,0.01542762,-0.18042128,0.08876427,-0.07770337,0.04796785,0.06075354,0.09672297,0.05578921,-0.13398506,0.04652176,-0.15693793,0.12060987,0.12154550,-0.03245149,0.02768463,0.06942478,-0.04352248,0.10683902,-0.05535028,0.01781554,0.13260491,0.00295069,-0.01492695,-0.01429370,0.09798548,-0.12480954,0.07175546,0.00366842,-0.02537972,0.01851385,-0.10470712,-0.02306242,-0.00600540,0.01306430,0.02491008,-0.01694102,-0.11360107,0.08808446,-0.04542514,-0.08446444,-0.01058429,-0.19232176,0.08901224,-0.12610713,-0.02020553,0.02391669,-0.03162912,0.01978700,0.02832241,-0.08852404,0.04772622,0.02099342,-0.04516689,0.00538509,-0.17259882,0.03224172,0.14106752,-0.09345040,-0.02531043,0.00647149,-0.03029630,-0.01559517,-0.03680426,-0.10572374,0.03500422,0.01644418,0.00118227,0.13982114,0.05177851,-0.04554952,-0.02715162,0.00121389,0.06573166,0.04977047,-0.05651887,0.20384590,0.11579535,0.08862185,0.03831610,0.02733695,-0.13020268,0.05349743,0.02375665,0.05183740,-0.01240729,0.20721656,-0.07626385,-0.10585280,0.01436884,-0.06240226,-0.00179763,0.05483157,0.07609184,0.15893482,0.11361054,-0.03759963,0.05415585,-0.08647837,0.07683396,-0.11842304,-0.05632509,-0.07970430,0.02992279,-0.16055714,-0.04316274,0.02387989,-0.06730890,0.14156760,0.00777471,-0.05410201,-0.19019292,0.03070560,0.00259074,0.05379028,0.06446769,-0.06068826,0.03843717,-0.11582950,0.03256534,-0.10178581,0.06532818,-0.06237217,-0.08108944,-0.04384693,-0.06853683,-0.09870230,-0.03683697,-0.04456039,-0.06811585,0.04110222,0.05877343,0.10553277,0.09108645,0.01429242,0.08122679,0.05209517,0.00580030,-0.02609021,-0.10927120,-0.07557622,-0.05769596,-0.02486563,0.08970692,0.09161410,0.01027797,-0.00705597,0.11429572,-0.04371165,0.02553692,0.00660004,-0.24933556,0.05659899,-0.11507320,-0.06598855,-0.01157732,-0.07370753,0.12678041,-0.05240151,-0.11267813,0.03881866,0.04860924,0.09257082,-0.08317824,0.12181064,0.10479914,-0.12903523,-0.02945598,0.09508612,-0.08279571,0.05499985,-0.03562709,0.03191292,0.09614907,0.14524193,0.06617082,0.04528610,-0.06837066,-0.00971689,0.05069019,0.11505098,0.03731693,-0.05608624,-0.09491022,0.12607242,-0.08205341,-0.14047238,0.09906003,0.00748402,0.02097937,0.03130832,-0.02601189,-0.07455746,0.09064045,-0.05423572,0.09421705,-0.00804326,-0.05514779,0.14995341,-0.00844783,0.03644964,0.17619461,-0.06070814,0.10408256,0.15091585,0.04323639,-0.02360403,-0.04884383,-0.06854258,0.04683308,0.06986327,-0.04468954,-0.00515033,0.04654669,-0.09643005,0.07318798,0.04130217,-0.01018950,0.05585320,0.06778602,-0.10889519,-0.02467276,-0.06222511,-0.12604831,-0.01643916,-0.00494288,0.14232077,-0.24731319,-0.03305060,-0.05016678,-0.05635076,0.03117848,0.01307046,-0.01785904,0.06822721,0.01092786,0.00903951,-0.07031627,0.00622369
0.04485574,-0.05556873,0.03205021,-0.02821422,0.05680854,0.12271534,-0.03713557,-0.05486731,-0.01083965,-0.08284940,0.04869420,-0.04966322,0.05913900,-0.02238285,0.15369482,0.07588140,-0.13564110,0.02792136,-0.03631528,0.06377412,0.05830769,-0.08573940,0.08624296,0.12584737,-0.00229217,-0.02950915,0.12520479,0.01203749,-0.03706833,-0.07200361,-0.09318303,0.01684969,-0.10508288,0.01395204,-0.07153068,0.00104982,-0.05533578,0.21006323,-0.03231756,-0.05414763,-0.00498475,-0.07367024,0.19356088,0.13333994,0.16788620,0.00418693,-0.06571527,0.01281421,0.01310185,0.05285987,0.12756421,0.02574363,0.02701357,-0.07031745,0.00358822,-0.00210446,0.08131465,0.00968896,0.06155322,0.14304763,-0.09510688,-0.03723119,0.14512795,-0.07113671,0.12311684,-0.00692367,0.09928788,-0.09353844,0.16100682,0.09803006,-0.05026462,-0.15864335,0.09141836,-0.00106714,0.14676295,0.05593202,-0.02439635,-0.00291506,-0.06828701,0.02469547,0.03493919,-0.04416882,-0.06753694,0.09702243,-0.13478386,0.10979486,-0.02250227,-0.04182241,-0.14469972,-0.02169799,-0.00558943,0.04530963,0.13110656,0.01185787,-0.00036537,-0.08734048,0.05001262,0.06280719,-0.12361051,0.03183833,0.02169137,0.02269044,-0.05924205,0.06038715,0.00703237,0.19200559,0.03053121,-0.11179861,-0.06945741,-0.12470391,-0.14281562,0.05135174,0.06485675,0.03998354,-0.05122506,-0.10014807,-0.05494957,0.04999399,0.05012084,0.05588900,0.01207420,-0.01850818,-0.04225119,0.18277368,-0.10352509,0.05908096,-0.03329263,0.07197373,0.00875927,0.03888222,0.01936139,0.06064177,-0.04617186,-0.02262040,0.00921886,0.18653554,0.03880089,0.03552235,-0.07075557,0.10227244,0.06757328,-0.11595081,0.03547375,0.03677842,0.13796856,0.11172752,-0.05445897,-0.06402013,-0.06956710,0.02116343,0.05754931,0.08110797,-0.09542810,-0.05917381,0.04896919,-0.08567828,-0.32006204,0.08565506,-0.01482345,0.00970293,0.08675199,-0.09927800,0.00713044,-0.10520312,0.05104076,0.09680291,-0.03381288,-0.01157936,0.14710094,0.08335090,-0.07760639,0.11415610,-0.00370088,-0.08808233,0.00229495,-0.05711885,0.04877859,-0.07218762,0.07732138,-0.06464063,0.04236833,-0.03129949,-0.06045628,0.12739143,-0.07586047,-0.09956726,0.06233766,0.07998266,0.07574364,-0.12488634,-0.09839752,0.07564849,0.00209023,-0.11440966,-0.07300594,-0.00594477,-0.09085868,0.09788842,-0.04162803,0.12785321,0.04824332,-0.10482514,-0.02794450,-0.00721805,0.00296751,-0.17004457,-0.03019827,0.05596640,-0.00201822,-0.12355894,0.06166324,0.11377743,0.07701980,0.03958235,-0.01320345,0.01011874,-0.07496297,-0.00417662,0.09829557,0.04551592,0.02406379,-0.00339020,0.06487864,0.07147352,-0.06428145,0.05167984,0.03916874,-0.03536349,-0.08803381,-0.13417235,0.10729619,0.01146980,0.05743388,-0.07854082,0.15793951,0.02968160,-0.00800900,0.03960300,-0.01651552,-0.00630632,0.46012211,-0.02038597,0.00077325,-0.03943729,0.12308934,0.17100106,0.11071467,0.01140567,-0.06299849,-0.02403566,-0.00680073,0.03785836,-0.01607735,0.03939698,-0.15302427,-0.18728212,-0.00703066,0.10238059,-0.04329855,-0.00553149,0.02211999,-0.03237084,0.07304151,-0.05909382,0.03827284,-0.05750717,-0.03669823,0.00958006,0.09388378,0.12107202,-0.03852779,0.00639186,-0.14040495,-0.03480699,-0.00933573,0.09275677,0.03581968,0.05816220,-0.12138608,0.00565018,0.01210759,-0.00030619,-0.04614750,-0.00665821,-0.08712364,0.03928040,-0.10256112,0.03642270,0.15459777,-0.02776624,-0.16876298,-0.07877785,0.00784279,-0.09575469,0.06904738,0.15770508,-0.08292967,-0.03357344,-0.02122116,-0.05454608,0.10846459,-0.08145421,0.02654980,-0.08930451,-0.00543277,-0.05466090,-0.06655453,-0.04218798,-0.12101838,0.01440433,-0.03036453,-0.15612286,-0.16483916,0.00619839,-0.00286423,0.04879313,-0.02674320,-0.06269459,-0.04687277,-0.03121908,0.06698014,0.12352631,0.07802086,-0.07796832,-0.01491896,0.04758708,-0.06558643,-0.04805442,0.11607835,0.08431705,0.18647349,0.06235131,-0.03099934,-0.04032280,-0.01229309,0.01997495,-0.01949964,0.08868094,0.02801622,-0.14370632,0.09568159,-0.22407126,-0.00689395,-0.08465058,0.02362823,0.11355904,0.05558886,-0.03159666,0.01839440,-0.08180661,-0.01090305,-0.13691892,-0.07398602,-0.03103898,-0.21811102,-0.01465709,-0.00061417,0.15400948,-0.13949001,-0.19942102,-0.04189794,-0.00820498,-0.01848353,0.00082082,-0.10498856,-0.12218912,0.20167124,-0.12231137,-0.00131384,0.11332213,0.04844187,-0.06038591,-0.02642897,-0.03766967,-0.04506659,-0.03630979,0.03269962,-0.06109715,-0.28409699,0.01725728,0.49153873,0.11207417,0.10728087,0.02264821,0.15814574,0.16809672,-0.03509798,0.02339897,-0.00371522,-0.01379969,0.00855020,-0.04587875,0.20881745,0.02472838,0.00305188,0.16495717,-0.05649351,0.01975300,-0.09624540,0.01676500,0.10951094,-0.03049376,-0.06439786,-0.08364189,-0.04829392,-0.21370587,0.01262152,-0.02838896,0.00079972,0.11606499,-0.39691606,-0.04580048,-0.03559471,0.00074998,-0.08543406,-0.09011088,0.08838438,0.05813523,-0.06017859,-0.17903633,0.01647416,0.09125312,-0.09244528,0.09414717,0.11748853,-0.05307258,-0.17825428,-0.01556954,-0.14913976,-0.06327802,-0.10788690,0.12836534,-0.10529747,0.06893477,-0.08534158,-0.02513386,0.02374221,-0.03559126,0.14187291,-0.07917719,-0.02249412,0.11353359,-0.08451828,0.07386151,0.01156599,0.03099273,0.04511017,-0.04530442,-0.24423349,0.03723941,-0.10892427,0.08840758,0.03440923,0.04008945,0.01309380,0.10036734,0.25398123,0.07860596,0.00091849,-0.00950191,0.02427346,-0.00001016,0.13390262,-0.19313762,-0.03055525,0.08265226,-0.06530239,-0.03388054,0.15657845,-0.04341682,-0.04421039,0.08627854,0.02280733,-0.06744529,-0.00382415,0.03204261,-0.12971181,-0.00785381,-0.17459059,-0.30286741,-0.11598597,0.03962881,-0.01033152,0.01307992,0.07049739,0.05850669,0.02841843,0.06483784,0.20920396,-0.02092714,-0.21976703,-0.15076506,0.01962434,0.08958705,0.09482054,0.16155280,-0.00197610,0.10565326,-0.14468502,0.07153800,-0.13475183,0.03648685,-0.07570937,-0.00609308,-0.01668334,-0.14651230,-0.12965843,0.01726468,-0.07142775,0.03818206,-0.06945374,-0.07174988
0.04805441,0.02238198,-0.04337221,0.06146773,0.02228625,0.08660088,0.04947781,-0.12400692,-0.13536866,-0.08095754,0.02410707,-0.06056307,0.00195701,0.12070750,0.35779989,0.10659694,-0.19186752,0.05652977,0.13946804,0.01172730,0.09508305,0.07312348,0.00493883,0.21886642,-0.01828965,-0.00401819,0.00344733,-0.04394900,-0.19502367,-0.06662507,-0.17862503,0.06765126,-0.14853427,0.03920578,0.05950305,-0.00542815,-0.16511045,0.02902297,0.01084151,-0.04412862,-0.04162778,0.00566789,0.09097296,0.33915880,-0.13788415,0.16422793,-0.03584853,0.02042590,-0.16542362,-0.11690377,0.02514236,0.05644657,0.10701706,0.02402016,0.00380220,-0.11519052,-0.05482285,-0.11736038,-0.03078593,-0.12166539,-0.08706506,-0.13987248,0.05965954,0.40112585,0.09042037,0.02915915,-0.12477913,0.07071920,-0.08028541,0.08895224,0.02679564,0.13586493,-0.05520883,-0.06257224,0.10512081,-0.01644832,-0.11176210,0.06238449,0.03032704,0.08673566,0.02962375,-0.16751899,-0.14039600,-0.05220073,-0.25806147,0.01748675,0.01338651,0.00564572,-0.04051142,0.04270181,-0.01282579,-0.05784116,0.04007257,0.06912304,-0.06367664,0.12538870,0.04205571,0.09248460,0.05111990,-0.06145405,-0.04970785,0.03826327,0.04305333,0.01889038,0.01874537,0.03226121,0.04786732,0.09803269,-0.02956326,-0.03849418,0.18789713,-0.00368559,0.01553056,-0.01246794,0.13010842,-0.11842626,-0.00838466,0.14316708,0.03192176,-0.01321989,0.07336458,0.18572283,-0.02166417,0.00995204,-0.07261743,0.07822479,-0.07215451,-0.03400953,-0.01822267,-0.06330550,0.00021597,-0.06640731,0.01497001,-0.21937712,-0.12745550,-0.04384298,-0.27228099,-0.01715126,0.18358415,0.23475678,0.18378869,-0.08397146,0.03047901,0.05619338,0.01201365,0.02452757,0.01034385,-0.25293514,-0.18692747,-0.14558564,-0.05518245,-0.12308673,-0.10548105,0.06111756,-0.09996269,-0.04417228,0.17311426,-0.11072297,0.08678925,0.03648432,-0.12766588,-0.05786256,-0.01391174,0.08501785,-0.02885744,-0.17344674,0.09323973,-0.04368095,-0.18013275,0.20077467,-0.01019484,-0.10954688,0.34821591,-0.07434703,0.04597373,-0.00390364,0.01537730,-0.06018207,0.00424266,0.10062239,-0.03545444,0.12314785,-0.02450532,0.05008109,-0.00122361,0.01721222,0.01776068,0.12645599,-0.15465131,0.10481077,-0.07813452,0.09572811,-0.18794018,0.08291914,0.10007078,0.04116978,0.20061995,-0.11521246,0.06618762,-0.04990674,0.01512648,-0.05748750,0.02379351,0.09891234,0.02718085,-0.05992689,-0.03936832,-0.04800671,-0.10852721,0.11637235,-0.06996419,-0.01727910,0.03974827,0.07389554,0.01996859,0.09361661,0.00546071,0.03682423,0.03446764,-0.10187278,0.18811148,0.07513583,-0.03531515,0.02379746,-0.09445570,0.02980838,0.04641679,-0.06064134,-0.04336932,0.04531137,-0.16135651,-0.18276961,0.04075164,-0.11149009,-0.20194374,0.16224481,0.00478287,0.00060580,0.20238915,0.03148831,0.08346752,-0.10875547,0.03623740,0.05960881,-0.11138961,0.08211952,-0.03151715,0.06560503,0.00996216,-0.14114501,-0.02054993,-0.13942736,0.01597362,-0.11584537,-0.09648098,-0.00785059,-0.07785600,0.05934565,-0.04533330,-0.06591967,-0.02475744,-0.02312758,0.02612519,-0.07679032,0.09906598,0.14221752,0.03157751,-0.01561295,0.13594784,0.11563563,-0.15360719,-0.10419243,0.03949082,-0.06490987,-0.12006632,-0.04184415,0.15568636,-0.01166957,-0.17986083,-0.09952165,0.07375211,-0.30344886,0.07670466,-0.01521979,-0.15433136,-0.02881006,0.05026527,0.03918409,-0.16925885,-0.01700623,-0.00222165,-0.00011939,0.07993699,-0.16263993,0.03958744,0.06125825,-0.04418463,-0.03536519,-0.02154217,0.00545452,0.06743082,0.24520291,0.06174689,0.07384741,0.17510596,0.08433042,0.03744721,-0.02853231,0.10927412,-0.02280630,0.11610315,0.09757636,-0.09950388,0.18304838,-0.11593023,0.07159495,-0.01883927,0.12277674,0.00356625,-0.01180080,-0.04732708,-0.03360174,0.07463278,-0.08310726,-0.06006279,-0.04390040,-0.04701800,-0.05120707,-0.00126292,-0.01571164,0.00212017,0.04142691,0.05572198,0.11156871,0.05199309,-0.00762421,0.09474646,0.14253084,0.04884879,-0.02221843,-0.03144530,-0.04341274,0.10889498,0.06671789,-0.08711546,0.04968722,-0.09113809,0.02752628,-0.01179155,-0.00955288,-0.14507987,-0.09640075,-0.09901943,0.02504648,-0.08998633,0.08679412,-0.15953878,0.29033700,-0.16591862,-0.14426364,0.09882825,-0.00107642,0.05523842,0.05759575,0.05004022,-0.04291755,0.05568166,0.01137660,0.09449987,-0.01567775,0.04088707,0.06455606,0.00714937,-0.01349995,-0.03924835,0.04546353,0.13375139,0.25369677,-0.07033847,0.01145834,0.06137564,-0.02714339,0.14899158,0.06391256,0.12187532,0.14016369,-0.04076936,0.01362697,0.04637524,0.05739520,-0.09026871,0.09999422,-0.00325325,0.11453875,-0.10951772,0.03162625,0.01509923,-0.02663085,-0.07594530,-0.08252536,-0.10621416,0.10368831,-0.04865993,-0.07918445,-0.02482209,0.16172099,0.00772934,0.01569230,0.11524473,0.04944129,-0.12645228,-0.02129922,0.01708543,-0.03437952,0.06384861,0.04925142,0.08654274,0.07074482,-0.02609317,0.05690223,-0.19514483,-0.11688485,0.08026452,-0.06047748,0.06121477,-0.00020336,0.05875637,-0.00917258,-0.00308282,0.11506461,0.00870917,0.03953232,-0.06372264,-0.14406595,0.02436519,0.04738674,-0.05880526,-0.14757006,0.05232090,0.05489266,0.04603624,-0.08921921,0.08297444,-0.19771771,0.02761643,-0.12705392,-0.06662138,-0.08779912,-0.03197457,0.02407021,0.18588050,0.04048766,-0.10850208,-0.08377264,0.11713165,0.04927571,-0.18060285,-0.02132344,0.05713681,-0.09777609,-0.10108210,-0.07075398,0.09771308,-0.09091287,0.03066790,-0.08611339,0.03433330,0.24178821,0.09683540,-0.05299599,0.07868835,0.00246072,0.18499507,0.08586930,0.05077146,-0.03413233,-0.10743573,0.03573646,0.17869087,-0.03695759,0.02332557,0.03556229,0.04904925,-0.02331273,-0.16068372,-0.03906258,0.15372512,-0.16271238,-0.02105433,0.04864012,0.03629223,0.08219496,0.01673466,-0.03309008,0.00911872,0.17585672,-0.07442428,0.01768073,-0.01594152,-0.02755373,0.28928152,0.03841267,-0.05345820,0.08040038,0.00032094,0.03879051,0.00957583,0.10574176,-0.01831176,0.11006210,-0.17547284,-0.05785056
-0.04350597,0.00289836,-0.01440486,0.08545083,0.01973674,-0.07824192,0.08069550,-0.07059719,-0.01043542,0.03190131,-0.16150689,0.13533092,0.15068169,0.13755128,-0.03103117,-0.03697519,0.00961226,-0.04509431,0.12739404,0.08880486,0.06611077,-0.07386348,-0.11423083,-0.00587663,-0.07676642,0.03341814,-0.15178375,-0.02634247,-0.16171741,-0.07972859,0.02097801,-0.02430963,0.05165557,0.00305799,0.01557147,0.01347243,0.00346866,-0.26304922,0.00907748,0.12918438,0.06179344,0.05635119,0.03217562,0.00761778,0.00331178,0.28422874,0.09483839,-0.06025551,0.20733525,-0.08275185,-0.03387789,0.00394932,0.02215596,0.04012737,0.05489264,0.08300529,-0.10604597,-0.08656800,0.03588170,0.03108834,0.01983160,0.01612288,0.02649551,-0.18886133,0.02727071,0.02021382,0.14490092,-0.09964674,0.02410746,-0.14230278,-0.02106283,0.15752441,-0.02757127,-0.01439399,-0.02200388,-0.00556726,0.00440377,0.09146789,-0.01708747,0.04176768,-0.02852892,0.04048011,0.20124210,-0.01268984,0.20504217,0.05887053,-0.07840544,0.05130776,-0.15303271,-0.30620587,0.04834736,0.08117992,-0.07419890,-0.05148677,-0.05462472,-0.01849453,0.05402596,-0.03883637,0.03550265,-0.05176147,-0.01194006,0.03958234,-0.04796345,0.08964352,0.01355132,-0.02756402,0.03290450,-0.09706354,0.00640459,-0.01219720,-0.01123896,-0.04705123,-0.10792304,-0.12647299,0.07166319,-0.08260210,-0.04543166,0.13476640,0.09982094,0.03135969,-0.06229806,-0.07237869,0.09260062,-0.18066840,0.21942657,0.06007271,-0.04933701,-0.15552488,-0.08063348,0.03316927,0.00617798,-0.13171135,0.05314726,0.05432849,-0.05407374,-0.12010948,-0.25630751,-0.09847510,0.12284978,-0.15532207,-0.19268022,0.07584308,-0.20008019,-0.01851336,0.10938992,-0.23877068,0.05407887,-0.03213168,0.09144864,-0.19382519,-0.08546963,0.00722867,-0.15890773,-0.01007376,-0.00750266,0.07784546,0.10749271,-0.00708508,-0.00872305,0.06323348,-0.17060053,0.07303156,-0.00930108,0.00959471,-0.09892315,-0.03768827,0.08427627,-0.03994363,0.09097439,-0.05381365,-0.08789470,0.07372956,-0.05065637,0.05878522,-0.02352406,-0.04555104,0.00788471,0.02864057,0.01549057,-0.01889126,0.04091563,0.12347449,-0.11067348,-0.00376174,-0.05824966,0.04733686,-0.00926810,0.16059211,-0.05635376,-0.00001021,0.11025342,0.01249127,0.05466053,-0.00654441,-0.13091683,-0.01024895,-0.07415088,-0.08281591,-0.11561895,0.01905049,0.01963554,-0.21434204,-0.03373422,0.09427641,-0.01067462,-0.06734136,-0.07937001,-0.10455651,0.10307484,-0.03964012,-0.10784639,-0.00216062,0.00044775,-0.12803662,-0.01509739,-0.09851523,0.03391203,-0.01662239,-0.03741407,0.21139000,-0.03314958,0.15645321,0.07149840,0.01678236,-0.00138714,-0.01234427,0.14616673,-0.03210157,0.13510057,-0.03050748,-0.00369777,0.03590567,-0.00105409,0.00498966,0.11909106,0.08101501,-0.02384542,-0.04152026,-0.20637873,-0.21429564,-0.04164570,0.00778821,0.11127833,-0.09091703,0.14445175,0.20060749,-0.08140102,-0.07811964,0.03437548,-0.22876847,0.00008258,0.22516324,0.00015959,0.10312860,0.09034090,0.00075251,-0.12418848,0.11333122,0.06696077,-0.04810031,-0.10149758,-0.08515444,0.03598714,-0.05628072,0.10493269,-0.16686764,-0.06379433,-0.14527343,0.17531507,-0.07368009,0.05192281,-0.02199071,0.03078133,-0.02344835,0.01743134,0.00281942,-0.00464190,-0.00646276,-0.17550591,0.02050190,-0.03371917,0.08818742,-0.07126798,0.06737982,0.05136976,0.06989932,-0.14796689,0.26066893,0.04787342,0.01722546,0.01432446,-0.00020017,0.02727908,0.27126238,-0.16343772,0.06393676,0.07433357,-0.07816291,-0.13139597,-0.05292381,0.04846516,0.00548241,-0.06027617,-0.21370330,-0.03047747,-0.05410130,0.00544591,-0.13486393,0.00304927,0.06079826,0.08453579,0.03863426,0.15421854,-0.16913089,-0.03585168,0.05174745,0.09771671,-0.04854375,0.01804470,-0.06038166,0.11995123,0.01357212,0.02571458,-0.04767850,-0.13146637,0.07211114,0.04845186,0.01448968,0.12897024,-0.09285861,-0.00189282,-0.10621275,0.10441481,-0.03394328,-0.04830043,-0.01901220,-0.02957503,0.00827152,-0.10501189,0.07238923,0.03199098,-0.00579323,0.04093637,0.09151769,0.00498244,-0.07075915,0.04833611,0.02201956,-0.02137224,-0.03246407,0.17239735,-0.06905847,0.11004046,-0.08257533,0.09944103,0.03514303,-0.03115632,0.07396130,0.05595354,-0.09621982,-0.09090983,0.11987113,0.01096135,0.01251737,-0.07388918,-0.06920156,-0.03168186,0.09022021,-0.06658632,-0.04109789,0.01134601,0.01919276,0.05997031,-0.16290748,-0.02406672,0.12735294,0.05045684,-0.11628365,-0.07893854,-0.00298406,-0.07482982,-0.08725213,0.06986874,-0.00456624,0.08844978,-0.07275263,0.00526053,0.08998316,0.00385439,-0.09510840,-0.01989350,0.07197578,0.05082405,-0.11143535,0.08940328,0.06748164,0.00940325,0.00062631,0.02368783,-0.01067354,0.30573773,0.03820762,0.02478409,0.00210243,-0.04071645,0.02887617,-0.07409985,0.01154597,0.16397281,0.07525700,0.00218702,0.04993814,0.02742003,0.14843567,-0.04410401,-0.05542788,-0.04855777,0.01806864,-0.09521098,0.04907236,-0.10003221,-0.05431831,-0.05842823,-0.06509675,0.34087068,0.14301109,0.07411418,0.02084994,-0.10865036,-0.05195941,-0.02316572,0.14983596,-0.04138609,-0.07349836,0.01179895,0.05412878,-0.06003741,0.01794453,-0.17056648,0.13551429,0.08498097,0.07932067,0.02551925,0.10642114,-0.00843875,-0.08383847,0.09114099,-0.02945068,-0.12202711,0.07037161,0.00382716,0.06376950,-0.03196941,0.08110640,-0.02821999,0.00707007,0.05717123,-0.00911823,-0.00206443,0.11120286,0.12231425,-0.05705836,-0.24651572,-0.06612130,0.07838927,-0.00009233,-0.00904787,-0.15367626,-0.19124560,0.00972694,-0.05297007,-0.09170307,0.19243757,-0.04502799,-0.05292315,-0.21621555,0.03618433,-0.10485490,0.14209501,-0.15492995,0.13115081,-0.07904031,-0.02162771,0.04548706,0.06328306,0.11724694,-0.03514133,0.03758826,0.01852619,0.08445804,0.08539449,-0.19737358,0.00377109,-0.12099819,0.01650507,0.11737885,0.04705874,-0.04847475,-0.09874896,0.02024996,0.02503555,0.09279808,0.10217347,-0.01693445,0.09812132,0.05698708,-0.00289250,-0.10325413,0.00630293,0.00361152,0.06740326,-0.12103931
0.01441573,0.13652185,-0.06710450,-0.05296652,-0.01603533,-0.19635817,-0.04019221,-0.09958920,-0.02266448,0.12855785,-0.07089074,-0.05952730,-0.11373188,-0.01884090,-0.21170162,-0.02627355,0.02370377,0.09291252,-0.20574038,0.03270713,-0.19929881,0.04826201,0.06096072,0.07062382,-0.05029915,-0.02140012,-0.02726127,0.13254455,0.04505071,0.01916213,0.00464382,0.05750938,-0.03599562,0.16040079,0.09992475,-0.04755988,0.11680605,0.27918249,-0.03013086,-0.04255686,-0.01394845,-0.12812206,0.06661990,-0.14945011,-0.08375963,0.06548508,0.11020308,0.13224077,-0.04939128,0.03388105,0.03354510,0.16385584,-0.02385818,-0.00508916,0.00303795,-0.08427226,-0.10186008,0.10523833,-0.02966926,0.06837177,-0.02540173,-0.00899970,-0.02335533,-0.06046172,-0.02004714,0.08836910,0.21266717,-0.01777741,0.02071960,0.06203110,0.01167599,0.15369990,0.06843716,0.00236021,0.13894233,-0.06622893,0.02215481,0.03465803,0.00269156,0.03686312,0.09028851,0.01553334,0.04353822,0.04658346,0.04276956,-0.03113892,0.05768370,-0.10336207,-0.02272700,-0.08140753,-0.00802138,0.07437926,0.03827517,-0.02815431,0.06795896,0.03544562,-0.06940412,0.11536728,-0.02024010,0.03366123,0.08908366,0.06135543,-0.00860007,-0.01295262,0.01009506,0.15237853,0.01104606,-0.09613504,-0.06863983,0.12641144,-0.09022091,0.07720638,-0.12705411,0.06257526,0.13208398,-0.22317123,0.03998255,0.05858144,-0.09548558,0.00727080,0.04903943,0.01436656,0.03513380,-0.01623472,-0.23440452,-0.09996483,0.11493798,0.01445642,-0.04098926,0.13026299,0.06692632,-0.00822443,-0.05315790,0.01786217,-0.06696805,-0.06772863,0.07099101,-0.11999210,0.03507617,-0.10699119,0.06670206,-0.02051124,0.06465978,0.01847380,-0.07104500,0.33567530,-0.03006664,-0.04169597,-0.13956963,0.00565476,-0.05883013,0.03028469,-0.13235731,0.05301272,0.08885141,-0.01252842,-0.02134596,0.06346631,-0.06759404,0.10727238,0.03164252,0.03355460,0.07522772,0.11814358,-0.09669375,0.05802878,0.02768342,-0.03769366,0.08974908,0.00968242,-0.11905323,-0.05267691,0.06509826,-0.05598802,0.22589681,-0.08789688,-0.08995413,-0.05968141,-0.01667820,-0.17330465,0.01609291,-0.08199157,0.02479047,0.06272670,0.04620717,-0.06113845,-0.03913337,-0.17060556,-0.02730204,0.12377546,0.10379443,0.04581799,-0.02401174,0.03553874,0.05054119,0.05841956,-0.00153253,-0.03573207,-0.03196114,-0.14290816,-0.12966594,0.07684188,0.09303230,-0.01303134,0.06208358,-0.08480458,-0.13977692,0.03450258,0.13987274,-0.03400340,-0.01924517,-0.16954307,-0.06701212,-0.04525292,0.01696753,0.05127992,-0.01348547,0.15630074,0.15538877,0.03197951,0.01402851,-0.07671576,0.12416899,0.16842258,-0.01804934,-0.02785724,0.13663547,-0.00111823,0.07401153,0.10888848,-0.00535291,-0.04690869,-0.04420480,-0.00065957,-0.18425016,0.24516644,0.09042504,0.09838427,0.04616933,-0.06605124,0.23311204,-0.06668416,0.07445489,-0.01867853,-0.02151136,0.02547931,-0.01030130,0.01006759,-0.12784359,0.19389266,-0.07923017,-0.02310154,0.09971831,-0.08732365,0.02685986,0.01689681,0.00371563,-0.29253185,-0.12809207,0.01854192,-0.07486182,0.05624146,0.08400384,-0.05844519,-0.05728149,-0.01126262,0.08576076,0.02874402,-0.05087823,0.15265293,0.09845229,-0.03492148,0.04019375,0.04665633,0.06754695,-0.17651092,-0.17305948,0.02060237,0.10213522,0.02775190,-0.11524291,-0.01626564,-0.08938677,0.06185396,0.06521340,0.04424030,-0.27982479,0.13180926,-0.09877934,0.09320564,0.05159628,-0.07613322,0.03466939,0.18473145,-0.08085922,-0.05032919,0.02680583,-0.05280958,-0.11678595,-0.07684491,0.04135904,-0.17011780,-0.12040867,0.03794793,0.04719710,-0.12289633,-0.02853932,0.02044849,0.08993949,-0.23502120,-0.01728181,0.07225572,0.15613562,0.03478351,0.15802573,0.00129509,0.01502181,0.03196619,-0.02575179,-0.10349707,0.06328461,0.10516097,-0.10118034,-0.26860443,-0.06424031,-0.04096204,0.10618605,-0.05839380,0.04995219,0.04251429,0.05543041,-0.06383159,0.01583849,0.00740021,0.02944225,-0.10766774,0.04819401,-0.14524965,0.01546818,-0.28169146,0.00596678,0.11987009,0.07966729,-0.00998278,0.03618438,-0.00331219,-0.04026444,0.14048770,-0.01546550,0.11388052,-0.11697898,-0.10799092,0.05599998,-0.09728127,0.02046359,0.04078887,0.00547346,-0.01958368,0.09716926,-0.29425165,-0.07273643,-0.05784464,-0.02992454,0.03509133,0.12306894,-0.10933138,0.02293112,-0.06306246,-0.00019217,0.01485314,-0.12709220,0.00269179,-0.07042145,-0.00157851,-0.01667064,0.11062542,0.08162842,0.01141891,-0.12630618,-0.07934264,-0.09836560,0.03553736,-0.09785423,0.02044641,0.00079642,0.02352744,0.07028707,-0.07243960,0.01072540,-0.01516761,0.14515391,0.07288829,0.05230125,-0.02135551,-0.01065023,0.00202740,-0.15037836,-0.02021480,0.05951541,0.18018226,-0.26682663,0.00951925,0.07852416,-0.07435850,-0.17976435,0.12563305,0.09387174,0.07372530,0.05488844,-0.08910976,0.17808369,-0.00252087,-0.00948148,-0.02891971,-0.09069097,-0.00663091,-0.02487765,-0.11698399,-0.07603965,0.06552403,-0.01119349,0.03398242,-0.18498480,0.03361239,-0.16866301,-0.01238710,0.10497914,0.10379231,-0.06499397,0.09863073,-0.11194543,-0.00168759,-0.07513897,0.10215926,-0.01356679,-0.11384663,-0.05371011,0.10600101,0.09025497,-0.08385233,-0.03682175,0.18607254,0.03025924,0.04661086,0.00282368,-0.05305407,-0.06832505,0.01320236,0.05558997,-0.03464342,-0.07202274,0.05806765,-0.00248808,0.07715533,0.01838685,0.05897620,0.12829715,-0.04808388,0.10832150,-0.07817405,0.23960552,-0.13607141,0.14288075,0.13524634,0.05666612,0.05042349,-0.04807686,-0.16189878,-0.00388869,-0.04427424,-0.10454478,0.00979603,0.06677672,-0.15737960,-0.03114029,0.23422121,-0.08338941,-0.09619991,-0.21915562,0.09508082,-0.00960470,-0.01709477,0.10128280,0.00202559,-0.09114426,0.02659224,0.11000225,0.09811652,-0.00981786,0.12779762,0.07285255,0.06267204,-0.09420634,-0.05145290,-0.00045695,0.05224540,-0.05766364,0.00672153,-0.07907893,-0.08798879,0.31533277,0.02739440,0.06114032,-0.30689329,-0.02939765,0.06366063,0.05923029,-0.10844146,0.10050792,0.08230802,0.06023430,0.03185864
0.08312082,-0.07885997,0.01959153,0.12889184,0.06274233,-0.10438795,-0.02760769,-0.10785885,-0.06233659,0.05312768,0.06654056,-0.03607173,-0.06840695,-0.04467425,-0.39234889,0.03299619,-0.09929989,-0.02348707,0.06003476,0.00993400,-0.02238831,-0.10336322,0.07806634,0.12314752,-0.04087885,0.04407690,-0.05603869,0.05381083,-0.02796429,0.09193084,0.07310916,0.01799041,-0.11368064,-0.01002501,0.00440270,-0.11905391,0.00806611,-0.30908564,0.02769142,0.06090293,0.03195680,0.00107334,0.11793509,0.14524849,-0.00073725,0.01126752,-0.01237150,0.04495838,-0.12517641,0.00446092,0.07233026,0.02504327,-0.01285103,-0.12367024,0.05450148,0.04141900,0.08375833,0.09999628,-0.16869584,0.02155298,-0.20787144,-0.04408213,0.05384040,0.15583186,-0.04362313,-0.07524784,-0.11840288,0.02176529,-0.03912175,0.13377313,-0.06792977,-0.02371837,-0.06628010,0.07385907,0.00400292,0.05917068,0.04160694,0.04743605,-0.01283998,-0.00888978,-0.09869131,0.02385851,-0.15045331,0.02097575,-0.09559499,-0.04205376,0.05898302,0.00876482,0.04741120,-0.04931225,0.03279672,-0.09213455,-0.12611678,-0.05070023,-0.17109765,-0.03935196,-0.01037086,-0.19989976,-0.01855871,-0.04414622,-0.01194681,0.11386558,0.02202865,-0.15494309,0.01835095,-0.04521580,-0.07011466,0.20034848,-0.09607945,0.07388509,0.21811296,-0.01813381,0.03666169,0.13639075,0.00884789,-0.03417698,-0.00136903,0.00441558,0.07195723,0.05477548,-0.06771582,0.35634938,-0.05219838,-0.02282610,-0.03716483,-0.00404926,0.00758461,0.02083542,0.07354502,-0.20002958,-0.06612460,0.10467623,0.11338403,-0.09986828,-0.02932350,0.02709378,0.08568460,-0.12686743,0.09371907,0.04321374,0.06497578,0.06957377,-0.11972376,0.02210260,-0.06254454,0.09706532,0.02814863,-0.15035827,-0.00113565,0.03624952,-0.06094519,-0.10658846,0.00659186,0.12814882,-0.16234767,0.03464564,0.01346058,-0.02061427,0.09150343,0.02677354,0.00163655,0.03251192,-0.06868514,-0.14363499,0.00230387,0.04019204,-0.11188097,-0.06806558,0.08987350,0.23651448,0.00960030,0.07299311,0.00669478,-0.05439900,0.19851553,-0.07376782,0.02720930,0.04403649,0.04150762,0.07279406,0.01670059,-0.11534996,0.06844859,-0.05429078,-0.04159354,0.12120035,-0.06013192,0.00564406,0.06297647,0.19060661,0.12602934,-0.04758197,-0.01269992,-0.12334506,-0.11573254,0.07982813,-0.04982676,0.16880070,-0.08181086,-0.07052364,-0.11982539,0.12412932,0.07438084,0.09606440,-0.16915752,-0.02675604,-0.01829671,0.04570935,0.06661338,0.01586732,0.12078504,-0.00006786,-0.01225997,0.05593500,0.01949134,0.01697773,-0.04282917,0.21772130,-0.07698208,-0.03081922,0.06740788,-0.07844505,0.08058183,0.03779598,0.02886072,0.03986835,-0.08631139,0.01040066,-0.00252330,-0.07169978,-0.14429414,-0.06499627,-0.02535787,-0.26859149,0.00969428,0.16955584,0.08595803,-0.03725021,0.00732484,-0.03826433,-0.08415298,0.00005456,-0.09475224,0.14499463,0.14428551,0.16232060,-0.10152922,0.06245982,0.12574717,-0.00307648,-0.15628463,-0.08452372,-0.02408577,-0.07408915,-0.02587803,0.13533205,-0.00298486,0.17922427,0.02316935,-0.04252019,0.04251792,-0.04458500,-0.00699948,-0.00486144,-0.13190526,0.09451866,0.04362607,-0.14757556,0.03200015,0.11944921,-0.32112193,-0.06127847,0.02384715,-0.07689004,-0.04957003,0.15269089,0.01246943,0.01279825,-0.05490655,0.01014761,-0.05317567,-0.02701012,0.02407475,-0.10942638,-0.16749832,-0.05572221,-0.06440881,-0.07039928,-0.08640657,0.02296996,-0.05216195,-0.02002907,0.00508868,-0.19530295,0.05006719,0.05097472,0.12000433,0.15020292,-0.05478376,-0.06586104,0.08432601,0.04359122,0.03961715,-0.07548914,0.03225811,0.07916608,0.01095202,-0.00677654,0.00061402,0.05840588,-0.02402280,0.02259051,-0.08986343,0.22951724,-0.07526825,-0.30381179,0.05669357,0.11652785,-0.00439870,0.01367359,0.00068028,-0.00170677,0.02865252,-0.06802721,0.12690918,-0.07546076,-0.11339372,-0.02474004,-0.02673358,0.06697020,0.12578472,0.07565017,-0.08097857,0.16141504,-0.06201985,0.03743557,0.08351491,-0.00289823,-0.02484850,-0.04989590,-0.06036329,0.10605437,-0.02286552,0.03459313,0.09008495,0.14091468,-0.02264300,0.09871059,0.24301159,0.02818222,-0.02974277,-0.01898870,-0.14170755,0.04498490,0.07429498,-0.11954045,-0.05725397,0.17062375,-0.08743498,0.13823223,0.13670848,0.05937258,0.05079926,-0.03631419,0.01104404,0.04237986,0.02200657,0.04151091,-0.12138147,0.04694945,0.02650578,-0.17194796,0.03727830,0.10608345,-0.01380262,0.00756590,0.08863163,-0.02032650,-0.08726619,-0.00085334,0.17769817,-0.10783019,-0.13587962,0.17445731,-0.01249549,-0.05300856,-0.07956870,-0.08554854,-0.14095461,0.02880413,-0.13270397,-0.01912885,0.07516570,0.03580907,-0.22133131,-0.01008365,-0.03967389,0.10803317,-0.00839719,-0.01174244,0.04715073,0.04406663,0.06929152,-0.10075995,0.02441615,0.05980959,0.02156049,0.03019726,-0.01642700,0.14035030,0.01184392,0.06056257,-0.00214521,-0.06391765,-0.10460285,0.10273224,-0.05170254,-0.01183328,-0.10049742,-0.11252701,0.15719844,0.24212426,0.04316827,0.03261001,0.13367502,-0.13365819,0.07203588,0.02641321,-0.03672573,0.06021927,0.04353296,0.07538586,-0.03762388,0.04111498,-0.04664133,0.09690278,-0.10096960,0.00706630,-0.01991308,0.05058244,0.04679018,0.05903634,0.05881661,-0.03985840,-0.00212104,-0.02071196,-0.05357914,0.05937587,-0.00339508,0.05045303,0.11077941,-0.09181255,0.04254144,-0.08163048,-0.00013020,-0.02684129,0.00549124,-0.07918648,0.03562101,0.06414627,0.05303052,-0.02547406,-0.03117105,0.08419305,0.13377248,-0.08925540,-0.01156207,0.05086153,0.06749867,0.06275765,-0.09322810,-0.02325896,-0.09510861,0.07777232,0.05090986,0.09676961,0.03023003,0.02553578,-0.08525924,0.08199403,-0.08140939,0.04655927,-0.00398305,-0.02828779,-0.05653858,0.08889423,-0.00918432,-0.02693195,0.03751086,-0.08915412,-0.01081796,0.04078959,0.01077795,-0.02527310,0.15454710,0.17543185,-0.04905706,-0.08003274,0.02651383,-0.09341434,-0.06716678,0.01054994,-0.01246009,0.07703613,0.09057502,0.10857631,0.09884994,0.03718623,-0.14566101,0.10109464,-0.02677839,0.00917478
0.05720958,-0.07705007,0.04167401,-0.07152976,-0.01273254,-0.03069783,-0.06886522,0.04052612,-0.03297220,-0.08975803,-0.18043593,0.02531827,0.05949359,0.11157992,0.00349448,-0.03007929,-0.02886800,-0.01647942,-0.04201743,-0.00503478,0.01887455,0.03590238,0.12040129,0.20779133,0.09258657,0.03309483,0.08994988,0.03049134,-0.05614259,-0.01886292,0.00274975,-0.02436046,0.06894068,0.01553449,0.05320362,-0.05822600,-0.00510959,0.07304173,-0.06489266,-0.09071705,0.04329367,-0.01194381,-0.13071631,-0.21118470,-0.09092636,-0.01714589,-0.02478039,0.00855588,-0.14216456,-0.02947010,-0.14854874,0.02136970,0.07542747,0.01589659,-0.00439729,0.12149093,-0.01353326,-0.09513247,-0.08719795,-0.03493691,0.02272428,-0.05612722,-0.12213088,0.00282973,0.01005699,-0.09406684,0.02798648,-0.09006453,0.05817050,-0.03498306,0.01525211,0.01959573,0.07404032,-0.00981777,0.03217880,0.02724037,-0.07674974,-0.07247593,0.01944648,0.00881184,-0.06476811,-0.04628096,0.04568706,-0.01123171,0.04511597,-0.02183588,-0.01421574,-0.05419303,0.03625313,0.11459792,0.02045615,0.16941381,-0.08333277,0.06496177,-0.08352108,0.33720472,-0.00325776,-0.12136029,0.04746920,-0.03562397,0.09935184,-0.17130141,-0.03431993,0.00698612,0.13472022,-0.07486102,-0.02707404,-0.02292063,-0.04954370,-0.06020085,0.00918148,0.05203163,-0.08089651,0.01473215,0.02786889,0.08238973,-0.03888980,0.16653435,-0.01197199,-0.00751951,0.11078667,-0.08094102,0.09015416,0.13731691,0.02712982,-0.12012869,0.10872746,0.00646280,0.09893233,0.03188055,-0.04584504,-0.09671038,0.05203611,0.09197178,0.03249066,0.04672857,0.07388799,-0.05150471,-0.00372848,-0.11863329,0.06361549,0.23227672,0.08126695,-0.14034373,0.03449529,-0.25265303,-0.11903936,-0.01097844,0.12575503,0.06160615,-0.02970375,0.22394009,-0.12393434,0.05924297,0.12348540,0.08534570,0.07162180,0.03298352,-0.02487811,0.00717859,0.04504253,0.04790371,-0.04126104,-0.15027992,-0.00314011,0.03962823,0.08442543,-0.01374696,-0.23368913,-0.03224068,-0.01583559,0.01123006,0.16769113,0.03003674,0.10962066,-0.13900298,-0.09842112,-0.05792075,0.01468168,-0.00999602,0.01932652,-0.08604114,-0.04949741,0.03350447,0.20160021,0.05708294,-0.04339375,0.02489331,-0.28223205,-0.07424764,0.03723339,-0.02742479,-0.09909650,0.11950870,0.00855006,0.01788138,-0.03888016,0.04016227,-0.01330738,-0.01620547,0.15189581,0.08514715,-0.05227001,0.09962205,-0.03355508,0.10932871,-0.03155642,0.04136270,0.03440847,0.03084311,0.01977119,0.02325135,0.02397010,0.05889308,0.02673751,-0.04167649,0.10697138,0.36025578,0.03383014,-0.05725999,-0.06312072,-0.03076254,0.02390820,0.04684471,-0.06395798,0.02350914,-0.09313858,-0.04601283,0.06210152,0.06665159,-0.05026471,0.03364536,0.06446975,0.10916894,0.04850351,-0.06930371,0.08462549,0.05166245,0.10986280,-0.02312470,0.23824482,-0.07073578,-0.08609662,-0.15617380,0.10654752,-0.10387170,0.10286707,-0.03101561,-0.10861317,0.10000599,-0.14882426,0.02482400,-0.01799023,0.08525748,0.08241463,0.04474891,-0.06183873,0.10562728,0.12603675,-0.04833151,-0.00669892,-0.00043846,-0.06557924,0.05571428,0.04423517,0.00039369,0.09025599,-0.06914450,0.06304792,0.05059851,0.02663847,0.06260400,-0.00416667,0.08351267,0.09922948,-0.09457235,-0.00185880,-0.00229207,0.02857229,0.03470247,-0.07627854,-0.09656595,0.07163702,0.01352951,0.08724876,0.02167935,-0.30955103,-0.04313422,-0.16876081,0.05339101,0.11881466,-0.03431678,-0.06176018,0.16587573,0.02668618,-0.00056143,-0.10431533,-0.03847642,-0.04958571,0.07401989,-0.03576105,-0.15950730,-0.09897524,-0.23022097,0.01253593,0.02921202,-0.00411841,-0.00592645,-0.04486068,0.03818990,0.01524478,0.09903537,0.08766864,0.11560304,-0.01029422,-0.27054912,-0.01895675,-0.05966427,0.03009338,0.09357650,-0.08805955,-0.14669771,0.05493918,-0.07504818,-0.13338116,-0.04583126,0.05951057,0.02845717,-0.00753562,-0.02293202,0.10179090,-0.05779070,-0.00219211,-0.06211997,0.05807416,0.08620503,-0.02182935,0.04007408,0.03440962,0.20437889,-0.16532701,-0.07841935,-0.11256073,-0.05406654,-0.07573553,0.13188566,-0.08156198,0.12535062,0.03668870,-0.01703746,0.07347248,-0.06297715,-0.02743213,-0.00221420,-0.17749725,0.01008183,0.01677108,-0.09031887,0.06962770,-0.18196435,-0.08197919,0.09115214,-0.08476926,0.14770983,0.01644965,-0.06374057,0.07208128,-0.02116353,-0.01530316,-0.11465345,0.00405310,-0.01736105,-0.01991594,-0.07122417,-0.02003473,0.04157443,-0.02775036,-0.11061725,0.11963449,0.01009366,0.02607766,0.08786064,0.16540234,0.03972872,-0.08335841,0.06321409,0.00142039,0.11494238,-0.01864359,-0.01124921,0.04049844,0.03706338,-0.05927669,-0.01822099,0.13600387,0.03321570,-0.03253089,0.10011811,-0.06471123,-0.04653197,0.05162104,-0.00113387,0.00931402,-0.04955887,0.00793209,0.12990174,-0.10640702,0.00890072,0.07314883,-0.09192591,-0.04786896,-0.00012703,0.09243525,0.14418189,0.07882969,0.00728039,0.04877651,-0.09881897,-0.07711878,-0.05424127,0.02249421,0.03523751,-0.01922644,-0.03408531,-0.19724859,0.00465067,-0.00205409,-0.07968921,-0.27664638,-0.06971444,-0.01846599,-0.05243802,0.01975066,0.08566752,0.11208492,-0.09823362,-0.01267730,0.00455266,0.06144163,0.03065327,0.03972578,0.20736296,-0.01529432,-0.07044491,-0.08642017,-0.01476533,0.02408063,0.00930996,0.02940396,0.03015375,-0.07164737,-0.06625359,-0.06926487,-0.10902737,-0.13995609,0.06250021,0.02919455,0.04584034,0.03280491,-0.02999648,0.05351069,-0.01879457,0.06669959,-0.02964974,-0.03762120,0.07149766,0.00248495,-0.11639249,-0.09898434,0.03146616,0.01183800,-0.02896610,-0.10179439,-0.01090642,-0.04322252,-0.00508351,-0.08543900,-0.03073400,-0.02390820,-0.02798129,0.05652133,0.04646892,0.16582765,-0.07920747,0.00780422,0.03607850,-0.01090801,0.01927732,-0.09834620,0.04895039,0.15802418,-0.08824443,-0.05288978,-0.03692288,0.01374369,-0.00023357,-0.05594648,0.07420616,0.07686622,-0.04166788,0.01716127,-0.05904696,0.02251467,-0.10643502,-0.06660282,-0.07380033,0.04840001,-0.00238385,-0.05053242,0.07310555,0.01712176,-0.16400385
0.10808531,0.04595752,-0.01046811,-0.06222956,0.01839781,0.03040830,-0.06694216,-0.02305158,-0.06625061,-0.03804226,-0.04497189,-0.02582091,0.02458929,0.07905679,0.29558623,0.10899624,-0.08950576,-0.04168399,0.03780011,0.00789215,-0.12544958,0.02229512,0.09154821,0.15101570,0.03142297,-0.05486816,-0.03149740,0.04721756,-0.05650970,0.04147074,-0.02089973,0.11134125,0.03677334,-0.07508618,-0.02172362,-0.12672679,0.07984360,-0.03883119,0.03201982,-0.03484476,-0.02830632,-0.02949149,-0.03618965,0.10136296,0.11066254,-0.11405597,-0.02059503,-0.02959594,-0.11829400,0.06272937,0.04718688,-0.05632912,-0.01360272,-0.03281188,0.07541390,-0.00313435,-0.04090692,0.06996019,-0.05993938,0.03875821,-0.19105306,0.03139676,0.00463591,-0.01885387,-0.07246936,-0.02798686,0.09126298,-0.07083540,0.10276584,0.08770067,0.06674366,0.11668967,0.00118452,0.01496638,-0.09453356,-0.00893596,-0.00896790,0.01856691,0.01563579,0.05434789,-0.12065053,0.01723919,0.07079111,0.06527992,0.15693510,0.09544105,-0.05911869,-0.06266456,0.08800938,-0.01736347,0.18911923,0.01788523,-0.06446423,0.00886180,-0.00494436,0.22109973,-0.00655456,-0.08887869,-0.04165012,0.05086120,-0.00628887,0.03498390,-0.00130619,0.02870829,-0.12528379,-0.02524126,-0.02225641,-0.03033841,-0.03113792,-0.01164552,-0.04658992,0.00076576,-0.04999071,0.08054916,-0.00942974,0.00137257,-0.07607717,0.14493895,-0.03242276,-0.03094170,0.02737024,0.10342069,-0.04019779,-0.02572702,0.05392345,-0.04950752,0.03791775,0.02286455,0.09164996,0.23350613,0.04128064,0.06498811,0.13290942,0.02444628,0.04135696,0.03339344,0.10978275,-0.02511078,0.00363807,0.12105704,-0.00052422,-0.01464989,-0.09654634,-0.05788219,-0.00396199,0.11926655,-0.14965470,-0.00781361,0.11629158,-0.05251123,-0.01641107,-0.14819814,-0.07257753,0.00497185,-0.02690900,0.15701693,-0.11918299,-0.00025312,-0.00494529,0.04836785,0.09525228,0.00873699,-0.04882626,-0.10182911,0.01236585,0.01334525,-0.12576553,0.10050771,0.19493835,-0.05732717,-0.00560122,0.00032314,0.16484524,-0.02884379,0.05774591,0.03785545,-0.11751131,-0.02270884,0.04779028,-0.14969184,-0.03399328,0.02247511,0.04253884,0.00115070,0.09805581,0.03350915,-0.00908473,0.06260506,-0.19251044,0.05258295,0.07863586,-0.03260231,-0.14796329,-0.07274262,-0.02965762,-0.06239904,0.13100863,0.06903291,-0.01097464,-0.03316882,0.06376968,-0.00027301,0.08023961,-0.01180981,-0.04276812,-0.11547829,-0.00250400,0.00734589,-0.02607337,0.03136792,-0.02997022,-0.02416775,0.08409405,-0.00533633,-0.05704068,-0.07926094,-0.00171389,0.06801701,0.11722605,-0.13868342,0.05332540,-0.09911406,0.04361103,0.10755061,-0.04580806,-0.00833832,-0.03366985,-0.03855283,0.02583981,-0.06907602,-0.02858337,0.05816887,0.06869569,-0.05563213,-0.05635930,0.00671609,0.13001089,0.03142091,0.19660988,-0.05697279,-0.04915747,-0.02261590,0.00488428,-0.01840406,-0.03638453,-0.12941359,-0.00804308,-0.04572518,0.00466514,0.13840941,-0.18450853,-0.01898531,-0.01440894,0.03929379,-0.17019746,-0.11163767,0.04389794,0.04268906,-0.05907740,0.01633033,-0.07179525,-0.09577963,-0.01457095,-0.05530091,-0.04404943,-0.09318919,0.05635823,-0.17951913,0.06328559,-0.00807041,-0.03467040,-0.05890347,-0.04400391,-0.08828836,0.14980511,-0.12373045,0.16310599,0.07670601,-0.08729951,0.04759164,-0.09232000,-0.13313730,0.09311798,0.00680510,-0.14310597,0.02354861,-0.03351291,0.11865572,0.06871243,0.00625942,0.00433763,-0.00548351,0.01490484,0.11298628,-0.04923036,0.06644801,0.12896557,0.03915204,-0.08315421,0.12730326,0.17660820,-0.01805506,-0.01988851,-0.20879188,0.05290075,0.04413904,-0.02369886,-0.01728112,-0.04221794,0.10265418,-0.00761135,0.12103537,0.04391573,0.05332509,-0.03683386,-0.21293046,-0.02187222,-0.03102961,0.06330121,-0.01397858,0.08218158,0.04357763,0.10334783,0.03258834,0.02924675,-0.13315623,0.10599570,0.00943321,0.01259914,0.05363005,0.08218849,-0.00897829,0.03549685,0.01446465,-0.00988588,0.07770140,0.01108055,-0.07263146,-0.03670409,0.00621700,0.00221160,-0.06092614,-0.02077788,0.02187720,-0.12558284,0.01943829,-0.09340444,0.09913930,0.02023612,0.04152968,0.23762040,-0.08943880,-0.06017276,0.03904958,0.25699192,0.11255091,-0.04332888,0.01960545,0.09282985,0.02896097,-0.07350143,-0.01321189,0.05229953,-0.00964426,-0.05288040,-0.04710176,0.11549191,0.09372998,0.02738255,0.09660676,0.04841645,-0.07840326,-0.02542708,-0.06331149,-0.01184519,-0.00585630,0.08006174,0.11602202,-0.12624867,-0.03052800,-0.10829795,0.03213026,0.00273556,-0.09162818,-0.01082687,-0.05926916,-0.04962506,0.09711892,-0.06230172,-0.02019727,-0.10497710,-0.00067428,0.03787200,0.08519631,0.03151880,-0.06130621,-0.05459659,0.01042236,-0.11559375,-0.17727092,-0.05430025,-0.01398814,0.05003477,-0.09094977,0.06739309,0.06128177,-0.10139386,0.04190554,-0.00453666,-0.02351212,-0.06760528,-0.01224707,-0.07206195,0.03391450,0.04652104,-0.08218516,-0.13064118,-0.03874801,0.12285990,0.03137995,0.03790541,0.03116577,0.05053347,0.11559472,0.19704232,0.01776215,0.02075383,-0.04920303,-0.16819640,-0.04918435,-0.04454719,0.02432470,0.07849424,-0.05732102,-0.03331526,0.00696110,0.06367613,0.08527528,0.04579705,0.04721874,0.01971456,0.05677209,-0.08344752,-0.13084166,-0.07523751,0.04725815,0.08716311,-0.05047414,0.07782921,0.06975606,0.05631853,-0.13261741,-0.11118498,-0.00709119,-0.03639494,0.08391776,0.06560687,0.08296057,-0.00984291,0.04682161,-0.06888225,-0.01603447,-0.14431298,0.04522592,-0.13332324,0.03420364,-0.08747119,-0.11029900,-0.01946850,0.01846002,-0.08324183,0.11603107,0.10735763,-0.02628806,0.05982978,0.06546492,0.02728668,0.06087702,0.13277811,0.07032594,-0.03460321,0.02624715,0.03116133,0.02426109,-0.12610942,0.04035044,0.04936861,0.00620191,-0.07587108,0.05596320,0.18018816,-0.02999130,0.01860511,-0.09237043,-0.02078655,-0.01669727,0.04953311,-0.07549746,0.11372397,-0.01399768,-0.08875903,0.10246588,-0.12880062,-0.02703046,-0.00647657,-0.00524800,0.12105478,-0.02210326,0.02558991,-0.04751782,0.01238909,-0.02938439
0.02216689,-0.11038061,-0.01159105,0.02839332,0.11935991,0.06191763,-0.03261895,0.01341691,-0.03447058,0.00988338,-0.07876112,-0.09296326,0.14877489,0.09014374,0.04588618,-0.03424463,0.02612385,-0.03432826,0.11951845,0.07986823,0.00293524,-0.02811682,-0.12701762,0.04444383,0.07108093,0.12244830,0.01429866,0.04533165,-0.12196223,-0.00309488,-0.14060128,0.04144987,0.02643199,-0.01979649,-0.04883378,0.22644190,-0.00938501,0.03961268,-0.07787659,-0.00107209,0.03520747,-0.00436248,0.21672222,-0.18269141,0.00414284,-0.00154294,0.05934709,0.04236131,-0.04865890,0.05356870,-0.06856462,-0.01426918,0.01156693,0.03101901,0.04954972,0.01193847,0.16928107,0.00856039,0.03678267,-0.14445981,-0.00301681,-0.09921164,0.10117032,-0.16904475,-0.11058106,0.04623748,0.00230675,-0.00403147,-0.01927751,-0.05101759,-0.02973203,-0.08919080,-0.07209722,0.02764032,0.06220170,0.02019893,0.03925620,-0.16023134,0.08292238,-0.02119680,-0.22572874,-0.05460387,-0.06230872,-0.11842526,-0.19911535,0.12475009,-0.00219791,0.01842563,0.11697832,0.08458297,0.00154992,-0.03588649,0.18904334,-0.09512646,-0.07221853,-0.30402285,-0.04963928,-0.06854858,-0.00959306,0.20099357,-0.14932032,-0.14523311,-0.03905665,0.05140486,-0.07400602,0.06904218,0.06086917,-0.00477036,-0.08219597,-0.05878789,-0.26903880,-0.03472155,0.18025549,0.00120167,-0.01803163,0.17679669,0.06196272,0.04387952,-0.08122170,0.04262063,-0.08065903,-0.14054017,-0.03525451,0.03303463,0.17928493,0.02634579,-0.11395980,-0.04748658,-0.11403079,0.14532034,0.00882815,-0.03310800,0.06962147,0.03336892,0.06606566,0.05781256,-0.00509742,0.12274264,0.00234712,0.05777733,-0.11825384,0.05051023,0.05655424,-0.01919446,-0.01487301,0.07915679,0.14338973,0.05550640,-0.07506014,0.01842953,-0.02142643,-0.07179016,-0.01044753,-0.06295408,0.09663391,0.04587591,-0.16261759,0.05250850,-0.02156437,0.02008171,-0.00902371,0.01367455,-0.11479867,-0.14694308,-0.07178232,0.03589207,0.03411823,0.02499695,0.07856945,-0.03524901,0.03408039,-0.02312021,-0.22008261,0.02650508,-0.01185938,-0.03561511,0.03877516,0.10611098,-0.04680652,0.02551896,-0.03862771,0.02981343,-0.05648516,-0.03028298,0.03268325,0.00038730,0.10630711,0.06764337,0.26929381,0.03747889,0.07908218,0.02187737,0.12599343,-0.10393250,0.02596930,0.03088366,0.30826274,-0.05926012,0.05330366,-0.00678343,-0.10039527,0.00976065,0.02338230,-0.10643669,-0.02987268,0.04136537,0.00534763,-0.06613046,0.17060430,-0.00803316,-0.10353323,-0.10670500,-0.08346267,0.03640242,0.01658710,0.05958562,-0.04227976,0.04746605,-0.06171030,0.14379965,-0.00533913,0.02189923,-0.12657344,-0.05313197,-0.02999972,0.02673776,-0.09178766,0.00177962,-0.01275669,-0.04188214,-0.21985798,-0.11422341,0.11680613,0.05563499,-0.04079551,0.05029408,-0.00786874,-0.16542146,-0.11985333,0.06890257,0.14047866,0.14547659,0.02563896,-0.03907925,-0.04744728,0.06336609,0.01089710,0.12224922,-0.06728725,0.00087650,0.10242230,0.03130140,-0.01277236,-0.01254652,-0.11351162,-0.05093806,-0.14371021,-0.03064814,0.06047541,0.08418783,0.01260266,0.09629032,-0.02446443,0.02762583,0.01750757,-0.11555527,-0.06258825,0.08787148,0.01351588,-0.00781674,-0.15530296,0.03725382,-0.04420245,0.01214465,0.02559768,0.05649303,-0.01119546,-0.02668549,-0.09487370,-0.09182441,0.10173512,0.16948280,0.09637859,0.10068958,0.12255038,0.02575793,0.29664409,0.07748830,0.05470505,0.02395087,-0.04618919,0.10330936,0.04460312,-0.06311354,0.14021409,0.04953508,-0.00596601,0.06449984,0.03855146,0.07438335,-0.05766778,-0.00016671,-0.02545956,-0.07216267,0.05449980,0.04619515,0.02213983,-0.04453278,-0.08458418,0.04413537,-0.09637445,-0.06853196,-0.04911008,0.02090991,0.05936548,0.10486200,-0.12320104,0.01844143,-0.01289600,0.20371325,0.07095300,-0.03301183,-0.07181785,-0.01494184,0.19164756,-0.06258603,-0.05435862,-0.15555544,-0.16491245,-0.09644485,-0.03610899,0.01527977,-0.05465981,-0.05321727,-0.11708759,-0.09213745,-0.09229448,-0.02951668,0.02402588,0.11203974,0.01452897,-0.06657250,0.15275760,-0.05532729,-0.04620040,-0.01129958,0.09571795,-0.00982823,-0.02671065,-0.00162802,0.00658978,0.06006119,0.02158096,-0.14797257,0.10224742,-0.02167750,-0.04843601,0.14272277,-0.06598453,-0.04844918,-0.04406814,0.04791817,0.00559750,-0.05050353,-0.20482735,0.15363903,-0.13141756,0.05337036,-0.04194047,0.05145497,0.07755280,0.00867651,0.15839452,-0.00011585,-0.09946710,-0.07335085,-0.03412309,0.17408760,-0.20147331,0.03890760,0.11035475,-0.00309869,0.03003137,-0.02667805,0.00700304,0.12244070,0.00042211,0.01589124,0.00890451,0.02840994,-0.01141235,-0.04438999,-0.18230522,-0.25464061,-0.03701838,-0.05183167,0.02673468,0.01670752,-0.01073480,-0.08211984,-0.03910133,-0.07736020,0.03681851,0.05554103,-0.00581516,0.17702231,-0.06423470,0.01086168,0.05963391,-0.01222560,-0.13857502,-0.02463135,-0.07027303,-0.04970067,0.08202539,-0.01501222,-0.11591156,0.08258083,-0.05014753,0.06900787,-0.07551496,-0.13429806,0.07041372,0.04235706,0.13259959,0.02696470,0.00257518,-0.02254425,0.10753436,-0.10861654,-0.02800860,-0.04639871,0.11227322,-0.11086771,-0.02558910,0.07604998,0.03271047,-0.09685859,0.00473546,0.02419527,-0.01001733,-0.17567572,-0.02407035,0.08030335,0.14202759,-0.01026256,0.11487388,0.01823360,-0.10859780,-0.00028798,0.07668353,-0.12929803,0.01967089,0.07898335,0.03934754,0.07625665,0.26783469,0.02117596,-0.05160545,-0.11104521,-0.04108920,0.07807093,0.22140442,0.09992860,-0.07699632,-0.00273436,0.08151360,0.14883655,0.03982548,-0.02431495,0.03201970,-0.12399433,-0.05293307,0.16585122,0.10162490,-0.07972243,-0.05681422,0.04028015,0.09931103,0.09986270,-0.07400473,-0.03335650,0.04369655,0.06379889,0.08124427,0.03766947,0.03297804,-0.03661159,-0.00439388,-0.11849964,-0.21505460,-0.01898630,0.07971281,0.02424616,-0.04075510,-0.08141207,0.09712233,0.01294085,0.04141795,0.14798482,-0.14915618,0.06539911,0.01969194,0.26192659,0.11170737,-0.13350931,-0.12905981,-0.04109280,-0.05250037,-0.02150622,0.07521031,-0.08017454
0.02805892,-0.02008862,0.05307611,-0.03905482,-0.00136919,0.25294787,0.08819782,-0.01230308,-0.07111978,-0.02597610,0.11850733,-0.03221533,0.10793953,0.11054978,-0.10482613,0.07006977,0.00651055,0.05813919,-0.04765904,-0.05697828,-0.01168977,0.03288104,0.00097652,-0.01821617,-0.04077849,0.00150249,0.04169486,-0.13306056,-0.01174349,-0.07192508,-0.07438264,-0.04373268,-0.01266508,-0.04516792,0.01113804,-0.01182810,-0.02547282,-0.00536140,-0.06576511,-0.00491383,0.07670124,-0.08969215,-0.08037917,0.26928353,0.07641225,0.01303272,0.01269910,0.01892575,0.05116671,0.10088668,0.11538453,-0.07278745,0.00551310,-0.03368359,0.02488641,0.01823906,0.04258991,-0.00853336,-0.19824162,-0.02862564,-0.07497548,0.02872187,0.07618672,0.04884308,-0.02513352,-0.00098525,0.05160433,-0.04688004,-0.00756083,0.08086606,-0.01147150,-0.20123634,-0.00605227,0.01466310,0.03224528,-0.10783987,-0.01943206,-0.05244273,-0.01853354,0.12761749,0.22258684,-0.00349550,0.04201249,0.01144207,0.04681551,0.02042654,-0.00752919,-0.06492569,-0.03741391,0.10256442,0.00427348,-0.07481463,0.10473146,0.02868290,0.08523194,-0.04195045,0.05208418,-0.12952845,0.03832942,-0.09449420,-0.15569267,0.11884220,0.01737468,-0.03289997,0.03908583,0.10118348,-0.09797718,0.17378193,0.00278669,-0.02863645,-0.10723347,0.00027851,0.09505671,0.02780803,-0.15456392,0.00075009,-0.01631601,-0.13137354,0.17556275,-0.02022133,0.08249409,0.09645303,0.01117240,0.12232094,-0.16075411,-0.08621709,-0.02903985,0.15411234,-0.01186081,0.05963958,0.00084266,-0.10383835,-0.00588475,-0.16617990,0.02075000,0.07539360,-0.01477177,0.00634424,0.12584724,0.12014338,-0.18298273,-0.13781595,0.10100612,0.06788987,0.00137913,-0.01264852,0.00295963,-0.03520006,0.07518884,-0.02024935,-0.04182734,-0.16262758,0.00471306,-0.03807753,-0.00363235,-0.06237327,0.11016173,0.00261360,-0.01987950,-0.04331807,-0.07019813,-0.01733631,0.01146434,0.06369071,0.11106738,-0.06640864,-0.06389350,-0.00082024,-0.16655485,-0.22631082,-0.01761705,0.01828380,-0.01916893,0.00351872,-0.07583947,0.07431992,0.01561364,0.01692238,-0.11040246,0.00332873,-0.00152855,-0.00819370,0.18509600,0.04838637,-0.05824943,-0.00763678,0.00908064,0.00269522,0.04117117,0.06788284,0.00767232,0.00804291,0.01768451,-0.02025609,0.04294426,-0.00039394,-0.00242704,0.18023570,0.00274587,0.03855512,0.07113765,-0.08605136,0.02940733,-0.07478948,-0.05158090,-0.11726803,0.01301365,-0.04000304,-0.17368886,0.18317915,-0.01121437,0.16296235,0.04717454,-0.00091587,0.00149220,-0.05364300,-0.02706535,0.18943039,0.14260198,-0.03402285,-0.00019514,0.00666756,0.04500529,-0.08640045,0.05415309,0.06354379,0.20230390,-0.03590406,-0.09221448,-0.06539916,-0.02784615,-0.04483464,0.01826499,0.01988274,-0.03401138,0.03803748,-0.11708403,-0.06287231,0.01409716,-0.04758756,-0.08460057,-0.12239933,-0.05209123,-0.02074297,-0.06008374,0.07874658,0.05357171,-0.06277532,0.09014262,-0.01599856,0.05307735,-0.14942950,0.02216848,-0.02928299,0.05474266,0.13014644,0.06511182,-0.07815979,0.00240723,-0.06734873,-0.01976287,-0.04277812,-0.00936901,0.07135466,-0.04349747,0.01259466,0.11798473,-0.00710288,0.01461722,0.03697804,0.09138633,-0.02201059,-0.04035764,-0.18080884,-0.06048183,0.07688115,0.05630294,-0.07089941,-0.05021689,-0.07635426,0.07566217,-0.03483993,-0.01643693,-0.11592657,-0.17384052,0.03545117,-0.02086885,0.04007981,-0.03049293,0.04029591,0.00642599,-0.03311778,0.06511641,-0.08003999,0.01848706,0.08304211,-0.08626848,-0.09706666,0.06702067,0.11565421,0.06504588,0.04911188,-0.03480253,0.04797237,0.01804133,-0.02480523,-0.03362374,-0.00988297,-0.04069071,-0.17569558,-0.00754430,0.01908737,-0.14108653,-0.15352251,0.02009373,-0.37205935,0.06985614,0.01077917,-0.06663974,0.02498868,0.20229678,0.07700032,0.12331085,0.04897944,-0.05652583,-0.01012710,0.03961459,0.06596673,0.09296349,-0.03811171,-0.04960770,-0.07120308,-0.02935744,0.06239608,-0.00647399,0.04124553,0.03008506,-0.06954475,0.17756604,-0.02930439,-0.07477465,-0.16476837,0.00648167,-0.13279532,0.09821718,-0.00590799,0.02397190,-0.05048941,-0.07003557,-0.16753548,-0.19204646,-0.08421818,-0.09642905,0.09327411,-0.04013477,-0.09379391,0.07143046,0.09932420,-0.06223242,-0.08047626,0.07288472,0.03623775,0.03939090,0.04661744,0.04383384,-0.04052572,0.14193727,-0.02630172,0.00320119,0.03951178,0.03614908,0.09180948,0.01462968,0.01299415,0.02114914,-0.02882417,-0.02771489,0.08564778,0.12524527,0.04191043,0.02450685,-0.05428376,0.02809625,0.01709980,0.09782174,-0.03737912,-0.05527679,-0.10252681,0.09198850,0.02786377,0.01858752,0.00201674,0.00289465,0.00650301,0.00604407,-0.08072907,-0.08658330,-0.01509955,0.01228830,-0.16852362,0.09576924,0.04918381,-0.00438721,-0.00351167,-0.03936580,-0.08107526,0.08274332,0.01039176,-0.11099309,-0.03833802,0.32674390,-0.07958990,0.00523505,0.04138985,0.03692620,0.15678665,-0.01786403,0.17280674,0.06042700,-0.10049267,-0.10173991,0.06029140,0.08966640,-0.04659615,-0.02428180,0.05741183,-0.15805137,-0.10220961,0.10250352,-0.00716382,-0.00084048,-0.02491718,-0.01884907,-0.15698719,-0.01866930,-0.02796944,0.04607806,-0.02432242,0.05752966,0.02850847,-0.00889285,-0.05538893,-0.06181702,0.01098182,-0.01788244,-0.01230358,0.01701674,-0.11907187,0.12189213,0.09795547,0.09409077,-0.00566780,-0.05860103,-0.02407681,0.08736497,0.03030655,-0.15546189,0.02341138,0.04518855,0.05215053,-0.21294959,0.02828079,-0.11950983,-0.04158863,-0.05313110,-0.04109536,-0.02818965,-0.02615023,0.12273782,0.10015964,-0.06646713,0.13951232,-0.05887573,0.07842131,-0.08260576,0.06209338,0.15882209,-0.00719755,0.02499865,0.01994499,-0.07677133,0.00960919,-0.09542821,0.11710759,-0.10816675,-0.01223841,-0.00460155,-0.12453663,0.06952563,-0.07709587,0.08935541,0.01053497,0.06139148,-0.05026441,0.05565984,0.03177683,-0.06035026,-0.01056734,0.09319308,0.01231237,-0.05725217,0.09385908,0.01320019,0.07532819,-0.03694059,0.10394865,0.17718562,0.11095466,-0.05227933,0.04880610,-0.12941338,0.04552612
