-0.18485798
0.00526445
-0.13949180
0.00818326
-0.14493203
0.06083665
-0.09255292
-0.01674391
0.02090704
0.03371194
0.01681546
-0.00074407
-0.00145677
0.09452644
-0.10643204
0.05635008
0.04226458
-0.00393905
-0.09621441
0.01558114
0.09184881
0.01690025
0.02949955
-0.05008480
-0.11968508
0.00698698
-0.17917985
0.06516978
0.06972231
0.00491477
0.00069040
0.01749407
-0.05062651
-0.03828306
-0.01636941
0.16282819
-0.09639771
-0.00984802
-0.03206197
-0.15180360
0.04168062
0.14717947
-0.14261661
0.07364322
-0.04637421
0.00456710
-0.12442166
0.11623895
0.03558619
0.05257997
0.01554718
0.00090036
-0.01035733
0.05749188
0.10462663
0.05017296
-0.04699435
0.02713851
0.05647582
-0.00677891
0.01714613
-0.07069475
0.03216404
0.04683894
0.05555175
-0.12742369
0.05850214
-0.05873222
0.09191274
0.04735503
0.15079713
0.00480700
-0.13880734
0.01479466
0.08194065
-0.01502144
0.01900644
-0.00128880
0.00540250
0.01802379
0.05350662
0.01134370
-0.06446225
-0.10503244
0.15389937
-0.03747848
-0.00939654
-0.03962879
0.02400006
-0.02348701
-0.03685793
0.05619851
0.00190977
0.14464167
0.04102920
0.06269639
-0.11409431
-0.06712522
-0.14589033
-0.04094221
-0.05933721
0.00160001
-0.14361966
-0.05540683
-0.07641221
0.01027620
-0.13589084
-0.12550175
-0.00511840
0.02753840
0.14917588
0.03484938
-0.11282033
0.14928260
-0.06220835
0.00179077
0.02785422
0.01525162
-0.00292958
0.00854266
-0.00910125
-0.15307534
-0.07675438
0.08233615
-0.14753605
0.07011820
0.08997418
0.10562533
