-0.10142924
-0.00499344
0.04274083
0.09324206
-0.10700516
0.07742802
-0.18909882
-0.08939180
-0.02313175
-0.04578368
-0.04173044
-0.10371216
0.13541342
-0.20894724
-0.12316180
0.01702244
0.14232364
0.07430870
-0.08024786
-0.26011527
-0.12522508
0.05854618
-0.17959131
-0.12675962
0.05800345
-0.13652855
-0.17578882
0.02706776
0.03771344
-0.02528434
-0.03279067
-0.02034528
-0.15950352
0.05911992
-0.10016601
0.03699980
-0.02040695
-0.02861118
-0.07912422
0.14936244
-0.00620116
0.05868721
-0.03306649
-0.07513086
0.03658010
0.03529818
0.01332872
0.04448882
-0.05090384
-0.06754097
0.05793114
-0.05196763
-0.25015169
0.33063030
-0.06693231
0.00369709
-0.07310595
0.13976264
-0.00712586
0.02187318
0.01906294
-0.05087368
0.17119263
0.12757397
0.02249770
0.03362559
-0.05726111
-0.07973135
-0.03318305
0.00291485
-0.06739309
-0.05512860
0.09515646
0.05433720
-0.07879034
-0.15256724
-0.08601794
-0.06062816
-0.03182139
0.03718866
-0.05925167
-0.04973624
-0.08897638
0.01918692
-0.08663852
-0.10875741
0.00981901
-0.02298321
-0.08666931
-0.02952454
-0.07460880
0.03980220
-0.41606849
-0.07471369
-0.02476066
-0.05849946
0.01170057
0.04580350
-0.04982172
0.00979216
0.00524268
-0.08978630
0.00452274
0.00651578
-0.09842952
-0.01949258
0.08620550
-0.02177459
-0.12965623
-0.06241586
0.04105829
-0.15484320
0.21393228
0.10293153
-0.10063522
-0.04044681
-0.11922807
-0.10184424
-0.01038293
-0.05700378
0.01872817
0.21483725
0.00303231
-0.08356066
-0.07704786
-0.01372044
0.00226619
-0.06017618
-0.08508801
0.03379255
0.01566718
-0.15965378
0.05504042
-0.08338761
0.02967315
0.06423866
0.13424280
0.04300378
0.11357360
0.23119086
-0.01815633
-0.03492087
-0.01109887
-0.05295186
-0.13459380
0.41903484
0.01644143
0.04301580
-0.07112101
-0.07986652
-0.08209732
-0.11237504
0.01752199
-0.05090762
-0.04126485
-0.03162163
-0.14844373
-0.14074151
-0.07493345
-0.17992121
0.08436183
-0.12055593
-0.02255815
-0.04290004
-0.08851561
-0.07974716
0.02928977
0.07026899
0.12622802
0.03945607
-0.08199380
-0.10926265
-0.13677375
-0.13482653
-0.04372578
-0.29857448
-0.02866588
-0.11584056
-0.12584403
-0.02632347
-0.00521997
0.02453067
-0.21515584
-0.16659480
-0.13249791
-0.04610532
-0.13965958
-0.25269446
-0.06727894
-0.02151906
0.09469217
0.12128841
-0.31023601
0.10301875
0.04648959
-0.04173908
0.00794129
-0.10516342
0.00465951
-0.07780091
-0.04011448
-0.20997977
-0.14945757
-0.15185292
-0.02107945
-0.11764408
-0.15316571
0.04751970
0.00950366
0.02822381
0.00003990
0.00460718
-0.13798186
-0.11215003
-0.05797103
0.15967257
0.00375831
0.01101401
-0.22935741
-0.11395857
-0.11638378
-0.17005290
-0.11041808
0.13025120
-0.08216508
-0.07642678
0.00067084
0.07790324
-0.02331111
-0.07370628
-0.08960136
-0.00125160
-0.09141019
-0.01799259
-0.07872460
-0.09734426
-0.09580668
-0.13243428
-0.08183125
0.09098178
0.02855418
-0.06379963
-0.07259987
-0.15230583
-0.00816760
-0.19262750
0.10196943
-0.05904674
0.06814770
-0.03599379
-0.15703394
-0.25102642
0.03076841
-0.00206293
-0.02603852
0.03894790
0.12902592
0.03277978
-0.08742689
-0.04427903
-0.11109780
-0.02317615
-0.09252936
-0.07299981
-0.26225373
-0.12744173
-0.03165205
-0.07452620
-0.04034198
-0.04296017
-0.09487923
0.01460484
-0.02683643
-0.01333189
-0.01338472
-0.10346800
-0.03222037
0.05868926
-0.02876117
0.03715748
-0.09233547
-0.05769225
-0.03101738
-0.06164414
0.01892203
0.10476582
-0.00653536
-0.07283174
-0.07060178
-0.05159073
-0.03407235
-0.19599311
0.06079862
-0.01592311
-0.03151300
-0.01779605
-0.01048969
-0.30051628
-0.01201379
0.00715900
-0.06294942
0.06587412
-0.01144092
-0.10278898
-0.24592915
-0.06798010
-0.13743830
0.04498867
-1.32532251
0.02625385
-0.07723567
-0.06039701
0.03081818
0.03238861
-0.14790501
0.03933186
-0.08155291
0.05358630
-0.04087820
0.02397981
-0.04648998
-0.00042483
-0.08823804
-0.02220545
-0.09784382
-0.14514166
-0.06381352
-0.05003318
-0.02997089
-0.08153173
0.00620529
-0.10089441
0.07589113
-0.04856724
-0.03985216
-0.10336234
-0.02591560
-0.12771939
-0.03604397
-0.12030782
-0.07846925
-0.10135077
0.03818105
-0.11266557
0.05769769
-0.07160915
-0.04649055
0.08304998
0.08548719
0.04985737
-0.00338826
-0.05899551
-0.02622094
-0.17139845
0.00816276
0.06368024
0.05035615
0.06691358
0.03747200
0.00131372
-0.13049810
0.03038017
-0.01797059
-0.04062581
-0.00523606
-0.10655490
-0.01395992
-0.04041614
-0.04574624
-0.16830441
0.07904084
-0.03921565
-0.09000938
-0.09283060
0.00336080
-0.00527457
-0.01111353
0.00586820
0.00769388
-0.04744061
-0.07205179
0.14351615
-0.09300477
0.08639913
0.02958813
-0.01258586
0.05233632
-0.07177047
-0.04636443
0.05522253
-0.02712315
-0.03638487
-0.20327148
-0.17174178
-0.10464542
-0.09607146
-0.09351952
-0.03196986
-0.05433444
0.01053589
-0.12030379
0.05958384
-0.05120544
-0.01880423
-0.12551324
0.01381350
-0.08475236
0.02280167
-0.05715032
-0.04589168
0.08030663
0.00291274
-0.00899086
-0.02315511
0.03576585
-0.01598326
-0.07348052
-0.02841509
-0.08051506
-0.02002501
0.10073639
0.04720572
-0.09683395
0.04525732
0.02481089
-0.06529676
-0.08274318
0.00006648
-0.07962025
-0.00493264
-0.07191189
-0.01233268
-0.01153963
-0.04991232
-0.07006916
-0.08151613
-0.04821821
-0.03936520
0.04086841
0.01325180
-0.05879547
-0.04895778
-0.00660274
0.27711332
-0.00123731
-0.08850791
0.07106079
0.01267344
0.02992745
-0.04748817
-0.00423772
-0.06505842
-0.18002331
0.04374427
-0.06011181
-0.01518866
-0.05957432
-0.05723267
0.04238459
0.03884561
-0.12096176
0.09377613
-0.10829145
-0.11481287
-0.15028417
0.14115301
0.07799650
-0.18397841
-0.11905079
-0.01197844
-0.08005372
0.01529558
0.01379185
-0.00010292
-0.08517571
-0.13020937
0.10696337
0.00557216
0.04560412
-0.00144890
0.06952144
-0.09805809
-0.20567292
-0.04945149
-0.02650800
-0.05808305
-0.05549745
-0.12098147
0.06249373
0.02102615
0.03604530
0.09176938
-0.13193263
0.08122110
0.15088850
0.00139605
0.25031897
-0.06470234
0.04683447
-0.03504746
0.01045081
-0.08879806
-0.05242667
-0.06585480
-0.07427318
0.00041624
-0.15368506
-0.00966731
0.07955951
-0.06784053
0.01179800
0.08347490
-0.20793878
-0.06365300
0.06262903
-0.13182813
0.01624373
-0.02358920
0.09305529
-0.02113983
0.04275796
-0.10177337
-0.06400225
-0.00786402
0.04701802
-0.05913554
-0.05971900
-0.03815323
-0.05906286
0.01403700
0.01024430
-0.00298164
-0.10705263
0.02218447
-0.00555261
-0.01003450
0.05049425
-0.13265298
-0.07044306
-0.14303815
-0.16180062
0.24252304
0.01817651
-0.10972669
-0.05184262
-0.03487026
0.14372881
0.11962022
-0.11743385
-0.19940753
-0.06676842
0.01851111
-0.07008735
-0.08074014
-0.06608348
-0.02203155
-0.10288539
-0.12225000
-0.06828074
0.01406530
-0.06229455
0.10830528
0.11434208
0.02817768
-0.07153516
-0.05867889
-0.06672852
-0.03298295
0.06073798
-0.03181556
-0.08199090
-0.00511704
-0.02254179
0.10787338
-0.11177086
-0.03399802
-0.06670150
0.06857359
-0.02558002
-0.06804809
-0.07381461
0.05840757
-0.20158952
-0.10244518
-0.02696263
-0.10858434
-0.22716174
-0.05725480
0.04597146
0.01033316
-0.05230967
0.09417467
-0.09938329
-0.08002782
-0.13144428
-0.05011912
-0.07463406
-0.08275307
-0.06259166
-0.06967469
-0.07611998
-0.11141156
-0.00411368
-0.01549623
-0.05808272
-0.13553338
-0.15800850
-0.09865379
-0.06611488
-0.04099393
-0.05446756
-0.08119306
-0.04746862
-0.06519876
-0.19515164
-0.04393717
-0.11581185
-0.01848740
-0.09476895
-0.17209719
-0.05380816
0.01976849
-0.08527423
-0.05154106
-0.03052179
0.00204475
-0.03891283
0.00992077
-0.06076566
-0.00854324
-0.07161307
-0.04853153
-0.01124315
-0.03949667
-0.09927046
-0.02719188
-0.05751102
-0.07059874
-0.10108463
-0.10721233
0.01455738
0.00454136
-0.09467107
-0.04817484
0.07173666
0.00711932
-0.17457597
-0.04093345
-0.04110661
-0.10480297
0.02792135
-0.03355291
0.03100066
-0.09548587
0.37971708
-0.07138535
0.03241475
0.00605848
-0.03716990
-0.10342987
-0.02773854
0.00741174
-0.09523619
-0.08640539
-0.08078124
0.07063436
-0.05221326
0.16594616
-0.07504864
0.00933690
0.12853824
-0.16798694
-0.03645524
0.00707200
-0.03820617
-0.12849781
-0.22814327
-0.12550175
0.00531077
0.11335751
-0.09722300
-0.04044179
-0.20389858
-0.03010846
-0.05228347
0.05527392
-0.10315626
0.05180263
-0.01654737
-0.06191794
-0.07829349
-0.18993716
-0.01510948
-0.00658651
0.02126377
-0.16796704
0.01569526
-0.01380001
-0.06612551
-0.02152926
-0.13944411
-0.07472632
0.16153842
-0.13700582
0.05091023
-0.09310737
-0.09930122
-0.14886548
-0.02392190
0.06261146
0.02051338
-0.12328999
0.05726418
-0.02745854
-0.01051275
-0.14071825
0.02228168
-0.04342640
-0.02837639
-0.08694598
-0.02641194
0.05380689
-0.11728000
-0.07223693
-0.14108469
-0.03461585
-0.00203201
-0.06668122
0.08039865
-0.07600017
0.00646131
-0.08935499
0.03080243
-0.07057076
-0.21900170
-0.08187348
-0.04513362
0.07877664
0.05783626
-0.05950997
0.01915179
0.02242042
-0.16827296
0.02886315
-0.08679935
-0.04560238
-0.04057299
-0.05707961
0.03448941
-0.09930570
-0.02656356
0.03348976
0.00436464
-0.20359729
-0.01571864
-0.09239924
0.12680918
-0.11191800
0.07541100
-0.12355436
-0.09751762
-0.04336195
0.01380986
0.04038951
-0.06964674
-0.10711797
0.00416787
0.02838793
