-0.04801027
0.19766568
0.02154854
0.02880666
0.04442980
0.03834035
-0.05329986
0.05695133
0.01944191
0.08727988
-0.00887906
0.03724894
0.04048274
-0.10549064
-0.12420744
0.07057592
0.23329470
-0.05263937
-0.04708724
-0.03856144
-0.06158626
-0.09761188
-0.01324096
-0.05946364
0.01814191
0.01762529
-0.14896159
0.08894011
-0.11231450
-0.04772349
0.04970185
-0.01973654
0.04152843
-0.00375443
0.00431603
0.12058932
0.01626069
0.06207020
-0.04600812
0.01950264
-0.02562298
0.04211199
-0.01077804
-0.03208303
0.02902669
-0.04861810
0.03215967
0.11317469
0.06003730
-0.11154720
-0.07673097
-0.02087813
0.09632310
0.14460897
0.00501774
-0.03233783
-0.03450822
-0.03152683
0.04502347
-0.16768447
-0.05374976
0.04841421
-0.24742606
-0.12151204
-0.00900544
0.06245242
-0.10643574
-0.02522204
-0.00325974
0.10880778
-0.13937537
0.04354105
-0.03040727
-0.02321074
0.07242596
0.00019633
0.02234886
0.11203959
0.08779441
0.08769558
0.04928358
-0.04698887
-0.01122578
0.09278005
0.05091899
-0.13376023
-0.01064937
0.04306668
-0.04770142
0.05281601
-0.03785349
-0.04498221
-0.24673530
-0.07281569
0.08127496
0.06351373
0.17031004
0.01083507
0.03793629
-0.03075732
-0.01534037
0.00931588
0.00822259
-0.00718318
0.08237970
0.16160050
-0.02637637
0.01911049
-0.07915322
-0.12323837
0.02877124
-0.12279099
0.01764855
0.06827150
-0.09756567
0.05122346
-0.06651764
0.04511111
-0.04447725
-0.01010885
-0.05074213
0.33932135
-0.07616511
0.02705574
0.07106677
-0.04871715
0.04133724
0.03239149
-0.00456568
0.12699339
0.01892469
-0.08703761
0.12910381
-0.01927521
0.04704202
0.03392230
0.06818525
-0.07071550
0.00775894
0.32642555
-0.00691135
0.06811137
0.07675020
0.04553043
-0.06068652
-0.18705338
0.07362745
0.14529532
-0.03471243
0.07857741
-0.02453037
0.05164094
-0.06032104
0.07874478
-0.00984452
-0.07729805
0.03187480
0.02651450
0.05633637
0.09868022
0.09353245
-0.03322164
0.02251334
0.07207886
-0.01388209
0.09600096
0.09451127
-0.07579327
0.26624081
0.05278113
0.01933172
0.03781540
-0.02500472
0.02725477
0.02490356
0.15208453
-0.00083225
-0.08474074
-0.06075008
-0.06261841
0.04497636
0.02177206
-0.07020662
0.01552796
-0.04703509
0.06356236
-0.00507425
0.01827203
-0.01787771
-0.05624413
-0.02954968
0.04800136
-0.06197178
0.00832902
0.04834763
0.04344794
-0.02158997
-0.01216779
-0.07916782
0.00929268
0.01933110
-0.04050070
0.02796364
-0.03462477
0.04718602
-0.08241822
-0.02544297
0.06741791
0.02837869
0.08283399
0.13542625
-0.01628809
0.00054049
-0.04192392
-0.01797139
-0.04899793
-0.18313591
-0.01668172
-0.03367900
-0.05746315
-0.02226341
-0.00329842
-0.05086409
-0.01699531
0.12253983
-0.15656374
0.02028853
0.15738791
-0.03881985
-0.04713767
0.04119018
-0.05358887
0.08120570
0.05012767
0.02119702
0.00645701
-0.00791036
-0.01182946
-0.02600460
0.15963039
-0.01916149
-0.03597182
0.01794486
0.02090285
-0.01746276
-0.44287071
-0.12795147
-0.00573597
0.08010831
-0.17980160
0.00297023
0.04388329
-0.05763940
0.06281624
0.03796183
0.03139740
-0.01241389
0.07622336
-0.01887326
-0.02302230
-0.01774883
-0.07380933
0.09333319
0.00472103
-0.06379499
0.04590163
-0.04347865
0.02580131
0.05470976
0.01415318
0.02788271
-0.04860574
0.02506501
0.10663038
-0.02204930
-0.09618568
-0.05278635
0.04639399
0.03221473
0.03872084
-0.06175626
-0.02291902
-0.05041131
-0.26545852
0.00396617
0.07588254
0.00122876
-0.03354783
0.00551751
0.03453133
-0.02699884
-0.05411213
-0.05001440
0.00464676
0.09695008
-0.06257011
-0.10785134
-0.03751187
-0.00567505
-0.00774077
0.05374253
0.09406705
0.12694365
0.01637482
-0.06852744
0.07764255
-0.09055140
0.00639386
0.06494356
0.03268563
-0.09363100
0.13377136
-0.02872031
0.09451547
-0.08252478
0.04915688
-0.00419189
0.00741389
-0.05649968
0.15413897
0.04527736
0.05901321
0.04816895
-0.14201300
0.00503861
-0.08045999
-0.04417605
-0.03620488
-0.05200017
-0.01164841
0.06637517
-0.52555180
0.04018422
0.09566487
-0.04624323
-0.00619475
-0.00570505
-0.07747635
0.01532040
0.01494931
-0.16625164
-0.04518092
-0.06610579
0.06931060
-0.04452197
0.23970425
-0.02458133
0.02102991
0.18763243
-0.00593262
0.08525741
0.02431797
-0.04027809
-0.25351313
0.00682650
0.09088915
0.00661543
-0.00837639
-0.00493096
-0.06994599
0.03997608
-0.00641922
-0.07956530
-0.01799786
0.02528292
-0.03321878
-0.09237135
-0.03554519
0.00360914
-0.10485791
-0.03842323
0.13339522
-0.03729200
0.08230369
0.00316167
0.07858926
0.00835811
-0.08794422
-0.04187831
0.00055108
0.01881492
0.03954979
-0.00042423
-0.05912709
0.08016880
0.05858028
-0.08215448
0.05241632
-0.09199430
-0.00808351
-0.03522007
-0.05653782
-0.01045400
-0.17815559
0.04332227
-0.01300275
-0.04852603
-0.07967313
0.10845210
0.09208546
-0.05407188
0.13285877
-0.07004468
-0.06961825
-0.05929097
-0.06379398
-0.01040962
-0.04635681
-0.04707232
-0.10030830
-0.00587514
0.06825123
0.05502031
0.08967682
-0.02119458
-0.01006183
0.02575459
0.10923499
0.03999856
0.11458061
0.02508247
-0.12249649
0.02989460
0.06239111
0.09597895
0.05007121
-0.08018082
-0.03051074
0.00058455
0.02111972
0.03978401
0.02227647
-0.06804038
-0.12746669
-0.04847475
0.01165575
-0.08087206
-0.02080592
-0.02714992
-0.01418187
-0.02224862
-0.01801850
0.07641920
0.07674850
0.04373221
0.03280725
0.00258521
0.08895075
0.02818391
-0.12459825
-0.06565627
0.00248542
0.02677091
0.00935410
0.01882452
0.04919624
-0.01887506
-0.03086276
-0.02593603
-0.00878418
-0.02459502
0.04685866
-0.10390972
-0.02445588
-0.01367413
0.03774238
-0.02507926
-0.13928209
-0.09516767
0.11791177
-0.01434432
-0.00597625
0.01981364
0.01904500
-0.04641989
-0.07780492
-0.09054272
-0.00187097
-0.02686566
-0.02678246
0.03687697
-0.05558511
-0.39800125
-0.14689682
-0.09824266
0.00719512
0.05724937
-0.02471408
-0.11899263
0.04845472
0.00218112
0.02121409
-0.05620687
0.11492619
0.00072575
-0.10068098
-0.11115319
-0.02615444
0.04940437
0.08388520
-0.03617993
0.02917944
-0.01387352
-0.01469925
0.09453452
-0.03562122
0.00221359
-0.00749783
-0.13128044
-0.01739610
0.01751169
-0.00145151
0.01314359
0.00843167
-0.07666217
0.01190399
-0.12994243
0.08807845
0.02118629
-0.01943936
0.07786837
-0.05266640
0.02432618
0.10306147
-0.05301214
0.04709974
-0.04898412
-0.04287199
0.00566112
0.15212876
0.04965374
-0.05231349
-0.00106815
-0.08768749
-0.03019272
-0.03668873
0.02880368
0.03265612
-0.01370531
-0.10847300
-0.02033771
0.04650415
0.01633041
0.08140295
-0.06663870
-0.14177465
0.03035022
0.00120781
0.00691974
-0.01274298
-0.04958088
-0.01830774
-0.00995998
0.00867259
-0.00829769
-0.01066799
-0.07943881
0.00856498
-0.03295342
0.01409897
-0.01522620
0.02405073
0.00155419
0.03304440
-0.03175155
-0.01186283
0.01039808
-0.00939963
-0.00903267
0.03556100
0.12781787
0.10077480
0.03110392
0.03007966
0.00942425
0.02422220
0.01117148
-0.21180509
0.03538011
0.06003791
-0.17328882
0.09935182
0.05993425
-0.14801522
0.02583538
-0.09953718
-0.00321118
0.05679264
0.01770938
0.18245174
-0.00171430
0.03580596
-0.05657179
0.04994356
-0.00426252
-0.09830581
0.01250994
0.01952893
0.03647639
-0.05890211
0.00244282
0.05465484
0.04057804
0.09737437
0.00230364
0.01626327
-0.07363033
0.25831771
0.02266823
0.05293138
0.02874321
0.09602988
0.09801210
-0.11304653
-0.33136952
0.05503529
0.01958045
0.00780040
-0.09509343
-0.10071980
0.04116802
0.07593567
-0.07208350
-0.00529215
-0.08505418
0.12638672
0.10190091
-0.05438918
0.04659771
0.07405104
0.03583390
-0.12873331
-0.04875669
0.05681402
-0.10434311
-0.01717159
-0.05938273
0.08836351
-0.12916446
0.09455840
-0.00626040
-0.08857268
0.06971131
-0.14652060
0.06532273
0.03950009
-0.02389300
-0.09391911
-0.00122213
0.04659799
0.11687022
0.07184035
0.09770589
0.07754734
0.12094600
-0.12824777
-0.09025171
-0.04889647
0.06378455
-0.07745817
-0.01095253
0.04002885
-0.05428694
0.03969149
-0.00624773
0.01309981
0.01983543
-0.00117444
-0.00016517
-0.04202579
-0.21950391
0.00172501
0.00378254
-0.09856573
0.05672584
-0.14069602
-0.00772645
0.02697642
0.01728292
0.00621327
-0.06285477
-0.03560496
-0.00783320
0.01543533
0.06418868
-0.00810728
-0.04092852
0.04329749
-0.01883480
-0.08018406
0.00106105
-0.08419183
0.05606052
0.06474443
0.12333271
-0.00085460
-0.05955705
-0.00635686
-0.18322645
-0.20007797
0.02176090
-0.09997594
-0.01304848
0.06134892
0.00057288
-0.06864937
-0.00549569
-0.15487584
0.03840534
0.05447640
0.12031042
0.04406429
-0.06329133
0.07063960
-0.13713975
0.03520858
0.08079793
-0.05632675
0.05523923
0.01567197
-0.04715762
0.00438096
-0.05041128
-0.07055337
0.04897491
-0.00925042
0.04092701
-0.11495543
0.10006907
-0.02414778
-0.00497771
0.02725724
0.07409305
0.10016878
0.02993567
-0.04048824
0.03706038
0.02032575
0.04788852
-0.06007435
0.06489404
0.02201341
0.01271982
0.07368910
-0.02337797
0.04239226
-0.05896376
-0.19218706
0.06896754
-0.03234128
0.09493292
-0.05519101
-0.08540189
0.06703123
-0.07104409
0.06210179
-0.06600517
-0.02832030
0.21043976
-0.11137509
0.01705793
0.13795310
0.01387504
-0.04213136
-0.05485056
0.03362760
-0.00957857
-0.00902908
