-0.00648672
-0.05935453
-0.05673229
-0.01152384
-0.02766573
0.04798733
-0.03744351
-0.03264811
-0.02168579
-0.04579323
-0.05087636
-0.00762167
0.06202623
-0.04057458
0.02196834
-0.02631907
0.02016613
-0.03786574
0.01445525
-0.07570251
-0.05568158
0.06083934
-0.06068128
-0.02018795
0.03338160
-0.05725006
-0.07852068
-0.01205712
0.04414401
-0.04380437
0.00051941
0.02236077
-0.00784828
-0.00429388
-0.05893958
0.03372804
0.01682001
0.01232475
-0.05943741
0.01248900
-0.01247469
0.03451190
0.06041052
-0.04487844
0.04523700
-0.03763489
0.00860921
-0.00585327
0.00248603
0.01317102
0.05455136
-0.01821616
-0.02888490
0.07482113
-0.01156582
-0.03378947
-0.05325120
0.05786895
0.00003898
-0.02160859
0.00305852
-0.04450808
0.06666948
-0.01603232
-0.02817855
0.00307925
-0.00167775
0.01044640
-0.04965186
0.07120872
0.00244801
-0.01621154
-0.00198503
0.06375499
-0.04114684
0.02013632
0.00224568
-0.04538929
-0.04721234
-0.07472318
0.02527247
0.00247409
-0.00815669
0.02812376
-0.05382857
-0.00740272
0.01939568
-0.05220121
0.00209856
0.00821962
-0.03866805
-0.00575999
-0.10757487
-0.01392780
-0.04760125
0.09999193
-0.05615100
0.01115168
0.05174093
0.01113782
-0.00424673
-0.01844777
-0.01981699
-0.01646382
0.00974350
0.12450420
0.02961090
0.01394153
0.06437664
-0.02892942
-0.07253955
0.03329660
0.02561541
0.01197472
-0.00997119
-0.00649261
0.02317515
0.00252920
0.00669914
-0.08376999
-0.00660850
0.13776433
0.04775799
-0.05974113
-0.07629369
0.05798499
0.04608766
-0.06873626
0.00995481
0.03113282
0.01109205
-0.03969473
-0.06837535
-0.03704651
-0.00108876
0.01307574
-0.02304755
-0.04017783
0.00615073
0.02488780
0.01772947
0.00059738
-0.04760550
-0.00053761
-0.05587672
0.13254242
0.01549526
-0.01190563
0.03019754
-0.05277625
-0.00311893
-0.00997759
0.05353743
-0.00807392
0.00827011
0.03986327
-0.01784186
-0.01923684
0.01132924
0.04105231
-0.02535639
0.00831817
-0.02166857
0.01622631
0.02566381
-0.06277998
-0.03355883
-0.02734137
0.15598708
0.04392048
-0.00181538
-0.02650897
0.09416846
-0.06853931
-0.00893447
0.03858939
-0.00441343
0.00458802
0.04970291
-0.00773096
-0.01287754
-0.01325902
0.02158977
-0.06472635
-0.01135585
0.03212087
-0.00860434
-0.02901764
-0.04573026
0.01902132
0.02143080
0.07472958
-0.06359052
0.04447325
-0.03894186
-0.04863069
-0.01334560
-0.09223075
-0.01177976
0.04668438
0.00680156
-0.05091229
-0.01599603
0.00337633
0.00204701
0.00394756
0.02573274
-0.05877861
-0.00613989
-0.05417057
-0.03535404
0.05520977
0.00561256
-0.11729933
-0.04244605
0.03411845
0.02367150
0.04120006
-0.12221133
0.01599620
-0.03338321
-0.03734173
-0.01694727
-0.02228545
0.00741712
-0.10342044
-0.01859817
0.05288477
-0.02739996
-0.00110664
-0.04329811
-0.02889298
-0.04529275
-0.00720426
-0.01662162
-0.00800710
0.00547274
0.05119456
-0.01598308
0.10039604
-0.03699202
-0.04011600
0.05589905
0.00803463
-0.00415722
0.04169840
-0.00872112
0.03187083
0.06923155
0.08688043
0.03413375
-0.10836206
-0.03250287
-0.00774070
-0.08536521
0.07237281
0.03322721
0.03838535
0.01843970
-0.00845544
0.05376901
0.01153095
0.00687661
0.01417036
-0.10525060
0.03919675
-0.01672546
-0.05325219
0.00054303
-0.01791651
-0.04763242
0.02713117
0.05053146
0.00310995
-0.00458057
-0.02807688
0.02797456
0.06152628
0.02688192
0.03830601
-0.02450816
-0.03592857
-0.02122620
0.02250927
0.02533344
-0.03728976
-0.02993440
-0.02441789
-0.00886979
-0.00661629
-0.06942786
-0.07220700
0.07498499
0.04310700
-0.01557469
-0.04171472
-0.00280400
-0.01207592
-0.01910601
-0.00436336
-0.00247742
0.06072765
0.01822705
-0.04255309
-0.09600785
0.02860131
0.03513688
-0.00076164
0.82150489
0.00701178
0.00431376
-0.06347708
0.02162541
0.00964442
-0.02619848
0.01046191
-0.04246823
-0.04412676
0.04462858
-0.20157473
-0.03073120
-0.06231482
-0.05394255
0.03834383
0.00115291
-0.05161358
-0.06093335
0.03700330
-0.02199234
-0.00657627
0.02560368
-0.14905994
-0.01161200
-0.05944530
0.05271923
0.00685043
-0.01401719
0.01246738
-0.01548764
0.01404082
-0.02912253
-0.03704507
-0.08411844
-0.00914531
-0.03012620
0.01062903
0.00275456
0.04549985
-0.00755915
0.01455813
0.06386782
0.00765904
-0.01333567
-0.02970625
0.00088345
0.04391631
0.00898041
-0.01537759
0.02644593
-0.05336858
-0.00941955
-0.01622780
0.00366084
-0.06447554
0.00538272
0.00094920
-0.00537310
-0.04572380
-0.00665870
-0.08668651
0.05313848
0.04125010
-0.01289436
0.01943086
-0.02285318
-0.00269932
-0.02021047
0.04877199
0.04790007
-0.00442296
0.01935169
0.10542823
-0.01607128
0.06089276
-0.02341439
0.03517945
0.06439671
-0.02758024
0.00327691
0.00435179
-0.03290656
-0.04072731
-0.00332447
-0.04953159
-0.03606870
0.00161466
0.05831366
0.03947118
-0.03238734
0.03611504
0.04770200
-0.05215722
-0.00198285
-0.00894071
0.03278394
0.04858388
0.00371034
0.00150678
-0.00552723
0.02936093
0.00255889
0.04449646
0.01849129
0.02477825
0.02826179
-0.03410206
0.01606698
0.04641845
0.03218939
-0.04503731
0.02005242
0.11296296
-0.02029593
0.04084667
0.02177840
-0.02911504
0.01322218
-0.03075013
0.06523481
-0.06765532
0.02053991
0.03031035
0.02458964
-0.07892482
-0.02890772
0.00600724
0.04082275
0.09702219
-0.00458402
-0.01061984
0.01644463
-0.01604314
-0.06333671
0.02403879
-0.00309545
0.00400421
0.03165315
0.01689967
0.07264458
0.04637725
-0.00908643
0.04099626
-0.02995220
0.02797610
-0.01457600
-0.01239145
0.01943130
0.00794070
0.00723967
0.01411429
0.00627104
0.15196335
0.00167041
-0.02849970
0.05067986
-0.08000425
-0.01406655
0.01333564
-0.02671999
0.03507731
0.00293461
-0.06363118
0.02189718
0.03005089
0.03537653
0.06254184
-0.00548856
0.00749379
0.07671706
0.02668544
-0.00623780
-0.02617650
0.04005732
0.00317995
0.04619832
-0.04962314
-0.05086696
-0.03394756
0.08358259
-0.00168010
0.01209606
0.02086323
-0.02530160
0.00155360
0.02100444
-0.00569519
-0.07889958
0.01575416
0.01490535
-0.03104783
-0.00396008
-0.00412296
-0.00431411
-0.00399029
0.02780111
-0.03363463
-0.00138855
0.01774710
0.04331249
-0.04101399
-0.00171519
-0.01754129
0.02959848
-0.01647334
0.06173888
-0.07991155
0.03720777
-0.02098864
0.02933032
0.06119333
-0.00526949
-0.03085741
-0.00896198
0.01959547
0.00221029
0.00586013
-0.01332575
-0.02790567
-0.01760321
-0.04245847
0.01118817
0.01974528
-0.00985559
-0.03921089
0.00219808
0.02050507
0.00462606
-0.02913045
-0.01726933
0.03922763
-0.00862821
-0.00910660
0.03533999
0.00949540
-0.02184501
0.08018017
0.05188711
-0.01828479
-0.07306196
-0.00374170
0.02436706
0.04290356
0.00104783
0.01280722
0.03243795
0.00879015
-0.03057076
-0.03287058
-0.01831434
-0.02007713
0.00379541
0.02198856
0.06270096
0.04370685
0.01020984
-0.00565069
-0.02906640
0.06451111
-0.01171515
0.01854568
0.00572730
0.00832418
-0.02675133
0.00488036
0.04172968
-0.03933148
0.01569443
0.01965821
-0.02451446
0.05819267
0.05848644
-0.01629650
-0.02316287
0.02161334
0.06189702
0.01831855
-0.06578755
-0.01769719
0.04246045
0.03724188
-0.02150651
0.00661309
-0.00980429
0.01481156
0.01253188
0.07353618
-0.02350297
0.03492421
0.00151508
-0.04031864
-0.02351085
0.01156272
0.01410808
0.03606345
0.00464468
-0.05989023
-0.00917429
0.06217836
-0.02358983
0.03181724
-0.03850259
0.12084090
0.00962165
0.02472396
0.07070064
0.02409159
0.05761476
-0.01710746
0.02045025
-0.02227801
-0.01389109
-0.00715051
0.04328421
0.00895730
0.05308010
-0.02031227
-0.03595661
0.04219597
-0.01956965
-0.02374555
-0.10048277
-0.01548634
0.01895674
-0.09324022
-0.01359930
-0.03504889
-0.03042189
-0.01018293
-0.08521793
0.01387165
0.01387327
-0.05859583
0.00416840
-0.04569701
0.06039136
-0.00749062
-0.01940795
0.00410487
0.06154108
-0.00790292
-0.00393530
-0.01790188
-0.01186655
0.02664574
0.05792990
0.00538474
-0.00688235
-0.01242620
0.00739022
0.02505062
-0.05903040
0.01036435
-0.03027661
0.03734462
-0.04190942
0.01663524
-0.02008639
-0.00880789
-0.03484881
0.00050330
-0.11001667
-0.01135261
0.03127161
0.00808888
0.00025960
0.01485168
-0.08473773
-0.04293618
-0.01552637
-0.01214439
-0.01750050
0.02111856
-0.07834164
-0.01323966
0.03483761
0.00943388
-0.03911181
0.00091692
0.00410631
0.01663133
0.01559638
-0.01782368
-0.04102890
0.00948017
0.04361361
-0.03447971
0.05038819
-0.05895904
0.07214257
-0.01588691
-0.01005946
0.00547238
0.02669775
-0.05416703
-0.00684971
-0.03115084
-0.01419828
0.00472832
0.00014295
-0.01128094
0.11194188
-0.04198492
-0.01654846
0.04523381
0.01327219
-0.01882971
-0.02001119
0.00918282
0.00554710
-0.05358099
0.06912386
-0.01862778
-0.00464106
0.01840745
0.03155181
0.02842779
0.01815320
0.02721927
0.06063012
-0.04189679
-0.00849673
0.00541714
-0.05220252
-0.02205571
-0.03731867
0.05991335
-0.02797801
0.02116535
0.02584699
0.01371349
0.00857513
-0.02910784
0.00010367
0.01259095
-0.02402557
-0.05892017
-0.01672790
-0.04710273
-0.01025209
0.00093540
0.01370607
0.03426568
0.02967466
-0.02627670
0.05696427
-0.07735879
0.07159529
-0.00943005
0.02841903
-0.04264252
0.00189593
0.00364421
0.00806488
0.01939311
0.03739270
-0.03790375
-0.01206920
-0.02703515
