-0.06793639
0.03157783
0.15647687
-0.15025291
0.14727171
-0.04251458
0.15221445
0.04704759
-0.06161951
-0.01601822
-0.06423148
-0.00502084
-0.13630895
0.17899486
0.02505464
0.20497465
0.05909051
0.08209934
-0.03892920
0.07439430
0.17318250
-0.10463218
0.15207995
0.29461378
0.08045954
0.16073544
0.09935611
-0.02288121
-0.24802087
0.13612048
-0.01863395
-0.06639256
0.17254759
-0.18609202
0.12682234
-0.04618667
-0.12696688
-0.05953284
0.14077628
-0.30813566
-0.05427073
-0.15952455
-0.06132467
-0.00554898
-0.02044260
-0.10424028
-0.02109537
-0.02433942
-0.09200337
-0.12575559
-0.07527795
-0.12178791
0.26205927
-0.14358205
0.11244363
0.09601107
0.09440665
-0.21979766
-0.16646509
-0.05602000
-0.04129301
0.11602071
-0.06299555
0.01043523
-0.05069601
0.16686967
-0.06841055
0.05998347
0.00859837
-0.19892098
-0.12072838
0.07957767
-0.05685904
-0.09833959
0.07165006
0.06430729
-0.07376640
-0.02068187
0.14140424
0.05071748
-0.01389026
-0.00792601
0.04369492
0.12547939
0.00645924
-0.11162059
-0.07243256
-0.02299862
-0.11168416
0.01743369
-0.06827177
-0.18966450
0.63337171
0.08743501
0.19546826
-0.14044611
0.21174110
-0.11560231
-0.13141799
-0.08780989
-0.10087241
0.01878020
-0.02727833
-0.04280921
-0.00023384
-0.11847897
-0.12391870
-0.09457237
-0.21063800
0.02882113
-0.14497592
-0.08443006
-0.19310984
-0.12905020
-0.03653751
-0.01481605
0.04572747
-0.01521186
-0.13612722
0.13005674
-0.09839243
-0.10146576
-0.05849303
0.07860454
0.24887012
-0.13632733
-0.12866300
0.17872088
-0.11006267
-0.06045671
-0.01173635
0.14016923
-0.11578782
-0.08604888
-0.03885040
-0.05815567
0.12444936
0.10672787
-0.21038634
-0.07896160
-0.11990473
0.03271168
0.03532363
0.08516210
0.10228445
-0.49326703
-0.04714086
0.04212214
-0.16447626
0.22385836
-0.00731670
0.08459029
-0.24692196
0.06021836
0.08457617
0.02857728
0.03468680
0.00751343
0.00781497
-0.25551873
0.04788895
-0.10868734
-0.02536321
0.06547952
-0.07242251
0.08086378
0.07375352
0.09162886
-0.37840316
-0.04937621
-0.07192306
-0.03367521
-0.08983950
0.07282652
-0.09751729
0.21261233
0.06766276
0.04891614
0.11472721
-0.06821691
0.02015152
0.09558377
-0.16020395
0.10648254
0.00989832
-0.11243894
0.09117602
0.16546975
0.13609672
0.00447760
-0.05888727
-0.37258467
0.28920048
-0.10733772
0.17612532
0.04080412
-0.02946903
0.17464001
0.04478960
-0.04358546
-0.11598593
0.03001022
0.10211921
0.02907154
-0.16182059
0.09971526
0.02696919
-0.06552435
0.02060870
0.10495467
-0.16099520
-0.10561400
0.17955573
0.16083533
0.00920777
-0.01861472
-0.19930267
-0.07406950
0.09500490
-0.01631936
0.07173443
0.23847987
-0.09098329
0.02476082
-0.17545946
0.33100486
0.16409001
-0.06407952
0.04799839
-0.10464428
-0.04313227
-0.01965655
0.05004454
0.04115247
-0.03127928
0.01603465
-0.00710430
-0.18469658
0.11807719
-0.27259815
0.06488945
0.02910369
-0.13412139
0.00303220
-0.04097260
-0.05579352
-0.09206808
0.06325725
-0.22327037
-0.23489767
-0.02939483
0.43944329
-0.01009847
-0.01985576
0.07233856
-0.12023175
-0.29103008
-0.07471749
0.01959863
-0.01157832
-0.06265651
-0.04879822
-0.11575101
0.03714708
-0.04847657
-0.26367155
0.00772579
0.03115294
0.00601208
-0.13257235
0.00389153
-0.05770640
-0.15803809
0.00625848
-0.07710055
-0.05166107
-0.10924239
-0.14369345
-0.11445908
-0.08799792
0.11470231
0.02922790
-0.09870954
-0.15050651
-0.10674842
0.13892379
0.07482414
0.03320256
-0.00388832
0.02247979
0.09874632
0.00488452
-0.17025299
-0.09181590
0.16678509
0.09728420
0.06802704
0.22613482
0.14146252
-0.06309935
0.09917699
0.07184809
-0.08944157
0.10881777
0.39499229
-0.21378341
-0.08668604
-0.11240858
-0.91226089
-0.06054767
-0.13436395
-0.14847204
0.02644614
0.00690033
-0.04087178
0.06618946
0.03771224
0.04233268
-0.19463773
0.03739449
-0.20831768
0.12962362
0.26201603
-0.21354957
-0.03401777
0.01050258
-0.07015063
-0.15101062
-0.05439219
-0.15882809
-0.01275120
0.12470710
0.01587123
0.14900242
-0.18499169
-0.01166246
-0.10970102
-0.09644773
-0.05122172
-0.18194258
0.00359667
0.05794775
0.03175275
0.04777230
0.09822764
-0.01695008
-0.00387828
-0.19596721
-0.05062181
-0.21523793
-0.27247828
-0.07419340
0.04742655
0.08758827
-0.07866586
-0.11951455
0.03046373
0.06708222
-0.08591529
0.01274597
0.05425468
0.03141543
0.01781239
-0.01040933
0.01116333
-0.03442876
-0.08578132
0.12417596
-0.06728682
0.03863046
-0.00946147
-0.07656960
0.00777814
-0.11547686
-0.05424618
0.00520678
0.05119010
-0.16957046
-0.17396407
0.03696977
-0.02418695
-2.00292468
-0.01640722
-0.14805803
0.04428691
-0.12523785
-0.25100455
0.06772518
-0.04250388
-0.08331010
0.12120845
0.11843374
0.11215360
0.00183450
0.07047444
0.00305121
-0.22672787
-0.17631848
0.08577459
-0.17479071
-0.05988329
-0.09351161
-0.00663485
0.01660167
-0.03733057
-0.15730995
-0.00406336
0.02143690
0.19359614
-0.17528974
-0.03355208
-0.03455276
0.03952913
-0.05608223
-0.15953924
0.09053101
-0.05452936
-0.08477841
-0.03764056
-0.03270628
-0.07400814
-0.24567309
-0.00033352
-0.10276593
-0.19596209
0.02093781
0.00252933
-0.26667279
-0.18042725
0.15065487
0.01258440
-0.17929350
-0.23454745
0.16268821
-0.17313041
0.01541473
-0.23525023
-0.00334821
-0.07447051
-0.04541132
0.02767340
0.04992881
0.17176110
-0.01669443
-0.02480053
0.07389286
-0.24600534
0.01564172
-0.08704749
-0.18163715
-0.01151307
-0.04877722
0.03341636
-0.08959684
0.06570521
0.10949631
-0.17610613
-0.07053914
-0.17196822
-0.10760789
0.00640498
-0.34898177
-0.08890282
0.07786201
0.05306184
-0.12054352
0.05586043
-0.09568253
0.08815052
-0.05559602
-0.01029531
-0.10287724
-0.00283873
0.01137101
-0.07930811
-0.12272344
-0.13955572
-0.03426639
-0.17619529
-0.27926418
0.02832290
0.17075792
-0.10466017
-0.02117207
-0.06935792
-0.01409703
0.16238748
0.02146585
-0.17812501
-0.09306094
-0.02562258
-0.11394189
0.02878700
-0.01620891
-0.04751078
-0.01439847
-0.01487043
-0.08232088
-0.00078860
0.04895603
-0.03001018
0.08653792
-0.06484023
-0.17205158
-0.04121201
0.19080867
-0.06068091
-0.00956069
-0.01361249
0.02275355
-0.12482069
-0.04825659
-0.00255627
-0.05420713
-0.08796889
0.25369850
-0.08399205
0.02247279
-0.28808534
0.04631411
-0.18008073
0.19083959
0.11078134
-0.20787768
0.02080406
-0.02308111
0.00438140
-0.18993464
0.00965625
0.07897988
-0.07311807
-0.16444920
-0.11686753
0.03163811
0.13644606
-0.03653476
-0.08121267
0.11618768
0.03253627
-0.20412330
0.11926004
-0.05300985
-0.11262933
-0.00031319
-0.09022909
-0.31579140
-0.20241143
0.05412021
0.27079275
0.08598445
-0.10726904
-0.08829820
0.11347799
0.05031081
-0.07739795
-0.12515421
0.01116319
0.16499883
0.03905131
-0.03279776
-0.07847398
-0.06295317
-0.11775536
-0.03144570
-0.19581012
-0.07029691
0.03336066
-0.08237292
-0.05682106
-0.10619168
-0.08050294
0.06567215
0.10622081
-0.00155059
-0.22420676
0.02027888
-0.02031358
0.03731298
0.06988240
-0.20115548
-0.12390401
0.17523907
0.10242633
-0.14295439
-0.07635269
-0.11770386
0.41140097
-0.11486904
-0.05494306
0.02450324
-0.02503928
-0.00995875
0.13071510
0.04592561
0.06954365
-0.07674956
0.00919539
0.05960838
-0.03219634
0.09029611
0.05466470
0.00493426
-0.10184378
-0.03109326
0.01823817
0.09951642
0.05009868
0.07272642
0.07466054
0.05831705
0.04768100
-0.21887951
-0.12823616
-0.00920014
-0.16923551
-0.06600711
-0.13145065
0.00456093
-0.01696277
-0.13880904
0.10726278
0.02684694
0.03401182
0.04968589
-0.01805121
0.08111668
0.07693610
-0.19907311
0.06551797
0.03794739
0.17337669
0.12514602
0.09066533
0.19960158
-0.04378437
0.05290386
0.02092865
-0.01685447
0.15526317
0.04279695
-0.16666113
0.08833764
0.03478704
-0.13182691
0.00684827
-0.11000297
0.00210090
0.06806690
-0.08911816
0.01479313
-0.00016388
0.15776086
0.15674515
0.06661793
-0.07954182
-0.03340351
0.07533820
-0.00056420
-0.03560562
-0.09358681
0.09265779
-0.09251667
0.07055682
-0.05033622
0.02218470
-0.14680684
0.08193842
0.12301371
-0.00099737
0.12787348
0.12925597
0.00789039
-0.13816622
-0.12625924
0.07175783
0.01263720
0.14702091
0.12193090
0.05997673
-0.08421977
-0.06775908
0.00912267
0.19597352
-0.04718309
-0.17960460
-0.01392146
0.13794564
0.09724710
-0.10703475
-0.00755246
-0.11469302
0.07254058
0.03900290
0.06024056
-0.01766769
0.02887908
-0.17711648
0.05565340
-0.09019739
0.00749720
0.07054271
-0.07482571
-0.19866344
0.01018504
0.15340357
0.10732821
0.09554410
0.02814556
0.05115032
0.07769500
-0.00193682
-0.02927729
0.02924055
0.00072927
-0.06668102
0.09310114
-0.04828887
0.00229846
-0.05375170
0.04057273
-0.05731811
-0.00810103
-0.06368347
-0.07219096
0.09462804
-0.05231765
-0.01118846
-0.14373043
-0.10094960
0.09254984
0.01497606
0.13773763
0.03389851
0.11199910
0.26985762
0.00346509
-0.00771951
0.05827431
-0.02821973
-0.02895281
-0.01328455
-0.06132654
-0.08687135
-0.08797815
0.02375978
0.03076318
0.04197293
-0.05490384
0.04527233
0.06618028
-0.06323933
-0.18967554
-0.02313963
0.11470017
-0.24152091
-0.01014430
-0.14279908
0.14465930
0.01671932
0.03318574
0.06667388
0.07529768
-0.03102032
-0.22641103
-0.17236866
0.14496486
-0.03415897
0.01803745
