-0.16376424
0.00254283
-0.12381170
0.01136377
-0.14610255
0.05590134
-0.09782804
-0.01804841
0.01619976
0.02961074
0.01470775
0.00210442
-0.00003125
0.09983558
-0.10531400
0.04741408
0.04637325
-0.00092465
-0.09851323
0.01133305
0.09390685
0.01351849
0.03444120
-0.05519513
-0.11018676
0.00327941
-0.16708694
0.06674658
0.07605815
0.00205006
0.00398605
0.01426408
-0.05340522
-0.03901602
-0.01219037
0.14871320
-0.09393799
-0.00679067
-0.03061580
-0.15447555
0.03335385
0.15146406
-0.14394039
0.06490895
-0.05123230
0.00104260
-0.13401511
0.11725204
0.03808852
0.05175878
0.02392256
-0.00498310
-0.00567101
0.05758422
0.10018922
0.05483960
-0.04334074
0.02655410
0.05382734
-0.00302480
0.01309632
-0.07421594
0.03071615
0.04790929
0.05471526
-0.13361914
0.05714130
-0.06049684
0.09012811
0.05184445
0.14810082
0.00901522
-0.15302458
0.01224867
0.08072185
-0.02326362
0.01860328
0.00286826
0.00101319
0.01460784
0.04890743
0.00788198
-0.06860416
-0.10477945
0.16264071
-0.03840585
-0.00375506
-0.04508815
0.01928041
-0.02075136
-0.03285187
0.05779439
-0.00415968
0.12965757
0.04149339
0.06228017
-0.12302194
-0.06440312
-0.15294416
-0.04242812
-0.05235257
0.00336122
-0.15104836
-0.05982723
-0.07917577
0.00953990
-0.14291365
-0.12021623
-0.00779882
0.02692010
0.15860485
0.03377989
-0.10895627
0.15179653
-0.06666484
0.00119518
0.02421009
0.02014573
-0.00725070
0.01257976
-0.01207682
-0.16472638
-0.07542692
0.08063064
-0.13869588
0.07785761
0.09190523
0.11432964
