-0.03142036
-0.04358427
-0.05132087
-0.01788123
-0.16399944
-0.04144710
-0.10129597
-0.07661106
-0.02985068
-0.02075762
-0.03810471
-0.07707030
0.02895929
-0.06909235
-0.04325645
-0.11032237
-0.09879833
-0.07689523
0.00301244
-0.06636037
-0.13483363
0.01596355
-0.08886954
-0.19291040
-0.08438671
-0.12724663
-0.01772687
-0.00237037
0.09261528
-0.10106004
-0.01775242
-0.00914323
-0.13606401
-0.01192492
-0.05844546
-0.03800314
0.02048824
-0.02980379
-0.05835921
0.07751288
0.01629589
0.05625568
0.00305585
-0.07216848
-0.02405017
0.01764151
-0.03554724
-0.03956549
0.00276668
0.01490498
-0.00276304
0.00515859
-0.15084594
0.04135644
-0.08690171
-0.10316976
-0.06740067
0.05452595
0.00308425
-0.00679595
-0.03807943
-0.07200208
-0.01601422
-0.06635622
-0.03665804
-0.09385831
-0.03430673
-0.06477528
-0.04019877
0.04472795
0.02551373
-0.05340105
-0.03155212
0.02928484
-0.09712901
-0.02478422
-0.00984978
-0.05223614
-0.06408645
-0.10824841
-0.05800005
-0.03922339
-0.06485806
-0.11674503
-0.02775919
0.01842163
-0.07683735
-0.03201602
0.01875051
-0.05237655
0.04271669
0.05916643
-0.21197413
-0.02338081
-0.08610176
0.03025179
-0.09627111
-0.03581807
-0.03609352
-0.02052601
-0.01631884
-0.03460430
-0.07516186
-0.00167120
-0.00485614
-0.04249251
-0.02685867
0.00648501
0.05616509
-0.02447161
0.05978026
-0.01710102
0.11150629
0.00819057
-0.04118999
-0.03108885
-0.05486086
-0.03764528
0.00916917
-0.07694442
0.00158349
0.01081970
-0.03839677
-0.10055389
-0.07172389
0.03241506
-0.02728706
-0.11315713
-0.00683092
-0.00378466
-0.03350872
-0.05841836
-0.00271683
-0.03139067
0.04970418
-0.01024287
-0.07690407
-0.08067384
-0.02962366
0.00625845
-0.01233355
-0.04609368
-0.04045116
-0.10382821
-0.08774185
0.05528170
-0.01406058
-0.03317917
0.00980111
-0.14588040
-0.01947642
-0.11782880
0.00445836
-0.01944558
-0.06419617
-0.08142429
-0.05762738
-0.05691199
-0.09682270
0.01503762
-0.07841451
0.01678545
-0.02157129
-0.03917302
-0.01963173
-0.07915512
-0.11051365
-0.06361011
0.09395014
0.01827119
0.00900096
-0.01617186
-0.02459191
-0.09715232
-0.00636784
-0.15437378
-0.06252216
-0.06742524
-0.07588021
-0.00669279
0.00123463
-0.08923334
0.03305489
-0.09726927
-0.06546222
0.02468791
-0.11696500
-0.13782388
-0.07005360
-0.01357570
0.00168559
0.12264127
-0.17963137
0.01957021
-0.09346174
-0.05714415
-0.04943703
-0.13459930
-0.05255841
-0.04538692
0.03320957
-0.04404233
-0.08844661
0.01080545
0.01483391
-0.06431913
-0.08751316
-0.01686711
-0.10383625
-0.08375099
0.00796766
0.01594186
-0.07442503
-0.11128256
-0.04167623
-0.00008283
0.02684768
-0.00057732
-0.17397754
0.04697781
-0.09623489
-0.14587744
-0.00454604
-0.06171881
0.00994095
-0.12381845
-0.04676018
0.01369127
-0.09695048
-0.02292466
0.00357379
-0.03756120
-0.11838207
-0.00369314
0.00581616
-0.09273184
-0.01283874
-0.05854949
-0.08702120
0.06427235
-0.05660433
-0.03424697
0.00926018
-0.14344802
-0.07690099
-0.03379425
-0.02111778
-0.04393155
0.04711042
0.03962532
-0.00314585
-0.19710627
-0.05126128
-0.04140110
-0.06354393
0.02655637
0.02830911
-0.02207703
-0.05232185
-0.03475563
-0.07089033
-0.00866329
-0.01204569
-0.04904084
-0.03827478
0.05369946
-0.03512914
-0.01706485
-0.02683109
0.01460310
-0.02750045
-0.05614104
-0.00465106
-0.09321919
-0.04094925
0.02056784
-0.04810191
-0.01200673
-0.00800219
0.02537747
-0.07793953
-0.10986446
-0.01327886
-0.00242789
0.02336674
-0.08478107
-0.10893010
-0.06869613
0.01790522
-0.05192985
-0.03509345
-0.01907216
0.03163620
-0.01802357
-0.12743810
-0.05516193
-0.09421237
-0.13662653
-0.10293314
0.00060230
-0.04314827
-0.10178467
-0.00171091
-0.02614363
-0.21645357
0.03517750
-0.02538153
-0.02801083
0.95900631
-0.00294936
-0.00090453
0.01258664
-0.08969042
-0.07194220
-0.04301624
-0.06949692
-0.03535142
-0.02888258
0.00191355
-0.07133008
0.06839494
-0.08150627
-0.09141230
0.09856993
-0.02420481
-0.01752133
-0.04842962
-0.06683919
0.00035089
0.04074275
-0.04994925
-0.03263383
-0.00103939
-0.15966094
0.01726069
-0.03599384
0.01569227
-0.01112911
-0.02048667
0.03034704
-0.07434447
-0.12697878
-0.07491691
-0.08679561
-0.03017189
0.04757496
-0.06319768
0.05022164
-0.02068950
0.05216091
0.03024636
0.03297501
-0.06733125
-0.03771459
-0.04203256
0.02072326
-0.05609899
-0.06837312
-0.03472316
-0.07078751
-0.06521076
-0.01567057
-0.08729026
-0.02759535
-0.07438741
-0.00974063
0.02805789
-0.10312209
0.01169889
-0.01652873
0.01180752
-0.00413397
-0.04731230
0.05995831
0.06594195
-0.04662761
-0.08011766
0.00995023
0.06020357
-0.07670552
-0.01267021
0.30356634
-0.03855349
0.03933064
-0.07554941
-0.00014294
0.07697804
-0.04700268
-0.01804097
0.02663582
-0.09334072
-0.07378329
-0.08229091
-0.01507945
-0.06219292
-0.02776213
0.07862350
0.03666531
-0.04737653
0.03717010
0.00346894
0.02352458
-0.05156782
-0.00097306
0.02050284
0.07027771
-0.04060175
-0.00645645
-0.11425835
0.01338141
-0.00806788
-0.00576819
-0.08722999
-0.05112500
0.00825403
-0.09982074
0.00535116
0.00716455
-0.08973826
-0.03648448
-0.01740830
0.08213954
-0.02647139
-0.00308268
0.02515761
-0.07092357
-0.02488784
0.04214879
0.03261856
-0.09449548
-0.06178856
0.03640185
0.01305385
-0.13188078
0.05019597
-0.07028794
0.02424857
0.03563612
-0.01793818
-0.00611055
-0.07287839
-0.05987809
-0.06404139
-0.06000121
-0.01637620
0.01431399
0.04310703
-0.03926277
0.00743054
0.04531906
-0.01773074
-0.03722773
-0.06744809
-0.00064921
-0.08621141
-0.09834471
-0.02394614
-0.09315106
0.02094614
0.00877862
-0.08296113
0.07947511
0.02665713
-0.08451560
-0.10197138
-0.02016590
-0.07031514
0.00384082
-0.04636051
-0.03505683
-0.04043782
-0.00184329
-0.05269529
-0.03453697
-0.04373362
-0.03319164
-0.01759955
-0.06020881
0.06612741
0.04601560
-0.02924075
-0.09695027
0.01197731
0.03219928
-0.00972928
0.01027527
-0.10685586
-0.09820295
0.06099933
-0.04602820
-0.03252188
-0.00475174
-0.06053236
-0.08507057
-0.03708425
-0.01650387
-0.01566144
-0.02087897
-0.04889410
-0.04659830
-0.06190379
-0.10625111
0.01839396
0.02179538
-0.05851479
-0.10199697
-0.04167003
-0.03273845
0.05271374
-0.01226403
0.01691347
0.00514702
-0.02365941
-0.00996911
-0.02518158
-0.17484787
0.03156499
-0.06427581
0.05767246
-0.06722867
0.03954088
-0.07816108
-0.07599089
-0.01567515
-0.01464042
-0.00539905
-0.01590108
0.01166574
-0.03210176
-0.11323227
-0.10573051
0.00974210
0.01724811
-0.05144850
-0.06061906
0.06933555
0.00296026
-0.04953166
-0.04883429
0.12968472
-0.08098753
-0.02276000
-0.00625481
0.00854776
-0.01428976
0.07937168
0.06218823
-0.03511983
-0.14811392
-0.10028895
0.04316545
-0.00986783
-0.08651924
-0.04701379
-0.00179039
0.00623953
-0.00156995
-0.11848745
-0.04706107
0.04738917
0.00419232
0.01151825
-0.03418056
-0.03499498
0.01830216
-0.04889421
-0.10291777
-0.01093882
-0.01567886
-0.00489912
-0.01472954
-0.07417168
-0.09976894
-0.06977426
0.05376497
-0.04998372
-0.00830929
0.05025107
-0.07006172
0.05802712
0.04069113
-0.12310565
-0.09939421
0.00894051
-0.03675451
-0.00170280
-0.21566665
-0.00752616
0.00238726
-0.07161897
-0.04193788
-0.00572135
-0.11733877
-0.04421183
-0.06965261
0.03097590
-0.05797473
-0.04774742
-0.01669635
-0.03756345
-0.06424616
-0.04057721
0.03886569
-0.08418161
-0.09973193
-0.11184227
-0.04886705
-0.01881400
-0.04356941
-0.04157887
-0.04962080
0.00749652
-0.02194693
-0.05716074
0.02018158
-0.02721812
-0.02315393
-0.04692758
-0.04657247
-0.00409684
-0.13607074
-0.06013850
-0.06067261
-0.09647969
-0.00861641
-0.07092685
-0.13005222
0.03516087
-0.06227380
-0.03017696
-0.08062524
-0.09116571
-0.10595112
-0.12145562
-0.02453166
-0.02993290
-0.04679693
-0.06838276
-0.09371442
-0.05014226
0.03976122
-0.07994612
-0.06954094
0.02416066
-0.05891164
0.02926700
-0.05974128
-0.08234295
-0.03868826
-0.07694742
-0.07456526
-0.12510172
-0.12248833
-0.07997733
0.04557620
0.00278566
-0.08546547
-0.02241983
-0.04097392
-0.00086231
-0.05567932
0.00769632
-0.06762043
-0.01173408
-0.02603727
-0.01343527
-0.08983620
-0.13692386
-0.05658259
-0.10274425
-0.07738072
-0.03278381
0.06480286
-0.06967337
-0.05596335
0.03094711
-0.13715957
-0.05070744
-0.07839271
-0.06042261
-0.01807365
-0.04346932
-0.13163067
-0.04976810
0.00504331
-0.02934492
-0.07669864
-0.07485493
0.06901158
0.00077089
0.01532184
-0.00167487
-0.11339677
-0.03527571
-0.02009985
-0.07478922
0.02531012
-0.08090358
-0.00000728
-0.02514134
-0.07626977
-0.02938546
0.04875968
-0.05404034
-0.08283982
-0.08403654
-0.07259223
-0.05630364
-0.05047603
-0.07550114
-0.10276178
-0.04195108
-0.13967507
-0.05968779
0.00140121
-0.05581827
-0.03907520
-0.06716004
-0.03891174
-0.02363399
0.00733928
-0.03474865
0.01971154
-0.00510533
-0.11495008
-0.00753029
-0.03908184
0.00692669
0.01886079
-0.06325255
-0.07620608
-0.08538356
-0.03694363
-0.11302006
-0.18959248
0.00610368
-0.01850333
-0.11168189
-0.02786531
-0.04170893
-0.05305874
-0.04201074
-0.03710644
0.01183612
-0.00483561
-0.08380575
-0.00211635
-0.00251733
-0.06669135
-0.08969162
0.00764968
-0.00973617
-0.01463132
-0.10980654
0.07528851
-0.03339125
0.01827740
-0.12189641
-0.03111359
-0.02165799
-0.04231163
-0.08462063
-0.04052933
0.01768455
0.02705149
-0.07415797
-0.05935301
-0.03552822
