-0.04282642
0.03700675
0.06142357
-0.04787201
0.02958163
-0.05204700
0.05002198
0.08391894
-0.08350115
-0.01326540
0.01795598
0.10609119
-0.09489099
-0.00069952
-0.03929415
0.02976318
0.16481458
0.07432837
-0.03670105
0.05011323
0.01182839
0.05834251
-0.01830490
-0.02653465
-0.05177161
0.09897952
-0.03517091
0.03968256
-0.06408185
0.05029997
0.05373849
0.04646201
0.04101713
-0.04992984
-0.04772863
0.03679193
-0.11037315
0.00349544
-0.07167640
-0.14181012
-0.00778660
-0.09063848
0.07550023
-0.00574992
0.05055113
0.04788883
-0.00480330
0.15123880
-0.00149865
-0.02872005
-0.03844288
0.05162296
0.06999297
-0.03214088
0.12470362
0.00719875
0.14935970
-0.20717926
-0.00659192
-0.15511221
0.05404275
0.19661070
0.00194871
-0.04499282
-0.00051819
0.03898964
-0.02739410
0.03455222
-0.09729558
0.00216607
-0.05785405
0.07430757
-0.04364654
-0.01961273
-0.00232482
-0.04025991
-0.02718846
-0.09107202
0.02689848
0.07995500
0.08696181
0.01354577
0.08026972
-0.02265260
0.00855150
-0.06863204
-0.09484015
0.01150793
-0.03937921
0.09534852
-0.04808076
-0.15299857
0.05421407
-0.13249247
-0.01108162
-0.04794126
0.13636215
-0.05175714
0.06750251
-0.06010675
-0.02079596
-0.10386853
0.04431680
-0.04736450
0.02969619
0.08930134
0.12845884
-0.03454001
-0.08178328
-0.07103458
-0.04005949
0.00665763
0.07416126
-0.03212140
-0.05381425
0.04713056
-0.02929023
-0.06819832
-0.04888538
0.00715699
-0.07655052
0.05870237
0.06018404
0.12077948
0.08925599
-0.16378689
0.03721728
0.00961012
-0.02790158
-0.03159822
0.01568359
-0.05013232
-0.10300600
-0.03063415
0.00658159
-0.06124374
0.10456277
0.05070834
-0.02898431
0.00404163
-0.06617627
0.06405503
0.02705224
0.05058428
0.05883419
-0.00028216
0.03477906
-0.02043280
-0.17221864
0.09443666
-0.14411072
0.08864097
-0.03908759
0.01071478
-0.14867304
0.04396031
0.05507923
0.05145726
-0.10760449
0.07020230
-0.00401514
-0.03505060
-0.02810696
-0.02734203
0.03456492
0.05663769
0.06816232
-0.00180728
-0.06865461
0.03383229
0.07667579
0.03694370
-0.03955540
-0.05197072
0.01989837
0.01789846
0.11720660
-0.00161565
-0.07448916
-0.03694854
-0.02181744
-0.01057946
-0.08797869
-0.03198816
-0.04010520
-0.03215105
-0.02943522
-0.07320069
0.05210079
-0.00922189
-0.02275495
0.05790723
0.05441102
-0.04217510
0.00519997
-0.03752952
-0.00185388
0.09127603
-0.05949397
-0.05271741
-0.11404703
-0.06244475
0.10422867
-0.12356196
0.04425095
0.10779611
0.00187090
0.04558418
-0.02352351
-0.03127632
-0.00737144
-0.02141360
0.07821798
0.20954999
-0.02569770
0.01077098
-0.04956391
0.04244093
0.17106733
-0.01572110
0.10119469
0.04308949
-0.05979278
-0.06440920
-0.05374031
0.20261055
-0.01862717
-0.01501197
0.10258032
0.00980112
-0.10579945
0.06954083
0.05871389
-0.00913617
-0.07358916
-0.01004889
-0.01040004
0.05024998
0.01680110
-0.03278260
0.10540261
0.00622501
-0.07688890
0.00036498
0.02369485
0.14908281
-0.10490387
-0.13214016
-0.09528008
0.04142774
-0.05431779
-0.01262181
0.07168683
0.02755937
0.10220294
-0.01939544
0.03119847
-0.05016425
0.07802983
0.02515400
0.03225610
-0.02313561
-0.04247653
0.06730445
0.05769383
-0.18031330
-0.07067100
-0.06042811
0.07677241
0.01848456
-0.04371860
0.12935621
-0.10551811
0.10449619
0.00590780
-0.11824602
-0.08168148
0.05905307
0.05855813
-0.06239391
-0.00807540
0.06189331
-0.06639170
0.05642002
-0.00496869
-0.01689933
-0.01330551
0.04064274
-0.01250853
-0.01486183
0.00493472
-0.02931719
-0.08638311
-0.06538715
0.08275399
0.00296187
0.05654591
0.04077599
0.02195792
-0.05867492
0.01956833
0.01849999
-0.01464190
0.17752823
0.00608086
-0.05505450
-0.05833323
-0.00951743
-0.63246661
-0.09767402
-0.05755893
-0.10442800
0.06542167
-0.02660510
0.00615168
0.07460283
-0.00371805
-0.07562258
0.06492874
0.04492988
0.02185266
0.07328653
-0.01407692
-0.15153411
0.00037813
-0.13551827
0.03279849
0.05919402
-0.06904747
-0.03270955
0.13746144
-0.02130098
-0.10047034
0.06212265
-0.02694493
0.11069418
-0.09084862
-0.01352169
-0.10672854
0.02241756
0.11072318
0.10830347
0.07977924
0.04296051
0.01481699
-0.05752965
0.07607464
-0.06754304
0.03425348
0.02644935
-0.05677626
-0.11419027
0.10040058
-0.20587042
0.06959917
0.05308410
-0.05642251
0.03392364
0.03204108
0.07749090
0.06384387
-0.01864014
0.18237159
0.10751157
0.17979497
0.13315597
-0.12467323
-0.06661295
-0.06798956
-0.06079623
-0.04222370
0.04686076
0.00043290
0.01046776
-0.07807260
0.00014377
0.00795658
-0.03294456
-0.04740691
-0.04375086
0.03435816
-0.74453175
-0.06656174
-0.12827647
0.10884860
0.03563310
-0.01076969
0.05243073
-0.01022166
-0.04187022
-0.02486822
-0.04081566
0.01867169
-0.09870017
0.02976239
0.02048002
-0.10540025
-0.01791748
0.05630926
-0.02050969
-0.07237533
0.01134470
0.07448233
0.00178767
-0.23752648
-0.04244760
-0.03591861
-0.08776398
0.02025155
0.01258640
0.00386688
0.05981179
-0.05553752
0.00461252
-0.05968679
-0.01374549
-0.09729440
-0.17735077
-0.01343618
0.05844900
0.05913781
-0.07332045
0.07981824
-0.10937186
-0.11678062
-0.03255123
-0.01813994
-0.10309163
-0.09595060
0.04299916
-0.12145269
-0.07363731
-0.05522714
0.01317037
-0.01963188
0.04217342
0.02938627
-0.05891683
0.06287730
-0.02588112
-0.03460687
-0.05843889
-0.04776954
-0.08834979
-0.00552055
-0.01235170
-0.02127274
0.05223993
0.04327311
0.02975282
0.14830118
-0.01575559
0.09213218
-0.06471719
0.07360139
0.09303211
0.02389559
0.01088792
-0.18315694
-0.05706831
0.01563962
-0.03374629
0.04824780
0.00001394
0.17897829
0.04435495
0.09959611
-0.14784722
-0.00762774
0.06804413
0.00380929
-0.06545883
-0.01901202
0.05043162
0.03693391
-0.05045190
0.01970974
-0.07794808
-0.00814321
-0.15388937
0.05577041
-0.08195462
-0.14773549
-0.13046458
-0.19341594
0.03732171
0.06707156
0.07026448
0.01768411
0.05882968
-0.07357711
0.05114722
-0.07123611
0.06265447
0.02361967
-0.06229106
0.05080781
0.04138726
0.02727345
0.04970077
0.01256339
-0.01301230
0.04221565
-0.07196413
-0.01336645
0.02640806
0.02859079
0.09030181
-0.10943419
-0.00429985
0.02805759
-0.09702021
0.03030075
-0.01631978
0.08212577
0.16537076
-0.06391279
0.06478182
0.05655774
-0.00161702
0.01275323
-0.03605012
0.10522021
0.00547609
-0.10011063
-0.01571683
-0.14514698
-0.05395750
0.03815387
0.13187760
-0.02865740
0.03731792
-0.02217166
0.00243430
0.04710982
-0.14050031
0.04724826
-0.00940175
0.08713639
-0.16649173
0.06065152
-0.03399322
0.01586286
0.03122673
-0.03983028
-0.07965164
0.00960583
0.03752079
0.05148242
0.09756228
-0.07030451
-0.03431254
0.02384311
0.02518200
0.01763012
-0.07327118
-0.02034041
0.07303619
0.03599360
0.00439949
0.03251671
0.12601423
0.09981868
-0.06258100
-0.04914784
0.13202171
0.06459893
0.11403766
0.02940202
0.01055559
0.02243134
-0.00343898
0.03458853
-0.08904684
-0.12410391
0.05593464
0.10373770
-0.15931770
0.02214838
0.00261011
-0.08198988
0.06685818
0.09778917
0.00427737
-0.08730353
-0.02189869
0.20695992
0.03978958
-0.04501271
0.01650564
-0.00508773
-0.10415918
0.02729590
0.06072482
-0.05315176
0.03483068
0.03397307
0.06488471
-0.03607881
0.13515973
-0.01913602
0.04088542
-0.03004331
0.08784985
0.08877060
0.05514295
0.05291978
0.05175813
-0.07832141
0.05477109
0.04856969
-0.05082862
0.07470369
0.00750980
-0.09261945
0.00411654
-0.00262051
-0.06433316
-0.00131177
-0.07461712
0.11321393
0.06012183
-0.01764372
0.03711767
-0.00050120
0.05829295
0.13062096
-0.03899485
-0.03479952
-0.05000825
0.07385709
0.10093363
0.00816375
0.15683177
-0.02962619
0.02983563
-0.01900775
0.08552743
0.08062156
-0.04035208
-0.07316002
0.08381212
-0.01736902
-0.08539025
-0.01038252
-0.05536933
-0.00604601
0.15364970
0.01910681
0.18373074
0.01987143
-0.04512030
0.01469459
0.09843994
-0.04078011
-0.00953620
0.07547443
-0.00474295
-0.02466514
-0.03415244
0.07076241
-0.05496124
0.15590107
-0.03779259
0.00344226
0.01361162
-0.00383057
0.16903979
0.15005527
-0.06720874
0.13571800
-0.02561598
0.10054812
0.00329094
0.06535142
-0.01510046
0.10936442
-0.04647316
-0.04360520
-0.02550302
-0.00761016
-0.09004557
0.17599224
-0.07062419
-0.01015362
0.08129137
0.01279934
0.07423159
0.01493259
-0.03866303
0.01344207
-0.01189540
-0.07748725
-0.03072000
0.15643542
-0.01573976
-0.16551931
-0.09797765
-0.15202890
-0.10769924
0.10463594
-0.10507064
0.11020076
0.08645301
0.10047305
0.02746108
0.13306116
-0.09308771
0.08353076
0.06580210
-0.05712559
0.00248217
0.06244472
0.05915214
-0.06875578
-0.01573879
-0.03019005
0.01179984
0.10000164
0.02886679
-0.20788440
0.01909398
-0.02400173
-0.07860250
0.06591418
-0.03464200
-0.00784240
-0.10915266
-0.02345872
-0.01023302
0.00640333
0.13767937
0.06843404
-0.08617859
0.19180265
-0.13861187
0.02241242
0.17717884
-0.04002675
0.05634079
-0.01850443
0.04796490
-0.06467528
0.05214798
-0.05795242
0.00459017
-0.01009272
-0.02344875
0.04880805
0.01167044
-0.05618996
-0.01413731
-0.04030761
0.09180870
-0.14237238
0.04445359
-0.14554562
0.02723953
0.10393967
-0.16056846
-0.09424382
0.10707507
0.05901371
-0.00423609
-0.13268386
0.00539186
-0.03661362
-0.05132416
