0.00005567
0.00346385
-0.00176059
-0.00613211
-0.00044075
-0.01008033
-0.00325223
-0.01767546
-0.00548590
-0.00456000
-0.00067883
0.00388907
0.00085853
0.00663933
0.00604133
0.00194090
0.00534041
0.00744941
0.00513681
-0.00917771
-0.00165651
0.00948787
0.00040916
0.00602529
0.01054178
0.00964175
0.00220595
0.00047364
0.00695105
-0.00940668
0.00686278
-0.00610312
0.00786701
-0.00204393
0.01076350
-0.00287512
-0.00201174
0.00941379
0.00041174
0.00023807
-0.01331887
0.00168670
-0.00323647
-0.00332613
-0.01468933
0.00558894
-0.00115552
0.00893058
0.00870126
-0.01178311
-0.00145628
0.00119729
0.00755946
-0.00241792
0.01067150
-0.01794009
-0.01337677
-0.01343251
-0.00735132
-0.00734568
-0.00186225
0.00275187
0.00500198
0.01042737
-0.00057135
-0.00059187
0.00458914
-0.00088726
-0.00127458
0.00508436
-0.00270570
0.00131888
-0.00016475
-0.00111191
0.00559850
-0.00494062
0.00378615
-0.00678746
0.00046970
-0.00675388
0.00833635
0.00377156
-0.00249974
0.00080410
0.00308845
0.00333286
-0.00674869
0.00868401
0.00774962
0.00306654
0.01267601
-0.01015292
0.00164489
0.00382181
-0.00214503
-0.00716150
0.00654990
0.00108368
-0.00133777
0.00924125
0.00120898
0.00613256
-0.00664224
0.00224531
0.00647847
0.00397950
0.00000281
-0.00301429
0.00815399
0.00088105
0.00037542
0.00496431
0.01034516
-0.00037010
-0.00631912
0.00445570
0.00074537
0.00609643
0.00192126
0.00569625
-0.00524351
-0.00777295
0.00349430
-0.00293462
0.00540088
-0.01066513
-0.00337119
-0.00225965
0.00156140
-0.00866489
0.00235364
0.00387992
0.00491095
-0.00052326
-0.00663569
0.00960507
0.00064764
-0.00301692
-0.00790674
-0.00184611
0.00632176
0.00059521
-0.00359274
0.00080378
-0.00017673
0.00716152
0.00032898
0.00273822
0.00329183
0.00050874
0.00426941
-0.00474548
0.00394396
-0.00448551
-0.01336144
0.00826495
-0.00036807
0.00491806
0.00012447
-0.00466385
0.00120159
0.00284591
-0.00601079
-0.00427914
0.00262162
0.00180523
-0.00254004
0.00562177
0.00535256
-0.00445929
0.00308943
-0.00077596
0.00417228
0.01108090
0.00190427
0.00520733
-0.00767833
-0.01320435
0.00013742
-0.00055318
0.00024090
0.00096265
-0.00548408
-0.00450622
-0.01191243
0.00169976
-0.00007053
0.00256109
0.00272520
-0.01391853
0.00369575
0.00132676
0.00638122
-0.00358639
-0.00747394
0.00090044
-0.01202831
0.00734901
0.00569684
-0.00046038
0.00398021
0.01058681
-0.01255440
-0.00730519
0.01029740
0.00391943
-0.00490418
-0.00675713
-0.00170792
-0.00166298
0.00426631
0.00116039
0.01269766
0.00634134
-0.00349346
0.00122975
0.00141435
0.00371454
0.00358007
-0.00572395
-0.00771967
-0.00324637
0.00724038
-0.00243035
0.00282872
0.00233545
0.00193493
0.00579829
0.00270108
-0.00017082
-0.01282070
0.00490142
0.01022734
-0.00318178
-0.00822751
0.00281937
-0.00062938
-0.00139934
-0.00210460
-0.00759833
0.00780477
-0.00247812
-0.00042341
0.00041333
-0.00145492
-0.00179870
0.01016323
-0.00441633
0.00204669
0.00339643
0.00315731
-0.00205599
0.00218739
0.00270125
-0.00598362
-0.00596051
-0.00097122
-0.00654044
-0.01378892
0.00857983
0.00028332
-0.00174788
-0.00191931
0.00063198
0.00369829
0.00783503
-0.01604400
-0.01165056
0.00208547
0.00364287
0.00657842
-0.00778336
0.01071828
0.00325553
-0.00013430
-0.00231277
0.00376922
0.00122520
0.00480514
-0.00934988
-0.00097817
0.00797422
0.00256087
-0.00239695
0.00016685
0.00381613
-0.00036717
0.00584413
-0.00121487
0.00758664
0.00294620
-0.00361996
0.01575608
0.00480303
-0.00175167
-0.00648290
0.00294043
-0.00222346
0.01361088
-0.00249870
0.00671001
0.00338781
0.00539891
0.00650182
-0.00753967
0.00514390
-0.00407189
-0.00865061
0.00078634
0.00091205
0.01682637
-0.00388387
-0.00911455
-0.00142724
0.00367291
0.01387339
0.00640864
0.00685589
-0.00134006
-0.00291699
-0.00804803
-0.00335318
0.00105456
0.00742768
-0.00691636
-0.00246141
0.00099150
0.00006998
0.00415201
-0.00189311
-0.00212562
-0.00629851
0.00112420
0.01198282
0.00564935
-0.00353705
-0.01178401
-0.01323613
-0.00573188
0.00385788
0.01352778
0.00937186
-0.01137920
0.00487022
-0.00046602
-0.00742670
-0.00094812
0.00271119
-0.00097829
-0.00509181
0.00430305
-0.00021116
-0.01491867
-0.00499215
-0.00929037
-0.00106552
-0.00362253
-0.01297702
0.00230883
-0.00239177
-0.00255063
-0.00049470
-0.00324538
0.00425993
-0.00281241
-0.00734430
-0.00747360
0.01480801
0.00388253
-0.01312599
0.00365975
0.00116420
-0.01562204
0.00343656
-0.00320519
0.00370921
-0.00866176
0.00177245
-0.00815835
0.00294599
0.00545358
-0.00418139
-0.00137251
-0.00117475
-0.00391664
-0.00552501
0.00745094
0.00101515
0.00354814
0.00014679
-0.00753733
0.00245054
0.01446872
-0.00092050
-0.00344482
0.00552567
-0.00148145
-0.01022356
-0.00028918
-0.00529604
-0.00375739
-0.00664881
-0.01160437
0.00427343
0.01148308
-0.00222369
-0.00556212
-0.00161448
-0.00292239
-0.00153515
0.01285423
-0.00744215
0.00754552
-0.00244495
0.00947929
-0.00617696
-0.00711720
0.01047076
0.00786306
-0.00130377
0.00335041
0.00853623
-0.00104768
-0.00388800
-0.00248881
0.00493685
-0.00811973
0.00099427
-0.00470251
0.00417126
-0.00723871
0.00666596
-0.00028491
-0.01293647
-0.00067687
-0.00255403
-0.00413339
-0.00241084
-0.00558626
0.00168299
0.00846786
0.00325750
-0.00334796
0.00578034
0.00664570
-0.00121646
0.01133566
-0.00091204
-0.00934495
0.00148280
-0.00145809
0.02011660
-0.00223495
0.00672751
0.00508531
-0.00682666
-0.00451251
0.00850652
0.00029726
0.00268645
-0.01094951
-0.00233793
0.00188092
0.00394709
-0.00551819
-0.00885024
-0.01049600
-0.00419588
0.01017118
0.00644021
0.00767552
-0.00076814
0.00339360
-0.00061212
-0.00281437
0.00364337
-0.00183013
-0.00355091
-0.00122766
0.00750245
0.00269312
-0.00587330
0.00621620
0.00093946
0.01119239
-0.00210022
-0.01123869
0.00606759
-0.00144059
-0.00058555
-0.00920730
-0.00978384
0.00074165
0.00040356
0.00534625
0.00041307
-0.00908782
-0.00068219
0.00769873
0.00584437
-0.00245297
0.00717490
0.01021570
0.00019995
-0.00261425
-0.00325111
-0.00300139
-0.00186479
0.00236054
-0.00553045
-0.00440113
0.00268505
0.00099579
0.00626373
0.00009953
0.00320868
0.00315280
-0.00111842
-0.00530835
-0.00619624
-0.00390604
-0.00192803
0.00456080
-0.00591716
0.00068239
-0.00703222
0.00318067
0.00830713
0.00307170
0.00179278
-0.00841070
0.00252591
-0.00182027
0.00411466
0.00400521
0.00229134
0.00593513
-0.00145748
-0.00103275
-0.00075893
-0.00389784
0.00599259
-0.00196575
-0.00367885
0.00034157
0.00545304
0.00137634
-0.00102852
-0.00758624
0.00678783
-0.00556478
0.00225310
0.00285561
-0.00290839
-0.00679857
0.00061615
0.00806035
0.00102220
0.00343160
-0.00229386
-0.00221209
-0.00357657
-0.00251276
0.00337101
0.00103407
-0.00006157
0.00012589
-0.00785225
-0.00102138
0.00505693
-0.00876694
-0.00197562
-0.00222275
-0.00350581
-0.00118992
-0.00863665
-0.00228311
-0.01024875
-0.00848241
0.01522794
0.01207833
0.01069784
-0.01569581
-0.00867563
0.01773085
-0.00706226
-0.01372685
0.01022733
0.00503725
0.01553552
-0.00527146
-0.00509854
-0.00004413
0.00247282
0.00837962
0.00830467
-0.00051402
-0.01688825
0.00474023
0.00505331
-0.00390514
-0.01070306
0.00881013
-0.00018548
-0.01605130
-0.00042856
-0.00066881
-0.00916165
0.01620185
-0.00706173
0.00365591
-0.00710248
0.00386133
0.00710067
-0.00506041
0.00020519
0.02529568
0.01111936
0.01036859
0.00763188
0.00349809
-0.01029656
0.00207730
-0.01165864
0.01297720
0.01319213
0.01136198
0.00104526
-0.01104287
0.00436215
0.00166206
-0.00192610
-0.01785540
-0.00132784
0.00033072
0.00479500
-0.00125421
0.00491447
0.00752837
-0.00249419
0.00998617
0.00803551
0.00433206
0.01241569
0.00763986
-0.00538391
0.00914660
0.00647747
0.00001349
0.01383866
-0.00485546
0.00892373
-0.00207140
-0.00658178
0.00901263
0.00399930
0.00123688
-0.00575339
0.00058314
0.00582477
-0.00661379
0.00160257
-0.00344529
0.00224823
-0.00331219
0.00134181
-0.00486734
-0.00674213
0.00596453
0.00199442
-0.01282675
0.00867051
-0.00382428
0.01529749
0.00974779
0.00624133
0.01309534
0.00240841
-0.00163456
-0.00034337
-0.01002566
-0.00761603
0.00229980
0.00516699
0.00520938
-0.00756078
-0.00379300
0.00783963
0.00699566
-0.00833750
-0.00044893
0.00258489
0.01587345
0.00125609
-0.00189916
-0.00448212
-0.00440942
-0.00122122
-0.00063208
0.00962555
-0.00922719
0.00480279
-0.00025373
-0.01459283
0.00928470
0.00791611
0.00695681
-0.00743139
-0.00271655
0.00162804
0.00135947
0.00056553
-0.00407497
-0.00424652
-0.01011543
-0.00081923
-0.00568776
0.00030217
0.00333215
0.02078232
-0.00088998
0.00412578
0.00871129
0.00457910
0.01193465
-0.01445430
-0.01806599
-0.00483294
0.00177247
-0.00479387
0.00350107
0.00858008
0.00155687
0.00653973
0.00705271
0.00328469
-0.01255490
0.01247462
-0.01134422
-0.00901275
0.01215907
-0.00769195
0.01123997
0.01866748
0.00123952
0.00765174
-0.00602975
0.00142585
-0.00432361
-0.00209764
-0.00536024
-0.00408744
0.00541099
-0.01477987
-0.01055282
-0.00224275
-0.00913127
0.00006368
0.00719675
0.00074263
0.00993069
-0.00770333
0.00404117
-0.00011465
0.00163231
0.00051087
-0.00631319
0.00112551
