-0.25132924
-0.23753347
0.02581017
0.00901509
0.18424493
-0.10878958
0.42990151
0.13848333
0.49509254
-0.19812758
-0.05309982
0.05267746
-0.11447188
-0.11720373
-0.18811955
-0.08923365
-0.11819667
-0.06502162
0.07426864
0.74049318
0.11903213
-0.39947349
0.09240673
0.14707547
-0.00884482
0.14444871
0.18023483
0.14699361
-0.00160350
-0.00240832
-0.26148397
0.24619761
0.17292441
0.03757492
-0.17114499
0.07056542
0.09640215
-0.08291152
0.41820356
-0.12408069
0.07123865
0.13781381
-0.30078414
-0.01188412
0.04453967
-0.62882227
-0.00665379
-0.01117467
-0.03740969
0.03209034
-0.47502965
0.10926873
-0.10293370
-0.06971669
0.16734576
-0.10845020
0.06074307
0.28250030
0.31952170
0.16382156
-0.11049893
-0.54505658
-0.02872564
-0.07783776
0.14439178
0.08547573
0.27349183
-0.19565915
-0.01348374
0.01459406
0.05249558
0.16612944
0.06198229
0.02868491
-0.02376369
-0.01115721
0.03510827
0.09444952
0.05599075
0.10719112
-0.09549983
0.06725305
-0.05202606
-0.13092014
-0.10836057
0.00948769
-0.09769177
-0.08157367
-0.21601346
0.38549855
-0.03217810
0.05845720
-0.10146752
-0.10795744
-0.39865860
-0.20741417
-0.08057921
-0.04280117
-0.06542980
-0.13642514
-0.07110968
0.07335174
0.11745398
0.04473122
-0.10822423
0.06886622
-0.25457007
0.23215714
0.11959460
0.01290844
0.05887405
-0.12171189
0.18272978
0.00111939
-0.07300197
-0.00593438
0.26270375
0.12985247
0.15573193
0.04261889
0.07085120
0.00232108
-0.14738750
0.09888775
0.00819188
0.09835913
0.07838640
0.05532103
0.11128070
-0.19908452
0.10798804
0.18662208
0.22047627
0.33619720
-0.43869749
0.11896293
-0.01217773
-0.07041442
-0.14871117
-0.00707693
0.02346767
-0.03064845
0.09202819
0.01016115
-0.07731743
0.07429869
-0.02706833
0.04578575
-0.03306041
-0.01696666
0.10724946
0.00894671
0.12721354
0.01839137
-0.29835284
0.32104307
0.06192156
0.21150863
-0.05495403
-0.05969436
-0.00582056
0.09064241
-0.33636045
-0.07438695
0.04387395
0.20347543
-0.00037572
-0.00076938
0.03853657
0.09183971
0.23000920
0.05424816
0.19658454
0.07305678
-0.00342504
0.10161114
-0.20485331
-0.44437513
-0.13771020
0.02480780
-0.05094108
-0.01013129
0.04532721
-0.03321112
-0.47712901
-0.01651459
0.07432426
-0.00729109
-0.05309238
-0.41062009
0.13992655
0.02581653
-0.10724416
0.17570084
0.21616310
-0.15295656
0.27082548
-0.01483949
-0.10560169
0.20991926
-0.04554077
-0.00144035
-0.10827612
0.37943709
-0.44544771
-0.08342650
0.02569976
-0.11545435
0.01803667
0.45123976
0.45543885
-0.07659864
-0.51813900
-0.23105370
-0.34332949
-0.25391266
-0.10514151
-0.68975621
-0.02490322
-0.03098096
0.18063055
-0.31927431
0.00976973
-0.06931239
0.06119028
-0.11520289
-0.11270612
-0.25957111
-0.31716996
0.10557850
0.43946841
-0.07650290
-0.06482019
0.04714380
0.18546875
0.15746026
0.05913729
-0.07308844
-0.30072120
-0.02009874
0.03723805
0.20446263
-0.02636385
-0.36780572
0.12785476
0.08342820
0.02709063
0.05119274
-0.08967651
0.10017554
0.06797460
0.02718167
0.17416592
0.03634933
-0.01066568
-0.09759694
0.25912917
-0.02960942
-0.16502042
-0.07216556
0.45434436
0.26721904
-0.03144582
0.00069002
0.01619221
-0.06938355
0.22054891
0.00253489
-0.21836013
-0.13653295
0.00774826
-0.01976609
-0.24541613
0.01120060
-0.08468899
0.07758305
-0.00632072
-0.23186013
-0.19484591
-0.08546939
-0.01151893
-0.15355627
-0.27502784
-0.14999680
-0.15991253
-0.21353225
0.10099130
-0.00907432
-0.01990573
0.04073514
-0.50684905
0.03261305
-0.67391086
-0.22069693
0.09276470
0.03035686
0.15613961
0.16793351
-0.08307884
0.09949568
0.09010536
-0.02111915
0.07374313
-0.00652774
0.19688952
-0.16057506
-0.18474343
0.14698370
-0.05942478
0.16862950
-0.22360623
0.06345350
-0.00916547
0.06237434
-0.00640747
0.05704899
-0.05145669
-0.30404216
-0.05352430
0.04320765
-0.07850585
-0.05619216
0.05729654
0.05526629
0.09618491
0.03444756
-0.10176434
-0.14598317
0.02324064
0.13750139
-0.20221074
-0.16544124
-0.07195815
-0.02297561
0.33742765
0.07997215
0.02184247
-0.11670638
0.09483647
-0.34165758
0.16469911
-0.26415235
-0.09490985
0.02700912
-0.33320069
-0.68091303
0.07502777
0.06485347
0.00548918
0.39192104
0.11877207
0.13241069
-0.57541132
-0.10217152
-0.12963794
-0.30427802
0.24892037
-0.11729781
-0.27765867
-0.19550747
-0.04165168
0.03186256
-0.16015005
-0.14922415
-0.20807071
0.15891708
-0.12411460
0.27969551
0.03736719
0.33457494
0.12860374
-0.34058103
0.07166558
-0.03794302
0.07519648
-0.05370181
-0.33050412
0.03324255
0.05825474
-0.02914854
-0.27766252
-0.33492142
-0.29864854
0.23412982
0.19511044
0.00944949
-0.00882496
0.17655551
-0.13725555
0.02335091
0.17812596
0.10283723
-0.02507727
0.19351681
0.06415314
-0.10597917
-0.26269078
0.52062798
-0.39138779
0.44295421
-0.11493875
-0.29419610
0.01922797
-0.09449153
-0.04288734
0.17346142
-0.15860994
-0.59501421
-0.01156441
0.01417141
0.08716580
-0.18182880
-0.06644531
0.13945168
0.28050420
-0.31853950
-0.11873307
0.02771005
-0.16822104
0.06186386
0.01459272
-0.03240659
-0.20871638
-0.01562850
0.13048220
-0.39281592
-0.05818105
-0.12849243
-0.19699828
-0.13195010
-0.21114117
0.21548791
-0.27914506
0.06965891
0.00655048
0.24419035
0.11123738
-0.08391866
0.02072090
0.09597780
0.06198035
0.07354093
-0.43105105
0.13908856
-0.07182755
0.34558496
-0.27330512
-0.24222985
-0.13867798
0.11788423
-0.14730830
0.54329991
0.11615098
0.09817523
0.15033826
0.06918576
-0.04515723
-0.01391245
-0.03652506
-0.05736212
-0.44168818
-0.05935755
-0.12084779
-0.09550688
-0.00072091
0.03924576
-0.04735939
-0.12102473
0.50623244
-0.08343554
0.17911509
0.00240989
-0.21633965
0.06619968
-0.17728679
0.07139463
0.01714293
0.00587066
0.01126645
0.00035963
-0.01303044
-0.07362058
0.03782829
-0.00859853
0.01114015
0.14251375
-0.03281964
0.06107965
-0.05249514
0.04822217
0.03707277
-0.03294668
0.04407744
0.10697191
0.04978366
0.00446836
-0.12673041
-0.02554509
-0.09620193
0.11449251
-0.02254780
-0.03920178
0.00124974
0.12454956
0.11280786
-0.01974297
-0.31864652
0.15769438
0.01211723
-0.05804978
-0.08886153
0.07717221
0.02230315
-0.09520519
0.13259961
0.17029062
0.21987291
0.07974158
-0.11707503
0.10672925
0.05074250
0.06515075
-0.10822061
0.15013219
0.07262632
-0.02488774
-0.18374951
-0.09854271
-0.05929288
0.08686554
0.09224451
0.16371527
0.10295498
-0.13580602
-0.14312431
0.01137075
-0.16079621
0.18371013
-0.00019611
-0.06971667
0.11716098
0.04210857
-0.06365404
0.06170174
-0.00505612
0.00326534
-0.07276257
-0.12753788
-0.26196033
0.20856482
0.00829056
0.25824597
-0.05156872
0.02976386
0.11344855
-0.09008348
0.09956489
-0.15521371
0.00222169
-0.08972812
0.05757150
-0.08745797
0.15919422
-0.16533363
0.26503497
0.16129886
0.12797233
-0.18696690
0.11448408
-0.16352062
-0.23397027
-0.13850093
0.26184255
0.02143517
-0.07011352
0.04269888
-0.11469546
-0.02193332
0.00353226
0.04153632
-0.08746900
0.06332228
0.22034726
-0.16161050
0.04801184
0.14500777
-0.01748331
-0.08332896
0.01570231
0.07277670
0.03268685
-0.01352286
-0.06925430
-0.11396130
0.12453801
0.16556209
-0.21162230
0.04185360
0.06091449
-0.14644621
0.10956948
-0.23106737
-0.10066768
0.06620301
-0.00737503
-0.00301334
0.00032944
0.03346344
0.05129299
-0.01659528
-0.08547261
0.03055476
0.00595941
0.05052569
0.02177323
0.03499626
-0.53039348
-0.02272360
0.10150246
-0.46939039
-0.10695697
-0.28998563
-0.04980961
0.14842403
-0.08305187
-0.34357536
0.04005247
-0.05528688
0.05111952
-0.01494179
0.14349812
0.01393062
-0.00334695
-0.09724869
-0.02129230
-0.10404437
0.15051617
0.15974592
-0.12644500
0.16339539
-0.01707148
-0.07778391
-0.20277399
-0.21792233
0.04449488
0.05095150
0.06380694
0.10606334
0.08948297
-0.19034152
0.10965633
0.03692171
-0.10769688
0.03173089
-0.10052401
0.22132564
0.04273232
0.08177450
0.24072447
0.12800823
0.00815791
0.29192200
-0.23933904
-0.17753954
-0.05042068
-0.02977665
-0.14580406
-0.40102422
-0.21320216
0.08770458
0.15821230
-0.01939567
0.03560694
-0.03666042
0.04022238
-0.00486746
0.04700930
0.09043771
0.11703384
0.58537430
-0.02735396
0.01757728
0.18255809
0.00011915
0.11046769
-0.55048728
-0.06435819
0.23941170
-0.05597167
-0.19533803
-0.01364712
-0.11374306
-0.06333520
-0.27919093
-0.01107104
0.02678608
0.08337175
0.06923248
0.16047361
0.04427394
0.06667961
0.00770273
0.06357524
0.00691716
0.09782769
0.10743722
0.22727638
-0.11761633
0.03023987
-0.01096441
-0.02458493
0.08236208
-0.01578558
0.04815122
0.00853764
-0.03598648
-0.02113661
-0.11305815
0.06272310
0.41798735
-0.02600864
0.15687095
0.07738740
0.08073110
0.00721213
-0.12050427
-0.07337517
-0.04534587
-0.03447685
-0.14028417
-0.11046226
0.22810809
0.13097194
0.13551624
0.13548772
0.15452173
0.03134559
-0.00098578
-0.10979903
0.05007070
-0.20861049
0.06555738
0.20105480
0.42298976
0.07204933
0.00329548
-0.05467189
-0.09735330
-0.09638813
0.02203738
-0.07107560
-0.08673473
0.12040617
-0.18237440
-0.07089210
-0.10738681
-0.08316446
0.01044872
0.27633226
-0.05990561
-0.02175952
-0.30033517
0.10486016
-0.17821489
0.20742121
-0.01809002
-0.03953158
-0.17634967
