0.02892835
0.00642501
-0.03608712
0.00264269
-0.02451980
0.00871065
-0.00522627
-0.02213599
0.03437344
0.03579394
-0.00031631
0.00676854
0.02267770
0.02442804
0.02045601
-0.01566536
-0.01058844
-0.02959719
-0.05020490
-0.02084267
0.00905274
-0.01886902
-0.01083480
0.02656494
-0.02459124
-0.00675037
0.01146130
0.01015425
-0.01351115
-0.03568739
-0.02266586
-0.04185626
-0.00562553
-0.01461872
-0.00495707
-0.04448344
-0.01565424
-0.02308367
0.04639614
0.05076911
0.04860953
-0.03510909
-0.01949178
0.03982053
-0.04149447
0.02320418
0.00936028
0.04316492
-0.02058875
-0.04022781
0.03103954
-0.03671242
-0.00187909
0.01127589
0.02217073
-0.00222947
0.04134497
0.04478173
-0.02390164
-0.01980312
0.03090779
0.04699929
0.00494015
-0.01859563
0.00317689
-0.03641377
-0.01890957
-0.01848629
-0.00508018
-0.06021677
-0.04593239
-0.02896888
-0.01100458
-0.01052470
-0.00141490
-0.01834899
0.02300948
-0.00344431
0.03156614
-0.02408700
-0.11097387
-0.01625867
-0.03510078
0.00245433
0.00787377
0.00903772
0.00785832
-0.02381829
0.04142069
-0.01898864
0.03322358
0.01195405
-0.02711460
0.00610535
-0.06755653
-0.00650722
0.02045286
-0.02706519
-0.01375727
0.02458558
0.03751577
-0.05511875
-0.01243251
0.01820608
0.03541904
-0.03322667
-0.00155764
-0.00624965
-0.00123718
-0.00193386
0.04902054
0.00314254
-0.01134484
-0.03421171
-0.01309703
-0.01040258
0.04569413
-0.00088458
-0.00433276
-0.05048305
-0.00626077
0.00780773
0.00457321
-0.01624174
0.02912563
0.02655776
0.01559842
-0.02810736
-0.00678169
-0.05572712
-0.05594310
0.03462339
-0.04229667
0.07530422
-0.42679036
0.02429391
-0.03428673
-0.09991657
-0.07465773
0.01961179
0.03021014
0.02526991
0.14531426
-0.01131831
0.00974754
0.00677539
-0.02659715
0.07526489
0.02695888
-0.12919271
-0.08143321
-0.07952651
0.10795440
0.03085659
0.06154486
0.09143253
-0.01491792
-0.00857697
-0.01558257
-0.06583989
0.00712473
-0.10343577
0.05559788
-0.01921005
0.09901539
-0.05372200
-0.05133496
0.09433874
-0.11485139
0.03481765
0.02917560
-0.11606504
-0.04219916
0.07564986
-0.02729599
-0.00720958
0.06319696
-0.11070210
0.05469617
0.04434590
0.08987137
-0.06786151
-0.00625809
0.08589575
0.09132646
0.00434004
0.11918155
0.09509443
-0.02469859
0.23946445
-0.02207201
-0.03015269
0.03177838
-0.01574041
-0.01135380
0.00805090
-0.00899994
0.00348527
0.00152412
0.00296976
0.00853402
-0.00579731
-0.00136349
0.00548646
0.00971920
-0.00076736
-0.01021220
-0.00762122
0.00130708
0.00268272
0.00672193
-0.02282341
-0.03449082
-0.02076517
-0.00239742
-0.00591029
0.02069551
-0.01426675
-0.00904296
0.01915225
-0.01375835
0.01269854
-0.00309788
0.00118265
0.01306332
-0.01929615
-0.00149873
0.01560173
-0.00401929
-0.01637391
0.00367841
-0.00081125
0.01263872
-0.03329296
0.02709701
-0.00293187
-0.00247485
-0.00560185
-0.01865940
0.01977427
-0.00604442
0.00107299
-0.00890203
-0.02451905
-0.00250986
0.02067720
0.00801271
-0.01467162
0.01334615
-0.00122793
-0.00787774
-0.00331225
0.01428603
-0.01394697
-0.00404659
-0.00117978
-0.02117903
0.01519479
0.01509932
0.02639033
0.01904548
0.07474735
-0.00891216
-0.03704236
-0.02711540
-0.01990737
-0.01193685
0.02206112
0.01767258
-0.00590497
-0.01613440
-0.02861008
-0.03020308
-0.02807217
0.00046289
0.04610104
-0.00466839
-0.00141872
-0.01944043
-0.00040631
-0.00273326
0.00362336
0.02478347
-0.00108663
0.06265282
-0.02646602
-0.04058264
-0.04760044
0.01903610
0.02764363
-0.02027085
-0.00236500
-0.02908111
0.00338218
0.02034519
-0.03297852
-0.03241947
-0.00917403
0.00728883
0.03426742
-0.02292280
-0.00156635
-0.06443156
-0.02263597
0.00535721
0.05771684
0.01584625
-0.03222300
0.04998118
0.03535357
-0.01487779
-0.00764921
-0.03072927
-0.01576756
0.00689711
0.01837640
-0.01588556
0.01396696
0.02251260
-0.03236151
0.04624024
-0.04626779
-0.01645337
0.08634514
-0.06872325
-0.02514599
0.01844462
-0.05042521
-0.01018611
-0.01290060
0.07187842
-0.29980281
0.03024219
-0.01043532
0.01974781
-0.03323152
0.20121269
-0.00517634
-0.01692202
-0.00990911
-0.00769540
0.05297437
0.03271700
-0.00825786
0.11295776
0.05833805
0.01862970
-0.11506875
-0.00830620
-0.01214547
0.06223410
0.03536533
0.12262942
0.08526487
-0.01446032
-0.02563134
0.05517371
0.04032039
-0.02944636
-0.05370972
-0.07970852
0.02728186
-0.03494707
-0.02909250
0.00838305
0.02320332
-0.04231305
0.03253153
-0.08522747
0.05880182
0.04750048
0.03739876
0.04755420
-0.11786385
0.01979497
-0.00515430
-0.01149206
0.07388164
0.00391204
0.05072756
-0.00257778
0.08714009
-0.02678936
0.03554817
0.02435311
0.08370277
0.01682355
0.04514733
-0.01491780
-0.06779169
-0.06051365
-0.02385258
0.02816995
0.08586295
-0.07802811
0.03801173
0.05141466
-0.00228335
-0.00880160
0.01185402
0.05636076
-0.03593644
-0.44916645
0.12717600
-0.01341808
-0.08195449
-0.01758671
-0.02564911
0.06290735
-0.09057572
0.05826702
-0.00165619
-0.05427879
0.00711140
0.01591012
0.04940011
0.06208576
-0.00123491
-0.04910301
0.05009598
-0.01516222
0.06212796
-0.07046233
0.04690616
-0.01810197
-0.04206573
0.07286223
-0.00479726
-0.07812778
-0.05563068
-0.05861598
-0.02113916
0.04833056
0.01961963
0.02071049
0.01614416
-0.01501736
-0.02118813
0.03293705
-0.09512977
0.10704614
0.00470557
0.00401599
-0.00922105
-0.08255225
-0.12055548
0.02988530
0.04229087
0.00754238
-0.02641718
0.01827824
0.00656713
-0.01931384
0.01123360
0.00089791
-0.00303671
0.01318698
0.03419966
0.01099813
0.01146076
0.01275531
0.04109171
-0.01940665
-0.01098496
0.00114635
-0.01171622
-0.02025750
-0.00165515
0.00352984
-0.00014161
0.02626667
0.00952447
-0.02692056
0.01199299
0.01939726
-0.02626490
0.02325485
0.02358682
0.02633133
0.02905705
0.02033504
-0.00854416
-0.00667055
0.01300162
-0.01479585
0.03809622
-0.00142929
-0.01080237
0.02253211
0.01632422
0.00332866
-0.00253289
0.00809141
-0.01570368
-0.00813667
0.00804917
0.00632096
0.01288716
-0.01556966
-0.01624543
0.00377483
-0.00946837
0.00510922
-0.00152362
-0.00785164
0.03014822
-0.00465735
-0.01565172
-0.01841390
-0.00488567
0.01293844
0.00136193
0.01639892
0.03785106
0.00048976
0.00222491
0.03537408
-0.04637106
0.03151850
0.01119088
0.03594156
-0.00346124
-0.00853925
-0.01850369
0.01727164
0.05337177
-0.01561905
-0.02809910
0.00107734
0.02176012
0.03824752
-0.00476459
0.01928322
-0.00676533
-0.01788041
0.00390835
0.03522792
0.00365056
0.00732322
0.00370736
0.00161524
0.02703608
-0.00164117
-0.00442528
-0.00223967
0.01621097
0.00432930
0.00243231
-0.02325105
0.02235399
0.00877226
-0.01902502
-0.02342669
-0.01945743
0.01304036
0.00928393
0.01667635
-0.02271543
-0.04938116
-0.00559045
-0.02186636
0.00188092
0.00978898
0.01161697
-0.00083639
-0.00586710
0.00034291
-0.01143658
0.02519047
-0.02430965
-0.00145653
-0.00389081
-0.00189078
0.02855751
0.00121830
0.01424516
-0.00881005
-0.00727266
0.00984386
-0.00514286
0.01302770
0.01359939
-0.01212335
0.01041151
-0.01221516
-0.02354851
0.03007712
0.03008317
0.01994821
0.03136244
0.01722362
-0.01749227
-0.00250006
-0.02310018
-0.03418334
0.03366818
0.01179775
-0.01893253
-0.04078889
-0.01005916
-0.01258666
-0.05605740
-0.00167658
0.00809583
0.02152826
0.02457548
-0.01099975
-0.00319540
0.02399755
-0.02570609
-0.00192628
-0.03008926
0.00015664
0.00143199
-0.02150656
-0.00835056
-0.03653815
0.02647858
-0.00520926
-0.03347946
0.00641253
0.01439678
0.01015192
0.00869052
-0.04010771
-0.01334141
-0.01967303
0.02582410
0.00168058
0.04467514
-0.00288794
0.02081551
-0.00722200
-0.02122039
0.01892121
0.01035165
0.03589634
0.03298163
-0.01230568
-0.02556455
0.00127020
0.00524816
0.01074782
0.01044508
-0.04217513
-0.02895571
-0.00984409
0.04592140
0.00536784
0.00104640
0.00209614
-0.03396089
-0.01747727
0.01207225
0.00406165
0.01674245
0.04240817
-0.02682966
-0.01930660
-0.01382965
-0.02135159
-0.01782977
0.00519637
-0.00914309
0.00325469
0.02316171
-0.00658500
-0.00455449
-0.01354537
-0.00331100
0.01256012
-0.01860248
-0.00801134
0.00722688
-0.02998953
-0.02803114
-0.01768995
-0.01598997
-0.00431899
0.00583957
0.02273895
-0.01124266
-0.02389936
-0.00995515
-0.00329687
0.00025843
-0.00507297
-0.01765878
-0.02796059
-0.03136611
-0.03443829
-0.01946810
0.00831282
0.01531689
-0.01763625
-0.00399185
-0.00388455
0.00118680
-0.00633478
0.02971743
-0.00592712
-0.02493864
0.00918983
-0.00696470
0.07774015
0.00823492
-0.00188177
-0.02071835
-0.03848414
0.02073166
-0.01105266
-0.01869968
0.03648105
0.01533139
-0.00926033
0.03840749
0.01410174
-0.04810047
0.00834746
-0.02590434
-0.01792696
0.00041530
-0.02452327
0.00785181
0.02749157
-0.00148324
0.00470437
-0.03000381
-0.03191819
-0.00238626
0.05442666
0.00687715
0.01769591
0.02029486
0.02065578
-0.03577078
0.04606747
-0.02559234
-0.00808643
0.03855041
0.04933561
0.01319950
0.03213690
0.05609240
0.00040812
-0.03761506
-0.04633500
-0.00812327
-0.03035306
-0.02191607
-0.06113010
-0.01665395
0.01876714
0.05518305
-0.01556467
0.06104902
-0.06514683
-0.01659280
0.01849698
-0.00605660
0.03204688
-0.02230045
0.04660454
0.02912733
-0.00408988
-0.01890782
-0.01294170
0.01407727
