0.08583715
0.14199966
-0.08566370
-0.18797271
0.21056814
-0.24415776
0.27290362
0.16494763
0.03236500
0.10971056
-0.02077460
0.24005003
-0.18267305
0.30327260
-0.00544028
-0.01430333
-0.11269493
-0.29029101
-0.05455341
0.51763874
0.20927833
-0.36853826
0.20007676
0.10004260
-0.17576759
0.22373617
0.11766492
-0.17958410
-0.19986548
0.09800106
-0.03896620
0.03907476
0.20838740
-0.19816299
0.12071831
-0.07452264
-0.14145340
0.06931805
0.12678768
-0.31749928
0.02411706
-0.18195499
-0.01636403
0.11730198
-0.10515006
-0.19714187
-0.06060588
-0.07098039
0.09462124
-0.01617228
-0.41444790
0.08404658
0.42277756
-0.43997189
0.10947424
-0.31991401
-0.07499295
-0.32303002
0.04347290
-0.25488108
-0.09352216
-0.01427145
-0.49369454
-0.42574024
-0.07193646
0.06125289
-0.05842879
-0.04661230
0.02223837
-0.09432025
-0.06319871
0.03628303
-0.36720330
-0.30244622
0.22520880
0.12977435
0.03281709
0.23162261
0.04356203
0.02605314
0.01052164
0.04993841
0.05283716
0.08129053
0.06103196
0.01480242
-0.18582328
0.13861258
0.03346916
0.08870306
-0.03141104
-0.08889911
0.54394799
-0.14193304
0.08895576
-0.04885454
0.26913586
-0.19660082
0.02119903
-0.03128904
-0.03597919
0.15278147
-0.04040430
-0.07432695
0.12858418
0.04033352
-0.29333213
0.03455966
0.11059628
0.00151786
0.01250378
0.01876571
-0.47774711
-0.25696298
-0.05244204
-0.02031598
0.09268891
0.12318697
0.02351077
0.10319995
-0.22639205
-1.27588689
-0.15359335
0.10496534
0.07143489
-0.08218078
-0.11538664
0.07851350
0.12399451
0.00305692
-0.01976402
0.18015631
-0.07937589
0.04643618
-0.05362455
-0.16864449
-0.22689161
-0.17784557
-0.25518718
-0.41561392
-0.05111336
-0.00451241
0.01497648
0.01827000
0.00602746
-0.96517032
-0.07032054
-0.11285026
0.07553533
0.08768960
0.11125310
0.08038022
-0.12796310
0.08292792
0.04701244
0.07227759
0.27568850
0.26086482
0.18015167
0.04607243
-0.01044456
0.00318793
-0.05175433
0.06511895
0.01476630
0.06701695
0.00132093
-0.30013058
-0.97465545
0.00897083
-0.07521440
0.09790391
0.04252423
0.35628262
0.16467397
0.46965998
-0.03606581
0.05217791
0.03666199
0.01424285
-0.05294953
-0.05356117
0.07474619
0.23692901
0.12329145
0.09013972
0.29616246
0.23797756
0.10830133
-0.08298746
-0.19990496
-0.26592612
0.36728942
-0.07527485
-0.08301535
0.05690414
-0.07459979
0.07869334
-0.02870912
-0.02191389
-0.12160257
0.21839824
0.07471076
0.27896619
0.02384549
0.07293113
0.18908748
-0.05392566
0.00597766
-0.02752713
0.10153260
-0.11935806
0.19165519
0.07172196
-0.05185527
-0.12119593
-0.40606874
-0.05193223
0.16312502
0.02508407
-0.06791075
0.26443043
0.19162171
-0.19407889
0.10772827
0.01576757
-0.02023411
-0.00957642
-0.03890786
-0.01111649
0.17622149
-0.04015231
0.22360098
-0.04621621
0.05928615
0.13976300
0.04217998
0.02675823
-0.04726598
-0.05495289
-0.17331645
0.04714709
0.04227321
0.07368994
0.08785616
-0.16134740
-0.20652266
-0.02049284
-0.02922796
-0.35708854
0.12681568
0.27217177
-0.06259911
-0.08611910
-0.06324330
-0.15007566
-0.16936980
-0.20133048
-0.00124657
0.00536915
0.16783880
-0.08385953
0.21513379
0.08919363
0.29873630
0.12635373
-0.03666693
0.06417486
0.10768949
0.01346324
0.10019131
0.00934210
-0.03896503
-0.10162886
-0.20176150
-0.03580241
-0.03697397
-0.20046769
-0.12516926
-0.05941653
0.06572746
0.10572667
-0.01030516
-0.12040818
-0.13970740
-0.08147115
0.10920426
0.22179024
0.24758565
0.03948228
0.05295327
0.01442480
-0.14783315
-0.01751077
0.13223083
-0.01109285
-0.32532391
0.44575784
-0.06703702
-0.12040325
0.07432303
-0.19546628
-0.05875663
0.12348151
0.26547262
0.21292232
-0.13931438
-0.15638120
-2.46286869
-0.12758784
0.01289198
0.24209028
-0.07594483
-0.11335178
0.01865301
-0.04048986
0.07824030
0.05031685
-0.06182989
0.27451870
-0.05372382
-0.06306256
0.00394165
-0.07349230
0.02047657
0.13990161
0.02926991
-0.01813558
-0.06583380
0.03682314
-0.22457558
-0.39937127
-0.08878768
0.18374412
-0.05439512
-0.04396231
-0.00681197
-0.03040109
0.10252427
0.28406987
-0.11807992
0.18507001
-0.07188419
0.06240859
-0.26124895
0.32840067
0.04937396
-0.21945293
-0.06689673
-0.38845223
-0.08439002
0.27233574
-0.06600975
-0.07709597
-0.05804103
-0.20223266
-0.12828094
-0.07900767
-0.15026686
-0.01303488
0.14924531
-0.09534822
-0.09923228
0.05089276
-0.07329263
-0.08902812
-0.07762340
-0.01739047
0.00186981
0.05497462
-0.23772912
0.04732781
0.10714929
0.08925133
-0.26932266
-0.02001381
-0.01006226
-0.08668233
-0.04078829
-0.01371010
-0.05775350
-0.39649531
0.15819104
-0.31739515
0.02781093
-0.03994658
-0.26994750
0.13130188
0.01818740
-0.14568473
-0.13656953
-0.06202066
0.20699713
-0.02888333
0.08008515
0.05611575
-0.11029436
-0.13364878
0.01670552
0.02634221
0.01521401
0.01511836
-0.07643273
-0.17251419
0.09293901
-0.20555666
0.12254517
-0.02647484
0.02064178
-0.05482473
-0.23549403
-0.09624775
0.08879631
0.13570687
-0.05188211
-0.11737479
0.05975027
0.12839013
0.05585188
0.02957428
-0.09769842
-0.24356174
0.16190921
-0.06494704
-0.10726077
0.02603170
0.00893552
-0.01999980
-0.08495539
-0.00014515
0.13921830
0.00857892
-0.07326277
-0.06083306
0.06236840
0.20407729
-0.21904245
-0.07887383
-0.12200107
-0.24104744
0.12296110
-0.02043875
-0.09113126
-0.43783331
0.05128650
0.07427648
-0.24119613
0.01633367
0.04710856
-0.16143031
-0.13796906
0.08690498
0.24781030
-0.22786370
0.12198721
0.01887452
-0.00195024
0.06883829
-0.09518372
-0.13612156
0.13389973
-0.06241615
0.01385649
0.25923952
0.15964928
-0.26366371
-0.30606860
0.10745817
0.02404577
0.08577614
0.05173932
-0.06690813
-0.06920554
-0.02092226
0.00383742
0.05924768
-0.19415513
-0.03800594
-0.15805764
-0.11822521
-0.09719772
0.11794499
0.00180181
-0.05364259
0.01324422
0.10491765
0.01930632
0.28919381
-0.26281041
-0.04774196
0.02047422
-0.13288380
0.14809647
-0.08440105
-0.27600282
-0.23292129
-0.70531452
-0.01291689
-0.07508329
0.02881178
-0.06484928
0.06944972
0.03192433
0.05817885
0.15102987
-0.14970164
0.09633774
-0.07989683
-0.24237563
0.08457107
0.04692584
-0.11363675
0.22738785
0.07461734
-0.24071588
0.19932361
-0.20839931
-0.10475729
-0.27132601
-0.03158235
-0.00279950
0.10617878
0.06932661
-0.09456280
-0.25349826
-0.11223901
0.03956265
0.01434311
0.01070304
-0.07951698
-0.07704638
0.00018960
0.11763303
-0.15930763
-0.02575991
-0.18894739
-0.16665447
0.11495142
0.09353413
-0.32218468
0.15994334
-0.80287737
-0.17235434
0.19613722
0.02655010
-0.67360127
-0.22311908
-0.24769022
0.23945822
0.15087846
-0.04299173
-0.14882173
0.04099216
0.12862790
0.10113153
-0.03958905
-0.04115798
0.24885997
0.13086863
-0.13461782
-0.10839441
-0.30102435
-0.18165766
-0.07088011
-0.03197045
-0.03420125
0.00075160
-0.07367001
-0.04242670
-0.05865200
0.23111221
0.07839602
-0.02746053
-0.09016940
-0.03765772
-0.02531032
-0.01787495
-0.26136395
0.02433173
-0.00754508
-0.12623186
-0.17213193
0.22758982
-0.06499967
0.02719109
0.01805235
0.41366217
0.05037861
-0.04596490
-0.06513095
0.07986128
-0.03358029
0.02693463
-0.06474224
0.08940182
-0.04273874
0.08961202
-0.04663521
0.12795240
-0.02473715
0.13798869
0.14913067
-0.15173593
0.04975103
-0.00150483
0.29210189
0.03256445
0.31518543
0.02473682
-0.05925893
-0.03336799
0.05925244
-0.04901301
-0.04968851
-0.12974007
0.01699507
0.06227199
-0.07212929
0.11067306
0.17617193
0.13361654
-0.11289605
-0.02626272
0.00581563
-0.07394087
0.08759624
0.28824586
-0.21538903
-0.03900508
0.07281041
0.04456633
0.06801917
-0.20572816
0.16230014
0.08747423
-0.07497288
0.04394538
0.10578670
-0.06017870
0.34312755
-0.21876636
0.04321892
0.13212119
-0.11729481
-0.05732276
0.05765968
0.20610313
-0.10785665
-0.03908922
0.15405814
0.02696113
0.04342541
-0.05169779
0.09193003
-0.81682926
-0.07321334
-0.21458964
-0.10262988
-0.01310531
0.08621478
0.11604472
-0.14322469
0.09303964
-0.06334148
-0.00212196
-0.10718647
-0.04371111
-0.17138480
0.01452526
0.01892573
-0.24501635
0.13945869
-0.01142756
-0.13871603
0.01705206
-0.10296749
0.46580401
0.19645627
0.14460209
-0.10840319
-0.00316531
-0.03920141
0.28855711
-0.08022948
-0.01146895
-0.12296950
0.10523060
-0.18942313
-0.13457623
0.06027584
0.13951895
0.12275082
0.05817767
0.11007269
-0.10605277
0.30517769
-0.18426348
-0.09701443
-0.05840493
-0.18247940
0.11566264
-0.10690574
-0.30139738
0.16487978
-0.08201743
0.00744202
0.19994751
0.02285347
0.12944430
0.02245658
-0.02594825
0.24372016
-0.11012480
0.07133587
-0.20806031
0.18528892
-0.10257992
0.05117433
0.02116646
-0.07321423
-0.16878247
-0.12947388
0.02826859
0.01837328
0.17840293
0.01172729
-0.05097276
-0.05224713
-0.17690700
0.09730277
-0.10207646
0.19775268
0.04299157
0.11433716
0.22850291
0.01248630
0.10059691
-0.00792213
-0.21274352
0.01276537
0.03567257
-0.02190411
0.17777811
-0.03432566
0.09227074
0.14572798
-0.09129410
-0.07108617
0.05318460
-0.03396727
0.10408644
-0.26776749
-0.19378050
0.30134681
-0.11027740
0.06125226
-0.45050615
0.11791743
0.05390202
0.01874045
0.01180144
0.15211591
-0.03084638
-0.19900499
-0.06823774
0.02499540
0.01039268
0.00804973
