0.02946591
0.05715097
0.01293636
0.01920356
0.00805334
-0.03247138
-0.06717648
-0.00004887
0.01881272
-0.05861745
0.00620698
0.08548291
0.05942471
-0.10912832
0.02553298
0.09568326
0.04345775
-0.02931692
0.01829536
-0.03216253
-0.10856088
-0.02041195
-0.04179378
0.01145591
0.00505578
-0.00975091
0.02422258
0.06666786
0.05362245
0.10672138
0.06237635
-0.05185403
0.02502738
0.02116344
0.02622155
0.04093751
0.03372540
0.05618950
-0.02029088
0.04757977
-0.05760298
0.00430370
0.04825705
0.03274209
0.02376401
0.01196973
0.00725879
-0.02937582
0.01571099
-0.00938444
0.02684248
0.01231862
0.01378439
0.04408383
0.10994529
-0.01870640
-0.11898969
-0.02603251
-0.03465590
-0.03654061
0.06724263
0.01268689
-0.13838631
-0.03865750
-0.06677192
-0.04595168
0.01840708
-0.05214097
-0.10848535
0.02284320
0.05063401
-0.00760168
-0.02951537
-0.14917773
-0.04436982
-0.06512646
0.03810325
-0.04777927
0.03743581
-0.06767410
0.01337209
0.07175770
-0.07061020
-0.01544081
-0.04990992
-0.05352133
0.10528766
-0.13857272
-0.04436387
-0.03110895
-0.02584153
-0.02866552
-0.10281534
0.07190223
-0.00015152
0.04086157
-0.08185934
0.10448440
0.05070202
-0.04057689
-0.03717410
-0.06738457
-0.07835589
0.09182654
0.04498825
-0.28879079
-0.05526146
-0.03467169
0.05320147
-0.13669531
0.01991978
0.00960766
0.06967058
0.08250277
0.02428156
0.00705211
-0.05854759
-0.01028978
0.03161117
-0.01539329
-0.06803573
-0.08601850
-0.04230465
0.08798216
0.08513670
0.00036655
0.02738950
-0.06470583
0.15239903
0.13153125
0.00009212
0.01483162
-0.03740295
0.01087643
-0.01114894
-0.01127995
-0.04185110
-0.13697886
0.04174032
-0.05047835
-0.02257423
-0.04644917
-0.05973648
0.09927381
-0.09581268
0.01573034
-0.01214362
0.05494410
-0.05891017
0.03652863
-0.01496890
0.09529556
-0.04378572
0.02899430
0.10604606
0.05098087
-0.02044236
-0.04839496
0.08100139
-0.01087215
0.02069848
-0.03593026
0.14048509
-0.01305569
-0.01644322
-0.06389912
-0.00270233
-0.05245523
0.23761775
-0.01948032
0.09213657
0.00208868
-0.02785093
-0.00665955
0.02078682
0.02944740
-0.07584810
-0.02455623
0.00345953
0.02590126
0.02009362
0.00255146
-0.03889919
0.00263810
-0.06128000
0.09266767
0.04359023
-0.04405630
-0.06761359
0.01771989
-0.09287436
0.03249757
0.04699221
0.00949796
-0.02616996
0.03602861
-0.06445175
-0.08909230
-0.09622487
0.03266288
0.09930132
-0.02713796
-0.19123639
0.02197400
0.03231829
-0.01045765
-0.08744180
0.04668176
-0.01094697
0.03888918
-0.01274143
0.01585605
-0.11123152
-0.04130505
-0.03141319
-0.09541035
-0.05436809
0.03966912
-0.27570474
0.00394049
0.00179013
0.01342203
-0.02405752
0.03065276
0.03745442
-0.18968648
-0.10636391
0.03000901
-0.00787795
-0.05981475
-0.00992237
-0.04463952
0.05662300
-0.01953466
0.04425918
0.03062938
-0.12025599
-0.07566176
-0.00868469
-0.01916356
-0.14095211
0.06893943
0.04768612
0.01400605
-0.01996335
-0.19149309
0.07162042
0.05552898
0.07911135
0.06197901
0.03110380
0.03505611
0.02912284
-0.02231617
-0.03567871
0.00179230
0.05094841
0.03820853
0.02163000
0.02271057
-0.03974432
0.05558167
0.00649410
0.02932506
-0.12905118
0.00764780
-0.06974975
0.03308121
-0.06429669
-0.00351281
-0.00557762
0.08367651
0.00545074
0.06997574
0.01342008
-0.07980840
-0.06219177
-0.04099280
0.05669336
0.04490552
-0.14184518
0.02985606
-0.02157016
0.00431250
0.03652188
0.03468013
0.01515825
-0.01365518
0.02182849
-0.00963709
0.02587152
-0.05378747
0.09264854
-0.02929210
0.01803672
-0.02666586
-0.15545331
0.00658468
0.04614356
-0.03529694
-0.00121710
0.04744849
0.09032198
0.09334452
-0.03555161
0.01444804
0.01989198
-0.05125419
-0.20207575
0.04417780
0.07159205
0.02384092
0.01697721
0.02759090
-0.05915039
0.15174192
-0.04021446
-0.00060855
0.01105418
0.01292811
-0.05490849
0.08946544
0.03356621
-0.00518064
-0.08374762
-0.07082931
0.01643181
-0.01497365
-0.06903487
0.01296693
0.02236764
-0.25728136
0.08210845
-0.05589622
0.01933253
-0.03923848
-0.07297525
0.00524151
0.00021697
-0.02543174
-0.05115017
0.01347033
-0.03829997
-0.02757036
-0.12548207
-0.14671189
-0.00151848
-0.05489499
-0.00327310
-0.09038333
0.03672948
-0.00262758
-0.01095321
-0.15507068
0.01880883
-0.02642318
-0.02808123
0.00407512
0.00457915
0.03125646
-0.10423522
0.05672771
-0.02920800
-0.04488102
-0.03408212
-0.02737392
-0.11136345
0.05502507
-0.03979062
0.09856936
-0.10817963
0.00438042
0.02531788
-0.00708704
-0.04481589
0.00142053
-0.01239634
0.02701674
0.06635477
0.00572092
0.03951373
-0.02405525
0.00335373
-0.02447250
-0.00272573
0.02349564
0.01707804
0.01661688
-0.05188968
0.02427533
0.02614726
0.06536268
0.01463860
-0.05727350
-0.02328944
0.00829590
-0.06371763
0.00144438
0.01064072
-0.05283172
0.08627500
0.07292714
-0.05322625
-0.04698915
0.01813768
-0.01242553
-0.05902896
0.03374238
-0.05137102
0.02600725
0.00860752
-0.00034071
-0.00870700
0.05072862
-0.00033184
-0.03860959
0.02776385
0.12514989
-0.01156000
-0.06706764
0.08935657
0.10335574
-0.02988520
0.02623516
0.04980876
0.02746115
-0.08614220
-0.00137216
0.02412705
0.00833050
0.09149856
0.06513101
-0.04223305
-0.02972556
0.01691737
-0.08980513
0.06847318
0.04179258
0.03418652
-0.04005143
0.12546264
0.00720679
0.02103191
0.00319615
0.03885563
-0.01334026
-0.04419431
-0.04865158
0.11504233
-0.01729329
-0.06133933
0.03655213
0.02350129
0.00032087
0.01399744
-0.01504728
0.05056976
0.04999913
-0.00200208
0.06454001
0.15220100
0.02923272
-0.04047916
0.00415619
-0.02470639
0.02608045
0.05711889
0.00103981
-0.09200388
0.02610568
0.02220082
0.00665732
-0.01360829
0.00589522
0.05242267
0.03170906
-0.07439421
-0.06003073
0.00451668
0.02186656
0.03081095
-0.07483813
-0.11069052
-0.06460568
-0.04619904
0.05906703
-0.09497731
0.04245752
0.05717670
0.01056481
0.03745377
0.02943604
-0.23326558
-0.04375153
-0.06106225
-0.04167410
-0.06480027
-0.02863213
0.03070905
-0.02590328
0.05209281
0.03729476
-0.00208920
-0.04092735
0.15060261
-0.02361482
0.08075436
0.03713442
-0.05704758
-0.02400334
-0.01573680
0.02529136
0.04175051
-0.04814731
-0.03399101
-0.00718896
-0.02806626
-0.04606233
0.07086136
-0.00104147
0.05252465
0.01716767
0.01190533
0.10176501
-0.08709250
0.03546529
-0.04786273
0.00361464
-0.03848886
0.11273179
0.05486547
0.12135483
-0.00882704
-0.08447279
-0.06139914
0.03292632
-0.02718387
0.05099821
-0.00819754
-0.09409227
0.00857891
-0.10325941
0.00913591
-0.02418341
0.07973551
0.02099605
0.05379065
0.05865288
0.07704995
-0.04197565
-0.03297881
0.06756557
0.00297122
0.02892073
-0.05702594
0.01224395
-0.07626652
0.05998545
-0.04280429
0.00301917
-0.00071474
-0.08922122
0.03292015
0.04840872
0.05417145
-0.08954057
0.06256796
0.04818982
0.01839115
-0.03437397
0.10844398
0.03512382
0.00353649
0.06057068
0.02128487
0.01199625
-0.00256996
-0.19076540
0.02013670
0.05492058
0.02722417
0.08645204
-0.02372069
-0.04018844
0.04557713
-0.01293057
-0.06224529
0.04105299
-0.00907745
0.06251310
0.05951468
0.03490425
-0.02089155
0.03649216
-0.05706770
-0.01467670
0.00324442
0.04567917
0.07219525
-0.04193567
-0.03766914
-0.01602032
0.04840238
0.08671783
0.07187823
0.03859350
-0.04570115
0.09758089
-0.01011905
0.01806318
-0.00295667
0.08525842
0.00942129
0.00067018
-0.10081329
-0.03352129
-0.00164858
-0.05232788
-0.02829366
-0.05717800
0.02562794
0.03127468
0.01100913
0.07998516
-0.08553409
0.05381531
0.04421186
-0.07991787
0.05161634
0.09275685
0.01969660
-0.08550120
0.09425671
-0.00769389
-0.04921345
0.03738534
0.00056585
0.01865522
-0.09886201
0.04808338
0.00771587
0.00800635
-0.02075622
-0.11131322
0.03756114
0.04120803
0.08076201
-0.08121428
0.07073332
-0.03399552
0.02327850
0.00805662
-0.05458831
0.06285507
-0.17425118
-0.01732413
0.10558905
-0.04545402
0.01511713
0.07315440
-0.01779032
-0.05527952
-0.02662316
-0.04744758
-0.04003034
0.05233017
0.02277722
0.01756739
0.00284003
0.04720831
-0.07749901
-0.02341587
-0.01577886
0.02698537
0.04595714
-0.00530626
0.05376906
0.03422037
-0.02653812
0.04793470
-0.06571711
0.05502785
0.02946750
0.06989198
0.05215579
0.10019586
-0.04487342
-0.07615328
-0.05339006
0.00123428
-0.05507921
0.04004705
0.04972456
0.03038438
0.06183857
-0.06807861
0.06330591
0.02173005
-0.00852330
-0.05750406
-0.02082031
-0.00496646
-0.01812258
-0.00915733
-0.03203830
0.01525590
-0.00935797
-0.02997043
0.01738526
0.06297097
0.04620212
0.05473332
0.05667214
0.00564622
0.02890198
0.07877555
0.04736586
-0.05250895
0.01826888
-0.03452966
0.01534600
0.03132840
0.00637342
-0.01585685
0.01100894
0.01390850
-0.00801870
-0.09299336
0.16471621
-0.00220959
-0.03662330
-0.01191520
0.01358691
-0.01578061
0.01582649
-0.05729217
-0.04052006
0.06361458
-0.02538931
-0.01268282
0.12556934
-0.01615565
0.00315703
0.03806491
0.02062414
-0.08613054
-0.09322282
-0.06440523
-0.00728295
0.04615955
0.02408275
-0.03514453
-0.07714732
0.08964511
-0.07274112
-0.08925569
0.02597584
0.06813964
0.04514847
0.01959190
-0.05079749
0.05754154
-0.02069888
-0.05176943
-0.03632491
-0.09584437
-0.00084481
0.01449297
