-0.07729080
0.05994573
-0.25876126
-0.22190003
-0.05885873
-0.02672276
-0.25994489
0.23187362
-0.03868809
-0.05863096
0.03206007
0.29095235
-0.15912774
0.02087193
0.19845068
-0.02898666
-0.20303005
0.05262632
-0.08383938
0.07761508
-0.13910645
-0.21351403
0.16504313
0.07310998
0.19348831
-0.25179437
0.01634558
0.07267178
-0.18070196
-0.15315500
-0.15106128
-0.37829196
-0.21370387
0.00018585
-0.01194110
-0.12587337
-0.09049083
-0.04789213
-0.46098056
-0.05991864
-0.15371767
-0.01763779
0.04608363
-0.06753020
-0.21607779
-0.32098362
-0.29215032
-0.05227746
-0.04312378
-0.11086011
0.15042393
0.16384374
0.09828432
0.04959771
-0.14155073
-0.03961081
0.10431014
-0.28187698
-0.04536885
0.28405964
-0.11664653
-0.19206087
-0.18697615
-0.02103287
-0.21747100
0.15753166
-0.01203479
0.10724021
-0.03259536
0.07967165
-0.28319383
-0.01734054
0.13559218
0.07002039
-0.14996444
0.01173334
-0.09360854
0.06158702
0.02337982
-0.04641548
-0.15597050
0.02670569
-0.02355060
0.12788934
-0.10540371
-0.04218489
-0.23442815
-0.22904725
-0.03749922
-0.22102401
0.05671212
0.08728997
-0.20123312
0.01328484
-0.03929459
-0.02048827
0.15986444
0.03332414
0.07010476
0.18308038
0.01528951
-0.06234698
0.05582692
-0.21613386
0.19887516
-0.29104540
0.00284566
0.01930223
-0.14227115
0.01017339
0.05611161
-0.12846406
-0.04159460
-0.13194934
-0.08500910
0.06157758
-0.04720766
-0.13674189
-0.15933098
0.04081766
0.06637000
-0.14786521
0.13087249
-0.26692802
-0.31518418
0.11552241
-0.15903345
0.11424204
