0.11793093
-0.01114621
-0.04002565
-0.03876958
-0.04927372
0.08303140
-0.02024473
-0.02261977
-0.08371367
-0.01360062
-0.03133444
0.02172848
-0.11363417
-0.03785453
-0.00381817
0.13741142
-0.03839734
-0.04521202
-0.05349926
0.03765040
-0.00891114
-0.11271787
-0.18505035
0.09889226
-0.10628218
-0.03762126
0.00343128
0.01653100
0.19081837
0.03573488
-0.04910932
-0.01245059
-0.01540864
0.10494377
-0.00383052
-0.06345726
-0.00217150
-0.06594389
-0.08868115
-0.07919463
0.06544451
0.06117055
0.04795428
-0.02000387
0.16114236
-0.03783389
-0.20346604
0.03784793
0.07303537
0.00942668
-0.09209281
0.08753537
-0.07155689
-0.08723351
-0.07685459
-0.00465705
0.01200941
0.06994447
-0.00857137
-0.01590683
-0.01294101
-0.01423285
-0.09586927
-0.17126432
0.05636616
0.05853003
0.05703542
0.10742885
-0.03598457
0.08244847
0.08066767
-0.10017904
-0.04942577
0.09433223
0.02220922
0.05899686
-0.03555839
-0.04305160
0.14798303
0.24640812
0.08000292
-0.00777138
-0.00032183
-0.19899294
0.11260979
0.00129894
-0.09460039
0.11962164
-0.06627150
-0.05295995
0.11143006
0.11985334
0.01774688
0.00362319
0.10315711
-0.05522552
-0.04861745
-0.09150042
-0.11429222
-0.11916117
0.00901539
0.05332489
0.08274762
0.14154305
-0.02437339
-0.12058587
-0.07217897
0.04666673
-0.02015339
-0.07158886
0.01851888
0.12664275
-0.11162293
0.02235230
0.03103595
0.03005809
0.00768646
0.08565734
0.12007295
0.03653859
0.04605795
-0.01742963
-0.05256342
-0.12087364
0.18090442
-0.02492290
0.05315042
-0.06400628
