-0.76480108
0.08924312
-0.01933045
-0.34883425
0.51919562
-0.07728375
0.10937013
-0.45976821
-1.55539894
0.90502560
-0.00762450
-0.23787394
0.43028161
-0.34837118
0.35480130
-0.19126037
-0.27709424
-0.10263179
-0.70336825
0.62186819
0.18288280
-0.30525243
-0.19928306
1.61791313
1.52320302
0.02373308
0.11139125
0.59880209
0.73943168
-0.09559587
-0.43650463
-0.12988161
0.00711069
-0.17991424
0.15118779
-0.19944477
0.33274645
-0.38514936
-0.13557702
-0.20541161
0.53945369
-0.08694678
0.93022758
-0.97843111
0.73793715
0.06297635
0.10290217
0.73810917
0.33434695
0.14665899
-0.01738556
1.04415691
0.36621323
-0.13188007
-0.06452109
0.05297870
-0.17936230
-0.01659315
0.32944268
0.81537461
0.62132961
-0.64859629
-1.05282032
-0.45400888
-0.24789113
0.21087384
0.16322066
0.07658525
-0.16312459
0.40336370
-0.04342284
0.13023049
-0.18791032
-1.63285053
-0.64518505
0.14141718
0.08590773
-0.34650519
1.97336948
0.32127282
0.34322664
-0.62648034
-0.45998120
-0.02846713
0.96593201
-0.28633505
-0.27875939
0.78854030
0.20973052
-0.37218964
1.24997199
0.25284863
-0.02103523
0.15519555
0.54236066
1.01676440
0.35446793
-0.56996930
0.69414288
-0.29600602
0.32073578
0.22136064
0.26086494
-0.36101562
0.24692720
-0.59307730
-0.71190488
0.63585031
0.70251179
-0.33911932
-0.89263570
0.94990152
0.58450925
0.28078240
-0.13656154
0.14687857
0.44803044
-0.86655211
-0.14946346
0.33556655
-0.01147566
0.53239346
0.34012002
-0.61049592
-0.00791814
-2.04190087
-0.11329193
0.60057163
