0.01983343
0.07830825
0.08669028
-0.15662247
-0.07677978
-0.13298251
-0.15038848
-0.01387182
0.01489797
-0.13876700
-0.00945278
0.14954270
0.03323785
-0.26849431
0.00260219
-0.06561895
0.08560016
-0.12372315
-0.18538013
-0.00044456
0.02549840
-0.02039794
0.05063010
-0.10990843
0.14012951
0.01939864
-0.04696582
0.08347897
-0.04372107
-0.07488928
-0.11941071
-0.13158023
0.07116771
-0.10595483
-0.07557032
-0.20964426
-0.04662743
0.12309444
0.00247150
-0.18585426
0.17149560
0.04404895
-0.13473380
0.23511724
-0.00880335
0.04444094
0.10949679
0.03323656
-0.05765857
-0.02208249
0.31878442
0.03288585
0.01907916
0.11678003
0.02604178
-0.13822454
0.06897665
0.11401977
0.02693426
0.09831818
0.11878021
-0.06175529
-0.01854703
-0.03981747
-0.14906643
0.13688767
0.04672387
-0.06048661
0.00203445
0.01840661
-0.22250052
0.14727388
0.10191347
-0.10178178
-0.02281921
-0.13907674
0.02943646
0.06762073
0.21052265
0.07985568
0.06816190
-0.10536912
0.09615914
-0.04211684
0.05447067
-0.14276862
-0.10256439
-0.10781134
0.05191672
-0.08324990
0.03517212
0.07458610
-0.07478851
0.05537594
-0.08318292
-0.05426835
-0.01665394
0.08360535
0.10429372
0.02928383
-0.12192966
0.11304072
-0.01778281
0.04500037
0.05718740
-0.05498463
-0.09722444
0.15844248
0.01725685
-0.03588752
0.09768570
-0.05043935
0.08088057
0.00259092
0.02016359
0.05026610
-0.17913814
0.01215549
0.02471415
0.01440030
0.19129430
0.11808667
0.02423993
0.05919036
-0.09130951
0.03886084
0.07121220
-0.03321739
