-0.03597581
-0.00389536
0.05181352
0.02224747
-0.00493723
-0.00112035
0.02633897
0.00906389
0.03872293
-0.09655669
0.02331066
-0.02008608
0.06549015
-0.05168006
0.06615613
-0.01472101
-0.00453247
-0.00084059
0.01302666
-0.02977037
0.04369327
-0.01429164
0.04548907
0.00453458
0.00768589
-0.04092577
-0.01141153
0.06603721
0.06737622
0.04285879
-0.02697489
0.00003528
-0.08148284
-0.00375686
0.04057017
-0.05769404
-0.00832852
-0.02621782
-0.00479239
-0.00822489
-0.06467184
0.00195789
0.07201514
-0.02255173
0.00341103
-0.01425110
-0.00834878
0.00389568
-0.05511070
-0.04891575
-0.04050494
-0.03542318
0.00618056
0.00097887
0.00252344
0.00386910
-0.00724864
-0.00210824
0.00197434
-0.01589367
-0.01446984
0.00319998
0.02305641
-0.04687576
-0.03672176
-0.07389846
-0.00445869
0.00500232
0.00690431
0.00335887
0.02277463
-0.00311064
0.02476743
-0.04829312
-0.05063180
0.00375587
-0.00885314
0.01742093
-0.00526421
-0.07471887
-0.03004741
-0.05365284
0.00881730
0.06190470
-0.06888296
-0.02122451
-0.00863400
-0.00175477
-0.08585113
0.00593778
0.01196685
0.00208968
-0.04241311
0.00874671
0.04520345
-0.00760981
0.00018549
0.02861422
0.00207808
-0.00495083
-0.00881963
-0.00341976
0.00739858
-0.00171589
0.00385934
-0.00962552
-0.01308460
-0.01620748
-0.04168667
0.00976583
0.00898336
-0.00586096
-0.00149351
-0.05353681
0.00555828
-0.00010870
-0.08439283
-0.02053435
-0.08661980
0.03607801
0.00521200
-0.01466802
0.06600444
0.03517161
0.00402671
-0.00385121
0.04118765
-0.00953735
0.00842211
0.00415115
0.03003368
-0.00063468
-0.07119603
-0.07641622
0.01149690
0.06472594
0.00271808
0.06866565
-0.00404540
0.05681694
0.04065160
0.01685357
-0.03100508
-0.01306405
0.00284831
0.01649766
-0.03034680
0.00898525
-0.00777550
-0.01811336
-0.00228849
-0.00504418
0.04713051
-0.06001267
-0.00874611
0.05992463
0.02187914
0.06803086
0.06350639
-0.00426973
-0.01450364
0.04197384
0.00911939
0.00308241
0.02639214
0.00011135
-0.06194280
0.00525785
-0.03548422
0.01756576
0.00357163
-0.00458409
0.04837444
-0.07527992
-0.00467121
0.01697016
0.08279390
0.04944467
0.00440203
-0.02712627
-0.01070668
-0.02488233
-0.06983666
0.07477460
0.00609473
0.00180293
0.00664900
-0.01506758
-0.04710849
-0.04827872
0.02205100
0.01033910
-0.04720548
-0.00458173
-0.00902874
-0.00271956
0.00307299
0.03338348
0.00535100
-0.01099966
-0.00435535
0.06902514
0.02879451
0.03361924
-0.01470146
0.01405983
-0.04831988
-0.03188250
-0.00144799
0.00600812
0.00235932
0.08478697
0.01240584
0.00257895
-0.05056408
-0.08203165
-0.00094141
-0.05524137
-0.00767747
-0.02486087
0.00945709
0.00588408
-0.04715439
0.00357169
-0.04350697
-0.04667648
-0.00125987
-0.00807736
0.00243287
-0.00753542
0.01540340
-0.03624864
-0.02778453
0.02711889
0.06797979
0.03143007
-0.05258368
0.03748494
-0.00488156
0.03009345
-0.01145568
0.05642213
-0.01234511
0.00609826
-0.06226720
0.04360468
-0.03819691
0.05249935
0.00016630
-0.07596882
-0.06486470
0.01388407
-0.00131888
0.06765594
-0.00952266
0.03319744
-0.02353272
-0.07014503
-0.01043201
0.02827376
-0.08106212
-0.03194729
-0.00271264
-0.01333366
-0.00281352
-0.01070568
-0.06929874
0.03464365
-0.00291699
0.04591895
-0.00894448
-0.02688022
0.01263880
-0.06756070
-0.00074783
0.00614524
0.05069789
-0.00852376
-0.05863997
0.00171572
0.02563187
0.01061978
0.05490683
0.03924989
0.01362676
0.07066174
0.05143899
0.03489411
0.01070097
-0.01656557
0.10427780
0.03265128
-0.01148283
-0.06232801
-0.01281021
0.03533640
-0.01500244
-0.01125151
0.00013703
-0.05960117
-0.04194050
0.06448801
0.03579471
-0.01107306
0.04295984
0.06636327
-0.02134986
-0.02804835
-0.00783674
0.05932847
-0.01196770
0.01976221
0.00164355
-0.00019586
0.04545723
-0.03367274
0.02817532
0.03095075
-0.00845028
0.00435504
-0.01831130
-0.06086894
0.00767227
-0.00814892
-0.02418098
-0.06576344
-0.00312217
-0.02705909
0.00524790
0.00220236
0.00226946
-0.03777746
0.00002997
-0.05217939
0.00864200
0.01536726
-0.02689649
-0.02325188
0.01334599
-0.02841779
0.05215410
-0.06811776
0.06334952
-0.00296269
-0.03798095
0.02438973
-0.00245287
-0.05226245
0.00441958
0.00408187
-0.00052573
0.01575186
-0.00470643
-0.07406045
-0.01779257
-0.01846873
0.00476057
-0.00460877
0.07671576
-0.00015433
0.03281160
0.00918627
0.07852982
-0.07598157
-0.03367278
-0.04552577
-0.07119640
0.06653629
0.06613054
0.00349181
-0.04271534
-0.00073834
0.05988693
-0.00948028
-0.05124290
0.00428644
0.02631940
-0.00979405
0.05966432
-0.02417355
-0.01120449
-0.00723843
0.00492880
0.01653326
-0.02436864
0.00649328
-0.01364878
-0.00241824
-0.00627990
-0.01721000
-0.07243129
-0.00787397
0.01279229
0.02092020
-0.01232874
0.03897229
-0.00715809
-0.01228354
0.00199165
0.00740510
-0.01432081
-0.03539371
-0.02401464
-0.03241759
-0.07552128
0.03294808
0.00159013
-0.00285546
0.00278926
-0.00343117
0.00253453
-0.01675815
-0.04946234
0.00328657
0.01293073
-0.05217231
0.07392766
-0.00409850
0.00958642
0.03087218
0.05242733
-0.01443386
-0.00294153
-0.00420153
-0.06090283
0.00517167
-0.06303234
0.06912646
-0.03792917
0.00798664
0.00604350
-0.00854049
0.01029352
-0.00943307
0.02093794
-0.00824796
0.03089578
0.01789699
-0.02852708
-0.01503344
0.00350818
0.05924283
-0.00349876
-0.00125962
-0.06264795
-0.05541402
-0.01969726
-0.04562436
-0.07376928
0.03948765
0.02107719
0.00796211
0.00819029
-0.00609144
-0.01047602
-0.02510512
-0.00438282
-0.06432117
0.04994331
-0.01939005
0.01114690
-0.00447637
0.00625676
-0.06405597
0.07237445
0.01055648
0.00101562
0.00794763
-0.02906750
0.01587353
-0.02680997
0.02956594
-0.00549991
0.01351535
-0.01068142
-0.05063069
0.04081764
0.02082338
0.00399089
0.00785421
-0.04630014
0.00247483
0.06997830
0.04524457
-0.01683478
-0.01039613
0.01563719
-0.00564535
-0.07290049
0.05301981
0.01389397
-0.00001871
-0.00036843
0.00557726
0.04109805
-0.00080191
-0.00240927
-0.02591912
0.00125189
-0.00230392
-0.00862025
0.01212864
0.00010854
-0.00150875
-0.07461008
0.02251903
-0.03846581
0.01097430
0.06030226
-0.05161986
0.01333981
-0.00805589
0.00041242
0.01955152
-0.00792687
-0.00816025
0.00171113
0.00677278
0.06431025
-0.01345727
-0.07433461
-0.03447966
-0.00073911
-0.06207212
-0.02231072
-0.00171089
0.00599180
-0.00196640
-0.00712507
0.02282497
-0.00487200
-0.06500269
-0.00217747
-0.00184445
0.07326486
0.00052221
-0.01295358
-0.05325922
-0.03708435
-0.00383337
0.04327985
-0.06046178
0.07045460
-0.06535855
0.00108424
0.01053265
0.00615419
-0.03702002
0.00018747
-0.02119501
-0.00044640
0.00155284
0.01640960
-0.06103150
-0.00202540
-0.00614083
0.00586793
-0.00291458
-0.00198925
0.04353266
0.00155810
-0.01325797
-0.00344772
-0.00310635
0.00165576
0.01233024
-0.01365822
0.00001483
0.00234826
-0.00256521
-0.04686110
-0.00385264
0.00014891
0.00350261
0.02930377
-0.01251453
-0.01665120
-0.06550518
-0.00707285
0.05609616
0.01649165
-0.01010150
-0.05100060
0.04613393
0.05971406
0.02774933
-0.00390690
0.02809823
-0.04330745
0.00291247
-0.00115550
-0.00054332
0.01771562
0.03942621
-0.01164962
0.00541425
0.00076668
-0.01450088
-0.03278112
-0.00017109
-0.00454888
0.01323526
-0.03124246
-0.06502674
0.00447117
-0.00880020
-0.04727757
0.01558490
-0.00123117
-0.00797797
0.03032027
0.05861758
0.02953916
-0.01051205
0.01323315
-0.00914986
-0.01412273
0.00453895
-0.04502060
0.08764774
0.01587272
0.03466140
0.00292708
0.00085943
0.06333619
0.00364342
0.02710968
0.00397281
0.01693787
0.00778050
-0.05589183
0.01306859
-0.06515848
-0.00146327
-0.05505855
0.00728585
0.00538333
0.06228717
-0.00205524
0.05516869
0.04238585
-0.00644506
0.01979164
0.05188743
0.00107397
-0.06341442
-0.07844970
-0.08029794
0.00673084
-0.00404205
-0.00070452
0.01406456
0.00609935
0.00451032
0.01081220
-0.02052091
0.06032791
0.00545864
-0.06699655
0.07833500
-0.01553952
0.00554945
0.01243977
-0.07880811
-0.04011455
0.00033492
0.00129260
0.02931058
0.01734612
0.05126159
-0.00186657
-0.00838604
-0.01178697
0.02825225
-0.01759313
-0.08781736
0.00521704
0.04433393
-0.03309985
0.07379921
-0.04180081
-0.00463975
0.05772601
0.02228115
0.03262763
0.03761389
0.02290177
-0.00052283
0.02974161
0.05644716
0.04177207
0.07672757
0.04903452
0.02566766
0.02913819
0.00447998
0.01552313
-0.06551830
-0.00156461
0.00728775
0.03411094
-0.00090368
-0.00031689
-0.03587266
0.02468762
-0.00053862
0.01413183
-0.01177729
0.00705762
-0.01122930
-0.01025608
-0.03003510
-0.00306375
0.01306666
0.01086081
0.05856598
-0.00762177
-0.00518866
-0.00462876
0.00553548
0.07267941
-0.05868543
0.01847859
-0.00532383
0.06685508
-0.01415267
-0.01036656
0.01995294
-0.04099910
-0.00216697
-0.00449593
-0.03532587
0.03897992
-0.01123359
-0.00311985
-0.01588425
0.02061107
0.00244609
-0.00215089
0.05712206
0.05623106
-0.00634689
0.00383777
0.00764450
-0.00342557
-0.01869533
-0.00043274
0.02880626
-0.04992438
0.03127145
-0.04296951
0.02046070
-0.05623397
0.00002581
-0.00140199
-0.01796890
-0.01141833
0.00845723
0.00541024
0.02154929
-0.03103774
0.04686300
-0.01083404
0.05606153
0.01620780
0.01508024
-0.01907108
0.05002743
