0.10310339
-0.07749960
-0.44011632
0.36710599
-0.04488880
-0.01793841
-0.00052192
0.00694537
0.04599756
-0.05045832
-0.03837352
0.06540775
-0.08961193
0.37712362
0.02961877
0.06329241
0.04723006
0.16581583
0.14828235
-0.01690246
0.04466018
-0.04993082
0.18475175
-0.31787837
-0.22161165
-0.00185202
-0.05649281
-0.08874872
-0.04473300
0.08179127
0.06100026
0.01763931
-0.25322556
0.13618070
-0.06717454
-0.11020994
-0.11861085
0.08345459
-0.06302725
-0.04528788
-0.06205427
0.00406931
-0.21946335
0.16434148
-0.04670607
0.00105556
-0.04983067
-0.10193007
0.05055232
0.02105810
-0.03454847
-0.23542854
0.07205783
-0.09349386
-0.01450440
0.04027618
0.02435895
0.01577288
-0.10158887
-0.10773391
-0.04960728
0.18914445
0.14156894
-0.03961387
0.14099406
0.00051977
0.06640554
0.06683236
0.16538340
-0.02301792
-0.09964509
-0.07941833
0.02716139
0.50003970
0.04450450
-0.04185852
0.13061692
0.03362023
-0.19806865
-0.23522259
0.10543114
-0.05377131
-0.03208704
0.10200196
-0.09563251
0.05270813
0.07269385
-0.04233831
0.11682183
-0.06510398
-0.20722410
0.03778817
-0.11896265
-0.06578164
-0.02348635
-0.10557823
-0.09959935
0.11696757
-0.05752823
0.19262089
0.22438124
-0.04809787
0.05848751
-0.01592659
0.01563265
0.11924440
0.14276583
-0.13015354
-0.11331267
-0.12681478
-0.01905819
-0.01971412
-0.09459961
0.03884414
0.06175653
-0.04742969
0.18742730
0.11433068
0.02540602
-0.13926981
-0.07568751
-0.12523489
-0.01445202
-0.01729458
0.02889546
0.06009504
-0.04761093
0.07974634
