0.03826171
0.02568327
0.00533870
0.06881502
0.04430484
0.02517186
0.03548830
0.05863538
0.01296643
0.00178346
-0.03528048
0.05570426
0.00084961
0.00572367
0.00879259
-0.02025308
-0.02728651
-0.07461353
-0.04841824
0.00850058
-0.02513961
0.02278136
0.01262323
-0.04629384
-0.05077585
-0.02455597
0.01639976
0.01131247
-0.04340759
-0.05136915
0.02390868
0.07029439
0.03545643
0.05665161
0.00869816
0.05280210
-0.08540912
0.00128200
-0.04612791
-0.01174992
-0.00338090
-0.03193540
0.00723019
-0.01051512
-0.00119160
0.01100857
-0.03573792
-0.05860774
0.00662828
0.02494039
0.03488955
-0.02419522
-0.02718361
0.02102192
-0.00921938
-0.01453356
-0.06224623
0.05505931
0.02889830
0.04196113
0.04081931
0.01192790
0.06614672
0.03760662
-0.01509233
0.02234104
-0.02580907
-0.01694053
-0.01114120
-0.00871248
0.03328561
-0.04026709
0.02963370
-0.06257095
0.07667113
-0.01706205
-0.00331422
0.03145125
0.06253708
0.03654090
-0.04384371
0.04381499
-0.07477316
-0.01251388
-0.00157906
0.00561899
-0.01794347
-0.07802609
-0.04473839
0.00513557
-0.01204285
0.04306361
0.02365277
-0.03632800
0.02283861
0.01444986
0.07107987
-0.04115307
0.04330773
-0.03819546
-0.02546411
0.04610562
-0.02275947
0.02259640
0.04532265
0.02374250
0.02144428
-0.01447402
-0.02342154
0.00108647
-0.00596487
-0.02371095
0.03106805
0.05334384
0.02358299
0.03649347
-0.00632493
0.02925524
0.01426842
-0.01130724
0.00727660
0.03478013
0.02947694
0.01320532
0.08783950
-0.03647148
0.01396010
0.02156449
