-0.03350845
0.04355592
-0.14800982
-0.17623372
-0.41575268
0.01446163
0.08494695
-0.07210801
0.01576826
-0.09959710
0.12987749
-0.12072656
-0.44958532
0.08694644
-0.10734120
0.22939861
0.38837081
0.12950088
0.21982795
0.08911981
0.23417984
0.11290109
-0.10173464
0.23958656
0.24213222
-0.08642103
0.11231785
0.06472749
0.12757421
-0.38865766
-0.01129378
-0.43384856
0.00509615
0.11304171
-0.07695692
-0.31402245
-0.13385341
-0.16396472
0.06919736
-0.00379447
-0.01347553
0.13035032
0.10323535
0.30445305
-0.40094531
-0.43493214
0.08866547
-0.01716853
0.22305267
-0.21176270
0.00215664
0.31087455
0.24291460
-0.02972520
-0.13857639
0.16169497
0.10562406
-0.13323933
-0.18212193
-0.14157352
0.04693429
0.26599494
-0.32423002
-0.43663159
-0.10978115
-0.36609721
-0.19183587
-0.28099912
0.35341182
-0.00309801
0.07392373
0.13804407
0.00612037
-0.20823358
-0.03434429
0.05973719
-0.22555527
-0.07488172
-0.14895077
-0.08053318
-0.48289049
0.20884012
0.04091607
0.00293326
-0.31766132
-0.24528569
-0.48294151
0.04288509
-0.05704362
-0.11109038
-0.41518593
-0.16902275
0.49761170
-0.34912604
0.06888738
-0.03037204
0.46564162
-0.09262118
-0.07479654
-0.08567882
-0.28210464
0.27993393
0.01541230
-0.47600901
-0.22604953
0.33103883
0.15241188
-0.01296096
0.49829453
0.02329705
0.25440317
-0.13003464
-0.33805320
-0.18308175
0.31569079
-0.08903567
0.00886833
-0.43149921
-0.17584755
-0.32390964
-0.15626632
-0.16495167
-0.13095857
0.60053957
-0.28351584
0.31600237
-0.24660839
0.00794882
