-0.05542892
0.01371277
-0.04956054
0.11082348
0.06067842
0.04326156
-0.02850045
0.08687958
-0.01397539
0.07111253
-0.07071899
-0.06776171
-0.02848339
-0.03980651
-0.02998002
0.10170587
0.10712022
0.05390687
0.08051157
0.02807956
0.06884961
-0.08959022
0.02349461
-0.00587867
0.08320382
-0.09004930
0.03452193
0.01938287
0.05106658
-0.06671449
-0.06011862
-0.02847484
-0.08371945
0.01627060
-0.02525199
0.01946798
0.00088250
-0.01695187
-0.07662305
0.07476260
0.08584689
-0.06918398
-0.14171888
0.03270851
0.06189851
-0.04012475
-0.12683856
-0.19818717
0.06915169
0.06119968
0.07493321
-0.08730022
0.05330011
0.02769099
0.13514636
0.04097978
-0.04131981
0.03622744
-0.06932244
-0.02795387
-0.07343600
0.05292951
0.01684318
-0.10882028
-0.04835591
0.07391923
-0.08308737
0.06418958
0.00582413
-0.01200105
-0.19331016
0.06052743
0.03482981
0.06618849
-0.02907018
0.02757016
0.04909512
0.05483617
0.01437101
0.03702482
-0.03385996
0.04523969
-0.01547636
-0.13615341
-0.12169573
-0.10673846
-0.06248616
-0.00620236
0.00595415
0.02221150
0.02461752
-0.07940334
-0.05717368
-0.02857772
-0.04321432
-0.02460959
-0.03898251
-0.08375800
0.03173778
0.11259114
-0.01646281
0.02551057
0.01153711
-0.08505827
0.00621892
0.03982088
0.07849544
0.07914991
0.00455156
0.07662672
-0.01059668
0.01193885
0.04732075
0.00222055
0.00551989
0.05937764
-0.06563699
0.06883110
-0.07320845
-0.06317784
0.06589539
-0.02726902
0.01606596
0.10988697
0.13321395
-0.08333148
-0.01270320
-0.00693105
