0.51382512
-0.40903354
-0.50530207
0.00268139
0.29875818
0.47697964
-0.90001231
-0.70945567
-0.69244415
0.15595007
0.38623187
0.00089070
0.20449659
0.15813097
-0.47431007
0.10199998
0.06071619
0.57154405
0.08904360
0.21088351
0.11804184
-0.32836443
0.26238969
-0.20532632
-0.14138059
-0.54623061
0.43219596
-0.99407405
0.30782637
-0.07607292
0.19711173
0.15008932
0.76492500
-0.52794510
-0.22922710
-0.36224541
0.17095341
0.31442651
-0.10801186
-0.22617738
-0.14206815
-0.03344822
0.10472382
0.61987793
1.00160122
0.81752771
-0.17144230
-0.38362134
0.51353335
-0.20500052
-0.74325186
-0.17265278
0.44047490
-0.44324762
0.50455177
0.04772343
0.06910588
0.07137991
-0.27508315
-0.61998188
-0.46194923
0.35293680
0.33960530
-0.22380252
-0.26875344
0.97509724
0.21403201
0.08039337
-0.31255341
0.23264921
-0.30801016
-0.58720475
-1.08134353
0.01236107
0.65272582
0.61125696
-0.57908142
0.91275638
0.10744250
0.28508356
0.41875324
0.20345144
-0.27728626
-0.73900801
-0.13706490
-0.01344539
-0.11538301
0.20598176
-0.38024506
-0.03143685
-0.44061813
0.55153847
-0.54108346
-1.10849869
0.56592792
-0.10146335
-0.73529547
0.04321872
-0.17798652
-0.38731453
0.84287637
0.58678567
0.74450034
-0.37218809
0.01214231
-0.46481812
-0.45204106
-1.07897353
0.00632805
0.10993275
-0.22203624
0.40939099
-0.12866740
0.09077218
-0.03310677
-0.41861475
0.54634976
0.76240748
0.59444571
-0.38503560
0.18951520
0.31332061
0.02753616
-0.24609916
1.24677861
-0.14462039
0.59596652
0.12283729
