-0.06403957
0.00273071
-0.04954311
-0.25620398
0.19603756
-0.21569601
0.11415809
0.02932877
-0.24559665
-0.36473608
0.57003134
0.11704127
-0.17379147
-0.05413852
0.64792889
-0.10514771
-0.05663043
-0.09661257
-0.45744643
-0.03346277
0.41798127
0.46988970
0.64292783
0.21478680
0.66720629
-0.21218126
0.07695123
0.44480124
0.05657110
-0.26833841
-0.06838875
-0.29903829
-0.21627793
0.17917156
0.36369744
-0.03244213
-0.17076722
0.39384854
-1.03229725
-0.24516821
-0.09715635
0.06784984
0.04487281
-0.39707488
0.41210458
-1.16152477
0.08359074
0.06836187
0.32869047
0.06369081
0.33918971
0.47040662
0.34239131
0.24891652
-0.28613284
-0.07211618
0.09310639
-0.02343172
0.28903270
0.66761142
0.33106762
-0.09495837
0.02398685
-0.34159321
-0.03684410
0.32459816
-0.45818928
-0.02656719
-0.25984603
-0.30833426
-0.36958995
-0.06839398
0.16961920
0.38349208
-0.40831205
-0.07233471
0.31946293
0.14722648
0.50883919
0.25262079
0.14528346
-0.04394137
0.09936093
0.05482676
0.13494578
0.01463605
-0.28288513
-0.10641468
0.48973632
-0.37911692
0.65102941
-0.23882772
-0.56232566
0.82713687
-0.14816457
0.59949976
0.26633894
0.21452415
0.15366389
0.44030756
0.09609947
0.01261197
-0.07209245
-0.62418407
0.22211795
-0.60819507
-0.28477505
0.38475412
0.03148682
-0.02498806
-0.05495593
0.22495560
0.97914732
-0.38078371
-0.16388886
0.04616918
-0.18901652
0.16061914
-0.26767725
0.02440195
0.33759508
0.98477596
0.80964965
-0.20224902
-0.48467892
-0.22253609
-0.56648630
0.79358780
