-0.02514724
0.09868994
-0.02781100
0.03749462
0.01086514
0.02066415
-0.06098497
0.10829572
-0.02262479
0.10681069
0.04245485
-0.00121414
0.02113474
-0.02746109
-0.06150615
0.01559244
0.14410499
-0.05487548
-0.01950711
-0.00930031
0.00280289
-0.05430993
-0.04356492
-0.05938795
-0.05700774
0.04892813
-0.08357216
0.06571639
-0.08648902
-0.03883592
-0.00642950
-0.01423694
-0.01422940
0.02192861
-0.06059226
0.03459230
0.01511932
-0.02097610
0.02030472
-0.04799450
-0.03172222
-0.00065201
-0.01706230
0.01800722
-0.02163146
-0.02911461
0.03538823
0.12117665
0.00988156
-0.04174473
-0.05755843
-0.04763249
0.05355550
0.02127076
0.00683830
0.01835720
-0.00521462
-0.07095341
0.02667500
0.00778831
0.01881786
0.05555081
-0.10117403
-0.04107546
0.00068018
0.09698921
-0.11979584
-0.03472533
-0.00518310
0.06793159
-0.08366923
0.05147864
-0.03097282
-0.02892655
0.04763293
-0.04155710
0.06528822
0.07452893
-0.04460788
0.11400378
0.03979388
-0.02316118
0.05895947
0.02419567
0.01523481
-0.10718360
-0.07247310
0.01537256
0.00753670
0.05160052
-0.04229462
-0.08256086
-0.03079887
-0.05188141
0.09020173
-0.06745645
0.23595470
0.04775643
0.05425255
-0.04790984
0.01528883
0.07031236
-0.02123670
0.02847972
0.12138799
0.13898277
0.01502793
0.01997698
-0.03262141
-0.11958055
-0.00591993
-0.03846777
-0.00075435
0.03381912
-0.06490707
0.01211079
0.01034748
0.02283239
-0.02889947
-0.01553938
-0.03526024
0.19693105
-0.08234626
-0.01714353
0.06528390
-0.08843608
-0.02416312
-0.00005674
-0.01601765
0.05905631
-0.03724103
-0.08128569
0.15091006
-0.03438313
0.03212557
0.00291629
0.01678960
-0.00335079
0.03380559
0.14641590
0.04858678
0.03718716
0.08216684
0.03381724
-0.02754535
-0.07088792
0.09487282
0.05392509
-0.08432536
0.09069175
-0.03340373
0.04055414
-0.08827097
0.05152065
-0.03683816
-0.09428964
0.04605430
-0.05942603
0.02954622
-0.01704765
0.06484374
-0.04327431
-0.01290402
0.07049573
0.02126496
0.09485845
0.04399947
-0.06711914
0.14298804
0.04834936
0.06891326
0.08708070
-0.02295810
0.01055054
0.04007250
-0.01496373
0.01830323
-0.05360352
-0.06611042
-0.03586675
0.03572881
-0.00842321
-0.05211653
-0.01841850
-0.00713583
0.03968285
-0.05436870
0.07521758
0.00251627
-0.02568123
-0.04398658
0.00562748
-0.01195935
-0.03443192
0.03922977
0.03551933
0.00233775
0.08819933
-0.02086703
-0.03375108
-0.00628494
0.03370116
-0.01302588
-0.02253705
0.05317356
-0.01665245
0.02860609
-0.07856309
0.00941535
0.09412897
0.07917086
-0.01369116
-0.00073754
-0.01795498
0.06476089
0.05626062
-0.11374462
0.02720739
0.03710397
-0.06645005
0.04013620
0.00240909
-0.03467511
-0.00700801
0.13232364
0.00920054
0.04002580
0.09427762
-0.01373931
-0.03634691
0.00232113
-0.01159056
0.05596961
0.04792364
-0.02139169
0.00321993
-0.01346089
0.08126709
-0.11773147
0.04103538
0.03692717
-0.07167937
-0.04493870
-0.07908083
-0.06673138
-0.16357426
-0.11020979
-0.00508044
0.00858335
-0.06925008
0.03190435
0.03906688
-0.07608941
0.08381240
0.02995218
-0.05305229
-0.11078386
0.05628976
-0.00385590
0.06143344
-0.00230494
-0.05420508
0.09962492
0.07150372
0.03692694
-0.00636352
0.01612007
0.01395586
0.10300676
0.04521192
0.05858818
-0.05837068
-0.02442954
0.11803492
0.02291693
-0.02316674
-0.12757821
0.05839648
0.05400652
0.04356142
0.01008071
-0.02611770
0.00272644
-0.21311949
-0.00109940
0.01623905
-0.01234424
0.03249915
0.00466995
0.08307750
-0.04406561
0.08175063
-0.03179821
-0.03049825
0.05831812
-0.05122005
0.02332308
0.02808163
0.04556287
-0.00317315
-0.00462679
0.04682938
0.05271354
0.03960240
-0.02054120
0.02280343
-0.10377228
0.04516201
-0.30561399
0.00487890
-0.05171756
0.08553543
-0.01566186
0.09377538
-0.05876233
0.10317528
0.02375306
-0.01707946
-0.07492469
0.09195348
-0.00093307
-0.02647323
0.01684664
-0.08001719
0.05295263
-0.05335568
-0.04115243
0.00551623
-0.01652570
0.04613570
0.08638530
-0.28868940
-0.03525387
0.03176390
-0.03992055
-0.04605349
-0.04520180
-0.04863111
0.01396395
0.00952135
-0.02643806
-0.09587784
-0.05511837
0.08333186
-0.02536122
0.26541826
-0.02741046
-0.02428357
0.19299069
0.05694492
-0.04791581
-0.00304153
-0.05162720
-0.09355104
0.04388672
0.03644437
-0.00676644
0.01339538
-0.01080070
-0.00640824
0.04012712
-0.00832713
0.00244735
0.01666579
0.04729835
0.00292028
-0.11908522
-0.00279442
0.04687238
-0.10991952
-0.05244620
0.06688401
-0.00780746
0.06401075
0.02814271
-0.02002668
-0.04299026
-0.06227916
-0.00960211
0.02913000
0.01410593
-0.01846407
-0.03735101
-0.03272094
0.08058549
0.04198563
-0.00970288
0.01881149
-0.06072996
-0.02069627
-0.00137834
-0.04158666
0.05292845
-0.09377987
0.06686615
-0.00190998
-0.03763385
-0.09781747
0.06701191
0.03546868
-0.04298844
0.09098002
-0.06418845
-0.05426178
-0.06360023
-0.07307872
0.01007486
-0.06432789
-0.06523830
-0.00558212
-0.02744914
0.05248990
-0.01454282
0.06550562
-0.01496823
-0.00293249
-0.02559295
0.03015106
0.05162119
-0.00022707
0.05225907
-0.14086020
0.01926083
0.09498899
0.02857292
0.04412905
-0.05128156
0.04628289
-0.02968044
0.05524797
0.01254168
0.01580605
-0.03779697
-0.07420462
-0.10528698
-0.00701917
-0.09073429
-0.07681315
-0.02571188
-0.04538607
-0.11575237
0.02297517
0.09299088
-0.00390142
0.07396632
0.04915493
0.06183148
0.07683760
0.01410113
-0.11898534
-0.05850845
-0.03059181
0.04610592
-0.00771666
-0.02241218
0.08263152
-0.02536532
0.05513528
-0.09636718
-0.02345042
-0.03360453
-0.15639003
-0.04500350
-0.01678563
-0.00800037
0.03395774
-0.02227717
-0.11791561
-0.12032444
0.06904078
-0.04221471
-0.04324408
-0.01283649
-0.00952574
-0.06322551
-0.05826557
-0.03209683
-0.05347034
-0.02958248
0.02656800
0.06188948
-0.02105423
-0.10265095
-0.07432629
-0.07705665
-0.03034194
0.06962250
-0.05003576
-0.06907653
0.03259121
-0.02772918
0.02814004
0.00608403
0.09539811
-0.05307518
-0.08067806
-0.06261662
-0.03428496
0.04506242
0.01254280
-0.02705155
-0.00329405
-0.01350830
-0.01101657
0.04384595
-0.02385747
-0.01964265
-0.02214105
-0.15227157
0.03162204
-0.00502912
-0.03044362
0.03018252
0.00067382
-0.03935942
0.05578328
-0.12768520
0.09304030
-0.02218551
-0.01848875
0.08293910
0.01580189
0.00365511
0.11720332
-0.05166757
0.01372485
-0.06213772
-0.04252080
-0.02752111
0.05661882
-0.03203511
-0.02953770
0.02856223
-0.02944480
-0.02897154
-0.00198131
0.00286276
0.03490557
-0.06282770
-0.04499997
-0.08088779
0.10305483
-0.01786907
0.03371724
-0.06362103
-0.04146179
0.03800806
-0.01545602
-0.00051488
0.04267319
-0.02067265
-0.05060679
-0.01387314
-0.01395659
-0.00386255
-0.00409498
-0.06228249
-0.01604659
-0.03473308
-0.00705773
0.01208795
0.05351410
-0.00758026
-0.00408786
-0.01662256
-0.00588647
0.02573232
0.02205994
-0.01223391
0.07249090
0.07449336
0.06448253
0.00896442
-0.05813363
0.00228337
-0.01221217
0.01042216
-0.14355744
0.01553843
0.04691768
-0.16751073
0.03830930
0.09684557
-0.07049455
-0.02797252
-0.05469112
0.03549121
0.03447529
-0.00225113
0.07528640
-0.03378015
-0.00740343
0.01120840
0.05522870
0.00688136
-0.06828949
-0.02926492
0.00895483
0.01281524
-0.06319596
0.01645796
0.04438368
-0.02827955
0.04251727
0.04433318
-0.01976231
-0.03424094
0.12632179
-0.00245381
-0.01865529
-0.02497267
-0.00900701
0.03564089
-0.07050662
-0.15380749
0.04857927
-0.06317067
0.03719401
-0.02280106
-0.02194158
0.09089147
0.10308906
-0.04110231
0.00930435
-0.03911740
0.15138970
0.08475565
0.00669013
0.01920367
0.03072823
0.11306745
-0.06562337
0.00481206
0.05446822
-0.05856640
-0.00017647
-0.05208123
0.05873825
-0.02220977
0.05403136
-0.05264161
-0.02423316
0.02889770
-0.11112215
0.00078026
0.04791411
-0.03622686
-0.00133793
-0.03282211
0.04657479
0.08674121
0.02882603
0.01417413
0.11098866
-0.09816173
-0.10253289
0.01421171
-0.01480136
-0.00761524
-0.07327757
-0.00470794
0.01287412
-0.05429257
0.01974587
-0.00266561
-0.01168407
0.03766882
0.02602262
-0.05095331
-0.06873886
-0.15131801
0.01529513
0.05886233
-0.08595481
-0.01061367
-0.14771429
0.00758264
0.01374064
0.03215341
-0.05540051
-0.02737831
-0.02112936
-0.00962634
0.02167889
0.00603870
0.02384226
0.01677336
0.02132021
-0.03493478
0.01865124
0.03992124
-0.04095368
0.03653616
0.07017089
0.05962543
0.01221990
-0.05511388
-0.03601392
-0.10953197
-0.09566090
0.01108373
-0.06483667
-0.03421785
0.09782897
0.01778945
-0.05826828
-0.02159517
-0.15098260
0.04890179
0.02786658
0.10965836
0.04973044
-0.06504703
0.04318867
-0.11696567
0.06182765
0.01699655
-0.01584268
0.00466820
0.00648805
-0.02714293
0.00758718
-0.04541259
-0.06978534
0.04358978
-0.00596725
0.02069904
-0.06703971
0.07328715
-0.00001595
-0.03980717
0.07308561
0.03585448
0.04010314
0.13382772
0.00312071
-0.00973357
-0.01077256
0.02078019
-0.02446333
0.08552526
-0.02247411
0.03554476
0.02379861
-0.06950033
0.03930724
0.01529861
-0.11997945
0.03937266
-0.02787358
0.05033977
-0.01636815
-0.02225016
0.05268075
-0.09159584
0.13720232
-0.10518527
-0.05711235
0.12732980
-0.07136714
-0.01966720
0.09182382
0.05341423
0.00164199
-0.00877186
0.00418157
0.00936558
-0.02631466
