-0.08338763
-0.18595321
-0.03361713
0.02977564
0.09638111
-0.28643179
-0.00353946
0.01047026
0.24094366
-0.40902862
-0.21802697
0.15535650
-0.30985826
0.07527450
0.19301414
-0.09447702
0.17238113
-0.18706632
-0.07811943
-0.50689507
-0.13242047
-0.09046894
-0.14632708
-0.16407402
-0.09637674
-0.35353887
-0.20013513
-0.23822156
-0.15720437
-0.14219084
-0.07498627
0.22269037
-0.60815752
-0.13122056
-0.24560829
-0.07624456
-0.16895713
-0.35527661
-0.15505895
0.23431626
0.06080938
-0.01343139
0.02254948
-0.31356680
-0.43884307
-0.18691760
-0.23811832
-0.11603831
-0.25812387
0.13693540
-0.07392213
0.05811571
0.06834184
-0.10651156
-0.08229693
0.07507155
-0.08076261
-0.80489135
-0.30441967
-0.09176850
-0.14102916
0.03653271
-0.12604965
-0.84702325
-0.18112259
0.02600358
-0.23410837
-0.23599258
-0.00139330
-0.55471510
0.20050666
-0.26846352
0.05027841
-0.03818801
0.18519899
0.17077139
-0.08069656
-0.32903752
-0.05552073
-0.06898879
-0.35705554
0.07639670
-0.07036410
-0.06379804
0.17887668
-0.15082873
0.10760361
0.00422924
-0.09397346
-0.22651827
-0.27210060
-0.00695992
-0.28874883
0.07308161
-0.08361833
-0.02054760
-0.00970783
-0.40782180
0.27907449
-0.14228629
-0.09543043
-0.34164783
0.17062125
-0.16149582
-0.34962255
0.17038168
-0.00982599
-0.08850464
-0.23444547
0.04272128
-0.61527121
-0.01642247
-0.23405834
0.06232657
-0.04270731
-0.65442735
0.07108320
-0.12179703
-0.30739534
0.05892861
-0.17202829
-0.02378452
-0.05551903
0.22659262
-0.36009961
-0.18436681
-0.14507876
0.37098277
-0.10784245
-0.45134735
0.16014133
-0.05664809
-0.05650144
0.14426596
-0.09361506
0.06838064
-0.23402496
-0.12235335
-0.04026263
-0.22747277
-0.06269830
-1.07584643
0.18263321
-0.21259500
0.14169404
0.24321200
0.14906979
-0.03991536
0.08588697
-0.11279566
-0.07755961
-0.27851382
0.25702918
-0.03200829
0.00364920
-0.15589660
-0.09115093
-0.09259841
-0.03865136
0.02777708
0.00548300
-0.25052589
-0.04452818
0.12050559
-0.24461339
-0.49192101
-0.10769730
-0.12007214
-0.57681042
-0.08671582
0.08002911
-0.02320888
0.30363217
0.17670478
-0.08659482
0.06615481
0.06896628
0.13949099
-0.45667121
-0.06906150
-0.00725628
0.33074170
0.10770749
0.17698193
-0.06350510
0.02171334
-0.00636661
-0.24428231
0.04652694
0.10930842
-0.15506813
0.10243222
-0.08140413
-0.16109346
-0.33340985
0.04238177
-0.23497984
-0.21612434
-0.06631501
0.03116627
-0.09234622
-0.29774761
-0.04969196
-0.50187284
0.21790011
-0.31897464
0.02589894
-0.06423724
-0.18204817
0.02525503
-0.01510098
-0.52625638
-0.09312743
-0.03761435
-0.03256592
-0.13267167
-0.01367760
-0.12665427
-0.13221903
0.18003109
-0.49914315
0.01844065
-0.03712827
0.02426406
0.02840717
-0.21663401
-0.34043592
-0.09503676
-0.18817355
-0.08239310
0.15112251
-0.17470919
-0.16687934
-0.20066606
-0.03316877
0.05222388
-0.10511966
-0.03102757
-0.22590320
-0.43339393
-0.29632926
-0.29875129
-0.28009036
-0.00149154
-0.59980565
-0.23480058
-0.16871862
0.09570929
-0.07445516
-0.25053951
-0.18235920
-0.07466516
0.12221433
-0.05652992
-0.62306017
-0.46408045
-0.64905733
-0.29689220
-0.01609453
-0.04436317
-0.15563761
0.12711051
-0.02265854
0.07771508
0.03078530
0.21213581
-0.04720381
-0.78050256
-0.30759549
-0.00950607
-0.23505165
-0.02805231
-0.10488634
-0.04251970
0.02199884
-0.01132609
-0.03621454
-0.12978314
-0.46818817
-0.11045628
-0.26889408
-0.02508705
-0.17602865
-0.04004639
-0.84479362
-0.20398121
-0.10538790
0.18546911
-0.05196079
-0.12225461
0.04407201
-0.17231810
0.03343346
-0.39766270
0.00871865
-0.33328605
-0.51803702
0.02385896
0.00774926
-0.17845005
0.07074650
-0.33920515
-0.07654932
-0.56922162
-0.19506067
-0.00847669
0.11343900
-0.23930305
-0.08153610
0.04410348
0.06034210
-0.18434714
-0.25613594
-0.39944243
-0.05302575
-0.33295473
-0.05343721
-0.07722876
0.07585646
-0.15711164
-0.22913660
-0.26175404
-0.32196096
-0.17025517
-0.02510102
0.05133377
-0.08899218
-0.07964203
-0.50087804
-0.43786579
-0.39323556
-0.14198974
0.13242429
-0.11479680
-0.04585337
-0.06745636
0.05320331
-0.60575086
-0.28994641
-0.05606652
0.14434141
-0.36332977
-0.31201354
0.01054001
0.01454548
-0.16140887
0.10782732
-0.11049193
-0.15285687
-0.27036223
-0.40550804
0.12093253
-0.05482810
0.06705844
-0.87615013
-0.17153524
-0.13595298
-0.65654719
-0.68758881
-0.40569064
0.00134232
-0.20860133
-0.12469425
-0.01420061
0.12612301
-0.14456546
-0.71704954
-0.04071297
0.12684919
-0.01888244
-0.10159374
-0.12634037
0.12424020
-0.08172159
-0.53240371
0.08043773
-0.13125175
-0.23994373
0.00111482
0.02454686
0.15874676
-0.18801703
-0.62252688
0.23185414
-0.27278906
-0.09545717
0.14760883
-0.26712626
-0.05590374
-0.03087087
0.13974191
0.03433511
-0.04093196
0.00319575
-0.41681457
0.11572165
0.00772718
0.03540158
-0.00005429
-0.12683976
-0.17972468
-0.14337568
-0.59489709
0.02073223
-0.04336618
-0.45659161
-0.27554086
-0.20143372
-0.21491085
-0.08478071
-0.37221128
-0.08184472
-0.06235470
-0.02355599
0.11049172
-0.00179734
-0.49219406
-0.07992307
-0.62118822
0.00707567
-0.02920270
0.00421475
-0.16150038
0.07504356
-1.02379715
0.04197105
-0.08338641
-0.01970611
-0.54708511
-0.07412168
0.04070246
-0.07570450
-0.08010612
-0.22178321
-0.01668098
-0.08307552
0.01916738
-0.35543665
0.08180025
-0.05615052
-0.16102935
-0.40400010
0.17379932
-0.23419809
0.01206827
-0.18524267
-0.02550657
0.09209947
-0.49730188
0.11674564
-0.19736995
-0.06812521
-0.19747460
-0.23184744
-0.08226492
-0.45646417
-0.96425498
0.17403169
-0.02447171
-0.19813830
-0.10485334
0.09158897
-0.30603743
0.00358733
-0.12624618
-0.23574427
0.00015763
-0.17620414
-0.45216537
0.03962370
-0.13742150
-0.00245785
-0.31676605
-0.08546372
-0.20422880
-0.69836980
-0.49794927
-0.19708946
-0.59864634
-0.42774442
-0.13944896
0.10091650
-0.06117465
0.00086750
-0.15008506
0.09345973
0.02907444
-0.11338034
-0.14609987
-0.07948142
-0.38155821
0.24087673
0.03559496
-0.21978976
0.04663311
-0.30301633
-0.30149060
-0.13539316
-0.03764611
-0.27020767
0.14354585
0.20166428
-0.12383489
-1.12335467
-0.00577388
-0.07291514
-0.28104571
0.16273990
0.04380767
-0.03217846
-0.25443578
0.08096679
