0.06328354,0.03696369,-0.00058558,0.18518464,-0.05633822,-0.05867441,0.00459940,0.00877642,0.08477552,-0.21911567,0.11676583,0.02566033,0.24389417,-0.06596608,-0.10214862,0.10088118,0.12851168,-0.01646232,0.05284727,-0.10222104,-0.00889965,0.18037608,-0.01143238,0.04042924,-0.09453932,-0.05974085,0.07268357,-0.00601617,0.02687187,-0.00710959,0.11819337,0.13971527,0.02142084,0.01845078,-0.00808700,0.03025553,0.01218836,0.04454914,0.09949910,0.07384209,-0.09263240,0.20635566,-0.08198568,-0.05205468,-0.04564827,0.04651940,-0.02360935,-0.06242799,-0.00841429,0.05528264,0.03520099,-0.14590704,-0.03214167,0.01549480,-0.09707595,0.28614914,-0.19287254,-0.05435700,0.06503636,-0.01454146,-0.16889471,-0.03671876,0.02181967,0.08285642,0.00179944,0.02859404,-0.15626183,-0.05763417,0.05795889,0.10472289,-0.00732994,-0.00376143,-0.02725309,-0.06566814,0.08780551,-0.01178042,-0.15116292,0.01445643,-0.14917766,-0.13091435,-0.10690385,-0.05028622,-0.00230879,-0.02568280,0.04565866,0.02029956,0.11033181,0.04481953,-0.26234031,0.10765938,0.00163168,0.01501724,0.06034612,-0.15240487,-0.03372049,-0.02193000,-0.00558476,-0.14261910,0.03419594,0.04627168,-0.11953335,0.08352374,-0.02072814,0.11565655,-0.01014102,0.16354796,0.14214888,0.05715397,-0.07069077,0.22689790,-0.04806067,0.02412820,-0.01732512,0.03778120,0.12446128,-0.18612011,0.05062038,0.01373180,0.10628484,0.01841382,-0.08714657,0.06986999,-0.16631521,0.19760357,0.03477609,0.18063502,0.23377277,-0.03604421
-0.03934997,-0.00206329,0.00035442,0.01270278,0.01634863,-0.01289236,0.00473710,0.00523674,0.02044610,-0.01407942,-0.00487671,-0.00096817,-0.01648720,0.00156346,-0.00370714,-0.00967094,0.00961827,0.00178309,-0.00747039,-0.01531181,0.01529802,0.02665366,-0.00398657,-0.00188694,-0.01364307,-0.00006327,0.02359270,0.01350352,-0.00651218,-0.00350178,0.00539844,0.01381553,-0.00726706,-0.02211605,-0.00653247,-0.00132097,-0.00417731,-0.00012276,0.01770280,0.02171711,0.00754312,-0.00881810,0.01059219,-0.00140713,-0.01024595,-0.01237731,0.00893176,0.00600281,0.00734552,0.00116790,-0.00604902,-0.00411823,-0.02815986,-0.03784205,-0.00848172,0.00213097,-0.00519436,-0.00410585,0.00087148,0.01022730,0.02464473,-0.00390712,-0.01604056,-0.00146775,-0.00582374,-0.04015719,-0.02193438,0.00539057,0.00373426,-0.00360934,-0.00874181,0.00098320,0.02069211,-0.01487154,-0.00422651,-0.01088894,-0.02907972,0.00428471,0.02054174,0.00516628,0.00156979,0.00365083,-0.01385468,-0.01285680,-0.01865272,0.02011302,-0.00831967,-0.01047534,0.00858410,-0.00036678,0.00006198,-0.00506645,0.00813597,0.01462170,0.00853516,0.01578786,-0.00581235,-0.00406916,0.00155278,-0.00639112,0.02088129,-0.01038094,-0.02052930,0.01753416,0.00072530,0.00412996,-0.00168749,-0.00072535,0.01097153,-0.00863667,0.01116951,0.03288617,0.01688641,0.02525884,-0.03387332,0.00688308,-0.00719580,0.00001741,0.01403025,0.00212026,0.00737187,-0.02696940,-0.00539164,-0.02389943,-0.00684259,0.01499031,0.00527762,-0.00679557
0.19638970,-0.06383257,0.02784245,-0.04431856,-0.09163821,0.02504510,-0.02507615,0.07840763,0.04405349,-0.06117330,0.20992234,-0.06368491,0.17208284,0.10372241,0.04827018,-0.06893822,0.08021541,0.12272485,0.08309875,0.03040285,-0.01422503,-0.06736453,-0.05508199,-0.12676851,-0.04647995,-0.01247991,0.02154719,-0.09281185,-0.00059516,0.03217603,0.14866817,0.10909025,-0.00350237,0.02515919,-0.12918298,-0.03531171,-0.16520919,0.01249923,-0.01357881,0.09233014,-0.23717228,0.03038938,-0.20814876,0.05809220,0.05925955,0.18060747,-0.03163274,0.08356141,0.20799397,-0.12803484,0.01101994,-0.05149541,-0.20236020,0.06429619,-0.01297523,0.26968676,0.08011355,0.04314733,0.00759996,0.01719072,-0.05809231,0.10707180,0.02203980,0.01374175,-0.13682714,0.00199658,-0.15868205,-0.04296503,0.03574297,0.13510826,-0.06827085,0.11800616,0.06177359,0.00210997,0.03821241,-0.00200033,-0.01026365,-0.03716629,-0.03901011,-0.08778091,-0.15403947,-0.14106935,-0.08016537,-0.03888224,0.09227469,0.03173759,-0.04550233,-0.08251314,-0.17123808,0.00105333,-0.12526669,0.00014284,0.02684227,0.02485160,0.07044580,0.06613709,-0.00870418,0.02173691,0.06522966,0.00591117,-0.01639047,0.03016284,-0.04943367,-0.01563513,-0.19344403,0.02303683,0.09352747,0.05659654,0.01597914,-0.06816141,0.03188256,-0.14927168,-0.00478163,-0.02032469,0.18549643,-0.05052108,-0.08649208,-0.07991849,0.00253169,0.13949251,0.21818152,-0.08129933,-0.04595452,0.11812043,0.06107817,0.09747864,0.09519447,0.01185341
0.02161102,-0.13514231,-0.03230178,-0.02091234,0.06179214,0.07868083,0.04242486,0.14348203,-0.04270237,-0.02474028,-0.01020997,0.02245360,-0.07644384,0.03344363,-0.01896830,0.01210464,0.08306120,-0.13418411,0.07129677,0.15406455,-0.10899542,-0.01072084,0.00195754,0.03083949,-0.01318943,0.03890856,-0.07348897,-0.08760750,0.07500529,0.09801445,-0.12999146,0.04151575,-0.04464339,0.06036586,-0.01539853,-0.02847535,-0.04240298,0.03562050,0.00287136,0.01944864,-0.00974740,0.14497001,0.09842882,-0.05294541,0.06210233,-0.09977529,0.00827635,0.04724258,-0.09652290,0.14944595,0.17582479,-0.09569241,0.06498802,0.06590483,0.02138543,-0.04214155,0.00776186,-0.00574751,0.04787451,-0.02591773,-0.09736074,0.01560455,-0.03645682,-0.12238336,-0.08544490,-0.00702894,-0.02442355,0.01468724,-0.06286667,-0.08506894,0.07317542,-0.12307435,0.07819159,-0.01388259,-0.04232736,-0.10284716,-0.12191067,0.00142422,0.07317144,0.03724929,0.10008031,0.02960655,0.08108588,-0.00056226,0.00044797,0.03355772,-0.10721535,0.07383266,0.07933566,-0.01964371,-0.04883968,0.06728357,0.01531430,0.05704107,0.07414760,-0.05715283,0.00991258,0.12054661,-0.02624647,-0.05451393,0.10040925,-0.16796561,-0.12137550,0.00071061,0.06339976,0.00961551,-0.05186554,0.06949183,0.14360408,0.00674342,-0.03730204,-0.05854756,0.04733394,0.01039863,-0.03989628,0.00502418,0.09049378,-0.00171858,-0.07680542,-0.11139497,0.04780159,-0.06890836,0.00960753,-0.00238859,0.00751936,-0.05714019,-0.03469379,0.12717536
0.03982468,0.12983076,0.01282807,0.31903803,-0.14558713,-0.01698076,0.08627888,-0.10699210,-0.15771236,-0.00881566,-0.10231607,-0.12422948,0.01044031,-0.01229390,0.11930448,0.04748834,0.10198037,-0.06965362,-0.08387031,-0.04497690,0.10354484,0.12856314,-0.05192729,-0.10403538,-0.07208585,-0.00380455,-0.06320830,0.06408253,0.11668948,0.07098155,-0.02254731,0.07592645,0.08281063,-0.09203240,0.04840957,0.01298580,0.13895805,-0.07404333,0.00876866,0.04448722,0.12347806,-0.00093238,0.02692280,0.03708261,0.07003079,0.04398720,0.08164782,0.02452353,0.00052418,0.12605470,0.04100225,-0.13749674,-0.02830088,-0.07181666,-0.01445369,0.29204300,-0.18196730,0.05785503,0.20267451,-0.01933108,0.18959901,0.14197682,0.13100246,0.00006711,0.01442098,0.15086545,-0.01411032,0.03655945,0.00164828,0.09632086,-0.15416086,0.12318935,-0.10717794,-0.06714757,-0.05006100,0.14659698,-0.24424149,-0.06454596,-0.05559694,-0.11745918,0.02102428,0.00021515,-0.14328703,0.01217144,-0.07990734,-0.02304759,0.10678609,0.01581531,-0.07329685,0.07051753,-0.03804806,-0.12791751,0.04924748,-0.05147258,-0.09740315,0.00131685,-0.13244383,-0.11139429,-0.11907896,0.03534525,-0.04899521,0.13526216,-0.18782917,-0.01341587,0.03209718,0.11134370,-0.13502301,-0.12037995,0.03340243,0.12549885,-0.03618136,-0.00841823,-0.04443518,-0.14819431,0.06693110,0.11214540,-0.02965229,0.03084271,0.03260517,-0.00673833,0.09293754,0.03871452,0.00528303,0.09591682,0.11385206,-0.13378653,-0.01603178,-0.05981537
0.06798247,0.00681029,-0.01302121,-0.04992356,0.02257414,0.06851744,-0.02514707,-0.00122327,0.04831735,0.06564504,0.09410210,0.09529176,-0.03578673,-0.02609009,-0.15910621,-0.12912853,0.01258482,-0.04799658,0.00950049,-0.03874849,-0.01287169,0.04880204,0.04415771,0.03309875,0.05070623,0.10761022,0.02316544,-0.05354496,-0.10758498,-0.03219375,0.06609616,0.05523455,0.00763522,0.06033309,0.00731508,0.05430150,-0.11518327,-0.18632583,-0.02453784,0.00111190,0.00381394,0.14111368,0.04754487,0.09408087,-0.01844048,0.01017286,-0.00423230,0.15532804,-0.01129604,-0.03107570,0.19190040,-0.00238829,-0.07414130,0.02807656,0.15381117,-0.04208536,-0.01607284,0.09188402,-0.02986994,0.05498806,-0.03310002,0.02457637,-0.09270050,-0.21765760,0.03890669,0.09383917,0.18056987,0.05104733,-0.11482724,-0.05575298,0.05810348,-0.07618514,0.11217227,0.03249934,-0.13143261,-0.10016288,-0.01406204,0.07241788,0.05706957,0.05478019,-0.11434428,0.03431205,-0.05254915,-0.06150437,-0.09772471,-0.08980105,-0.05217423,-0.05989880,0.02741093,0.08919182,-0.11982884,0.05586037,-0.00630230,0.00422886,0.01071466,0.06764618,0.00866896,-0.04334049,0.08353825,-0.06769616,-0.11491931,-0.01834058,-0.09360316,-0.11196526,-0.03311691,0.01676458,-0.04892297,-0.03209307,-0.06820823,0.03211927,0.08264326,-0.08232065,-0.06947982,0.03527477,0.06034739,0.02204303,0.02795809,-0.04038886,0.01399763,0.02105598,-0.01146207,-0.00830761,-0.06335326,-0.02580687,0.00780373,-0.00973418,-0.03440895,0.02919527
0.08269826,-0.02158001,-0.01711113,0.28954279,-0.01311204,0.04484089,-0.02275921,-0.17948048,-0.19677779,0.14581062,0.07730772,-0.02755538,-0.06109104,0.08448530,0.04521482,0.07595047,-0.06294973,-0.00555720,0.00615996,-0.00874085,-0.10743448,0.12352784,0.01479087,0.00302362,0.00023374,0.09840526,-0.14886144,0.03638985,0.02612258,0.15468988,0.01857485,0.05076062,0.00848846,0.00791400,-0.11885794,0.09965836,0.03160183,0.01967576,0.08892261,0.07261006,0.09186825,0.02479204,-0.42845678,-0.00909946,0.03038068,0.05241099,0.05109755,0.10233886,0.13266680,-0.03969181,-0.04804455,0.01639031,-0.13956569,-0.09913248,0.16363387,-0.16125430,-0.13838285,0.17047930,0.10083185,-0.02164529,0.04883677,-0.00896182,0.05812838,0.02101433,0.01860506,-0.01058972,-0.11042544,0.03024902,0.05260604,0.06734468,-0.02040879,-0.02322851,-0.10999662,-0.00719653,0.13197161,-0.02137517,0.04272408,-0.07139041,-0.03609404,-0.10227208,-0.03340730,0.00728829,-0.02652169,-0.01906808,0.05123895,-0.00016620,0.01731723,-0.08665477,0.10286650,0.09332281,-0.15093322,-0.14870916,0.01785800,-0.02443234,-0.05930630,0.02255030,0.05091590,-0.04941412,-0.00475232,0.08427017,-0.07192698,-0.12409674,-0.13271520,0.01437084,0.07515980,0.00407336,-0.07629152,-0.15892039,0.03498720,-0.08768460,0.02422561,-0.08292459,-0.00759867,-0.02863933,0.04454440,0.15053168,-0.04152393,0.02816053,-0.10977766,0.04330369,0.01534544,0.09603250,0.05392967,-0.07037114,0.02864535,-0.08619130,-0.00070957,0.02808790
-0.06685988,0.04688402,-0.00861809,0.06716585,0.02953456,0.16961281,0.20370966,-0.14094678,0.01587664,-0.13274865,0.04021185,-0.03191536,0.02976830,-0.07869126,-0.10864555,0.07035618,0.06516378,0.11141844,0.01451741,-0.07248921,-0.07738198,0.00095163,-0.00522619,-0.01970997,-0.06755052,-0.08298441,0.06497926,0.13551298,0.01861115,-0.09162002,0.02198971,-0.07495952,-0.02932511,0.05335787,0.02228848,-0.07299403,0.06440288,-0.13205901,-0.09642004,0.15984538,-0.05551511,-0.05822686,-0.01846458,-0.12993079,-0.09628925,0.05093309,-0.05179414,-0.06503575,-0.09983028,0.08701851,-0.17497317,-0.02460816,-0.06069928,0.03708456,0.02620613,-0.02706648,-0.03694513,-0.15022886,0.13503948,0.08435840,-0.12139668,-0.12100162,-0.00683565,-0.00420907,0.11351510,-0.07004958,0.22554997,-0.17790020,-0.08891860,0.00451324,0.02154922,0.05960971,-0.17692222,-0.03507470,0.10206617,0.14759566,0.07714591,-0.03031812,-0.00143413,0.05432603,0.02300607,0.03723768,-0.03598619,0.07843629,0.05449373,-0.00918085,-0.01864254,0.05881912,-0.08311816,0.13387705,0.06964421,0.12541512,0.06143863,0.05925620,0.07697362,-0.11617842,-0.03531179,0.05641849,-0.02887513,-0.03089409,0.21301018,0.02155536,-0.05773123,-0.04815265,-0.09594317,0.05648689,0.00570919,0.19173846,-0.10994682,-0.00733242,0.09845736,0.13126144,0.09652700,-0.04986405,-0.03062859,-0.08346358,0.08533992,0.00186306,-0.06767416,0.09712268,-0.07661750,0.12535627,0.03018093,0.02173661,-0.04095227,0.02044709,0.03638522,0.00424658
0.01749817,-0.01352666,-0.00203987,-0.01398589,-0.00821606,0.00510194,-0.00411936,0.00091737,0.01301843,-0.01227375,0.00500427,-0.00708178,0.00561247,0.00930373,-0.00130336,0.00986935,0.00673509,-0.02098585,0.00664224,-0.03324560,-0.01567581,-0.00596041,-0.00160376,0.00642694,-0.01463666,0.00020277,-0.00921336,0.00532390,0.03476326,-0.03166755,0.00061077,-0.00828639,0.00394378,0.00948964,0.00241209,-0.01427566,-0.01955177,-0.02850854,0.00235429,-0.00000892,-0.01019471,-0.00294865,0.01929155,0.00283704,0.00126391,0.01320591,-0.00633809,0.00019025,-0.01856913,0.03651564,0.00511384,0.00780210,0.00296953,-0.00572399,0.01608566,0.00920670,0.01326297,0.00361967,-0.00272373,0.00861169,0.00506663,-0.00592459,0.01417174,0.01617428,-0.03415517,0.01463553,0.01217059,-0.00385305,0.00011952,-0.00415520,0.00049900,0.00656961,-0.00382551,0.00202970,0.00673068,-0.00503971,-0.00885744,-0.01252420,-0.00846567,0.01052160,-0.01860748,-0.01213912,0.02732578,0.02665346,-0.00080686,-0.00847972,0.00657326,-0.01611040,0.03315404,0.00495974,-0.01720820,0.02128814,0.00163341,-0.02248341,0.00884098,-0.00187647,-0.00510739,0.00723364,-0.02213561,0.01191568,0.00847818,0.02017852,0.00838059,-0.01371809,-0.00209788,0.01060778,0.01494145,-0.00607284,0.01760107,0.00439003,0.00771747,-0.00043251,-0.02078770,-0.02446357,0.00467625,-0.00277507,-0.00909106,-0.00416089,0.00855622,-0.00523002,0.01898394,0.00643169,0.00786331,-0.00279986,0.00341968,-0.00388901,0.00155691,-0.01211505
-0.00022212,0.00349726,-0.00417961,0.00669117,-0.02312376,0.01470211,-0.00784391,0.00139199,-0.00308330,0.00295574,0.01555622,-0.01172191,-0.00723633,0.01015327,-0.00154847,0.00213753,0.01010448,0.00995179,-0.00259892,0.01011266,-0.02126317,0.02018472,-0.00101445,-0.03585659,0.00476238,0.01551819,-0.00276561,0.00065407,-0.00660937,0.00215652,-0.00098444,0.01117687,-0.00264314,-0.00289169,-0.01130894,0.00000842,-0.00403053,-0.00288856,-0.00569327,-0.01454439,-0.00659637,0.00387561,-0.01240884,-0.02612599,0.00469149,-0.00333214,0.00335978,0.00715770,-0.01152713,-0.01782905,0.01804358,-0.01659053,-0.00121557,-0.00787869,-0.01863073,-0.00480075,-0.01552481,-0.00595131,0.00574726,0.00482528,-0.00399523,-0.00248946,0.00858836,-0.01443744,-0.00070841,-0.01368013,0.00846318,-0.00441228,-0.00183994,-0.00555661,-0.00327085,0.02254265,-0.00597608,0.00142632,-0.02682148,0.00608087,-0.01942065,0.01000836,-0.01567662,-0.01156766,-0.02578204,0.00492872,-0.00121318,0.00138963,-0.02786821,-0.00138244,0.01152462,0.02904802,-0.01033747,0.00537082,0.01188712,-0.01883919,-0.01443163,-0.00229156,-0.01091274,-0.00101867,0.01315320,0.02006721,0.01572406,-0.01184462,-0.01022560,-0.03811849,-0.00049266,-0.00271204,-0.00365712,-0.01803388,-0.00693255,0.01559305,-0.01042621,0.01096743,-0.01200996,-0.00777342,0.00810978,0.00966314,0.00255720,-0.00622082,-0.01874381,0.01168444,-0.02918506,-0.00497879,-0.01227255,0.02204510,0.00600966,0.01552645,-0.00636093,-0.00360831,0.00400318,0.01299594
-0.02115987,-0.05131159,-0.00027678,0.05547141,0.02098314,-0.00435929,0.03514909,0.01485280,0.04698883,0.05338252,0.02451905,-0.08096091,0.02112985,-0.01774940,-0.02753724,0.07374606,0.01666225,-0.01529558,0.00923156,-0.00307506,-0.04020760,-0.04434488,0.01675443,0.05743400,0.01543305,0.02321227,0.02536420,-0.08687788,0.04497549,-0.06481320,-0.08105595,0.00916292,0.01536257,0.09004384,0.09992518,0.15266100,0.07894775,0.06641217,0.01975828,-0.07393998,0.00442550,-0.04645687,-0.05144339,-0.05577395,0.07910892,0.02640351,-0.00866778,0.03705560,0.02385409,-0.06539437,-0.07063914,-0.03695389,-0.00938412,-0.00315160,-0.03388913,0.08630543,-0.01912975,0.04686860,0.02632909,-0.01053169,-0.01865378,-0.05309536,0.04010617,0.00797930,0.05435256,-0.17929658,0.04836139,-0.02500936,-0.05349182,-0.07628116,0.01011688,0.02525540,-0.05609414,-0.03121275,0.03904185,0.10616637,0.02125387,-0.10489074,-0.04927433,0.05233097,0.03145527,0.01358034,-0.05073193,-0.01891877,-0.06407055,-0.04108928,-0.01382010,0.02228415,0.04291565,-0.03030629,-0.00711484,-0.04903877,-0.06909043,-0.01782193,-0.10391690,-0.03750327,0.04012713,0.05213887,-0.10080752,0.01359115,-0.03468174,-0.06154934,0.02636681,-0.00358608,-0.06451616,-0.05349755,-0.05877902,0.06230693,0.03019216,-0.00959366,-0.04095990,0.02393150,0.00960664,0.04407575,0.14870399,-0.01371938,-0.08051866,0.00556963,-0.04911113,0.00643430,-0.01272892,0.00209727,0.08083244,0.02471725,0.01124641,-0.05617787,0.00862902,-0.06672419
0.00329762,0.01173278,0.00692022,0.00134152,-0.01522500,0.01068583,-0.00530497,-0.01861565,0.01445270,-0.00151102,0.02616955,0.00294853,0.00961658,-0.00086014,0.02764861,0.00158660,0.00794120,0.02213296,0.00740185,-0.00093456,0.02307246,0.01400652,-0.00479497,0.01397698,0.01425648,-0.00927175,-0.00885056,-0.00140126,-0.02307449,0.00966416,0.01770752,-0.00537756,-0.00750436,0.00019725,0.00348504,0.01301235,0.00930510,0.00837955,-0.00570768,0.01974295,-0.00811635,0.00367207,0.00191011,-0.00259630,-0.00054859,-0.00967536,0.00430844,0.00972275,-0.01240372,-0.01935720,0.00684480,-0.00406925,0.01267839,0.00597694,-0.02047798,-0.00344175,-0.00556171,0.00720364,0.00371237,-0.01324770,0.01166212,0.01105163,0.02113228,-0.02433805,0.02037965,0.00647375,-0.00634702,-0.01256956,-0.02417398,0.02770216,0.00948230,0.01142176,-0.00322172,-0.00358439,-0.01454859,-0.00536978,-0.02820606,0.00772005,0.00702023,0.00757398,-0.00391427,-0.00632882,-0.01922663,-0.00830046,-0.01769432,0.00800213,-0.01600837,0.01328565,0.01278208,0.01910971,-0.00374196,-0.01992787,-0.00819738,0.00852349,-0.00169823,-0.00816712,0.02084169,-0.00152845,-0.00898614,-0.04029706,-0.02079934,0.01352339,0.01397246,0.01185415,0.00697465,0.00744002,-0.02400845,-0.00825170,0.02486747,-0.00443683,-0.01919148,0.00023212,0.00352651,0.02042467,0.00141603,-0.01222324,-0.02356566,0.01023260,-0.01260428,-0.01304601,-0.01429026,0.03312438,0.02445935,0.01559154,-0.01180604,-0.01567359,0.00326654,0.02627768
0.03056446,-0.02086843,0.00291918,-0.02418699,0.01764312,0.00633740,0.01444385,0.01176191,-0.00433116,0.00576405,-0.02191716,-0.02269057,-0.00206499,-0.01962796,-0.02268265,-0.00943029,-0.02200670,-0.02577526,0.00035200,0.01242001,-0.00936108,-0.00509492,-0.00506925,-0.04775824,-0.00385031,0.02033550,-0.01944746,-0.01465674,0.02839736,0.00156745,-0.00483843,-0.01546296,-0.00480504,0.00219625,-0.00014678,-0.02181111,-0.01050666,-0.01684763,0.01142940,-0.01954457,0.03204323,0.01891783,-0.00468879,0.01742635,-0.00469080,0.00133326,-0.00526044,0.01197597,0.00691850,-0.01819340,-0.02056670,-0.01061801,-0.00993941,0.00673599,0.02326099,0.01607383,0.00783288,-0.00550763,0.01497207,-0.00560265,-0.00053969,0.00227692,0.00583424,0.00840719,-0.01283104,0.00829957,0.00165478,0.01118668,0.00801314,-0.02268020,0.00763852,-0.00615210,-0.00217864,-0.01580242,-0.02852186,0.00975096,0.02679491,-0.00116570,-0.00332129,-0.00208400,0.00699191,0.01036045,0.00580370,0.01035751,-0.00921489,-0.00028872,0.00283342,0.01178862,-0.00470907,0.00818530,0.00415398,0.00007162,0.01709874,-0.01102944,0.01251831,-0.00129096,0.00360453,0.00520834,-0.01639458,-0.00033779,0.00357699,-0.01855157,-0.00012623,0.01776536,0.02834828,-0.01899041,0.00322188,0.00815617,-0.01383444,0.03088552,0.00992033,-0.01163411,0.00211803,-0.00447582,0.00372371,0.00453727,0.01886305,-0.02362994,0.00254368,0.01867196,0.00144384,0.00566936,-0.00730764,0.01211772,0.01481862,0.00166142,-0.02319704,-0.01278677
-0.09698851,0.05803788,0.01561753,-0.70023775,-0.03307196,-0.05896349,-0.13159874,0.02517624,0.07453101,-0.03173414,0.00602043,0.29426745,-0.23020385,-0.05108446,0.02531566,0.00562836,0.04103143,0.00435382,0.00508962,-0.02131013,0.01488006,-0.21938287,-0.02981273,0.02663674,0.02780567,0.00237211,0.03836963,-0.02042878,-0.03067045,-0.09323765,-0.06687593,-0.24860422,0.03320447,0.02807979,-0.01956040,-0.17624001,-0.10384778,-0.04948888,-0.05773167,-0.08431796,0.13929357,-0.07428907,0.71115959,0.01497157,0.03630007,-0.03621738,-0.03382662,-0.14237197,-0.13919683,-0.08868697,0.03428055,-0.00738017,0.14810376,-0.00373225,0.08007433,-0.73038316,0.35563496,-0.07875359,-0.36270791,-0.00508515,-0.01416135,0.01313422,0.02124403,0.05187563,0.03057347,0.10034691,0.09281866,0.03001963,0.02277321,-0.02555508,0.00885536,-0.09611935,0.02895855,0.08793128,-0.00626879,0.00261574,0.06907638,0.11034521,0.19240199,0.03109895,0.08622623,0.49563226,0.21718687,-0.04762893,-0.00013882,-0.10390936,0.01023619,0.09641922,0.15556784,0.00298490,0.05161080,0.06913698,-0.13268679,0.01727588,0.11283422,0.06321174,0.00762339,0.08377212,-0.07732997,0.07219748,0.09882203,0.06283152,0.05624100,-0.03469513,0.41140747,-0.07193732,-0.05135664,-0.06403632,-0.27717313,0.04312007,0.35722551,0.02952086,-0.03653713,-0.00656019,-0.28947809,0.02186430,0.10487475,0.00589382,0.02560250,-0.24043246,0.00339080,-0.10982391,-0.06141598,-0.13161933,-0.03708173,0.09164612,-0.05296562,0.01354737
-0.13491423,0.08133090,-0.00184470,0.21753675,0.09623719,-0.00990463,0.10004624,0.01647246,0.05314425,0.09395922,-0.23151644,-0.03304302,0.03884482,0.00486859,-0.01537600,0.03637207,-0.04207044,-0.03121484,-0.07641489,-0.00874658,0.01037703,-0.06857441,-0.01226176,-0.01811066,0.03420826,0.03487986,-0.10343401,0.03520998,-0.03083501,0.18478082,-0.00408507,0.01839267,0.07538508,-0.09164143,0.02203133,-0.00696475,0.04040554,-0.01397609,0.00835567,-0.08840426,0.07008878,-0.08527959,-0.09925830,-0.09601402,0.01812326,0.01762995,0.06015556,0.02599003,-0.04340771,-0.00948366,-0.06551538,0.00663129,0.12663552,-0.00583647,0.05366740,0.17437045,-0.12666079,0.15318501,0.16122815,0.06628298,0.07556693,0.07616938,0.02631349,-0.06600294,0.20663974,-0.06769660,0.07584924,-0.04672803,-0.06864182,-0.17354824,0.09786534,0.07485216,-0.02207722,-0.06678022,-0.09118618,0.05804640,-0.03135646,0.05721529,0.02875853,0.04868823,0.00510822,-0.18036848,-0.15134820,-0.03735140,-0.05293488,-0.22509177,0.13625604,0.11835897,0.10624792,-0.02952565,0.03670903,-0.01117844,0.03555721,0.02579363,-0.14908020,0.09114666,-0.12939604,-0.11795395,-0.11259561,-0.13069665,-0.02413997,-0.05658754,0.00984655,-0.01278631,-0.03843771,0.00078936,0.05420197,-0.05606582,0.09169740,-0.05723156,-0.12442155,0.06688211,0.00566508,0.14090380,-0.01952767,0.07020906,-0.07042629,-0.02849917,-0.00210676,0.03032026,-0.07973380,0.05312820,0.02264825,-0.00397264,0.11828683,-0.11046643,-0.08052197,0.04379552
0.08415958,0.15629847,-0.00314192,-0.05640951,0.07143279,0.07300116,-0.05501864,-0.06771817,-0.00241462,-0.15609817,0.15634732,0.11187107,-0.00653412,-0.00804307,0.09929275,-0.06214712,0.04584485,-0.06352387,-0.03134306,0.14116351,0.08113485,0.13166675,-0.01487039,0.08490942,-0.08001094,0.04762307,0.04230076,0.00495009,-0.01181957,0.05649594,0.06086564,-0.01823690,-0.05503640,0.18174101,-0.00306256,-0.12615803,-0.04680709,0.04466542,0.00241786,0.04080107,-0.01431928,0.14802819,0.06915621,0.00596962,0.07994914,0.06022906,-0.00454250,0.09805106,-0.11675701,-0.03145606,-0.08204471,-0.01175538,-0.06721217,-0.02258700,-0.01031491,0.04169131,0.02786227,0.02887234,-0.04323144,0.01548428,-0.00543828,-0.00291430,-0.10827054,-0.11162560,-0.04229799,-0.04462396,0.10516652,0.13766165,-0.11169144,-0.04877611,-0.13677946,0.02683878,-0.07864990,0.05696905,0.11242452,-0.02601568,0.02518087,-0.21312813,-0.16748194,0.12093121,-0.02624805,0.01464228,0.07688218,-0.07092109,0.05409519,0.04429924,0.02270025,-0.09277914,-0.23300956,0.13392937,-0.06329644,-0.05173026,-0.06363276,-0.04181105,-0.03594466,-0.11318747,0.01898696,-0.04306801,0.08276679,0.06802617,-0.03751657,0.06389216,-0.10928344,-0.02735695,0.04005500,-0.01385999,-0.12012417,0.00501775,-0.13543619,0.09029651,0.01634906,-0.07309889,-0.05332393,-0.02124435,0.00352085,-0.04189359,0.06659231,0.12802050,-0.03413687,0.05577490,0.32822028,-0.02235138,0.01871440,0.01637032,-0.10051021,0.03920385,0.06439923,-0.05534543
-0.03426308,0.01960692,-0.01226029,0.05911971,0.07276151,0.05490870,0.03249943,-0.02507877,-0.04985627,-0.05932586,-0.22118945,-0.02826072,-0.21945485,0.05518408,-0.09514495,0.00163528,-0.03952606,0.01639540,-0.13770156,0.01069508,-0.02545924,-0.04834644,0.01155074,-0.06933798,0.03768317,0.06226824,0.10357197,0.05940120,-0.12013918,-0.15746288,-0.04538676,-0.03476532,-0.00395162,0.01788326,0.06698535,0.04063916,-0.04214446,-0.07413543,-0.02501878,0.08879743,0.00841371,-0.01750431,0.07736058,0.12876259,-0.07941955,-0.05301469,0.04620475,0.07918624,0.04393274,-0.07662981,0.07203031,0.07625511,0.05860214,0.07724287,-0.09460046,0.00009009,0.03728264,-0.01363627,-0.05647057,0.03897474,0.01762711,-0.01031935,0.03914373,-0.14046451,-0.10116545,0.04940452,0.13993435,0.08336614,-0.13053025,-0.06688396,0.05942658,-0.07143594,0.06479923,0.05913028,-0.12396801,0.01263730,0.09154955,-0.00696531,0.10689357,0.07006475,0.19210994,-0.05537764,0.07704131,0.01865651,-0.04603567,0.16630122,0.07624020,-0.07879782,0.01721391,0.01335021,0.06199898,0.07662717,-0.02201559,-0.05980031,-0.01340803,-0.10342755,0.01559259,0.16236481,-0.08854312,-0.12641150,-0.10450018,-0.10661162,0.01218757,-0.01125449,-0.04972234,0.01178302,-0.06949832,0.11393403,0.09673633,0.02556714,-0.07670951,0.02270105,-0.00967442,-0.07181174,0.01529388,-0.07860763,0.06886204,0.02504043,0.02836928,-0.03370342,-0.15621199,0.05116503,-0.05352502,-0.02065154,-0.04194561,0.05267023,0.08131800,0.06758729
-0.00194906,0.00439860,-0.00522911,-0.02597109,0.03139604,-0.00842531,0.00895025,-0.00292786,-0.01143872,0.00094592,-0.00710770,-0.00397047,0.01362512,-0.04418760,-0.01793755,-0.00239991,-0.01861142,-0.00988465,0.00041295,0.01970545,0.00305943,-0.02297222,-0.00306298,-0.01875028,0.01473051,0.00200987,-0.01998791,-0.00879438,0.02693849,0.00436555,0.00073669,-0.02160277,0.00463728,0.01918233,0.00332612,-0.00704492,0.00282649,0.00363246,0.00718461,-0.00014533,0.00600836,0.03099255,-0.00895089,0.00660435,-0.01446401,-0.00132478,-0.00864349,0.00556471,0.01791639,-0.02118377,0.00217359,0.00668113,-0.01560548,0.00699267,-0.00155941,0.01540955,-0.00369748,0.00419003,-0.00572979,-0.00619119,-0.00366317,0.01652252,-0.02007538,0.01257828,-0.00518912,0.01076345,-0.00500404,0.02272857,0.00969569,0.00040922,0.00274959,-0.03524965,0.00925064,-0.02042368,0.01522236,0.01680526,0.02496659,-0.00373510,0.01729117,0.00759265,0.01131993,0.00707869,0.00530195,-0.00772186,0.01666861,0.00557559,-0.00830890,-0.01544396,-0.00996296,-0.00059373,0.01494583,0.00992488,0.00243603,0.01144402,0.02683981,0.01555196,-0.01324341,-0.00927442,0.01849857,0.02704846,0.01427736,-0.00961345,-0.01241738,0.00376962,0.02079408,-0.00415570,0.01056174,-0.00985141,-0.00568093,0.02302677,0.00439151,-0.00141342,-0.00110983,-0.00237134,0.00400500,0.01013859,0.01012422,-0.01801606,-0.00265458,0.02349696,0.00232941,-0.02916394,0.00902984,0.00666629,0.00450620,0.00086111,-0.01336042,-0.00569022
-0.13785115,0.19735736,0.01972563,0.21637310,0.11232021,0.00637412,-0.05400390,0.09494140,0.06077554,0.01877562,-0.23361033,-0.12587677,-0.02827707,-0.02269737,0.00462072,0.11378743,-0.01657764,-0.02160997,-0.03976731,0.03136357,-0.01772628,-0.15839334,-0.01147373,-0.04152185,-0.01966320,0.06351975,-0.01533444,0.01709501,-0.00898418,0.08663918,-0.04430914,0.07834190,0.04455213,-0.00789590,-0.00511389,-0.04670743,-0.03177884,-0.03019594,0.05238159,-0.14664115,0.05047643,-0.14247836,0.02178845,-0.02586938,0.06412674,0.03311617,0.08734139,0.05791672,-0.08440771,-0.01882862,-0.07072257,-0.04525662,0.17805029,0.02360040,0.01365059,0.24065669,-0.12268076,0.21138863,0.11578027,0.05345372,0.08759785,0.03197806,0.06214124,-0.01137326,0.18801817,-0.02281321,0.01823140,0.04680221,-0.05579238,-0.02214345,0.08221390,0.11662696,-0.02322583,-0.01771408,-0.05990821,-0.00139890,-0.09507203,0.00897468,0.02727474,0.06728642,0.07148488,-0.18423596,-0.16597490,-0.04978092,0.00155393,-0.16302671,0.05965469,0.05855509,0.02081987,-0.05215117,0.01565446,-0.05832723,0.10316341,-0.00292052,-0.13585848,-0.05459954,-0.08340348,-0.09321586,-0.10192681,-0.18423024,0.09892405,-0.09666304,-0.08520114,0.06072404,-0.04846549,0.05271733,-0.06489528,-0.08964269,0.07838150,-0.04557577,-0.17589509,0.10895211,0.06570268,0.07798082,-0.10066728,0.03668026,-0.03514757,0.03195292,0.03597870,0.02018405,-0.00185618,0.01086839,0.03858140,0.07783396,0.09326883,-0.08493250,-0.07748362,0.05536724
-0.13251044,-0.01602451,0.03895796,-0.08023832,0.03439963,0.21582706,0.04211318,0.07606190,0.04419838,-0.03304623,-0.10889527,0.02630316,0.08407680,-0.01615954,-0.00573448,-0.09633821,0.04536743,0.01868189,0.01361918,0.00434666,-0.15511037,-0.04958187,-0.04179779,0.02037648,-0.01023216,-0.25508296,0.15381847,0.12094244,-0.11551491,-0.07627234,-0.03319589,-0.04647568,0.04086127,-0.08475624,0.06890046,-0.11963723,0.15342873,-0.07156447,0.09962723,0.09174495,0.15159906,-0.08780332,0.12796082,-0.01528012,-0.06581062,-0.02710819,0.02294027,-0.14969163,0.06646575,0.07512623,-0.06739683,-0.10000163,0.13052425,-0.05747834,0.08513347,0.08823382,0.15841724,-0.13717231,0.05789554,-0.06960974,0.01319938,-0.13945472,0.08051480,0.07203376,-0.00712175,-0.05449551,-0.02390617,-0.08146888,-0.15253332,0.12410153,0.07419067,-0.02262043,0.01732806,0.03454840,-0.01539639,0.12885006,0.00111243,0.11103290,0.06164565,-0.12743464,0.09988173,0.04150137,-0.01201538,0.10085040,-0.06995340,-0.05422095,0.06012148,0.05202437,0.01567544,-0.08724662,0.05930742,0.08752555,0.07297984,-0.02440664,0.03574029,-0.04327912,-0.15394786,0.01287322,-0.01528602,-0.03422692,0.05865568,-0.09466956,0.13349432,-0.05764775,-0.04155663,-0.07030693,0.04348231,0.07633206,0.02391240,0.02756462,0.06577171,0.07987909,0.10557687,-0.10383360,-0.10958116,-0.14151248,0.05526854,-0.15301163,0.08613861,-0.03546853,-0.04630499,0.08087193,-0.10713797,-0.04305114,0.02473065,0.03802627,0.10815426,0.06815618
0.08583962,-0.05792416,-0.03486312,-0.07903250,0.01275206,-0.15246117,0.05742496,0.10107468,0.08698486,-0.07382695,-0.05844451,0.09213177,-0.01517763,-0.09363061,0.02423424,-0.03122396,0.06391086,-0.15691260,-0.16309026,-0.05963485,0.16089131,-0.11797326,-0.01464591,-0.01300924,0.03761091,0.04919775,0.31703246,-0.10037880,0.14140414,0.05711802,0.01916239,0.02195763,0.00848635,-0.04050189,-0.04416869,-0.04663423,0.01555845,0.02939506,-0.08132273,-0.04720339,0.05282736,-0.09144004,0.12452613,-0.03663595,0.02826671,-0.03139038,-0.06606563,0.02381033,-0.06734187,0.09266990,0.02873968,0.02119777,0.02391813,-0.08699344,-0.00057925,-0.06212808,0.02952348,-0.08663764,-0.12271293,0.09534926,-0.02136504,0.05005351,-0.03327301,0.09291688,-0.04947235,-0.05660598,0.03438392,0.13017960,0.06422134,0.05394767,-0.04747156,-0.02743383,0.07349091,-0.06955634,-0.05823468,-0.09222836,0.00287770,0.04058463,0.02958321,-0.01765839,0.01513012,-0.00788488,0.05073601,0.02117195,-0.02684532,0.15906927,-0.12030755,-0.02609828,-0.03790792,0.06305878,-0.03933010,0.06378850,-0.14514737,0.00737972,0.11065514,-0.16201405,0.09454481,-0.11582893,-0.01067945,-0.04700807,-0.06939302,0.07386649,-0.01838119,0.12129939,0.00646046,-0.03557988,-0.10748087,0.16349865,-0.10874700,-0.18017696,0.02164276,-0.07582508,0.03011554,-0.04841221,0.12942937,0.09203544,-0.07269382,0.05588552,-0.01574020,0.03258720,-0.01767283,-0.07901591,0.00139280,0.01588747,-0.19462116,0.09529590,-0.02865688,0.08614683
-0.00533934,0.00916711,-0.00028666,0.01642933,-0.00906867,0.01314401,-0.00141626,0.01139718,0.00747375,-0.00266571,0.01934836,0.00847379,0.00729002,0.03887242,0.01416357,0.00236964,0.03463154,0.01711892,-0.01298157,-0.01869987,0.00389135,0.00539777,-0.00743886,0.01961101,-0.01315885,-0.00226064,0.01884689,0.00955760,-0.02007251,0.00291909,-0.00430550,0.01453876,0.00442433,0.00010803,0.01010269,0.00761759,0.01125691,0.01709440,0.00003242,0.00399254,-0.02010592,-0.02399835,0.00574695,-0.00630324,0.00850978,0.00730226,0.03574840,-0.02369984,-0.00449397,0.01106027,0.01750034,0.00887843,-0.00523126,-0.01789017,0.01650908,-0.00137475,-0.00742040,-0.00930979,-0.01588197,0.02492942,0.00431248,0.00248826,0.00920179,-0.00479944,0.02142078,-0.00857887,-0.00021017,0.01178602,0.00715163,0.00445084,0.01719987,0.02392370,0.01153132,0.01430574,0.01072478,-0.01742939,-0.01517178,-0.00421659,-0.00200122,-0.00565103,-0.00516240,0.00536692,0.00061692,0.00294955,0.00331623,-0.01603744,0.02262594,0.02191322,0.01219588,0.00739086,-0.00862990,-0.00496125,-0.01406173,-0.00524839,-0.02283160,-0.01523611,-0.00299334,0.00931153,0.02202164,-0.01922054,-0.00486006,-0.00762831,0.01864150,-0.00540853,-0.02057185,0.01034321,0.00031680,0.00937296,0.01494266,-0.04294747,-0.00706981,0.01318119,-0.00432014,0.00597958,-0.02046817,-0.00363585,0.00140382,0.01257178,0.00086315,-0.00212408,-0.00320752,0.01061054,-0.00324919,-0.01702674,-0.00374713,0.00013668,0.00135951,-0.01045056
-0.01061976,-0.10060562,0.03053947,-0.21833315,-0.03097422,-0.04091738,0.08283913,0.01480175,-0.07721106,-0.01114391,-0.05163681,0.07318965,0.12852639,0.06343900,-0.03636190,-0.10993640,-0.00908620,0.13206910,0.08177789,-0.08273045,-0.11309004,0.05567021,-0.02952940,0.02341024,-0.07528537,-0.21168809,0.00517426,0.08379501,0.09687759,-0.00114883,-0.06515854,-0.05090255,0.02820045,-0.06144698,-0.02227482,-0.04192586,0.17829475,-0.10708501,-0.04415454,0.15156078,0.08155140,0.00712484,0.15079090,-0.00856573,-0.02318795,-0.05464327,-0.01626455,-0.11775587,0.07916884,0.13790871,-0.06423998,-0.09286401,-0.03297064,-0.05590487,0.08066329,-0.10868686,0.15959686,-0.15279911,0.00450793,-0.06002242,0.01962161,-0.18209431,0.06513651,0.04887245,-0.02008949,0.06777973,-0.11475991,-0.00106891,-0.11534362,0.18659911,-0.00781898,-0.13881570,0.00769338,0.04741549,0.09875596,-0.00632910,-0.06720912,0.30811211,-0.02926557,-0.10836662,-0.00096747,0.11032002,-0.08905119,0.13524769,0.02247224,-0.04215457,0.01163204,-0.03103588,0.07311337,0.01601244,0.01687373,0.05192127,-0.00363205,0.05813029,0.10482699,0.00502917,-0.01064823,0.03951309,-0.05415280,0.11029461,0.03981486,-0.11560529,-0.02775458,-0.04325972,0.08568093,0.00513159,0.11748311,0.06816322,-0.01458993,0.12047672,0.14157280,0.02891777,0.12904443,-0.07018718,-0.09534794,-0.07775708,-0.09552085,-0.14812885,0.03157010,0.01457941,-0.12949583,0.03312744,-0.07265603,-0.06165363,0.07331739,0.03571161,0.05085762,0.06439526
-0.08725686,0.10289986,0.03013257,-0.01934688,-0.07054753,0.11298026,-0.03086100,-0.05223371,-0.00523630,-0.10098437,-0.08428712,0.03267390,0.02399377,0.03982893,0.00427613,-0.10919462,0.03774678,0.15010810,0.05784887,0.03447798,0.04908338,-0.02505825,-0.03912825,-0.07871655,0.04352037,-0.00993576,0.07611863,0.07390191,-0.07200556,0.08193722,0.05101400,-0.10783381,0.03889492,-0.02293760,-0.02850105,-0.10032613,0.04142772,-0.15659998,0.09746980,0.01328079,0.14395481,-0.01761641,0.11233120,0.02559830,-0.03962164,-0.01529236,0.01220737,-0.14386164,-0.13864255,0.17476103,0.02006044,-0.08661763,0.10604204,0.02992994,0.03235533,-0.11237480,0.03349561,-0.01616213,-0.07820474,-0.13450193,0.03266361,0.01910964,0.10745786,0.06149406,-0.01479298,0.13877866,0.00721422,-0.06330564,-0.00269151,0.02776119,0.05726563,-0.00087282,-0.06674247,0.04764260,-0.08173398,-0.02330336,-0.13219911,0.10818710,-0.04548987,-0.04323329,-0.00162613,0.12183990,-0.05982369,0.00789572,-0.08536192,-0.04689794,-0.01175622,0.06102721,0.02744296,0.02176604,-0.05380995,0.00741657,0.02840993,0.02725099,0.05099130,-0.01560512,-0.07802227,-0.03025697,-0.01888877,-0.01985621,-0.00467352,-0.04380503,0.05511513,-0.04434323,0.06155682,0.04357734,-0.05669882,-0.01507426,-0.13345563,-0.09751613,-0.01965977,0.15116796,0.07468541,-0.00709232,-0.12918332,-0.07725042,-0.00074007,-0.01379106,0.08903098,-0.10248572,0.01664431,0.00275263,-0.04047873,-0.02206809,0.01836467,0.07376385,0.02392933,0.09441113
-0.01854054,-0.00450518,0.05390804,0.16382281,-0.02744433,-0.20075469,0.10569897,-0.18652160,0.05243028,-0.10902806,-0.05668515,0.02996032,-0.10855811,-0.10785010,-0.21357612,-0.00091032,0.05645724,0.00098737,0.17589918,0.06270992,0.01557937,0.08326560,-0.02604230,-0.13042289,-0.11514357,0.20422694,0.03607529,-0.02756583,0.08515567,0.20172551,0.05595152,-0.03479417,0.00630256,0.05468051,-0.23227036,-0.04725428,-0.09554312,0.13106526,-0.00709661,-0.08020223,-0.22845556,0.19775639,-0.01144961,0.04261304,0.11916813,0.04252625,0.04876515,0.31197554,-0.15737844,-0.04376632,0.07329850,0.02707050,-0.08110212,0.03483032,-0.08687308,-0.15049267,-0.02217111,0.06936450,-0.16191147,-0.20943883,-0.11270272,0.29270834,-0.03905896,-0.02692315,0.00717218,0.20871575,0.10715292,0.13496427,0.25911257,-0.12241468,-0.11905473,0.05998895,-0.10317902,-0.11813777,-0.03322865,-0.10958083,-0.10008945,-0.22881229,0.04175994,0.06116781,0.01934054,0.14247121,0.20590608,-0.29323745,0.00567145,0.14686483,0.03209857,0.12734176,-0.03583385,0.13561252,-0.06107787,-0.13921762,0.06537420,-0.05706666,0.04856625,-0.01224292,-0.00131767,0.13771988,0.06450788,-0.01079922,0.13110392,-0.00704192,-0.09890219,-0.10171271,0.03960790,0.18682624,0.06211279,-0.00839772,-0.22804420,-0.02436837,0.00694014,-0.07132544,0.05832678,-0.08175973,0.00074829,-0.15804268,0.02287366,0.16142662,0.15020663,-0.25830191,0.00532940,-0.05678381,-0.13449664,0.06256742,0.14860852,0.02346816,0.00966761,-0.02914407
0.01666212,-0.01228242,0.00844349,-0.01363815,-0.02607796,0.02294035,-0.00470214,-0.00306722,-0.00030809,0.00197831,0.00069512,0.00666712,-0.01287151,0.03244071,0.00067005,-0.00076978,0.00545488,-0.01096779,-0.00064026,-0.01860689,-0.00618587,0.00140447,0.00744903,-0.00711484,0.01954794,0.01267368,0.00227639,-0.01186775,0.00018735,-0.00638565,-0.00162965,0.01868113,-0.00757510,-0.00890493,0.03334653,0.02309966,-0.00891661,-0.01673269,-0.01155047,-0.00921662,0.00866932,-0.01507980,0.01535655,-0.01329773,0.00834409,0.02129655,0.00834821,-0.00149541,0.00225054,0.00622915,-0.01844639,-0.01107617,0.03218826,-0.01311079,0.00226638,-0.02002130,-0.00162710,-0.00903960,0.00572399,-0.01013185,-0.02320874,0.00453952,0.00599604,0.00257045,-0.01237930,0.01438477,0.01219360,0.00345100,0.00872849,-0.00736446,0.00831323,0.00210752,-0.01014679,0.02414961,-0.00117158,0.01755542,0.00886937,0.01233397,-0.02376472,-0.01956875,-0.00253580,-0.01054285,-0.00560862,0.00459369,0.00976142,-0.00887388,0.00717303,0.00371568,-0.00089356,0.01240179,0.00756532,0.00362444,0.00365556,-0.03732154,-0.00724127,-0.00355512,0.00872628,0.00716346,-0.00193363,-0.00747725,-0.01052911,-0.00644831,0.00626499,-0.01834534,-0.02514854,-0.00383277,0.00815173,-0.00144013,0.01064487,-0.01785450,0.00764054,-0.00349479,-0.00733590,-0.00389753,0.01942270,0.00000640,-0.00089809,0.00874960,-0.01620179,-0.00729820,0.01777119,0.02728055,0.00171637,0.01274165,0.00140285,0.01257476,-0.00938750,0.00351405
0.06866491,0.09848564,0.03512173,0.19968165,-0.07662045,0.05997153,0.02462708,-0.07158537,-0.14339387,0.00796958,-0.04441883,-0.08052897,0.03721737,-0.06349897,-0.00466162,0.01511190,0.24976259,0.01981168,0.06714966,0.04750326,-0.12979580,0.10944825,0.00355615,0.02372752,-0.15993214,0.01746056,0.21083991,-0.09012309,0.03417425,0.17528425,0.07592885,0.12085242,0.07995550,-0.05873977,0.00830881,0.06323048,0.04114687,-0.12607920,0.08631252,0.01873609,-0.01579561,0.01289108,-0.17989750,0.09523594,-0.05532572,0.13952217,-0.04303104,0.18368663,0.04906806,0.12660486,-0.02707521,-0.20285517,-0.17256536,-0.06905986,-0.04721561,0.23701924,-0.22024675,0.17441364,0.14956772,-0.03884030,0.08226643,-0.12152156,0.08209506,-0.14647020,0.12468474,0.02850154,0.14247049,0.02878815,-0.02385839,0.07241214,0.03684268,0.14468564,-0.11939195,0.10276011,-0.00915944,0.07886646,-0.10364587,-0.08548729,-0.15219091,0.10619225,0.03888160,-0.05041676,-0.19262749,-0.00907283,-0.13299778,-0.03235195,0.07520454,-0.24632591,-0.02970140,0.27572545,-0.12394318,0.03016467,0.01879700,-0.02532707,-0.17484558,0.00549779,0.04925666,-0.12356372,-0.09434887,0.11776701,-0.10470852,0.05382885,0.01823997,-0.05621114,-0.04597685,0.01743464,0.01385381,-0.01047415,-0.08680436,-0.05477056,-0.13391812,-0.10638505,-0.09215640,-0.04343501,0.21454746,0.19398282,-0.13144276,-0.06490456,-0.07618570,0.13587913,0.20392093,0.08584594,-0.07059990,0.05982687,0.05004182,-0.07822915,-0.01866794,-0.00393453
0.08237272,0.01549314,-0.03053651,0.03577541,0.13810737,0.09080889,-0.07218725,-0.02320070,-0.00729609,-0.11907504,-0.18725459,0.08473984,-0.09989429,0.03855886,0.11804846,0.00886820,0.00269225,-0.16583963,-0.08358528,0.03558943,0.04233780,0.06764189,0.00285066,-0.02232641,0.04813622,0.00423777,0.04149839,0.02436195,-0.04387224,-0.07463971,-0.19953148,0.08764146,-0.02907595,0.12570505,0.07425354,0.14161743,-0.07174543,-0.19958580,-0.06521524,-0.02429207,0.03362382,0.03597632,-0.06412650,0.14051861,0.01832456,-0.09215762,-0.01688889,-0.06708454,0.00626579,0.08752766,0.08158923,0.11914878,-0.01489934,-0.01489498,0.01359751,0.05734083,-0.09176610,-0.05929575,0.07406287,0.07403871,0.18386132,-0.11241969,-0.04385448,-0.15207222,-0.13722327,-0.17218256,0.02846424,0.08915533,-0.25193205,0.08398110,0.17037606,0.02560448,-0.00240174,0.07911777,-0.04627527,-0.15657055,0.10010919,0.14949013,-0.02230171,-0.08356797,0.13399331,-0.16947092,-0.04863274,0.02606628,0.02107111,0.00715597,0.04029019,-0.23645192,0.05000569,0.00173367,-0.01512658,0.01572466,0.04150100,-0.03947183,-0.02007386,-0.12370919,0.02796380,0.05787901,0.09389253,-0.06599046,-0.09225772,-0.11464294,0.03916600,0.04261510,-0.11726362,0.07468193,-0.07764466,0.06886625,0.21004179,0.00339570,-0.17929052,0.00998264,0.01793869,0.05315783,0.04347208,0.07731368,0.08827626,0.05671985,0.00502714,0.08484045,-0.00718472,0.06827087,0.04692244,-0.01140465,-0.14873140,0.00133967,-0.01799665,-0.07491025
-0.17608429,-0.00201303,-0.00199002,0.00902562,0.01554657,-0.04542424,0.08229378,0.03864902,-0.08761363,0.06572676,-0.00570618,-0.02665282,0.03404068,-0.01320267,0.11555694,-0.19453280,0.15626241,0.14801827,0.05746067,0.10941400,0.09263349,0.07067992,0.06940982,-0.01014743,0.09995958,0.07734712,0.11121886,0.17808571,-0.12067311,-0.16969295,-0.01955404,-0.31233606,-0.08188865,-0.09091604,-0.08749466,-0.18534829,0.06393671,-0.09835729,0.00380631,0.12651700,0.00887682,-0.16241714,-0.05335601,0.07850161,-0.13395974,0.06441969,0.03577789,0.01511937,0.26544091,0.05516674,0.05268221,0.12491147,-0.04932831,-0.00743548,-0.10449015,-0.10389340,-0.05682843,-0.04144106,-0.11000719,-0.06185953,0.07530212,-0.04197700,-0.03629472,0.06716395,-0.06236862,0.02675651,-0.11476571,0.11639844,0.08661558,-0.02979097,-0.04142706,0.15609220,-0.05176322,-0.00268310,-0.12230682,-0.13589320,0.10573704,0.02921174,0.01103257,-0.07570905,-0.04512157,-0.08167477,-0.09211891,0.12733947,0.10135409,0.02649821,0.00125214,-0.06266691,-0.15105696,-0.06967989,-0.02582725,0.21935524,0.12622271,0.06354526,0.01817720,0.05772246,0.14113922,-0.10535346,-0.11110411,0.06072020,-0.11735427,-0.00954850,0.09397551,-0.15291317,-0.18340278,-0.01549902,-0.06523844,0.04416121,-0.07157359,-0.07911184,-0.01536681,0.10607101,0.20998454,0.05531408,0.02733482,0.07781842,0.00487478,-0.09116001,0.09010264,0.00230557,-0.12330302,0.00112602,0.10007869,-0.03946483,0.00198840,-0.01762507,-0.10888899,-0.03239013
-0.00492441,0.00227782,0.00209470,0.02060036,-0.03362840,-0.00073315,-0.00740400,-0.00848357,-0.00727952,0.01469641,0.01897589,0.00243978,-0.02339936,0.03578355,0.00856420,0.00363235,-0.00531034,0.01682990,-0.02477943,0.00427946,-0.00083180,0.02475344,-0.00250360,0.00500241,-0.00760540,-0.01169143,0.02134196,0.01424654,-0.02550814,0.00183453,-0.00291419,0.00299930,-0.00273881,-0.00334969,-0.00226015,-0.00285477,0.00889898,0.00356272,-0.00217089,-0.01042234,-0.01156726,-0.01788319,-0.01906141,-0.00855980,0.02346484,-0.01312884,0.00109997,-0.01062783,-0.00816461,-0.01716291,-0.00351038,-0.01001409,-0.00281898,-0.01855566,-0.01244138,-0.01166179,-0.00071485,-0.02311666,-0.00462386,-0.00446207,-0.01770837,0.00315998,0.00639043,-0.01612561,-0.00882616,-0.00271597,-0.01006090,-0.01369928,-0.00548497,0.00363003,-0.00952500,0.00912966,-0.00556199,0.01067222,-0.02861923,0.01331747,-0.00461430,-0.01547395,-0.00383424,-0.00185623,-0.00298170,0.01138728,-0.03115055,-0.01242177,-0.01347201,-0.02180987,-0.00506336,0.03064924,-0.00298259,0.00640428,-0.00404002,-0.00325650,-0.01985446,0.00437953,-0.02981162,-0.00821296,0.00470788,0.00653926,0.02309017,-0.01346093,-0.00190739,-0.01716160,0.01578701,0.00049394,-0.01581081,-0.00799855,-0.01608061,0.00593391,-0.03003863,-0.02022446,-0.01349838,-0.02277904,0.01566167,0.01952202,-0.00302777,-0.01149210,-0.00084155,0.02270295,-0.00504301,-0.01677093,-0.03163402,0.02014950,-0.01746885,-0.00041980,-0.00846326,-0.01604300,0.00158012,0.01385840
0.01516883,-0.01474556,0.00345608,0.00979159,-0.02150017,0.01549426,-0.01496695,-0.01282065,-0.00073557,-0.01110226,0.02882464,0.01853461,0.00438906,0.01644232,0.01701968,0.00035174,0.01608107,0.02219974,0.00470772,0.00973381,0.00401594,0.02195785,0.01310216,0.01350590,0.02127274,0.00297878,-0.00388760,-0.01037459,-0.00538518,0.00874448,0.01318604,-0.00159493,-0.00708006,-0.01288339,0.00631625,0.00944139,-0.00296369,-0.01161476,-0.00687089,0.00785886,-0.01559967,-0.01714863,-0.00594775,-0.02255629,0.01401183,-0.01222312,0.00885537,-0.00000013,-0.03195797,-0.01949016,0.01653532,-0.01363570,0.02088283,-0.00149043,-0.01976757,-0.00796134,0.00005068,0.01217975,0.00361256,0.00953470,-0.01578258,0.00384404,-0.00371684,0.00126563,0.01517887,0.01213314,-0.01665375,0.00479607,0.01796733,0.00209042,0.00649055,0.03602345,0.00864736,0.00428172,-0.01173599,0.01556773,-0.00223987,0.00211831,-0.00382230,-0.00156963,-0.01929593,-0.00106870,-0.02812492,-0.00738405,-0.01691890,-0.00561628,-0.01087676,0.03574375,0.00407529,0.00735462,0.00079007,-0.00516800,-0.02583012,0.00773435,-0.00194440,0.00198913,0.00323551,0.00815117,0.01858729,-0.05242420,0.00010504,-0.02515300,0.00999986,-0.01076909,-0.01770017,-0.00894244,0.01252952,0.01977245,-0.00175161,0.00188363,-0.02558191,0.00459582,-0.00513482,0.00243664,-0.00799865,0.01122115,-0.01078178,0.01836970,-0.02104587,-0.02633010,-0.00520724,0.02450787,-0.00040590,0.01309241,0.01022325,0.00819819,0.00887584,0.01374102
0.00527953,-0.00500964,-0.00131821,0.00946305,-0.02318258,0.00327832,0.00461265,0.01269371,0.00576072,-0.00922626,-0.00946416,0.01314353,-0.02748602,0.01205173,0.00105054,0.00433637,0.00749732,0.01210446,0.00005401,0.01585972,0.00222478,-0.00547847,0.00177116,0.00714790,-0.00867784,0.01799018,0.00800913,-0.00537911,-0.01191099,0.00482289,-0.00967549,-0.02091892,0.00656033,-0.00628315,0.00470924,0.02549619,0.01475820,0.00003975,-0.00853715,-0.01230383,-0.00306957,-0.00509242,-0.00955223,0.00721568,0.00405172,-0.00017491,-0.00211643,0.00602998,-0.01805867,0.00205818,-0.00648937,-0.00098343,-0.00801967,-0.00816705,0.01113620,0.01147240,0.00925196,-0.00451730,-0.00068168,0.01682884,0.00467300,-0.00882179,0.03028443,0.01275164,0.00938469,0.01828131,-0.01304664,-0.02133588,0.00092796,-0.01087178,0.00964999,0.02078077,-0.02540553,0.00851201,-0.00576454,-0.00329988,-0.00976585,-0.00572143,-0.00710728,0.01702429,-0.01962798,0.00401250,-0.02921753,0.00172310,-0.03019370,-0.00252476,-0.01812368,0.02430534,0.00182118,0.01505548,-0.01494968,-0.00378591,0.00197886,0.00244357,-0.01208694,0.00548658,0.00976133,-0.00579853,-0.01377215,-0.04178365,0.00755625,-0.01578519,0.01426550,-0.00831141,0.01610485,-0.01038807,0.01196835,0.00687323,-0.02253085,0.02370521,-0.01982643,-0.00952465,-0.01705942,0.00545410,-0.00221458,0.01023212,-0.00169531,-0.01134254,0.01021416,-0.01305372,-0.00392622,0.01835534,0.01665155,0.00442141,0.00739988,-0.01199424,-0.00116008,0.00584522
-0.03809693,0.01837272,0.02983924,0.01313511,-0.02416999,-0.09848881,-0.04596423,-0.12056267,-0.03046994,0.01335532,-0.06626563,0.06066890,0.03655794,-0.12878071,-0.07348502,0.11561180,-0.03919033,0.14047590,-0.01333991,0.09567276,0.11372782,0.10926497,-0.06105732,-0.07796293,-0.06563576,-0.12481787,-0.02482664,-0.03791217,0.06079820,0.08133629,0.09486799,0.03718488,0.02212353,0.18607341,0.04135471,-0.08571777,-0.12048906,-0.06442498,-0.04128752,0.00247057,0.00236905,0.04655003,-0.01067708,-0.04295412,0.18295971,0.07202344,0.03375782,-0.06353033,-0.10066950,-0.14008668,-0.12820646,-0.04089008,-0.06676619,0.00256345,-0.08290086,-0.07215116,-0.17742535,0.03564394,0.06525648,-0.05039940,0.08938961,-0.02651348,0.08727083,0.02286209,0.08779481,0.08799723,-0.02199241,0.10651723,-0.02766323,0.12477190,-0.02038417,0.10855508,-0.07561552,0.01111755,0.04770884,0.05087472,-0.08358821,-0.18602303,-0.03749923,0.01544270,-0.11037253,-0.03005351,0.12146261,-0.07074837,0.03906296,0.11359542,-0.01175041,0.06146178,0.04891995,0.17881271,-0.02768845,0.08362756,0.06669824,0.02279883,0.00048187,0.04867448,0.00179055,0.04714353,0.12596755,0.01192478,-0.07989002,0.02254064,-0.14595707,0.03456997,0.12721929,0.06050580,-0.01184943,0.01456981,-0.06155077,0.01517104,-0.03378766,0.08617128,0.03712762,0.06844496,-0.01930558,-0.23835076,-0.01815807,-0.05194912,-0.04176583,-0.30940819,0.02392870,-0.03348932,-0.07128068,0.17424950,0.04507479,0.03226698,0.04015412,0.00241563
0.00213225,0.07446129,-0.00995309,-0.09038194,0.00698804,-0.08933793,-0.11109204,0.03931294,0.09730788,0.03082936,0.07012591,0.10733233,0.02107381,0.01554265,-0.23712446,0.02400742,-0.00863851,0.17468891,0.04241018,0.03649493,0.00416092,0.03615274,0.00527328,0.15024237,-0.04643839,0.09458717,0.01342598,-0.14404269,-0.11605024,0.06157505,0.07201333,0.00898925,-0.00149603,0.17539528,-0.11956247,-0.02317417,-0.05842997,0.06566019,0.08795901,-0.03778407,-0.06979892,0.06914998,0.20865324,-0.05335109,0.08290545,0.03935768,0.15138020,-0.13530929,-0.12845771,-0.20393977,-0.04659024,-0.04947339,0.05561970,-0.11843845,0.00200521,-0.07520240,0.07524922,-0.01025860,-0.15742283,0.03918889,-0.06262182,0.10507400,-0.03915850,0.00307355,-0.00487739,0.08303665,0.04880873,-0.00576617,0.10016089,-0.00811920,-0.07269652,-0.23588319,-0.05022752,-0.05651193,0.00164331,0.11429397,-0.09169353,-0.12336212,0.04820433,-0.05425661,-0.04295129,0.30839863,0.13478979,-0.00163032,-0.01856604,-0.05534785,0.03518185,0.20932314,-0.12383966,0.11207364,-0.09695508,-0.18733925,-0.16923386,0.02005098,0.11104805,0.21457909,-0.05695445,0.09936625,-0.03705436,0.05049598,0.04393800,0.09664356,-0.23578098,-0.02567079,0.25442648,0.04749038,-0.06965410,-0.00176531,-0.19713660,-0.00239332,0.10538181,-0.09034385,-0.12599057,0.00000398,-0.05844876,0.02148117,0.00559775,0.02478176,-0.01010157,-0.23459895,-0.08280597,-0.15519485,-0.06597693,-0.02190406,0.12407999,-0.00977127,0.09140592,0.11909694
-0.00454095,-0.08497761,-0.02097676,0.09492904,0.06775654,-0.01505230,-0.06850050,0.22785008,0.01555441,0.13618624,-0.16196537,0.03702536,0.10486343,0.03324526,0.18258053,-0.03045879,0.00450873,-0.19396085,0.04804150,0.20186056,-0.07621575,-0.06038880,-0.02066045,-0.00364782,0.04709198,0.00254144,0.08295108,0.04379217,0.04792361,0.07034701,-0.12828900,-0.00534092,-0.02195941,0.08633743,0.08661012,0.14794648,0.09029607,-0.19389170,0.06161876,0.01392825,0.07088891,0.09571197,-0.15640017,0.02138426,0.03558278,-0.10515954,-0.09924097,0.03081254,0.19907007,0.14109989,0.02771312,0.10033470,0.04441348,-0.07389671,0.09432003,0.13492554,-0.02203623,0.07096825,0.11458579,-0.15623704,0.09364553,-0.11968132,0.10582113,0.01485368,-0.17273901,-0.06361619,-0.05509142,0.04067003,-0.18667661,-0.16088226,0.18680447,0.08184462,0.09396477,-0.02163864,-0.01949193,0.04344203,0.05421833,-0.04729848,-0.07695521,0.05850192,0.08186671,-0.18577161,-0.18204717,0.04626682,-0.23083021,-0.11984570,-0.00398496,-0.15256922,0.07805221,-0.22250628,-0.02501028,-0.08534161,-0.18379009,-0.14807072,-0.10601623,-0.16864519,-0.01402629,-0.03969813,0.07315276,-0.04349116,-0.13734135,-0.01678820,-0.00434095,-0.02585927,-0.15072614,-0.02237034,-0.11028915,0.12409063,0.27069345,-0.00245209,-0.22894743,0.18006857,0.13935342,0.02906924,0.11844518,0.01314317,0.04046693,-0.05564282,0.13294591,0.25376433,0.06609192,0.16455099,-0.02426412,-0.01607869,-0.08669711,-0.05027001,-0.11752500,-0.01013529
-0.16057757,-0.05870831,-0.06065816,-0.08161820,0.04239739,0.11814870,0.12249103,-0.00095271,-0.10349789,0.01637011,-0.13124789,-0.03805259,-0.06793644,0.03796908,0.09890580,-0.05534699,0.08715070,0.09950334,0.01468469,-0.03843492,0.12319806,-0.03286700,0.01625501,-0.09303498,0.12575963,-0.18225263,-0.20817836,0.13604447,-0.02195776,-0.12285677,-0.01218215,-0.16402628,-0.02919016,-0.17248650,-0.01484669,-0.12960100,-0.01991675,-0.07366132,-0.06589735,0.09884418,0.05665633,0.07938814,0.14779106,-0.07767421,-0.05400446,-0.12320364,-0.04193768,-0.21620658,-0.01697493,0.18450062,0.21253192,0.10376360,0.08690926,0.06256568,-0.05801479,-0.14736375,0.18294239,-0.06912997,-0.12697171,-0.01357414,0.16491207,0.20509654,-0.10831766,-0.08728467,-0.07092381,0.15668850,0.00535050,-0.01327334,0.07201973,-0.02564359,0.03425165,-0.14911123,0.05173349,-0.06851786,-0.16416147,0.04767575,0.05141930,0.01408916,0.11193206,-0.10979212,-0.04832581,0.09345003,-0.14242865,0.05310353,-0.11732462,-0.10400421,-0.04118623,-0.06123454,0.09232485,-0.08288397,0.15595789,-0.01082074,0.03240737,0.12455209,0.12364603,-0.08012024,0.05921902,-0.27761626,0.04262948,0.14139082,0.11509551,0.03389298,0.11308837,-0.10497043,0.09971838,0.05435064,0.03326393,0.02042538,0.11788954,-0.05121673,0.09622069,0.06027164,0.07558176,-0.06390155,-0.04053553,-0.04606414,-0.09762084,0.07548735,0.07715128,-0.04165738,-0.01854197,0.08303861,-0.00772709,-0.04018020,-0.03702442,-0.09067088,0.02176364,-0.05222564
0.08883701,-0.03464685,0.00297190,-0.10792726,-0.16457188,0.01808375,0.04635110,-0.04135529,0.06285109,-0.09952405,0.07703847,0.13545039,0.03398044,-0.05013838,-0.12575857,-0.05680438,-0.11658640,0.03667491,0.14496993,-0.03819838,-0.06281640,0.14846356,-0.00431933,0.14267218,-0.11198502,-0.06060405,0.04714484,0.05630455,0.08545284,-0.00031657,-0.00537295,0.06491909,-0.00964474,0.05557431,-0.04569758,0.03679526,0.07553375,0.05052769,0.06540899,0.10484236,-0.00400041,0.19678724,-0.00773452,0.00826612,-0.05228996,-0.01037759,-0.00488433,-0.08483527,0.00459203,0.08317523,0.08012806,-0.09630470,-0.07297127,-0.04331145,-0.05574466,-0.05391964,-0.08767746,-0.12264992,-0.06967348,0.01181080,-0.07437504,-0.04020773,0.04030026,0.09238315,-0.05730154,0.00408475,-0.03892497,-0.18336122,0.01676148,0.07052437,0.00746950,-0.01420603,0.10136554,0.05791387,0.12496892,-0.16174251,0.01935971,0.02377651,-0.07191373,-0.16679469,-0.14919890,0.08462418,0.12104873,0.02683223,0.05018672,0.06825146,0.02179755,-0.04879072,-0.02283325,0.09781080,-0.08179148,0.03308542,-0.00849686,-0.04636563,0.04634708,0.03064803,-0.05890825,0.09386780,0.13620996,-0.00651689,-0.02757329,0.08208251,0.03995131,-0.05343277,0.09378926,0.13073692,0.06305539,0.08406463,-0.17863965,0.17272450,0.04176168,0.07517485,0.00730185,-0.01782002,0.03934332,-0.19425808,0.02786013,0.02003646,0.04903604,0.00372855,0.00753450,-0.00753066,-0.11474466,0.04698728,-0.08819980,0.15650189,0.05600012,-0.08377288
0.02229059,-0.00714476,0.00518463,-0.01079338,0.00205143,0.01969115,-0.00675869,0.00008865,-0.00825120,0.00067193,0.00085154,-0.00746880,0.01895805,-0.00497713,-0.01629682,-0.01100319,-0.01963778,-0.01575942,0.01166994,0.00014227,-0.00255767,-0.01600671,0.00247626,-0.01059364,-0.00283435,0.00502235,-0.02382095,-0.01320889,0.01199379,-0.00603783,-0.00067324,-0.00849961,-0.01159861,-0.01082574,-0.00470039,-0.02565100,-0.01885700,-0.00890974,-0.00383655,-0.01688085,0.02481026,0.00611346,0.01330832,0.01394030,0.00787601,0.00963707,-0.00882490,0.01278285,-0.00474991,0.00949832,0.00841737,-0.00953526,0.00427896,0.00163876,-0.00464455,0.01620817,-0.01387044,-0.00227605,0.01892059,0.00476260,0.00022411,-0.00611350,0.00795314,0.02305072,-0.01306834,0.02271568,0.02176546,0.00243772,0.01888198,-0.01223797,-0.01202478,-0.01144606,-0.00414080,0.00625511,-0.00264426,0.02165369,0.01669723,-0.00188651,-0.01489870,-0.00184145,-0.00158485,0.00531519,0.03351728,-0.00295204,0.01588255,-0.00811490,-0.01073384,-0.01962876,0.01163655,-0.00322257,0.02351388,0.01788012,0.00192874,-0.01619369,0.00052700,-0.00751673,-0.00904497,0.01732759,-0.02302121,0.00527740,0.00380344,0.00770384,-0.01001430,0.00906854,0.02219584,-0.00130716,0.00734127,0.00391455,-0.00446711,0.02589189,0.00930300,-0.01785986,0.00048374,-0.02060716,0.02675461,-0.01019543,0.01185417,-0.01498872,0.00113186,0.00873386,0.01693548,0.00664068,0.02138884,0.02123389,0.01082218,0.00329962,-0.00590299,-0.02246420
-0.06635725,0.03309537,-0.01969020,-0.08108943,-0.01984506,0.03350186,0.00916895,0.25701669,0.07213960,0.13859414,0.08632082,-0.11165955,0.03125381,-0.01645363,0.18519655,0.01652659,-0.13781884,-0.08666481,-0.00782392,0.06426167,0.09284499,0.05085640,0.00027843,0.09351314,0.02521699,-0.06371032,-0.04966844,0.10966019,0.02076387,0.08568521,-0.00044509,-0.16568521,-0.02195041,-0.06297528,-0.01216068,-0.04657744,0.12020164,0.06992238,0.00612648,-0.02661552,0.03450457,-0.08588608,0.03403868,-0.24656661,-0.03145179,0.11051590,0.04051813,-0.03772045,0.02105097,0.05973803,-0.13629064,-0.04224542,0.07728056,-0.03542520,-0.07242872,0.00333777,0.05265057,0.02863380,-0.01028696,-0.06318894,0.06667674,-0.02254762,-0.00157232,0.16693921,0.06459200,-0.09072570,-0.06658200,0.04406269,0.18169171,-0.12751557,0.10374720,0.15190271,-0.15561308,-0.07975959,-0.01019893,0.05015769,0.21342394,-0.04745367,-0.04679603,0.06336033,-0.05907984,-0.04947581,-0.00687304,0.01148857,0.11976419,-0.03483064,0.03102676,0.11426999,0.09416446,-0.17337385,0.09603997,-0.03256766,-0.05584259,0.00936749,-0.05093905,-0.03986507,-0.05597331,-0.13597552,-0.04375752,-0.02116131,0.05931399,-0.05011338,-0.04599645,0.00868225,0.01742608,-0.09830203,-0.04458412,-0.07654364,0.00731902,0.02507695,0.01660563,0.11494766,0.03604221,-0.00581627,-0.13943769,0.05834064,-0.03371616,-0.01253383,-0.08961318,0.09316414,0.04288626,-0.00157110,0.09759844,0.02453235,0.03098332,-0.03864752,-0.08344932,-0.03938137
-0.01434520,-0.07997226,-0.05362064,0.25134289,-0.11691243,-0.08719600,0.12996316,-0.12383886,0.03930326,0.07411432,-0.10941429,-0.15876050,0.10665458,-0.08511174,-0.08346267,0.00671781,-0.13969144,-0.04219977,-0.04122899,-0.12336443,0.07214313,0.09684121,0.00281097,-0.01612759,-0.01680811,-0.01889584,-0.06165581,-0.05125872,0.01150102,0.12325549,0.09168541,-0.00304529,0.03704091,-0.00478301,0.09197204,0.08844179,0.05425912,0.06449748,0.07282367,0.01430020,0.08756650,-0.00602812,-0.13105637,0.00845416,0.14677979,-0.01417929,0.18449824,0.05808627,-0.00932696,0.10301832,-0.10087035,0.06798156,0.11348853,0.06349088,0.06147585,0.22675051,-0.23036928,0.04902915,0.12466205,-0.04039872,0.04335132,0.05805930,0.06561049,0.01349883,0.00213801,-0.00181921,-0.04900934,0.03453948,0.03298539,-0.00025669,-0.06325731,0.05124292,-0.07149197,-0.07259972,0.03003910,0.01718290,-0.05376106,-0.00541443,-0.01405934,-0.04185890,0.05942385,-0.01921644,-0.06323668,-0.00525465,-0.15895987,0.06813501,0.12145825,0.18619418,-0.08326762,0.14433533,-0.01287547,-0.10122459,-0.03994910,-0.12580144,-0.10389844,0.08159714,-0.02316777,0.01011211,-0.05188163,-0.10647861,-0.02597873,-0.01406629,-0.02660738,0.07825013,0.02952903,0.17234483,-0.05908021,0.00151471,0.00259762,-0.02078347,-0.09217655,-0.16969101,-0.05672507,0.02020237,0.01982431,-0.04976432,0.02101683,0.12217388,-0.03637995,-0.01409466,-0.09787262,0.06819773,0.10857830,0.01271991,0.02352368,-0.04031279,0.07284063,-0.04388101
0.04697718,0.04352868,-0.01970679,-0.05568023,-0.02314608,-0.08670136,0.02521448,-0.22533542,0.04502643,0.01189130,-0.25822181,0.00094512,-0.08420508,-0.01555938,-0.01219473,0.09755249,0.01193679,0.02426657,-0.14210001,-0.06787368,0.00905632,-0.16039418,-0.00787577,-0.03144782,0.00616490,-0.02554708,0.08286520,0.05097845,0.05597327,-0.10389946,-0.10694867,0.08844824,-0.00868101,-0.02523035,-0.02722329,-0.01168853,0.01621185,0.03331243,-0.16809249,0.01856641,0.02852363,-0.03284994,-0.00475901,0.07570191,0.06050861,-0.05842256,-0.01202195,-0.06121321,0.15024374,-0.08136088,-0.00431972,0.13602766,-0.06485946,0.10318331,-0.00606602,0.06072376,-0.05679009,0.04566653,0.03022642,0.10230897,0.07724448,-0.05744775,0.00592653,0.07176158,0.01289952,0.09751618,-0.05585576,-0.02815431,0.13408327,0.08334067,-0.12140740,-0.10238116,0.00666201,0.05755119,0.02555287,0.11156161,0.06512751,0.08762604,-0.02835951,0.02591782,0.10300960,-0.11174699,0.12586170,-0.02324739,-0.02063061,0.02927988,0.05808593,-0.09743663,0.07542614,-0.04009171,0.12543701,0.09856585,0.01746259,0.07618443,-0.03703546,-0.02185322,0.07398920,-0.02632391,-0.00569869,0.12071621,-0.05069011,-0.07951763,0.12578048,0.07815918,-0.07753138,-0.21837355,0.03410862,0.03361915,0.05194800,-0.01656975,0.04434721,0.05607786,-0.06256591,-0.08865223,0.01099308,-0.04386259,-0.16504651,0.01231723,-0.00852236,0.10123298,-0.03984031,-0.08671387,0.06345826,0.01080187,-0.08867528,-0.03435041,-0.05989956,0.00402901
-0.07811437,-0.03199958,-0.04027635,-0.04259450,0.07627957,0.12552121,0.06405358,0.08098523,0.07035039,0.20218138,-0.04043217,0.05891363,-0.10979689,0.04865625,-0.03736743,0.05590082,0.10035761,0.00968192,0.07078477,0.04789668,-0.16312318,-0.12518883,0.08236001,0.06916869,-0.04088773,-0.00235459,-0.23139712,-0.02419575,-0.04892970,-0.23839860,0.08674491,-0.15976122,-0.11016119,0.06462131,0.09431991,0.14797816,-0.04733968,0.01611921,-0.14848429,0.12644666,-0.03999981,0.00387025,0.05431753,-0.02701490,-0.14270221,0.07813326,-0.04617462,-0.17741266,0.05512641,-0.17164060,0.03762169,0.02860833,-0.00031694,0.13124192,-0.01921209,-0.14228374,0.20866141,-0.03970683,-0.13616520,-0.03388285,-0.11812793,-0.19536662,0.03008954,-0.13184035,-0.02309491,0.00011432,-0.03032851,0.01738130,0.04780370,0.01890298,0.13042992,0.00157920,0.11058106,0.03140515,0.03667597,-0.04623684,0.03838194,0.05308549,0.09777012,0.11815792,-0.16279769,0.03550386,-0.07583582,-0.04729391,0.00885448,-0.19083035,-0.06240957,-0.15256508,-0.04958261,-0.13038304,0.10873847,-0.00485366,0.07844088,0.09455457,-0.06117906,0.06392858,0.03311383,0.07800352,0.17160408,-0.01426658,0.22973596,-0.00664890,0.09351826,-0.08458604,-0.12910922,-0.11431163,0.09647204,0.02761627,-0.09544836,0.18389732,0.11827276,0.04149742,0.10258190,-0.04526299,0.01728808,-0.01840976,0.14082810,-0.02524881,0.08202937,-0.08058623,-0.15859711,0.01712366,-0.09841225,0.02562516,-0.00915456,-0.06782358,-0.03039225,-0.06617705
0.01061455,0.00093636,0.02017877,0.14055191,-0.07295514,-0.15868385,-0.07927328,-0.02256622,0.08694671,0.06216317,-0.01910101,-0.17489347,0.06165719,-0.10766025,-0.08375234,0.04341019,-0.08468758,-0.01979403,-0.07801543,-0.12560728,0.14335974,0.13035138,-0.00843738,-0.15099396,0.01635187,0.04227944,-0.05533094,-0.04180548,0.00551629,-0.07094901,0.02368156,0.04951692,0.02794652,0.06302127,0.05910944,0.15923642,0.03200657,0.07760771,0.03443383,-0.16033414,-0.05906120,0.00017615,0.09546461,-0.00774479,0.13924016,-0.01591369,0.10291562,0.02881439,-0.08557881,-0.12806533,-0.06297627,0.01122653,0.11273373,0.00360622,0.05835809,0.29463848,-0.11545639,0.04374451,0.13628878,0.06321263,-0.05169011,0.06296021,0.05818509,0.12208529,0.00464355,-0.05903701,-0.06967107,0.03643315,-0.07161147,-0.03506795,-0.07039792,-0.00287707,0.00710092,-0.02927472,0.08816418,0.03353818,-0.14751677,-0.00049793,-0.06262337,-0.06232367,0.07317902,-0.12501888,-0.04174551,-0.04736188,-0.09001967,-0.02355396,0.07465877,0.29756770,-0.17039871,0.02717295,0.04351716,-0.13275772,0.07921587,-0.01220195,-0.09784295,0.03318819,-0.10353825,0.14593779,0.02771396,-0.03613587,-0.04725106,-0.04861262,-0.16469364,0.20748070,-0.13640478,0.07164919,-0.05319814,-0.03951669,0.05948037,0.17505185,-0.12217283,-0.00004613,-0.03554422,0.09516959,0.06152834,-0.11038191,0.01090503,-0.03532331,0.02627406,0.03864167,-0.05165766,0.02795748,0.15018958,0.05717660,0.14627403,0.00748920,0.11316947,0.03339946
-0.06374293,0.05740788,0.02752553,-0.10743470,0.10527588,0.10005831,0.00949287,0.00717606,0.11080030,0.04845924,-0.09336429,0.14468534,-0.13478401,-0.05236883,0.08833085,0.01431085,0.01185228,-0.05384370,-0.10078327,-0.03659852,-0.16655295,-0.04145119,-0.01554080,-0.00228232,0.00316486,-0.13586603,0.08998316,-0.05694912,-0.09408122,0.02616368,-0.01867834,-0.19765088,0.03454969,0.02505028,0.11826043,-0.11379376,0.02559493,0.00070497,-0.02751332,-0.00093500,0.10031126,-0.07388397,0.18551314,0.00995365,-0.02753501,-0.06022392,-0.04882229,0.06098999,-0.05077115,0.01791599,-0.10338590,0.00419109,0.12011409,0.03328526,0.00963913,-0.03468841,-0.02100274,-0.02195733,-0.00603446,0.04934460,-0.06744321,-0.06652813,0.07137275,0.01449747,0.01939310,0.02724487,0.12936623,0.00701985,-0.15700945,-0.01909187,0.08449337,0.14297779,-0.00858899,0.09047067,0.05020740,0.08452462,0.03444815,0.20754793,-0.02725061,0.07424072,0.02684592,0.03113194,0.00994737,-0.03739452,0.00076897,-0.01168497,0.02258131,0.00152400,0.08293089,-0.02956487,0.07182629,-0.09667728,-0.07821196,-0.05420020,-0.16014422,-0.10372803,-0.07163793,-0.05797618,-0.07024995,0.10648984,0.13638434,0.05224883,-0.04496096,-0.02370674,0.12531395,-0.06372916,-0.07182729,-0.05253186,-0.01459262,0.10873596,-0.08249773,-0.02335942,-0.04675660,0.03596899,-0.10706501,-0.00043600,-0.02576277,0.02436079,0.04697461,0.01125688,0.03023841,0.09796522,-0.04501395,-0.05301734,-0.00217195,-0.00828573,-0.04122318,-0.00733894
-0.02535164,-0.03509787,-0.00702497,0.70012659,0.06951670,0.09416244,0.20250255,-0.01005153,-0.01438573,0.09165879,-0.20471151,-0.34750158,0.13509057,0.06752963,0.01995686,0.05186132,0.00144655,-0.11416522,-0.07955416,0.01601084,-0.02914774,0.08475069,0.02400118,-0.12575629,0.05600344,0.00491337,-0.06645568,0.11806300,0.00800515,0.10680817,-0.06478584,0.09311115,-0.01043461,-0.03061105,0.10053771,0.19625129,0.17043833,-0.05299664,0.03385188,0.02829479,-0.01394496,-0.14345047,-0.65882438,-0.04936036,-0.03591678,0.01967605,0.02362012,0.05123024,0.14452626,0.17626587,-0.09651895,0.09385648,-0.08823323,0.00370834,-0.02472262,0.56890386,-0.47697166,0.09516675,0.38362896,0.00701596,0.09548229,-0.04555303,0.06084909,-0.04636173,0.01778434,-0.21642208,-0.03811235,-0.04421789,-0.07610441,-0.01196726,0.12753287,0.18205227,-0.07626111,-0.06359275,-0.03320618,-0.00803944,-0.01439194,-0.11531096,-0.11480068,-0.00923830,0.00038956,-0.65361863,-0.26251367,0.07079526,-0.04208617,-0.02057804,0.09263682,-0.04766503,0.01453662,-0.08135393,0.04883945,-0.02263391,0.19255885,0.00484608,-0.17215921,-0.24196874,0.03250273,-0.11073782,-0.00197128,-0.13453461,-0.13540640,-0.13284194,0.09896564,0.04787485,-0.55019599,-0.00104308,0.06290823,0.07693225,0.40124759,-0.13833506,-0.49684906,0.10635910,0.09556169,0.05030534,0.27650410,0.05134689,-0.01997298,-0.06679682,0.05916746,0.29333559,-0.05076924,0.17675027,0.14614762,0.04691798,0.06641168,-0.15469398,-0.07966270,-0.03122533
0.01112138,-0.00172045,0.01668197,-0.01494510,0.01737824,-0.00140375,-0.00248054,0.00846843,-0.00462992,0.00480335,-0.01152590,0.00656843,0.00852552,-0.01213149,-0.01487320,0.01167059,-0.01561122,-0.03365532,0.00570637,-0.00247719,-0.01110855,-0.01155121,-0.01332586,0.00394562,-0.00438497,0.00302045,-0.01958765,-0.00320474,0.01817697,-0.01413420,-0.01783880,-0.00683811,0.00401148,-0.01126440,-0.00881706,-0.02229861,-0.00992718,-0.02041010,-0.00078349,-0.03428221,0.02694538,0.01102832,0.00012785,0.01786920,-0.02283554,0.02446179,-0.02497478,0.01757803,0.02182116,0.01089469,-0.00357682,-0.00187423,0.01627216,0.01592013,0.00466182,0.00277597,0.01408188,0.00426688,-0.00424165,0.00250155,-0.00292888,-0.00772939,-0.00374846,0.01853326,-0.03700519,0.00521384,0.03028972,0.00060597,-0.00638609,-0.00316218,-0.01374671,-0.01550850,0.00103734,0.00299332,0.00169717,0.01056679,0.01263976,-0.00756036,-0.02260993,0.00282153,-0.00589177,-0.00398402,0.02733304,0.01588368,0.01596764,-0.00510794,-0.00440606,-0.01362457,0.01570339,-0.00167415,0.01815872,0.00629309,0.02953289,-0.04005053,0.01181823,-0.00220350,0.01346664,0.01958499,-0.01572872,0.03540350,0.00592242,0.01584567,0.00044973,0.00763341,-0.01532380,-0.00740016,0.00588991,0.00047017,-0.00611600,0.04235238,0.01080498,-0.01083332,-0.01247684,-0.00155945,0.01196800,-0.00905259,0.00450339,0.00478306,0.00199922,0.01693458,0.02661592,0.00137816,-0.00509210,0.01472901,0.00814230,0.01165098,0.00075664,-0.00347451
0.08449589,-0.05876053,-0.01830942,0.13244425,0.00564380,-0.14242488,-0.03838107,-0.03224765,-0.04204647,0.06392066,0.00490549,0.01914311,0.09125619,-0.04969658,-0.01948574,-0.05247699,-0.00658304,-0.00363906,-0.10519921,-0.10459286,0.09585508,0.10888895,-0.01287705,-0.12928462,-0.01259765,0.10253374,0.07735723,0.04393057,0.00069125,0.07685557,0.04812432,-0.00372373,0.02489722,0.08779898,-0.02544145,0.05286559,-0.01000059,0.06810365,0.08992800,-0.09037741,-0.10709132,-0.01083166,-0.30780995,-0.04760451,0.13981488,0.06943905,0.14648606,0.13319518,0.07816987,-0.11205383,-0.03177431,0.00883067,-0.06383417,-0.07813182,0.11598222,0.10530312,-0.08913143,0.07756332,0.10685161,0.08785764,-0.05732153,0.20029707,-0.02721259,0.16228434,0.02884244,-0.08728782,-0.05599773,0.12705024,0.00020266,-0.01781020,-0.07701645,0.11330815,-0.07333368,-0.03026551,0.02350093,-0.06368715,-0.00287241,-0.06558983,-0.00803664,-0.01763189,-0.05686278,-0.13477063,0.01201598,-0.09249482,-0.02724813,0.08668166,0.02962332,0.05270019,-0.13298337,0.04921529,-0.03707307,-0.02429685,-0.01641501,0.00152566,-0.01471925,0.07209367,-0.01245577,0.00598559,0.07489470,-0.05988275,-0.11548958,-0.06189628,-0.07342626,-0.00889767,-0.14228362,-0.00321047,0.03487078,0.04395773,0.02995064,-0.06133121,-0.03577272,-0.23807223,-0.06401180,0.05221171,0.24927156,-0.08066198,-0.16692653,-0.05010300,-0.02346047,0.04235123,0.11598035,-0.08066668,0.09952524,0.06031981,0.08761501,0.01065251,0.08856656,0.10090691
-0.06425128,0.08370341,0.01025920,-0.23991413,0.01869023,0.05764312,0.10131808,0.03849467,-0.02588479,-0.05523882,-0.18182801,0.00019387,-0.16646570,-0.04108735,0.08943179,-0.07765778,0.10791689,-0.03954224,0.05348125,0.03050901,-0.06609622,0.08492505,0.03749167,0.03456014,-0.10603578,-0.16953176,-0.14859922,0.03020933,0.15896423,-0.09998708,-0.04694954,-0.07223973,-0.03129338,-0.11283965,0.12173556,0.00093282,0.05211211,-0.05870774,-0.09919225,0.00027643,0.16166338,0.08286528,0.21482666,0.01445643,-0.02985133,-0.12710795,-0.10506746,-0.02084489,-0.13561982,0.01805202,0.04480233,0.08655898,0.05391840,0.06558758,-0.09169357,-0.16076954,0.03938820,-0.07713956,-0.10188369,0.00887509,0.04799295,-0.02569022,-0.08189694,-0.15297677,-0.00130422,0.10632880,0.07278740,0.03469880,0.00802137,-0.06136508,0.03642616,-0.23039429,0.00325773,-0.00132316,0.02827562,0.03195661,0.10359240,0.01634286,-0.02798431,0.10409021,0.14135113,0.10615274,-0.01739200,0.02062600,-0.01462111,-0.05033485,-0.00717788,-0.06870982,0.05375512,-0.03805112,0.11560908,-0.01026504,0.02718417,0.04908551,-0.08942950,0.02385897,-0.02953185,0.11186384,-0.04214981,0.07468534,0.00411133,0.06195018,0.08555419,0.06127925,0.08042716,0.00325421,-0.01191742,-0.04459845,0.02917284,0.25224957,0.14671062,-0.06173394,-0.02319423,-0.08704170,-0.05485381,0.16659679,-0.03478147,-0.01157744,0.05828360,0.00161484,-0.01974620,0.06428166,-0.11612247,0.00244799,-0.01962611,-0.10726196,-0.14054845,-0.15661475
-0.06466018,-0.07076068,0.01808513,-0.18909511,-0.02053986,0.07957754,-0.05918148,0.02317516,0.02868828,0.09081409,-0.02643655,-0.00146358,-0.02765644,0.03814362,-0.06001622,0.00676620,-0.14140998,0.06303051,0.05351861,-0.05198675,-0.04940717,0.02690002,0.00517160,0.04162440,0.01639027,-0.02544042,-0.12984502,-0.06089861,-0.11774351,-0.06327151,-0.07194687,-0.07618292,0.03345376,0.08287469,-0.00200764,0.06760480,0.02166787,-0.04880800,0.07309657,0.00639350,-0.00005674,-0.13053936,0.04121077,-0.00493106,-0.02791512,-0.04398546,0.01194438,-0.12157868,0.03574829,-0.07744891,-0.08508073,0.00184837,-0.04852324,0.08837470,0.05301930,-0.13098016,0.01083322,-0.01146785,-0.13773261,0.06051236,0.00156230,-0.14360557,0.02625255,0.06942864,0.08706410,-0.11540732,-0.01342374,-0.00181215,0.00473737,0.00046178,0.00726716,-0.22122473,-0.04943964,-0.00295904,0.15106142,0.13817336,0.08042245,0.11835653,-0.00327074,0.03564273,0.06304856,0.02127091,-0.03952247,0.07323656,0.03990837,0.00436128,0.03552279,-0.11334472,0.11214773,0.01589759,0.01872676,-0.05383119,-0.08490120,0.02277544,0.01776345,0.05574171,0.05251012,0.03813803,-0.11120536,0.10610899,-0.01850554,-0.11008906,0.05315549,0.09188974,0.13616650,-0.07328116,0.07535881,-0.03395014,0.09147852,-0.00256489,0.13477185,0.01510865,0.01184575,0.02411742,0.00510690,0.03942199,-0.08160658,-0.02361824,-0.16097544,0.01870436,-0.07296143,0.04923316,0.03533829,-0.04108863,0.01037141,0.01857736,0.08961956,-0.00839976
0.08840036,0.03454633,-0.08733208,-0.21173929,-0.01083180,0.02320840,0.04922831,0.06345746,-0.05363082,0.07056849,0.22103512,-0.04401667,-0.07821590,0.08305030,0.05762805,0.04603236,-0.10336751,0.03909566,-0.02882938,-0.04958904,0.10159615,0.13089325,0.07345603,0.13323329,-0.00592868,0.08127826,-0.21051444,0.07893442,-0.10741223,-0.00457246,0.01015777,0.12292822,-0.01703608,-0.02648899,-0.03428667,-0.07112239,-0.05287562,-0.00077022,-0.12781338,0.06039127,0.04109279,-0.11163211,0.18072110,-0.09978934,-0.03436720,-0.06205838,0.01291695,-0.12499447,-0.00208082,-0.11010803,-0.01370888,-0.00771229,-0.10247745,-0.11899991,0.02050860,0.10161678,0.11567222,0.00383916,0.02448666,0.27989465,0.16750404,-0.00317261,-0.08037651,-0.16740791,0.05548907,-0.20608875,0.06211798,-0.07384774,-0.18068035,0.01429178,0.05574951,-0.17833661,0.08206117,-0.05950245,0.00093645,0.20123507,0.16301727,0.01751975,0.05182642,-0.03478567,0.02130204,-0.07549757,0.02363402,0.12947841,-0.04918259,-0.02759697,0.10096872,-0.05799747,0.07527086,0.04884414,0.10159541,-0.07777987,-0.10004183,0.10622182,0.08095909,0.21017812,0.08967263,-0.08295430,0.01128070,0.02821796,0.01383969,0.06262300,-0.11257008,0.08220027,-0.00669955,-0.01521748,0.11906389,-0.07392003,0.09736393,0.00488072,0.20334914,-0.09399226,-0.14181143,-0.02959660,-0.01326044,0.10392280,-0.03062527,-0.02365036,-0.20380299,0.00555852,-0.11976093,-0.13599490,0.02574118,-0.13609535,-0.00994045,-0.02098993,0.09021590,-0.03220208
0.05055163,0.02758014,-0.03546568,-0.15085781,0.07543364,0.06988563,-0.17634664,0.03780294,0.03890726,-0.01690261,0.06432787,0.12981188,-0.04070077,0.15874448,0.03464171,0.15266769,-0.07638378,0.00214507,0.04837145,0.02212090,-0.03072583,0.08522831,0.05659705,0.08109712,0.01080484,-0.01835499,-0.01014180,-0.02293808,0.09845737,-0.03208460,0.01826213,0.04258433,-0.01898699,0.18696062,-0.00404772,-0.12566750,0.03037014,-0.03994703,-0.02389665,0.05909919,-0.06073835,0.01274639,0.07528798,0.05063601,-0.07322676,-0.02070351,0.03986262,-0.08770297,-0.06355299,0.03500430,0.02791689,-0.00162254,0.04163262,0.01178884,-0.06665187,-0.09143528,-0.04434195,-0.02282079,-0.02701623,0.05499256,-0.01643400,-0.03481223,-0.04425127,0.01657519,0.04582556,0.07845950,0.00622057,0.05009885,0.09651399,0.05303201,-0.11221090,-0.05051686,-0.05243235,-0.04630746,-0.00287802,-0.17235985,0.03508361,0.13606039,0.01143100,-0.10066377,-0.16274029,0.02703403,-0.13777551,0.03938576,0.14168249,0.03029352,-0.15237699,-0.02245438,-0.06204250,-0.02841424,0.00158960,-0.10598214,0.03912584,0.04639055,-0.01797699,0.11682454,0.08380960,-0.04620405,-0.06982141,0.05735041,0.02607730,-0.13877417,-0.00276584,0.01852901,0.18811567,0.07666550,-0.05505355,-0.07329396,-0.12911005,0.06093330,-0.01221813,-0.03790885,0.05709694,0.06588751,-0.09023295,0.04111049,-0.05170269,0.04546807,-0.14535901,0.01660497,-0.01337228,-0.06410714,0.07705535,0.03530838,-0.00995727,-0.03406707,-0.12221721,-0.01564304
-0.01756023,0.13085297,0.00954872,-0.07470785,-0.07441590,0.10034359,-0.09833270,-0.31487590,0.04744275,0.07000449,0.22983848,0.01919518,-0.01122607,0.03302705,0.00917173,0.10286978,0.05056359,-0.04692973,0.09000070,-0.04118402,0.05253215,-0.04162000,0.00698439,0.05349494,-0.02959444,-0.04194881,-0.06662674,-0.02903092,0.02459272,-0.01028500,-0.00313960,0.01026128,-0.00006089,-0.00010546,-0.06492332,0.02427612,0.12469476,0.04450704,0.05737681,-0.05635302,-0.07545099,0.02070727,-0.03430770,-0.02288830,-0.02184623,-0.02352916,-0.03720903,0.05639707,0.00901719,-0.00982050,-0.08198524,-0.03587842,-0.07305507,0.11462484,0.06534186,-0.02089924,0.04353004,0.16495365,0.02427290,-0.00052993,-0.03096787,-0.06449292,0.12608388,0.09020265,-0.00371392,0.09444198,0.08907907,-0.09828593,0.18464445,0.09912402,-0.13477233,-0.04464976,0.00955690,0.05361356,-0.00084306,0.10538668,-0.07690876,-0.02034908,-0.06917569,-0.04377782,-0.11081022,0.07286659,0.00827531,-0.01048803,0.20787293,-0.08484385,-0.07628184,-0.03038383,-0.03577384,0.06477403,-0.11521816,-0.06113720,-0.12641957,0.03132878,-0.02099320,-0.02395024,0.02810972,-0.11000155,-0.00843193,0.07247952,0.07349697,-0.17576903,0.05888643,0.02521644,0.09872836,-0.01689187,-0.07408751,0.00540782,-0.15290435,-0.02734260,0.17429315,0.03678804,-0.05704094,-0.14054850,0.04415823,0.00390180,-0.19127300,0.06192834,-0.09257177,0.12150536,0.07766029,-0.05768510,0.01873547,0.11434560,-0.02721549,0.01163514,0.02547114,-0.09219978
-0.01112692,0.01972046,0.00426669,0.02166876,-0.02034382,0.00843256,-0.01045059,-0.01366532,-0.00179570,0.00084034,0.04288799,-0.00786227,0.00491835,0.01979345,0.00463563,0.01493866,0.00273424,0.04492429,-0.00670282,0.00166925,0.01770664,0.02500943,0.00745056,0.02446582,-0.01136699,0.00310010,-0.00843945,0.00185581,-0.03192282,0.00321324,0.01288091,0.00571590,-0.00519103,-0.00844250,-0.00471409,0.00415285,-0.00238155,0.01640640,-0.00236456,0.00511989,-0.01816449,-0.00578140,-0.02206566,-0.01356795,0.00072902,-0.01777936,0.01789199,-0.00405613,-0.02614448,-0.00757869,0.00933074,-0.00277893,0.00716192,0.00594493,-0.02122872,0.00179937,-0.01024980,0.01155940,0.01473675,0.00003920,-0.00482199,-0.00060320,-0.00261239,-0.02776563,0.03078322,0.00848692,-0.00603917,0.00575048,0.00149437,0.01869455,-0.00033644,0.01353716,-0.01257955,0.02677231,-0.00821505,-0.01275981,-0.03268990,-0.00507617,0.00170789,-0.00841079,-0.01413080,-0.02680759,-0.01322252,0.00238526,-0.02264720,-0.01361897,-0.02028080,0.03447277,0.00604593,-0.00159610,-0.00472949,-0.01789821,-0.02568803,0.00309153,-0.00400513,-0.00346462,0.00757305,0.00031659,-0.01494757,-0.02838076,-0.00929285,-0.00258022,0.01236848,-0.00139207,0.01825046,0.00532326,-0.02011817,0.01162838,0.01817966,-0.04491328,-0.02814443,-0.01024085,0.01826174,0.00810032,0.00541376,-0.00849499,-0.01541831,-0.00194816,-0.02953080,-0.02004049,-0.00942165,0.02745646,0.00337444,0.00355455,0.00951594,-0.00975760,0.00376268,0.02378734
-0.01556114,-0.04218323,-0.02754265,-0.02655362,0.14562985,0.04681715,-0.17221069,0.03709204,-0.05254843,-0.11299266,-0.12555487,0.22929238,-0.13607913,0.06042451,-0.05494530,0.02743588,0.00427589,-0.15025023,0.03909907,0.05306772,-0.06052767,-0.12126550,0.04252937,0.26325274,0.08147328,0.06590098,0.04144537,-0.01694235,0.02123190,-0.03142338,-0.09908025,0.00614069,-0.02622579,0.13406989,0.25017482,0.10897808,-0.08574577,-0.10156520,0.05931223,-0.01066074,-0.02992605,0.05322581,0.11770516,-0.01744385,-0.02627331,-0.05833643,0.09870947,0.03808006,0.00539028,0.04978587,0.01830978,0.09489871,0.02520731,-0.05234785,-0.16050047,0.08551203,0.06670371,-0.06838126,0.05229937,0.11289679,-0.05229490,0.03021812,-0.04214191,-0.10140479,-0.14943038,-0.07344610,0.04391478,-0.11441884,-0.15687460,0.02061440,0.05982461,-0.10949504,0.04015057,-0.03049023,-0.02142708,0.03869368,0.22603315,-0.17107032,-0.03270851,0.00760855,0.12891221,0.01804158,0.02918845,0.12223154,0.03507305,0.06124872,-0.04491175,-0.07909958,-0.06160469,-0.06742277,0.11858258,-0.31891564,-0.12889838,-0.08607139,-0.02607526,-0.07430691,0.01637704,0.12319013,-0.06890074,-0.01067168,0.11138126,0.03927751,-0.16464861,0.00492372,0.12560301,-0.07735680,-0.11732347,0.18853453,0.05720617,-0.05541137,-0.10959742,-0.03172769,0.06297094,-0.08664250,-0.03404140,0.12819725,0.11554951,0.13510805,0.00750444,0.09376427,0.06467879,-0.01196693,-0.02221394,-0.07741746,-0.09147832,-0.07020008,-0.02872262,0.07456612
-0.02728221,-0.01124600,-0.01342194,-0.19363225,0.01885436,-0.04545878,-0.03532594,0.15901025,-0.05757952,-0.10990524,-0.09355108,0.10069743,-0.02964912,-0.03676829,0.08041874,-0.01513187,0.21969892,-0.01902822,-0.03078656,0.00231677,0.04036929,-0.02705932,-0.02049085,-0.03910174,-0.05152613,-0.08177061,0.27999768,0.07343506,0.03360648,-0.10829443,0.05812709,0.01639222,-0.02218649,0.06745972,0.05879420,-0.16936417,0.01266601,-0.08395994,-0.02832787,-0.00066390,0.06970119,-0.07418086,0.31027809,0.00953508,-0.05318728,0.00254618,-0.05667332,-0.08606541,-0.02856546,0.13814282,0.14662950,-0.10610310,0.06043585,-0.04745691,-0.10363719,0.08312643,0.19217937,-0.11753347,-0.08337495,0.05986502,-0.03309835,0.03799955,-0.04118796,0.00968824,-0.08220154,0.19306608,-0.02615727,0.02847671,0.00087435,0.08262366,-0.07224144,0.02487007,0.04555576,0.03392430,-0.05469010,-0.01723339,-0.05823600,-0.00888358,0.01431478,0.03933218,0.04455183,0.02406413,-0.05265702,0.00656297,-0.05937583,-0.07171658,-0.05917561,-0.08736359,-0.07111359,-0.04016219,0.07439198,0.09451813,0.02330388,0.01318506,0.01777294,-0.04603825,-0.07768663,-0.13328475,-0.00758891,-0.03254114,-0.07675683,0.04477257,0.10660870,0.05910505,-0.07824984,-0.00979487,-0.07495116,0.13381745,0.02890446,0.03572638,-0.00420906,0.07596896,0.11888374,-0.15200570,0.02271175,-0.01079042,-0.03751666,-0.01133111,0.14200781,-0.06509618,0.06714284,-0.09992339,-0.11107422,-0.01009996,-0.10418209,0.07328257,0.02344258,-0.01182737
0.06572620,0.01144498,-0.00716867,-0.59794188,-0.06907251,-0.08350625,-0.21900968,-0.00418578,-0.00955877,-0.09365972,0.25890046,0.35951114,-0.09701945,-0.02029688,-0.04241294,-0.03394632,-0.03289202,0.15918759,0.10448122,0.00551484,0.05511862,-0.02235360,-0.00003825,0.18445538,-0.05677797,0.00872378,0.03430586,-0.12374502,-0.03771862,-0.08827845,0.10218681,-0.05610239,-0.00978448,0.00951571,-0.15593101,-0.16656013,-0.21165408,0.12188264,-0.03481207,0.00476692,-0.02536020,0.22314993,0.55025065,0.04257594,0.04100526,-0.01933409,-0.00260827,-0.03720061,-0.13967280,-0.17651068,0.08841144,-0.09011918,0.07690401,-0.03905082,-0.00314726,-0.46869317,0.48164365,-0.08472614,-0.35057372,-0.00736341,-0.13873373,0.08683123,-0.07593716,0.00362331,0.01738571,0.23504432,0.03369815,0.02349747,0.04672624,0.03636953,-0.17082666,-0.24310005,0.11516692,0.06251332,0.03726066,-0.03461903,0.01791874,0.09945300,0.10466632,-0.01046656,-0.00943113,0.64218187,0.27586350,-0.06318956,0.05164687,0.08201609,-0.14671616,0.04041301,-0.05089317,0.10587826,-0.08096811,-0.01664961,-0.15745054,0.00311503,0.17240702,0.23641585,-0.03560892,0.10837620,0.00008183,0.11319912,0.10307153,0.12082144,-0.13038480,-0.06148186,0.53571534,0.01153172,-0.07501715,-0.10393577,-0.40087864,0.16468295,0.48116094,-0.15769778,-0.08821086,-0.07138401,-0.26805627,-0.06766076,-0.01122715,0.09569548,-0.12674306,-0.29136661,0.05746095,-0.21714664,-0.15064777,-0.05796841,-0.05979782,0.19286422,0.10027845,0.01358323
-0.09864236,-0.00351689,0.01408046,0.51627928,0.04941440,0.05701244,0.19660208,0.03456473,0.03464583,0.11401150,-0.25287032,-0.31872588,0.05605385,-0.02244806,0.05478876,0.00137905,0.05002154,-0.17389642,-0.09624387,0.00397062,-0.07626878,-0.00817093,-0.00503698,-0.15689376,0.06159408,-0.01040814,-0.01237665,0.12951791,0.04767151,0.06123440,-0.11941562,0.02139654,0.01976935,0.02467091,0.14044288,0.15062703,0.21316136,-0.14303388,0.04031990,-0.03329954,0.04655325,-0.26957694,-0.42500240,-0.04773577,-0.04431373,0.02005570,0.03111745,-0.00092461,0.13752575,0.17053664,-0.11250787,0.07961500,-0.02915789,0.03433786,0.03567580,0.37576771,-0.41619885,0.07585815,0.28739896,0.02272455,0.16681457,-0.08107894,0.06547956,0.03264775,-0.00274709,-0.24582919,-0.02328842,-0.02021295,-0.04371382,-0.08378227,0.19686104,0.24593388,-0.13345079,-0.07573565,-0.03877767,0.05103352,-0.00081110,-0.08694953,-0.06964963,0.02329910,0.01780695,-0.53457326,-0.24414770,0.06153041,-0.09202667,-0.11817814,0.18170777,0.01760300,0.07850885,-0.14164484,0.09613927,0.03520458,0.12243759,-0.00850176,-0.16814348,-0.20811586,0.01223800,-0.10609638,-0.03975770,-0.10759801,-0.08797373,-0.09943762,0.15140985,0.05390338,-0.48109737,-0.04372521,0.07250860,0.11308417,0.35802367,-0.18069836,-0.40715480,0.17788489,0.07727043,0.06799319,0.24226320,0.05277250,0.00739919,-0.10373991,0.14554662,0.25986657,-0.07370386,0.21889524,0.14734915,0.06207946,0.06589478,-0.16572058,-0.10568207,0.00305140
0.14998053,-0.11959893,0.02422736,-0.13021977,-0.11785451,-0.06790692,0.07052410,0.01690662,0.10056596,-0.13125442,0.10521767,-0.01036000,0.14204971,-0.03925328,-0.06136546,-0.01684460,-0.07915440,0.02087024,0.08178166,0.03918349,0.07062057,0.01078984,0.00130310,0.05159471,-0.13157097,-0.02031733,0.09812923,0.03523456,0.01598661,-0.07318202,-0.10205364,0.09072073,0.01039933,-0.02166856,0.00735461,-0.03232529,-0.00243912,0.19163322,-0.11689194,0.02186368,-0.09217814,0.11263478,0.09744192,-0.09250496,-0.00649354,0.07877683,0.00791338,0.10742002,0.03394323,-0.01202485,0.12506942,-0.17868395,-0.03878210,0.05896093,-0.06071730,0.01208022,0.05213350,-0.05126390,0.04558885,0.02480843,-0.11865020,0.00911721,-0.08540329,-0.02269990,0.02447602,-0.04982880,-0.02832472,-0.06398922,0.03559882,-0.06228097,0.03055402,-0.01285321,-0.02850797,0.04689140,-0.08900435,-0.10240672,0.02863585,0.02837801,0.00467350,0.05259545,-0.00730986,0.02028442,0.02301479,-0.02126265,0.02746990,0.05343053,-0.13553414,0.08599566,-0.03542021,0.08679920,-0.00281987,0.23474905,0.05415411,0.02315219,0.02963716,0.06304435,-0.05371135,0.09932106,-0.03545947,-0.14389296,-0.00228823,0.04236082,0.05366884,-0.07736558,-0.07894580,-0.00585939,-0.01040085,-0.03110706,-0.03464326,0.06552525,0.12472858,-0.13664307,-0.02800391,-0.08793022,0.03859536,-0.05093494,-0.00323811,0.00080008,-0.05444736,-0.03875041,0.01380601,-0.14111933,-0.04740442,0.12011395,0.00696065,0.10960103,-0.09291488,0.01041394
0.05838735,-0.02198834,-0.01687640,-0.05081164,-0.00464105,-0.07404438,0.03865729,-0.04536399,0.11371414,0.10972189,-0.11108691,-0.06195286,0.02388321,-0.02971120,0.20875582,-0.04337883,-0.11122484,-0.00527715,0.00060026,0.08122548,0.06907879,0.07046910,0.01852194,-0.08894198,0.02058287,-0.00469162,-0.02760502,0.04253276,0.08668397,0.04717271,-0.05093981,0.03602605,0.00846714,0.02759181,0.06830654,-0.04590636,0.01923301,-0.08034021,-0.07867356,0.01085469,0.11356172,-0.06190450,-0.02443646,0.03092939,-0.02388602,-0.01639274,-0.12196579,0.02926706,0.11716461,0.09321684,0.08627072,0.02691595,-0.13759023,-0.06469244,-0.01776307,-0.03893576,-0.02072332,-0.05044017,0.15685371,0.02447047,0.03486596,-0.24053526,-0.05285404,0.10980709,0.05715142,0.01304671,-0.07321147,0.04397634,-0.07344468,0.02798352,0.02698199,0.09744514,-0.02406076,0.08436766,0.07297029,0.01826549,-0.05163773,0.18720061,-0.01072659,0.00832739,-0.03203445,-0.16227338,-0.08531549,-0.00829194,0.02416893,-0.03787473,0.07821215,-0.15143344,0.15409531,-0.06799465,0.08568185,0.21347794,0.07230485,0.14918178,-0.06769501,-0.14261030,0.00268791,-0.10130028,-0.01116255,-0.02138899,-0.02962319,-0.03670625,0.02245177,0.04051795,-0.12943786,-0.15379879,0.00176223,0.01311602,0.24863617,-0.05156964,-0.04988721,0.14267935,-0.00613907,0.11929334,-0.01836633,-0.10074402,-0.09392875,0.00998863,-0.04903023,0.12557970,-0.03709988,0.02007539,0.05062545,0.15448715,-0.09336209,-0.03456746,-0.25706196,-0.14336476
-0.03310480,-0.03334146,0.05176662,0.06229794,-0.11018553,0.03096927,0.04981147,-0.02051386,0.01641932,-0.05356572,0.04193094,-0.07786507,0.00101617,-0.00492493,-0.07659975,-0.07600365,0.14853373,-0.01083719,0.02755465,-0.02490330,0.02734646,-0.06929374,-0.00426622,-0.07247792,0.04065972,0.05933563,0.01631599,-0.18798687,-0.06390331,-0.07753529,-0.03343054,-0.00859780,0.05140078,-0.00066113,0.10384652,0.08262619,0.00716398,-0.06411943,0.03482244,-0.11449243,0.09481801,0.02173507,-0.04727399,0.16064969,0.06677035,-0.04970855,0.02635320,-0.07037644,-0.00292970,-0.02720622,-0.01868353,-0.02458908,0.00011307,0.05057047,0.00493578,0.00300361,-0.13603367,0.00110602,-0.16991319,-0.00390849,-0.13105351,0.01853923,-0.03381412,0.02679673,-0.03097020,-0.10035071,0.03854786,0.02288852,-0.08573019,-0.04842857,-0.00647897,0.16173574,0.00491740,0.05665045,0.07270975,0.04770097,-0.17507054,0.03627964,0.02659331,0.00802524,0.11954744,0.05850723,-0.05267645,-0.04789444,-0.21544375,-0.08337475,-0.01598433,-0.03061604,0.10654152,0.04943835,-0.04851945,0.10787807,0.07400781,-0.02374221,-0.00150078,-0.19638559,0.05082840,0.08592918,-0.05090541,-0.00561466,-0.00938857,0.07378200,0.03170212,-0.00300147,-0.11901942,0.02469495,-0.01850962,0.02391504,0.08291434,-0.03096295,0.05067286,-0.09801871,0.01516495,-0.01511947,0.13768204,0.04745305,0.01054019,0.03387391,0.13714205,-0.03510680,-0.01277469,0.06630165,0.05133844,0.03899016,0.00099850,-0.05772608,-0.03180560,0.00343166
0.02900123,-0.01949285,0.01045053,-0.04374646,-0.01862894,-0.00270099,-0.01174748,-0.01857252,0.00697195,0.02283819,0.02549616,-0.00630275,0.02666129,0.00863894,0.01180519,-0.00964818,0.00405267,-0.02065104,0.00273198,-0.00382852,-0.02730572,0.01847214,-0.01616297,0.02614546,0.00273811,0.00380702,0.00792976,0.00435823,0.01585650,-0.01210632,0.00530091,-0.01531322,-0.00038855,0.00141555,0.03970080,0.01893303,0.00537136,-0.02295641,-0.02301759,-0.03939069,0.00625415,-0.00019831,0.02961360,0.00492149,-0.01745975,0.02415384,-0.00967654,0.00941392,-0.01693350,-0.01246563,0.00088235,-0.01447445,0.03086989,-0.00226348,0.00448997,0.00700658,-0.00384754,-0.00577700,-0.02394620,0.02066014,-0.00645751,-0.00037935,0.01971329,0.01587397,0.02069679,0.00427020,0.01804622,-0.00206563,0.01467087,0.00064856,-0.03716347,0.00575604,-0.00627985,0.00426080,-0.01750366,-0.00880186,0.01734019,-0.01912646,-0.02583999,-0.02649282,-0.01510677,-0.03157031,0.01789294,-0.00663149,-0.01421941,-0.01770064,-0.00546937,-0.01190254,-0.00275538,-0.01044323,0.01356787,0.03535528,0.00053316,-0.04422733,-0.00060029,0.00935489,0.01112783,0.03275957,0.01417558,-0.02133553,-0.01508909,-0.00291327,-0.01301730,0.00686146,-0.02222109,-0.00231657,-0.00213255,-0.00246226,0.02542151,0.01552543,-0.01592330,-0.00823824,-0.04393706,-0.01268103,0.01928744,-0.02375766,-0.03049946,0.01472404,-0.00014998,-0.01072507,0.03067947,0.03752634,-0.01098823,0.01024060,0.01410311,-0.00901783,-0.01761754,0.01129751
-0.19948804,0.02310380,0.04133521,-0.00318721,0.09802788,0.01279834,-0.07545321,0.12288260,0.15937474,0.14039406,-0.10283486,-0.07019238,-0.09597860,-0.06394777,0.02633552,-0.02724537,0.06734413,-0.02746743,-0.13249390,0.02066625,-0.02049904,-0.08971433,-0.01941781,-0.12567028,-0.04553937,-0.00416615,-0.04812498,0.00785582,0.00614978,0.07903119,0.01316423,0.06341126,0.05275515,0.10594082,0.02914073,-0.10705066,-0.04173522,-0.07805622,0.02059736,-0.17268761,0.06039915,-0.09626012,0.01374201,0.07004850,0.08412284,0.02978320,0.06787593,0.06883685,-0.06351770,-0.22445427,-0.04869720,0.10676239,0.11900729,0.04355069,0.03714489,0.04556220,0.01083307,0.12118767,0.06170266,0.09968054,0.01641335,0.04382024,0.00013097,-0.08765590,0.12633114,-0.01209274,0.14030473,0.18247446,-0.00039646,-0.11792617,-0.06977342,-0.02033241,-0.00526742,0.09707499,-0.03984488,0.12750804,0.05433973,-0.02750557,0.06520841,-0.01253264,0.00450519,-0.05617448,-0.04857005,-0.03407204,-0.03499868,-0.08790714,0.01297708,0.17106974,0.01824412,-0.05065457,0.05785534,-0.13768959,0.03575053,0.09343408,-0.09198620,0.06258640,-0.06454139,-0.08414827,-0.07576111,-0.10413517,-0.01075368,0.02769495,0.00393238,0.00966979,-0.02723564,-0.00156258,0.01828676,-0.14917296,0.01573754,-0.06591865,-0.02271990,-0.04382627,-0.00922916,0.10108609,-0.05265836,0.12486333,-0.04746452,-0.01878829,0.00659772,-0.00926312,-0.06389860,-0.02791950,0.04231049,-0.06512267,0.11416172,-0.10066999,-0.06220179,0.02129279
0.19030640,-0.02906792,-0.01368504,-0.00997512,0.05192759,-0.06785013,0.02918842,-0.16281147,-0.11784877,-0.03741368,0.00126425,0.09957775,0.00760798,0.00790126,-0.10565564,-0.01635048,0.09043767,0.08024738,0.01905967,-0.01626399,0.03461461,-0.09897308,0.01199162,-0.04464171,-0.10138839,-0.02262043,0.05751347,-0.17119427,0.01162358,0.08415078,0.13250974,0.14954121,-0.01396419,-0.02251052,-0.09969473,0.11237787,-0.15062830,-0.07225310,-0.03383818,0.02472781,-0.00450555,0.20460123,0.03931337,0.13825051,0.03977931,-0.05450207,-0.06459847,0.14000739,0.01839677,0.00582010,0.21214287,0.07075556,-0.20796561,-0.15098464,-0.02086015,-0.04724504,0.03551327,-0.00830946,0.01169796,0.01165250,-0.08768267,-0.01687416,-0.05216771,-0.22126080,-0.16578847,0.09762783,0.04372132,-0.08556492,-0.07800770,0.10195865,-0.07851204,-0.17001343,0.07174028,0.01398543,0.01000731,-0.02313163,-0.05599673,0.02399225,0.02125912,-0.11845928,0.02139991,0.02608141,-0.01144538,-0.02440124,0.01133236,-0.00412144,-0.11461414,-0.15998338,-0.04060655,0.11410075,-0.07778108,-0.02837100,-0.05843752,0.01817021,0.04511225,0.08904825,0.04454934,0.12526304,0.14241967,-0.03194419,-0.04740443,0.20547281,0.01927129,-0.07801718,0.08581655,0.05579084,0.07604688,0.01369048,-0.13195334,-0.01143665,0.00530458,-0.07849478,-0.07782272,0.14624612,0.02969091,0.03243534,0.03641800,0.02413838,0.09486652,-0.02773477,0.08258727,-0.00272635,-0.15744247,-0.06112210,-0.08106542,-0.02654318,0.09438387,0.04264209
-0.04480652,0.01362484,-0.01647712,-0.10481912,0.08972069,0.12974180,-0.04553016,0.05364918,0.03605872,0.17331977,0.04621305,-0.10540539,-0.03233387,0.07009830,-0.00912986,0.07281791,-0.06033336,0.02500327,0.06695166,-0.06834599,-0.17144141,0.04397245,0.02578250,0.11949059,0.01859523,-0.05518075,-0.26269305,-0.05783450,-0.04723594,-0.15985827,-0.03804504,0.11492739,0.00802822,-0.02547347,0.14654009,-0.01606214,0.02388721,-0.04184527,0.01604230,0.07356763,-0.00122087,-0.07506482,0.06298675,-0.06336562,-0.11069059,0.03820015,0.01446204,-0.10059280,-0.03311038,-0.12191989,-0.10144243,-0.03155955,0.04549196,-0.07954421,0.08681791,-0.02245492,0.07262446,-0.02103600,0.06625333,0.06204653,0.06739644,-0.15224649,-0.04564036,-0.01767107,0.06154855,-0.11090444,0.01607265,-0.03381975,-0.10596223,0.12498097,0.18929580,-0.26368630,-0.02115258,0.03849375,0.06352316,0.14017880,0.11469785,0.09614888,0.02566125,-0.09028298,0.06369828,0.03267540,-0.14040384,0.11600843,-0.03700767,-0.13983254,0.10086671,-0.03421323,0.10896673,-0.10828306,0.10375296,-0.07721758,-0.00964814,0.00340701,0.08005905,0.13839971,-0.06476664,0.01420747,-0.04705342,0.02449035,0.15183984,-0.05278832,0.05354183,0.16018236,-0.03702322,-0.09221073,0.01623029,-0.04173832,0.14418057,-0.07056759,0.14274596,-0.00822902,-0.06068210,0.02267176,-0.02240960,-0.07814474,0.07234407,-0.04024472,-0.13129449,-0.00936245,-0.12536828,0.11512696,0.08539704,-0.00528801,-0.00203875,-0.10120655,0.01940155,-0.05758918
0.10001547,0.01878003,0.00440908,-0.06651440,0.06109791,0.02742312,-0.10719138,0.02565551,0.04075262,-0.22273074,-0.06366534,0.13650788,0.12081998,-0.00076623,0.00488230,-0.02969242,-0.11959986,-0.12383197,-0.05504788,0.04755814,-0.08668856,0.12397491,-0.04103641,0.11773943,0.00564835,0.05418977,0.09192942,0.07916854,0.07326137,0.12962255,-0.04195821,-0.02260252,-0.03645682,0.11962239,-0.11097459,-0.10501885,0.00536132,0.08992898,0.01852817,0.13005207,-0.00531209,0.17190807,0.06464384,0.01001475,-0.02468409,0.03735391,0.11321236,0.05507982,-0.00431727,0.04275104,0.00845376,0.07398599,-0.09158032,-0.11063528,-0.10702344,0.04958976,0.01938068,-0.01178899,-0.00597777,0.01560713,0.05665077,-0.00937423,-0.05133109,-0.03770319,-0.08737973,0.14153299,0.00232235,0.06704357,-0.04880420,-0.06434488,-0.04265231,-0.03412803,-0.13292561,-0.03755481,0.06737487,-0.03681947,0.04848474,-0.01931213,-0.09086672,0.00974471,0.01724206,-0.03285949,0.06417363,0.03685522,0.14845867,0.10834739,0.05256320,-0.13799441,-0.13721490,0.01542510,-0.01289922,-0.18731317,0.00973317,-0.08942315,-0.08189462,0.02446120,0.00520414,0.06378276,0.05832682,0.00507828,0.04548305,0.06533369,-0.11203521,-0.02684745,0.03752097,0.03632880,-0.06695246,0.05150532,-0.06012287,0.09652706,-0.08053622,-0.06815831,0.00135054,-0.17277774,-0.13934724,0.00276659,-0.05521009,0.19476873,-0.03909943,0.08496738,0.05249866,-0.12121807,-0.01885957,0.00457736,0.01719196,-0.04712196,-0.06205791,-0.00271941
0.15732551,-0.06667604,-0.01206273,0.45805138,-0.04678447,0.03884880,0.04401507,-0.05259078,-0.06813599,-0.01865568,0.11340865,-0.21069770,0.23885418,0.04644627,-0.06275579,-0.01256687,-0.06519477,0.05229554,0.04635679,-0.01439590,-0.02697939,0.23382205,-0.00418541,0.00142467,-0.04808953,0.01236931,0.03700067,-0.01973003,0.01932562,0.03543666,0.05648902,0.22862136,-0.01518899,0.00694274,-0.02744455,0.10311063,0.03547093,0.06766238,0.07681843,0.04835562,-0.17295745,0.13141800,-0.46947509,0.00571166,0.00034733,0.05928670,0.04579519,0.13599311,0.11793414,0.02149961,0.01751271,-0.03968501,-0.19100335,-0.01566598,-0.06814809,0.59754217,-0.19571729,0.03960194,0.22675082,0.01135023,0.02960090,-0.01855614,0.00497782,0.00290459,-0.09059996,-0.02358744,-0.11938903,-0.01561663,-0.00144321,0.07700711,-0.03478736,0.05560174,-0.05969201,-0.05659342,0.04410664,0.00097554,-0.06751346,-0.03781128,-0.19003840,-0.06602520,-0.09521405,-0.33173934,-0.14745271,0.03278361,0.00662956,0.07983273,0.00122261,-0.09889675,-0.20936288,0.05773131,-0.07168692,-0.06152235,0.09714011,-0.03683143,-0.06581913,0.00263547,-0.02688314,-0.03644571,0.10351186,0.00341494,-0.06842352,-0.00757023,-0.11781147,0.03300555,-0.26209289,0.09294843,0.06749649,0.04140165,0.18712012,0.02118933,-0.23105900,-0.07358439,-0.00995055,-0.06248945,0.20967779,-0.10393053,-0.06647725,0.01287724,-0.04061626,0.14330812,0.05850202,0.05269136,-0.01757259,0.14732756,0.03882375,-0.00107005,0.10653434,-0.00698844
-0.06854331,-0.16477595,-0.02276677,0.08790927,0.00383137,-0.02911089,0.13174228,0.07676482,-0.09473174,-0.11676743,-0.10894163,0.01460800,0.03089080,-0.01715538,0.05250657,-0.04146720,0.08356634,0.15530653,0.06432062,0.05965339,0.08089772,0.15151885,0.03708095,-0.09839495,0.07399470,-0.00095002,0.00982861,0.12757735,0.07567995,-0.02170936,-0.03550386,-0.10085245,-0.03160533,-0.03274069,0.08622751,-0.04091409,0.21685031,0.01567758,0.04515235,0.08761249,0.04880089,0.02853351,-0.09905992,-0.02601937,-0.09112511,-0.06794008,-0.04600429,0.04988176,0.04661381,0.19215566,0.07610697,-0.00821320,-0.04618738,-0.08909295,-0.13392657,-0.01965330,-0.05491586,-0.09890682,0.12212233,-0.09062475,-0.09689218,-0.15033200,0.03934360,-0.00405548,-0.07192044,-0.12080285,-0.00960496,-0.01388517,-0.16987105,0.01153918,0.10402700,0.13903326,0.02098452,-0.11509722,-0.04015079,-0.19568001,-0.08755771,-0.12437722,-0.00991780,-0.00713685,0.01621849,-0.16534476,-0.01164953,0.14102741,0.05293510,0.08895534,-0.08700630,-0.05048591,-0.00440144,-0.13211356,-0.02245166,0.14508785,0.19573823,-0.00057540,-0.03245494,-0.09232955,0.03859342,0.04142716,-0.08721254,-0.03805088,-0.07707667,-0.10606953,-0.01905863,-0.03118019,-0.12663406,0.06393456,-0.03790538,0.10330559,0.00949406,-0.08384018,-0.13402955,0.15978473,0.21590750,0.09126800,0.09554703,-0.07969089,0.13087387,-0.08138823,0.00885605,-0.05690393,0.00224210,0.14247729,0.12380661,0.05389324,-0.02982888,-0.02874560,-0.06825157,-0.01999084
