0.09815404
0.00063774
-0.01257733
-0.26485074
0.22568701
-0.29641259
0.24746984
0.11774117
-0.02778321
-0.07042163
-0.03090780
0.31093088
-0.26627621
0.20705593
-0.07284708
-0.00941617
-0.13567187
-0.12766722
-0.06320333
0.40761828
0.38712239
-0.28452346
0.14909379
0.22130927
-0.05654306
0.28126451
0.16518836
-0.11126555
-0.24605462
0.05356260
-0.06331626
0.17496827
0.15856421
-0.12964746
0.02069405
-0.13241659
-0.24416558
0.25357613
0.19469953
-0.23680231
-0.04148991
-0.21298712
-0.02679775
0.22346568
-0.02782661
-0.10282052
-0.17520292
-0.14033428
0.10435127
-0.05815633
-0.30013064
-0.00665891
0.24402964
-0.29210532
0.08573668
-0.04395965
0.06076187
-0.31800711
0.16759996
-0.08725854
-0.11740872
-0.02863446
-0.30702749
-0.27589753
0.00069773
0.14979343
0.01690537
-0.05648016
0.00022336
-0.16991982
-0.25476673
0.07774120
-0.22442886
-0.13008189
0.20084287
0.09186146
-0.01330658
0.16560589
0.09658685
0.13529016
-0.00326015
-0.03150050
0.16565253
0.17743158
0.04444798
-0.02937433
-0.25185347
0.12803732
0.03491832
0.08680724
-0.08637551
-0.02589380
0.64711338
-0.13119574
0.12132572
-0.06750979
0.30981380
-0.17403886
-0.05896651
-0.05019335
0.15407966
0.17391513
0.04747912
-0.10590445
0.12508304
-0.00958659
-0.14982086
-0.14860184
0.10015120
0.04786704
0.02844653
0.05129354
-0.25824487
-0.24126697
-0.07889074
-0.01029472
-0.04025627
0.02821895
-0.09442838
0.16990782
-0.09109683
-0.47545490
-0.15529442
-0.02068953
0.01765332
-0.16567594
-0.08046735
0.12092781
0.01371501
-0.01369002
0.03643899
0.12318763
-0.18539223
-0.05182350
-0.13782386
-0.22387125
-0.03104713
0.09902486
-0.18112306
-0.21625689
-0.02825890
0.03753986
-0.08524369
0.09193285
-0.01766467
-0.71929097
-0.00990087
-0.00401447
-0.07933974
0.35093489
-0.00824380
0.14342335
-0.16214070
0.10111049
0.11693918
-0.06059487
0.18738639
0.32667878
0.10440808
-0.05358905
-0.01517956
-0.06343842
-0.12402545
0.04964960
-0.03387792
0.17127009
0.10588489
-0.22972073
-0.90118939
-0.05462298
-0.09094805
0.09080445
-0.01038744
0.42993370
0.06576466
0.27529812
-0.04174365
-0.01442739
-0.02746381
0.16821381
-0.11285570
0.04793313
-0.08421563
0.24183573
0.18445197
-0.06744996
0.22213325
0.15370649
0.13307337
0.02964499
-0.03678558
-0.35828859
0.20249103
-0.04524118
0.05998030
0.09213445
-0.06806484
0.18779120
-0.06982088
-0.14161673
-0.16713978
0.16690969
0.08946000
0.06351940
-0.09731664
0.12154318
0.08719327
0.01810408
0.11518449
-0.07457656
0.00086523
-0.14853418
0.14991711
0.21982241
-0.06265153
-0.10332914
-0.21111132
-0.06819776
0.34473094
-0.17157792
-0.00737589
0.14743786
-0.00042163
0.01684763
0.00060283
0.33153924
0.18997012
-0.12763798
0.12796260
-0.03553432
0.17838328
0.02744341
0.16519707
-0.01610651
-0.00720270
0.16735561
-0.00558048
0.01228552
-0.07728236
-0.19792330
-0.02808592
0.07124986
-0.13975236
-0.01101671
0.02474867
-0.16406062
-0.19437803
0.09792525
-0.18627001
-0.50382090
0.03703174
0.26317418
-0.08958546
-0.06474694
-0.02315473
-0.15937229
-0.27096808
-0.15472569
0.05140751
0.06816198
0.12627663
-0.12922756
0.20347726
0.11622044
0.19503890
-0.02315804
-0.05377033
0.07017361
0.11703415
-0.00312097
0.00591336
0.02396711
0.00214683
0.03116525
-0.21215430
0.09838293
-0.17574406
-0.22207075
-0.09524265
-0.17897899
0.14796644
0.02939920
0.00557341
-0.18656343
-0.29961878
-0.02631109
0.12533486
0.28262931
0.09862574
0.00860005
0.02977645
-0.07548682
-0.11721877
-0.06077313
0.17979528
0.03801980
-0.04405715
0.33131719
0.03050722
-0.00912885
-0.17083719
-0.02183953
-0.09656179
0.13607806
0.30599508
0.18332213
-0.32898438
-0.12047356
-1.51304388
-0.03005937
-0.05832285
0.25707597
0.04776896
-0.05428980
0.02980266
0.02472769
0.03274485
0.04051300
-0.08720494
0.20399135
-0.11941186
0.00086326
0.13665213
-0.21811786
-0.00857425
0.19394034
0.03714827
-0.06878965
-0.05110459
0.05263617
-0.08131681
-0.07139177
0.07888896
0.25265089
-0.15909016
0.05716323
-0.06370817
-0.14867681
0.00394888
0.03105150
-0.07988219
0.07941999
0.14721394
-0.04276071
-0.01475374
0.27791151
-0.00857287
-0.19331124
-0.16957293
-0.26688805
-0.10953071
0.24183373
-0.05673510
0.20545118
-0.04219493
-0.11172985
-0.06692923
0.08826088
-0.12616003
0.12090372
0.09961893
-0.10028244
0.04537481
0.08376534
0.05296157
-0.15337752
-0.04786607
0.10046799
-0.13920255
-0.18126835
-0.09814572
0.00296430
0.07896760
0.08137275
-0.23569538
-0.05473610
-0.05934771
-0.10931026
-0.22232972
-0.05019855
-0.07123695
-0.86987603
0.14607835
-0.33478403
0.01382628
-0.04659212
-0.17071638
0.17222890
-0.10518262
-0.10429373
0.07464157
0.02855751
0.14167944
-0.05343786
0.10337231
-0.04496375
-0.12887959
-0.27146089
0.03950789
-0.08057028
-0.06092394
-0.06734688
0.02355786
-0.25385657
-0.00691258
-0.35165754
0.11460572
0.01705831
0.06754978
-0.14763187
-0.14586784
-0.20417316
0.00595604
0.09151389
-0.00394749
0.08591450
-0.03083812
0.02487399
0.01884202
0.02559794
-0.07070168
-0.23412989
0.20478009
-0.04495357
-0.29389760
0.09917828
-0.06098625
-0.10965426
-0.22158502
0.18003707
0.02307301
-0.16353948
-0.17198451
0.10193598
0.02142544
0.21025607
-0.26332548
-0.21242724
-0.09528429
-0.14957745
0.00751614
-0.01469191
0.02929130
-0.08720481
0.02243406
-0.09438358
-0.23366804
0.11958514
-0.01227884
-0.28997257
-0.05670019
0.00213841
0.20294398
-0.25876588
0.03293021
-0.06776966
-0.02560428
0.11317786
-0.08597224
-0.16719590
0.05481556
-0.31525138
0.07737168
0.23332141
0.10377204
-0.07196189
-0.24446905
-0.03818375
0.11162575
0.03626127
-0.03234981
-0.20448984
-0.05025084
-0.11258207
-0.06793320
-0.04661618
-0.01857855
0.03647213
-0.11585420
-0.07316618
0.14847258
0.25833812
-0.10685229
-0.01762377
-0.01436162
0.04267669
0.06952749
0.09146259
-0.28164172
-0.00343719
0.00526933
0.02720316
0.20806882
0.02228390
-0.07782598
-0.01737081
-0.07018128
0.06273257
-0.02908074
0.07498448
0.00934015
0.04365134
0.01790585
-0.04592989
-0.10684026
-0.02102935
-0.13289730
0.05357687
-0.10843862
-0.03978142
-0.05123764
-0.08641548
0.01735898
-0.02124615
-0.24754673
0.18787685
-0.09432732
-0.02166705
-0.25514045
0.06439612
-0.13819948
0.18427396
0.10976973
-0.11843172
-0.19013762
-0.11078247
0.10334485
0.00354460
0.07331860
0.08678135
-0.20812324
-0.10224696
-0.01919800
-0.04516950
-0.01238991
-0.04724211
-0.03996279
0.11648642
-0.01470517
-0.30744144
0.02836823
-0.16746593
-0.09894317
0.01027550
-0.08003641
-0.60796505
-0.10747808
-0.09273306
0.17866179
0.19602367
0.00411043
-0.19534461
0.14698640
0.09961361
0.13764054
-0.18630902
0.10556245
0.03723601
0.11503161
-0.03884387
-0.17457174
-0.09357684
-0.20533925
-0.06836797
-0.09262378
0.04771507
0.06321120
-0.14936553
0.03246652
-0.09530441
0.02517878
-0.00765047
0.09030779
0.04326249
-0.09686310
0.01488829
-0.12210260
-0.15659349
0.17844088
-0.08342213
-0.16562569
-0.00915676
0.14812277
-0.03765822
-0.02856147
0.04581946
0.38931653
-0.06212094
-0.11218181
-0.04654514
0.12371891
-0.05392667
0.05416544
0.00581662
0.12190881
-0.00375911
0.09585887
0.11170059
0.15268752
0.03400229
0.07005185
0.08212385
-0.19925950
0.01399797
0.10645406
0.07522464
0.02919493
0.13632961
-0.00050516
-0.10736556
-0.00151471
-0.07613797
-0.04527843
-0.04813536
-0.09124546
0.05352856
-0.11677971
-0.00362110
-0.07572504
0.08973981
0.14915156
-0.07790072
0.02268399
0.05897250
-0.06121080
0.19602416
0.31564531
-0.24154404
0.03578440
0.04946663
0.14409190
0.24490066
-0.09888665
0.24835356
0.09271107
0.03259369
0.07408080
0.05685247
0.09806503
0.17443086
-0.17546882
0.10820767
0.04695590
-0.03463998
-0.09727032
-0.12608843
0.12034756
-0.07674251
-0.10638600
0.16783576
-0.04986575
0.10333085
0.10522483
0.15179370
-0.30479112
-0.07030109
-0.02900541
-0.03437734
-0.01277540
-0.09823515
0.07003036
-0.04155479
0.02931172
-0.17455603
0.02678076
-0.07356894
0.01134130
0.01955278
0.12608236
0.02602064
-0.00361521
0.04914273
-0.12326223
-0.11573042
0.03970204
-0.14943334
0.21343933
0.09907989
0.19107714
-0.10432171
0.01348564
-0.09206395
0.24596412
-0.09718339
-0.10260642
-0.13896768
0.17839760
-0.08005840
-0.11486865
0.06180795
-0.00786573
0.16728328
0.10095062
0.12244265
-0.15049750
0.20222735
-0.20200756
-0.10439504
-0.04121545
-0.13105020
0.08387219
-0.03206240
-0.08057863
0.08390652
0.02823278
0.10655228
0.22481318
0.14317936
0.08261824
0.12441295
-0.24330851
0.08083200
0.10313180
0.08767611
-0.21545637
0.09554549
0.03883666
0.11641295
0.04211441
0.06065735
-0.10107741
-0.09097439
-0.06257869
-0.08159442
0.09371818
-0.03039652
-0.01425314
-0.01724108
-0.11229238
0.03360264
-0.08444080
0.19748776
0.08526970
0.09022256
0.19584379
0.06825057
0.22177367
0.08444183
-0.05948236
-0.01038303
-0.07309086
0.03565324
0.09898071
-0.14852376
-0.02677895
0.17400336
-0.10461379
-0.05799677
0.11911945
-0.05957517
0.04661804
-0.20759372
-0.03546907
0.05104536
-0.13806517
0.08528166
-0.39885789
0.17920223
-0.00153869
0.07534041
0.12698048
0.13463122
0.04114838
-0.17054763
-0.12575579
0.03126024
-0.07508751
0.04169505
