0.01981483
0.03566506
-0.05016088
0.02958186
0.04989756
0.03268763
-0.03347030
0.01259815
-0.05461996
0.03166035
-0.10187989
0.04267373
0.10054352
-0.00740379
0.01667663
0.08989783
-0.03143248
0.09198580
-0.03442312
-0.04178553
-0.16391028
-0.12580487
-0.08260865
-0.00836304
0.03963416
-0.03649558
-0.00149844
0.04895858
0.07384510
0.08710635
0.07402616
-0.07872716
0.02934567
0.00823973
0.06181814
0.10335466
0.07403185
0.01358205
0.10521952
0.00215625
-0.04224603
0.02987873
0.10618536
-0.04920312
0.05783319
0.00963973
-0.01889590
-0.03312625
-0.07480648
-0.01992849
0.02022615
0.02321898
0.00923311
-0.10529860
0.03741171
-0.08229575
-0.09715752
-0.15410185
-0.08462390
-0.12482896
0.02393092
0.05531174
-0.05018558
0.02293521
-0.03067087
-0.05117765
0.01351433
-0.03900782
-0.03714963
-0.03521457
0.07085864
0.00459393
0.11836199
-0.06077067
-0.05511831
0.04833771
0.08025622
0.14742529
-0.06564301
-0.08609889
-0.02192849
0.05342300
-0.04465040
0.00398734
-0.15007627
-0.06536338
0.12117528
-0.14926404
-0.03561400
-0.07449081
0.05880990
0.01056665
0.00448107
0.14435576
0.00513586
0.03071710
0.00876717
0.06392716
0.01172309
-0.01451578
-0.05763099
-0.09667285
-0.01660023
0.12155452
0.02277153
-0.00117655
-0.01571644
0.00084944
0.02860131
-0.01291190
-0.09907495
-0.03439332
-0.06989706
0.06257430
0.03983032
0.00668484
-0.02573526
-0.03367950
0.03445531
0.00286018
-0.03021694
0.08111621
-0.10974365
0.01817289
0.04592139
0.01167564
0.04660278
-0.14500840
0.14244023
0.11814203
0.07327916
-0.08823171
-0.02734171
0.02531695
0.04674955
0.01054120
-0.02014968
-0.08762673
-0.02253660
-0.17660120
-0.03120412
-0.04539377
-0.02297166
0.07311747
-0.08868822
-0.05560867
0.00857946
0.06016756
0.06332619
-0.09695707
-0.03186570
0.09702600
-0.06770328
0.03599376
0.03995574
-0.00778178
-0.07868832
0.02566933
0.08827051
-0.20408945
0.03894871
-0.02234921
0.19475484
0.03183466
-0.09921838
-0.05227294
-0.00750212
-0.04183336
0.19571786
-0.00958574
0.09492564
-0.00076713
-0.14087972
-0.09122106
-0.03707025
-0.04507366
-0.05339553
0.00776893
-0.00505978
-0.03973847
0.01430326
0.01569828
-0.02438802
0.07629507
-0.03765066
0.03768511
0.02705291
-0.04912697
-0.01226314
-0.08265323
-0.02992086
0.02892342
-0.00843882
-0.00931938
0.06933530
0.04296022
0.02798169
0.01231890
-0.02827428
0.07427654
-0.03120044
-0.09903633
-0.07983778
-0.00510099
0.01372896
0.04279784
-0.06169952
0.05328240
-0.06055684
0.11903348
-0.03910699
0.05474633
-0.09679559
-0.01444640
0.05867927
0.10716034
0.10558426
0.03855586
-0.17977448
0.04056476
0.00312662
-0.04846276
-0.01724802
0.13599890
0.00843463
-0.08283918
-0.11271437
0.04543944
-0.08435968
-0.04456413
-0.08031324
-0.04509569
-0.10149430
-0.06504213
0.04784298
0.07863961
-0.03370955
0.05171362
0.01944429
0.18307358
-0.08820009
0.00757172
0.08190034
0.02158460
-0.04458649
0.03816255
-0.11620457
0.05867153
0.14124461
0.09450473
0.03667361
0.00669568
0.01506288
0.00105430
-0.02715086
0.02350192
0.05631576
-0.01236324
0.02137235
0.04623343
-0.01381020
-0.01369601
0.00885364
0.00186358
-0.14345884
0.10265525
-0.01363948
-0.10040125
-0.01459869
-0.01993808
0.03046733
0.07436395
-0.03199434
0.02862395
0.06560855
-0.10359478
0.03262057
0.08838774
0.11219797
0.03130540
0.04093866
-0.00968916
-0.03147806
-0.04150499
0.01196373
0.12530001
0.02451845
0.01959750
0.02861219
0.01191853
0.08852087
0.02008934
0.05965440
-0.02810185
0.02819657
-0.12131317
-0.20748338
0.06136007
0.05215736
-0.10317845
-0.01459472
0.13020045
0.09287712
0.03491934
-0.08049706
-0.00065855
0.11548724
-0.03906067
0.27857539
-0.01524213
0.10272849
-0.14423858
-0.08142755
-0.06841711
-0.01405985
0.04227122
-0.02754121
-0.08639498
-0.01619066
-0.22837414
0.02533791
0.05652095
-0.05608730
0.03852032
-0.10194723
-0.12542440
-0.01762296
-0.00525336
-0.08603822
0.12220217
-0.00111771
-0.14866674
-0.03980716
-0.04687023
0.03387202
-0.08063613
-0.02492795
0.03004317
-0.03035657
-0.01172221
0.07762060
-0.01639790
-0.17123421
0.01667575
-0.14739057
-0.00120454
-0.02852981
-0.05039930
0.04615079
-0.05166576
0.10305244
-0.10917948
-0.03291540
0.06459770
0.06285860
0.00688827
0.03304715
0.00678481
-0.10112615
0.01578004
-0.15188184
-0.04166716
-0.09619408
-0.02761067
-0.07661929
0.03325921
-0.12908293
-0.02874494
-0.03365670
0.13116808
-0.01440733
0.01136265
0.00254929
0.00244729
0.01938945
0.05509489
0.04020198
0.01977209
0.03470131
0.04808326
0.06154348
0.00655136
-0.00778236
0.02144355
0.03046939
0.07100051
-0.10029417
0.02428441
0.03417754
-0.02291811
0.02027741
0.01922631
0.07421898
-0.06876571
0.04514093
-0.04308293
-0.04392620
-0.09678223
-0.00239924
-0.03247779
0.02004239
0.01551300
-0.13121064
0.00455484
0.01181125
-0.02379641
-0.00792487
-0.00955383
-0.02273639
0.04828002
-0.00673601
-0.03059587
-0.03392050
-0.04306382
-0.04923612
-0.01831779
0.02274572
0.07969443
0.02913574
-0.21765365
0.10629565
0.08995910
-0.10807993
-0.08982887
0.11443739
0.07705542
-0.13167846
-0.04486200
-0.03500052
-0.21852365
0.13588123
-0.00214065
-0.01521773
-0.02775901
-0.02070145
-0.05181053
-0.02619499
0.07706952
0.01762181
-0.03257978
0.06813444
-0.05654695
0.14695258
-0.06484422
0.12905534
0.00478888
-0.09554752
-0.13757142
0.03343206
-0.00068261
-0.02943721
-0.00262069
-0.04196563
-0.01882893
0.01187749
0.03054441
0.02483589
0.01876045
0.00794317
0.13071743
0.09882965
-0.04367688
-0.11858685
0.02247586
0.06582244
-0.07563318
0.08078461
0.08391474
-0.10075809
0.06913773
0.05244831
0.05374322
0.03053102
0.10759403
0.10837480
-0.01828697
-0.03428428
-0.08366426
-0.11991331
-0.00376640
-0.10870791
-0.11063576
-0.14195450
-0.11145934
-0.13779438
0.05212934
0.03187029
0.02930162
0.05171790
0.04741592
0.05212330
-0.02765403
-0.21825908
-0.05935058
-0.05860583
-0.00893961
-0.18457986
0.03291114
-0.04540888
0.02890961
0.06898020
-0.02234164
-0.06190905
-0.12964003
0.13110778
0.00990726
-0.03995728
0.02828872
0.00366103
-0.01907821
-0.02073216
0.11326863
0.06326992
-0.04202259
0.01705278
-0.02460863
0.02578253
0.14168261
0.10498014
0.01621488
0.01913861
-0.07207501
0.00026984
-0.00994877
-0.10422270
0.05649884
-0.09908076
0.04814850
-0.08643872
0.10589371
0.14873612
0.17508034
0.01199758
-0.15647443
-0.07984287
-0.00545829
-0.05493369
0.02052373
-0.07969239
0.00939782
0.03401540
-0.03203633
-0.00610732
0.01400009
0.05364477
0.07215532
0.05551334
-0.02992876
-0.02598686
-0.10761502
-0.05496348
0.14149521
-0.00131413
0.02307230
-0.00384828
0.07555307
-0.12486748
0.13775147
-0.00294449
0.06212398
0.00230343
-0.11022697
0.15133679
0.07381842
0.06498928
-0.03318851
0.08643211
0.05424519
-0.02673170
-0.05716447
0.08082420
0.04343961
-0.00287923
0.12939115
-0.02621505
-0.04462339
0.04287132
0.04090114
-0.00180894
0.06215746
0.02901920
0.04787767
-0.05209054
-0.09526299
0.01240146
-0.00821603
-0.00970208
-0.00880900
-0.00842239
0.07710120
-0.00928230
-0.01582666
0.00980120
-0.00965961
0.00101211
-0.10589222
0.04686886
0.02002731
-0.00291738
-0.10118986
-0.04558707
0.01252245
0.04773978
0.05574024
0.07730092
-0.11866505
-0.03214541
0.22809882
-0.01481245
0.10804799
-0.03753055
0.12110224
0.07610086
-0.02316005
-0.16068749
-0.02568491
0.08357814
-0.04854843
0.03889477
-0.07209708
-0.00030582
0.09731232
0.01293005
0.09314691
-0.10239469
0.01768800
0.02319690
-0.09919115
-0.01956178
0.05370078
-0.03695447
-0.09091109
0.02637270
-0.01858458
-0.00670766
-0.01107907
-0.03969183
0.00797308
-0.14732240
0.03683713
-0.02753859
-0.11308717
-0.04366645
-0.04443430
0.04274053
0.00641256
0.04796872
-0.07850239
0.02182088
0.00523814
0.03964558
-0.12456173
-0.07542686
0.12110062
0.05806168
0.06653191
0.14029664
-0.00178650
0.03800635
0.10960705
0.00036056
-0.08778410
-0.03660841
-0.02436971
-0.03494999
0.01889345
0.00192198
0.08022957
-0.03433830
0.04873625
-0.05247605
0.01253354
0.01967186
0.04816885
0.01024225
0.05056006
-0.04413296
-0.02804466
-0.01443069
0.06581713
0.01898074
-0.02903846
0.06873439
0.06206245
0.05633540
0.08193479
0.01223035
-0.03147546
-0.01744629
0.00204734
-0.00561576
-0.01350852
0.06308571
0.04715199
0.11596579
-0.10832693
0.16164441
0.04785817
0.02342163
-0.07291196
-0.04921640
0.04346970
-0.02165618
-0.03354613
0.00297505
0.01675231
0.01331503
0.01857654
0.08357682
0.09580020
0.14260045
-0.04117932
0.05571889
0.03309391
0.09536994
0.06057822
0.03150681
-0.02190282
0.01905925
0.00352448
-0.00673316
0.03044295
-0.05910807
-0.00602328
0.05970646
0.01097646
-0.07638043
0.00970040
0.18963720
0.00238489
-0.00734778
-0.00356841
-0.03434857
0.02157571
0.06778736
-0.12805632
0.03085458
0.02514096
0.03218378
-0.01911284
0.10296116
-0.06165367
0.05356734
0.09529649
0.05245584
-0.12727052
-0.12246504
-0.14717574
0.04388569
0.03199977
-0.00105326
-0.02067721
-0.14323847
0.14575285
-0.05554048
-0.06033339
0.16310649
0.01837273
0.00634836
-0.15187357
-0.12286706
0.13526709
-0.05338762
0.00981663
-0.03109795
-0.10361101
-0.04114683
-0.05961595
