-0.00077980
-0.00065806
-0.00010521
0.00119144
-0.00180091
-0.00275024
-0.00078233
0.00258598
-0.02257048
-0.00268813
0.00236688
0.00327774
0.00171424
0.00170850
0.00047215
-0.00433013
0.00129662
0.00380415
0.00005522
-0.00244218
-0.00288067
-0.00349546
-0.00346534
0.00264041
-0.00595173
-0.00383254
0.00587085
-0.00265968
0.00410498
0.00256531
-0.00390796
0.00497464
-0.00230517
0.00193905
0.00600003
0.00239734
0.00007980
0.00049902
-0.00205220
-0.00239366
-0.00187471
0.00355026
-0.00015680
0.00051923
-0.00038865
-0.00553231
0.00247199
-0.00176470
0.00183176
0.00405710
-0.00164621
0.00018299
-0.00259291
-0.00478795
-0.00077311
0.00454494
0.00234427
-0.00389230
0.00309640
-0.00624803
0.00298566
0.00456949
0.00054555
-0.00763261
-0.00619011
0.00219543
-0.00200315
-0.00550150
0.00470412
0.00802624
-0.00065731
0.00515354
0.00666592
-0.00168286
-0.00123376
-0.00411653
0.00582877
0.00652862
-0.00288616
-0.00554351
-0.00419217
0.00349328
-0.00250852
0.00267046
-0.00196728
0.00145046
-0.00052694
0.00347767
-0.00212903
-0.01082709
0.00057160
-0.01277064
0.01219682
0.00092011
-0.00007010
-0.00251845
-0.00254504
0.00141862
0.00354297
-0.01005880
-0.00904621
-0.00214832
-0.00729608
0.00164461
-0.00195463
0.00167453
0.00003075
0.00068765
0.00004693
-0.00461751
0.00149154
-0.00181019
0.00583875
0.00261872
0.00080551
-0.00037605
0.00478256
0.00450147
0.00188804
0.00200859
-0.00305564
0.00112155
-0.00338259
-0.00168106
0.00260842
-0.00231298
0.00973156
0.00407289
0.03315764
-0.00393570
-0.00585738
-0.00836908
-0.00438083
0.00096372
0.00274830
0.00092655
-0.00950483
0.00540699
0.00443203
-0.00571007
0.00707617
0.00396039
-0.00405709
0.00518505
-0.00229903
-0.00167590
0.00356888
-0.00081071
-0.00837140
0.00000247
0.00884190
-0.00497974
0.00293553
0.00375622
0.00238859
-0.01310119
0.00274957
-0.00368060
0.00054301
0.00033448
-0.00354704
-0.00034434
0.02063829
0.00636791
0.00439335
-0.00771754
0.00252630
0.00652765
0.00010303
0.00929341
0.00454921
-0.00319499
0.00530940
-0.00839319
0.00170439
-0.00168187
0.00162866
0.00252361
-0.00087690
-0.00844052
0.00518471
0.00295809
-0.00863856
-0.00443218
-0.00229020
0.00747766
-0.00520382
0.00108417
0.00638301
0.00462943
-0.00446758
-0.01464636
-0.00240570
-0.00103459
-0.00105728
0.00125002
0.00281513
0.00647514
-0.00300009
0.00186041
0.00320327
0.00335072
0.00387717
-0.00105546
0.00358690
0.00296778
0.00221492
-0.00006307
0.00024339
-0.00151067
0.00080292
0.00503916
-0.00180443
-0.00350835
-0.00043115
-0.00125344
0.00402019
-0.00288859
0.00162422
-0.00143035
0.00247302
0.00032120
0.00154046
0.00238283
-0.01315379
-0.00912984
-0.00333351
-0.00162851
-0.00733915
-0.00416611
-0.00072247
0.00060622
-0.00013110
-0.00312559
-0.00160776
0.00899878
0.00524799
-0.00384703
0.00254886
-0.00083292
-0.00093382
-0.00234665
-0.00642024
-0.00543751
-0.00104596
-0.00086690
0.00099264
-0.00132790
-0.00339708
-0.00410261
-0.00205312
-0.00441147
0.00049086
-0.00270300
0.00486189
-0.00418381
-0.00026691
0.00321265
0.00210372
0.00516690
-0.00020005
-0.00362634
-0.00540675
-0.00252289
0.00643483
0.00033690
-0.00424788
0.00080654
-0.00772757
0.00092269
-0.00240665
-0.00300914
0.00318801
-0.00853967
-0.00262272
0.00119478
-0.00188242
-0.00273808
0.00190492
-0.00915794
0.00604362
0.00265849
0.00232980
-0.00660792
0.01244147
0.00359279
0.00154415
-0.00555359
-0.00377472
0.00292584
-0.00327774
-0.00366074
-0.00253933
0.00363866
0.00257098
-0.00058111
0.01041657
0.00395417
-0.00532824
-0.00104036
0.00774946
-0.00436097
-0.00112520
0.00054011
0.00304942
0.00543637
-0.00307513
0.00326357
-0.00187166
0.00219697
-0.00057621
0.00259575
0.00149185
-0.00243059
-0.00193288
-0.00323072
-0.01191186
0.00888092
0.00254534
-0.00195954
-0.00631607
-0.01353287
-0.01405455
-0.00585363
-0.00511557
-0.00009111
0.00639626
0.01425716
-0.00061021
0.00222102
0.00596051
0.00022709
0.00672004
-0.00541759
-0.00215989
-0.00308259
-0.00375444
0.00165851
-0.00238404
-0.00119906
-0.00116668
-0.00535434
-0.00040198
0.00543589
-0.00354735
-0.00438260
0.00630520
0.00533274
-0.00174057
-0.01359748
0.00091391
0.00379853
-0.00393459
-0.00211554
0.00879507
-0.01190942
0.00559957
-0.00355014
0.01533366
0.00651786
-0.00397288
-0.00742064
0.00741392
-0.00190552
0.00236122
-0.01123816
-0.00294758
-0.01741534
-0.00176781
-0.00117671
-0.00228925
-0.00462605
0.00504882
0.00019066
-0.00431377
-0.00095225
-0.00059966
0.00077655
0.00498455
-0.00046708
0.00542275
0.00871026
-0.00488127
0.00376105
0.00211914
-0.00680243
-0.00279515
0.00313390
-0.00009461
-0.00107406
0.00541218
0.00927799
0.00254901
0.00498111
0.00795227
0.00313078
-0.00386717
-0.00311930
0.00057576
0.00227502
0.00359010
-0.00162078
0.00084059
-0.00070913
-0.00164872
-0.00330452
-0.00076376
-0.00039418
-0.00039272
0.00405298
0.00255682
-0.00800967
-0.00059956
0.00146894
-0.00499684
-0.00414560
0.00179273
-0.00195241
-0.00290899
-0.00170501
-0.00096934
-0.00496926
-0.00288037
0.00287526
0.00184707
-0.00350746
-0.00325878
0.00357743
-0.00155323
0.00413427
-0.00028292
0.00850092
0.00745100
-0.00575938
-0.00197549
-0.00179014
-0.00082944
-0.00170019
-0.00301820
-0.00095820
-0.00074499
-0.00258652
0.00034379
-0.00345707
0.00287644
0.00100272
-0.00014246
-0.00371304
-0.00143414
0.00181294
0.00183071
-0.00480056
0.00191878
0.01157545
-0.00580704
-0.01020843
0.01286934
0.00022097
-0.00097891
0.00172130
0.00201332
0.00640539
0.00065047
0.00198423
0.00616408
-0.00608194
-0.00557611
0.00504437
0.00306188
0.00255711
0.00370498
-0.00546946
0.00043742
0.00353628
-0.00340582
-0.00404335
-0.01807583
0.00424767
-0.00186341
-0.00664546
-0.00272153
-0.00549029
-0.00126670
0.00786421
0.00223180
0.00042974
0.00434674
0.00229004
-0.00126650
-0.00634398
-0.00245039
-0.00813393
-0.00634841
0.00021217
-0.00039087
-0.00279430
0.00355981
-0.00033474
0.00560398
0.00919438
-0.00222361
-0.00182600
0.00124607
-0.00171899
-0.00094363
0.00045357
-0.00519307
0.00198874
-0.00096306
0.00227645
-0.02005804
0.00425920
0.00170202
0.00316917
0.00071921
-0.00285974
-0.00683258
-0.00269933
-0.00935738
0.00623512
-0.00073901
0.00579354
-0.00101549
0.00481635
0.00262493
-0.00288906
-0.00334733
-0.00299763
0.00194461
0.00132046
-0.00254907
-0.00198505
0.00391771
0.00370301
0.00233386
-0.00287832
0.00146364
-0.00325349
-0.00950339
0.00282706
-0.00931902
-0.00008231
0.00274649
0.00021135
-0.00745815
0.01357499
0.00299174
-0.00656203
0.00028324
0.00808841
-0.00821702
-0.00430718
0.00326603
-0.00015638
0.01166527
0.00358106
-0.00269977
0.00865814
0.00929286
0.00924965
-0.00710430
-0.00045374
0.00526024
0.00098420
-0.00795002
-0.00814483
-0.00373351
-0.00840954
0.00926338
0.00283328
-0.00367203
-0.00234329
-0.00206679
-0.01274847
-0.00355238
-0.00202403
0.00048800
-0.00009066
0.00195965
0.00253590
-0.00115235
-0.00335821
-0.00307106
0.00335543
0.00484476
0.00840791
0.00396258
-0.00787864
-0.00736690
0.00502848
0.00406622
0.00409813
-0.00817255
0.00296038
0.00054628
0.00316951
-0.00242784
0.00008973
0.00817225
0.00147558
0.00109300
-0.00030006
-0.00032150
0.00575285
0.00563333
-0.00842371
-0.00073909
-0.00307209
-0.00054863
0.00645299
0.00506083
-0.00116042
0.00374197
-0.00330238
0.00015683
-0.00472667
0.00318984
0.00228880
-0.00434168
0.00021898
-0.00787831
0.00028381
0.00287533
0.00915995
0.00833693
-0.00246732
0.00199952
-0.00170986
0.00881341
-0.00432994
-0.00409678
0.00003100
0.00581851
0.00644291
0.00081068
0.00196853
0.00203418
0.00152213
0.00441793
0.00373605
-0.00184399
0.00337367
-0.00457992
0.01113062
-0.00359755
-0.00718011
0.00084121
-0.00392810
-0.00384462
0.00451329
-0.00525257
0.00349470
-0.00198920
-0.00004871
-0.00603888
0.00396287
-0.01466786
0.00885177
0.00199095
0.00522173
-0.00659748
-0.00511459
-0.00144013
0.00491880
-0.00771266
0.00313453
0.00418624
0.00629712
-0.00452036
-0.00216277
-0.00476466
-0.00457246
0.00768322
-0.00419305
0.00575942
0.00200224
-0.00459501
0.00450080
-0.00304656
0.00031537
0.00146413
0.02976596
-0.00088563
-0.00374662
0.00365273
-0.00618270
-0.00132308
0.00451930
0.00239342
0.00395893
0.00362238
0.00016189
-0.00377885
0.00119377
0.00306736
-0.00659730
-0.00412895
0.00903894
-0.00683144
0.00412160
0.00121625
-0.00026441
0.00222109
-0.00202515
0.00369080
-0.00138863
-0.00260855
-0.00051436
0.00086401
0.00304269
0.00299342
-0.01236526
-0.01078694
-0.00869200
0.00158598
-0.00167840
-0.00134333
-0.00118423
0.00290261
0.00713514
0.01043336
-0.00392348
-0.01679800
-0.00616538
-0.00897527
-0.00074827
0.00522938
-0.00496016
0.00041733
0.00123342
-0.01035182
0.00526789
-0.00037480
-0.00449570
-0.00782137
0.00203337
0.00046368
-0.00775201
0.00496319
0.00402128
0.00393199
0.00600793
-0.00201212
-0.00223200
0.00697793
0.00664632
0.00894397
-0.00193369
-0.00055393
-0.00086614
-0.01007980
-0.00144974
-0.00636660
-0.00229456
0.00036482
-0.00463451
0.00046946
-0.00201783
-0.00279227
-0.01192135
0.00206073
0.00313134
0.00331563
0.01004983
0.00014181
-0.00758995
0.00313690
-0.00150736
