0.05012960
0.11886728
0.21868069
0.08720991
-0.20476632
0.22647750
-0.34360462
0.06405723
-0.41553664
0.11556635
0.28521961
-0.10724127
0.21037498
0.06595989
-0.08972792
-0.06126309
0.11343729
-0.19265148
-0.01210908
-0.24904756
0.07155792
-0.20746225
-0.18167062
-0.01961617
0.05759309
-0.04042454
0.31486914
-0.16641366
0.36615345
0.02845835
-0.08983365
-0.04371959
-0.12217801
0.11063292
0.04656465
0.05648931
0.25875035
0.10858697
-0.22723943
-0.15845999
-0.20762411
-0.28561965
-0.16824101
0.17382322
0.02830354
-0.08594550
-0.12881617
-0.00003962
0.13994728
-0.14808904
-0.14982550
0.08018105
-0.24637954
0.13984466
-0.48626912
-0.03802130
0.07877365
-0.54215354
0.18014741
-0.24763769
-0.08205558
0.20402823
-0.12871478
0.17048445
0.33818355
-0.53206801
0.26974794
0.15490112
0.26108906
-0.06607811
-0.10767977
0.06798213
0.00514410
-0.17760403
-0.00862123
-0.12083521
0.02707170
0.09527706
-0.11946254
-0.17435108
0.01282618
-0.14398783
0.05403370
-0.07121831
-0.10277139
-0.08002673
0.12395288
0.12471712
0.28782368
-0.24318135
0.06983288
-0.15565369
0.05396321
0.22090432
-0.06543029
-0.29557103
0.19448915
-0.02009381
-0.03526013
-0.12373459
0.11983501
0.11226542
0.04959768
0.29100326
-0.16696990
0.09049426
-0.05650138
0.18282121
0.11604933
-0.11072126
-0.13768178
-0.13055754
0.00510094
0.03599534
-0.22659047
-0.17014065
-0.03658404
0.14100800
0.16269991
-0.13676247
0.46082023
-0.01504443
0.26074395
0.24027455
-0.32432187
-0.10082254
-0.00635824
-0.12996525
0.17894632
-0.00564156
-0.03291890
0.00919864
0.03994384
-0.00482341
-0.01055300
0.04591953
-0.05745357
-0.00506340
0.03193634
0.02594002
0.02450931
0.00593640
-0.07323567
0.04979938
-0.06535339
-0.03010350
-0.05178086
0.01856239
-0.01251094
-0.02490250
-0.01935841
-0.02250737
-0.05223074
0.08527043
0.00569995
0.05251437
-0.07087392
0.03252079
0.05597779
0.03114899
-0.03774755
-0.01695006
-0.01968245
-0.07000392
0.06010037
-0.03000265
-0.01954173
-0.02661414
-0.05430611
-0.03226760
-0.02394053
0.04815909
-0.06773361
0.00968238
0.06230433
0.01548265
0.04703754
-0.04129518
-0.02607967
0.07505425
-0.00993450
0.06706952
-0.00559484
-0.04968597
0.06915530
-0.01251284
-0.00960805
0.01441955
0.08971647
-0.03264921
0.01310295
-0.05889685
-0.28231224
-0.21986589
0.07456889
-0.19329090
-0.23903796
-0.20547295
0.14831668
-0.20592348
-0.10556112
-0.33246422
0.29868871
0.01474241
-0.03411169
-0.05124750
0.17857997
-0.15463839
0.44350097
-0.34233198
0.06081045
-0.48417521
-0.17234366
0.55829495
-0.19053610
-0.17085361
-0.06574029
0.46171716
0.11685307
-0.10866766
0.02552100
0.09301453
-0.33565179
0.09772346
0.11447326
0.25187731
0.24162434
-0.03285916
0.11417911
-0.13454321
0.11214344
0.19344370
0.28808397
0.03666193
-0.09187373
-0.01892456
0.08365481
-0.29656690
0.43850428
-0.31043187
0.26669860
-0.24112129
0.10252200
-0.00017780
-0.07882316
-0.27051970
-0.00866740
0.01051913
0.23936081
-0.29537743
0.08422095
0.03367221
0.19706158
-0.06216394
-0.02471836
0.08771657
-0.25070831
0.15706229
0.23768324
0.39945990
0.11246374
-0.17710650
-0.34675777
-0.45355237
0.07578042
-0.07416335
-0.00596562
0.18497050
0.42537624
0.02241502
-0.19526087
-0.08495455
-0.20986627
-0.39818543
-0.16227543
-0.10209541
0.16659068
0.14551921
-0.21443868
-0.11108252
0.07132815
-0.17964618
0.00505960
-0.14955243
-0.25073257
-0.23035413
0.19925578
-0.19051608
-0.05704692
-0.02446088
-0.40320724
0.13474369
-0.00439752
-0.27324298
-0.13795844
0.06396716
0.27402970
0.19343860
-0.12892312
-0.01614168
0.38657343
0.15078920
0.09963341
0.66771954
0.15956232
0.12797318
0.16047120
0.14334118
-0.07457007
-0.39578852
0.01750997
-0.03470471
0.14461753
0.12938805
-0.11103107
0.04372229
-0.14519343
0.06807547
0.03020295
-0.04966934
0.34470278
0.01482531
-0.12053803
-0.36351869
0.01194870
-0.11544266
0.55563492
0.63899720
-0.09127060
0.05707613
0.01845677
-0.19434415
0.58410686
0.15039462
-0.21968962
0.08383098
0.35247850
-0.21034671
0.12112254
-0.15371776
0.07963167
-0.25212422
-0.04999476
0.41693151
0.13844079
0.08843549
0.75545555
0.28799370
0.00712332
0.16018319
-0.43707752
0.04069388
-0.28835332
-0.18011956
0.76159638
0.06173024
0.20174582
0.25984201
-0.18264161
-0.13711075
0.18038450
0.09982280
0.00298668
0.37477306
-0.07309623
-0.05542139
0.79604560
-0.37314329
0.45567077
0.38784781
-0.46459666
-0.31176463
-0.09743012
0.11274834
0.17523240
-0.17208770
0.26395428
0.50245512
-0.21430327
-0.13977297
0.12911023
0.26221260
0.12876016
0.01824349
0.01933089
0.20036070
-0.00370607
-0.05248945
-0.03808994
0.17508873
0.14209639
0.26393673
-0.24668944
-0.20841816
0.07343738
0.08030440
-0.08861016
0.09580506
-0.00281933
0.09624540
-0.05957885
0.01830315
-0.05219594
0.00246019
-0.00899805
-0.14187889
0.16982456
0.01468412
0.08043199
0.14414884
-0.07928863
-0.04356306
-0.13048027
0.09013983
-0.11332379
0.06581684
-0.02891949
-0.05069218
-0.06823348
0.12675539
-0.00778525
-0.11943971
-0.07163332
0.03840610
0.05148170
-0.23815498
-0.07253778
0.50957370
-0.07423764
-0.12475617
-0.07336350
0.20673409
-0.03394946
-0.00010945
-0.01157114
-0.21345161
0.21062388
0.04173047
-0.00592227
0.31824189
-0.17664278
-0.02775160
-0.01750891
-0.25941110
-0.05652471
0.22948594
0.05601826
0.05143937
0.44294983
-0.06699163
0.01830257
0.16685207
0.19616316
0.08367093
0.55415207
-0.14474930
-0.39549324
-0.01630931
0.33830345
0.11835420
-0.36023384
-0.45966643
-0.10929348
0.19510379
-0.08478278
0.17357615
-0.19850866
0.03549020
0.09744107
-0.31305942
0.26871037
0.13092241
-0.07598632
-0.55100137
-0.19845685
-0.18692859
0.24241930
-0.31841362
0.03262786
-0.26411930
0.06170389
0.14635725
0.26655960
0.26278988
0.16979179
0.30427006
0.03486085
0.10093856
0.30638978
-0.10081233
0.34950283
0.78412563
0.52060401
0.00216035
-0.00700453
-0.41163743
-0.48645151
-0.44650501
0.33512664
-0.11312933
-0.39716911
0.38402846
-0.23517933
-0.06851122
-0.10130250
-0.15455678
-0.31722829
0.14868760
-0.04232526
-0.53927666
-0.01363417
0.44899440
0.21111101
0.08581928
-0.43049210
-0.83069652
-0.22593036
-0.20728575
0.23948084
-0.15969722
-0.36726597
0.08443578
0.00817106
-0.05398776
0.12152188
0.53373659
0.13877201
-0.10956692
-0.07882483
-0.20775396
-0.17109708
0.09001867
-0.05424030
0.01142645
0.50588018
0.09097893
0.26900128
-0.29940969
-0.41123030
0.17486781
-0.04857602
0.27231622
-0.45879152
0.11320196
0.07791735
-0.19511068
0.09083816
-0.02722090
0.30969223
0.13033348
-0.49067071
0.10964622
-0.31539190
-0.02040792
-0.08414124
0.49824023
0.25151727
0.15938196
0.18461652
0.36651364
-0.09192885
-0.50355220
-0.50853288
0.24071299
-0.18946925
-0.19673635
0.23726048
0.23690832
0.36135638
-0.14146435
-0.25363922
-0.14088826
0.52074867
-0.27502283
0.05772391
0.17701332
-0.02459238
0.06181516
-0.01782424
0.07186159
0.19091810
-0.14360201
0.06101884
0.22350043
-0.07796433
-0.04332781
0.17803395
0.07645006
0.16622709
-0.06789067
-0.23148559
0.17047007
-0.02020022
-0.03506823
0.00852468
-0.09560738
-0.23399651
-0.15213701
-0.04532947
0.26065043
0.11526345
0.18006897
-0.03888612
-0.16848305
0.24757865
0.05449598
-0.05328604
-0.08975013
-0.11490607
-0.11738483
-0.17054906
-0.04184113
0.12853625
0.08845055
0.12168907
-0.19705683
-0.03517606
0.04067288
-0.15466245
0.33640885
0.11404871
0.02844549
-0.14155683
-0.15456708
0.09308747
0.03654483
0.04247044
-0.08360579
0.10505510
0.08111232
-0.12319147
-0.07973758
0.03040450
0.22610173
-0.23057030
0.12007487
0.06613021
-0.10910983
0.21608886
0.07363827
0.15479046
0.34499627
-0.27937934
0.57016975
-0.11568864
0.24811831
-0.06964888
-0.27978489
-0.12074754
0.11277907
-0.16568044
-0.04572746
0.02331255
0.32639772
-0.22461282
-0.08286124
-0.58356708
-0.03977127
0.29434305
-0.23608968
-0.53623670
0.10189342
-0.18835381
0.24618301
-0.10785760
-0.07986309
-0.07392136
0.03870260
-0.25798175
0.00476448
-0.23076363
0.09644625
0.10594688
0.21178296
0.32418987
-0.13775545
-0.15144812
0.30577844
0.04381635
0.08169632
0.00347414
0.36625779
0.17578560
0.10634686
0.15076533
-0.30173677
-0.18395826
-0.12837765
0.13289261
-0.01008378
0.06429502
-0.00366519
-0.17155729
0.21100371
0.42540649
-0.20022005
0.09493148
0.18835682
-0.23157573
0.32176813
-0.01655727
-0.01462843
0.02908452
-0.19243877
0.04918787
0.10409088
0.42626157
0.23523393
0.44312963
-0.03638431
0.11373071
-0.00961260
0.23599535
-0.10488506
-0.12585822
0.30307636
0.65635961
0.18375672
-0.01082722
-0.10236789
-0.28121132
0.49903238
-0.09488031
-0.15333724
-0.05105488
0.08255465
-0.41501215
0.19477341
0.05806999
0.07094681
0.01077113
-0.04881925
0.36631221
0.08389649
0.40893167
0.45631066
0.32684451
0.47212657
0.24745204
0.00882053
-0.14258176
-0.81988013
-0.24345177
-0.07642792
0.15556179
-0.20621707
-0.58931625
0.15508755
0.05974101
0.11991111
-0.11299044
-0.15199491
0.43523249
-0.15052384
0.00949840
0.45568311
0.00946212
0.16628231
0.06144436
0.05352515
-0.08206956
0.28694060
0.09858050
-0.15379719
-0.19750424
0.26129887
0.18280871
0.15342796
