0.01502306
-0.00530942
0.00023572
0.00205218
-0.00578036
0.00819825
-0.01109632
-0.00442156
0.00109204
-0.00575008
-0.00120491
0.00333117
-0.00578813
0.00328627
0.01600929
-0.00386544
0.00707020
0.00905827
0.00973484
-0.00814101
0.01115828
-0.00540212
-0.01480834
-0.00678108
0.00503963
0.00483089
0.01226449
0.00170333
0.00386222
-0.00501638
0.01077664
0.00226786
0.01260186
0.00173585
-0.00889809
-0.00166173
-0.00542482
0.01581961
-0.00271065
0.00930946
0.01464220
0.00185237
-0.00625810
0.01386652
0.01646511
-0.00991011
-0.00593304
0.00317814
0.00620559
-0.00571558
0.01517342
0.00821608
-0.00751055
-0.00689555
0.01187789
0.01246789
-0.00194515
0.01434375
0.00341978
0.00953563
0.00197381
-0.00234013
0.00223674
-0.00098477
0.02070386
0.01121434
0.02208206
-0.00231077
-0.02971538
0.06502898
0.02056291
-0.00179086
0.04688001
0.03928871
-0.01556322
-0.01634530
-0.01172451
0.00848641
-0.00213016
0.00156437
-0.02672760
0.00462104
-0.00083575
0.02178753
-0.01889141
0.04393152
-0.03459086
0.02059383
0.02453578
-0.04484799
-0.00098070
-0.02232449
-0.01944929
0.04432558
-0.06993036
-0.02121554
0.01339068
0.02391735
0.02327828
0.00702279
0.04443488
0.01321004
-0.05348014
-0.04053042
-0.03290496
-0.03208719
-0.02636100
0.01261936
0.00699588
0.03244233
-0.01806741
-0.01146242
-0.03329119
-0.00316583
-0.00708236
0.00345107
-0.02061200
0.00197001
0.02276587
0.03108806
0.00780843
0.01497895
0.00890853
-0.04207387
-0.02508375
0.02518993
0.01080226
0.07816869
0.00738224
-0.01641978
0.00017475
-0.01790448
-0.01251892
-0.00453382
0.03048424
-0.01142182
0.02176518
-0.00194683
-0.00838154
-0.00734094
0.01087260
-0.01218764
-0.01029236
0.00876026
0.00745005
0.00178193
0.02236518
0.01732810
-0.01208465
0.00840139
0.02100334
0.00503406
-0.00523889
0.01863416
0.00578219
-0.01078459
0.03948578
0.00550775
-0.00799260
-0.00894093
-0.01695450
-0.01586208
0.01102911
-0.01683745
-0.00088895
0.02177413
0.01048923
-0.01511196
0.01050964
0.00813262
-0.01490651
0.01486121
-0.00469291
0.03414488
-0.01208876
-0.01221257
0.02262541
-0.00375971
-0.00809677
0.00473681
0.01879989
-0.09807920
-0.04551422
-0.02091589
-0.01439483
-0.02468965
-0.00268790
0.01143201
-0.00659984
0.01143145
-0.00014127
0.02003885
-0.02152832
-0.01994345
-0.00586666
-0.02667001
-0.00778204
-0.01354166
-0.00704262
-0.01394535
0.01131265
-0.00601474
0.01982588
-0.00361618
0.01158055
-0.00656045
-0.01245675
0.01568234
0.02920366
0.00337007
-0.00682733
0.00056615
-0.00142976
0.01899484
0.03981312
0.03116803
0.02481715
0.02097448
-0.00476374
0.01474652
0.02197161
-0.00502005
0.01126298
0.05130161
0.00566567
0.00053651
-0.02143968
0.01213777
-0.01049656
0.00469902
0.02772739
-0.02786873
-0.00054554
0.03265261
0.01565245
0.01131744
-0.01089682
-0.04061585
-0.03405819
-0.00755774
0.00640533
0.00661665
-0.02403343
0.01145946
-0.01398357
-0.00815019
0.01116309
0.00825419
-0.00538974
0.02876783
0.01138801
0.01006564
-0.00241670
0.01837676
0.01275519
0.03852385
0.01935494
-0.00178239
-0.01050135
-0.02336111
0.00703511
0.00940950
0.01212468
0.01967486
-0.00744138
0.00007840
0.00345870
-0.01061936
0.01513452
-0.04178396
0.02506824
-0.00060265
0.00504739
-0.01817636
0.01263607
0.00296394
-0.02259575
-0.01433503
0.01351177
-0.01118325
0.01576029
0.00100421
0.01459331
0.00385809
-0.00795454
-0.01265845
-0.01668461
-0.03669506
-0.01095781
-0.00040801
0.00275713
0.02446029
-0.00259506
-0.01991901
0.00092233
0.00074014
0.02247080
0.00254406
0.02849419
0.00712864
-0.02491406
0.01298082
-0.00307467
-0.03304042
0.02045781
-0.01915022
0.02145659
-0.02273204
0.00481474
-0.02148183
-0.02317591
0.01682125
0.01208743
0.02530274
-0.00357597
0.03308357
0.01677457
-0.01646433
-0.01846606
0.00569269
-0.05871827
-0.00590746
0.00295792
0.04826301
0.01868515
0.02690296
-0.01643201
0.00843325
0.04915254
0.01782188
-0.04242547
0.01847148
0.05712064
0.01255128
-0.01529791
-0.01207843
0.02388717
0.00801173
0.05249700
0.03852633
-0.03443389
-0.02639934
-0.04567522
0.03659818
-0.03101452
0.01624237
-0.03980444
-0.00493036
-0.01724518
-0.02551500
-0.01260215
-0.00416802
0.03859486
-0.05915865
-0.00744050
0.04812586
-0.02006871
-0.00944119
-0.02612274
0.00646815
0.00516840
-0.00046512
-0.00495417
-0.02401606
0.03623983
-0.01545569
0.00917853
0.01738095
0.02556372
-0.01513432
-0.01903805
-0.03803067
0.00654972
-0.01259155
-0.01211621
0.03531116
0.04415246
0.00101260
-0.00041217
0.01188829
0.01358725
-0.01645559
0.04756439
-0.03436581
0.00042985
0.00825201
-0.00461069
0.00101510
-0.00855472
-0.01086652
0.01114997
0.01099497
-0.00680695
0.00854766
0.01416757
-0.00024357
0.01064871
-0.01501601
0.00592798
0.00341299
0.00724993
-0.02359810
-0.00224328
0.00104983
0.00229471
-0.00957442
-0.00515914
0.02398309
-0.00899723
0.00698335
0.04401258
0.01401730
0.00688261
0.00182833
-0.00590116
-0.01100398
-0.00790895
0.00201246
-0.00301782
-0.00662874
-0.01486553
0.00969488
0.01262905
-0.00941531
-0.00180976
0.00064564
0.00505251
0.00819444
-0.01497642
0.01531468
-0.01514445
-0.00377378
-0.00028949
0.00773871
-0.00534872
-0.01710553
0.01839966
0.00435608
0.01920312
0.00856070
0.00823089
0.00500043
-0.01818446
0.00973825
0.00027278
0.01427533
0.00554317
0.01272410
0.01600792
-0.01785491
0.01244814
0.01146823
-0.00293154
-0.02922488
0.04026468
0.00161241
-0.00700047
0.00023734
0.00328213
0.02410108
-0.03628018
0.02008943
0.03198080
0.00398113
-0.03076635
0.00382534
0.02338504
0.00853271
-0.00752706
0.00156394
0.00000616
-0.01175887
0.00302598
0.01095976
-0.00723389
-0.02171076
0.01746989
0.01991501
0.02221502
-0.00222949
-0.00186067
0.01700373
0.00576608
-0.00562294
-0.00533058
-0.01147670
-0.00067000
0.00930787
-0.00297548
-0.00476554
0.00334346
-0.01130708
0.00397307
0.01051280
-0.03224961
-0.00924863
-0.02290523
0.00732412
-0.03509166
-0.01105999
0.00905432
-0.00475681
-0.00036439
-0.00076407
0.02927212
-0.02746951
0.01078058
0.01610763
0.01935102
0.01529407
0.01492967
0.02714185
-0.00164443
0.05186712
-0.04159038
0.02748530
-0.01815898
0.01461583
-0.02822317
-0.02183603
-0.03703494
-0.01257471
0.01229301
-0.00542372
0.02200060
-0.00752713
-0.05576783
-0.01629828
0.00305025
-0.01372753
0.00336976
-0.00043384
-0.00696835
-0.03123246
0.04500890
0.02061556
-0.01040901
-0.02309012
-0.03429313
0.00110182
-0.00850001
-0.02084929
-0.03269618
0.04055639
0.02377141
0.03939832
-0.01388214
0.00590556
-0.00993596
0.01516795
-0.03173341
-0.00902649
-0.03660361
-0.01782089
0.01967488
0.04093402
-0.01223190
-0.00468261
0.07077867
-0.05497226
0.01607176
-0.02588311
-0.00116490
-0.01129115
0.01580331
0.05619233
-0.02360987
-0.00099647
-0.03206312
-0.00321987
-0.00912317
-0.02014814
-0.07009347
-0.12437335
0.02337324
-0.00050414
-0.02187808
-0.01251146
-0.03476310
-0.00320124
0.01251323
-0.01134119
-0.04544621
-0.02190864
0.01088767
0.01821609
0.00677423
-0.00530857
-0.02845829
-0.02076064
0.00335069
0.00478597
0.00809907
-0.01318289
0.00239374
-0.00150380
-0.01741285
0.00189321
0.00879386
0.00820452
-0.00032781
0.00849478
-0.01505973
0.01754446
0.01673968
-0.00392478
0.00230588
0.01201320
0.00751799
-0.04203582
0.00080001
0.01860606
-0.00424383
0.00876746
-0.02211768
0.00113327
-0.00949666
0.01847047
0.01224267
-0.00780872
0.00703377
0.01536859
-0.00277668
0.01738001
-0.01380971
-0.01808691
-0.00025262
0.00281603
-0.01057142
-0.01235511
-0.00047663
-0.00101595
0.00780817
0.09192743
0.01739820
-0.00463457
-0.00777677
-0.01548948
0.00678895
0.01269473
-0.02204023
0.00105880
-0.00937569
0.01097081
0.01144939
-0.01255139
0.01219548
-0.00652410
0.00335629
-0.00531091
-0.00744627
-0.00263973
0.00715990
-0.01474321
0.00293622
0.00504244
0.00472870
-0.00444641
0.01398755
-0.00021329
0.00606930
0.03131541
0.02753989
-0.01909224
-0.01015135
-0.00221248
-0.01517499
0.01759393
-0.00138409
0.01566962
0.00453024
-0.00231618
-0.00233031
0.01985657
-0.00707729
-0.00851684
0.00774917
-0.01188621
-0.00876817
0.00662621
-0.00074530
0.00963819
-0.02180978
0.00030818
0.01503047
-0.01101454
0.01857945
-0.02045895
0.00858004
0.01703531
0.00005389
-0.00342798
0.01040728
-0.00418392
-0.00658012
0.02478222
-0.00129550
0.00588682
0.00872530
0.00252818
-0.00866947
-0.01731334
-0.00622757
-0.01473288
0.03707878
-0.00021547
0.00272567
-0.00059696
0.01928550
-0.02053619
0.01714293
0.01444855
-0.00655418
-0.02336462
0.01234690
0.00808661
-0.02222319
0.00318049
0.03262275
-0.01389895
-0.04531505
-0.00443331
-0.00082556
0.01685428
0.00527808
-0.02369869
0.00499557
0.00479355
0.02907433
0.00082377
-0.01301671
-0.04376774
0.01073290
0.00141505
-0.01171459
0.03678579
0.00033582
-0.01308075
-0.00241212
-0.01913777
-0.01544446
0.00465706
0.00240319
0.02060763
0.00191696
-0.00484616
-0.00461774
-0.01223685
-0.02123933
-0.00673727
0.00217046
0.00371581
0.00683231
-0.01294999
0.01872374
0.01327394
0.01778694
-0.00356677
0.00277278
-0.02076641
0.00253639
0.00126857
-0.01567555
-0.00933267
-0.00563361
0.00384747
-0.01527757
0.01645292
