-0.00074918
0.00731079
0.00089338
0.00345652
0.00043817
0.01141294
-0.00579664
0.00673061
-0.00160498
-0.00181840
-0.00064490
-0.00317623
0.01224556
0.00548790
-0.00340711
-0.00237574
0.00288503
0.00121086
0.00837365
0.01790182
-0.00508322
0.00210219
0.00057919
-0.00094561
-0.00207383
0.00311382
0.00277131
-0.01054522
0.00369127
0.00250691
0.01227002
0.00958447
0.01337293
-0.00664568
-0.00023349
-0.00288184
-0.00801316
-0.00556003
-0.00657180
0.00726197
0.00080642
-0.00600146
0.00421808
-0.00353536
-0.00162754
-0.01895170
0.00388254
-0.00860443
-0.00921931
0.00130514
0.00061837
-0.00501102
0.00246226
-0.00851411
-0.00593023
-0.00241534
-0.00288043
-0.00265779
0.00640153
-0.00299718
0.02026083
-0.00118962
-0.00180608
0.00471880
-0.00243133
-0.01328949
-0.00786949
-0.00209496
0.00105625
0.00374540
-0.00344368
-0.00316493
-0.00357777
0.01083666
0.00560197
-0.00090912
0.00913898
-0.01175885
-0.00304653
0.00779713
0.00081089
-0.00415654
0.01026846
-0.01084192
-0.00274877
0.00750522
-0.00245815
0.00710455
0.01297684
0.00392283
0.00027382
0.01085900
-0.00710633
0.00022019
-0.00541589
0.00325486
0.00459782
0.00157838
-0.00119317
0.00159054
-0.00546854
-0.00381779
-0.00188595
-0.01093710
0.00224213
0.00103217
0.00018830
0.00702157
0.00758983
-0.00076943
-0.00541485
-0.00618613
-0.00179535
-0.00449818
-0.00435687
-0.00987151
-0.00132673
-0.00242069
-0.00125654
-0.00323458
0.00053216
-0.00153465
-0.01168224
0.00359782
-0.00287338
-0.00092112
-0.00014051
-0.00591144
0.00230672
-0.00177596
0.01374018
-0.00229202
-0.00531391
0.00174423
-0.00022013
0.00018247
-0.00652234
-0.00129903
0.00156645
0.00467656
-0.00304262
-0.00679627
0.00364815
0.00483488
0.00091320
-0.00388212
0.00424383
-0.00465532
-0.00007229
0.00307693
-0.00367042
0.00286321
-0.00653269
0.00244764
0.00083578
-0.00594339
0.00969291
0.00280859
-0.00127180
0.00645191
-0.00136819
0.00011788
0.00156370
-0.00563387
0.00345742
0.00211552
0.00798507
0.00297300
-0.00995333
0.00031441
0.00011605
0.00338514
0.00245820
0.00046793
-0.00340632
0.00288364
-0.00288177
0.00534148
0.00345890
0.00248753
-0.00191936
0.00522797
0.01772340
-0.00647798
-0.00841187
-0.00584948
0.00278719
-0.00369275
0.00017356
0.00072469
0.00085622
0.00707680
-0.00239925
-0.00286086
0.00643613
-0.00353211
0.01068770
-0.01393077
-0.00434313
0.00532710
0.00416076
-0.00558093
-0.00292663
-0.00271380
-0.00231403
0.00533616
0.00220166
0.00837014
-0.00240222
0.00216444
0.00033797
0.00093772
0.00179889
0.01087739
0.00024309
0.00870790
0.00052999
-0.00740835
-0.00095030
0.00620245
-0.00190525
-0.00353609
0.00299547
-0.00282686
-0.00075344
0.00514712
0.00061685
-0.00697181
0.00589954
-0.00197868
0.00791877
0.00095608
-0.00037429
-0.00153357
0.00445640
0.00747294
-0.00413492
-0.00433012
0.00581511
-0.00900699
-0.00078615
0.00027392
0.00224990
0.00315591
-0.00011459
0.00666857
-0.00022809
0.00155515
0.00169920
-0.00263548
-0.00698419
-0.01224057
-0.00109546
-0.00326073
-0.00591501
-0.00418696
0.00109540
0.00174980
0.00273210
-0.00359310
0.00104277
-0.00235099
-0.00356385
-0.00289785
0.00006269
-0.00402519
0.00311933
0.00398817
-0.00417105
-0.00468775
0.00500681
-0.00017818
0.00684713
0.00145751
0.00200498
-0.00046452
-0.00086683
-0.00062358
-0.00168708
0.00477197
-0.00155665
0.00306884
-0.00704940
0.00227425
-0.00231630
-0.00539023
-0.00205357
0.00502716
0.00317993
-0.00334743
0.00599682
0.00211449
0.00005371
0.00080105
-0.00042426
0.00182440
-0.00328697
-0.00186487
0.00136359
0.00322534
0.00043141
-0.00037976
0.00216100
-0.00238348
-0.00463938
0.00330640
-0.00790357
-0.00350355
-0.00494740
0.00312157
0.00336068
-0.00438236
-0.00595305
0.00229445
0.00141735
0.00342362
0.00287154
-0.00113872
-0.00000436
0.00312121
-0.00102139
0.00771194
-0.00243883
-0.00084643
0.00580019
-0.00493301
0.00148257
-0.00568028
-0.00788660
0.01075244
0.00466834
-0.01617756
-0.00239567
0.00486862
-0.00387763
-0.00978685
0.00354303
0.00650682
0.01120446
-0.00465520
-0.00074095
0.00263035
0.00463665
-0.00046258
0.00181668
0.00163261
-0.00294320
0.00145608
-0.00195665
-0.00472715
-0.01043274
0.00307041
-0.00037476
-0.00794846
-0.00146459
-0.00423012
0.00912430
-0.00135149
0.00470231
0.00370168
-0.00178178
-0.00162131
0.00443681
0.00575908
0.00353675
-0.00320204
-0.00678018
-0.00125596
-0.00689086
0.00321587
0.00095240
-0.00412055
-0.00232337
0.00320604
-0.00891500
-0.00239750
-0.01653934
0.00457035
-0.00257220
-0.01156371
0.00639692
0.00389569
0.01276326
-0.00956589
-0.00812273
-0.00366593
-0.00173733
-0.00218580
0.00850737
0.00588402
0.00510932
0.00171600
-0.00363326
-0.00416777
0.00565969
0.00415620
-0.00103104
-0.00366134
0.00132482
0.00024488
0.00633985
-0.00315259
-0.00236760
-0.00330111
0.00106200
-0.00032864
0.00853851
0.00134903
0.00620916
-0.00375633
0.00480730
-0.00025648
0.00202740
0.00321923
0.00007005
-0.00693425
0.00649805
-0.00155108
-0.00216422
0.00387428
0.00377924
-0.00017022
-0.00019772
0.00044384
0.00062468
-0.00399759
-0.00209059
-0.00584048
0.00318694
0.00100888
0.00535451
0.00023478
0.00038451
-0.00549790
0.00037035
0.00080903
0.00127522
0.00498208
0.00058039
0.00076557
0.00421370
0.00082644
-0.00061159
-0.00386666
-0.00237311
-0.00373569
0.00435278
-0.00269177
-0.00923998
0.00840516
-0.00252611
0.00658227
0.00790409
0.00586011
-0.00113749
0.00059626
0.00279689
0.00279492
-0.00462314
-0.00067920
0.00227207
-0.00432065
0.00089645
-0.00385150
-0.00657095
-0.00673951
0.01070202
0.00191657
0.00491322
-0.00078123
-0.00212745
-0.00106390
0.00451953
0.00471389
-0.00185062
0.00022017
-0.00006680
0.00533893
0.00104117
-0.00506659
0.00307946
-0.00108108
-0.00942000
-0.00415453
-0.00405986
-0.00417115
-0.00545284
-0.00133567
-0.00486601
-0.00114303
0.00005715
0.00151780
-0.00237280
0.00115248
0.00075650
-0.00220496
-0.00196355
0.00323811
-0.00087137
0.00289860
0.00130170
0.00426172
0.01143552
0.00387049
-0.00081914
0.00056777
0.00665539
-0.00064115
0.00756165
0.00090819
-0.00066944
-0.00182745
-0.00131499
0.00128052
0.00444566
-0.00852272
0.00192968
-0.00269073
0.00849279
-0.01238861
-0.02136195
-0.00106392
0.00157132
0.00720977
0.00891355
-0.00454133
0.00490635
0.01237522
-0.00291614
0.00337633
0.01369580
-0.00004653
-0.00353252
0.00645840
0.00622927
0.00270656
0.01299500
0.00052812
-0.01162310
-0.00131868
-0.00226801
0.00829872
0.01332695
0.00177974
-0.00403786
0.00050405
0.00049008
-0.00725206
0.00229254
-0.00363411
0.01473220
-0.01562747
-0.00171323
-0.00615707
0.00342710
0.00958611
0.00504667
0.00399058
0.00409479
0.00390288
0.00083766
0.00060392
0.00437269
-0.00812774
-0.00225974
-0.00658549
0.00702166
0.00149888
0.00918025
-0.00676649
-0.00255576
0.01404042
-0.00708597
-0.00946429
-0.00229415
0.00535546
-0.01251733
0.01262275
-0.01076521
0.00746128
0.01426063
-0.00186952
0.00216398
-0.00773248
-0.00417775
0.00173970
0.00677591
0.00043631
0.00087898
-0.01444762
0.00282377
0.00500911
-0.00624867
-0.00264803
-0.00189237
0.00587088
-0.00275592
0.00421261
-0.00576111
-0.00114242
-0.01168936
-0.00054228
0.01038825
-0.00128413
-0.00854062
0.00005627
-0.00059835
0.00432243
-0.00048865
-0.00001378
-0.00340431
-0.00603726
0.00904404
-0.00314943
0.00420917
-0.00404564
0.00603210
-0.00103851
0.00549341
-0.00589169
0.00640759
-0.00811374
0.00217068
0.00937196
0.00657907
0.00189063
0.01083316
0.00592716
-0.00483878
0.00217055
-0.00749649
-0.00269414
0.01132126
-0.00050900
-0.00207405
0.00782091
-0.01117756
0.00860063
0.00867371
0.00907400
0.00819591
-0.00257221
-0.00559194
0.00258447
-0.00169408
0.00174294
0.00295247
0.00432680
-0.00289157
0.00360916
0.00088983
0.00408248
0.00221538
0.00201591
-0.01008817
0.00364347
-0.00127504
-0.00122159
-0.00574673
0.00045439
-0.00162983
0.00076109
-0.00526542
0.00233890
0.00345032
0.00038080
-0.00453966
0.00485375
-0.00361383
0.00349885
0.00627342
0.00664893
0.00336218
-0.00243366
-0.00446193
-0.00446364
0.00213298
-0.00944677
-0.00124882
0.00158790
0.00133585
0.00285829
-0.00077989
-0.01135856
0.00591305
-0.00050654
-0.00649164
-0.00909909
-0.00298008
-0.00516595
0.00302483
-0.00463576
0.00017679
-0.00071362
-0.00483084
-0.00021655
-0.00084657
-0.00291234
0.00001983
-0.00149027
0.00158567
-0.00217217
-0.00153578
-0.00148870
0.00165407
0.00063061
0.00336372
-0.00160544
0.00762870
-0.00651952
0.00000987
0.00070535
0.00331796
-0.00312422
-0.00023600
0.00004982
-0.00081237
0.00532788
0.00116841
-0.00299886
-0.00558435
0.00646479
0.00320035
-0.00811269
-0.00042536
-0.00559955
-0.00482306
-0.00062595
-0.00351939
-0.00566362
0.00098256
0.00055694
0.00400867
0.00797663
0.00369627
-0.00195673
0.00024545
0.00011400
-0.00079843
0.00785066
0.00728703
0.00269152
0.00247423
0.00724089
-0.00090063
-0.00372700
0.00167685
-0.00341475
0.00124589
-0.00354263
0.00491825
-0.00616899
-0.00735028
0.00305648
-0.00473635
0.00370907
0.00737747
-0.00212885
-0.00115580
-0.00153598
-0.00315114
-0.00171830
0.00084660
-0.00669419
0.00362689
0.00852522
-0.00967245
0.00172122
