0.00103440
-0.00423982
0.31174791
0.04494623
-0.01260845
0.02548020
-0.06839060
-0.03805818
-0.03174054
-0.06220854
-0.00234900
-0.06384452
-0.03539413
0.01402511
-0.01186873
-0.09468284
0.24895576
-0.03469524
-0.02742767
0.26161447
0.04062167
-0.04365286
0.02751700
-0.22705165
0.01300607
0.04166656
0.09256173
-0.10407487
-0.04617475
0.00032671
0.16902499
0.02347170
0.04249077
0.01940878
-0.00025730
-0.00789143
-0.01470481
0.20658684
0.07484341
0.05321940
0.01275939
-0.03700796
0.06310089
0.09330803
0.09001460
-0.04390156
0.05420364
0.05313469
-0.02029665
-0.06512940
-0.01844981
-0.00817100
0.01727784
-0.00662924
0.04963435
0.02268212
0.03630792
-0.00990937
-0.04136723
-0.01868399
-0.02019678
0.02650181
0.02745431
-0.02158298
0.02888770
0.10012988
-0.01837794
0.04416186
-0.02527881
-0.02913300
0.09003967
-0.33210477
-0.19845922
0.18636537
-0.01826872
0.02085781
-0.02851087
-0.16319169
-0.02742743
0.02684292
-0.07952280
-0.22747824
0.30539614
-0.14941537
-0.38377595
0.39223391
0.03304497
0.12443912
0.19955049
-0.04977705
0.15045601
0.58878273
-0.08296264
-0.12482131
-0.20092417
0.19548853
0.16915977
0.04995893
0.08338292
0.03058935
-0.10783895
0.01079898
-0.02341293
-0.15837252
-0.01945524
-0.02584326
-0.30026028
0.18815719
0.39167830
-0.08741920
-0.04169576
-0.07474966
0.00521716
0.07142534
-0.11862903
-0.12850145
0.00648236
-0.10926507
0.02962740
-0.11126892
0.13391167
-0.01181465
-0.27633092
-0.04515405
0.19895677
-0.13742995
-0.00150069
-0.15670511
-0.07873814
0.07795388
0.04965646
0.02759346
-0.04239024
-0.10147227
-0.04498501
0.16495645
-0.10116302
0.12559788
0.02115482
0.04184098
-0.05719181
-0.09827644
0.02243776
0.05946387
0.01423299
0.01134695
0.12970392
0.04698033
0.00479669
0.04407413
-0.05773944
0.10184991
-0.04535023
0.09752370
0.12640105
-0.13679279
0.05545250
0.00420984
-0.13509656
0.11228276
-0.05425539
0.05460015
0.05024817
0.34881851
-0.49053735
0.06569242
-0.03379127
-0.03208488
0.00273959
-0.09888326
0.04853848
0.00843696
-0.01305255
0.14197080
0.07053401
0.10013425
-0.08095969
0.00178139
0.06947159
-0.02138900
-0.13511568
0.11076987
-0.58822775
0.14025888
0.24027319
0.07571686
0.06847279
-0.07448195
-0.01210014
0.04669715
0.01491177
-0.04398778
0.04381511
0.02094028
0.09403044
-0.03000967
-0.00876338
0.14360476
0.08117966
0.00890120
0.16873901
0.05965484
-0.30325323
0.04844352
-0.08326893
0.08991126
-0.05380533
0.10709202
0.18731564
-0.04778525
-0.30180773
0.09123065
0.00987669
0.05725205
0.09528633
-0.08813892
-0.36863941
-0.02462007
-0.05834516
0.14123484
-0.13617739
-0.07778834
0.16620751
-0.37835276
0.00022210
0.13798228
-0.04744617
-0.28504071
0.04391947
0.36350569
-0.01228419
-0.09613393
-0.11211583
-0.03643909
-0.02644641
0.09522218
0.36423963
0.04117221
-0.05470668
0.46845576
0.04944391
-0.10523421
0.05513475
-0.06180203
0.01800410
-0.00877561
0.10501170
0.00966752
0.03640238
-0.03444230
-0.18605258
0.10403407
0.02797257
-0.39273953
0.10674237
-0.04555868
-0.07094181
-0.01316801
-0.01686764
-0.06539182
-0.09820137
0.03006938
-0.12169983
0.04023284
-0.11287656
-0.09596977
0.14652798
0.12093796
-0.07832089
-0.11642078
0.03744514
-0.00343960
0.15230928
-0.04936493
0.09634254
-0.00974872
0.01660030
-0.00596792
0.01325309
0.18459785
-0.00043935
-0.00665346
0.13061464
-0.08260337
0.03148199
-0.15051964
-0.07326942
-0.07763031
0.20032360
-0.06811257
0.20135264
-0.22430021
0.05947757
0.03552728
0.03645431
0.20213971
-0.10178462
-0.28812081
0.16576065
0.02189572
0.11515403
-0.01616162
0.17575435
-0.08737123
-0.11279438
-0.09448065
-0.09889930
-0.17023784
0.02329397
0.24578607
-0.04147781
-0.06648706
-0.00589291
-0.03830823
0.00734297
-0.00339145
0.09857929
0.01584583
0.10141582
0.07990607
0.08938354
-0.05460672
0.01946758
0.10429809
0.01008116
0.16493693
0.15404329
0.10223173
-0.15572125
-0.11891300
-0.01313820
0.16603476
-0.16359064
-0.08175448
-0.06800060
0.00089191
-0.13813221
-0.35112771
0.17787147
-0.00335880
0.08266947
-0.39346558
0.07635404
-0.10888813
0.00846551
-0.32116914
0.01907988
0.02976410
0.12911825
0.01910544
0.00250269
0.06555009
-0.14398462
-0.11112115
0.03673814
0.16655888
0.01864804
0.03691057
0.08419533
-0.07628523
0.02198579
-0.03330175
0.04461455
0.02002938
-0.21551882
0.00332446
0.03873363
-0.11697645
-0.17887932
0.01150809
0.04782496
-0.03903076
-0.07010439
0.05740519
0.06874888
0.17032441
0.15310588
-0.11846026
0.12633789
-0.12134616
0.14701821
0.01059842
-0.29774296
-0.11573258
-0.07591124
0.01085827
-0.17015997
-0.22332419
-0.05815392
0.15139470
0.06010257
-0.11359552
0.16722822
-0.15786016
0.16404769
0.43730864
0.15014814
-0.07217318
0.00157178
0.19187401
-0.00527292
-0.14000331
0.01011898
0.40756452
-0.13872232
0.22864212
-0.10831366
-0.30396134
-0.00077677
0.15330137
-0.31848994
0.17552426
0.03337320
-0.09736830
-0.06846008
-0.10853949
-0.09505455
-0.04263566
-0.11252691
-0.11363399
-0.05355784
0.03038268
-0.17323065
-0.09702068
0.05529299
0.01138806
-0.04849153
0.16974875
-0.01377405
0.15266751
-0.27341580
0.07966194
0.01277001
0.01333585
0.07310363
-0.06295928
0.05076689
-0.86547506
-0.07057976
-0.03054437
-0.13674369
0.23631684
0.10044894
0.38380551
0.20163970
0.04086353
0.29709926
0.40101665
-0.14144433
0.17726764
0.15226920
-0.03906728
0.10757600
0.25882170
0.07374225
-0.06204927
0.01707734
-0.06597485
-0.03225547
-0.08024779
-0.64359534
0.56105459
-0.56089789
-0.50182539
0.10615543
-0.01401697
0.18946093
-0.05872766
-0.04417455
0.06622712
0.03844341
-0.18439804
0.02415272
0.08774900
0.01357079
0.00154044
-0.05602687
-0.00001597
0.01025536
0.01397503
-0.09510746
-0.10357860
0.05770444
-0.07136845
-0.06800772
-0.33062857
-0.06702899
0.03216080
-0.35584739
-0.03132528
-0.06735297
0.15993862
0.08345360
0.10196517
0.03139222
0.11720981
-0.08749069
0.00424751
0.07300314
0.05223408
-0.09026686
0.07949286
-0.15494300
-0.07307602
-0.16706906
-0.03629590
-0.02301220
-0.07809176
0.08528760
-0.13917023
-0.05183974
-0.08300329
-0.03623408
0.07758980
-0.05576786
-0.12555300
-0.10654200
0.00188012
-0.00527120
0.07240077
0.29289365
-0.02824016
-0.03948170
0.03860067
0.07728852
0.00814725
0.04998437
0.07254084
0.00229490
-0.00921591
-0.02656452
0.04432667
0.05952221
-0.11061642
0.04018503
-0.07078197
-0.10621054
0.07569607
0.10731194
0.00850458
0.03802992
-0.42956468
-0.10964908
0.02075101
0.12945403
-0.00841432
0.02495452
-0.02241434
0.15092729
-0.03201031
-0.07371739
0.53043771
0.02489320
-0.02801525
-0.01205675
-0.16126487
0.02479015
-0.03745763
-0.01997114
0.01465606
0.02799183
0.10637845
-0.05158028
-0.07078746
-0.08637054
-0.01603107
-0.27712199
0.01628519
0.02942320
0.03327645
-0.13330770
-0.20365047
0.00085726
-0.03828561
0.05603231
0.00322386
0.03449896
0.07976863
0.02917255
-0.04142264
-0.06483728
-0.03160548
0.17351270
-0.08312351
0.07148184
0.01062982
0.03302266
-0.03518712
-0.07874683
0.00168477
0.15231541
-0.07675245
0.02489917
0.11771813
0.04158831
0.01831018
0.11023746
0.13586493
0.06162620
0.08519968
0.11158791
0.05164089
-0.19650155
-0.00556266
0.05611169
0.07728601
0.02030122
-0.04019229
0.12548111
0.10891949
-0.01644376
-0.00494859
-0.16851047
-0.03019355
0.08307264
-0.01466419
-0.12764420
-0.11075993
-0.00262137
0.07035649
-0.07442737
0.00923366
-0.05379247
-0.01914107
-0.10119738
0.06507015
-0.41985533
0.03808024
-0.39007345
-0.03133217
-0.10760689
0.00244264
-0.06573898
0.04678926
0.12565845
0.03414480
-0.02678540
-0.07086135
-0.17804721
-0.40215871
-0.19014288
0.07254513
0.00863522
0.03376761
0.00067063
0.07566981
-0.05998524
-0.22839250
0.01339388
0.12528783
-0.12915459
-0.55755615
-0.07533491
-0.18691103
0.07583004
-0.13613391
0.01443492
0.02088866
0.04420860
-0.06844836
-0.03468983
0.11549749
-0.08231844
0.05149808
0.10258371
-0.06463212
0.03714414
-0.04152558
0.07194468
-0.14475462
-0.15135145
0.05556057
-0.03926755
0.09692187
-0.02190087
0.10892090
-0.00970634
0.23056178
0.52511525
-0.13066962
-0.03803981
0.09817921
-0.18464445
0.26150236
0.04626470
-0.02139134
0.03239147
0.11834225
0.07659204
-0.02333675
-0.19047824
0.02058627
0.09836809
-0.11368355
0.10379004
0.13537109
0.06658477
0.07780557
-0.10298426
-0.14966601
0.01883185
-0.08461353
0.06977785
0.02979722
-0.16090597
0.14317963
0.04208808
-0.05285335
-0.09746043
-0.07203331
-0.36848250
-0.18052605
0.01246839
0.05241413
0.03003024
-0.04820399
-0.00076719
-0.13918895
0.03321481
-0.72813469
-0.04377533
-0.16035146
-0.07716044
-0.06037666
-0.11416366
0.17517047
0.09935401
0.06115897
-0.00194452
0.06553969
-0.10517219
0.05562455
0.20539781
-0.00879631
0.13146380
0.00300417
-0.03474127
-0.08275665
0.16051029
0.09058660
0.01171593
0.25642568
0.03664643
-0.05502855
-0.23379318
0.13100699
0.03803913
0.06937308
-0.01187643
-0.04677510
0.08428352
-0.14986841
0.06454340
0.07232094
-0.00644690
0.04165409
0.08127048
-0.06335842
0.04992463
0.11664826
0.58780843
-0.04685781
-0.06657834
0.04393905
0.02550240
-0.23163030
-0.02088907
-0.04654481
