-0.02824226
0.01605172
0.00067929
-0.04553111
0.00760440
-0.01678609
-0.01875467
0.00407537
-0.00275760
-0.00664979
-0.00809872
-0.04050899
0.00531921
-0.03011415
0.01271493
-0.02738343
-0.03262683
0.04052678
-0.01608752
0.03103697
0.00791720
-0.01801923
0.00617223
0.01026511
-0.06133517
0.03930912
-0.01853687
-0.00121061
-0.00343954
-0.00103152
-0.01924816
0.00881286
-0.00571569
-0.01353027
-0.01333475
0.00721115
-0.03018690
0.01982178
-0.03031619
-0.04319857
0.04655177
-0.00679266
0.01362940
0.02272845
-0.02012353
0.00236920
0.00948181
-0.00067438
0.00330770
-0.00480751
-0.02716532
-0.00844798
-0.00357683
0.00631712
-0.02850554
-0.01430339
-0.00829220
-0.00040246
0.01371614
-0.00695378
0.02089483
-0.05803225
0.03917618
-0.01276533
-0.00174233
-0.00465341
-0.05756201
-0.00914158
-0.01443470
0.00233885
0.01969258
0.03295390
-0.00249757
0.02685324
0.00110116
-0.00451404
-0.03086232
0.00229416
-0.04911649
0.02636446
-0.04045466
0.05640405
0.00303332
-0.02950802
-0.01010538
0.02248610
-0.01149971
0.02824619
-0.02823160
-0.02071397
0.00240367
0.02310356
0.01822479
0.03509343
0.05471963
0.01945569
0.03764811
-0.00721148
0.00201336
-0.00715751
-0.04758327
-0.00792132
-0.03519036
-0.00533135
0.04604355
0.03661968
0.02752959
-0.03345099
0.00227828
-0.01459915
-0.00953806
0.01005918
-0.01962397
0.01887684
0.02163732
-0.00866409
0.00453979
-0.00942180
-0.00949496
0.03331536
0.01304175
0.03049154
-0.00275923
0.01913938
0.00071785
0.03216047
-0.00787549
-0.02742183
0.00587979
-0.05113909
-0.02275565
0.01933741
0.01595930
-0.03018420
-0.00746170
-0.08080088
0.05494568
0.00148121
0.06727433
0.05202430
0.01811926
-0.00295227
0.03850196
0.00137087
-0.07779947
-0.05437100
-0.06941172
0.01628605
-0.06297874
0.08953149
0.07045622
-0.00107217
0.03247760
0.01420995
-0.03233875
-0.01190319
0.04211646
-0.18344255
-0.02930503
0.09385958
0.18783517
0.05458601
0.07967245
-0.00166916
-0.02389230
0.02100706
-0.06224445
0.04347318
0.02251345
0.00535694
-0.09057736
0.02034649
-0.03886465
-0.02122571
0.08953334
-0.00411707
0.07261903
-0.00148882
0.00705218
0.00073096
-0.07184594
-0.04232458
0.08845480
-0.04397778
-0.07247911
-0.05762677
-0.00286807
0.01537132
0.03742066
-0.03626846
0.02142885
-0.01514058
0.04186577
-0.03166125
0.02971795
-0.02530264
-0.01267663
-0.03719245
0.01311466
-0.02889563
-0.03555605
-0.03136870
0.04488285
0.02894058
-0.04066157
0.03583101
0.05408842
-0.04881275
-0.02365942
0.02542127
-0.01672723
0.04867119
-0.05517169
0.04588269
-0.05067208
0.00205736
0.01546655
0.05163125
-0.03160871
-0.04580387
0.05466280
-0.01009082
-0.04281696
-0.01575565
0.06257159
0.00339181
0.00306312
0.00151892
0.05568746
0.01288523
0.00355545
0.05806854
0.10536140
0.07002770
-0.00260951
0.01542730
-0.03163635
0.00227113
0.00995696
0.00680258
0.06871405
-0.04505313
0.03279071
-0.00157102
0.06595895
-0.00727035
0.02669861
0.00694973
-0.08105710
-0.04303493
-0.05831701
-0.00906446
-0.04535884
-0.03658555
-0.00599215
-0.04179802
0.02229426
-0.00835265
0.02608361
-0.12413457
-0.06935955
-0.06306201
0.03736562
0.02154754
-0.19468944
-0.01079413
0.03997637
0.03447629
-0.00205060
0.04318591
0.00056000
-0.04626342
-0.23632552
0.00123036
0.01311752
-0.01424121
0.00048328
-0.02389982
-0.06443374
-0.00277401
0.01199055
0.00675757
-0.03510668
0.11733475
-0.03292834
-0.01549739
-0.01377106
0.09049087
0.03681806
0.09013557
0.07600449
-0.00633781
0.01024879
-0.03429798
-0.01216948
0.01825728
0.01716768
-0.14143862
-0.00240362
-0.05647755
-0.00038068
-0.00837396
-0.00849145
-0.01530321
0.06026305
-0.04227825
-0.00824765
-0.00710810
-0.05811935
0.02984982
0.02465227
0.01134577
-0.04504254
0.04792183
0.08937945
0.09717567
0.00759067
-0.00025082
0.01547739
-0.00434586
-0.03578499
0.00542995
0.02120627
0.02208551
0.00476139
0.00978030
-0.00919276
0.02037466
-0.01180032
-0.01519938
0.01191632
-0.00908196
0.01723396
0.00656198
-0.01473626
0.00413957
-0.00229516
0.00890787
-0.01897307
-0.01635176
-0.00356014
-0.00644336
0.01023049
0.00811751
-0.00175931
0.00711439
0.01796872
-0.01861729
0.00637941
0.00572151
-0.00291461
-0.00461855
-0.02461784
0.00333725
-0.00256843
0.01426371
-0.01609944
0.00582779
-0.01207700
-0.00415708
-0.02419847
0.01232769
0.00180896
-0.01216032
0.01159185
-0.03070296
0.01559352
-0.01150947
-0.00035502
0.00485853
-0.01301813
0.01142512
-0.00550970
0.00909459
-0.01401311
-0.01059536
0.01463226
-0.01409292
0.02167186
-0.00450881
0.01849531
0.00311534
0.02083640
-0.00394612
-0.00769577
0.00758398
0.08683572
-0.03776311
0.00817733
-0.03363656
0.01349081
0.00325484
0.01680415
0.00208592
0.02490776
0.02656757
-0.02336608
0.05894409
-0.00570905
-0.02665288
-0.06422230
-0.09731039
0.06686682
0.02871219
0.06022007
-0.06746602
0.00272720
-0.01837395
0.02492142
0.05395964
-0.01478612
0.01318062
-0.01379800
-0.09483429
0.02875501
-0.02267645
0.06976926
-0.02533958
0.03507297
0.05999799
-0.00766014
0.00852297
0.01652092
-0.00779775
-0.00237932
0.00423450
0.06463241
0.04230889
-0.00932359
-0.02199380
0.05895858
-0.02299386
-0.06502964
-0.01628088
-0.05562960
-0.02518375
-0.03627351
0.03773059
0.00026989
0.01219469
-0.00472736
-0.00367805
0.01204312
-0.08524773
-0.03053785
-0.00184246
-0.02036717
-0.08932877
0.00575650
-0.01785713
-0.03199433
-0.01331435
0.00978723
-0.10319192
0.04362515
-0.02703485
0.01570896
-0.08483535
-0.07617485
0.01020082
-0.11582371
0.00835280
0.02466149
0.08682468
-0.06694984
-0.06207700
0.04777535
-0.02305359
-0.02143226
0.02022540
0.03396051
-0.01411405
0.02099066
0.02341545
0.08119342
0.02159532
0.03612978
0.04949732
0.06307328
0.04640609
0.03033776
-0.05955461
-0.07889154
-0.04515531
-0.04898658
0.04270468
0.00167743
-0.00370619
0.00825346
-0.01216138
-0.00482318
-0.06906907
-0.03217018
-0.03984880
-0.03317417
0.01438346
0.04415868
0.03147218
0.01789710
-0.06985772
-0.07275952
-0.06247764
0.03813878
-0.16960877
0.02561366
-0.03785188
0.01769047
-0.04433819
-0.03769203
0.05706316
-0.01112098
0.05433523
-0.00742612
0.03829368
-0.01583399
0.00826117
-0.01531909
0.01053112
0.00867529
-0.01632570
-0.01644676
0.02783180
0.01740027
0.00744504
-0.05759031
-0.01098340
-0.00122360
-0.02234273
-0.00944159
-0.03030147
0.02137078
0.02633094
0.00460639
-0.01996010
-0.05441728
-0.03173111
0.00673859
0.03265794
0.00272632
-0.03386305
0.05574914
-0.02614352
-0.02310088
0.01632706
-0.00011035
-0.02699993
0.00092004
-0.01968634
-0.06071435
-0.03440696
-0.02259934
-0.00552099
-0.03944302
-0.01152632
-0.00591702
0.00007865
0.01684841
-0.00074877
-0.00590306
-0.01288922
0.00449143
0.00138283
-0.00027997
-0.03693609
0.02827068
0.02372119
0.06041270
-0.01387699
-0.06022025
-0.06690024
0.03010318
-0.01398758
-0.01865789
0.02292994
0.00249247
0.00404042
0.03806728
-0.01258103
0.01948535
0.03421251
0.00657589
0.03848441
-0.00852238
0.00186484
-0.00281071
-0.03621912
-0.00165103
0.00362096
-0.00821242
-0.02515588
0.06312719
-0.04616974
0.02515573
-0.07669954
0.02110151
-0.04204583
0.04540699
0.00433492
0.03336043
0.10946864
-0.04907713
-0.06176122
-0.05721674
-0.03567225
-0.10588398
0.03035870
-0.02946191
0.04225752
-0.00959971
0.04400992
0.04234137
0.05173185
0.00211828
-0.05041385
-0.00789082
-0.04475635
-0.03735692
0.00628437
-0.02070574
-0.05141674
-0.08401731
-0.05955745
0.07122853
-0.01623992
-0.03147649
-0.00607235
0.03024595
-0.04242757
0.03866247
-0.00928839
-0.05233050
-0.07364926
0.01440018
-0.04545649
-0.05608771
0.06020084
-0.02101267
-0.00688850
0.07342146
-0.01909182
0.06277459
0.02423190
0.07597746
-0.01465816
0.01710712
-0.02481519
0.02450722
-0.00160448
-0.05758843
0.01298553
-0.09358043
0.00700396
-0.03551834
0.03711751
0.01604795
-0.01518169
0.01409543
-0.01919170
0.01383269
-0.03198090
0.02612557
0.01243715
0.00468796
-0.04806168
0.00263222
-0.03144670
-0.02505456
0.02802672
0.02636507
0.04524185
0.01914138
0.01791151
-0.00149762
0.02571444
0.02333380
0.03566532
0.00860344
-0.05392495
-0.00096002
-0.00554527
-0.00694937
0.00739379
-0.00172019
0.00575343
-0.01619414
-0.01056878
-0.03601449
0.00829448
0.00384823
-0.00885367
-0.03737891
0.04559022
0.03833561
0.03038516
-0.06447298
0.02409314
0.00565042
-0.03869461
-0.00940509
-0.01588006
-0.06281005
-0.01361130
-0.00668618
0.00215781
-0.08522064
-0.04825312
0.02275078
0.08991973
-0.04990823
-0.05940592
-0.00398129
-0.01312158
0.07398117
0.02330939
0.03140698
0.06519433
0.01283249
-0.00535187
0.02922574
-0.12126075
-0.06427347
0.03549718
-0.04518631
0.03554979
-0.01454456
0.07112544
0.05555497
0.01618097
-0.02772862
0.01468157
-0.02422297
0.04766299
0.00488058
-0.03656549
-0.01569256
-0.03361254
0.03125901
-0.05501397
-0.05787862
-0.03504313
0.03843498
0.00772828
-0.01719572
0.09526461
0.05582110
-0.00439037
-0.05880864
-0.02730890
-0.00570564
0.07117907
0.11804398
0.00979375
0.00591998
0.01984239
-0.11714075
-0.04754266
0.02908558
0.03670607
0.01724502
0.03991305
-0.06783761
-0.15897110
-0.00217292
0.01964533
0.02853717
0.01208213
0.08788788
-0.04420253
