-0.08380133
-0.18589175
-0.03262110
0.02936026
0.09720545
-0.28732085
-0.00272605
0.01102747
0.24192148
-0.40851584
-0.21774852
0.15593755
-0.31014112
0.07520773
0.19310977
-0.09423776
0.17196585
-0.18721284
-0.07678056
-0.50617397
-0.13201652
-0.09080046
-0.14546262
-0.16432889
-0.09624159
-0.35273126
-0.20034443
-0.23830296
-0.15738757
-0.14235635
-0.07464479
0.22329971
-0.60776001
-0.13219862
-0.24681446
-0.07519558
-0.16948517
-0.35688934
-0.15523756
0.23523465
0.05974670
-0.01352117
0.02263417
-0.31401050
-0.43901581
-0.18684320
-0.23758990
-0.11564454
-0.25836354
0.13735224
-0.07402928
0.05835407
0.06875563
-0.10645474
-0.08297151
0.07453988
-0.08032171
-0.80482614
-0.30460295
-0.09202723
-0.14162332
0.03655671
-0.12524852
-0.84710419
-0.18117578
0.02518779
-0.23415199
-0.23595411
-0.00093923
-0.55511856
0.20038332
-0.26854771
0.04958706
-0.03862171
0.18542798
0.17037445
-0.08117019
-0.32865429
-0.05569950
-0.06841743
-0.35758269
0.07632880
-0.07077831
-0.06367159
0.17918350
-0.15031148
0.10754341
0.00349848
-0.09472973
-0.22665839
-0.27164409
-0.00715893
-0.28835532
0.07371038
-0.08415893
-0.02037694
-0.00929947
-0.40689257
0.27905032
-0.14239149
-0.09604852
-0.34127486
0.17048264
-0.16236433
-0.34984231
0.16956858
-0.01015218
-0.08846156
-0.23350264
0.04347488
-0.61575252
-0.01557091
-0.23423506
0.06144773
-0.04281599
-0.65372312
0.07104513
-0.12169287
-0.30675784
0.05864360
-0.17116453
-0.02330965
-0.05615763
0.22707421
-0.36036792
-0.18474847
-0.14550263
0.37084588
-0.10708515
-0.45103464
0.16002133
-0.05634011
-0.05604091
0.14351089
-0.09445468
0.06755173
-0.23368321
-0.12283670
-0.04054120
-0.22719696
-0.06189045
-1.07567513
0.18257393
-0.21292271
0.14235288
0.24257019
0.14867623
-0.03968127
0.08597080
-0.11223374
-0.07656381
-0.27813894
0.25780955
-0.03183752
0.00331572
-0.15529719
-0.09082622
-0.09189732
-0.03880226
0.02905324
0.00534388
-0.25041074
-0.04486952
0.12084677
-0.24405652
-0.49139675
-0.10734607
-0.12028701
-0.57743227
-0.08672597
0.07963990
-0.02275701
0.30399719
0.17629644
-0.08734852
0.06527111
0.06896217
0.13934024
-0.45663461
-0.06892528
-0.00770289
0.33104181
0.10863838
0.17691432
-0.06395606
0.02174960
-0.00608625
-0.24326080
0.04653387
0.10898633
-0.15410602
0.10177558
-0.08166072
-0.16129547
-0.33293468
0.04237743
-0.23558734
-0.21538842
-0.06666382
0.03099375
-0.09233002
-0.29724804
-0.04950936
-0.50129676
0.21760397
-0.31952837
0.02506273
-0.06419206
-0.18290046
0.02568126
-0.01556593
-0.52722770
-0.09233063
-0.03692174
-0.03301818
-0.13231444
-0.01299861
-0.12645715
-0.13165212
0.17969054
-0.49965176
0.01856657
-0.03698905
0.02471658
0.02913360
-0.21780092
-0.34027880
-0.09391469
-0.18734615
-0.08267024
0.15119736
-0.17447768
-0.16825376
-0.20107289
-0.03339548
0.05224371
-0.10518245
-0.03152079
-0.22616552
-0.43421280
-0.29667386
-0.29878366
-0.27945390
-0.00040072
-0.59974259
-0.23540340
-0.16999784
0.09601194
-0.07428482
-0.25104260
-0.18169619
-0.07383672
0.12240835
-0.05677838
-0.62404144
-0.46439597
-0.64871889
-0.29663655
-0.01594424
-0.04412923
-0.15504052
0.12677997
-0.02186191
0.07742468
0.03104202
0.21246897
-0.04733008
-0.78103787
-0.30780572
-0.00963376
-0.23514460
-0.02900853
-0.10572807
-0.04212740
0.02166890
-0.01206409
-0.03708560
-0.12937860
-0.46866965
-0.11048114
-0.26857123
-0.02523468
-0.17598733
-0.03948831
-0.84379900
-0.20440264
-0.10608663
0.18623330
-0.05153622
-0.12276055
0.04405104
-0.17176963
0.03352309
-0.39817923
0.00802081
-0.33374232
-0.51925445
0.02380943
0.00657227
-0.17835787
0.07115658
-0.33956048
-0.07706396
-0.57008827
-0.19459948
-0.00841372
0.11408780
-0.23907568
-0.08253225
0.04470118
0.06167996
-0.18334493
-0.25533554
-0.39913577
-0.05330077
-0.33311489
-0.05335792
-0.07767781
0.07711331
-0.15751812
-0.22934034
-0.26289308
-0.32231292
-0.17039293
-0.02548557
0.05108067
-0.08855531
-0.07961985
-0.50019062
-0.43925911
-0.39292514
-0.14162660
0.13169228
-0.11514900
-0.04546827
-0.06797297
0.05309306
-0.60727191
-0.29020098
-0.05670523
0.14468333
-0.36393270
-0.31266171
0.01119407
0.01416254
-0.16168149
0.10807201
-0.11070380
-0.15232500
-0.27058426
-0.40550107
0.12054736
-0.05418672
0.06574645
-0.87599242
-0.17165150
-0.13632578
-0.65708959
-0.68838030
-0.40446106
0.00077368
-0.20908064
-0.12430636
-0.01400051
0.12636051
-0.14491747
-0.71723586
-0.04049306
0.12706427
-0.01912335
-0.10224079
-0.12553953
0.12274688
-0.08023595
-0.53229386
0.08032589
-0.13175145
-0.24019682
0.00121729
0.02440041
0.15927854
-0.18841925
-0.62309593
0.23153611
-0.27325115
-0.09593026
0.14735638
-0.26713011
-0.05623507
-0.03188525
0.13878292
0.03376009
-0.04076186
0.00264133
-0.41664484
0.11592314
0.00865845
0.03591425
-0.00110828
-0.12644754
-0.18012768
-0.14306812
-0.59504038
0.02139441
-0.04369961
-0.45675370
-0.27478883
-0.20164177
-0.21385013
-0.08616246
-0.37189719
-0.08222260
-0.06230114
-0.02331151
0.11084143
-0.00211345
-0.49291146
-0.07994644
-0.62099141
0.00749072
-0.02867925
0.00408589
-0.16108435
0.07530463
-1.02562785
0.04197466
-0.08344742
-0.01912328
-0.54762232
-0.07504681
0.04044247
-0.07528781
-0.08016362
-0.22172356
-0.01699597
-0.08334999
0.01869178
-0.35557356
0.08064308
-0.05610285
-0.16120546
-0.40422532
0.17409575
-0.23373508
0.01158008
-0.18525994
-0.02487667
0.09215256
-0.49693584
0.11738507
-0.19718789
-0.06716769
-0.19676208
-0.23207606
-0.08115502
-0.45594582
-0.96451390
0.17488584
-0.02465721
-0.19850661
-0.10447042
0.09112081
-0.30630365
0.00364821
-0.12670179
-0.23709542
0.00028776
-0.17589535
-0.45139974
0.04033308
-0.13603939
-0.00227333
-0.31707284
-0.08494984
-0.20496833
-0.69736993
-0.49840376
-0.19656326
-0.59856224
-0.42702919
-0.13966995
0.10027320
-0.06131196
0.00118348
-0.15004858
0.09408413
0.03071814
-0.11331232
-0.14622973
-0.07878050
-0.38183153
0.24088109
0.03623909
-0.21942768
0.04675874
-0.30407265
-0.30139825
-0.13621633
-0.03808897
-0.27023846
0.14286885
0.20144674
-0.12463971
-1.12305427
-0.00535378
-0.07227694
-0.28107685
0.16272190
0.04332172
-0.03177192
-0.25345358
0.08146371
