0.00903359
0.00522850
-0.02841488
-0.22355485
0.28281343
-0.10354657
0.21058084
0.05214052
0.00931335
-0.10139859
-0.09562729
0.21383323
-0.06576999
0.09982106
0.01565643
0.07925363
-0.11230145
-0.02840563
-0.07871301
0.24294020
0.24602389
-0.23039554
0.11285125
0.30358633
-0.02340969
0.26384899
0.12774998
-0.24426693
-0.24723963
0.06496824
-0.04903997
0.03098852
0.24189629
-0.19570005
0.08131009
-0.01356724
-0.14962466
0.23353653
0.16836728
-0.40372336
-0.08249662
-0.18586323
-0.01664185
0.11181846
0.00855919
-0.13928327
-0.10551984
-0.09695204
0.02142516
-0.11055815
-0.23766831
-0.05261601
0.22837411
-0.39717507
0.03935651
-0.07278746
0.08062977
-0.25139669
-0.00137144
-0.07723376
-0.05740349
0.04950933
-0.21094143
-0.15048684
0.02443622
0.10605081
-0.02254201
-0.06617566
0.01542232
-0.19701792
-0.33141425
0.09168986
-0.09019049
-0.11617498
0.09846171
-0.06160708
-0.03834249
0.15944149
0.04523648
0.05758194
-0.01009049
0.01238428
0.07677153
0.13772093
0.00427703
-0.07897570
-0.08567574
0.05803229
0.00051380
0.08949108
-0.03261452
-0.15719947
0.72432971
-0.07835010
0.06435517
-0.08476316
0.11380264
-0.14481688
-0.07400938
-0.07290135
0.06514424
0.11149160
0.02259561
-0.12960036
0.01315080
-0.20588252
-0.11241042
-0.10557979
-0.00896361
0.02971801
-0.10387868
0.00709252
-0.30181104
-0.15717447
-0.08368976
0.01270097
-0.03262335
0.01315000
-0.11204603
0.12245587
-0.09716084
-0.29682073
-0.08370230
0.04957746
0.07141971
-0.19664116
-0.07601691
0.08892332
-0.04553839
-0.07734399
-0.00354844
0.04328948
-0.11097061
-0.09467988
-0.00993941
-0.11564576
-0.04403201
0.09919906
-0.22014254
-0.19624674
-0.11376268
0.00948155
0.00234646
-0.01149494
0.05028327
-0.60909426
0.01095075
0.03004389
-0.10283007
0.40361705
-0.00930801
0.16931117
-0.28949979
0.01665990
0.06685902
-0.01819048
0.10559178
0.21833076
0.10010967
-0.10044734
0.04285326
-0.08710536
-0.12162621
0.07086457
-0.11551344
0.07999118
0.12663236
-0.09701360
-0.69682884
-0.10927666
-0.13667311
0.00713196
-0.04579467
0.39000770
0.04434068
0.21283932
0.04491269
0.09713651
0.04472587
0.10720228
-0.01916173
0.03927388
-0.11940318
0.14702761
0.08251201
-0.07109974
0.21496910
0.15582903
0.13690904
-0.03580652
-0.03963727
-0.25174072
0.17311233
-0.02520458
0.11391260
0.09634931
-0.08158219
0.18770562
-0.02128951
-0.11038614
-0.24997203
0.03103911
0.07118958
0.12845142
-0.13077642
0.12907125
0.06649028
0.00122434
0.07603759
-0.00543272
-0.03712398
-0.15022147
0.07026888
0.13115333
0.09973380
-0.09205782
-0.04598110
-0.07326637
0.06758191
-0.21369626
-0.06226286
0.10241931
-0.03811116
0.05445133
-0.08585639
0.36500821
0.12673149
-0.06693097
0.08095132
-0.02874542
0.08168617
-0.07404580
0.04201472
-0.05872121
0.03111628
0.12470228
-0.10286137
-0.00955497
-0.00735848
-0.23899689
-0.04523573
0.05974475
-0.07483678
-0.01252633
0.03231400
-0.04904734
-0.25798401
0.05709714
-0.22541694
-0.50366539
0.00361815
0.22920841
-0.07683539
-0.10242420
-0.00795567
-0.08830629
-0.21782382
0.01069982
0.03612305
-0.03643789
-0.00217023
-0.09359109
0.08439754
0.00265746
-0.03894089
-0.08129152
0.02688316
0.05772097
0.04631227
-0.01149542
0.03813902
-0.03940632
-0.08933545
-0.04644305
-0.08402604
0.13272284
-0.14938381
-0.14192390
-0.15603317
-0.14415443
0.12821749
0.03466169
0.02355884
-0.09942862
-0.18123697
0.00477381
0.18395339
0.23316450
0.13729218
-0.03968909
0.06033323
-0.08720657
-0.15516587
-0.01934287
0.13432889
-0.11944992
-0.06663024
0.26264066
0.08023021
-0.03658327
-0.03431212
0.06641760
-0.12824035
0.05624372
0.35391623
-0.04568186
-0.27011105
-0.09910991
-1.29700422
0.01036239
0.01178085
-0.05520434
-0.00958955
-0.01751257
-0.01923367
0.03424759
0.02246305
0.06633983
-0.07159186
0.20376112
-0.18350028
0.06096505
0.16242054
-0.22974506
-0.05245289
0.09935699
-0.05808800
-0.12976681
-0.03872676
0.03014108
-0.07466925
-0.04129461
0.05321151
0.17491947
-0.04812802
0.02558315
-0.14060923
-0.13333489
-0.01182215
0.07469786
-0.00036656
0.01234441
0.05264288
-0.04251565
-0.03856793
0.23489313
-0.02165224
-0.21351437
-0.10317548
-0.30506101
-0.11249404
0.10426678
-0.00881080
0.17477448
0.01661832
-0.07949152
0.02673939
-0.00562602
-0.08452012
0.09581161
0.03408000
-0.00280432
-0.05059475
0.07590268
-0.01410071
-0.14086054
-0.08291388
0.10507358
-0.13648592
-0.02750624
-0.12046949
-0.02182272
0.06448044
-0.07296880
-0.14135498
0.01056810
0.00475031
-0.00872336
-0.10583117
0.05511238
-0.09041918
-1.09162009
0.09638809
-0.28698444
0.03571010
-0.07835244
-0.24310921
0.10061182
-0.06721222
-0.15293199
-0.01270853
-0.03958185
0.11980782
-0.00651636
0.06346630
-0.03885983
-0.18428795
-0.17750572
0.04993758
-0.11186214
-0.01565219
-0.11511242
0.01833186
-0.12995514
-0.14775516
-0.22325388
0.09105396
-0.07269415
0.19732112
-0.06537550
-0.07037355
-0.15112920
0.03165642
0.07393052
-0.11309980
0.02466202
-0.02656610
0.00594582
-0.02086317
-0.05496290
-0.06444717
-0.34899086
0.03813324
-0.11240949
-0.19071858
0.13851194
0.05576969
-0.14841512
-0.19033931
0.13090907
0.04911248
-0.22440360
-0.26714757
0.16301134
-0.06862934
0.10852797
-0.20320445
-0.05361204
-0.15558569
-0.18886827
0.07159812
-0.05110528
0.10508963
-0.07996169
-0.00715192
0.02074248
-0.22967818
0.08878177
-0.09271528
-0.31656852
-0.01541244
0.01364162
0.16419351
-0.19912590
0.05698204
-0.04890440
-0.01694262
0.09651054
-0.04677496
-0.07866212
0.03257136
-0.24914137
-0.07411223
0.16399294
0.17283727
-0.06785643
-0.10784031
0.04167045
0.03342094
0.00369849
0.00175555
-0.24168903
-0.01219131
-0.10530992
-0.14383301
-0.08109105
-0.15756331
0.04344873
-0.20836447
-0.06308729
0.04716229
0.12487207
-0.17479491
-0.02004789
0.04494393
0.00509806
0.08148830
0.14498283
-0.25543073
-0.05258623
-0.04024930
0.01440233
0.06690655
-0.03802979
-0.09922933
-0.09970255
-0.14704528
0.01864756
-0.04838431
0.13714534
0.06017492
0.02947572
-0.08516385
0.02254106
-0.06769028
-0.01111300
-0.17944442
-0.02655633
-0.11250214
-0.03465840
-0.11201101
-0.07672238
0.03998390
-0.07427530
-0.11728296
0.25502390
-0.09237561
-0.09761315
-0.32530972
-0.02872126
-0.13918200
0.21222340
0.05727481
-0.18822986
-0.15024257
-0.03156499
0.03534532
-0.01678668
0.06947108
0.08798324
-0.07000755
-0.05980221
-0.00292778
-0.06872184
0.00488752
-0.08553261
-0.06050544
0.00622186
0.01215158
-0.24957782
-0.01355445
-0.08692932
-0.17285194
0.05219804
-0.13743030
-0.73373216
-0.16764534
-0.09498995
0.20334262
0.07905360
-0.08646294
-0.05937625
0.15501690
0.04943826
0.03599054
-0.09872915
0.02276886
0.04779164
0.09398963
-0.07049986
-0.16993210
-0.25577480
-0.13172300
-0.00531468
-0.07489325
0.00159650
0.11409527
-0.05658520
-0.01787814
-0.00608979
-0.00835837
-0.00170302
0.03746005
0.09169409
-0.14598501
-0.06217961
-0.13731651
-0.15730371
0.15761128
-0.05892526
-0.16023175
-0.00710602
0.12592299
-0.06708835
0.00239081
0.00832229
0.40462753
-0.05026273
-0.05707622
-0.01917946
0.04512917
-0.01453716
0.09529353
0.02408844
0.20402569
-0.01268672
-0.02507245
-0.00614507
0.09319779
-0.03265862
-0.02738462
0.04858751
-0.18035491
0.04285112
0.05096714
0.18662213
0.03750927
0.18329458
-0.00580491
-0.05290324
-0.00994412
-0.13934818
-0.09437074
0.00299162
-0.12807284
-0.03771450
-0.03503463
-0.01179360
-0.08107334
-0.00843282
0.07752315
-0.06688953
0.08683892
0.05168276
-0.09765185
0.23360294
0.25418326
-0.18245299
0.12412098
0.10944337
0.17953113
0.23462290
0.04615223
0.14194356
0.03177206
0.07305425
-0.01289813
0.03897704
0.03631996
0.18327278
-0.17349318
0.15754603
0.11643050
0.00431746
-0.04810138
-0.10998978
0.14521861
-0.11640454
-0.08770119
0.04293985
0.00633801
0.17349377
0.08337127
0.13219114
-0.16170043
-0.09869232
0.06036647
0.01553313
-0.06458055
-0.02629698
0.05782736
-0.02618073
0.08690509
-0.17797633
0.07216557
-0.08555447
0.08345607
0.03798247
0.01707843
0.08095580
0.05897750
0.00112113
-0.11918987
-0.09988611
0.05376130
-0.13990146
0.26794925
0.19118232
0.22404104
-0.11107644
0.00246707
-0.12988962
0.25948972
-0.08865619
-0.12256949
-0.05359450
0.13283129
-0.09911779
-0.14086011
-0.01203146
-0.04184326
0.04454802
0.11790658
0.06641140
-0.12470844
0.08012381
-0.16481227
-0.09539413
0.00371812
-0.09000501
0.09113982
0.01201406
-0.13411224
0.00522640
0.08199333
0.00147185
0.10596924
0.07715060
0.06230760
0.15274854
-0.16315816
0.11115321
0.15610403
0.12349218
-0.02143482
0.11162913
0.00301506
0.12209172
0.03556557
-0.07855512
-0.09602775
-0.19911747
-0.03780844
-0.04651538
0.10524800
-0.01594419
-0.07269475
-0.02413327
-0.07932510
-0.00371413
-0.06968735
0.10560155
0.16556588
0.14042152
0.28164876
-0.04438275
0.11223890
0.06068469
-0.03608900
0.02275607
0.07151396
-0.01181714
0.05381758
-0.07830504
-0.00475190
0.18716724
-0.09558535
-0.07555332
0.07084977
0.01195215
0.03249504
-0.14559649
-0.11017283
0.14976048
-0.21867909
-0.03306614
-0.29232952
0.11392261
-0.11353686
0.07142015
0.02151955
0.18998186
0.04766551
-0.25584882
-0.09989099
-0.01289620
0.03618289
0.00830954
