0.03054528
0.00479777
-0.02729505
-0.03252120
-0.00525727
0.05256636
-0.03850168
-0.03158551
-0.03527669
0.02300362
-0.00828383
-0.05087780
0.05944796
-0.06039970
-0.01505247
0.05761329
0.00448707
0.03759182
0.00373674
-0.03702177
-0.10768232
-0.00303014
-0.04851136
-0.01260880
0.03669192
-0.02970345
-0.01967743
0.02033084
0.04637802
0.02638924
0.02422071
-0.03860823
-0.01713726
-0.01633764
0.00777388
0.03693293
0.05219513
-0.03036954
0.03862001
-0.00739543
-0.02436095
0.01872369
0.02573806
-0.05838321
0.00924410
-0.00160006
-0.00877274
-0.00705110
-0.02472096
-0.02448694
0.06202750
-0.00507995
-0.03501549
0.04562032
0.06437454
-0.01547220
-0.03797711
-0.00699438
-0.02594700
-0.06150382
-0.01643433
-0.01961491
0.03198187
0.06009398
-0.06730872
-0.03041424
-0.00666290
-0.01176319
-0.04853122
0.01531802
0.03415900
-0.00994552
0.09690776
0.00864090
-0.03945104
0.02454962
0.04807534
-0.10726591
-0.01534327
-0.10272860
0.00463547
0.01960067
-0.04982929
-0.02189484
-0.02817105
-0.02952513
0.03736976
-0.08227249
-0.01781989
-0.02471085
0.01741221
0.00164830
-0.06165246
0.07049203
0.01848485
-0.00074860
0.03663933
0.01685151
0.03945287
0.03226892
-0.03252093
-0.04637044
-0.01014527
0.02942903
-0.04043041
-0.00062814
-0.00815749
-0.00599267
-0.01377813
0.00057208
-0.05554800
-0.01223144
0.03710390
0.04325893
0.02215164
-0.02672944
0.00453300
-0.00103226
0.03335552
-0.02357418
-0.04483101
0.11970687
0.02430412
-0.02740780
0.02530474
0.03610821
0.01384042
-0.03612583
0.06000122
0.06805555
0.01651757
-0.06175442
-0.06970122
-0.02116473
-0.00235491
0.01399818
0.01235103
-0.02580274
0.01759305
-0.04988572
-0.00239173
-0.00928228
-0.02926103
0.03753772
-0.02498482
0.06624698
-0.00848268
0.04166050
0.02988565
-0.06466781
-0.02895796
0.01211827
0.11470278
-0.01280333
-0.00657291
0.03416432
-0.01129724
-0.05569961
-0.01247895
-0.06657606
-0.00505039
-0.01277035
0.06530342
0.00475080
-0.02408734
-0.03878693
-0.02412348
-0.00892223
0.16368623
0.01269522
0.00956061
-0.03257422
-0.03681355
-0.03027228
-0.02561404
-0.03108852
0.00538159
-0.00268066
0.03506978
-0.02475653
-0.02623385
0.00657350
0.00306296
0.00196665
-0.04167722
0.03221807
-0.01788512
-0.03990971
-0.02172654
-0.02888204
-0.00051838
0.04079496
-0.04537126
-0.04496696
-0.02414806
-0.02179356
-0.00224334
-0.03042058
-0.04060150
0.03214483
0.02190901
-0.04114557
-0.03009181
-0.02188173
0.01980220
-0.02303518
-0.02483617
0.00218996
-0.03724916
-0.00236851
-0.00521545
0.04866673
-0.03651996
-0.06583434
-0.01253947
0.04832542
0.00214622
0.03309346
-0.09166804
0.06201899
0.00190010
-0.00938072
-0.00866250
0.01593268
-0.01468455
-0.09665512
-0.04653997
0.01354242
-0.01740327
-0.00859292
-0.04478304
-0.03313190
-0.04725911
-0.00657319
0.01589179
0.00831647
-0.02090974
0.03571339
0.00360372
0.05313991
-0.05524798
-0.00983604
0.05688923
0.03223563
-0.05367937
0.06553681
-0.00820644
0.00279975
0.07757939
0.12926377
0.01933208
-0.03694540
-0.00570400
0.00719842
-0.04674750
-0.02654398
0.03238429
-0.00783945
0.02924760
0.01818427
0.01895265
0.04486004
-0.01132933
0.00892437
-0.07289900
0.02636576
-0.01410689
0.00075262
0.00179118
0.00514346
-0.04120956
0.02133956
0.01828841
-0.01201899
0.03009139
-0.06739774
0.01553173
0.03188919
0.04375116
0.02869696
-0.00901627
-0.01661017
-0.02062812
0.06137273
0.02624830
-0.01149740
0.01032270
-0.01670934
-0.00535145
0.02001890
-0.00635420
-0.00646862
0.04447167
0.01695230
0.02568584
-0.05917846
-0.11133955
0.00231446
-0.00446555
-0.04679338
0.00332874
0.02317351
0.02471744
0.01595107
-0.09290712
0.00052353
0.04882751
0.00666470
0.52053678
-0.02716496
0.02636035
-0.06742665
-0.03167702
-0.05028901
0.01312937
0.02358342
-0.02269324
-0.00613671
0.01077055
-0.14322306
0.02980589
-0.00181414
-0.02551601
0.05892811
-0.02471793
-0.03640082
-0.05588842
0.01132454
-0.02463891
-0.00693726
0.02625137
-0.03094309
0.00019776
-0.03488592
0.02355156
-0.04321468
0.01405444
0.03455894
-0.01832733
-0.00990214
0.04991918
-0.03263586
-0.08840289
0.00080147
-0.00025731
-0.07617190
-0.01757489
-0.01406782
-0.00712627
-0.01796754
0.00500576
-0.05390466
0.03639762
-0.06547055
0.02500756
-0.03921927
0.03228177
-0.00552924
-0.03788144
-0.03636121
-0.03290191
-0.02604288
0.00801620
-0.03953329
-0.01735105
0.00941067
-0.03731176
-0.03583780
-0.01966461
0.04940921
0.02750318
-0.00003265
0.00007744
-0.04158526
-0.01343467
0.01917389
-0.02678486
0.04672148
0.09641173
0.02551462
0.00390503
0.06002795
-0.03214590
0.03400530
-0.00818535
0.04906226
-0.03121246
0.00467319
0.01788171
-0.01027511
0.01146571
-0.01284609
0.01433010
-0.00261925
-0.00615919
-0.02320943
-0.03820122
0.04795085
-0.02011013
-0.01024999
0.01265993
-0.03287350
-0.00060660
0.03193321
0.03118439
0.02919163
-0.01348363
0.02397839
-0.00070200
0.02809077
0.03817752
-0.02902159
0.00780649
-0.01141849
0.04049788
-0.06099203
0.02120196
-0.00834282
0.00978163
-0.09547699
0.04291401
0.06905682
-0.01145404
-0.03282190
0.06562812
-0.01232451
-0.04885349
0.02953670
-0.02455663
-0.06439236
0.03717080
0.02329210
-0.00605266
0.00423459
0.00005709
-0.02489769
-0.00947112
0.06315638
0.02131154
-0.01260609
0.06963508
-0.04362662
0.01644387
-0.00128001
0.03412667
-0.02891768
-0.02136521
-0.04688323
0.04732472
0.07028162
0.00647016
0.01973453
-0.07545301
0.00852847
0.01454682
0.00552280
0.02605122
-0.02076433
0.00742470
0.05354834
0.01693629
0.09204236
-0.02423973
-0.01528492
0.00201071
-0.08325385
0.02425944
-0.01864730
-0.00411523
0.04134442
-0.01530894
-0.00659329
0.02239250
0.01406496
0.06887767
0.02553331
0.04531177
-0.04727308
0.01219491
0.03282170
-0.05500610
-0.01356786
0.04301961
0.01754180
0.00932711
0.01640444
-0.00955582
-0.02520039
0.06297135
-0.02087099
0.01709043
-0.01403579
-0.08965361
-0.03572163
0.00853510
0.02564635
-0.02436168
0.01900676
-0.01381497
0.00106681
0.03012380
-0.00506031
-0.02271265
-0.05068007
0.07251555
-0.01845885
-0.04049498
0.01070173
0.03191362
-0.01888054
-0.01033473
0.04411487
0.01828905
0.01898271
0.01638074
-0.05693934
0.05842600
0.05180852
0.04540420
-0.00206407
0.01501546
-0.02955716
-0.00049422
0.02822562
-0.03650086
0.01222849
-0.04248137
0.01795466
-0.00687494
0.07897659
0.03307592
0.08497890
0.02045407
-0.05912158
-0.01645867
0.00280764
-0.02742702
0.01294168
0.04749996
0.01727075
0.02867318
0.04671245
0.02879987
-0.00702929
0.00039657
0.09811417
0.01538584
0.01851580
0.02541425
-0.03003272
-0.02131371
0.04977274
-0.01515786
0.00432233
0.02286195
0.01292657
-0.05898485
0.05094701
-0.00315566
0.01895474
0.00990363
0.00991262
0.08451104
0.02749684
-0.00433639
-0.01797546
-0.00279574
0.02045442
-0.05971259
0.01722538
0.02524000
0.01087747
-0.04083706
0.05413252
-0.00281630
-0.00089384
0.02450251
0.05087690
-0.01871369
0.02555504
0.04774585
-0.00030656
-0.04012125
-0.03681190
0.03161282
0.00423291
-0.04668365
0.01839580
0.05568074
0.03936911
-0.02121270
0.02459862
-0.02665376
0.03567784
-0.01336344
0.03835893
0.01749630
0.00143222
0.01278848
-0.03534979
-0.03635327
0.00214361
0.04578095
0.02326336
0.03117160
-0.05111478
-0.00240028
0.03600058
-0.00953934
0.05073355
-0.00215543
0.04477410
0.01346326
-0.04573439
-0.00076865
0.02432096
-0.01878995
-0.00448650
0.03090668
-0.03339317
-0.04871050
0.02900561
0.01256641
0.01605890
-0.05544154
-0.00672285
-0.03593048
-0.05369055
-0.03089937
-0.00451178
-0.07886564
-0.04117166
0.00406417
-0.04991510
0.01435976
-0.00651337
0.00707548
0.00452551
-0.05351096
0.02508713
-0.00377912
-0.03501414
-0.00166128
-0.02225589
0.00127417
0.00489962
0.00829491
-0.00556918
0.01540835
-0.00599659
0.01762377
-0.03194761
-0.03481466
-0.00552797
0.04540870
-0.02177277
0.04389903
0.00461115
0.02093725
0.06271898
-0.03934941
-0.03221755
-0.03690747
0.00172958
-0.01038034
0.06299261
-0.00879449
0.02395741
-0.01873705
0.00964562
-0.03506130
-0.00953443
0.03993505
0.01094291
0.01153544
0.02832964
-0.02360235
-0.02034676
-0.02341004
0.08067670
-0.00120903
-0.02355337
-0.02563061
0.02452928
0.01311248
0.08673799
-0.03836869
-0.01817679
-0.01479416
0.03693122
-0.04858546
-0.00021471
0.02330638
0.00122322
0.07200415
-0.07817391
0.05246395
-0.01312251
0.00616058
-0.13155110
-0.01620879
0.00220666
0.01741885
-0.02665296
-0.03019870
-0.01717459
0.01626111
0.00837317
0.02556407
0.00126710
0.09953787
-0.04360968
0.00525625
-0.01235056
0.00521074
0.01278424
-0.04290024
-0.00535478
0.01185136
-0.02218504
-0.05022567
0.02030612
-0.01978393
-0.01467332
0.02092137
-0.00763630
0.00142255
0.03581382
0.07309013
0.01336960
-0.03775331
-0.02272827
-0.01886739
0.00351602
-0.03068206
-0.02676398
-0.02903782
-0.01953024
0.01445135
0.01250642
0.04903715
-0.02417488
-0.02465155
0.05503346
0.01357821
-0.09013818
-0.02489897
0.00960345
0.00764978
0.01169692
-0.00135023
0.03389186
-0.05299034
0.04180411
-0.00531401
-0.04653316
0.11580248
0.00000347
0.00396156
-0.04745285
-0.02458464
0.02016861
-0.01167386
0.00450883
0.02602874
-0.03590147
0.02214010
-0.01980078
