-0.15618350
0.00062888
-0.12137951
0.00960907
-0.14134586
0.05712716
-0.09550504
-0.01875174
0.01625889
0.03114057
0.01094002
0.00375071
0.00313911
0.09201181
-0.10916243
0.05416177
0.04618110
0.00029982
-0.09752022
0.00856866
0.09190106
0.01187312
0.03096724
-0.05855987
-0.10157226
0.00215226
-0.16124274
0.06730390
0.09309864
0.00004862
0.00327941
0.01472757
-0.05570186
-0.04141689
-0.01661914
0.14090773
-0.09392738
-0.00794418
-0.02611699
-0.16632698
0.03403295
0.14595185
-0.15481527
0.06291316
-0.05609312
-0.00045899
-0.14474963
0.12544224
0.03706704
0.04385722
0.03539073
-0.00453662
-0.00875855
0.05981177
0.09529457
0.06021899
-0.03873049
0.02599134
0.05329897
-0.00050853
0.01482267
-0.07332930
0.03147822
0.04156908
0.05441204
-0.14743710
0.06250073
-0.06205527
0.08580949
0.04654565
0.14701980
0.00813537
-0.14976698
0.01242057
0.07760355
-0.03293503
0.01531835
0.00369591
0.00190796
0.01431009
0.04736556
0.00860768
-0.06708554
-0.10146736
0.16889057
-0.03787730
-0.00138490
-0.04618813
0.02054404
-0.02305495
-0.04011544
0.05917211
-0.00758136
0.12662165
0.03884450
0.06337151
-0.12115718
-0.06177885
-0.15315814
-0.04477860
-0.05454242
0.00085962
-0.16175167
-0.06284449
-0.07351311
0.00708594
-0.14041872
-0.11265543
-0.00997062
0.02254149
0.15562113
0.02885537
-0.11014514
0.15968621
-0.06091206
0.00189497
0.01648606
0.02063029
-0.00727629
0.00713308
-0.01222438
-0.15492091
-0.07170132
0.08074783
-0.12906075
0.07652649
0.11242372
0.10939112
