-0.14902283,-0.07434665,0.00904881,-0.02768447,0.03089378,-0.22540547,0.02324951,0.11926770,-0.01482642,0.10263075,-0.08590443,-0.08006583,-0.04431170,0.10519578,0.06826044,-0.04307111,0.11055286,0.11377711,0.01884673,-0.20053685,-0.03521127,0.01387110,-0.02608482,0.03632158,0.12045415,-0.06028733,0.04127970,0.03644847,0.08358926,-0.10601638,0.09107518,-0.01132086,-0.00779308,-0.00021724,-0.12511979,0.06084543,0.18573812,0.00568758,-0.07624660,-0.01243464,-0.01760619,-0.08447623,-0.19918273,0.06802329,0.01817656,-0.08004525,-0.01500364,0.08191628,0.02747281,0.04307250,0.04118612,0.01935199,-0.07388429,-0.00565388,-0.07927559,0.04165404,0.03646974,-0.05652207,0.11832522,0.11243539,0.04936604,-0.03977075,-0.01826999,-0.05158353,0.00835139,-0.18496022,0.20549442,0.03248547,0.32701927,-0.16751000,-0.13475980,-0.02390509,-0.11716083,-0.05836263,-0.08244381,-0.20067517,0.02360137,0.08307850,-0.06103900,0.25501117,-0.17891891,-0.00179633,-0.12292898,-0.25258410,0.00564428,-0.11918955,-0.38754773,-0.05959189,-0.02041911,-0.09799770,-0.04566581,0.01437479,0.22394808,-0.05637910,0.20468009,-0.19858530,0.02421070,-0.17320773,-0.07124139,0.09697086,0.28643948,-0.19840039,0.03344904,0.05688861,0.20921938,-0.09668081,-0.04978265,0.06422730,-0.09203175,0.10782747,-0.06478816,0.01066201,0.12824768,-0.06280218,0.01279155,-0.20582582,-0.12583838,0.14641076,-0.11627921,-0.26853868,0.11745360,-0.14057870,0.19716173,-0.22390643,0.04557035,-0.23837434,-0.07831725,-0.07269672
0.05580566,-0.05957980,0.03635241,-0.06436285,0.03545919,0.00187083,-0.07700782,-0.01382953,0.05300099,-0.07943430,0.12490804,0.23126815,-0.04496621,-0.09700440,0.00805986,-0.01052205,0.01744540,0.08151711,0.00830230,-0.09240210,-0.01697307,0.00143142,0.02560007,-0.05394965,-0.02841088,0.00731228,0.00840973,-0.04747811,-0.06607754,0.05903279,0.02936150,-0.05055606,-0.06259248,0.03803016,-0.06263760,-0.09918652,0.02352525,0.01243839,-0.05224973,-0.02710631,-0.07833446,0.04200886,-0.01937802,0.01478408,-0.02480496,0.02665499,-0.05783160,0.03144876,-0.02591961,-0.06786031,0.04429860,0.00348163,0.11240475,0.02293809,-0.00710577,0.01204603,0.04694574,0.05098254,-0.03413989,-0.00109407,0.07022409,0.09358326,-0.05651935,0.03058598,0.09803073,0.09508500,0.05513709,0.11876688,0.01527919,0.00931707,-0.23027468,-0.02809121,-0.07933594,0.13783851,-0.13173407,-0.02218069,-0.07575914,0.11932930,0.12690416,-0.07139590,0.09448338,-0.07510948,-0.07461400,-0.10246017,0.12540139,0.09448347,-0.17465174,0.05788232,-0.10233570,0.19892357,0.05508597,0.04771712,-0.13057099,-0.14159703,-0.15176125,-0.00481040,0.05087119,-0.20918702,-0.22169279,-0.20226763,-0.21076693,0.04239023,0.02808218,0.15806609,0.01923276,0.30636978,-0.04121818,0.08237366,0.07278129,-0.04301648,-0.02937202,0.17681824,0.00853609,-0.04339824,-0.10741266,-0.42383876,0.11146931,0.00316785,-0.07331145,0.05505245,0.03056639,-0.05501231,0.08874665,-0.34647572,-0.01457538,0.04679545,0.10611834,-0.06297057
0.06104992,0.05472497,-0.11989865,-0.02831906,-0.05985201,-0.00718531,-0.11456370,-0.05492620,-0.01228829,0.00133931,-0.07875544,0.01360760,-0.00728475,-0.03277591,-0.00812047,0.00166169,0.03858797,-0.01596824,-0.01911103,0.00466577,-0.05042639,-0.03057343,0.01829172,-0.03774829,0.01247457,0.12558305,-0.01017480,0.02169711,0.09418175,-0.07633897,0.03370795,-0.03886637,-0.03910379,0.03053876,-0.12455793,-0.02820516,0.17769042,0.00759106,0.01891063,0.03081994,0.02975623,-0.02154230,-0.01094792,0.01378263,-0.04248165,-0.08602998,0.01374207,-0.11701837,-0.05040107,0.12338628,0.02318471,-0.00499766,-0.08362392,-0.08466567,-0.00521140,-0.07484968,0.05708417,-0.04035779,0.05658595,-0.00558310,-0.14316909,0.03184968,-0.00979156,0.05989116,0.05854732,-0.09892222,-0.00938976,-0.02289183,0.09865604,0.04578311,0.00685795,-0.03447257,0.14408195,-0.17335498,-0.15611301,-0.11959109,-0.12565050,-0.15991141,-0.02746539,0.07275151,-0.28159055,0.06505299,-0.08337201,0.17882198,0.09690914,0.12361255,-0.03209968,-0.10226714,-0.11827561,-0.20423612,0.25361750,0.13716459,0.26835573,0.17810600,0.05695710,0.06757233,0.10607202,0.18821855,-0.09636806,-0.15634650,-0.12803023,0.27818257,-0.10356011,0.01615568,0.08325193,0.11541907,-0.16800477,-0.00804436,-0.04962333,0.05846275,-0.11377939,0.12632187,0.07667852,-0.03464736,-0.02414795,0.13074805,-0.12269069,-0.07659011,0.08291094,-0.04439085,-0.10138600,0.09150942,-0.02123483,0.09466371,-0.12174951,0.12262263,-0.04317867,0.10058413
-0.00330705,-0.00983300,0.13063452,-0.06352824,-0.07350072,-0.00164699,0.03831748,0.03040493,0.00199084,-0.05048026,-0.04219553,-0.00647928,-0.08204947,-0.03205451,-0.04504638,0.01159182,-0.01467233,-0.00775382,-0.00320799,0.01355158,0.03650623,0.03861844,0.02840422,-0.00012330,0.01143324,0.04803100,0.17562506,0.05386763,0.06601890,-0.01323686,-0.02025167,0.00229314,-0.00230424,-0.02137458,0.06693838,0.07668994,-0.09951823,-0.04098577,0.03230058,0.04228773,0.05553526,-0.04727865,-0.05736889,0.05051190,0.10418016,-0.01574662,0.04650640,-0.01083801,0.03103877,0.04186181,0.01522782,0.03887602,-0.08144084,0.03991800,0.01777797,0.14966050,-0.02978183,-0.08285148,-0.00259089,0.00343559,0.04650195,-0.01865214,0.05827117,0.01467619,-0.01668031,0.00156517,-0.01838799,-0.00780465,0.01835302,0.00276827,-0.02275371,0.02971258,0.00156429,0.04528615,0.05476649,-0.07079505,0.03508484,-0.04874363,0.02452191,0.02021956,-0.02658146,0.03580959,-0.02107086,0.02121365,0.03247065,0.01473148,0.05987233,0.05618447,0.08473209,-0.00695642,-0.03179109,-0.01057535,0.00631860,0.05941621,-0.02780813,-0.00353840,-0.03372856,0.03642739,-0.02593466,-0.04201273,-0.00327302,0.01412344,0.01518556,0.03899777,0.05510749,-0.04415135,0.02973206,-0.01677112,-0.01500348,-0.01355970,0.02456506,0.00891960,0.00572826,-0.01031096,0.01621361,-0.00302115,-0.05380365,0.01890973,-0.03011953,-0.06269068,0.03379792,-0.02750007,-0.07055951,0.06262284,-0.00402751,0.02473449,-0.01918829,-0.00092575
0.01600053,0.11692686,-0.11615501,0.03521255,-0.04065310,-0.13330017,-0.04857986,0.10092542,-0.00940204,-0.17496799,-0.04968494,-0.02222175,-0.06610321,0.00010434,-0.03921712,-0.06517215,0.04272012,0.05651547,-0.04913943,0.13233383,-0.00041933,-0.04233410,-0.19291590,0.13469934,0.05352223,-0.06303493,0.06831406,-0.06125600,-0.04626860,0.02459052,-0.21860474,0.07213358,0.00130469,0.01359200,-0.10832944,0.07107288,0.04877805,-0.01589666,-0.03239703,-0.04501978,-0.14320952,0.02134679,0.00674417,0.04820761,-0.00313215,-0.07646656,-0.01911634,0.02217154,0.08673263,-0.11173747,0.06056762,0.13227698,0.04347511,0.02281532,-0.03612938,0.00143195,0.11323663,0.02410860,-0.15598737,-0.04041100,-0.03405613,0.11005374,-0.00834060,-0.03680915,0.00308978,-0.17138751,-0.00414169,0.00020752,-0.04616179,0.27386403,-0.08199643,0.04558247,0.00678063,-0.22512296,0.12883830,-0.05509872,-0.08132073,0.05047453,0.09480439,0.03014847,-0.03897515,0.18180078,0.05762905,0.08107239,0.06401606,-0.08808056,0.06957038,0.06035179,-0.23761712,0.07965305,-0.07679921,-0.12503970,0.07589548,0.07152001,-0.15910113,0.11408556,-0.22664343,-0.02343446,0.10627314,-0.36189222,-0.00050691,0.05257432,-0.10317752,-0.01291787,0.08590774,-0.14192286,0.14152938,0.09531977,-0.33791769,0.06975378,0.06271317,-0.15489031,0.01057512,-0.01699016,-0.25258669,-0.03067599,0.09239897,-0.07004315,0.11256031,0.17255487,0.01443952,-0.14771506,-0.04909974,-0.16237123,0.01973387,0.24008413,-0.00832633,-0.12399430
0.04454202,0.00656298,0.04718845,-0.07468674,-0.02541326,-0.07366222,0.03658441,0.05536285,-0.14970945,0.03368163,0.00384173,-0.06909628,-0.00322419,0.08936984,-0.00663957,0.04302539,-0.04075311,-0.16624792,0.07709138,-0.00894400,0.13570698,-0.04642935,-0.07145206,-0.05332914,-0.04939156,-0.03720577,-0.04633066,-0.09119646,-0.10488196,-0.00987752,0.00877562,0.08518858,-0.07147299,-0.13018222,-0.00580959,0.14737503,0.04180096,0.03500628,-0.10072497,0.10807568,-0.05867026,-0.04446384,0.06122156,0.06619614,0.02396025,0.00587417,-0.00841456,0.00164875,-0.08615290,-0.10320906,0.05483314,0.03961926,-0.01697786,0.06803698,-0.03697021,0.11052282,0.12254687,-0.10354751,0.09511634,-0.15594827,0.08958260,-0.02551919,-0.02415468,0.02009240,0.00008592,0.01550535,-0.04294534,0.17064697,-0.18086886,0.03094235,0.00100020,0.01753984,0.24380530,0.05051571,0.07079820,-0.05913924,0.08436208,0.17531075,-0.03966344,0.28355578,0.06651418,0.05957440,-0.00236782,0.01657392,-0.06053513,0.14330706,0.09376969,-0.42759931,0.15945145,0.20590867,0.12454225,0.05775557,-0.08340519,0.25003886,0.13816746,-0.03672703,-0.07163478,0.12266218,0.20990749,-0.12765794,0.01996845,-0.08562987,0.06416496,0.01123663,0.01091001,0.02805828,0.12641573,0.02063371,-0.05025518,-0.11795367,-0.21150789,0.14805174,0.07594488,-0.16051401,-0.02724767,-0.18452664,0.12823199,-0.09485707,0.00053665,0.10338258,0.03089010,0.19371578,-0.11055172,-0.18186054,0.13362272,-0.24517097,0.03099124,-0.17467578
-0.02039029,0.08663474,0.10072131,0.00735804,0.00867506,-0.03919919,-0.07883519,0.00954907,-0.05700253,-0.11344016,0.00894743,-0.02803707,0.06871231,0.08527695,-0.10145097,0.00093879,-0.06211406,0.05889640,0.08098497,-0.00488456,0.07642630,0.03509807,0.01736311,-0.03884533,-0.00784273,0.01216049,-0.02687075,-0.02624112,-0.00610242,-0.03447096,0.00547115,0.06409550,-0.04709282,-0.08731611,-0.02180445,-0.03260954,-0.11527438,-0.02337433,-0.04499844,-0.06232227,-0.09122258,0.03745998,0.10065959,-0.08066668,0.09825294,0.00419997,0.07017303,-0.10813475,0.06172299,0.17598778,-0.03778398,0.07456284,0.04752785,-0.09049504,-0.06415884,0.06255808,-0.04901755,0.10577089,-0.04246387,0.03322137,0.01541078,0.05102825,-0.02333523,0.00950352,-0.00048726,-0.06842029,-0.11601540,0.01270394,-0.01775046,-0.24161167,0.05735204,-0.05441244,-0.16105130,0.13675456,0.07843313,0.15998457,-0.13921480,0.04082987,0.07188657,-0.06872240,0.07780957,-0.05272546,-0.06648459,0.01287976,0.01469754,-0.04290659,-0.13850009,-0.03611797,0.02090073,-0.11600934,0.18646783,-0.04624913,-0.17981276,0.04471109,-0.03500296,-0.05413619,-0.04210360,-0.05283995,-0.07407951,-0.17751417,0.08904304,-0.03644862,-0.13082695,0.13261840,-0.14091697,0.05142346,0.14449438,0.06457637,-0.21298507,-0.03771465,-0.04923901,0.14177908,0.00355438,0.04221160,0.00212776,0.39488846,-0.02557283,0.06013168,-0.10492690,0.17588349,0.18352328,0.00295765,0.03478947,-0.01788768,-0.18311132,0.09182717,0.04661543,0.04689781
0.03700615,0.02524939,-0.00639790,0.06183346,-0.03317010,0.02985613,-0.08893982,0.06187835,0.17413607,-0.10685568,0.13685663,0.04417093,-0.06541929,0.05040223,-0.07853770,0.12668884,0.10040413,-0.07838929,0.08875864,-0.03699152,-0.00483330,0.00844675,0.05395260,0.08128139,-0.02205574,-0.07629102,-0.05457221,0.08482873,-0.08403976,0.06241164,-0.07032722,0.08174029,0.11190458,-0.03653014,-0.01204166,0.01830772,-0.04460681,0.03024699,-0.02351298,0.09523893,-0.00946170,-0.03385322,-0.05828816,0.05174061,-0.04646137,-0.09285061,0.04022456,0.10167785,0.08007620,0.01812942,-0.03193880,0.00174357,-0.06217489,0.09945875,-0.04266849,-0.06730165,0.03353947,0.08898663,0.10478861,0.01239919,0.00133629,0.00166264,-0.02005565,0.00693356,0.03519657,-0.14965785,-0.16759329,-0.10281039,0.07868468,0.09312388,-0.23663841,0.22998399,-0.03221232,0.02276115,0.11216372,0.17990439,-0.04957442,-0.05397341,-0.02804981,-0.31826991,-0.07841775,-0.23556733,-0.08632206,-0.04619591,-0.06243005,0.13453989,0.08435628,-0.15221183,-0.09553990,-0.07569680,-0.20742071,-0.06851321,-0.15127337,-0.03496293,0.01590114,-0.07527841,-0.23040988,0.05308113,-0.26689258,0.01911936,0.27305433,0.02266494,0.03607043,-0.10444994,0.16146989,-0.41858831,-0.08842754,-0.31692085,0.03377296,0.01326117,-0.02416551,0.06117487,-0.02459824,-0.00255538,0.04103722,-0.15134162,0.15287907,-0.13344249,0.30124745,0.11876639,-0.10662939,-0.17742760,-0.05797211,-0.24983951,0.01657955,-0.07546617,0.31211326,-0.05948268
-0.04004153,0.01459520,-0.05283290,0.01748260,-0.01671570,-0.05996261,0.01671287,0.07456925,0.01814390,-0.00288086,0.04995999,-0.06202436,-0.14521144,0.06009659,-0.01394786,-0.13369483,0.06711468,0.06429988,-0.06766626,-0.05251334,0.03072442,0.07989697,0.00218051,-0.11629789,-0.02684838,0.09907503,-0.06168377,-0.12424964,0.00455127,-0.08940136,0.04303712,-0.06312793,0.07609758,-0.00676095,0.02603694,0.00036313,0.08148128,0.04488986,-0.01367399,0.05800222,-0.03420145,0.06824815,0.04148789,-0.05174931,-0.10026785,0.00039127,-0.02990360,0.04868613,-0.05697056,-0.08289225,0.01271645,-0.07260205,-0.04156404,-0.06459357,-0.12156569,-0.00374327,0.07533059,-0.03293604,0.04808714,0.13859275,0.07111118,0.08743024,0.02384350,-0.04782524,-0.07087497,0.17173730,0.00273957,-0.13043404,-0.00183689,-0.02589986,0.06478833,0.21842203,-0.04063075,0.02518781,0.04828359,0.10057057,-0.23025316,-0.11237369,0.11237982,-0.21425880,0.10035241,0.05529934,0.12792209,-0.27901641,-0.09040263,-0.16474135,-0.06654809,-0.00993503,-0.19141209,0.11440039,-0.08688440,0.18892977,0.09112030,0.01109311,0.07833443,-0.02926408,0.03979610,0.13204618,-0.28725937,-0.20779996,-0.01393821,-0.08369185,-0.03245041,0.01406258,0.20438348,0.12316141,-0.08905912,0.17705984,0.06056345,-0.02019016,-0.12246031,-0.07376911,-0.26482636,-0.03723051,0.07994497,0.00519987,-0.18924789,-0.03806798,0.08593038,-0.12287042,-0.05213200,-0.17517979,0.09738958,0.05474641,-0.05659422,-0.06019358,0.05946701,0.09776901
0.23699148,0.04100785,-0.07590792,0.07254757,0.11151117,0.00660547,0.04433143,-0.03059843,-0.10963700,0.06646592,-0.06350876,-0.00977906,-0.05662684,0.02890366,-0.02151112,0.07269942,0.04928757,-0.01943181,-0.05998916,-0.01548264,0.06702866,0.10957320,0.04628137,0.05767823,-0.00011360,-0.03511438,0.06065331,-0.02374251,-0.08827316,-0.12076280,-0.06938729,-0.01418564,0.18046401,-0.02381506,-0.00604840,0.12315468,-0.10136054,0.00098763,-0.01449557,0.01054108,-0.22455552,0.08543830,0.06443331,0.04578438,0.04396861,0.01667537,-0.00281483,-0.06361248,-0.02218561,0.06802654,-0.01937373,0.05250287,-0.03850152,0.04291533,0.04258599,0.06041148,-0.00085045,-0.04577448,0.11025059,-0.01049635,0.08671014,0.12190866,-0.03193581,0.00698620,-0.08821531,-0.03274659,-0.03478133,0.02558153,-0.22039181,-0.05143829,0.09483163,0.08994611,-0.07334615,0.23211043,0.10726780,0.04274220,-0.08843476,-0.10186248,0.00062335,-0.45493028,0.12600218,0.10178256,-0.23369825,-0.15794891,0.05807244,-0.00003087,-0.03548494,-0.03785795,-0.01037323,-0.34566742,0.33589116,-0.00611718,0.05752764,0.15918688,-0.16677469,-0.32069618,0.05705985,-0.13138910,0.06537238,0.13418545,0.19920352,-0.15024640,0.09106167,0.14063212,0.04576335,-0.01252225,-0.03802498,0.07438578,-0.07888538,-0.01795920,-0.10004389,-0.18182433,-0.17009723,-0.09347648,-0.07836550,-0.06850294,0.39244053,-0.16288264,0.18051994,-0.21297356,-0.00311358,0.04981339,0.11871956,0.20139904,-0.03448035,0.14488685,-0.18496691,-0.10051212
0.11576545,0.05927909,0.00321509,-0.06508767,-0.04052252,-0.11505626,-0.01774639,0.10220867,-0.05480254,0.03499896,-0.02965030,0.01881764,-0.01104095,-0.10010152,0.07418969,-0.07485141,-0.03259154,0.01170539,0.00354648,0.02271354,0.00296856,0.05399450,-0.08570868,0.10416654,-0.15782522,-0.09120646,0.03619715,0.07858992,0.15468387,-0.02448096,0.04704272,-0.02107088,0.06626010,0.01853547,0.11874352,-0.01315930,-0.03370329,0.01047872,-0.02406257,-0.07184450,0.04157093,0.03629196,-0.07971913,0.01497861,-0.01805959,0.04139573,-0.09787805,-0.00759631,-0.00146358,0.00418076,0.08686616,-0.09860090,-0.06278055,-0.03896308,0.00494901,-0.05401227,-0.08357854,0.06044343,0.12311792,0.12325091,-0.06597792,0.00795807,-0.09385186,-0.09304471,0.28584820,0.10332815,-0.02265383,-0.26687047,-0.06606285,0.15350375,-0.09091786,0.02172495,-0.11440254,-0.10112831,-0.02618353,0.15629143,0.15753825,-0.00192361,0.27509078,0.05688769,0.31608206,-0.22959730,0.15642305,0.15427360,0.13153650,0.28378069,0.15217356,-0.11810275,-0.03541493,-0.17290947,-0.00881658,0.14862007,0.03142659,-0.02705142,0.19042170,-0.03939903,-0.15637895,-0.01535938,0.05932538,-0.08382699,-0.01445799,-0.10414091,-0.03917562,-0.00664041,-0.11799613,0.06786402,0.02729826,-0.22665741,-0.13959214,-0.07243089,-0.03071915,0.05797732,0.21810515,0.00565245,0.12121243,-0.04193554,0.15933684,0.28247634,-0.08919355,-0.13581443,0.01177960,0.02738320,0.04557379,0.27071142,-0.18482703,0.11511531,0.00354551,-0.14451244
-0.05133817,-0.10684808,-0.00980141,0.00965786,-0.07159631,0.01585865,-0.01063245,0.00210641,0.03624658,0.17369612,0.02691042,0.07176037,-0.04455898,0.00369429,-0.12537146,0.09255151,-0.08016033,0.04071280,-0.07808168,0.05658486,-0.15078135,-0.05308293,0.03127698,-0.09333991,0.02986353,0.04487782,-0.14525610,-0.10980819,-0.07523729,-0.00712832,-0.02721639,0.07465947,0.04389007,0.02227016,0.07807871,-0.01866304,-0.07415302,-0.02370757,-0.04852840,-0.09054089,0.08300789,-0.01215419,-0.02563485,-0.04617833,-0.01568078,0.07590258,0.05767653,0.07770288,-0.06506611,-0.19614789,0.02082818,0.01440728,0.02384411,-0.03683943,0.05179670,-0.04690466,-0.08785032,0.11019531,-0.02590381,0.04082223,-0.06196986,0.07418852,0.05728434,-0.09745725,-0.07154422,0.16551267,-0.06813907,0.13972667,0.08895823,0.05907852,-0.04381664,-0.02215437,-0.10562403,0.11158793,-0.06759406,0.07261566,-0.09541572,-0.06910100,0.03430844,0.05139645,0.10999485,0.02666037,-0.05606374,0.10520103,0.06846504,-0.10733787,0.07680741,0.07958080,-0.03325680,-0.09537823,0.02804504,0.04547028,0.31369749,0.08672759,-0.04033034,0.21559836,-0.17097676,0.03165291,0.09737249,-0.18120468,0.15931211,-0.02483253,0.08248628,-0.10040060,0.14538933,-0.00315058,-0.01397893,0.06526100,-0.00586460,-0.14455384,0.21238482,-0.11612969,0.05610432,-0.02696099,0.02390637,0.03140239,-0.03896298,-0.21159858,0.03996272,0.04575171,0.08446965,-0.00100023,-0.03985393,-0.03437703,-0.05004747,-0.00371121,0.02467905,-0.18771252
0.02671657,-0.04263566,0.01410734,0.02580762,-0.06088250,-0.09203486,-0.00603101,-0.04856006,0.08294939,-0.05746644,0.11261821,0.00524314,0.00720935,0.15231471,-0.01253863,-0.04124995,0.08863857,0.05926272,-0.11082968,0.05052049,-0.11487567,-0.03758621,-0.00598344,0.11973554,-0.10646221,-0.00069102,-0.04057705,-0.00450846,-0.06011065,-0.02599172,0.11126997,-0.00226528,-0.00915936,0.06120792,-0.02568340,-0.02240675,0.00085509,0.11309748,0.08862104,0.00393859,-0.04804884,-0.07486162,0.03459319,0.10604268,-0.06619522,-0.00744318,-0.06007497,0.11557481,0.00176460,-0.04324963,0.06181876,-0.09822124,0.04029756,-0.07309200,0.03331380,-0.00889742,0.02801621,-0.03047259,-0.01619098,0.02472819,-0.00335599,-0.05431243,-0.03854189,0.07635479,0.06021702,-0.28394425,-0.12520865,0.12421142,-0.11200000,-0.01864839,0.07060008,0.14098662,0.03900561,0.00558469,-0.03668575,0.18766801,0.07709397,-0.11469445,-0.01685578,0.16966599,-0.10587852,0.01622758,-0.06583557,-0.06313548,0.12708749,-0.25393808,-0.03433637,-0.07821541,0.09153404,-0.14189133,-0.09607109,-0.03182773,-0.13967530,-0.11774876,0.07863384,-0.03063823,0.13224693,-0.02888029,0.35068327,0.04801480,-0.07810246,0.07736716,-0.12841387,-0.09180857,0.03908250,0.09500439,-0.03943439,-0.00993874,0.08607651,-0.00203490,-0.09313842,0.13394211,-0.06279061,0.24261567,0.12349210,0.07839958,-0.02528770,-0.18741401,0.18017496,0.13358149,0.05919717,-0.22461689,-0.49300718,-0.15910892,-0.16072398,0.01625145,0.12139101,0.16093150
-0.09428948,0.02129209,-0.00302216,-0.08999512,-0.02699603,0.02832619,-0.05045717,0.07597440,-0.04853007,-0.10485347,0.06062021,0.05602118,0.09029978,-0.06789024,0.03215355,-0.05490540,0.05408371,-0.02411913,0.04375554,0.05021420,0.09378792,-0.07124019,-0.02029498,0.01307751,0.09021746,0.01778083,-0.09870589,-0.00441599,0.03870059,0.03133876,-0.09998085,0.12231717,-0.03457854,0.00482367,0.08395785,0.08975451,-0.02123203,0.19033907,0.02245744,0.03075812,-0.03547217,0.00016320,0.01587082,0.03453676,0.16371076,-0.11961089,-0.01785598,-0.01715497,0.03835073,0.06708707,0.12585019,-0.00183641,-0.02804494,0.13601349,-0.02872235,-0.07938598,-0.08483095,-0.02848785,0.01397190,0.03807432,0.07435787,0.00553944,-0.07791590,0.10269573,-0.17999080,0.01900098,-0.01565752,0.02918839,0.06010951,-0.05205357,0.13962023,-0.10219514,0.08174349,-0.02828817,0.06486091,-0.23333065,0.11369844,-0.06825941,0.24485958,0.03567717,-0.23249942,0.09715035,-0.11550128,0.00822733,-0.00578202,-0.00283791,-0.18636146,0.05709396,0.00196301,-0.08040902,-0.02213948,0.22915481,0.01962684,-0.05399727,-0.21331729,-0.08057989,0.17709334,-0.00322632,0.22741064,-0.02021237,-0.12208369,0.05285085,-0.09618215,-0.18860407,-0.01498979,-0.00041665,0.08758636,-0.27778709,0.02843433,-0.04897682,-0.12273772,0.05891550,0.13220063,0.04713804,-0.22691593,0.00234913,0.09224313,0.06322198,-0.09163700,0.21499734,0.17571428,0.21462999,0.27372235,0.01080764,0.01144448,-0.11383060,-0.03666732,0.03646904
0.01577380,-0.13133188,-0.03940055,-0.05543881,-0.06899273,0.07391154,0.03652032,-0.03902660,0.05363600,0.04341466,0.01778638,0.02986521,-0.00398986,-0.08829889,0.02493317,0.09413631,0.13929874,-0.01484848,0.06289556,-0.10703047,-0.04612423,0.00210375,-0.01467638,-0.00002692,0.05576319,0.09040067,0.05397886,0.08609304,-0.01311354,0.08190184,0.13709904,0.04006489,0.02439755,-0.01770899,0.05539919,0.04619185,0.03365609,0.06505479,-0.12627091,-0.07472201,0.08678820,-0.03654105,0.08064978,0.02290463,-0.06695866,-0.02205246,0.01945543,-0.05941149,0.02789257,0.06472876,-0.00545041,0.03132093,-0.01530666,-0.04583122,-0.01315725,0.06746534,-0.05160375,-0.01195965,0.00770101,0.00144179,0.07140493,0.03165671,-0.01837469,-0.00583232,-0.05080887,0.09036276,0.09604889,0.14059891,0.00088158,-0.00199239,0.02495708,0.21381140,0.07113297,0.07900731,0.18523341,-0.01543307,0.12316857,0.01620194,0.02899216,0.26097649,0.11343269,-0.32003576,0.03883068,0.27828410,0.01944607,0.08997113,0.23431093,0.23806833,-0.12541690,0.05351157,0.00629740,-0.05916755,0.11792438,0.05840790,-0.03380641,0.02311300,0.11209577,-0.19732554,0.06582810,-0.09565443,0.00834919,0.07619797,-0.18506290,-0.17748731,0.04123468,0.21445478,-0.15485586,-0.02243258,-0.08417424,-0.01404837,-0.02404142,-0.04555288,-0.09826656,-0.17864619,-0.18395887,0.09414582,0.02471587,-0.06116594,-0.07045452,0.02464530,0.09733407,-0.08232474,-0.01393003,-0.25274006,-0.31156686,-0.21724544,-0.13870212,0.03281979
-0.05423008,0.04457261,0.03682456,0.12768266,0.01671721,-0.01476010,0.05829142,-0.02851587,0.02800396,-0.02138072,0.05948758,-0.04483471,-0.04666721,-0.03049211,0.01989314,-0.03073478,0.01049086,0.01325084,0.01003473,-0.04209951,0.02277587,-0.02571041,0.01030289,0.04247164,0.01472334,-0.20005096,0.00666991,-0.10010638,-0.00905577,-0.11278620,0.11705846,0.01907301,-0.09694533,0.10687807,-0.00960023,-0.05018651,0.05434036,-0.05711050,0.05048800,-0.02303429,-0.05095939,-0.11762322,0.01400244,0.04100969,0.00189439,0.07396042,0.08850658,0.05990359,0.04397131,-0.08061403,-0.03653755,0.14138862,0.04298389,0.05843132,0.00596195,-0.10256270,0.01393599,0.01408873,-0.10237282,-0.08927017,-0.10630777,0.03595539,0.04896384,-0.07644018,0.09652111,0.15846834,0.06466480,0.01415846,-0.07114974,0.00771674,-0.00766129,-0.07469001,-0.02122479,0.03507762,-0.17780586,-0.15718317,0.21872418,-0.09962729,-0.01300705,0.04558105,0.11996072,-0.15318543,0.10369135,-0.02605444,-0.24293496,0.16165690,0.12920868,-0.25451458,0.14424051,0.10221831,0.13782942,-0.12324800,0.08784723,0.01042028,0.03051850,0.03361289,0.19263750,-0.22484773,0.09601329,0.06217285,0.01083030,0.15923186,-0.19852045,0.32072374,0.19904001,-0.06963184,-0.18381226,-0.03189984,0.03075368,0.10075714,0.09478226,-0.07401565,0.04647695,-0.11435680,0.20605524,0.17776975,-0.15283191,0.00273385,-0.10766097,0.05984511,-0.10070653,-0.19006723,0.09198559,-0.18242298,-0.12782541,-0.08778920,0.08219682,-0.00434284
0.04697106,-0.01078531,-0.00423140,0.03830712,-0.02631135,-0.16739480,-0.04807072,-0.00138971,-0.00168105,0.06210969,-0.04373396,0.02601901,0.00083221,0.01065988,-0.05006541,-0.05505124,-0.08000480,0.04311853,-0.19105305,0.01405827,0.01723284,0.11231279,-0.04449025,0.04589989,0.01241152,0.07971518,0.00961901,-0.06040972,0.07712905,0.05193983,0.01920789,0.06536626,0.05247617,-0.00041737,0.05371789,0.06258085,-0.05428848,-0.00769771,0.01044524,-0.04041538,0.02530674,-0.01433401,-0.05616963,0.08199804,-0.01412190,-0.01870869,0.07281808,0.01087826,-0.01402496,0.06055684,-0.07512873,0.08464949,0.00435884,-0.02630002,0.06593542,-0.03830511,0.10195162,0.03701951,-0.02131425,-0.10032546,0.02036988,-0.03407283,-0.03239879,-0.04334618,-0.00557584,-0.17999646,-0.24755910,0.14221376,-0.09541709,-0.07432127,0.13293788,-0.07482174,0.07697637,-0.12642226,-0.14425524,0.05018673,-0.18082051,-0.12194794,-0.19542958,-0.01225975,-0.06104659,0.01330739,-0.11734398,-0.14595830,0.22152111,0.23573788,0.14099723,0.02218117,0.02887655,0.17039387,0.07376054,-0.09952990,0.08430199,-0.13752811,0.20974106,0.17773107,0.12361097,0.16365519,-0.06043074,0.12602562,0.21097983,0.00521245,0.03842164,0.05397448,0.00134672,0.24506883,0.05750999,-0.09988771,-0.24496178,0.14734326,0.19652238,-0.01195947,0.18063812,0.20051554,-0.32582498,-0.22946881,-0.16739187,-0.00263536,-0.28446972,-0.02692251,0.00956787,-0.06123603,-0.10404559,0.14646222,-0.04701841,0.00126799,0.09612989,-0.09017193
-0.05348848,0.14594489,-0.00559305,0.03856720,-0.01583204,0.03633839,-0.02282544,0.10087568,-0.14322779,-0.03945711,-0.01281678,-0.07644876,0.06266837,-0.04095720,-0.00123803,0.00646644,0.15529059,0.08805956,0.10363931,-0.06872794,0.10960442,-0.07800074,-0.03227567,-0.00149610,-0.08586964,-0.08617591,-0.01949794,0.03433788,-0.01343652,-0.03964064,-0.12552944,-0.00469761,0.03758108,0.02453196,-0.02101725,0.11677708,0.01710946,0.02561733,-0.00145083,0.05733956,-0.16053541,-0.00695131,0.09042502,0.07019620,-0.00577338,-0.05724246,0.14061193,-0.02638828,0.03532512,0.10692577,-0.01421282,0.03189502,0.08582822,-0.05576854,0.04245289,0.04277680,-0.08842076,-0.10379779,0.00106537,-0.00535402,0.09292910,-0.00365613,-0.09282506,-0.01895396,0.09317097,0.11565021,-0.09074897,0.22837363,0.23502792,-0.02137096,0.16210280,-0.20893708,0.16054101,0.04101195,0.04237093,0.06829674,0.40274262,0.16354242,-0.09376863,-0.17603856,0.13704814,-0.01166405,0.17832220,-0.26100260,-0.07922124,-0.27398962,-0.06420910,-0.25836694,0.02892108,0.14165908,-0.14107363,0.19055639,0.21147072,-0.01911934,-0.02932951,0.07998756,0.07384533,-0.08821930,-0.11780108,0.03906978,-0.07579762,0.10947450,0.21795888,-0.01889106,0.01514979,0.01509249,0.20137911,-0.00358948,-0.08386471,0.02732921,0.07707472,0.08230225,-0.22049463,-0.11452348,0.12394098,0.15409547,0.00911317,0.20738417,-0.10709980,-0.13878760,-0.07347119,-0.17022292,0.04187957,0.09907661,0.06347878,0.14840366,-0.08219714,0.08264320
0.00626495,0.01370087,0.06298093,-0.09727282,-0.01760851,-0.01236481,0.01369288,-0.04957815,-0.06678973,0.03309382,0.02466877,-0.13786127,-0.02750505,-0.06611057,0.01294015,-0.00033960,-0.07885734,-0.01365245,0.13905135,0.13070299,-0.10772681,0.05049718,0.03144915,-0.01059951,0.08856126,0.06420398,-0.02913744,-0.06531206,-0.09335313,0.01110308,0.11303342,0.00480102,0.02807652,0.01995480,-0.18208225,-0.03070390,-0.09468507,-0.04669295,-0.01119645,-0.15186782,-0.17030570,-0.01964928,0.04518200,0.05831913,0.16730998,-0.03360788,-0.07471772,-0.05597754,0.03802086,0.12699395,0.00107306,-0.03862660,-0.01490485,-0.14133228,-0.03181398,-0.15299721,-0.02352028,0.04634498,0.02212886,0.07773069,0.15211821,0.05429093,-0.10033533,0.05171376,-0.10831443,0.17747828,-0.05186231,-0.12420233,0.08982125,-0.05541677,-0.18799928,-0.02366257,-0.11240402,0.05974448,-0.06907428,0.18777791,-0.17738134,0.05367081,0.14581931,0.19783771,-0.20148902,-0.05688766,-0.05863646,0.29148006,-0.00417777,-0.16617480,-0.13991009,-0.08993529,-0.07967814,-0.14636454,0.26955709,0.25031501,-0.10487454,-0.00130010,0.24395584,0.08795780,-0.09301278,0.01919057,-0.10151850,0.10630091,0.14278145,-0.20112070,-0.25433296,-0.07274222,-0.00842958,0.07848410,0.05889658,0.10099256,-0.04357249,0.06289522,-0.10501685,-0.20680466,0.09061318,0.08143012,0.07688368,-0.12422752,-0.15401532,0.05832552,0.01737976,0.19901627,0.15468854,-0.28696215,-0.01362568,-0.04913309,-0.00067806,0.05753557,-0.02115536,0.25816527
-0.01986367,-0.02676487,0.00936780,-0.02977088,-0.01856204,-0.03015659,-0.00573848,-0.04257207,0.03086603,-0.10788398,0.11890709,0.09565683,0.01548425,0.06035921,-0.00156101,-0.01154091,0.10900894,-0.02139036,-0.02934809,0.05531954,0.05893878,-0.00252450,0.00670141,-0.04071984,-0.03126609,0.00009410,0.09888653,-0.06848307,-0.00495500,-0.02431519,-0.10098771,0.01931708,-0.09524840,-0.08503381,0.06510233,0.02975474,-0.00445757,-0.06708302,-0.04764420,0.04547170,-0.09990136,0.03146300,0.04067556,0.04046774,0.05165490,-0.08046385,0.05293592,-0.08539233,0.02661362,0.04673783,-0.01643510,-0.04300552,0.01782518,0.11303149,0.08830021,-0.07701690,-0.02014193,0.06058620,0.08143385,0.05076126,-0.07715848,0.05437724,-0.01900916,0.05420080,-0.04926487,-0.05509786,0.22818296,-0.11116843,-0.14130543,-0.02219970,-0.20293894,-0.00625805,0.05004746,-0.01956689,0.15416700,-0.04645232,-0.04847270,0.09593032,0.00273576,0.05805289,-0.08896354,-0.13404584,-0.07788159,-0.05693221,-0.02507279,-0.09079947,-0.03070419,0.21077402,-0.25203195,-0.01148504,0.07473153,-0.21330319,0.09279129,-0.21553932,-0.15911831,-0.15359430,-0.14096321,0.08994328,0.07821499,0.05518026,0.02209425,0.23781320,-0.17843536,0.10354610,0.16268760,-0.03476484,-0.04511910,0.10846090,-0.14945994,-0.09225681,-0.16966718,0.13718952,-0.00841277,-0.20567094,-0.16697499,0.01402657,0.10663474,-0.01797456,-0.11861818,-0.11959231,0.06906710,0.02265105,-0.01530632,-0.02485441,0.35431665,-0.19926576,0.14449295,-0.15904327
-0.01620107,0.07118603,0.04076976,0.03616571,-0.00728526,0.03097561,0.00830078,0.16183415,-0.06905683,0.05825752,0.03832735,-0.01447908,0.09320246,-0.02877384,-0.05658415,-0.08754191,-0.07278097,-0.01723768,0.01174156,-0.02389633,-0.06386343,-0.09314056,-0.05003374,0.00973506,-0.03601526,-0.10952708,0.02072040,-0.02080213,0.05345395,0.02012070,0.01842883,-0.02372611,0.09226912,-0.00979357,-0.12443396,-0.03313810,-0.07463112,-0.03927695,-0.03805936,-0.15635553,0.06478684,0.10922197,-0.00533328,0.05270612,-0.08545257,0.14439268,0.11603055,-0.09137607,0.09152950,-0.07296418,-0.02920752,-0.04452126,-0.08163624,0.01299254,0.02363626,-0.03803229,0.07977449,0.03364111,0.02774136,0.02774058,-0.11667027,0.03925387,-0.01803408,-0.01926882,0.08617652,0.11375248,0.12112913,-0.00214820,-0.18600279,-0.02964230,-0.11140019,0.01794742,-0.04994972,0.15347432,-0.05046164,-0.13515350,-0.01653162,-0.09318367,0.08164938,0.36093259,0.17153512,-0.08223272,-0.30718085,-0.09267116,-0.07878460,-0.21931377,-0.12016881,0.18005291,0.03764931,0.17065644,-0.17514919,0.04901405,-0.23780780,0.22370423,-0.15547839,0.01950755,-0.22056359,-0.04266198,-0.19372433,0.03512759,0.01098248,-0.01775760,0.08789258,0.00422881,0.09978265,0.29637685,-0.02426108,-0.19678946,0.14091296,-0.20641692,-0.14532390,0.05714153,-0.04426863,0.15641767,-0.01454276,0.11029440,0.01565351,0.02586973,0.02324787,0.02011182,0.06435815,0.18942373,0.11493495,0.18084076,-0.11203009,0.20031023,0.08664730,0.11381894
0.01357567,0.04216491,-0.10477249,-0.04861763,0.05185697,-0.05815332,0.04793509,-0.09318876,-0.08947042,0.02189899,0.06372725,-0.01426221,-0.03040476,0.08035813,-0.10230853,0.00426791,-0.04917040,0.00934966,0.01255797,0.00143697,-0.07087412,-0.03366841,-0.10392753,0.10305069,0.00643945,0.12531132,-0.01039184,-0.01206465,0.01988516,-0.08681767,-0.01889432,0.02845448,0.02304694,-0.02636380,-0.00876956,0.05199167,-0.07813068,-0.11252673,-0.00961637,-0.03926122,-0.07972563,0.00196791,0.01770014,-0.10453269,-0.10553186,-0.03387136,-0.00130235,0.17236459,-0.06480779,-0.01724266,-0.06740133,0.05004704,-0.07878219,-0.04383558,0.02108122,-0.01488635,-0.02563251,-0.04684524,-0.03744536,-0.02486836,0.07109646,0.07588957,-0.03004099,0.05527596,-0.07689952,-0.14765120,0.01194721,0.12892286,-0.09344628,0.16661233,-0.14228947,0.01097071,0.03351188,0.09813181,0.09999593,0.00904921,-0.17310727,0.00622269,-0.03001986,0.08510097,-0.12782225,0.02392716,-0.05792331,0.05248595,0.20321381,-0.06625205,0.06038828,-0.10651550,0.06827486,0.05561367,-0.15964405,-0.03558839,0.05255196,-0.02526146,-0.00840271,-0.15490229,0.10260802,0.09402861,-0.01860585,-0.00172747,0.11391657,-0.04340227,0.21295089,0.03089176,-0.02571918,0.11598852,-0.11940834,0.23703234,0.15865982,0.05896348,0.10469272,0.10634928,-0.02249613,-0.08427854,0.07165227,-0.14331910,0.15575042,-0.09903497,-0.09950239,0.14795063,-0.00389094,0.04966229,0.31416157,0.19129579,0.09279118,0.13078065,0.12796266,0.00769536
0.06187497,-0.06678620,-0.03402659,0.03401518,0.05832892,-0.06867227,0.02906152,-0.08077019,-0.09211403,0.12783858,-0.01252889,0.10209170,-0.01290147,0.01864998,-0.03407276,-0.00889908,0.09004525,-0.00571102,-0.00524320,0.00446250,0.01115468,-0.00563455,-0.05031952,0.01455375,0.00760800,0.03297884,0.01364184,0.15971144,-0.10250536,-0.04176850,0.12873550,0.13746843,0.03272766,-0.03819541,-0.03786102,-0.18196788,0.07989014,0.05685892,0.09655304,0.10760006,-0.04702540,0.02368258,-0.03310596,-0.07189824,-0.01697474,0.02450955,0.08121206,-0.06194299,-0.01862173,-0.06780616,-0.02009562,-0.03300069,-0.00175195,0.01851679,-0.01643362,-0.11256409,0.08465374,0.04224106,-0.05473225,0.04809469,-0.06318262,-0.01274393,-0.00707610,0.02316354,0.20239219,0.16664465,0.04457253,-0.15326391,-0.12690610,-0.12042954,0.16676398,0.14916867,0.22007664,0.01720196,0.14038542,0.08938994,-0.02994426,-0.19990161,0.12532070,0.39304578,0.03733800,-0.06309412,-0.09311875,-0.07084241,-0.07484432,0.07977569,-0.20350341,0.14142436,-0.07594217,-0.09711768,-0.02691668,0.03760536,-0.03369857,-0.02427262,-0.06905159,0.10000721,-0.13433962,-0.20000593,0.14445336,0.01299647,0.26578468,-0.14144765,-0.02999823,-0.07097592,-0.04096761,-0.09156130,0.12988473,0.13760030,0.24859202,0.10835735,0.09738031,0.02516813,-0.10175751,0.05439461,-0.00859060,-0.00263401,0.02191852,0.06425777,-0.24563673,-0.08013806,-0.08099011,-0.01418250,-0.08291548,-0.01580291,-0.00787017,0.18655725,0.03997396,-0.17769389
0.08352388,-0.01013104,0.00404975,-0.04934347,0.11041611,0.11352273,-0.12161717,0.00181842,-0.04238725,-0.01658536,0.24476504,-0.18457516,0.04044162,0.04079057,0.00305462,0.14260970,0.10788138,-0.10850015,-0.13464716,-0.06972565,0.04171935,0.03230431,0.13809517,0.01752983,-0.06727324,-0.07080786,-0.09127513,0.04763144,0.11131724,-0.03030964,-0.08150844,-0.13426536,0.06487819,0.02529846,0.03282217,-0.06018866,0.11123645,-0.00851349,-0.07523843,-0.12339611,-0.01507132,-0.02188325,-0.02264687,-0.05105243,0.00391595,-0.08302261,0.02363232,-0.09449042,-0.02331065,-0.01392754,-0.02047597,0.06599887,0.08506286,0.01311083,0.00307900,-0.11926293,-0.02442212,0.03816709,-0.11118491,-0.07717646,-0.01970435,0.05577976,-0.09179888,0.03642293,0.02168813,0.01578519,0.15402000,-0.18162830,-0.07906494,0.03049920,0.00238148,0.12801328,0.03762281,0.09406525,-0.19082868,0.16109748,-0.00486610,-0.01541938,0.01918687,-0.09845272,0.08555872,0.14931418,-0.12545307,0.00153591,0.12403870,0.10791773,-0.13103437,-0.01942992,-0.17018297,-0.26859173,0.04976947,-0.10271572,0.00948407,-0.15231429,0.04275071,-0.15058824,0.21050550,0.20564358,0.12785473,0.20004426,-0.06483103,-0.06966288,-0.02427345,0.03285429,-0.08899602,-0.16302970,0.04539885,0.29061994,0.05670089,0.11163096,0.20898917,0.00727020,-0.07816148,0.08473598,-0.19174758,0.01244708,-0.08244091,0.13395002,0.00850153,0.24210295,-0.01671686,0.02875873,0.05750663,-0.08321834,0.10416616,-0.05645681,-0.07654411,0.20332259
-0.10100406,0.03252684,-0.06181920,0.09439252,-0.05223151,0.04251870,0.04658117,-0.00739859,0.03189000,0.10074610,-0.09200903,0.00432273,0.12651211,0.02654516,0.04563470,0.05794260,0.13488479,-0.13074048,-0.06982999,0.05878587,-0.10634467,0.01840750,0.05654661,-0.00303276,-0.04461681,0.04250941,0.05683640,0.00973756,-0.02187225,-0.01600575,-0.00372906,0.10108465,-0.01507551,0.02555528,0.05404508,-0.05382233,0.00902879,0.06217219,0.06346733,-0.02180037,0.02576759,0.15299082,-0.02130576,-0.01403315,-0.04562717,-0.07734834,-0.06751930,0.06477351,-0.07574867,0.00335115,0.08604589,-0.05093859,0.00717119,-0.00627924,0.12981170,-0.00975755,0.05027049,-0.04326008,-0.13843623,0.05587387,-0.01789021,0.07897879,0.07928236,-0.10144261,-0.04355541,-0.07527280,-0.03152557,0.01358268,0.07719282,0.12071164,0.34511408,0.10330410,-0.14037444,-0.25169808,-0.24248952,0.06909964,0.09441174,-0.12872197,0.16741963,0.06699739,0.15520757,-0.03635765,0.01190908,0.05051125,0.18950118,0.12077914,-0.03212786,0.14665519,0.05815783,-0.11468011,0.17426920,-0.07918280,-0.01553981,0.21083014,-0.08951901,-0.06632595,-0.22890438,0.05325150,-0.17663750,0.07535689,-0.08419979,0.01359104,0.16013129,-0.06204207,0.00761686,0.03679976,-0.05550167,0.07975996,0.07752980,0.04294527,0.03908368,0.25176579,0.17831817,-0.02768021,0.01678134,-0.00991870,0.17257379,0.06409401,-0.13753267,0.15187459,0.08103859,-0.10581382,-0.26610821,0.02174251,0.10315675,-0.02212491,-0.05743591,-0.00129948
-0.07806797,-0.05872544,-0.01079692,0.10433620,-0.01467783,-0.09019797,0.03633656,0.02957285,0.01447554,0.00255116,-0.00998237,0.05017794,0.03932939,-0.06124721,-0.13707373,0.02116628,0.00974926,0.04159886,0.02654574,-0.05841317,0.01518324,0.05677098,-0.09775107,0.01510196,-0.06873439,-0.03576187,-0.01700875,-0.03242930,0.04639654,-0.10202606,0.02601341,-0.12712465,0.09849650,0.01714441,-0.00259994,-0.00877873,-0.15428919,-0.03296104,0.04417645,0.00527900,0.00987288,-0.04994426,0.00163431,-0.04712858,0.02944616,0.02447056,-0.00173632,0.07033150,0.05269285,0.11262342,-0.03502434,-0.00870069,-0.06294858,0.12849350,0.01582682,-0.03265679,0.08432955,-0.02713148,-0.00060405,-0.03638972,-0.01388141,0.12602814,0.06319450,-0.01003820,0.07387500,-0.09317579,0.16759825,-0.06072917,0.23547430,0.05430441,-0.08620856,-0.06742554,-0.07119580,0.17011318,-0.11279669,-0.22219537,0.18421918,-0.05469767,0.04978590,-0.02728853,0.02032880,0.12785579,0.08107327,-0.04109494,0.01616304,-0.04679637,0.08551202,0.33830476,-0.02812093,-0.00877959,0.36556450,0.17673279,-0.22529571,-0.11357809,0.05906774,-0.10088598,-0.11928345,0.05131143,0.15009955,-0.11585195,0.00221829,-0.23194002,-0.09797809,-0.13678831,0.29807144,0.10859513,0.09922592,0.02934891,-0.14020252,-0.05638364,-0.13056704,-0.32515135,-0.01734662,0.02542102,0.08676744,0.03703935,0.05068671,0.06943263,-0.04835861,0.04393874,-0.12657353,0.13615629,-0.08345077,0.12045024,0.02348044,0.09762280,-0.04074036,-0.13475583
0.02241201,-0.07133916,0.01306884,0.12730096,0.07575946,0.05932994,-0.00742174,0.01193304,0.06628812,0.00612884,-0.00599284,0.03549021,0.06584910,-0.04819252,-0.06979268,0.02713422,-0.01960164,-0.01801266,-0.02243298,0.04426472,0.01294830,0.07936292,-0.02181672,-0.00642695,-0.02256641,0.01499127,0.08710279,0.00224982,0.04903245,0.01379695,-0.01184024,0.00426071,-0.03257089,-0.04575245,-0.04026097,0.06526761,0.08851729,0.10942909,-0.06421706,0.01052845,0.01936942,-0.04860487,0.01780906,0.00822931,-0.06200956,-0.07093690,-0.08055395,-0.03560356,0.03170471,-0.01220514,0.13573478,-0.20454094,0.09044315,-0.17883366,-0.00109727,-0.01829092,-0.01392517,0.00856658,0.04544418,-0.03791278,-0.18131033,-0.06729852,0.08016186,-0.02859610,0.09678733,0.06060953,0.14231800,0.10160197,0.05075134,-0.15511678,0.01697209,0.15045948,0.12743299,0.09403284,0.10615809,-0.12614658,0.02684492,0.13510261,0.07061525,-0.22324438,-0.07995865,0.03831652,0.11168166,0.19169831,0.19578125,-0.05575316,-0.01139053,0.04127735,0.11236451,-0.10315084,0.16180588,-0.03657738,0.19449535,0.08870293,0.26612875,0.15304133,-0.18247530,-0.03581036,0.11421975,-0.03159447,-0.03934933,-0.10284163,-0.06061031,0.00935703,0.02321912,-0.02696839,-0.05694753,0.10657989,0.12796812,0.05743732,-0.18221231,-0.06846635,-0.09236548,0.10570379,0.05646298,-0.22942002,-0.25704005,-0.03482431,-0.04486064,0.21427356,-0.00181893,-0.08749373,0.32561502,-0.09467085,0.08053057,0.31352231,0.16391225,0.00949569
0.02024437,0.02743302,0.03827180,0.05582533,0.04038255,0.11249436,0.05640367,-0.10302485,-0.05912204,-0.17542185,0.10154217,0.09722031,0.14859685,0.18174861,-0.04831059,0.01631638,-0.05479053,-0.00862949,0.12845825,0.03327229,0.02657034,0.07991669,-0.03496230,-0.07396390,-0.00331679,0.09113690,-0.01728284,-0.00207634,-0.10953006,-0.01881880,-0.05380742,-0.10322453,0.01802190,-0.06450000,-0.07883132,-0.08132454,0.01874663,-0.01795027,-0.01500356,-0.05966564,-0.01559657,-0.03566620,-0.05248035,-0.07758405,0.06402468,-0.12511763,0.06017918,0.00901311,-0.13016531,-0.02395271,0.02538902,0.01653060,-0.00887963,0.02211651,0.07705974,-0.07170401,0.03329315,0.08304127,-0.04447976,-0.00474305,0.04825082,-0.03466346,0.05320111,-0.06573253,0.02691033,-0.17194588,-0.14219339,-0.16599430,-0.07045898,-0.22700432,-0.11109594,-0.24325737,0.06879369,0.18068996,-0.18988015,0.13135226,0.00767924,0.09322026,-0.14056475,-0.05195793,-0.11953384,0.21251109,0.23363894,-0.08192112,-0.20626208,0.15522325,0.25089332,0.18040100,0.09185024,0.18535841,-0.28360817,-0.09607010,0.05595745,-0.04683978,0.06439859,-0.05490253,-0.03369115,0.05272735,0.18812436,0.02008292,-0.25253326,-0.18112472,-0.02810521,0.24145181,0.16994216,0.08786861,-0.20965827,0.08895152,0.12199249,0.02398906,-0.24832454,-0.04750580,-0.40781271,0.06840044,0.04952737,0.09614594,0.01627101,-0.09974359,-0.21520583,0.14000610,-0.30847684,0.04889338,-0.21081258,-0.13705413,-0.05104814,-0.14308511,-0.16107069,-0.16643132
0.01240807,0.05134423,0.04805534,-0.15798035,-0.10037623,-0.07813758,0.00503902,0.12496568,-0.05962086,0.07271362,-0.03668888,-0.04926003,0.02011736,0.10885536,-0.00159474,-0.00800198,-0.02227671,0.00916507,0.09624721,-0.03505526,0.06847481,0.00557810,0.10364462,0.03627665,0.04601719,0.04776099,0.11819118,0.05893508,0.06179761,-0.02132203,-0.02142420,-0.07109431,-0.02093087,-0.06943294,-0.08214002,0.02324618,0.03259943,0.00760821,-0.00583303,0.07316346,-0.00959941,-0.03916671,0.01466581,0.00126014,0.04650519,-0.02356314,-0.08654519,0.04611215,0.08183998,0.03623316,-0.00956333,-0.03030799,0.05765698,-0.04820168,0.00945604,0.02759549,0.09057439,0.01897491,-0.06517393,0.03200129,-0.04422230,0.00603733,-0.07288335,0.11507431,0.09721053,-0.05541973,0.09406590,-0.07631976,-0.15374461,0.17524837,0.07359552,-0.13691117,0.01509814,0.07362739,-0.10934900,-0.16822669,-0.00291434,0.02345903,0.12649976,-0.03863575,-0.22026165,-0.20060711,-0.03964679,0.02887540,0.05805317,-0.03011591,-0.14637494,0.17109224,-0.02672965,0.09049831,0.10198429,0.04954019,0.02325557,0.05116371,0.09779678,-0.03892865,-0.13216503,0.05801834,0.18817446,-0.10910103,0.10968156,0.10752889,0.03341910,-0.22884324,-0.11114633,-0.01840899,-0.13659903,0.09245096,0.06479091,0.02208092,0.13319089,0.06585351,-0.06007486,-0.05820926,0.06363070,0.18890867,0.04990070,0.15050799,-0.03721074,-0.06591633,-0.01232924,-0.08808176,-0.04232751,0.00040489,-0.10504756,0.19832706,-0.02527582,0.15748645
-0.12536679,0.02060835,-0.01030859,-0.06307072,-0.03125546,0.10817958,-0.03997765,-0.08914102,0.01426162,-0.02658655,-0.07258053,-0.02266689,0.05360663,0.02624659,0.00969432,-0.01719200,-0.03922719,-0.01277787,0.01247198,0.02913216,0.10010666,-0.02890936,-0.05265013,-0.01646718,-0.05305709,-0.04114925,0.05425510,-0.04732274,-0.04458680,-0.05023996,0.02329975,0.04576665,0.09350853,-0.05535155,0.05347866,0.02947360,0.05408341,-0.11029421,-0.00518547,0.07319299,-0.01222446,-0.07372069,-0.04925857,-0.01095374,0.01593254,-0.05977211,-0.05624079,-0.00153638,0.01517122,0.04106747,0.06510064,0.07004455,-0.00229783,0.00474729,-0.02859797,-0.02959364,0.08751217,0.06460845,0.04062469,0.02564126,0.00157643,-0.05327963,-0.01437612,0.12301950,-0.14470866,-0.08274089,-0.06506940,-0.07917210,0.18900983,-0.04360118,-0.15092586,0.02747858,-0.21182062,-0.07284065,0.10520759,0.00124879,0.27869597,-0.12573282,0.05669913,0.02082196,-0.00590043,-0.32444930,0.00305966,-0.13801581,0.12791207,0.24705729,-0.17484267,0.12390162,0.03140063,0.00056806,-0.10087901,0.01982580,-0.01544544,-0.02267154,-0.27709031,-0.14272064,0.23879825,-0.00715863,0.02271588,0.11263014,0.19873576,-0.15863085,-0.16322863,0.05753828,-0.12009040,0.20856243,-0.21244635,0.11151257,-0.07833719,0.23410912,-0.07902116,-0.15241887,0.11281142,-0.15856369,0.11044602,-0.16409124,-0.01523640,-0.23992141,-0.00727312,-0.03227185,0.06803443,0.14908926,-0.13691139,0.13353139,0.24167001,0.23575732,-0.05682508,0.08787862
-0.17343031,0.00207413,-0.04834156,-0.00358335,0.05127563,0.00642062,-0.04432274,0.07281985,-0.00800057,-0.08449379,0.05321632,0.05313005,-0.06397806,0.05263888,0.04082773,-0.14562877,-0.03474147,0.00566795,-0.05402926,0.02189203,0.11612862,-0.00947650,-0.05914476,0.06556600,0.09596873,-0.00313808,-0.00436956,-0.03332089,-0.00899118,-0.11559837,-0.03489375,0.08078697,-0.03283441,-0.10533065,-0.03645515,-0.02631467,-0.03140742,-0.08840364,0.02666175,-0.02229780,0.10269612,0.03734011,0.03859544,0.05041377,0.03588851,0.03228976,0.16810045,-0.07985241,0.02044280,0.04629796,0.01782355,-0.04278765,0.03116506,-0.07365870,0.04567628,-0.04928206,0.01448143,-0.00354176,-0.03302518,0.07907581,0.13528459,-0.00170012,0.07789440,0.00543270,0.08054004,0.00679039,0.20763062,0.08240681,-0.04199864,-0.11985975,-0.03664333,0.05973092,-0.06606643,0.00061728,0.16277705,-0.04476127,0.11776006,-0.14230333,-0.07410177,0.15039553,0.11425018,-0.21171127,0.08452303,-0.02957625,-0.13495041,0.16685681,0.22153620,-0.23371626,0.01389624,-0.02655620,-0.09581535,0.16068268,-0.06983300,-0.10699955,-0.15412909,-0.02768130,0.03462522,0.01413560,0.06304439,-0.09551066,-0.12195289,0.04569430,0.18157031,0.19043548,-0.20402743,-0.06106857,-0.11462594,0.06686768,0.10814130,0.01089167,-0.07190455,-0.15387401,0.12457439,0.16159423,-0.26136461,-0.21439253,0.02958184,-0.06363438,-0.12594444,0.01395295,0.08317414,-0.11590967,-0.20956950,0.01729316,0.17837670,0.02750119,-0.10397103,0.07932757
-0.06959749,-0.10206340,0.12290565,-0.03469238,-0.04760089,0.04882072,-0.05890300,-0.09305251,-0.01744979,-0.00020123,0.10726301,-0.04212742,-0.12817019,0.03395872,0.03535369,0.05324914,0.03095605,-0.02398631,-0.08718177,0.06313457,0.13952135,-0.09873276,-0.07198800,0.02271939,-0.02123473,-0.07543536,0.01432002,-0.19178855,-0.02746372,0.04189018,-0.06382573,-0.04142017,-0.11098476,-0.00102956,-0.14654554,-0.10227796,0.08092520,-0.07296535,0.02330497,0.05840024,-0.02594750,-0.20440108,0.05118055,0.04345962,-0.01695273,-0.00116829,0.06806862,-0.04492500,-0.10973466,0.09593990,0.05201476,-0.05897399,-0.03998407,0.09637890,-0.04229717,0.01430427,0.04566226,-0.14644457,-0.06791000,0.15881500,0.01891321,0.00787506,0.01917101,-0.11884449,-0.17954230,-0.09396604,-0.04887003,-0.10175519,-0.12544881,0.07765405,0.00189283,-0.08025227,-0.25985321,-0.18056655,0.04803898,-0.13048749,-0.11523354,-0.10615826,0.04189347,-0.00215981,-0.04486881,-0.12151948,0.05151885,0.12812409,-0.23828274,0.12410648,-0.30430409,-0.08374058,-0.03357049,-0.11060465,0.07419525,-0.03760159,-0.22721681,0.11660107,0.17897865,0.15126887,0.16858518,0.00096807,0.14741495,-0.14405569,0.11112047,-0.03746142,0.24241330,0.05808229,0.01789580,0.00083584,-0.10678802,-0.07697891,0.05355494,-0.08148063,-0.07816736,-0.09983072,-0.15802099,0.25372839,0.11082445,-0.05337827,-0.07879008,0.02108646,-0.09838356,-0.02541268,0.16550580,0.06596897,-0.03786300,-0.15617660,-0.07667961,-0.03108913,0.07397354,-0.08099932
-0.02898991,0.05277221,0.08200666,0.12515666,-0.07003593,-0.13453513,-0.03957379,-0.15085717,-0.09397389,-0.14405864,-0.10841494,-0.03933311,0.04492860,0.03247628,0.02560140,0.07732835,-0.00175867,0.08800395,-0.10087255,0.08609618,-0.06376672,0.01060729,-0.03778709,0.05859362,0.03945118,-0.06481006,0.05239590,-0.01149595,0.00080521,0.05567753,-0.02549753,-0.03116705,-0.01526377,0.01989281,0.02904224,0.06604124,0.00228251,0.02484988,-0.07531828,0.11358886,-0.05333946,-0.06205926,-0.03728498,0.03528567,0.03108866,-0.01297851,0.01150653,0.06002767,-0.02325873,-0.07564155,0.07368539,0.11210372,0.03655106,0.04184138,-0.00599556,0.01999052,-0.05767901,-0.00418814,0.08483659,-0.01308234,0.05803955,-0.02989767,-0.05647819,0.05095128,0.04216526,0.22489491,-0.21806593,0.08844896,-0.13852486,-0.05651253,-0.27418974,-0.08473158,0.00971527,-0.12265114,0.14644852,-0.04194628,-0.14183809,0.06649228,-0.00612182,0.37350670,0.08111154,-0.04035956,0.22852360,-0.25032845,-0.27256930,-0.07988869,-0.18730572,-0.05167457,0.27210549,-0.04865406,-0.01239242,0.03228818,-0.02199855,-0.14663967,-0.06309839,0.03216692,0.04146607,-0.05905429,-0.23612735,0.13411784,-0.05213400,-0.01564019,-0.11032154,-0.10640167,0.02986791,-0.35442355,-0.07063230,0.00536735,-0.03271660,0.10896649,0.04151697,0.07516729,-0.30043051,-0.07598761,-0.03192348,-0.05682672,0.19365644,0.10096246,0.02837949,0.13043635,0.05867592,0.00626769,-0.28709581,0.07495404,0.00357281,0.09286100,-0.28303081,-0.22943313
0.02547064,-0.04991589,-0.03079205,-0.03284846,-0.09050634,0.02632478,0.07043511,-0.03284201,-0.05678314,-0.07144719,0.02001053,-0.05730132,-0.11857346,0.05453080,-0.05744804,-0.11534005,-0.10822050,-0.05237452,-0.02731032,-0.03886563,0.10326961,0.04461543,0.01498431,-0.02552137,-0.02457282,0.05122523,0.11035267,-0.14522184,0.01004777,0.09392689,0.08848055,-0.02436304,0.07180905,-0.04643348,-0.04751216,-0.05952649,-0.18131812,0.02526468,0.03193137,0.11064137,0.03526871,-0.05610027,0.03158350,0.10639405,-0.05984950,-0.08043285,0.06295266,0.06326883,-0.02316322,0.10055095,0.07840054,0.02590107,-0.06605827,-0.02873968,-0.05341323,0.09467791,-0.11121733,-0.01872821,0.06852413,-0.01404046,-0.01357580,-0.13637951,-0.03554025,-0.06689860,-0.02800017,-0.12602668,-0.04313093,-0.17462666,-0.18447980,-0.08392163,0.05591037,0.09276356,0.10493306,-0.02145379,0.11261481,-0.22640766,0.06542611,0.28110489,-0.01923783,-0.08718325,0.07991929,0.15319274,0.07998991,0.10328101,0.06976628,0.08175250,-0.06340721,-0.01512351,-0.02622056,0.02917991,0.02845953,-0.19998430,-0.05098328,0.00267767,-0.25969619,0.34110647,0.13682501,0.07817397,-0.08268564,-0.02695893,0.01172910,0.14387812,0.20823076,-0.17269380,-0.00655413,-0.12465738,0.03478697,0.03736039,-0.15066479,0.04534270,-0.12617047,-0.13401672,-0.02803094,-0.00130534,-0.10707778,-0.04096993,0.02694718,0.27439931,-0.06087004,0.17202815,0.12530363,-0.07159861,-0.03711965,0.05821885,-0.09366968,-0.21040300,0.09409038,0.14191447
-0.02903673,0.03721881,-0.06190789,-0.01955999,0.05373250,0.07361899,0.10490648,-0.09182572,0.02987887,-0.01665103,0.03034038,0.00525222,0.02021225,0.11810506,-0.06455605,-0.00225415,-0.13529868,0.05164756,0.07358164,0.04041769,0.02590127,-0.06662747,0.11434948,-0.07876319,0.01978000,0.09633079,-0.03857936,-0.03592151,0.06151594,0.13462731,0.08850855,-0.05972812,-0.06174552,0.16623509,0.05702265,-0.07628757,0.12286651,-0.07459726,-0.00105999,-0.07510959,0.05123942,-0.04740442,-0.01933403,-0.02016344,-0.08378068,-0.02453072,-0.03545736,-0.06080868,-0.02389400,-0.04794292,0.08457909,0.07659858,-0.00449941,-0.10434159,0.02422234,-0.08175712,0.08957950,0.06974251,0.10953414,0.01140413,-0.06873340,-0.01987832,0.00870622,-0.00958864,-0.01942194,-0.08780706,-0.00320301,-0.05918254,-0.02281644,-0.02811553,-0.16607773,0.17924409,-0.04295131,-0.06987635,-0.05197476,-0.05275878,0.02682418,-0.21532463,-0.17803429,-0.10562059,0.06684152,-0.00889696,0.08423509,0.05060168,-0.25201130,0.07016336,-0.09985267,-0.25138623,0.01417811,0.00950311,-0.05212451,-0.07011577,0.05087864,-0.11832146,-0.02334363,-0.35653585,-0.06147043,0.06806313,0.11312760,0.05500229,-0.18004835,-0.10520440,0.07160015,-0.06948608,-0.16120563,0.10187916,0.00208347,0.14723095,0.06200570,-0.21558130,-0.11454943,-0.05385381,0.11355442,0.17691880,-0.21407644,0.00367595,0.03138679,0.30831364,0.03068387,0.08526332,-0.08587546,-0.18985039,0.03430888,-0.02288342,-0.03456974,-0.02184078,0.07224194,0.00806006
-0.02482045,0.02966504,-0.03880394,-0.03347944,-0.09367577,-0.01050110,-0.08361609,-0.05716321,-0.09191906,0.06315266,0.10164887,-0.11761934,0.09671916,-0.07140630,0.03527609,-0.01044330,0.00068232,-0.06582937,-0.00858048,0.02154172,0.14232899,0.01114760,-0.07249330,-0.07571994,0.07030845,-0.06355807,0.06546778,-0.01506149,-0.05451829,-0.00485033,0.01477037,-0.06953425,-0.10373567,-0.08064767,0.03229316,0.02566897,-0.02646461,0.06107482,-0.07353127,-0.03914861,-0.05338727,-0.00643391,0.05973705,0.02014588,0.07425424,0.03371427,0.00814496,0.00480047,0.06119053,0.12585019,-0.03827342,-0.02858678,-0.04595252,-0.00458681,-0.15121308,0.13775077,-0.05526083,0.08919297,0.12063138,-0.02120784,0.07599645,0.04894780,-0.03528570,0.10124144,0.04137141,-0.43695021,0.06284580,-0.12165559,0.07841025,-0.02661135,0.02954066,0.07174680,-0.11734759,0.05515478,0.08908167,0.33260009,-0.15791227,0.16774689,0.09269568,0.02596459,-0.04701511,0.05307095,0.01171083,-0.04240004,-0.22434466,0.24240518,-0.27397731,0.12155369,-0.04080150,-0.07436044,-0.10058116,-0.01559964,0.16555545,0.09350742,-0.09893315,0.15948273,0.12014505,-0.07109439,-0.15302986,-0.06870064,-0.22184938,0.14069229,-0.01547798,-0.09298421,0.03157489,-0.10885269,0.06536556,-0.24930692,-0.00551418,-0.04990356,0.12796600,0.02764067,0.00625071,-0.18194915,-0.01334689,-0.20482101,-0.12494758,-0.16211122,-0.05309641,0.03284822,-0.13534535,0.05926606,0.24503301,-0.15179929,0.08747193,0.19812910,-0.11755278,-0.05601123
-0.00388709,-0.00817361,0.05485045,-0.03695733,-0.02261318,0.04668363,0.02411629,-0.01943224,-0.07562355,-0.01233510,0.06225152,0.02447162,0.01735839,-0.01522836,-0.06287643,0.01669855,0.05128379,-0.06560066,0.04840290,-0.04161133,0.02363291,0.09847998,-0.08457152,0.10104035,0.01152943,-0.04297095,-0.07281503,0.06910726,0.00092624,-0.01340668,-0.03101566,0.10038029,-0.03799767,0.03754536,-0.02279877,-0.00300322,0.08327542,0.06616884,0.05420802,-0.12110111,-0.00069305,-0.02843677,0.08357269,-0.08144531,-0.04379463,0.09590951,0.03188502,-0.05174688,-0.03364532,-0.05709228,0.07689257,0.06629413,-0.04093369,-0.01521807,-0.13023040,-0.05466304,0.05827147,0.04436440,0.07526823,0.03675598,-0.00491611,-0.02016978,-0.02165628,0.07621104,0.00333785,0.05139376,-0.14610308,-0.26887989,0.04689652,0.07986889,0.07672410,-0.05285027,0.13214761,0.06773230,0.06162001,-0.05094111,0.02623623,0.21385147,-0.19090109,0.06298535,0.10391334,-0.05803791,-0.12119310,-0.31764877,0.07801567,0.12490195,-0.07168936,0.03021945,-0.06147294,-0.00826926,-0.04644672,0.20423299,0.02919153,0.05042734,-0.06085197,0.20481163,-0.16298693,0.04345077,-0.05014335,0.32309538,-0.03454041,0.27029398,-0.37885690,0.26136959,-0.08132794,0.21187706,0.06364386,0.07974090,0.05538287,0.04893085,-0.22278585,0.15457253,0.04059012,0.04810311,0.08783679,0.26125494,-0.07445297,0.08771797,0.09433558,-0.16582254,-0.34344417,-0.30890977,-0.10316028,-0.15861155,0.23317583,-0.32060978,-0.06462633,0.05262312
0.09130846,0.00304244,0.13612676,-0.03499520,-0.08040551,0.02193263,-0.11324660,0.00705727,0.08923907,-0.02428251,0.00904657,-0.07103893,-0.01322051,-0.06946829,0.02500042,-0.04042097,-0.10955717,0.07719806,0.03724058,-0.07298483,-0.01235413,-0.09479002,-0.09579811,-0.00330970,0.09612749,0.03956486,-0.08732472,0.11592294,-0.03428798,0.01629357,-0.00141914,-0.12583037,0.00881462,-0.00617633,0.18430825,-0.09335108,0.03333471,0.01536646,-0.07875217,0.11682718,-0.04500560,-0.08060592,0.00917036,-0.05542389,-0.02978689,-0.01367013,-0.21876909,-0.02252600,-0.03769911,-0.04860063,0.00186829,-0.03493567,-0.02509539,0.09279244,0.08195151,-0.05399368,-0.02886073,0.06400485,-0.06376874,0.05992997,-0.07307705,-0.14828490,0.06962477,0.05959509,0.14227521,0.10191774,0.12450802,0.22094035,0.20921265,0.25213471,-0.11489116,0.13757005,-0.10596313,-0.07038410,0.00989232,0.05686176,0.01337275,-0.07203104,-0.15711327,-0.08666534,-0.19643475,-0.04315224,0.00024216,-0.04292924,-0.11430988,0.10330592,0.07753622,0.13952278,-0.01740736,0.02220382,-0.03093826,0.06912970,-0.06287270,0.20836994,-0.13727556,0.06972788,0.10031198,-0.04602414,0.14749505,-0.16346347,0.20752938,0.26654425,-0.01988987,0.03915546,0.08980223,-0.05393755,-0.21510090,-0.18069729,0.27580324,-0.16711037,0.02690107,-0.05013014,-0.12731239,-0.22039501,0.05290608,0.25116110,0.03831751,0.18459912,-0.10529485,-0.07750385,0.21971530,-0.31107298,0.21797897,0.11939581,0.00637643,-0.28639916,-0.43635055,0.23763582
-0.00459264,-0.01033457,0.04710306,0.05759798,-0.02506375,-0.04383460,0.00709519,0.02100998,-0.02649076,0.12289405,-0.00475046,-0.03133760,-0.00743166,-0.02584145,-0.02651484,-0.08732168,-0.05741828,0.02284427,-0.07605090,-0.03132310,-0.02499740,0.07492247,0.05461506,0.02118519,-0.05106819,-0.06130641,0.12523362,0.08046328,-0.17437784,0.13009296,-0.09095640,0.02401122,-0.14090095,0.00596064,0.02309192,0.03287894,-0.06336817,0.05545189,0.00187221,0.06683665,0.13469298,0.00965602,-0.00549333,0.03285214,0.09024788,-0.05216202,0.00099301,0.03804350,-0.00344714,-0.08858355,-0.04158852,0.12203436,-0.09941650,0.07373403,-0.11044785,0.07604471,0.03451149,-0.05939742,0.17414211,0.00372837,0.08001363,-0.03774893,0.10547344,0.00657075,-0.07899273,-0.10575681,-0.07500023,-0.00514083,-0.01826180,0.00325679,0.03694801,0.12785655,0.05992809,-0.11606904,0.08660645,-0.24018598,0.07746892,0.32109734,-0.05495181,0.13734339,-0.03441953,-0.17099042,0.09316994,-0.08862267,0.13986707,-0.15874085,-0.02495211,-0.11108726,-0.08774979,0.00103228,0.22760670,0.06937923,-0.05389490,0.08006892,-0.09502825,0.07061973,0.06304111,0.17012839,-0.07576124,0.08385587,0.06403202,-0.20671006,-0.15883850,-0.00326204,0.03923497,-0.03261009,0.15401471,0.03494316,0.04667162,-0.04453315,-0.15150666,0.01394458,0.02788270,-0.19405685,-0.13414836,0.05389763,0.23416606,-0.15078990,-0.04403685,-0.08808450,0.02570194,-0.14540772,-0.14787051,-0.09130973,0.11379986,-0.11056787,0.27561736,0.03977690
-0.05986496,0.06562624,-0.01104257,-0.06625187,0.05896883,0.06140338,-0.18656692,-0.03693907,0.00879746,0.02547632,0.09098062,-0.04764503,0.04168234,0.08890894,-0.00405055,-0.03844609,0.07350713,-0.02681985,-0.02841356,-0.06547813,0.01575816,-0.04561322,-0.13079672,0.00297822,-0.00120682,0.07051842,0.11790515,0.04153684,0.00115667,-0.04316086,0.00161104,0.07208048,-0.07948331,0.03294206,0.06779431,0.19305594,-0.04575152,0.03651582,0.00765094,0.04018845,0.01226237,-0.00128240,0.08113666,0.03261147,0.00230081,0.07897505,-0.06632182,0.07244318,0.08049821,0.06181745,0.02871745,0.02209350,0.08030067,-0.05735793,0.00772701,0.08812720,0.01817784,0.06717108,-0.00913432,0.01445374,0.08129538,0.02511464,0.07338107,-0.02368039,0.06482881,0.08027195,-0.07359561,0.06768426,-0.01395162,0.02566071,-0.12749434,-0.10020483,0.02163748,0.21558636,-0.19343306,-0.03250564,-0.12846555,0.02764204,-0.23685606,-0.14703396,0.04897422,0.18417446,0.00685340,0.15873268,-0.02058740,0.11911219,-0.25308403,0.05969980,-0.01659959,-0.01264821,-0.10022792,0.21544345,0.06253530,0.08028570,0.10381662,0.13464528,-0.04431951,-0.12269203,-0.12548058,0.05488342,-0.05642773,-0.05695713,-0.08757742,0.04665985,0.12053286,0.05470330,0.07849985,0.08649834,-0.07435557,0.02827631,-0.01847942,-0.07259092,0.12548690,-0.11430321,-0.14862327,-0.19245321,0.09840188,-0.08782747,-0.01234364,-0.15041058,-0.06150162,-0.06927297,-0.14334171,-0.11111871,-0.03017411,-0.03193440,0.02405713,0.06904330
-0.00950438,-0.08636615,-0.00891491,-0.03455336,-0.03701207,-0.00900990,0.02853462,0.01463270,0.00640700,0.02388865,-0.16481915,0.10726251,-0.00787543,-0.00095848,-0.03029357,0.11223643,0.02538847,-0.05957633,-0.03445150,0.03840444,-0.09462532,0.03284386,-0.01174375,-0.00990852,-0.06288613,0.15904181,-0.01904931,0.03531193,-0.03209991,-0.13241881,0.01859271,0.04839180,-0.03346866,-0.04634363,-0.08103392,-0.13178842,-0.04206854,-0.03913505,0.04841689,-0.10421854,0.10063062,0.13177811,-0.04796353,-0.09294342,-0.00064817,-0.11736893,-0.06893015,-0.10507669,-0.04296675,-0.05615703,0.11995742,0.01248549,0.08767760,0.05583242,0.01320145,-0.01192556,-0.02837973,0.09861675,-0.02129892,-0.08566017,0.02347815,0.05090714,-0.00879542,-0.09182881,-0.04721334,-0.01075510,-0.28867844,-0.00760060,-0.04069205,-0.10240309,0.09968027,0.03226114,0.14417642,0.13207488,-0.00797833,0.08144457,-0.15436290,-0.03827541,0.04385625,-0.04058812,0.16680884,-0.15596443,0.10022191,-0.00388029,0.08185877,-0.05467279,-0.11095532,-0.27438933,0.08816551,-0.26366732,-0.27908465,0.19402544,-0.02856907,-0.04079375,0.06410610,-0.10208070,-0.14524876,-0.13657688,0.05542079,0.04737173,-0.00030276,-0.07689637,-0.09993714,-0.26863641,0.05614384,0.05458676,-0.16622092,0.02853059,-0.17048953,-0.07454178,0.12346777,0.10730320,-0.00497954,-0.15279794,-0.00165846,-0.15606540,0.15424515,-0.01234945,-0.02700007,0.04356084,0.10893124,0.06541975,0.20123611,0.14187762,0.06241819,0.00529601,0.18264812,0.21807878
0.01899200,-0.06011350,-0.01821660,-0.08240663,0.00273797,-0.05725258,-0.04709243,0.00416527,0.02115983,0.05752172,0.00354434,-0.01000717,0.01533436,0.10357349,0.09387741,-0.13854286,0.03833503,0.12817298,-0.04777144,0.12868842,-0.00331421,-0.06446343,0.08045404,-0.05337154,-0.07595712,0.00385567,0.01522072,0.12230975,0.06007350,0.01342784,0.04301967,-0.02913071,-0.05620763,0.09048942,-0.07796305,-0.00065184,-0.03755644,-0.01941344,0.16184629,0.01657679,-0.10507353,-0.09197567,-0.07204004,0.07312308,0.01855387,-0.08944413,0.05993191,0.02197905,-0.01000834,-0.09417301,0.02237596,0.00758005,-0.04205906,-0.04308619,-0.01052911,-0.16622998,-0.04700518,-0.05446080,0.01116711,-0.03194530,-0.02927417,0.09033822,0.12684211,0.09451898,-0.00888866,0.05426718,-0.02630345,-0.13274965,0.00397584,0.14389020,0.20899215,-0.06022461,-0.21358010,-0.11751553,0.19790153,-0.19917847,0.14267164,-0.02454257,-0.24830441,0.28529835,0.07443865,0.12681782,0.03876977,-0.15033320,-0.09785236,0.06796207,-0.06188329,0.09737416,-0.01570833,-0.07840223,0.00650792,-0.17888391,0.12383027,-0.13983014,0.02690305,0.14888535,0.06604949,0.21574247,-0.11703565,0.11913897,0.06771542,-0.07629541,0.06914824,-0.14156990,0.04963620,0.28235295,0.27576074,0.08003844,0.13536450,-0.15136945,0.07815298,-0.03194169,-0.13535197,0.09225227,0.19800946,-0.08008713,0.08301677,-0.18565193,0.46011475,0.12541597,0.17962636,0.09354533,-0.15089776,0.02059781,-0.11176366,0.03046429,0.17251751,0.10916726
0.03844633,0.14951171,-0.26664355,0.22560672,-0.13506152,-0.12935853,-0.19729032,0.08292674,0.13606845,-0.09982346,0.12976299,-0.09005347,0.04316872,-0.06330483,0.39318833,0.16906352,0.23917924,-0.06615739,-0.11841649,-0.09955958,0.09565639,-0.06254070,-0.02519715,0.03028384,0.02132064,-0.05619544,-0.13043918,-0.09486911,-0.06489091,0.12130622,-0.26625794,-0.02950184,-0.02813409,-0.03347651,-0.07148679,0.01367277,0.09071234,0.03192173,-0.01952039,-0.05789498,-0.12560254,-0.03973313,-0.07193454,0.00695659,0.07122272,-0.01810029,0.06668553,-0.17120790,-0.17654769,-0.05099102,0.21506394,0.03616380,0.02152701,0.19090641,0.05300664,-0.17862889,0.10111097,-0.04489648,-0.03852176,0.14490907,-0.03709354,0.32509881,-0.07232769,0.22864667,0.10143390,-0.01008892,0.11355665,0.02153440,0.04540512,-0.01967955,0.00419311,0.00676736,0.11895367,-0.13821495,-0.18940035,0.01277221,0.02338778,-0.13070677,0.04469102,-0.04716537,0.04215815,0.05621012,-0.04871681,0.02644238,-0.01964896,-0.05829236,0.01242150,0.01784795,-0.07267487,-0.11264507,0.03455937,0.03362102,0.01278842,0.09703398,0.01508435,-0.02568223,-0.05569031,-0.13671130,0.03788844,0.15858978,0.01304442,-0.07975660,-0.06467044,-0.00616606,-0.11512589,0.06552619,-0.07847031,-0.05690494,0.06688660,-0.10754892,0.12762074,-0.11017622,-0.03801187,-0.02493155,-0.00809661,-0.00212618,0.01365554,0.01270308,0.10309388,0.05147618,0.15652835,-0.05066832,0.05492616,0.04454545,-0.01874840,-0.02083478,0.10240158,-0.14905801
0.12971903,0.00991575,0.02165977,-0.03577209,-0.08274650,0.15284073,0.20779866,0.10529012,-0.05754177,0.03788599,-0.05366547,0.07457093,0.04005160,0.06048587,0.14459670,0.02971692,-0.03404852,0.05750680,0.04998424,0.00326712,0.07098260,-0.05665202,-0.11304151,0.03748092,0.05376428,0.11581529,0.05626365,-0.01947397,0.06380618,0.02638722,0.00085450,-0.04430483,0.07648654,0.08554724,-0.03389770,0.06852406,0.11212964,-0.00537055,0.11861769,0.03926756,0.03749388,0.10630019,-0.04004601,0.00225307,-0.07400963,-0.08538314,0.03917390,-0.08422448,0.02344628,0.10776411,-0.17141201,-0.02751924,0.04673843,-0.02811343,-0.01394910,0.02903107,-0.02285668,0.08367201,0.04775590,-0.04539559,0.01437281,0.06639334,-0.00601909,-0.02522036,0.03375491,-0.10557726,-0.06375045,-0.10897425,0.26115367,-0.06420464,-0.01369976,0.00354903,-0.05234314,-0.04130348,0.04831157,-0.07268111,-0.07093570,-0.01431923,0.10437036,-0.08817500,0.06274572,-0.16340949,-0.03445545,-0.05600999,0.07694278,-0.23573212,-0.34310806,0.00809776,0.30461988,-0.09881458,-0.13985434,-0.10651004,-0.01683310,0.11592161,0.09723281,-0.06938856,-0.15095253,0.22963262,0.17193133,0.10882661,-0.15877837,-0.01689608,0.16520074,0.15493453,0.10668600,-0.25500870,0.07047611,-0.14533176,-0.12965712,-0.13351120,-0.08910435,-0.18065961,-0.03702813,-0.25556776,-0.10764261,-0.27703607,-0.08009157,0.22251987,-0.24431033,0.05665591,-0.15840128,0.13582924,-0.14547348,-0.06227687,-0.04679897,0.12145463,0.12949292,0.06440059
-0.04349995,0.00528041,0.08341884,0.01847916,-0.00612692,-0.05951532,0.08416344,-0.04339124,-0.02756460,-0.06673662,-0.02954167,0.04340676,0.02255234,0.09310759,-0.00463858,-0.06495065,0.06347952,-0.01930199,-0.04372673,-0.02480388,-0.04934191,-0.03175033,-0.01726925,-0.05054324,-0.04588905,-0.05797620,0.12965590,-0.09704468,-0.04213936,-0.04333975,-0.01587737,0.06743933,0.01430847,0.01118259,-0.14695162,0.07250317,0.05294832,-0.01339768,0.06963103,-0.03602376,0.09826728,-0.03923230,-0.04919405,0.02880357,-0.05846610,-0.00537696,-0.06002097,-0.08038554,0.06899707,0.03484040,0.05056063,0.00196236,-0.08850577,-0.00015111,0.02361663,-0.01857063,0.06835038,-0.03970481,-0.08777592,-0.03114337,-0.00152477,-0.01411289,-0.06354631,-0.02783968,-0.12402382,-0.01203571,0.10841287,-0.04895666,0.10393439,0.24391079,0.04474651,-0.08029341,-0.00001045,-0.04685649,-0.30113524,-0.12548199,-0.18132240,-0.08260334,-0.04687230,0.19803648,0.06251958,-0.12337885,-0.17677024,0.06775800,-0.06211014,-0.04860982,0.13895883,0.02457138,-0.16976807,0.12722749,-0.10251573,-0.01799475,0.16316132,-0.03242057,0.10081291,-0.02440204,-0.15903948,-0.17098977,-0.14138645,-0.27669615,0.03084795,-0.03928239,-0.04321267,-0.06520048,-0.06418391,0.10683783,0.09216085,-0.09319316,-0.11893378,-0.17125577,-0.09243878,0.13971578,-0.18650137,-0.00992426,0.19693853,-0.21820764,-0.10809889,0.04360692,0.03347743,-0.03973155,-0.10601956,-0.05596690,-0.09114922,-0.08142804,0.19682838,-0.10464966,-0.05618427,-0.01058960
0.00964315,0.10147277,0.09398016,0.04034459,-0.07237323,-0.02757966,-0.04883011,-0.01258652,0.04818273,0.00774811,-0.13871369,0.02508987,-0.00480731,0.03445623,-0.09090721,-0.00078435,0.21819144,-0.11321699,0.10751098,0.06665661,-0.04244693,-0.03471072,0.05338695,-0.04201909,-0.02360606,-0.12639062,0.00948720,0.12310088,0.08736517,-0.01543738,0.00203329,-0.05127453,-0.10183912,-0.11231473,-0.15102661,-0.00715827,-0.02979913,0.03693418,-0.00549571,0.08925911,-0.01260438,0.00065708,-0.02234646,-0.06628390,-0.04978248,0.07744432,0.04340948,0.07267111,0.04068820,-0.00493805,-0.04369454,0.13790195,-0.02141451,0.01874245,-0.05128844,0.02310507,-0.01273698,0.10688608,-0.00988085,0.07682224,-0.12744127,0.08267831,-0.10658914,-0.00462400,0.16195680,0.04696540,0.08773940,-0.06265964,-0.00960223,-0.08430789,-0.09789613,-0.07063030,-0.05031805,0.01134960,0.00363628,0.17789026,0.06436139,-0.19410449,-0.04965561,-0.01360978,-0.09397637,-0.12782811,-0.05486544,-0.01536387,0.06160605,0.07584289,0.13845363,0.01139674,0.02610110,-0.29663184,-0.28569037,-0.04384071,-0.08942495,-0.08373865,-0.09600994,0.09537640,-0.06954131,-0.01993677,-0.16277176,-0.13114192,-0.09442008,0.00312692,0.08614700,-0.07508864,-0.01263767,-0.10265619,0.09727988,0.27985704,-0.01064303,0.10949726,-0.10404097,0.11909762,0.02431818,0.00201050,-0.07294255,-0.01814997,-0.03521582,-0.02835743,0.10389400,-0.01416601,0.03988517,0.07734405,0.31604439,-0.05048458,-0.07854853,0.01785367,-0.06335478,0.10869424
0.01511723,-0.04155278,-0.07155762,0.13563184,0.09243853,0.06593064,0.02606652,-0.03172008,-0.03782509,0.00693082,0.00567425,0.00735616,-0.00299545,0.01365388,-0.07689498,0.02906521,0.05611685,-0.07752419,-0.02300603,-0.08558893,-0.05140363,-0.10138011,-0.02604722,0.05476217,0.12589896,-0.05972977,-0.09906456,0.01318076,0.05029178,-0.08151694,-0.05647634,-0.03433399,0.04340231,-0.03895382,-0.04859446,0.02635368,-0.03158157,-0.04278152,0.16034064,-0.01103618,-0.11815412,0.07815241,0.02456094,-0.00704697,-0.02320759,-0.00421111,-0.01207749,0.07903649,0.04043021,0.06842792,0.03969739,0.03858095,0.01961214,-0.06476943,-0.02910867,0.08418151,-0.08611098,0.06410711,-0.10916848,-0.01798392,-0.00921286,-0.01299717,-0.08426397,0.01134974,-0.01331107,0.47123834,-0.21902233,-0.07390273,0.06048539,-0.19443594,-0.06527099,0.02635222,0.20412128,-0.05550408,0.03683064,0.07953067,-0.10343797,-0.01606672,-0.01922390,-0.14614882,-0.31872612,0.17664012,0.04142588,0.14628428,0.01351210,0.01351282,0.00369544,-0.04627549,-0.00594990,0.08183658,-0.04599233,-0.28079492,-0.06000342,0.25461185,-0.27339122,-0.16858457,0.12269542,-0.04871962,-0.20891206,-0.09876818,0.08068592,-0.07679643,0.02627826,-0.04910478,-0.10109682,-0.16854508,0.24167854,0.02243154,0.09428515,-0.16020657,0.07732312,-0.01286200,-0.01026618,-0.07014937,-0.00271587,-0.00719440,-0.06506104,-0.05697977,-0.00835137,-0.16249412,0.08023416,0.02275450,-0.12991101,-0.03909923,-0.00872528,-0.11332782,0.07958458,-0.04378065
0.03473735,0.02465575,-0.05856321,-0.02161254,0.03665983,-0.04946376,0.13228709,-0.07262458,-0.04217605,0.03079286,0.00822887,0.10741922,0.03356139,-0.03062220,0.03836211,-0.04160693,0.11387675,-0.14710166,0.15716882,-0.12499501,0.04085747,0.02372380,-0.00793394,0.04026066,-0.08929839,0.02983998,0.05842071,-0.05710571,0.11759321,0.08374029,0.08756885,0.00412779,-0.09088088,0.01399339,0.07623997,0.04863016,-0.01796709,-0.13134228,0.00572556,0.07162429,-0.00104364,0.02800348,0.05726656,-0.09235699,0.11343056,0.09633347,-0.04908948,0.03577058,-0.00753959,0.07889891,-0.01955822,0.02359582,0.01930164,-0.08287840,0.05672930,-0.11431095,-0.08634367,-0.08115470,-0.06672918,0.18878351,-0.07536519,-0.03749467,-0.03822126,0.02630957,-0.01620789,-0.05156583,0.08018610,0.15495001,-0.14652367,-0.47125170,-0.10194280,-0.06182125,-0.28145680,-0.24277285,-0.05555817,0.10075920,0.04878399,-0.14930137,-0.10715206,-0.00357552,0.07794313,0.14053385,-0.01911284,0.08183075,-0.18906018,0.20622656,0.02016927,0.07599404,0.00345373,0.07440857,0.12311163,0.16076353,0.05887642,-0.09116318,0.03127875,0.19853099,0.10796998,0.03181719,-0.12604949,-0.15785477,-0.06921784,0.03167618,-0.34480944,-0.14552936,0.04552669,-0.20463099,-0.10099431,-0.14685716,0.03566695,-0.17646264,-0.03139634,0.01621571,0.03550724,-0.10960868,0.05349547,-0.14664072,-0.11987887,0.15591778,-0.03880986,-0.24006841,0.04464348,-0.02809688,-0.21640274,0.11298948,0.40840042,0.00437590,0.02810824,0.15595472
0.09235144,-0.10056522,0.03674673,0.03045977,0.04454088,0.07252860,0.00312058,0.07462706,-0.06569636,-0.01266653,-0.04320764,-0.04985458,-0.00695282,0.09828037,-0.08211704,-0.04868392,-0.04669707,-0.01074980,0.06432343,-0.00795955,-0.11872827,-0.01281468,-0.08659849,-0.00743487,-0.03025874,0.04411534,-0.02428215,0.07013784,0.00138666,-0.00401176,0.00224303,-0.00067482,-0.08079581,0.02853458,-0.04204388,0.05509940,-0.05232483,0.06467012,-0.00508226,0.01180891,0.06150758,-0.05147399,0.06001498,-0.01887888,-0.02365283,-0.00031305,0.09901125,0.04041643,-0.00477627,0.09102940,-0.02806475,0.04343564,0.00435410,0.02342282,0.03713272,0.05545056,-0.05527103,0.00751873,-0.01994205,0.01941040,-0.06239172,-0.05443957,-0.00466606,-0.13183878,-0.03436234,-0.05728403,-0.04837863,0.03853782,-0.00881378,0.04633711,0.11286693,0.09279610,-0.04051621,-0.07088869,0.04298908,0.01846483,0.16012654,-0.09785021,0.06395082,-0.08561943,-0.00905020,0.12593794,-0.07514976,-0.00274808,0.06562095,-0.00846932,-0.11948550,0.30213180,0.19192895,0.01787838,-0.04021837,0.18089978,-0.11318903,-0.00180136,-0.10817950,0.22234944,0.02496439,-0.13228741,-0.04416678,-0.04795764,-0.01980212,0.04317841,0.18317513,0.02674182,-0.08624654,0.09090755,0.00920442,0.02450756,-0.03973985,-0.18772283,0.02697663,-0.03883530,-0.03550655,0.08292089,-0.10839695,0.18625481,0.08658724,-0.05162557,0.00538442,0.00906512,-0.22585532,-0.04821956,-0.00317551,-0.08691491,0.03986255,-0.04019959,0.06023598,0.05794628
-0.04697536,0.05561232,-0.03466707,0.03438984,0.04548025,0.06584062,-0.01763960,-0.00415223,0.00831542,0.15532789,0.07467262,-0.05556473,0.00069418,0.03020278,0.10683115,-0.03677036,0.07314798,-0.05270692,-0.09040008,0.18237904,-0.01555785,-0.04131852,-0.03304935,0.02282628,0.00881742,-0.08900885,0.01148971,0.04563383,0.04727346,0.02022073,-0.08231745,0.06899880,0.09101209,-0.03277891,-0.10607165,0.00272981,0.01325903,0.02675709,0.05493943,-0.03634559,-0.06956338,-0.17330052,-0.01847178,-0.02094698,-0.01494465,0.07094686,-0.06586672,0.03551505,-0.11190971,-0.01841670,0.07161756,0.04276622,0.01535217,0.04798188,-0.00264898,0.07339440,0.03118345,0.00786750,-0.04061901,-0.06385343,0.14971121,-0.09186931,0.03149775,-0.00984102,-0.03576069,0.21690029,-0.18194756,-0.00249529,0.10422702,0.13834018,-0.10594028,0.09905975,0.03976371,-0.02246973,0.04068577,0.06658269,-0.08994429,-0.03279692,0.16679323,-0.13675621,-0.02842224,0.07994249,0.02379355,0.18006802,0.26363912,-0.05314010,0.01279989,-0.03692876,0.20690273,-0.16072299,0.13436794,0.13678247,0.12697907,-0.36127037,-0.00513742,-0.04995338,-0.07170077,0.12212078,0.00746300,-0.09110680,0.22450444,-0.05040197,-0.13509993,-0.00820633,-0.03376051,0.07995707,-0.11433110,0.00836601,0.17731032,-0.06575209,0.20358594,-0.08680835,0.01345986,0.10426204,-0.10855346,0.03965201,0.29250678,-0.06365827,0.05951440,-0.04348909,-0.02358461,0.18952715,0.10622303,0.05761508,-0.17266183,-0.25131926,-0.09639864,0.30309165
0.06492391,-0.07919092,-0.01064552,-0.01073811,0.00538791,0.06018363,-0.15156808,0.05730182,0.13842256,0.07507960,-0.06796387,0.11410488,0.06278494,-0.01845643,-0.14291090,-0.03694640,-0.05840570,0.08780114,0.09746677,-0.05554856,-0.11306734,-0.01349918,0.14066964,0.15681605,-0.04782328,-0.03700643,-0.04524086,-0.07942409,0.00003826,0.00530651,-0.06904786,0.02783784,0.08566201,-0.05796339,-0.11110585,-0.09146712,0.01465425,0.10821783,0.06433833,-0.01726791,0.01289143,-0.06427453,-0.08107909,-0.17159653,0.02506644,0.02574864,0.00618311,-0.03136322,-0.03135227,0.01745384,-0.09620278,0.03998724,0.03206294,-0.15635182,-0.00262436,0.03185582,-0.06689633,0.00196118,-0.06362930,-0.19970115,-0.04239371,-0.01081853,0.08128129,-0.07272778,0.13780344,-0.03866219,0.16510047,-0.00748670,0.03845561,-0.21038358,-0.01216849,0.01523029,-0.08384015,-0.01792986,0.28880981,-0.12746780,0.23987061,0.08103295,-0.21622364,0.00677243,-0.04669178,0.08538911,0.18285680,0.21281381,-0.03546771,-0.10470902,-0.16078192,0.09143958,-0.13250548,-0.09369580,0.01165620,0.22030769,0.21162014,-0.01679981,0.20121469,-0.07722776,-0.13189419,-0.24971355,-0.09868970,-0.16053501,-0.01655562,0.03470340,0.00862157,0.13223575,-0.10148104,-0.15909410,-0.18449256,-0.38889766,-0.01885699,0.17617679,-0.05874666,0.05133791,-0.13775653,0.00040690,-0.14833289,0.04121014,0.05617573,-0.19526070,0.00825178,-0.03320714,-0.12529114,0.04665697,-0.13591717,0.21784422,0.23237212,-0.20625016,0.09856518,-0.17885335
0.13783109,-0.05300845,-0.14891800,-0.04138422,0.00324704,0.01852782,-0.00456191,-0.00157177,0.01133981,0.02137848,0.01669678,0.00291751,0.02451955,-0.02718566,-0.04778850,0.01106893,-0.01330257,0.04866888,-0.08084130,0.03631712,0.09995587,-0.09605277,0.00600837,-0.05562887,-0.02150209,-0.01398732,-0.04731029,0.08029727,0.01777362,0.01770731,-0.03392598,0.06766847,-0.01904074,0.01621523,0.01355412,0.04342471,-0.02775577,0.01275507,0.01782933,0.01293865,-0.06880615,0.11146534,0.01905737,-0.09548714,-0.02320002,0.09438917,-0.09350314,-0.12882054,-0.11932328,0.02000234,-0.10739659,0.00613803,0.07578076,-0.05380873,0.05220865,-0.09452076,-0.06712251,-0.07767542,-0.01952633,-0.04163816,0.05979153,0.09253818,0.11784033,0.01466177,0.17343408,0.03889207,-0.00221258,0.28470591,0.12181079,-0.11494908,0.22230753,-0.19579813,-0.14419091,0.21313991,-0.10748523,-0.14597951,-0.05404344,-0.04529864,0.29793519,0.18027364,-0.04409580,-0.19123553,-0.28104773,-0.05739580,-0.15901367,-0.21295239,-0.07490335,-0.21480070,0.10472438,0.16946197,-0.02406234,0.04593109,0.06743057,0.17552829,-0.13205895,0.11755841,0.03699170,0.15193142,0.06426442,0.16365768,-0.01645935,-0.12690517,0.06713954,-0.19229862,-0.12231783,-0.07616572,0.04674379,-0.03779338,-0.29602587,-0.14090647,-0.10046984,-0.21184109,-0.10990763,0.09690979,-0.16701144,-0.07098851,-0.10879978,-0.20141760,0.17258769,-0.01049604,-0.15149045,-0.22847836,0.23587641,0.31963035,0.04329550,-0.32308897,0.01249658,0.09017173
0.07008216,-0.09950084,-0.13436012,0.01378520,0.12075803,-0.07377193,-0.07363941,-0.02683893,-0.02309586,0.01208569,-0.01067750,-0.12444980,-0.04774276,-0.03541257,-0.02595697,-0.04618409,0.02378850,0.03852510,0.03545460,0.04518951,0.08036108,0.08749631,-0.10642081,-0.03827779,-0.03979527,0.05150982,-0.02297939,-0.06008387,-0.03002739,0.05620199,0.05370234,-0.08640217,0.04532782,0.08187252,0.04346525,-0.00956265,0.10938610,-0.03090835,-0.01697894,-0.04442488,0.13133174,0.12352373,0.05635020,-0.08708592,0.02907211,0.01183814,0.00697850,-0.05567317,0.12233637,0.14735377,0.00990987,0.02997006,-0.01808367,0.06566676,0.01939248,0.01409690,-0.04522950,0.10127841,-0.04664110,-0.11980213,0.06321800,0.10182881,-0.00254057,-0.00340600,0.07659644,-0.02297522,0.05010439,-0.11647159,-0.00953542,0.22320247,-0.12859744,0.21631853,0.03750876,0.01645845,-0.00333889,0.05284544,0.12654072,0.04991229,-0.07758474,0.04293057,-0.15732138,0.06398488,-0.10599054,-0.13662913,0.13825870,0.08933004,0.11947165,-0.05692555,-0.10367285,-0.00171120,0.03449562,-0.04938911,0.03290349,0.13220018,-0.13508399,-0.01309904,-0.11255600,0.10829539,-0.09303758,0.02336753,0.13506280,0.10032760,0.07488307,0.28792524,-0.05878971,-0.07295517,-0.07054339,-0.09417219,-0.09574202,0.24329403,-0.06359836,-0.10489446,-0.20697001,0.01616653,-0.14771499,-0.05270379,-0.26635528,-0.02082257,-0.01299520,0.03013323,-0.21761407,-0.09757993,0.01688574,0.16718760,-0.18697073,-0.06060471,0.19008252,-0.02137140
0.18328603,-0.05424503,-0.08355708,-0.03601284,0.02255274,-0.04960920,0.06849281,-0.08721552,0.05513302,-0.03512647,-0.00677315,0.00233728,0.04623132,0.10651386,0.00478007,-0.06076895,0.02064788,0.00874917,0.11899626,-0.04570894,0.02694223,0.04260885,-0.03264761,0.02560661,0.09513534,-0.12544072,0.03755877,-0.00389836,0.04984215,-0.11027254,-0.09420297,0.06953367,0.11819804,0.05047565,-0.03967287,-0.04054218,0.04083879,-0.00336263,0.04393668,0.07778999,0.08762746,0.02313446,-0.07165610,-0.01415179,-0.06314838,0.03247753,0.04684201,-0.10191764,-0.07533763,-0.05133325,0.03130545,-0.00100809,0.04794329,0.03469907,0.10528731,-0.04184463,0.07552946,0.06896162,0.01626179,0.07654287,0.12376337,0.04888202,0.02540721,0.01280580,-0.08589240,0.00416990,0.04577974,0.22458483,-0.11532730,0.07796121,0.04767160,-0.14219441,0.09731582,-0.19050170,-0.08128116,0.02691093,-0.08399927,-0.05901249,0.18604498,-0.00459170,0.21390696,0.22474328,-0.00560527,-0.16284415,0.03122372,0.04370391,0.05843433,0.04356573,-0.02144759,0.07870436,0.21597713,0.02330373,-0.61312681,0.04867698,0.15834753,0.02923545,0.05430530,0.03546126,0.01628374,-0.07906432,0.12334869,0.06753202,-0.03231385,-0.04802674,0.11699869,0.00387163,-0.13280451,-0.07210286,-0.14270961,0.01809777,-0.16510975,0.09958651,-0.14836204,-0.08759780,0.01166271,-0.09122875,-0.01398466,-0.06573836,0.08483864,-0.04192545,-0.08730135,0.21158476,0.00044029,0.03596534,-0.18014501,-0.05874344,-0.03807802,0.17395294
-0.03138436,0.08542605,0.03986341,-0.01772407,-0.10122623,-0.06131665,-0.01498460,-0.06512533,0.04880175,-0.00319635,-0.00188137,0.00213194,-0.00567454,-0.08270787,-0.00691321,0.12386884,0.09130888,0.17488237,-0.01762306,0.03044402,0.02644556,-0.04742386,0.06467967,-0.06323186,-0.03508093,-0.00400787,-0.03618660,0.02910019,0.03332424,-0.05820281,-0.04303997,-0.01047703,-0.01204888,-0.02134357,-0.01409183,0.01175779,0.06212196,0.00557284,-0.10108376,-0.03995609,-0.00116507,0.04561132,-0.00609455,-0.05265605,0.03195950,0.05249641,0.05732797,0.00352178,-0.00786141,0.01518710,0.04205288,0.06272066,-0.05511862,0.04624805,0.01481006,-0.02436410,-0.03928093,-0.09012615,0.04886346,0.06768156,-0.01130664,-0.04012313,-0.04347797,0.12884028,0.17621739,-0.05655230,0.03386195,-0.01015365,-0.16369398,0.10037029,0.12811555,-0.07308421,0.08381410,0.10365757,0.13000780,0.14294402,-0.07988560,-0.13215524,-0.09582200,0.09959252,0.12846905,-0.14723398,0.06904586,0.22037631,0.12833610,-0.12814115,-0.17079253,0.11116474,-0.03705299,0.20377629,-0.02566746,0.02197009,-0.01367713,0.05166622,-0.01675491,0.11447420,0.01098108,0.11504006,0.04897237,0.12822267,-0.10305650,-0.04658322,-0.14124778,0.23951495,0.12732868,-0.00575676,0.10576005,0.08560853,-0.19084559,0.10709276,0.18285386,-0.06101103,0.03655741,0.16422464,0.17726678,-0.18087001,-0.12858273,0.09758572,0.16115829,-0.20291731,0.28077248,0.21531266,0.03851845,0.04930843,-0.00805588,-0.05045443,-0.01846342,-0.09298426
0.08377869,0.00091510,0.00859614,0.07262833,0.05792505,-0.11877182,-0.04690301,0.01732019,0.07223815,-0.06162065,0.06626868,0.00060346,-0.02660072,0.00813198,0.05588305,0.00923371,0.02679611,-0.07204545,0.03831320,0.02491314,-0.03958873,-0.07352345,0.01486513,-0.09849977,-0.07267933,-0.09912470,0.00589079,-0.07294217,0.07595397,0.00895353,-0.08087825,0.06218344,-0.05137977,0.10799517,-0.04339484,0.01837700,0.08187582,-0.00281078,0.02208103,0.08721031,-0.08456098,-0.00774705,-0.01098900,-0.00096366,0.06531923,0.00106975,0.02011850,0.02627443,0.00843810,0.00330337,0.06523409,-0.01985910,-0.06635634,0.00289038,-0.01533206,-0.09898617,0.08271961,0.07939573,-0.13333790,0.10745377,0.07688217,-0.14391412,-0.06081476,0.00115388,0.08674700,0.04654646,0.02271423,0.14690839,0.07953081,-0.09927895,0.00623988,0.16198647,-0.01070514,-0.23328643,-0.14942250,-0.01401394,0.05636362,-0.00618196,-0.03363808,0.01654331,0.07475124,0.23897621,0.11009598,-0.03377972,-0.00157331,0.19136776,0.10097530,0.06650143,-0.11209512,-0.04012607,-0.09177148,-0.20388600,0.07211015,0.01138716,0.05566107,-0.16835670,-0.09889514,0.03924885,-0.03680037,0.02057981,-0.09863206,0.10342970,-0.07535800,0.22329931,0.08372096,-0.17350696,-0.06349192,-0.01965095,-0.03820727,0.08911648,-0.05223965,0.16522460,0.01636987,0.11909391,0.23430489,-0.00824732,-0.12274571,-0.15250453,-0.02896778,0.00639915,0.09243932,-0.14200483,0.02555264,0.06163589,0.03686291,0.05504655,0.11426809,0.11626009
-0.02368419,-0.06684574,0.03928857,0.06238517,-0.09680532,0.02351776,-0.01126838,0.01456318,-0.01197064,0.00081338,0.02702208,-0.15363009,0.06340989,-0.09327871,-0.01384557,0.07222039,-0.09252264,-0.04427928,-0.01039594,-0.07771528,0.02665839,-0.03233406,0.12065273,-0.06437480,0.07309377,0.00918482,-0.02478434,0.07105330,0.01340099,-0.02630724,0.03967725,-0.04636706,0.08589724,0.14831430,0.03869260,-0.08025948,-0.04076949,-0.04385683,-0.07811773,0.04808205,0.05818497,0.13060318,-0.01281136,-0.07418302,-0.07900455,0.02989862,-0.02126515,-0.07203007,0.07895095,-0.01213671,-0.06327365,-0.04345000,0.01699138,-0.08734031,0.03519462,0.12877811,-0.05894088,-0.02312482,0.07352437,-0.07002683,0.01785126,0.08932722,-0.03520759,-0.07994564,0.15157235,-0.12572765,0.05010543,-0.07437301,0.02482906,-0.01666570,-0.04877657,0.06292360,0.05157709,-0.03040720,0.03972661,0.08025675,0.19802833,-0.12980631,-0.02950783,-0.07950813,0.10324823,0.03741726,-0.06231849,-0.14777942,-0.05223749,-0.15205811,0.22656983,-0.01536282,0.05736254,0.15732329,-0.09965087,-0.01556406,0.15047805,-0.04028967,0.07924943,0.00958915,0.04022727,0.29650453,-0.00573978,0.05519134,0.00256701,0.07780132,-0.05583394,0.04513702,-0.01355488,0.01950354,-0.06345022,-0.05054535,0.03730098,-0.16226116,-0.06779709,0.04982995,0.03091317,-0.09546456,0.00681688,0.09223946,0.16260809,-0.13380331,-0.08742409,0.04653992,-0.05856805,0.03016179,0.05462329,-0.14735448,0.03582930,0.09546486,0.05905808,-0.00842891
-0.02257401,-0.00413343,-0.03161677,0.00695165,0.07026353,-0.04837386,-0.07105649,-0.00165925,0.02188929,-0.08346127,0.02629387,-0.02399280,-0.01626175,-0.06041212,-0.01497895,-0.12389253,0.00187463,-0.00991922,0.00800907,0.14890359,0.21537508,-0.04518567,0.06516349,0.03316612,-0.00946937,-0.08247568,0.02463447,-0.04266544,-0.09844571,0.03042960,0.07965472,-0.14798671,0.04263435,-0.04313333,-0.01052668,-0.00256326,-0.10684605,-0.00118808,0.01793653,0.06340180,0.05434267,0.04644108,0.03665455,-0.12111928,0.10152440,-0.01086959,0.02821675,-0.03531366,-0.01704744,-0.06600569,-0.03951780,-0.05391945,0.03335898,-0.02140774,0.07894125,0.10803796,0.11341619,-0.00773840,0.01759985,0.03229152,-0.16710953,-0.00238220,-0.09307972,0.00121231,-0.05977466,0.08795715,0.01452386,-0.15459856,-0.14452818,-0.05209595,-0.08466848,-0.18775029,0.00531028,0.17907454,0.18999055,-0.27220860,-0.11916072,-0.35308227,-0.01156719,-0.25630698,-0.08141652,0.05324591,-0.24835718,-0.09005757,-0.05281865,-0.09123223,0.12988348,-0.21572174,0.04838967,0.08218859,0.12606086,-0.16613583,-0.07363544,0.09636640,0.28291979,0.05585727,-0.16194977,-0.01048765,0.03886407,0.10990834,-0.04524510,-0.02942442,-0.11819658,-0.15213232,0.00984731,0.18602780,-0.11871587,-0.33134151,-0.05480436,0.09959006,0.02851156,0.03339983,0.10182795,0.21055582,0.02906285,0.05104195,0.27487931,0.04769803,-0.05096577,0.01673822,-0.11658247,0.23052515,0.17037277,0.08351237,0.19683796,-0.07161430,-0.02575701,0.09202689
-0.02974989,0.10720287,-0.07157532,0.03179173,0.05347192,0.05250105,-0.10176318,-0.03103720,0.00501064,0.05590071,-0.03419027,-0.01006264,0.00039887,0.02039078,-0.07219779,-0.00940563,-0.12295388,-0.15143441,0.09229951,0.00051124,-0.10264267,0.08192213,0.00707357,0.00621757,-0.09573510,0.00637874,-0.04822357,0.00398768,0.02705568,-0.02990134,-0.02571313,0.08713754,-0.16858494,-0.00825677,0.01181110,-0.10041542,-0.01835705,-0.00150483,0.00727334,0.04724604,-0.08229964,-0.00511037,0.02083869,0.03212560,-0.10519635,0.04516014,-0.01333445,0.04963619,-0.07370792,-0.06823170,-0.03735071,-0.04712567,0.00429333,0.03084314,-0.06840581,-0.07569661,0.01069565,0.00366222,-0.10522714,-0.10400001,0.07976169,-0.02102423,-0.06405539,0.04023885,-0.08635024,-0.10970922,0.00135044,0.02837342,-0.18384637,-0.09822486,-0.16467479,-0.04387396,-0.10933119,-0.02672356,-0.14408806,0.12925683,0.17283624,0.04538077,0.09641190,-0.04883294,-0.01783874,-0.04909906,0.10090686,0.08203970,-0.02307661,-0.07737546,-0.15505500,-0.07665873,0.09728887,-0.02485740,0.03144991,-0.13187876,0.06723437,-0.15995143,0.23788735,0.15458153,0.15931326,-0.03517342,0.03464957,-0.00959982,0.24287122,0.17220223,-0.07211649,0.13358162,0.04716298,0.03123064,0.03286417,0.03690438,0.03070179,-0.08986194,0.08678582,-0.03450303,0.00283554,0.04123139,0.08468827,0.10505323,0.07185775,-0.14721899,-0.12938121,0.08877738,0.04769941,-0.10750098,0.06545502,0.27580765,-0.21506082,-0.00215130,-0.12778211,-0.23262644
0.02692503,-0.00313177,0.02330078,0.15895192,0.04620703,-0.14011224,0.03136239,0.06396801,0.14900254,-0.04331415,-0.03972480,0.00959841,0.03770271,-0.01455761,-0.11628917,0.07432376,0.01148839,-0.18239030,-0.03884554,-0.00660500,0.03283504,-0.09373487,-0.12838462,0.02087697,-0.03001780,0.11409575,-0.04654462,-0.05246131,-0.06587008,0.00858860,-0.05485593,-0.06073220,-0.00100720,-0.04712420,0.01300629,-0.10480659,-0.10532992,0.09759797,-0.02753873,-0.04376871,-0.14468078,-0.02794032,0.13461730,0.04522754,0.01207188,0.00688961,0.02867447,-0.03724823,0.01134743,-0.12433699,-0.01789654,0.02739896,0.09194159,-0.06995049,-0.04427107,-0.06400789,-0.12941018,-0.06792378,-0.05588676,-0.00939732,0.00612822,0.02497671,0.08308261,0.05353050,0.20371948,0.14644544,-0.08580308,0.14301836,0.17032798,-0.16931999,-0.12866214,-0.22840658,0.02005050,-0.17794886,0.02404841,0.05119176,0.06650300,0.09040798,0.11090203,-0.20511667,0.02029609,-0.11855406,-0.00765220,0.00758561,0.05720826,-0.18647842,0.11929300,0.11603961,0.00839465,0.19820334,0.04305406,-0.12881522,-0.13974845,0.20399190,0.17492172,-0.06811178,0.05653402,-0.15319254,-0.09368580,0.11195950,-0.21467291,-0.02712319,0.14666837,-0.08889849,0.02257417,-0.01888845,0.13452825,0.19109803,-0.00203263,0.01213276,-0.11683853,-0.06226115,0.22881797,0.16206545,-0.18069783,0.13998672,-0.02419561,-0.12642062,0.05945814,-0.18381201,0.07604867,-0.09618293,-0.01746915,-0.17773156,-0.08816370,0.01926054,0.06639653,0.08694585
-0.00404719,-0.06125428,-0.00019606,-0.07485055,0.01677812,0.05102731,0.02636665,0.04612064,0.15898098,0.06287398,-0.00506872,0.15082647,0.05175231,-0.08360863,0.05916664,0.03961413,0.03301251,0.07008360,-0.04385277,-0.04461951,-0.09392186,-0.09496495,0.05309914,0.13035999,-0.01768326,-0.02040479,0.04862854,-0.03889335,0.03192082,-0.05716909,-0.00475101,-0.03745188,0.03210890,0.07238725,0.03607215,-0.10155191,-0.10645535,-0.03525335,0.02915838,-0.06110378,0.04086251,0.08165728,0.01012143,-0.12328824,0.02491707,-0.00906187,-0.06304754,-0.04706462,-0.05069932,-0.07308615,-0.02884945,0.02495266,0.01388758,-0.10927463,-0.04082358,0.00176372,-0.11121663,0.09006920,-0.01438567,-0.05149443,0.06439786,-0.14167404,-0.04245767,-0.06305663,-0.15907657,0.16081600,0.08213980,-0.14752120,-0.35700229,0.12710582,0.11256015,-0.02481423,0.14109741,-0.02581169,-0.23906559,-0.07009447,0.12594655,0.15281951,0.15024899,0.11179901,0.12341835,-0.01912216,0.12776440,-0.00518050,-0.19076298,-0.06996109,0.02098435,0.14017144,0.12238576,-0.16470872,-0.36542276,-0.12351510,0.27107659,0.14593999,-0.01769205,0.03465340,-0.02709369,0.01688429,-0.05818265,0.00421012,0.19659476,-0.12236930,-0.14485298,0.07097516,0.00482987,0.01171137,-0.01702751,-0.03146368,-0.04821554,-0.05014995,0.02491140,-0.05759157,-0.07961348,0.00925170,-0.12498090,-0.01987676,-0.06327824,0.03305778,0.36354902,0.01619054,0.13051313,0.09684988,0.20128065,-0.08884934,0.15616763,0.21854308,-0.01998064,-0.03950212
-0.07561206,0.01270210,-0.12155047,0.19450170,-0.04055244,0.05741616,-0.03563546,-0.00286135,0.05426304,-0.02048651,-0.06438589,0.06991769,0.09675609,0.03020816,-0.00733945,-0.07791764,0.00604092,0.08257267,-0.02715965,0.05924967,-0.03355304,-0.09295412,0.01617662,-0.06152440,0.11439550,0.01060784,0.10467333,-0.02762942,-0.07570077,-0.10643411,0.03917949,-0.03849058,-0.03987546,0.05406905,0.00619548,-0.00871580,0.07107572,0.02594076,-0.06378323,-0.00263294,-0.00307636,0.07298600,-0.02016131,0.05509195,-0.00082652,0.09607315,-0.00377167,-0.02884727,-0.01529561,0.06163544,0.00335207,-0.08250350,-0.06739425,0.09502981,0.02130923,-0.03280933,0.14851142,0.01664340,0.08817142,0.02048436,0.08051884,-0.06096161,0.08518352,0.02330892,0.14941661,-0.07377185,0.19825736,-0.05757033,-0.04937769,0.02397433,0.08482420,0.05825556,0.19479915,-0.16223809,-0.28275627,0.09395253,-0.07081719,0.10157101,0.00188886,0.23847815,0.22893827,-0.00997016,0.03643272,-0.01409664,0.05214002,-0.15203056,0.15214291,0.05796879,-0.11464629,-0.05943891,0.03672358,-0.18148464,-0.27073491,0.10487729,0.10203493,-0.26540127,0.04432124,-0.17674041,-0.14869201,0.07618318,0.00820188,0.07373330,0.14202069,-0.00528510,0.05066687,-0.06581143,0.06375355,-0.20829201,-0.03064758,0.05352709,-0.12253433,0.04543297,0.00090860,0.19281863,-0.11542042,-0.08916896,-0.10272364,-0.34272426,-0.17209327,-0.10695972,-0.10058273,0.21074337,-0.25972155,0.08560965,0.09721800,-0.17922561,-0.01446199,-0.00242501
0.00741266,0.11085685,0.09492625,-0.12309651,-0.05787162,0.21775958,0.02847680,0.01069720,-0.04103281,0.00941087,-0.03163726,-0.00004750,0.04075026,0.02370702,-0.08704769,-0.06325737,-0.03049315,0.02040015,0.03819138,-0.02151785,-0.02572888,0.03976264,0.07148614,-0.04076679,0.06902054,-0.11082877,0.03051705,-0.02373749,0.07342417,0.03773813,0.24490340,-0.09374343,0.05240546,-0.11008821,0.14774120,-0.00868525,-0.05854999,0.12725127,-0.01971002,0.09419005,0.02191298,0.01989951,0.09792759,-0.02490068,0.04393026,0.13981289,0.02591736,0.12739827,0.02890657,0.07143593,-0.08724455,0.04678853,0.04016922,-0.02231783,0.01837459,0.04075282,-0.09305760,-0.07882787,0.10138804,-0.05872126,-0.00751387,-0.05108958,0.03015504,-0.03168196,0.00600213,0.16429932,-0.10409047,0.14323141,-0.22179407,0.11913151,-0.04414158,-0.01430339,0.14528517,-0.03929798,-0.19607314,0.11076441,0.17157488,-0.00659996,0.02000505,0.02904549,-0.05551935,-0.11681399,-0.18977827,0.00135492,-0.15140083,0.11851908,-0.16065781,0.18496685,-0.12394439,-0.04062784,0.01657493,0.11992934,0.11860348,-0.05134534,0.00214176,0.02879263,0.16333069,0.28364339,0.04076305,-0.07715778,-0.06073659,0.03770650,0.01859264,0.01878206,-0.15977451,-0.16944176,0.13423175,0.08985337,-0.03746424,0.03015407,0.01919323,0.13869278,-0.01285929,0.18337511,-0.02491362,0.04395047,0.06230903,-0.03160114,-0.12461343,-0.02292951,-0.11489180,0.15999112,-0.01838417,0.01503999,0.03060609,0.03002378,0.08003980,0.11084210
-0.01675951,-0.07873011,0.04920274,0.13941722,-0.12089904,-0.02925124,-0.02412247,0.12426902,-0.08484244,0.08706529,0.02833477,-0.04458313,0.08214551,-0.05559306,0.04183688,0.03266924,0.01250731,-0.00625007,0.12095658,-0.03693189,0.09490038,-0.03581890,-0.01025339,0.03458698,0.01242454,0.04418924,0.08606668,0.00616225,0.06566869,-0.09594243,-0.02896328,0.07881021,-0.08575182,-0.00402670,0.02313231,0.07412832,-0.02373163,0.04989838,0.15902957,-0.06540692,0.03185952,0.06519684,0.07232024,0.11613900,0.03526545,0.02593282,0.00151219,0.05461560,-0.03577414,0.00479143,0.01961967,-0.01746826,-0.12248950,0.14966665,-0.02823639,0.02764970,0.05315026,-0.04558995,-0.00780387,-0.01975489,-0.01517785,-0.14719771,-0.00604626,0.08043649,-0.21101840,0.07406028,0.04434191,-0.08083364,0.05930299,-0.03881417,0.04348156,-0.01669696,-0.03822094,0.20621608,-0.02219556,0.09054688,-0.00048253,-0.06366216,-0.11100769,0.07097173,-0.04450411,-0.02068568,0.10902888,0.08811215,-0.04182640,-0.22435750,0.25737348,0.16124961,0.08638930,-0.39150104,0.03655115,0.12841573,-0.17610089,0.09629054,-0.06588566,-0.09916770,0.13037850,0.40840814,0.07928852,0.06206764,-0.03605349,0.14449525,-0.04979651,-0.23722443,0.04894450,0.06501441,-0.01294978,-0.16472232,0.10716257,-0.14768051,0.02384987,0.02465633,-0.06339657,-0.11969542,0.06399461,-0.21170333,0.07585298,0.09699003,-0.07434640,-0.07807774,0.03056046,-0.17645155,0.23920362,-0.11775854,-0.14223972,0.23240055,-0.06422030,-0.00985937
-0.09247507,0.05433648,-0.02540556,0.04083848,0.11143903,0.18037398,0.02400078,0.04538880,-0.05079062,0.04397766,0.07857802,-0.03340399,-0.08721174,-0.03994820,0.07926935,0.11199441,0.05017480,-0.00291049,0.03605353,-0.01400910,-0.04749941,0.08726218,-0.01110030,-0.09562930,0.03983348,0.01884624,0.02375304,-0.00141469,0.01043865,0.04538655,0.02823244,-0.05841498,-0.01297033,0.03089112,-0.07620363,-0.12480117,-0.09992987,-0.01905447,0.01416598,-0.00804306,0.04950449,0.14280203,0.02302376,0.02343987,0.01923375,-0.07308239,-0.02376325,-0.08180060,0.07197388,0.02080946,-0.08105451,-0.00439021,0.02801242,-0.08015583,-0.02636251,0.01504803,0.14661716,0.07883690,-0.13643317,-0.05310339,0.01764243,-0.01020448,-0.10225253,0.14175254,-0.02309079,0.37438148,0.10005166,-0.13288015,-0.04460660,-0.02782970,0.05242741,0.01454410,-0.19885346,-0.08405243,-0.13786390,0.11663136,-0.09239874,0.24214928,-0.09370619,0.06086287,-0.07760056,0.06907181,0.13006717,0.05140136,0.02695137,0.00122883,-0.02092912,-0.06856648,-0.02555399,-0.04992085,-0.22738475,-0.00382402,-0.01875005,-0.01569770,0.14024225,0.24721000,-0.16641013,-0.08809928,0.21838175,0.13520700,-0.13060135,0.14238228,0.21837579,-0.25734004,-0.02193312,-0.07328452,-0.33629626,0.19127248,-0.02863878,-0.13867415,-0.14682944,-0.09797032,0.19313201,0.04514014,0.05670651,0.11541934,0.03308047,0.03545034,0.13543057,-0.00926733,-0.01474223,0.05916420,-0.04870208,0.00282052,-0.12861522,-0.07406932,-0.06166860,-0.01256131
0.06499297,0.11619643,0.05670714,-0.09221714,0.02119341,-0.01852359,0.00757348,0.04848632,0.08535694,0.05148422,-0.05807153,-0.06034697,-0.03525865,0.00039640,-0.05399224,0.07709256,-0.08552133,0.04758718,-0.02945112,-0.12587911,-0.02209618,-0.01072949,-0.05127319,-0.02617059,0.08311797,0.02468450,-0.19856595,-0.00800977,0.01963134,0.06330673,0.07884631,0.08772907,-0.03906266,0.01849225,0.06422991,-0.10008185,-0.02045660,0.05487408,-0.01735932,-0.07681588,0.04581022,0.02209858,-0.00971716,0.02889945,-0.01284499,0.00636041,-0.03495472,0.04795815,0.00421700,-0.11047648,-0.01317679,-0.07993221,-0.04942657,-0.03589737,-0.04093437,0.08397228,0.07979706,0.03724434,0.04533012,-0.02366190,0.03221560,0.01662520,-0.02965389,-0.07923297,0.02660039,0.06055197,0.07504423,0.01770505,0.10996678,-0.00870072,0.04924057,-0.12070011,-0.03202055,-0.08026753,-0.17030099,-0.06633125,0.14198089,0.04053774,-0.10806812,-0.04302398,0.06416637,0.12844801,-0.05894784,-0.04452513,-0.16211486,-0.09402273,-0.01704459,0.09206117,0.10632405,0.00753234,-0.00207458,0.18446574,-0.17848451,0.10936416,0.15848766,0.17624477,0.18473089,-0.05913349,-0.05287896,0.02878992,0.04043026,-0.15938063,-0.03116610,-0.05261810,0.08490992,-0.30925396,-0.08060566,-0.11770903,-0.14039573,0.08543257,0.07843305,-0.10917185,-0.00575108,-0.05128429,-0.08017447,-0.07698817,0.17945933,-0.00330791,0.08687875,0.01480593,0.05013422,0.01688395,0.01275854,-0.05078028,0.09405191,0.16016112,-0.05010400,-0.08111961
0.05910148,0.03491939,0.06002813,0.03509800,0.01427357,0.01881183,-0.10456847,-0.06243435,0.08826872,-0.01414423,-0.04210001,-0.00663531,-0.04540800,0.17691147,0.05616346,0.04311068,-0.08615231,-0.05136886,0.00519507,-0.00179896,0.08301397,0.07720455,0.10133924,-0.11838400,-0.01389009,0.09210268,-0.10753687,-0.08910896,0.00007045,0.03072203,0.10761077,0.02144842,0.08768047,0.11677323,-0.12808880,0.02348474,-0.07009251,-0.16282375,-0.01837246,0.01328321,-0.02968957,0.20535827,-0.05115206,-0.06302793,-0.00303084,0.05659077,-0.02045028,0.08312746,-0.14180171,-0.03235794,0.16753367,0.07518011,-0.05813238,0.08376502,0.09990744,0.00168220,-0.07340421,0.05780847,0.07671890,-0.04920423,-0.00334652,-0.04143257,0.09153793,0.01959662,0.22446129,0.06427570,-0.08923294,-0.03334929,0.10138067,-0.06182749,0.01183392,0.01429494,-0.05329354,-0.10929696,-0.20400397,0.13542730,-0.03963673,-0.09954755,0.17077850,-0.01660207,0.17109483,0.16690455,0.03944230,-0.00602743,-0.18761808,0.01152735,-0.16643575,-0.28144339,0.09921366,0.32208782,0.19298010,-0.16258980,-0.04346495,-0.14849181,-0.11135001,0.20900339,-0.21220332,0.08355902,0.12012605,0.06020153,-0.10454178,-0.11275325,0.28902289,0.14047787,0.06291002,0.12923326,-0.05678479,0.26809666,0.08941037,0.22799273,0.18399553,-0.09571482,-0.06460007,-0.18099430,0.13829200,-0.05756884,0.32548472,-0.03558422,-0.15477957,0.02178197,-0.13616355,0.01710857,-0.03999376,0.08058296,-0.05937871,-0.01698072,-0.03907180,0.09203645
