-0.76432842
0.08937499
-0.02388740
-0.34432366
0.51802361
-0.07641900
0.11706898
-0.46194181
-1.55430388
0.89809340
-0.00830809
-0.23820353
0.42762080
-0.34549955
0.35507607
-0.18971403
-0.27844271
-0.10168332
-0.69593608
0.62135273
0.18277541
-0.29902887
-0.19692007
1.60650921
1.51481903
0.02440400
0.10695949
0.59834296
0.73787946
-0.09205790
-0.43128178
-0.12943912
0.00298112
-0.17967297
0.14649321
-0.19788888
0.33245376
-0.38475844
-0.13593093
-0.19837914
0.53931934
-0.08599205
0.92129183
-0.97316086
0.73570788
0.06676168
0.10086457
0.73550272
0.33900857
0.14569673
-0.01910691
1.03890133
0.36319125
-0.13207892
-0.07000995
0.04997415
-0.18133470
-0.01447206
0.32942450
0.81040782
0.62218648
-0.64607406
-1.04393303
-0.45641825
-0.24454618
0.20791510
0.16096239
0.08214814
-0.16007411
0.40007839
-0.04284885
0.13904925
-0.18855593
-1.62916744
-0.64986354
0.14240262
0.08413817
-0.35020787
1.96434009
0.32208228
0.33921778
-0.62812942
-0.45869592
-0.02716420
0.96550524
-0.28377616
-0.27565408
0.78426641
0.20487176
-0.37376562
1.24317086
0.25688854
-0.02070739
0.15438996
0.54018277
1.01158249
0.35723487
-0.56941992
0.68964893
-0.29354858
0.32131398
0.21697271
0.25998986
-0.36519095
0.25076967
-0.58538753
-0.70741850
0.63521522
0.69932336
-0.34269881
-0.89186627
0.94656450
0.58957571
0.28168544
-0.13362592
0.14656298
0.44586971
-0.86338359
-0.15243948
0.33531311
-0.01306647
0.53180820
0.34196773
-0.61128408
-0.00325819
-2.03634858
-0.11467549
0.59698588
