0.02044380
0.07815913
0.08031084
-0.15196042
-0.07609109
-0.12913120
-0.14174281
-0.01443318
0.01364122
-0.14316770
-0.00979387
0.14676996
0.03256257
-0.26452544
0.00179564
-0.06239034
0.08382290
-0.12108523
-0.17980385
0.00238841
0.02549810
-0.01460750
0.05024731
-0.11836085
0.13582383
0.02052547
-0.05146860
0.08529999
-0.04313144
-0.07062116
-0.11439779
-0.12906048
0.06820661
-0.10487779
-0.08091991
-0.21022524
-0.04566796
0.12183057
0.00176096
-0.18060160
0.17107591
0.04564335
-0.13870867
0.23791535
-0.00888994
0.05245662
0.10855202
0.03204981
-0.05211241
-0.02168051
0.31892148
0.03027955
0.01576354
0.11567655
0.02150720
-0.13930508
0.06578004
0.11530399
0.02877729
0.09578702
0.11795889
-0.06071503
-0.01367505
-0.03918768
-0.15006970
0.13207686
0.04411313
-0.05527968
0.00508332
0.01610123
-0.22012024
0.15654030
0.10018814
-0.10644820
-0.02757266
-0.13926041
0.02671829
0.06144399
0.20690617
0.07963554
0.06393932
-0.11008350
0.09594613
-0.04086117
0.05615712
-0.14063922
-0.10146605
-0.10902376
0.04716551
-0.08257237
0.02919668
0.08007447
-0.07287915
0.05550016
-0.08330087
-0.05659796
-0.01026093
0.08249492
0.10169587
0.03043905
-0.12092780
0.11104857
-0.02020898
0.04276222
0.05883329
-0.04774669
-0.09487907
0.15901369
0.01602819
-0.04027434
0.09673776
-0.04916229
0.08454488
0.00160279
0.02236390
0.04992741
-0.18025543
0.01184626
0.01972959
0.01474154
0.18762334
0.11838656
0.02538169
0.05763367
-0.08212919
0.03923139
0.07012798
-0.03715696
