0.51357520
-0.40934339
-0.50573128
0.00261115
0.29916111
0.47737107
-0.89997417
-0.70901066
-0.69301134
0.15687265
0.38665664
0.00045854
0.20382449
0.15798543
-0.47371835
0.10148206
0.06075137
0.57088447
0.08871540
0.21143983
0.11915758
-0.32912102
0.26276577
-0.20474055
-0.14102107
-0.54591018
0.43219867
-0.99462169
0.30826035
-0.07604798
0.19683447
0.15033554
0.76492399
-0.52723831
-0.22798079
-0.36125550
0.17080104
0.31486923
-0.10820644
-0.22721007
-0.14194518
-0.03390814
0.10455247
0.61961460
1.00216448
0.81757575
-0.17188762
-0.38311648
0.51312429
-0.20423543
-0.74339855
-0.17278782
0.44090390
-0.44332421
0.50535786
0.04805227
0.06884975
0.07161573
-0.27488789
-0.61992741
-0.46183220
0.35318851
0.33948609
-0.22339915
-0.26844305
0.97466832
0.21382010
0.08087675
-0.31201079
0.23269913
-0.30847341
-0.58653915
-1.08126402
0.01281718
0.65283436
0.61069554
-0.57894635
0.91251647
0.10753214
0.28519472
0.41890195
0.20306712
-0.27787629
-0.73908198
-0.13778973
-0.01391490
-0.11649964
0.20569211
-0.37946039
-0.03194633
-0.44054186
0.55233127
-0.54196548
-1.10722816
0.56586611
-0.10189129
-0.73475230
0.04243435
-0.17844290
-0.38771546
0.84273171
0.58652884
0.74533921
-0.37200052
0.01187920
-0.46566278
-0.45254955
-1.07942855
0.00684954
0.10942011
-0.22265521
0.40917918
-0.12793459
0.09157027
-0.03306447
-0.41774604
0.54591608
0.76188678
0.59451389
-0.38435918
0.19032790
0.31339493
0.02818755
-0.24623296
1.24642360
-0.14491929
0.59512073
0.12300584
