-0.06460339
0.00213117
-0.04922408
-0.25621873
0.19625302
-0.21521664
0.11420866
0.02992445
-0.24591665
-0.36381379
0.57044083
0.11664544
-0.17434992
-0.05442239
0.64882880
-0.10574006
-0.05664988
-0.09751047
-0.45759672
-0.03297968
0.41926193
0.46902230
0.64318341
0.21513250
0.66796184
-0.21182293
0.07704586
0.44441542
0.05710125
-0.26849577
-0.06902158
-0.29906738
-0.21579166
0.17971383
0.36493197
-0.03137447
-0.17141041
0.39422676
-1.03247666
-0.24633153
-0.09704523
0.06741520
0.04428341
-0.39748225
0.41243422
-1.16186619
0.08343079
0.06898377
0.32824251
0.06447936
0.33929697
0.47024086
0.34278044
0.24887303
-0.28530988
-0.07176360
0.09276606
-0.02326410
0.28956908
0.66778076
0.33152664
-0.09481044
0.02373273
-0.34125674
-0.03676423
0.32381698
-0.45849794
-0.02597360
-0.25941703
-0.30859125
-0.37030423
-0.06763169
0.16989693
0.38411435
-0.40858907
-0.07292700
0.31990957
0.14669470
0.50899583
0.25229523
0.14524998
-0.04449124
0.09860194
0.05473283
0.13427903
0.01407998
-0.28400427
-0.10702413
0.49076456
-0.37984771
0.65087372
-0.23842879
-0.56322277
0.82852334
-0.14842227
0.59894615
0.26707521
0.21345814
0.15305004
0.43976709
0.09589892
0.01206706
-0.07138123
-0.62448263
0.22176835
-0.60923284
-0.28555301
0.38442960
0.03223641
-0.02589111
-0.05539492
0.22452392
0.97998792
-0.38013744
-0.16376950
0.04711489
-0.18953604
0.16005757
-0.26804981
0.02521213
0.33843559
0.98502463
0.81054085
-0.20263407
-0.48545140
-0.22293088
-0.56762952
0.79379785
