-0.06629919
0.05709267
-0.04581686
0.01418288
-0.02412326
0.00590615
0.00152011
0.04847122
-0.06590013
-0.04448409
-0.01335191
0.03297502
0.00113139
-0.01919217
-0.02104492
-0.04837178
0.03640329
0.02613822
0.00729412
-0.06742149
0.07005172
0.05027924
-0.12413308
0.00314028
0.01302433
-0.04016951
0.05297544
-0.04206480
-0.01663963
0.04601198
0.03419121
0.02965700
-0.00590050
-0.07477728
-0.01338073
0.02935807
0.06858660
0.01658046
-0.07244293
0.10229032
0.00503431
-0.06323432
0.03751308
-0.05145992
0.04620881
0.02586523
-0.00187196
0.01787090
0.08239494
-0.02383771
-0.01357208
0.09504434
-0.05446480
-0.01957419
0.02072009
0.03527371
0.05095627
-0.05212009
0.10335166
-0.02139603
-0.03047711
0.05101132
0.02010190
0.01698981
-0.02606883
0.00596444
-0.01375320
-0.00528859
-0.02154618
0.04668055
0.01565980
0.07352346
0.04877432
0.03660004
-0.02816087
0.01004140
-0.03048119
-0.02526170
-0.07588366
-0.00144328
0.02171578
0.05649181
-0.05430819
0.01308457
-0.00083816
0.07431082
-0.06344048
0.02602533
-0.04188721
-0.01653335
0.02819721
-0.03482718
-0.00284491
-0.04025844
0.02156863
-0.05114743
0.00607423
0.06753854
0.01801883
0.01181636
-0.02868459
-0.04441501
0.02074009
-0.07514741
-0.01455199
-0.02432661
-0.02707962
0.04328372
0.03883962
-0.06775600
0.00705391
0.04969060
0.06803288
0.01010286
0.03703738
-0.05432535
-0.03203093
0.06794662
-0.01338134
0.01846996
0.05070430
-0.00517867
-0.05693432
0.01194870
-0.01257156
0.01019498
0.03455362
-0.01535452
