-0.13208926
-0.21273732
-0.35654026
-0.07025784
0.24420714
-0.45882004
-0.02859536
0.07236886
0.25269204
-0.31874138
-0.36515933
0.20392081
-0.13361835
0.08395850
0.38238111
-0.17385659
0.15224373
0.19897042
0.21824671
0.25043419
-0.01573341
-0.26361179
-0.11664310
0.28851461
-0.34660056
-0.03161808
0.29357082
0.01449595
-0.25762311
0.26214248
-0.30988255
-0.25780901
0.28300804
0.02853529
0.16441157
0.31289491
0.15587319
0.11324196
-0.05795942
0.35108790
0.09136035
-0.45076466
-0.13724872
-0.11068580
-0.11254083
0.19025330
0.15653548
0.24379899
0.26511899
-0.35813934
0.24200501
0.11966859
0.36183858
0.33858910
-0.29947415
0.36294088
0.51949275
-0.35677633
0.06968183
-0.04785321
0.43500665
0.11584156
0.19019884
-0.24637964
0.25303689
-0.22789726
-0.45541519
-0.36174691
0.16994512
-0.33294901
0.03572398
0.19412790
0.27984196
0.43183178
-0.21368289
0.31959653
0.23544367
0.02817929
-0.02081960
0.15803738
-0.09157880
-0.23749299
0.10839033
0.08934714
-0.02756416
-0.46792039
-0.17968717
-0.17532277
0.32459751
0.11681370
0.25039446
-0.17119318
0.10831764
0.02928633
-0.04363170
0.06701538
0.19495857
0.16228400
-0.08266751
0.06472356
0.03406146
-0.04736197
-0.04462940
-0.02752633
0.32605574
-0.09689134
0.07915636
0.15515335
-0.32416999
0.16185954
-0.06652294
-0.02156455
-0.39478266
-0.25334021
-0.09252986
0.29069713
0.12947203
-0.16213977
0.29631799
0.19732375
-0.25592375
0.20818819
-0.35392442
-0.12006932
0.15840167
0.01597997
0.16250737
-0.11128959
