-0.12404539
-0.03512150
0.19869396
-0.27568778
-0.07807213
0.13211636
0.16840111
-0.02047776
-0.19788623
0.07037155
-0.06550340
-0.12044920
-0.12894744
-0.01598621
-0.11414417
-0.12479297
-0.15930729
0.14940628
0.09076427
0.10359526
0.05357081
0.11402008
-0.06792013
-0.14630874
0.13237804
0.07749770
0.20252053
0.13495509
0.05194825
-0.00013934
0.07957959
-0.11216768
0.03919147
0.10613149
0.15766913
0.23337315
-0.10410731
-0.00349057
-0.09776884
0.12679793
0.11943517
0.05984822
-0.00446318
0.20288898
0.19409604
0.05896968
0.00492122
0.05013382
0.13094057
0.24043030
-0.04266342
-0.03619133
-0.16477394
-0.10605334
-0.10097847
0.18594740
-0.14618374
-0.21180278
0.28815603
-0.08956513
0.10123345
-0.13124898
-0.06485967
-0.01956706
0.11385357
-0.01523358
-0.04895730
0.10323936
0.01309379
-0.01392044
-0.00035509
-0.04117377
0.05425478
-0.02600326
-0.08308328
0.01314352
0.03986481
-0.05199479
0.00610949
-0.04994312
0.01263590
0.04209685
0.06478197
0.07002500
-0.04508035
-0.09109311
-0.01252779
-0.03141332
-0.01590474
-0.03197571
0.03790282
-0.02505878
0.00914210
0.03187053
0.01708793
0.07273129
0.05546270
-0.08482130
-0.06187114
0.10135558
-0.02931621
0.04259435
-0.11190835
0.03452701
0.02062979
-0.02193829
-0.12828839
0.03380050
-0.00557878
0.03913528
-0.02144725
0.03965129
-0.05532263
-0.01032593
-0.03329406
-0.01778276
-0.02597416
-0.01731254
0.01925945
0.06329158
0.02286274
0.00142178
-0.09695942
-0.01361182
0.02324804
-0.03309027
0.04534473
-0.00244941
