-0.00513020
0.00832880
0.00377641
0.00928865
-0.00418182
-0.00803577
0.00357612
0.00527914
-0.00333677
0.00376323
-0.01504722
-0.00020337
0.00054255
0.01005882
-0.00374683
0.00307745
-0.00561445
-0.00585117
0.00314755
-0.00369248
-0.00368243
-0.00948564
-0.00884614
0.00938139
-0.00083268
-0.00000877
0.00731851
-0.00126236
-0.00735590
-0.00070218
0.01213337
0.00522473
0.00071147
-0.00110449
-0.01016296
0.00168988
-0.00645890
0.00450355
-0.00083532
-0.01369269
-0.00067875
-0.00149882
-0.00568946
-0.00049859
-0.00519491
-0.00523693
0.00024274
-0.00133378
0.00678105
0.00416681
0.00626958
0.01114848
-0.00964565
0.01259321
-0.00090818
-0.00647211
-0.00045739
0.00742034
0.00629561
-0.00312201
0.00391395
0.01270580
-0.00665555
0.00230606
-0.00658509
0.00361036
-0.00895839
-0.00202348
-0.00115847
0.00737655
-0.00196206
0.00834383
-0.00376113
0.00782701
-0.00314390
0.00003250
0.00779442
0.00737230
0.00037257
0.00130249
-0.00502483
0.01276676
0.00064775
0.00303742
0.00241070
0.00066254
-0.00168454
-0.00933267
-0.00375016
0.00146870
0.00478913
-0.00040374
-0.00236798
-0.00253369
0.01676926
0.00613755
-0.00585436
-0.00304953
0.01026249
0.00123582
0.00059900
0.00216064
-0.00469242
0.00128415
0.00836746
-0.00311375
-0.00424715
-0.00537601
0.00847474
-0.00036133
-0.00806518
-0.00242181
0.00205534
-0.00409894
-0.00277325
-0.00177949
-0.00303042
-0.01241231
0.00732578
-0.00901676
0.00026175
0.00329746
-0.00335411
-0.00711226
-0.00437039
0.00163533
-0.00481548
0.00573807
0.00134861
0.00192422
0.00285535
-0.00134350
0.00414471
0.00856643
-0.00332852
-0.00563731
0.00376509
0.00087291
0.00965232
0.00243967
-0.00351993
-0.00424373
-0.00574995
0.00331180
-0.00048787
0.00553665
0.00015445
-0.00423600
0.00823842
0.00670276
-0.00448029
0.00397766
0.00077531
-0.00423771
0.00446564
-0.00069703
0.00591602
0.00253901
-0.00520165
-0.00094360
-0.00402942
0.00136829
-0.00623749
0.00390494
-0.00247167
-0.00392502
0.00660702
-0.00158683
0.00258596
0.00259590
-0.00257480
0.00470337
0.00303771
-0.00990556
-0.00647916
0.00283312
0.00679679
-0.00084656
-0.00277912
-0.00484397
0.00503847
-0.00130597
-0.00030454
0.00199289
-0.00578563
-0.00177567
-0.00296309
0.01109311
0.00409358
0.00261349
-0.00301149
-0.00147015
0.00397721
-0.00916977
0.00102896
-0.00451453
0.00186366
0.01307588
-0.00306374
0.00091629
-0.00103194
0.00745265
0.00055684
0.01411431
-0.00314854
0.00005486
0.00771890
0.00580662
0.00116632
-0.01194090
0.00521018
-0.02105710
0.01082669
0.00313056
0.00106395
0.00222508
-0.00526222
0.01363352
0.00253904
-0.00234426
-0.00375040
0.00311439
-0.00254820
-0.00326390
0.00063506
-0.00529126
-0.00623819
0.01253917
-0.00632451
-0.00790977
-0.00669603
0.01981925
0.00967581
-0.00409758
0.00330311
0.00158066
-0.00046316
-0.02412412
0.00760118
-0.00660871
0.01494240
0.00438719
-0.00250187
-0.00592748
-0.00031618
0.00084589
-0.00301970
-0.00690974
0.00296678
0.00016689
-0.01289117
0.00561637
-0.00951717
0.00230870
0.00032720
-0.01691353
0.00118177
-0.00218976
-0.00633699
0.00777739
0.00806517
0.00451111
-0.01257072
0.00013353
-0.00766912
-0.00202263
0.00698517
0.00888811
0.00131883
-0.00299150
0.00228179
0.00077778
0.00719062
0.00481948
-0.00144657
-0.00542105
-0.00341547
-0.00547257
0.00700054
0.00365008
-0.00147431
0.00430226
0.00007708
0.00612133
-0.00109572
-0.00504105
0.00860257
-0.00194733
0.00413284
-0.00366186
0.00426012
-0.00024364
0.00595660
0.01020041
-0.00399902
0.00054388
0.00232246
0.00374586
0.00559771
-0.00478862
-0.00396214
-0.00549636
-0.00396276
0.00428269
-0.00325655
0.00150545
-0.00108945
0.00746818
-0.00108587
0.00240686
0.00732599
-0.00283434
0.00294416
0.00244872
-0.00385316
0.00145151
-0.00426752
0.00182759
0.00622957
-0.00702434
0.00283843
0.00179491
-0.00499134
0.00546743
0.00158581
-0.00278328
0.00200968
-0.00042470
-0.00061039
0.00714321
0.00338226
-0.00720200
0.00467926
0.01127037
0.00802517
-0.00142475
-0.00606531
-0.00124931
0.00160488
-0.00196536
0.00253754
0.00424906
0.00249432
-0.00322806
0.00517104
0.00040816
-0.00032378
-0.00077038
-0.00190598
-0.01828294
0.00175262
0.00530376
0.00303380
-0.00599469
-0.00489689
0.00352269
0.00025542
-0.00146852
0.00450483
0.00380251
-0.00429442
0.00810164
-0.00274211
-0.00358003
0.00039776
-0.00138696
0.00477479
0.00170431
0.00328888
0.00689282
0.00364140
-0.00348469
-0.00345380
-0.00453109
0.00281507
0.00370450
-0.00166346
-0.01617845
0.00125172
-0.00418025
-0.00600538
0.00316415
0.00542331
0.00391574
0.00517498
0.00521849
0.00621422
-0.01219642
-0.00484069
0.01343573
0.00076290
0.00102118
-0.01625968
0.01141191
-0.00290170
0.00132993
-0.00797407
0.01554178
0.01320183
0.00779299
0.00260943
-0.00497800
-0.00060236
-0.00549708
0.00120485
-0.00775910
-0.00292204
0.01094841
0.01215553
0.00880860
0.00273580
0.00441001
0.00344102
0.00870513
-0.01637586
-0.00104084
-0.00633085
-0.00000654
-0.00365610
-0.00286371
0.00246212
0.00487796
-0.00955169
-0.00187094
-0.00933596
-0.00055626
0.01209984
-0.00169654
-0.00452948
0.00240090
0.00357051
-0.00024740
0.00094846
0.01797841
0.01125486
-0.01411042
0.00933776
0.00059406
-0.00108155
-0.00191526
-0.00995700
-0.00642307
0.00832875
-0.00527331
-0.00921645
-0.00789796
-0.00512097
-0.00491153
0.00366269
0.00534798
-0.00464045
0.01061053
-0.01398843
0.01398890
0.00507907
0.00474814
-0.01419201
0.00211321
0.00562756
0.00760141
-0.00722357
0.00641611
-0.00018278
-0.00089497
-0.01505286
-0.00063033
-0.01079891
-0.00807442
-0.00016276
-0.00530806
-0.00107704
0.00796395
0.01000028
-0.00996516
0.00358130
-0.00136524
0.00111541
0.00345905
-0.00198607
-0.00017278
-0.00868639
-0.01362406
0.00309846
-0.00887466
0.00858412
0.00354635
0.01093112
-0.00152377
0.00192475
-0.00743271
0.00438758
0.00378193
0.00151115
0.00668695
0.00293914
0.00622081
0.03233331
0.00021137
-0.00251798
-0.00241494
-0.01000902
-0.00954788
0.00162183
0.01052880
0.01499268
-0.00441200
-0.00108961
0.00106447
0.00185482
-0.00772043
-0.00249077
0.00815647
0.00941992
-0.00748131
-0.02026457
-0.00038370
-0.00063512
-0.00351594
0.00457399
0.00379670
-0.00466066
0.00143468
-0.01085123
0.01014428
0.00721114
0.01216125
0.00659026
-0.01102099
0.00396263
0.00187234
-0.00286751
0.00344783
0.00138361
-0.02349311
-0.01448524
-0.00173877
0.00131863
-0.00260200
-0.00937398
0.00863728
-0.01037696
0.00842400
0.00347546
0.00809523
-0.00258620
-0.00794964
0.00966951
-0.02021874
0.00201857
-0.00403842
-0.00166869
0.00610618
0.01878990
-0.00577669
0.00304070
-0.02476470
-0.00440197
-0.01558845
0.00460839
0.01290452
0.01670006
-0.00034979
0.00289487
0.00630468
0.00343383
-0.01074797
0.00544021
-0.01042862
-0.00299989
-0.00391426
0.00216258
-0.01253652
-0.00483629
-0.00064308
0.01259846
0.00358415
0.00346778
-0.00988891
-0.00360535
-0.00086473
-0.00669630
0.00478459
-0.00116692
0.01258730
-0.00434023
-0.00547092
-0.00682505
-0.00786950
-0.00125985
-0.00116427
0.00525484
0.00625895
0.00276797
-0.00167857
0.00185544
-0.01135949
0.00130393
-0.00048453
-0.00384489
-0.00196072
0.00422939
-0.00159739
-0.00164437
0.00358373
0.00243258
0.00347369
0.00026290
0.00770000
-0.00348285
0.00813882
-0.00972626
-0.00478919
-0.00040172
0.00758250
-0.00134460
0.00754637
-0.00140752
-0.00748167
0.00289945
-0.00781009
-0.00059170
0.00220664
0.00497289
0.00746479
-0.00243156
0.00277515
-0.01041147
0.00297221
0.00124972
0.00221379
0.00645427
0.00263223
0.00506405
-0.00441020
-0.00823344
-0.00090673
0.00021743
0.00756993
0.00237953
-0.00846218
0.00952794
-0.00217089
-0.00179245
-0.00775829
-0.00158093
-0.00578005
-0.00848932
-0.00077946
-0.00237954
0.00077800
-0.00173153
-0.00148681
0.00405049
0.00140261
0.00401238
-0.01454463
0.00708293
-0.00605653
-0.00232675
0.00742062
0.00281540
-0.00227718
-0.00896520
0.00079110
-0.00620446
-0.00163683
-0.00446101
0.00765545
-0.00444577
-0.00493494
0.00925474
-0.00314618
0.00590651
-0.00313768
0.00254144
0.00216574
0.00216108
-0.00785097
0.01262697
0.00364792
0.00057595
-0.00452454
0.00481327
-0.00097969
0.00726431
0.00267391
0.00643619
0.00653542
0.00374196
0.00447577
-0.00154902
0.00454582
0.00224942
0.00359377
-0.01013704
-0.00533397
0.01049080
0.00328424
-0.01133033
0.00645760
-0.00701911
0.00538502
-0.00431494
0.00537585
-0.00350542
0.00673940
0.00032263
-0.00848651
0.00646151
0.00053898
0.00593529
0.00125751
-0.00311381
0.00069690
0.00938294
0.00787402
0.00143598
0.00565498
0.00989966
-0.00536340
0.00686902
0.00792674
0.00183426
0.00445250
0.00854352
-0.01050935
-0.00874807
-0.00853764
0.00493716
0.00044196
-0.00069548
-0.00445980
0.00472914
0.00881314
-0.00312876
0.00095505
-0.00616351
0.00041042
0.00504463
0.00284903
-0.01171533
0.00057349
0.00436644
-0.00977935
-0.00252882
-0.00077175
-0.00417533
0.00138814
0.00202214
-0.01164863
0.00286492
0.00830719
-0.00255902
-0.00403597
-0.01366949
0.00355022
0.00106691
-0.00060694
-0.01452554
-0.00830331
-0.00344180
-0.01172491
-0.01269632
0.01183022
-0.00237992
0.00463892
-0.00644707
0.00038907
