-0.14508031
0.40926442
-0.32817811
-0.02869792
-0.26104516
-0.00888654
0.28272235
0.29034925
-0.08673460
0.39802375
-0.46360978
0.24600096
-0.00240153
0.16363958
-0.16594434
0.11447825
-0.16526678
-0.19589582
-0.47394207
0.01341189
-0.32245633
-0.20454714
-0.29871455
-0.75478989
-0.25058073
-0.48019066
0.32119957
0.47049776
-0.42813122
-0.23381746
0.15975225
0.41236472
0.04774171
-0.16802125
0.31376925
0.03146784
0.35128415
0.21830255
0.40054914
-0.21037042
0.09862787
0.05136878
0.10906704
0.12203525
-0.19320099
0.03056922
0.39869633
0.37900329
-0.04449618
-0.07250635
0.27730122
-0.06362573
-0.12509754
0.25065199
-0.14115840
0.00383642
-0.34918255
0.06146156
-0.04028949
0.27615291
-0.43128270
0.38403609
0.35214284
0.08898671
-0.20993873
-0.30099306
0.44208923
0.01708219
0.26703408
-0.21336137
-0.35080582
-0.24673228
0.12711382
-0.05172911
-0.07797483
0.29085717
-0.03944896
-0.04034203
-0.09428900
-0.19269148
-0.28471097
-0.15819764
-0.12040258
0.27786496
-0.46609429
0.08675414
-0.04451220
0.26014659
0.30046108
-0.21109928
-0.03269384
-0.32131937
0.03981953
0.12421928
-0.04575954
-0.13882221
0.01072449
0.60416347
0.05636138
0.33892766
-0.10726546
-0.29846877
0.13799375
0.14338969
0.10604320
0.03031660
-0.02150911
-0.28211942
0.36434376
-0.00073510
0.18325007
0.57849157
-0.13258728
-0.05438925
-0.34780541
-0.13034980
0.14071633
-0.03998890
-0.24628574
-0.17323597
-0.27019563
-0.11127520
-0.24905358
0.05695837
0.06316059
-0.01169320
0.30436569
0.00359881
0.27290270
-0.10964845
-0.05847580
-0.06291576
0.19370919
-0.09659807
0.05340978
-0.06999195
0.16706619
0.09959643
0.06845828
-0.09027989
-0.00564906
0.10587309
0.08427208
-0.06027035
-0.09983874
0.09595603
-0.02635435
0.18333274
0.10885730
-0.03476811
0.01014594
0.04310926
0.07363248
-0.18869038
0.00490090
0.09782348
-0.15462855
0.09655070
-0.17016062
-0.00424082
0.03758948
0.10548488
-0.24917197
-0.06797162
0.04951590
0.05842310
-0.44413787
-0.18490334
-0.01150900
-0.08661627
-0.12171586
0.18566944
0.00098076
-0.09404969
-0.01486413
0.08689004
0.04725122
0.06505709
-0.07748208
-0.27404365
0.08382448
-0.00281877
0.03581342
0.31096405
-0.04105952
0.02564829
-0.10568224
-0.35176817
0.09171035
0.13746195
-0.00029364
-0.00657564
0.07876357
-0.02501714
-0.11843222
-0.08380407
0.00949327
0.04169270
-0.18015572
0.25126773
0.01156861
0.13665713
0.23710430
0.28105116
0.06274711
0.00634722
0.05212526
0.03133608
0.09007467
0.29147640
-0.00174097
0.04204465
0.06533515
-0.08422042
0.27034771
-0.00531564
-0.09580941
-0.21901600
-0.14359631
0.41428220
0.05823325
-0.06635225
0.16432396
0.06943918
-0.12712407
-0.12198858
-0.17467152
0.05644735
-0.07613654
-0.07648542
-0.15908581
-0.08518119
0.04954715
0.11583785
-0.17745654
-0.09243908
0.01120599
0.06661548
0.28272337
0.01888230
0.45987400
0.14605242
-0.04157372
-0.11824512
-0.21566118
-0.14596255
0.08544598
-0.07813135
0.07068266
0.24640107
0.01289286
0.03603783
0.16615282
0.10816313
0.07082418
-0.03092382
-0.11722461
0.14870226
-0.29171333
-0.18393117
-0.09488047
-0.07759569
0.27846113
-0.01773721
-0.13459633
0.27649611
0.15726644
0.32213771
0.14790942
0.09521055
-0.05674106
-0.32462740
-0.42386681
0.73568791
-0.02654875
-0.05438821
0.11667068
0.40010640
0.30354843
-0.08661959
0.28283107
0.03583902
0.17588004
-0.13057494
-0.28892604
-0.11984872
-0.25533336
0.24863400
0.26188132
-0.04844780
-0.12722959
0.22823080
0.47733915
0.41028839
0.12396596
0.08911321
0.13167350
-0.16433851
0.17637798
-0.11045225
0.11807862
-0.11645530
-0.01807036
0.09907220
0.23004542
0.33255112
0.06003000
0.09379110
0.16548982
-0.14476220
0.13610750
0.23269334
0.08331377
-0.08797999
0.02653326
-0.16021100
0.08562854
-0.20695235
-0.19889228
-0.03065388
-0.02283190
0.04455240
-0.02551884
-0.12238959
0.00114760
0.15597771
0.09524774
-0.04476146
-0.08038050
-0.14540564
0.26812160
0.16801694
0.07816193
0.03174617
0.00947221
0.07241131
0.21134850
0.17691252
0.07029635
-0.02922196
-0.06753506
0.07995789
0.10588078
0.10047918
0.07061788
0.10143769
-0.00825469
0.11782049
-0.23025253
-0.39648104
0.07478951
-0.18931763
-0.02960873
0.30225611
-0.09818261
0.06490248
-0.31430134
0.04695695
-0.20649467
0.11137379
-0.12659125
-0.03550428
-0.08886956
0.08371859
-0.05173938
-0.05217365
-0.06585471
-0.05084320
0.02927390
-0.05397378
0.05345077
0.01314327
-0.06892716
-0.03594135
0.14883043
-0.06137227
-0.03319630
-0.06363991
0.01992149
-0.05127590
-0.00072964
-0.11961229
0.08378696
-0.12136638
-0.20852192
0.29757696
-0.38699162
0.07734458
-0.00513491
-0.08696780
-0.00800352
0.30791858
0.19037317
0.00911570
-0.18449335
-0.01090972
0.37047434
-0.21832258
-0.26093197
0.38370278
0.20055340
-0.29053962
-0.20294572
-0.27845705
0.04579994
-0.13267526
0.00224340
-0.00085056
0.58993852
0.27034509
-0.17660467
0.05202292
-0.01484851
0.15524498
0.07125632
0.15614773
0.37198928
-0.16906336
-0.24232061
-0.19753671
0.22401577
-0.26044330
-0.70553780
0.10146237
0.04205455
-0.06636908
-0.16213019
-0.09537578
-0.45735911
0.16890688
0.08391733
-0.70125526
0.16386490
0.17144629
0.05291700
-0.10408915
-0.27163938
-0.08637750
0.03980771
0.14596692
0.28720215
-0.11189364
0.33640194
-0.03476015
0.12804106
0.02920491
-0.49958873
-0.26028666
-0.02968447
0.25219181
-0.16198082
0.04005890
-0.07178684
-0.19445355
-0.32335806
0.28837970
0.12360999
0.50745082
0.50571442
0.04539444
0.42681360
-0.24059644
-0.04439480
0.28781018
-0.31175247
-0.01143393
0.30150965
-0.01385282
-0.02281622
0.17311390
0.15809377
0.04024386
-0.23952241
0.30609024
-0.26308751
0.09707458
-0.43568993
-0.22369359
0.42202818
0.16531613
-0.28448731
-0.31810826
-0.13242550
0.28925622
-0.16043124
-0.15083018
-0.03874538
-0.08579797
-0.12026928
0.23618481
0.07375592
-0.06022421
-0.07063007
-0.29250535
-0.15558319
-0.14424317
-0.29698405
0.18193661
0.16356295
0.14791507
-0.05613917
-0.15214474
0.13954391
0.20344965
-0.35457307
0.31901574
0.29132125
-0.02571162
-0.34281912
0.28795487
-0.10618961
-0.22828984
-0.01955495
-0.01233365
-0.03745339
0.02073808
0.01749427
0.01383542
-0.01422479
-0.02814250
-0.01960162
-0.03078377
0.07125074
0.01599115
0.03396008
-0.03235935
0.02734978
-0.00000878
-0.05547944
0.06187478
0.02537952
0.05290761
-0.11359324
0.00968521
0.06452409
-0.00726016
-0.06256346
-0.06126516
0.02449419
-0.02949515
-0.17312551
0.07492074
0.04586212
0.06168834
-0.00938344
0.08414385
0.00459505
-0.10053191
-0.05614863
0.11004121
0.01437353
-0.00468022
0.05254101
-0.03616957
-0.00854494
-0.00559210
-0.03041730
0.01249532
0.04307485
0.02186993
0.05525693
0.02208609
0.10848983
0.00206642
0.00267699
-0.01763861
0.03008957
0.02761175
0.01762020
0.01114816
0.00880085
0.05029513
-0.01910972
0.07253368
0.05238956
0.06674015
-0.12661712
-0.19853134
0.08539877
-0.17892167
0.39913350
-0.00548322
0.76531416
-0.16633996
0.09429678
-0.19521002
-0.10406038
-0.17093863
0.06570157
-0.29591450
0.35312340
0.14194141
0.05064773
0.12026722
0.03792350
-0.11917380
-0.47964957
0.04404732
-0.02637356
0.22072504
-0.05397709
-0.17584324
0.48521033
0.21893744
0.14986458
0.00414640
0.06572225
0.14615943
-0.04984424
-0.00689738
-0.28312129
-0.57417327
-0.09279937
-0.14553939
-0.38905180
0.23641975
-0.05881307
-0.11236511
0.13306822
-0.03801121
-0.14164124
-0.04439148
-0.13204986
-0.00999105
0.02725522
-0.02772793
0.00466209
-0.38725263
0.17741914
0.21446370
0.31606179
0.12445681
-0.00878671
0.06614294
-0.55723786
0.15214609
0.51904076
0.12370642
-0.03421535
-0.36434469
-0.07364614
-0.13973595
0.14744496
-0.05518089
-0.16335864
-0.00838588
0.12114297
0.20644134
0.33840972
-0.08970116
-0.06381191
0.17980754
0.15882313
0.01850245
0.03152874
-0.00414959
-0.09222517
0.03188428
0.09318516
-0.15027118
-0.19593722
-0.02930490
-0.43637106
-0.19229019
0.08272819
0.26421070
-0.22657244
-0.12673821
-0.01084409
-0.01129467
0.00219474
0.05356583
0.16224353
0.14060801
0.09143258
-0.02772464
-0.13336390
-0.16402191
0.00811438
0.16365241
0.03380461
0.11567324
0.08939843
-0.00781291
-0.07867420
-0.12068581
0.01209739
0.01997085
0.23145378
0.05179188
0.41264507
-0.07781082
0.19248775
0.21462756
-0.35297003
0.20543888
0.05184790
0.21828245
0.02980785
-0.42433640
-0.00810914
-0.12185264
-0.04801801
0.18182017
-0.01802085
0.00815701
0.03584504
-0.09978118
0.09804478
0.01051530
0.05858475
0.12970014
-0.03911316
0.02038835
0.09913342
0.00413549
-0.07056045
-0.00102996
-0.11426072
-0.00223034
0.07061742
0.10825195
-0.03292847
0.00301302
0.14302091
0.02547409
0.02075243
-0.06988835
0.00263459
-0.01966676
0.06825399
0.06982365
-0.07523300
-0.03285789
-0.00764766
-0.09204108
0.11518253
0.01125582
0.14313173
-0.05399872
0.00729998
0.06210492
0.03721310
0.08104070
-0.13787255
0.05578031
0.00950532
-0.08157482
-0.02175655
-0.06368935
0.02378634
0.02516353
-0.10112403
0.03166793
-0.00381080
0.03530559
-0.04515827
0.08919326
-0.07608788
-0.04053570
-0.03552425
-0.12219761
0.07162417
0.09408315
0.04692172
-0.00581926
-0.05878488
-0.01703043
