-0.04229928
-0.02636711
0.00604470
0.00222829
0.04979481
-0.02605716
-0.04113999
0.00738345
0.00373932
0.00415716
-0.00724080
0.01729269
-0.00999460
-0.02424814
-0.01081038
-0.00546821
0.01571502
-0.03348419
-0.04031320
-0.02180817
-0.00223211
-0.04211076
-0.08288385
0.02281976
-0.06011432
-0.01211911
-0.02190468
-0.01760907
-0.00469867
-0.00782056
-0.00589073
-0.01167726
0.02482569
-0.03227141
0.02849066
-0.03457766
0.01911524
-0.02289806
0.03861443
-0.01242957
0.05830446
-0.03315970
0.03454505
0.01708184
-0.00187069
-0.02304453
-0.02162104
0.01651506
-0.03518986
0.05533972
-0.02010895
0.04530288
0.02208819
-0.04622130
0.04451585
-0.00176778
-0.01637647
0.01165230
0.03122723
0.04857311
0.00375400
-0.01977550
-0.02044195
0.02968163
0.03016999
-0.06325239
-0.00033656
-0.00107583
-0.02473313
-0.03621370
0.02048970
0.06101939
0.00920919
-0.01022965
0.02002879
0.01473196
-0.01437678
0.00736912
0.00793865
0.00708077
-0.00672725
-0.01372606
0.01793909
0.03518105
-0.00133059
-0.00279511
-0.01022210
0.04511203
0.01976903
0.02633374
0.01339347
0.00120376
-0.01015223
-0.01100802
-0.01105048
0.02903652
0.00543453
0.00913343
-0.06043798
0.00532357
-0.04154423
0.03378419
-0.02012386
0.02337876
-0.00488356
0.02777147
0.00851194
-0.02633388
0.01945122
-0.01925929
-0.01454721
-0.01588602
-0.02001851
-0.01451288
0.02034487
-0.00107711
-0.00738138
-0.00761105
-0.01485753
0.01319175
0.00319260
0.00970249
0.02077179
0.02062376
-0.02120364
0.02025949
0.02322056
-0.01337997
0.00529612
-0.04572742
-0.03233467
0.01275157
-0.02165463
0.00848783
-0.01046128
-0.00813226
-0.00222542
0.02329624
-0.03124494
-0.01525484
-0.00139377
-0.00215197
0.02584179
0.00708771
-0.02543659
0.01947834
0.02185445
0.02154370
0.01580749
-0.02766299
-0.00787097
-0.01002755
-0.01919781
-0.01436206
0.01017755
0.02276781
0.01582271
0.00944876
0.02301838
0.02462872
0.00127248
-0.00883800
-0.00331846
0.02070086
0.01601213
0.04078407
-0.00928759
0.01845681
0.00610466
-0.02632901
-0.03090712
-0.03381965
0.02772114
0.00865452
0.03492114
0.02461488
-0.03504111
-0.03665207
-0.00809198
-0.00400755
0.01102477
0.01471915
-0.01017830
-0.00674623
0.00614750
0.01068962
0.03394794
0.00406914
0.01548369
0.01485177
-0.04842564
-0.01234028
-0.03997333
-0.05856306
-0.00056882
-0.02826001
-0.04189892
0.04390045
-0.02210077
-0.05525359
0.02740250
-0.01281722
-0.06138818
0.03187209
0.01992383
0.11600947
-0.04972593
0.01630501
0.00835642
-0.08982126
0.03252341
0.00055320
0.00699188
-0.04219910
0.05161220
-0.06252493
0.08158220
0.07649463
-0.02604706
0.01179393
-0.10404301
-0.02754287
0.01120255
0.01668793
0.00655497
-0.07155898
-0.03791790
0.03855124
-0.00135795
0.10540003
0.05030788
0.05028667
-0.17629385
-0.00813099
-0.08874257
0.00255108
0.04977869
-0.00571653
-0.09585541
0.05761394
0.00503060
0.11980502
-0.11058868
-0.03125520
-0.03641087
0.05193095
0.07246303
0.01056958
-0.06817739
-0.00612262
-0.05726929
-0.00778915
0.00981537
-0.12197589
0.01531445
-0.03761122
-0.00313644
-0.03520067
-0.00351632
-0.01374891
-0.01374897
0.00815677
0.00545256
0.01125428
0.01921930
-0.01947303
0.00056050
-0.02328836
-0.02018899
0.00460203
-0.03509437
0.00167410
0.01820277
0.01831919
0.03853242
0.04751387
-0.03606519
0.03400108
0.02371393
0.01322334
-0.03588935
-0.01635270
0.01499340
0.04176431
-0.00920048
-0.00320079
-0.03694643
0.00318885
0.02077251
0.02445167
-0.01367411
0.01961547
-0.03480885
0.00956319
-0.01356111
0.03997714
0.02472796
0.02957960
-0.02157098
0.00626342
-0.01596890
-0.01057691
0.02213076
0.02754161
-0.01213653
-0.02929538
0.01827078
-0.00469439
0.01022954
-0.00294447
-0.03819894
-0.01846612
-0.00241003
0.00543437
0.00342325
-0.00817610
-0.02217202
-0.03526858
-0.01142802
0.05623172
0.04959020
0.00506834
0.00415916
-0.00828706
0.00330983
0.00784493
-0.01644947
0.01742051
0.02038450
0.02404735
-0.01741343
0.01592144
0.01862360
0.01964802
-0.01376851
0.00998613
-0.00109444
-0.01676207
-0.01141416
-0.01538593
-0.01405015
0.00849299
0.00168460
0.00824539
-0.00028057
0.01107330
-0.00273221
-0.02165777
-0.00097672
0.02067577
-0.00904757
-0.01227176
-0.01693859
0.00001832
0.05275247
0.01628058
0.00225570
-0.00469281
-0.02843582
0.02142677
-0.01850726
-0.02501407
0.00496510
-0.00233048
-0.04312516
-0.00890031
-0.01252562
-0.00248632
-0.02380188
0.01211550
0.00384434
0.00263684
0.03070928
0.00852942
0.01005656
0.00022089
-0.01106275
-0.00454777
0.03733137
-0.02596828
0.02444085
-0.01687630
0.00645399
0.00476856
-0.01139813
-0.00517469
-0.08159091
0.02900041
0.01285119
-0.01377122
-0.06879428
0.03019308
-0.00378045
0.01955049
-0.02565805
-0.00934460
-0.02875001
-0.03080334
0.00445498
0.03730865
0.02296096
0.01881594
0.05622407
0.01374612
0.04475721
0.00025148
-0.00902583
-0.01569893
0.01690422
0.06565976
-0.00088467
0.00661481
-0.00142833
-0.02858450
0.03704565
0.03559791
0.05684868
0.00220769
0.03438734
-0.04346653
-0.04472980
0.04610487
0.06614250
0.06113511
-0.00604943
-0.03522049
0.08763733
0.02047877
0.01742190
0.00458428
-0.02556253
-0.00332764
-0.01229819
0.05601519
-0.02185254
0.04457248
-0.07246865
-0.00822918
0.03151366
-0.01708739
-0.01634898
-0.04807226
-0.01200616
0.01447290
0.05163813
-0.07787690
-0.23962939
-0.03192049
-0.01429369
0.04162450
-0.02289642
-0.02613264
0.00725118
0.02420223
-0.03624523
0.02254826
0.02896812
-0.04598574
0.03461681
-0.00988233
-0.01904297
0.02295357
0.07619167
0.01621632
-0.01872593
-0.01433307
0.01026190
-0.02060112
0.06084159
-0.00824460
-0.07137366
-0.01111152
0.01984958
0.03821001
-0.04300738
0.01847609
-0.00774577
-0.00955912
0.01610314
0.04869916
-0.07661247
-0.01784849
0.02130904
0.02733473
-0.05193989
-0.00281806
-0.00420787
0.04754448
0.01303328
-0.01647832
0.01093738
-0.00571322
0.03802546
-0.00453089
0.01953764
0.04064034
0.04341354
0.00289839
0.02304175
-0.02106620
0.01965541
0.03395162
-0.00540064
0.01198220
-0.01234698
0.04983423
0.03451445
-0.01294895
-0.04829612
-0.00777588
0.01666638
-0.00328150
-0.01673509
0.01832676
-0.00060400
0.03436630
-0.02105818
0.05374693
0.09480464
-0.00305499
0.00605450
-0.00247229
0.01917399
-0.08186012
-0.00656099
0.03551295
-0.00109770
0.02621666
0.03002916
0.00672905
-0.01652516
-0.08800009
-0.15387945
0.02049953
-0.01273488
0.01918001
0.00786653
-0.00673356
0.01031005
0.02990064
0.02362636
-0.04560070
-0.01413177
0.08725619
0.01839710
0.00704183
-0.00188996
0.11785927
-0.00909560
-0.02594131
0.03871018
-0.00728454
-0.00207585
-0.02825065
-0.00610925
0.01970666
0.00255076
0.02333583
-0.00520966
0.02273836
0.01818337
0.02467273
-0.00979111
0.02101380
-0.01031069
0.03516401
-0.00622410
-0.14076714
0.02179033
0.00424088
0.01480011
0.00229602
0.02055812
0.01043137
-0.01226964
0.04360928
0.02070856
-0.06960887
-0.08113216
-0.08468217
-0.02943433
-0.14355212
-0.01512585
0.02951754
-0.11383974
-0.01668268
-0.09853942
-0.02214930
0.05146062
0.05852311
-0.15308703
-0.01491922
0.00355921
-0.05167388
0.04250687
0.09724449
0.00974730
0.02873791
-0.00892303
-0.09882998
0.00777101
0.03560701
0.08060163
0.07159495
0.02980500
-0.04446013
0.02583322
0.02635113
0.00414352
0.25591874
0.03192193
-0.05351786
0.03401428
-0.21606082
-0.06132982
-0.05066266
-0.01127424
-0.00423310
-0.01085959
0.04337257
-0.08365876
-0.05039850
-0.02069102
-0.01318001
-0.02698874
0.06222656
0.05128205
0.07798773
-0.01686394
-0.06792299
-0.07891927
-0.01774993
0.02782962
0.03927423
0.02286662
0.02103021
-0.02231628
-0.00462993
-0.01169436
-0.03289062
-0.02849306
0.00840147
0.02303582
-0.00303855
-0.04837788
0.00995571
0.00096439
0.05333081
-0.00372539
-0.02231159
0.00405126
-0.02587868
-0.00910140
-0.02018984
-0.01277521
0.01931475
0.01068681
0.01501387
0.03651198
-0.01171303
-0.05212606
-0.00086976
-0.01099540
-0.05736583
0.02670513
-0.00453719
0.01500056
0.03832087
-0.03546946
-0.01653506
-0.06000161
0.04178436
-0.00638922
0.03753236
0.01632965
-0.03414702
-0.01136481
0.02448539
0.04951258
-0.01510081
0.03422168
-0.01352515
0.01075171
-0.01089616
-0.04476186
-0.03611264
0.00792286
0.05587265
-0.00203382
0.02559737
-0.05138477
0.00898428
0.06262499
-0.00121406
-0.02140652
0.00277757
-0.00349618
-0.02088613
-0.02242326
0.00971798
0.00630144
-0.01890734
-0.01042730
0.01154804
-0.00088326
0.00139243
-0.00503587
0.02130509
-0.02198870
0.02154308
-0.00234296
-0.00097738
0.01706084
-0.00509489
-0.01414104
-0.00302021
0.01634854
0.01500176
-0.03199695
0.01331139
0.12690417
-0.04459074
-0.00344042
0.06299149
0.00452152
0.01556039
0.03176829
-0.01510261
-0.02008768
0.01669347
-0.01372085
-0.02817734
-0.00904862
0.01822124
0.03982729
-0.05555014
0.01797186
-0.01078515
-0.01779860
-0.00291018
-0.00769852
-0.02389920
0.01064956
-0.00191037
-0.01591972
0.02243383
0.01614535
0.01924189
-0.00470978
0.01761309
0.00969371
-0.08304626
0.01306736
-0.00236008
0.02866315
0.01414967
-0.00564668
0.00994772
-0.01050247
0.00545450
0.01127236
-0.01592878
-0.02704352
-0.01070456
0.01988098
-0.01016657
-0.01610455
-0.01958857
