-0.04136161
-0.02113917
-0.07581077
-0.00809791
-0.09790538
-0.06423953
-0.11136840
-0.08888511
0.00428725
0.01023952
-0.06585385
-0.08049229
0.02989729
-0.06220648
-0.04844576
-0.10728813
-0.10719266
-0.06613314
0.01259520
-0.04851630
-0.11541846
-0.02871289
-0.08322104
-0.16142237
-0.05550552
-0.08878229
-0.06146197
-0.00561090
0.00266719
-0.05564691
-0.07577195
-0.04646688
-0.11252623
0.00043458
-0.01289094
-0.01898525
0.01827254
-0.01036870
-0.06923072
0.04460388
-0.00378134
0.05248765
-0.01133829
-0.03919321
-0.03927920
-0.02490220
-0.07404293
-0.04335472
-0.02883713
-0.02397696
0.07803994
-0.05554968
-0.11674529
-0.00067734
-0.08543519
-0.08847471
-0.05622235
0.02174671
0.01248407
0.02795422
0.00966412
-0.09632123
-0.04167892
-0.03930677
-0.02650443
-0.08532024
-0.04760790
-0.06010896
0.02223152
0.01191933
0.04306085
-0.03812853
0.01174137
-0.04493938
-0.06328684
-0.02388811
-0.03054391
-0.03117882
-0.06852063
-0.10756944
-0.05812103
-0.07939196
-0.05025199
-0.08045478
-0.05274159
-0.05270129
-0.05735440
-0.02906927
0.02415705
-0.12186826
0.00582339
0.00311400
-0.12781119
-0.03301984
-0.07074638
0.02857959
-0.09620050
0.01482414
-0.07182255
-0.00574977
0.00265777
-0.04051635
-0.09266285
-0.01917382
-0.02918934
-0.04195634
-0.01128912
0.01068617
0.00124040
-0.03688725
-0.00177674
-0.00769286
-0.01945395
0.01524175
-0.02432945
-0.04396321
0.00412539
0.00405957
-0.02091025
-0.04145960
-0.01051375
-0.02519893
-0.03983942
-0.37926778
-0.05364490
0.03256162
-0.04492366
-0.07314647
-0.01218704
-0.03365174
-0.02125100
-0.08906848
-0.00089228
0.00502779
0.00757137
-0.01963511
-0.04838614
0.00374479
-0.00383682
0.00111272
0.01957223
-0.03672319
-0.04097723
-0.11454862
-0.08538973
-0.01622206
-0.00998580
0.05847958
-0.01512451
-0.12109001
0.01611112
-0.10310871
0.04841124
-0.05314663
-0.01379751
-0.07172969
-0.04016059
-0.03394546
-0.03802500
-0.00789866
-0.06010774
0.00995538
0.00577989
-0.06766666
-0.10782982
-0.02726718
-0.13512753
-0.05599562
0.04843222
-0.04290358
-0.00157413
0.02002250
-0.05298431
-0.07221670
-0.04145160
-0.03833602
-0.10602371
-0.00385179
-0.03355556
-0.08433523
-0.19413623
-0.10883995
0.03816329
-0.03439188
-0.07121237
-0.03384735
-0.15422502
-0.05165038
-0.10663556
-0.01564811
-0.00886569
0.04409458
-0.09453496
-0.01799371
-0.08655836
-0.04459958
-0.03623435
-0.01803838
0.00772912
-0.02172817
0.00510109
-0.03804530
-0.04839042
-0.01489194
-0.01281190
-0.11820245
-0.04953792
0.02266509
-0.05912025
-0.05143441
0.00158024
-0.02359011
-0.09863486
-0.09121306
-0.03598802
-0.03771871
0.03526258
0.00787935
-0.10256206
-0.01172786
-0.06539907
-0.08247095
-0.03885691
-0.06567556
-0.01230564
0.43429917
-0.06284557
0.03028977
-0.10564368
-0.02724027
0.01111002
-0.04357871
-0.15262337
0.00580401
-0.01519416
-0.02845066
-0.03204722
-0.03339402
-0.09846505
0.07744358
-0.03982488
-0.06518229
0.06204723
-0.09217424
-0.03645572
-0.00316207
-0.05862843
-0.02282029
0.02584624
0.03562994
0.00098710
-0.11307259
-0.01331316
0.01716244
-0.07575357
-0.00988897
-0.00513226
0.04009557
-0.02685228
-0.07109877
-0.06313539
-0.01788872
-0.02447033
-0.00432147
-0.02512555
0.08187694
-0.04756705
-0.04652059
-0.07167270
-0.02243917
-0.00876805
-0.04708662
0.01426408
-0.04855920
-0.01241128
-0.03377733
-0.05116076
-0.04487329
-0.00489846
0.00930103
-0.05459493
-0.10051491
-0.05233720
-0.00160202
0.07256349
-0.04461448
-0.13594039
-0.05902515
-0.04397871
-0.01738486
-0.03388048
-0.04931210
0.02775244
-0.03788077
-0.09543113
-0.05405209
-0.02105735
-0.08069694
-0.09298104
0.01132342
-0.01993557
-0.06286824
-0.02307507
-0.07095277
-0.13957167
-0.02813686
-0.01660132
0.00931485
-0.41540712
-0.00887916
-0.00815657
0.00537627
-0.08617529
-0.03573544
-0.01679260
-0.08275434
-0.05309865
-0.02781887
-0.03376778
0.00313744
-0.00835855
-0.11261977
-0.06610478
0.08885735
-0.01302545
-0.01003977
-0.05361564
-0.09973375
0.00645101
0.03369083
-0.08859482
-0.07224550
-0.07532209
-0.12594479
-0.02382232
0.00207348
0.01387183
-0.02743998
-0.02058806
-0.00547455
-0.02895713
-0.07378208
-0.05308208
-0.07342903
-0.04410346
0.00257301
0.01118290
0.12540624
-0.00535984
0.06314185
-0.02054809
-0.02229039
-0.14677925
-0.02765290
-0.01840312
-0.00569713
-0.05163831
-0.07198069
-0.00593211
-0.04150098
-0.01762816
0.00684653
-0.07949935
-0.02973635
-0.06951793
-0.02320062
0.00040839
-0.02540594
0.01618734
-0.01623503
0.07286185
-0.01992249
-0.04675077
-0.00274721
0.04865314
-0.02737162
-0.09051416
-0.02696871
0.04232242
-0.04659965
-0.02758809
0.25767764
0.00732180
0.03650106
-0.14213726
0.00197752
0.00260629
-0.08509231
-0.03944999
0.03230892
-0.03108072
-0.03920392
-0.04074515
0.04497598
-0.03511004
-0.02995970
0.03723899
0.02412010
-0.11122772
0.02088818
0.01031796
-0.02986224
-0.07164839
0.00950269
0.01733013
0.05933172
-0.07545001
0.05023957
-0.11349718
-0.00343974
-0.04189643
0.00254405
-0.02284948
0.00777661
-0.03096570
-0.07316767
-0.04532943
0.00669359
-0.05971833
-0.04359165
-0.03695987
0.02203796
-0.06074727
0.01173291
0.02122204
-0.06042806
0.02901188
0.01151604
0.06781390
-0.08948494
0.00172566
0.01799837
0.01338558
-0.06491403
-0.00420150
-0.07068405
-0.03265405
0.01618277
-0.02456500
-0.02168400
-0.05091970
-0.05418132
-0.09053249
0.03462867
-0.01753552
0.02817078
0.07966410
-0.00698624
-0.03984918
-0.00076986
-0.10304771
-0.01798243
-0.10644184
0.03308475
-0.10057332
-0.10999716
0.01837916
-0.07575791
0.06926768
0.09071469
-0.05128084
0.02910248
-0.03750512
-0.07962048
-0.13071774
0.00908393
-0.08396691
0.04911368
-0.04913961
-0.05244534
-0.06267757
-0.06338942
-0.02365033
-0.11224400
-0.01019928
0.01756528
-0.02278816
-0.07434499
0.02672111
0.03448587
-0.01954522
-0.03093384
0.00994055
-0.06930234
-0.00844274
0.02047132
-0.06062948
-0.12792547
0.01334111
-0.04008354
0.00442600
-0.00294413
-0.05205172
-0.03791001
-0.07036705
-0.01795546
0.03057729
-0.05396319
-0.08449987
-0.10928823
-0.02184264
-0.06704893
-0.01715205
0.01154449
-0.03690296
-0.04172577
0.01779993
-0.06065194
0.00842216
-0.00656030
0.02086766
-0.01062303
-0.02978064
0.02075233
-0.04458269
-0.08698942
-0.01383688
-0.01113833
0.05265121
-0.03504567
-0.01396310
-0.06269635
-0.08863376
-0.01348799
-0.00079394
-0.01145865
-0.41579220
-0.00295502
-0.07568839
-0.05732782
-0.01398810
-0.03299851
-0.01664571
-0.06020361
-0.05691232
0.04963640
-0.04606741
0.00148976
-0.07188611
0.13885346
-0.07098716
-0.01202411
-0.04305523
-0.01713154
0.04413670
0.08688406
-0.00380445
-0.01364619
-0.12309980
-0.09485471
0.00437146
0.04091501
-0.06691794
-0.02978701
-0.02302294
-0.00373732
-0.02545918
-0.10891593
-0.04604601
0.00727523
0.01719148
0.02660722
-0.11708496
0.01095855
0.01061976
-0.03589719
-0.05332333
-0.05872538
-0.01037809
-0.04770611
0.00186589
-0.06088829
-0.10791830
-0.03367410
0.01879387
-0.06740671
-0.05300089
0.07023645
-0.06179034
0.04398847
0.00864260
-0.08117311
-0.04392601
-0.02986269
-0.00094102
-0.01060643
-0.20544614
0.00844816
-0.01600056
-0.02017113
-0.03764512
-0.02515300
-0.05874956
0.01015865
-0.03951723
-0.03480254
-0.02817426
-0.04985587
-0.05019905
-0.02942700
-0.04112471
-0.01268063
0.02434594
-0.06068259
-0.08480046
-0.09052775
-0.03937772
-0.04634976
0.00271611
-0.01578549
-0.08068684
0.02217086
-0.00472293
-0.05297728
-0.01808851
0.01158037
0.00946989
-0.01203633
0.02170959
0.03564530
-0.12094122
-0.04013526
-0.07430628
-0.00978699
-0.05367879
-0.04740985
-0.11073859
0.03437578
-0.07257584
-0.05774823
-0.10441408
-0.04555366
-0.06485661
-0.14858748
-0.03101830
-0.04761124
-0.06707961
-0.06305362
-0.08648191
-0.05722899
0.04185707
-0.11225615
0.00262626
0.05095611
-0.02268006
0.07520919
-0.03676577
-0.11250137
-0.04242384
-0.10364672
-0.07978556
-0.06187383
-0.10175765
-0.07902518
-0.01593991
-0.02261165
-0.09949809
-0.08602640
-0.03795793
-0.00215947
-0.06315143
0.03018599
-0.08767296
-0.02339095
-0.03736452
-0.05676173
-0.03476132
-0.12714536
-0.10901783
-0.09363216
-0.10693600
-0.01413501
0.02150793
-0.01019256
-0.07100171
0.01563434
-0.09170786
-0.07884029
-0.06221259
-0.00140588
-0.02570769
-0.01943784
-0.05891409
-0.00024784
0.00305683
-0.02872131
-0.04987418
-0.09133145
0.03171680
-0.04120688
0.00469769
-0.01833564
-0.03819396
-0.03461993
-0.01667227
-0.06038869
0.04955246
-0.04268906
0.01701919
-0.07245303
-0.07789017
-0.01299537
0.02875197
-0.01929204
-0.09770882
-0.06342618
-0.16325830
-0.06644772
-0.04327860
-0.10640027
-0.03592263
-0.03964490
-0.10020794
-0.08059482
-0.00779194
-0.05259617
0.05783843
-0.06725038
-0.04011086
-0.01503714
0.25014815
-0.02803351
-0.01305149
-0.03691443
-0.08164907
-0.00698790
0.01780110
-0.00900374
0.03476982
0.02901276
-0.04740565
-0.02453224
-0.02654949
-0.10196779
-0.13016206
-0.01933694
-0.02170168
-0.10322828
-0.00178793
-0.05024923
-0.04015694
-0.05402274
0.02988205
0.03238073
-0.03813179
-0.10330331
-0.06290539
0.02300909
-0.05464935
-0.05787841
-0.02210892
-0.01471260
-0.00865247
-0.07365359
0.01304407
-0.04245583
0.14465664
-0.06934261
-0.02626504
0.03447449
-0.05803668
-0.02627257
-0.07648259
0.04926905
0.02777095
-0.01552992
-0.02275701
-0.02313832
