-0.08755219
-0.01910074
-0.02988298
-0.08150438
0.09897955
0.05976388
0.07046945
0.06348266
-0.05060796
-0.06941689
0.02023613
0.04916829
-0.05721927
0.12249794
-0.01790592
0.14714590
0.17219353
0.02193180
0.00479612
-0.02174315
0.06533691
0.01552380
0.04886595
0.02445594
-0.03737441
0.05588789
0.09739497
0.05042599
-0.10071561
0.03843493
0.08841088
-0.03362786
0.06064487
-0.10743652
-0.07497466
0.02685822
-0.08613323
-0.02655836
-0.07020400
-0.03922276
-0.01549056
-0.11075168
0.01901416
0.10081270
0.06883803
0.01539697
0.01478058
0.02642048
-0.02130339
0.00422907
-0.14659427
0.07663269
0.12530927
0.02255470
0.12799068
0.09705433
0.01419936
-0.02520823
-0.05247961
-0.15332147
0.02943857
0.06667110
0.07724102
-0.11007859
0.04214284
0.08181576
-0.08633354
0.08034504
-0.08271626
-0.06862251
0.01466937
0.05371297
0.00458285
-0.05036853
0.01055995
-0.11560890
-0.05124782
0.12057321
0.07750341
0.08879158
0.00532114
0.00757837
0.00622662
0.10384063
-0.03498868
-0.16219465
-0.06126702
-0.00364821
-0.06559656
0.09762938
-0.12195011
-0.04488907
0.10312589
0.00547967
0.03379425
-0.01161066
0.11351010
-0.02364891
0.06628567
-0.09904487
0.05530327
-0.03973738
0.06153698
-0.04083322
-0.08690690
0.06672681
-0.02618907
-0.08055789
-0.03346149
-0.04318406
-0.03967700
0.15538329
-0.02514859
-0.05231068
-0.01681711
0.07401152
-0.01771245
0.05439422
-0.02488897
-0.00399933
0.02466410
0.09022503
-0.01034804
0.34622112
-0.00949018
-0.06251716
-0.02200248
0.06974635
-0.09631836
-0.00860957
-0.00269648
0.06836259
-0.02480201
-0.01501473
-0.07270195
-0.05598689
0.03759981
0.01659068
0.00910947
0.06189502
-0.06543542
0.01617584
-0.03775457
0.05103299
0.15009007
-0.02414102
0.00599023
-0.17313257
-0.11147507
0.05600234
-0.12591739
0.00527851
-0.09151224
0.02409914
-0.08785231
0.06049572
0.03271547
0.06163510
-0.06309887
-0.03821638
0.02969381
-0.02870318
0.04485490
-0.04204381
0.10164783
0.08976823
0.02709409
0.09690014
-0.05801390
0.03760707
-0.02323275
-0.01352058
-0.00901451
-0.06259838
-0.06094024
-0.08278045
0.05018615
0.02405353
0.12223461
0.05336391
-0.63818997
0.06270675
-0.00336692
-0.04208659
0.02367621
-0.02563165
0.13470268
-0.01152676
0.06468036
0.01512211
-0.06121368
0.05902375
0.06846792
-0.07756516
0.06891089
-0.01001728
-0.09051841
0.04354581
0.00445347
-0.00175984
-0.06253628
-0.04921670
0.04079651
-0.09427787
-0.07490733
0.11984420
-0.04215558
0.04636634
-0.00191914
0.11976416
-0.12034252
-0.04535182
0.04673046
0.16634886
0.04095561
-0.00867410
-0.08101036
-0.05498535
0.03587204
-0.12873039
0.06969307
0.04754683
-0.07788776
0.06065520
-0.01525646
0.13536184
0.07847035
-0.05316525
0.00009482
-0.01765339
-0.10446942
0.01119283
0.06398665
-0.07146586
-0.03680224
0.00528155
0.02696246
0.01973470
0.07960885
-0.08038973
0.12346999
0.06781156
-0.03184605
0.11533885
-0.02628729
-0.05974761
0.01036252
-0.02563917
-0.04021082
-0.01174407
-0.15720783
0.00439722
0.03016725
-0.00978050
0.05675836
-0.09321396
0.00693057
-0.04440640
0.08556050
0.11771352
0.06930513
0.04366961
-0.03630672
0.00195622
-0.00835187
-0.09075887
0.03029553
-0.07761676
0.07805698
0.06196669
0.10569192
0.14329070
-0.05783385
0.06075150
-0.01431617
-0.04242815
0.04646675
-0.01729032
-0.04211780
-0.04116292
-0.02267421
0.12416410
-0.06169038
-0.01239663
-0.13567445
-0.10550246
0.08925491
-0.07962614
-0.05263452
-0.00475084
-0.04749367
0.05195259
-0.08891877
-0.10175166
0.10324249
0.03696289
-0.00429331
-0.04726177
0.02035563
-0.02308672
-0.05969137
0.05110275
0.00063223
0.07335179
0.06953749
-0.04874156
0.02538701
-0.05680962
-0.61065722
-0.04421116
-0.08050337
-0.06046716
0.07044447
0.06923130
0.01014960
-0.02628558
-0.07818694
0.01213484
-0.00626209
0.03220185
-0.00931704
0.07172464
0.07244169
-0.14227322
0.01855163
-0.07833771
0.01054187
0.11239275
0.05288521
0.03877878
-0.10015228
0.01290346
-0.00183430
0.03998666
-0.06752907
-0.00249996
-0.04701900
-0.03925104
-0.04142667
-0.06399266
0.08611138
0.09268000
0.04125359
0.02917989
-0.00913377
-0.06289485
0.00266444
-0.08647484
0.01611782
-0.12145004
-0.08376837
-0.04509598
0.12818453
-0.05732517
-0.01470785
-0.04905402
-0.09209396
0.08500478
0.02750000
0.02434075
0.08285858
-0.09805616
0.10936698
0.03229392
0.04206944
0.10626500
-0.12262225
0.03507137
-0.04818434
-0.03396961
-0.14407505
0.00723044
-0.01827815
-0.06979877
-0.08717420
-0.04414698
-0.01972951
-0.04372987
-0.16055636
0.01713115
0.03192676
-0.29129088
-0.00013208
-0.08674368
0.10071844
-0.09785254
-0.05341460
0.00101112
-0.05504554
-0.05051031
-0.02011880
0.10337681
0.03350624
-0.05239810
-0.05228743
0.01750997
-0.09906230
-0.05085992
0.10783971
-0.00945658
-0.04061491
-0.11739248
0.08446693
0.00424076
-0.07062773
0.01579448
-0.08767592
-0.06463661
0.03016886
-0.04523188
-0.04561765
0.03878625
-0.06402016
-0.00319989
-0.04491581
0.03044418
0.05749992
-0.03859534
-0.02411802
-0.01578782
0.01902749
-0.05182619
0.06055135
-0.13605423
0.03398150
0.10573854
0.01587618
-0.11773507
0.00472127
0.10499886
-0.10521744
-0.06539359
-0.00466844
0.11568167
-0.02953674
0.01930227
0.08041287
-0.04705770
-0.03312251
-0.02826434
0.12966610
0.03902429
0.00627664
-0.08392380
-0.02022124
-0.10369344
-0.05669014
0.06157496
-0.03545782
-0.02478733
0.04742818
-0.04301867
0.06337016
-0.01246154
0.08307584
-0.01362507
0.00926026
0.00420288
-0.18969667
-0.01674538
-0.02101770
-0.11468409
-0.03521213
0.11852270
0.08422808
0.00511105
0.11418473
-0.15039542
0.06205827
-0.03265625
0.01830762
-0.02158128
-0.03273569
0.07315036
-0.06475160
-0.09418110
-0.04833062
0.00641931
-0.06721728
-0.01825567
0.00003156
-0.04071058
-0.11345192
0.03984733
-0.04340274
-0.00082811
-0.01539884
0.09374989
-0.00855635
0.01374939
-0.04491303
0.04716954
0.04224267
0.04462418
-0.02949927
-0.00880340
-0.02238929
0.03921787
-0.02676966
-0.04718055
0.03109386
0.06159191
-0.09879633
-0.09611752
-0.04797046
0.05778196
-0.09155436
0.09485074
-0.12530199
-0.00366430
-0.04575359
-0.08651311
-0.02718081
-0.04127964
0.04243250
0.13953462
-0.02156321
-0.00395608
-0.08644228
0.03168190
-0.01714835
0.05378314
0.00249243
-0.07185101
-0.04157294
-0.02937434
0.02677325
-0.04904098
0.02438358
-0.00015951
0.05346232
0.00955813
-0.04290264
0.05271674
0.01137470
-0.06668150
0.05797097
-0.01434665
0.06344920
-0.20303437
0.02615030
0.04182762
-0.00705302
-0.01120951
-0.03012883
-0.07754574
0.04126691
0.09394915
0.06954170
0.02338795
0.01783250
0.01610699
0.00399014
0.12365206
0.02441176
-0.04093263
0.03125981
0.02469525
-0.01812820
-0.06245402
0.00679817
0.06777004
0.05169542
-0.05821050
-0.12120558
0.03541818
-0.04147096
0.13868691
0.07777888
0.02804054
-0.07198597
0.02699218
0.14374602
-0.06935316
0.02075492
-0.01301703
0.02444059
-0.15003121
0.10359614
-0.12507886
-0.04238021
0.00974936
0.10667058
0.17275682
-0.02720471
-0.05956296
0.05605238
-0.09363350
-0.09956875
0.02804847
-0.02335071
-0.08928748
0.02099591
-0.06403455
0.00947462
0.07048634
-0.09093583
-0.01263771
-0.00025624
0.12730801
-0.00769015
0.00068181
-0.08952975
0.08162396
0.10715893
0.08818027
0.03390340
0.04808104
-0.07464569
0.02526597
0.11099332
-0.01206739
0.07824718
0.05016663
0.09419074
-0.12335178
-0.05138264
-0.03943517
0.03267328
-0.05840840
0.11141572
-0.04183759
-0.02944507
0.00946139
0.05357165
0.01499523
0.09379331
-0.00186865
0.05493817
0.01586882
0.12724540
0.03543434
0.12854543
0.08408200
-0.00864757
0.07819931
0.07497203
0.11007600
0.11952789
0.00416925
-0.07499645
0.09550980
-0.10597098
-0.06384817
-0.01209111
-0.10671242
0.02253177
0.12704426
0.04642926
0.09359397
0.07908176
0.07382487
0.04215426
0.15091869
-0.03889566
-0.03800160
0.11315640
0.06606469
0.09356353
-0.04657027
0.07666620
-0.02307802
0.05814360
-0.04036676
0.09080733
0.01423566
-0.01312625
0.04361675
0.09052993
0.15598099
0.19055858
-0.02402902
-0.05248644
-0.06496784
0.16058995
-0.03900330
0.06014552
0.03206445
-0.06182386
-0.04347023
0.01626742
-0.07318480
0.14687654
-0.06156926
0.03538267
0.01517494
-0.01109657
0.07976145
-0.02566558
-0.01862263
-0.05232552
-0.12878019
0.02376198
0.02858085
0.10265158
-0.00950775
-0.11973087
-0.04780883
0.01915509
-0.06852149
0.14069350
0.05038958
-0.06826066
0.08013202
0.10216271
0.01209983
0.08443466
0.07313960
0.00316551
0.06041516
-0.12637246
0.03278587
-0.02286000
0.02851792
-0.02161185
0.00947172
-0.10840803
0.03225765
0.05632042
0.01528983
-0.55774409
0.02858705
-0.01857577
-0.01326248
0.04460186
-0.06259587
-0.01141894
-0.12758538
-0.01092521
-0.03699849
0.02875816
0.05627142
-0.04173785
-0.01215621
0.16053624
-0.01847823
-0.00493704
0.14750013
-0.10960601
0.02065799
-0.05611943
0.04667905
-0.09255464
-0.06076769
0.07013419
0.03582513
0.00788536
-0.02322879
0.01413113
0.11417411
-0.09152728
-0.04858583
-0.03815616
0.08466731
-0.07031681
-0.08518993
-0.15605247
0.08272991
0.05190111
-0.02916024
0.03102721
-0.04439646
0.13494909
-0.01403547
-0.05657722
0.03422467
0.02124772
0.00453140
