-0.00692997
0.00855893
0.00670777
-0.00524750
-0.00017074
0.00506744
0.00418154
0.00185804
-0.00101605
0.00119636
0.00027083
-0.00024458
-0.00054050
-0.00256503
-0.00473943
0.00048531
-0.01809818
0.00483171
-0.00445702
-0.00538630
0.00319178
0.00194804
0.00490407
0.00777393
0.00285077
-0.00138750
0.00192018
-0.01555617
-0.00158862
0.01221245
-0.01186384
0.00025167
-0.00574444
0.00472658
0.00484617
-0.00369973
0.00161924
-0.01200226
-0.01102704
-0.00913465
0.00157650
0.00405546
0.00035739
-0.00163392
0.01096174
-0.00849970
-0.00280288
-0.00341145
-0.00008815
0.00603226
0.00685306
-0.00412451
0.00446128
0.00841986
-0.00317713
0.00167017
0.00003485
-0.00734242
-0.00151009
-0.00477821
0.00929947
-0.00402579
0.00063561
-0.00646317
-0.00201966
-0.00098148
-0.01254032
-0.00727522
0.00145067
0.00012296
-0.00247702
-0.00608370
0.00575669
0.00140826
0.00031109
-0.00731446
-0.00503296
-0.00124063
0.00621535
-0.00429167
0.00213851
0.00604825
0.00015663
-0.00811256
0.00025341
0.00124666
-0.00035925
0.00336317
0.00203934
0.00736461
0.00213749
-0.00270257
-0.00449745
0.00701342
0.01170898
0.00335217
0.01095024
0.00382707
-0.00040832
0.00172658
0.00434813
-0.00904085
-0.00094867
-0.00766171
-0.00665924
-0.00616037
0.00141870
0.00266088
-0.00171436
0.00379138
0.00308681
0.00505697
0.00854672
-0.00994227
-0.00207962
-0.00032258
0.00410503
0.00278616
0.01230855
-0.00729119
0.00581009
-0.00572561
-0.01584313
0.00886988
0.00075747
-0.00671100
-0.00005527
0.00665455
0.00070998
-0.00238474
-0.00348279
0.00909330
-0.00345714
0.00100934
-0.00158605
-0.00304039
0.00064610
0.00373033
-0.00801150
-0.00274654
-0.00087046
0.00012836
-0.00446702
0.00308930
0.00013451
-0.00723710
0.00468402
-0.00040207
0.00511454
-0.00021060
0.01009459
0.00862858
-0.00670947
0.00258786
-0.00028491
0.00851792
0.00119209
0.00099142
0.00046654
0.00511270
0.00683739
0.00035552
-0.00184213
0.00450940
-0.00159122
-0.00730223
0.00076686
0.00605474
0.00107704
-0.00452681
0.00115960
0.00001607
0.00082845
-0.00221804
-0.00676982
-0.00515971
-0.00384636
-0.00299852
-0.00358148
0.00188665
0.00355903
0.00016332
0.00699801
0.00199373
0.00181879
-0.01429762
-0.00212649
0.01142939
0.00001945
-0.00029942
-0.00090682
0.00570611
0.00868968
-0.01231571
0.00929471
0.00812509
0.00704157
0.01709261
0.01405561
-0.00416921
-0.00120832
-0.00650835
0.00084934
-0.01292974
-0.00065551
-0.00953106
-0.00426943
-0.00498820
0.00836778
-0.01032639
0.00271906
0.00368027
0.00549914
-0.00284977
-0.00910389
-0.00360830
0.01272511
0.00504325
0.00493734
0.00084427
0.00480431
-0.00728754
-0.00115128
0.01437600
-0.01913906
-0.00570193
0.01270807
-0.00181298
-0.00141005
0.00879445
0.00187203
0.01955710
-0.00186912
0.00520005
0.01402261
0.00397217
0.00088082
-0.01282005
0.00140837
0.01500035
0.00259601
-0.01595983
-0.00986763
0.00118601
-0.00228612
0.00121042
0.01177061
-0.00197304
-0.01149943
-0.01348128
-0.01429582
-0.00025724
-0.00455286
-0.00376876
-0.00579319
0.00778558
-0.00383371
-0.00193200
0.00680445
-0.00445863
0.00165283
0.00371638
-0.01586510
-0.00534651
0.00039016
-0.00128317
0.00014900
0.00156093
0.00103423
0.00055661
0.00020919
-0.00125885
0.01737456
0.00817058
-0.00066738
0.01025234
-0.00880256
0.00136857
0.00086173
-0.00918802
0.00040729
-0.00756906
0.00000508
-0.00166150
-0.00509219
-0.00751835
-0.00378213
-0.00092778
0.00673276
-0.00438134
-0.00102215
-0.01236770
-0.01086671
0.00552481
0.00455814
-0.01013120
-0.00016451
-0.00607025
0.00182993
0.00271566
-0.00068185
0.00489308
0.01435473
0.00595890
-0.00166573
-0.00855899
-0.00239174
0.00261501
-0.00340862
0.00364526
-0.00042691
-0.00395050
0.00213227
0.00569972
0.00091721
0.00019600
0.00101395
-0.00636442
0.00744932
-0.00083878
0.00164659
0.00644945
-0.00718076
0.00099231
-0.00934181
0.00497544
-0.00049856
-0.00056552
-0.00720437
0.00158314
0.00480359
-0.00393089
0.00370054
-0.00707028
0.00399981
-0.00100223
-0.00160027
-0.00298301
-0.00069749
0.00260208
0.00762961
-0.00311708
0.00074728
-0.00140764
-0.00375394
0.00312954
-0.00300715
-0.00040572
-0.00382747
0.00806383
0.00107895
-0.00800437
-0.00597164
-0.00049287
0.00529709
-0.00349042
0.00504367
-0.00675968
0.00527949
-0.00062792
0.00155716
-0.01074792
0.00866812
0.00525298
-0.00079259
0.00412468
0.00575618
0.00167040
0.00181655
0.01017284
-0.01212795
-0.00524274
0.00204086
-0.00715205
-0.00197205
0.00034334
0.00222456
0.00465892
-0.00922795
0.00411838
0.00576239
0.00451860
0.01133862
0.00236861
-0.00265937
-0.00352950
0.00314825
-0.00222853
0.00177327
0.00603901
-0.00450704
-0.00066122
0.00026287
-0.00408806
-0.00260162
-0.00159918
0.01294562
-0.00515329
0.00175192
0.00859928
-0.00134574
0.00542111
0.00689965
-0.00157371
0.00436912
0.00444135
-0.00506509
-0.00305435
-0.00037347
-0.00458266
-0.00083630
-0.00255747
-0.00497780
0.00930159
-0.00411582
0.00523442
-0.00336054
-0.00641832
-0.00313290
-0.00443351
0.00602930
-0.00793696
-0.00227355
-0.00129552
0.00221873
-0.00229858
0.00658398
-0.00409395
-0.00140157
0.00267595
-0.00313916
0.00482493
-0.00189809
0.00020993
-0.00487396
0.00013249
0.00078641
0.00341532
0.00284873
-0.00060631
0.00450895
0.00113713
-0.00473403
-0.00912835
-0.00243352
-0.00663633
-0.00361264
-0.00366485
0.00406162
0.00609480
0.01009522
0.00225103
0.00458201
-0.00355339
0.00129877
0.00266029
0.00519938
-0.00255770
-0.00324536
0.00556175
0.00373642
-0.00226348
-0.00477019
-0.00054390
-0.00365173
0.00421011
0.00106421
0.00790346
-0.00112935
-0.00278387
-0.00563225
0.00026490
0.00215248
0.00148906
0.01060703
-0.00442272
-0.00422610
-0.01615376
-0.00140396
0.00650244
0.00551519
-0.00709797
0.00022842
-0.00523330
0.00558528
-0.00131559
0.00407776
-0.00858453
0.00032263
-0.00406131
0.01084792
0.00403951
0.00309938
-0.00071049
0.00660424
0.00217543
-0.01133074
-0.01460487
0.00112072
0.00927696
-0.00796549
0.00682272
-0.00345636
-0.00682659
-0.01176302
0.01199527
-0.00898335
0.00359215
0.00202833
0.00894496
0.00152996
0.00268679
0.00392287
-0.00185558
-0.02203453
-0.01673170
0.01101816
0.00094328
-0.00292493
0.00277191
0.01099177
-0.00441664
-0.00307379
0.00912858
-0.00194812
-0.00221794
0.00185109
0.00092610
-0.01479150
-0.00588677
-0.00074093
0.00636565
-0.00663157
-0.01036423
0.00258628
-0.00581508
0.00291924
-0.00633982
-0.00196455
-0.00692999
0.01486558
-0.00258407
0.01947703
0.00486964
0.00955824
0.01221427
0.00747130
0.00238402
0.00515399
-0.00692054
0.01113502
0.00459738
-0.00714320
-0.00301599
0.00831524
-0.01442035
0.00295948
-0.00639668
0.00403341
-0.00495413
-0.00432013
-0.00189338
-0.02156544
-0.00737318
-0.00335269
0.00172626
0.00464714
-0.00731705
-0.00375147
0.00695011
-0.00665521
0.00022093
-0.00578529
-0.00709618
0.00645288
-0.00764304
0.00659242
-0.00245432
-0.00067676
-0.00443487
0.01453876
0.00035131
0.00165856
0.00440275
0.00328080
0.00699765
-0.00725918
-0.00644322
0.00141497
-0.00774812
0.00129224
-0.00159276
-0.00507821
0.00017602
-0.00554563
0.00153274
-0.00957687
0.00296187
0.00760471
-0.00460317
-0.00445230
-0.00521777
0.01484595
0.00097620
0.00236077
-0.00146342
-0.00245128
0.00642841
-0.00168281
-0.00251023
0.00121514
0.00430265
0.00209082
0.00015445
-0.00843235
0.00742571
-0.00286275
0.00475496
-0.00291268
0.00496622
-0.00633128
-0.01052865
0.00760719
-0.00761899
-0.01075394
0.00685504
0.00574221
0.00003120
-0.00774303
-0.00816412
0.00392941
-0.00074940
-0.00058984
-0.00699391
-0.00194775
-0.00731476
0.00402417
-0.00046901
0.00365918
-0.00590838
0.00579213
0.02348023
-0.01145170
-0.01065874
0.00380996
-0.01203421
-0.00978152
-0.01763229
-0.00333024
0.00167821
0.00704677
-0.00408842
0.00751139
0.01371860
0.00584572
-0.00462085
-0.00103412
-0.00286928
-0.00534722
0.00669034
0.00722418
0.00708654
-0.00128198
0.01791813
-0.00885573
0.00462443
0.00477415
0.00094395
0.00126609
0.01634059
0.01043426
0.01353305
0.00210257
0.00182311
-0.00374635
0.00150555
0.01278575
-0.01223587
0.01172216
-0.00566538
-0.01006230
0.00164783
-0.00575371
0.00557350
0.00366098
-0.00328110
-0.00896714
0.00949581
0.00081540
-0.01075258
0.00814742
-0.00236724
0.01239927
-0.01071366
-0.00232291
0.00416453
0.00876888
-0.00187560
-0.00330928
-0.01022961
0.01199042
-0.00498736
-0.01100489
-0.00046603
0.00290950
-0.00247374
0.00100910
-0.00359216
-0.00386588
0.00990016
0.00016129
0.00184653
-0.00416385
0.00225046
-0.00175397
0.00717552
-0.00145349
0.00012793
0.00100946
0.00754927
-0.00421519
-0.00470846
0.00201633
0.00317651
0.00543029
0.00415479
-0.00238928
-0.00160123
-0.00197248
-0.00570638
0.00075328
0.00237373
0.00112963
0.00215060
-0.00019043
-0.00007172
-0.00338243
-0.00116841
-0.00472134
-0.01223633
-0.00061418
0.00219291
0.00162416
0.00351410
-0.00301625
0.00143765
0.00228714
-0.00340766
-0.00509070
-0.00167898
-0.00768815
0.00544992
0.00268719
0.00210421
0.00581361
-0.00773072
0.00298348
-0.00289814
-0.00108536
0.00567809
-0.00113360
0.00515736
0.00992432
-0.01016199
-0.00163315
-0.00205700
-0.00216937
0.00415835
