-0.03667567
-0.01449654
-0.03822913
0.00118343
-0.05489838
-0.06608576
-0.01028295
0.06327701
-0.01761528
-0.04052502
-0.00458765
0.02235211
-0.02275564
0.07407933
0.00941364
-0.03419568
0.06098583
0.02079056
0.03005040
-0.02476344
0.11391099
0.05748031
0.04481424
0.00957338
0.08284681
-0.03663738
-0.04661708
-0.07770818
-0.06125264
-0.01641608
0.06005130
-0.01658063
0.01353262
-0.03435773
0.03370656
-0.02672845
-0.05141617
-0.00075241
0.11594834
0.01190439
-0.02128245
0.06629959
-0.01881333
0.01243604
-0.02396379
0.03991712
-0.03824380
0.00982977
0.02553369
-0.04970747
0.02449973
0.01785113
-0.01155560
-0.00336690
-0.04923256
-0.02748318
0.02714974
-0.02512891
-0.05533871
-0.03642075
-0.08491871
0.04415178
0.02517573
0.05040510
-0.03227881
0.51725370
0.31537873
0.09151743
-0.07728805
-0.04932520
-0.34405911
-0.42674291
-0.39942735
0.26361549
-0.05349956
-0.03423919
0.27550459
-0.08815834
-0.10655726
0.04038510
-0.59641784
0.41534451
-0.24190712
0.24182142
-0.10771785
-0.21232115
-0.19626978
-0.97311962
-0.56273234
-0.56076002
0.06561710
0.69253570
0.29777083
0.84927583
0.12793387
-0.43920496
-0.38616580
0.20037864
0.01205597
-0.12884906
-0.60275346
0.18397370
-0.12693812
-0.21937786
0.06031522
0.16923611
0.02892211
0.88134938
-0.52385110
0.36702490
-0.14967798
-0.27139175
0.20185043
-0.85037357
-0.42382038
-0.24636222
-0.67375958
-0.19075289
0.23265900
0.65202332
-0.25832206
0.25140649
0.08337315
-0.36620769
-0.18366322
0.00923156
0.35687977
-0.51173174
-0.03908195
0.02796144
-0.00545185
-0.15935560
0.00747665
0.09278847
-0.09582411
-0.07475273
-0.08988290
-0.18775177
-0.26499039
0.05067810
-0.06971799
0.01071744
0.17259136
0.09359915
0.11339223
-0.12009776
0.06874015
0.01718546
-0.03360699
-0.04496123
-0.16610456
-0.09865408
-0.09176168
-0.35899752
0.08386665
0.02594184
-0.31374410
0.07360745
-0.02812236
-0.01673727
0.07710553
0.03475168
0.14943531
-0.09477684
0.37559500
0.09049520
-0.01774153
0.06457082
0.07240058
0.02371316
-0.09899152
-0.26286551
0.18729492
0.02546852
0.04050170
-0.26387018
0.14363189
0.22295760
0.36160284
-0.04066065
-0.09331526
-0.14177018
-0.09632888
-0.11685407
-0.16268244
-0.10494714
-0.07614744
-0.05030539
0.18191332
0.13516751
-0.09846123
-0.14344448
0.02670658
-0.00578441
0.01613639
0.03857654
0.00677704
0.01609552
-0.16162500
-0.03225069
0.00742461
-0.03281484
-0.02377682
0.02030948
-0.00509878
0.03785570
0.01209852
0.02858423
0.00714294
0.04653659
-0.02793899
0.00265349
0.00015291
0.00162197
0.00035484
-0.00126979
-0.00513622
0.04810071
-0.05118916
-0.01155289
-0.03956183
0.01222935
0.01933366
-0.01875560
-0.03482482
0.00565028
-0.01022675
0.04686761
-0.05260441
-0.00195290
-0.07970818
0.00658294
0.01127437
0.01392355
-0.00032394
0.01971866
-0.03067092
0.01544859
-0.00765441
-0.01017753
-0.00061795
-0.04754004
0.02707029
0.00506249
-0.02455165
0.01577538
-0.00940178
0.00937303
-0.02115432
0.22448157
-0.07526048
0.01967443
0.02859530
0.12665918
-0.01840852
-0.01441420
-0.03259110
0.02288179
0.06168021
0.00027876
-0.08515324
-0.14245760
-0.49552888
-0.00188673
-0.06173986
-0.06691712
-0.01790179
0.17867468
0.07040278
0.05364082
-0.47795904
-0.04169416
0.09081030
0.10040376
0.18739758
0.19844361
-0.19278686
-0.05554539
0.00615323
-0.18529938
-0.52765816
-0.49557534
-0.04368526
-0.01508520
0.12192354
-0.01175608
-0.05935398
0.04851500
0.11279275
-0.26360008
-0.03507078
-0.01397975
-0.00153871
-0.00354131
-0.03990673
-0.28938019
0.04338594
-0.29566881
0.11037736
0.09287889
-0.34023741
0.01632417
-0.19133544
0.06895490
0.11308765
0.05417406
0.03532018
0.10749949
0.27687228
0.02839270
-0.18879503
0.22630736
-0.09108181
0.00838038
-0.03227975
0.19409211
0.23351327
0.07262386
-0.07047147
0.19323020
-0.54754227
-0.17651330
0.60116798
0.20444480
0.01688664
-0.17483947
0.07773033
-0.30719402
0.28469509
-0.24057060
-0.04255185
-0.18666022
0.08209515
-0.23496540
0.15527120
-0.00920183
0.02205740
-0.47593611
-0.81566316
0.75546765
0.10632031
-0.83863854
0.80297297
-0.00532917
-0.60082269
-0.03286396
-0.12062763
-0.33727613
0.17569886
-0.07323959
-0.34682104
-0.32227847
-0.18842432
0.18825305
0.32367387
-0.10804868
-0.33670953
-0.23307014
-0.25989455
0.06285050
0.10372460
-0.39300677
1.05140471
0.15400885
-0.18646866
0.04990922
0.03512422
0.16945173
-0.27831271
1.06836486
-0.06045241
-0.11924851
-0.23352574
0.31287181
-0.45385522
-0.46662194
-0.70648283
-0.24312645
-0.61057818
0.28845671
-0.32776329
0.19119644
-0.05693122
0.31564689
0.15460458
-0.09303320
0.54597396
0.15566936
-0.02728494
-0.03204412
0.02291966
0.08273353
-0.00598336
-0.07333199
0.70241040
-0.11788012
0.02108729
0.35832763
-0.03985204
-0.18312699
-0.10972958
0.06713639
-0.12771441
-0.11297770
-0.21796855
0.20706907
-0.00807717
-0.32468206
-0.11986168
-0.25773928
-0.02587422
0.00859465
0.07845335
-0.04300648
-0.14729008
0.43664283
0.06895605
-0.15234324
0.49087062
0.04501069
0.07076687
0.02768813
-0.17070191
-0.13992338
-0.21632232
-0.11516120
0.25437143
-0.01569682
0.09733035
0.14377591
-0.29128391
-0.09485783
0.00739176
0.09640522
-0.26798412
0.00583453
0.38105088
0.43693304
-0.15936187
0.31013685
-0.02373181
0.25146002
-0.69307452
0.34515628
-0.15147792
0.23851869
0.25130984
0.11839156
-0.07651982
0.05679589
0.22739722
-0.00685856
0.01199496
-0.04733790
0.02010278
-0.07699414
-0.02901296
0.00824177
0.08042170
-0.08350348
0.05207358
-0.04315706
-0.01799775
-0.02977256
-0.08770373
0.00410174
-0.02637607
-0.02614525
-0.10664815
0.00277051
-0.05906398
-0.03960950
0.12493619
0.02357382
-0.02091055
0.19896920
-0.10498823
0.07846605
0.05077056
0.06219387
0.06298459
0.03998447
-0.04658768
-0.06126170
-0.04019216
-0.05303737
-0.07731283
0.04682440
0.02759779
-0.06473204
-0.07091757
-0.06174577
-0.00741843
0.05193373
0.16010807
0.03739741
-0.00822299
-0.00256850
-0.11432307
-0.01414488
0.01919844
0.00178925
-0.04001184
0.07215063
-0.03322037
-0.03957580
-0.00408165
0.00323445
0.00396841
-0.11273175
0.01860552
-0.00255877
0.05104196
0.08812780
0.04916786
-0.06806296
0.01407302
-0.09950036
-0.14289747
-0.09314685
-0.07521661
0.08414844
0.03434158
-0.04825948
0.05581185
-0.10971218
-0.02857227
0.07943366
-0.04474543
0.15692714
-0.03660212
-0.01549297
0.03410446
0.20367508
0.04057826
-0.11849069
-0.17428979
-0.07319347
0.00591638
0.08111947
0.09322586
0.14430590
0.10618956
0.00048593
0.09582289
0.24658783
-0.07060312
-0.12534039
-0.07735632
0.02557712
0.24144846
0.13097361
-0.19513081
0.02525857
-0.08488102
0.03584817
0.29839960
-0.09357941
-0.03167699
0.02489568
-0.10907803
-0.28209448
-0.19974487
0.02309813
-0.11324222
0.01928903
0.15003064
-0.27590981
-0.00624827
0.10657565
-0.07699589
0.00849197
-0.00298199
-0.14031883
0.12744367
-0.02325449
0.03501284
0.38395631
-0.04723359
-0.03430104
0.66341454
0.06638674
0.14545746
-0.23939982
1.07627869
-0.69414300
0.46187860
0.37988055
0.48125687
-0.05314214
0.72296584
-0.74482954
0.04258517
-0.26484454
-0.31656390
0.02176548
-0.57105917
-0.16304094
0.36541036
-0.73599273
-0.45916244
-0.45168811
0.89292991
0.01511373
0.46301141
0.94393378
0.32960632
-0.24394393
0.10679784
0.08857922
0.34308964
0.01743763
0.00684382
0.41239402
0.07333651
0.10670806
-0.34730402
-0.11039361
-0.39781755
0.18349735
0.11449582
-0.59133869
1.00439394
0.01987582
-0.61754656
-0.10018114
0.09657379
0.55285263
-0.55048484
-0.39155716
0.47009706
0.52038676
0.01955689
-0.22251743
0.28640890
-0.75915021
-0.06951275
0.06596615
-0.30073971
-0.16356573
0.02362871
0.04124210
0.04089359
-0.00678277
-0.02374431
0.03082683
-0.02088734
0.03459160
0.03980886
0.01472960
0.01194109
0.05202859
-0.03851808
0.01710776
0.02790688
0.01648841
-0.00116844
-0.01410091
0.02858867
0.02966510
0.03032542
0.00821657
0.02745358
0.00286068
0.05294780
-0.00674102
-0.00414445
-0.00459058
-0.03001625
-0.00391015
-0.02720013
0.02493653
-0.04384769
0.00618822
0.02595708
-0.02180213
0.03686435
-0.00084708
0.00013786
-0.00273323
-0.05603922
-0.02759320
-0.00416765
-0.01111993
-0.00509394
-0.11879358
0.02314226
0.01458444
0.00122281
0.00093503
-0.00467427
0.13130245
-0.02295193
0.05349598
-0.02315609
-0.02118269
0.00659883
0.00468825
0.03959788
-0.25614867
0.01947073
-0.00005735
-0.16106738
-0.00236657
0.06185926
0.05210374
0.11598041
-0.00695234
0.02611315
0.00182324
-0.03796092
-0.25008500
-0.03090217
0.02938863
0.04571855
-0.03866662
0.03877135
-0.07022569
0.14924128
0.17714539
-0.03203530
-0.04023548
-0.03791847
-0.04877175
0.05333095
-0.29139864
-0.11118369
0.01303439
0.10191321
-0.02459818
0.03492666
0.02893222
-0.05891104
-0.08053818
0.01918483
-0.00897498
-0.04628107
0.07338589
-0.04761419
-0.04329358
-0.49457917
0.04391988
-0.09752867
0.05126816
-0.20372148
-0.05462601
-0.01120560
0.02039882
0.05995868
-0.01472508
0.16513044
0.12974805
-0.05057774
-0.09277290
0.01086234
-0.43261051
-0.06438429
-0.07134578
-0.01146183
0.03625709
-0.01580998
0.00948031
-0.01124417
-0.13265835
-0.03892145
-0.26780719
0.00442526
-0.00981637
