-0.01335030
-0.01224133
-0.00518340
-0.00232528
0.00148614
0.02438345
-0.00470290
0.00610489
0.01673534
-0.02879165
-0.01631285
-0.03683078
0.00062654
0.00342700
0.00163181
-0.00476122
-0.00367933
-0.01486932
-0.01904794
-0.00580142
-0.01261884
0.00560171
-0.00568335
-0.00503353
-0.00624002
0.00312975
-0.01588864
-0.00247032
-0.00372289
-0.00006201
-0.02415416
-0.00841091
-0.01964547
0.01094751
-0.00291289
0.01052683
0.01164817
-0.01157406
0.00408454
0.01207243
0.00205688
0.00289873
0.02915265
-0.00039385
0.02315309
-0.00090909
0.00479077
0.00347913
0.01152784
0.00540781
-0.00871053
-0.01128082
-0.00294332
0.00461262
-0.00968107
-0.00891108
0.00317449
-0.02280948
-0.00839547
-0.01211311
-0.01104216
-0.00286287
0.00586075
0.02020328
0.00026668
0.01930009
-0.00113418
-0.02290107
-0.06436359
-0.00033167
-0.02858292
0.00015488
0.00938505
0.01685730
-0.05628477
0.01156117
0.00670984
-0.03828451
0.02446880
0.00050906
-0.01373180
-0.03233444
-0.00569221
-0.00908042
-0.00218246
0.00731587
-0.01702682
0.01063734
-0.01998294
-0.01375712
0.02391138
0.00180166
0.00443014
-0.00030852
-0.00338802
0.00139120
0.02803279
0.01153611
0.00092376
-0.02718071
0.01714217
-0.01737094
0.00950900
0.00065369
0.01154762
0.03771726
0.04039885
0.01668151
-0.04074777
0.00475227
-0.00241299
0.01591580
-0.00142867
-0.03465224
-0.01221264
-0.03774144
-0.03340222
0.02453168
-0.01093982
-0.00801238
-0.01472159
0.01704499
-0.01767088
-0.02197749
0.00208412
0.00996529
0.00230659
-0.01250641
0.03177799
-0.00904240
-0.02968778
0.01721928
-0.03626784
0.03312402
-0.01954757
-0.01408554
0.00046025
0.00439276
0.02702915
-0.01139211
-0.00642040
-0.02227955
0.00063656
0.00332730
-0.01351943
0.03029349
-0.00141127
0.02203192
0.01744293
0.00986770
0.01407394
0.01921082
-0.00409631
-0.00457029
0.00394572
-0.00275318
0.04184605
-0.00763506
0.00072277
-0.03076557
-0.01088234
-0.01569165
0.01473645
-0.01678643
0.00405841
-0.00464029
-0.02249856
0.03105611
0.02225039
-0.02019185
0.00656152
0.01839771
0.00550136
-0.00854596
0.00880016
0.01716495
0.01259255
0.00236658
-0.02802065
0.00372591
0.01255783
0.01019544
0.02268698
0.00380659
-0.03130282
-0.02070883
0.00571605
0.02031199
-0.01580425
0.01981032
-0.00241538
-0.02050292
0.01785179
-0.02559730
0.00090242
-0.03366839
-0.00361085
0.00042357
-0.00348444
-0.02992814
0.00332699
-0.03882756
-0.00346255
-0.01070758
0.05369040
-0.01136131
0.01323617
-0.00596966
0.02329946
-0.00229065
-0.01150658
-0.01508885
0.00237094
0.00362625
-0.00213737
0.00884701
-0.02388540
-0.00504065
-0.04297859
-0.00494237
0.01105941
-0.02195450
0.00342345
-0.01927123
-0.01362041
0.00432130
0.01561533
0.00138055
0.05110753
-0.00980807
-0.00940547
0.00758060
-0.01210557
0.01846422
0.00632170
0.00123733
0.06140471
-0.00245125
-0.00165439
-0.02122090
0.00323812
-0.01207710
-0.01143517
-0.01179261
0.00024057
-0.01703321
0.01007219
-0.01115550
0.05449371
0.01262533
0.00427135
-0.00555525
0.05102155
-0.00638355
0.01115303
0.00843546
-0.01218932
0.01099157
-0.00097256
-0.00022125
-0.02477904
0.04440914
0.01274737
0.00160329
-0.02017389
-0.00791644
-0.00076956
-0.02849394
-0.01082354
-0.00213691
-0.01937110
0.01325614
0.02723377
-0.01628761
0.03353913
0.00664265
0.00234525
0.02114663
-0.03762963
-0.02393055
-0.02673969
0.00099008
-0.02734625
-0.02385376
0.00812139
0.01007076
0.01896537
-0.03595003
-0.00757809
-0.00864587
-0.01845694
0.00989058
-0.02454624
0.02253003
0.00495790
0.00356089
-0.00436603
0.00391092
-0.00264521
0.01550176
-0.01022526
-0.02893976
-0.03315943
0.00384944
-0.00866200
-0.00823157
-0.02644060
-0.02196551
0.00206369
0.02964805
0.01246466
-0.01141310
0.00356480
0.01707428
0.00587240
0.00330441
0.03395323
0.00335977
-0.02350046
-0.03784514
-0.00736106
-0.01199729
0.00512678
-0.00487418
-0.00464763
0.00412727
0.00146920
0.02229985
-0.00647875
0.03508456
-0.01167270
0.02753709
0.02232865
-0.00787402
0.02709001
0.03896717
-0.00652451
-0.02507844
-0.05426569
-0.00728095
0.02277651
-0.04129891
-0.02338683
-0.00361069
-0.01097958
-0.00179810
-0.00408991
0.03273849
0.00378466
-0.00391745
0.01405278
0.02255918
0.00546790
0.01458875
-0.00894324
0.00597738
-0.03949437
0.03744274
-0.01577163
-0.04946844
-0.04012557
0.03673514
-0.03178457
0.00732119
0.03510016
0.03565881
-0.00532113
-0.01479241
-0.02415555
0.04736031
-0.00601691
0.04675545
0.01677076
0.01829684
-0.03037930
-0.00325998
-0.01608427
-0.03248780
0.01181784
0.00662914
-0.03575205
-0.01477905
0.02896206
0.02377529
-0.00335251
0.03502344
0.02084866
0.00460847
0.01236451
-0.01092931
0.01317784
0.01405274
-0.00802036
-0.02108980
-0.00068489
-0.00053866
-0.02797949
0.01194002
0.00453957
-0.01465978
0.00749622
-0.01011618
0.01943533
0.01943155
-0.01325166
0.00925150
-0.00155629
-0.01590491
-0.00410098
-0.00599062
0.01017402
0.02227548
-0.00269582
0.01883469
0.00392794
-0.00207160
-0.01540731
0.00210150
0.02767194
0.00622822
-0.03339843
-0.01801128
0.00528674
-0.00149920
0.00797533
0.01623789
0.03226767
-0.01023843
0.00638831
-0.03744438
0.00748580
-0.02584841
0.00807380
-0.00219636
0.00716540
-0.01152594
0.00990024
-0.01343823
-0.01095209
-0.00387154
0.01261857
-0.01379806
0.01764973
-0.00330499
0.01086974
0.00346901
0.02651701
0.00887336
0.01927073
0.00073693
0.00416140
-0.00251475
0.03950808
-0.00479827
-0.00054129
0.00542796
-0.01197121
0.00859200
-0.01205288
0.01923192
-0.00007366
-0.01738084
0.00753373
0.02486231
0.00292593
0.00120189
-0.00985276
0.01679157
-0.00266784
-0.01587847
-0.02104145
-0.00638046
-0.00695875
-0.02109986
-0.00010129
-0.00541499
-0.00700842
-0.00933937
-0.00752278
0.00877055
0.00608776
-0.00019423
0.00193686
-0.01275463
0.01253415
-0.00110641
-0.00330608
-0.01150589
0.02509681
-0.00447394
0.00823396
0.00383558
-0.01063725
0.01043117
-0.00769398
0.03409423
-0.01900607
-0.01418975
-0.00945335
0.01543285
0.02263871
-0.00840750
0.00417978
-0.00273853
-0.01436722
0.00083901
-0.01543917
0.00429964
-0.01258883
-0.02456340
-0.00634409
0.01994455
-0.00586610
-0.00154022
-0.02066425
0.03983404
-0.03166890
-0.01965787
-0.01139491
0.02014268
0.00328903
-0.01389249
-0.01023665
-0.00269886
0.02544391
-0.01871516
-0.00800692
0.01409606
-0.01516114
0.03043989
-0.00030488
-0.02388270
0.00708993
0.00470843
0.02294932
0.00865978
0.00041352
0.02610493
0.00908437
0.01337452
-0.00747199
0.00730666
-0.01373546
0.02702366
-0.01736105
0.00183746
0.01159941
-0.01110459
0.00378234
-0.00922045
0.04622334
-0.01912739
0.01918929
0.01009666
-0.00338581
-0.01066985
0.00574932
0.03807217
0.00696363
0.00576922
0.01800068
0.00744246
0.01760805
0.00973602
-0.02764562
-0.00226857
0.02947319
-0.03332830
-0.01225108
-0.01191867
-0.05674560
0.00179068
-0.00440660
-0.00798108
0.01146028
-0.00535904
0.01758361
0.01575636
-0.01113342
0.31207603
-0.02409554
0.02834321
-0.03066695
-0.00482284
-0.01630438
-0.01990333
-0.00486499
0.02038041
-0.02161224
0.00908718
-0.03186874
-0.00982395
-0.00747556
0.02607781
0.01059776
0.00012212
0.04056442
-0.00417119
0.04227076
-0.00473292
-0.00233884
-0.00809002
-0.00555009
-0.04797322
0.03313249
-0.01722465
-0.03219445
0.02783684
0.02628637
-0.01692143
0.02715956
0.02021018
0.00605721
-0.02556616
-0.01962267
-0.06173092
-0.00822404
0.10292105
-0.00182359
-0.01083882
-0.03035526
0.02593394
-0.00583275
0.08000717
0.00273606
-0.05936194
-0.01989618
0.00177992
0.05174239
-0.01712957
-0.00587777
-0.00579537
-0.00064293
0.00166023
-0.00209902
0.00601519
0.00448519
0.01776823
0.04418490
-0.00700679
0.06174735
0.00376666
0.03304752
-0.05762272
0.05136171
0.05732992
0.00853343
0.00996568
-0.07354598
0.00356299
-0.06168691
0.00666585
-0.04895533
0.05332347
-0.03561538
0.09530062
0.04833796
0.00639204
0.28649238
0.01705031
-0.00594457
0.01857251
0.04781459
-0.01846007
-0.02936691
0.01499282
0.01756999
0.02456148
-0.03295129
0.01311859
0.05055955
0.02016191
-0.02762169
0.02574232
0.02818211
0.01299603
-0.04263761
-0.00756626
0.03570325
-0.06072251
0.02129988
0.03494298
-0.00062974
-0.03736131
0.05289991
-0.06159413
0.03278109
-0.20502886
-0.02523086
-0.00109625
0.01246137
0.05942954
0.00845523
0.02798986
0.04273571
-0.01214467
0.09040392
0.00381701
-0.02738835
-0.03782298
-0.01277559
-0.04061480
-0.07610417
0.01800505
0.04783521
0.03866735
-0.00466158
0.00796687
-0.01363213
-0.01315289
-0.00834804
0.01680625
0.00228396
-0.07725994
0.01111859
0.01952504
-0.00897197
-0.02674809
0.01027743
0.03262864
0.00048386
0.02500482
-0.00884686
0.00011591
0.02863423
0.00092881
-0.00031760
0.04315959
0.05958569
0.01231811
0.00502915
0.01943645
0.03614821
-0.01993092
0.01823269
0.01702034
-0.04166792
-0.00625988
-0.02946222
-0.01906029
0.01952985
0.02214345
-0.02494678
-0.01192130
0.04198041
-0.03868460
-0.01665306
-0.02336121
0.01946005
0.00242270
-0.01108704
-0.01976343
0.00680088
-0.03465959
-0.04328851
0.02756825
-0.01193815
0.02614200
0.03402331
-0.02650619
-0.01285120
0.04055983
-0.00131365
0.00853454
0.05708173
0.02454119
-0.00234732
-0.01325862
