-0.08338893
-0.18514648
-0.03194978
0.03404775
0.09349777
-0.28437278
-0.00034908
0.01607319
0.24286197
-0.41035780
-0.22103475
0.15643953
-0.30846348
0.07086202
0.19166213
-0.08988670
0.17082985
-0.18792537
-0.07111242
-0.50469011
-0.13055818
-0.09174352
-0.14918320
-0.16540630
-0.09639306
-0.35032329
-0.19586797
-0.23735994
-0.15526775
-0.14459845
-0.07355678
0.22500077
-0.60202599
-0.12914839
-0.24417245
-0.06554966
-0.16970377
-0.35789526
-0.15270670
0.23374003
0.06038092
-0.01044810
0.02740509
-0.31508401
-0.43554050
-0.18795466
-0.23430806
-0.11494159
-0.26289621
0.13395488
-0.07516814
0.05458142
0.06267510
-0.10637892
-0.07538703
0.07138051
-0.08059955
-0.79853642
-0.30439514
-0.09258923
-0.14146641
0.03595151
-0.12363578
-0.84857333
-0.17960916
0.02564238
-0.23209636
-0.23715580
-0.00037893
-0.55018789
0.20412962
-0.26936716
0.04911867
-0.03328298
0.18698056
0.16970180
-0.08453001
-0.32091644
-0.05569066
-0.06331220
-0.35629332
0.07507264
-0.07442669
-0.06245906
0.17212841
-0.15079536
0.10462390
0.00199507
-0.09407227
-0.23536897
-0.26783314
-0.00802002
-0.29059315
0.06911638
-0.08493991
-0.02306596
-0.00798154
-0.40746149
0.27921960
-0.13726103
-0.09179889
-0.34595698
0.17274648
-0.16495274
-0.35086334
0.17195389
-0.01195664
-0.08908374
-0.22497693
0.04554303
-0.61629057
-0.01347881
-0.23190127
0.06016372
-0.04214376
-0.65646052
0.07323647
-0.12205423
-0.29820213
0.05845645
-0.16865402
-0.01900666
-0.05539114
0.22726837
-0.36330494
-0.18182044
-0.14840767
0.37113690
-0.10187921
-0.44890368
0.15786469
-0.05475090
-0.05457057
0.14295965
-0.09834199
0.07125895
-0.23974814
-0.12369246
-0.03980405
-0.22512431
-0.06184449
-1.07853627
0.17884843
-0.21503793
0.14120805
0.24221057
0.15009622
-0.04214739
0.08604094
-0.11469891
-0.07859808
-0.27848029
0.25293139
-0.03023938
0.00604049
-0.15673929
-0.08300184
-0.08978424
-0.04062651
0.02829930
0.00837698
-0.24659155
-0.04434587
0.11440698
-0.23999253
-0.48925933
-0.10982411
-0.12093208
-0.57816136
-0.08596177
0.07829264
-0.02104144
0.30302787
0.17576268
-0.08631588
0.06405161
0.06722524
0.14364570
-0.45560306
-0.06865077
-0.00564294
0.32685968
0.10874477
0.17778510
-0.06831970
0.02173955
-0.00834796
-0.23962463
0.04903629
0.10849223
-0.15532269
0.10089324
-0.08143277
-0.15800507
-0.33030170
0.04272303
-0.24033856
-0.21233821
-0.06956429
0.03019146
-0.09015603
-0.29556006
-0.04678374
-0.49545556
0.21567446
-0.31588402
0.02646551
-0.06580574
-0.18651232
0.03067906
-0.01989231
-0.52419585
-0.09051597
-0.03418277
-0.03059919
-0.12885880
-0.01342229
-0.11882594
-0.12477830
0.18156587
-0.49758804
0.01607432
-0.03539737
0.02894638
0.03158758
-0.21535978
-0.34075516
-0.09539000
-0.18793850
-0.08330411
0.14830659
-0.17157689
-0.16881391
-0.20127168
-0.03578255
0.05357712
-0.11501792
-0.02973679
-0.23035747
-0.42936054
-0.29991332
-0.29841444
-0.27736798
0.00656876
-0.59848922
-0.22632951
-0.17033027
0.09984067
-0.06745294
-0.25038314
-0.18184964
-0.07054720
0.12461260
-0.05725604
-0.62634784
-0.46384123
-0.65060806
-0.29162109
-0.01512206
-0.04802392
-0.15072799
0.12436329
-0.02218505
0.07068164
0.03006362
0.21283814
-0.04917999
-0.78209931
-0.30982110
-0.00875139
-0.23499629
-0.02628573
-0.10008203
-0.03801804
0.02023571
-0.01316290
-0.03197586
-0.12400791
-0.46471280
-0.11046924
-0.27218708
-0.02646786
-0.17829701
-0.03977709
-0.83741879
-0.20445313
-0.10573901
0.18650176
-0.05359546
-0.12699938
0.04233301
-0.17149249
0.03097762
-0.40033010
0.01241334
-0.33234930
-0.51427203
0.02111737
0.00660745
-0.17477734
0.07235584
-0.33809236
-0.08003430
-0.57259995
-0.19144708
-0.00743723
0.11805550
-0.23455067
-0.08248755
0.04771363
0.06671494
-0.18269984
-0.25655261
-0.39531139
-0.05567488
-0.33646727
-0.05366753
-0.07705569
0.07742193
-0.15784277
-0.22813588
-0.26291806
-0.32317960
-0.16911140
-0.02667886
0.04921974
-0.09028047
-0.08166678
-0.49576807
-0.43654883
-0.39666396
-0.13990211
0.13328531
-0.11407759
-0.04706142
-0.06679218
0.05510540
-0.60862929
-0.28801543
-0.06265752
0.14282916
-0.36493245
-0.31258363
0.00633993
0.01338449
-0.16377158
0.11054801
-0.11307511
-0.15009309
-0.27056050
-0.41289359
0.11995403
-0.04825657
0.06311776
-0.86887598
-0.16831617
-0.13110574
-0.65724200
-0.68839127
-0.40749538
0.00282897
-0.20429152
-0.12389373
-0.01498671
0.12443342
-0.15045016
-0.71596658
-0.04590136
0.12447284
-0.02071819
-0.10324530
-0.12518951
0.12366702
-0.07930459
-0.53189862
0.08091790
-0.12943608
-0.24220002
-0.00067744
0.02575009
0.15768170
-0.19073330
-0.61811906
0.23369363
-0.27648124
-0.09034865
0.14627452
-0.26407936
-0.06503093
-0.02778882
0.13967231
0.03398686
-0.03713870
0.00540473
-0.41565055
0.11742299
0.00567127
0.03705515
-0.00413322
-0.13159110
-0.18190816
-0.13907738
-0.59721911
0.01739224
-0.04532743
-0.45699403
-0.26821652
-0.19990216
-0.21454401
-0.08575558
-0.37175527
-0.08070350
-0.06079277
-0.02285761
0.11143459
-0.00144122
-0.49162239
-0.07537473
-0.62011039
0.00985071
-0.02732739
0.00817775
-0.16303347
0.07514509
-1.02244031
0.03902154
-0.08280680
-0.01647869
-0.54561853
-0.07412800
0.04395651
-0.07587940
-0.08145484
-0.21961670
-0.01823394
-0.08388041
0.01725619
-0.35185504
0.07735303
-0.05760111
-0.16508353
-0.40384358
0.17576136
-0.23861548
0.00830254
-0.18233158
-0.02511944
0.08967901
-0.49252585
0.11591715
-0.19718736
-0.06630336
-0.19502974
-0.22818324
-0.07820442
-0.46088582
-0.95723754
0.17559390
-0.02454511
-0.19770490
-0.10546241
0.09124675
-0.30773106
0.00361896
-0.12235138
-0.24184375
0.00037588
-0.17471851
-0.44919562
0.03832189
-0.13541733
-0.00739683
-0.31305945
-0.08571357
-0.20521173
-0.69566268
-0.49280858
-0.19118509
-0.59580261
-0.42336556
-0.14081697
0.09992463
-0.05762916
0.00274698
-0.15341036
0.09743018
0.03798000
-0.11308057
-0.14779936
-0.07672006
-0.38175866
0.24018164
0.04178137
-0.22404230
0.04631986
-0.29762304
-0.30215529
-0.13178317
-0.03848261
-0.26866233
0.14106287
0.19989336
-0.12849702
-1.12108886
-0.00789630
-0.07717717
-0.28015319
0.16417257
0.04450001
-0.02967015
-0.25140101
0.08213905
