-0.08714093
-0.18569574
-0.03249221
0.02948016
0.09862544
-0.28842324
0.00114376
0.01507908
0.24312440
-0.40683588
-0.21280783
0.16000591
-0.31035423
0.07547778
0.19078477
-0.09345454
0.17620328
-0.19030866
-0.07527290
-0.50554162
-0.13104290
-0.09084316
-0.15081809
-0.16036116
-0.09516886
-0.35152668
-0.19288929
-0.24195354
-0.16062580
-0.13827385
-0.07359920
0.22146137
-0.61042058
-0.12794192
-0.24949266
-0.07311604
-0.16568413
-0.35853261
-0.15369812
0.23346286
0.06522834
-0.01877442
0.02703904
-0.31102380
-0.43441203
-0.18761690
-0.23795673
-0.11778177
-0.25845736
0.14082770
-0.07137377
0.05695983
0.07409915
-0.10599577
-0.08056183
0.07675610
-0.08109270
-0.80124366
-0.30081946
-0.09154540
-0.14110364
0.03511493
-0.12654141
-0.84717733
-0.18013258
0.02481592
-0.23801865
-0.23158203
-0.00322214
-0.55078906
0.20311785
-0.27230233
0.04960033
-0.03921626
0.18582544
0.16832915
-0.07751696
-0.32470956
-0.05677007
-0.06528230
-0.35650772
0.07846417
-0.07106443
-0.06475197
0.17657541
-0.15009180
0.10967622
0.00416580
-0.08786994
-0.22579925
-0.27134576
-0.00740023
-0.28615472
0.07352318
-0.08778683
-0.01877988
-0.01037614
-0.40737700
0.27702817
-0.14265545
-0.10239498
-0.34165666
0.17274022
-0.15476897
-0.34441805
0.16947831
-0.00987214
-0.09325530
-0.23264970
0.04163828
-0.61376035
-0.01450796
-0.23211695
0.06195724
-0.04305603
-0.65316331
0.07331534
-0.12270431
-0.30465335
0.05711814
-0.16892017
-0.02166225
-0.05600343
0.22712055
-0.36278704
-0.17906198
-0.14324769
0.36957029
-0.10917578
-0.45024115
0.16253838
-0.05842638
-0.05625880
0.14423153
-0.09775843
0.07746258
-0.23592734
-0.12246103
-0.04119649
-0.22691742
-0.06753840
-1.06908536
0.18492974
-0.21074826
0.14297432
0.24464475
0.14786389
-0.04426757
0.08286745
-0.11175389
-0.07477443
-0.28027171
0.25347552
-0.03298654
0.00063560
-0.15944326
-0.09002621
-0.09025737
-0.03738042
0.02325574
0.00636489
-0.24827774
-0.04377531
0.12070856
-0.24337241
-0.48606285
-0.11025810
-0.12183324
-0.57951874
-0.08323143
0.08097430
-0.02626386
0.30571690
0.17872924
-0.08745866
0.06144747
0.06948037
0.14028266
-0.45990556
-0.06688579
-0.01400673
0.33387145
0.11068791
0.17360461
-0.06533670
0.01909487
-0.00630753
-0.24531062
0.04865961
0.10973694
-0.15402152
0.10348257
-0.08051716
-0.15916644
-0.33647904
0.03933026
-0.23475574
-0.20595556
-0.06635035
0.02956141
-0.09590551
-0.30094391
-0.05074121
-0.50686193
0.22133416
-0.31671089
0.02557402
-0.06541759
-0.18422617
0.02582937
-0.01664880
-0.53111225
-0.09452460
-0.03511803
-0.02983987
-0.12529206
-0.01159002
-0.12764922
-0.13452415
0.18106067
-0.49539444
0.01533138
-0.03904655
0.02585484
0.02708174
-0.21739110
-0.34094867
-0.09646031
-0.18906178
-0.08515147
0.14910525
-0.18173476
-0.16889586
-0.19719453
-0.03333870
0.04962339
-0.10989805
-0.03145169
-0.22674991
-0.43143040
-0.29814711
-0.29414010
-0.27710596
0.00142685
-0.59899253
-0.23301795
-0.16729167
0.09887463
-0.07013068
-0.25330019
-0.18018574
-0.07196733
0.11903055
-0.05517505
-0.62317508
-0.46394768
-0.64790857
-0.29875004
-0.01271606
-0.04339693
-0.15122570
0.11736114
-0.01996250
0.07877629
0.03263377
0.21156593
-0.04667122
-0.78366011
-0.30385777
-0.00802515
-0.23015785
-0.02423017
-0.10322154
-0.04490365
0.02207429
-0.00937724
-0.03381698
-0.13234490
-0.46551999
-0.10604578
-0.27047694
-0.02588493
-0.17495872
-0.03993778
-0.84523100
-0.20261711
-0.10692969
0.18785118
-0.05008370
-0.12351192
0.04276657
-0.17162618
0.03452067
-0.39887384
0.00946586
-0.32962355
-0.51969022
0.02425740
0.00707856
-0.17670596
0.06858909
-0.33801991
-0.07129009
-0.57097059
-0.19837047
-0.00558887
0.11559512
-0.22757047
-0.07489718
0.04351623
0.06043136
-0.18715277
-0.25428629
-0.39786452
-0.05335904
-0.33085126
-0.05442692
-0.07895901
0.08212077
-0.15855777
-0.22803760
-0.26459289
-0.32538974
-0.16894503
-0.02368096
0.05382476
-0.08396520
-0.07676601
-0.49767539
-0.43350920
-0.39274600
-0.13858552
0.13486604
-0.11153047
-0.04426984
-0.06615924
0.04899208
-0.60726303
-0.28759286
-0.05744595
0.14505565
-0.36613348
-0.30901009
0.01217419
0.01848779
-0.16260490
0.10619754
-0.10877998
-0.14858210
-0.26590991
-0.40376499
0.11842304
-0.05375234
0.06907741
-0.87562937
-0.16714801
-0.13921735
-0.65441048
-0.68775696
-0.40687972
-0.00109274
-0.20712909
-0.12397614
-0.01779735
0.13006239
-0.14255105
-0.71317798
-0.04408413
0.12944566
-0.01866734
-0.10739917
-0.12838507
0.12377229
-0.08038235
-0.53121150
0.07803890
-0.13063560
-0.23996764
0.00421079
0.02823860
0.16267507
-0.18997514
-0.62480450
0.23798919
-0.26827371
-0.10246273
0.14821452
-0.26599523
-0.06066491
-0.02745407
0.13945924
0.03218599
-0.04111211
0.00149367
-0.41469935
0.11346047
0.01108734
0.03722033
-0.00276219
-0.12410066
-0.18232119
-0.13696115
-0.59540284
0.01756325
-0.03959125
-0.45632070
-0.27502149
-0.20612147
-0.21950880
-0.08539833
-0.36977932
-0.08122861
-0.06367794
-0.01798365
0.11305218
0.00253613
-0.49199924
-0.07473308
-0.61860532
0.00585814
-0.03005494
0.00450489
-0.15913577
0.07318193
-1.02712584
0.04299639
-0.08253612
-0.01814799
-0.54888421
-0.07943535
0.03803150
-0.07870077
-0.08349426
-0.22082871
-0.01445138
-0.07879243
0.02082316
-0.35980585
0.08118819
-0.05579494
-0.15545855
-0.40263402
0.17530270
-0.23087394
0.01553209
-0.18690243
-0.02511716
0.09170154
-0.49074376
0.11707272
-0.19506417
-0.06991768
-0.19276597
-0.23352522
-0.08251859
-0.45509344
-0.96783072
0.17140938
-0.02993508
-0.19308855
-0.10217564
0.09341999
-0.30842304
0.00256166
-0.12833296
-0.23289521
0.00172077
-0.17711659
-0.44916838
0.03975222
-0.13316265
-0.00050124
-0.31568924
-0.08611090
-0.20401266
-0.69751471
-0.49333581
-0.20035587
-0.59729737
-0.42759356
-0.14109273
0.10140619
-0.05962187
0.00240013
-0.15489414
0.09535263
0.02600291
-0.11558124
-0.14273249
-0.08138828
-0.38088280
0.23980877
0.03582353
-0.22107059
0.04765784
-0.30568197
-0.30238920
-0.13329348
-0.03129388
-0.27545935
0.13702615
0.20574279
-0.12198813
-1.12156129
-0.00760254
-0.07586437
-0.28012484
0.16343199
0.04696184
-0.02999424
-0.25343513
0.07886729
