0.00422793,0.03603818,0.01143501,-0.02920258,-0.01022241,-0.04366857,0.05246565,0.00537981,-0.01370486,-0.02007042,-0.00677229,-0.00724025,-0.02225073,-0.00263111,0.00408308,-0.01709471,0.03239832,-0.03473976,-0.00081417,-0.03163141,-0.01829215,-0.01832169,-0.00381570,0.00123761,0.00961293,0.00107718,-0.02376371,0.01036762,-0.00078823,0.02896756,-0.01699486,0.00745673,0.03577946,0.02589787,0.00629398,0.00729754,0.00623106,0.00530827,0.02115434,0.00973540,0.00615135,0.02643620,-0.00304534,-0.00942875,0.00490744,-0.00254971,0.01083551,0.02484452,-0.00860872,0.02333338,0.00305441,-0.03195902,0.02202119,-0.01323811,0.00747146,-0.05546321,-0.01265279,0.02435692,-0.02480793,0.01152606,-0.00245896,0.00803152,0.00094000,-0.00125214,0.03227351,0.00604257,-0.00507809,0.00353489,-0.00980917,-0.02221417,-0.00358923,0.01935220,0.00793420,-0.00715053,0.01719988,0.00403899,-0.01714001,0.02222039,0.00527485,-0.03918067,-0.01284075,-0.01753898,0.03681663,0.00165953,0.01338135,0.01290869,-0.00534745,-0.02013922,0.01278496,0.01947476,0.01143707,-0.01969821,0.01725269,0.00708079,0.01291366,0.00553549,0.00805700,0.01188291,-0.00582471,0.02651912,-0.01429116,0.01078678,-0.01267377,-0.00215110,0.00447733,-0.02308355,-0.01537460,-0.00195580,0.00250577,0.01570338,0.01552745,0.00345303,0.01348334,0.03506195,0.02652190,-0.00371962,0.00761534,0.02104958,-0.01443616,-0.00086996,-0.05104369,0.03018540,0.00809344,-0.01314659,-0.01302317,0.01494111,-0.02409418,0.01909011
-0.02997889,0.00545228,-0.00469979,0.02743402,0.01398918,-0.00227277,0.00176352,-0.03983701,-0.00159910,0.00818533,-0.02197534,0.02288022,0.02809702,0.01573519,0.01526230,0.00784439,-0.00443812,0.00883083,-0.05439795,-0.01484991,-0.00204696,-0.03615630,-0.01502449,-0.00474502,0.01220093,-0.00295984,0.03844438,-0.01614363,0.00730559,0.02906844,-0.01166811,0.00505599,0.00175889,0.03381121,0.00994240,-0.00821030,-0.01234904,0.03440007,0.00706276,-0.01314254,-0.02126597,-0.01492491,-0.01874197,-0.00870470,-0.00974422,-0.00971653,0.00569350,-0.00293081,0.00374478,0.01958515,-0.00014048,-0.02977769,0.00253491,0.00391082,-0.04825106,0.01143965,0.01207484,0.01053186,0.01332232,0.01248806,0.00825250,0.02904984,-0.01715948,0.01997637,-0.00666661,-0.00054955,0.04703566,0.01415714,-0.00158082,-0.03712856,0.01409899,0.01731688,0.01469196,-0.03842258,-0.02187278,0.02246412,-0.04034656,-0.00063131,0.02052775,-0.00843169,-0.04650225,-0.02819731,-0.01049685,0.00550943,0.02383717,-0.00239349,0.01805608,-0.00668300,0.00466863,0.03048856,0.00363624,0.00763196,-0.05428077,0.00991007,-0.00307361,0.00176921,-0.01545884,0.01555580,0.00318721,0.00972431,0.02082556,0.02919000,-0.00226515,0.00683207,-0.00357553,-0.03933772,0.01703653,0.00363360,-0.03892974,0.02294467,-0.00217462,0.02613574,-0.00123871,-0.01196251,0.01334052,-0.02708122,0.00516833,-0.00616866,0.02213719,-0.03794380,-0.04120680,-0.02753294,0.00209913,0.02728690,0.02529383,0.00826274,0.02489445,-0.04304563
