0.10347087
-0.07747250
-0.43991202
0.36671028
-0.04387228
-0.01821637
0.00020424
0.00666931
0.04664961
-0.05144991
-0.03870622
0.06610247
-0.08992449
0.37755537
0.02910636
0.06350836
0.04743043
0.16650243
0.14822811
-0.01747869
0.04515881
-0.04962448
0.18399149
-0.31841350
-0.22199354
-0.00169180
-0.05707049
-0.08853969
-0.04461576
0.08220542
0.06115862
0.01723651
-0.25332823
0.13641740
-0.06671356
-0.11045493
-0.11884134
0.08298074
-0.06338302
-0.04460479
-0.06244874
0.00416317
-0.21889415
0.16460146
-0.04711087
0.00068651
-0.04928652
-0.10232280
0.05088321
0.02064228
-0.03430320
-0.23551567
0.07173171
-0.09301472
-0.01475711
0.04051919
0.02453874
0.01595708
-0.10165196
-0.10789929
-0.04977029
0.18901943
0.14133035
-0.03979870
0.14089596
0.00016071
0.06697024
0.06656425
0.16447702
-0.02319060
-0.09919713
-0.07919153
0.02699043
0.50015223
0.04492410
-0.04122579
0.13086259
0.03426964
-0.19889633
-0.23537411
0.10564607
-0.05345542
-0.03198949
0.10188521
-0.09552542
0.05237002
0.07353032
-0.04213944
0.11623989
-0.06501985
-0.20683867
0.03778834
-0.11919856
-0.06695954
-0.02338163
-0.10520688
-0.09959234
0.11677339
-0.05778100
0.19306748
0.22424509
-0.04797976
0.05828594
-0.01684747
0.01523607
0.11873589
0.14328186
-0.13003451
-0.11318472
-0.12671375
-0.01956336
-0.01946001
-0.09447374
0.03844004
0.06172371
-0.04761787
0.18739687
0.11447653
0.02557262
-0.14009310
-0.07692906
-0.12496376
-0.01429724
-0.01707944
0.02917755
0.06097076
-0.04739590
0.08059663
