-0.06258188
0.00513678
-0.04675736
-0.25649256
0.19483477
-0.21635854
0.11201663
0.02809546
-0.24213137
-0.36289284
0.57124126
0.11844943
-0.16884363
-0.05461100
0.64739388
-0.10554810
-0.05523012
-0.09655703
-0.45625979
-0.03440826
0.41844967
0.47152105
0.64075494
0.21164416
0.66567689
-0.21369334
0.07458882
0.44365424
0.05596923
-0.26905176
-0.06768508
-0.29968047
-0.21250840
0.17371824
0.35904536
-0.03191542
-0.17120703
0.39318210
-1.02836990
-0.24418940
-0.09599940
0.06728859
0.04482479
-0.39365536
0.41213948
-1.15457094
0.08835935
0.06835010
0.32616645
0.06188097
0.33664364
0.46893308
0.33925474
0.25026783
-0.28651926
-0.07474259
0.09264910
-0.02022405
0.28906485
0.66204703
0.33186105
-0.09542051
0.02415627
-0.33883110
-0.03509937
0.32449639
-0.45885193
-0.02821659
-0.25712270
-0.30462208
-0.37124711
-0.06916524
0.16917461
0.38452098
-0.40651578
-0.07555447
0.31936944
0.14684322
0.50493920
0.25261071
0.14192350
-0.04306983
0.09973462
0.05384804
0.13383459
0.01533589
-0.28199252
-0.10495370
0.48463055
-0.37808111
0.64718723
-0.23597756
-0.55926079
0.82552332
-0.15048198
0.59796649
0.26651856
0.21233550
0.15177949
0.43642473
0.09435810
0.01286454
-0.07139646
-0.62394816
0.22207724
-0.60705531
-0.28376448
0.38045970
0.02977172
-0.02888607
-0.05368379
0.22327174
0.97780544
-0.37914908
-0.16721782
0.04953541
-0.18525739
0.15835667
-0.26590705
0.02408854
0.33737135
0.98151422
0.80863619
-0.20132914
-0.48383841
-0.21812780
-0.56481606
0.78723294
