0.00525738,-0.01510364,-0.08368383,0.06629031,0.27723375,0.13375935,0.12382915,-0.29561198,-0.13053899,-0.01708057,0.27394003,-0.08921009,0.32739785,-0.07544926,0.05046062,0.14703694,0.26182720,0.06331946,0.02247133,-0.10543555,0.11411959,0.23812781,0.17522337,0.05604958,0.07012230,-0.35380444,0.02441192,-0.12758859,-0.35296044,0.13441706,-0.53251147,-0.13700476,0.00666287,0.10616990,-0.24076694,-0.13390295,0.01860343,0.15630507,0.06361988,0.14492302,-0.23351482,0.14433832,0.10331632,-0.15295917,-0.24506460,0.02961964,0.05361731,-0.01437593,-0.18696770,-0.17784877,-0.05417253,0.14333916,-0.22077046,-0.25397432,-0.02497077,0.08311170,-0.12364516,-0.13878709,-0.09423144,-0.29521301,-0.04484429,0.27296004,0.32262111,-0.23624876,-0.19192873,-0.11744201,0.03680111,-0.25384578,-0.05617240,-0.00569872,-0.12464411,-0.07308621,0.10474651,-0.12955555,-0.13412799,0.09894694,0.23408817,-0.00869610,-0.01249017,0.11520057,-0.04528258,-0.13486578,-0.21102378,-0.04470272,-0.12912923,0.31624112,-0.09018099,0.03470587,0.20235875,-0.02878329,-0.15741733,-0.11958837,-0.05128379,0.06675188,0.00692074,0.13063259,0.13271908,-0.03646699,0.12183324,0.00113816,0.02652242,-0.03231376,-0.03640601,0.21208785,-0.18947804,0.19492197,-0.04297284,-0.06999422,-0.06322910,0.06071061,0.12576623,0.06479707,0.08338689,0.13842422,-0.10035184,0.32877466,-0.34669685,-0.05296530,0.10858590,-0.24285917,0.17264399,-0.30707657,0.15375327,-0.00974677,-0.02427251,0.12330845,0.11598616,0.08570226
-0.11872510,0.20246822,0.04409769,0.03278588,0.14717858,-0.08569200,0.34258017,0.03507305,-0.07335787,0.14835469,-0.11430272,0.13826770,-0.25559697,-0.04355702,0.12120072,0.01274203,-0.10407046,0.02339289,0.12092961,-0.12324034,0.60838908,0.26850209,-0.13242020,0.18479560,-0.03183511,0.26047638,-0.27817917,-0.19397379,-0.17668004,0.03160954,0.29104435,-0.00543084,-0.12428661,-0.23286688,-0.03578311,0.13716657,-0.12324763,0.08805883,-0.16471761,-0.04053718,0.04706324,-0.15818213,0.10942953,-0.09280217,-0.12756981,-0.09570603,0.11553485,0.03406451,-0.13041802,0.00650359,0.19337213,-0.09046065,-0.20362553,0.31489903,-0.01766953,-0.03343471,0.27709785,-0.04758314,-0.16331433,-0.10926309,0.32618338,-0.13793604,0.02287796,0.19047949,0.00756027,0.19892800,-0.10266905,0.01378317,-0.06081772,-0.21593402,-0.08399937,0.09614936,-0.00430440,-0.15587401,0.03417409,-0.01357777,0.05683448,-0.14584902,0.14149402,-0.00286081,-0.05714788,0.00252624,0.03692817,-0.07954968,0.00684797,0.02904261,0.00916449,-0.47869873,0.14165232,0.13483787,-0.00748576,0.09305070,-0.20874846,0.05904143,-0.04929579,-0.12755607,-0.09264703,0.05112673,-0.06055562,0.11086485,0.17677893,-0.00555219,-0.19921175,0.01361818,-0.07439879,0.03833126,0.49832752,-0.40653777,0.12073322,0.22494540,0.06157650,-0.07378891,0.10372523,0.06869401,-0.02665496,0.10616818,-0.08563328,0.19122873,0.16330419,0.07480980,-0.09712972,-0.05841588,0.17287886,0.15646979,-0.06129589,0.00091309,-0.09504436,-0.04673646
-0.25798795,-0.32397687,-0.14395373,-0.22853370,0.04301460,0.05377634,0.23337096,0.10136380,0.01859891,-0.32056925,-0.06987285,-0.07845923,0.10171968,-0.15381052,0.30393648,0.22239886,-0.04005427,-0.11162549,-0.19634777,0.07190197,-0.01065729,0.13520424,-0.11949216,-0.04257499,0.26454812,-0.08174317,0.20122394,0.10072697,0.03014407,-0.07422791,0.03609210,-0.10867523,-0.06251939,-0.00439993,0.15008390,0.13733986,0.16742590,0.03392428,-0.31390017,-0.25119415,0.26303548,0.11018403,0.27453238,-0.35061145,0.04693799,0.45838666,0.21359710,0.12407839,0.32158208,0.17789565,-0.12879181,-0.21936241,-0.05579359,0.14936081,0.11531889,0.05567346,-0.15174378,0.01402641,0.05625163,0.01256296,0.10388377,-0.42326313,-0.13795735,-0.03455829,-0.03847764,-0.17107974,0.00605743,0.04154690,-0.25831425,-0.02082655,0.06212194,-0.13466397,0.36720732,-0.33489573,0.01342497,0.07188258,-0.11600846,0.09641845,-0.25113878,-0.19300039,0.10340924,0.15453397,0.05313225,-0.10201916,-0.05915217,-0.01422111,0.14384586,-0.22526406,-0.06625809,-0.06452700,-0.15600310,0.18353078,0.10079078,0.18627067,0.08164801,0.18488009,0.13307002,0.10390835,0.17644924,0.10767841,0.15067722,-0.44723710,-0.05984743,-0.05291216,0.01996419,-0.09727342,-0.16449711,-0.16738266,-0.03223990,-0.07640369,0.19194032,0.01019962,0.20509367,-0.03169473,0.12689401,-0.22262368,0.03649851,0.11414458,-0.05314505,0.16630411,-0.02163175,0.16675243,0.25041011,-0.14604965,-0.00894428,0.33371773,0.03234374,-0.18923813
-0.01635291,0.09057506,0.03627090,-0.01960763,-0.02520451,-0.05726479,0.13039716,0.09550234,0.01671190,0.06518485,-0.05703478,0.01684892,0.11484671,0.02663306,0.02783044,0.05954968,0.04607229,0.02820749,-0.03356661,-0.04541325,-0.03676639,0.05199528,-0.01245131,0.06050192,-0.03670177,0.01232906,0.06042755,0.09836901,-0.03029191,0.02813070,-0.06620263,-0.03996961,-0.01586065,0.05211714,-0.03177454,0.03170670,0.09217730,0.02809977,0.08293182,0.05639973,0.11288013,-0.05089273,0.06786641,-0.01084333,-0.09439506,-0.00503384,0.01630089,-0.01854203,-0.09521781,0.00016671,-0.00171608,-0.00224564,-0.00867630,-0.04359340,0.03216124,-0.02504904,0.05002500,0.04170210,-0.09905867,0.04505736,0.03377559,-0.00391966,-0.03482457,0.00922639,0.02839859,0.09055072,-0.03103914,0.02282266,0.01488355,-0.05611001,0.03291992,0.07108358,0.13895750,-0.05428628,0.01064861,0.06322362,-0.01289405,0.07657220,0.08994886,-0.04195848,0.01719964,-0.06963459,-0.04243143,0.02423224,-0.03927517,0.05213460,-0.13415658,0.10269375,0.04712933,-0.00206114,0.06513540,-0.04680989,0.01805376,-0.07300963,0.02392726,0.02517054,0.10774870,-0.06116767,0.04056242,0.03289297,0.01617015,0.03200680,0.07564630,-0.02446623,-0.07896514,-0.12833995,0.07406490,0.06965958,-0.04453671,0.04114830,0.13668321,0.01959658,-0.08618173,0.01373123,-0.02748361,-0.03801742,-0.03018168,0.07001460,0.09693040,0.03145295,-0.03929564,-0.02600933,-0.05791662,0.00348378,0.01188990,0.10018687,-0.00755104,0.03022454
0.14385647,0.09575514,-0.01164598,-0.26427808,-0.28282019,-0.01003869,-0.15032218,-0.01273603,-0.09894960,0.16918811,-0.27212700,0.18006489,0.17189910,0.06174267,-0.20877133,0.01508635,0.32862759,0.03363544,-0.05034019,-0.31307819,-0.02543285,0.18295147,-0.14738366,0.00629658,-0.03628718,0.09524336,0.14408453,0.01506075,0.07820012,0.03200812,-0.07464524,0.20721731,0.00058051,0.38237998,0.40209863,-0.06612376,-0.29470807,0.02195586,-0.09322910,0.13564931,-0.27788544,0.04571116,0.05633076,-0.07851078,0.10331003,0.01558280,-0.11125053,0.12453685,-0.05576471,-0.03863323,0.03364531,-0.05817490,-0.24516843,-0.03223608,0.07905206,-0.15262465,-0.05012975,-0.12319442,0.29945728,0.04795462,-0.10518591,-0.18094586,0.03582513,-0.03459097,-0.07103129,0.01036205,0.09911355,0.07019977,0.04616752,0.11577164,0.06781980,0.19884205,0.29391408,-0.22596976,-0.02607361,0.06836528,0.10981225,-0.00912014,-0.10564192,-0.17706880,-0.00280138,-0.24134265,0.03299905,-0.09381987,0.24905029,0.01635547,-0.25265071,0.05718130,-0.13864021,0.20689258,0.23726155,0.15481426,0.22114454,-0.05731227,0.10061330,-0.10656622,-0.07964676,0.31782934,0.03261264,-0.14241463,0.01472333,0.09526744,-0.12834843,0.25701994,-0.11259757,-0.05418998,-0.03250127,0.08945531,0.11562048,0.17657433,0.02399055,0.01720575,-0.05317611,-0.17438281,-0.07996903,-0.22138582,0.04899357,0.01715700,-0.19619176,0.12629339,0.01165000,0.02556755,-0.13571772,0.37957653,0.03296378,-0.08669721,0.11856406,0.20030969
-0.02190242,-0.17094570,0.38217756,-0.03268175,-0.00886805,0.15122956,-0.06572308,-0.04260048,-0.01795116,-0.13374473,0.34227735,0.02667565,0.17957279,-0.02908346,0.04345454,0.02802734,-0.12288199,0.11980470,-0.09762929,0.02949863,-0.06880971,-0.08607502,0.09614487,-0.05643098,-0.10520372,-0.13884212,0.23003563,0.07162273,0.01485666,0.13900918,0.03691268,0.17362744,-0.29813954,-0.26463789,-0.04110461,0.08103684,-0.07756426,0.26196766,-0.00493522,-0.01698023,-0.09168690,-0.07005589,-0.26338768,0.02875692,0.06677393,-0.01004464,0.05965348,-0.04759376,-0.20443071,-0.14594623,0.24672201,-0.15098068,0.05337721,-0.22990555,0.14634559,0.00581873,0.05650702,-0.01224945,0.02160258,-0.22100301,0.23221694,-0.10528500,-0.06029228,0.12205458,-0.18998544,0.10919100,-0.11325164,0.00343378,0.04845586,-0.19338499,0.04176262,0.17038782,-0.21925087,-0.16747832,0.15456428,-0.06716927,-0.17308047,0.11993890,0.15751620,-0.09807752,-0.18672386,-0.07531863,-0.04581414,-0.11681074,0.10173860,-0.20301735,-0.27461842,0.07487419,-0.02119822,0.09685049,0.04252845,0.13437498,0.11677657,-0.04023722,0.01382723,-0.12772243,0.13215801,0.07138831,0.01783740,-0.16838865,0.14034589,-0.17878395,-0.03052981,0.13523641,0.07598112,-0.08703022,0.01957396,-0.04624402,-0.06527197,0.03827950,0.09341040,0.03204149,-0.02320077,0.08073312,0.11561772,0.05954413,0.21983810,0.00460175,-0.05915849,-0.08062351,0.14394730,0.14077024,-0.05927997,-0.08497459,0.25857499,-0.11584732,-0.00174896,-0.17389172
0.02962048,-0.23444089,-0.05254013,0.11287528,-0.08105431,-0.17858887,0.11407900,-0.22502138,0.11639936,-0.16494298,0.01056441,-0.06038842,-0.12483090,-0.07012113,-0.10064826,0.25047714,0.03276865,0.21300237,-0.00542999,-0.04846773,-0.09042493,-0.04191418,0.06353264,0.12492387,0.13646261,0.15704432,-0.04499118,0.11543369,0.00972513,0.06632589,0.02536644,-0.14256765,0.02469441,0.14123024,0.16836464,0.23913367,0.02013689,-0.01369976,-0.02623567,0.15069814,-0.03495302,-0.18721065,0.17908700,-0.13314991,0.07168242,0.07191867,0.01694600,-0.02058425,0.03092461,0.16457075,0.21236327,-0.02685389,-0.02851930,0.08493471,0.02802682,-0.17235966,0.06079603,-0.02688815,0.05059577,-0.11709622,0.03501653,0.06065926,0.00216179,-0.03237045,0.05603366,0.00865660,-0.05373741,-0.11256635,-0.01483072,0.19797733,0.03930017,0.11552672,-0.04926502,-0.16167273,-0.15942073,-0.04862953,-0.03810718,0.16134988,-0.19122234,0.00046187,-0.08709293,-0.04040925,-0.01924639,0.27212042,-0.13034788,-0.14380054,-0.05165577,0.03713475,0.14203948,0.01861383,0.02812435,0.13776989,-0.05000544,0.19195220,0.20372689,0.26160789,-0.19540086,-0.01302388,0.05574123,-0.08376916,-0.16099502,0.08422240,0.21379450,-0.16934139,-0.21950489,0.19498630,0.10446872,0.02135176,0.09415808,0.05983522,-0.01240592,-0.05298165,-0.22536553,-0.09632257,-0.04282391,-0.12520629,-0.06231884,0.08187377,0.09617646,-0.21988729,0.23943251,-0.01687577,-0.05352848,-0.06833017,0.13289440,-0.13078985,-0.04046353,-0.02410054
0.09786936,0.30062035,0.01907442,0.07580062,0.08934133,0.03942467,-0.12561664,-0.01226491,0.08535341,0.12204818,0.17327887,-0.02560314,-0.10113996,0.18645105,0.05256778,-0.05690454,0.19140767,0.09620791,-0.14512549,0.10186914,-0.19551115,0.12019668,0.02430604,0.03198629,0.02385203,0.09248072,0.05911037,0.18185133,0.10606542,-0.02692989,0.16019720,0.07886272,0.11612710,-0.07601433,0.06250060,-0.02172510,0.14080794,-0.25116807,-0.01051745,0.06829956,-0.14130525,0.31455943,0.03169550,-0.11429308,-0.14346977,-0.01321976,-0.02850639,0.03867877,0.01893051,-0.15054166,0.05263197,-0.05523705,-0.07280099,-0.08962542,-0.28570345,-0.07494670,-0.00003811,-0.32813713,-0.13049123,-0.17340723,-0.00973978,-0.12806079,-0.19800568,0.15952271,-0.01796702,-0.22841308,-0.22209102,-0.15127817,-0.16359681,-0.01432583,0.00168702,-0.03695131,-0.05820702,0.31668025,-0.31274992,0.09155035,0.01182041,-0.27530178,-0.05419866,0.02094794,-0.12212311,0.05822904,0.15368102,-0.12640822,-0.25948083,0.07411294,-0.21170200,0.06799298,-0.10378376,0.18975198,-0.09394101,-0.09960555,-0.03718501,0.03430752,-0.10552642,0.03163237,0.24611142,-0.00462547,0.11456653,-0.15395673,0.18090607,-0.04576810,-0.00251848,-0.04742627,-0.05186688,0.09343498,-0.18709747,-0.10184447,0.05877580,0.01337822,0.13498388,-0.19566692,-0.01835133,-0.32106224,-0.08455431,0.18672687,0.01341343,0.10429073,-0.23221983,-0.10942303,0.04083735,-0.01984200,0.14933012,0.19673997,-0.07045651,0.13921860,-0.05537675,-0.01553493
-0.23288463,0.05355425,-0.18995455,-0.09118146,-0.05839663,-0.18433334,-0.07450535,0.58140075,0.07645770,-0.11388479,-0.01847927,-0.16071910,-0.14728460,0.20883168,0.15913747,-0.10822964,-0.30128962,-0.23744759,-0.04559570,0.18001924,0.11861663,-0.26773933,-0.13287419,-0.09903053,-0.04135323,0.07868319,-0.03105038,0.04051788,0.10118916,0.35661882,0.41099256,-0.04777808,-0.09432747,0.19652489,-0.03769388,-0.00302567,-0.04812996,-0.09563968,0.23390390,-0.00846799,-0.15454125,0.01087517,-0.17002629,0.09841138,0.22674258,-0.01760145,0.17136635,0.06879832,0.12826063,-0.01014609,-0.11793751,-0.19478631,-0.14370494,0.22597057,0.23476379,-0.02843712,0.01221266,0.11957900,0.13280757,-0.35311100,0.05557492,0.02521587,-0.27674323,-0.21305041,0.10246986,-0.20946105,0.28812364,-0.00248704,-0.38958451,0.05968144,-0.05428429,0.03635032,-0.18157569,-0.01077024,-0.32078937,-0.00262563,0.20362307,0.05919502,-0.18006134,0.06848886,-0.09562290,-0.18820101,0.04760661,0.16941433,0.07665096,0.20399371,-0.01636989,0.02364779,0.12712735,0.07195231,0.19397435,0.19848314,0.03114088,-0.22977823,0.15898508,0.01531014,0.07450711,0.12421532,0.16466957,-0.22634326,0.02723022,-0.13528225,0.03229352,-0.12808706,-0.31915382,-0.10329917,-0.20162995,0.20959702,-0.09636537,0.10373717,-0.08861416,0.07524545,-0.05220162,0.06466821,0.23811284,0.21863626,-0.10781679,-0.05792933,-0.14712907,0.04010729,0.12893692,-0.05285208,0.19376479,0.16838539,0.17163566,-0.00762822,-0.09054841,-0.11073654
0.22889203,0.07933061,0.10253230,-0.07776035,0.00923834,-0.01483081,-0.13134445,-0.05567367,-0.23945947,0.19905077,0.27352455,0.29674619,0.00974504,0.05963682,-0.04643955,0.05217304,0.32433695,-0.11945792,0.09973872,-0.08934154,-0.14843932,-0.31141016,0.09046948,-0.09863678,-0.18995567,-0.33324811,-0.23082758,-0.05672161,-0.30487913,0.13980450,0.32242820,-0.31311232,0.33244133,-0.06389000,-0.02806873,-0.07500414,0.19470689,0.09385071,-0.18097761,-0.09949542,0.24984135,-0.26562995,-0.15537900,0.09567256,0.07920904,-0.07661293,0.04324313,0.29881078,0.10122227,-0.27554324,0.02478508,-0.01338212,0.03805594,0.07304907,0.05655274,-0.14068715,0.01211875,-0.30286676,0.03454063,-0.09499806,0.26750061,-0.34791827,-0.03115873,0.04119207,-0.10461652,-0.11416803,0.20429158,-0.02515664,0.01187589,0.02573892,0.01749616,-0.06784341,-0.20248254,-0.08765481,-0.01926279,0.07310614,0.18265635,0.02399170,0.01540415,0.04539281,0.20298097,-0.12397537,-0.05426153,-0.00553492,0.20455721,-0.38654020,0.13786753,0.11132778,-0.05861193,-0.19551665,-0.09950799,-0.06046599,0.08449566,-0.23601523,0.37545961,-0.03216253,0.11739368,0.07679486,-0.07222357,-0.22319572,-0.25068167,-0.18019357,0.03765112,0.07593569,0.08119252,-0.09369069,-0.01849146,0.21160196,-0.21955866,0.13118997,-0.01295056,-0.06118516,0.04805204,-0.01854344,0.28476650,-0.17984179,-0.16097964,0.26548213,0.12934844,-0.36776698,0.17552695,-0.02134428,0.25025567,-0.22093622,0.06270196,0.10598704,-0.03894332,0.11798474
-0.12566954,0.12221312,-0.11318029,-0.03463574,-0.11976249,-0.09960700,-0.08201908,0.11562919,-0.08504059,-0.11847700,-0.04178281,-0.07349136,-0.04722796,-0.07440878,0.01883210,-0.06495374,-0.11575632,0.06681557,0.09008469,-0.32851815,0.06831177,0.22113751,-0.00829314,-0.08727590,0.05748367,-0.10533696,-0.07711956,-0.06096126,0.14561297,-0.03962837,0.07283683,-0.01044901,0.19330733,0.24767905,0.01585794,0.07429400,0.08508232,0.18709309,-0.04921404,-0.07851777,0.09962762,0.01857203,0.17539304,0.20556040,0.21315727,0.08837453,-0.17602573,0.02445371,-0.03850099,0.03632397,0.10516828,0.05166236,0.01565617,-0.17561926,-0.09308528,-0.07350146,-0.20770949,-0.19058213,0.02631083,0.02319882,-0.03136552,0.06763866,-0.01050405,0.08171059,-0.10955498,-0.01933440,-0.02281220,-0.02107737,-0.03002403,0.07218035,0.03013529,-0.19260767,-0.48308372,0.00736399,0.04052617,0.01839690,-0.04506453,-0.08695029,0.15386036,0.16683398,-0.23901099,-0.02369212,0.01524409,-0.03029898,-0.28318086,0.04904956,-0.02299805,-0.01998080,-0.44876894,0.15640178,-0.26341394,-0.16886725,0.16181321,-0.42586842,0.14903742,0.05074760,0.04648490,-0.03944072,-0.15336362,0.16735414,0.21770690,-0.06615295,-0.21918064,-0.04987573,-0.14603138,-0.10143374,-0.12373631,-0.18459508,0.36269781,0.08340475,-0.13351740,0.02606094,-0.03624468,0.02950820,-0.04806068,0.12031575,0.05501652,-0.11120490,-0.08259878,0.12398302,0.05501790,0.02382185,-0.00990219,-0.16387793,0.14969668,-0.05563393,0.03191718,0.04429134
-0.08911553,0.00487300,-0.11010099,-0.01671515,0.11632304,0.07969200,0.16795711,0.04648210,-0.04414175,-0.10016736,0.07627614,0.03314881,0.16479839,-0.03431045,-0.13891096,0.01626247,0.05467978,0.02191838,-0.19106317,0.19320872,0.16586852,-0.04530583,0.11971333,-0.15157093,0.06642776,-0.13501240,-0.01949577,0.11174151,-0.13477379,0.08787036,-0.03497129,0.08872069,-0.16690934,-0.05831757,-0.11833623,0.02471631,0.11886542,-0.06304079,0.03111889,0.07127235,-0.19171977,-0.03096135,0.07629995,0.00309793,-0.02861445,-0.01477849,-0.14963011,0.02816578,-0.21796386,0.05089679,-0.00767982,0.12569049,0.28201169,0.12385127,0.08973329,0.29294381,0.12837102,-0.04375609,0.20602636,0.02401396,-0.02663910,-0.09580127,0.11631180,-0.11825671,0.00920412,-0.28381974,-0.18231533,0.03852423,-0.05923908,0.07172135,-0.18129928,0.11155067,-0.01183685,0.12639533,0.02443059,-0.06033610,-0.15283310,-0.17752376,-0.08382121,0.04521438,0.02992543,0.06722496,-0.28606007,0.03850820,0.13334307,-0.11745221,0.26761156,0.07957045,0.18036716,-0.10395910,-0.08914141,-0.02578235,0.05664318,-0.09237622,0.23689851,0.07302909,-0.08032843,0.10122790,0.14566216,0.13006316,-0.09556478,0.07183421,-0.05986849,-0.01140155,-0.10205052,-0.02873317,0.16639383,0.14584866,-0.13083006,0.27627659,-0.24008657,-0.13655829,0.32156831,-0.13163185,0.30248183,0.13808362,-0.13450548,0.11673180,0.02521727,-0.02531243,-0.07760768,0.26833576,-0.09799693,0.23760450,0.12500608,-0.05962615,0.09191253,0.17577381
0.00156381,-0.13834648,-0.12639715,0.09324756,-0.02385997,0.13193429,-0.11849520,-0.04559815,-0.00693585,0.04417764,-0.00718162,0.01963810,0.10789786,0.07151983,0.20403917,0.00947030,-0.15146156,-0.04752388,-0.25423107,-0.15807216,-0.00425378,-0.12793694,0.01025793,-0.08663859,0.01744398,-0.37844849,0.07361769,0.09522893,0.05756451,-0.10143637,0.06205162,-0.15552488,-0.05484696,-0.00353832,0.04271266,-0.11728475,-0.11583175,0.03868887,0.15880959,0.11526765,0.01437978,0.07944413,0.10837676,0.30054751,0.11849056,0.01053484,0.07471063,0.01789143,-0.15698728,-0.18549709,0.09968135,0.15140690,0.02964768,-0.19778192,-0.13737482,-0.00803531,0.15463756,-0.08313544,-0.02963834,0.12120981,0.13366953,-0.09551439,-0.00296436,-0.00122522,0.24932338,0.12419553,-0.00407097,0.07746527,0.07821630,0.09870519,-0.23531330,0.07779217,0.00862404,0.24246265,0.14399447,0.23403332,-0.11765689,0.04038490,-0.14167319,0.08354713,0.14876603,-0.03276513,0.20476618,-0.11928311,-0.20564353,-0.02757337,-0.15264362,-0.23785670,0.09279996,0.31462982,-0.16097659,0.15036300,-0.10752545,0.29740331,-0.00335780,-0.04937480,-0.11885940,0.10652897,-0.22319223,-0.13750729,0.01375211,-0.14076909,0.00525958,-0.22521879,-0.15459099,0.04879412,-0.04762690,-0.16694921,-0.19678560,0.10144863,0.06752781,-0.00259293,-0.16281657,-0.21427152,-0.08165281,0.11136026,-0.10695548,0.09629285,0.03177884,0.01063492,-0.15403086,-0.07301873,-0.00819314,0.13853350,-0.07147102,-0.07486799,-0.11971623,0.05299539
-0.10970180,0.00990714,0.08321916,0.20433116,-0.10897940,-0.21304242,-0.22169414,0.00617110,0.01235592,0.08371127,-0.15833248,0.03024059,0.00585555,-0.22880994,-0.07183111,0.23505524,0.02406661,-0.04353584,0.01431619,0.22137454,-0.36159086,-0.28262123,-0.02694010,0.11315263,0.40461624,0.24007560,-0.13276546,0.08302330,-0.11087371,-0.09257489,-0.14597835,-0.01008343,0.07002459,-0.07318218,-0.06492233,-0.05311969,0.06333488,-0.01829227,0.31242493,-0.00408451,-0.21134412,0.08345476,-0.22556099,-0.02741473,0.00664274,0.14338407,-0.14893354,0.10721482,-0.07369344,-0.12931609,0.04852522,0.13328175,-0.28320858,-0.05697611,-0.15108296,0.14452724,0.05359164,-0.09896101,-0.05521516,0.17405118,0.04125645,0.13260275,0.12781081,0.04327510,-0.34892973,0.20727754,0.03219811,0.08950949,-0.01614236,-0.04201214,-0.30149025,0.05840084,-0.11202566,-0.18601720,-0.01024141,0.11489651,0.04113894,-0.19661790,-0.06845083,0.01101634,0.16619468,-0.15789580,0.20316949,-0.04812310,0.05118522,-0.18528293,0.23172487,0.08728244,-0.01149180,0.09280512,0.09910489,0.05369641,-0.18035804,0.06648120,0.07407016,-0.15035926,-0.11038116,0.22411986,0.08963221,0.07261930,-0.01722818,-0.08553602,-0.03459914,0.06129744,0.24285670,0.04269847,-0.02901115,-0.42132053,-0.05731129,0.06426431,0.03461230,0.13895287,0.06700606,-0.31602681,-0.11528996,-0.27073145,-0.04100263,0.22139634,0.07260158,0.05769199,-0.20589259,0.33903024,0.01385544,-0.18435021,0.15355332,-0.07493653,0.27714494,0.10997032
0.05508661,0.14830686,0.01946727,-0.02902084,-0.04561802,0.00146549,0.30676317,-0.00655219,-0.04890660,0.02181849,-0.11556591,0.07048867,0.06542157,0.15686764,0.04212929,-0.13308559,-0.06283636,0.06979569,-0.17031048,-0.01327498,0.07326888,0.02986586,-0.26925302,-0.00501435,-0.04694648,-0.04784697,-0.18130778,-0.05032295,-0.05580799,0.11411715,0.09168094,0.18964216,0.15155126,-0.25630391,-0.02092092,0.08633840,0.10258161,0.09925412,-0.10172550,-0.09026150,-0.04979266,-0.09452557,-0.15755481,-0.01773179,-0.01571579,0.30651399,-0.19677481,-0.08686578,0.10783879,-0.30862778,-0.33939481,0.15660055,0.04935691,0.01659141,0.05302950,-0.36988813,0.11171327,0.00623311,0.25617397,0.13507135,0.12084609,0.24986911,-0.02922099,0.09272400,-0.10863615,0.00170990,0.14538142,-0.09198964,0.01481971,0.13554703,-0.19055761,-0.02045957,0.09789846,0.33295813,-0.09398726,-0.05668866,-0.09831233,0.10486841,-0.18114303,-0.06136972,0.05222127,0.04848902,-0.10720124,-0.00862019,0.07990154,0.06215080,-0.12298909,0.03001989,0.10047711,0.03425463,0.11280011,-0.02147002,0.30877748,0.23587383,-0.11784481,-0.13902107,0.17982513,0.04015797,0.03105689,0.10777351,-0.04089592,0.27956554,0.19849323,-0.22015610,0.05769861,0.10932184,-0.03273391,0.07104195,0.00877293,-0.05850141,-0.10513665,-0.00846406,-0.00409156,-0.02460949,-0.09292029,-0.12222274,0.03372347,0.06064077,-0.02203345,0.05591880,0.22782639,-0.00268937,-0.02248168,-0.11614046,-0.07984850,0.19846532,-0.00567523,-0.06132085
-0.18185547,0.15677665,0.12143796,0.00774177,-0.02996460,0.14816484,0.00725833,-0.04917649,-0.23493266,-0.04071502,0.07542427,-0.13935249,0.04994534,-0.01385237,0.05818355,-0.06133980,0.00949492,0.02221762,0.11330527,0.09948614,-0.10768244,-0.09143995,-0.08151001,0.22918215,0.00799654,0.08039589,0.05453629,-0.01584852,-0.04215601,-0.01463104,0.06658614,0.16451055,0.26759809,0.00507005,0.07380276,0.22257957,0.27564397,-0.01089067,-0.10597353,0.07478981,0.23663281,0.11183036,-0.07017872,-0.12328219,-0.09259213,-0.11169631,0.09824815,0.00334742,0.08434121,-0.01619626,0.32315591,-0.01988697,0.06771776,-0.08974161,-0.04919882,0.14644128,-0.05657356,0.16549683,0.12173367,-0.09529243,-0.08423856,-0.00577562,0.06264309,-0.10320676,-0.07734822,-0.16132571,-0.04030314,0.03479699,0.02101294,-0.02071625,-0.11194339,0.07983854,0.01374269,-0.07906587,-0.03574014,-0.13366604,-0.09763075,0.10054626,0.24817079,-0.05364934,0.19230403,-0.22632420,0.15599257,0.15900478,-0.05447425,-0.04200446,-0.03170035,0.07222120,-0.06829026,-0.15866020,-0.23028232,0.04420385,-0.17081416,0.05610956,-0.17193469,-0.16694428,-0.02738709,0.16569687,0.17412512,-0.30136764,0.10578518,0.09716503,-0.11831775,0.03913107,-0.20483804,0.03709210,0.04181088,0.00627069,0.02499772,-0.13117822,-0.06001240,0.02581466,0.02631685,0.01433314,-0.08526563,0.09423798,0.06728997,-0.15961868,0.04086987,0.20185393,0.17093675,0.05172990,-0.14803092,0.02481967,0.05548491,-0.08765398,-0.03782997,0.06764170
0.22514905,0.04215887,-0.20498325,-0.03178883,-0.14137967,-0.26298612,0.38047317,0.22838414,0.01077235,0.11207186,-0.00414447,0.06712930,-0.16395327,-0.19958538,0.02805547,0.09696749,-0.05886077,0.12641919,-0.09507635,0.14151858,0.02375729,-0.08762994,0.04729662,0.27899891,-0.31077123,-0.12900947,0.00247844,-0.07510658,0.20390032,0.10763283,0.10780571,-0.13174228,0.06970146,-0.11412690,-0.19671403,-0.05983099,0.12527567,0.04374063,-0.06790742,0.18216898,-0.24820168,-0.08473403,-0.06319939,0.07938953,0.44153276,0.07607283,-0.05771553,-0.29533508,0.13830432,0.00931886,0.00582301,-0.04711664,0.10942233,-0.11554763,-0.35736385,0.30680254,-0.16439722,0.16381365,0.02356904,0.00190577,0.05043356,-0.16187006,0.23612438,0.04254398,0.00251580,-0.15311408,-0.20346512,-0.03586312,0.36177015,0.01280220,0.00137344,0.16252926,0.22947749,-0.23623413,-0.20054762,-0.00156311,0.05579675,-0.29454201,-0.00710433,-0.24885537,-0.12934490,-0.00824772,-0.11666868,0.05609730,-0.17237739,-0.00118185,-0.21936171,-0.12020474,-0.03414942,0.05933494,-0.03457127,0.10567843,-0.01269460,-0.10447701,-0.21052001,0.11726884,0.10339195,-0.03749727,-0.07672688,0.21528396,-0.10558719,-0.10176260,-0.03896656,0.08124728,-0.02727275,0.08052827,-0.15248311,-0.14887027,0.03803580,-0.15760846,-0.30442429,0.28976676,0.09917575,-0.02376138,0.24966234,-0.27910894,-0.15085399,-0.14223434,-0.05517203,-0.03900761,-0.15047708,0.05913061,0.12683360,0.03451860,0.08954861,0.06543071,0.08961785,0.34573719
0.09487762,-0.04068941,0.00071808,0.02571038,0.21097711,-0.05733032,-0.19127107,-0.15001149,0.12444285,-0.15720430,-0.08798280,-0.22775307,0.13871370,0.12075926,-0.01650558,0.19680347,0.24862579,-0.28608999,-0.07892197,-0.19389279,-0.07686822,0.07544316,0.11862469,0.34607488,-0.27622241,-0.09082593,-0.06873720,0.02819713,0.07818858,0.02701970,0.01343566,-0.17562473,0.05751407,-0.11725187,-0.19369081,0.07326134,-0.01171198,0.18888327,-0.16331117,0.00198379,-0.07440564,0.15938534,0.11050989,0.09968082,0.11078645,-0.05506289,-0.05426324,0.04676156,0.17771827,0.16588260,-0.03860904,0.32019219,-0.08907284,0.05541449,0.08992236,0.18350968,-0.06365271,-0.00648841,0.22730422,0.00849803,-0.07987555,-0.11375242,0.08924299,0.15105399,0.13166596,-0.07671338,0.08188343,-0.13468124,-0.19845778,0.27375209,-0.01026023,0.00549578,-0.02799254,0.30619755,-0.08257871,0.03574396,-0.20726410,-0.00586839,-0.20931472,-0.27297443,-0.10468976,-0.00984793,-0.15417631,-0.11185557,0.19834541,-0.02128835,0.00501843,-0.17570765,0.02551548,-0.04540507,0.07728619,-0.03402832,-0.12774064,-0.16610351,0.10269530,0.02249408,-0.08422152,-0.10962420,0.14065705,-0.01696083,0.14994130,-0.12147822,-0.12657481,-0.08159558,0.23965316,-0.06118456,0.04377944,-0.02534195,0.17884667,-0.08439434,-0.02021051,-0.10762390,-0.02717575,-0.01759630,-0.28474253,0.12377153,0.03707444,-0.02444891,0.02965894,-0.00168617,-0.09251812,0.05674393,-0.05117379,-0.05722892,0.22946776,0.12535070,-0.00563793,-0.34500015
0.04882945,0.03296225,-0.12540130,-0.10864461,-0.25853515,0.09749069,0.36915508,-0.22237501,0.12369130,0.05407215,-0.12719007,-0.05537368,-0.06096403,-0.09721053,0.08530883,-0.21943268,-0.14420265,-0.07211807,-0.06748907,0.06288127,-0.13277635,-0.00521092,0.02511765,0.04810159,-0.27088791,0.10028097,0.21771775,-0.06698816,-0.12583558,-0.13711989,0.17481445,-0.11615731,0.00906263,-0.01618918,-0.03492069,-0.46555996,0.00322642,0.29655606,-0.21837343,0.09099820,0.31623718,-0.14891715,-0.21519807,0.19488373,-0.18007575,-0.12367202,-0.00429100,-0.15969703,0.19427866,0.03512726,0.08320528,-0.18834102,-0.35104424,-0.05834074,-0.14939292,-0.06014483,0.23131010,-0.11106592,-0.01803836,0.20803717,0.01506652,-0.06027929,0.30813760,-0.18208730,-0.19842820,0.12915188,-0.05422975,-0.10453752,-0.23395056,0.19733669,-0.07553840,-0.16174236,0.17538114,-0.07499295,-0.09304241,-0.05538066,-0.19404338,0.12866960,-0.26825079,0.01924254,-0.21660332,0.17058848,-0.02683293,0.00311661,0.00900181,0.22345234,0.30724567,0.15419808,-0.21173772,0.13551843,-0.25373545,-0.13141231,-0.10468303,-0.01605034,-0.05410327,-0.07367526,-0.07556482,-0.02307898,-0.03030521,-0.23798141,-0.12736802,-0.04650634,0.13509168,0.03814400,0.06609889,0.11703546,0.07674534,0.25831351,0.06694660,-0.10138627,0.01246696,-0.02084931,0.19314840,0.39329642,-0.09052459,-0.11865097,0.20710671,0.09099921,0.04492881,0.04872111,0.14253187,-0.08148660,0.03173603,-0.00333153,0.01639508,-0.12680601,-0.06898442,-0.22223014
0.01365912,-0.10068218,-0.10078055,-0.06528483,0.32014224,-0.00827639,0.19997227,0.00018841,0.19710721,-0.21898715,-0.22053201,0.04957358,0.20443228,-0.15008877,0.15226845,-0.10537606,-0.00282875,0.13707036,-0.05270030,-0.05564734,-0.13233660,-0.13130328,0.34425110,-0.18046461,-0.20085713,-0.18100965,-0.00205539,0.13079908,-0.13340715,0.03025662,0.09515698,0.23163040,0.20902368,0.15068208,-0.16587192,-0.05862988,-0.15366758,0.02631119,-0.20698294,0.03234745,-0.06962504,0.17334630,0.00343947,0.04654671,-0.10769431,0.00772914,0.01673448,0.04499601,0.19033243,0.05957044,0.10120591,-0.08418897,0.01797112,-0.00694831,0.07138419,0.22384934,0.00406554,0.13266814,0.27770996,-0.13261659,0.32257468,-0.00140810,-0.09022064,-0.09278708,-0.18791546,-0.01376670,0.17096373,0.04894004,0.02341095,-0.17728497,0.17129354,0.07606173,-0.02317541,-0.17593345,-0.22553986,0.10796936,-0.07474190,0.00460268,0.25441432,0.06936375,0.14769039,0.21635239,-0.01608421,0.00964099,-0.00433707,-0.03016662,-0.03798972,-0.03100363,0.01470147,0.23266956,-0.12767938,-0.46370253,0.28252190,-0.04046271,-0.01958392,-0.25612563,-0.12928934,-0.01122749,0.00360566,0.00671397,-0.01710137,0.03991171,-0.24212284,-0.35662746,0.25191003,0.29004502,-0.00052742,-0.23447487,0.09020013,0.07845527,-0.20608500,0.09122559,-0.37069330,0.03209149,-0.10831223,0.04466807,-0.27956665,0.16296916,-0.00907511,0.04120075,-0.07752609,-0.16273437,-0.06152953,0.18925071,-0.02541619,0.01153541,-0.09492191,0.02013898
0.08819876,0.03879623,0.09392820,0.13471635,0.11596369,0.12648231,-0.24937621,0.31241050,-0.04927614,-0.21291921,-0.04606291,-0.27454665,0.11241952,-0.06447085,-0.30095237,-0.13586360,-0.01360411,0.06556058,-0.06755079,-0.16319604,0.07884169,0.11519744,-0.11226311,0.10982553,-0.07382622,0.08387625,0.00679731,-0.05855015,-0.15325785,0.28299722,0.02982335,-0.21983872,-0.16991512,-0.09521060,-0.02015518,-0.18261106,-0.09770380,-0.23685244,0.16857280,0.03977881,0.35986739,0.30722186,-0.07279817,0.10066941,0.03391258,-0.08849739,0.25661552,-0.04217153,0.10479173,-0.04614517,-0.11905833,-0.03967879,0.03201861,-0.12159242,-0.29781225,0.07305458,0.30494645,-0.08456010,0.28564411,0.24226713,-0.00869335,-0.03799534,0.04079654,-0.25656524,-0.03982680,-0.21863757,-0.00416581,-0.22204883,-0.04371338,-0.31804833,0.05702917,-0.09138014,-0.12781243,-0.21393152,0.10774738,-0.10056544,-0.23520467,0.01718390,-0.24419211,0.02286372,0.17480573,0.07160866,0.12132388,-0.08812350,-0.03821408,-0.17901470,0.16399890,0.01844625,-0.01116945,0.21179573,0.05077750,0.26561040,0.03121818,-0.00181631,0.18889362,0.00034574,0.19602989,-0.12427785,0.21917076,0.08843339,-0.11051397,0.06107451,-0.03481938,0.06266915,-0.00775286,-0.29045311,0.05297798,-0.07255080,0.07017469,-0.15674575,0.06805855,0.18645540,-0.05600835,-0.07140575,-0.20756102,-0.18565704,-0.21503258,-0.16554347,0.05235817,-0.03412785,0.19347642,0.22401303,0.13558446,0.13456088,0.02507026,0.11908109,-0.13711910,-0.15820844
-0.04563271,0.11025950,0.00327528,-0.00430541,-0.04791786,0.12186841,-0.09130100,-0.10561205,0.13434303,0.02903580,-0.21054456,-0.20961267,0.12589686,0.02398832,0.27291572,0.00202829,0.34637994,-0.16366187,-0.11078113,0.23871075,0.19849500,-0.06285239,0.21417207,-0.08492844,0.23823780,0.11996275,-0.04022497,0.07266066,-0.15760140,0.15986371,-0.18299623,-0.02179829,0.18522955,-0.14370266,0.09237861,-0.22678441,-0.14484537,-0.13016528,-0.12013295,-0.02421734,0.18294449,-0.08412987,0.02831604,0.05911366,0.14073995,-0.28645304,0.01224589,-0.08242559,0.07446062,0.13958150,-0.32405081,-0.25571412,0.05084059,-0.18477017,0.12632641,-0.00613637,0.19322340,0.07256872,0.02891099,-0.02178948,0.18404786,0.02880620,0.14492977,0.07351084,-0.13733259,0.06484894,-0.20807260,0.05966388,0.06085978,-0.01695654,-0.10224772,-0.07546575,0.12769122,-0.02357577,0.06917614,-0.02880798,0.21914008,-0.04166688,0.19376104,-0.21072425,-0.02117574,-0.26883769,0.04723438,0.02258650,-0.17186987,0.01572190,0.00755044,-0.26760527,0.20767616,0.13438511,0.10827374,-0.18419880,-0.01452653,-0.04542093,0.08867259,0.04613214,-0.13919854,0.17243408,-0.16527674,-0.06489093,0.17726566,0.06008168,-0.00768956,0.09924676,0.05560194,-0.02003183,0.08340833,0.12570013,0.05316373,0.10827961,-0.09097159,-0.00737291,-0.01635779,-0.04717194,0.25929630,-0.12072826,0.01754035,0.12676008,0.07276624,0.05531888,0.00605074,-0.03177585,-0.13357900,-0.13882163,-0.09582757,-0.12374653,-0.10032848,-0.12222756
0.16051817,0.16076413,0.19977145,-0.17557362,-0.01451093,0.17658199,0.03736867,-0.01702495,-0.10412034,0.08143304,-0.16033207,-0.08626317,0.07640769,-0.05466252,0.10173885,-0.38955206,-0.34977001,0.02953948,-0.20828649,0.01553585,-0.15752573,-0.10499652,-0.11020569,-0.07468924,0.05886969,-0.03917268,-0.24041027,0.10317397,-0.13703103,0.01272500,-0.08939641,-0.05025223,0.38621494,0.16518828,-0.10985449,0.00944344,0.17203814,0.09807540,0.04941146,-0.18202245,-0.11737895,-0.00864970,-0.10515657,-0.16425842,-0.03435754,-0.18852596,0.11649447,0.04727867,-0.12978910,0.45957649,-0.03444251,-0.00497249,0.03790366,0.10942949,-0.00223792,-0.14849341,0.07828480,-0.04731666,-0.01759511,-0.18934965,-0.04086970,-0.02985572,-0.04403051,0.14741465,0.06010931,-0.13714644,-0.06792714,-0.23543938,-0.06672069,0.02641956,0.15731929,-0.10566710,-0.05901352,-0.18300518,0.26914889,0.21599598,0.05410822,0.10924141,-0.16598380,-0.22886802,0.12358133,-0.00598647,-0.08983117,-0.20924945,-0.17907299,0.40221429,-0.24043190,-0.04815069,0.05226040,0.03827729,-0.01349785,0.11460911,0.00143859,0.12371313,0.00730215,0.22738789,0.04346243,-0.22127092,-0.16727570,-0.03223838,-0.10052991,-0.16324718,0.04318502,0.14059696,-0.16194032,-0.26375881,0.09096723,0.04702547,-0.13087752,0.24468978,0.13552932,0.04775919,0.08458342,-0.01095657,-0.11274999,-0.01822879,0.11057190,-0.00867527,0.03453013,0.07160719,0.02539224,0.03375352,0.13393259,-0.00270260,0.40152460,0.02840905,0.00847404,0.12347603
-0.09986813,-0.19763449,-0.07375193,0.12142681,-0.22040206,0.23428948,0.03662266,0.20560578,-0.06995142,0.28859881,-0.18235539,0.12741698,-0.01216091,-0.06538737,0.14424466,-0.00046290,-0.27927983,-0.16860998,0.32382181,-0.14857750,-0.24968120,-0.14765334,0.20419072,0.03063265,0.26280740,0.00765558,0.00970311,0.09910972,0.06589773,0.06715816,0.12505193,0.10690271,-0.01256587,0.19119899,-0.08760455,-0.00956707,-0.31577975,0.15261510,0.05961402,-0.12833320,-0.11915141,-0.04393728,-0.14657010,0.01410984,0.05906465,0.13824758,-0.00352936,-0.15002604,-0.20441960,0.10373303,0.01901244,-0.07264040,0.10395319,0.07726084,-0.28132209,0.19460583,0.03018748,-0.02539919,0.00987273,-0.09024151,-0.03299991,0.00891552,-0.23804362,-0.17992149,-0.07269418,-0.12832411,-0.10279650,-0.11755595,-0.18214072,0.02953946,0.13343903,-0.06203547,0.30596361,0.05617797,-0.02295675,-0.11685664,0.03575941,-0.18860641,0.09534126,0.01521879,0.25516111,0.09600723,0.29822516,0.04582271,-0.00654469,-0.29214969,-0.67835426,0.21335877,-0.08630665,-0.08507152,-0.18563962,-0.08258339,-0.08884823,0.15811034,-0.05377585,0.12731445,-0.34878623,-0.09581928,0.23994571,0.12814021,0.02643808,0.28625491,0.22607838,0.06679894,-0.06873037,0.07322501,0.06881777,-0.06802084,0.04145830,-0.03893624,-0.45311618,-0.18321672,0.38278890,0.06926181,-0.16539221,0.17664173,-0.09002912,0.03935032,-0.12818828,-0.16400068,-0.06365357,-0.11131475,-0.14443871,-0.04927022,-0.00878760,0.14806622,-0.01249772,-0.20357312
0.05539043,-0.08600729,-0.05359147,-0.04390749,-0.21237727,-0.00793745,-0.12429555,-0.25916016,0.09615374,0.14754629,-0.00226899,-0.23005614,-0.03381689,0.03694709,-0.01206356,-0.02802410,-0.06769229,0.07107409,-0.44169158,-0.12796462,-0.11417285,-0.01442203,0.12961341,-0.02100035,-0.01760720,-0.01119563,-0.21102065,-0.05919759,0.35991767,0.18161716,-0.07820717,0.04802702,0.10692872,0.00469783,0.02027234,0.23173617,-0.02802299,-0.27484846,0.14331210,-0.31585884,-0.01157752,-0.23922710,0.38579071,0.03764506,-0.12151787,-0.06012102,0.00771131,-0.05642957,0.31021056,0.13277198,0.03926606,-0.28485796,-0.09919426,-0.04280099,0.08646116,0.17147741,-0.05245124,0.21637119,-0.13875341,0.00558144,0.00175626,-0.11428224,0.17465670,0.07130103,0.22532223,-0.26539454,-0.14307173,0.29965785,-0.03354374,0.00532877,-0.05582559,-0.31227180,-0.21429710,-0.16852947,-0.01035695,-0.26350227,-0.23822720,0.01913318,0.12110925,0.22178389,-0.15601827,-0.15481810,-0.04179063,0.29859036,0.21443366,0.03934743,-0.27148861,0.03303809,0.03802125,0.09479541,-0.07357828,-0.13370538,-0.00687976,0.15366405,-0.00415312,-0.44432831,0.34571642,0.11377343,-0.19246684,0.20446727,0.03607180,0.39152917,0.13460521,0.11169843,-0.02929981,-0.06986813,-0.01605283,-0.05379406,-0.14360286,-0.01182413,-0.09822173,-0.17472552,-0.12721321,0.18004654,-0.06909090,-0.00007825,0.16323684,0.17661673,0.03627115,-0.12430599,-0.11450547,-0.04379757,0.08851538,-0.01133476,0.03091563,-0.19416973,0.23851356,0.01959971
-0.23185843,-0.13292159,-0.01158867,0.21070744,-0.00763630,-0.35674646,-0.02666973,-0.41479966,0.09747259,0.16645785,-0.21080154,-0.35007599,-0.00193669,-0.01747098,-0.01261115,-0.06871364,-0.04226293,0.09558649,-0.24835482,-0.05199274,0.19851281,-0.05560084,-0.04745113,0.20292078,0.13859478,-0.08842115,0.05342255,0.14558923,-0.00603252,-0.00366060,0.33454475,0.06490292,-0.00051626,0.04708295,-0.06176863,-0.14496392,0.04493514,-0.11777095,0.28705993,-0.15482105,-0.11544150,-0.10776488,-0.14734650,0.00769753,-0.05072190,0.12199517,-0.06085910,0.10166543,0.13182881,0.10987651,0.00542537,0.04092429,0.14131808,-0.08164006,0.00207239,-0.03158197,0.01855466,-0.11723187,-0.04360510,-0.05262337,0.06608847,0.01452649,-0.03503879,-0.19503583,0.38709375,-0.11775806,0.16678333,-0.16254421,0.19491439,-0.09706672,-0.00027335,-0.18759231,0.13656588,0.26190042,-0.01820974,-0.08896282,-0.00978099,-0.02492216,-0.05549665,-0.14343818,-0.03623634,-0.07454198,-0.15412459,-0.37661693,0.06263909,0.08381949,-0.07600495,0.14864817,-0.10819273,-0.03082431,-0.27015227,-0.05694998,-0.00428730,0.03033823,-0.03819139,-0.23953667,-0.16412322,-0.06664752,0.06560682,-0.14701909,-0.16213529,-0.12376362,-0.04832876,0.08838709,0.08097482,0.02942334,-0.03185881,-0.14357260,-0.02824148,0.07740663,0.22140314,0.05666549,0.14813426,-0.12290896,-0.23875777,-0.13539737,-0.17397262,0.22650582,0.03869541,0.16700333,0.02487401,0.06301755,-0.05703742,-0.08832695,-0.22910227,-0.02662447,-0.24294125,0.00779271
-0.00773994,-0.24058872,-0.08674231,-0.10321278,0.01653384,-0.02073463,-0.23440108,0.24481113,-0.06306797,-0.07072491,-0.02411137,0.20363742,-0.37973288,0.00733881,-0.18947534,0.13799508,0.04484546,0.28400591,0.10135943,0.00041850,0.15681137,-0.02270743,0.04575950,0.24463931,-0.25952697,-0.08393528,-0.23724520,0.17658520,0.01439755,-0.14108798,-0.27961183,-0.17337164,0.12417098,-0.32912803,0.23478980,-0.06564869,0.06922808,0.18320090,0.20103586,0.10375331,-0.21614859,0.19939256,-0.05633238,0.14322272,-0.25045434,0.07496154,-0.18154721,-0.18710721,0.02813333,0.16511664,-0.04382929,-0.09147942,-0.00757763,-0.01303890,-0.17167556,0.10185023,-0.08911182,0.07267766,0.03647774,-0.09951080,0.10491259,0.10125814,-0.14450574,0.00495983,0.18833275,-0.20675682,-0.05242859,-0.05074155,0.00190518,0.35277334,-0.27197403,-0.11985642,0.14770351,-0.10056798,0.42180619,0.04749006,-0.00529824,0.19847628,-0.23590082,-0.12885398,0.11120497,0.08536822,0.37254950,0.08931122,-0.13886793,0.01951616,-0.09637676,0.07012825,-0.04721173,-0.15258548,0.30532777,-0.29263678,0.00394735,0.04408288,0.05057117,-0.37275687,0.21723366,0.01129788,0.08872488,0.05820594,0.12521523,-0.06754915,0.00900374,0.12560293,0.15351540,-0.12437207,-0.01480697,0.10813387,0.22478187,-0.01137613,0.15905908,-0.15628439,0.20441161,-0.11437854,0.44089463,-0.04194713,0.21331725,-0.01194257,-0.19016537,-0.06518281,0.02636319,0.00062960,0.15514882,-0.01174515,-0.14918780,-0.10963711,-0.20072651,-0.19858076
0.06670308,0.07320042,0.01446293,-0.15280809,-0.00259257,-0.11095148,-0.08803707,0.03830570,0.14548431,0.00537467,-0.15161064,0.23035449,0.10198380,0.08352020,0.26180425,0.17846221,-0.11189582,-0.17069700,0.01550938,-0.16201229,-0.07715484,0.09467504,-0.07905773,-0.13537417,0.02550777,0.09464713,0.17944214,-0.40839663,-0.04949448,-0.11737179,0.13025483,-0.08319934,-0.07264526,0.08406068,0.11571337,0.01229817,-0.04903461,-0.10085012,0.03922818,0.20449026,-0.04618197,-0.12646094,-0.13324036,-0.16246784,-0.08425556,-0.02631588,-0.18919203,-0.09925164,0.08642688,0.04708707,-0.02076487,0.18045188,0.19160169,-0.11774441,0.18321066,0.08292811,-0.01170393,0.01229774,0.21622148,0.02153466,-0.03870482,-0.02769948,0.15165588,-0.02171580,0.03475318,-0.17699929,-0.00353363,0.02178331,0.19206758,-0.22490485,-0.32198548,-0.05311868,-0.14696607,-0.27935669,0.07592086,0.10797024,0.16782166,0.15082537,0.17278260,0.05085739,-0.25158846,0.14250706,-0.05305148,-0.02371624,-0.16834988,0.09156920,0.01881174,0.18487433,-0.15752003,-0.04715100,0.25881091,-0.01739600,0.01280010,0.06670048,-0.05677028,-0.06316754,-0.10805608,-0.30357602,0.03342742,-0.15158865,-0.05691889,-0.09451759,0.10652025,0.09244489,-0.04015519,0.26355478,-0.14122142,-0.03713253,0.17863603,-0.02429892,0.16348872,-0.09743016,-0.19822845,-0.01579759,0.08532975,0.07540739,0.05282509,0.11533710,0.11842442,0.02966767,0.11521974,0.13669498,-0.04073334,0.04296859,0.11203771,-0.03036837,-0.32963899,-0.07758967
-0.11040942,0.10363351,0.18152949,-0.13674787,0.10885745,0.07744143,0.16734320,-0.11013323,0.06242130,0.06439578,-0.13237898,0.09749468,-0.15583992,0.19974720,-0.16151156,0.00132465,-0.11369253,0.07183045,0.02359904,0.20631459,-0.14285645,0.19076072,-0.02068194,-0.24125271,0.05323851,-0.22811818,-0.28234375,-0.07249628,-0.08303326,-0.09484829,-0.10221366,-0.03070261,-0.19404092,0.13295794,0.06110170,0.29760987,0.05557350,-0.00610735,0.03766869,0.03513741,0.21092248,0.05271683,0.03428583,0.11233755,0.19769377,-0.21184239,-0.14621766,-0.19666496,-0.22554854,0.00370286,-0.00536530,-0.01996277,0.16983855,0.14203759,-0.17102282,0.08352727,-0.05371987,0.32110769,0.15920758,-0.06517128,0.00627634,0.00569808,0.05780402,-0.12813647,0.08162036,0.12522888,0.35866809,-0.10805218,-0.02603473,-0.05895231,0.05958615,-0.08322234,-0.19955049,-0.22226319,-0.28463516,0.08691472,0.06175041,0.18560721,0.22794551,0.27460584,-0.04462461,-0.03243982,0.16860695,-0.01877386,0.24472420,0.30427551,-0.03496338,-0.25869158,-0.06658570,-0.17891850,-0.16798528,-0.05806998,-0.05155673,0.24167079,-0.18474475,0.21313994,0.17187788,0.14276734,0.11303109,-0.16153482,-0.18653287,-0.09211364,-0.12618303,0.18059787,0.07177080,0.04540912,0.11910436,-0.00396424,0.25698087,-0.00527858,0.24374391,-0.06884989,0.16921991,-0.31594566,-0.20481303,-0.10701236,-0.10073984,0.16157766,-0.00536984,-0.11505059,-0.23029450,-0.11321529,0.15180203,0.20179266,0.09421994,0.38871446,0.14883657,0.07415877
-0.15845531,-0.01505818,0.20894422,0.02573973,0.04705960,0.08608806,0.07314599,0.04505523,-0.11400632,0.07484069,0.08802485,-0.26989225,-0.00263905,0.04246892,-0.15821898,0.12433164,0.17672297,-0.05976990,0.29269204,0.10224602,0.04751380,0.12034124,-0.01679084,-0.09741505,0.02054044,-0.01227663,-0.05186068,-0.01696830,-0.10522363,0.00414331,-0.03112087,-0.03517772,-0.08901798,0.09726171,-0.24214098,0.07638659,-0.00308316,-0.40124390,-0.11629876,-0.03534744,-0.15693510,-0.17878997,-0.00954160,0.00442884,0.05877641,-0.01224026,-0.14406452,-0.04509564,-0.12948261,0.15566175,0.09369373,-0.33396637,0.14766438,0.03381157,-0.02085084,0.04130659,0.04350664,0.10203432,-0.00049529,0.05496726,-0.02318005,0.14193496,0.07098387,0.16000994,0.10953713,-0.23097074,0.10616482,0.05207428,-0.08037459,-0.12270687,0.06071471,0.07879705,0.35392538,0.22363894,0.12222935,-0.12190045,-0.05796536,0.04848174,-0.04682317,-0.26554292,0.08316669,0.24385169,0.15940124,-0.05501854,-0.19481419,-0.15399684,0.04036758,0.20635189,-0.15291037,0.27154136,0.10251175,0.15173304,0.26347613,-0.12491085,-0.06599506,-0.14077882,0.13195425,-0.05095790,-0.22748397,-0.18211031,0.00004687,-0.09923283,-0.08301116,-0.28735876,-0.09134851,0.28443828,0.00612339,0.07922168,-0.08459567,-0.38422373,0.04133888,0.09957381,-0.11876606,-0.02760002,-0.31204045,-0.15524024,0.04808419,0.05842159,-0.12395293,-0.15321261,-0.00585996,-0.06992224,0.09056276,0.06168780,0.23498727,-0.05697405,0.33974779,0.12777647
0.07993944,-0.11545315,-0.02854629,0.13368654,0.05541332,-0.21270491,0.05450851,0.16157752,-0.15113993,0.12460123,0.14832371,0.04184129,-0.17074431,-0.14038025,-0.09453332,-0.01000649,-0.03244275,-0.09692837,-0.12209234,-0.04755160,-0.00029799,0.03057784,-0.12767002,-0.10703669,-0.03160640,-0.04541403,-0.04271455,0.09732822,0.03943579,-0.29015446,0.12467928,-0.12255421,-0.08355048,0.11811096,0.10894218,0.08017706,-0.18444648,0.01222241,0.02802477,-0.16628709,0.29383415,0.11074372,0.13585940,-0.07229282,-0.09592042,0.20175231,-0.11899875,-0.14647062,-0.22860199,-0.21617566,0.03608888,0.11122300,-0.16772130,0.00182565,0.21210922,0.16425234,-0.10063376,-0.09634892,0.38208100,0.09106656,0.06422761,0.11490386,-0.02483709,-0.03393709,-0.15272194,-0.20210247,-0.00512429,-0.27380997,0.16478652,0.13421768,0.01657211,0.02476086,-0.06011166,-0.03250170,0.15311968,-0.10334701,0.06344194,0.02022065,0.03421805,-0.21256526,-0.18484785,0.14314350,-0.01481347,0.06830864,0.00203857,0.04542058,0.13211522,-0.32561070,0.12370771,-0.09716991,-0.03671354,0.01884853,-0.26936033,-0.02198261,0.05619844,0.05103802,0.04464002,0.01826267,0.05840691,-0.06681544,0.11188849,0.21691316,-0.07069541,-0.05824586,-0.00327805,0.05866013,-0.08330703,0.28539902,-0.13502468,0.03133976,-0.08741049,-0.23207265,0.09681781,-0.09533422,-0.07346938,-0.04355586,0.05340148,-0.01860001,0.06267642,-0.05280570,-0.06141940,-0.01842917,0.11782303,0.08397032,-0.27837643,-0.06437803,0.12680358,0.24666774
0.05284308,-0.04356777,-0.02339137,-0.06615579,0.03289104,0.03294796,-0.05104201,-0.01816290,-0.09414559,-0.10421822,-0.02179084,0.14985503,0.01638489,0.11592998,0.15733929,0.08250228,-0.01437345,0.08389920,0.14927116,0.04849801,0.04257898,-0.07268841,0.07492690,-0.00640308,0.12010197,-0.04911841,-0.07970072,0.02173963,-0.09943663,0.06526404,-0.01624805,-0.17797795,0.06599004,-0.08599420,-0.03860733,0.00896030,-0.18966548,-0.02063597,-0.13985243,0.04556473,0.08960631,-0.18140315,-0.12869139,-0.05585908,0.04761529,0.03491820,-0.10201644,-0.11693817,0.11991059,0.11681052,-0.00490127,0.03577233,-0.08007250,-0.12381439,0.09410579,0.02142730,-0.03768679,-0.05059527,-0.03786517,0.00461483,-0.05115046,-0.05131998,0.09006434,-0.00952912,0.23694599,-0.00236791,0.02688987,-0.17887656,0.07034703,0.06721585,0.02893878,0.17257121,-0.07953460,0.24530236,-0.19199872,0.03690889,0.06746724,-0.08560839,0.08828402,0.12024563,-0.13398303,0.01722862,0.16420634,-0.07381130,-0.17219707,0.07325765,-0.11220242,-0.15899718,0.03606422,0.13386688,0.07976143,0.18793623,0.25910413,0.00582246,-0.01710986,-0.16888182,-0.24597865,0.06017414,0.19682147,0.04966864,-0.00885097,-0.02516581,0.03816738,-0.03992338,-0.02851362,-0.23481539,0.06093811,-0.10608312,-0.08664937,0.15125625,0.23860013,-0.02164856,0.16903955,-0.08965808,0.09869948,-0.07144895,-0.00855368,-0.22885674,-0.11066470,0.10358139,-0.04500460,0.09776344,-0.03974968,-0.18633057,-0.19258878,0.16069174,0.03849098,-0.09103289
-0.00295161,0.22532710,-0.00407789,0.11061494,0.00364316,-0.02328514,-0.36306092,0.42277694,-0.00068098,0.11769744,-0.00214283,0.24027741,-0.15192112,-0.14795387,0.08094841,-0.00702072,-0.05305768,0.14926900,-0.08696314,0.22821490,-0.12021811,-0.03807624,-0.11052896,0.07039402,0.16692452,-0.15030335,-0.11094880,0.08581682,0.07437301,0.05314002,-0.13670905,0.06738314,-0.07459634,0.13949858,-0.15176462,-0.10015484,0.32808501,0.04213034,-0.11729482,-0.12895119,0.03880707,-0.04192436,0.15480465,0.02844024,-0.14200285,-0.17935681,-0.16064891,-0.22759864,0.26274288,-0.03725248,-0.09652489,0.24969211,-0.03587952,0.00649559,0.00793093,0.18778279,0.04748116,0.17248558,-0.12393178,-0.12037965,0.11685836,0.07449161,-0.06341929,-0.03508986,-0.14275037,-0.01342214,0.08043101,0.03420128,0.02355001,-0.12118828,0.19360776,-0.03786657,0.06741158,-0.00564422,0.17520930,0.08142139,0.06535405,0.12914316,-0.44622895,-0.02636158,-0.25245085,0.04635962,0.07684305,0.01532873,0.14784059,-0.03916371,-0.13490453,-0.29391694,-0.03469453,0.00946041,-0.05314552,0.02342069,-0.02216567,-0.04451941,0.29827520,-0.07745898,-0.16027433,-0.14632335,-0.18565221,-0.06671334,0.12844729,0.03830516,-0.09470002,-0.09479957,0.06913359,0.30885339,0.15485218,0.08961325,-0.14405793,0.19229044,0.42817658,0.10375495,-0.04594699,0.02666365,0.09677327,-0.04107909,0.10013043,-0.09744746,0.13455309,0.06831790,-0.00647311,0.14704500,-0.12808444,0.05566704,-0.12976982,-0.18062069,0.07539155,-0.08188958
-0.30201182,-0.08708365,-0.18395407,-0.02910202,-0.00729904,0.00511917,0.05954565,0.03666385,-0.05917643,-0.05335186,0.03351126,-0.03432491,0.11904928,0.09847248,-0.22343756,0.14250176,-0.01160992,0.14363542,-0.29316843,-0.09231821,-0.10434316,-0.23509480,0.18984193,0.04420801,0.01431677,-0.04291343,-0.06492379,0.00963041,0.02469735,-0.08042417,0.12459462,-0.11354348,-0.11111911,-0.23696567,-0.06028855,-0.14628783,-0.01844502,-0.11637440,-0.24934390,-0.05354846,-0.08738141,0.12092859,-0.13956864,-0.04489865,-0.13690200,-0.36208168,0.36362541,-0.00745921,-0.00863297,-0.00177963,0.01340675,0.08743636,0.00674223,0.20822772,0.26105887,0.03651888,-0.14559866,-0.14415482,0.02806471,-0.23881623,-0.17518444,-0.08078097,-0.08689411,-0.07432143,0.04018352,0.13056676,-0.00591930,0.18567899,0.14627622,0.01633902,0.03611843,0.00370890,-0.02302161,0.09834479,0.08193977,0.12157939,0.10491738,0.13138375,-0.21435851,0.17691654,-0.12660593,0.30497852,0.09114890,0.01527463,-0.12627697,-0.24371603,0.16912222,0.10493878,-0.17176734,0.04902406,0.11827757,-0.05610255,-0.14376952,0.31865031,-0.18177103,-0.17679091,0.03774729,-0.01449698,-0.30193859,0.04015075,0.10038389,0.08257677,-0.00872807,0.19507980,0.02363013,0.15400161,-0.20692617,0.06300247,0.18580969,0.09244916,0.09708402,0.29157671,-0.10956345,-0.09747609,-0.26848313,-0.16926640,-0.09324233,-0.11421096,-0.15891497,-0.09930474,-0.05172170,-0.20200931,0.09719609,-0.24213019,0.02500877,-0.06313986,0.10477549,0.06650800
-0.16423701,0.14923041,-0.18160056,-0.13257508,-0.06506982,0.05460791,0.07263871,-0.17837936,0.08442809,0.12231463,0.11136899,-0.02596705,-0.01600320,-0.00737182,-0.00200047,0.23439530,0.06090483,-0.10547036,-0.32956669,0.21338996,0.07623414,0.00824066,-0.07134899,0.29668686,-0.21874852,0.19150566,0.03225775,-0.01305018,0.09965684,-0.18860309,-0.09176733,0.16599232,-0.18916140,0.09722175,-0.09286789,-0.19534305,0.01378481,0.07132237,0.08018240,-0.17418836,0.09444409,0.03486784,0.00152105,-0.06504963,-0.03277490,-0.17743488,-0.18838301,-0.01950864,-0.37080088,0.29936373,0.14814307,-0.08046280,0.17015506,0.02914866,-0.04852482,0.05561868,0.01404209,-0.30094209,-0.12964460,-0.07251643,-0.07139871,0.08960513,0.19504666,-0.16969354,0.09099167,0.05198852,0.13849147,-0.15650105,-0.31817690,0.17492539,0.11642756,0.21141057,0.05099470,0.07213456,0.01405764,0.04178286,-0.13563061,-0.32233477,0.12789020,0.31733951,0.09882350,0.14230570,0.10735267,-0.25953841,0.05372538,-0.40958372,-0.08887443,-0.23746167,-0.19880800,0.07273707,-0.34934676,0.17690203,0.22791763,-0.02901886,0.13691747,0.05000227,0.01407426,-0.37805665,0.19318935,-0.14835644,-0.09290419,-0.02210842,0.13278705,-0.17082572,0.19115436,-0.04114208,0.16954336,0.05091522,0.03623183,0.01851523,-0.11865360,-0.07963416,-0.20466337,-0.09241885,0.21469486,-0.39062041,0.00245350,-0.18126732,-0.07135291,0.11201296,0.12124287,-0.15591326,0.08800599,0.02403088,-0.02396743,-0.01818659,0.02739721,-0.11251006
-0.09359538,0.03193494,0.09678058,-0.01624494,-0.18453069,0.10283265,-0.07096496,0.00713906,0.00304227,0.29527912,-0.16522385,-0.12932986,-0.11188916,0.01737592,0.13277796,-0.06684601,0.20931542,0.18615238,-0.21166794,-0.12269025,0.31156024,0.13402730,-0.08318374,-0.15971656,-0.02387200,-0.09368321,0.28292352,-0.07995957,0.14073999,0.06579233,-0.08345230,-0.20245275,0.08083422,0.04177602,-0.36310998,0.09348078,0.03646519,0.06060126,0.04655906,0.33146539,0.04863594,0.00235595,-0.01000913,-0.07822859,-0.09436437,-0.15680389,-0.01782050,-0.17870572,-0.00849981,-0.07131801,-0.02410725,0.13199045,-0.10234367,0.09872337,0.19333382,0.02947189,-0.11868105,0.18188368,0.08130633,0.07782067,0.07551020,-0.12436211,-0.07805268,-0.19008195,0.09563131,0.11979029,0.00064826,0.17327049,-0.39723262,-0.22526643,0.09067474,0.02204167,-0.07261963,-0.02397527,0.09734192,0.06947692,-0.03247144,-0.26458660,-0.00677928,0.12732756,0.10358898,-0.18982244,0.16786738,-0.02170111,0.07293191,0.13691121,0.17064683,0.11950357,-0.20020999,-0.11612973,0.06940649,-0.00355810,0.00188351,-0.03344501,-0.25103098,0.11649604,0.02094783,-0.01086026,-0.05422191,0.05367471,0.00259228,0.12113404,0.06622712,-0.10988253,-0.08636020,0.03748712,-0.30243766,-0.05838282,-0.03246733,-0.16377026,0.32964799,-0.09763964,-0.10526359,0.11685748,0.01673808,-0.04864318,0.03673037,0.20506983,-0.02161988,-0.04170823,-0.04727656,0.20978846,0.05713181,-0.11260086,0.16572827,0.02720967,0.08942122,-0.11235303
-0.03446075,-0.11574931,0.06140020,0.02232166,0.20281728,0.21888627,-0.15680690,-0.06304752,-0.00740401,0.28553417,0.08241265,0.05969728,0.01684966,-0.09137339,0.18451156,0.15703911,0.07758369,-0.02155780,-0.04462456,0.13016970,0.09420318,0.09086734,0.03807568,0.22109000,-0.04429535,0.15479995,-0.31035897,0.10038780,-0.03637220,0.07781342,-0.05249216,-0.11182271,-0.00473353,0.03942367,0.12160393,0.18109415,-0.03868853,0.10318502,-0.10117806,0.10153094,-0.01799510,0.11423273,-0.10398585,0.00854800,0.23028596,0.08456081,-0.06027404,0.10435835,-0.13399816,-0.15662839,-0.02954946,-0.06074295,-0.07400455,0.10872301,-0.05876103,-0.10708652,0.07225342,0.23049241,-0.00486789,-0.23177604,-0.27486899,0.06490020,-0.02725721,0.03002318,0.07140012,0.19665459,-0.11535746,0.13784699,0.41871887,-0.16051573,-0.01109852,-0.04035133,-0.13308723,-0.13726774,0.06255950,-0.08508365,0.11158868,-0.15033264,-0.19735980,-0.01199315,0.12690869,0.10848707,0.13822481,0.07172826,-0.16453968,-0.05635607,0.27316660,-0.01172849,0.33927074,-0.09084740,-0.17470676,-0.01795180,0.19750766,-0.18541609,0.17476986,-0.23484321,0.05367506,-0.20998070,0.09356783,0.03937686,-0.03096565,0.10028093,0.19277437,0.12324180,0.15995839,-0.04710363,-0.26298666,-0.03257743,-0.02013787,0.19647773,0.15162350,-0.04660163,-0.06932065,0.05168033,-0.17212456,-0.23701291,0.25249732,0.00929074,-0.04932925,0.16564432,0.01769757,-0.21019056,-0.00130802,0.08060403,-0.01931486,0.13431506,-0.02971864,0.03427931
0.00591065,-0.20133406,0.04807530,-0.04907762,-0.12159152,0.26456913,-0.10673748,-0.05092432,0.18641613,0.02191255,0.09614408,-0.05421025,-0.13462248,0.00293758,0.19541673,-0.10020691,0.16745082,0.14441624,-0.04385202,0.02868639,-0.23298202,0.02676995,0.14570165,0.25279686,0.00450267,0.11137257,0.17614491,0.03919867,0.05151592,0.05849062,0.29753748,0.11640493,0.09780446,0.04707212,-0.04428800,-0.02099264,-0.21877410,0.13340971,0.20303310,-0.22643742,-0.14340198,-0.11357223,0.22979018,0.03501001,0.31079331,-0.01812184,0.11025874,0.15362330,-0.28167927,-0.08714890,0.00399471,0.02476938,-0.29626015,0.07958026,0.14996175,-0.15775877,-0.02420067,0.35623905,-0.11812148,0.01921836,0.00352316,0.32423288,0.21962281,-0.09653831,-0.18913364,-0.25113627,0.01910459,-0.18548028,-0.08467887,0.14200404,-0.08723713,0.11531884,0.13383752,0.10734428,0.31186295,0.07075592,0.06829267,0.19602977,0.06195125,0.17871933,-0.04359664,-0.09161262,0.12507245,0.05906353,0.02498064,-0.06133192,-0.05298400,-0.32078370,-0.40977389,0.03824656,0.14234589,-0.08100574,0.15709318,-0.26810363,-0.25957447,-0.03684442,-0.00043760,-0.01711798,0.03266652,0.14633799,-0.12564197,-0.32188106,0.13655724,-0.16429271,0.02563836,-0.01913310,-0.01937650,0.17876302,-0.10716045,0.11835299,-0.00491739,0.29319587,0.03728468,-0.08125979,-0.14519241,0.06772765,-0.08841472,0.09374402,0.29397622,0.21217245,-0.16762820,0.06851885,0.10327044,-0.03712345,0.00879187,-0.22438340,-0.10305708,0.14230514
0.23153757,-0.02971425,0.06997586,0.04751987,0.15321088,-0.04918865,-0.02145123,0.26971316,-0.04975998,0.01087390,-0.18489951,-0.28049406,-0.00516737,-0.10028636,0.02918911,0.18376134,-0.10045560,-0.01454837,0.04533191,-0.10097602,-0.10606667,0.10651457,-0.12415628,-0.28503194,-0.08764345,-0.04244740,0.24479470,0.07368395,0.01875210,0.03748001,-0.10171746,0.03585830,-0.01408618,0.03483515,0.06471644,0.15822521,0.19782139,0.00709740,0.03340773,0.07204629,-0.00478876,0.01484943,0.10397968,-0.06034523,0.24851602,0.06686639,-0.25450614,0.07794365,-0.20826469,0.17817217,-0.03972044,0.06264484,-0.30112195,0.11312905,0.05687414,0.18785368,0.34053165,-0.02189786,-0.19978200,-0.18061541,-0.00891361,-0.04720553,0.04921068,0.15448831,-0.09130020,0.09579471,0.25999939,-0.18259273,-0.06770213,-0.02450357,0.08565034,0.04058404,0.03019862,-0.01241085,0.16991465,0.10207561,-0.01208884,0.24369794,-0.02444576,0.12680796,0.07018291,-0.12931795,-0.32809883,-0.05314664,0.01874309,0.02036328,-0.05874976,0.33229181,0.15094627,0.09374936,-0.10941540,-0.07754324,0.07569042,0.00700201,-0.27715784,-0.16504733,-0.14322259,-0.06588504,0.04455089,-0.00919394,0.00709550,0.38628647,-0.02265135,-0.01259452,0.05986973,-0.03172015,-0.06421380,0.06577986,0.04083563,-0.10181595,-0.24338998,-0.20843178,0.31598014,-0.05029463,0.02362359,0.07142510,-0.03500024,0.12459290,-0.12701239,0.02839958,-0.05277234,-0.11857224,0.18184854,-0.07090361,0.11771927,-0.20497300,-0.17604537,-0.07657205
-0.23696823,-0.33094913,0.35204852,0.16261305,-0.13737802,-0.00278277,0.15717313,0.46215916,0.02282141,-0.19778368,-0.18285097,-0.19819941,-0.21443824,0.01921570,-0.04059168,0.04897311,0.01596184,-0.19391657,-0.00788596,-0.02014407,-0.19990149,0.00518262,0.03374271,0.04644395,0.08154781,-0.01440433,-0.00446025,0.01890978,-0.11046310,0.00748389,-0.07304794,-0.01701241,-0.02200842,0.11578710,0.36175025,-0.04610020,0.16059001,-0.06454547,0.06664947,-0.16562103,0.11190555,0.03863444,-0.02601276,0.17596728,-0.14594559,0.10222134,-0.12663449,-0.32925174,0.29329011,-0.29876021,-0.02065428,-0.25576350,-0.00561577,0.29915854,0.08097255,-0.06636209,-0.38171661,-0.12085587,-0.14783111,0.01208113,-0.05891937,0.03125936,0.36192825,-0.03368989,0.05376588,0.05890816,-0.01151318,-0.13811576,0.14546122,0.00708558,0.16437045,0.18214680,-0.09477847,0.09865709,-0.10157049,-0.04168146,0.03116346,-0.14168876,0.07618427,0.12584367,-0.04604685,-0.01638995,-0.16305418,-0.21720007,0.02339332,-0.14861666,-0.05094524,-0.05880675,0.04278477,0.06779901,-0.01133263,-0.09032678,0.12551294,-0.01457395,-0.08629192,-0.13407691,0.04586957,-0.20686637,0.00423664,-0.06940321,-0.16277562,-0.05992739,-0.06784169,0.04001573,-0.01011266,0.30795771,-0.00541358,-0.16641104,-0.17026724,0.17266935,-0.09170086,0.04665719,-0.04413372,0.14110312,0.10769715,0.12277611,-0.08969153,0.07588971,0.08826178,0.00162900,0.02407296,-0.02085028,-0.07048506,0.21975879,0.27185723,0.03383456,-0.14861831,-0.09940496
0.25999954,0.11311948,-0.09883119,0.06738790,0.00310004,-0.07133911,-0.08005898,0.13008006,-0.11787996,-0.01348371,0.15847331,0.12190446,0.16570142,-0.03375139,-0.11656331,0.06317952,0.15448429,-0.05655054,-0.18421189,0.14117762,0.16070145,-0.11465651,0.13247323,0.00666246,-0.00713604,0.20593038,-0.10027511,-0.25360659,-0.25084496,0.01100098,0.33122241,0.26202726,0.12483107,0.23147243,0.09800975,0.03906986,0.13765219,0.10893983,0.31372857,-0.07288720,0.21720880,0.04697207,-0.25511473,0.07835709,0.10990901,0.23208055,0.03294457,-0.14741491,-0.15355122,0.23593837,0.02630659,-0.09574053,0.09974777,-0.08115543,0.26021317,0.02341560,-0.17879783,-0.01272215,-0.18036810,-0.03274710,-0.20680757,0.16993700,-0.17850678,-0.04984913,0.24418448,0.00607261,-0.08850211,0.13862681,-0.02830275,-0.09044260,-0.07432971,-0.09556152,-0.13675827,-0.06917673,-0.14004204,-0.08703282,-0.12695752,-0.01894521,-0.09045821,0.08738750,-0.06350449,0.00960381,-0.00924629,0.13845876,-0.00008735,0.20994011,-0.02717540,-0.15386511,0.17441644,0.13827755,0.04684639,-0.18362801,-0.08035100,0.09627701,-0.25303218,0.25362775,-0.10071082,-0.00359873,-0.01840788,-0.16658117,0.23593871,0.26050991,-0.03753988,-0.18729116,0.25048262,0.26011053,-0.07961085,-0.08091111,0.01859604,-0.36664751,0.03679487,0.12501504,0.06926964,-0.12316698,0.11853433,-0.03496683,0.09903830,0.07491133,0.13227093,-0.04673911,0.10587572,0.15579493,0.12682988,-0.00250618,0.06966431,0.16619067,0.08417008,-0.06984241
-0.11524279,-0.12575203,-0.05324778,-0.10140163,-0.10252014,0.20357932,-0.14080945,-0.05993241,0.12637751,-0.03222928,-0.06417435,0.28013361,0.18411176,-0.33428633,0.07216768,-0.01234391,0.04231979,-0.10715070,-0.16240555,-0.07919735,-0.03918087,0.05422416,-0.30213493,-0.00615295,0.08002016,0.14738514,-0.26093486,0.07239936,-0.01423430,-0.28252283,0.07893570,0.00805770,0.06817684,0.13078812,-0.05900316,-0.00712387,-0.18846700,0.04310396,0.10971931,-0.03142032,-0.09908097,0.10457215,-0.20798533,0.15165882,0.06654776,0.00458836,-0.12133864,-0.06924348,-0.01574430,-0.30400360,0.00970991,-0.00665333,0.03420835,-0.00419825,0.18926628,0.01683768,0.00377944,0.20635550,-0.12572969,0.02808764,0.01352126,-0.03469971,0.01018131,0.05873407,0.09497025,-0.01297619,-0.16306460,0.26260555,-0.24143909,-0.03119404,0.12875213,0.11736866,0.02081986,0.03253487,-0.20993735,-0.03038560,0.11599292,0.11691346,0.09194843,-0.01743723,0.17277685,0.13205874,0.08359942,-0.04338021,-0.07413458,-0.01176258,0.05165775,0.26970929,0.18343793,0.03843342,-0.25891066,0.12562469,0.26812875,-0.13022384,0.09294481,0.21896058,0.00305483,0.06549976,0.04904455,0.25076473,0.16084859,0.30250263,0.14666250,0.15130824,-0.11115285,0.12195510,0.19062611,-0.01797014,0.28144571,-0.03795617,0.09798162,-0.05871202,0.12822333,0.03054379,0.06599360,0.15239654,-0.16542335,-0.14855328,-0.08553746,-0.16060460,0.11504810,0.05404932,0.10389771,0.07293013,-0.11928819,-0.18475586,0.09567758,-0.19147004
0.07100756,0.01947965,-0.09939135,0.01462823,-0.03080622,-0.01447767,-0.15104815,0.00780294,0.00410004,-0.06483624,0.04917943,-0.03149369,0.02016320,-0.00729674,-0.16138349,-0.01187760,-0.01711356,-0.01917848,0.00565041,0.04704771,0.06431432,0.04574467,0.02928118,-0.01510382,0.01947548,0.09595106,0.09307604,-0.08749223,0.04781826,-0.04795164,0.13540761,0.11831800,0.01625241,0.00969556,0.07913009,-0.12042025,0.04876005,-0.00129430,-0.06332090,-0.05530623,-0.12617610,0.05132408,0.00831071,0.00157554,-0.00405643,0.00227677,0.11441235,-0.05641634,0.07612853,-0.02983790,-0.01224328,0.06566957,-0.01483575,0.12098364,-0.06682350,0.00189470,0.11188636,-0.00501932,0.12349112,-0.07784824,-0.02345253,0.02310100,-0.00801635,0.03461155,0.09217285,-0.03171301,-0.01322395,0.00243921,-0.09643028,-0.11277269,-0.05261793,-0.01870458,-0.16487703,-0.02314477,0.02283675,0.05103021,-0.14238214,0.15141205,-0.13174121,-0.01474151,-0.09325027,0.09238399,0.08129810,0.00779671,0.04271897,0.04454206,0.23507097,0.02574248,0.00299623,0.04948931,-0.02840762,0.01473594,0.00542958,0.11528336,0.02411784,-0.10634588,-0.05516955,0.00200673,-0.17744756,0.06094496,-0.10546754,-0.04109028,-0.06784192,0.09452549,0.26466259,0.13455024,0.06742303,-0.05236050,0.01789566,0.03303967,-0.21293925,0.07457239,0.11402706,0.24767011,0.02550874,0.00824193,0.06034223,-0.04855432,0.00231501,-0.02868674,-0.15201905,-0.14657606,-0.13032398,-0.01348447,0.02521186,0.06617413,-0.00528413,0.11785696
-0.12655228,-0.02827051,-0.17131063,0.30150339,-0.01105321,-0.05268998,0.01423965,-0.21495977,-0.08499723,0.06607731,-0.05601456,0.21829528,-0.13304703,-0.06484721,-0.06373783,-0.23009934,0.06509355,-0.15642051,0.15375741,0.17096451,-0.19679929,-0.18076123,-0.28692532,0.01079927,0.00469182,0.15555273,0.01466726,-0.28124189,-0.04222235,0.04630597,0.03444944,-0.06299344,-0.17122297,-0.11714796,-0.08275283,0.19512041,-0.00186309,-0.03159491,0.22865030,-0.02805712,0.05291327,0.06633857,0.17281364,-0.19894348,0.02750051,0.00567060,0.12935703,-0.04404737,0.17142959,0.04051245,-0.06559594,0.12985131,-0.00899232,-0.16742487,0.19425975,-0.12643448,-0.09731703,0.02171009,0.10891899,-0.17187573,0.11845536,-0.32599500,0.12436838,-0.08695433,0.09262920,0.31329289,-0.08276560,-0.04517171,0.21246549,0.08500651,0.14875022,0.10639858,0.04084115,-0.06941941,-0.01473568,0.07205909,-0.06342238,0.07714316,0.08549301,-0.19425888,0.00056902,-0.25928229,0.44093987,0.01382689,-0.07415541,0.11344366,0.13655031,0.14184892,-0.14933147,0.22792690,0.05954054,-0.43036878,0.26861444,-0.01828995,0.18846376,-0.08604039,0.08045013,-0.22027902,0.33071655,0.10968547,-0.27810061,0.12214350,-0.03361605,-0.01444788,-0.03294319,-0.01113350,0.13417234,0.16833836,0.10231069,0.01614842,-0.32920107,0.04152577,0.04368877,0.05097203,-0.06800823,0.16004668,0.01647696,-0.14661469,0.09151875,0.04475397,-0.13390557,0.10104161,0.21578318,-0.19523558,-0.16663393,-0.28789425,-0.14708278,0.28771454
0.08597665,-0.05368510,0.08372572,-0.09390632,0.29357880,0.00769458,0.01286760,0.07596241,-0.18912013,0.21468629,-0.02305342,0.13542858,-0.06187250,0.01354632,0.11793789,-0.49582621,0.13509147,0.20792869,0.01307617,0.03841051,-0.14654180,-0.13776416,0.07786424,-0.18472087,0.16474664,0.13880631,0.02291074,-0.00997830,0.02274973,0.06598362,0.08397553,-0.22091705,-0.10865039,0.01203857,0.12346878,0.02025928,0.46908975,-0.05929642,0.00479171,0.25521240,-0.06568615,0.09613168,0.00329176,0.05219243,-0.02597321,0.06094648,-0.07627344,0.27692696,-0.21825321,0.09566998,0.03725928,-0.06528924,0.10373928,-0.06747263,0.04866748,0.23581991,-0.28711927,-0.32363942,-0.04693834,0.11177881,-0.09998007,-0.03975614,-0.03270024,-0.02625022,0.08341383,0.27675036,0.10674511,-0.25233203,-0.18931793,0.08561017,-0.16737479,0.13592039,-0.03234091,-0.01848585,-0.07493554,-0.20414655,0.02276593,-0.18880056,-0.17116083,0.00186016,-0.01282955,0.01162624,-0.25968367,0.01972421,0.04311808,-0.24458043,0.03373739,-0.14586908,0.15126064,0.14626211,0.08378422,0.14721651,-0.06677748,0.14588927,-0.04169129,0.05697882,0.09740272,-0.00768954,-0.07999788,0.09951179,-0.07641582,0.01575553,0.08157872,0.07467135,-0.02007075,-0.07396654,0.08105617,0.33501968,0.33156422,-0.01800169,-0.21026850,0.09179352,-0.01113985,0.01054044,0.08524201,0.11032961,0.03889101,0.06239375,0.17324245,0.26017833,-0.22279494,-0.06126089,-0.23184706,-0.15959513,-0.14570247,-0.12095725,-0.01789030,-0.06217023
0.17132604,0.06536628,-0.19032530,0.15392219,-0.03645476,-0.19496375,0.05134954,0.11413421,0.00978500,0.14315382,-0.03974736,-0.00367872,0.15782310,0.12865089,0.02131578,-0.00772692,-0.16233718,0.03069268,0.02516617,-0.26029682,-0.05164695,-0.11776534,0.14494471,0.05376463,-0.07187303,0.19377206,0.01317478,-0.11568853,-0.02841933,-0.13147824,-0.01265658,0.12959138,0.13525778,0.21328580,-0.17696942,-0.06741619,-0.03794654,-0.11863513,0.00516498,0.05039606,-0.14246932,0.16158845,0.17657739,0.11576124,-0.03763967,0.11856104,0.09556802,0.00241373,0.01876613,-0.02099401,0.08098031,-0.08696952,-0.02272275,0.05151542,0.17821476,0.08233806,-0.18820003,0.09335092,0.18837926,0.28780457,-0.11788724,-0.01923241,-0.03382145,-0.09053005,0.02365842,-0.15694332,-0.18784323,-0.28196600,-0.08964738,0.11504929,0.19859129,0.09462915,-0.11412915,0.00289580,0.36650869,0.01127977,-0.23750308,-0.21232328,-0.08921953,0.05654448,-0.10833268,-0.06421778,-0.03544904,-0.01068563,0.16178544,0.02512553,0.09689098,0.21586426,-0.08228537,-0.08101080,-0.03253257,0.29182333,0.17723668,-0.05607527,0.07176144,-0.14772081,0.10797718,0.27009779,0.00305993,-0.06214081,0.16821130,0.15596706,0.13680540,0.34237021,0.11515616,-0.08653419,0.03667381,-0.10282050,-0.25282982,0.15389088,0.22205295,-0.15913759,0.07986348,0.10301977,0.07591890,-0.20345314,0.09818954,-0.13315991,0.36953554,-0.02572371,-0.16495262,-0.22165619,-0.17272107,0.05272482,-0.01847270,0.18505843,-0.13068230,-0.06806590
-0.08158804,0.21008123,-0.18209456,-0.09311035,-0.05760930,0.16889367,0.25998244,-0.12579869,-0.04396452,-0.11608058,-0.12873068,-0.06336457,-0.04053390,0.12972377,-0.06415016,0.03788222,-0.05536307,-0.20021291,0.05031767,0.03691321,-0.13490601,0.12022393,0.02715429,0.36482117,-0.12134174,-0.30951926,-0.11695147,-0.01457970,0.22766083,-0.00376644,-0.00790272,0.06835130,-0.06507675,0.27989829,-0.14640060,0.18023589,-0.00954156,0.01626174,0.03980401,0.14610454,0.14332271,-0.04491216,0.10822338,0.02956234,0.07989692,-0.15808430,-0.15261464,0.04648945,0.02952386,-0.19333152,0.11097406,-0.25266120,0.05206110,0.08779584,0.21371339,-0.11598353,0.28324366,-0.24666050,0.09659775,-0.08132812,-0.12680429,-0.10613827,0.21479760,-0.25038221,0.13036625,-0.25354615,-0.10620709,-0.07867055,-0.03884222,0.02224136,-0.06422366,-0.11617929,0.00882601,-0.06268923,0.15415876,0.18797733,0.32694459,-0.14254166,-0.03591365,0.01445877,-0.01087040,-0.11314066,-0.23847152,0.10253095,-0.14942828,-0.08159436,-0.06252239,0.16923234,0.27167571,-0.10237454,0.16669127,0.14787020,-0.05214403,0.07469570,-0.06802898,-0.21715222,0.06260841,0.05169114,-0.17243160,0.38071683,0.05962679,0.12588170,-0.09790553,-0.10366008,0.25501469,-0.00861544,0.19238949,-0.19330394,-0.08262423,0.05312787,-0.39878705,0.19793208,-0.06678779,-0.41719615,-0.17023458,0.22001490,0.20372441,-0.26160419,-0.17173089,-0.10390455,-0.01520812,0.38357639,0.07745343,-0.15665255,-0.24793056,0.21339552,-0.11419119,-0.09574209
-0.07511215,-0.16721241,0.30888656,0.04959065,0.03198212,0.01931167,-0.02768932,-0.08417696,0.10405935,0.01241748,0.05318004,0.13399439,0.17014776,-0.03045053,0.07061053,-0.16013637,-0.16974087,-0.00139664,0.00133829,0.15077116,-0.07294513,-0.01860179,-0.04789598,0.19733368,-0.03480358,-0.20631915,-0.03767856,-0.20815642,-0.20524794,-0.02284737,0.06572917,-0.03101816,-0.08462745,0.00718266,0.02710511,0.00817780,-0.09368754,-0.02597571,-0.02263182,0.10590015,-0.19375327,-0.10805044,0.07327720,-0.07207078,0.12542854,-0.16115609,-0.14464812,0.09485273,0.24292399,0.23657854,-0.09143054,0.07415657,-0.05877510,-0.03805370,-0.06459672,-0.13917215,0.03118899,-0.22139399,0.10197989,0.22379342,-0.04364774,0.12988304,-0.03479631,0.14124522,0.03648197,-0.01684907,-0.28053513,0.03688497,-0.08800755,0.09058819,-0.11276200,0.04060901,0.15758146,-0.12754783,-0.06241111,-0.16941930,0.09120443,0.25613007,0.15317255,0.22168128,0.21495627,0.02360464,-0.16447718,0.05482245,-0.15469393,-0.24502322,-0.10473328,-0.11229642,0.06744702,-0.01172525,0.11879736,0.04024393,0.01301611,-0.18764803,-0.01403130,-0.00354218,0.03680605,0.04453264,0.14822151,0.08216728,0.35390294,0.14176701,0.03233680,-0.06616001,-0.00386074,0.18623133,-0.22769795,0.05106602,-0.03047971,0.07146834,0.30360270,0.03859664,-0.15011878,0.14409724,0.07511328,0.14794192,0.17296062,0.02376200,-0.19102676,-0.04230121,-0.16126944,0.22379933,-0.07619704,0.03868213,0.27588370,-0.13645796,-0.00256549,0.34893569
0.02450032,-0.09398060,-0.09676302,-0.07462455,0.15292518,-0.09621024,0.16947548,0.17871651,-0.02006811,-0.02581324,0.05896233,-0.13755937,0.06945299,0.16832153,-0.13307959,-0.22682725,-0.09507293,-0.08416476,-0.20582761,0.24012674,-0.49442902,0.01798842,0.05026944,-0.24341375,-0.16979644,0.15179983,0.23238923,-0.09595357,-0.36332330,0.08588449,0.07465523,0.00178351,0.24136977,-0.27000490,0.06813879,-0.13935262,-0.14054509,0.10487777,0.07950530,0.00954278,0.14149129,-0.01012247,0.18284483,-0.18563278,-0.38128734,0.16145486,-0.26930535,0.30008155,0.12140109,-0.26841521,0.29555196,0.22130293,0.04061677,0.13811380,-0.29339027,0.16832180,-0.02785254,0.03440354,-0.34876409,0.05009852,-0.08092488,0.05793376,0.25431353,0.11151670,0.07351623,-0.20975997,-0.22329463,0.15676817,0.17616743,0.03453831,0.16064139,-0.07825573,0.04468912,-0.04474250,0.10030556,-0.16391720,0.01916441,-0.07936893,0.09582661,-0.13443218,-0.10172850,-0.13191745,-0.21181637,0.05368930,-0.03226076,0.22088301,0.06046590,-0.05048550,-0.16870761,-0.04887231,0.14596720,0.22065516,0.12403060,-0.10948499,0.14707142,0.05963211,-0.24377850,0.07282435,-0.05867976,-0.06400025,0.12376038,-0.04239365,0.07723556,0.12558371,-0.13067265,-0.00448191,0.03216099,-0.09545372,0.19473837,-0.14644648,0.10238018,-0.09371754,-0.23263606,-0.21684825,-0.38573492,0.07195543,0.21819201,0.01906970,-0.05772407,0.04211827,0.09866389,-0.10392273,0.05781674,-0.01977551,-0.03963842,-0.04873079,-0.05759578,-0.09392528
0.01692190,-0.04224996,-0.12549090,-0.01899860,0.19093294,-0.00370801,-0.34567264,-0.21618603,0.09045976,-0.00693582,-0.29618609,0.04552183,0.05542596,-0.12765571,-0.24009562,0.08832723,0.15814367,0.00458559,0.05374154,0.04847757,0.15993346,0.06323951,-0.14169832,-0.07581861,0.01423732,-0.28153777,0.14034258,-0.13507509,0.08349973,0.19564572,-0.13850421,0.09891537,-0.02345023,-0.18776767,-0.05436042,0.25390589,0.20742896,-0.12157566,0.04425741,-0.03302106,0.07764785,-0.06632607,-0.11075818,-0.10945046,0.05759797,-0.05663893,0.32531759,-0.16837758,0.04826866,-0.18457422,-0.02871009,-0.16375367,-0.08988346,-0.07419798,0.07124170,-0.17755616,-0.11548382,0.23000316,0.22221930,-0.03997599,-0.03930223,-0.01225851,-0.05333103,-0.03500920,-0.03108800,-0.31531784,-0.12270822,-0.01741676,0.10669732,0.35726738,-0.03942795,-0.03897298,0.19324557,-0.18822578,-0.02782917,-0.00235484,-0.08614014,-0.17834911,0.04475292,0.02837907,-0.19051439,0.33469337,-0.24461851,-0.06244382,-0.13677880,-0.17056118,-0.07624808,-0.12703955,-0.06199821,0.06821034,0.09367536,-0.02931841,-0.16282013,-0.06031208,0.26526368,0.14857374,-0.00537442,-0.06646072,0.04956697,-0.17770703,0.04239276,0.07439217,0.08278020,0.06180217,-0.03316859,-0.16055425,0.10595407,-0.12363069,0.14614850,-0.06470689,0.17819300,0.10048847,0.06884863,-0.13987285,0.11572924,0.14577129,0.25344777,0.21414606,-0.01723436,0.00455874,-0.16018929,-0.21231887,-0.20736615,-0.04080361,0.00412682,-0.05052239,0.12219355,-0.11075404
-0.12603205,0.03745578,0.11669789,0.09509075,0.09536793,0.28177655,0.07913911,-0.08009589,-0.10280469,0.00595349,0.27140480,0.06746580,-0.08772270,-0.05609387,-0.07491842,0.17879058,-0.16882132,-0.03187597,0.01435624,-0.02720828,-0.06794361,-0.01055902,0.07550501,0.02536258,-0.07108001,0.00585800,0.17578933,0.05143797,0.13256671,0.11234197,0.20019785,-0.02929126,0.06011105,0.11276554,0.05628218,-0.23432361,0.15080737,-0.15395603,0.00041317,-0.03454252,0.05061466,-0.16780342,-0.10149730,0.01719036,0.12994130,-0.07988144,-0.01185112,-0.05423150,0.19811112,0.20689015,-0.15253958,0.02898858,-0.01458021,0.08302625,-0.00100643,-0.16124910,-0.06210354,0.02248012,-0.00082218,0.17633852,0.22914374,-0.03983477,-0.13089344,-0.17851187,0.03271509,0.13928355,0.08677676,-0.07718675,-0.01844653,-0.02928147,-0.11211071,0.03965200,-0.05767098,-0.02348028,0.12127982,-0.02752313,-0.06832305,-0.06576686,0.10167654,-0.06295366,0.07330852,-0.04916263,0.08840524,0.15910394,-0.04386786,0.17378668,-0.03507425,0.12231145,-0.02643904,-0.11664530,0.07053276,0.10961360,0.14003226,-0.04827803,0.05114400,0.24019970,-0.06627172,0.01588844,0.05161142,0.04795847,0.06227836,0.18291882,0.00707823,0.11098070,0.15232290,-0.06885981,0.08436435,-0.12676796,0.08641579,0.08860644,-0.02057882,-0.01541226,-0.02199694,0.13167928,0.04665608,0.08850236,0.17008084,0.12900995,-0.08992498,0.13123731,0.01421836,-0.17974569,0.13688605,0.13281475,-0.28744009,-0.02216014,0.19239089,-0.05707404
0.09837735,0.17674258,0.27703935,-0.32540888,-0.04919677,-0.26164493,0.30884817,-0.14241634,0.12150002,-0.33873659,-0.01075537,0.35523489,-0.34587422,-0.18052652,0.01491732,-0.09527283,0.23121144,-0.10932561,0.15654321,-0.02527684,-0.19109903,0.16728660,-0.15585707,-0.09437805,-0.10557687,0.15158731,-0.25814518,-0.09308283,0.05306217,-0.02993847,-0.03123875,0.12684168,-0.14568384,0.14951570,0.05721988,-0.27263346,0.10453383,-0.06966969,0.09977344,0.12039333,0.14786316,-0.19383463,0.21824718,0.06015152,-0.07184997,0.05737224,0.37025559,-0.02713961,0.05057554,0.06548644,-0.16027838,0.15279956,-0.11146776,-0.17634629,0.10993624,0.00318009,0.09226315,0.24563609,-0.02483644,-0.14681284,0.07094811,0.08504956,0.10536491,-0.02025509,0.11903881,0.27317673,-0.09713017,-0.11579949,-0.12099355,0.14015631,0.15168594,0.02065996,-0.07914796,0.01079583,0.13616219,-0.25645795,-0.21214302,-0.30040011,-0.08766207,-0.04017023,0.27941170,-0.03066324,-0.16331591,0.02279778,0.08824722,-0.00196277,-0.18777661,-0.22170846,0.01921845,-0.03986006,-0.04205478,0.20246829,0.08243140,-0.03870216,-0.15219221,-0.06966339,0.15952852,-0.00391524,0.21153377,-0.54699552,-0.02503168,0.06721320,0.26928398,-0.00297861,0.17338368,0.26833302,-0.40435904,-0.05544317,-0.07508918,-0.28469756,0.05853574,0.15020081,0.02474359,-0.21647458,-0.01857336,-0.06615929,-0.06310751,-0.15690002,-0.16221358,-0.17034498,-0.28191724,-0.23376946,-0.05703710,-0.10319656,-0.00592751,0.03448799,-0.16622819,-0.12408568
0.07989004,0.32657316,-0.15996337,0.39942533,0.15459304,-0.18718402,0.33126506,-0.25784388,0.06544458,0.03843134,0.19173026,0.05777835,0.27682292,-0.10374189,-0.06962529,0.12338009,-0.13627692,0.11434709,0.02923615,-0.10920490,-0.08023609,-0.13029368,-0.09642460,0.09360648,-0.01047292,-0.27174792,-0.07052721,-0.07084338,0.12247977,-0.30866182,0.16321209,-0.23297437,0.06231866,0.00318496,0.31871900,-0.00055796,-0.03344119,0.11935743,0.21562415,0.03317795,-0.29053679,0.15220085,-0.00909025,0.17790514,-0.04013288,-0.02679346,0.03976394,0.05874935,-0.06185682,-0.19194233,0.12842782,-0.04481178,-0.08406739,0.01631118,0.02233674,0.11326300,-0.03433839,0.02030820,-0.12373789,-0.11551470,0.04979895,0.00491081,0.23508036,0.13298719,0.35954109,-0.05117026,-0.16771097,-0.18171130,-0.20890574,-0.34704682,0.05906072,0.15222944,0.04668804,0.03328900,0.09837125,0.04300476,-0.09341583,-0.05723874,-0.17103823,0.01767021,-0.00232409,0.15172487,-0.00431669,0.30502069,0.08170903,0.26141152,0.13306512,-0.18315619,-0.07671276,-0.18443699,0.34418851,0.08630766,0.17101760,-0.17232484,0.07057016,0.19270580,0.01603769,0.16415714,0.00854071,0.02712191,0.00497258,-0.07735894,-0.03666914,-0.13524844,-0.17247926,-0.12104076,-0.15450168,0.16413134,0.05201951,-0.23240347,0.08550161,0.08294336,0.17838068,-0.06508241,0.10475105,-0.14732540,0.07867271,0.11259386,-0.14544106,0.15748067,0.09290711,0.02083183,-0.01787431,0.14162835,0.06134137,-0.22164936,0.00593111,-0.23270495
-0.07656901,-0.09227284,-0.03119669,-0.06337997,-0.06618696,-0.11079415,0.21223420,0.18171187,0.15883313,-0.26353645,0.05928114,-0.07392954,-0.03122700,0.08964890,-0.11266375,0.01111747,-0.00174818,0.15197344,0.29345867,-0.00030079,-0.17827150,0.20369269,-0.06128029,-0.02760979,-0.02659350,0.03531003,-0.32451993,-0.08347625,-0.03510441,0.19332315,-0.41406685,-0.00264985,0.08914011,-0.15596874,-0.10054884,-0.12437400,0.03567469,-0.08476367,-0.12192520,0.06979755,-0.06840598,-0.03266111,-0.15063459,0.11227562,0.19565347,0.24723297,0.02945706,-0.05597576,-0.19086865,-0.01509056,-0.11573717,0.16181746,0.14954901,0.02449924,0.03702212,0.00322188,-0.23016359,-0.18344681,-0.04259386,-0.08210748,0.02893377,-0.02416040,-0.10795219,-0.19458054,-0.00052539,0.24307901,-0.04029643,0.07317369,-0.20060359,-0.08280135,-0.03829284,0.04486786,-0.00765734,-0.03262780,0.11128569,-0.11664848,0.02275490,0.11279810,-0.02836799,-0.17752458,-0.19753572,-0.14897227,-0.07837994,-0.09553402,0.22038755,0.00349236,0.16246122,0.14849384,-0.15852378,0.05690464,-0.30727133,0.03260309,-0.28788832,-0.27864587,-0.06672636,-0.00826130,-0.17480336,0.06722197,0.12221081,0.09615587,0.17672072,0.09671062,0.03928484,-0.09421416,-0.04258936,-0.17584693,0.14762729,0.15626878,-0.14651151,-0.11003234,0.10585028,-0.09680519,0.11786830,-0.19841689,-0.12483779,-0.12984112,-0.04629793,0.28901425,-0.00963016,0.01184978,0.16689101,-0.05572851,0.08297727,0.15811101,0.02393520,-0.32415894,-0.20105976,0.07855505
-0.18613970,0.00975026,-0.22057372,0.09980384,0.06275224,0.01542304,0.22557484,-0.07378175,-0.17779560,0.04723941,-0.31912512,0.15058762,0.20109981,-0.26340020,-0.19679978,-0.05799303,-0.07858881,-0.10520437,0.08601040,0.10930490,0.19946420,0.13001037,-0.04859940,-0.15652235,0.19702999,0.13929565,0.40465024,-0.19975007,0.10250406,0.18098685,-0.19646579,-0.06864119,0.12554188,-0.21139856,-0.04692296,-0.11627953,-0.16185299,-0.18226406,-0.16702338,-0.08558245,-0.11856569,0.03746840,0.13431171,0.24047284,0.00967290,-0.20959553,-0.16812482,0.15134963,-0.05499254,0.05671988,0.21276358,0.21249704,0.05214408,0.21432029,0.33768997,0.11566698,-0.02589433,0.08153497,-0.20008700,-0.10971574,-0.08685453,0.17585148,0.06005733,0.00465376,-0.16927715,-0.13632065,0.13938032,-0.07894194,0.11606554,0.22728856,-0.12430858,-0.22278604,-0.14752358,0.03434649,-0.09722175,-0.30088213,0.06655339,0.06570166,0.17669323,-0.12232189,0.15065682,-0.09456041,0.33078238,0.17136294,0.15471973,0.15042503,-0.42993757,0.04876242,-0.15382573,-0.07328836,-0.15183958,0.08541425,-0.12928492,0.07507378,0.11233564,0.03128295,0.36613169,0.08444508,-0.11441205,-0.13946079,-0.03727961,-0.12775561,0.09584232,-0.07975657,0.15018280,-0.00742382,-0.08140088,-0.13184601,0.03101569,0.14049548,-0.15366192,0.16959907,-0.14568049,0.08386503,0.25623533,-0.12488846,0.10882796,0.00500324,-0.04548031,-0.18658495,-0.14190233,0.07315828,-0.00556241,0.11639162,0.11539563,0.07982124,-0.25957519,-0.24439320
0.02051812,0.00725765,0.02072558,-0.00083156,0.02777916,-0.05660127,0.01582565,0.02352768,0.00551972,0.01996297,-0.07197882,0.03352987,0.01857826,-0.02867293,0.08245780,-0.05037093,-0.03811344,0.00712777,-0.05700824,-0.03133637,-0.13503474,0.05858444,-0.02345792,0.06854339,-0.00867512,-0.06576244,0.05336522,-0.09608994,0.03006459,0.06515283,-0.09023777,-0.02409815,0.01092696,-0.01648594,-0.05214007,0.05555612,-0.07620809,-0.01914316,-0.01389514,0.04130165,-0.00503066,-0.15121171,-0.01004371,-0.01128798,-0.03403580,-0.05060136,0.03421760,0.01412292,-0.03275755,0.00337155,0.00607816,-0.09823623,0.05282668,-0.02885070,-0.02542723,-0.00026668,-0.09563217,0.09326356,-0.04635382,0.07248907,0.00961733,-0.03827234,-0.12178545,0.02146125,0.03814672,0.21798041,-0.18668891,0.08564779,-0.01784822,0.09307015,-0.11666156,0.04137965,-0.36799258,-0.09349938,-0.14096461,0.05063826,-0.08255243,0.09170443,-0.07450332,0.04118601,0.07345804,0.01350951,-0.14705276,-0.11410427,0.09094581,0.02208946,-0.18643631,0.08732026,-0.05511864,-0.24950026,0.16763130,-0.09726345,0.05933338,0.04058487,0.03591273,-0.06167848,-0.11905256,-0.06645613,-0.20197999,-0.05329188,0.08781742,-0.20669615,0.00179441,-0.22072423,0.13691084,-0.15062924,0.21386570,0.16395868,-0.12337641,-0.25911063,0.00615361,-0.01472588,0.06334849,0.31961828,-0.05430992,-0.20858000,-0.05195002,-0.04622780,-0.04195372,0.10722657,-0.08370220,0.01060565,0.15773541,0.22428937,-0.09649654,-0.21295631,0.03744509,-0.04944664
-0.01239933,0.02381937,-0.13556378,-0.06176248,0.03492927,0.05832789,-0.13921164,-0.00418084,0.09161348,-0.00973446,-0.02611061,-0.05522919,-0.06361501,-0.02109376,-0.04139083,-0.07416150,-0.05317559,0.01154090,0.00187993,0.02877764,-0.03882273,0.12183214,0.07255219,-0.10751896,0.04490096,0.03406798,0.00601056,-0.23154342,-0.07889844,-0.12856607,-0.09909170,0.04213946,-0.04862677,-0.08237525,0.04685235,-0.17182538,0.25948381,0.04934104,-0.01619091,0.04858810,-0.14615840,-0.06753549,0.09859849,-0.00959084,0.05449397,0.09653244,0.09139827,0.03292656,-0.02579475,0.03285251,0.01971787,-0.06887314,-0.04916626,0.06349784,-0.09577902,0.07024795,-0.12943687,0.03689196,0.06495595,0.02456590,0.12140220,-0.03758862,-0.03846733,0.05601484,-0.02342973,-0.29704845,0.10022952,-0.01798603,0.15257517,0.12324663,-0.19176151,0.24596009,-0.15442379,0.09895989,-0.20257404,0.16121753,-0.15321308,0.21488181,0.07317633,0.10943751,0.24359031,-0.10012583,0.05181516,-0.15239175,-0.08664285,0.05459185,0.15534073,-0.02442762,-0.04299671,0.18588987,0.00124658,0.19057333,-0.17077661,-0.03171387,-0.19274102,0.06622348,-0.02769778,-0.05778949,-0.00511626,0.02671021,0.05584888,0.34226313,-0.04601608,0.15681735,0.13286765,-0.12104356,0.03044756,0.17672665,-0.06123258,0.15189315,-0.23137531,-0.10561515,-0.04976608,0.21908137,-0.03631751,-0.17376651,0.08559162,-0.08314924,-0.05155445,-0.15595086,0.11205414,0.01056031,0.06554776,0.16143718,-0.03485369,0.04734797,0.05015581,0.14804290
0.10574613,-0.07377510,0.03102959,-0.28960702,0.11764066,-0.25712812,0.13418546,0.01773522,0.04378498,0.43260589,-0.04896096,0.21144491,-0.06262522,0.15822537,-0.18498136,0.03514766,-0.11827360,-0.18517679,-0.00212792,-0.16035257,-0.16412760,0.13916680,0.06383603,0.04267759,-0.02761737,0.06075075,0.07522183,-0.01284496,0.26750255,0.08979201,-0.12914269,0.13989626,0.03109272,-0.06168548,-0.23276377,-0.09835216,0.04858809,0.29844815,0.15246217,-0.16003597,0.12654519,0.03641356,0.11275166,0.00495733,0.04440771,-0.06426462,0.13099667,-0.03143327,0.10167570,-0.03357365,0.06626220,0.06052597,0.17175370,0.16263244,-0.12954667,0.06679684,0.07775596,-0.01623582,-0.05843727,-0.11230039,0.09098378,0.08414920,0.17940901,0.14948328,0.08081838,-0.00096846,0.24880727,0.06152695,-0.01378269,0.00291186,0.00410421,0.21686721,-0.08877091,0.02304454,-0.01423141,-0.01437035,0.23108950,-0.02874825,-0.06865925,0.24520171,-0.02660207,-0.00591851,0.08923390,0.16921268,-0.12042718,0.05293807,0.19642524,0.32980126,0.21879289,0.22729197,0.02600769,0.03070614,-0.06529610,0.20572700,0.15447092,0.09186617,0.05563105,0.15044579,0.26578450,0.13714030,0.19985881,-0.07925336,-0.14691614,0.06569653,0.00575706,-0.05168828,-0.05831100,0.02226179,0.03677524,-0.18988106,0.24590868,-0.09124358,0.03171932,0.13268554,0.06957503,-0.16889533,-0.01685146,0.01559112,0.12120678,0.00682675,0.16546315,0.07336892,-0.33647826,0.01382158,-0.18036327,-0.15381014,0.00380694,0.10087627
0.06036314,0.17069161,-0.04597402,0.09988870,0.05420072,-0.11348998,-0.02359928,0.20687091,0.09615853,-0.03458348,-0.15470926,0.07640240,0.00335502,0.07025817,0.02709736,0.11199310,-0.02750248,-0.01558787,-0.04107451,-0.11905290,-0.06180180,-0.13066702,-0.12899800,-0.05235722,-0.08804028,-0.04130529,0.00421953,0.11739408,-0.14838988,-0.08336228,0.03486416,0.14331709,-0.02049025,-0.01809892,0.08478810,-0.03593573,-0.24565409,-0.15046410,-0.15262964,-0.11044499,0.16393887,0.18693323,0.00212316,-0.04436262,0.01783404,0.00070113,-0.00988232,-0.04417573,0.00831404,0.00985162,0.04598128,0.00783045,0.05778025,-0.03516621,-0.06484908,0.08158160,-0.01566667,0.10003089,-0.31793681,0.06985627,0.02373935,-0.09530478,0.13789997,-0.00333238,0.08493769,0.19056040,0.13910373,-0.03636694,-0.05794989,0.06480342,-0.15771082,0.12622336,-0.01308513,-0.00489508,-0.09567504,0.17849466,-0.03947267,0.16606125,-0.20997013,-0.03224938,-0.07816572,-0.09811006,-0.02234111,-0.00684675,-0.09716332,-0.13678922,-0.02317346,0.29922947,0.00171836,-0.07537750,0.07929470,-0.02662578,-0.04565271,-0.18426529,-0.04682184,0.11860590,0.28530139,-0.01310931,-0.14258704,0.05812519,0.01167782,0.31487370,0.00820546,0.07635004,0.01909122,-0.09354623,0.08259942,0.03816272,-0.05411148,0.07588790,0.23813026,0.05500486,0.11074431,-0.02851693,0.09706011,-0.02566982,-0.21423927,0.05696257,0.04405486,0.01793327,-0.18517163,-0.16255037,0.04572747,-0.22645079,0.09010812,0.20317359,0.04401549,0.04622597
0.14923298,-0.23810476,-0.02797790,0.05205525,0.05905056,-0.04682771,-0.12677255,-0.02212490,-0.21383253,0.34509650,0.24545518,-0.19490130,-0.12712176,0.00812102,0.10562915,0.05173226,-0.33927733,0.22279571,-0.09185136,0.03159700,-0.07165600,-0.23104079,0.00531925,0.23500405,-0.16917415,0.28280237,-0.15347689,-0.17616642,-0.23337287,0.02074386,0.23466463,-0.15424441,-0.17890491,-0.17643222,0.01231249,0.33235812,-0.01630329,-0.15218143,-0.28965607,-0.12264408,-0.39482489,-0.06426824,0.14310008,0.22792737,-0.08594646,-0.31774607,0.07327685,0.07564064,-0.01627812,-0.29928720,-0.15007369,-0.01201374,0.06090131,-0.26750606,0.13037539,0.11268557,0.05540451,0.08047900,-0.21549059,0.14543001,-0.17786968,-0.10202208,-0.09431238,-0.05333045,-0.21543393,-0.17206295,0.13340655,0.24469990,-0.22430766,0.15645608,-0.03105390,0.10050455,0.19981511,-0.30789125,-0.06863485,-0.21750729,-0.07640363,-0.15347029,-0.07686605,0.18720667,0.03755124,-0.09996419,-0.24488576,-0.22618754,-0.20360328,0.38464406,-0.04043185,0.11171912,-0.03296312,0.09635918,0.22131900,-0.04619228,-0.17841418,-0.08866888,-0.17535000,0.13634668,-0.05526981,-0.33621517,-0.01750751,-0.10165596,-0.14713635,-0.27121013,-0.13154955,-0.16369280,0.09375975,-0.08392797,-0.01335847,-0.25184456,-0.11026978,0.09108670,0.21395202,-0.41366172,0.00343764,-0.16019732,0.16834338,-0.17835566,0.11019347,-0.14371724,-0.12415990,-0.16367659,0.06125223,-0.21543786,-0.06934208,-0.04466624,-0.06261436,0.29760703,0.08187078,-0.03132833
0.14855506,0.12153082,0.03254777,-0.05002070,-0.25125101,0.21414135,0.02859341,-0.33452293,0.02809027,-0.21460398,0.08802684,-0.02430843,-0.04317658,-0.02783925,0.11082351,0.05579085,0.01696105,0.11166427,0.12346414,-0.19713874,-0.31509408,-0.13732868,-0.02175857,0.07462457,-0.00932099,0.31097361,0.07181546,0.04532024,-0.02959580,0.09210527,-0.25949854,-0.10208682,-0.20241581,-0.02199338,-0.19256648,0.00414543,-0.10011528,0.05362176,0.12545861,-0.08360732,-0.03535074,-0.15998575,0.06308987,-0.09174763,0.12290154,-0.14102335,-0.14775091,0.04379714,0.09358705,-0.17742804,-0.04059996,-0.25772959,-0.16266595,0.24774109,0.17749700,0.20720987,-0.28803870,-0.08680759,-0.07198288,-0.16588259,0.00765953,0.17297389,-0.03732852,0.27882177,-0.10063954,-0.07380456,0.22878222,0.11615994,0.12521268,-0.22285561,-0.05909123,-0.02793479,-0.05551014,0.08306388,0.03694956,0.15872595,-0.11408823,-0.24640359,-0.09086875,-0.13219398,-0.12710719,0.26267141,-0.07275034,-0.12218935,-0.33066952,0.30194491,0.09828519,-0.07227599,0.08932614,-0.05615089,-0.21082370,-0.18951395,0.08029680,0.02763079,-0.11252763,0.10633113,-0.19776757,-0.00194220,0.01830151,-0.11407714,-0.17384663,0.12326916,-0.04855016,0.03984061,-0.02508687,-0.12367826,0.21238440,0.31318167,-0.04123725,-0.09231469,0.05970830,0.14289853,-0.04519789,-0.04241333,-0.18964501,-0.04943472,0.06781825,0.08944016,0.12341034,-0.32037494,-0.08451910,0.17170189,-0.31292999,0.12757452,-0.14216171,0.29514414,-0.13881728,-0.24262005
-0.02352039,-0.02113547,-0.12492371,0.05825076,0.01971063,0.15459329,0.08621104,-0.05355343,-0.05246658,-0.07115210,0.14678741,-0.08959638,0.11716754,-0.12771778,0.00682517,0.01429360,-0.03503482,0.09689981,0.06298620,-0.08128884,-0.08909937,0.13245326,-0.06962772,-0.00642183,-0.08786277,0.17757024,-0.07442210,0.00891544,0.07808889,-0.00926942,-0.14040834,0.04310326,0.10848466,0.03651634,0.04015839,0.01948231,-0.18690786,0.03067919,0.21354140,-0.07950402,0.11871012,0.10185456,0.04159698,0.13991518,-0.01234280,-0.01975699,0.10473663,-0.06684313,0.10232564,0.09171345,-0.04042071,-0.00184029,0.07218131,0.00326433,-0.00785900,-0.06817397,-0.01905379,-0.11356592,-0.07468911,-0.10038771,-0.01817296,0.08848999,0.05678578,-0.02472470,-0.14690664,0.08229962,0.21950649,-0.00295655,-0.06531552,-0.20622972,-0.04707637,-0.03752151,0.17266539,-0.29214886,-0.32086644,-0.22890347,0.01554753,0.42129970,-0.00474335,0.19662410,0.30607775,0.21002087,-0.21772812,0.07254863,-0.29546818,-0.05839987,-0.02656128,-0.11053171,-0.40291968,0.07334321,0.25010952,-0.15638885,-0.13803455,-0.29552847,0.17953801,-0.12517148,-0.25281870,0.00672330,-0.18383990,-0.08455012,-0.05885765,-0.09507287,0.14832158,0.14578132,-0.19820923,-0.03277543,-0.18314990,0.04672129,-0.03745253,0.18168388,0.15131830,-0.07722349,0.10451631,-0.00789373,0.39920923,0.03557444,0.27893785,-0.11663297,-0.05162886,0.11134984,-0.17078501,0.03873175,0.00386541,-0.13128708,-0.47748536,0.49826026,0.16429830,0.00071239
0.24608324,0.36637133,-0.13495174,0.10859485,0.02774959,0.03645163,0.05954833,-0.09993944,0.19725604,-0.05916019,0.04237927,0.13949229,-0.07726824,0.27644446,-0.42896265,-0.01594310,-0.06201417,0.28012267,0.25872484,0.08840399,0.27890038,0.02073459,0.11237882,-0.14804994,-0.16814111,0.13291529,0.22176498,0.16837217,-0.24007878,-0.19609836,0.17196083,0.04181097,-0.19560821,0.13876946,0.07475770,0.21809468,-0.04234700,0.06999221,0.13692170,0.39808375,0.23207505,-0.24218577,-0.01637434,0.09904679,-0.18399668,0.09117360,0.13979188,0.00472278,-0.16409743,-0.00104249,0.14238842,-0.05051133,0.03138383,0.17596976,-0.12999116,0.00993655,-0.29418001,0.10047408,0.03211191,0.07722286,-0.15633608,0.20575535,-0.21645333,0.09675325,0.05955262,-0.03477618,-0.04838628,0.00574607,-0.22309597,0.08013886,-0.10186942,-0.23216093,0.17921135,-0.27331698,-0.20517950,0.08126146,-0.05001031,-0.04885729,0.29011491,-0.15673009,0.22863004,-0.10400956,-0.02416949,-0.06250491,0.10314699,-0.07799920,0.08394942,-0.07796265,0.06476663,-0.15066713,-0.11045206,-0.07716461,-0.07182682,-0.11681176,0.10656730,-0.28211203,-0.02125473,-0.10478904,0.08436702,0.17235939,-0.03357309,-0.03388522,-0.17708251,0.27395323,-0.15380417,-0.08121839,0.12323919,0.08288540,-0.06640912,0.26699194,0.15066612,-0.00902308,0.17350477,0.02625517,-0.14684348,0.06913192,0.05435204,0.03879844,-0.04941960,0.19816671,-0.14827047,0.21265747,0.02247599,-0.29205754,0.16244386,-0.09283613,-0.16655034,-0.08479162
0.04467999,-0.05166227,-0.16678488,0.12998663,0.22526750,-0.03758795,0.21441233,-0.07316138,0.04026593,-0.10815053,0.19193776,-0.00583486,-0.16525650,0.18368050,-0.03655707,0.15166682,0.26031765,0.14744994,-0.04052923,0.07716476,-0.09981947,0.03590123,-0.17356536,0.21427272,0.15842521,-0.03814088,-0.04212672,-0.15622181,-0.07332373,-0.10633942,-0.21585827,-0.05902264,-0.10729444,-0.01781712,0.09104551,-0.20400326,-0.07286503,0.08973101,-0.17230965,-0.07662481,-0.13775545,-0.09814472,0.05198880,0.27533638,-0.00455309,-0.01339621,-0.01536163,-0.10992466,0.14342225,0.13360916,0.18235773,0.17772569,-0.01774086,0.24917501,0.10687744,-0.11457997,-0.07059444,0.04695937,0.16146770,0.15803848,0.06245441,-0.08612024,-0.00710361,0.12513369,0.09747111,-0.00649687,0.31020367,0.36069605,0.07117890,-0.14765097,0.10304819,-0.27723569,0.12062334,-0.25108719,0.13019830,0.19458979,0.10082474,-0.26781985,0.01339974,0.10907977,0.19054456,-0.17237519,-0.05758863,-0.10560956,0.12009177,-0.07716793,-0.19274086,-0.01252150,-0.17424221,0.00640263,-0.13106720,0.05362580,0.03860968,0.05808809,0.11208836,0.00690793,0.04232352,-0.02570494,-0.19854757,0.10219564,0.00856779,0.05609975,0.08406764,0.01988756,-0.18195482,-0.15434331,-0.05228538,-0.05999535,0.01816394,-0.13182868,-0.01195618,0.13362233,0.08380425,0.13494141,0.14029242,0.33452126,-0.01614415,-0.21710397,-0.00358522,-0.04464228,0.14964163,-0.09439290,0.01226075,-0.01655222,0.00610482,-0.09222954,0.15910695,0.06454891
0.11325231,-0.06419941,0.10030960,-0.12470365,-0.00887500,0.11574204,-0.05208420,0.23583530,-0.00402676,-0.05611047,0.13509201,-0.00213785,0.31746343,-0.02715730,0.03775707,0.10916712,-0.24932908,0.14999138,-0.06168247,0.03547867,-0.04572750,0.04947796,0.21574877,-0.07063556,0.05950268,0.02105713,0.12487969,0.04710267,0.12134404,0.10674547,-0.00088208,-0.05263314,-0.01680747,-0.02767364,0.14779937,-0.10210568,0.09636849,-0.11629933,0.05413072,-0.17791006,-0.07319406,-0.17911164,0.02329645,0.02462441,0.00237429,-0.42826602,-0.03563824,0.02932929,-0.10648022,0.11540478,0.20544361,0.17747758,0.03928831,0.19509262,-0.18088597,-0.16607717,0.06209783,-0.03378230,0.12681749,-0.20416558,-0.05862689,-0.07639901,-0.11722679,-0.02382111,-0.17796361,0.30956218,0.01300508,0.25473759,0.25363997,-0.04926157,0.00351832,-0.12832253,0.20934932,0.04419691,-0.14351737,-0.24395609,-0.15082139,-0.26015812,0.00289044,-0.13334543,-0.17835577,0.08236354,0.43954280,0.00989616,0.06230034,-0.28113836,0.27526668,-0.01737984,0.14090684,0.03040811,0.10871693,-0.15033117,0.22754653,-0.41958717,-0.27692875,0.37286019,0.25795597,0.20918958,0.28617832,0.07180075,-0.12817480,0.30719760,-0.12533313,0.24959634,-0.12339886,0.19379605,-0.07353092,0.01639845,-0.20625912,0.01279999,-0.20226407,-0.24133977,0.24094041,-0.22173606,-0.31086838,0.18849337,-0.14429212,-0.05179777,0.15298840,0.19160326,-0.01680418,0.19882806,0.07197839,0.17028831,-0.10929301,-0.02301436,-0.12675418,0.10960441
0.10208248,0.06603682,-0.09728585,-0.15186423,-0.08713398,0.28855154,0.08097624,0.18492018,0.16500652,0.15544230,-0.18314421,-0.46558443,-0.10772795,0.02597216,-0.06880049,0.17503494,0.00543248,-0.00059575,0.12984703,-0.22463013,0.36296660,0.11829758,0.12552893,-0.06406522,-0.02154987,-0.15453221,-0.18685995,0.08750809,0.09226359,-0.20690216,0.27090740,-0.00759336,0.02654034,-0.02719611,-0.19370773,-0.13431887,-0.06831255,-0.00210050,0.05192033,0.14999995,0.22798139,-0.05854939,-0.09229384,0.04281835,-0.12369616,0.18960242,0.06308819,0.17693362,-0.00046052,-0.00867456,0.18424486,0.17305419,0.01255161,-0.04224082,0.00882694,-0.29955557,-0.13034819,0.03139012,-0.24199909,-0.11206643,-0.06078632,-0.06999149,-0.04748647,0.02405656,-0.04539628,0.00396932,0.16367081,0.20710261,0.09869728,0.10267607,0.09863178,0.12605546,-0.00772011,0.01009052,0.10597799,-0.24174379,-0.17885388,0.15433288,0.15766144,-0.06434983,-0.06332176,0.14915013,-0.04185901,-0.02855943,0.05195500,0.08803979,-0.09239008,-0.07068186,0.17584649,0.09880193,0.15837745,0.00609578,0.18042742,0.20126612,0.00862404,-0.00964686,-0.33403394,0.00053533,0.27431628,-0.08384214,-0.01195587,-0.03621364,-0.02154232,-0.07365293,0.03084482,0.03892235,0.02378105,0.14359716,0.13486765,0.00490497,-0.04880209,0.13293909,-0.06142444,-0.10329892,0.37074724,0.05729306,0.16866365,-0.40118933,0.09955501,-0.23638409,-0.10888709,0.19216608,0.17697674,0.16346274,0.15294364,-0.04677158,0.20117171,0.30686855
-0.22939527,0.12464718,-0.08594836,-0.23516019,-0.06421628,0.01813407,-0.18116987,0.06770475,0.16863833,-0.10795867,0.34113470,-0.45116457,0.22768721,-0.12205015,-0.06374729,0.01793573,0.03551558,0.07882825,0.11522548,0.03972217,0.09604743,-0.27990764,-0.25618753,0.18137306,0.12209091,0.02406164,-0.16939673,0.12846185,-0.01357609,0.01757965,0.00824253,-0.06861368,-0.11747149,0.10571402,-0.04232394,-0.22551274,-0.00450840,0.13299902,-0.16992360,0.07813036,0.06788815,-0.16287842,0.09154087,-0.00486481,0.05522396,0.01200145,-0.00805223,0.08487717,-0.37009504,-0.12272114,-0.12542129,0.01824176,-0.09266920,-0.22402985,-0.08001244,0.06175239,-0.01699992,-0.21814138,0.00748874,0.02034901,-0.00076657,-0.24222738,-0.05640946,0.21648209,0.09567194,-0.13323171,-0.05966471,-0.15173629,-0.12323838,0.10948481,0.06027701,-0.25459683,0.01903873,0.03158056,-0.16128984,-0.18831651,0.29319143,0.06040750,-0.05964258,0.18825695,0.00018710,0.02378895,0.29535994,0.01214068,0.40451431,0.31035906,0.02415623,0.03313079,-0.04986903,-0.12627290,0.19488609,-0.11392013,0.05971936,0.06425344,0.08624406,-0.27361935,-0.03368786,-0.04006285,0.00119468,-0.13882187,0.17513090,0.00967782,0.09010139,0.23253030,-0.00356480,0.14939770,-0.04635041,-0.14003263,0.09122322,-0.03339098,-0.07418831,-0.06763830,-0.02011615,0.15215109,-0.20464782,-0.06208215,-0.25392416,0.11236048,0.11409346,0.02244901,-0.03540127,0.01989446,-0.18442032,-0.10896443,-0.04691485,0.02113792,-0.02633149,0.16484340
