-0.07063576
0.05838696
-0.04636370
0.01229607
-0.02003841
0.00216018
0.00352985
0.04847273
-0.06149808
-0.04589367
-0.01500605
0.03319854
0.00004270
-0.02070514
-0.02323348
-0.05140535
0.03421598
0.02457232
0.00784039
-0.06922930
0.07112800
0.04832551
-0.12520310
0.00181158
0.01458754
-0.03934770
0.05372048
-0.04515615
-0.01514536
0.04688030
0.03492865
0.02739695
-0.00413852
-0.07248285
-0.01088453
0.02812953
0.06926591
0.01797546
-0.07527366
0.10240909
0.00472357
-0.06373796
0.03864572
-0.05187136
0.04865351
0.03008311
0.00106798
0.01531092
0.08169401
-0.02464037
-0.01147178
0.09320715
-0.05438146
-0.01875612
0.02135050
0.03677403
0.05422841
-0.05498739
0.10468055
-0.02125469
-0.03003734
0.05107008
0.02064872
0.01350494
-0.02643895
0.00624708
-0.01336108
-0.00532719
-0.02129935
0.04670723
0.01585949
0.07337520
0.04872212
0.03688955
-0.02846239
0.01004323
-0.03085089
-0.02495486
-0.07636543
-0.00098416
0.02199726
0.05705823
-0.05471885
0.01364392
-0.00075122
0.07452732
-0.06366087
0.02668885
-0.04236092
-0.01624521
0.02836669
-0.03470992
-0.00287728
-0.04033232
0.02118448
-0.05132971
0.00592525
0.06781154
0.01826449
0.01210785
-0.02900778
-0.04501608
0.02105219
-0.07517340
-0.01534255
-0.02375322
-0.02669912
0.04341382
0.03932016
-0.06736153
0.00651028
0.04970871
0.06814406
0.01059367
0.03745418
-0.05495746
-0.03250920
0.06830065
-0.01315511
0.01835315
0.05094112
-0.00534524
-0.05668974
0.01180390
-0.01218970
0.01082951
0.03492301
-0.01549731
