-0.13731423
-0.21245044
-0.34942740
-0.07494958
0.24837109
-0.46177277
-0.02389566
0.06750971
0.25571433
-0.32028857
-0.36505479
0.20762560
-0.13674675
0.07271081
0.38320640
-0.17489372
0.15518503
0.20433238
0.21573195
0.24393521
-0.01511510
-0.26495883
-0.12101647
0.28285593
-0.34130588
-0.03216362
0.29249066
0.01811672
-0.25720686
0.25832042
-0.31026053
-0.25499675
0.28682950
0.03519450
0.16465195
0.30800360
0.15926994
0.11271288
-0.06420099
0.35152286
0.08837950
-0.45413336
-0.14013101
-0.11825959
-0.10993444
0.19208516
0.15776730
0.24289055
0.25811037
-0.35749117
0.23764907
0.12235241
0.36281866
0.33119240
-0.29763290
0.36483729
0.51752424
-0.35759091
0.06736495
-0.04561114
0.43398845
0.11319318
0.19806975
-0.24720062
0.24610405
-0.22365782
-0.45800027
-0.35607165
0.16614217
-0.31739244
0.04133478
0.20135951
0.27160704
0.41933450
-0.21384880
0.31455469
0.23725592
0.03631720
-0.01863766
0.15175550
-0.08531930
-0.23182873
0.10811952
0.09635732
-0.02727129
-0.45359370
-0.18945859
-0.17531767
0.32027423
0.11350919
0.24236199
-0.15877402
0.09842488
0.03011774
-0.04423168
0.06917795
0.18291657
0.15249939
-0.07974371
0.05708008
0.03231797
-0.03988313
-0.04019833
-0.03419746
0.32322869
-0.10123788
0.07760695
0.15158816
-0.31689584
0.16365387
-0.06931051
-0.02117572
-0.38838604
-0.24456409
-0.09601052
0.28546354
0.13162170
-0.16096151
0.29422441
0.20196497
-0.25561646
0.19733717
-0.35352567
-0.12050286
0.15613529
0.01894677
0.16167593
-0.10553915
