-0.12814909
-0.03200437
0.20935680
-0.27730632
-0.08019627
0.13101915
0.17219433
-0.02138967
-0.20681855
0.06956198
-0.06777678
-0.12391315
-0.12567951
-0.01038113
-0.11831991
-0.12865332
-0.15988331
0.14577007
0.09821095
0.10594217
0.05122279
0.10619050
-0.07228848
-0.13883704
0.12966868
0.07454838
0.20961341
0.13305254
0.05204014
-0.00759631
0.07916706
-0.10953445
0.03629478
0.10176587
0.15611339
0.24046679
-0.11134413
-0.00598514
-0.09655038
0.12890948
0.11954299
0.05525415
0.00190591
0.20230332
0.19589002
0.05525868
0.00634516
0.05740452
0.13090053
0.24698204
-0.04347522
-0.03602337
-0.16397578
-0.10637828
-0.10515313
0.18770602
-0.14505285
-0.20728409
0.28747472
-0.08574989
0.10258038
-0.13277452
-0.05656302
-0.01641924
0.11064693
-0.01220482
-0.04782569
0.10234164
0.01197992
-0.01089694
-0.00060220
-0.04372763
0.05123245
-0.02407915
-0.08071249
0.01463797
0.03901424
-0.05130955
0.00712726
-0.04670477
0.01099085
0.04085840
0.06443119
0.07103235
-0.04400455
-0.09244091
-0.01179545
-0.03145899
-0.01232847
-0.03162235
0.03283147
-0.02563681
0.00768523
0.03015047
0.01897239
0.07246386
0.05454328
-0.08725037
-0.06057244
0.10001584
-0.02547860
0.04377699
-0.11154581
0.03670408
0.02207863
-0.02087158
-0.12493450
0.03260233
-0.00720292
0.04063865
-0.02445844
0.04423631
-0.05163424
-0.00825992
-0.03347495
-0.01581480
-0.02565191
-0.01831318
0.01626823
0.06246515
0.02240579
-0.00019563
-0.09553245
-0.01658962
0.02382417
-0.03303031
0.04375376
-0.00081784
