-0.03134411
0.01207957
-0.04636396
-0.03013046
0.07944281
0.05098115
0.01190833
-0.02065176
-0.10935991
-0.11688437
-0.08607140
0.02635768
-0.11645324
0.01567606
-0.03142010
0.03662185
0.05684058
0.04663167
-0.00838286
-0.07880559
-0.02497819
-0.03313371
0.06875907
0.03269244
0.03364838
-0.02872309
0.00852493
-0.05724725
-0.10356822
-0.01436516
0.06177249
-0.07395279
-0.00035921
-0.03094897
-0.13592482
-0.07245765
-0.05049645
-0.01535641
-0.05273254
-0.10025628
-0.14037237
-0.06227406
-0.07167054
-0.01513919
-0.08262645
-0.04777104
-0.14454390
0.03693595
-0.07943466
-0.03595180
-0.10434222
0.07127418
0.03248038
0.06391828
0.02861134
-0.01601459
-0.13966906
-0.01664774
-0.06671518
-0.07796143
-0.00844006
0.04057790
0.10818657
-0.04465882
0.01184510
0.05950820
0.01661007
0.01867730
-0.11000537
-0.12206855
-0.10786276
-0.09654919
-0.06112245
-0.03212804
-0.07184457
-0.12358508
-0.02468309
-0.01953195
0.01563122
0.09312206
-0.07185187
-0.02372047
-0.03455096
-0.02290285
-0.04272662
-0.08600926
-0.09088848
0.09391820
-0.05931364
0.07065027
-0.10035378
0.01455298
0.01338017
0.10654227
0.00734513
-0.13439213
0.11810170
-0.07507589
-0.03967452
-0.01273020
-0.09344096
-0.07812419
0.00509371
-0.04605241
-0.13498408
-0.09714174
-0.07038042
-0.09018438
-0.05462205
-0.01180494
-0.09880504
0.00905177
-0.06612498
-0.07651626
-0.16316028
0.09185854
0.06859359
-0.11347001
-0.09345283
-0.01640904
0.04983135
0.05969713
-0.02593626
0.33220023
-0.01579086
-0.04680780
0.00161197
0.05406383
-0.10810838
-0.10923173
-0.02378853
0.11774491
-0.00275130
-0.10052818
-0.06729273
-0.14769126
-0.05789673
-0.10835359
-0.00391130
-0.03569898
-0.05196293
-0.09839842
-0.08275001
-0.06503076
-0.05893181
-0.03837171
-0.03210183
-0.10398614
-0.02415537
-0.06184063
-0.05791850
0.00102336
-0.15285800
-0.16116454
-0.06393073
0.05408419
0.06751429
-0.04235979
-0.09192594
-0.03075321
0.03053960
-0.06804798
-0.06383649
-0.10519400
0.03670851
0.02391462
0.08167715
0.06406050
-0.10920073
0.06508346
-0.07114005
-0.09067007
0.05868863
-0.07245484
-0.08506754
-0.06967006
0.06706636
0.02577091
0.06923123
-0.01527950
-0.62064791
0.04285524
-0.10107915
0.01495816
-0.05184213
-0.02954804
0.12662701
-0.01948465
-0.01461070
-0.07045419
-0.15009902
-0.11478580
-0.02027351
-0.04618639
0.03731151
-0.00468446
-0.11242915
0.00576618
-0.04816792
0.04164189
-0.12994093
-0.10521967
0.05855356
-0.07546257
-0.13077931
0.03414719
0.03658788
-0.04612689
-0.03340798
0.00348172
-0.04236252
-0.04285039
0.06987623
-0.04703534
0.03668340
0.02371741
-0.05666322
-0.02348239
0.00226952
-0.07189064
0.03408583
-0.03905012
-0.05468652
-0.01010261
-0.04629099
-0.13214791
-0.00420172
-0.06469560
0.07431816
-0.03703818
-0.07478274
0.00374664
-0.04490184
-0.05452551
-0.03215360
-0.06984442
-0.01704539
-0.09505560
0.05815578
-0.10001630
-0.00293613
0.05396083
-0.01572398
0.12291006
-0.07983971
-0.06218806
-0.03228244
0.00827926
-0.11507970
-0.14068089
-0.05594161
-0.12840594
-0.04045124
-0.04071783
-0.06147130
-0.08307119
-0.01506291
-0.02345529
0.01197433
0.07646751
-0.06569212
-0.01820035
-0.01443466
-0.06221227
-0.12289544
-0.17033182
-0.02504905
-0.09703140
0.00791286
-0.03567858
-0.00624481
0.05556335
-0.09027426
0.03912588
-0.11295357
-0.05113085
0.00592788
-0.00955051
-0.06151966
-0.02444655
-0.01851241
0.08479038
-0.09869125
-0.08705560
-0.11217218
-0.15344454
0.05825529
-0.14153107
-0.00718814
-0.00116566
-0.07497414
0.04059127
-0.08020803
0.03819914
-0.00058486
0.05086730
0.00357251
-0.01464486
-0.00027721
-0.05135676
-0.05739904
-0.00804701
-0.06792839
0.02597712
-0.11492781
-0.02492986
-0.01721053
-0.14713328
-2.25753093
0.03731597
-0.01897927
-0.10594620
-0.01056676
-0.07695691
0.02231920
-0.12596287
-0.05905585
0.03722420
0.01628671
-0.06873258
-0.04905233
0.04221522
-0.00615391
-0.09257476
-0.02274486
-0.04382732
0.01500628
0.02121811
-0.05976331
-0.16321346
-0.13406695
0.07024827
-0.02230506
0.04977373
-0.07565844
-0.05404447
-0.10192239
-0.07056686
-0.04136546
-0.10061388
-0.01534377
-0.02061704
-0.07985039
-0.09008972
-0.00120887
-0.01710855
-0.12406472
-0.11143970
-0.10368636
-0.07017457
-0.05013290
-0.01355689
0.16262282
-0.09945499
-0.07205144
-0.11553270
0.00397774
0.05559840
-0.01869353
-0.00096043
0.06984092
-0.07782599
0.05547825
-0.04688629
-0.00785713
-0.01788526
-0.12144138
0.03065038
0.00524365
-0.08654939
-0.12066784
-0.12578224
-0.03088599
-0.14648017
-0.13343441
-0.09981133
0.10904017
0.05239024
-0.06259257
0.07332989
-0.08204061
-0.28028530
-0.01328550
-0.12791000
0.02978439
-0.04995014
0.01331216
-0.00023558
-0.10832785
-0.09106232
-0.03679740
0.04688486
-0.00860312
-0.07785349
-0.04783224
0.02689677
-0.04314155
-0.08811697
0.01306920
-0.07043204
-0.03898672
-0.09946769
0.04213702
0.02747908
-0.06766494
-0.04441390
0.00753947
-0.00203092
0.04041890
-0.14872311
-0.08222985
-0.06838553
-0.06840084
-0.04104651
-0.08875496
0.05616611
0.05601738
-0.05595640
0.02198310
-0.02296123
-0.00710316
-0.07536042
0.06507463
-0.09573486
0.04032957
0.07480168
0.00892583
0.02924482
-0.01535442
0.06817374
-0.10322183
-0.00254600
-0.10041437
-0.01221789
-0.08084711
-0.06202815
0.06353028
0.00839784
-0.05759858
-0.10613130
-0.02322573
0.05450898
0.01610206
-0.04970919
-0.14171083
-0.19604105
-0.09975430
-0.09717917
-0.08018763
0.03626362
0.03376251
-0.01464429
0.13093105
0.00865400
0.02518400
0.01368247
-0.09137027
-0.00069037
-0.02641518
-0.06009670
-0.00357621
-0.04912525
-0.08755971
0.05804175
0.08409613
0.00360793
-0.05952824
-0.07074802
0.03086372
-0.10618121
-0.08610918
-0.04346697
-0.00794117
0.11863649
-0.08439267
-0.06775232
-0.01368214
0.13190404
-0.04176457
-0.09531529
-0.08551740
-0.01038106
0.00743077
0.02505741
-0.12178311
-0.10871718
-0.03095256
-0.00625153
-0.06913844
-0.10412530
-0.09224911
-0.00891061
0.14599533
-0.12123662
-0.08735622
-0.12040962
-0.11749060
-0.03578890
0.03882680
-0.00899535
-0.02369946
-0.07320759
-0.08509368
-0.14362030
-0.05307256
0.01543739
-0.08013470
0.01296842
-0.02852682
-0.01890399
-0.13154165
0.03996151
0.07306305
-0.20348132
0.03317568
-0.04062185
-0.07547533
0.06507459
-0.11102118
-0.06721775
-0.07574056
0.02491974
-0.01243506
-0.01950967
-0.01410342
-0.06388867
0.14681792
-0.12998906
-0.04145961
-0.11495247
-0.01969787
-0.11444469
-0.03042736
0.04808934
-0.06226591
-0.07792387
0.00024362
-0.14316761
-0.03624630
-0.12392570
0.04162861
0.08127181
-0.08806068
-0.07792111
-0.08014773
-0.09816662
-0.08541445
-0.01517626
0.01967076
0.05137652
-0.01586530
-0.11811358
-0.07840214
0.02370460
0.02953984
-0.08773410
-0.08466764
0.09933569
-0.04644493
-0.16185391
-0.13077012
-0.04260402
0.05868826
0.01135762
-0.12764683
-0.06192297
-0.08475278
-0.03033209
-0.00060014
-0.07568780
-0.10452289
-0.00826656
0.04586810
-0.03265430
-0.04426649
-0.05232726
0.08479176
-0.07235411
0.02377379
-0.03602537
-0.11545192
-0.02885265
-0.02031454
0.02335640
-0.05510775
-0.03239897
0.10912342
-0.13768150
-0.09947345
-0.01221696
-0.09201581
-0.03429884
0.01181258
-0.20268288
-0.01249943
0.03317369
-0.10901659
-0.02469812
-0.01871800
-0.01365621
-0.01875973
-0.05921989
-0.02174280
-0.05234263
0.06889941
0.03841310
-0.11811539
0.04099244
-0.08770845
0.06011769
0.11129243
-0.00238627
-0.02447864
0.05527497
-0.04896553
-0.13995792
-0.12337023
0.00587947
0.01524092
-0.11743288
0.02002282
-0.01078122
-0.08287980
-0.06024294
0.00948218
-0.12696072
0.00482400
-0.06564932
0.00689280
-0.05011567
0.08767265
0.03129030
-0.02827866
0.01181626
-0.00794178
0.03513806
-0.03782756
0.10394723
0.05206975
0.01187892
-0.03622888
0.05417725
-0.17798184
-0.09354554
0.03368152
-0.10661787
-0.03306277
0.02019141
0.05753711
-0.01809281
-0.09053206
0.09546784
-0.07428908
-0.02582145
-0.02656089
-0.04516175
0.02950419
-0.03147293
0.02845190
-0.02985082
-0.02857866
-0.09055679
0.00529433
-0.05834374
0.04754119
-0.02530783
-0.10288244
-0.04924029
-0.05842117
0.01659188
0.12111269
-0.05431266
-0.08146633
-0.04940045
0.00703030
-0.04278212
-0.04352479
-0.00858066
0.06281499
0.05930401
-0.10129116
-0.06630309
-0.00759565
-0.06368603
-0.02551716
-0.02008612
-0.06014686
-0.02386451
-0.03376288
-0.07492428
-0.13382275
-0.16789585
-0.13244881
-0.03709709
0.02238985
-0.10046956
-0.08184738
-0.07787969
0.05040361
-0.14664850
0.05958219
-0.01191195
-0.11096337
-0.10068913
0.06585260
0.01527140
0.04400308
0.01957924
0.04846370
0.06334830
-0.06822682
0.03180997
-0.03220515
0.08890062
-0.05065786
-0.10126891
-0.16246462
0.01615719
-0.04418172
-0.06698814
-0.51723087
0.01486431
-0.07633210
-0.00753547
0.02350507
-0.04633881
-0.01405475
-0.16823651
0.00734894
-0.03328734
-0.00063824
0.00599212
-0.08324742
0.09589591
0.03113978
-0.05064526
-0.12308512
0.02177824
-0.08437895
-0.07073788
-0.08904830
-0.04259299
-0.12672512
-0.14987049
0.08004726
0.00700836
-0.08559894
-0.06088020
-0.05715647
-0.00844301
-0.06107724
-0.09367044
-0.06010734
-0.05392268
-0.05438486
-0.11415146
-0.18597223
-0.02084474
-0.04595291
0.01930944
0.09466635
-0.11880983
-0.00427001
-0.12863086
-0.04470870
-0.04327347
0.05378113
0.02526134
