0.02566087
0.00284380
-0.00475678
0.02149458
-0.01755187
-0.05828591
-0.00828614
-0.01989563
0.04755040
0.04549594
0.07556184
-0.02582943
0.02978376
-0.02977148
0.00798110
-0.01330854
0.00985127
-0.03741774
-0.00694508
-0.00846815
0.03615230
0.02082606
-0.03583463
0.00120613
0.00821267
-0.03421521
-0.05038191
-0.03794595
0.01324408
-0.02547927
-0.07141057
0.00441194
-0.05061629
0.00214231
0.06541689
0.05831216
0.04311265
-0.03169106
0.03327632
0.03985815
0.00431435
-0.02140516
0.04314126
-0.03282654
-0.00033253
0.00454737
0.03255782
0.01108955
0.01163117
0.09366664
0.02572288
-0.03662301
-0.00977629
-0.05685778
0.00896443
-0.00103413
0.04124492
-0.09471475
-0.05075799
-0.02938215
-0.04835974
-0.00708278
-0.07297651
-0.02234652
0.00292601
-0.01950320
-0.05456809
0.02187477
-0.04574188
-0.03495546
0.01562337
0.01760462
-0.00046641
0.00636582
0.01357987
0.08293372
-0.08508122
0.02141874
-0.02629492
-0.04361424
-0.06199542
0.01307585
0.02839009
0.00166188
0.05540349
0.00841541
0.04580608
-0.03900703
-0.03037158
-0.04192680
0.03421986
-0.01931850
-0.02615528
-0.06365640
-0.00046763
0.07602072
-0.03085368
0.00292102
-0.04940728
0.03410328
0.01354873
0.00903387
-0.01509885
0.02888385
0.04269426
0.01367037
-0.01351460
0.03498164
0.01063289
0.08162792
0.07382866
-0.03764470
0.02542493
-0.04310266
0.05690436
-0.05312645
-0.03497929
0.02149444
0.00661362
-0.00298013
-0.04009897
-0.09050152
0.01976712
-0.03640781
-0.01445945
-0.00347659
-0.06339742
-0.01862116
-0.00071522
0.05263136
-0.02406651
-0.06037263
-0.02435123
0.02705056
-0.01224026
0.01617683
-0.04194305
0.03233081
-0.04913021
0.05123270
0.01858368
0.04331211
0.03891895
0.00095328
0.02931808
0.04468070
0.04600898
0.03290875
0.06944343
-0.04357752
0.02316688
-0.03990316
0.02747772
0.02110542
-0.02027351
-0.05686628
-0.07178546
-0.00199902
0.01542585
0.00046471
-0.05977555
0.04388892
0.01291308
0.04591994
-0.01532041
-0.03519348
-0.05892850
0.00741926
-0.00018163
-0.01026689
0.01540524
0.02018435
0.00407962
-0.01559575
0.01805887
0.00981320
-0.02563949
-0.03941946
-0.03912358
-0.04326365
0.08389934
-0.03259750
0.02806811
-0.02017800
0.01005094
-0.02813545
-0.03655796
0.02200977
0.02095363
-0.01033449
0.00889706
0.02821236
-0.06671476
0.03747424
0.02146003
-0.01564679
0.03534329
-0.03296233
-0.02147369
-0.08397124
0.06457233
0.03483215
-0.08024010
0.03334256
0.03064106
-0.08008143
0.00525240
-0.00977629
-0.04023976
-0.03004819
0.01161072
0.03035898
-0.04996410
-0.00955333
-0.02388153
0.01862579
0.03107608
-0.02895569
0.00089075
0.01202211
-0.11348246
0.02877380
-0.00248973
-0.03177457
0.00536938
-0.05504921
0.01755881
-0.01540906
-0.07150766
0.04732960
0.01668175
0.01117233
0.04570096
0.01562771
-0.03104943
0.02524756
-0.04646486
0.00784963
-0.00509302
-0.05042783
-0.11630510
-0.01052823
0.07365290
-0.08153953
0.05353878
0.01428773
-0.03908155
-0.01411722
0.05256680
-0.03087473
0.00366659
0.02487851
0.03934158
-0.02221505
0.00575236
0.01656414
0.02397781
0.02259313
-0.01690901
-0.05250078
0.04056102
0.02309916
0.01697803
-0.01055336
-0.00304337
0.00122790
0.00336287
0.05013843
-0.05434102
-0.01910831
0.00945893
-0.02495838
-0.00107214
0.06218365
-0.02671778
-0.03582712
0.01332490
0.01959149
0.03356270
-0.03072615
-0.03718074
-0.05500117
-0.01630969
0.04514648
0.02960497
0.04292883
-0.07262171
0.07686582
0.01635096
-0.06990898
0.01367039
-0.01505051
-0.00763261
-0.03448853
-0.00969032
0.00602447
0.03559081
0.00884630
0.05244759
-0.00265856
0.00143616
-0.01837800
0.04471205
-0.00266131
-0.01231924
-0.01370475
0.00620810
0.02895819
0.12482764
-0.02061460
0.02260797
-0.01934046
0.01790869
-0.01532403
-0.01544332
0.07178424
0.03749969
-0.02200220
0.02198124
-0.02809324
-0.00397462
-0.03189913
-0.00073583
0.01839525
0.01510973
0.02117654
-0.06446737
-0.06311830
-0.00213379
-0.01073820
0.06525455
-0.02812210
0.06849932
-0.04427590
0.00939716
-0.00376230
0.01252385
0.00314104
0.00009965
-0.01152412
-0.02639688
0.06405491
0.03476561
0.02361183
-0.00720519
-0.03380991
-0.00784886
-0.00524120
0.03589355
0.01702567
-0.00157330
-0.00843951
-0.05447235
-0.01435522
0.03770034
0.04326767
-0.00748282
-0.00557289
0.03408958
-0.01926297
-0.07606689
0.03226468
-0.04494663
0.04322519
0.00316621
-0.02778566
0.05874268
-0.01244342
-0.01731355
0.00704990
-0.01027376
-0.01666667
-0.00376943
0.00716795
0.02731575
0.03313700
-0.02736096
0.00568931
0.00308239
-0.00446084
-0.02174188
0.01356750
0.03964986
0.02517045
-0.02005672
0.00895783
-0.01938805
0.01183525
0.05214263
0.00306059
-0.02505242
-0.03621834
-0.03049762
0.01955107
0.02324774
-0.00565637
0.00743576
-0.02721532
0.03368269
0.02661978
-0.04461009
0.05757241
-0.03160386
-0.02362688
0.02144765
0.07482637
0.01975693
-0.02534007
-0.04656026
0.07042509
0.03660013
0.06135917
0.02813387
0.02091505
-0.03826483
-0.09851169
-0.04672877
-0.02171927
-0.05329848
-0.04824855
0.04766377
0.03487018
-0.06311801
0.04689481
0.00872643
0.00365499
0.03857272
0.01522747
0.02038155
-0.03107818
0.03849313
-0.03890359
0.01979744
-0.01756786
0.03371403
0.02115836
0.00147555
-0.04027678
-0.02218149
0.04592799
-0.03983076
0.01795651
0.02130314
0.03668825
0.00987513
0.04421016
0.02528196
0.08510962
0.03313156
0.01347736
-0.06158773
-0.03915224
-0.06124932
-0.00550673
0.01692824
-0.00882600
0.02843793
-0.02517680
-0.01140853
0.02456811
-0.00897662
0.01161375
0.00546275
-0.02036990
-0.06553277
0.00893413
-0.00955443
-0.04261609
-0.00343749
0.10111370
0.02581463
0.01862815
-0.02195374
-0.04779735
0.06248036
0.00496117
-0.06843442
-0.06330982
-0.00739799
0.00380538
0.00042839
0.01196733
-0.03470045
0.00927690
0.06220543
0.01576532
-0.05434964
-0.01164699
-0.03235392
0.01551487
-0.00174997
-0.00196910
-0.04272514
0.04370741
0.02150886
-0.00454971
0.02815023
-0.02134081
-0.03632071
0.02968741
0.04272724
0.02215151
0.04279494
0.03583698
0.09659833
0.00597120
0.05063170
-0.00208106
0.02681770
-0.03062852
0.13760495
-0.01409653
-0.03707559
0.09392145
-0.04332163
-0.03432415
0.05498060
-0.04762863
0.07083288
0.01754553
0.02116668
-0.01304351
0.02374382
0.02136375
-0.01189282
0.01152318
-0.02529522
0.05448974
-0.04548685
0.02529868
0.03127968
0.00541609
-0.07236410
-0.05714264
0.02661736
0.08047751
-0.00945549
-0.00645404
-0.04515415
0.05723339
-0.04324017
-0.04710798
0.02260109
0.10235457
0.03203139
-0.00404761
-0.00036157
0.00449135
-0.03061296
-0.04490699
-0.01789240
0.02153189
0.05797035
-0.04625147
-0.04341215
0.03680722
-0.01445625
-0.07528737
0.00194011
0.08255519
0.03752367
-0.00447949
-0.07357778
0.01869379
-0.00954782
-0.01739252
-0.03152945
-0.01729691
-0.07901795
0.04807199
0.05833254
-0.05336693
-0.02475464
-0.02438696
0.02681795
0.04083707
-0.01225099
0.01809444
-0.02380251
0.01461289
0.06490327
-0.01378629
-0.01389896
-0.03933680
-0.01466557
-0.01110854
-0.04404302
0.00691142
-0.02741054
-0.04753783
-0.01488249
-0.03188796
0.03290356
0.08355898
-0.02453700
-0.02187513
0.02471983
-0.02743174
-0.03854771
0.01711323
-0.00679266
-0.02015577
-0.03458564
0.02735948
-0.03186003
-0.03154516
0.07528232
-0.01541719
0.02868339
-0.05758417
-0.04253216
0.01398068
-0.01313728
0.05342693
0.02052512
0.04079426
0.01884953
0.07022630
0.00772459
0.03557839
-0.03158801
-0.00934566
0.01967918
-0.01578670
-0.02708077
0.04723676
0.03142972
0.03385054
0.00934083
0.02676311
-0.01626507
0.00011736
0.02496038
-0.04388073
-0.05328224
-0.01475249
-0.01475422
-0.01753367
-0.08646981
-0.05686281
-0.02634745
0.00524858
0.07784283
0.08285969
-0.04127838
0.09116727
0.00212692
-0.06544986
-0.01349368
-0.00071936
-0.00737921
-0.04281037
-0.00357795
-0.01940149
-0.02182542
-0.03119336
-0.01698485
0.01939192
-0.04700175
0.01875448
0.00028218
0.01027904
-0.03245717
0.03697179
-0.03544664
0.01636354
0.02225825
0.01181847
-0.00968169
0.00852705
-0.05586468
-0.06095411
0.00429176
-0.02588137
-0.03234629
0.02553776
-0.01302390
-0.03918388
-0.03002743
-0.06198415
-0.01355904
0.03083985
-0.01035800
0.01015500
-0.04009834
0.00690403
-0.04594402
-0.03574783
0.01029395
0.00004397
0.05409196
-0.01946732
0.01341920
0.01613689
-0.00505660
-0.03079608
0.03483964
0.03083269
-0.02978857
0.00717268
-0.05694330
-0.01830392
0.06242309
0.02136276
-0.01204960
-0.02421098
-0.01292222
-0.00077194
-0.06042764
-0.05013748
-0.00344692
-0.00306979
0.05659688
-0.01872628
0.02839322
0.02839530
0.05635814
-0.01594508
-0.04277901
0.03855643
-0.00820853
-0.00624403
-0.03728960
-0.01284617
-0.04017873
0.05233159
0.05016735
0.07866436
-0.00273051
-0.00458735
0.00289560
-0.03468306
-0.00040468
0.01075419
-0.02096009
0.04848242
0.02121260
-0.06562932
0.04422190
0.03221061
0.00935367
0.00146956
0.02820752
0.04552709
-0.05706717
0.01141599
0.01622378
0.01381101
0.05383857
0.04204285
0.01618914
-0.03200535
0.08829282
-0.00206366
0.02740975
0.02937657
0.04152928
-0.04172261
0.04184088
0.01369673
-0.06844931
0.01166450
-0.03217139
0.01711880
0.03835843
0.00132542
-0.05578647
-0.05308684
