-0.09484333
-0.09467763
0.09100142
-0.25071213
-0.08757818
0.09225109
0.01525280
0.19548853
-0.12311723
-0.11456864
0.05355662
-0.24092221
-0.01684838
-0.28692433
0.03174978
-0.23491946
-0.33962104
-0.08115599
-0.03143654
-0.24832568
-0.45092592
-0.02280479
-0.34578151
0.23128757
-0.12891094
-0.02048331
-0.03779353
0.12119670
-0.31140950
-0.03388107
0.27117029
-0.16905804
-0.38234499
-0.58024406
0.08795305
-0.55420715
-0.36251509
0.31879613
-0.07152145
-0.21051553
-0.17768608
0.02509032
-0.04777437
-0.09093828
-0.21152404
-0.22624482
-0.10372029
0.10583831
0.17332573
-0.39646438
0.05892690
-0.50939482
0.20497954
-0.29914245
-0.04374635
-0.22849219
-0.42047802
0.03090842
0.02478681
-0.07614887
0.02550809
-0.03733037
-0.52553642
-0.14959826
-0.06375043
-0.44587657
-0.48765847
0.11670128
-0.10243978
0.15882085
-0.02992617
-0.16492812
-0.15607187
-0.22616601
0.12586960
-0.38183177
-0.36535260
0.17037241
-0.08217253
-0.10851608
-0.12270965
0.04277231
-0.09881163
-0.20205042
-0.26632670
-0.19588533
-0.07742568
0.17880437
-0.01315829
0.00707243
-0.26474065
0.00464642
0.00889841
-0.49819526
-0.15644898
-0.45060977
-0.12582220
0.01588964
-0.11003587
-0.08764035
-0.37560603
-0.29557860
0.38962537
-0.05922750
-0.19086444
-0.32082638
-0.03570343
-0.36042276
-0.22057785
-0.14002296
-0.13335523
-0.08714016
0.05845719
-0.21282434
0.10510441
0.17443016
-0.20432739
-0.21082079
-0.12285165
0.32207751
0.00155422
0.18881562
-0.12910266
-0.05406692
-0.03538729
-0.32930693
-0.10539133
-0.05839780
-0.02417588
-0.05319699
0.27359831
-0.39331982
0.05867098
-0.03617775
-0.17375992
0.00289626
0.03040405
0.01727713
-0.03724154
-0.18949489
0.06420229
-0.02528169
0.36740673
0.01947038
-0.31536847
0.19885924
-0.39230862
-0.00171859
0.15004624
-0.48016807
-0.91758645
0.14134790
-0.11430397
-0.02889306
0.17911498
-0.39305967
0.19969417
0.00081633
0.13371338
0.40192923
0.06648790
-0.26456261
0.03988656
-0.16389979
0.05254020
-0.53023922
-0.02332569
-0.09433302
-0.54173052
-0.32405248
0.20690861
-0.01394210
-0.52809817
0.00056552
-0.03521551
-0.14745896
-0.11148936
-0.23261438
-0.16453645
0.12107142
0.00475833
0.09676153
-0.12579198
0.01644504
0.06889217
-0.08229730
-0.65584117
-0.43337840
0.06337615
-0.44580045
0.15878986
0.03946093
0.08764724
-0.07989408
0.12186501
-0.29814762
0.03794399
-0.03039224
-0.23129374
-0.33045295
-0.32452282
-0.28504720
0.01616690
-0.12436578
-0.43262705
-0.17335472
0.10072547
-0.30020049
-0.37187326
-0.31927603
0.03062121
-0.61110795
0.04272940
-0.12756971
-0.03212784
-0.14849477
-0.29052410
-0.20583613
0.09277238
0.24658783
-0.13843103
-0.20561019
-0.14772537
-0.14823410
-0.03107156
-0.28027833
-0.13399066
0.04022832
0.07837617
-0.05700867
0.00258045
-0.09011368
-0.00000022
-0.04740217
-0.02841466
-0.38174203
-0.48069146
-0.06569251
-0.26324439
-0.18415473
0.08595920
-0.29183519
-0.46578535
-0.08553956
-0.35101706
-0.87974697
-0.69610208
-0.33538222
-0.42685723
-0.14010918
-0.12583788
0.02214995
-0.25651741
-0.04487456
-0.00407143
0.13950427
-0.42597887
-0.35437024
-0.03702735
-0.12646939
-0.23971416
-0.42035082
-0.52012283
-0.09749704
-0.51556855
-0.01969370
-0.59747118
-0.03681643
0.03596757
-0.03060539
0.05117046
0.22732052
-0.52577341
0.11798333
-0.07986010
-0.02339480
-0.33100802
-0.30762365
-0.18228480
-0.06186162
-0.07777879
-0.12588459
-0.24170706
0.00085096
-0.24132554
0.03974648
0.21903700
-0.36952031
-0.46265382
-0.05020009
-0.07112416
-0.50620162
-0.07792805
-0.08952114
-0.09751439
-0.19812912
0.17996280
-0.42553258
-0.24552169
-0.16987088
-0.01206355
0.01743133
0.00701675
-0.02335712
-0.50307721
-0.21253838
-0.37284917
-0.22385412
-0.02877792
-0.35534862
0.00890516
-0.06643385
0.08560725
0.02401034
-0.25479022
0.13947247
0.05236094
0.07280672
0.06728876
-0.25588036
-0.04021022
-0.49020904
-0.09722652
-0.00176755
0.02447462
-0.19873656
0.04343451
-0.39231339
-0.19175676
0.11345254
-0.25269288
-0.21647504
-0.20568061
-0.00926408
-0.04432477
-0.23624448
-0.47821718
-0.28817856
0.08326256
0.15476079
-0.22907718
-0.44150025
-0.07081805
0.04839730
-0.27689356
-0.37968883
0.02426229
-0.22113879
-0.33583435
-0.00582352
0.11292104
0.00147126
0.02749658
-0.05747225
-0.18446653
-0.17706399
0.20837760
-0.27718958
-0.09477422
-0.14669205
-0.14464520
-0.00626618
-0.04145757
-0.05748032
0.03775471
-0.27884170
0.04295158
-0.18107387
0.04043945
-0.34145564
-0.44304472
-0.55723929
-0.24440055
0.52691150
-0.17252974
-0.07086879
-0.35481578
-0.07350817
-0.04214234
-0.31698886
-0.42814785
0.01775865
-0.55018717
-0.20886543
-0.14377271
-0.13360414
-0.01060280
-0.38410139
-0.55540246
-0.08376296
0.16523933
-0.06093263
-0.35141438
-0.51602948
0.12482367
-0.08607717
-0.41236371
-0.14265735
0.08593786
-0.40158379
0.05243719
-0.46045583
0.01185852
0.00995812
-0.21785425
0.08392146
-0.19124173
0.35238564
0.00791570
-0.31881359
-0.38506860
-0.10620330
0.01281323
-0.22648622
-0.22883500
-0.06840676
0.12845951
-0.01041095
-0.32864624
-0.09152763
-0.16399156
-0.00215579
-0.03896249
-0.15205748
-0.20083715
-0.41965443
-0.02536989
-0.06213440
0.04228667
0.00716631
-0.10116815
0.07908899
-0.12371207
-0.13962148
-0.38739341
-0.02326075
0.14883853
-0.57759053
-0.07120778
-0.07998504
-0.21235292
0.02121353
-0.06252391
0.00671464
-0.25649089
-0.30877984
-0.34442750
0.21515179
0.08420099
-0.09112167
-0.58515263
-0.07718241
-0.06380650
-0.22093962
0.08801916
-0.12432519
-0.18569225
0.16546686
-0.32655743
-0.10198881
0.08306014
0.04445826
-0.26673558
-0.24240445
-0.18649632
-0.34439018
-0.14323816
0.16198868
0.07342634
-0.12334530
-0.08214834
0.10913429
0.22852314
-0.23392987
0.17041859
-0.08357405
0.29056036
-0.10328243
-0.31395918
0.01193102
-0.50410980
-0.03399721
0.11355127
-0.15913595
-0.12764636
-0.37283877
-0.08303256
-0.20315105
-0.41611186
-0.07653058
0.04299065
0.03342159
0.04524830
-0.55371749
0.09777723
-0.29725063
0.01798100
-0.03529982
-0.15648817
-0.10148524
-0.13281412
-0.32440108
-0.04920293
-0.56222636
-0.16559736
0.06761763
-0.02004725
-0.01252319
-0.12773652
-0.01481080
0.13866460
0.29496422
