0.01960803
0.07826458
0.08672328
-0.15655935
-0.07748923
-0.13263948
-0.15090930
-0.01350725
0.01429548
-0.13790642
-0.00908969
0.14976451
0.03340574
-0.26872152
0.00366681
-0.06594394
0.08551649
-0.12466852
-0.18499230
-0.00029800
0.02513845
-0.02071933
0.05129470
-0.10939686
0.13945137
0.01902672
-0.04676180
0.08308008
-0.04390461
-0.07500200
-0.11952007
-0.13126294
0.07103087
-0.10641336
-0.07566155
-0.20939040
-0.04630160
0.12400013
0.00260189
-0.18670686
0.17223953
0.04335784
-0.13463581
0.23476216
-0.00891253
0.04418816
0.10885791
0.03317915
-0.05782498
-0.02190234
0.31852549
0.03247129
0.01945021
0.11635105
0.02693092
-0.13860831
0.06905905
0.11486607
0.02643004
0.09798428
0.11929208
-0.06116084
-0.01771270
-0.03983407
-0.14890423
0.13724536
0.04582154
-0.06050332
0.00283015
0.01841864
-0.22304495
0.14728676
0.10210527
-0.10165111
-0.02277355
-0.13988902
0.02905361
0.06726868
0.21108691
0.07989316
0.06852166
-0.10559478
0.09623778
-0.04202149
0.05427654
-0.14208241
-0.10370629
-0.10775281
0.05251439
-0.08343251
0.03464669
0.07437008
-0.07451847
0.05662329
-0.08330821
-0.05487506
-0.01662975
0.08384677
0.10406694
0.02903591
-0.12202188
0.11295935
-0.01707814
0.04615266
0.05793758
-0.05465667
-0.09770752
0.15830649
0.01745139
-0.03638929
0.09820767
-0.05020614
0.08103967
0.00275277
0.02020248
0.05084870
-0.17957035
0.01218734
0.02474431
0.01531864
0.19302367
0.11739853
0.02378819
0.05900623
-0.09155492
0.03830957
0.07074600
-0.03383924
