-0.76518524
0.08920468
-0.01950141
-0.34877381
0.51855826
-0.07694621
0.10881536
-0.45934945
-1.55619168
0.90601420
-0.00728555
-0.23766087
0.43067554
-0.34861594
0.35582072
-0.19153343
-0.27712774
-0.10348149
-0.70303470
0.62218428
0.18243514
-0.30560392
-0.19850506
1.61844647
1.52277565
0.02327577
0.11154098
0.59840435
0.73923910
-0.09593195
-0.43663371
-0.12946880
0.00687243
-0.18036991
0.15101585
-0.19920644
0.33321574
-0.38436154
-0.13551298
-0.20631440
0.54024237
-0.08780147
0.93029732
-0.97886544
0.73798996
0.06294900
0.10229263
0.73813719
0.33415228
0.14692065
-0.01769383
1.04380417
0.36664757
-0.13231203
-0.06357903
0.05254451
-0.17933767
-0.01591146
0.32909349
0.81506002
0.62178493
-0.64820606
-1.05186152
-0.45408389
-0.24775372
0.21120517
0.16230318
0.07652733
-0.16218655
0.40355113
-0.04395106
0.13018964
-0.18780677
-1.63271999
-0.64527285
0.14064702
0.08569053
-0.34691942
1.97423112
0.32169303
0.34354144
-0.62673956
-0.45984718
-0.02834255
0.96579194
-0.28570068
-0.27998233
0.78869730
0.21039847
-0.37240061
1.24939060
0.25256565
-0.02062728
0.15655591
0.54223514
1.01633203
0.35446239
-0.56973684
0.69391096
-0.29637009
0.32072094
0.22123061
0.26156223
-0.35989070
0.24779874
-0.59275198
-0.71245337
0.63577467
0.70275706
-0.33968315
-0.89208168
0.95018131
0.58473229
0.28093031
-0.13651796
0.14743151
0.44761834
-0.86664879
-0.14953215
0.33667669
-0.00968430
0.53167814
0.33975622
-0.61083472
-0.00813661
-2.04266596
-0.11396629
0.59982073
