-0.00588725
-0.00235185
0.00281131
0.00173088
-0.00546653
-0.00176160
-0.00444463
-0.00382924
-0.00218735
0.00746100
0.00437965
0.00131996
-0.00358415
0.00175452
-0.00632305
-0.00450963
0.00680329
0.00640484
-0.00517700
0.00406489
0.00049600
0.00207119
0.00321326
0.00054763
-0.00475108
-0.00070966
0.00042517
-0.00793830
0.00121204
-0.00331553
0.00295552
0.00207174
0.00139636
0.00503505
-0.00312256
-0.00437558
0.00065477
0.00078115
-0.00582005
-0.00196403
-0.00191591
0.00291583
0.02214636
-0.00092337
-0.00017579
0.00009101
-0.00674667
-0.00103385
-0.00129891
0.00073795
-0.00086086
0.00336623
-0.00024189
-0.00352341
-0.00060111
-0.00150087
-0.00280631
-0.00098548
0.00587915
0.00216506
0.00218104
-0.00346298
-0.00134160
0.00433288
0.00003903
0.00061279
-0.00346329
-0.00029351
0.00021314
0.00015353
-0.00092294
0.00124604
-0.00061330
-0.00160926
0.00048428
0.00035618
0.00243955
-0.00168800
-0.00047728
-0.00153824
0.00147824
-0.00062441
0.00135311
0.00353043
-0.00122675
-0.00045020
-0.00021215
0.00069271
-0.00023133
0.00057526
-0.00292209
0.00150937
-0.00258938
0.00243389
0.00114890
0.00089521
0.00312218
0.00147503
0.00045719
0.00350281
-0.00142518
-0.00028315
-0.00054302
0.00378897
-0.00346872
0.00086041
-0.00138141
-0.00190534
-0.00181903
-0.00097423
0.00002634
-0.00114580
-0.00005074
-0.00210205
-0.00150788
0.00319645
-0.00020349
0.00393090
0.00079368
0.00132842
0.00221744
-0.00107349
-0.00586892
0.00122549
-0.00374350
0.00078641
-0.00164828
-0.00173877
0.00528992
0.00071100
-0.00054288
-0.00468864
0.00446216
-0.00341843
-0.00254409
-0.00368969
-0.00337672
-0.00350809
-0.00369077
0.00154336
0.00055489
-0.00026388
0.00230548
-0.00105499
0.00860165
-0.00093760
0.00021755
0.00366249
-0.00137125
0.00401530
-0.00015041
-0.00208250
0.00217027
0.00034010
-0.00006157
-0.00596757
-0.00371175
-0.00072690
-0.00791611
-0.00129264
0.00193787
0.00648236
-0.00046681
0.00851528
0.00354259
0.00002866
-0.00021781
0.00421431
-0.00244442
0.00072449
-0.00159502
0.00070954
0.00797213
0.00248047
-0.01101795
-0.00009420
-0.00114685
-0.00253306
0.00011589
-0.00142281
-0.00501918
0.00107258
0.00202578
0.00683938
0.00266460
0.00335331
-0.00264853
-0.00526671
0.00265686
-0.00111035
-0.00144349
0.00167344
0.00033540
-0.00262215
0.00542645
-0.00799177
-0.00266460
-0.00583633
-0.00205474
-0.00520431
0.00377238
-0.00073365
-0.00354077
-0.00241116
0.00159724
0.00165200
0.00092729
-0.00450702
0.00579740
0.00459831
0.00210227
-0.00196731
0.00533567
-0.00833225
0.00100623
-0.01015306
-0.00109704
0.00699297
-0.00836231
-0.00417011
0.00622931
-0.00624625
-0.00042678
-0.00509340
0.00870269
-0.00355713
-0.00174055
-0.00350796
-0.00318947
0.00126471
0.00283736
-0.00674373
0.00699681
-0.00306012
0.00103458
0.00451199
0.00276148
0.00216031
-0.00552218
-0.00150446
0.00130225
0.00048249
0.00767868
0.00834395
0.01744886
0.00366408
0.01062113
-0.00032017
-0.01680403
0.00375565
-0.00722394
-0.00105780
-0.00431191
-0.00310638
-0.00076858
-0.00593638
-0.00109187
0.00728987
-0.00490516
0.00039435
0.00127317
-0.00052913
0.00223259
-0.00154532
0.00197414
-0.00173844
0.00113787
0.00030965
-0.00201512
-0.00058845
-0.00157545
0.00025120
0.00087102
-0.00099919
0.00367014
-0.00412898
0.00389835
-0.00100800
0.00239372
0.00082791
0.00121228
-0.00117973
0.00210159
-0.00013483
-0.00129098
0.00355975
-0.00600363
-0.00225082
0.00166184
-0.00291180
0.00385182
-0.00151983
-0.00422783
0.00483911
0.00507601
-0.00042013
0.00422844
0.00054458
-0.00429823
-0.00642371
0.00175305
-0.00483519
-0.00102558
0.00134317
0.00187871
-0.00040918
-0.00017179
0.00152025
0.00158366
0.00141854
0.00282453
0.00884911
-0.00134498
0.00310961
-0.00137977
0.00501707
0.00165113
0.00188441
0.00106661
0.00321368
-0.00304091
0.00409867
-0.00835559
0.00517884
0.00163498
-0.00466527
-0.00012104
-0.00061931
-0.00873182
0.00560602
0.01467598
-0.00326860
-0.00665787
-0.00338866
0.00046357
0.00010879
0.00741730
0.00669978
-0.00405567
-0.00398116
-0.00483357
-0.00501126
-0.00296735
0.00285326
0.00354279
-0.00290705
0.00888702
0.00541427
0.00771873
-0.01692467
-0.00545559
0.00495502
0.00384074
0.01116062
0.00403672
-0.00518657
0.00236322
0.00079723
-0.00833002
0.00318136
-0.00986633
0.01319676
-0.01518056
-0.00376209
0.01053790
-0.00156668
-0.01112500
-0.00167713
-0.00243878
0.01372182
0.00038678
0.00466309
0.00473271
0.00071150
0.00851298
-0.01006205
0.00563101
0.01743907
-0.00056499
0.00474366
0.00352707
-0.00511307
0.00638732
0.00288989
0.00700198
0.00095304
-0.00126422
0.00014853
0.00803377
-0.00549758
0.00132754
-0.00208156
0.00375213
-0.00642815
-0.00007709
0.00148373
-0.00745561
0.00182416
0.00179261
0.00137632
0.00156426
0.00397357
0.00287698
0.00192343
-0.00191622
-0.00838843
-0.00280921
-0.00156505
-0.00422985
-0.00699498
-0.00354415
0.00174445
0.00421212
0.00599910
0.00751502
0.00437172
-0.00255819
-0.00726486
0.00235601
-0.00492387
-0.00550217
-0.00153222
-0.00123643
0.00221778
0.00378055
0.00007075
-0.00658348
-0.00188986
0.00379574
0.00055061
0.00448110
0.00170318
0.00250775
-0.00368662
0.00195747
0.00350506
-0.01233358
0.00692393
0.00213766
-0.00289603
0.00478981
-0.00037488
-0.00442223
0.00801889
0.01046118
-0.00275003
0.00243380
0.00527538
0.00079124
0.00086495
-0.00138832
0.00151088
-0.00112007
-0.00250178
0.00160345
-0.00637213
-0.00527797
-0.00420738
0.00952207
-0.00158206
0.00182471
-0.00031186
0.00185916
-0.00668499
0.01013619
-0.00147050
-0.00105616
0.00513718
-0.01145433
0.00432897
0.00769745
-0.00243028
-0.00317261
0.00056935
0.01164357
-0.00790325
0.00254000
0.00449065
-0.00454483
-0.00253672
0.00719773
-0.00076985
0.00408047
0.00088287
0.00699781
0.00272436
-0.00191309
0.00259225
-0.00901251
-0.00116266
0.00195355
0.00362559
0.00665972
-0.00188530
0.00384096
0.00060683
0.00234186
-0.00137819
-0.00437389
-0.00174146
-0.01257060
-0.01476335
0.00310112
-0.00777360
0.00576063
0.00157962
-0.00581670
-0.00322986
0.00262570
-0.00007599
0.00102352
0.00341114
0.00501004
0.00501039
0.00090975
0.00967464
-0.00234902
-0.00126795
0.00271444
0.00094060
0.00308005
0.00751818
-0.00650447
-0.00622446
-0.00028610
-0.00448260
-0.00103764
-0.00189609
-0.00255159
0.00000493
0.00091479
0.00459274
0.00032982
-0.00528315
0.00496214
-0.00079132
-0.00194532
-0.00056713
0.00657963
-0.00350886
-0.00372698
-0.00500775
0.00126343
-0.00510788
0.00022059
0.00975552
0.00645098
-0.00320190
-0.00038870
0.00561346
-0.00544663
-0.00166508
-0.00452577
0.00158136
0.00691682
-0.00411515
0.00002658
0.00203180
0.00694929
0.00414240
-0.00150151
-0.00493025
0.00788609
-0.00911585
-0.00774426
-0.00226193
-0.00038282
-0.00222541
0.01234413
-0.00130878
0.00454050
0.00207240
0.00591442
-0.00119331
0.00161086
-0.00542914
0.00639212
-0.00199026
0.00295282
-0.00453568
0.00226697
0.00150626
-0.01751642
0.00316910
0.00226031
0.00109351
-0.00541638
-0.00631917
0.00307025
-0.00306874
-0.00444133
-0.00122369
0.00150206
0.00035066
0.00461689
0.00080363
-0.00974804
0.00277301
-0.00728867
-0.00052745
0.00511505
-0.00363673
-0.00115764
0.01186064
-0.00124019
-0.00320829
0.00431955
-0.00961740
0.00143913
-0.00353632
0.00441952
0.00508263
0.00383022
0.00519958
-0.00734388
0.00039033
0.00613863
0.00752965
-0.00518673
0.00090231
0.00470272
-0.00521638
0.00014633
-0.00056336
0.00056730
-0.01517341
-0.00926426
0.00708904
0.00201267
-0.00109594
0.00670307
0.00093646
-0.00154217
0.00082312
-0.00201349
0.00639984
-0.00090399
-0.00016684
0.00240392
-0.00271914
-0.00278671
0.01041984
0.00441993
-0.00419405
-0.00151119
-0.01146014
-0.00551354
-0.01751481
-0.00553352
0.00259659
0.00141624
0.00319048
0.00382895
-0.00442729
0.00041189
0.00551126
0.00169351
-0.00276621
-0.01046263
-0.00075923
0.00128660
-0.00063500
0.00937816
-0.00399566
-0.00331507
0.00265980
0.00074693
-0.00115559
0.00013795
0.00533275
0.00518232
0.00654187
-0.00114466
0.00159489
-0.00139432
0.00625026
0.00206655
0.00382198
-0.00069571
-0.00387132
0.00043399
0.00167944
0.00451016
0.00397949
-0.00450572
-0.00290577
-0.00716446
-0.01584088
-0.00454242
0.00851483
-0.00283737
0.00313853
-0.00321355
-0.00076192
0.00413698
-0.00386376
-0.00500324
-0.00311165
-0.00721043
-0.00348716
-0.00233777
0.00483699
0.00060923
-0.00403849
0.00224415
0.00659369
-0.00486087
-0.00370709
-0.00401361
-0.00151685
-0.00367508
0.00326891
-0.00123377
0.00274806
0.00551672
0.01234133
0.00136386
-0.00231697
0.00098503
0.00060862
-0.00118831
0.00561046
0.01020543
0.00501526
-0.00519806
0.00356229
-0.00695815
0.00680701
0.00110066
0.00177063
-0.00323649
0.00048982
0.00212657
-0.00092049
0.00206945
-0.00653621
-0.00076771
0.00341724
0.00456506
0.00518488
0.00410067
0.00940806
-0.00586729
0.00316805
-0.00555963
-0.00482798
-0.00224399
0.00428140
0.00928634
0.00883065
-0.00920570
0.00339282
0.00574833
-0.00116322
0.00235257
0.00018270
-0.00471601
-0.00606236
0.00501463
-0.00155482
-0.00461479
0.00361206
0.00073064
-0.00557631
-0.00130393
0.01315508
-0.00346829
-0.00039503
