0.07045844
-0.13412629
-0.05141460
0.00061329
0.12485190
-0.02316038
0.00092162
-0.00526122
-0.07978365
-0.22057416
-0.07414562
0.10247391
0.09763394
-0.15478171
-0.04083445
0.03715595
-0.06866559
-0.06131127
0.11433639
-0.03340581
0.11337630
-0.17236646
0.10358101
0.01874224
0.04180640
-0.15427485
0.01463848
-0.00162888
-0.03638695
0.08182194
-0.05640196
-0.23177528
-0.04439728
-0.07975348
0.11407988
0.11806060
-0.00143314
-0.02463224
0.05399345
0.01644312
-0.06957591
-0.13974585
0.07502829
0.03568099
-0.04604460
-0.09708919
0.28591576
0.05017697
0.10826166
0.02311316
0.01878969
0.09337248
-0.15019768
-0.05673765
0.02503293
0.10295033
-0.02255439
0.03823095
0.09696113
-0.11177457
0.03108709
-0.02960017
-0.04605733
-0.04583884
0.03319976
0.05975233
-0.11521630
-0.05775101
0.05701152
0.03509573
0.14827198
-0.05283152
0.03239672
-0.06150302
0.04971765
0.03692828
0.11138543
-0.14615367
0.06135128
-0.02223556
0.05386402
0.19926850
0.19496597
0.04573159
-0.03416611
-0.07011452
0.00835987
0.10146777
0.03276487
-0.08359140
-0.12635161
0.08613353
0.01497619
-0.07311539
0.20502284
0.14501835
0.15976381
0.22136609
0.03683908
0.08776339
0.09618347
0.06641994
0.05873574
0.02316732
-0.13591339
0.12141948
-0.10120438
-0.20057809
0.04202573
0.19182968
-0.02446113
0.03797438
-0.24038014
0.02250000
0.00947033
0.01958341
-0.06942592
-0.11339310
0.20212260
0.08925176
-0.00711248
-0.16362020
-0.30168244
0.08269354
-0.31658870
-0.16746685
0.12972090
-0.02791367
-0.26396888
0.41176799
0.12252124
-0.19189887
0.12659313
0.22186787
0.18744689
0.09157833
0.41810596
0.21164915
-0.23808472
0.13676579
0.05489923
0.37985155
-0.49435166
0.19958855
-0.41114566
0.14076033
0.32423073
-0.17087959
0.03675269
-0.08407268
0.32536709
-0.27104497
-0.36755529
-0.13828780
0.13076766
0.25179961
0.00145648
-0.08818480
0.16972569
-0.48411313
-0.06117898
-0.09132936
-0.37194565
-0.26812461
-0.11215669
0.50064600
-0.08186879
-0.41484147
-0.03366090
-0.26117486
0.10787247
-0.06050889
-0.11452860
0.10600828
0.35180190
0.29984614
-0.03901075
0.23986980
-0.04946695
0.44336012
0.12967840
-0.07136922
-0.45167330
-0.13387427
-0.22014260
-0.03801107
0.07027350
-0.01792420
-0.13583088
-0.15455595
0.11585544
0.05903625
0.26441193
-0.20499660
-0.11959305
0.24788025
-0.11783023
0.42782965
-0.20624562
-0.31593159
-0.11498089
-0.08421481
0.13873377
-0.10911408
0.02189628
0.62344074
0.36164871
0.16599832
-0.29485804
0.13810341
-0.72069234
0.01035372
-0.18532400
0.00729017
0.19832502
-0.17085998
-0.04731557
0.16059518
0.15353814
0.14154220
0.10621816
0.01297559
-0.28206360
0.13968280
0.01300010
-0.00672338
-0.03425175
-0.01969104
-0.21170092
0.14033304
0.25194585
0.08327762
0.15831068
-0.05544331
0.19238751
0.09499162
-0.31965071
0.18668807
-0.56818396
-0.07359789
0.26008952
0.03428574
-0.01512451
0.23350139
-0.11539730
0.08993966
0.01913795
0.01229238
0.01112797
0.03836874
0.23720266
-0.06141375
0.10821933
0.02224705
0.07474640
0.26781166
-0.02694686
-0.01433704
0.09539458
0.02850510
-0.10430813
0.06584930
-0.07665179
-0.08169246
0.08392572
-0.00690158
0.10577037
0.07122588
0.09297597
0.06428614
0.04410411
-0.12476117
-0.07668021
0.04622655
-0.14684032
0.24441323
-0.05610318
-0.03126691
0.26542217
-0.10494983
-0.05320279
-0.31034252
-0.01372367
-0.17406119
0.34187889
0.01570786
0.34578705
0.37149981
0.13695192
-0.02009409
-0.14248894
-0.14996085
0.07664957
0.03114557
0.09086410
-0.05291926
-0.04583723
0.13877308
0.12684876
-0.02138939
-0.21477525
0.19448869
-0.01765474
0.11543791
-0.02153885
0.13681388
0.07590343
-0.17807412
-0.09006812
-0.18549396
-0.08433665
0.02847378
-0.03705332
0.08865587
-0.07840984
-0.30044118
0.07657803
-0.08600947
0.04488129
0.22207107
0.04073559
-0.01573506
-0.13484994
0.02406401
-0.01769080
-0.07148305
-0.15562546
0.02314474
-0.03210475
-0.06495368
0.03740525
-0.16935840
-0.03092675
-0.07681216
-0.01693611
-0.02386841
0.01925973
0.02913326
-0.03593832
-0.08813515
-0.52115452
-0.04391992
-0.26252067
0.04883334
0.21311285
0.09643823
-0.07887149
-0.06240960
-0.00775237
-0.16280180
0.00677743
-0.01287632
0.00398609
0.08127851
0.06390791
-0.11062073
-0.11185011
-0.27746865
0.17071335
0.23600197
-0.05028710
0.44512603
-0.02296210
0.19210497
-0.07251723
0.08320074
-0.04753289
-0.04483010
0.06803257
0.11464640
-0.02643926
-0.24864165
0.15682490
-0.08147284
0.05119475
0.01142995
-0.01938283
0.07032009
0.02681307
-0.02768624
0.07186163
-0.16799204
0.01064290
0.02176793
0.04771647
-0.15338060
0.12416685
-0.03359643
-0.15851328
-0.09426787
0.25213552
0.13984933
0.21496163
-0.12715858
0.05639508
-0.02804930
-0.21808532
0.02330624
0.08360652
-0.17014328
0.20244867
0.03347613
0.37744650
-0.01776783
-0.28504843
0.04851185
0.17564645
-0.06800408
0.16970719
-0.00479469
0.11149049
-0.06629335
-0.15158200
-0.02708174
0.03932442
-0.01223524
-0.07860669
0.19633497
-0.11167397
0.14565994
0.08769664
0.06060037
-0.01824300
-0.12594020
-0.07088421
0.13651243
-0.00200959
-0.07384556
-0.10368270
0.34080693
-0.05153687
0.03391633
0.09826421
0.18080534
0.09384014
-0.07689285
0.14750393
-0.05738968
-0.11936749
0.00623439
-0.03987658
-0.15248238
0.08990778
-0.29805109
0.02809994
-0.21777076
-0.30447885
0.01798811
0.01857027
0.09896133
0.50421089
0.02760188
-0.04603662
-0.34207213
-0.24650000
-0.03776446
-0.20101753
0.08391026
-0.37004825
-0.14512841
0.14603662
0.07343221
0.10569033
-0.01020224
0.22166769
-0.20404342
0.38686901
0.25139719
0.28017718
-0.08686858
-0.04796619
-0.13859729
-0.25856012
0.12470633
-0.13596509
-0.19934005
0.08760622
-0.07054263
0.14869274
0.00073133
-0.03080833
-0.36402550
0.37934572
-0.14004101
0.00093023
-0.04704900
0.22356941
-0.01342425
0.02265580
0.21452308
0.00861308
0.29830617
-0.08568916
-0.08551354
0.19094063
0.31853598
0.07736285
0.14069594
-0.28921530
-0.03620511
-0.05320544
0.07335059
0.10209166
0.07974730
0.08236855
0.06518515
0.00077275
-0.05359736
-0.11220213
-0.00570994
0.33706284
-0.12865917
-0.02733949
-0.08822190
0.01372543
0.03789391
0.08284794
0.06329510
-0.02527307
0.03108607
-0.11371190
-0.04497968
0.04522232
0.06348366
0.01876794
0.00669050
-0.10449895
0.00954918
0.01553471
-0.03211883
0.09035695
0.06492925
0.05106733
0.05547060
0.01494029
-0.04361467
-0.01480451
0.01540242
-0.03729392
0.03669008
0.01952540
0.08948684
-0.01070082
-0.01574598
-0.01935834
-0.10973809
-0.08286777
0.11118813
0.01453809
-0.04331607
-0.01485570
-0.00817072
0.02751444
-0.01703011
-0.02484006
0.03025761
-0.07573339
0.01195375
0.02197862
-0.01995130
-0.34641460
0.00996523
-0.06287091
0.00771009
0.03939506
-0.01574410
0.00159228
0.00524140
-0.07576215
0.11847698
-0.03280222
-0.02157457
-0.02251377
-0.00799811
-0.04127903
0.02373110
-0.03480181
-0.06928095
-0.07943685
0.06293537
-0.08961753
-0.03434653
0.11021941
0.11897909
-0.00986512
0.03001805
-0.03319864
0.01958964
-0.04348435
-0.00261596
-0.03147934
-0.03526252
-0.06823714
-0.03616332
0.00824235
-0.03219691
0.04806209
0.05319823
0.04346585
-0.01094642
0.01354087
-0.07786266
-0.04134907
-0.05281122
-0.00214928
0.13140877
-0.06523385
0.01836472
-0.03818088
-0.03014669
-0.00919900
-0.03824535
0.04215665
0.01223500
0.06392524
0.06237911
0.07096700
0.05311751
-0.09571642
0.04491702
0.05425489
-0.06422682
0.03990646
0.02061612
0.03870744
0.25480029
0.03078405
-0.12052421
0.08542697
-0.00065499
0.00970127
0.02287265
-0.05021749
0.10337801
-0.00848997
-0.06492251
0.03299235
-0.04453097
-0.02557813
-0.01130675
-0.00382171
-0.09272648
-0.25944498
0.12399067
0.02759936
0.08530329
-0.03567420
0.48555958
-0.02991960
-0.13968153
-0.05306996
0.02937891
-0.03841686
0.02151825
0.10570468
-0.03733512
-0.01956005
-0.02380861
0.05090145
-0.01809835
-0.02027553
-0.01249741
-0.06853076
-0.04200438
0.03268314
-0.08018740
-0.09879705
-0.00826664
-0.03525285
-0.05455453
-0.02947459
-0.24152181
0.01796396
-0.05443666
0.03948960
-0.05108640
0.06849799
-0.16838239
0.04488676
-0.01449210
0.04356028
-0.10666022
-0.05199178
-0.10659820
0.05150014
0.03466436
0.02223764
0.38978547
-0.01048011
-0.29697326
0.01564136
0.16950960
-0.01056277
-0.02360628
-0.01458482
0.04027065
-0.02550828
0.04706965
-0.10112195
-0.08546743
-0.00071952
0.10856546
0.12354430
0.12378758
0.01035027
0.04929926
0.09720580
-0.03927822
0.04152091
0.01703222
0.38271677
-0.02501462
0.06091787
-0.00716986
0.00909618
-0.62540179
-0.00903641
-0.13090256
-0.16619025
0.04094623
-0.09532908
0.11887430
-0.33100247
-0.13473037
-0.07680312
0.06581590
-0.04893810
0.04586720
-0.06298036
-0.07743824
-0.02607479
-0.01576834
0.01523677
0.01995800
-0.12526311
-0.02309905
0.09235098
-0.07302062
-0.05529935
-0.01992537
-0.07033838
-0.31535977
-0.10741498
0.00118643
0.20530340
-0.00055884
-0.05858518
-0.02505707
-0.07627656
0.14020544
-0.03843919
0.03755914
0.03666195
0.01173074
0.07410425
0.05331696
-0.01787369
-0.00143788
0.04813682
0.02539616
-0.19899702
0.10314178
0.09216005
0.10788567
-0.06595232
0.05787217
-0.00584456
0.27521560
