-0.01126871
-0.02704018
0.03015320
0.02332082
-0.04233487
0.02908588
0.01235510
-0.00704332
0.02028777
0.02288361
0.01178184
-0.01271505
0.02777849
-0.02041519
0.00185265
0.01878618
0.04190128
-0.00840946
-0.00950494
-0.01027418
0.03021304
-0.00033455
-0.00293792
-0.02264428
-0.00852997
-0.01597341
0.01573996
-0.01238457
-0.00965517
0.01549677
0.02458877
0.01121545
-0.00976472
-0.02194042
-0.03941650
0.01173966
0.04396018
-0.00142683
-0.04616489
-0.03531330
0.00048251
0.06163039
0.02917453
0.04315832
0.01770449
0.00720178
0.04176749
-0.00155015
-0.00713145
-0.02137656
-0.05050842
0.04821778
0.01389797
0.03047541
0.01227765
-0.00812397
0.02566969
-0.01070720
-0.02669844
-0.00009072
-0.02650256
0.03746664
-0.02358792
-0.01603019
-0.01246310
0.00057673
0.01498513
0.00023971
0.00828532
0.02410052
0.01296242
-0.00296719
-0.00050275
0.02416998
-0.00399599
0.01401047
-0.01091588
-0.00540299
0.02667866
0.00048858
-0.00682547
0.01078432
0.01266553
0.02759640
0.00759431
-0.00798308
-0.00836396
0.00915458
-0.00143359
-0.00589339
-0.02344588
0.01628547
0.01423525
-0.04120965
-0.00015122
0.00650466
0.02490583
-0.00902864
-0.01000734
0.01739798
0.01298556
0.01926446
-0.00855820
0.00910058
0.07637546
-0.01901762
0.00625285
0.01389347
-0.00340017
0.01369694
0.00010162
-0.02265633
0.00366664
0.00575462
-0.00263494
0.00454380
0.02161436
0.00558599
0.02364842
0.00101830
-0.00009816
0.02251435
0.01306225
0.00630803
0.01150346
0.02258099
0.00528614
-0.00759561
0.03448064
0.02138080
-0.01378802
0.00541052
0.02124404
0.01069970
-0.00576587
-0.00789713
0.01473478
-0.02867501
0.01034436
0.00908291
0.06313148
-0.00589307
-0.00064720
-0.01772746
-0.00449490
0.00615415
-0.02583642
-0.01870481
-0.00921943
0.02018324
0.01873957
-0.02008777
-0.03177685
0.03682079
-0.00052379
-0.00532872
0.00457447
-0.00814712
-0.00056215
0.00171227
0.03355251
-0.01747079
-0.02711535
-0.01567850
-0.04255098
0.02493393
-0.01239749
0.00808776
-0.07149664
0.00244051
0.02326754
-0.00676056
-0.02353753
0.00829618
-0.00672917
-0.00666779
-0.03586853
-0.01736206
0.01504046
-0.01158549
-0.02632411
0.00451662
0.00351014
0.00235472
-0.00579630
0.00390963
-0.01764468
0.02220901
0.03894654
-0.00766915
0.00778515
0.00812557
-0.00241447
-0.00575459
0.03342099
0.00500170
-0.00779986
0.00103587
0.00604187
-0.04583652
-0.01467091
-0.06070909
0.01355215
-0.01625848
-0.04727275
0.01745577
-0.02123169
-0.00589640
-0.01456669
0.05011136
0.04002406
-0.02265070
-0.00877707
0.03690460
-0.07304895
0.03214651
0.03291210
-0.00606794
-0.00430326
0.05364098
0.00730669
-0.00886533
-0.02923986
-0.04454108
-0.03884279
-0.00971240
0.00003581
0.05425975
-0.01428729
-0.05947189
0.00392895
-0.00112518
-0.02368763
-0.00623981
0.04555077
0.10764810
0.00386821
-0.04062426
-0.05006473
-0.01363060
-0.00743835
-0.01201924
0.03365910
-0.01056004
0.01110356
-0.00915320
-0.05147320
0.00322891
0.01399159
-0.02547646
0.10106916
-0.00645743
0.02752707
-0.00874528
-0.00000423
0.03708584
0.00255315
-0.00344549
-0.00642263
0.00767625
0.00229640
-0.00326551
0.00171300
-0.00844619
-0.02123244
-0.01807158
0.00154726
0.00066377
0.01418592
-0.01641868
0.00640174
-0.00819782
0.00212492
-0.00925542
-0.00624284
0.00763296
-0.01097603
-0.01771588
-0.01196381
-0.00287899
-0.00360742
-0.00246805
-0.00681526
-0.00707523
-0.00940870
-0.02330561
-0.00328201
-0.00921915
0.02373196
-0.01761989
-0.02339212
-0.00850699
0.00790476
0.00698284
-0.00748138
-0.03429203
0.00471432
0.00008707
0.00409189
-0.00206227
-0.00893737
0.01592159
-0.00508901
0.02785424
-0.01409975
0.01173364
-0.00285869
-0.00525533
0.00372922
-0.00775118
-0.00193243
0.01927826
-0.01853674
0.02245862
-0.01599856
-0.01354965
-0.01193470
0.00690564
-0.01244788
-0.00836931
-0.02559460
-0.05368519
-0.01836662
0.00380097
-0.00701678
0.06132391
0.00967817
-0.00672395
-0.00675543
-0.01234503
0.01554572
0.01363325
0.04731491
-0.03400992
-0.01324038
-0.05389503
-0.00386457
-0.01168584
-0.03580020
-0.05194962
-0.00085364
-0.05041612
0.01577914
-0.01885914
0.02449390
0.00694340
-0.01967980
0.01968736
0.02376121
-0.03673375
-0.00141024
-0.02446176
-0.05111969
0.01392100
0.02340867
-0.02571751
0.04848306
-0.00689085
-0.03508266
0.00809234
-0.00912729
-0.06563158
0.00970568
0.01342988
-0.04406749
-0.01285348
0.01346963
-0.03727838
-0.00143093
-0.00613890
-0.00368983
0.03466557
0.02699045
-0.00086831
0.02602618
0.01111390
0.02829995
0.01332088
0.02659544
0.02478370
0.00567435
0.01494618
-0.01703848
0.02900634
-0.01245030
-0.00456181
0.00223315
0.00086830
0.01917487
0.01611153
0.00336784
0.01517407
0.02133521
-0.00621050
0.00303066
-0.00702696
-0.00185443
0.01300750
-0.01102449
0.00614979
-0.00327261
0.00639528
0.00160146
0.00144020
-0.01010848
-0.01403083
0.01063218
0.02370404
0.01207740
-0.00211021
0.00232200
0.00376320
0.00082382
0.00170007
-0.01150246
0.00641545
-0.00621386
0.01647108
-0.00499925
0.02213811
0.02678120
-0.02657803
0.00798206
0.01867168
0.02140246
0.00006038
-0.01177894
0.00444772
0.00849069
0.00217138
0.00420076
-0.02926210
0.02346557
-0.00048315
-0.01245046
0.01980265
0.00288786
0.00675686
-0.02742054
-0.00430891
0.02658212
-0.01168214
-0.01602029
0.00332648
-0.00543624
-0.00555260
0.00971082
0.01092840
0.01852586
-0.00806840
0.02544093
-0.03268928
0.02104624
0.03033658
0.04295830
-0.00322162
-0.01517157
-0.02186034
0.01396830
-0.01426658
0.02922042
0.00975115
-0.02726056
0.00257696
-0.08034493
-0.00206752
-0.02240167
0.00646790
0.00091052
-0.02570309
-0.00928784
0.00967136
-0.01813106
0.01290539
0.00241263
-0.02375573
-0.01187096
-0.03425417
0.01882100
0.04771522
-0.04995992
0.02007845
0.00907048
0.02393517
-0.01246827
0.03536979
-0.04649361
-0.04671278
-0.04761199
-0.02642085
-0.01286309
0.02523534
0.01751784
-0.00831643
-0.06582996
0.03185801
0.02751135
0.01821288
-0.02007892
-0.04003039
-0.00560702
-0.02831613
-0.01703600
-0.01384175
0.00379305
0.02548977
-0.00376445
0.03950180
0.02292215
0.02058654
0.01262077
0.00317950
0.01330162
-0.02597539
0.02941860
-0.01539984
0.03413453
0.01713384
-0.00783337
-0.02953422
0.00252424
0.00926310
0.01426382
-0.00474057
0.02137632
-0.03858091
-0.00297210
0.00269879
0.00260708
-0.01574785
0.00036450
0.06857587
-0.00536237
-0.01631791
-0.02555534
0.02897103
-0.01463026
-0.01296724
-0.00860811
0.02981837
0.00358706
0.02047056
-0.00002226
-0.01942788
0.01037604
0.00829230
-0.00795602
-0.00159578
-0.03618640
0.01984937
0.01566947
0.00840780
-0.00616400
0.01037296
0.00843026
0.04010332
0.01502163
0.00453953
0.02670425
0.00272107
0.00809710
0.00711472
0.02782587
0.02929754
0.01053074
-0.00800393
0.00917781
-0.00246835
-0.01099958
-0.01964905
-0.01698917
0.01330694
0.01144509
0.03517141
0.02475790
-0.01980604
0.00044334
-0.01325055
0.00251872
0.02460124
0.03750927
0.00814022
0.01678611
0.01746557
0.00189758
-0.01103969
-0.01091141
0.00977504
-0.00243024
-0.02284911
-0.01169899
0.01215809
0.03188654
-0.05264612
0.00365145
0.00013063
-0.00467932
-0.02048733
-0.01772400
-0.01406282
0.01186572
-0.01118503
0.00063835
0.03192837
-0.03120703
-0.06744832
0.00047318
-0.03012461
-0.01306310
-0.01764643
-0.01110523
0.01575233
-0.00556874
0.00076593
-0.01360747
0.02289306
-0.01550956
-0.02447280
-0.00786857
0.01260577
-0.01829658
0.00402240
-0.00876722
-0.01215784
-0.02585587
-0.01338803
-0.01737546
0.00148681
0.01509297
0.02241383
0.01828582
-0.03105918
0.01436711
-0.01472407
-0.04861801
-0.00243081
-0.01528842
-0.00202730
0.01721295
0.00042463
-0.01313515
-0.01568991
0.00089493
-0.02956980
-0.00636023
-0.00296194
-0.01801673
0.01043209
0.00221171
0.01180371
-0.01139587
0.00586155
-0.01116900
-0.01466954
-0.02030424
0.02848681
0.02524810
0.00439639
-0.01028970
-0.00644779
-0.00896536
-0.02007087
0.01326483
0.00725166
-0.00973279
-0.00389006
0.03019432
-0.03314325
-0.00801147
-0.00035733
-0.01429547
0.01168853
-0.01590923
0.01574670
0.00963108
-0.01013051
0.01082418
-0.02369576
-0.02409906
0.00857591
0.01621821
0.00500542
0.00468326
0.01796966
0.01978402
0.01028329
-0.01161281
-0.00976657
-0.02130712
0.00208279
-0.01479090
-0.02021087
0.00657110
-0.00577250
0.02685979
0.01074726
-0.02981101
-0.01511868
-0.00652053
0.01728779
-0.03393123
-0.02882130
0.04577537
-0.00509263
-0.00367189
0.00968964
0.02509106
-0.04405872
0.01076095
0.00176153
0.02870170
-0.01303320
-0.07325184
0.07730972
0.00827357
0.16724333
-0.04111314
-0.02019713
0.01301449
0.07311388
0.03470297
0.05288393
0.14152655
-0.02465519
0.01089932
-0.00376745
-0.01633596
-0.00051614
-0.04468355
0.00078346
0.00432471
-0.03167598
-0.02661917
-0.09745905
0.00586737
-0.01205014
0.02613113
-0.01806869
0.00588959
-0.06839533
0.02009739
0.08712208
0.05694370
0.00071121
0.01025915
0.06148604
-0.08088457
-0.01689093
-0.10636877
-0.03609537
-0.09123582
-0.01563099
-0.06357626
0.09261438
0.01378200
-0.15994059
0.01149800
-0.01974096
0.01234247
0.04536072
-0.04746088
0.02538334
0.00943178
-0.08855235
0.04665808
-0.04388949
-0.05018167
0.05993826
