0.02438707,-0.00796203,0.00188866,-0.06019112,0.14248769,0.00480521,0.06234707,-0.04811589,-0.09173834,-0.01012388,-0.18337217,0.09652765,0.16641007,-0.07170331,0.00697313,-0.03789835,0.07358571,-0.02049576,-0.20373279,-0.07563412,0.07041464,-0.07629795,-0.06152790,-0.01590270,-0.00466332,-0.08454473,0.13560170,-0.15353483,-0.19467796,-0.05291905,-0.01841541,-0.03203759,-0.03484385,0.01156960,0.07218191,-0.11269689,0.14251684,0.01820054,0.02615804,0.08023825,0.24303740,-0.12411709,0.03905455,0.14265524,-0.16972972,-0.07252426,-0.16644052,0.00362713,-0.05197610,-0.04695491,0.04736327,0.04869505,-0.07922284,0.09162510,0.08925727,0.16614284,-0.21890305,0.04293198,0.12930883,-0.10771356,0.08255911,-0.11420694,0.15942396,0.03929547,-0.02536470,-0.28366131,-0.06051943,0.06864146,0.01099544,0.06887966,0.06541425,0.16268912,0.02671736,-0.00772623,-0.00220266,-0.07201846,-0.10764194,0.11130721,-0.23911229,0.01840762,-0.07022939,0.03282131,-0.02673583,-0.01597713,0.08167554,-0.11416756,-0.16393939,-0.12223807,0.13320568,0.07914506,0.23544079,-0.05300021,0.04193163,-0.01306355,-0.08838029,-0.08829046,0.03423369,0.01358180,0.03974199,-0.10752762,0.01294676,0.02431352,-0.15837437,0.12817205,-0.21048531,-0.00485555,-0.01660616,-0.00854482,0.08182015,0.01553803,0.04533450,0.00045603,-0.06340111,0.12087011,0.01279875,0.04274503,0.07361930,-0.09257666,0.10528947,0.19694616,-0.03443099,-0.17825964,0.24319875,0.19796589,0.01378171,-0.02531768,0.12813520,-0.01905208
0.01052645,0.05441895,-0.08604511,-0.06770903,0.00354765,0.03539456,0.05996106,0.14108317,-0.00710970,-0.10884504,-0.13253614,-0.10787646,-0.05749788,0.10828574,0.01997940,0.01101898,0.09478460,0.05928323,0.05694830,-0.05614222,0.05505970,0.17589763,0.08629428,0.05969884,0.10950169,-0.02716148,-0.10039417,0.16353999,-0.13263480,-0.04818999,0.10811027,0.07023782,-0.06036200,-0.06949834,-0.10839736,-0.25355604,-0.09261581,0.02087406,-0.01448511,-0.05240696,-0.07667580,-0.04253996,0.11126857,-0.02258088,0.16038278,-0.08722844,-0.17749502,-0.01195629,-0.19974728,-0.05464743,0.08902642,0.01480900,-0.06099371,0.00796194,-0.00791251,-0.02119309,-0.09688208,0.01605706,-0.01872724,0.05940119,0.07156903,-0.06730906,0.24693283,0.15816107,-0.09458668,0.08005837,-0.33030289,-0.06422960,0.01376232,-0.19397612,-0.00278801,0.02982602,0.23387407,-0.03255084,-0.07774588,-0.01893362,0.03993268,-0.12905940,0.02561687,0.13341792,0.02826309,0.14944655,-0.08105230,0.02905575,-0.11398562,-0.16100113,0.01454892,0.03866595,-0.01373118,0.05720346,0.11047212,-0.12618081,0.12080947,-0.06294741,0.19988376,0.13772294,0.02729354,0.17225941,-0.20168482,0.09379926,0.00119666,-0.04461116,-0.06358144,-0.19631399,0.12788549,0.05057304,0.03344101,0.11558881,-0.11904904,0.08434963,0.11138132,0.15143098,-0.00856218,-0.04133522,-0.04952835,0.22997673,-0.19819063,0.10821009,-0.08503326,-0.15342237,-0.06841511,0.02899199,0.03592537,0.12490489,0.11078726,0.13204470,0.14073567,-0.05059450
0.00744900,0.00493553,-0.11129957,0.04747956,-0.13594709,-0.07009459,0.04642940,0.04539886,0.03826271,0.14933421,0.23696037,0.05504466,-0.03709099,0.04065453,0.09544566,0.00877467,0.11636919,0.12817086,0.03276363,-0.12852433,0.07833928,-0.02213749,0.05685335,0.10066608,-0.16854313,0.13061678,-0.02154526,0.16289893,0.04709442,0.20018400,-0.03979749,0.03213015,-0.09089098,0.10188474,-0.10403823,-0.07262880,-0.23784025,0.24399269,0.14401506,0.08039206,-0.01896443,0.14702456,0.09607925,-0.12047716,0.17090236,0.13044019,-0.09938949,-0.07577001,-0.18430206,-0.06311871,-0.00241255,0.20446487,0.04577067,-0.02616515,0.06602523,0.09859727,0.12339474,-0.04009493,-0.12876962,-0.16092412,-0.24157996,0.09946349,0.03096682,0.05886571,0.15934655,-0.09474719,-0.17104308,-0.05481113,0.05123826,0.02176135,-0.15132587,-0.12418321,-0.02961280,0.01602939,-0.01857713,-0.02900201,-0.08582357,-0.05537257,0.17547061,-0.11670555,0.03151384,0.16744998,0.20928462,-0.01561775,-0.22341079,-0.00696443,0.00093946,-0.00253138,-0.13938564,0.06855132,-0.05939086,-0.03328710,0.01193415,0.09378862,-0.00236157,0.06400153,-0.01297284,0.24617361,-0.00302830,-0.03297282,0.13198496,-0.06750510,-0.03828911,-0.05136765,0.09474637,0.28791225,-0.07223552,-0.10233887,-0.13679165,-0.09320471,-0.04713335,-0.01217502,-0.10640645,0.10156862,0.17710333,-0.15407251,0.00291030,-0.02451306,-0.06981321,0.06265785,-0.11446264,0.00687134,0.08261983,0.06434604,0.01539634,0.01627718,0.00436974,-0.02022420
-0.01222325,-0.04960136,0.03723682,0.01595563,0.12123723,0.00997959,-0.04672249,-0.01835371,-0.01124741,-0.10871768,-0.04124179,-0.03624151,0.05193636,0.06464501,0.12317955,-0.16439474,0.00600085,0.15217064,-0.09250001,0.00505372,-0.02914092,0.25079522,-0.04558065,0.09627172,-0.07854800,-0.01649796,-0.14886084,0.00310591,-0.05083872,0.02236501,-0.03029597,-0.05576618,0.04251847,0.07698638,0.07199207,-0.02704717,0.06557600,-0.03179777,-0.12594593,-0.05706125,-0.01015111,-0.05105164,-0.04039343,0.10351130,0.02088723,-0.14042516,-0.12631515,0.03239106,-0.10861382,-0.14846113,-0.08779152,-0.09024887,0.01374728,-0.07885408,0.05924974,0.11518545,-0.14903982,0.25669724,-0.18292646,0.12453827,-0.04133137,-0.01406256,0.15925589,-0.08066757,-0.01862226,0.08605998,0.13255706,-0.10717438,-0.10237849,-0.33088648,-0.18633093,-0.01459392,0.03505595,-0.07787196,-0.09618223,-0.14663298,-0.01057849,0.04062764,-0.08283095,0.10343766,0.04244653,0.01873191,0.03464092,0.01995342,0.13837492,0.04057309,-0.10018744,-0.04532633,-0.08630875,-0.05127181,0.10267008,0.06047639,-0.09705877,-0.04403707,0.22533780,-0.02640043,-0.08859087,0.16562602,-0.08113860,0.14296508,0.13878092,-0.03478861,-0.00251483,0.08403616,-0.00690432,0.01050421,-0.11131519,-0.01090377,0.02956570,-0.14198580,0.17624828,-0.11638039,-0.07804070,0.13051645,-0.05758020,0.14983025,0.08982665,-0.04981289,0.07188837,0.00279247,0.04877178,-0.07194291,0.07048217,-0.02697015,0.14315927,0.01764622,0.00810316,-0.16392213
-0.12941214,0.02772993,0.10224184,-0.05818133,-0.10318288,0.01047817,-0.06004021,0.06511233,0.03107713,0.07512248,-0.02426615,-0.15301348,0.13027769,0.09437599,0.07019898,0.05336321,-0.07192114,0.04137900,0.06154855,0.03451419,-0.00001986,-0.01763220,-0.04025504,-0.03841263,0.00876580,0.00285275,0.13132167,-0.19010653,0.02474896,-0.13740480,-0.04880610,0.09767593,0.06077282,-0.00721386,0.00385364,-0.01163843,0.07576393,0.09393519,0.01556297,0.02447206,-0.10615157,0.05753705,-0.02523309,-0.06914980,0.09190213,0.01569561,0.00980057,-0.03041379,-0.13621689,0.20800668,-0.09262444,-0.06719638,-0.01962824,0.00699612,0.18484290,-0.01551875,0.07659326,-0.10151413,0.01109649,0.15012579,-0.00896519,0.16375345,-0.04029375,0.00788406,0.10715658,0.15954396,-0.06293248,-0.11171266,-0.10461619,-0.00040948,-0.00996464,-0.11322701,-0.01699214,-0.00970715,0.08636175,0.08568857,-0.01948989,0.06319010,-0.01557382,-0.02423443,0.01921801,-0.14575675,-0.01016109,-0.12196428,0.08897745,0.16432245,-0.01371717,-0.07460583,-0.07775455,-0.04771650,0.01696303,-0.04722944,-0.01592162,-0.02204327,-0.08052872,-0.10232892,-0.11480106,0.13266291,0.04553416,0.07315455,-0.08060180,0.19270182,0.09213495,-0.01561559,0.03639573,-0.00887198,0.05256303,-0.02655479,0.04654624,-0.00991776,0.01343811,0.03925870,-0.05952254,-0.00107502,-0.02708096,-0.15162733,0.08306170,-0.05556067,-0.19400105,-0.07201786,0.03247236,0.02397704,-0.04727731,-0.10704606,-0.03948859,-0.11885395,0.17347154,-0.08776937
-0.26028639,-0.04470598,0.10077743,-0.00147228,-0.08447815,0.08004107,0.18927258,-0.02272956,0.09298582,0.09858187,-0.03493539,-0.18028843,0.08018366,-0.01361426,0.09767131,0.00163068,0.11565292,-0.02842213,0.09576878,0.16459146,-0.05990495,0.01952542,-0.08287001,-0.10244109,-0.16943416,-0.02151146,0.30402777,-0.07787511,0.16603434,0.02940367,-0.03249004,-0.00743369,0.05737328,-0.09771775,0.06014745,-0.14162427,-0.09917897,-0.22188857,-0.12585621,-0.06923719,-0.25925595,-0.07467408,-0.02031662,-0.00456640,0.16393243,0.24623537,0.03330850,0.10506892,0.13586348,-0.10257938,0.01384487,-0.06604555,0.04036206,-0.06083290,-0.09903393,-0.20356052,-0.08090126,-0.01777813,0.01858110,0.04307850,0.13248946,0.09095915,-0.16344172,0.05565559,0.10255682,0.05120128,0.20878775,-0.15694088,-0.10017068,0.00996156,0.01765242,-0.11118693,0.29646170,0.00120135,-0.05358854,-0.12272585,-0.18565430,0.00004348,0.04507616,-0.04035487,-0.05157664,-0.20153032,-0.09074959,-0.12872919,-0.02727709,0.05788975,-0.07260089,-0.14703144,0.19067000,0.03071129,0.03164571,-0.18370229,-0.04294305,0.03999655,0.13374974,0.15180504,0.05665787,0.17080049,0.05717272,0.10138369,0.04753459,-0.04211931,0.15467712,0.08514848,0.14986336,0.00590192,-0.05937096,-0.01737528,0.06598160,0.01065433,0.14946750,0.12154347,-0.00285622,-0.10357458,-0.19258834,0.17300846,-0.10532918,0.20903376,0.16602623,-0.05135443,-0.00800049,-0.14506130,0.05476283,-0.13420694,-0.09643377,-0.09818669,0.07889722,0.06552371
0.17993976,0.07269116,0.10629397,0.09668826,0.08406834,0.01017190,-0.21762510,-0.12352807,0.04420944,0.12426737,-0.11976562,-0.00466991,-0.04106721,-0.07525200,-0.04299214,0.04580430,-0.10062630,-0.05139981,0.02683052,-0.12993106,0.17361245,-0.10401746,-0.09683364,0.18090309,0.17420645,-0.09399299,-0.07468542,0.11383565,-0.26158786,0.16330345,-0.09898372,0.02727031,0.06487484,0.07918610,0.10122619,0.00574151,-0.05631879,-0.00046349,0.04276794,0.09654352,-0.00946019,-0.10957093,-0.10065074,0.01355911,-0.01437763,-0.17547032,-0.17269492,0.00408776,0.02242913,-0.02126038,0.03939187,0.02456404,0.16796616,-0.14198746,-0.03959962,-0.05790275,-0.04273363,0.08699109,-0.01347784,0.10992462,0.13157576,-0.17509991,0.22279927,0.05633651,0.03968573,-0.02262204,0.09030493,0.20098791,0.04748978,-0.09916690,0.06675932,-0.00316013,-0.26072714,-0.02869356,0.05334139,-0.02530539,0.02510559,-0.05726874,0.07385261,0.03909020,0.04252727,-0.00601313,-0.14346468,0.15681356,0.12624049,-0.15513411,-0.08760794,0.20444435,0.00825268,-0.19564182,0.05658058,-0.00178989,-0.03084752,-0.00458970,0.25454184,-0.09627596,0.00623453,-0.24356617,-0.23177800,0.09399115,0.17619625,0.27451807,-0.23522753,-0.06958103,0.02344292,0.20164838,-0.28377631,-0.21548241,-0.10462897,-0.13233504,0.06300975,-0.15403457,-0.08969392,-0.05503644,0.03889983,-0.10720290,-0.00164987,-0.16602708,-0.12626079,-0.11717010,0.07750409,-0.05897015,0.07504357,-0.07678436,-0.04010185,0.07955923,0.04367299,-0.22126381
0.02775751,0.09215137,0.02144153,-0.00579040,-0.04874241,-0.08139452,-0.02047414,0.11643124,-0.02474045,-0.01912679,0.10453116,-0.04701126,-0.11287385,-0.00277313,-0.02549819,0.04330647,-0.20987128,-0.02824517,0.00563025,-0.06232621,-0.01649357,0.01897886,-0.06383670,0.04767827,0.12104277,-0.11135550,-0.17181648,0.21842049,-0.07959434,0.03616589,0.04952091,0.05313722,-0.01274540,0.04367420,-0.02824672,-0.09764156,-0.04194480,0.04510611,-0.05473617,-0.00108310,-0.08175088,0.02631637,0.02217135,-0.08755168,0.02178095,-0.09154747,-0.10957760,0.00506670,-0.13052307,-0.02154447,-0.01259762,0.03931967,0.10092448,0.10708224,0.15389727,-0.12150902,-0.12864108,-0.01596281,-0.03770410,-0.00745117,0.04856858,-0.02186375,-0.00185303,0.04418247,0.03972380,0.19934456,-0.10720718,0.01735153,-0.07208613,-0.01841101,-0.03650264,0.10460496,0.11567354,0.00532653,0.12051113,0.21463613,-0.08454897,-0.03570609,0.08694278,0.02813513,0.03454207,0.03087435,-0.17194341,-0.04257425,-0.15505539,-0.11192165,0.00722419,-0.02337551,0.01856523,0.05132362,0.01424086,-0.08164351,0.08472288,0.13890761,0.16368662,0.06599652,-0.14464605,0.17244589,-0.16198267,0.01002554,-0.00795498,-0.10914123,-0.05936269,-0.05622448,-0.14257804,-0.02581551,0.22939363,0.00539964,-0.06356957,0.18857633,-0.11265364,0.18590990,-0.20105611,-0.25865996,-0.00837126,0.06218953,0.12810133,0.06576048,0.08673451,-0.20442471,-0.03723006,0.11812234,-0.09819230,-0.01350218,0.19148268,0.17171176,-0.07145049,-0.01507021
-0.06838907,-0.05691111,-0.05622067,0.08083736,-0.17223373,0.15959784,0.14483166,0.15043879,-0.00808303,0.11178606,-0.07621181,-0.01699012,-0.00847936,0.09092682,0.10601729,0.00979925,0.06579075,0.00279420,-0.03427181,0.04952071,0.14521295,0.11417816,0.09902203,0.06074388,0.00838254,-0.14518833,0.14510947,-0.11089948,0.20426925,-0.10987707,-0.11163319,-0.07942154,-0.01566143,0.04022183,0.06341929,-0.20993620,-0.04207753,-0.06951984,0.02829597,0.00248095,-0.10530747,0.06572126,0.02496397,0.14828643,0.11850310,0.07369474,-0.17278585,0.07766803,-0.12433007,-0.05977927,-0.03185409,-0.17811476,0.01352539,0.03524576,-0.08056404,-0.05236260,-0.19436385,0.10179808,-0.14724870,-0.12207630,0.03314928,-0.10059985,-0.16657391,0.07606702,-0.01020175,0.18442835,0.20674981,-0.12076424,0.12324284,-0.05515148,-0.03987029,-0.08949403,0.09229919,0.00641154,0.14827813,-0.02982449,-0.00130162,-0.08949560,-0.05839210,-0.17273413,0.02735832,0.09554742,-0.27371487,-0.08805870,0.15770984,-0.00854807,-0.06845431,-0.09088630,0.05739884,-0.04337662,0.02419921,-0.09428386,0.06226316,0.16786484,0.11297762,0.09265204,-0.03167305,0.29189780,0.00302724,0.00453135,-0.06588463,0.04593015,0.23152687,-0.06480091,-0.02972140,-0.05849279,0.10863522,-0.04737007,-0.16419721,-0.07518607,-0.02074319,0.08268010,-0.06187468,0.06493922,0.09553254,0.03479942,0.08322389,0.05424312,-0.04191691,-0.01669284,-0.04782036,-0.02948163,-0.21000046,-0.09986509,-0.11332054,0.12069374,0.02315290,0.21170282
-0.26824680,0.03530245,-0.04722948,0.00537594,-0.17306679,-0.05961598,-0.00181734,-0.02203510,0.05088614,-0.11492746,-0.09781840,-0.15316926,-0.10940368,0.15505745,0.03656993,-0.00358570,0.09821183,-0.03711357,-0.09887464,0.12866993,0.05000605,-0.00975567,0.02015544,0.04220936,-0.07756000,-0.07575490,0.05478363,-0.05066856,0.20198691,-0.04540403,0.04947114,-0.05051715,-0.02562863,-0.04585532,0.08121396,-0.02690485,0.02629887,-0.00965753,0.12317664,0.10644494,-0.09646232,-0.06602658,0.01607594,0.01680893,0.13203062,0.12812790,0.05246125,-0.04783781,0.06140731,0.11185927,-0.09587616,-0.14061838,0.15298893,0.09994346,0.04223190,-0.00924780,0.17083316,-0.11207737,-0.05520657,0.10117658,0.08923143,0.06424735,-0.13204083,0.04894496,0.09582306,0.26318157,0.09863105,-0.15674667,-0.02506077,-0.04073903,-0.06880385,-0.11858791,0.06910537,0.01451161,0.06240867,-0.05858991,-0.04771509,-0.04229809,-0.08802725,-0.02500961,0.03737899,-0.08564642,0.13570747,0.13001126,-0.05312294,0.02921135,0.13251360,-0.05200630,0.11626937,-0.00710223,-0.18683605,0.07521342,-0.08698224,0.13030958,-0.02833783,0.01362392,-0.04169325,0.02752788,0.17591122,0.13247046,0.00505643,-0.03210551,0.01224037,-0.01638056,0.05739878,0.04249893,-0.03373886,-0.12275401,-0.05876014,-0.04698915,0.10560759,0.04935200,0.00168713,0.14756885,-0.07388206,0.03034732,0.10535039,0.03911062,0.12358313,-0.14490649,-0.09317233,0.04776975,-0.11872112,-0.17873219,-0.06067609,-0.02600948,0.00843151,0.11130995
0.09363098,-0.02604328,0.04424890,-0.08490078,0.11275508,0.16334991,-0.06205888,0.02122725,-0.19311194,-0.15224667,0.12571357,0.16609563,0.21887189,-0.10543405,-0.10706425,0.05316642,-0.07466239,-0.04316421,0.12540898,0.07162636,-0.03612331,-0.00676307,0.06191760,-0.07672869,-0.01510790,-0.06278726,0.07731523,-0.04019087,-0.08024922,0.13542855,-0.01933806,-0.01972705,-0.03775806,-0.16311042,-0.21204616,0.00466060,0.27526891,0.05346734,0.15271509,0.04953673,0.18579946,-0.15205054,-0.03869392,0.05860186,0.06542252,-0.01114366,-0.12551790,-0.00711834,-0.02082306,-0.06860193,0.00873031,-0.16132282,0.01020588,0.05330601,-0.05520641,0.00835998,-0.03808951,0.05077522,0.10525258,0.08017907,-0.05803233,-0.04463195,0.06862172,-0.01799583,-0.00708476,0.00402505,0.10148031,0.16419612,-0.07656591,0.03289281,-0.10939199,-0.16725181,-0.01217449,0.07006177,-0.17935860,-0.15969762,-0.09289089,0.08214220,-0.09821019,-0.04067430,0.04011025,0.06385293,0.02653986,0.00505968,0.19671981,0.15084544,-0.11153723,-0.10606004,-0.00496439,0.02140652,0.10241605,-0.05774593,0.06751677,-0.06876571,0.00003468,-0.06242521,0.04716046,-0.02196613,0.06150641,-0.18184191,0.02771813,0.05379482,0.13374461,0.01950398,0.10829335,-0.16121906,-0.00428281,0.04387664,0.15719226,0.02217467,0.05342632,0.14931443,-0.06601834,-0.01883929,-0.00089680,-0.04687277,0.08182682,0.03365261,0.03888969,0.02491175,0.05837632,0.08121348,-0.07363056,-0.00081561,0.04282144,-0.09113844,-0.09692644,-0.04122792
-0.05364478,-0.01213779,0.09457117,0.07146094,-0.08458855,-0.06771386,-0.15113045,0.14998518,-0.01181219,0.09656817,-0.19869225,-0.10775391,-0.04430908,0.04754454,-0.16975364,-0.05414589,0.09015287,-0.00554232,-0.02430588,0.07436366,0.01256112,-0.30377033,-0.00594539,0.06928822,0.04692558,0.07180186,-0.10874960,-0.10039422,-0.00810029,-0.19054465,0.02039429,-0.02371762,0.04312018,-0.07245429,0.06982492,-0.08108856,-0.11250754,0.02344638,-0.02020755,-0.04078301,0.02073689,-0.04511108,0.04465057,-0.07987021,0.05816186,-0.18263975,-0.19717817,0.01672177,0.11680795,0.12881178,-0.05345861,-0.08550236,0.18111892,-0.09993602,-0.03150089,0.08997726,-0.16486937,-0.18870799,0.06794211,0.10737432,-0.07357276,-0.06422214,0.08266379,-0.03580599,0.02547285,0.19224718,-0.22246937,-0.08797473,0.17202857,-0.04872160,-0.03328779,0.10946296,-0.07127861,-0.06891711,-0.11427457,0.05109315,-0.16636898,0.30718502,-0.08497369,-0.03005590,0.02792184,0.06417726,-0.22016172,-0.04295239,0.03713730,-0.06622075,0.07134286,-0.12334905,-0.15737909,0.01766133,-0.15468292,0.05349883,-0.05574084,0.09172229,-0.15715908,0.00463574,-0.13313229,-0.04999223,0.13975537,-0.02064875,0.14003615,0.06143640,-0.18511450,-0.08765105,-0.19186808,-0.07787293,-0.05504022,-0.02002354,-0.16000070,-0.19876674,0.02332905,-0.09800903,0.12616956,0.05577679,-0.00483584,0.07904328,-0.13723956,0.15283452,0.16234982,0.07115047,-0.01155309,0.18161404,-0.08228561,0.01134635,0.08044667,0.02593832,-0.01677741,-0.03434913
-0.20742522,-0.02977034,0.07133434,-0.08725699,0.07880100,-0.03101265,0.25669345,-0.12183374,0.15478215,-0.20715234,0.08734671,0.01480317,0.17625679,-0.02930497,0.12260542,-0.04936688,0.00901029,0.02093327,0.05048098,-0.03918876,0.02280953,-0.09845597,-0.10329111,-0.02330682,-0.21136259,-0.08248639,-0.20750917,-0.11669664,-0.02419043,0.16975397,-0.04324577,-0.01943131,0.10007995,-0.18285146,-0.08094093,0.32295662,0.00088922,-0.16725469,0.02435053,0.04947935,0.20629275,-0.17704616,0.04661968,0.11600681,-0.05470188,0.04967014,-0.01917029,0.04949757,0.14530215,0.09326470,-0.03071203,-0.01359957,0.03751423,0.05109386,0.00680399,-0.16782795,0.03711547,0.12557061,-0.01864574,0.01809731,0.16006365,0.02199280,-0.18339804,0.07101710,-0.10812628,-0.13418956,0.13625573,-0.03907065,-0.03834711,-0.02328333,0.13838121,-0.13908935,0.15030330,-0.07045590,0.22794546,-0.31270882,0.18514927,-0.11094461,-0.11418742,-0.08288737,-0.03651100,-0.06583341,-0.21830712,0.07948682,-0.00237986,-0.02296063,0.01627073,0.04926106,0.22803508,-0.04776911,0.16528818,-0.00475515,0.14265066,-0.10930535,-0.05988775,0.01498799,-0.02797885,0.20046087,-0.03446059,-0.03226210,-0.22787382,-0.05008832,0.03724766,0.16097350,0.11970679,0.00894036,-0.05124887,0.02677497,0.24581313,-0.19136263,0.06029357,0.05627726,-0.11222406,-0.07832005,0.08986545,-0.03428857,-0.03769372,0.01099426,-0.16199167,-0.19060071,-0.08002962,-0.07711883,0.03335230,0.05974913,-0.04850414,0.03715061,-0.17422298,0.11910641
-0.08065164,-0.18345903,0.06535404,0.08766727,-0.01554666,-0.00833254,-0.06792238,-0.04392873,0.22878523,-0.22708280,0.02989196,0.04868142,-0.04630124,0.00361783,-0.03081253,-0.00321892,-0.08779407,0.17774096,0.17294344,0.14764297,-0.01216454,-0.05300447,-0.06309640,0.21510425,-0.03703898,0.04494817,-0.00654217,0.07869036,0.16084833,-0.06216645,-0.03962292,-0.12587510,0.01401285,0.04503077,-0.06499850,-0.16508737,-0.00012579,-0.27800936,0.10896960,-0.09787612,0.09553058,-0.34077862,-0.04326617,0.03396769,-0.12535827,-0.05452308,0.13111140,0.03062575,-0.06184323,0.15074183,-0.00366184,-0.09985697,0.01838355,0.21065006,-0.01292831,-0.20755056,0.04229396,-0.08932421,-0.05027470,-0.07784968,-0.13022062,0.05116535,0.00692863,0.12434458,-0.32980907,0.05380626,-0.00635810,0.20924145,0.02212240,0.08721962,-0.03802822,0.02690813,-0.14703098,0.00161812,-0.03576099,-0.12772712,-0.21452866,0.00454145,-0.10138816,-0.02627065,0.12118156,-0.18873358,0.03048541,-0.02560424,0.18416007,-0.01100761,-0.26490033,-0.16652043,0.12807594,-0.10185622,0.13493599,0.01934784,-0.11073952,0.11933101,0.04009882,0.11325869,0.12413975,-0.06589824,-0.16833420,0.22422986,0.09349524,0.18702526,-0.24879692,0.07970527,0.13946435,-0.10721431,-0.14746313,-0.01931942,-0.05292281,-0.12474731,0.29659063,0.10096195,0.05712652,-0.04739874,-0.02912884,0.21565746,0.07272044,-0.08761775,-0.02103827,-0.04637763,0.00127342,0.07145585,-0.05393561,-0.08195529,0.05155251,-0.01012456,0.11717951,-0.18553168
0.00408907,0.02552794,0.01932555,0.04464014,-0.02395733,0.10027999,-0.00792090,-0.08434682,0.10860367,0.04914951,-0.06905577,0.28269330,-0.16540162,-0.04091270,-0.14936842,-0.09584335,0.09572012,0.03704901,-0.02563879,-0.09446473,0.02178334,-0.03074198,-0.02445900,0.07048124,-0.03323125,0.11805997,-0.00307622,-0.13616930,0.06866719,-0.16399765,0.00307779,0.00143619,0.04151887,0.03112656,0.20914316,0.02596683,0.10275961,-0.15074171,0.09476737,-0.12396284,-0.14154126,-0.11095903,0.00049004,-0.18903075,-0.18099433,0.00431554,-0.05316496,-0.10342314,0.07744761,-0.03874655,-0.09220703,0.11086318,-0.25045428,0.03945837,0.00612662,0.25641769,0.00326554,-0.14019722,-0.08353331,-0.18227103,0.04068151,0.15850027,-0.09055342,-0.17639786,0.02510796,-0.01295107,-0.09221218,-0.10232482,0.07183788,0.04165967,-0.06160340,-0.08979036,-0.05812300,-0.00664518,-0.20071849,0.06023999,-0.04837040,0.09959897,0.01578178,-0.06806437,-0.06528062,0.01425077,0.18858664,0.00354624,-0.02054753,0.02288755,0.09857494,0.00310280,-0.02469584,0.07182412,-0.03339070,0.05691203,-0.02793344,-0.16808157,-0.00336885,0.08056889,-0.04433997,-0.13001540,0.18555231,-0.03203427,0.13318083,0.01565714,-0.14803621,-0.01206760,-0.09136722,-0.14578398,-0.07838080,-0.29147214,0.02792438,-0.11470228,0.12156892,-0.07219625,0.26799807,0.01090609,-0.18076372,0.14646818,-0.02768877,-0.05378512,0.06176447,0.13421425,0.16506416,0.07999836,-0.04496067,0.10352259,0.04241203,0.14207368,0.15180922,-0.01125862
0.11179817,-0.09441146,-0.03472932,0.01042299,-0.00610280,0.12996753,0.08839159,-0.11761833,0.05669653,-0.06526754,-0.00284812,-0.15612477,0.10008474,0.05615709,0.17532060,-0.04289205,-0.19396156,-0.10083073,-0.22024655,0.22216628,-0.02970067,-0.13828516,0.06859230,-0.07159328,0.02922834,-0.00082716,0.16923776,-0.00359667,-0.02612397,0.10634164,0.01550436,-0.11196755,-0.06263079,-0.13534617,0.00920198,0.09028076,-0.13706604,-0.10438706,0.01952181,-0.04386497,-0.11883901,0.11203658,0.02983661,0.11629277,-0.03842390,0.13631545,-0.03778373,-0.05408652,0.01797541,0.09747200,-0.07245576,-0.07099860,0.09484608,0.16078758,-0.09762727,0.02075871,-0.13219711,0.28072298,0.11661032,0.16519850,-0.00553938,-0.11191747,0.13657388,0.05274700,0.20823413,-0.13614720,0.02465835,-0.08108002,0.11208786,0.06496806,0.02766493,-0.09222649,0.09571762,0.00524981,0.09304308,-0.07659521,-0.11781758,-0.16563003,0.00221049,-0.05646019,0.03493757,0.01517150,-0.12958097,0.05986541,0.11494272,-0.27767619,0.02954511,0.05261163,-0.05774542,-0.04247717,-0.01753931,-0.04671271,0.07259525,-0.23313855,0.03942998,-0.05783134,0.10794132,0.02335645,0.20193329,0.10558201,0.01532783,-0.10803859,0.15194972,-0.08427048,0.00501596,0.14264704,-0.06080865,0.16295332,0.03736842,0.06636813,-0.08184330,-0.01199904,-0.30726203,0.11840542,0.06798325,-0.01441978,-0.03523051,0.10393925,0.02067781,-0.07864138,-0.05647478,-0.07859361,-0.11165079,0.00600815,-0.03966485,-0.03135052,0.03228633,0.16609195
-0.08982995,0.08763712,0.07166162,-0.06062653,-0.10682174,0.10306551,-0.00914092,-0.07056851,0.03729962,-0.05166424,-0.04073687,-0.01110300,0.08598684,-0.10836887,0.03636589,-0.03064009,-0.05105970,-0.10230954,-0.07760358,-0.01381917,0.17960779,-0.02178722,-0.00442807,0.04447677,0.12747799,0.00626950,-0.09796388,-0.10423080,0.06856903,-0.18742253,-0.09341801,-0.03281547,0.05174097,0.03806745,0.13142118,-0.02084477,-0.26833710,0.04001290,-0.00308188,0.00608974,-0.16553979,-0.11440564,-0.10770652,0.05130208,0.00997164,-0.08154053,-0.19019350,0.19377336,0.01070078,-0.05823667,0.09990625,-0.04543400,0.02744066,0.00807600,-0.15112856,-0.18473770,-0.17564994,0.01343737,0.07489686,0.04632520,0.16680178,-0.10756770,-0.08234903,-0.16571273,-0.14501077,-0.11048467,-0.00944152,-0.02308666,0.07206554,-0.17794390,0.12495043,0.05377714,0.06882692,0.02045558,0.14799421,-0.03296798,0.09440704,-0.07821048,0.05363904,0.06743115,0.19293477,-0.00335372,-0.22974494,-0.06511703,-0.02418432,-0.17181091,-0.03317618,0.01990230,0.07733940,-0.05209476,0.12246338,-0.01990871,-0.05387973,0.08008751,-0.06528643,0.06209471,-0.00603843,0.00127591,-0.07099281,-0.07689958,0.09879057,0.10775775,-0.11864308,-0.01358408,-0.11204894,-0.10700431,0.14467102,0.05868146,0.02707442,0.07844263,-0.07377428,0.11195083,-0.21412843,-0.09215935,0.15979417,0.12068804,0.17998673,-0.05372099,0.04138602,0.00538748,0.00374368,-0.09474225,0.02562875,-0.02973268,0.12712149,0.03382449,-0.11295028,0.06102164
-0.10550041,0.08254938,-0.02116003,0.12450173,-0.10665464,0.15124087,0.07654864,-0.03818947,0.07047450,0.02022005,0.04807615,-0.04836032,-0.14730853,0.00829748,-0.07288257,-0.03902433,-0.13820040,-0.04079573,-0.07974774,0.02823039,-0.18205775,0.12640829,0.02989008,0.00736404,-0.19606440,0.23932478,0.09691549,-0.00944529,0.05753757,0.11182483,-0.05766992,-0.09538193,-0.01800115,0.13501889,0.07779320,0.15599030,-0.04679226,0.07570142,-0.04654917,0.06915701,-0.06115479,0.00605338,0.12967195,0.14173740,0.05061598,0.00823580,0.12068804,-0.10184606,0.14533918,-0.08020116,-0.01228911,0.14879030,-0.22661696,-0.07038342,-0.07406395,0.06705154,-0.03125008,-0.09413038,0.05085303,-0.13387133,0.10049137,0.05424624,-0.18319112,-0.15665556,0.16114774,-0.13169423,-0.06365582,0.02099571,-0.04250157,-0.16684276,-0.08328548,-0.22273013,-0.02732784,-0.09059674,0.13257757,-0.01898665,-0.04119617,-0.03418120,0.07083924,0.05191665,-0.11789645,0.04021324,0.10467800,0.03764574,-0.02750135,-0.03220831,-0.02837849,0.09885655,0.00309242,0.00741695,0.12854937,0.02247981,-0.06078167,0.03256098,-0.05499365,0.01307057,0.14930514,-0.12145533,-0.01388818,-0.04715152,-0.07320807,-0.15338500,0.09477682,0.13516428,0.06793804,0.00585027,0.08202874,-0.03098802,0.00537550,-0.04265902,0.03462228,0.00915124,0.09873959,0.01253055,-0.13039485,-0.21399745,-0.07899705,0.06294506,-0.07096217,0.13243841,0.00566466,0.04773123,0.17215285,0.01519079,-0.03782790,-0.07552753,-0.04257544,0.05842706
-0.01728396,0.04142842,0.01491740,-0.00527558,-0.08316881,0.08624130,0.03036528,-0.01073338,-0.07261036,0.03047851,-0.00140134,0.11262930,-0.11432977,-0.00671550,-0.17613858,0.04800243,0.02597630,0.06588387,0.00964193,-0.12670912,-0.02988613,-0.07774438,-0.00756175,0.04480076,0.32034761,0.05846263,0.01025478,0.13454603,0.07107315,0.06263248,0.10392249,0.05936149,0.01800446,0.01494426,-0.10188352,0.08856981,0.06355652,-0.08683858,-0.00363785,-0.08361433,-0.14576705,0.14505914,-0.08343060,-0.07790370,-0.07062929,-0.01168203,0.04928286,-0.03904241,-0.12972669,-0.17087430,-0.03908864,0.02807643,-0.07330362,-0.13970064,0.06841283,-0.05822673,-0.00274435,0.00179588,0.11094296,-0.13129121,0.00048418,-0.07955549,0.00007921,-0.03828033,-0.17091179,-0.03538119,-0.33499181,0.05937644,-0.01395210,-0.02721694,-0.14086063,-0.04975797,-0.02749937,0.04646541,-0.07574891,0.02074101,0.08311725,0.03274435,0.17213969,-0.10673321,-0.08822297,0.02936235,-0.06464157,0.10106466,-0.09673556,-0.03291938,0.04327320,-0.10967365,-0.01065265,0.16745967,0.02396628,-0.10624637,-0.00568574,-0.06920578,0.00616575,-0.02038793,0.00560718,0.03015831,0.12273920,-0.23259088,0.02026823,-0.03701309,-0.08074652,0.18804409,-0.10153789,0.00604351,-0.02038743,0.06864329,-0.01603412,0.20416285,-0.10349427,0.09065259,0.05445843,-0.01170003,-0.05673090,-0.08169103,-0.06609911,0.05751715,0.00157856,-0.04833664,0.11858149,0.10205861,0.12386870,0.06642248,0.12298662,-0.05516685,0.05836180,-0.11280260
0.16184017,-0.04181435,0.10378847,-0.00257355,-0.24170943,-0.01906599,0.01867198,-0.03292804,-0.19659486,0.09385247,0.28711939,0.12304586,-0.06977694,-0.00403737,0.05432759,0.00352928,-0.13803901,-0.11985587,0.00121214,-0.08825880,-0.09678617,0.11507384,-0.02123329,-0.04546072,-0.22463140,-0.16649033,0.02172572,0.00321735,0.02836190,0.00457651,-0.13059291,-0.12761141,0.05348397,-0.06914788,-0.16729270,0.06104584,-0.08492319,-0.07120562,0.05943757,-0.23306252,-0.13381083,-0.05363473,-0.04296561,0.01507107,-0.01145089,0.15870726,-0.05283326,-0.12286765,0.00293596,-0.05374953,-0.07031260,0.17195047,0.01705971,-0.13999073,-0.02672904,0.16677794,0.02753743,0.02649887,-0.32702696,-0.00053896,-0.19642743,0.06599646,0.14457639,-0.01444879,0.13236019,0.01406870,0.01934941,0.05285218,0.03908884,0.02893782,-0.09192558,-0.08513100,0.09597390,-0.05695542,0.08518460,-0.03518688,-0.05159258,-0.05109718,0.11949921,-0.07163984,-0.08509520,-0.06314886,0.13202375,-0.10365341,0.01604921,-0.13295670,-0.07818429,0.02340440,0.03301882,0.11943697,0.07619287,0.12861048,-0.26418009,0.08446059,0.01110317,0.01183959,-0.15501598,0.07364112,0.05922294,-0.00285363,-0.06455542,-0.03067546,0.14459102,0.02596919,0.01560516,0.09466267,-0.05149338,0.17736302,0.05174848,0.03396168,-0.09567008,-0.04755173,0.04399680,-0.01979093,-0.07002247,-0.11980546,0.00616910,0.00379855,0.04707382,0.04263644,-0.13054484,0.06477356,-0.06397791,0.07617584,0.28939107,-0.05086317,-0.02817372,-0.03003433
-0.05369491,0.11521295,0.05514024,0.04328615,-0.11666726,0.02766473,-0.11118577,0.07829324,0.02871696,0.20025092,-0.13457221,0.05694319,-0.05568570,-0.03688477,0.04657692,-0.08836696,0.11897730,-0.07571899,0.07998403,-0.00551235,0.08984118,-0.15618658,-0.06958371,-0.12054264,0.09384128,0.07984886,-0.06707265,0.12595217,0.02730947,0.02607688,-0.11461738,-0.03054100,0.04411812,0.15470338,-0.00553418,-0.02108686,-0.06280726,0.05464656,-0.01691365,-0.14940241,-0.09941092,0.13071536,-0.05141769,-0.02829147,-0.03739328,-0.02916249,-0.08014626,0.21956448,0.09680589,0.04229940,-0.05546720,0.07084832,-0.00140602,0.01143882,0.04269385,0.00777162,0.00699239,-0.21960284,-0.03919302,-0.02837921,0.08808599,-0.02695240,-0.15734194,-0.03540444,-0.12223473,-0.11710366,-0.01097401,0.15244031,-0.00182967,-0.02775863,-0.00953641,0.17393984,-0.00159420,0.01013279,-0.11406850,0.10118808,0.08983505,0.10418913,0.06747935,0.05765565,-0.15757467,-0.09160771,0.07490853,0.01294213,0.02261602,0.10649244,0.10791881,-0.04483560,-0.09546823,0.07422341,-0.15864854,0.08534182,0.10318995,0.04426581,-0.13520248,-0.07083727,0.02994891,-0.13297087,-0.02925427,0.12906295,-0.00964742,-0.12034766,0.09029966,-0.00352431,-0.13030879,-0.01264456,0.13774697,0.01678663,-0.19918057,-0.00927179,-0.20707232,0.06372259,0.04241102,-0.06813587,-0.02919737,0.13552839,-0.05448979,-0.19591533,-0.01089511,0.10721689,0.02112336,0.08427384,-0.11724846,0.01123379,0.03320721,-0.02539529,0.01131637,-0.18601342
0.01740081,-0.09273572,0.05602603,0.08352350,0.03179491,-0.11417582,0.23290837,-0.11021895,-0.06479816,0.02972003,0.00129896,-0.13437077,0.02441908,0.01447982,0.07633909,-0.02024878,0.01761444,-0.11343128,-0.07704496,0.07291031,0.17507048,0.01343050,-0.00602948,-0.11754929,0.03009039,-0.14195417,-0.06115485,0.07203106,-0.03730340,-0.04140507,0.01653336,-0.17697848,0.04627502,-0.07734991,0.09591528,-0.01717556,-0.21911778,0.08324288,0.02166332,0.12265987,-0.10202608,0.01828304,-0.02229227,-0.02109685,-0.10248066,-0.11532926,0.03380901,-0.02438349,0.08369652,0.06864604,-0.10476251,0.01461345,0.09331520,-0.11855558,0.06613173,0.12879205,-0.02820502,0.07998744,-0.06382020,0.12131939,0.06293734,-0.13442844,0.03040523,-0.07426522,0.07643780,0.10653862,-0.02952344,-0.02653091,-0.27682039,-0.03112000,0.01793281,0.02965690,0.09475327,-0.05036729,0.00560179,-0.10801473,0.01375986,0.00681658,-0.18928194,0.02579765,-0.10032232,0.02287151,-0.06775985,-0.11840218,0.00929701,0.02905365,0.00337376,0.04201891,0.05126292,-0.21762133,0.03613576,0.04096355,0.04125582,0.02522732,-0.01452892,-0.09497787,-0.03822302,0.19737726,0.06849003,0.18002757,0.04049694,-0.00639297,-0.05195136,-0.09005569,-0.09552554,-0.07194928,-0.16729328,0.15139079,0.01114020,-0.09401228,-0.06808409,-0.03397568,-0.03839288,0.01427329,-0.08155932,-0.10927466,-0.08390317,-0.02289210,0.07646468,0.03371657,0.11181793,0.09297688,0.02342709,-0.26756907,0.11402860,-0.05831527,-0.08249119,0.05773174
-0.10666995,0.05825474,-0.03258459,0.03071490,-0.12444364,0.04433548,-0.10686145,-0.12661073,0.08157256,-0.01152857,0.10153406,-0.12106512,0.16492809,-0.04787651,-0.03354688,0.06294607,-0.09639889,-0.07517820,0.06148420,0.06414372,0.04302065,0.04833809,0.07336655,-0.00996384,-0.07711150,-0.09978513,0.08139706,-0.13328753,-0.16882709,0.04781212,-0.10317661,0.09331109,0.00380435,-0.01605152,-0.10171208,0.11893855,-0.02144672,0.00028786,-0.02354473,-0.13783443,-0.20160455,0.05657598,0.02477646,0.11051482,0.10752539,0.01379674,0.04500676,0.04773649,-0.01968638,0.06822000,0.06046350,-0.13176562,0.05055321,-0.06553101,0.06981202,-0.28683481,0.10857113,-0.10754779,0.07968123,0.11211699,-0.02184275,0.07404821,-0.08596544,0.00897684,-0.06280454,0.16842869,0.01925586,-0.05985485,0.07437586,0.16589262,-0.02418352,-0.01308855,0.06566665,-0.03653292,0.04000553,-0.08198322,0.21157037,0.02568508,0.05559378,-0.06255786,-0.08789261,-0.10450438,-0.13567653,-0.01635521,-0.00863858,0.06653883,0.11167616,0.06934799,0.05278154,0.06965487,-0.02638486,-0.24959263,-0.04173928,-0.07588737,0.08727139,0.09923959,-0.06009524,-0.05069653,0.00151533,0.13917270,-0.03088648,0.02024127,0.05786325,-0.21279655,0.02923899,0.06083621,0.18295659,0.03245041,-0.01382204,0.03614277,-0.10267135,0.08626902,-0.19415599,-0.08267063,0.14743604,-0.02227332,0.18169078,0.06204886,0.02236429,-0.08966018,-0.08956015,-0.02879515,-0.02559079,-0.07464586,-0.13611299,0.02666082,-0.11992633,0.12753013
0.16958551,0.03481951,-0.06252982,-0.05269953,0.02631097,0.07754768,-0.00932984,-0.10431354,0.08242656,0.12327398,0.04489350,-0.03453671,0.03466989,-0.11045687,-0.03996173,-0.10209262,-0.04058998,0.00130903,-0.09789471,0.02576946,0.03958854,0.00408855,0.14286980,0.00817931,-0.02130284,0.07852993,-0.09693090,0.03172222,0.05041943,-0.09845354,0.00205202,0.05018730,-0.06122221,0.13263083,-0.07232851,0.12026425,-0.10913022,-0.05779025,0.13221632,0.10575985,0.05108353,0.03556637,0.05054134,-0.04834397,0.20682581,-0.16519189,-0.07575633,0.08756462,0.08980210,0.16392742,-0.00326090,0.04481133,-0.02180615,0.01967360,0.15091899,0.00183584,0.08297500,-0.11300667,0.01236553,0.11311063,0.00928264,0.00218188,0.06528682,-0.11007371,0.04822696,-0.02521655,0.14531828,0.09767929,-0.01545523,0.01114830,-0.07386544,0.17704855,-0.16107589,0.01639460,0.15863435,-0.02252117,0.12857234,-0.14992195,0.01417024,-0.06016561,-0.09084462,0.10302452,-0.05238483,0.10959102,0.13261195,0.06803371,-0.12527369,0.07954541,-0.04002067,-0.09343164,-0.04561193,-0.08786880,0.07635079,-0.05209033,0.08870997,0.05160224,0.00475668,0.04644962,0.04916111,-0.16248231,-0.05001311,0.10105098,-0.04002582,-0.19151741,-0.28696731,0.09237118,0.28785738,-0.07919071,0.04059783,-0.10048669,0.07625119,-0.01139074,-0.09181669,0.02911795,0.08664456,-0.08665272,-0.08788016,-0.21243377,-0.01573808,-0.06582323,0.14731546,-0.10317063,0.21996437,0.10240179,-0.25321031,-0.02463091,-0.04988977,0.00974567
-0.10747043,-0.12226565,-0.01268049,0.01313952,0.00912343,-0.14104362,-0.09388331,-0.07872285,-0.00883859,0.11930747,0.01988339,0.12678760,0.13922901,0.08280935,0.07273588,-0.00637824,-0.12828086,-0.02720406,0.09332024,-0.15024921,-0.07437116,0.18170688,0.05951059,0.00578396,0.04884826,-0.06991888,-0.10251192,0.13921109,-0.00244040,0.02511597,-0.19465463,0.00411239,-0.04392061,0.06144498,0.05518551,0.00973397,-0.08177982,-0.02743332,0.10327167,-0.04730704,0.13797994,-0.20303883,-0.02212805,-0.02510744,-0.14957640,-0.02053638,-0.05245980,0.01214772,0.03448390,0.10439731,0.08769954,0.04363830,0.17000490,0.00459519,-0.04907257,0.15962364,0.01692544,0.01979924,-0.16614960,0.16521932,-0.11774530,0.07830942,-0.12463876,-0.13891618,0.11300721,0.17339142,0.04785307,-0.06749695,0.05350184,0.06688738,0.00093523,0.03406619,0.08306773,0.01653521,0.03599760,0.10427811,0.20387490,-0.00692698,-0.19953042,-0.18833865,0.02034456,-0.01789927,0.13682529,-0.04429208,-0.05979980,0.02966107,0.07567691,0.04997880,0.09185137,-0.12935872,0.01579648,0.22271876,-0.18388091,0.26034400,-0.17782304,-0.11272678,-0.01542414,0.04634931,0.24061146,0.13080290,0.28634462,0.03081764,0.11120268,-0.00182133,-0.17084925,0.11914444,-0.14082557,0.02980752,-0.19188422,-0.18097058,-0.07230788,-0.05270580,-0.00470597,0.09741023,0.08200591,-0.05026609,-0.00569687,-0.14368680,-0.09101900,0.05540119,-0.04781825,0.12650041,-0.05770879,0.09365182,0.08682573,-0.05891331,-0.06588909,-0.04891558
-0.12584932,-0.04561456,0.06897166,-0.02658289,-0.08579352,0.01272640,0.09870714,0.11202735,-0.16826890,0.05133794,-0.00415946,0.13238557,-0.03857541,0.04666894,-0.08157157,-0.02483777,-0.19987506,0.00003251,0.28140515,-0.00654474,-0.04051752,-0.07693848,-0.02181878,-0.14514460,0.07411118,-0.07437881,0.02725013,0.00261720,-0.13046329,-0.02612850,-0.07698393,-0.04301057,0.03643965,0.08323102,-0.40112251,-0.04560019,0.04915308,0.02695625,-0.04926422,0.04324497,-0.18247798,0.07312306,-0.05321790,0.11239810,0.14092129,0.13171721,-0.05816635,0.12222473,-0.05738277,0.05356667,-0.11188556,-0.02987837,0.08259619,0.12196746,-0.10253052,-0.16149485,-0.03489244,-0.08748825,-0.07473706,-0.16724870,-0.12905732,0.13685112,-0.15090507,0.04659890,-0.11102048,0.05166101,-0.02064488,-0.03613306,-0.05218659,0.16645177,0.09786081,0.13316876,-0.12150665,0.00992701,0.04006099,0.21017773,0.07849692,0.08504287,0.03702494,0.03692546,0.02747438,0.05859797,0.11356460,-0.09653629,-0.02189566,0.17202543,0.02778912,-0.15884516,-0.12922859,-0.00167694,-0.07777727,0.20989956,0.11185119,0.00744227,-0.00495554,0.06656194,0.02922498,-0.14630103,0.12685823,-0.05559205,-0.18086194,-0.00242476,0.03531469,-0.03070832,0.04755648,-0.21237792,0.09982499,0.15760152,-0.13624868,-0.03196473,-0.01647366,0.23282619,-0.04449434,0.14355828,0.05728685,0.04065851,-0.05831273,-0.07088250,-0.09096310,0.11208692,0.04181600,0.09600332,0.03797405,-0.08967617,0.10895667,-0.05778613,-0.04614938,-0.05006754
-0.00059724,-0.20353985,-0.06400753,-0.18869418,-0.08317376,-0.22415791,0.03222974,0.12220760,-0.04411192,0.09615527,-0.05170728,0.08280241,-0.28981665,0.10244072,-0.20512019,0.05572447,-0.04475674,0.00773897,0.10909301,0.07322496,0.26741394,0.06043451,0.08501745,0.15151039,0.13194177,0.00479084,0.01393330,0.02731758,0.04952469,-0.03614325,0.00384111,0.16695289,-0.06597233,0.15582897,0.02822189,0.03836469,0.08600178,0.12603618,0.10575981,0.07040296,0.08804338,0.23141858,0.13383283,-0.07718997,0.13743189,-0.20747599,0.00147982,-0.15783678,-0.12718633,-0.00677321,0.10781750,-0.11090501,0.01833241,0.02774884,0.03225148,0.15100327,-0.17152733,-0.02696839,-0.02442144,0.18183652,-0.06401074,-0.12684426,0.04678895,0.09669387,-0.08264883,0.15058179,0.01161916,-0.05180167,0.12669732,0.07710243,0.00713912,0.03506316,0.03432613,-0.03635539,-0.16899206,0.17320740,-0.22735795,0.23709992,0.02544224,0.06157377,0.06257448,0.10585137,0.23388647,0.03296181,0.04953711,0.19585176,0.11596474,-0.21757139,-0.13222840,0.03131977,0.02225099,0.03914269,-0.00330506,0.10873052,0.00971969,-0.15797456,0.02949131,0.09593549,0.07903683,0.03854177,0.03400881,0.01159534,0.02433809,-0.21197163,-0.02209964,0.13280994,-0.13086705,0.08620466,-0.01775498,-0.06374200,0.30317947,0.00320095,0.10361660,0.10755157,-0.13398385,-0.13248797,-0.01167811,0.03364680,-0.08005742,0.12368809,0.12342532,-0.06043728,-0.18925111,-0.17793348,-0.13848977,0.03151088,0.09189596,0.01561653
0.02735994,0.01927916,0.01553629,-0.03046357,-0.01040632,0.10656367,0.02801028,0.10748205,0.24031110,-0.00622996,0.05720114,0.08963963,-0.13372855,0.02902580,-0.02460173,0.01284669,-0.01479674,0.10130963,-0.10481279,0.06085847,-0.05017332,-0.04734563,-0.06418604,-0.04687361,0.03344540,0.04525932,0.16865319,0.07183940,-0.11629825,0.19968803,0.08074699,-0.00796632,0.00214460,-0.10645168,0.04362889,-0.03448065,0.01100970,-0.06214608,-0.03054729,-0.05223811,-0.02082034,-0.00219522,-0.00493455,-0.17083462,0.07157446,0.13726205,0.09226047,-0.11522330,-0.06265997,0.00932873,-0.04822575,0.19377701,-0.14756891,-0.07172399,-0.14900763,0.15857141,0.10069446,-0.04905365,0.04288641,-0.01942172,-0.19539410,-0.07582989,0.05262201,0.10496226,0.16593274,0.21653682,0.01115000,-0.07632891,-0.10176952,0.10064639,0.02210875,-0.09962515,0.22911125,0.04553754,-0.12025784,-0.18065660,-0.09211956,-0.14913364,0.14762922,0.04223032,0.03945446,0.00678233,-0.06806363,0.01589222,0.01058406,-0.11406036,-0.13548218,-0.10583375,-0.17773296,0.22065940,0.13456343,-0.10312214,-0.10375383,0.07457566,-0.10327309,-0.02743853,-0.06824777,0.18175352,0.00887522,0.10059801,-0.08942256,-0.15773855,0.07373224,0.03460310,0.20557189,0.00649542,-0.03488107,0.01567246,0.00157461,0.12178176,0.06385870,-0.16190392,-0.00988981,0.08389106,-0.30114850,0.12302455,0.10581851,0.00932408,0.04153951,0.13321914,-0.04772191,-0.20476194,0.04843611,-0.00496570,0.10041226,-0.16434950,0.11549937,-0.03685783
0.05967712,-0.09327206,-0.03590596,0.07432009,-0.04047732,0.02192236,0.16133882,-0.02856218,0.04283201,-0.19035570,-0.19286980,-0.04363837,-0.10168203,0.12240884,-0.04508242,0.06589644,-0.06794393,-0.12552319,0.18277133,0.27319920,0.04297831,-0.03456729,0.11441899,-0.08181140,0.05234537,0.10545038,-0.20775023,0.11700533,-0.12145817,-0.05966945,-0.13496296,-0.04335466,-0.01392355,-0.31084594,-0.03695366,0.01420134,0.12255217,-0.06272628,-0.12694138,0.00478285,-0.01094418,-0.07028543,0.07498689,0.02463742,0.04633941,0.22365150,0.11442945,0.00330238,-0.01140465,0.03356679,0.02182096,-0.07154871,-0.05315424,0.06975093,0.04421101,-0.19669493,-0.08377931,0.04349464,0.06878210,0.08213677,-0.13390544,-0.12946075,0.05789140,0.07392328,0.03773975,-0.02308589,0.02013479,0.00497762,-0.22118485,0.11782148,0.13337202,0.18456204,-0.09228463,0.01871186,-0.17322467,-0.02145084,-0.02060760,-0.09030108,-0.10509501,0.01707795,-0.07865481,-0.11856075,0.05408543,-0.12644662,0.20863597,0.18177424,0.01243709,-0.02324471,-0.06076606,-0.05758800,0.03323314,0.06238078,-0.08524428,-0.06779578,0.05471525,-0.09263121,0.15646446,-0.01049688,0.07901132,0.13698502,-0.03559762,0.03304411,0.00128020,0.19193350,0.04438660,0.09171425,0.01158218,0.12500812,-0.04209819,-0.16717672,0.27776328,0.04763102,0.05834678,-0.02936546,-0.15872686,0.15111385,-0.01740861,0.02788429,-0.08353711,-0.03503980,-0.16627361,-0.11318911,-0.07576685,-0.11790460,0.09385373,-0.14153439,0.17321950,-0.06385371
0.03786322,0.11465060,-0.04999606,0.00128345,0.04514037,0.10134978,0.13496821,0.11330184,-0.02404161,-0.11523630,-0.00135573,0.14656134,0.08118669,0.01933514,-0.06041109,0.01432856,-0.00763413,-0.03606293,0.08236931,-0.07917919,-0.01540211,-0.01002054,0.07606269,-0.12202059,-0.02101200,0.08614226,-0.07860963,0.10738990,0.08596669,0.06564178,-0.13953424,-0.02661910,-0.03822453,0.01116295,0.03036840,0.02913742,0.00683318,0.00767385,-0.09622517,-0.08896627,-0.02333167,-0.13736287,0.01880586,0.11135477,-0.06997700,0.06024713,-0.08839125,0.01386565,-0.02320362,-0.05417364,-0.09103465,0.01178950,-0.02575354,0.01096541,-0.01047484,0.01004827,-0.06896617,0.10054716,-0.00580892,-0.15144655,-0.00963220,0.14564137,0.04282239,-0.16143820,-0.09018520,-0.05537989,-0.09160490,0.04065385,0.03728746,0.02945317,0.01747696,-0.05732258,0.04830545,-0.05063121,0.16904147,0.08367249,0.12572281,0.15080918,-0.17127846,0.02158828,0.18082753,-0.03195645,-0.12675995,-0.06574851,-0.11982918,0.14882585,-0.28986633,-0.07190168,0.19058731,0.03537882,0.03910379,-0.00582324,0.12001985,-0.13398859,-0.21913731,-0.10085857,-0.08744821,-0.10529546,0.03351400,-0.14304358,0.00719415,-0.12479063,-0.05427852,0.10033814,-0.19385298,-0.21568426,-0.02775138,0.02547949,0.17852657,0.14242570,-0.03737360,0.21182442,-0.02444912,-0.12624681,-0.07873867,-0.05171035,0.01281375,0.03027139,0.06032291,0.18349046,-0.03651135,-0.05431571,0.18511485,0.09677749,0.13904035,0.13731341,-0.12207161,-0.07695941
-0.03995662,0.13433890,0.03652335,-0.02401447,-0.00648567,-0.21548367,0.08686288,0.11872249,-0.25699368,-0.03008937,0.02710624,0.22375645,-0.07575160,-0.02851700,0.07244403,0.05686699,0.03163323,0.08446483,-0.07056693,-0.11477189,0.12885991,0.08028706,-0.01111599,-0.00958774,-0.06995383,-0.07771300,-0.08472284,0.10985290,0.19903468,-0.02529830,-0.18214291,-0.05990205,0.03290815,0.09912169,-0.00510722,-0.01793283,-0.01388610,0.03708615,0.10731482,0.19212687,0.05269822,0.14347571,-0.00551168,0.00455081,-0.05113602,0.10748578,-0.09477817,-0.09664982,-0.11812157,-0.01356725,-0.09625952,0.06640674,-0.09968474,-0.05678934,-0.28410968,0.22555844,-0.09564488,0.08713711,-0.24777342,-0.05424799,-0.16142692,0.08424861,0.00556230,0.05786319,-0.11654229,0.04491948,0.01504642,-0.16872281,0.07994297,-0.13781075,-0.15380709,-0.15198301,0.22340648,-0.03065946,-0.05868024,0.23878324,-0.04180168,0.15763746,0.05737479,0.05957889,-0.01664292,0.13603534,0.08140577,-0.15602919,-0.01490662,0.13438009,0.00619297,-0.19171882,0.02902463,-0.04243529,0.00225185,-0.06836689,0.07737248,0.12537310,-0.11428034,0.04410195,-0.17125681,0.04110331,0.16155386,0.07575678,0.06276731,0.05918981,0.07816980,-0.06525864,-0.07034694,-0.06380557,0.05887415,-0.04129639,0.04824271,-0.04032730,-0.25930861,0.06806499,-0.04746465,0.09686153,-0.04772717,0.08021437,-0.03447518,0.02000618,-0.15254635,0.12436332,-0.06609514,0.09442040,0.04899027,0.09388417,0.02778554,0.03382772,-0.11562937,0.06771974
0.07134885,0.18418233,0.10945141,0.05569032,0.01758631,-0.06775433,-0.05146270,-0.11648829,-0.13750105,0.02740654,-0.11275752,-0.04116130,-0.15277089,-0.10360244,-0.10697671,0.07873143,0.02824319,0.11763859,0.01275435,-0.08706837,0.04280862,0.01808395,-0.09322380,-0.08505266,0.06129869,0.02721823,-0.20588414,0.07601178,-0.00953190,-0.01085702,0.00214723,0.01385882,0.07563395,0.07600125,-0.12074523,-0.06566879,-0.06708214,0.23093770,0.02934183,-0.04764394,0.08089972,0.11618911,0.01921279,0.03617094,0.08243377,0.03014489,0.00470951,0.04732420,0.00842148,-0.00949478,-0.13203661,-0.13801759,-0.07704264,-0.33900905,0.12843502,-0.18260005,-0.13039143,0.18701644,0.00198876,0.10729610,-0.02124434,0.09285887,-0.00759113,-0.03430227,0.12367226,-0.00717341,0.01904890,0.05642348,-0.13522162,-0.02260540,-0.00425819,0.06723289,0.06174046,-0.02058568,0.10712043,0.05189964,-0.09145056,-0.18045549,0.08885394,-0.02023114,-0.07723045,0.23240153,-0.20231333,0.06039658,-0.09321298,-0.14125068,-0.07302415,-0.02981441,0.02718484,0.00807770,-0.03195749,-0.18725505,0.29451185,-0.09066569,0.09223446,0.05392932,0.10902483,0.14907373,-0.10203308,0.09482788,0.01951355,-0.08731767,0.18902029,-0.32417378,0.17707112,0.20132925,-0.01716642,-0.04383833,0.02314887,0.07343955,0.01119626,-0.05926998,-0.13367623,0.02183712,0.18362482,-0.09961601,-0.15089458,-0.00269612,0.01023352,-0.19511442,-0.25862259,-0.16492353,-0.03094329,-0.10566676,-0.11304259,-0.03911560,-0.02696974,-0.00281833
0.08275099,0.03238132,0.08003931,-0.10451606,-0.07736345,-0.02270601,0.14977343,0.00807737,0.15604408,0.17898910,-0.05752150,-0.23739564,-0.00028186,-0.09218599,-0.01906192,-0.05319428,0.10657567,-0.19487701,-0.21099605,0.05239232,0.05383762,-0.11894778,-0.05568618,-0.11287814,0.19091433,0.10041171,0.23184153,0.03588818,-0.07688956,-0.05141380,-0.15238357,0.03106707,0.04951348,-0.17083605,0.18703334,-0.04675618,0.05668310,-0.01573565,-0.04823216,0.01590500,0.00978525,-0.03920232,-0.09966728,-0.05364433,0.18324246,-0.17980866,0.18035154,-0.00650995,0.12073180,0.11877014,-0.05198302,0.00405734,0.11608880,0.02752291,0.01730811,-0.07718122,-0.02001641,-0.08984119,0.12960863,-0.04974167,0.20655537,-0.18092391,0.03108613,-0.03854901,0.07942796,0.01691380,-0.05173764,-0.16822203,-0.05705794,-0.07721043,-0.16632122,-0.01943175,0.04952510,0.03972713,0.06502036,-0.02792099,0.15681639,-0.09962367,0.05439360,-0.08138801,0.00360479,-0.11258964,-0.01077145,0.15359657,0.01170422,-0.11654620,0.06687941,0.16289212,-0.01539767,-0.19570220,-0.05449802,-0.06792300,0.07255176,-0.25495976,-0.09342150,-0.01930108,-0.04966377,0.04855692,-0.06505761,0.05612896,0.11372628,-0.11834681,0.01267022,-0.17717275,-0.15561873,0.09122837,0.13426402,-0.04998896,-0.02075900,0.17110954,0.00748687,-0.18545480,0.05599871,-0.05640218,0.08578760,-0.00255368,-0.07761316,0.16637826,0.08619079,0.07009775,0.03429801,-0.04441584,-0.09752440,-0.11808551,0.24432799,0.02039688,0.05492150,0.05469205
-0.15695332,0.01519350,0.02229433,0.09870125,0.11169784,-0.00991805,0.12775145,0.12060227,-0.18200210,-0.06008848,-0.19117545,0.03898140,-0.06100833,-0.23746258,0.12151573,0.03812954,-0.04685726,0.12921588,0.06195248,0.10726017,0.04594684,-0.13770476,0.06921211,-0.09193572,0.04551716,0.03803314,0.11865858,-0.26505366,-0.11219080,-0.09288797,-0.05174634,-0.01317714,0.01413036,-0.06349186,-0.14504969,0.16018382,-0.05765151,0.19321015,-0.14806338,0.11620917,0.37098202,0.00522216,-0.05257801,0.06540655,-0.03779315,-0.08705264,-0.00129434,0.07317510,-0.00116623,-0.15407643,-0.02744877,-0.08541444,-0.15126926,0.06892907,0.07286571,0.00833216,0.01788514,0.15418173,0.06693675,-0.03547173,-0.11292170,0.01176114,0.12772432,-0.00159012,-0.07835431,-0.16632992,0.14213064,0.13258640,0.01156336,0.06975717,0.06910678,0.17261438,0.15965830,-0.02176079,-0.00556010,0.01284725,0.00182777,0.09604081,0.08693142,0.00243461,-0.07882127,0.17041403,-0.07868781,-0.06297371,0.17968673,-0.00247785,0.01813117,0.07775456,-0.07652520,0.04682136,0.01609899,-0.16726634,0.02775806,-0.18146783,0.10753676,0.03260125,-0.05631476,-0.03892433,-0.02599712,-0.11103965,-0.05212719,0.00880134,-0.02074520,-0.11932124,0.01591804,-0.08581855,0.04924837,-0.07606302,0.23692493,-0.06244065,0.07702953,0.14584863,0.15638192,-0.08602100,-0.06496733,-0.00975946,-0.08623768,0.03839235,0.02105639,0.07322965,0.00690887,-0.07127959,0.06220729,-0.15764342,-0.23107871,0.00564150,-0.15532906,-0.08419923
-0.08215400,-0.31616974,0.06632491,-0.04376635,-0.09970926,0.03332545,-0.09333599,0.08338557,-0.01413188,-0.27350244,-0.15123937,-0.08572997,-0.13010748,0.05308234,-0.01997760,0.04269389,-0.03268353,0.10499428,0.02547844,0.10733299,0.02285569,0.06369344,-0.02377281,-0.04316650,0.06365503,0.05926815,-0.04365779,-0.06110093,0.17797185,0.03182404,0.09830403,-0.07082573,0.04053455,-0.03395941,0.02901324,0.14887381,-0.08486857,-0.05323562,0.07096078,-0.06735178,0.00426909,0.05666114,-0.03814658,-0.03434772,0.13680604,-0.00469996,-0.02253966,0.08572024,-0.25799900,0.19814655,0.01912898,-0.23592502,0.11531972,0.09415998,0.05615753,-0.14585814,0.03109630,0.02493820,0.03028942,-0.05889495,0.05567093,-0.07953890,-0.10871790,-0.09154633,0.04030443,0.01826039,0.04370585,-0.25949681,-0.02582922,0.00367517,-0.06963177,-0.12771562,-0.01446185,-0.02439005,-0.08307721,-0.11447215,0.04224339,0.03223846,-0.08204537,0.06053147,-0.04244416,-0.27115792,-0.01388818,-0.04590835,0.06658559,0.19878426,-0.07446241,0.01442162,0.08678365,-0.06506361,-0.00499990,0.04325786,-0.00001988,-0.04483523,0.11791136,0.14934742,-0.03820493,-0.08235250,0.07161589,0.21600389,-0.02230339,0.06769963,-0.00220293,0.00819756,0.02023833,-0.16954838,0.06234963,0.06904600,-0.06701718,-0.08500762,0.13968629,0.08533076,0.03631795,-0.05526564,-0.05025122,0.08683463,0.01535913,0.08006841,0.03949560,-0.16651547,-0.01282676,0.13452615,0.01689724,-0.10010253,0.03221145,-0.06434856,0.06666532,0.03401272
0.13386628,-0.10798479,0.01088979,-0.02423307,0.05968462,0.06287845,0.12794104,-0.03506303,0.01488188,0.09161387,-0.36666262,-0.08515472,-0.01322675,-0.09923534,-0.05871773,-0.02610846,0.11795814,0.00687501,-0.10632497,0.17738084,0.02782750,0.09248423,-0.04309965,-0.15258326,0.02379740,0.08383682,0.06653211,-0.01808807,-0.01496363,-0.16285959,0.05753827,0.00811623,0.04852732,-0.04165983,-0.06363650,0.09625343,-0.07807934,0.05527780,-0.02696903,-0.09979033,-0.05393352,0.06038842,-0.00550801,-0.12579909,-0.08471280,0.10896326,-0.18808894,0.06882487,0.00159836,0.11318663,-0.03098382,-0.10760634,-0.18562920,-0.10185990,-0.05462149,0.06743898,-0.13088696,-0.03202863,0.09857164,-0.11272662,0.10261674,-0.13283399,-0.04233150,-0.08261357,-0.07537176,-0.09335858,0.07420014,-0.09322246,-0.05954013,-0.16884169,0.04472848,-0.04328731,0.04815840,-0.06618963,-0.07717079,-0.01000815,-0.11346112,0.08874198,0.03788174,0.08662196,-0.16928664,0.19220252,-0.09113937,0.26787868,0.06315219,0.07246964,0.07667005,0.06942971,-0.07579378,-0.03925361,-0.04298993,-0.03814821,0.06177142,-0.12323818,-0.10646564,-0.06762073,0.07966288,0.18717131,-0.16556311,0.11913168,0.04604885,-0.14879566,0.06445956,0.15925704,-0.10024863,0.02030240,0.09079506,-0.17425677,0.01158204,-0.02884763,0.02096552,0.13986133,0.04304316,0.18041661,-0.18317145,0.07349425,-0.09374220,0.14329584,-0.00949824,0.20053665,0.06386680,-0.23083484,0.10912780,-0.14221141,-0.00668829,0.14000045,0.25036973,0.11344194
-0.07549915,0.03585885,-0.00797892,-0.01404859,-0.00569793,-0.02902139,-0.03562763,-0.03235607,0.25925681,-0.01386581,-0.02766110,-0.02150026,-0.20083272,0.16940643,-0.10427932,0.10086470,-0.11797104,-0.21780127,0.02060539,-0.01271868,-0.09748049,-0.09324021,-0.03709901,-0.01736871,0.07607459,-0.08026182,-0.08679875,0.02791043,0.02192591,-0.10952648,-0.11501649,0.10825842,-0.02204083,-0.06905583,0.06006193,0.04451067,-0.05928978,-0.17577550,0.10627937,0.00710605,-0.17906755,-0.10728265,0.05629992,-0.02609992,-0.06465211,0.02838022,-0.11476652,0.25031015,0.05252959,0.07362350,-0.00330021,0.01099854,0.14858265,0.08964382,0.03783219,-0.11148259,-0.08272817,-0.10802279,0.17708640,-0.08349056,0.10172291,-0.00700818,-0.15693770,-0.00209039,-0.09797746,-0.16482525,-0.01413363,0.06079317,-0.10179526,-0.03180617,0.21529639,0.09120271,-0.00923982,0.00435519,0.02933954,0.01494146,0.08549827,-0.00410537,-0.07451077,0.04636905,0.02330054,-0.24441987,-0.05110293,0.10599501,-0.09922952,0.01154980,0.09713174,0.10205498,0.09346691,0.02146650,-0.19317164,0.06005988,0.19472817,-0.03222876,-0.12362695,-0.09128637,0.10383876,0.01202750,0.14312306,0.09248146,0.15219645,0.06767970,0.01947581,0.20688714,-0.06265426,-0.08548266,0.06028698,-0.01070156,-0.16517414,0.07197019,-0.15305078,-0.06210519,0.12780018,-0.06340785,0.04200796,-0.13368608,-0.03611695,-0.04015511,0.06383790,0.19173869,-0.04403020,0.14154620,0.02167838,0.06011565,0.21903703,0.02085165,-0.08369913,-0.13155541
0.08592651,0.03338419,0.03028448,0.05835174,-0.06735078,-0.04639820,0.03045205,-0.05122228,-0.11130258,0.00967500,0.09310941,0.05233119,0.16369848,0.09890754,-0.04523267,-0.03092777,-0.12323621,0.16763490,-0.02323721,0.12441066,-0.18457808,0.04396641,-0.09816202,0.15312001,0.01900453,-0.10341845,-0.13628420,0.05034411,-0.01354093,0.00937743,-0.02263077,0.02466766,0.01885780,0.06957714,-0.10549525,0.06500307,-0.00982866,-0.08833466,0.07212496,0.04358553,-0.01769330,-0.03905032,0.10065353,0.13271005,-0.12592945,-0.10087544,0.03064088,0.04929126,-0.20147169,0.07562498,0.03050048,-0.04371919,0.16192602,0.15636393,0.03653878,0.04914298,0.23891921,-0.09651886,-0.13044307,0.00921366,-0.19597392,-0.02287271,-0.03526286,-0.02977157,0.05728501,-0.07583260,-0.04316779,-0.01514244,0.05091517,0.05313804,0.05624402,0.03680961,0.00807562,-0.05775043,0.01710576,-0.14923903,0.02087502,-0.19120193,-0.01113997,0.05119453,0.20158759,-0.19297907,-0.06496950,0.12933175,-0.02885263,0.02602396,0.07680482,0.00812559,0.05069955,-0.11815582,-0.00860277,0.02322425,-0.00224017,0.13246410,0.04037771,-0.08113308,-0.06108260,-0.16151752,0.15830681,-0.09476525,0.05106398,0.02781890,-0.03257770,-0.04610868,-0.09886721,0.08126823,0.11007506,-0.07413024,-0.11811890,0.02398312,-0.04567655,-0.06496191,-0.12710854,-0.02956842,0.08356481,-0.04310771,-0.17506103,-0.30106539,-0.10374775,0.06774759,-0.07542081,-0.08224341,-0.18090755,-0.04210510,-0.08447966,0.01652164,0.00097851,-0.15127388
-0.00267905,-0.01696688,-0.07217099,-0.00777936,-0.10034020,0.16647473,-0.05546480,-0.03603719,0.07179468,0.01832556,0.05695926,0.08288877,0.13014115,-0.03197218,0.04384357,0.06269457,0.09201322,-0.09805386,-0.06586998,-0.07070326,-0.20532785,-0.06833618,0.01785522,-0.07799485,0.00947993,0.03775144,0.00804827,-0.04549395,0.17327443,0.01125337,-0.10657068,0.01063549,-0.08672682,0.01646497,0.01669032,0.16191739,0.09103058,-0.05229699,-0.10472652,-0.08322788,-0.13496774,-0.17348124,0.02447840,0.01084209,0.05271075,-0.14573510,0.14597547,0.07130530,0.16255078,-0.04902974,0.02445227,0.07623939,-0.05942019,-0.11545886,0.03829245,0.01707429,0.06129170,-0.02785191,0.06402661,-0.10894415,0.04362487,0.17754696,-0.09902284,0.15546046,-0.03640824,-0.01745104,0.01917564,-0.11541942,-0.10010126,0.14339276,0.05577018,-0.02671572,0.11853218,-0.00060161,0.07033047,-0.16014065,0.00579884,0.10359781,-0.05929495,0.07208929,-0.05649813,-0.19010459,-0.04086453,-0.07667007,0.04929169,0.03869820,0.08398859,-0.02751593,-0.02721400,0.03894395,0.01391659,-0.12614608,0.02552375,-0.05487590,-0.03599156,0.04528207,-0.19311012,-0.05933422,0.00106840,0.06723329,-0.10254444,-0.01024199,0.08833745,0.20689364,0.14357735,-0.09818348,-0.05960528,-0.07526473,0.14213610,0.13098866,0.05362189,0.04424896,-0.04076150,-0.17747791,0.07783800,-0.01643146,0.05084755,0.02412357,0.15937221,0.09184894,0.16453007,0.09426706,0.18171503,0.13090347,0.13414843,0.09071348,0.16577005,-0.03991445
0.14953101,-0.03960368,0.01124244,0.00403390,-0.14567114,0.00468140,-0.09050285,-0.08679947,0.11876873,0.01218654,0.03782540,-0.16811743,0.10367560,0.11499470,-0.01477019,-0.01990215,0.09463298,-0.05612484,-0.05211053,0.15034239,-0.05262406,0.00517535,0.08211900,0.03718079,-0.02006955,0.05815005,-0.07243764,0.04677408,-0.28299576,-0.03350298,-0.05135332,-0.00940458,-0.02990042,0.01149570,-0.04539759,0.00037322,-0.01960339,-0.10591849,-0.03896668,-0.01286916,-0.09610452,-0.07865594,-0.07615190,0.02775999,0.07026605,0.01688852,0.07298738,-0.03531344,0.01617482,-0.01962722,0.07789596,0.00991087,-0.06486063,0.10692789,0.00029724,0.08712506,-0.07523999,0.15897344,0.03733161,0.03945479,0.00982961,-0.01250725,0.11968253,0.06058278,0.14770205,0.01625663,0.07400752,0.01698462,0.01091275,0.16494590,-0.00448909,-0.02197878,0.15257192,0.00538079,-0.11422012,-0.01263350,-0.07656194,-0.10940753,-0.11029515,-0.10311738,-0.03417249,0.05704449,-0.08512612,-0.03420506,-0.15598629,-0.05374198,-0.08473045,-0.03610948,0.08211046,-0.04854362,0.11286606,-0.03086748,-0.02417299,0.01559291,-0.03951118,0.02576447,-0.07497070,-0.01113996,0.05510639,-0.04216500,-0.03419463,-0.04775434,0.00501382,0.17623809,-0.08628358,-0.00499531,-0.10391323,0.06026376,0.05790147,0.24608591,-0.04699398,-0.03677293,-0.01703636,0.14249237,0.01963873,-0.02539416,-0.04908194,-0.00527028,0.04468960,0.08778113,0.02538087,-0.06291958,-0.03400769,-0.06056241,0.11215699,-0.20384955,-0.00209595,-0.07873923
-0.08360998,0.09872605,0.09410652,0.00582450,0.00387363,0.10662942,0.30131200,0.16028745,-0.09281301,-0.09315940,-0.07632221,0.16881464,0.00741070,-0.03165569,0.07286508,-0.08509041,-0.00756888,0.06973668,-0.03913584,-0.08117756,-0.06031677,0.10921761,-0.07619619,0.08274535,-0.11863542,0.15537357,-0.08917134,-0.01068018,0.17601833,-0.05140608,-0.05530338,-0.08286337,0.05385417,-0.00991886,-0.09283275,-0.02116887,0.03800797,-0.14632617,-0.06469650,0.09539810,0.15998439,0.03703750,-0.01715064,0.01478936,-0.15385436,0.08741744,-0.14808629,-0.10509908,0.01498705,-0.14862029,0.08396845,-0.00988044,0.07350599,-0.10390712,-0.07122366,0.00545321,0.02993890,-0.08563004,-0.11881485,-0.15345354,0.09472698,0.36716449,-0.10892730,0.01998492,-0.01304270,-0.02079307,0.07250486,-0.17348962,0.00607295,-0.05976267,-0.00795185,-0.07857549,0.07062545,-0.03455952,0.03734426,-0.11073761,-0.05147479,-0.07687270,0.10813408,0.02641938,0.03564015,-0.04926001,0.04709547,-0.13348846,0.06295284,0.11587726,-0.22105259,-0.10832245,0.11270798,0.02324196,0.04604830,-0.07969599,-0.05726334,0.05918698,-0.04267522,0.17877360,0.07924188,0.05344347,0.05164824,0.04000251,0.09564447,-0.11781530,0.05583884,0.03397570,0.05001844,-0.09698601,-0.30702087,0.07474859,0.16497850,-0.09788060,-0.10932980,0.08182602,0.00756566,-0.00700945,-0.00124023,-0.29018259,0.01369658,-0.02726275,-0.16901065,0.18974756,0.00927514,-0.03797627,0.14902860,0.15224151,-0.06356066,-0.02054424,-0.10794748,0.16865321
0.03689149,-0.01318267,0.03164211,0.10888004,-0.03194616,0.11206502,0.02101885,0.12094804,0.07068895,-0.14459045,0.09115822,-0.01549190,-0.05470924,0.06598739,-0.06544697,-0.16584134,-0.13709944,-0.00554601,0.08218718,0.02957477,-0.02347546,-0.09825644,0.01591542,-0.10057568,0.12700745,-0.09863345,-0.04545132,0.14439340,-0.08869455,-0.09783223,0.01218824,-0.05582996,0.01046834,-0.11940502,-0.13303329,-0.05703395,0.00840723,-0.04303032,-0.08315676,0.04565352,-0.17562674,-0.02151910,-0.08051516,-0.04893547,-0.07203683,-0.04960983,-0.12437390,-0.01922776,-0.12495381,-0.09486977,-0.08203378,0.22061907,0.07281632,-0.03028598,0.12043927,-0.13509455,0.13269833,0.08320677,0.01532047,0.07370888,-0.01326990,-0.07597483,-0.03581963,0.00669310,0.04096429,-0.03882288,-0.01489227,-0.01411631,0.03191689,0.02972646,-0.02456432,0.00239419,-0.05278615,0.00343152,-0.00859758,-0.00580005,-0.09954515,0.06874161,0.03567472,-0.00861587,0.01130457,0.00231166,0.03754282,-0.02985650,-0.11919428,0.01616655,-0.16379102,-0.03469082,0.14121960,0.03159105,0.11928432,-0.04488338,0.08967874,0.03564927,-0.03775680,0.04085156,0.05001185,-0.13680007,-0.15670834,-0.11262534,-0.17700700,-0.09896021,0.06072610,-0.06496052,0.06445368,-0.05979742,0.16839717,0.07986820,0.15794396,0.08359946,-0.07809657,0.06354962,0.00704510,0.02039259,0.13397308,0.06297459,0.05539276,-0.01475175,-0.00242627,-0.03511159,0.03110345,-0.01849504,0.14143077,-0.03546985,0.19612138,-0.06251137,0.01547278,-0.12387560
-0.13942637,-0.05606019,0.01875948,0.02964947,-0.01397240,-0.05695037,0.14753042,0.25152472,-0.05993192,-0.11558843,-0.04832906,-0.06840654,-0.07873880,-0.07266437,-0.08692209,-0.02140275,-0.00693717,-0.09188604,0.17331514,-0.01299865,0.01298033,-0.08021080,0.03376103,0.01244269,-0.02044225,0.10260544,-0.18611336,-0.06735720,0.01854172,-0.07451736,0.14987013,-0.06810217,-0.02203533,-0.04508466,-0.07714896,0.01987698,0.23809510,0.03297872,-0.08365460,-0.01449332,-0.03528565,-0.08217192,0.00736085,0.07221335,0.02823313,-0.15087521,0.10738449,-0.01618940,-0.21790184,0.01472243,0.10189596,0.00523177,0.02089254,0.07592838,0.16335592,-0.08102219,0.01128406,-0.04803457,0.13160779,-0.04397042,-0.09942348,-0.04847082,-0.08592395,0.02280846,-0.04365331,0.07172377,0.05072400,-0.08708113,-0.05485318,0.13411555,0.06630590,0.09243198,-0.18684818,0.05484682,-0.00425753,0.20360775,0.09473565,0.15576784,0.04321991,-0.14168702,-0.11268901,0.06036016,0.09346001,-0.19328125,-0.05346245,0.08500988,0.03926410,-0.04393431,-0.00387821,0.12294530,0.03808790,-0.14501290,0.00661072,-0.05342935,0.05101551,0.02834513,-0.05014203,0.01552335,0.14462243,-0.00265900,-0.07607098,0.00382403,0.01896987,-0.11363108,0.17002678,-0.15627314,0.07305114,0.07223368,0.17513289,0.11583842,0.06641109,0.10432884,-0.11352469,-0.12140125,-0.05803996,0.05951654,-0.08325517,-0.04938918,0.06888248,0.13038287,0.16068329,0.00956619,0.02533063,-0.07737418,-0.07896199,-0.12979786,0.07886951,-0.15146275
-0.04663770,-0.08673630,-0.04822709,0.05762479,-0.05185938,-0.05151298,0.18866743,0.13882086,0.03982010,0.08744112,-0.01647794,-0.15307169,-0.08042406,0.03250878,0.14265734,0.05675611,0.20268972,-0.12816963,-0.11752144,0.13628562,0.05878116,0.17163469,0.02384377,-0.19936165,0.11647936,0.20739372,0.15924008,-0.04781462,-0.08141102,-0.12299267,-0.08350655,0.04055733,-0.00935062,-0.19520232,-0.01381443,0.03709937,0.13802807,-0.06448790,0.01064636,-0.33839524,-0.01893655,0.13602005,-0.08518399,-0.04462207,0.18764095,-0.00779466,0.08894193,0.12973012,0.00400400,0.18821958,0.08578317,0.00942347,-0.19737259,-0.02035996,-0.10978457,0.17739120,-0.03656485,-0.21725112,0.02558905,-0.03566022,0.00740993,-0.08164790,-0.04618518,0.03461445,0.11040963,0.02763743,0.13773307,0.07861577,-0.19429125,0.08107549,-0.02471555,-0.04126051,0.14638641,0.08663671,-0.05794256,0.00523838,-0.34863588,0.08761220,0.01051779,-0.11981440,-0.22263993,0.03433824,-0.06664271,-0.10988210,-0.12168237,0.14982076,0.24298285,-0.05270576,-0.10820734,0.02775108,-0.03706970,0.07440953,-0.10940470,-0.01525153,0.09708641,-0.02139360,0.07683799,0.02535271,0.15345292,0.13328080,-0.05252825,0.08071321,0.05313227,-0.04411934,0.10402748,0.11914016,-0.16810878,0.07764179,0.04571797,-0.06274590,0.10903929,-0.03644224,0.00153088,0.15122136,-0.02687642,0.16387700,-0.00405720,0.08539612,0.14697908,0.18127990,0.03552592,-0.11590725,0.05069218,-0.08503839,-0.09157998,-0.07586805,-0.02599345,-0.06669399
0.15662454,0.01528413,-0.04837853,-0.09908649,0.00611954,0.05862237,0.06019923,0.06648110,0.05301087,0.18330826,0.05008697,0.05329060,-0.12494166,0.01137438,0.12839787,0.09003065,0.09963486,-0.03092915,-0.06827471,-0.04396119,-0.01787236,0.10717704,0.01867483,-0.03508058,0.12127735,0.11054943,-0.02516670,0.02492673,-0.01153573,0.13665675,-0.15228501,0.06538374,-0.01618356,-0.07440352,-0.08069105,0.10744330,-0.10432238,-0.04979237,0.17450197,0.07172846,-0.12466460,-0.04791313,0.02643258,0.01444660,-0.10572010,0.02672684,0.00248404,0.03097460,-0.15127702,-0.02662349,0.02273753,0.10688908,-0.14569671,-0.08267207,-0.10443390,-0.06029232,-0.11916123,-0.17449364,0.01679198,-0.00064104,0.00769868,0.03019138,0.03332680,0.09570286,0.12546082,-0.24548526,-0.01453057,0.02035483,0.00154300,0.05131569,-0.02534367,0.08754437,0.04757220,0.00230442,0.10916799,0.00411882,0.10647786,0.00149475,-0.05996968,-0.06446659,-0.08875311,0.03532263,-0.13675010,-0.00904875,-0.08662688,-0.11948073,0.17314883,-0.02257616,0.16821346,0.07394678,-0.02755272,-0.04507061,0.08546200,0.05223417,-0.04042600,0.02604274,0.05059322,0.08489727,-0.08396201,-0.14923173,0.14152601,-0.18142655,0.08318216,0.02250112,-0.06794498,0.05021517,0.08656258,0.01598680,-0.13244385,0.17576914,-0.01040176,0.03539697,-0.06933389,-0.04659938,0.05719212,0.14375894,0.11625066,0.10199135,-0.12917390,0.15889262,-0.03498822,-0.12683098,-0.00411274,0.12190249,0.04130523,0.02134046,0.03122745,0.05746127
0.03160570,-0.20182410,-0.04784391,-0.09918509,-0.03368544,0.12048249,0.04443511,-0.01152944,0.10334842,-0.02757782,-0.07114172,-0.04981192,-0.03030252,0.07027379,-0.06925591,-0.04828340,0.07582733,-0.11433705,0.05232657,0.06460075,0.10372163,-0.01949208,0.04049541,0.06278431,0.01152528,-0.08634395,0.03914949,-0.09430546,-0.16131076,-0.01460518,0.20601985,0.06312199,-0.00589942,-0.18658963,0.03974345,0.00668516,0.12722759,-0.00540245,-0.05582316,0.13206860,0.08857262,-0.08695004,0.07980045,-0.11919533,-0.10732059,-0.18945333,0.11815026,-0.13250998,0.05327212,-0.12257057,0.00761940,-0.06014248,0.01946154,-0.03018219,0.05268455,0.15345417,-0.14898689,0.07992525,0.15790677,0.07267499,-0.20294476,-0.01740742,0.07281307,0.05109025,0.03899064,0.04012876,-0.00056300,0.08611150,0.02764098,-0.06818595,0.16215383,-0.10634387,0.10553248,0.00890086,0.12583609,-0.07699458,-0.03869668,-0.02718269,-0.18723732,-0.16270967,0.09641311,0.07540543,0.12746562,-0.20219587,-0.13638252,0.09286962,-0.01904899,-0.07794429,-0.07165165,0.12870520,0.11794918,-0.11218660,0.03145173,-0.11351375,0.02381330,-0.13291918,-0.03927241,-0.14915666,-0.04762874,0.03336018,-0.11008941,-0.03020731,0.06359076,0.03948981,-0.05176567,0.09053192,0.05363458,-0.03309967,-0.00387789,-0.04981580,0.13713747,0.02374227,-0.09100759,0.01951627,-0.16375591,0.07065761,-0.03437415,-0.04800336,0.20786577,0.08926152,0.03814016,-0.04749092,0.15605430,0.06646324,0.12582424,-0.05842666,-0.08241282,-0.10765777
0.15435405,-0.11399650,0.03399803,0.01239738,-0.00551736,-0.04210085,0.13393247,-0.00688490,-0.08643018,-0.02886538,0.15985487,0.02198358,0.09192495,-0.05001915,0.06616454,0.04141078,-0.06694352,-0.10335627,-0.09171156,0.06021811,-0.04153235,-0.21147805,0.00361366,-0.26932755,-0.09719520,-0.13159285,0.04807968,-0.03867163,-0.02023875,0.16069503,-0.15100138,0.06312131,0.03380013,-0.09142963,-0.03209181,0.08231834,0.11107224,-0.18477015,0.02897838,-0.05342731,-0.11184556,0.07539252,0.04238832,-0.01194223,-0.16401939,0.09130453,0.04647410,-0.10532942,-0.02901958,0.20176218,-0.06667583,0.08941328,0.07585817,-0.03895708,-0.07493424,0.04720733,0.03848442,0.00207841,0.15173641,0.24045815,-0.24907540,0.08718926,0.12548332,-0.04220605,0.18650346,-0.09112749,0.06154410,0.14750066,-0.15206356,0.27284056,-0.05037547,-0.13798216,0.13332419,-0.05081849,-0.01088504,-0.10263929,0.26387393,-0.04998364,-0.09829132,0.17499352,-0.10450663,-0.06627440,0.05615720,0.00175441,-0.19706081,-0.12201813,-0.07775438,-0.11926875,-0.07373981,-0.01406175,-0.01955974,0.09950688,-0.17795059,0.10755018,-0.11024187,-0.26351976,-0.01291373,-0.04196006,0.11221305,0.04620091,0.05258472,-0.08313440,0.13545083,0.09170686,-0.09823980,-0.07384378,-0.17272241,0.02544898,0.07932962,0.00622624,-0.08765940,-0.04487727,-0.08350551,-0.19934174,0.08488554,-0.07924141,0.09886387,0.20496383,0.09243458,0.16133520,-0.00368460,0.00872256,0.00245891,-0.06418255,0.08889771,-0.17046709,-0.09029934,-0.09748543
-0.23660333,0.04333503,-0.03245884,-0.00836635,0.01824209,-0.20112963,0.00896497,-0.09348370,0.01739103,0.24861449,-0.05407936,-0.01314106,0.00633339,-0.05711007,0.01345974,0.10712253,0.14797285,0.18680331,0.03170286,-0.03700391,-0.02577128,0.02190253,-0.03059340,-0.02277587,-0.15128930,0.04990162,-0.16330044,-0.02740153,0.28924587,-0.02863127,-0.15278275,0.04499843,-0.02083125,-0.00182783,-0.03947067,0.02799452,0.04939153,-0.04516166,0.04024215,0.07283203,-0.04366264,0.05215833,-0.02803406,0.10805875,-0.09907045,0.19506249,-0.02698884,0.12913965,-0.05754425,0.15684871,0.01896020,-0.02292956,-0.02877983,-0.04374807,0.07508156,-0.02479916,-0.06170119,-0.05966986,-0.10828000,-0.06301368,0.00322704,0.19803463,-0.33188808,0.00634521,-0.04076247,-0.02279938,-0.05021552,-0.05385273,0.05153232,-0.00533273,0.00238269,-0.14042391,0.11274326,0.01980374,0.11153796,-0.04988783,-0.06135933,-0.00996736,-0.00522237,0.06992421,-0.03463414,-0.13429521,0.10131879,0.05937145,0.10824443,0.04875605,0.01352302,0.12044616,0.04771770,0.05866519,-0.10885651,0.19137144,-0.07274736,-0.03979587,-0.22448814,0.09751534,0.10925624,-0.00014193,0.28990892,-0.01310938,0.12331882,-0.01022339,0.00622746,-0.07218990,-0.08731190,-0.09734473,-0.06129678,-0.04119224,-0.06022883,0.00891849,0.03979424,0.05928148,0.12522684,-0.02447652,0.03060181,-0.04641508,0.15807573,0.00536584,-0.14851651,0.12827091,0.09309326,-0.07695612,-0.02376468,0.02291476,-0.13604727,0.02792117,-0.24751815,0.02280528
0.08707675,-0.01940242,0.01673948,0.01313157,0.11519354,0.02207426,-0.09029547,0.00390555,-0.19780025,0.05463611,-0.02338639,0.01915474,-0.14500390,-0.11202765,0.08082187,-0.01911762,-0.10728609,0.11224711,-0.05248427,0.00300908,0.05500205,-0.05488580,-0.03091470,0.01696996,-0.16947712,-0.23438312,-0.02580976,-0.11404982,0.08527967,0.24438459,-0.03184015,0.04783994,0.00353704,0.00283464,0.00273763,-0.09570760,-0.01455507,-0.08298339,-0.01215218,-0.04286032,0.11810771,-0.07137528,-0.06064469,0.09545296,0.11938769,-0.11762251,0.03726066,0.07677176,-0.03119408,0.07067347,-0.02844057,-0.16409528,0.07213871,0.00826804,0.18173991,0.15001000,0.07123623,0.15390821,0.06837605,0.01316512,0.03920879,0.19113283,0.02266514,0.07285184,-0.06485469,0.11547229,-0.06861993,-0.06055000,-0.00113795,0.14187311,-0.01219420,0.05307386,0.10663994,0.05602040,-0.01118677,0.06919443,0.10916788,0.13710375,0.05373332,-0.01043064,0.09671845,-0.14270149,-0.00852662,-0.08589046,0.12733090,0.14252488,0.08934616,0.01131561,0.13455400,-0.04966594,-0.00250828,0.00005372,-0.00999009,-0.02355478,0.02545314,-0.03257871,-0.09873715,0.01053235,0.07818724,-0.07367740,0.09485301,0.19782311,0.11160742,-0.01464373,0.08040904,-0.01571545,0.02282774,-0.06728836,0.04868511,-0.18644348,0.04953893,0.00435959,-0.13778830,-0.09461582,0.19808963,-0.08006745,0.05386612,-0.01902907,-0.07181359,0.10917967,-0.02984652,-0.01514614,-0.11137125,-0.00944123,-0.20049255,0.07429706,-0.00086573,0.11769743
0.01466664,0.03798523,-0.05638546,0.02628388,-0.02892680,0.12333262,-0.00207114,-0.18513843,0.01753855,-0.07593186,0.08726226,0.04831599,-0.04318499,-0.04190888,0.01436630,-0.07755087,-0.12014627,0.18508083,0.16617820,0.13785097,-0.02107948,-0.01106674,0.01280819,-0.10825950,-0.20589933,-0.00788846,-0.13625164,-0.14215687,-0.03624380,0.16516319,0.01859036,0.02702610,-0.02728487,-0.05111589,0.00555023,-0.15273958,-0.00849714,-0.03498320,-0.16478625,0.08334411,0.10284922,0.00364541,-0.05306646,0.22009465,-0.00350202,0.10047556,0.21867511,-0.11299948,0.04012672,0.02451034,0.01115279,-0.03958667,-0.07555654,0.00321767,-0.07833762,-0.11034577,0.19699106,-0.04394623,-0.08791047,0.05066797,0.00611325,0.05020610,0.22796731,-0.03863433,0.12501381,-0.04360209,0.09775619,0.07659438,0.09818567,0.02176461,0.03280625,0.01955193,0.04509661,-0.04455432,0.09268980,-0.06310250,-0.08169606,-0.03982658,0.05069951,0.09086486,0.01725791,0.10378598,-0.07464667,0.12562865,0.04443729,-0.16781606,-0.07063093,0.14275485,-0.05871043,-0.27052718,-0.06291176,0.15586583,-0.18439165,0.06205351,0.09876496,0.01891943,0.11543194,0.02284384,-0.00586268,0.11241581,0.08006533,0.13506813,0.00339202,-0.04546567,0.09164538,0.22466892,-0.02045277,-0.14218654,0.06263358,-0.08264454,0.02044209,-0.02591118,-0.06292512,0.03045884,-0.01103136,-0.24153271,-0.04457787,-0.01659418,0.05747652,0.00060511,-0.06269003,-0.07082887,-0.00291331,0.10779439,0.09260458,-0.06599178,0.04881445,-0.04605167
-0.04546121,-0.04602879,0.09614949,0.04917645,0.04165147,0.04435524,0.08230249,0.05552232,-0.03544485,0.21348625,-0.05661480,-0.13034338,-0.05406535,0.07046007,0.12876911,0.03775657,0.08828528,-0.09537055,-0.09729340,-0.05674463,0.13964583,0.02605383,-0.10938349,-0.04313131,0.02459775,-0.07235632,0.08948656,0.13903657,0.12247882,-0.01140783,-0.18258947,-0.04876984,0.05176144,0.00725267,-0.01112396,-0.13178098,-0.06799795,-0.04298012,0.03707149,0.03291386,-0.01612426,-0.07161719,0.03509584,-0.02352271,-0.17875789,0.18552628,-0.19798589,0.04715331,-0.04614600,-0.23596440,0.05525404,0.09326213,-0.15095359,-0.13962005,-0.25943288,0.21098958,-0.31395841,-0.04291275,-0.12777464,-0.16924861,-0.06280731,0.10222577,0.05341282,-0.13876384,-0.12543713,-0.19822302,0.04159641,-0.11698901,-0.01575266,0.02028221,0.04491593,0.03052308,0.22284266,0.00958542,-0.03909596,-0.06555130,-0.13185485,-0.07588825,-0.00513410,-0.02992314,-0.23745699,0.21950103,-0.16892955,0.12833804,-0.00866401,-0.05025175,-0.19045661,-0.22672841,-0.06754116,-0.23750494,0.08932652,0.08546486,-0.01097585,-0.11442754,-0.00491478,-0.02408150,-0.08850267,0.16382930,-0.06303858,-0.07557481,0.13946079,-0.01594434,0.11844105,-0.13896506,-0.07443502,-0.08979399,-0.09102423,0.16463815,0.14772944,-0.00012072,0.01780857,0.03881819,-0.09505289,0.13141370,-0.13366441,0.19004504,-0.01511200,0.19797502,-0.04413877,0.14701404,-0.15256888,-0.18976805,-0.04444401,0.07873573,0.01330208,0.01984213,0.01988798,0.09623106
0.14100111,-0.12370752,-0.05530122,0.00461210,-0.04012019,-0.06572364,-0.04660228,-0.07376476,0.05588023,0.09158158,-0.02234288,-0.04299127,0.01906403,0.04484568,0.14987922,0.02582292,0.06774180,-0.06608089,-0.18524571,0.01421213,0.19246401,0.11747071,-0.01093180,0.04497419,0.02285469,-0.07029000,0.19352028,0.19856311,0.06570911,-0.07601431,0.03735498,0.02099914,-0.06027269,-0.05575690,0.30678970,0.14927569,-0.05968567,-0.06787238,0.14854734,0.03274773,0.04854622,-0.04728599,0.02849917,0.01387455,-0.10571696,0.12123069,-0.06492095,0.10452989,0.02940099,0.11951122,0.06979930,-0.09794668,-0.08695795,0.15348975,-0.05777295,-0.19653361,-0.21338075,-0.00786260,-0.05503663,0.03397550,0.11674724,-0.13330525,-0.02321839,0.08201326,-0.00264352,0.13702933,-0.11482886,-0.04431806,-0.09622760,-0.16358249,0.06891955,0.00199971,0.21219826,0.04630959,0.08751359,-0.06256250,-0.07241398,0.01692132,0.00263955,-0.09915455,-0.06086967,-0.07542205,-0.19816074,-0.11431389,0.04657195,-0.12612484,-0.01337894,-0.07040810,0.05248612,-0.03947695,-0.19531874,0.06198355,0.08442081,-0.11899751,-0.05919836,-0.03167984,0.11935481,0.21684355,0.01643288,0.00511398,0.10327798,-0.06691776,0.12323742,0.03276320,0.00775903,-0.10133493,-0.02707603,0.02748888,-0.10302155,-0.03019998,0.05025674,-0.02455340,0.13313051,0.06544079,0.10628970,0.07877900,-0.02119408,0.00001126,0.01781934,0.06160700,-0.08381911,-0.03434928,0.04627260,-0.09168816,-0.03523508,0.09382230,0.10238943,0.07324930
-0.03329507,-0.10230533,-0.01739503,0.00929930,-0.00610967,-0.09210123,0.05521508,0.15095635,-0.08675166,0.00457719,0.05324588,0.19767241,0.24043164,-0.07481617,0.05248498,0.03248572,-0.04396408,-0.05376780,-0.01705424,0.06557810,-0.00424085,-0.09224132,0.01862432,0.01480534,0.03582324,-0.14997844,-0.07200563,-0.06656245,-0.10735133,0.02061287,-0.17665976,0.02213577,-0.00551222,-0.10429081,0.07083089,0.02799547,0.07286887,-0.00212634,0.11088400,0.04960998,-0.05762158,-0.12042041,0.04986898,0.08860831,-0.02664109,0.04077736,-0.03539693,0.06760754,-0.15335740,0.00140973,0.03585283,-0.08761185,-0.23578116,0.06557451,0.02840034,0.00625105,0.03810471,0.18445565,-0.03883761,0.11416300,0.16510694,0.00820409,0.06455033,-0.05502222,-0.12544958,-0.13216235,0.05983853,0.15151520,-0.03688645,0.02987103,0.07658871,-0.02983801,-0.12394882,0.09371883,0.03150083,-0.12532842,-0.00784659,-0.15095617,-0.17643847,-0.20463212,-0.03518072,0.00914647,-0.20442976,-0.09755039,-0.00397164,0.09743007,-0.08713258,-0.21884353,-0.06224026,0.00785271,0.05851101,-0.05240622,0.18649675,0.01520636,0.10466568,0.05415185,-0.02222285,-0.01459994,-0.08206078,-0.15471287,0.02554726,-0.10168451,0.18411167,-0.02965879,0.00748573,-0.05322862,0.17320336,0.35168093,-0.02986477,0.06081705,-0.01002576,0.10147474,-0.20178793,-0.05222307,0.04090292,0.01518598,0.08695266,0.06347378,0.04261886,0.07510763,-0.10271858,-0.08264874,0.08811543,0.05216483,0.06113230,0.04468378,-0.14724803,0.12159867
0.12368824,-0.13389695,-0.07923988,0.02036518,0.06967968,0.00717307,-0.12829618,0.21547295,0.07471665,-0.09800891,-0.03049546,-0.12769176,-0.00312031,0.19400401,0.10590909,0.10239042,-0.05609733,0.19334128,0.23177843,-0.04557629,0.12112973,0.14106990,-0.00956293,0.10330363,0.16284280,-0.26757053,-0.16292742,0.11659764,0.07255521,-0.10246984,0.08344978,0.20724283,-0.04893298,0.09474678,-0.01569237,-0.11012012,0.05971774,-0.20862915,-0.09295103,-0.11819007,-0.03215922,-0.22740699,0.04722218,-0.05746394,-0.14099252,0.03320035,-0.08256540,0.06476089,-0.10873758,-0.02624268,0.00480095,-0.06773136,0.10426354,0.09488557,0.11071303,0.04820131,-0.10237459,-0.10057678,-0.15139841,0.01918772,-0.01559396,-0.08354808,0.06707342,0.23096986,-0.08659119,0.03393460,-0.00967694,-0.02569807,-0.11189673,-0.13131726,-0.19684353,-0.23933491,0.03591482,0.02489305,-0.04022967,0.02318133,-0.16031425,0.07656433,-0.18172719,-0.05455342,-0.00433299,0.05145216,0.02821866,-0.18496513,-0.10963441,-0.05253547,0.04750212,-0.31863293,0.05635012,0.03842547,0.19677943,0.01739457,-0.01772829,0.03967384,-0.18564999,0.20265515,-0.13404605,0.16921997,-0.04591913,0.08305147,0.24403365,0.02884150,-0.15361331,0.05786733,-0.03344349,-0.06208819,-0.12045565,-0.03441712,-0.08111259,0.06963044,0.31337652,-0.00491194,0.01089972,0.01058599,-0.04635056,0.22849084,0.06041948,-0.01490459,0.11005574,0.04694606,-0.06011854,0.03460722,-0.07510370,0.00076740,0.10234570,0.10437008,0.08181445,0.03962600
-0.00567130,-0.02961808,-0.08900943,0.07887544,0.06290694,0.06207685,0.02517398,0.11791646,0.07108352,0.17364551,-0.07144410,0.09611430,-0.06106425,-0.01090056,-0.01698468,0.05400819,0.06267419,-0.04799039,0.02967662,-0.15884367,0.00685021,-0.02553434,0.02963654,0.04023024,-0.05772601,0.02873386,0.08191761,-0.01143017,-0.13834250,-0.08685502,0.01686543,-0.06562769,-0.03271179,0.01106125,0.07261351,0.01509270,0.00073833,-0.05478532,-0.04405496,-0.02289207,-0.06054474,0.10683496,0.05439233,-0.12117200,0.07472891,0.00368682,-0.14553323,0.12735741,0.03603702,0.00005205,-0.06786216,0.07906523,-0.00967371,0.04458478,-0.32538328,0.00136502,0.04864001,-0.11217849,-0.01841811,-0.03951091,-0.03955239,0.02321041,-0.05104007,-0.10484384,-0.11864212,0.02497494,-0.11267924,-0.13240407,-0.02930391,0.02550645,-0.03806258,-0.06084161,0.09837996,0.02323956,0.08911299,-0.06160725,-0.03535110,0.16524126,-0.00355115,0.04069314,0.05773389,-0.02810134,0.18550959,-0.03011369,-0.07390122,-0.06811165,0.07845721,-0.13444769,0.00954663,-0.04542923,-0.08495131,0.02941886,0.06907124,-0.13135049,-0.15280056,0.05751649,-0.01758034,-0.01985970,-0.03630444,0.08227256,-0.07547336,0.02347664,0.10309782,0.10568398,-0.07769138,-0.01158195,0.05799067,0.01856617,-0.03294439,0.13740677,-0.07090978,0.06316491,-0.03400504,-0.05315837,0.02576658,-0.06802510,0.06426976,-0.08221655,-0.07278044,0.02663265,0.01818827,0.10467202,-0.07015796,0.03376754,0.06420451,0.03652811,0.07461107,-0.11951970
-0.15015474,-0.01649720,0.09115917,0.01391480,-0.06886919,0.12648220,0.00590656,-0.09996804,0.05461384,0.02466011,-0.06579766,-0.11734442,-0.13039102,0.04431482,-0.04095528,-0.05321537,0.01815594,-0.11999015,0.03679576,0.00461439,-0.13511050,0.06848574,-0.10287321,0.14464162,0.01516554,0.19598240,0.03554455,-0.21276307,0.17998929,-0.05280855,0.16812827,-0.00670009,0.09590719,-0.18393481,0.14451432,-0.04983469,0.17341328,0.00477693,-0.16470000,-0.12387981,-0.02039838,0.08098175,-0.02584653,-0.11103918,0.12256284,-0.06226118,0.01336327,-0.05062232,0.06592185,-0.05935564,0.05172748,0.07230906,-0.27846798,0.03014036,-0.00537529,0.13013558,0.15003231,-0.15525198,0.13395849,-0.16250508,-0.04357295,-0.05266359,-0.05587433,0.04336901,-0.19073913,0.05598641,-0.05002854,0.04067519,-0.08486401,0.01801424,-0.01457034,-0.04979382,-0.06875034,0.02645413,-0.26152873,0.01202480,-0.17176618,0.09226403,0.01489189,-0.15455942,-0.05410544,0.00276140,0.07722350,0.02596221,0.05009385,-0.09987611,0.07766978,0.09438756,-0.07038812,-0.04356765,0.10060574,0.10539495,-0.02058883,-0.14952643,-0.08237114,0.07581215,0.11226464,-0.16569093,0.02124010,0.04816322,-0.00616786,-0.21076947,-0.03320458,0.12042449,-0.04428590,-0.02520099,-0.33331382,-0.11730556,0.17160273,-0.03783385,0.07058451,-0.08497228,0.20554131,0.17838949,-0.11232544,0.17563826,-0.08066390,-0.16180162,0.16008976,0.18023412,0.16234241,0.02529210,0.32600200,0.19107392,-0.12093888,-0.09295302,0.08799506,-0.10688673
-0.08179653,-0.07146171,-0.09548436,0.00818861,-0.02582015,0.23430941,-0.00934935,-0.03023310,0.08455861,-0.15690978,0.03228858,0.08186571,-0.01090795,-0.10907102,-0.12358085,-0.07318108,-0.01733396,-0.02462579,0.12278971,-0.17666212,-0.11917651,-0.02497737,0.12571253,0.16719791,-0.01558135,0.15780441,0.02415580,-0.31208813,-0.07196798,0.04611346,0.17447583,0.00950000,-0.08499782,-0.19008625,0.12118616,0.23848140,0.19063118,0.00891031,-0.19024982,-0.08807823,0.02172349,0.00311957,0.14047091,-0.05087358,-0.04112360,-0.17321733,0.17152834,-0.03502082,0.10079292,0.06057508,-0.01703167,0.03285574,-0.00997592,0.14785004,-0.00705172,-0.07142779,-0.02294223,0.00695567,0.09298623,-0.12113903,0.06806292,0.08464745,0.00349275,-0.08147079,-0.10748724,-0.13601176,-0.00491583,0.16113330,0.02830491,0.02648708,0.13744754,0.06674463,0.00467610,-0.04022278,0.07693329,0.06174533,-0.01970282,0.07428324,-0.03700845,-0.13485833,0.05774478,-0.09708355,0.15885554,0.08974433,0.15597424,0.15703331,0.12624297,0.09363908,0.00406066,-0.02397998,-0.00662754,-0.01079744,0.11381653,-0.19690226,-0.03230041,0.15290976,-0.03053727,-0.06262643,0.05234244,-0.15350953,-0.17776428,-0.06022707,-0.09821244,0.16696444,0.06943794,-0.06778505,0.00034522,-0.17182046,0.05983851,-0.04414446,0.03319682,-0.05869876,0.05559114,0.17157789,0.04409873,0.01549627,-0.06449033,0.05376991,0.19693136,0.14327765,0.02058309,-0.14759563,0.00526467,-0.06324691,-0.02149862,0.01131078,-0.06446787,0.04110875
-0.00500049,-0.00271557,0.00437422,-0.02288495,0.01211682,-0.13698383,0.09522785,0.00600007,-0.23042235,-0.05704724,-0.10722405,-0.06706052,-0.21676196,0.00969181,-0.05769753,-0.03014909,-0.06495412,-0.12733306,0.04764831,0.10072608,0.02906699,-0.03590113,-0.00070976,-0.15599316,-0.05127862,0.15141499,0.06296896,0.06069326,-0.10412814,-0.10211040,-0.09045272,0.07119261,0.01959479,0.22297190,-0.05565548,-0.03470708,0.07295214,0.08577301,0.00782108,0.09587029,0.10412658,0.10769903,-0.06043785,-0.10609174,0.06925052,-0.17904402,0.05748238,-0.12617020,-0.11167485,0.22518633,0.05953015,0.08781894,-0.03252539,-0.04006488,0.12085377,0.25006357,0.14032869,-0.04967489,-0.01423942,0.05220237,-0.17567775,-0.04080992,0.05061942,0.12231968,0.12395084,-0.02730025,-0.06943610,0.04314514,-0.02375223,0.03239776,0.19967495,0.00983724,0.03544558,0.02841261,-0.13761041,0.24806052,0.17184958,0.06739794,-0.05557295,-0.12470809,-0.09517474,0.20936871,0.03271676,0.01613805,0.16844554,0.00287600,0.08646485,-0.02317655,-0.10722417,-0.07947697,-0.13698496,-0.05575850,-0.03502774,0.24656889,-0.06679455,-0.15274602,-0.02227910,-0.04071101,0.19200903,-0.02689445,0.03946513,-0.10287753,0.13078256,0.06995320,-0.07318471,0.06660915,0.02132322,0.08385405,0.00713770,-0.04649733,0.04626445,0.00532003,-0.17160837,0.07554173,-0.17119680,-0.10344518,-0.12236135,0.00841791,0.00446527,0.06954041,-0.05112869,-0.10798254,-0.05212745,-0.12134191,-0.04187297,-0.14411271,-0.11871200,-0.18480454
-0.03268943,-0.07986309,0.03459067,0.07316801,-0.00394740,-0.10619444,0.05076130,0.07835869,0.00606123,-0.05349815,-0.04939919,-0.13541842,-0.07018508,-0.00192174,-0.14530016,0.01335078,0.14686550,-0.22542752,-0.12809694,-0.06917124,0.00643891,-0.11892901,-0.05337077,-0.29475760,0.01194236,0.01917614,0.15856141,0.01346360,-0.04978248,-0.02919291,0.00436061,-0.01587112,0.07180194,-0.06649608,0.13424742,0.00736739,-0.08726882,-0.03163236,-0.02608515,0.10629871,-0.04087596,-0.11923077,0.06813066,-0.07337129,-0.06350675,-0.07760780,0.03539292,-0.08357339,0.06097060,0.13461909,-0.04618197,-0.12015042,-0.01474160,0.01616248,0.20072316,-0.05128862,-0.04146329,0.04270614,-0.02180325,0.06591731,0.13221563,-0.11438183,0.13754196,-0.03260623,0.10700177,-0.06708398,0.09493655,-0.05952048,0.00969505,0.06970629,0.14867085,0.35856879,0.02413125,-0.04026961,-0.01928227,0.13006923,0.10497507,0.10307184,-0.07581542,0.22854246,0.05486870,-0.05870063,-0.05138328,-0.10981010,0.00626213,-0.14627901,0.17605759,-0.04418497,-0.09465977,-0.03474075,0.10274743,-0.00306454,-0.02849388,-0.12219127,-0.07209818,-0.28470176,0.02632414,-0.06028487,0.25764415,0.05554440,-0.05010590,-0.12927395,0.24038640,0.12016533,-0.13264026,-0.10608233,0.06478460,0.02219169,0.02928764,-0.08356574,-0.12548155,0.14660926,-0.06226154,-0.05344069,0.06552244,-0.01803207,-0.16536631,-0.00405894,0.20776913,0.11680345,0.05121946,0.05175840,-0.14107558,-0.14020509,0.07365920,-0.08509835,-0.29045799,0.00002313
0.05781736,-0.00353763,0.01893024,-0.02354995,-0.05589844,-0.03477082,-0.06339734,0.10239349,0.00611707,0.02698104,-0.08563957,-0.03637699,-0.02683640,0.01119558,-0.05769289,0.00873439,-0.14335427,0.01889614,-0.09561868,-0.05837114,0.05323074,-0.07265683,0.05743711,0.00696270,0.07080602,0.04413651,-0.06325721,0.18450306,-0.09280477,-0.01672459,0.17368802,0.14820416,-0.01521547,0.06588653,0.01216091,0.06451745,-0.04689569,0.00462325,-0.03491640,-0.18083982,-0.02267634,-0.01036575,0.07538067,-0.02988326,0.00720018,-0.21445517,-0.01999141,-0.10276159,-0.12444798,0.00913303,-0.20907430,0.08094496,0.03949415,0.30224413,0.02918989,0.05645813,-0.00484509,0.00879458,-0.03891474,0.02603302,0.01927441,-0.29794946,0.15202215,-0.05548200,-0.02995230,0.12314799,-0.06471669,0.20449075,0.03988332,0.06830569,0.19295569,0.05155098,-0.05658124,0.02910390,0.06820773,0.09981544,-0.07486270,0.05339852,-0.08530546,-0.16580048,0.09818874,0.08035043,0.09897545,-0.10689694,-0.05592304,-0.05228589,0.33299288,0.03559890,-0.07100467,-0.13870606,-0.10804357,-0.07726340,-0.17983152,-0.06389730,-0.08952957,-0.00539921,-0.10479125,-0.12443074,0.05727476,-0.21557057,-0.09134969,0.01967591,0.05691000,-0.11231101,-0.14890032,-0.15705393,0.10075050,-0.03854681,-0.23032469,0.10391203,-0.06372408,-0.14747193,0.03780632,0.03254151,0.20679455,-0.00941718,0.00766719,-0.03529509,0.04509345,0.02918503,-0.01143541,-0.07731899,-0.07347825,0.07122622,0.21712878,0.00583037,-0.02088296,0.00744501
-0.05989221,0.11616766,0.03542486,-0.00762566,-0.10313788,0.17780767,0.09704311,0.08825155,0.05703307,-0.08883175,0.18624607,-0.09235142,-0.08412956,-0.11295535,0.04033821,-0.06354048,0.12125830,0.06395578,0.13194440,0.00678721,-0.06445076,-0.09988178,-0.03808474,0.00141953,-0.00959869,0.12759688,0.22740649,0.02601985,-0.04212579,0.03238726,0.07024227,-0.04546226,0.06454032,-0.08018649,-0.14143302,-0.17806254,0.02632164,0.05100076,-0.06716245,-0.09464914,-0.04698165,0.04235475,0.04234229,-0.00843986,0.15314993,0.05886641,-0.02615884,0.04775986,0.02904042,-0.27417052,-0.00603649,-0.06988474,-0.09001589,-0.13443358,-0.07344670,-0.07262586,0.11716301,-0.03452787,0.16924328,-0.02053644,-0.09509803,0.02235404,0.04986709,0.16415355,-0.14814922,-0.17242609,-0.08627257,-0.14326386,-0.00466436,-0.00351072,0.00792156,0.03332468,0.03367042,-0.01884248,0.03296383,0.03098856,-0.28220913,-0.08371835,0.26297629,0.16799304,-0.19975650,0.23824514,-0.12896551,0.02866945,-0.11311861,-0.05881644,-0.01872983,0.07792767,-0.00843760,0.25469330,-0.05417174,-0.04369151,0.01364030,-0.15876806,0.17861760,0.10693997,-0.09031730,-0.17405556,0.05280084,0.04790706,-0.07480016,-0.10632990,-0.04503699,0.03425486,0.13292536,-0.03325525,0.05513264,0.06532539,-0.04882671,0.07826733,-0.01590391,0.03474694,0.09078937,-0.02478876,-0.06232811,0.01727097,0.00109738,-0.09382399,-0.03239628,-0.20365272,0.03134644,-0.20850281,0.05510537,-0.03023232,-0.03476521,-0.00957722,0.14942312,0.11147814
0.03539297,-0.06241100,-0.00542576,0.09850413,-0.07300255,-0.05855196,0.04870417,-0.11920706,-0.06956782,0.19784699,-0.16020250,-0.08731943,0.04187151,-0.05945885,-0.16449511,0.00371616,0.00846813,0.03186858,-0.07545625,0.06044773,0.24631955,0.06389377,0.02615458,-0.00400434,0.06007953,-0.07467407,0.16497000,-0.02060629,0.03098630,-0.11396958,0.00702739,-0.08608565,-0.05219719,0.00597494,0.06004956,-0.01604958,-0.09440478,0.24287608,0.01988788,-0.01484528,0.11943041,0.05500295,0.00774423,-0.11412925,0.24498929,-0.05940076,0.14846933,0.12487911,-0.00901203,0.05383535,-0.10796969,0.00437562,0.10112118,0.02822216,0.18951307,0.00734864,-0.11091792,-0.12989207,0.00120056,0.01093373,0.07177830,-0.09615139,0.21420211,-0.14988659,-0.00711457,0.04782609,0.15824541,-0.21761459,-0.02470803,-0.02645309,0.01018207,-0.02744235,-0.10543619,0.02310669,0.11873151,0.23294207,-0.07096037,0.09568326,0.13574439,0.00735287,0.05440158,0.12511142,-0.17254061,-0.02810858,0.03459939,-0.02910174,0.04492139,0.09673078,-0.07247137,-0.08418337,-0.02723360,-0.17372692,0.12523213,-0.06375763,0.14568184,-0.07938801,-0.09277957,-0.12514621,-0.03844974,-0.06652924,-0.05939711,-0.07935095,0.20512569,0.00709537,-0.13199805,-0.02136286,0.03362595,0.00893012,-0.05772528,-0.00139440,-0.05208472,-0.09499793,0.11240845,0.03262482,-0.10168521,0.10523552,0.00568221,0.17626992,0.08290775,-0.12427997,0.21293361,-0.02546525,-0.13980201,-0.09647425,-0.09050617,0.12923293,-0.14038591,0.03754063
0.02147452,-0.00626831,0.04205275,-0.05395318,-0.00605076,-0.09465330,-0.05159243,0.03666478,0.11924767,-0.14168704,-0.07036479,-0.25115481,-0.00872766,-0.07739665,-0.13228793,-0.02680878,-0.22213969,-0.03476586,0.00893746,0.13722967,0.07449207,0.06036484,-0.06339857,-0.06652638,0.02282644,0.02281422,-0.07997403,-0.01299298,0.03971424,0.16272829,0.06252808,0.08742648,0.00279269,-0.07839590,0.04774456,-0.06927395,0.02234775,-0.04843997,-0.08419513,0.01018163,-0.12551090,-0.03583724,0.13451277,0.02288135,0.23146877,-0.02551020,0.13406886,0.09459431,-0.20584780,0.02231447,-0.00104356,-0.00822423,-0.06957070,0.05547676,0.04058035,-0.11739012,0.18277599,0.01517978,0.04697594,0.06275588,-0.03724208,-0.09881274,0.02054911,0.04412339,0.18985508,0.04209208,0.04180251,-0.02651008,0.17511077,0.16849132,0.08707342,-0.04450259,0.04821984,-0.05829057,0.08978569,0.14324415,-0.01363484,-0.06473999,-0.00866582,0.19996835,-0.10398715,0.04387849,0.16477919,-0.03810608,0.01042794,0.04875832,0.11036818,0.07398453,-0.12426724,0.19911517,-0.26444843,-0.08002088,-0.07323954,-0.00521163,0.04852351,-0.02748713,-0.13188356,-0.00216336,-0.06654014,0.05335278,-0.03305601,-0.00271384,-0.06983689,-0.00999455,0.16494605,0.36017188,0.08327443,-0.06456051,-0.11688273,-0.02360150,0.05738244,-0.00518265,0.13854723,0.08962077,0.05832200,0.03558064,-0.11366187,-0.06179982,0.06272491,-0.24724837,-0.07566561,-0.03453090,-0.22773045,-0.16293518,0.03347359,-0.08404204,-0.05921089,-0.14105453
-0.06351223,0.03865854,-0.09288180,0.01062970,0.08439957,0.12358523,-0.10791719,0.18218741,0.03600889,0.03466177,-0.01535514,-0.03223056,0.00631188,-0.17065699,-0.04096714,0.04446319,0.11341166,0.05053717,0.02576618,-0.07123228,0.12309906,-0.11320210,0.06404080,-0.08423384,-0.02587568,-0.03688726,0.17077297,-0.15224697,-0.03848118,-0.23459245,0.14188391,0.09583317,-0.06699124,-0.07035054,0.01984232,0.15030877,0.03992233,0.07505633,0.15651023,0.02210614,-0.07048286,0.00814792,0.07650948,0.14320056,-0.09006190,-0.10979119,-0.00016526,0.12917842,0.15102144,0.00267908,-0.06222309,-0.13963158,-0.05007806,-0.00507182,-0.01157778,0.03492723,-0.00068786,0.00415517,0.05225600,-0.08827735,0.10308911,0.06808328,-0.01457589,0.05578650,-0.02335180,0.05264922,0.02655507,-0.03941577,-0.17922953,0.00962512,0.13119984,-0.05209577,0.00803908,-0.08055777,0.02501536,0.01486950,0.00869691,0.09347843,-0.04997274,0.09266556,-0.05494422,0.02146323,0.04249270,-0.06016944,0.08529675,0.11157821,0.02315501,-0.04466062,0.00399713,0.10006663,-0.07910495,-0.05166273,0.00686174,-0.03729176,0.00616324,0.03582113,-0.00338379,0.08776702,-0.04958399,-0.00114330,0.03662433,-0.03567508,0.10109100,0.07545798,-0.13344392,-0.05929507,0.06355707,-0.04925667,0.12493646,-0.08199313,0.02467035,0.00033294,-0.09327100,0.02030559,-0.08865856,0.15228660,-0.07831856,0.08641551,-0.02898066,0.01912994,0.10468837,-0.05623681,0.02300024,0.08084855,-0.18592492,0.14274146,-0.02828197,-0.01841689
0.15667807,0.03986794,0.06141580,0.00586420,0.04376741,0.04047672,0.13342646,0.12666434,-0.01858002,0.04238132,-0.07238311,0.15437521,-0.03329850,-0.07331914,-0.02129239,0.02660764,-0.16276422,0.03121427,-0.04414301,0.04825024,0.00361941,0.01546818,-0.05323376,-0.06811419,0.12398160,0.12472975,0.12086921,0.08447177,-0.18430342,-0.09809113,-0.01797350,0.03493335,0.03888233,-0.03165627,-0.00691843,0.07979321,-0.12983224,0.06083181,0.00349452,0.12974946,0.06235198,0.13557696,0.01498348,-0.15230854,-0.25534713,0.11626177,-0.15171881,-0.09420711,0.09547681,-0.20580366,-0.16992660,0.21240400,-0.08113233,-0.09624685,-0.21339546,0.12672484,-0.08707253,0.07628191,0.03765207,-0.12620616,-0.17820077,-0.12126003,0.27367502,-0.06864475,0.13175739,-0.32762459,-0.02984646,0.10511670,0.00985434,0.10713008,-0.07552987,-0.06029557,0.16807884,-0.09666586,-0.00655069,-0.01389451,0.02879106,-0.01972002,0.08577360,0.19303994,-0.01788478,0.20516226,0.07887259,0.14156079,0.02184926,-0.17114224,-0.10488378,-0.03045546,-0.21363203,0.04218177,0.09814978,-0.03636797,0.12262674,-0.19019336,-0.24047928,-0.11077193,-0.01278396,-0.10567856,-0.05262800,-0.01133062,-0.08311713,-0.19396824,-0.02454070,0.07447786,-0.27421600,0.04195039,-0.05252813,-0.13126849,0.04820710,0.03540884,-0.08926276,0.02956215,0.22393410,-0.02397169,-0.24712618,0.03175158,-0.08163273,-0.03402062,0.03193556,0.21355170,0.04010164,-0.01542606,0.06654961,0.02860925,0.01309370,-0.06056093,-0.01374683,-0.12532334
-0.03895881,0.06884564,0.07316192,0.05292880,-0.08871949,0.05774076,-0.09210609,0.14053297,0.05739191,0.10391085,0.09508304,-0.03122259,-0.16685236,-0.08182856,0.05460920,-0.08476913,-0.09238804,-0.00722248,0.02920860,-0.15048097,-0.02099416,-0.03585698,-0.08767647,0.18521348,-0.16369002,0.03842960,-0.17390379,0.05978602,0.12253097,-0.05823391,-0.05222917,-0.04223596,0.10424328,0.08280097,-0.05068041,-0.09541729,-0.00875009,0.04581707,-0.02477135,0.04102935,0.06320187,-0.07209355,0.07326329,-0.03597062,-0.09158431,-0.01282767,0.05446706,0.10753792,0.05917540,-0.07306243,-0.11081056,-0.10950828,0.05786128,-0.00421881,0.05021131,0.03163980,0.03261064,-0.03302625,-0.16083632,0.00701585,-0.23495492,0.16122921,-0.15590775,0.01112198,0.01421838,0.07254384,0.00941853,-0.30805281,0.01045732,0.12971555,-0.01906256,-0.16752583,-0.02900180,-0.05213472,0.09913456,0.27782312,0.17649773,0.01541409,-0.02744102,-0.02276470,-0.08027923,-0.07721018,0.05214840,-0.14714685,-0.00978381,0.18330070,-0.01712419,-0.07069264,0.00656842,0.10905599,-0.11067092,-0.13180418,0.05338475,0.12521364,0.08203556,0.07805140,-0.11607011,-0.02302048,0.22056772,0.12067512,0.01663976,0.15150809,0.14278939,-0.01701277,0.14602911,-0.06101726,0.09947839,-0.03952711,0.03035821,-0.03572292,0.11530901,-0.04886730,-0.04879977,-0.06186630,-0.03992678,-0.00857972,-0.02151266,-0.08736296,-0.09385075,-0.12759747,-0.09382323,-0.02840975,-0.37614515,-0.03123134,-0.00978118,0.08287272,-0.00410213,-0.06679415
-0.00834154,0.01519136,0.00022082,-0.08336168,0.04349571,-0.03869101,-0.12131266,-0.03578053,-0.04891589,0.00183285,-0.14097822,0.03779446,-0.16005047,-0.03459069,-0.11809371,0.01438515,-0.06598680,0.08872017,0.02751022,0.00525758,0.07355873,0.10987991,-0.05054686,-0.02417184,0.03390581,0.06307642,0.06756524,-0.04209483,-0.05822346,-0.01941890,0.13734449,-0.00370569,0.02002093,0.11057856,0.09349579,0.05516097,0.09103952,0.03432824,0.09502847,0.06473581,0.08086845,0.04665248,0.07979268,-0.00200895,-0.10691964,0.04483832,0.00101754,-0.11812023,-0.06106811,0.10927729,0.00107085,0.07112834,-0.06539991,0.04314093,0.00046181,0.00614561,-0.07816526,-0.07458337,-0.00279371,-0.04248620,0.02528426,-0.08227285,0.00140582,0.04686048,0.01381346,0.01140303,-0.07815992,-0.04166491,0.03609436,-0.17168298,0.02110860,-0.05355778,-0.18278511,0.00797341,0.02162328,0.10147162,-0.21138397,0.05072982,-0.05767126,-0.02940769,-0.00897001,0.09446910,0.10804079,0.14966559,0.05771999,-0.02436578,-0.01990729,-0.09470566,-0.04795506,0.00227671,-0.06795186,0.09839270,-0.09695303,0.07450499,0.01981067,-0.01881484,0.05102560,0.00438425,-0.03666765,-0.05751217,0.08170000,-0.17556778,0.10406805,0.00921754,0.07420884,0.10964992,0.04000249,-0.14393005,0.01448083,-0.04926334,0.07947232,-0.07132119,0.16934176,0.18923083,-0.03441738,-0.00314294,-0.00627213,0.09638179,-0.06636352,0.02927382,-0.10768755,-0.02353932,0.04499874,0.00646213,-0.03601032,-0.00516117,0.06317508,-0.00023796
