-0.03363892
0.04180243
-0.14941107
-0.17438927
-0.41181284
0.01733144
0.08280688
-0.07029900
0.01608837
-0.09778834
0.12861654
-0.11819232
-0.44406891
0.08627526
-0.10523875
0.22746111
0.38639951
0.12749492
0.21716522
0.08903944
0.23028004
0.11217003
-0.09921180
0.23337537
0.23767050
-0.08785019
0.10891829
0.06372532
0.12579098
-0.38659880
-0.00891363
-0.42982236
0.00546377
0.11463899
-0.07228754
-0.31142682
-0.13381617
-0.15964353
0.06942482
-0.00436457
-0.01121133
0.12770230
0.10108785
0.29825646
-0.39962152
-0.43239161
0.08823606
-0.01898152
0.22012547
-0.20827934
0.00317779
0.30509827
0.23886414
-0.03125075
-0.13934276
0.16032214
0.10439845
-0.13192481
-0.17803507
-0.13853714
0.04797140
0.26421174
-0.32028607
-0.43330973
-0.10962711
-0.36124352
-0.18932110
-0.28214499
0.35246432
-0.00404745
0.07523252
0.13796525
0.00628946
-0.20669398
-0.03518863
0.06194874
-0.22612460
-0.07393402
-0.14920467
-0.08222289
-0.48057386
0.20729640
0.03758232
0.00175352
-0.31694192
-0.24646439
-0.48154813
0.04282272
-0.05898828
-0.11421493
-0.41366625
-0.16699734
0.49727800
-0.34784970
0.06929178
-0.02925692
0.46319422
-0.09570238
-0.07714510
-0.08575637
-0.27980703
0.27668694
0.01429966
-0.47524989
-0.22558062
0.32944763
0.15226650
-0.01336865
0.49559811
0.02155829
0.25052622
-0.13170622
-0.33699989
-0.18331471
0.31428236
-0.08909340
0.00992794
-0.43091932
-0.17576185
-0.32392272
-0.15778399
-0.16128835
-0.12920249
0.60149050
-0.28221065
0.31432921
-0.24562451
0.00668370
