-0.00424696
-0.00011920
0.00460790
-0.00315606
0.00434314
-0.00025806
-0.00506593
-0.00139016
-0.00540214
0.01651318
-0.00013870
-0.00340218
0.00465506
-0.00017483
-0.00094910
-0.00249107
-0.00516363
-0.00493685
-0.00378884
-0.00069530
-0.00482895
-0.00194856
0.00562779
-0.00646319
0.00501001
0.00733790
0.01070751
-0.01272964
-0.00591485
0.00080134
-0.00715022
0.00053072
0.00003920
0.00402693
0.00326978
0.00464972
0.00418277
0.01084693
0.01081348
0.00662625
0.00041618
0.00375454
-0.00157623
-0.00111208
0.00971716
0.00187081
0.00704936
0.00201480
-0.00445606
0.00603352
-0.00153613
-0.00382389
-0.00421557
0.01186602
-0.00204462
-0.00814108
-0.00401195
-0.00623576
-0.00604073
0.00535794
0.00518994
-0.00861674
-0.00044947
0.00349997
-0.00185158
-0.00567421
-0.00429655
-0.00030243
0.00712349
0.00080150
0.00128440
-0.01158601
-0.00307575
-0.00512919
-0.00191539
-0.01206935
0.00683722
-0.00373487
0.00116716
0.00082992
0.00518069
-0.00494990
-0.00094046
-0.00640764
-0.00321273
0.00577326
-0.00846316
0.00802667
0.00108911
-0.01943590
0.01587238
-0.00198504
0.00446413
-0.01060151
-0.00386897
0.00307686
-0.00098334
0.00106411
0.00349591
0.00245957
0.00611195
0.00314020
-0.00746777
0.00070960
-0.00198860
0.00760093
-0.00380460
-0.00619191
0.00064533
-0.00314391
-0.00572264
0.00608754
0.00002489
-0.00498968
-0.00115555
-0.00071541
-0.00460235
-0.01207305
0.00926853
0.00512003
0.00413098
-0.00451466
0.00318246
0.00195006
0.00781767
-0.00416863
0.00022223
0.00680817
-0.00757432
0.00831829
-0.00098970
-0.00117390
-0.00521490
0.00206336
0.00366126
0.00793065
-0.00196856
0.00263367
-0.00747759
0.01066575
0.00860250
-0.00346844
-0.00482844
-0.00565938
0.02007144
-0.00436135
0.00805848
0.00677364
0.00222273
0.00207490
0.00478103
-0.00277875
-0.00454970
-0.00345383
0.00063264
0.00202994
-0.00666386
-0.00482505
-0.01318332
0.00014143
-0.00974083
0.00498858
-0.00022729
-0.00897560
-0.00348956
-0.00740780
-0.00580853
-0.00393392
0.00790058
0.00799961
-0.00001846
-0.00329635
0.00032712
0.00107411
-0.00269931
-0.00552636
-0.00181227
0.00062596
0.00280067
0.00192591
0.00658444
0.00442140
0.00674859
0.00465882
0.00318877
0.00429582
0.00323054
0.00136683
0.00034550
0.02162410
0.00352990
-0.00244751
-0.00550320
0.00334248
-0.00989376
-0.00652028
-0.00444743
0.00230728
0.00248245
-0.00203245
-0.00081897
-0.00228813
0.00508279
0.00476294
0.00065203
0.00094280
0.00346480
-0.00156288
0.00137280
-0.00256946
-0.00971788
0.00116712
-0.00184105
0.00151436
-0.00020073
-0.00540029
-0.00019010
-0.00418639
0.00989622
-0.00314311
-0.00685425
-0.00305760
-0.00015540
-0.00055030
-0.00391873
-0.00072448
0.01058841
0.00197865
0.00269165
-0.00132058
-0.00511226
0.00529870
-0.00130274
0.00042485
0.00026784
0.00605928
0.00343160
-0.00005493
0.00305743
0.00285575
0.00289074
0.00426741
0.00120464
0.00760227
0.00366195
-0.01108815
0.01059790
0.00114247
-0.00784904
-0.00125425
0.01281526
0.00432943
0.00389398
-0.00207113
-0.00144610
-0.00796667
-0.00351136
0.01440510
-0.00464375
0.00214889
0.00553697
0.01170420
-0.00207823
0.00663842
-0.00831183
-0.00198081
-0.00258209
0.00677460
0.00150606
-0.00140279
0.00184058
-0.00760731
-0.00842681
0.00754471
0.00288035
0.00200713
0.00277182
0.00327197
-0.00108956
-0.00653918
0.00098332
0.00354976
0.00529022
-0.00233142
0.00067990
0.00074625
-0.00704740
-0.00727560
0.00222459
-0.00155081
-0.00013465
0.00676145
0.00402855
-0.01282488
0.00570423
0.00088918
-0.00136261
0.00086332
-0.00970618
0.00172683
0.00049055
0.00609561
0.00549499
0.00621100
0.00608434
0.00346723
-0.00836425
0.00006473
-0.01058608
0.00383040
-0.00696209
-0.00445300
0.00562072
-0.00588212
0.00535503
0.00125014
-0.00480020
-0.00984229
-0.00867271
0.00059714
0.00013846
-0.00091168
-0.00591428
-0.00031042
-0.00388237
-0.00283022
0.00307008
0.00791938
-0.00567639
-0.00795138
-0.01187606
-0.00640721
0.00981411
0.01178410
-0.00444889
-0.00145485
0.00235318
0.00119318
-0.01329453
0.00139605
0.00085535
-0.01103801
0.00265208
-0.01276696
0.00019987
-0.01110294
0.00152942
-0.00340770
0.00262581
0.00419664
0.00226951
0.00995693
-0.00603077
-0.00068261
0.00361860
0.00031012
-0.00297371
-0.00914480
-0.00600401
-0.00471549
-0.00255812
0.00178418
0.00444396
0.00184606
0.00425484
-0.00624596
-0.00718180
-0.00016346
-0.00210113
-0.00608958
-0.00033830
0.00032892
0.00158424
0.00308739
0.00394685
0.00598771
-0.00621243
0.00087982
-0.00681818
-0.00933564
0.00236185
-0.00080719
-0.00248221
0.01060077
-0.00665009
-0.00354217
0.00274133
0.00289727
0.00557016
0.00198283
-0.00236727
-0.00155514
0.00199309
0.00316555
0.00407827
0.00048626
0.00669466
-0.00469157
-0.00138453
-0.00967744
-0.00009957
0.00511797
-0.00228342
0.00120641
-0.00435504
0.00052013
0.00464347
-0.00726951
0.00699031
0.00272079
-0.00306895
-0.00498656
0.00267958
0.00157608
0.00638306
-0.00290299
-0.00142620
0.00026076
-0.00182181
-0.00811298
0.00519496
-0.01013661
-0.00161058
-0.00248147
-0.00284631
0.00592072
0.00241503
0.00191476
0.00800481
-0.00090899
0.00208752
-0.00097611
0.00216015
0.00279211
0.00737443
0.00459015
0.00184396
-0.00654599
0.00726887
0.00485617
0.00305425
-0.00081519
-0.00006692
0.00654827
-0.00013926
-0.00719666
-0.00376163
-0.00443750
0.00306371
0.00929029
-0.00366953
0.00064834
-0.00130206
-0.00338303
-0.00239333
-0.00047595
-0.00195220
-0.00204082
0.00194707
0.00417219
0.00081013
0.00194830
0.00036480
0.00178408
-0.00300059
-0.00284411
-0.00013164
0.00133918
-0.00025795
0.00400110
0.00022979
-0.00262785
0.00690320
-0.00377798
0.00126624
-0.00030393
-0.00253606
0.00622839
-0.00501650
-0.00379886
0.00793419
-0.00241209
0.00061822
-0.00230627
-0.00160788
-0.00311071
-0.00094440
-0.00861679
-0.00174326
0.01085969
-0.00673302
0.00146312
-0.00392642
0.00273363
-0.00206714
-0.00290778
0.00367572
-0.00809306
-0.00205202
-0.00005060
-0.00254305
-0.00164574
0.00415468
0.00039564
0.00385418
-0.00037395
0.00590528
-0.00176600
0.00038562
0.00137205
0.00043301
-0.00919161
-0.00067282
-0.00249728
0.00207791
0.00781034
0.00413519
-0.00455719
0.00242892
-0.00541164
-0.00298372
-0.00251567
-0.00298944
0.00092505
0.00061965
0.00425635
-0.00613475
0.00469272
-0.00352739
-0.00125821
-0.00339515
0.00190473
-0.00055998
-0.00146267
-0.00885641
-0.00442717
0.00623720
0.00058206
-0.00938573
0.00551101
-0.00046755
-0.00155818
-0.01143772
0.00635289
0.00249760
-0.00714374
-0.00176847
-0.00583371
0.00034619
-0.00240546
-0.00506302
0.00746395
0.00322965
0.00080671
-0.00038354
0.00007061
0.00712986
0.00272320
0.00187764
-0.00627308
0.00448106
0.00494420
-0.00173527
0.00074945
0.00353494
0.00461227
0.00109728
0.00887871
0.01235017
0.00430011
0.00604301
-0.00039962
0.00565354
-0.00272063
0.00042285
0.00047691
-0.00296738
0.00401787
0.00174148
-0.00549898
-0.00469042
0.00247320
0.00041243
-0.00183435
0.00109096
-0.00578397
0.00834399
0.00475097
0.00916186
-0.00352996
-0.00656831
-0.00280508
0.00392075
0.00028168
-0.00064946
0.00115678
0.00569300
-0.00024589
-0.00872909
0.00028622
0.00611079
0.00035566
0.00676397
0.00197323
-0.01082407
0.00321883
-0.00063907
-0.00310484
0.00173612
-0.00156095
0.01046309
-0.00362118
-0.00086391
-0.00728416
0.00098570
-0.00407893
0.00298607
-0.01427169
0.00180979
-0.00146260
0.00302074
0.00011875
0.00137789
-0.01213033
-0.00320875
0.00803270
0.00358793
-0.00024478
-0.00945772
-0.00582657
0.00362761
-0.00405061
0.00298889
0.00755368
-0.00388481
-0.00027813
0.00477872
0.00570542
-0.00002816
-0.00112051
0.00947523
-0.00293482
-0.00110144
-0.00552189
-0.00320492
-0.00187087
0.00366998
-0.00062822
-0.00434983
-0.00035481
-0.00867278
-0.00121944
-0.00018336
0.00545423
-0.00609091
-0.00278772
-0.00086330
-0.00422603
-0.00167589
-0.00061510
0.00277047
0.00873434
0.01273849
-0.01040246
-0.00154604
-0.00350300
0.00568551
-0.00608888
0.00528846
0.00123968
0.00647458
-0.00398761
-0.00711942
0.00406172
-0.00120354
0.00301810
0.01815301
0.00485710
-0.00143888
-0.00402563
-0.00142149
-0.00416848
-0.01217612
-0.00392155
0.00378742
0.00275287
0.01414368
-0.00447935
0.00070816
0.00033765
0.01442622
-0.00677546
-0.00006846
-0.01076512
0.00087603
-0.00114575
-0.00240125
-0.01820777
0.00158173
0.00406959
-0.02312007
-0.00555830
0.00863504
0.00174748
-0.00555554
-0.00276512
-0.00090205
-0.00407490
0.00101785
-0.00082821
-0.00191715
-0.00287334
-0.00008461
0.00227612
-0.00543567
-0.00111026
-0.00115564
-0.00028371
-0.00523644
-0.00134152
0.00098636
0.00098714
0.00005257
-0.00229068
0.00614144
-0.00361271
0.00195022
0.00655518
0.00090150
-0.00028471
0.00044339
-0.00233250
-0.00211267
-0.00345749
-0.00057528
0.00090375
-0.00104713
-0.00008620
-0.00379402
-0.00209106
0.00094940
-0.00106284
0.00496638
0.00073037
-0.00342836
0.00363832
0.00738738
-0.00416588
0.00318231
-0.00261891
-0.00511437
-0.00064309
0.00663504
-0.00219156
0.00230020
0.00416321
-0.00656500
0.00141176
-0.00174396
-0.00267553
0.00349506
0.00287320
-0.00177194
-0.00309612
-0.00310503
-0.00233452
-0.00527665
-0.00038348
