-0.03492057
0.01813157
-0.00182878
-0.01420629
-0.00508944
0.04822132
0.00851658
0.00259810
0.02789205
0.02155107
0.00614391
0.00392812
-0.01215564
0.01321698
-0.00977412
-0.01617806
-0.01559961
0.01578823
-0.00064762
0.00429041
0.01825802
-0.00346634
0.01440052
0.04397711
-0.01581649
-0.01742647
0.01476061
-0.01725143
0.02687401
-0.01305768
0.04421502
0.01768025
-0.01185373
-0.01774127
-0.00074324
0.01730557
-0.05422517
-0.02007899
-0.00747386
-0.00201945
0.03392378
0.00301600
0.00319000
-0.01696534
0.00729893
-0.01190388
-0.00423122
0.00141338
-0.00352675
0.02543063
0.00940910
0.00218101
-0.02499303
-0.00140650
-0.01849448
-0.01219748
0.00424346
0.00363153
-0.01280356
-0.00283007
-0.00753982
-0.00444913
0.02104224
0.00040765
-0.02225970
0.00658921
0.00911399
0.00242557
-0.02363075
0.02220982
-0.00298148
-0.04105663
0.01419530
-0.00962823
0.03248046
-0.01485146
0.01529896
-0.01375653
0.03676952
-0.04220981
0.00982892
0.01774923
0.01555037
-0.02792767
-0.03270908
0.00193523
0.04243953
0.00666782
0.01263736
0.02487981
-0.00420410
-0.02582481
0.02453599
0.01256084
0.00409033
-0.01809739
-0.03776108
0.04321722
-0.02210438
-0.06034397
-0.00453690
-0.01264894
-0.01466950
-0.00334823
0.03563001
-0.01397349
-0.01199743
0.02325743
0.02671681
0.00628755
-0.00545949
0.01870728
0.03354090
0.01545389
0.00832141
0.01416280
0.00651608
0.06171549
-0.02992515
0.01109478
-0.01370420
0.01951033
0.02285497
0.01832253
-0.02211759
-0.01601082
-0.00025868
0.01348361
-0.05701693
-0.00100721
-0.01062273
0.02429865
0.00023758
0.01222213
-0.01920845
-0.04084713
0.01274682
-0.02792212
-0.00798203
-0.03320044
-0.04085536
-0.04949806
0.02711916
-0.02217877
0.00016361
0.01629568
0.03247080
-0.03243199
0.00099736
-0.01906637
0.00265690
-0.01384750
-0.02849495
-0.00474101
-0.01652835
-0.01216033
0.04484123
-0.02099872
-0.02227464
-0.03273177
-0.02826522
0.02345712
-0.00253132
0.03567729
0.01098892
-0.03419647
0.01222811
0.00175941
0.01791640
0.00647185
-0.05732802
0.02153706
-0.01539470
0.01086462
0.01530725
0.04238064
0.00638119
0.05616162
-0.03411260
-0.00112952
-0.00453962
0.00432662
-0.00797504
-0.02916641
0.00193960
-0.00752773
-0.07566556
0.01380395
-0.05671876
-0.05909102
0.01586909
0.01761813
-0.00721097
0.00654876
0.05474576
0.05152132
0.00027586
-0.01452499
0.05727163
-0.00238688
0.02957043
0.00900270
-0.00698505
-0.03293481
0.00306414
-0.03248050
-0.10293768
-0.06508787
0.02252655
-0.01400472
-0.00878528
0.01619799
-0.01895536
0.01284977
0.06175956
0.02153045
-0.01971010
-0.02957223
0.09490882
0.00487178
-0.06539753
0.02089923
0.05613856
-0.03530647
-0.01440324
0.03899132
-0.06531530
-0.01694941
0.04389814
0.05872486
0.04473856
0.05822175
0.02636722
0.02503439
0.02953419
0.01433791
0.00373844
-0.03976335
-0.00457045
0.02763329
-0.02298123
0.00926235
-0.03193049
-0.05217130
-0.06621017
0.01798253
-0.06639434
-0.02548738
-0.00432740
-0.03385493
-0.02986062
0.00998087
0.03595586
-0.04287401
-0.15035789
-0.05923938
-0.03334709
0.02121646
0.01188869
0.02220440
-0.03418429
0.02085978
-0.00037539
0.01769766
0.00173200
0.01616251
-0.00098547
0.00119630
0.00856243
0.04416201
-0.00925457
-0.03537101
0.01070469
0.03729191
-0.00290328
-0.02841399
-0.02368882
-0.00378521
-0.01228226
0.01429085
-0.02483151
0.01125643
-0.00771323
0.03979719
0.00876587
0.00330729
0.00552573
0.01035526
-0.02906527
-0.03082738
0.00272218
-0.01422023
0.02572290
-0.00694751
-0.02861138
-0.02509834
-0.02122892
-0.00031856
0.01362085
-0.02429817
-0.02348699
-0.02377212
0.00494787
0.03810908
0.00466328
-0.00798653
0.00727457
0.01104983
0.00368992
-0.02540696
-0.00043841
0.01274417
-0.00777757
0.01402262
0.00323066
-0.03817424
0.01860517
0.00899978
-0.01112020
0.00804713
-0.00388931
0.00545877
-0.01719538
0.00652069
0.00396834
0.01986147
0.00158342
-0.01685278
0.00743378
0.00482733
0.01348724
-0.00662602
0.00081906
-0.02504799
-0.03717023
-0.01449236
-0.01273571
0.00722949
0.01895432
-0.00877407
0.01349137
-0.00331183
-0.03079162
0.00780881
0.01936282
0.00750450
0.00992057
0.01242660
0.00549096
-0.04838904
0.00041142
-0.00927594
-0.00038478
-0.01106669
-0.00790373
-0.02585079
-0.01214015
-0.02412405
-0.00330005
-0.00603985
0.01720623
0.01648210
0.00055713
0.01540831
0.03880031
-0.00578037
-0.00558572
0.00188145
-0.00101703
0.00043154
-0.00712683
0.00252484
-0.00161973
-0.00345737
0.00728331
-0.00483412
0.01307511
0.02117368
0.00024441
0.02036826
0.01642758
-0.05072351
0.01103092
0.02398074
0.00761458
-0.01358963
0.00768840
0.09937159
0.12168332
-0.02907958
-0.07860935
0.04969821
-0.00906937
0.03967703
-0.03437164
0.02021123
0.10045774
-0.00501311
-0.01087574
0.05073265
-0.04346842
-0.03397314
-0.04112130
0.00470052
0.04338964
-0.05211654
-0.04681588
-0.00460242
-0.04415715
0.03834547
0.03313537
0.00624209
-0.06686986
0.12078144
-0.04456041
-0.07969365
-0.01334973
-0.02616359
-0.03510769
0.07901827
-0.05391091
-0.00163034
0.01346083
-0.13104430
0.01567316
0.00348767
-0.06300244
-0.15687594
0.10979082
-0.02873901
-0.02161218
0.02584114
-0.00241172
0.01852008
0.00146503
0.02720655
-0.03375276
0.02141960
0.02097515
0.07646669
0.00851120
0.03955902
-0.04293967
-0.02553215
-0.04672850
-0.08063819
0.06081026
-0.10541729
0.00735187
-0.01500060
0.00128067
0.01797204
0.00058529
0.00192472
-0.00450878
-0.00307918
0.03352496
0.00640644
-0.00736494
-0.01185253
-0.00069614
0.03252345
0.01573003
0.01198097
-0.01155004
0.00245637
0.02849913
0.00154680
0.01956694
-0.01841146
0.03893765
0.01033229
0.00330542
0.01886685
-0.00465458
-0.00603319
-0.01474833
0.01812307
-0.02240141
-0.00398327
0.00362238
0.00580262
0.00535309
0.00370910
0.01933979
0.00943857
0.02791710
0.00795413
0.00684349
0.02719842
-0.00866517
0.00289133
-0.00468285
-0.02742998
0.03316057
-0.02828104
-0.00224053
-0.00906889
0.00735652
-0.00656142
0.00624454
-0.01295569
0.01185385
0.01377196
-0.01040528
0.00446910
-0.00693321
-0.00229849
0.00540728
-0.00098795
-0.01361290
0.00054813
0.01500419
-0.00007280
-0.00797459
0.03850101
-0.01566520
0.00706088
-0.00026769
-0.06784787
0.00267066
-0.03197736
-0.06729617
-0.00490905
-0.00745014
0.00798227
-0.01958456
0.01168511
-0.04335513
0.03372123
-0.00590949
-0.00149570
-0.03247771
-0.02110584
0.08382142
0.01473929
-0.04382960
-0.00768450
0.01600519
0.00402560
-0.01356056
0.01725838
0.00811134
0.00140338
0.01437358
0.03953806
0.02379999
0.02642166
-0.00711015
-0.00001971
0.03655314
0.02059064
-0.00025286
-0.00791120
0.01205059
0.01018658
-0.00605097
-0.00075219
0.02332575
0.00599739
0.02791339
0.05714459
-0.00044367
-0.00522123
-0.06809540
0.06692625
0.02145800
-0.02881138
0.01391629
-0.02473117
0.01137709
0.01950833
0.11058834
0.01875323
-0.01228905
0.00299753
0.05545050
-0.03251736
0.02808113
-0.04558115
-0.00047967
-0.03046690
-0.01280890
-0.01425348
-0.03911055
-0.02748063
0.06653053
0.06852855
0.04820476
0.04047724
0.02848983
0.00864523
0.04650018
-0.02943969
0.05114584
-0.04928304
-0.01940255
0.00991614
0.01093967
0.04948429
-0.07197846
0.00308250
-0.04351283
-0.04217117
0.00623024
0.04033187
-0.01606930
-0.05436289
-0.05674644
0.00673785
-0.01176155
-0.04411199
0.02725432
0.07285858
0.08794673
0.04002976
-0.00239135
-0.00088728
0.02566301
-0.07399035
-0.03440392
0.00912584
0.04408608
-0.00337915
-0.01548140
-0.07046086
0.01414018
0.06179648
0.04701400
-0.01833192
-0.10995313
-0.03318090
-0.01645263
-0.03503651
-0.02600295
0.02986393
0.00030421
-0.00135131
-0.00015024
-0.04436928
0.00741242
0.00884988
-0.01248141
0.01244393
-0.00553086
0.03308502
0.03114599
-0.00395561
-0.01466972
-0.00833563
-0.00921967
0.00271681
-0.01925706
0.04071153
0.09816387
-0.02328983
-0.00698658
-0.06027536
-0.01174453
0.03106038
0.04984213
-0.03232945
-0.07721539
0.01101224
-0.03789951
0.01790884
0.00615233
0.03662326
0.07624557
0.04292088
0.03318094
0.01418161
0.04391047
-0.00039318
-0.00801781
0.04292138
-0.00885003
0.00138738
0.01528746
-0.06029001
-0.03554396
0.00336908
0.03760414
-0.00515593
0.01718099
-0.01350407
0.01924234
-0.01918645
0.04715311
0.00485376
0.08409087
-0.03779475
-0.02020186
-0.02170380
-0.03434857
-0.00956695
-0.01373476
-0.01874958
-0.03434655
0.01225765
-0.09725900
-0.01250156
-0.02593592
0.02930472
0.02918477
-0.00459162
-0.08630538
0.15817359
0.05563397
-0.03816787
0.04997182
-0.00167464
0.11333147
-0.01021979
-0.05796728
0.02524947
0.01442078
-0.06507839
-0.04016023
-0.10577596
0.05055147
0.04503644
0.14169806
0.00366220
-0.02197093
-0.04133449
0.01119597
0.01599292
-0.00892711
0.00504018
-0.05502119
-0.09018175
-0.03857743
0.10317744
-0.01519884
0.00077312
0.00871760
0.06810258
0.06557818
0.01218833
-0.02423311
0.01842199
0.09896791
0.06174643
-0.02617621
0.03445862
-0.10415150
0.01095439
0.10560188
0.06748160
0.04846401
-0.04195196
-0.00363855
0.01011909
0.04428761
0.12404083
-0.04242771
0.00812329
-0.04808188
-0.06809000
0.03269913
0.06901821
0.02104493
0.00586491
-0.03196582
-0.06228523
-0.02386936
-0.01665661
