0.25779155
-0.03077853
-0.27726969
-0.38847703
0.36841765
-0.46471632
0.51850736
0.19573930
0.00871867
0.00311313
0.05591136
0.24082266
-0.51560968
0.62017870
0.14133456
-0.16916561
-0.41994962
-0.41823456
0.09131023
0.60748136
0.30193937
-0.50550961
0.35330677
0.28206244
-0.38061577
0.26252770
0.34850749
-0.22527008
-0.23179489
0.04990980
-0.13719316
-0.01310780
0.37722015
-0.23443845
0.11978691
-0.24451697
-0.16822653
0.10539544
0.21502340
-0.45368102
-0.12537496
-0.35397437
-0.09329340
0.14270580
-0.08351164
-0.16168866
-0.22405881
-0.21922936
0.18921295
0.01386828
-0.42274874
0.15756704
0.57117146
-1.07265520
0.20316723
-0.26968068
0.03570319
-0.45938942
0.01278925
-0.27969223
-0.06743557
0.12648958
-0.75449687
-0.57180506
-0.21688107
-0.07704147
0.08040880
0.02900408
0.06033485
-0.19876857
0.10161974
0.03942521
-0.58807486
-0.28839946
0.16118424
0.32292476
0.11399259
0.10226078
0.08079734
-0.09546222
0.04197913
0.01609295
0.14858712
-0.03178143
0.23658583
0.14564425
-0.20449647
0.05247289
0.09953797
0.11062323
-0.01481261
-0.08460937
0.83360612
0.03153484
0.09856701
0.05857233
0.17658837
-0.19437790
-0.02313977
-0.10675275
-0.08358271
0.23578718
-0.03084587
-0.08253141
0.10157751
0.21367796
-0.41899621
-0.07350015
0.32034940
-0.10120571
-0.08656079
0.32273445
-0.79945666
-0.38829511
0.08775085
0.09882557
0.14594042
0.15979980
-0.08134660
0.09068503
-0.19814532
-2.18313789
-0.19101141
0.11689346
0.07276856
-0.03539920
-0.09560832
0.09074694
0.16769981
-0.09648814
-0.05898562
0.32004842
-0.12897587
0.11753804
-0.20203267
-0.32817531
-0.37609139
-0.24728215
-0.37930793
-0.74451637
-0.09823252
0.04014985
-0.16278164
0.18380523
0.20925371
-2.31909537
-0.13307314
-0.25175941
0.09789457
0.20271525
0.15451272
0.21299577
-0.16771372
0.07051505
0.06533021
0.05736030
0.38224858
0.32131365
0.22920682
0.41993508
-0.12706289
0.16591586
0.03470635
0.05569850
0.09008304
0.07552157
-0.00253020
-0.29655349
-1.70648885
-0.13616428
-0.01634333
0.24872260
0.29590937
0.50073308
0.17375685
0.51711023
-0.02724192
0.17358282
0.19529608
0.04622233
-0.12767904
-0.15709417
0.33921430
0.44340578
0.36406219
0.03970878
0.46084526
0.56007129
0.05814536
-0.02116599
-0.31091011
-0.42733040
0.59940875
-0.24488506
-0.19951981
0.05787437
-0.08577459
0.17438352
-0.23139517
0.12576233
-0.09472888
0.47019559
0.24542056
0.37364689
0.01862130
0.17672367
0.48898965
-0.12692682
-0.06631023
-0.12870695
0.05859922
-0.22684671
0.28195760
0.19972980
0.04237312
-0.42277732
-0.22370057
-0.09637585
0.73085642
0.16561098
0.11793768
0.41490754
0.23683494
-0.35036737
0.11535940
0.12638472
-0.09976892
-0.18797314
-0.01978806
0.09119704
0.21267617
-0.07741978
0.23823880
-0.09895264
0.14711545
0.25991479
0.20597406
0.19612221
0.08643083
-0.25319856
-0.26983020
0.05092173
0.03930516
0.31508359
-0.01179625
0.24796763
-0.47900361
0.03937419
-0.15620187
-0.09986401
0.31477717
0.46955928
-0.10247467
-0.04348870
0.00841720
-0.08030487
-0.29133940
-0.22965562
0.15391378
0.02049792
0.25726488
-0.05277943
0.32497510
0.10984743
0.61144310
0.30967245
-0.05740432
0.14842248
0.06755617
0.02239272
0.12112950
-0.07172471
-0.00661653
-0.09579485
-0.24788454
0.16127536
-0.02346011
-0.24698563
-0.04410733
-0.15102199
0.07396796
0.11619614
0.02270124
0.03493952
-0.16601549
-0.38706878
0.01230312
0.14317106
0.14176565
0.07116199
0.00030388
0.42849916
-0.27111292
0.01220009
0.04717166
-0.10341596
-0.36851740
0.72947276
-0.13952155
-0.19714867
-0.01203229
-0.25647727
-0.00497448
0.17163190
0.45460829
0.28798270
0.08407405
-0.27831504
-4.20503426
-0.25436249
0.09386294
0.42393422
-0.14097534
-0.32061899
0.29001853
-0.20092672
0.07988973
-0.10731973
0.08078836
0.12386471
-0.03859041
-0.01730507
0.10621805
-0.03238430
0.09472032
0.33050519
0.13068512
-0.04065971
-0.08283188
0.14092420
-0.15917188
-0.13183574
-0.23218837
0.19032498
-0.06364428
0.11414953
0.07627000
0.08022805
-0.01446941
0.38586262
-0.01444570
0.21611732
-0.20588547
0.19103400
-0.31479537
0.41714975
-0.04021972
-0.36441261
-0.32468402
-0.41473523
-0.09754899
0.30935171
-0.11351509
0.29126161
-0.16827124
-0.37891605
-0.27937722
-0.17717120
-0.18204656
-0.04833135
0.31175992
-0.16180497
-0.02825035
0.01603264
-0.08683587
0.05951146
-0.04069513
-0.02521336
-0.10682366
0.19171467
-0.36004347
-0.00525050
0.14575014
0.13395077
-0.33098066
-0.11654183
-0.05169902
-0.08545817
-0.08044654
-0.02606839
0.02726883
-0.75727153
0.25965884
-0.44027275
-0.07803074
-0.08431465
-0.24545328
0.18170607
0.02827704
-0.29942709
-0.10525494
-0.05060120
0.37777790
0.23072180
0.09023214
0.00936830
0.00671061
-0.00319794
0.05559666
-0.15697153
0.15346055
-0.16226831
0.01122168
-0.16930735
0.18144135
-0.27495530
0.27093765
-0.16177335
0.07775979
-0.01739343
-0.35944301
-0.24197859
0.00299984
0.02218629
-0.17115903
-0.00844702
0.12028076
0.10574963
0.14779864
-0.07658727
-0.24663827
-0.16265842
0.22837892
-0.25268477
-0.10427228
0.13194890
0.05536981
-0.05315819
-0.08278714
-0.28574696
0.24238588
-0.08129381
-0.11476156
-0.06215406
0.14436586
0.17578129
-0.05223908
-0.09505209
-0.12309541
-0.24028456
0.13540779
0.07974263
-0.02302094
-1.01038921
-0.09580936
0.15991983
-0.45509657
0.00283683
-0.09251650
-0.04202161
-0.12420735
0.13576381
0.49815416
-0.22488970
0.08640130
-0.03218086
0.04602413
0.10782746
-0.19737853
-0.24704523
0.17003343
-0.14377163
0.06083598
0.37176892
0.28434160
-0.49227288
-0.35587758
0.27315217
0.25844848
0.03601769
0.19521810
-0.17843145
-0.16050573
-0.08716710
0.10288019
0.25660008
-0.30729589
-0.07095075
-0.13980305
-0.11662578
-0.24542040
0.21354072
0.22250624
0.04830186
-0.02638322
0.13434504
-0.00278072
0.32373160
-0.25855228
-0.12900603
-0.12035357
-0.36396468
0.31163064
-0.29464144
-0.55447781
-0.20348050
-1.04310071
0.11942830
-0.21489425
-0.06038813
-0.14262535
0.09825365
0.01131323
0.08684258
0.12204514
-0.22595450
0.22344451
-0.01091018
-0.29115754
0.02990437
-0.10634071
-0.25079685
0.53799707
0.00273633
-0.28435883
0.22562492
-0.15354890
-0.00961407
-0.35159823
-0.07414488
-0.18211059
0.23844047
0.16108552
0.00521703
-0.31516880
0.05537189
0.06309096
0.03912544
0.06396232
0.01922069
-0.04327451
-0.13064267
0.17295198
-0.11225045
-0.08644685
-0.23046482
-0.27106345
0.23793224
0.19401467
-0.13288435
0.33715212
-2.04082704
-0.12685797
0.24828239
0.03809575
-0.57901394
-0.40854466
-0.47542307
0.21447515
0.39829609
0.01658862
-0.12843539
0.11775428
0.18905401
0.13855422
-0.05261286
0.18298900
0.28172442
0.06488858
-0.11898407
-0.09364442
-0.42898548
-0.31067535
-0.23765555
0.13885808
0.10110794
0.05471010
-0.06854028
-0.07170168
-0.05379321
0.26246512
-0.05196818
0.02786900
-0.31397283
0.15930913
0.05057120
0.00239914
-0.42980206
0.09460483
0.01828340
-0.09345811
-0.27621272
0.39826691
0.10785331
0.08000766
0.17207345
0.56881952
-0.04898976
-0.19812694
-0.17303623
0.02961106
-0.31767869
0.17857496
-0.02762737
0.25044662
-0.03436801
0.14131214
0.06089297
0.10879900
0.09351455
0.03529455
0.20937665
-0.22219132
0.01425555
0.04199655
0.35205790
0.23681636
0.36627302
0.07485189
0.04111145
-0.01502766
0.14411478
0.04105048
0.07100587
0.27072799
0.01040949
0.28576732
-0.11551845
0.16380917
0.33565190
0.09117817
-0.16103506
0.06831060
0.03882098
-0.00376381
-0.03684906
0.16129896
-0.30215672
0.04125687
-0.02357033
0.09541788
0.03630478
-0.13092889
0.06862928
0.22441585
-0.06798632
0.18032631
0.08566153
0.08660638
0.33871490
-0.25409055
-0.03164944
0.15144184
0.00020081
-0.15954310
-0.05035990
0.31933501
-0.10286538
0.01696641
0.28538448
-0.17525735
0.02432873
-0.11035739
0.15191096
-2.18356299
0.07932202
-0.27441049
-0.19575888
0.03383964
0.10628971
0.02342114
-0.20076379
0.08818708
-0.00167836
0.09198811
-0.29273775
0.02822785
-0.51979154
0.07998611
-0.07768548
-0.51658154
0.30614018
-0.00399451
-0.17504725
-0.01764730
0.12385749
0.58741987
0.26090527
0.02796041
-0.34599718
0.11716743
-0.06174882
0.53777605
-0.04113625
-0.05901384
-0.24886075
0.15766564
-0.35779461
-0.21397270
0.11481219
0.07515477
0.43344003
0.05583725
0.03533950
-0.30471838
0.39933896
-0.15702397
-0.14878017
-0.01771898
-0.11608404
0.25856423
-0.00166433
-0.65222979
0.16385178
-0.27505404
0.10383705
0.37984005
0.21218346
0.02501720
-0.18059371
-0.02272075
0.27475137
-0.08284336
0.07343953
-0.14868686
0.28977275
-0.09619370
0.14088817
-0.05163909
0.20426999
-0.04032385
-0.22648686
0.13112736
0.07032724
0.21987078
0.01770845
0.00531457
0.09057707
-0.33763146
0.01487551
-0.14211017
0.23518673
-0.11914052
0.18204072
0.37865272
0.11440729
0.14692710
-0.18860312
-0.33451703
0.11413708
-0.12544946
-0.04516361
0.35454047
-0.20421647
0.21009687
0.09723251
-0.06032131
0.04088782
-0.06979079
0.09120701
0.03440017
-0.26270238
-0.13779908
0.46467796
-0.07595726
0.27630073
-0.71749717
0.23536344
-0.19085450
0.14374524
0.19734339
0.08409949
-0.07552702
-0.26765710
0.06821806
0.16432591
-0.09021619
-0.12453017
