0.00511063
-0.01666250
0.02812938
-0.01166061
0.01942627
-0.04316470
-0.01697223
0.00857614
-0.01362035
0.01316355
0.02570612
0.05213515
0.05140883
-0.03139083
-0.01787839
0.03102120
0.03179858
-0.01129934
-0.00249105
-0.00230364
-0.00052740
0.01746983
-0.01686197
0.01851655
0.00241184
0.00482177
-0.00520955
0.02410076
0.01274905
0.05550770
0.01741798
0.02975562
0.01274851
0.01070636
-0.00634547
0.01978278
-0.05076006
0.02130449
-0.00125459
-0.00875083
-0.04055307
-0.02253873
0.03785584
0.03238198
-0.00613549
0.04060213
-0.00024438
-0.02703151
0.02560518
-0.03022162
0.01727729
0.01393063
0.00005633
0.01300009
0.05199159
-0.02081614
0.00814039
-0.01189485
-0.01365439
0.01981379
0.00693209
0.03262889
-0.04065094
-0.03673422
-0.04066671
-0.01684897
0.00132674
-0.01567558
-0.02684965
0.04270339
0.02361306
-0.00739545
0.00357079
-0.00035703
-0.01163686
-0.00299415
-0.00154301
-0.13561702
0.03194373
-0.01186241
0.02976942
0.05941636
0.00521250
0.02511772
0.03797458
-0.04506538
0.03149293
-0.03901286
-0.00959383
-0.03801630
-0.03118953
-0.02915635
0.05911676
0.02141279
0.03226427
0.04936603
-0.06885123
0.06255329
0.02690552
0.00123446
0.00133933
0.00464472
-0.04099757
0.00541002
-0.01003601
-0.13919686
0.00086528
-0.06403258
0.03680589
-0.01712687
0.02951639
0.02619064
-0.00202068
0.01812958
0.04545892
0.01549127
0.00083099
0.01458849
0.02625282
-0.02996479
-0.02248551
-0.14013992
0.01860453
0.02528251
0.04867798
-0.00007658
-0.06221819
0.04073009
0.03713878
0.05968300
-0.03666136
-0.01070217
-0.03224558
-0.01185032
-0.01451063
-0.02444884
-0.04934210
-0.04669494
0.03036901
-0.06563000
-0.01051010
-0.00598694
-0.01945027
0.03022497
-0.00197638
-0.18825661
-0.02854597
0.00631969
-0.04342904
0.04225156
-0.00208544
0.04482772
0.01688984
0.01157663
-0.00651316
-0.03444279
0.01774959
-0.00846274
0.04451662
0.12987274
-0.00643130
0.00084332
0.04146390
-0.01724455
0.02959431
0.02193150
-0.03370645
-0.00993722
0.10292704
0.02605265
-0.00271865
-0.02857196
0.00345281
-0.00625123
0.00821954
0.14768931
-0.04116656
0.02083842
0.00908401
0.04701459
-0.00183150
-0.01942597
-0.00184285
0.00890076
-0.02283885
0.02097803
0.02549603
0.01835326
-0.00387296
0.00610361
-0.02075215
0.04502237
0.04344716
0.01567720
-0.05941222
-0.00113075
-0.02694028
-0.01697946
-0.02215410
0.03503264
0.03117360
0.02722605
-0.06811041
0.00858449
0.03451699
-0.01636243
-0.02082733
-0.00533318
0.00378267
-0.01938748
0.01430511
0.02857474
-0.03974339
-0.00774151
-0.02986082
-0.08342084
-0.10913076
0.00378911
-0.08385805
-0.01829619
-0.04818596
-0.00179110
-0.00445835
-0.03141868
0.01574443
-0.12721378
-0.05112247
-0.03927750
-0.01670184
-0.02921963
0.00322816
0.00020878
0.03830102
-0.00171121
0.03361577
0.01797465
-0.02115272
-0.03730534
0.01521069
-0.01777164
-0.00242849
0.03623549
-0.00278775
-0.01302219
-0.02725524
-0.12491494
-0.02010375
0.04630414
-0.00388157
-0.01507791
-0.01074837
0.03729144
0.01717514
0.03209036
0.01903129
0.04961591
-0.02041768
0.02661403
0.04231243
0.02015288
0.01090241
0.04488827
0.02957253
0.03319339
-0.04940278
0.01229787
0.00552011
0.04711398
-0.05324877
0.02661183
-0.06026632
0.02293773
0.01868544
0.02288429
0.00789689
0.00325976
-0.03874310
-0.02940862
0.00315902
0.01942491
-0.04131454
0.00427378
-0.02242841
-0.06893182
0.00784224
0.00518161
0.03112918
-0.02188430
-0.05811324
0.01704600
-0.00105566
-0.01309171
0.00325783
-0.01015822
0.03159107
-0.05632966
-0.04602264
0.02634098
0.01261252
-0.00474741
-0.00997300
0.00272393
0.02245114
0.00700041
-0.02747806
0.01217544
-0.06074722
-0.00524083
-0.30732071
-0.00928201
-0.01292941
0.03847447
0.00558669
-0.01113729
-0.03216685
0.04082289
0.00884210
0.01873444
-0.01486165
-0.02347050
0.01371384
-0.00555737
0.01321823
-0.01109600
0.01209815
-0.02059662
-0.00230472
-0.00991688
-0.03570465
0.00511218
0.02216742
-0.06857049
0.06182009
-0.02706124
0.01045669
-0.02523851
-0.02786011
0.02582382
0.02532553
-0.00327686
-0.00790994
-0.02362939
-0.03457481
-0.01795860
0.01676036
-0.03849684
-0.02176963
-0.01171063
0.00354206
-0.02860406
0.01847511
0.00508968
0.00935778
-0.04226616
-0.02208639
-0.04939283
0.00353251
-0.01554311
-0.00785235
0.00537211
-0.03590114
-0.01019038
-0.03582120
0.01838863
-0.01892377
-0.01673980
-0.01651614
-0.01030804
0.00358098
0.09185887
-0.03289177
-0.01384888
-0.01185702
-0.00133737
-0.03042970
-0.01383595
-0.01311728
-0.00074096
0.05961881
-0.00366286
-0.00391987
-0.02794846
0.02243484
0.00632949
-0.00584580
-0.01208952
0.00365904
-0.01170689
-0.03967949
0.01174544
0.01605755
-0.01844577
0.02369578
-0.01723270
0.00521043
-0.03531979
-0.02330932
0.01809539
0.02675775
-0.02112249
0.02724184
0.09859444
0.02364600
-0.01938586
-0.01932080
-0.00548682
0.01483101
-0.01620090
-0.01501745
-0.00057931
0.06086746
0.01276758
-0.02260964
0.05881656
-0.00838555
-0.05701220
0.01300673
0.06676108
0.00395184
0.05295115
-0.00447534
0.00094536
-0.00724919
0.00852627
0.02075530
0.02074382
0.03094104
-0.02642502
-0.02341704
0.03053472
0.03970033
0.01039045
-0.03631015
0.00769535
0.01213167
-0.02524187
0.00434460
-0.06989001
0.01747470
-0.04511006
0.04123025
-0.02256789
0.00556506
-0.06544760
0.01057998
0.01091278
-0.03030600
0.00555914
0.02759905
-0.01247200
-0.04809191
0.02190519
-0.00089662
-0.00457476
-0.02830586
-0.00399271
0.00332723
0.00345824
-0.04549818
-0.01865965
0.04491728
-0.06194693
-0.01054305
0.02874777
0.01173258
0.02973079
0.00521786
-0.02376418
-0.08445162
0.05258181
-0.00883951
-0.00029887
-0.03441175
-0.01629493
-0.00455262
0.04263910
-0.06760815
-0.03071102
0.02665791
-0.01305041
0.00771826
-0.04224433
0.05855225
-0.02463536
0.02815227
0.01384408
-0.01967455
0.00833597
0.00565749
-0.03176297
-0.01715884
-0.01189587
-0.05435533
-0.02007888
-0.02057426
-0.01848190
-0.03790396
-0.01077914
0.01040189
-0.01572187
0.00406928
0.01111309
0.01872609
0.04602444
0.06226946
-0.00763135
0.04170765
0.00575069
-0.01465967
-0.01365687
-0.05419049
-0.00580738
-0.00151825
0.02327214
0.00296585
0.02840485
-0.02081683
-0.03752151
0.02224720
-0.00255623
0.01837880
0.02947700
0.01702802
0.01817973
-0.04254275
0.02448094
0.00269025
0.01915190
0.01473175
0.05275275
-0.00771812
0.01037930
-0.01616577
-0.02981190
0.03172351
0.01156503
0.00247202
0.06638994
-0.00299019
-0.04403918
0.02881254
-0.17389369
-0.00448333
-0.02920543
0.04248893
0.00491637
0.00416831
-0.02670380
0.02489915
0.03330250
-0.01754333
0.02404805
-0.00633404
-0.00753711
0.00681337
-0.02430197
0.02735880
-0.00197769
-0.01100428
-0.00965179
-0.00619364
-0.02994259
0.01247565
0.02029062
-0.01749488
-0.01048459
0.00972430
0.00007313
-0.00853395
-0.00551062
0.02253551
0.01388310
-0.01008093
-0.02871601
0.04279523
-0.00188102
-0.02850731
-0.15086713
0.02219339
0.03289636
0.01746032
0.00440893
0.05556453
0.01022685
0.01592390
0.00250846
0.00989561
-0.02241428
-0.02811533
0.00758120
0.02352785
0.03731953
0.01409066
0.06082328
0.00792170
0.02723017
0.00445735
0.04160783
0.04424818
-0.00025535
-0.03985409
0.01775345
-0.03140108
0.06268787
0.00760329
0.04353717
0.00354224
0.03829200
-0.01832067
-0.01562274
-0.01459605
0.01796814
0.01278330
-0.00101617
-0.05107225
0.01912494
-0.01852971
-0.02780221
-0.03151239
-0.02802387
0.02165127
0.02141731
-0.00169495
0.04428077
-0.03114399
0.04112109
0.01044333
0.00297462
0.03015315
0.02493906
0.00480333
-0.00420750
0.01962845
-0.02611155
-0.03704254
0.05221320
-0.00474602
0.02916739
-0.04823493
0.01224417
-0.00629488
-0.01565439
0.00459048
-0.06394956
0.00119958
0.01617768
0.04384887
-0.04367005
0.02578951
0.01998629
0.01223308
0.05312696
-0.04753671
0.06389169
-0.12306163
-0.01876258
0.03678400
0.01224712
-0.00335629
0.01649446
0.01244977
0.00471462
-0.00386514
-0.04793439
0.01908034
-0.01104075
-0.01421646
0.00138119
0.01918787
0.00729141
-0.11935224
-0.04304994
-0.02166166
-0.00107160
0.02976615
-0.01942375
0.05824656
0.03653861
-0.00770725
0.00913153
-0.02761718
0.02453626
0.04550601
0.04102656
-0.01165849
0.07885478
-0.03616549
-0.03682489
-0.01712984
0.00730540
-0.02695426
0.00850123
0.02863745
-0.01431980
-0.00436267
-0.00781561
0.02669348
-0.00729722
0.01788926
-0.03181814
0.01701295
0.01094821
-0.00196543
0.06372315
-0.03826784
0.01354437
0.00499782
0.02539278
-0.01068319
-0.00253385
0.00901743
0.04962508
0.01014558
-0.00063194
-0.00392112
0.02781655
0.01497092
-0.01073925
0.01366752
-0.00230808
-0.00282779
0.01136885
0.00584735
-0.01677145
0.00786857
-0.03232653
0.00563957
-0.00087094
0.03177991
-0.00986364
-0.01871783
0.02081100
0.00147637
0.00522728
0.05332379
-0.01868810
0.00327063
0.03475205
-0.02239774
-0.00847777
0.03384993
0.02934602
0.01265125
0.05066981
0.00398403
-0.01036852
-0.05936651
0.00417943
-0.02816066
-0.01611809
0.01222828
0.01557215
-0.01420847
0.01744947
-0.00926141
-0.02058186
0.01835183
0.01611280
-0.02094692
0.00810288
-0.00822415
0.00050418
-0.02014177
-0.03305743
-0.03477724
-0.03681296
0.01885433
-0.02856294
