-0.00216820
0.01711399
-0.04201518
0.01605333
0.00552063
0.01239802
-0.03885661
0.01421837
-0.03843602
-0.00604614
0.01051752
-0.00380080
0.08272984
-0.05025278
-0.00082319
0.02450033
0.05796243
0.00335572
-0.00928573
-0.06156864
-0.05536887
0.01995724
-0.04929525
-0.04325630
0.06367986
-0.02346171
-0.06546032
0.03445348
0.00911691
-0.00871267
0.04700445
0.01400831
-0.03179191
-0.01312593
-0.03916448
0.02763610
0.05506993
-0.02768891
-0.02707029
-0.03277449
-0.00768460
-0.00974464
0.01645361
-0.04182658
0.05557477
-0.01692208
-0.00291549
0.01537260
-0.00586134
-0.03986719
0.04691890
-0.01657935
-0.04086722
0.05229004
0.03484721
0.00154703
-0.02761765
-0.02958981
0.00614223
-0.02701596
0.01694004
-0.01036927
0.06836345
0.00973621
-0.03345912
-0.03205021
0.00127532
0.00275241
-0.03203612
0.00677154
0.02651408
0.00296574
0.04819633
0.03454844
-0.03867259
0.05655931
0.05611422
-0.04830936
-0.06243310
-0.05655373
0.04089750
-0.01762473
-0.00471301
0.04217970
0.01103925
-0.03626599
0.02514205
-0.01912203
-0.02014945
0.00841818
-0.00001308
-0.02847462
-0.09617564
0.04810333
0.03730391
0.05238770
-0.03201965
0.06432822
0.01785704
0.01663853
-0.00434834
-0.03082473
-0.02017871
0.03017253
-0.02361328
0.04575876
0.00184347
-0.00423852
-0.02358902
-0.00441644
-0.02701009
0.01585076
-0.00470788
0.01642022
-0.00293772
0.00354486
0.00501462
0.00468362
0.00283879
-0.06008020
-0.02669942
0.08652786
0.04031388
-0.05081631
-0.00471883
0.01110219
0.03177078
-0.01108571
0.02134887
0.09009688
0.03423440
-0.02939503
-0.03060951
-0.05174367
-0.00807544
0.00412328
0.01415414
-0.04371495
-0.01735473
0.01775486
0.01051519
0.05038371
-0.01979467
0.01161197
-0.03727097
0.13389237
0.03354653
0.02691690
-0.04610929
-0.01131474
-0.02725942
0.01113332
-0.04937007
-0.01412812
0.01187185
-0.00599130
-0.00652519
-0.03854621
-0.03710885
-0.08687289
-0.03368580
0.00152101
0.06323084
0.02890662
-0.00638913
-0.00054834
-0.03319598
0.02423283
0.15305856
0.03067227
-0.00313922
0.01409786
-0.00661305
-0.03558968
-0.00778172
0.04915753
0.01595556
-0.00801327
0.05516387
-0.02953860
-0.04642608
0.00046241
0.03025393
-0.04011976
-0.02245350
0.00493354
-0.03582511
-0.02774033
-0.04118435
-0.02970918
0.00211665
0.03274932
-0.02232314
0.03514918
0.03411599
-0.00900816
-0.02167785
-0.08249695
-0.03883575
0.06718267
0.02128259
-0.07486842
-0.08047401
-0.07023217
-0.01826578
-0.02056069
0.02873357
-0.00515887
-0.01079823
0.01071811
-0.02762751
0.03458403
0.00842944
-0.05483879
-0.01462077
0.01427446
0.01507717
0.01635846
-0.10799246
0.01127429
0.01193480
-0.00971019
-0.01898690
-0.00068955
-0.01165462
-0.07240108
-0.02487386
0.03705825
-0.01018987
0.00643497
-0.01055405
0.01363443
-0.00822207
-0.00044436
-0.01384952
-0.01881123
-0.03473813
0.01677876
-0.02011788
0.02801469
-0.03857625
-0.03500649
0.03849876
0.01106119
0.02165873
0.04689599
-0.06404297
-0.04018122
0.03032285
0.05275727
-0.01627318
-0.04443111
0.00353440
0.00586175
-0.03749611
-0.01325966
0.01296206
0.03363277
0.02051425
0.02904225
0.06569754
0.01711410
-0.02479511
0.04640614
-0.02278325
-0.00926941
-0.00464094
0.00469486
-0.00173396
0.01520423
-0.02300404
0.00905489
0.01709345
-0.00741143
0.01904168
-0.04902599
0.00923735
0.04946120
0.03999150
0.02595687
-0.02010096
-0.02771790
-0.01832269
0.02715176
0.03219752
-0.02292724
-0.01349458
-0.02399514
0.02156970
0.00624733
-0.02898218
-0.00814284
0.02627005
0.00771203
-0.00394172
-0.01524561
-0.04208898
-0.01487458
-0.01177178
-0.04277420
0.00849545
0.03245274
0.01409345
-0.01033896
-0.10088979
-0.02937850
0.01986763
0.01248840
0.77097774
-0.03684318
-0.00898061
-0.07064345
0.00133689
-0.00487908
-0.01056288
0.05460956
-0.01702069
-0.04390107
-0.01254762
-0.06063002
-0.00331523
-0.02770374
-0.00390003
0.04467674
0.03680734
-0.04954071
-0.08324309
0.02982031
-0.01849176
-0.03156342
0.04994261
-0.11525600
0.01579989
-0.01647711
0.03923734
-0.01419237
0.01269094
-0.00836724
0.01206156
0.00654068
0.01406749
-0.03120905
-0.05719890
0.00891489
-0.00732490
0.01270891
-0.03595650
-0.01062114
0.00392656
0.01608702
0.02705614
-0.02317346
0.01563514
-0.10931794
0.00968477
0.00897954
-0.00047885
0.02628709
-0.01212979
-0.04783961
0.02004552
-0.03090299
-0.01057331
-0.00720845
-0.03042035
0.02799848
-0.05886165
-0.06136776
-0.02421631
0.00066708
0.00958367
0.02692436
-0.03416841
0.01981718
-0.00999405
0.01330856
0.01363847
0.02442514
0.03846473
-0.01137129
0.00279416
0.06775258
-0.04479922
0.05529131
-0.01343671
0.03742694
0.02149325
-0.02488071
0.01862602
-0.05388799
0.01635990
-0.05569312
0.00269344
-0.04527749
-0.02215004
0.00025483
0.03195076
0.04593264
0.00952424
0.01475503
0.04235974
0.02950497
-0.00024884
0.01897649
-0.00072258
0.02778762
0.00260935
-0.02810704
0.00674897
0.01459286
0.02232692
0.02074877
0.01468701
0.02149284
-0.04463990
0.00740142
-0.01711836
0.00926343
0.02469293
-0.09204877
0.04313670
0.07496931
-0.01853618
0.00316742
0.05637376
-0.03660908
-0.02779323
-0.04396405
0.01021641
-0.07706795
0.03096984
0.01302949
0.02662965
0.00222373
-0.01653687
-0.00784326
0.01489316
0.02935761
-0.00115064
-0.05364394
0.03135164
-0.00808701
0.01179723
0.05619644
0.01743210
0.02268245
0.01532959
-0.01163487
0.04010132
0.04058391
-0.01199127
0.01605638
-0.00720147
-0.00803034
0.00628070
0.03172406
0.01967665
-0.02962334
-0.01407215
0.01097739
-0.01497178
0.06056658
-0.00285094
-0.00204228
0.05883843
-0.03356236
0.00366765
0.02872373
-0.01903300
0.06890223
-0.00652602
0.00189095
0.00276565
0.03571014
-0.00556875
0.00785194
-0.04171658
-0.03068579
0.04237450
-0.00978508
0.00739398
-0.03891065
0.07795773
-0.02598843
0.01930791
-0.02299062
-0.02509264
-0.02943988
0.04085504
-0.06500500
-0.00628820
0.00615732
-0.06822662
0.01410863
0.01302293
0.01619277
-0.09549199
0.01519805
-0.00936134
-0.00990913
0.00348402
-0.01938138
0.01262094
-0.05017102
0.02300104
-0.01632362
-0.02544103
0.00282972
0.01576438
-0.01536510
-0.01566182
-0.00185453
0.04056907
-0.00041929
0.02008026
-0.05073801
0.00461243
-0.00812297
0.00509660
-0.00375722
-0.00195875
-0.03902693
0.01298194
0.02293869
-0.01500627
0.03794538
-0.00183636
-0.02461152
-0.01271658
-0.02295070
0.05192785
0.01722150
-0.02660593
-0.04345932
0.00125602
-0.00532814
-0.03019948
-0.03019968
0.00826195
0.00778246
0.00643864
0.01491947
0.02466201
-0.01200508
0.00406907
0.07711928
0.04402784
0.01591608
0.00422602
-0.01185934
0.00322995
0.08536970
0.02706596
0.00091669
0.03048776
0.01304318
0.01418706
0.02948599
-0.01985966
0.00300168
-0.00850865
0.02292498
0.02066238
0.02324575
-0.02967837
-0.01965841
-0.00473154
0.03979271
-0.00330625
0.02081867
-0.00444847
0.04017373
0.05221769
0.06953885
0.02080765
-0.00071788
0.02016472
-0.00395926
-0.00686024
0.03085504
0.01809330
0.00323229
-0.02371468
-0.02179436
0.03412792
0.00503605
-0.06956682
0.00128071
0.04141260
0.03723394
-0.02868686
0.01547244
-0.01007911
0.01580481
0.03206678
0.02051740
-0.01695351
0.02545244
-0.02312899
-0.02004211
0.00104233
0.01029738
0.04155555
0.00320368
-0.04572392
-0.10612835
-0.02389674
0.07873580
-0.00288048
0.05309292
-0.02874439
0.05685828
0.01994170
-0.05134746
-0.02181426
0.02787634
0.01957581
-0.00275487
0.04352879
0.02538160
-0.03566240
-0.00497390
-0.00230173
-0.02217802
-0.01765992
-0.01228030
-0.02850258
-0.04283785
-0.00532067
-0.00573397
-0.07264968
-0.06366255
0.06272716
-0.03617668
-0.01071598
0.02466933
0.00399130
0.00457642
-0.06956881
0.02278470
0.00685009
-0.03526647
0.01413036
-0.09056627
0.03984301
-0.02598667
0.00824358
-0.00102199
0.07947440
0.02785158
0.01490730
-0.01556121
-0.01782593
0.05660427
-0.00329918
-0.03668824
0.04731676
0.01148520
0.02171297
0.04687457
-0.05299103
0.00624515
-0.03146476
0.03800537
-0.02484137
-0.00906945
-0.01896219
0.00082102
-0.03132204
0.01334871
-0.10046278
-0.03768748
0.02136322
-0.00120402
0.00914505
-0.00627322
-0.03227864
-0.01749820
0.01129219
0.01750692
-0.02728616
0.00620362
-0.00768283
0.00688838
0.01696325
0.05055703
-0.06452210
-0.01384088
0.01759556
0.00860855
-0.00401499
-0.02761305
0.00232317
0.01017366
0.03828981
-0.02011195
0.00411241
-0.02428186
0.02400229
-0.00947679
-0.01540080
-0.01136883
0.02410709
-0.03049283
-0.03219572
-0.03580331
-0.02016811
0.00412269
0.03277996
0.00176538
0.08175733
0.00135254
0.01575531
0.03169551
0.01381443
-0.00970931
-0.02137594
-0.00068283
0.00621890
-0.00695300
0.03135597
-0.02853741
-0.04552736
0.01055341
0.05162441
0.00523689
0.05661315
-0.00281122
0.04584435
0.00702981
-0.00015992
-0.01681560
-0.04123444
-0.02136733
-0.03271900
0.02494665
-0.03247006
-0.00407028
0.00796932
-0.02474316
0.00266147
-0.04577237
-0.00208798
0.03562313
0.00222865
-0.05126736
-0.03481872
-0.05596785
0.00053673
0.00819066
-0.02155170
-0.01452585
-0.02451755
-0.00662617
0.05486478
0.01869149
0.04211309
0.00160930
0.03869753
0.00673558
-0.04273548
0.01514232
-0.02166025
-0.01700411
0.04072338
-0.00512256
-0.00513712
-0.02370553
