-0.06841327
-0.01468480
0.09792476
-0.23284538
0.27856019
-0.09112787
0.08824957
0.13664597
-0.02813098
-0.10412303
-0.10079164
0.07001892
-0.06432588
0.08950256
-0.04999359
0.08997370
-0.02796050
0.00750327
-0.08236773
0.08245684
0.20410196
-0.13861731
0.08669925
0.40603507
-0.04087593
0.19090883
0.12762326
-0.13673370
-0.21507034
0.00020646
-0.00411683
0.03398789
0.14856443
-0.15327121
0.06155335
-0.03238806
-0.24306944
0.12527314
0.15861027
-0.26779178
-0.12451896
-0.08519378
0.07976466
0.10476521
-0.05102264
-0.19498222
-0.01963661
-0.09900818
-0.02968480
-0.01391611
-0.16058621
-0.10926352
0.19203861
-0.31857899
0.05919421
0.06887978
0.05259451
-0.18563044
-0.03185992
-0.00133996
-0.08510908
0.11846512
-0.10633226
-0.10765735
-0.02004094
0.10122136
-0.09544115
-0.02575710
-0.02158007
-0.17249008
-0.19298792
0.06096444
-0.10986433
-0.13449129
0.07894841
-0.04271965
-0.10930197
0.10151911
0.01533806
0.04784418
-0.06228201
0.01511759
0.10789187
0.15356085
-0.04956111
-0.22780350
-0.00099362
-0.04315538
-0.04588998
0.04212666
-0.08469338
-0.22917508
0.62738431
-0.06677097
0.09669472
-0.10026561
0.23972951
-0.11050086
-0.05834974
-0.08111370
0.01702327
0.07520989
-0.02627253
-0.05001524
0.04901075
0.00692223
-0.08574280
-0.11984405
-0.08193417
-0.02863797
-0.16781418
-0.00895661
-0.29741728
-0.11435515
-0.02535488
0.01924507
0.03090509
-0.01323064
-0.17386539
0.09191153
-0.09629356
-0.14875005
-0.06401761
0.06958391
0.12863447
-0.25615391
-0.06917665
0.22179173
-0.12918419
-0.03090707
-0.10416389
0.14876732
-0.15591750
-0.10272787
-0.08293124
-0.07252007
0.00339273
0.08005490
-0.13827239
-0.18813415
-0.10797820
-0.03194606
0.01434459
0.05437335
-0.00857760
-0.49808076
-0.07064623
0.02984097
-0.08733810
0.23897660
0.10324309
0.17185356
-0.09474270
0.08113481
-0.00886248
0.05892685
0.10045306
0.18999341
0.04961924
-0.21625264
0.00982301
-0.15052971
-0.08839294
0.05173441
-0.01729705
0.05962129
0.16417305
-0.02635735
-0.46793818
-0.16533968
-0.16453420
-0.06032672
-0.10038254
0.21235406
-0.02460826
0.22982110
0.00545007
0.14479049
0.16693692
-0.05939996
-0.01049153
-0.01878075
-0.12720722
0.12032422
0.08658707
-0.07854295
0.13053824
0.17380075
0.05625200
0.09506263
-0.00626045
-0.30282417
0.21641192
-0.03540913
0.10195503
0.08152370
-0.02245024
0.19719580
0.02987238
-0.11372377
-0.21850336
0.04209083
0.13902444
0.08019432
-0.15349077
0.12548825
0.06181022
-0.14125708
0.05381464
0.09518551
-0.06114649
-0.09544820
0.00669960
0.18819521
0.07146512
-0.07171671
-0.20179074
-0.08342456
0.16248330
-0.11952505
-0.06594589
0.20023090
-0.04752101
0.06198004
-0.10992800
0.22824366
0.05786900
-0.20957138
0.02635330
-0.05274225
-0.00243692
-0.03065048
0.07416882
-0.01014696
-0.00078982
0.16887783
-0.01476557
-0.19213702
0.01458566
-0.20227960
0.01232314
0.10994323
-0.17867248
0.02262758
-0.00451124
-0.06538496
-0.11411943
0.06007796
-0.19050083
-0.22420071
-0.03239063
0.42865756
0.04107957
-0.06456194
0.00900994
-0.06639664
-0.38663825
-0.00467595
0.03303326
-0.08099301
-0.00786622
-0.13729659
0.01775922
0.00723313
-0.09259870
-0.11557400
-0.05102163
0.02656636
0.07426121
-0.04814579
0.00993679
-0.01803041
-0.11669043
0.10393760
-0.03541111
0.08989109
-0.13748206
-0.15533170
-0.16917706
-0.12368126
0.09765195
0.01246284
-0.10896046
-0.24045259
-0.24021906
0.10052661
0.12797144
0.19154540
0.02881371
-0.01707486
0.06613116
-0.14223388
-0.09902596
-0.04112799
0.09762525
-0.06712338
-0.00802356
0.28599030
0.06302438
-0.02451700
-0.03716805
0.07831065
-0.14958595
0.08983728
0.31989443
-0.03980874
-0.08732701
-0.06422815
-1.11585653
0.00721032
-0.06493217
-0.09364737
0.11435723
0.03060825
-0.09026068
0.02161390
0.04279596
-0.01969124
-0.16560709
0.00141139
-0.24439462
0.05850782
0.13968648
-0.29009399
-0.13037732
0.10303354
-0.07162516
-0.18463786
-0.03955173
-0.09860662
-0.04664251
-0.05955877
0.07751068
0.06565402
-0.06989274
0.05017076
-0.06815371
-0.16578668
-0.03818672
-0.07356369
-0.03921131
-0.02980277
0.14025250
-0.04574119
0.03036818
-0.01996807
0.05687222
-0.10293965
-0.17294399
-0.23538233
-0.17551415
0.01818544
0.04880431
0.00381190
-0.01716556
-0.04591378
0.11702968
0.08330942
-0.01307148
0.06311592
0.02261120
0.06704280
-0.00897316
0.01917759
0.01812306
-0.08434893
-0.06681530
0.13596274
-0.11523108
-0.14106716
-0.08085934
-0.07084370
0.03702800
-0.04425485
-0.18313107
-0.00721922
0.02169846
-0.14654689
-0.19547877
0.06960110
-0.02309708
-1.39599919
0.05796833
-0.21191043
0.07724431
-0.12873477
-0.31151372
0.07338255
-0.08491373
-0.03302074
0.10113468
0.05947702
0.13377358
-0.10958543
0.03537197
-0.04019947
-0.17281333
-0.21721253
0.06988233
-0.10424624
-0.09559778
-0.17582248
0.15404201
-0.13260546
-0.06307314
-0.12300391
0.05120516
-0.11124159
0.14006154
-0.15452547
-0.11276788
-0.06351538
-0.00540863
-0.00112496
-0.15717781
0.04990965
-0.05253504
-0.02826833
0.08264081
0.03636069
-0.15047155
-0.17742103
0.04159759
-0.00803932
-0.21642074
0.18160492
0.03980869
-0.21557420
-0.23357353
0.11747697
0.07590106
-0.25071400
-0.22759758
0.24158120
-0.19919680
0.10629220
-0.20798780
-0.04234059
-0.16591348
-0.05040731
0.05141805
0.04584819
0.15718754
-0.12281086
0.01665256
-0.03810529
-0.21069278
0.04520075
-0.08010358
-0.23977154
-0.01700124
-0.06866374
0.11686829
-0.15590975
0.09170738
0.03491506
-0.12525001
0.12920016
-0.09674054
-0.11361787
0.03574950
-0.24381378
-0.09856502
0.12220193
0.09546681
-0.11720169
-0.06355066
-0.10807984
0.03675277
-0.01172424
0.03601090
-0.12096788
-0.07956231
-0.05020890
-0.03013449
-0.07558771
-0.14163846
0.07575551
-0.19802859
-0.10804284
0.10304236
0.16736989
-0.16565622
0.00046699
-0.05174686
-0.00132541
0.09341536
0.08781465
-0.21816830
-0.03323408
-0.06053239
-0.00012367
0.04573512
-0.01999141
-0.01675441
-0.07446401
0.04665080
0.02712762
-0.07953895
0.01070054
0.11578479
0.11617190
-0.04822187
-0.02496315
-0.02976050
0.03948503
-0.11064799
-0.05389442
-0.14495485
0.04012687
-0.14562245
-0.05694390
-0.03259823
-0.11129467
-0.10190897
0.25793979
-0.06572915
-0.02210436
-0.23916504
0.08326863
-0.11649145
0.29952571
0.09973323
-0.12287954
0.02871768
-0.02749435
0.02115999
-0.07054297
0.08084801
0.11905394
-0.00891253
-0.16610265
-0.06586961
-0.07993366
0.07026671
-0.10885099
-0.05342561
0.00082237
0.04800679
-0.30075777
-0.01082717
0.01085403
-0.13744846
-0.00136070
-0.13428143
-0.44594917
-0.22265947
-0.07253479
0.24055876
0.18615144
-0.03372812
-0.09550370
0.00710574
0.05911175
-0.03185675
-0.06040071
0.01210111
0.09306124
0.07167663
-0.05653957
-0.06947560
-0.17546451
-0.06185734
-0.05590147
-0.14457379
0.05064387
0.10008559
-0.12427512
-0.02728529
-0.09213857
0.01074889
0.03463278
0.04065903
-0.07686446
-0.16424733
-0.03535412
-0.18655470
-0.09053716
0.14516108
-0.07957227
-0.17576249
0.07762011
0.12877527
-0.18386266
-0.19527602
-0.06163233
0.37472990
-0.07959639
-0.15307125
0.08066235
0.02275362
-0.03018746
0.09616581
0.08323811
0.06298688
-0.01607302
0.10958907
0.04746422
0.08567634
0.02204658
0.04971793
0.02812289
-0.10709427
0.05423143
0.13410726
0.17343293
0.11454877
0.07251701
0.09152693
-0.00039772
0.00963468
-0.18090329
-0.10493191
0.07074109
-0.28755134
-0.03506178
-0.08393928
-0.00396524
-0.09924471
-0.12797801
0.10584104
0.01775321
0.11606524
0.09772246
-0.03984039
0.10661492
0.22481559
-0.16806167
0.05471163
0.00863357
0.18843277
0.09021880
0.02839777
0.23418659
-0.01521275
-0.00962684
0.00356007
0.00187671
0.17072646
0.09738155
-0.05719693
0.15349318
0.08940838
-0.07670198
-0.04948642
-0.16533241
0.01598155
-0.01668994
-0.04824890
0.00106014
-0.06577979
0.15702090
0.12801871
0.10182790
-0.18196118
-0.01244606
0.01371502
-0.00208927
-0.05981070
-0.10642708
0.08762245
-0.02775082
0.05509732
-0.13290815
0.05625270
-0.12121553
0.13294260
0.13929141
0.08861382
0.09691963
0.03751591
0.04205706
-0.15607628
-0.01838437
0.06693896
-0.13782725
0.29468769
0.19535157
0.13888022
-0.07346515
-0.01528253
-0.06677880
0.19453050
-0.00417161
-0.16370107
-0.03621710
0.13066871
-0.00119845
-0.14442736
-0.02416324
-0.06317902
0.02960226
0.08759502
0.00642038
-0.02601197
0.02665384
-0.18187614
-0.00045173
0.00017959
-0.12387576
0.05546609
-0.04654517
-0.05442103
0.01397119
0.09467932
-0.00298218
0.23862894
0.08658644
0.03148395
0.11448950
0.06014889
0.01713827
0.03663500
0.11296408
-0.00664519
0.17987318
-0.03509613
0.06200787
-0.04059458
-0.02536699
-0.07883435
-0.11187367
-0.07665708
-0.04727859
0.09446026
-0.03439571
-0.06344553
-0.06697018
-0.09265452
0.02074473
0.05555503
0.14706869
0.09917890
0.12399887
0.25084198
0.01445344
0.00420429
0.12572239
-0.01306811
0.07329792
0.02107915
-0.04019454
-0.01858715
-0.01359271
-0.03809079
0.00811691
-0.08744671
-0.02121366
0.14264472
0.00156617
0.06192970
-0.12532298
-0.03343505
0.14278115
-0.20842174
-0.09560517
-0.11476453
0.07464577
-0.08647934
0.04355854
0.04635407
0.10192154
-0.01371732
-0.13720150
-0.20516664
0.03564614
-0.00900822
0.04193487
