-0.06629746
0.05712327
-0.04582480
0.01423325
-0.02416051
0.00589952
0.00153403
0.04845479
-0.06587350
-0.04446182
-0.01334931
0.03297615
0.00111397
-0.01914343
-0.02105049
-0.04836049
0.03637903
0.02613272
0.00725078
-0.06742699
0.07004117
0.05031557
-0.12413590
0.00311033
0.01306432
-0.04017348
0.05296062
-0.04212179
-0.01660781
0.04601851
0.03420917
0.02970056
-0.00594891
-0.07478446
-0.01339481
0.02938363
0.06858359
0.01659397
-0.07245071
0.10229080
0.00503992
-0.06324539
0.03750101
-0.05142454
0.04623986
0.02585502
-0.00186788
0.01784696
0.08240986
-0.02381136
-0.01359345
0.09505574
-0.05445929
-0.01957662
0.02071147
0.03529953
0.05098915
-0.05213242
0.10331469
-0.02140103
-0.03047973
0.05103464
0.02007867
0.01698743
-0.02606870
0.00596753
-0.01375499
-0.00528477
-0.02155613
0.04669329
0.01567252
0.07355206
0.04878250
0.03660410
-0.02817104
0.01003977
-0.03050670
-0.02528130
-0.07589938
-0.00143774
0.02172987
0.05650727
-0.05432556
0.01308290
-0.00083740
0.07433523
-0.06346103
0.02603398
-0.04191351
-0.01654085
0.02820956
-0.03483883
-0.00283057
-0.04027267
0.02156298
-0.05115966
0.00607846
0.06755482
0.01803023
0.01182347
-0.02869982
-0.04442807
0.02074843
-0.07515576
-0.01456368
-0.02434000
-0.02709111
0.04328293
0.03885882
-0.06776753
0.00704917
0.04970182
0.06805859
0.01011143
0.03704836
-0.05435047
-0.03204304
0.06797475
-0.01339425
0.01847861
0.05072606
-0.00517078
-0.05694216
0.01194437
-0.01257361
0.01018817
0.03455472
-0.01536715
