-0.13166401
-0.21225868
-0.35634559
-0.07016637
0.24378602
-0.45878243
-0.02787953
0.07172094
0.25321344
-0.31845978
-0.36533564
0.20352292
-0.13409501
0.08445258
0.38224766
-0.17342047
0.15171443
0.19856969
0.21884771
0.25003293
-0.01521851
-0.26371992
-0.11636118
0.28775725
-0.34706929
-0.03240142
0.29371297
0.01421005
-0.25722751
0.26227593
-0.30988058
-0.25696295
0.28344530
0.02836786
0.16439655
0.31265959
0.15555124
0.11309291
-0.05767504
0.35107395
0.09243079
-0.45011967
-0.13646065
-0.11045072
-0.11250407
0.18964587
0.15667240
0.24349104
0.26509428
-0.35816431
0.24237363
0.12064694
0.36105213
0.33836055
-0.29831639
0.36292839
0.52004170
-0.35556167
0.06974109
-0.04822130
0.43449324
0.11555506
0.18990993
-0.24632667
0.25357014
-0.22851202
-0.45580003
-0.36194479
0.16958861
-0.33347401
0.03557301
0.19403899
0.27957171
0.43160391
-0.21460336
0.31957766
0.23614132
0.02902574
-0.02122528
0.15820041
-0.09102803
-0.23764698
0.10767164
0.08967136
-0.02758070
-0.46819910
-0.18032570
-0.17561717
0.32475600
0.11637188
0.25006953
-0.17091937
0.10815085
0.02934154
-0.04320768
0.06760774
0.19585127
0.16078199
-0.08236267
0.06493776
0.03453979
-0.04691212
-0.04533029
-0.02810943
0.32604852
-0.09682000
0.07998233
0.15496455
-0.32462877
0.16209163
-0.06696611
-0.02067983
-0.39471665
-0.25388330
-0.09166809
0.29088971
0.12932596
-0.16240007
0.29586494
0.19791408
-0.25649649
0.20884638
-0.35504153
-0.12081864
0.15886408
0.01632838
0.16266783
-0.11201945
