-0.12312336
-0.03553613
0.19927137
-0.27658156
-0.07842632
0.13204762
0.16886777
-0.02057882
-0.19769867
0.07074490
-0.06532938
-0.11972173
-0.12837908
-0.01718114
-0.11396111
-0.12498853
-0.15896216
0.14904681
0.09049558
0.10326542
0.05363047
0.11427867
-0.06777679
-0.14615284
0.13315070
0.07728644
0.20228159
0.13497691
0.05142667
0.00054948
0.08016013
-0.11254583
0.03931760
0.10513856
0.15892053
0.23283248
-0.10391567
-0.00359718
-0.09872589
0.12632951
0.11994462
0.05971043
-0.00470522
0.20239608
0.19446333
0.05831281
0.00426315
0.04950070
0.13108253
0.24059060
-0.04215686
-0.03692555
-0.16550249
-0.10544427
-0.10114764
0.18579115
-0.14595737
-0.21228611
0.28830147
-0.08960734
0.10149262
-0.13145591
-0.06508138
-0.01942198
0.11334787
-0.01557320
-0.04866529
0.10264872
0.01225271
-0.01315385
-0.00033181
-0.04044960
0.05502505
-0.02637253
-0.08227967
0.01372508
0.03972679
-0.05259947
0.00586302
-0.04978984
0.01217986
0.04148563
0.06378136
0.07065806
-0.04504310
-0.09041867
-0.01218219
-0.03098874
-0.01561231
-0.03285424
0.03817565
-0.02480759
0.00885288
0.03252214
0.01714816
0.07276160
0.05562041
-0.08493765
-0.06103015
0.10253102
-0.02887261
0.04265416
-0.11239132
0.03385312
0.02060874
-0.02197171
-0.12865260
0.03343817
-0.00533208
0.03897289
-0.02107234
0.03981725
-0.05571507
-0.00954316
-0.03284027
-0.01841643
-0.02605996
-0.01701389
0.01901392
0.06265378
0.02355832
0.00183087
-0.09664502
-0.01431048
0.02283352
-0.03348067
0.04468085
-0.00246750
