-0.11390380
-0.11665309
0.07883061
0.07796711
-0.14219187
0.12783702
-0.14821766
-0.07867798
-0.01962944
-0.05506799
-0.04298389
-0.18579234
0.10453642
-0.22779158
-0.00582678
-0.05328245
0.05993551
0.03543894
0.01904545
-0.24963281
-0.17382796
0.16143832
-0.14571328
-0.09309334
0.04341062
-0.14294422
-0.13663623
0.06272635
0.07553909
-0.06049419
0.00040832
-0.08317579
-0.09579302
0.06541520
-0.07030696
0.02628243
0.04293546
-0.15579224
-0.15991370
0.10938588
-0.03930036
0.10368033
0.00352953
-0.12932234
-0.00352691
-0.00300625
0.09720109
0.00274455
-0.10313591
0.01218890
0.09364264
-0.09263971
-0.17133689
0.10050187
-0.05670685
0.03661304
-0.04170170
0.10311358
-0.08957040
0.07256639
0.04676925
-0.05367475
0.14684694
0.10338759
-0.02568536
-0.08759988
-0.06633385
-0.03719484
-0.08010952
0.01315045
0.01675834
-0.01900253
0.06655749
0.01524928
-0.13911246
-0.00445438
-0.05657282
-0.14977345
-0.05671361
-0.12451531
0.01744331
-0.02513612
-0.08138632
-0.15475169
-0.05962873
-0.08654550
0.08209779
-0.17970093
-0.07045005
-0.03816344
-0.06185560
0.01839129
-0.29807931
0.08302185
-0.07862128
-0.01304489
-0.16035661
0.08682573
-0.00907546
0.01254779
-0.03857998
-0.10711055
-0.03487986
0.05790757
-0.12068305
-0.17428263
0.04093648
-0.03934623
-0.08487716
-0.13257551
-0.01674643
-0.08813883
0.13441348
0.13719691
0.02109388
-0.01402597
-0.07051688
-0.06034057
0.01306662
-0.17649168
0.03294938
0.16597915
0.04671998
-0.05923096
0.01534379
0.01588023
0.00635829
-0.07937461
-0.02468472
0.10416666
-0.11212846
-0.10102595
0.00639438
-0.00845433
0.05186494
0.10469495
0.01894375
-0.02200487
0.08271454
0.05473921
-0.05372543
-0.09010620
-0.02337002
-0.03873593
-0.05788532
0.22179244
-0.00714034
0.06245974
-0.03230539
-0.15639032
-0.02177448
-0.11440425
0.03708008
-0.05454728
-0.05007760
0.03136321
-0.13961451
-0.19091246
-0.08753927
-0.04968741
-0.02806607
-0.06604932
0.03957882
-0.06649773
-0.07686016
-0.18618970
-0.07523247
0.07771340
0.16122079
0.00118835
0.01250449
-0.10282274
-0.06831069
-0.19145811
-0.11678732
-0.16830918
-0.08827127
-0.03083463
0.03615858
-0.06048825
-0.00742735
-0.02451163
-0.03668360
-0.18299277
-0.14365445
0.01813190
-0.17496820
-0.10901125
-0.14602156
-0.02093259
0.02932078
0.15511215
-0.16746591
0.01158653
-0.02114125
-0.08344017
-0.03085433
-0.13174015
0.02752891
-0.00673637
0.03652847
-0.14086229
-0.12504107
-0.08362748
0.01123622
-0.14941661
-0.10115334
-0.02983993
-0.04700479
-0.03292350
-0.08266587
0.08377067
-0.13540088
-0.12749234
-0.02779499
0.09179709
0.03665162
-0.01601051
-0.16091256
-0.05494574
-0.05421353
-0.16052906
-0.11982714
-0.00598995
-0.05115368
-0.10894624
-0.09734196
0.00430746
-0.10010614
-0.00503991
-0.10999840
0.00714759
-0.07243614
-0.02404785
-0.04725473
-0.10044565
-0.07228757
-0.11302349
-0.03873396
0.01278450
-0.02623701
0.02518682
-0.00417541
-0.02613360
0.03251812
-0.05340945
0.08955578
-0.05530132
0.02595015
0.13417801
-0.07439633
-0.09712104
-0.00148150
-0.00858101
0.00192806
0.02966324
0.08948381
0.05709791
-0.08520103
-0.04536918
-0.10570008
0.08353578
-0.13176626
-0.03293090
-0.14440210
-0.10173476
-0.02738473
-0.04672537
-0.10273758
-0.05409362
-0.05859445
-0.04952933
-0.05337254
0.02835296
0.06067976
-0.08198061
0.00616925
0.07197238
-0.02287814
0.10981356
-0.15982570
-0.11673621
-0.06929987
0.04529503
0.01208362
-0.00939115
-0.06453909
-0.15067831
-0.13463292
-0.02404707
-0.07162075
-0.07464328
0.05576948
-0.03388521
-0.15425269
-0.06023377
-0.02263147
-0.20502909
-0.01160412
0.05439134
0.00817608
0.02150708
-0.00111626
-0.06171305
-0.12849316
-0.17018922
0.04601944
0.05962133
-0.07031436
0.05298482
-0.02297599
-0.08917215
-0.05845664
0.08745381
-0.08472726
0.08566407
-0.03591595
-0.00574596
-0.03408369
-0.04614606
-0.07451252
-0.00383866
-0.10032647
0.02926765
-0.04362444
-0.12249059
-0.03654577
-0.03215408
-0.01036861
-0.05039958
-0.01559026
-0.01163703
0.01597447
-0.15628971
0.01740659
-0.03062507
-0.05818130
-0.00614920
-0.03917627
-0.08461177
-0.00255344
-0.11055465
-0.07780791
-0.01348187
0.00959738
-0.21181296
0.01431648
0.04550154
0.03641610
0.02801010
-0.01011693
-0.14064817
-0.00024300
0.04314316
-0.00566235
0.00885245
0.01098315
-0.05922858
0.09854352
-0.04165393
-0.10534126
0.00574802
0.02620844
-0.04354511
-0.08702374
-0.01554833
-0.02183593
-0.03811421
0.01029820
-0.02028443
0.03414665
0.00264386
-0.09333028
-0.05473780
0.04268815
-0.01875559
-0.02941019
-0.02454785
0.08139484
-0.03393466
-0.04359933
0.11840857
-0.11681461
0.07112273
-0.00635096
-0.04868044
0.05946364
-0.13177282
-0.08333912
0.09102279
-0.04196734
-0.06270781
-0.11090085
-0.03830831
-0.11181906
-0.00857559
0.00278607
-0.00938639
0.01639076
-0.07664417
-0.00979010
0.04206412
-0.03284104
0.03434942
-0.02794491
0.14070883
-0.11340832
-0.03646868
-0.06683473
-0.00179254
0.14325809
0.03811816
-0.01620945
-0.01127127
0.02233782
-0.09891556
-0.04167016
-0.01378519
-0.08881585
0.01270737
0.01713779
0.13404374
-0.11330745
0.06488039
0.06419689
-0.08626349
-0.04949990
0.03197245
0.02259870
-0.03071027
-0.02483078
-0.00066243
-0.00852548
-0.05781009
-0.11215648
-0.12129449
0.09061590
-0.00194036
0.01109062
0.06596202
-0.06232856
-0.08287109
-0.05477775
0.10353857
-0.02921361
-0.00842306
0.06003644
-0.07102864
0.00831939
0.06512914
-0.01368044
-0.07258882
-0.15742107
0.13516352
-0.12590219
-0.03194517
-0.01645086
-0.06851286
-0.02470163
0.06010610
-0.03238838
0.07907141
-0.06273042
-0.19676748
-0.11503150
0.08026440
0.08251666
-0.05530452
-0.11768270
-0.05502393
-0.04063145
0.05505779
-0.03010309
-0.01370779
-0.04752314
-0.01508661
0.01019613
-0.00742966
0.04590881
-0.00348727
0.00653447
-0.08357982
-0.02294066
-0.05368058
0.06040904
-0.04401816
-0.10359811
-0.11561967
0.11560389
-0.00144338
-0.02316852
0.03006765
-0.17445208
0.04318612
0.06610253
-0.06120716
0.20407070
-0.08558022
0.02723814
-0.04002754
-0.02487358
-0.03968323
-0.04673723
-0.05040652
0.02101633
0.05080528
-0.00145097
-0.01664091
0.03925425
-0.05819293
-0.04645211
0.03404981
-0.09531537
-0.03678913
0.07189216
-0.17678411
0.06443955
-0.09471219
0.07162797
-0.09915515
0.00319935
-0.09280906
-0.14075111
0.04949524
0.02681248
-0.02090322
-0.07267550
-0.04826206
-0.10088837
-0.03674192
0.05924483
0.00577779
-0.06896765
-0.00924268
-0.01955741
0.00536002
0.01597503
-0.08821143
-0.05182220
0.00416105
-0.10022905
0.06926661
0.00683995
-0.07683622
-0.01043086
0.07359573
0.06721661
0.08537083
-0.08071936
-0.12290452
0.00036945
0.11718161
-0.06980881
-0.09902356
-0.14840151
0.01599693
-0.10992687
-0.08066025
-0.10704698
-0.01274454
-0.01298556
0.02453182
0.05324811
0.01918939
-0.01337507
-0.03629569
-0.07823861
0.04733210
-0.02905338
-0.01949914
-0.06648464
-0.02124960
-0.04267191
-0.08202442
-0.08135102
-0.08995947
-0.01390088
-0.07007459
-0.08292530
-0.07173707
0.04032696
0.01927697
-0.09230874
-0.05705304
-0.05001807
-0.10185760
-0.25335443
-0.03158840
0.02273068
0.02664901
-0.02779276
0.09559836
-0.02743658
0.02600772
-0.12188295
-0.03158335
-0.11451525
-0.04526345
-0.09999112
-0.09782427
-0.08081849
-0.06472078
0.04881467
-0.09199356
-0.06200517
-0.09343909
-0.06305166
-0.09467450
-0.00911394
-0.00511045
0.02230186
-0.00725916
-0.06153631
-0.04022350
-0.01219416
-0.05097637
-0.04143532
0.00460770
-0.07703689
-0.11271279
-0.02869660
0.04582023
0.00123511
0.01771956
-0.01365999
-0.04471197
-0.18344170
0.01536795
-0.03664150
0.00984110
-0.04967008
-0.13901268
0.05611305
-0.15526466
-0.21384613
-0.02947790
-0.10807121
-0.06241950
-0.08531460
-0.14957429
0.06430295
-0.08053216
-0.06274979
-0.08426363
-0.01890394
-0.01897008
-0.04751565
0.01401442
-0.01617035
-0.16056299
-0.02444997
-0.03314600
-0.02175702
-0.09957818
0.05749944
-0.03513268
0.01357838
0.00749524
-0.02617286
0.02028390
-0.05935323
0.01863891
-0.08243521
0.00313174
-0.06303141
0.02543083
-0.03241170
0.01548377
-0.07123902
0.02501232
-0.03194981
-0.15165228
-0.02051968
0.05939843
-0.05758177
0.00894678
-0.17598087
-0.04710190
-0.08234254
0.02283806
-0.11826232
0.01689644
-0.12250270
0.04914326
-0.03107966
0.08413347
-0.15245023
0.03944241
0.00877501
-0.04515711
-0.02734759
-0.13241863
-0.05836248
-0.08661352
0.05954759
-0.17447744
0.08173507
0.00531367
-0.08926071
0.07202319
-0.12010644
-0.02041825
0.06991228
-0.02825401
-0.00550491
-0.07334993
-0.20064031
-0.12997098
-0.06882235
-0.01407964
0.04476538
-0.12805557
-0.03261542
-0.09647728
0.08442593
-0.07494545
-0.01325821
-0.09883092
-0.09765133
-0.09877401
0.04556938
0.07147326
-0.05301695
0.03085382
-0.10203135
-0.02593084
-0.01912661
-0.04318634
0.09193077
-0.09002003
0.07725980
-0.10539839
-0.06956207
-0.05282107
-0.14137492
-0.05448539
-0.14792231
0.01244380
0.07930533
0.01697592
0.05628078
-0.05003395
-0.09422349
0.05001403
-0.06438906
-0.09637433
-0.01239462
0.01699074
-0.07591949
-0.04815262
-0.00624864
0.08423008
0.00422372
-0.08430663
-0.02162544
-0.05729698
0.23033378
-0.11154710
0.02933333
-0.03727287
-0.04540650
-0.10447212
-0.05391419
0.08008986
-0.00462704
-0.02547886
-0.00827944
-0.02588135
