0.02089205
0.01458059
0.05217785
0.03242670
0.00907548
0.01723507
0.02064574
-0.06769768
0.03261673
0.06393582
-0.02952831
-0.06849243
-0.06234410
-0.01748573
-0.05906240
-0.02524690
0.05630051
0.06873345
0.01016190
-0.00277284
-0.02094648
-0.00182078
-0.02116208
-0.00040140
0.03542231
-0.05505644
-0.02235773
-0.10221726
0.13520586
0.01631052
-0.02898508
0.00081744
-0.01979312
-0.03842062
0.05335914
0.04799520
0.03325427
-0.08505438
0.01739234
0.05265449
-0.03232656
-0.05784934
0.01494883
-0.01494902
-0.06501507
0.04073000
0.00091089
0.05017173
0.02356808
0.05135974
0.03444258
-0.05704487
-0.03516072
0.07852950
-0.01344184
-0.03698308
-0.00148016
-0.11267726
-0.11230294
-0.09657127
-0.07742601
0.05158590
-0.03923989
-0.00158700
0.01102067
0.02722100
-0.02739420
0.07783009
-0.07531141
0.04608999
0.04138739
0.05099698
-0.00712136
0.06934975
-0.01300869
0.08312277
-0.11353671
-0.02702607
0.01327398
-0.06685685
-0.00577832
-0.01584797
0.02760566
-0.02085007
0.04106881
0.09566719
-0.02057629
0.05087321
0.00839609
-0.12340488
0.07925673
-0.03232967
-0.04689466
-0.05333342
-0.03078854
0.08215805
0.07213409
0.01506371
-0.05735784
-0.02506743
-0.01845261
-0.00922867
0.08136143
0.02892914
0.09322828
-0.00028824
-0.00286927
0.00186318
-0.05638414
0.11105882
-0.03097403
-0.03291142
-0.00051712
-0.04127659
0.07063890
-0.00903941
-0.06787990
-0.01317908
-0.10409173
0.09244378
-0.12056255
-0.12725094
0.07305203
-0.04216596
0.07788587
0.04597069
-0.06535733
-0.05237520
-0.07946685
0.00600879
-0.03275865
-0.02917965
0.02953138
0.03349245
0.01933065
0.00525325
-0.02043461
-0.10798698
-0.02361716
0.13731775
0.04984305
-0.05934703
-0.01223946
0.09123629
0.03907280
-0.00504415
0.00753467
-0.04282641
-0.02507426
-0.03053170
0.00148564
-0.05017672
0.08056150
-0.04220736
-0.02875067
0.03356114
-0.04897776
0.01054697
0.00939023
-0.01977567
-0.05915667
0.05907336
0.07463858
0.06376019
0.05290402
0.01790106
0.02509447
0.01324237
-0.05672669
-0.02913364
0.04471695
0.06939957
-0.01035126
-0.04724474
-0.01340724
0.03589232
0.01919836
0.02333820
-0.02293077
-0.05835740
0.05855347
-0.00128112
-0.00209097
0.01443884
-0.02751080
0.07686583
-0.06314261
-0.04866014
0.05500428
-0.01183075
-0.02631498
-0.00666878
0.02268349
-0.01851571
0.06579883
0.01875593
0.00186656
-0.00201493
0.00434760
-0.15934283
0.03577833
0.08709333
0.03208651
0.06022798
0.10112249
-0.05206189
0.02720322
-0.03547376
-0.05562008
0.03034868
0.11249548
0.03003683
-0.05167591
-0.00733729
-0.06513266
0.06081101
0.00071677
0.03665916
0.00313761
-0.02937886
-0.05500735
0.00386813
-0.06376636
0.00330724
0.04580832
-0.03299355
0.01807870
0.05868969
-0.01315246
0.07545585
-0.02246387
0.01364985
0.01638625
-0.07004741
-0.01798123
-0.00090752
-0.04286329
0.00216197
-0.01238815
-0.07952497
-0.07375386
-0.04668510
0.05981939
-0.05704142
0.09159639
0.09188018
0.01606002
-0.03160453
-0.04212133
-0.00608138
0.07391530
-0.02800088
0.05316527
-0.07324937
-0.01764091
0.05649757
0.07036713
0.02405586
-0.03806445
-0.14537045
-0.05200453
-0.08456634
0.01476413
0.07396922
-0.09655944
0.02661507
0.01431827
-0.01013927
-0.02951005
-0.04909769
-0.03982219
-0.00777302
-0.04134154
0.04557684
-0.00671313
0.01450745
0.02301063
0.05785904
-0.01965655
-0.05139264
0.06003290
-0.05280384
0.02470332
0.13051707
0.05451046
0.05245500
-0.02748683
0.06888551
0.05907797
-0.11941066
0.05062978
-0.01917900
-0.00255726
0.00288767
0.01930564
0.01244730
0.02689228
-0.00644213
0.05411035
-0.03795366
-0.08279423
-0.01644457
0.05463194
-0.03223263
-0.03484925
0.00234518
-0.04002365
-0.07153546
0.16523682
-0.04690294
0.02402096
-0.02458580
0.03140771
-0.03879366
-0.01828277
0.04281042
0.05286551
0.01408631
0.06490526
-0.07774297
0.00622599
0.02111660
-0.00454589
-0.00487077
-0.03771525
0.04739069
-0.10938366
-0.06516608
0.04525981
-0.09526221
0.09732135
0.05965438
0.08864427
-0.03216370
-0.01293350
-0.02963664
0.09389338
0.04055408
-0.01062164
-0.05720099
0.00429690
0.00708613
-0.09617035
0.03732624
0.03379895
-0.05995591
-0.02981725
-0.02868296
0.09923854
0.05363521
0.03961284
-0.05919421
-0.04400146
-0.02971919
-0.03582371
-0.03073102
-0.00426290
0.01219733
0.06274588
0.08170547
-0.07208437
0.03464504
-0.03835531
-0.00028130
-0.02621571
-0.00511304
0.01360236
-0.05060715
-0.01718008
0.03764332
0.02118711
-0.04591182
0.04552716
-0.01256425
0.06176387
0.00242573
0.06457905
0.07048964
0.07204083
-0.05565613
-0.03898693
-0.06868330
0.02909877
0.07382781
0.03852589
0.00163513
-0.01692515
0.04285579
0.10524215
-0.07802621
-0.01230075
0.00577654
-0.01389981
0.05272944
0.07806700
-0.02731284
0.03903318
-0.00032429
0.05041040
0.02379811
-0.07511702
0.04474469
0.00251925
-0.05657506
0.00490921
0.08858954
0.07615603
-0.01024646
-0.00549523
0.05966523
-0.00165225
0.02724874
0.02583303
0.00508594
-0.03961103
-0.07541109
-0.03197952
-0.05967344
-0.05121533
0.01311552
0.04301936
0.02877782
0.02952777
0.10651220
0.00650981
-0.00827806
0.03496202
0.08111724
0.05715399
0.07244530
-0.03376641
-0.00910449
0.01831967
-0.08201838
0.05834479
0.02193634
-0.06490902
0.01868258
-0.05883462
0.06006554
-0.04275013
-0.01568011
-0.01646716
-0.09044472
-0.06772551
-0.01171345
0.03068405
0.15820487
0.01909842
0.07661027
-0.02473176
-0.01515386
-0.01569563
0.00227141
0.06127560
-0.01462745
0.01720426
0.00338820
-0.00370801
-0.02450937
-0.05345856
0.02366658
-0.03882226
-0.04655888
-0.06489766
0.03530171
0.01533751
-0.03268339
-0.02600487
0.13505071
0.00190670
0.02233156
0.01703651
-0.02074769
0.06243872
-0.03130373
-0.00268368
-0.00797604
0.02661350
-0.08095679
-0.05767664
0.02470846
-0.03966431
-0.03480964
0.01335720
0.01960640
0.01337276
0.01471177
-0.09296925
-0.02660755
-0.05359706
-0.02201770
0.03711053
0.04982160
0.03320093
0.03987175
0.06197338
-0.00820733
-0.07995977
0.06432291
-0.00235559
-0.00718387
0.09269288
0.09597685
0.10703916
0.04903731
0.00758597
0.06705266
0.06698296
-0.00285818
0.08996060
0.04094186
0.02312884
0.01069887
0.01426002
-0.04450345
0.02592359
-0.04094335
-0.01306840
-0.00303759
0.00055619
0.05961379
0.13245103
-0.03717603
0.02349665
-0.04778992
-0.03770862
0.07152473
-0.05230217
0.00356742
0.07693131
-0.08225827
-0.08103034
0.01871309
0.10855427
-0.03609191
0.00904991
-0.03556255
0.02965620
0.04429659
0.05872348
-0.01036479
-0.00590763
-0.02374440
0.06693696
-0.06252400
-0.08599248
-0.01966873
-0.10130627
0.03585222
-0.04387087
-0.05525037
0.01246089
-0.03006157
-0.03124488
0.02860464
-0.02391696
-0.08126125
0.01701117
0.00269040
-0.00029471
0.04451851
-0.04742509
-0.01849210
-0.04287477
-0.00924384
0.01841111
-0.06993229
-0.03373332
0.05482227
0.14044309
-0.10476568
-0.03152475
0.00688178
0.04557613
0.07782116
-0.02851930
0.02338248
0.00295282
-0.01981272
0.04505708
-0.01962765
-0.07781187
-0.00632580
-0.00651363
-0.08793342
-0.01253018
0.06259134
0.09420082
-0.13093384
-0.06264904
-0.12104353
0.05393132
0.11604089
0.00185643
-0.04755880
-0.02184745
-0.06648973
-0.06150968
0.04145815
-0.04959946
-0.03965859
-0.06277981
-0.00841428
-0.04188391
-0.02094007
0.10104928
0.01788182
0.02914985
-0.04087662
0.08348226
-0.02706040
0.03518748
0.04116935
0.00207400
0.01816104
-0.03121258
0.04655543
-0.07908867
0.03232718
-0.07338693
-0.05637924
0.03515600
-0.01124349
0.02809762
0.03141186
-0.03464494
0.11851297
-0.05523366
0.04625929
0.02835082
-0.00592739
0.03793591
-0.01100276
0.02930030
0.01991800
0.03445661
0.03102528
-0.09982777
-0.04989597
-0.05474671
-0.05865210
0.03500571
0.07469114
-0.07589032
0.11201406
0.03616970
-0.04159423
0.01526710
0.06065478
-0.00916017
-0.06986892
0.06429833
-0.06550990
-0.01729975
-0.01573490
0.10414885
-0.01091025
-0.05166110
0.06210554
-0.03960019
-0.12046266
-0.01929012
0.01381987
-0.03441070
0.06921919
0.06365748
-0.05563812
0.03554966
-0.02745194
-0.06156375
-0.03383885
-0.01176853
-0.01167872
-0.01672225
-0.07170611
-0.06549342
-0.03877388
-0.03577933
-0.01108815
0.06347992
0.00556902
-0.04158901
-0.00954832
-0.02548383
-0.02360292
-0.03170316
-0.03760768
-0.10983335
0.06188974
0.04034109
0.04659482
0.01321153
-0.01655722
0.01543212
-0.06624360
0.02073106
0.04110702
-0.00143651
-0.14386494
-0.03374096
-0.01229616
0.01822769
-0.05624261
-0.04549111
0.02753065
0.05578176
0.09137806
-0.09821020
-0.09526167
0.03394104
0.05043833
0.06057318
0.01926896
0.10135747
0.01744670
0.15590981
0.01035901
-0.03870242
-0.01803571
-0.04906806
-0.00747842
-0.00001635
0.03651733
-0.00316968
0.02315985
0.08565316
0.03672791
-0.05421317
-0.00917386
-0.00869264
-0.00534584
-0.00185709
-0.00505803
-0.04906659
0.03689522
-0.00715246
-0.05387352
0.05942747
-0.05629789
-0.01343787
0.01037856
-0.01912468
0.01876641
-0.06231646
-0.01120469
-0.06914507
0.01039664
0.02066865
0.07585140
0.00267434
-0.03102693
0.05272800
0.00838970
-0.03618721
0.04787100
0.05660673
0.03542212
-0.00974012
-0.00559952
-0.08659122
0.02736213
-0.01570018
-0.07798591
0.00404469
0.03655244
-0.08895343
-0.13180076
