-0.10986238
-0.04332284
0.02603893
-0.06236923
0.14469369
0.02389402
0.00851482
0.14265573
-0.10832572
-0.02489037
0.00949627
0.04184590
-0.12760195
0.06955485
-0.07104834
0.13592800
0.05356897
-0.00609331
-0.01611791
-0.03353258
0.07218389
-0.02341043
-0.00285101
0.05521747
-0.08645344
0.06985744
0.03268594
-0.06124487
-0.07786973
0.03083511
0.12869716
0.03840529
-0.04648012
-0.06392598
-0.07393428
-0.08254568
-0.01826465
0.05981074
-0.09676524
-0.13181494
-0.10285433
-0.14960906
0.01447556
0.13552967
0.05312115
-0.08538250
-0.03992445
-0.09415685
-0.01506673
-0.07880083
-0.34228164
0.03417750
-0.07296134
-0.06976271
0.14378004
0.06526745
-0.11071961
0.01944667
-0.04545680
-0.12777218
-0.00205638
0.03358986
-0.04537039
-0.12036362
0.04583115
0.08624709
0.03382413
0.09597447
-0.25457567
-0.04938979
-0.14536367
0.04958806
0.02212009
-0.07025982
0.01316416
-0.16465369
-0.08208442
0.06428583
0.01690253
0.03346792
-0.00956312
0.04385364
-0.06405216
0.10266120
-0.03357619
-0.10899711
-0.00862433
0.01339701
0.03652873
0.23306879
-0.14428346
-0.04849022
-0.03127059
-0.05414100
-0.02430442
-0.10987374
0.14672676
-0.09220422
-0.01839873
-0.09173781
0.01577273
-0.09626427
0.00503068
-0.01642556
-0.08997656
0.03215699
-0.03268573
-0.07766762
-0.01324688
-0.04342750
-0.05896871
0.07236364
0.01843755
-0.09360310
-0.04291601
-0.04391059
0.01186102
-0.07481557
-0.11364131
-0.00479709
0.00629046
-0.05636080
0.07578933
0.76594102
-0.11893343
-0.07847814
-0.11711746
0.03934763
-0.07582241
0.00543118
0.05817605
0.06431025
0.03006917
-0.06315571
-0.08037041
-0.06256201
-0.05154913
-0.00708587
-0.07021004
-0.01548460
-0.07164471
0.00527372
0.00176102
0.13995335
-0.02164201
-0.00063398
0.00718031
-0.25994524
-0.08144308
-0.05095144
-0.00421865
0.03252241
-0.14274715
-0.15201114
-0.08176415
0.01536033
0.06037906
0.10347896
0.05979807
-0.04783475
0.02390403
-0.10125142
-0.06123363
-0.04020618
0.18065780
-0.01660153
-0.05293143
0.02619555
-0.12571076
0.00617876
-0.01007802
-0.04802058
0.18180285
0.00267553
0.06979448
-0.06188703
0.02974035
0.01528954
0.05796794
0.17623700
-0.46810275
0.10849652
-0.01770084
0.01395209
-0.02357376
-0.01134352
0.17688984
-0.01946402
0.03552770
0.05064993
-0.10215731
0.05913784
0.06145334
-0.04973055
-0.01746171
0.05309343
-0.11973060
-0.04316695
0.00772770
0.06152045
-0.00643605
0.03349370
0.06879738
-0.06864399
-0.12262929
0.36358809
-0.00277843
0.04285602
-0.01436365
0.03335426
-0.07196739
-0.01341648
0.03328898
0.13585880
-0.00081726
-0.11281805
-0.06619824
-0.02034915
0.07159369
-0.03821863
-0.00099592
0.04307508
-0.00471702
0.09222321
0.00799070
0.18318923
0.00675954
-0.16716067
0.03739151
-0.11113592
-0.03564111
-0.06713191
0.10226745
-0.07856350
-0.03433997
-0.06499729
-0.05402143
0.00320286
-0.02469632
-0.12331316
0.09323235
-0.03511780
0.01255731
0.16173641
-0.07371626
-0.04304070
-0.02112140
-0.00981878
-0.08182669
-0.11507442
-0.14251390
-0.01300746
-0.11562119
-0.01386897
-0.05561638
-0.13747877
0.02003765
-0.10892519
0.03784777
0.02637029
0.15256371
-0.01704771
-0.00543403
0.06535035
-0.04554066
-0.01388918
-0.01354555
-0.01998107
0.01841190
0.02564236
0.03968776
0.01553891
-0.05199797
0.15933698
-0.11188013
-0.08887378
0.01695500
-0.04805151
-0.08534329
-0.13444468
0.13074759
0.18793413
-0.06281293
-0.10422815
-0.23544255
-0.09217478
0.05277474
0.02138385
0.02066231
-0.04322818
0.01077545
0.09103596
-0.03287948
-0.05386284
0.12356083
0.00838688
-0.08614215
-0.08524872
-0.00850968
0.01747755
-0.16476698
-0.01082582
-0.03262595
0.04098092
-0.06241896
0.02250200
0.03187611
-0.05290007
-1.35196507
0.04514601
-0.13262273
-0.09932191
0.17022257
-0.01042847
-0.05883694
-0.05376365
-0.05027653
0.00147427
-0.01426176
-0.09318988
0.00799956
0.18367307
-0.00013173
-0.19939055
0.03442989
-0.18154357
-0.02798967
0.34380907
-0.05927247
-0.08267451
-0.03734664
0.01607988
0.00106278
0.13274425
0.03678276
-0.02630408
-0.14163795
-0.01757300
-0.02206029
-0.01006470
0.02035171
0.18772772
-0.07837427
0.03524718
-0.04498265
-0.15688375
-0.02471028
-0.09409869
-0.00442702
-0.24106091
0.00373635
0.01279935
0.21713625
0.02425036
-0.05862028
-0.03407088
-0.09407845
0.05667020
0.02020822
-0.00552369
0.01158634
-0.16815060
0.13504876
-0.00633630
0.07692887
0.09749720
-0.17613928
-0.04174566
-0.11367895
-0.11160172
-0.26993662
0.02348383
0.03936829
-0.11853144
-0.33546394
-0.00606052
-0.05007454
-0.11066826
-0.05905281
0.08001805
-0.01330881
-1.88818204
-0.03506593
-0.09884647
0.12756629
0.00626372
-0.03987801
0.00030363
-0.07299475
-0.14242357
0.00704752
-0.02771511
0.01811257
-0.10866526
-0.06652586
-0.00256557
-0.10197592
-0.15855937
0.01282249
-0.01929852
0.05220102
-0.03649746
0.04597864
-0.02796244
-0.04619928
0.04288304
-0.01890906
-0.04683156
0.03763475
-0.03551530
0.02145175
-0.04256690
0.04388704
-0.01377593
-0.06061239
0.01840095
0.10899696
0.04952821
0.07315340
-0.00268862
-0.00396570
0.02616827
-0.00095414
-0.12312982
0.08407190
0.04144059
0.02981618
-0.14692757
-0.04840231
-0.05320773
-0.07618673
-0.13760114
0.01348681
0.01073397
-0.13575359
-0.01180540
-0.00784939
0.08717780
-0.06325336
-0.13881749
0.11762659
0.10117618
0.03597871
-0.04756754
-0.03929375
-0.47182137
-0.08139364
0.00918479
-0.00339150
-0.08386754
0.04259189
-0.00312149
0.16060863
-0.00341187
0.08800601
0.03688571
-0.03593475
0.04243565
-0.18397395
-0.16713768
0.02423404
-0.06401923
0.04060105
0.14014667
0.24563617
-0.02803741
0.07165539
-0.14699519
0.08292421
-0.10860255
-0.05639538
-0.09324540
-0.05706145
0.05494284
-0.06040673
-0.13405803
0.01475198
0.03065263
-0.19031237
0.02819626
-0.01668596
-0.04375313
-0.07733876
0.05025506
-0.06309687
-0.09402942
-0.11533120
0.17190120
-0.06870898
-0.09858960
-0.05194615
0.02430032
0.07061139
-0.03719504
-0.02953333
-0.10373329
-0.04385361
-0.04198957
-0.01530094
0.06370796
0.01419707
-0.06979103
-0.09469145
-0.16622920
0.01662663
-0.04065167
-0.14417356
0.06571321
-0.04744052
-0.06984057
-0.01503401
0.02741382
0.02757634
-0.14552437
-0.00440779
0.12354901
-0.17121844
-0.06507689
-0.15521626
-0.08713713
-0.12387750
0.06864862
-0.07548544
-0.00448396
-0.07655960
-0.09574807
0.25241098
-0.08665377
-0.01985496
-0.07088166
0.05309476
-0.01860457
-0.09269047
0.01708478
0.08706806
-0.04794938
-0.01391469
0.00406711
-0.03190210
-0.31709319
0.02454861
0.01750248
-0.03647847
-0.08753507
-0.10812294
-0.19367933
0.05659988
0.06201116
0.08329753
0.02969030
-0.05763168
-0.10017902
0.06310681
0.11185524
0.04452140
-0.05902696
-0.02830587
0.10421792
-0.00097934
-0.13315697
-0.04850874
-0.06327184
0.12613462
-0.06982584
-0.13673773
0.02883206
-0.07870349
0.08583955
-0.03609672
0.05757806
-0.15921937
0.08207651
0.13648662
-0.07203282
-0.01836276
-0.03828369
-0.03423107
-0.18842779
0.07009511
-0.07921788
-0.05936607
-0.00005687
-0.07841928
0.07771940
-0.04090803
-0.04434033
0.07344813
-0.10578244
-0.20239030
0.01198557
-0.05236909
-0.04370770
0.01337236
-0.25476682
-0.05713179
0.03788113
-0.07296694
-0.02626831
0.12307289
0.04971479
0.01400642
-0.01287939
-0.06932224
0.09744160
0.12173253
0.05737928
0.00151668
-0.04325029
-0.11525591
0.00510048
0.09785989
-0.08318341
0.02705298
0.02827487
0.04438428
-0.17174596
-0.10611393
-0.04447373
0.02423970
-0.17871338
0.24464740
0.10487827
-0.04251512
-0.02752720
0.05020802
-0.03935412
0.06329983
-0.09613754
-0.00636385
0.07286714
0.08938628
0.00966921
0.04819556
0.14490257
-0.05448513
0.03700577
0.06702004
0.21314083
0.05717199
0.03874573
-0.05252513
0.04329778
-0.10086023
-0.13972907
0.11766487
-0.15523559
0.03955309
0.18499784
0.04329079
0.00687954
0.11762445
0.02763772
0.07983921
0.02395660
0.05030579
-0.03655077
0.11516814
0.16246244
-0.00736004
-0.04179407
0.07846012
0.02423147
0.13116531
-0.03584474
0.04564136
-0.02253757
0.00452558
0.18366009
0.05260143
0.02323270
0.14683455
-0.04296038
-0.03563023
-0.06285896
0.08586737
-0.08019273
0.09703533
-0.09716333
0.08426227
-0.05343239
0.07372828
-0.04516733
0.05186198
-0.09066308
0.00911484
-0.05482509
0.01920482
0.05700260
-0.04841401
-0.03930122
-0.15804952
-0.13792199
-0.01917733
0.01351738
0.04764785
0.00168474
-0.05976023
-0.13279936
-0.01331413
0.00575092
0.09959996
-0.01945974
-0.05730500
-0.00966494
0.08193462
0.01640384
0.12222252
0.04256544
0.00355854
0.08305598
-0.16465619
0.05943499
-0.00423351
0.03844640
-0.02813240
-0.02597195
-0.27213752
-0.03838053
0.02979806
0.04631247
-0.91643304
0.00244921
0.00462999
0.04178436
0.03219737
-0.15715361
-0.17571053
-0.17411806
-0.11094476
-0.09146935
-0.05701473
-0.03493134
-0.09512989
0.02251436
0.09252594
-0.05162246
-0.08439506
-0.03926938
-0.12635428
0.07318534
-0.06176345
0.01140668
-0.13769467
-0.14406300
-0.05737830
0.06870922
-0.05269606
-0.10309388
0.05825078
0.08880040
-0.05806412
-0.05713501
0.09284785
0.08704539
-0.03693467
-0.14810434
-0.24457034
0.06841871
-0.11098949
-0.02376704
0.11027200
-0.06534807
0.00147368
-0.11821957
-0.02506319
-0.08107486
-0.04683159
-0.05437632
