-0.00037404
-0.00125881
-0.00114734
-0.00157741
0.00037122
-0.00160061
-0.00128581
0.00213469
0.00260594
0.00023023
-0.00015696
0.00000040
0.00192700
-0.00068509
0.00118999
0.00048603
-0.00027293
0.00076222
0.00241138
0.00258216
0.00139789
0.00102524
0.00109339
-0.00018882
0.00102687
0.00022611
-0.00265913
0.00133089
0.00082580
0.00001674
0.00084421
0.00202417
-0.00121973
0.00061830
-0.00043593
0.00149272
0.00016446
0.00077612
0.00086252
0.00026958
0.00121597
-0.00230330
0.00081252
0.00009706
-0.00011393
0.00148776
0.00026582
-0.00082377
-0.00063751
-0.00039005
0.00122398
0.00190916
-0.00074230
0.00017996
-0.00330745
-0.00014921
-0.00062548
0.00257408
0.00135025
-0.00048460
-0.00020815
0.00094036
0.00086680
0.00083986
0.00295299
0.00735153
-0.00878141
-0.00222573
-0.01568112
-0.01273164
-0.00754321
0.00204851
0.00105880
-0.00374068
-0.00900354
0.00206604
0.00166944
-0.00220177
0.00002210
-0.00118406
-0.00527997
0.00155332
-0.00331248
-0.01112863
-0.00136674
-0.00177809
0.00041955
0.00363663
0.00097740
-0.00273782
0.00188798
-0.00565653
-0.00198161
-0.00558670
0.00159020
-0.01144630
0.00284326
0.00776032
0.00492277
0.00227004
-0.00124039
0.00405695
0.00039637
0.01249665
0.00906229
-0.00919155
0.00439131
-0.00339224
0.01267204
0.00256197
-0.00965007
0.01130361
-0.00789964
0.00153757
-0.00222428
-0.00558496
0.00022312
-0.01041511
-0.00990106
-0.00083401
-0.00413963
0.00836721
0.00253216
0.00573822
-0.00465640
-0.00071773
0.00613207
0.00686711
-0.00132115
0.00042811
-0.00855811
0.00418243
-0.00106685
-0.00035265
-0.00307745
0.00102043
0.00109250
-0.00519217
0.00660618
0.00019422
0.00415718
0.00027410
0.00365542
0.00055576
-0.00386351
0.00424019
-0.00276427
0.00153272
0.00794192
0.00548159
0.00020955
0.00674832
0.00533923
0.00221316
0.00014605
0.01043171
-0.00304167
0.00573439
0.00518566
-0.00092886
-0.00173436
0.00541760
0.00265197
-0.00030413
0.00263131
0.00509258
0.00272319
-0.00401003
0.00476602
-0.00039250
-0.00412397
-0.00733521
0.00157991
0.00232740
-0.00181775
0.00693457
0.00065297
0.00075615
-0.00110831
-0.00356970
-0.00042567
-0.00042937
0.00320308
-0.00076116
0.00389404
0.00288418
-0.00191855
0.00006047
-0.01223965
-0.00136357
-0.00459943
0.00100696
-0.00670856
0.00300679
0.00333382
-0.00312992
-0.00370373
0.00095071
-0.00283889
0.00392014
0.00433782
0.00317020
0.00199593
-0.00083907
0.00450240
-0.00082176
-0.00240467
-0.00870097
-0.00589911
0.00106598
-0.00245232
-0.00088950
0.00104144
0.00592704
-0.00062894
0.00121965
0.00247309
0.00521204
-0.00387034
-0.00177504
0.00060657
-0.00752385
0.00312067
-0.00181731
0.00375031
-0.00366885
-0.00182735
-0.00139446
-0.00362657
-0.00071070
0.00021840
-0.00096458
0.00521218
-0.00094867
-0.00192683
0.00145799
-0.00663333
-0.00242280
0.00159419
-0.00048333
-0.00006001
0.00030485
0.00466289
0.00809909
-0.01028088
-0.00128001
0.00212177
0.00197580
-0.00098208
0.00190602
0.00411554
0.00283248
-0.00428670
-0.00396744
-0.00292977
0.00540927
-0.00201538
-0.00156944
-0.00200062
0.00053183
0.00527831
0.00106957
-0.00109547
-0.00043512
0.00215584
0.00032640
0.00293174
-0.00106481
-0.00559766
0.00086387
0.00293932
-0.00093518
0.00074964
-0.00111575
-0.00048705
0.00017399
0.00421760
-0.00076998
-0.00282203
-0.00279463
-0.00340330
0.00553148
0.00026536
0.00555273
0.00259198
-0.00212352
-0.00304516
-0.00116215
0.00109261
-0.00148166
0.00511128
-0.00501495
-0.00244608
0.00300400
-0.00042107
0.00185101
-0.00137118
-0.00036967
-0.00052851
0.00137717
0.00097582
0.00214482
-0.00360998
-0.00110597
-0.00132192
-0.00133133
0.00107757
-0.00051947
-0.00082882
0.00080234
0.00532387
0.00052689
-0.00033398
0.00047917
0.00538530
-0.00182178
-0.00052257
-0.00468067
0.00680303
-0.00099770
0.00171529
-0.00092963
-0.00011896
-0.00134748
-0.00089352
-0.00153808
0.00195760
-0.00266327
-0.00303515
0.00128915
-0.00244425
-0.00203863
0.00100477
-0.00193529
0.00112162
-0.00120449
0.00002191
0.00066192
-0.00047391
0.00078579
-0.00043994
0.00108557
-0.00197807
-0.00125282
-0.00247848
-0.00278274
0.00004912
-0.00214960
0.00318783
0.00272767
-0.00152821
0.00353848
-0.00392771
0.00207358
0.00094708
0.00108692
0.00345606
0.00069838
0.00287973
-0.00203151
0.00003760
0.00103425
-0.00263884
-0.00148999
-0.00285505
-0.00948153
0.00125224
-0.00103839
0.00703924
0.00022888
-0.00460057
0.00533838
-0.00323617
-0.00008014
-0.00126430
-0.00208127
0.00206172
0.00143448
0.00350044
-0.00713498
-0.00320648
-0.00449452
0.00005762
-0.00250758
-0.00496058
-0.00102531
-0.00995311
-0.00201551
-0.00365947
-0.00104542
0.00430043
0.00449734
0.00338510
0.01000925
0.00717419
0.00089558
0.00780428
0.00471655
-0.00683872
-0.00778417
0.00358283
0.00298418
-0.00926958
-0.01112314
0.00475725
-0.00049595
0.00316558
0.00482350
0.01283946
-0.00103349
0.00105493
-0.00516318
-0.01379576
-0.00883857
0.00069549
-0.00735687
0.00672205
-0.00250319
0.00038735
-0.00133228
0.00815981
-0.00381447
-0.00100831
0.00571403
0.00338847
0.00449351
0.00598982
-0.00271778
-0.00117419
-0.00409491
0.02705893
-0.00534992
-0.00394884
-0.01603041
0.00468996
0.00312515
0.00496269
-0.00089747
-0.01242549
-0.01061155
0.00396148
0.01414778
0.00554198
-0.00149585
-0.00126966
-0.00002907
-0.01107767
-0.00647979
-0.00144247
0.00323858
-0.00452025
-0.00004766
0.00223455
-0.00366787
-0.00235052
0.00715701
0.00016732
0.00222836
0.00527083
-0.00399211
0.00243506
-0.00233639
0.00229595
-0.00155400
-0.00054227
0.00066650
-0.00359230
-0.00221772
-0.00477166
-0.00440997
0.00089069
0.00223551
-0.01405441
-0.00069180
0.00186249
0.00481948
0.00094088
0.00214567
0.00534301
-0.00008459
0.00354880
0.00510824
0.00154321
0.00455951
0.00026207
-0.00321255
-0.00214316
0.00010485
-0.00555459
0.00133059
-0.00427183
0.00151358
-0.00086525
-0.00394872
0.00035342
0.00317550
0.00039294
0.00040350
0.00337224
-0.00262222
0.00776815
0.00120628
-0.00470538
0.00415205
-0.00004182
0.00214116
-0.00098840
-0.00302093
0.00080042
0.00040137
0.00115416
0.00307454
-0.00273355
0.00249527
-0.00377829
-0.00942950
0.00112843
0.00002659
-0.00325205
-0.00329173
-0.00333358
-0.00638457
-0.00247650
0.00334905
0.00119825
-0.00085744
0.00087545
0.00326431
0.00145678
-0.00075725
-0.00133077
0.00194473
-0.00221764
0.00182204
0.00034808
-0.00189280
-0.00213248
0.00364563
-0.00023623
0.00020456
-0.00217331
-0.00173129
-0.00038483
-0.00106426
-0.00376808
-0.00420674
0.00133556
0.00742263
0.00386096
-0.00079531
-0.00315945
0.00452453
-0.00499767
0.00007354
0.00373036
-0.00147214
-0.00162771
0.00030372
0.00231805
-0.00251149
0.00498615
-0.00563785
0.00902503
0.00378489
-0.00152725
0.00534376
0.00123530
0.00121843
-0.00133355
0.00299822
-0.00030503
0.00360998
-0.00103181
-0.00018381
0.01002086
-0.00444603
0.00127706
-0.00053419
-0.00222905
0.00412357
0.00000820
-0.00013642
0.00184920
0.00103032
-0.00294686
-0.00124335
0.00230648
-0.00125880
-0.00397100
-0.00153541
0.00258331
0.00185440
-0.00366975
0.00143696
-0.00339182
0.00167429
0.00129399
0.00121781
0.00003306
-0.00058780
0.00081399
-0.00376566
-0.00295017
-0.00106053
-0.00178394
-0.00237627
0.00074690
0.00114204
-0.00296654
-0.00054577
0.00052626
-0.00143021
0.00090408
-0.00152511
0.00054394
-0.00061581
-0.00074684
-0.00115095
-0.00259550
-0.00065960
-0.00054389
0.00086318
0.00061947
0.00289658
-0.00064006
-0.00144535
-0.00378164
0.00407258
-0.00042581
0.00043852
0.00271901
0.00080055
0.00208460
0.00280458
0.00150423
-0.00029643
0.00067245
-0.00041372
-0.00091714
0.00040905
0.01137516
-0.00539075
-0.00451938
-0.00900143
-0.00541291
-0.00758189
0.00141580
0.00027934
-0.00145130
0.00398971
0.00412252
0.00996942
-0.00194132
0.00861417
0.00399121
-0.00118980
-0.00455665
-0.00381322
0.00394210
-0.00187243
-0.00177013
-0.00532217
-0.00295472
-0.00087858
0.00760296
-0.00151883
0.00871176
-0.00091216
0.00627058
0.01158808
-0.00464841
0.00078424
-0.00777639
-0.00982135
-0.01017591
-0.00231118
0.00129801
0.00294760
-0.00466227
0.00691099
-0.00041173
-0.00301407
-0.00293589
-0.00611485
-0.00438650
-0.00660891
-0.00135355
0.00381039
-0.00278500
-0.00639487
-0.00721484
0.01014915
0.00050911
0.00380818
-0.00242323
0.00602966
0.00200397
-0.00829735
-0.00049615
0.01114934
0.01182993
-0.00761858
-0.00413628
0.00136831
0.00247257
0.00004597
0.00220595
0.00008448
-0.00100330
0.00241363
-0.00017947
-0.00225748
-0.00011176
-0.00520181
0.00279274
0.00489092
-0.00022111
0.00105440
0.00158961
-0.00232073
-0.00331497
0.00322535
0.00022644
-0.00665307
-0.00427602
0.00412324
0.00019223
-0.00053164
0.00295225
0.00465921
0.00180818
0.00124433
0.00520878
-0.00070937
0.00035034
0.00141021
0.00180317
0.00379174
0.00142759
0.00300895
-0.01006542
0.00214804
-0.00316723
0.00093118
0.00179459
0.00629059
-0.00382693
-0.00131254
0.00438866
0.00161807
0.00325006
-0.00441928
-0.00916513
0.00214975
-0.00016969
0.00044304
0.00025693
-0.00182385
0.00145241
-0.00017985
0.00037829
-0.00108102
0.00098886
-0.00164720
-0.00260237
-0.00071708
0.00377212
0.00106260
