0.03712410
0.03406003
0.27713948
-0.21613775
-0.05275448
-0.04193397
-0.10614416
0.16163948
0.21892056
0.05482843
0.11328108
-0.15539727
0.34645799
0.25325075
-0.03410200
-0.13690852
-0.09990545
0.03620900
0.28396073
0.02472280
0.10624174
-0.15965785
-0.29063797
0.21611547
-0.24898957
0.00098707
0.18402758
-0.02476829
0.11958486
-0.23030387
0.22556669
-0.17071086
0.00358065
0.16674007
-0.28803462
-0.05605024
-0.04862057
0.10115109
0.32618281
-0.15847775
-0.00320054
-0.17769341
-0.12820677
-0.01052970
-0.09126118
-0.24719863
0.24707519
0.26453701
-0.04912041
0.02771981
-0.07396436
0.09644377
0.00515431
0.09428820
-0.24002168
0.06657599
0.03367348
0.16397937
0.07631390
-0.09320851
0.08136487
-0.01983152
0.06065221
0.30707896
-0.08016713
0.19258371
0.20131798
-0.23741175
0.08829083
0.02397136
0.01059336
-0.20059842
-0.15471900
-0.02700770
-0.01144944
0.20099995
-0.82185483
-0.24516548
0.01876260
-0.01617405
-0.04965403
0.08305910
-0.05261936
0.04448600
-0.06737327
-0.00502092
0.01734120
0.08191181
0.12532902
0.10839407
-0.01670342
-0.17874402
-0.07629176
0.37881505
-0.07183047
-0.01323084
-0.02972715
-0.10659920
-0.00700985
0.08043893
0.50454676
-0.15078600
0.09533001
-0.07913221
0.08519749
0.03911149
0.21118918
-0.02975168
-0.11805721
0.12286294
0.09662383
0.03729520
0.04260801
0.38592181
-0.10857773
-0.02701111
-0.02615667
0.18081969
0.08955280
0.12223630
0.01494630
-0.20846495
0.13993484
0.02628721
0.14447050
0.28734523
-0.05670717
0.15282197
-0.00783149
-0.06350113
-0.06127701
0.13763732
0.02645622
-0.16625983
-0.28613043
-0.00490778
-0.16711603
0.04931423
0.05734985
0.06770188
-0.08835855
-0.17173705
0.07912569
-0.27245808
0.07169462
-0.32137951
-0.15842950
-0.08377663
-0.13326019
-0.02248460
-0.25189602
0.14824601
0.09367177
0.06664276
-0.02270020
-0.42293477
-0.03574486
-0.19151074
0.01252297
0.00806130
0.19264030
-0.10808537
-0.07399724
0.10718577
0.04094639
0.00197534
-0.29911283
-0.07625625
0.01677282
-0.20373663
0.00891810
-0.01818209
-0.14728612
-0.04748695
-0.16229001
0.28122094
0.03760434
0.02254791
0.09178486
-0.01732851
0.09450545
-0.13197294
0.22486958
-0.21390037
-0.24588402
0.22784194
0.26752552
-0.06787354
0.26945949
-0.06639015
-0.02549834
-0.16308828
-0.09020003
0.03790738
0.09565961
0.18080457
-0.23923635
0.09947810
-0.13053586
-0.27137846
0.00139564
0.10747510
0.15391693
0.15391417
0.10045168
0.02734234
0.26396289
-0.16955325
0.07253885
-0.01568748
0.18086430
-0.14428855
0.02810757
0.08044134
0.20062676
-0.10054734
-0.26909289
-0.01552442
0.14388148
0.04309169
0.09865298
-0.06425986
-0.01283231
0.17403838
-0.04410680
-0.07218324
-0.32840890
-0.24934348
-0.20702843
0.08470409
-0.04790314
0.29868746
0.08106004
0.17804493
-0.18038444
0.12123860
0.04139101
-0.04566315
0.11363632
-0.10475410
-0.19077554
0.23068035
0.04091826
0.16139883
-0.07737253
-0.03063702
-0.13308512
-0.19024643
0.12720126
-0.11768437
-0.02479115
-0.02543448
-0.17498678
-0.09261872
0.16476370
-0.23724717
-0.09349122
0.45671332
-0.26633483
0.10084810
-0.12825555
-0.02810935
0.05801160
0.10148682
-0.18210052
0.02189494
0.03533692
-0.13148285
0.31325766
-0.16479626
-0.05138047
0.00099065
-0.06677251
-0.40286532
0.04500922
0.19293272
0.07576199
-0.02138855
0.12942436
-0.01233870
-0.32634759
-0.08360747
-0.00020453
0.33516181
0.07506216
-0.06932682
-0.12053747
-0.26634794
-0.09909077
-0.23790361
-0.26579338
-0.17213570
-0.00655333
0.00078417
-0.16939694
-0.20656982
0.06592925
0.06797071
0.10136280
-0.09787849
0.11956282
-0.20126817
0.23890373
-0.11398229
-0.22316849
0.09206530
-0.33083981
-0.04526231
-0.05681352
0.06694169
0.05417344
0.02326462
0.17741787
0.14548309
-0.04569965
-0.18528855
0.36930683
0.31450129
0.24212216
0.27636889
0.14380848
0.03132871
0.13305971
0.02139445
-0.09458631
-0.03849297
-0.01847056
-0.02701638
-0.01426138
0.00319141
0.02134850
0.00003182
0.06490901
0.00747212
0.02992902
0.01070080
0.22339863
-0.03522269
-0.10802164
0.05071377
-0.10178138
-0.11886812
-0.11913072
0.07970443
-0.01969712
-0.01953096
0.12767205
-0.05810574
0.08352072
0.20849361
0.03716303
0.04623124
-0.09140705
-0.11305503
-0.11369262
-0.00842193
0.17471692
0.07987531
0.01351932
-0.06781662
-0.01227822
0.16267991
-0.05248348
0.00252761
-0.19232954
-0.10626259
-0.00018435
0.00622874
0.06874351
-0.17930827
0.00613004
0.14120016
0.02056803
-0.00306451
0.10093985
0.11260023
-0.05905565
-0.14634797
-0.02550120
0.03997459
-0.09063282
-0.08709101
0.01495588
-0.00866041
-0.04397808
0.07269149
0.06278923
0.03779962
-0.09918010
-0.01587771
-0.01255863
-0.07386644
-0.11865381
0.17248432
0.04599164
0.02410164
0.25764081
0.00172152
-0.03376105
0.07678190
-0.10954311
0.05468405
-0.00323683
-0.02130247
0.07120226
-0.00459701
0.01749212
0.03581190
0.02104304
-0.09135953
0.02574973
-0.06360127
-0.01882987
-0.10063920
-0.02595053
-0.15693225
0.08119617
0.01829520
-0.03280711
0.07144347
0.03571010
0.00393685
0.09241842
0.04885998
0.05482323
-0.00289978
0.02991171
0.01265555
-0.03617773
0.07354409
0.32387447
0.05870117
-0.00036687
-0.07126966
-0.00082914
0.07556780
-0.03959932
0.07432350
-0.06977250
-0.00584354
-0.05536022
0.03738840
0.00307266
0.05836101
-0.00077181
-0.01444355
-0.02283157
0.01620577
-0.05791628
-0.07043656
-0.03707666
-0.11017043
-0.11467067
0.03865739
0.05732975
-0.06309096
-0.07068199
0.02488053
0.00072451
-0.06155474
-0.03610275
-0.05053224
0.01135475
0.01714093
0.02708316
0.15255556
0.02881587
0.09373450
-0.11345029
-0.06551421
-0.05631473
0.05663437
0.10206243
-0.02831181
0.05702482
-0.08638313
0.14013542
0.03410132
-0.09195346
0.06641365
-0.02822597
0.00227604
-0.03006541
0.00024532
0.01788084
-0.12093594
-0.05045315
0.10507441
0.01341617
0.10692070
0.02447895
-0.07369808
0.01936985
-0.02663724
-0.05929942
-0.01495059
0.00720802
0.05932185
0.03702219
0.02788586
0.06539020
0.12358492
-0.01684209
0.09455183
-0.00524946
-0.05322534
-0.04122235
-0.00465177
0.01541898
-0.01570367
0.05321382
-0.07443017
0.02060139
0.01273638
-0.01155546
0.23966651
0.00598208
-0.02514341
0.04711486
0.07173306
0.08141709
0.21429040
-0.03306585
-0.01715279
-0.12915935
-0.00965174
0.00946119
0.05559269
0.26678872
-0.06117199
-0.04200649
-0.00535191
-0.08988138
-0.07736766
0.03568899
0.04395185
0.03352983
-0.01462556
-0.02019889
-0.05527354
-0.00633729
0.03100539
-0.02122151
-0.07019615
0.00242515
-0.08159757
0.00442094
-0.02736999
-0.07167510
0.00043540
0.06287637
0.00543799
0.04640756
0.04649892
-0.04459741
-0.11112963
0.07342534
0.04568903
-0.02649490
-0.04567452
-0.00307247
0.15038566
-0.12379654
0.01739885
0.03587373
-0.12007383
0.01152388
-0.08878741
-0.01002571
-0.01132743
0.10398734
0.10364973
-0.05491032
-0.02034084
-0.11184561
0.02285480
0.21275337
-0.14602327
0.04751515
-0.13327141
-0.18708615
0.12669888
-0.07933559
0.12110431
-0.08034032
0.24233480
0.08064795
-0.04124700
-0.35967112
-0.14295827
0.19116521
0.03010636
-0.07660510
-0.00573403
0.04566424
0.07588896
-0.18742421
-0.20385598
0.16282585
-0.06942496
-0.16049241
-0.05765483
-0.20051903
0.00810971
-0.25797459
-0.27444264
-0.24259187
0.04166435
-0.00450137
-0.03692922
-0.11357559
0.22968259
0.13226798
0.16549991
0.21932879
-0.01788213
0.43336338
-0.00010819
-0.13611495
-0.17939049
0.00561148
-0.03452004
0.34768814
0.18247612
-0.03852659
-0.03199121
0.14985774
0.26650256
0.15599550
0.00750446
0.29469052
-0.11568589
0.15793009
0.11180688
0.17659456
-0.02798980
-0.05040795
0.21351621
-0.07622419
-0.01448397
-0.17094089
0.18935661
0.09849522
-0.04519651
0.04721384
0.06385869
-0.04069829
-0.06579139
0.09952520
0.10449862
-0.02016999
-0.09609064
0.14988157
0.01476538
-0.01591858
-0.00150472
-0.04030511
0.16041476
-0.10112905
0.02246192
0.04960673
-0.00140220
-0.08474165
0.07239480
-0.09746723
-0.01298680
-0.03138141
0.08333849
0.05344525
0.03779204
0.01756854
-0.03460207
-0.11009347
-0.06493200
0.00688603
0.16219440
-0.01948781
0.02006285
0.01937375
-0.01778018
-0.02442741
0.07727160
-0.11845608
-0.08367503
-0.03305346
0.02015381
-0.11922563
-0.04315390
0.03855913
-0.08126041
-0.00556792
0.13790131
0.09593829
-0.05614826
-0.07754179
-0.04851386
-0.03447784
-0.13184874
-0.00634492
0.03000220
0.05136314
-0.16004571
0.01401852
0.09189937
-0.09227519
-0.10356463
0.00167212
0.04397783
0.08216575
0.04734599
0.03584891
-0.00029597
0.03751986
-0.00698600
0.13662475
0.06210462
-0.05077842
-0.05827820
0.02126088
-0.07648590
0.16480473
-0.01746392
0.04936667
-0.17307757
-0.02770270
0.08715249
-0.15671352
-0.01489024
0.08952706
0.03111447
0.05073952
-0.06731759
-0.00997079
-0.07935318
-0.08799430
-0.06169336
0.05865306
0.06036478
-0.07682832
-0.00728023
0.03599432
-0.10352962
0.06590040
-0.09712108
-0.00463530
-0.00260889
-0.01774753
-0.13801345
0.01965431
-0.01138982
-0.05014675
-0.02239057
-0.03946272
0.03784006
-0.04455261
0.12868597
-0.03732349
0.01418448
-0.27704987
-0.05474507
0.08817445
-0.13833633
-0.10459577
0.03337386
0.00124260
-0.06077940
0.07996657
0.02509300
