-0.02728729
0.04979054
0.08326469
0.04150949
0.60095900
0.11790395
-0.05169672
-0.06466709
-0.02989820
-0.04165316
0.07858106
0.08051205
0.00285965
0.17697261
-0.05026818
-0.15632485
-0.02231241
0.01478643
0.02532081
-0.02389256
-0.19153784
-0.07917830
0.05146977
0.03344915
-0.03282655
0.11585435
0.09279226
-0.11881859
0.23168689
-0.01273801
-0.13105974
-0.04013805
0.07408464
-0.05472744
-0.15123568
-0.07455338
0.11593184
0.08259821
-0.13783696
0.08325093
0.12105200
0.01612094
-0.05618627
-0.03931560
0.05276433
0.06828757
-0.11403165
0.04309106
-0.25927433
0.16726330
0.18305661
0.05665498
-0.03747020
-0.02792335
-0.09303138
-0.00778298
0.04259491
-0.01114793
-0.09939411
-0.03105371
0.04191113
-0.04409408
-0.02588537
0.07122634
0.00823387
-0.00699574
0.02889522
-0.01313569
0.00677894
-0.00969784
0.00895509
-0.01182195
0.01386487
0.00121045
-0.01136643
0.01358199
-0.02682548
0.00181297
-0.00571547
0.00726438
0.01176927
0.01690749
-0.01789010
-0.00249626
-0.00314098
0.01464973
-0.00335442
-0.00930679
-0.02182209
0.01973190
0.01370983
-0.00880111
0.01293758
-0.02067568
0.00257530
0.00614897
-0.05665895
0.03047101
-0.02304238
0.04659130
-0.00086147
0.00042650
-0.03025276
0.02013121
0.02091629
0.01833652
-0.02118442
-0.01605144
0.00725318
0.01691411
0.00444834
0.04743172
-0.02167720
-0.01887902
0.03674960
0.00506165
-0.05905856
-0.01258369
0.00608035
0.01642902
0.02211980
-0.00288950
-0.01520971
0.00624076
0.03620468
-0.02367887
-0.00947734
0.02339263
0.02014677
0.02661896
0.01394145
0.00118351
-0.03849092
0.01761116
0.00806771
-0.00849055
-0.00810667
0.02689223
0.00203980
-0.00133831
-0.02443708
-0.03510731
-0.01945008
-0.03034579
-0.00772274
-0.01614857
0.00994975
0.02970050
0.01698644
-0.00242564
-0.00757303
-0.00206570
0.01471361
-0.06760060
-0.01230978
-0.01101821
-0.00849209
0.02552580
-0.02926452
0.02595183
-0.01155169
-0.00385038
-0.01712008
-0.00269046
0.02354404
-0.00405571
-0.00174210
0.00965525
0.02458553
-0.05912973
0.04818363
0.00126453
-0.04500568
-0.00339633
0.03000606
0.02509526
0.01380669
-0.02243630
0.00823831
-0.00242318
-0.00207555
-0.00644018
-0.00886216
-0.02782059
0.01917004
-0.07565671
0.00519332
0.00453771
-0.00178180
0.01070373
-0.01837997
-0.07797323
0.01454837
0.01398734
0.01612822
0.02880517
-0.02841375
-0.03270958
0.00221668
0.01399776
0.00830465
-0.00653090
-0.00489179
-0.01626172
0.00447185
0.03058353
0.00969535
-0.01580932
0.00489004
-0.01230309
-0.03815487
-0.00452315
0.01478902
-0.02136076
0.00960313
-0.01581291
-0.01450043
0.00170215
-0.00929365
-0.01870438
-0.03245309
0.00897480
-0.01505849
-0.00199255
0.03821736
0.02434085
-0.00190144
-0.00780781
-0.01388211
0.00157931
-0.00318429
0.02986396
-0.00369889
0.00593190
0.02175822
0.02017112
0.00982914
-0.00904268
-0.02424581
0.01807996
-0.02243608
-0.00300986
0.00319087
-0.00329674
0.01211604
0.03177726
0.02578578
-0.00704970
-0.00054866
-0.01427701
0.02436648
0.01168068
-0.00077147
0.03534729
0.00495664
0.01573397
0.05381424
0.06625320
0.01526016
-0.00628516
0.00087012
-0.01153319
0.01370020
0.01810012
0.00513052
-0.04534145
0.02661366
0.00510581
-0.01233837
0.00961693
0.01217769
0.02389764
-0.00340082
-0.01354088
-0.04623600
-0.01286030
0.08193018
-0.02954918
-0.02833533
-0.01565846
0.00588068
0.03909507
0.01439620
0.01104720
-0.01184018
0.02172565
-0.01090902
-0.00964511
-0.00622600
-0.01976167
-0.00326738
-0.01110960
0.01057918
0.00882503
0.00266502
0.00936557
-0.00911290
0.00080875
-0.04209458
0.00969007
0.02960697
0.00138809
0.01214730
0.02692373
0.00933866
0.02178466
0.00195744
-0.03638091
0.05928728
-0.03145572
-0.00804295
0.03559154
0.02721701
0.01379437
0.01086923
-0.00006897
-0.00215091
0.00400420
0.01568191
0.03568315
-0.01686835
0.02820403
0.00207736
0.03127364
0.00539153
0.00350785
0.01260361
-0.01832750
-0.01384105
0.00400286
-0.01434462
-0.04030545
-0.03470901
-0.06581827
0.03057074
0.05973580
-0.00015138
-0.00629002
0.00231605
0.00372034
0.00875219
0.00943364
0.02214138
0.06187624
0.01520129
-0.02619693
-0.01527532
0.01466561
0.03100286
0.02009553
0.01805256
-0.00463590
-0.00552170
0.01742027
-0.00416820
0.00961488
-0.02568749
0.03460512
0.02302368
-0.00517291
0.01782924
-0.00194942
0.00177063
-0.02186020
-0.00646420
-0.01236058
-0.01692981
-0.01808920
0.00978799
0.01118075
-0.02081866
-0.00211017
0.01136448
0.01606734
0.03485523
-0.01040244
-0.00477240
-0.03504490
-0.03002216
0.01614769
-0.01155354
0.00780376
0.01415541
0.01873916
-0.04984383
-0.00254002
0.05648508
0.06798074
0.02358772
-0.01103625
-0.04979119
0.04307180
0.02850988
-0.03905610
0.08231667
-0.02924803
0.02983007
0.08490716
-0.02403381
-0.08532358
0.00672293
0.12438736
0.01690469
-0.01714334
0.00897962
-0.00350364
0.07604665
-0.01494491
0.02917620
-0.01053699
-0.06046298
-0.03687545
-0.05515429
-0.13590859
-0.05786256
0.04336205
0.03028443
0.01801138
-0.11662403
0.10871080
-0.04560207
-0.11629949
0.07437544
-0.00607524
0.04357335
0.04442711
-0.00444971
-0.07494308
0.03594157
0.14007103
0.04667770
0.01100249
0.11177148
0.08411745
-0.07773388
0.01311058
0.09578764
-0.11979008
0.07160541
0.10105436
0.02581497
0.02256060
-0.03528956
0.03009480
0.10556971
-0.09283634
0.06045436
-0.01962183
-0.03464815
-0.00853983
-0.01013085
-0.02831659
0.00723390
-0.00643369
-0.01175569
-0.01791026
-0.04983698
0.01096170
-0.01472909
-0.01761760
0.02601347
-0.02663523
-0.02891573
0.00602902
-0.00003356
0.00904370
-0.03727809
-0.00656641
-0.01782563
0.03457196
-0.00585193
-0.02544618
-0.01346921
0.01032528
-0.02266786
-0.02325860
0.00993658
0.00601878
0.00140456
0.00002746
0.00962866
-0.00574368
0.00164126
-0.00491518
-0.02178698
0.00860319
-0.01978778
0.01076601
-0.01714023
0.01259606
0.00764465
-0.01397790
0.01253466
-0.00238063
0.01632832
0.01226332
0.02982979
0.00904349
-0.00055867
0.01194107
-0.00422975
0.02197683
0.02185637
-0.01313851
0.00806968
0.00644163
-0.00642049
0.01795916
0.03043386
-0.00507430
-0.01428769
0.00251502
0.00478905
-0.00571727
-0.00302835
-0.00070531
0.00524616
0.00999647
0.01228064
-0.01654229
-0.01699077
0.00433092
0.00346374
0.00118585
0.02013877
-0.01645693
0.00153840
-0.00892579
-0.03298103
-0.00245824
0.00529613
-0.01953051
0.00638024
-0.01837461
0.00977732
0.02713057
0.01190366
0.00084118
-0.00177029
0.00473910
-0.00890845
0.00200699
-0.03944985
-0.00404143
-0.01340142
0.02263051
-0.01010032
-0.01267621
-0.00471327
-0.00402190
-0.03037444
0.04645609
-0.00293185
0.00664232
-0.00344350
-0.04109219
0.01303770
-0.01004517
-0.03838894
0.01329618
-0.03534111
-0.02446197
0.00747156
0.01664264
-0.01612066
-0.00369455
-0.04791487
0.00096824
-0.00315784
0.00429142
-0.03054197
-0.00336289
0.01861781
-0.03037186
-0.02432493
-0.02762303
0.11996897
0.12112232
0.05987659
-0.00637475
-0.13565205
0.11169063
0.08255517
0.19919097
0.05397583
-0.06666686
0.12670462
0.24979417
0.49794847
-0.16254975
0.06145400
-0.04879510
-0.05464182
0.04675294
-0.14807948
0.08454235
0.09860191
0.07992224
-0.05774281
0.00511768
0.00226294
0.09171602
0.12471010
0.25122449
-0.08629429
-0.02765979
-0.06206876
0.09194306
0.08093997
-0.11600175
0.15273722
-0.10684610
-0.10784389
0.09415615
0.10244461
-0.15173307
0.25431424
0.07031456
-0.04170892
0.02815398
-0.19465920
-0.28195548
0.05949774
-0.14621967
-0.03627025
-0.05422595
0.12514426
-0.12210119
0.20317987
-0.01062646
0.10992988
-0.00069952
0.08574363
-0.01824562
0.01237117
0.18902187
-0.10562286
-0.00400029
-0.06580421
-0.05932080
0.00415831
-0.02292907
0.00495337
0.01415912
-0.00995489
0.00584891
0.00869142
0.02088231
0.01764605
-0.00200094
0.01450262
-0.01252074
0.02342100
-0.01410143
0.00103447
-0.00702764
-0.00770565
-0.00836595
-0.01458182
0.00462626
-0.01740719
-0.00291328
-0.01415177
0.02448154
0.11526344
0.04412734
0.03266007
0.00138185
0.01252513
-0.00645376
-0.00299770
0.00414456
-0.00286411
0.03954117
0.05251725
-0.00411604
-0.01551442
0.02204348
-0.01430908
-0.01067645
0.01014601
-0.03461603
0.01698839
0.01796539
0.00259675
-0.00222585
0.01344381
-0.03628870
-0.00909628
0.00873853
-0.03633167
-0.01135307
-0.01961844
-0.01558118
-0.02058662
0.00251414
-0.00663152
-0.00572714
-0.01307127
-0.01139165
0.01685689
0.00503790
-0.05193581
-0.01150479
0.00494325
-0.01344873
-0.01400177
0.00188487
0.01301592
-0.00823918
-0.01067773
-0.00093886
-0.00260654
0.02023967
0.01554012
-0.00656520
-0.04569549
-0.02595455
-0.01478076
-0.00706429
0.00977553
0.01640789
0.02142815
0.04801491
0.01822475
0.01166649
-0.00377762
-0.01659468
-0.01735775
0.00047268
0.02503579
-0.00243759
0.01924293
-0.01630820
-0.01324863
0.02671548
-0.00671899
0.00507264
0.01393165
-0.01149137
0.01288320
-0.01127098
-0.01992892
-0.00471699
0.00729029
0.01596113
0.02088085
0.00335342
-0.01252550
0.00506478
-0.00060930
-0.02264596
0.01142766
-0.02817887
-0.00939988
-0.03583667
-0.00468709
0.00478671
0.01451747
-0.01211173
0.00658865
0.00312302
0.00621473
0.00619579
0.01594280
0.02234482
-0.01728059
-0.02643740
