0.10705031
-0.06402697
0.17654151
0.03045127
0.19335681
0.15261413
0.01424461
-0.13787991
-0.31084728
0.17433098
-0.04498897
0.03593044
-0.01785004
-0.06896947
0.00046783
-0.04808161
-0.19165383
0.01365457
0.06376211
0.21060120
-0.02626536
-0.04864375
-0.11801163
0.20727302
0.33958894
-0.02087006
-0.02317869
0.11596301
0.16732898
0.07215930
-0.03240708
0.14484209
0.24165533
-0.17713906
-0.02205619
-0.03589805
0.16469438
-0.04621298
-0.01333927
-0.13291660
-0.03686084
-0.04168891
-0.04260601
-0.25619608
0.09967632
0.15944603
-0.13830253
0.03459381
0.09257951
-0.01838640
-0.28105947
0.11101144
0.04121938
-0.20721576
-0.10174187
0.05016517
-0.18780689
0.05549119
0.09427286
0.06942851
0.06823628
-0.10211395
-0.09348831
-0.25482136
-0.21059233
0.15871856
0.06470501
0.10314194
0.01004021
0.10874722
-0.05045330
-0.36939573
-0.27107078
0.60861951
-0.07242630
0.07157381
-0.04373936
-0.02053245
0.41837406
-0.24433246
0.34584555
-0.09017334
-0.20933305
0.01854701
0.12994446
-0.16526729
0.06231600
0.03165035
-0.07985044
-0.09863166
0.19816993
0.35812560
-0.05300061
-0.18435241
0.40548483
-0.17876534
-0.15835008
-0.26867655
0.06886826
-0.11827573
0.21580245
-0.10711712
0.19148880
-0.01385989
0.04452467
-0.17299695
-0.05061081
0.07062352
0.04099025
-0.22211641
-0.17259569
0.36440763
0.08232404
0.01606962
-0.18643428
0.01947341
0.37586439
-0.05672709
0.10347814
0.10978143
-0.28255445
0.13470915
0.07093082
-0.20880082
0.08715110
-0.44290844
0.04445446
0.14134212
