-0.01087186
-0.01176561
0.00016575
-0.01163023
0.00946616
-0.01153170
0.00118480
-0.00551495
-0.00073434
0.00575979
0.01143479
0.00039499
-0.00062718
-0.00394620
-0.00203558
-0.00989206
-0.00093822
0.01163056
0.00660334
0.00824526
0.00844771
-0.00743794
-0.00705162
0.00997122
0.00096850
-0.00564433
-0.00497861
-0.01027079
-0.00860049
-0.00217751
0.00523579
0.00078711
0.00450034
-0.00223956
-0.00329461
0.00597361
0.00203131
-0.00554791
0.00141654
0.00938647
-0.00391143
0.00086943
0.00379670
0.00026624
0.00105788
0.00115179
-0.00031826
0.00132973
0.00061344
0.00289466
0.00291886
-0.00433783
0.00643934
0.00106496
0.01251583
-0.00217397
0.00046929
0.00339845
-0.01581106
0.01188741
-0.00295214
-0.00204277
0.00520025
-0.01009638
-0.00237951
0.00116806
0.00425999
-0.00630608
0.00647858
0.00266939
0.00077205
0.00484993
-0.00122029
-0.00225160
0.00221132
0.00346071
0.01080729
-0.00443867
-0.00175471
-0.00508718
0.00024823
0.00153175
0.00766856
0.00331072
-0.00603506
0.00555044
-0.01212589
0.00252889
-0.00458857
-0.00611160
0.00617983
0.01365594
-0.00371173
-0.00348883
0.00406978
0.00759997
-0.00764457
-0.00703237
-0.00272689
0.00038182
0.00377886
0.00450374
-0.00131725
0.00507609
0.00292345
0.00356315
-0.00985718
0.00389294
-0.00605673
-0.00780730
-0.01846356
-0.00537095
0.00205614
0.00371024
-0.00224845
-0.00506032
0.00904586
0.00235250
0.00256437
-0.00064648
-0.00046461
-0.00221643
0.00491936
0.00857749
-0.00116742
-0.00356325
-0.01105500
-0.00805033
0.00236055
-0.00185944
-0.00078705
0.00069574
-0.00095316
-0.00004222
0.00028699
-0.00020133
-0.00084155
0.00058066
-0.00328537
-0.00095991
-0.00060589
-0.00351087
-0.00282727
0.00045857
-0.00380636
0.00191209
-0.00144461
-0.00458925
0.00509311
0.00301439
-0.00414070
0.00080870
-0.00183913
0.00147196
0.00054518
0.00066739
-0.00087904
-0.00422697
0.00023994
-0.00093004
0.00278151
-0.00127360
0.00075003
0.00107575
0.00001572
-0.00204975
0.00048384
-0.00062789
-0.00344021
-0.00028367
-0.00102964
-0.00450186
-0.00192125
-0.00136523
0.00384946
0.00318787
0.00319030
0.00085177
-0.00307310
-0.00239483
0.00122633
-0.00487205
-0.00874624
-0.00057314
0.00215246
-0.00364672
-0.00262626
-0.00076538
0.00250078
0.00521815
-0.00302467
0.00290888
0.00435835
0.00471244
-0.00603145
-0.00868353
0.00976418
0.00709472
-0.00309667
0.00112604
-0.00370287
-0.00383505
-0.00378490
-0.01090277
-0.00450871
0.00000954
0.00871528
-0.00667432
-0.00655869
0.00001862
0.00764223
-0.00341987
0.00829308
0.00492520
0.00828051
0.00413136
0.00997878
-0.00889798
0.00585341
0.00760224
0.00096965
0.00539624
-0.00416787
0.00367733
-0.00060628
-0.00545939
-0.00008639
0.00257963
-0.01782746
0.00536646
0.00090701
-0.00102447
0.00098952
-0.01480926
0.01047101
0.01234921
0.00198377
0.00294605
-0.00588681
-0.00106061
0.00013038
-0.00180542
0.00759515
0.00678367
0.00045316
-0.00282704
0.00378591
0.00166472
-0.00203628
0.01353876
0.00152364
0.01048864
-0.00415630
-0.01145077
0.01036761
-0.01246437
0.00046511
-0.00393810
-0.00273042
0.00033055
0.00079560
-0.00883669
0.00818924
0.00202589
-0.00242127
-0.00273196
-0.00696551
0.00267479
-0.00168615
-0.00692901
0.00102556
-0.01139514
-0.00219694
-0.00371472
0.00771971
-0.00157502
-0.00359743
-0.00228200
-0.00553571
0.00225360
0.00430535
0.01048140
0.00321888
0.00484545
-0.00539571
0.00083131
-0.00824017
0.00755610
-0.00074698
-0.00287214
-0.00907090
-0.00556665
-0.00242786
0.00073784
0.00881891
0.00017236
-0.00154351
-0.00088973
0.00373583
-0.01349051
0.00340262
-0.00484714
-0.00300316
-0.00936902
-0.00187206
0.01113408
0.00961659
-0.00070088
0.00521719
-0.00910631
-0.00202450
0.00790942
-0.00558458
0.00005295
-0.00319027
0.00210212
0.00420486
0.00806131
0.00204417
0.00866026
-0.00501198
0.00528932
0.00255589
-0.00563587
0.00165842
-0.00083112
-0.00785679
0.00108965
-0.00491592
0.00813818
-0.01169704
0.00040208
-0.00839499
-0.00231730
-0.00006499
-0.00425144
0.00143859
0.00034212
-0.00368434
-0.00079348
-0.00922501
0.00544451
0.00405613
0.00989645
-0.00259407
0.00015226
0.00204964
-0.00255192
-0.00083051
-0.00467208
0.00639987
-0.00099009
0.00482605
0.00255975
-0.00756135
-0.00069667
0.00716703
0.00158971
-0.00196582
0.00589085
0.00321663
0.00384481
0.00349052
-0.00381108
-0.00161031
0.00147691
-0.00206280
0.00156823
0.01088097
0.00106635
0.00120308
-0.00146091
-0.00695638
0.01127024
0.00990439
-0.00035188
0.01025181
0.00173047
-0.00071454
-0.00626683
-0.00824704
0.00204560
-0.01067130
-0.01017857
-0.01014802
-0.00101197
0.00446207
0.00888265
0.00099391
0.00458169
-0.01114549
0.00295808
-0.00662251
-0.00168486
0.00279178
0.00535057
0.00240197
-0.01232138
-0.00002803
0.00585002
-0.01529822
-0.00272564
-0.00508788
-0.01127043
0.00705483
-0.00161056
0.00546531
-0.00681380
0.00503581
0.00083571
-0.01440392
-0.00456549
0.00101702
0.00850792
0.00129969
-0.00304483
0.01713383
0.00462135
0.00287940
0.00194114
-0.00142841
0.00085476
-0.00207999
0.00445243
0.00173512
0.01143555
0.00307198
0.00071200
0.00116095
0.00135694
-0.00056018
0.00152402
0.00528403
0.00570588
-0.00262610
-0.00292827
0.00167984
-0.00258311
0.00941197
0.00630120
-0.01001516
0.00162897
-0.00631861
-0.00262894
-0.00146426
0.01012030
0.00795233
-0.00347836
0.00482466
-0.00430917
0.01305320
0.00542958
-0.00084345
-0.00078880
0.00194453
-0.00264019
0.00397941
-0.00060552
0.00124264
0.00791507
-0.01423538
-0.01402340
-0.00241676
0.00873775
0.00802614
-0.00412401
-0.00100448
-0.00020762
-0.00037347
-0.01369469
-0.00109994
-0.00563534
-0.00536950
0.00945220
-0.00516119
0.00829995
-0.00799635
0.00242957
0.00586774
0.00791515
0.00482970
0.00396505
-0.00258872
0.00585761
0.00339801
-0.00189607
-0.01043971
-0.00358945
-0.00448984
0.01149257
-0.00599058
-0.00022171
0.00213744
-0.00706940
-0.00012814
0.00228879
0.00644287
0.01150356
-0.00638522
0.00643293
0.00777633
0.00130545
-0.00807610
0.00060520
0.00124232
-0.00045969
0.00667388
-0.00148077
-0.00087152
-0.00153309
0.00436888
0.00688012
0.00332744
0.00704853
-0.00138969
-0.00027217
0.00136043
-0.00250225
0.00696754
0.00650771
0.00684862
0.00387972
0.00214025
-0.01081522
0.00343936
-0.00183160
0.00556562
0.01110390
-0.00313560
-0.00868139
0.00557834
-0.00504792
0.00615819
-0.01488753
-0.00147531
-0.00006713
0.00477081
-0.00002085
0.00966271
0.00020073
-0.00276093
-0.00825092
0.00575090
-0.00273227
-0.00004394
-0.00119381
0.00788508
0.00893747
-0.00334526
0.00418253
0.00347459
0.00554608
-0.00137823
-0.00262895
0.00225080
0.00196158
-0.00123333
0.00991859
-0.01251632
-0.00104316
-0.00722936
0.01224272
-0.00736232
0.02357411
0.00173544
0.00133534
-0.00205928
0.01636767
0.00284573
-0.00499138
0.00127477
-0.00111784
0.00034839
-0.00297900
-0.00946754
0.00371018
0.00059346
0.00029125
-0.00128780
-0.00123338
-0.00086710
-0.00143417
0.00025387
-0.00243044
0.00436811
-0.00456845
-0.00243633
0.00172744
0.00032452
0.00531705
-0.00520550
-0.00184565
0.00062865
0.00390479
0.00123405
0.00274927
0.00195286
0.00444771
-0.00100578
0.00878172
-0.00220693
0.00303139
-0.00205408
0.00015864
0.00270872
-0.00448528
0.00662492
-0.00422361
-0.00224163
0.00112348
-0.00043801
0.00356920
0.00408051
0.00022363
0.00082634
0.00531873
-0.00711907
-0.00444116
0.00034781
0.00428646
0.01117601
0.00142221
-0.00328937
-0.00877545
0.00275396
-0.00142880
0.00336996
-0.00053807
-0.00328886
-0.00272566
-0.00253480
-0.00361591
-0.00200907
0.00128007
-0.00254118
-0.00489509
-0.00099384
0.00602229
0.00443262
-0.00250725
0.00294298
0.00123549
0.00596768
0.00374538
-0.00290285
0.00106638
0.01108045
0.00669691
-0.00040683
0.00294875
-0.00062922
-0.00509485
0.00155687
-0.00375881
-0.00380409
0.02343523
-0.00721387
0.00103336
0.00747274
0.00447731
-0.00083935
-0.00272198
-0.00659128
0.00153228
0.01454457
0.00834774
0.00146913
-0.01586855
0.00712288
0.00747752
-0.00398013
-0.00278385
-0.00039858
-0.00264358
-0.00123105
-0.00605832
0.00592079
0.00904332
-0.00206896
-0.00955891
-0.00398078
-0.00313442
0.00537027
-0.01865174
-0.00194639
-0.00356167
-0.01190205
-0.00414660
-0.01531435
-0.00046098
-0.00733184
-0.00636793
0.00807140
0.00970003
0.01221453
0.00090641
-0.00215709
-0.00216047
-0.00749042
-0.00340398
-0.01100945
0.00042505
0.01469392
0.00976384
-0.00224078
-0.00105234
0.01440865
-0.01360836
0.00675466
-0.01260595
-0.00319125
-0.00257208
-0.00174386
0.00173940
0.00361488
0.00122646
0.00183817
0.00845015
0.00836321
0.00291647
-0.00596251
0.00605919
-0.00322176
0.00191818
-0.00191224
-0.00188921
-0.00672276
-0.01019857
0.00086985
0.00521129
-0.00171313
-0.00364552
0.00874858
-0.00222987
-0.00071216
0.00273555
0.00144076
0.00968823
-0.00145760
-0.00985473
0.00659231
0.00249550
0.00362715
-0.00765674
0.00006013
-0.01719073
0.00043130
-0.00007741
-0.00017202
0.00399684
0.00918644
-0.00399486
-0.00309120
-0.00016042
0.00293992
0.00549815
0.00599946
0.00040280
0.00109102
0.00634925
-0.01066673
-0.00928149
0.00359741
0.00748138
0.00126616
-0.00255588
-0.01762243
-0.00531947
