-0.06632775
0.05713789
-0.04577260
0.01407989
-0.02408338
0.00594757
0.00180853
0.04828842
-0.06578834
-0.04418439
-0.01322433
0.03288319
0.00108706
-0.01913152
-0.02111275
-0.04833407
0.03631837
0.02605172
0.00700039
-0.06733759
0.06998920
0.05013304
-0.12410095
0.00300604
0.01300297
-0.03997790
0.05284739
-0.04195527
-0.01657006
0.04596226
0.03412383
0.02987571
-0.00617181
-0.07476299
-0.01337936
0.02941307
0.06843385
0.01682888
-0.07248301
0.10209841
0.00508552
-0.06305277
0.03765862
-0.05148078
0.04632366
0.02565535
-0.00194225
0.01760672
0.08206927
-0.02368003
-0.01346351
0.09496634
-0.05442372
-0.01966280
0.02048014
0.03520918
0.05079784
-0.05210781
0.10307667
-0.02109371
-0.03037077
0.05107456
0.02006752
0.01709721
-0.02623945
0.00569843
-0.01381730
-0.00480404
-0.02164118
0.04682089
0.01556371
0.07350646
0.04888177
0.03652853
-0.02792873
0.01014023
-0.03029677
-0.02520522
-0.07581213
-0.00141882
0.02196958
0.05655750
-0.05461516
0.01306109
-0.00127832
0.07419929
-0.06325635
0.02611825
-0.04175619
-0.01666660
0.02844827
-0.03481303
-0.00311051
-0.04016928
0.02196046
-0.05104443
0.00594598
0.06749509
0.01783781
0.01164582
-0.02889273
-0.04433890
0.02081645
-0.07513422
-0.01474330
-0.02416569
-0.02708153
0.04354121
0.03885217
-0.06791854
0.00710624
0.04960829
0.06787458
0.01042695
0.03701810
-0.05415774
-0.03230488
0.06798694
-0.01333899
0.01849664
0.05077912
-0.00519950
-0.05695107
0.01164092
-0.01260200
0.01024797
0.03457803
-0.01518920
