-0.05621076,-0.01302947,-0.06779976,-0.01419887,0.03139866,0.02662133,0.05004844,-0.05821493,-0.02151481,-0.13620116,0.05098159,0.04872714,-0.07211451,0.05727404,-0.12085147,-0.03106928,-0.02903186,0.04930316,0.01944872,0.02384913,0.00176050,-0.06607188,-0.06467848,-0.01222824,-0.18304324,-0.06778617,-0.06304520,0.07533059,-0.07323927,-0.02515689,-0.00618297,0.02706270,-0.08715436,0.06173405,0.04728044,-0.10348956,0.08857429,0.08564238,-0.04816059,0.00285144,-0.01375546,-0.04220550,-0.01042823,0.00465817,-0.04692179,0.07635459,0.07006019,0.01534915,-0.13579009,-0.05227338,0.07974146,0.03848830,0.04778720,0.07434298,0.03597561,-0.07261953,0.03977065,0.15323867,0.02243140,0.01528616,-0.06692565,0.03106975,-0.12712942,-0.15550409,-0.04530828,0.03824566,-0.06011513,-0.26173493,-0.19527984,-0.04978906,-0.11145443,-0.13435604,-0.03431938,-0.04376506,0.08247122,0.03407042,0.12611386,-0.05280688,0.04872797,0.00804587,0.01284971,0.06558209,0.03552277,0.05351520,0.04619539,0.06713265,0.01108923,-0.01788058,0.02404100,-0.06594812,0.05428671,-0.00055652,-0.07888933,0.02289012,0.08329691,-0.02171661,0.05280247,0.02532085,0.04918911,-0.02984882,0.03561968,0.05724313,0.03035141,0.15215741,0.06339928,-0.16718106,-0.12348130,0.10692594,-0.08550618,0.05968912,0.06284748,-0.04879304,0.01559944,0.11621746,0.05663500,-0.04975561,0.14460920,-0.08323121,-0.04901769,0.09528603,-0.02919764,0.00990038,0.09887094,0.10524371,-0.03563226,0.09281366,0.22679928,-0.05944951
0.01236495,-0.14018360,-0.03114565,-0.02949751,-0.17341155,0.00028367,-0.00218502,0.00335056,0.00987819,-0.07712651,-0.04224380,0.02741234,-0.02379393,0.05485799,-0.02992129,-0.01365329,-0.04877831,0.18209291,-0.10232066,0.04881676,-0.02205340,-0.06990848,0.09152514,-0.01091583,-0.06359595,0.10236444,-0.02174207,0.15454112,-0.09046088,0.00023301,-0.00599280,-0.00990688,0.10886209,0.04914268,-0.05507666,0.02428910,0.07973520,0.00606781,0.04069960,0.08891603,0.08330313,0.17181273,0.00842513,-0.09026239,0.03116376,0.00853383,0.09516605,0.03441555,-0.00868204,0.08758518,0.00772979,0.02180842,-0.16807781,0.11710287,-0.06868083,-0.01868634,-0.25023940,-0.06919988,-0.00616211,0.07171347,0.06757779,-0.02174983,-0.06186191,0.03583644,-0.01716509,-0.16352575,0.02843206,0.13691437,0.03050486,-0.01125103,0.16476782,-0.06358419,0.12129758,-0.04352227,0.00986037,-0.07591618,0.07534560,-0.14019391,0.00790575,0.02713141,0.02053063,0.11020645,-0.00713744,0.03703417,-0.07073314,0.05892004,-0.08167633,-0.05344570,-0.13581365,-0.02240563,-0.05778602,-0.01448064,0.09793986,0.02408558,0.14731213,0.01744234,0.09624714,-0.08956117,0.02439866,-0.09788604,-0.13620545,0.20483546,-0.07616052,-0.02800459,-0.06073014,-0.01729967,-0.18111403,-0.20640673,-0.03317819,-0.10450268,0.02849977,0.02086455,-0.02735667,-0.12896608,0.12295382,-0.00797504,0.09097844,-0.01750002,-0.07018376,0.02523149,0.02980595,0.00148252,0.06926627,-0.06802578,0.03529921,0.03058005,-0.01531769,0.05581426
-0.00554023,-0.15027913,0.02069018,-0.05604338,0.08188397,0.05261129,0.21971329,-0.02436179,-0.06012955,0.00401439,0.14177284,-0.10955147,0.06105792,-0.08547755,-0.00429602,0.05640353,-0.02637666,0.07283582,-0.09637530,-0.13605076,0.01921240,0.16030236,-0.01838397,-0.01983327,-0.01807042,-0.03974464,0.01424514,-0.07492655,0.05994072,-0.06493406,-0.08621434,0.04558767,0.04547579,-0.10937719,-0.00395557,-0.04431122,-0.11969031,-0.05611930,-0.11409578,0.05333869,0.12009834,-0.11269008,0.08328012,0.02723547,0.00860214,0.08777421,-0.09646458,-0.02976872,0.14306855,0.00100719,0.00329087,-0.10711502,-0.14020172,0.10913074,0.09660321,-0.07314124,-0.00639775,0.07885780,0.03254376,0.03332840,-0.07919586,0.01877819,-0.05470317,-0.11153376,0.04298684,0.03855865,0.11894441,0.03838813,0.05146199,-0.11805075,0.00657610,-0.03675130,-0.04212588,-0.00670804,0.08882744,-0.09135327,-0.00776686,0.00975442,-0.03543727,-0.03082041,-0.08315954,-0.01481992,-0.10701549,0.04081815,-0.01478568,0.03089692,0.07748910,-0.17027658,-0.08321685,0.12099107,-0.02046933,0.06811514,-0.02657512,0.09992528,0.00053315,-0.00505415,-0.00653836,-0.00537111,0.00912866,0.00978009,0.02534837,-0.03366598,-0.02997924,0.02278337,-0.02043289,0.04826071,0.01533644,-0.07525979,-0.06790213,0.05712589,0.00244495,0.01895723,0.06977306,0.00089137,-0.00200930,-0.04971093,0.00511481,-0.07792361,-0.11712530,0.02838364,-0.02912984,-0.04820949,-0.01453595,-0.03088540,0.09287159,0.01830416,0.13217910,0.10070074
-0.02281948,0.04339108,0.08610320,0.00492809,-0.10425731,-0.06286430,0.21896254,0.07866807,-0.00007419,-0.15824153,0.05457806,-0.08733795,0.02961393,-0.08524203,0.08173195,0.11055198,0.16090146,-0.03940915,0.10739951,0.05280276,0.01953982,-0.08811644,0.11316993,0.03913859,-0.10074943,0.07349291,0.01939025,0.07560726,0.10050159,-0.19701079,-0.02546629,-0.04331384,-0.12153437,-0.03001145,0.07741445,-0.00769250,0.13315809,-0.02314908,-0.03585879,-0.05330945,0.05720562,0.03176918,-0.03516426,-0.04028122,0.06787774,0.02585508,0.06155803,0.00892394,0.03401631,-0.10733077,0.03374099,-0.13182083,0.02526990,0.04017590,-0.13348283,-0.02252979,-0.00829739,0.00465266,0.07546020,0.08590797,-0.05946725,-0.00542198,-0.01268199,-0.01391471,-0.04534219,-0.03507304,-0.08441423,-0.11245875,0.13749430,-0.03781045,-0.06457459,0.01776287,0.12722006,0.05756002,-0.00148931,-0.04111308,-0.13406479,-0.14862226,0.08516429,-0.03305988,0.13173535,-0.01330305,0.09335223,-0.05426957,0.11595062,0.04423947,-0.07671034,0.13061552,0.04245827,-0.03451138,0.00746653,0.10678712,0.01882684,0.01354070,-0.08416981,0.03281440,-0.08559667,0.06331272,-0.01322894,-0.04546595,-0.08113271,0.07131158,0.12292012,-0.03610117,0.00234680,0.05943893,0.01865111,-0.00037319,0.00668122,0.10422550,0.04511306,-0.07257179,-0.02831568,-0.10895997,0.00616936,0.02151286,-0.04443370,0.00267607,-0.06486525,-0.01936363,0.10879502,-0.03311155,-0.04721953,-0.05657984,0.13108118,-0.05085614,-0.00925189,-0.12455491
0.04394507,-0.14384598,-0.00640369,0.03461873,0.02286266,-0.02939847,0.03458169,-0.04399664,-0.05544372,-0.03235089,-0.03694571,0.00335387,0.03791695,-0.03022145,-0.02477854,-0.03594666,0.00374973,0.01959905,-0.00324649,-0.11688080,-0.10871623,0.10918719,0.07831550,-0.09485621,-0.02472760,-0.04972447,0.06167432,-0.01489683,0.12727752,0.05924614,0.06628102,0.02422443,0.11428029,0.15086305,0.09695222,0.08248962,-0.10435729,0.06331703,-0.04918879,0.11499710,0.16514526,0.04950870,-0.08721463,0.03329433,-0.09194390,0.08030986,0.04626982,-0.22165991,-0.06965328,0.08268323,-0.02781600,-0.04841220,-0.01324410,0.01945614,-0.04394121,-0.03440965,-0.14354713,0.00180706,0.01899975,0.01190390,-0.06139527,-0.08115082,0.06164889,0.03818858,-0.00085300,0.12163505,-0.19513626,-0.00716352,-0.09860411,0.09810124,-0.11382180,0.04022483,0.01637606,-0.07146549,0.17301151,-0.04715028,-0.11436614,-0.00027278,0.13597402,-0.12900212,0.06652791,0.15596522,0.00996814,0.05426693,0.00767620,0.00430083,0.07622887,0.00165723,0.06344546,0.06945500,-0.08345786,-0.05566403,0.11321722,0.08250716,-0.01883361,-0.08457438,0.07269669,0.06176002,-0.06127963,-0.05622521,0.10418219,-0.14079517,-0.02839036,-0.05306931,-0.02262836,0.06625569,-0.18219739,0.09600702,0.06867457,-0.01690262,-0.02868907,-0.03493850,0.06655112,-0.04093019,-0.10357653,0.04771470,-0.06134791,0.13517429,0.01914855,-0.03753611,-0.12130512,0.04499502,-0.05531941,-0.03199494,-0.02075966,-0.00180000,0.01165821,-0.07708305
0.05645674,-0.02505077,0.00819462,-0.07338412,-0.00789699,0.00107973,-0.00844240,0.23629422,-0.00716690,-0.10481154,-0.02083131,0.14078107,0.16001505,0.07560496,0.05240361,-0.04445498,0.04616364,0.00374318,0.12731546,-0.01582118,-0.04792867,-0.12936121,0.02864793,-0.00838139,0.06351116,-0.10681643,-0.15793630,-0.07275189,-0.07211492,0.09152483,0.05697348,0.09580965,0.03582746,0.03377990,-0.04017802,0.02641895,-0.07635990,0.07909509,-0.04282779,-0.01648746,-0.09707915,-0.04904655,0.06008319,0.00804205,-0.05285833,0.03256257,0.01933514,0.02948175,0.10758300,0.03799585,-0.09613494,0.01718954,-0.05066210,0.06742781,-0.03986249,0.09971330,0.01056794,0.06575546,0.03147423,0.07126484,0.08614571,0.03831697,-0.04403907,-0.01049090,-0.00941016,0.00880395,-0.02899258,-0.02473869,0.00092163,-0.07897008,-0.19233318,0.10677885,-0.00929464,0.06134090,0.07879467,0.04778021,-0.27023900,-0.04095383,0.00998302,-0.04923248,-0.11559512,-0.10075556,0.00248305,-0.06378189,-0.12489831,-0.01266757,0.07713081,0.06679346,0.10099694,-0.01170882,0.03975163,-0.07282590,0.09355833,-0.10061701,0.03072142,-0.07749588,0.13876243,0.07129023,0.04140459,-0.03012014,-0.09431791,-0.03109583,-0.01250495,0.07330010,0.08339921,-0.08206795,0.00515677,-0.02172293,0.02257875,-0.07477241,0.04989603,0.02327692,0.04022771,0.02037388,-0.03268010,-0.05985100,-0.11673753,0.11802205,-0.16329776,0.06886562,-0.09995873,0.09438826,-0.03819109,-0.00119723,-0.01176678,0.03423269,0.03637555,0.07890970
0.03125256,0.06633633,-0.05557078,0.07964601,-0.02320412,-0.06873678,-0.00921699,-0.04174199,-0.04454692,0.09295297,-0.08252873,-0.15385726,0.09187076,-0.00706050,-0.01585583,0.11786067,0.02048666,0.13667102,0.04105399,-0.02383547,-0.08293866,-0.01758536,-0.01820671,-0.14206055,0.01626533,0.15087920,-0.03960310,0.00596085,-0.05087326,-0.00149331,0.03646747,0.01109365,-0.09262099,-0.04548256,-0.04057466,0.24323882,0.02765408,-0.06540541,-0.06342967,0.19907881,0.10556554,-0.11750861,-0.10544183,-0.08533539,0.09770919,0.03553424,-0.00096817,0.09978335,0.14519601,-0.09184269,0.10403815,0.02162941,-0.01933780,0.05801910,-0.03201712,-0.00576864,-0.08362835,-0.04285575,0.05018298,0.10885780,-0.06686015,0.05060713,-0.00208695,0.05731517,-0.02176884,0.24524206,0.02288348,0.01534776,0.10376126,-0.07668385,-0.02358620,-0.00897009,-0.11922012,0.05689931,-0.09063130,0.00057417,0.01539764,0.11957134,0.16146752,0.01192515,0.04288893,0.06733446,0.00827863,0.08923755,-0.07914920,0.10595196,-0.04336355,-0.13202861,0.03804796,-0.07247531,0.02014740,-0.00632147,-0.07361188,-0.11865344,0.04788845,-0.09546938,0.11392873,-0.00484636,0.04443822,0.03549224,-0.01106608,-0.15402183,-0.05822328,-0.21818368,-0.00290650,-0.09040509,0.05444495,0.01541993,0.06143352,-0.01352771,0.07839296,-0.01458880,-0.11545408,0.06485531,-0.02249189,0.03630275,-0.03860354,-0.02441306,0.04104968,0.06665881,-0.03463218,0.02866989,0.19561452,0.02696796,0.23554610,-0.00900263,0.08807672,-0.08324079
-0.09964567,-0.01568029,-0.06439506,-0.00696111,0.00803008,0.02820523,0.01853981,-0.10318047,0.02187744,0.01892291,0.03571597,0.00256555,-0.04971956,0.02358082,-0.02910475,-0.01695827,0.07449695,0.03782607,-0.10384475,0.08391152,-0.15405457,0.08455716,-0.07327025,0.08329247,0.05780156,-0.10986396,0.13356920,-0.03910666,-0.03066291,-0.08088389,0.10927515,0.04895934,-0.08619706,0.14658059,0.10667750,-0.08681045,-0.03121011,0.05169716,-0.11188444,0.00890264,-0.03424587,-0.19927695,0.02543650,-0.07732035,-0.05597312,0.04532470,-0.00162248,-0.00524938,-0.02302457,0.14591274,-0.06211900,-0.12377498,-0.01238904,0.09038848,0.06589805,0.01501722,-0.01357201,0.09342974,0.10238969,-0.01899204,0.13462180,0.02655992,0.13028370,-0.13887024,-0.03559662,-0.01392662,0.13122958,0.03354993,-0.00402394,0.16445106,0.10582888,-0.17055267,0.06481586,0.09864558,0.11254445,0.05912440,-0.02263282,-0.10133252,0.20509928,0.00720788,0.07254239,0.04647681,0.01336468,0.00616256,0.04799791,-0.01474354,0.04664233,-0.03757250,-0.01600796,0.04182018,0.05676404,-0.03253357,0.01556401,0.02139402,-0.06884312,-0.08002042,-0.19328357,-0.15231787,-0.05731876,-0.00138893,-0.01068463,-0.11102037,-0.05378849,0.02107780,0.02443541,-0.13187653,0.07195478,0.11699586,-0.07945442,-0.02040574,0.02707455,0.03852976,-0.04749051,0.04751317,0.11411987,-0.00946880,-0.08344115,0.14557537,-0.13240233,-0.15370658,-0.02452071,0.03686671,0.04293568,0.00413758,0.00198355,0.09921049,-0.15732948,-0.12550890
-0.07252059,0.07122041,-0.06446216,-0.08656764,0.02763935,-0.16779914,-0.09496348,0.09273818,-0.07700309,0.13510391,0.00630063,0.01887056,0.08092045,-0.13016386,0.00786613,-0.16452806,0.10765275,-0.07766109,-0.06273023,0.04551994,-0.06767035,-0.00914158,-0.12961668,0.00072374,0.01991690,0.03628779,0.06711999,0.00989164,-0.00565444,-0.00235970,0.02845530,-0.15560184,0.02194965,-0.03739085,0.01872832,-0.00636432,-0.18703462,-0.04667735,-0.03194086,0.03422029,-0.02812929,0.03686269,0.01061772,-0.04606222,-0.11600130,-0.08025617,-0.05984287,0.02560168,-0.10362838,-0.01012214,-0.00980494,-0.08991016,-0.00836909,0.01369157,0.04457227,-0.04637807,0.15785401,-0.05901000,-0.08079391,-0.02836261,0.00363522,0.01452163,-0.14806142,0.15896174,-0.00806653,0.07567579,0.20950682,-0.00223863,-0.15995586,0.00554599,0.13711119,-0.00858920,-0.02600481,0.01138113,-0.09695270,0.01503934,-0.02831230,-0.03517929,0.05649289,0.05424359,0.01467250,0.12235913,0.06854655,-0.07998260,0.02572596,0.12499607,-0.06033552,0.11335612,0.06705616,-0.05542135,0.12984870,0.01531752,-0.05518306,0.06035662,0.01573772,-0.03884021,-0.03961433,0.14017349,0.07029014,0.07227094,-0.06055781,0.06577259,-0.03326155,0.00733545,-0.00558118,0.05511347,-0.13893506,-0.02759606,0.02085057,-0.00261535,0.09601805,0.04718002,-0.12167659,0.10044210,0.00396238,-0.06883486,0.06232306,0.03885588,-0.01701492,0.08109587,0.01727558,-0.06380390,-0.03494526,0.13020171,0.11914978,0.05208446,0.06440348,0.00225142
-0.00189574,-0.06102489,-0.08424570,-0.04849362,0.15175632,0.06193586,-0.08798634,-0.01238893,-0.08437172,0.01995321,0.11168525,-0.00660985,0.00438450,-0.03707035,-0.01242993,-0.02038052,0.12344226,-0.07319818,-0.00151974,0.02430470,0.00107753,0.23162729,0.05541544,-0.07751895,-0.08444393,0.17950922,0.06874813,-0.02008884,0.00957124,-0.01243549,0.11489940,-0.03060921,-0.04884779,0.13249625,-0.13070567,0.05493279,-0.13279220,-0.05059097,0.11206555,-0.00487718,-0.03775248,0.09566655,0.02422098,0.16537128,0.02378914,0.09677583,0.02678270,0.07627164,0.00546658,-0.04115104,0.05248059,0.02660310,-0.05288675,-0.00136538,0.01008024,-0.01211500,-0.03489577,0.01115882,-0.06917831,-0.00914275,-0.02665416,0.03752742,0.03520388,0.07730600,-0.02255739,-0.12235869,0.03765080,0.01514912,0.21578434,0.05308250,-0.05657147,-0.01972615,0.07106264,-0.05152046,-0.06892122,-0.00090471,-0.01718440,-0.03259682,-0.15252638,-0.00714935,0.03540930,0.09293353,0.00743448,-0.09788445,0.00408158,0.04775355,-0.04628316,-0.06903915,-0.12305240,0.01275334,-0.10846835,-0.00868451,0.11919700,-0.03346280,0.00228093,-0.08626275,0.02159358,0.08071428,0.08199483,-0.10465042,-0.05951940,0.10448717,-0.02738754,-0.07286636,-0.00437129,0.04220113,0.00007360,0.11865886,0.02222298,-0.00459959,-0.07088222,-0.05086271,0.01904221,0.01393269,0.08692418,0.04733871,0.05410282,0.07574592,-0.11033762,0.06140083,0.07062360,0.01107904,-0.08471122,0.02193476,0.11298573,-0.01542748,-0.01735106,-0.05949106
0.07049960,0.03910979,0.04198830,-0.00561569,0.02024610,-0.05179092,0.03039650,0.04239383,-0.00438816,-0.01477461,0.02109081,0.03357780,0.02049077,0.05914536,-0.15392481,-0.03705266,0.04847852,0.00773081,0.04657703,0.02996317,-0.06097844,0.04808849,0.05201246,0.09771874,0.07448813,-0.13604774,-0.02460974,-0.04959336,-0.06036574,0.11723267,-0.05485101,-0.08963143,0.01230504,0.09305270,-0.04505503,0.06948863,-0.02885354,-0.00279176,-0.00581448,-0.01091743,0.05406304,0.04211537,0.02564687,-0.13145979,-0.03707423,-0.11316540,-0.03436889,-0.12147177,0.01099218,-0.02319347,0.12749803,0.05533618,0.02701525,0.07448119,0.12248608,-0.00633677,0.01660249,-0.05915121,0.02995374,-0.08601690,-0.05869284,0.06690874,-0.13868517,-0.21717139,-0.00961931,0.13975024,0.12135009,0.09462026,0.11144549,-0.02694551,0.06142347,-0.13548148,0.11919029,-0.03348714,-0.04360367,-0.05459944,0.00788611,-0.01550466,0.07321984,-0.02300789,-0.14307153,0.01178734,0.06851305,0.01207037,0.01110902,0.04216883,0.02659050,0.16951999,-0.03440563,-0.00752076,0.00049794,0.09515455,0.00632139,0.00297890,-0.08043092,-0.11498523,0.01353510,-0.03250203,-0.00951160,-0.06622171,-0.01633170,-0.05303551,-0.07776560,-0.03709698,0.06654894,0.08443876,0.01531349,0.16158208,0.01532607,0.01669267,0.04837746,-0.00305519,0.01523509,0.09301187,0.10159869,-0.01797681,-0.00106949,-0.03061372,0.04051757,0.01602223,0.02865838,0.13015778,-0.08598036,0.00208274,-0.01121024,0.04816507,0.02210945,-0.03894063
-0.00454717,-0.11230925,0.01343528,0.10873654,0.01580796,0.03802760,-0.08329395,0.03603397,-0.02261147,-0.02004869,0.07113602,-0.02128033,-0.00467757,-0.14774093,-0.14443596,-0.00804825,0.04244928,0.09830607,0.03968077,-0.03719155,0.09905402,0.06614130,0.02710545,-0.08284475,-0.00541460,-0.06147677,0.07463174,0.05770918,0.00069117,-0.16883972,0.07899236,-0.11703359,0.08281795,0.05580051,0.03543793,0.07052932,-0.03259260,0.08289719,-0.05270432,0.05627288,-0.03095466,0.02442562,-0.07466136,0.09960285,0.09600475,0.03258882,-0.05172515,0.07051737,0.11224452,-0.06534617,-0.12271424,0.05030222,-0.09319457,-0.07548834,-0.11213997,-0.06862231,0.12303649,0.02619008,0.08670980,-0.03802083,0.08737455,0.03249215,0.05744051,0.09650228,0.11861090,0.05037275,-0.04023046,0.06186206,0.03280670,-0.03580390,-0.13138679,0.11137664,-0.01470449,0.04548120,-0.04640326,0.11381812,0.04356873,-0.09406132,0.01048704,0.03853240,-0.11040783,-0.07382247,-0.01465951,0.02880363,0.04601495,-0.06720647,0.00770263,-0.09822986,-0.04970311,0.01063871,0.06682270,0.01358272,-0.33406094,-0.10094336,0.00059241,0.00776597,0.09676873,-0.03284307,0.02305515,0.01072384,-0.02176368,0.03472916,-0.07509235,-0.01183858,-0.06817212,0.05926206,-0.02655069,0.08835930,-0.00091772,-0.00091671,-0.05861073,-0.00719213,-0.03389964,-0.03816028,-0.07170571,0.00396540,-0.01090229,0.03743910,-0.08799624,0.00727732,-0.05459113,0.10438378,0.00829354,-0.06138900,0.10775544,0.04550848,-0.00487324,0.00742599
0.01433453,0.09599528,-0.02925679,0.01296885,-0.01210358,0.06931709,0.15342659,-0.07673325,-0.07606164,-0.02333935,0.10927095,-0.00424206,0.14499338,-0.11450791,-0.08272108,-0.13856399,-0.17060637,-0.05496027,0.06671397,0.05772576,-0.02589226,0.04720105,-0.01458688,-0.02267232,0.01466293,0.08965941,-0.06723851,-0.10203275,0.10232382,0.11715179,0.07165167,-0.03685921,0.04865363,-0.06401554,-0.00852215,0.02226195,-0.02317754,-0.05077093,0.00826170,0.07721687,0.04424377,0.00302856,-0.05884156,0.02794380,0.03736647,0.05766635,0.04672997,-0.02567737,0.02728749,0.09346162,0.04410207,-0.05745762,-0.07570865,0.02316115,0.08424807,-0.04338487,0.01448505,0.01928455,0.19058564,0.09474988,-0.01789656,-0.02901684,-0.02494746,0.10257243,-0.01963587,-0.03275916,-0.21017110,0.14569730,0.06373608,-0.00557202,-0.04307875,-0.05119336,-0.16587985,-0.01578571,-0.05011647,0.04693111,-0.00160122,-0.00708131,-0.00168175,-0.07760783,-0.01459288,-0.12091868,0.05799735,0.00497432,0.00953448,-0.01288186,0.23563705,-0.02048587,-0.03465609,0.07301831,-0.05985845,-0.06964397,-0.00288877,0.06766152,0.02770589,-0.05095246,-0.05476943,0.00550186,-0.04711062,0.01625663,-0.01845514,0.10024747,-0.04034973,-0.07010575,-0.04083030,0.06967753,0.09056576,-0.09233075,0.00585013,0.06439783,-0.16210175,0.01259345,-0.13613132,0.04117881,0.03208708,-0.07604693,0.08049817,-0.04427824,0.00523847,-0.10000499,-0.07453665,-0.05122207,0.02493190,-0.02553631,0.10041790,-0.01969264,0.01278392,0.10351400
0.06228749,0.04296536,-0.00762994,-0.01381418,0.03789680,0.09978132,0.10482673,-0.02104334,0.05586197,0.02004826,0.10834467,0.05329257,-0.09094091,0.04866173,0.08160697,0.05732301,-0.15772580,0.03188301,0.06437175,-0.01219166,0.00633685,-0.28234091,-0.02189749,0.06240747,-0.04180923,0.16917196,-0.01693847,-0.13992639,-0.00511031,-0.04509692,-0.10696214,0.02827314,-0.00240298,0.19416049,0.00359800,0.07683378,0.07405914,0.01210430,0.12413818,0.06544365,-0.05179642,0.01682500,0.03371147,0.02242651,-0.16395977,-0.05756501,-0.16997455,0.12239773,-0.00547482,-0.05669418,0.05074177,-0.05663941,-0.07554489,0.11748783,0.04694876,-0.03811885,-0.01546859,0.05055298,0.02958660,-0.05868040,0.01926797,-0.08583242,-0.06876698,0.10642496,-0.00056020,0.07747485,0.07164432,-0.13327301,-0.01023151,-0.07889646,-0.01411172,0.02186364,0.04139549,0.00660836,-0.10478150,-0.09812354,-0.05344124,0.07949795,-0.01062598,-0.01490302,0.14728431,-0.03135176,-0.13590765,0.02917287,-0.05264239,0.01740621,-0.11364786,-0.01173009,-0.06276619,-0.05014331,-0.01960051,-0.06994234,-0.13048759,-0.01087881,-0.00873332,-0.13821118,0.00113674,0.12346218,-0.21908002,0.04652014,0.03538483,-0.11308055,-0.05104512,0.01555553,-0.04563023,0.21361528,-0.10250338,0.13430452,-0.03805015,0.00260287,0.08676951,0.01440159,-0.05217038,-0.07428323,0.21313201,0.09163071,0.08271871,0.06257222,0.11351459,0.04846421,-0.00014860,-0.01447307,-0.07432376,-0.06248612,-0.21652603,0.01610421,-0.03563234,0.06502996
0.00666957,0.00912415,-0.03678252,0.02461681,0.03942126,-0.03908168,0.07951268,-0.06423672,0.11660584,0.03812167,-0.01688017,-0.01024004,-0.01392686,0.08636598,-0.01545349,-0.07873221,0.00141484,-0.07410064,0.16382472,0.02674224,0.03460951,0.02474108,0.07074119,-0.03207757,0.01520277,0.04231976,-0.09306688,-0.11535148,0.02245331,0.07057864,-0.02610703,-0.00341179,0.12081475,0.01701375,-0.01791113,-0.07883960,-0.02712143,-0.01751221,-0.02652549,0.09909382,0.05366812,0.09343524,-0.03430291,-0.05056611,0.12196095,-0.03505631,-0.06543081,0.21515754,-0.02762053,-0.02259588,0.05655810,0.01254268,-0.02882720,0.11695344,0.04301512,-0.01159153,-0.07782243,0.06200929,0.03941816,-0.16416830,0.03424313,0.01888033,0.17826337,-0.00585807,-0.08728094,0.00727894,-0.04485935,0.00610342,-0.10130057,-0.03100296,0.02207816,-0.00072729,0.12342282,0.04567336,-0.04921829,-0.01331546,-0.01630485,-0.08505457,0.02681423,0.04586880,0.06731016,-0.00288678,0.10252994,-0.11525943,0.00301063,-0.01671122,-0.04498855,-0.12255608,0.04822653,0.08130792,-0.05714875,0.01505472,-0.05755338,0.01387355,-0.14371927,-0.10814390,-0.12825637,-0.16229659,0.14324124,0.04944852,-0.02170127,-0.09840013,-0.00181185,-0.02257902,0.09795388,-0.01709091,-0.12236568,0.00350527,0.08127545,0.07209851,-0.03975413,-0.00546816,-0.03682263,-0.14092264,-0.02801973,-0.05400861,0.05444510,-0.07396462,-0.01196731,-0.08018889,-0.06182616,-0.12159121,0.00588987,0.03792538,-0.01514432,0.03010725,0.11487160,-0.14340983
0.00189552,0.10815319,-0.00971510,0.10321851,-0.00290020,-0.08527012,0.05009205,-0.07153716,0.03039881,-0.08435556,-0.01346031,-0.05662972,-0.12785971,0.08228233,-0.13804919,-0.11283460,0.05507974,0.01223950,-0.02223524,-0.03293261,-0.07070860,-0.06282722,0.00177578,-0.05616993,0.08583026,-0.07674862,0.01395505,0.00806476,-0.09725780,0.05778379,0.04142534,0.05370802,0.06835292,-0.02306764,-0.11921085,-0.02438340,0.01693893,-0.14083438,-0.01595624,-0.10140195,0.00742989,-0.04658435,-0.03662740,0.06597035,-0.03823988,-0.02932007,-0.00106012,-0.04524424,-0.06196661,-0.08708265,-0.14382537,-0.00212442,0.07347465,-0.05180627,0.08846565,-0.14017679,0.00229397,-0.01609852,-0.12731177,0.06803352,0.10921128,-0.02433036,0.06616259,-0.00313966,0.02810383,0.01151399,0.17502826,0.00582738,-0.03709016,0.17177470,-0.04002386,0.04492505,-0.01846698,0.08694720,-0.03601217,-0.00811597,-0.05820463,-0.03746004,-0.06981292,0.01151468,-0.03303373,0.06906679,-0.02569677,0.04045862,0.00077036,-0.03448246,-0.02532050,-0.02063286,-0.07506993,0.04677315,0.10546838,-0.12011395,0.01307752,-0.03199789,-0.05544840,0.13070984,0.00199177,0.01581796,0.05380404,0.04114538,-0.03875921,0.05554422,-0.00580433,-0.00857962,0.14835607,0.07591316,-0.06303732,0.17121775,-0.10802235,0.01776059,0.01495112,-0.03864821,-0.10006022,0.03904678,0.08998860,0.05737775,-0.01301979,0.06324753,0.03973361,-0.00867639,0.08696169,-0.00365579,-0.00683867,-0.00690306,0.01274833,0.00193393,0.12867481,-0.03153773
0.01123374,-0.04111967,0.03806403,0.01997433,0.02078004,-0.15240611,0.23417231,-0.04383549,0.05887656,0.10714435,-0.00025075,0.02120062,0.04897627,-0.09812828,-0.04258868,-0.04030828,0.06425685,0.03188040,-0.05899350,0.01454815,-0.15389405,-0.15425064,-0.04409910,-0.05791361,-0.07170212,0.00276761,-0.01156546,0.13601057,0.06437843,0.01509197,0.03821478,0.00787211,0.09078518,0.15902193,0.10977329,-0.05294769,-0.00057187,0.03234100,-0.05210768,-0.15800813,0.01457532,-0.09026055,-0.01886856,0.08129722,-0.04497762,0.01311083,-0.07806565,-0.02136498,0.20974465,-0.00229411,-0.07533363,0.02072640,-0.01652204,-0.00163379,-0.30409431,-0.01718797,-0.00641249,-0.06066402,-0.02886267,-0.07572553,-0.08991771,-0.01205198,0.01444065,0.10678708,-0.00782693,-0.10725691,0.00551903,-0.05132729,0.12123215,0.05814652,-0.05492413,0.01824329,-0.05645246,0.00628278,-0.12739088,0.08555826,0.01357606,-0.00313436,-0.02147523,0.00775928,0.13428169,-0.06901886,-0.02396771,-0.06433196,0.00136127,0.02213848,0.06203472,-0.06187377,-0.01532207,0.10371012,0.02384077,-0.02471841,0.04278845,0.03936007,-0.10490099,-0.00338163,0.14675899,-0.10969464,0.01146732,0.03510443,-0.00080943,0.01055308,-0.04418581,-0.07093630,-0.05933594,0.00048839,0.04124485,-0.02633174,0.01729303,-0.02697998,0.03117114,-0.00503661,-0.00992322,-0.05901647,0.06454620,-0.06928412,0.08445954,0.02587453,-0.03655071,-0.04981213,0.08907530,0.02990660,-0.03032975,0.03666956,-0.02309820,0.01327052,0.08153383,-0.07411396
-0.06820721,0.02655321,0.05952029,0.08279590,-0.12099425,0.07046896,-0.01312332,0.02513379,0.00739332,0.08666179,-0.01079666,0.06819978,-0.06884581,-0.03455002,0.13375887,-0.05473908,0.01996088,-0.05246731,0.01211020,-0.01761190,-0.11327695,-0.06734550,-0.10416864,-0.11198527,-0.00473877,0.05369212,0.02243193,0.00777456,-0.11557530,0.05699792,0.02961423,-0.07824381,0.01775018,0.02916719,-0.01821141,-0.03885755,0.04840664,0.00014453,0.08144248,0.04300361,0.10102215,-0.02831022,-0.08068500,0.05537445,-0.08831629,0.00787040,0.05349303,-0.07196729,0.03744508,-0.00174699,0.03373305,-0.00138823,0.01736517,-0.06350970,0.04975876,-0.03254074,0.13771175,0.02581572,-0.03304878,-0.07720777,0.03636466,0.05901126,0.10854203,-0.16101450,0.01789817,0.01931924,-0.03491024,0.07482565,0.04415978,-0.05953936,-0.10431308,-0.02016021,0.05274533,0.10512120,0.02554361,-0.00321329,-0.03236217,0.05993137,-0.01531868,0.03839483,0.04032373,-0.03572243,0.03220536,-0.10065294,-0.02752336,-0.07014219,-0.07540998,-0.08101707,0.04857241,-0.12545075,-0.04822803,0.12512815,-0.03512359,-0.06368696,-0.00151777,0.01645683,-0.18485409,0.05899168,-0.11405839,0.09597667,-0.07917064,-0.01594211,0.02585543,-0.00642156,-0.02338871,-0.01306765,-0.10930399,0.03013182,-0.04385127,0.02863396,-0.10750808,0.05200912,0.01605032,-0.03235088,0.03327154,0.09990060,-0.00037115,0.07361676,0.16441296,-0.02347077,0.15088235,0.08289813,0.09790103,-0.03467672,-0.03622226,0.04065923,0.05817058,0.08041596
-0.01492899,-0.00068978,-0.03132677,0.02367522,0.05103267,0.03296685,-0.07695524,0.03648913,0.06509659,0.01300704,0.04227102,0.09470915,-0.05114969,0.02658523,-0.00789940,0.01886641,0.06066012,0.01343265,0.07497140,-0.04559649,-0.12192908,-0.01908840,0.09419444,0.08130772,0.05471674,0.06689499,-0.00378919,0.05166665,0.11532385,0.01955078,-0.11414447,-0.06577369,0.04599176,-0.06224475,0.02667885,-0.10354593,-0.05404527,-0.14380589,-0.12205715,-0.05293519,0.03691037,-0.07501057,-0.03281599,0.04169208,-0.01162681,-0.10494046,-0.08664801,-0.08695594,-0.11146414,-0.04655618,-0.06687948,-0.00215153,-0.06521735,-0.05594912,0.07371391,0.04337701,-0.11636142,0.03321494,-0.00639987,-0.00308253,0.08954932,0.11418571,0.00982726,-0.07626910,0.11609396,0.08737981,-0.11477304,-0.03442054,-0.05643434,-0.00506511,-0.11642999,-0.00270013,0.08131944,0.00184562,-0.09139851,0.00382362,-0.07495679,0.12078718,-0.07473124,0.02576052,-0.13857388,0.07198124,0.02230378,-0.01056976,0.07583306,0.08727598,0.15443458,-0.03643547,-0.02754207,-0.03226472,0.08604459,0.02124352,0.07037447,-0.11263607,-0.02724672,0.03915302,-0.21186109,-0.00677416,-0.05998611,0.05461067,0.12793282,0.14579916,-0.08324384,0.02180361,-0.00975198,-0.03756161,0.12637402,0.01329212,0.00534236,-0.01602916,-0.09574156,-0.00429784,0.01300944,0.09896430,-0.15907049,-0.02609453,0.04140428,0.11996006,-0.01427720,-0.05505352,0.14158289,-0.01026251,0.06575543,0.00693421,-0.06816591,-0.06158037,-0.07066341,0.01807993
-0.05505197,0.03064140,-0.03210944,-0.03194361,0.03248107,-0.06581537,-0.14377962,-0.20938143,0.07265386,-0.06630226,0.03284592,0.01454635,-0.06169309,0.01739557,0.02352840,0.14950168,-0.01645902,0.07947800,0.02174977,-0.03342155,-0.00978339,-0.04246472,0.03511524,-0.04512617,-0.06301489,-0.05704081,-0.01305897,0.03204785,0.04937103,-0.04309820,-0.08033808,-0.28523952,0.05981448,-0.00306128,0.12330825,-0.10588794,-0.08101455,-0.07164714,-0.06453367,-0.14598849,-0.00888119,0.02007136,-0.00406941,-0.04520858,-0.07606976,0.07041738,0.05017599,0.05820756,-0.04144430,-0.03320358,-0.10625289,0.02820100,-0.03419588,-0.03064431,0.12618209,0.02357648,-0.04111703,-0.08414394,-0.04098348,-0.01765403,0.13002820,-0.02296461,0.08534379,-0.00846659,0.14340584,0.04654678,0.08679351,0.11429992,0.23721550,-0.12618214,-0.04202554,0.01998113,0.06530317,-0.04107792,0.08405665,-0.01999528,0.00150147,-0.09030259,0.02418998,0.03602893,0.10240550,-0.06927333,0.09465706,-0.07318013,-0.02250676,0.06491738,0.05134512,-0.01987386,0.17748415,0.08145171,0.06320137,0.04844976,0.07234869,-0.05353809,0.15779984,-0.01289637,0.05660770,-0.00072450,-0.01202952,0.01623270,0.02145706,0.10796945,0.11737780,0.00395411,-0.04418348,-0.09845150,0.00854043,0.18316627,0.01748365,-0.04571185,0.00801365,-0.02703782,-0.14218038,-0.00885030,0.00724031,0.02144654,-0.04689920,-0.12553303,0.08463529,0.02725840,-0.23403853,-0.05041571,0.09749940,0.03940330,-0.04828551,0.07832537,0.02145910,-0.04396060
-0.03911772,0.02259681,-0.00811330,-0.00624997,0.05601581,0.07966223,0.01037923,-0.01077054,-0.09712864,-0.02607624,0.08526379,0.05695570,-0.05855431,-0.04594249,0.08536355,-0.02925814,0.07703057,0.07115998,0.01681245,-0.09601342,0.07508655,-0.11065097,0.06081590,-0.02454430,-0.09154996,-0.07171199,0.02636932,-0.07824358,-0.13597561,-0.03409914,0.07171024,-0.14037527,-0.06561875,-0.01523938,-0.13405862,-0.03291381,-0.00293913,-0.01276413,-0.07683451,0.03861985,-0.00943317,-0.07930377,0.04209932,-0.08677480,0.04743008,-0.05282731,-0.08885764,-0.11458611,-0.04819122,-0.05413607,-0.11807930,0.06411368,-0.14290683,-0.05609077,0.03063720,-0.02998239,-0.02973618,-0.01385376,0.10293429,-0.08087821,-0.03174703,-0.06150176,0.11979379,-0.00713594,-0.09128075,-0.04107444,-0.04670213,0.09135562,-0.04549424,0.03390235,0.19786626,0.06309713,-0.15065816,-0.03804408,0.02067829,-0.03299961,-0.06844330,0.00384803,0.04537128,0.00721980,0.08931146,-0.08235133,0.03834791,-0.01775243,0.12879816,0.06153170,0.02605416,0.04051551,-0.04693938,0.08766459,-0.00640255,-0.02519822,0.06061669,0.01112353,-0.01760232,0.00099711,0.03162996,-0.08170035,-0.05764417,-0.10835687,0.13204277,-0.02087625,-0.04962519,0.01045728,0.03481762,-0.00419639,0.00847744,0.02012384,0.03903077,-0.02820249,-0.00911873,-0.03584993,0.07923562,-0.02490754,0.01820807,0.13696130,0.02749416,0.03404873,-0.04724096,0.08091981,-0.04718661,0.02282281,0.00814094,0.03678187,0.02770947,-0.08473779,0.10816409,0.11335893
-0.02947864,-0.05835235,0.08467061,-0.04125065,-0.10915140,-0.05268202,0.00400208,-0.08608722,0.06247260,0.08745806,-0.05994526,0.00587730,0.15564017,0.02167621,0.17620030,-0.05752801,0.03146908,0.08348234,0.10928596,0.06372448,0.09293631,0.03462628,-0.00165809,0.01877695,0.05417851,-0.09160960,0.01152507,0.05100954,0.01897076,0.01171374,-0.17753954,0.00961170,-0.04193337,0.07732125,-0.10263161,0.10687626,-0.02038507,0.03792933,-0.02257436,0.04259674,0.00642311,-0.08077096,0.02794606,-0.08606072,0.12195987,0.09117067,-0.08365204,-0.02115414,0.10574470,-0.02165090,-0.06345484,0.07740616,0.00073802,-0.05808892,0.03176703,0.03211459,0.12174968,-0.08493306,0.10825586,0.12322232,0.02770700,0.01237879,-0.05867216,0.09823260,-0.00671231,0.01921619,-0.02747214,-0.01938273,-0.11744829,-0.00254018,-0.02072698,-0.01875767,0.09681542,-0.04707445,0.05738212,-0.07102486,0.03551706,0.02203045,-0.03807022,0.01241284,0.11395174,-0.02589056,-0.02911143,-0.12440770,0.04439558,-0.07166301,-0.01491848,-0.02436731,-0.08175760,0.00904400,-0.00676109,-0.00623947,0.00991691,-0.00466300,0.02453458,0.03654640,0.06524145,-0.07308273,-0.06385397,0.05528701,0.24624489,0.04264457,-0.10196637,-0.11594959,0.02858928,0.01034534,0.07829125,0.06220254,0.07609912,-0.03862217,0.03159445,-0.00406763,-0.09053437,-0.03319405,-0.04978026,0.04530673,0.00123141,-0.00854243,-0.10981956,0.05489601,-0.03595224,-0.11401973,-0.16432859,0.02219376,0.05131775,-0.06679553,0.13435726,-0.07265501
-0.01340516,0.07814855,-0.00075905,-0.06585981,-0.02411180,-0.02927080,-0.05174688,0.12388831,0.00288454,0.04144283,-0.04650904,0.03811680,-0.09587236,0.16027892,0.18437213,-0.15334016,-0.22029954,0.08619237,0.03311519,0.07174540,-0.00233442,0.00079741,-0.09029038,0.00528376,0.01854071,0.01311138,-0.02859063,-0.03961463,0.01528670,-0.03629966,-0.01263736,-0.17443226,-0.04397326,-0.09887262,0.11715884,0.01654955,-0.04959996,0.01549115,0.01697318,-0.20336142,0.07795338,0.06386972,0.04377748,0.02515079,0.01457919,-0.12881155,-0.01867591,0.06097071,-0.08513707,0.05993022,0.17324784,-0.01511284,-0.06053507,-0.03202977,-0.03133782,-0.03037719,0.05294224,-0.02086598,-0.04030399,0.02669881,0.01097758,-0.05078882,-0.01376685,-0.04165303,0.06086515,-0.01212424,-0.10957962,0.08979627,0.01449757,0.18088579,0.02863281,-0.14090554,0.06767318,-0.03141328,0.12101975,-0.07912298,-0.19986977,0.11767408,-0.00933183,-0.02956269,-0.00647299,0.02952325,-0.11150399,0.04389142,-0.02777595,0.05566829,-0.11992148,-0.02066162,0.01917824,0.14780539,0.03048240,-0.05008153,-0.09299705,0.06599636,0.09800272,-0.14190558,0.04916858,0.00058793,0.00324202,0.06587529,-0.10691165,0.04474660,-0.15001272,0.03291715,0.01391836,-0.06724030,0.06616546,0.00617829,-0.03825492,0.08822411,0.00527742,-0.02778459,-0.02402411,0.09354202,-0.04461232,0.10068559,-0.09548688,0.00942541,0.03340650,0.08847120,0.06855651,-0.00677303,-0.03916777,0.04896943,-0.03129323,0.04274656,-0.04493701,-0.02011479
0.04465270,-0.15930644,0.00408335,0.13160531,0.01639403,-0.14900164,0.08310729,-0.12664290,-0.05471229,-0.02309095,0.06263844,0.02951555,0.09096351,-0.04021047,0.01737311,-0.08502290,-0.11926281,-0.01413342,0.11787847,-0.07795336,-0.10123021,0.08841082,0.05660534,0.01260913,0.02618231,0.15963802,0.10435867,-0.19371766,0.06368005,-0.01550695,0.08001047,0.08377526,-0.01946143,0.04418105,0.01852112,-0.07482942,0.03826649,-0.08311772,0.08415151,0.00132327,-0.04753014,0.02506757,-0.16028988,-0.01811583,-0.07846458,0.05138359,-0.05423412,0.00783538,0.00885572,0.00635463,0.05834847,-0.02769124,0.02089043,-0.13509214,0.03066095,-0.10961592,0.01071077,-0.10008781,-0.05705089,0.05264300,-0.03914407,-0.12042255,0.04207217,-0.08277250,-0.07727519,-0.07467065,-0.02948800,-0.05553591,0.02140692,-0.03391968,0.07115021,0.02302009,0.08782849,0.06015396,-0.06123251,-0.04888311,-0.11890510,0.00051434,0.11221276,0.07356467,-0.04732239,-0.06663184,-0.06462295,0.12809861,-0.13616189,-0.02524354,0.07372170,0.00249482,0.02597234,0.02319743,0.08718456,-0.01943175,-0.02918135,0.06084243,-0.10739070,0.10202242,0.11773053,-0.08491693,-0.08209834,0.04420497,-0.03770149,0.13066225,0.08801277,0.05571774,0.08456857,-0.08397630,0.05931409,-0.00957034,0.02454242,-0.04929384,-0.01910565,0.03334206,0.10244639,0.11785373,-0.00160070,0.03644993,-0.02826751,-0.00119415,-0.03351286,0.09332051,-0.00608852,0.09511565,-0.02282942,-0.01700905,-0.01280630,0.00985328,-0.09845035,-0.03359309
0.02712197,-0.19108385,0.05449026,0.08877110,0.05109868,-0.02532872,0.08520197,-0.07065824,-0.08002096,0.00735445,-0.07667772,0.11693723,-0.06497197,-0.05422357,-0.02667500,-0.04329143,-0.08057698,-0.03387377,-0.05136481,-0.02501419,-0.04020217,-0.07856134,-0.04812115,0.05426254,-0.13001038,-0.05678416,-0.10000090,0.11440803,0.00694502,-0.11956599,-0.06936313,0.14623798,0.05292708,0.06101291,-0.00886110,0.09385137,-0.17512223,-0.05102392,0.17303690,0.03916064,-0.03129920,0.11948353,-0.07318731,-0.17510600,-0.03551731,-0.02490031,0.04449092,-0.03011082,0.02525130,-0.01262103,0.03603883,0.15902372,-0.08836346,-0.14281295,0.06079907,-0.02312386,-0.03414374,0.03636568,-0.04775287,0.08153216,0.05728212,-0.08092305,0.08136142,-0.10051832,-0.01169036,0.09042875,-0.00749233,-0.01361247,-0.06932201,-0.18622014,0.09692002,-0.01355769,0.06096441,0.07759033,-0.12834352,0.01404517,-0.08084591,0.09560669,-0.05013709,-0.09935838,0.01961849,-0.03683671,0.11278576,0.07300417,0.03314692,-0.01886303,-0.11821626,0.00686253,-0.05254584,0.17042507,0.04327247,-0.04618975,-0.08499181,0.11290724,-0.04514252,0.06554718,-0.15712313,0.07387861,0.04612654,0.08083337,-0.07192929,0.03990829,0.08729234,0.01307466,0.04218743,-0.02394823,0.03633189,-0.05768802,0.07926612,0.02690215,0.00942293,0.05579889,-0.05992988,-0.07259759,-0.12643416,-0.10290281,0.12306791,0.07227215,0.01655991,-0.11521307,-0.04138864,-0.18365042,0.03444982,0.01587941,0.14338341,0.05991869,-0.13127632,0.08461203
0.01494819,0.05997651,-0.06136806,0.03755780,0.05187742,-0.05666151,-0.05708382,-0.00774391,0.01340411,0.10502701,0.05093483,-0.06257518,0.06551611,0.02041891,0.15647976,0.11576081,-0.15301570,0.09241259,-0.08601053,0.00120198,-0.04479783,-0.04859684,-0.04806512,0.01376036,-0.08068834,-0.04757832,0.00610400,-0.01107217,-0.09450958,0.08739769,-0.06283632,-0.01571724,0.02938066,-0.00281410,-0.09733978,-0.10759491,-0.07629476,-0.09324272,-0.01212472,0.33281523,-0.03736761,0.04732347,-0.06859628,0.03909900,-0.01888858,-0.07794537,-0.02269369,-0.11122237,0.08296783,0.06669860,0.06893121,0.16597061,0.06821533,0.01516017,-0.13238207,-0.01760362,0.06085315,-0.01129564,0.05704924,0.02714162,0.19116418,-0.04123958,0.03838294,-0.11078715,-0.09015996,0.04441063,-0.01212127,-0.09202856,0.15294912,0.19681971,-0.19877271,-0.06193811,-0.05377653,-0.07378048,-0.03258115,0.06601556,-0.07081655,-0.06329877,-0.09212242,-0.01838833,-0.32552895,0.00819376,-0.10721660,-0.00104730,0.15399925,0.12124553,0.11524794,-0.02203484,0.12715667,0.00158466,-0.00151591,-0.08310865,0.03610492,-0.06932616,-0.06999643,0.08045062,0.10459903,0.01762240,0.09251648,-0.01383379,0.02466305,-0.23663506,-0.00550666,-0.09460190,0.04377368,0.20396529,-0.03749385,-0.13474265,0.04166015,-0.00149935,0.03692596,0.07863971,0.25178096,-0.27645102,-0.02113400,-0.00680844,0.06894737,0.05674475,-0.04038015,-0.10052501,-0.06026053,0.00924316,0.06870258,-0.08078364,0.11636867,0.01526623,-0.03805925,-0.05383883
-0.05017539,0.00155894,0.00051900,0.08100759,-0.03143670,-0.18796505,-0.07387798,0.11468729,0.07881866,0.02440802,-0.07789266,0.05527027,0.08062559,-0.01946269,-0.12291849,0.05080866,0.03718268,0.02449599,-0.00084256,0.04326215,-0.08133981,0.15702915,-0.14485002,-0.03107115,-0.08026215,0.03114847,-0.02831502,0.10089143,0.05601524,-0.02397717,-0.18877979,-0.04856832,-0.08448207,0.01769632,-0.07101578,-0.00980601,0.11560766,-0.03047735,-0.00871754,-0.04910985,0.05553890,0.16137050,-0.04986607,-0.14885332,0.02876698,0.12373020,0.02967456,-0.04959151,-0.01246027,-0.00620547,-0.09651493,-0.05936777,0.05442447,-0.07986142,0.08219329,-0.18239665,0.02916662,0.15758738,0.14136322,-0.08765919,0.16428249,-0.05013450,0.08222481,-0.02216538,0.00458266,-0.01793126,0.03590178,0.05982753,0.10014559,-0.02351849,0.24769191,0.04525958,0.01949306,0.07087009,0.05660998,-0.07598272,-0.07095841,-0.12755963,-0.06240061,-0.09721784,0.11384757,-0.06849406,-0.08594378,-0.01382952,-0.05342225,0.04750750,0.18354015,0.00865707,0.13104315,-0.03154082,-0.10663855,-0.00765892,-0.10281432,-0.05062028,0.00076511,-0.11543858,-0.06794888,0.02142053,0.06042774,-0.09662246,0.14515801,-0.05338150,-0.05241894,-0.07623070,0.07573752,-0.04608037,-0.14837873,-0.05075417,0.03799189,0.00336219,-0.05673941,-0.00786977,0.10163109,-0.01708887,-0.08626022,-0.01804497,-0.04933047,0.07370010,0.08155909,0.00093401,0.19887385,0.06758723,-0.01652269,0.10653649,-0.07286103,0.02741466,0.07156496,0.13511534
-0.11156642,-0.09275689,-0.09917051,0.05988761,0.08578185,0.13424328,0.10106526,-0.00688930,-0.07158189,0.12495811,0.01466853,-0.11159781,-0.01709737,0.09545305,0.19454756,0.08169331,-0.11861014,-0.05660557,-0.07033025,0.12970304,0.07788721,0.07390775,0.15460257,0.06726526,-0.02715436,-0.07495260,0.05266612,0.00833854,-0.00273976,0.08406245,0.13513169,-0.04079188,0.02150754,0.04329148,-0.00866964,0.06479164,-0.11393519,-0.14613675,-0.05848153,-0.08632740,-0.01303503,-0.04344534,0.07833718,-0.02036253,0.03478714,-0.01020428,0.05118892,-0.02159631,-0.12413689,-0.09083698,-0.25661018,-0.00575276,-0.00344104,0.08782611,-0.07683551,-0.06329640,-0.01425347,-0.04606061,-0.04096145,-0.02879927,0.04716841,0.03123399,-0.01978845,0.05572704,-0.11793749,0.07075424,-0.14565730,0.10268263,0.13458703,-0.01419572,-0.13441245,0.05185732,-0.04213170,0.03382091,0.02794898,0.13318413,-0.08395145,0.03993501,0.07351112,0.01192255,0.08378804,-0.12994094,-0.00508278,0.10910328,-0.00399879,0.02251714,-0.09222942,-0.05990218,-0.07826861,-0.04275445,-0.05889218,0.13162999,-0.10352068,0.08015431,0.04418662,-0.01961897,0.00214385,-0.03933995,0.01677843,-0.08572939,-0.01793514,0.11162411,0.04934888,-0.05243560,-0.01507326,-0.04940542,-0.14914513,0.00322759,-0.00951993,-0.04057872,-0.06049855,-0.06110798,0.14273383,0.05202994,0.05960422,-0.06377055,-0.02639824,0.07059737,-0.01355135,0.08606248,0.02284448,0.04456909,-0.00107825,-0.04311635,-0.02126860,0.00541415,-0.00525548,-0.02550273
0.00607214,0.05880259,0.05131484,0.02927246,0.20325647,0.02699371,0.10284336,0.14348392,0.02913725,0.05996248,0.00297797,0.04851908,-0.03369896,-0.00984061,0.09207726,0.10270389,0.10475372,-0.07579540,-0.05525932,0.11220832,-0.08498668,0.06444769,-0.08405205,0.02752787,-0.00148473,-0.03562000,0.03613019,-0.01164938,-0.06313984,0.03667621,0.10050897,-0.13412555,-0.01650702,0.08221658,0.05233305,0.05392970,-0.03703935,0.05720961,-0.05313274,-0.09249198,0.10096847,-0.12221220,0.01136849,-0.09001154,0.01642803,0.06187294,0.03723766,-0.06492295,-0.33505771,-0.07339869,0.02327809,0.06460633,0.10371230,-0.05135047,0.00975679,0.12692545,0.00766421,-0.01860127,-0.06349019,0.02806574,0.10581819,0.00922746,-0.02295453,0.02364921,-0.07616366,-0.12591264,0.05997641,0.11926137,-0.10953959,-0.03307437,-0.06992916,-0.12725405,-0.03127167,0.01858703,0.00786095,0.02449811,0.24109012,-0.07492689,-0.00985911,-0.05866712,0.03838178,0.02650979,-0.05347009,-0.02348799,-0.14582804,0.02855619,0.03007749,-0.03472030,0.07959177,0.09614310,0.01698201,-0.05921690,-0.02329236,-0.13770132,-0.00590223,0.00215999,0.24705930,-0.04279186,0.00172309,0.08131201,-0.02493732,-0.01632451,0.13722368,0.07077382,-0.06987955,0.13259670,0.04967467,-0.00927904,0.02430734,-0.04607229,0.00887131,0.08716911,-0.07470975,-0.01943022,-0.08140784,0.01645058,-0.10797305,-0.02843097,0.08405718,-0.03416992,0.14503133,-0.14171600,-0.04531687,-0.10736453,-0.22989582,0.05108124,0.10800568,-0.09932038
0.04714621,0.06191644,-0.03798629,-0.01829579,-0.12008493,0.12360943,0.11993846,-0.01417061,0.02131345,-0.10380466,0.03877158,0.05216704,0.13646993,0.02276182,-0.11213364,0.11366828,-0.00761250,-0.00465159,-0.05486098,-0.01985897,0.13815461,0.00224259,0.05196648,-0.05286165,0.06949346,-0.14601266,0.11919792,-0.03959213,-0.04321332,0.02549689,-0.08225013,0.14501056,0.05879343,-0.08365751,-0.00558547,0.03991927,0.01916131,-0.00528617,0.09202696,-0.12356395,0.07001638,0.06682824,-0.00838604,-0.01986749,-0.11414926,0.01678888,-0.04780536,-0.09306253,0.01595697,-0.10283785,-0.15368637,-0.01142892,-0.07162584,-0.03621574,0.08510247,-0.01800297,0.15950581,-0.01551002,-0.06547721,0.00161575,0.05359579,0.09546968,-0.02168115,0.11540706,0.00533244,-0.03993687,0.04792628,-0.00638815,0.10539483,0.04416555,-0.05662788,-0.00360770,0.10083175,-0.00805759,0.01474895,0.08565163,0.00878059,0.16512863,0.02351796,0.01320547,0.07206078,0.01865402,-0.02718041,0.03491158,0.01768167,0.05996923,0.00822763,0.04850304,0.02696972,-0.07200328,0.05446926,-0.00087391,-0.09468287,0.09928622,-0.01221383,-0.08710828,-0.01261109,-0.02606463,-0.09068787,0.02137368,-0.03209542,-0.08828294,0.05402265,0.00936194,0.11321009,-0.14138024,-0.00784587,-0.07519090,-0.11866914,0.03976869,0.04235126,0.07861655,0.04347061,-0.01160790,-0.15130313,0.00368633,-0.02929871,0.05031978,0.03903021,-0.10882090,-0.07045649,-0.09402563,0.09063567,0.06044110,-0.12772059,-0.02348726,-0.04936674,-0.18110879
0.04190872,0.05991290,0.03456920,-0.04538774,0.04502839,-0.06098600,0.11157966,0.03725314,0.04932132,0.01130151,-0.03633483,-0.03216812,-0.07302584,-0.13263729,0.00066684,0.15199789,-0.01500318,-0.01650894,-0.03002462,0.10127826,0.00058042,0.18447235,-0.03774504,0.08120014,-0.05838989,-0.01729037,0.01735671,-0.01488499,0.08965189,-0.00987371,-0.06348683,0.10192394,0.06776193,0.03767437,-0.03397568,0.05262727,-0.05761855,0.00977627,-0.03020031,0.01630820,-0.11314771,-0.00433315,-0.00541902,-0.06557750,0.02289391,0.04111195,0.10172667,0.05790643,0.07019852,0.07330088,0.08027179,-0.13823688,-0.02355939,0.00393738,0.03124386,0.06854107,-0.00857356,-0.04556749,0.07096528,-0.01058273,0.03929771,-0.04449737,0.01576505,0.12255103,-0.09310073,-0.12252457,-0.07513694,-0.02412440,0.06547335,0.01343221,-0.02944647,0.01030912,-0.08684517,-0.03409745,-0.06228454,0.01821177,-0.07675370,-0.05434480,-0.04470915,-0.01799609,-0.10196142,-0.09081341,0.00890976,0.07487826,0.12769860,-0.06661897,-0.03373148,0.00043442,-0.10771035,-0.02879733,0.02244763,0.00710387,0.08947363,-0.08402302,-0.01468869,-0.00859861,0.03827725,0.03950518,-0.03451010,-0.04428344,-0.01736677,-0.08817957,0.01025416,-0.00497285,-0.04502437,-0.01943202,-0.27643895,0.00083677,0.01599151,-0.07187697,-0.00336478,-0.00136839,-0.00650634,0.07416180,-0.01457071,-0.02126908,0.04065825,-0.15320809,-0.09449182,0.05205225,-0.13708489,-0.06045115,0.09592044,0.02016264,0.07401826,-0.03410700,-0.01378885,-0.05830660
0.06748036,-0.04788987,-0.05139083,0.00262524,-0.14094292,0.03281831,-0.09257971,0.06281586,0.02116762,-0.09765927,0.09725551,-0.01998393,-0.10306460,-0.07629085,-0.03019564,0.14031693,-0.17925093,0.01937019,-0.15417662,0.01675517,0.05145799,0.07324503,-0.03224818,-0.03013216,-0.03912318,0.12394781,-0.13089445,0.10672373,-0.08150332,0.12366617,0.21017145,0.01362396,0.15455656,0.04316446,0.05605388,-0.12474419,0.12678932,0.00731112,-0.03807452,0.16036232,0.02640536,-0.12823413,-0.01596734,-0.01391176,-0.09583048,0.16363052,0.04013832,0.04023814,-0.15439332,0.04703572,-0.08901218,-0.10388763,0.01042274,-0.02239140,-0.00453061,0.11275545,0.15150335,-0.06949951,0.08254053,0.02805010,0.02049650,-0.04614275,0.03626581,0.14790072,0.00978018,0.03862117,0.13248830,0.00522736,-0.02201177,-0.19036305,-0.00565283,0.02308591,0.02021102,0.02961561,-0.09980258,-0.07644794,-0.06469088,-0.07997541,-0.12028639,-0.06622262,0.01270131,0.03810952,0.02103688,-0.02914356,-0.02561415,0.10084825,0.05060941,-0.05230895,-0.01772937,-0.02873498,-0.01696505,0.00903439,-0.01028237,-0.04793410,-0.03747719,-0.12851502,-0.01303188,-0.09798587,-0.03366812,0.05871426,0.11507724,-0.01310361,-0.09538684,-0.00473289,-0.08756779,-0.10144643,0.05043610,-0.13005880,0.02043244,-0.01416058,0.09871758,0.03533040,0.12871051,-0.04496400,-0.12446818,0.05576337,0.02732401,0.00247917,-0.06554905,0.01974905,0.07961544,0.12171353,-0.06969015,0.01550440,0.03771139,-0.05002096,-0.15296412,-0.03588296
-0.05582955,0.07859290,0.05824029,-0.02221503,0.07734412,-0.00957581,0.14854960,-0.17279969,-0.00127305,-0.05194636,0.00361208,0.08766250,-0.08230214,0.07610086,0.05817151,-0.04796987,-0.10648392,-0.08548145,-0.02498781,-0.06778769,-0.01771580,0.02211719,0.11916574,-0.09612061,-0.05150970,0.07863622,-0.04891824,0.15700439,0.00172006,-0.01390195,0.06612805,-0.08212230,-0.00472089,0.01279059,-0.03420498,-0.01321201,-0.04296666,0.08169074,0.03572354,-0.03907635,0.06553639,-0.07505897,-0.05308046,-0.06890170,-0.05212504,0.14135753,0.05876509,0.12613729,0.11851402,-0.00651357,0.01278069,-0.07747189,-0.08699714,0.01661362,0.02204156,-0.01247544,0.11965687,-0.09479752,0.03806528,0.11685228,0.07614234,0.04147578,-0.00276808,-0.07912585,0.05618370,0.00744364,0.23728119,-0.04223162,-0.20199545,-0.00431964,-0.06694938,0.01640876,-0.07119238,0.02562782,0.02141874,0.13623014,-0.01364672,0.19604473,-0.00083230,-0.03884642,0.05394221,0.01712236,0.08263711,0.04042551,0.02305723,-0.04719390,0.04355954,0.04739553,-0.10972752,0.19424208,-0.12528612,0.04712286,-0.05924093,-0.14016436,0.12935726,0.04893381,-0.21553275,-0.01729395,-0.01917737,-0.13885790,-0.02300808,-0.07812703,0.00736575,0.02810119,-0.02871931,-0.02101609,-0.02794813,0.02598271,-0.02059180,0.06405824,0.09563918,-0.07394590,0.03151327,-0.06233919,-0.05495878,-0.14028597,-0.02374103,0.07376526,-0.05179643,-0.00329255,-0.00641974,0.07086604,-0.12778637,0.00035563,-0.02377532,-0.01181785,0.08300076,-0.07689763
-0.00691464,0.02593846,-0.03496452,-0.03873032,-0.03870024,-0.05228423,0.07540999,0.06751091,-0.05832993,0.01724935,0.06104615,-0.05139223,-0.08275545,0.07171904,0.06959288,0.04305909,0.02226038,0.02276810,-0.10644419,0.02061734,0.05675341,-0.09264638,0.07207116,-0.09160902,-0.09031659,-0.00390840,0.07216423,-0.02243941,0.01005377,-0.01993707,-0.04271878,-0.02117441,0.18757379,0.14397418,-0.09716100,0.15073733,-0.00962366,-0.00870727,-0.00059516,0.04073587,0.02169152,-0.18294044,0.03317114,0.13860856,-0.04439488,-0.03068934,0.05265652,-0.07619296,0.01011891,-0.04021969,0.20243329,0.01088875,0.05717127,-0.09613495,0.00691552,-0.04793766,-0.08060218,0.00594470,-0.04434192,0.05473266,0.15039267,0.00070847,-0.00690797,-0.04352138,-0.18034114,0.04488429,-0.21591938,-0.08065809,-0.14092556,0.04350564,0.14890556,-0.12811363,-0.02849855,0.00154899,0.02448992,-0.18126921,-0.04165607,-0.01692781,-0.04719543,-0.01487882,0.05774628,0.02546566,-0.02431030,0.01426895,-0.00878142,0.03037610,0.06156163,0.07850507,-0.00686480,0.03118955,-0.03541633,0.02798237,-0.07726355,-0.17449604,0.06475469,0.06693617,0.06973156,-0.02153657,-0.00216494,0.02703897,-0.14351566,-0.07794948,0.07625816,0.01334072,0.06505080,-0.06528367,0.08618534,-0.18258095,-0.02730600,0.05566773,-0.11965226,-0.04994987,-0.04298915,0.18977864,-0.07754969,-0.07103263,0.23561339,-0.00910057,-0.06598289,0.00896835,-0.14757170,0.13266984,-0.11112472,-0.01622916,0.06122414,0.01056461,-0.10047351,0.00403351
0.06042564,0.04535487,-0.02480163,-0.04106037,0.12164885,-0.09512234,-0.09093995,-0.01343229,-0.02063897,-0.01015576,-0.03232840,-0.02526294,0.00106486,-0.00222309,-0.01860931,-0.04443480,-0.12885627,0.01805952,-0.04035659,0.10104312,0.03247847,-0.14597605,-0.03843179,0.06437960,0.13365446,0.07432346,0.03154359,-0.10560072,-0.09040044,-0.28229362,-0.19294639,0.03008180,0.03815136,-0.03125754,0.03498719,-0.18432616,0.03640157,0.02912073,-0.08089049,-0.13869840,0.04058833,-0.11735673,0.07449579,0.00828880,-0.03670556,0.00363813,0.07399812,-0.02234228,0.05960048,-0.05410536,0.00459849,0.14123052,0.03421180,-0.09722906,0.03692443,0.03659573,0.10630308,0.00176410,0.03061503,0.03634438,-0.01977100,-0.07539286,-0.01313828,-0.07586852,0.08521724,-0.00238631,-0.06741769,0.00832588,0.01602435,-0.00467969,-0.10145897,-0.07294953,0.17094922,-0.04527899,0.01113631,0.09588643,-0.00366610,-0.00767872,0.09756897,0.00863611,0.14964575,0.15103656,0.12301453,0.03067881,-0.17476772,0.07281448,0.09970929,-0.04644147,-0.01763142,-0.07508764,0.07238984,-0.01999680,-0.02645379,-0.13887085,0.12081369,-0.01195899,-0.11067916,0.15120190,-0.00063283,-0.11042969,-0.03144277,-0.04575881,0.10264850,0.04604929,0.05842595,-0.02071685,-0.03546679,0.01387963,0.05714488,0.04274301,0.06956133,0.00658535,-0.05979611,0.01505429,-0.02132950,-0.02636023,0.12948866,-0.14161956,0.01233825,0.07051765,0.03812861,-0.05883665,-0.04390468,0.07163975,-0.20075840,-0.04735623,-0.11525436,0.04973549
-0.10780907,-0.04091372,-0.04949588,-0.05307839,-0.03582680,-0.06208555,-0.06336115,0.03440224,0.00627698,-0.01757837,-0.08632848,0.07074027,0.06766181,-0.02701845,-0.00722907,0.05026354,-0.02580664,0.08340566,-0.04779750,0.02631569,-0.03948078,-0.11343330,0.04849056,0.06669869,-0.04884590,-0.00788209,-0.03883874,0.14227842,-0.09277199,0.00032740,0.10837757,0.07139144,-0.04693709,0.13916260,0.03324090,0.09409187,0.15529223,0.05130979,-0.14192122,-0.12404062,-0.07246500,0.10390380,0.06166371,-0.02690512,-0.11574474,-0.07732832,-0.15284161,-0.06846210,0.04856911,-0.02747806,0.27225935,-0.05325885,0.05217192,0.05919052,-0.05794531,0.00942734,0.14501613,0.14986262,-0.00263259,-0.02899620,0.08764187,-0.08307081,0.09432252,-0.10267676,0.00687542,0.07265335,0.04606229,0.01833543,0.15849984,0.18428779,-0.01745673,-0.00176948,0.04264731,-0.00521356,-0.15357608,-0.06305370,-0.06817368,-0.03727087,-0.08766070,0.05185645,-0.16505645,-0.02730175,-0.08604311,0.01596609,-0.06789514,0.01211117,-0.00033177,-0.08906874,-0.08264581,-0.02322414,0.08798736,0.16709276,0.06885818,0.03906767,0.01851900,0.06229448,-0.18873598,-0.04286719,-0.05292318,-0.01023536,-0.02532027,0.02545778,0.20752445,0.02326960,-0.02474005,-0.00610688,0.04052062,-0.02607325,0.07338983,-0.00655539,-0.04145826,-0.05564795,-0.10259039,0.11106332,-0.10352799,-0.07092233,0.00426985,-0.06286262,0.00440553,0.00691173,-0.00499870,-0.05322993,-0.09214999,-0.09762360,-0.04780194,-0.03789523,0.19331126,0.07453787
0.06401963,0.03635528,0.02644474,0.02433241,-0.06857723,0.11359483,0.01416568,-0.21503220,-0.00089221,0.05993975,0.03488770,-0.03873858,-0.11598358,0.08875675,-0.01752749,-0.18170978,0.00279443,0.07388942,-0.08552758,-0.03187328,-0.00469698,0.06181864,-0.07842600,-0.12750892,-0.04261141,-0.00128594,-0.00389404,-0.06378185,0.14935505,0.04412709,-0.01588923,-0.17681825,-0.01728202,-0.08885054,-0.07898754,-0.06920306,0.11917107,0.02200489,0.21093220,0.07054610,-0.00021456,-0.12457818,0.03158162,0.00616692,-0.00554557,-0.06842639,0.00915634,0.07926884,0.12080824,0.04013471,0.10554276,0.04277263,-0.02483555,-0.05896433,-0.11671091,0.09404599,-0.11421274,0.08782957,-0.00768664,-0.00353728,-0.07025416,0.04013654,0.05510452,0.12702388,-0.02213819,0.06705523,-0.02189666,-0.00485559,0.11151512,0.05441624,-0.03329920,0.02910162,0.04070972,0.06182482,0.07570749,0.04968214,0.08586816,0.01471876,-0.01969010,-0.06209200,-0.05546326,-0.12775548,-0.01549615,-0.07591145,0.04792655,0.03069154,0.03583577,-0.02226605,-0.14723034,-0.06051684,0.06348723,-0.05583897,-0.05155044,-0.10068148,-0.06254239,0.01376052,0.05571806,-0.03584908,-0.08031771,0.00084271,0.01147832,-0.05751835,0.05580457,-0.04242551,0.08941154,0.05834324,0.02575886,-0.00677097,0.02027058,-0.11144967,-0.01101065,0.01210892,0.14723900,0.01813379,-0.04097417,-0.03524138,-0.21809243,0.07652620,-0.15187801,-0.01170055,-0.02875364,0.10829991,0.00538412,0.01022844,-0.00039161,-0.02037920,0.01255964,0.03085374
0.16028975,0.12886909,-0.04842073,-0.01195473,0.11794381,-0.00483462,-0.04701594,0.23086780,0.15009619,0.07260692,-0.03476690,-0.10918651,0.00346795,0.01343789,-0.07181048,-0.18598104,0.01003879,-0.05342611,0.13860264,-0.00296155,-0.01732601,0.01239310,-0.02910904,-0.09788446,-0.01632489,-0.00118592,0.05787169,-0.12695599,-0.19849816,-0.05119030,-0.08068761,-0.02051561,-0.05447901,0.05101961,0.08445325,-0.02364211,0.04706164,-0.08547519,0.23498121,-0.04520805,0.10081852,-0.01023426,0.00669902,0.10251745,0.02360914,-0.02812167,0.02028134,-0.04716197,0.10794380,0.06907611,-0.05481303,-0.03432052,-0.02097174,0.06474695,-0.11890548,0.08862382,-0.06963546,0.02537219,-0.24978688,0.10518856,0.03169320,0.01089833,0.00425712,-0.02417982,-0.10603000,-0.00672813,0.05292000,-0.07388760,-0.15556151,-0.04306504,-0.04153020,0.14807440,-0.11140589,0.00615620,-0.11203849,-0.05104608,0.11190066,-0.08510406,0.14408053,0.03986100,0.05767955,-0.11786821,0.03502836,-0.01068505,0.15253201,0.17147627,0.11498508,0.04602873,0.01857668,0.13209692,0.02367213,0.11416252,-0.09747642,0.04296449,0.05556007,-0.01699702,-0.06518979,0.00530345,-0.03132059,0.00007894,0.03041045,0.04231517,-0.08409385,-0.07564624,-0.00420904,0.01588560,-0.06015640,0.01923388,-0.03805305,-0.04063441,-0.09655073,-0.13933662,0.02742521,-0.04689223,-0.02998731,0.01195512,-0.01886235,-0.05271181,0.00350343,-0.01373200,-0.08527884,-0.06232269,0.01535201,-0.01924296,0.04287018,-0.05461781,-0.10202955,0.07308533
-0.00956266,0.06742802,-0.04440292,-0.10701469,0.07990304,0.04180257,0.11313744,-0.03154604,0.09261774,-0.02753955,0.01219546,-0.02904275,0.00570839,-0.02306059,-0.02118359,0.18475050,-0.13138320,0.08363053,-0.11434041,-0.02088880,-0.06155699,0.14603066,-0.10457730,-0.05665443,-0.06578977,0.04326537,-0.03555787,-0.02281637,0.01387831,-0.09741506,0.07109231,-0.02798237,-0.08096739,0.11705861,0.11845871,0.03039103,0.00205737,-0.05949838,-0.13096502,0.03164985,-0.13700329,-0.12311069,-0.00204846,-0.10552881,0.07065732,0.09287614,0.06088376,-0.09222566,0.00537150,-0.00734434,0.10692149,-0.05120960,-0.00298572,-0.01112035,-0.21895100,-0.05215753,0.00161045,0.07958636,-0.07719664,-0.05565700,0.01228089,0.02945142,-0.06693519,0.08777058,0.05456036,-0.08471549,-0.10250257,0.13040167,-0.12562262,-0.06505166,0.20566785,0.25655550,-0.09783021,-0.09904214,-0.01599373,0.00648967,-0.03016035,0.00233144,0.10443910,0.00885603,-0.02303446,0.09012731,0.01148106,-0.01307966,-0.06232322,0.01968941,-0.17003678,-0.02917788,-0.06210382,-0.06199210,0.04921685,0.13975690,0.02042870,-0.02399917,0.02867509,-0.07512964,0.10595733,0.05287337,-0.01038574,-0.01960102,-0.08291177,0.03435449,-0.11452981,-0.07908939,0.09101332,0.14379030,0.10029154,0.04368554,0.08316687,0.00154649,-0.08692964,0.03056754,-0.04751256,-0.21102883,-0.01695483,-0.06010299,0.05961412,0.08601712,-0.03399853,-0.04613192,0.06947283,0.10847975,-0.08050462,-0.04012909,0.05941439,-0.05632954,-0.07646473,-0.00331654
0.00597220,0.02833992,0.04282664,0.10150887,-0.11429182,0.03911117,-0.03236435,0.04272192,-0.02413185,-0.05235459,0.02790025,0.06131468,0.11475058,0.03898118,0.15376568,0.15341982,-0.06717540,-0.06335420,0.13248186,0.02028607,0.00621126,0.26505062,0.01513103,0.04223605,-0.07944383,0.01238679,0.00268145,-0.02522931,-0.03519388,-0.01284223,-0.00532973,-0.01231354,-0.07611738,0.01609439,-0.04330514,-0.06914783,0.00428809,0.00500384,-0.02324904,-0.07166285,0.07428642,-0.12862113,-0.02697816,-0.11447848,0.00182424,0.00563861,-0.19559260,-0.01009875,-0.04531310,0.01985534,0.05157233,0.05813674,-0.01440139,-0.08397630,-0.12093148,0.07418003,-0.05708421,-0.01539755,-0.02677503,-0.03612268,-0.03759299,0.04039062,-0.01139344,0.03083303,0.10196384,-0.01602510,0.01907210,-0.08895145,-0.06549438,0.04500512,0.03476477,0.00150744,-0.17038286,0.03067253,-0.06204600,0.02487748,0.05053952,-0.07152453,0.07021594,-0.04393091,-0.09359444,-0.00079698,0.07270740,-0.01590293,-0.10990552,-0.04088271,0.05922426,0.05225464,0.12166276,-0.06456850,0.03938607,-0.07767482,-0.02617551,0.05740072,0.05222354,-0.08693108,-0.20809218,0.02747649,-0.02259883,-0.00846943,0.03790217,0.06298270,0.05877908,-0.04685538,0.14475404,-0.05908417,-0.06022315,-0.11386513,-0.10799819,-0.03323426,-0.02065880,-0.03520241,0.10078233,0.07315942,0.08286945,0.14496043,0.11691091,0.18821967,0.11930997,0.00124423,0.05032877,0.01438756,0.02391732,-0.02514153,-0.04443212,-0.09625687,-0.16217418,0.07740910
0.05135104,-0.12900382,-0.01633374,-0.04888658,-0.05354654,0.02947565,-0.06178763,0.11210847,0.16353092,0.06911025,0.07610347,-0.01446413,-0.04665394,-0.09802885,-0.07854789,-0.03283070,-0.07228966,-0.09023079,0.02923669,0.03168586,-0.14138250,-0.03454150,0.10367057,-0.02003389,-0.12651734,0.01664289,-0.00210682,0.00350248,-0.09605026,0.05183404,-0.05128398,-0.05060819,0.06963774,-0.04283880,-0.06655404,0.00603196,-0.09771302,-0.04796040,0.03815791,-0.10643766,0.02743319,-0.03762371,0.05631654,-0.06687647,-0.00619475,-0.12884930,0.01255199,0.10095866,-0.04491789,-0.08155119,0.05908986,0.05442407,0.03390681,-0.08952891,0.02840824,-0.02912273,0.16970940,0.00548101,0.00453418,-0.03087584,-0.06134458,-0.08056429,-0.09607480,0.01065779,-0.06525642,0.09771749,0.06872074,-0.12873420,-0.12736712,0.09176112,-0.12250376,-0.00112356,0.08231170,-0.03546099,0.16919984,-0.05642227,0.11157972,-0.16082096,0.02386514,0.04672787,-0.02631938,-0.04164604,-0.01971869,0.05217257,-0.06033827,0.04053907,0.04212910,0.07692721,-0.01055851,-0.09487432,0.03275996,-0.00913884,0.12970811,-0.08000290,0.06375694,-0.05375974,-0.06449077,0.01407988,-0.12129317,-0.02354923,0.00294264,0.13501562,-0.00947639,0.02345446,-0.05857985,-0.09571036,0.00472187,0.02601147,0.08758786,0.03513670,0.07008605,0.04528137,-0.00713827,0.02476490,-0.05777940,0.00984187,-0.07519630,0.06870583,0.13004966,-0.08610493,0.06348881,-0.10110225,0.04430772,0.06052169,-0.02336117,-0.01528307,-0.02701055,-0.03231676
-0.02480566,0.05116693,-0.03319600,-0.06332079,-0.06407419,0.00057741,0.03445995,0.01866512,0.11497215,-0.02057060,0.05854270,-0.01022495,0.00614105,0.05115400,0.00774588,-0.02708129,-0.02892887,-0.04755596,0.01487336,-0.05353415,-0.06983478,-0.11974142,0.02454345,-0.03460457,0.02834177,0.02236064,0.15299109,0.00870880,-0.15915954,-0.19406924,-0.14320752,-0.10179752,0.14595750,0.03905333,0.00262603,0.01060969,-0.05826091,0.05716567,-0.07329626,-0.08126240,-0.06498055,0.04373898,0.07411582,0.00085582,-0.02335704,0.02288749,0.03819260,0.05568966,-0.03027687,0.04674057,0.01867768,0.00596346,-0.01707888,0.08859533,0.09176155,-0.04776419,0.02108750,-0.10252862,-0.01765240,-0.07141460,-0.05388138,-0.01186547,0.02866693,-0.06058291,0.16134463,-0.04993758,-0.03391888,0.03662490,0.05297002,-0.04787645,0.02619668,0.00363509,0.06454300,-0.02238837,-0.09299387,-0.01467481,0.03719245,0.07524598,0.05902003,-0.03563359,-0.01394170,0.07924888,0.07236730,-0.09381448,0.00357202,0.06781631,0.11239118,0.02276733,0.02496344,0.01177607,-0.06929849,-0.05376819,0.05220296,0.04829621,-0.05476418,-0.07964336,-0.04986576,0.08389527,0.01322406,0.07049140,0.15477887,-0.08522949,0.08508880,0.04798224,0.10387278,0.02814677,-0.00867680,-0.13881670,0.01456421,-0.00849128,-0.05940447,-0.06931811,0.11774442,0.05115150,-0.01507966,0.06174631,-0.07137978,0.14625122,0.14907058,-0.05074883,-0.00759898,-0.07897183,0.00020428,-0.08282024,-0.15354542,0.04112492,0.18458305,0.01561472
-0.02341540,-0.07592938,-0.02399377,-0.04216599,-0.04765987,0.24931756,-0.04473656,-0.10661975,0.09842878,0.02397438,-0.06123226,-0.04048866,0.04395597,-0.01087699,-0.09093016,-0.06603588,0.11473655,-0.04193328,0.00262271,0.11166669,0.01491073,0.01123476,0.01281516,0.02142710,-0.11672127,0.02082315,0.07625111,-0.07598630,0.10108969,0.09254573,0.04726538,0.12985365,-0.02375057,0.07730006,0.08703455,0.03078852,0.06934185,-0.07059442,-0.02677172,0.07858989,0.00845742,0.06796164,0.04895840,0.01120249,0.05504307,0.00170956,0.07917121,-0.08426442,0.01761997,0.06418064,-0.12903082,0.08401544,-0.10176294,0.04392177,0.01994763,0.01208970,-0.02875569,-0.00580994,0.08334305,-0.11132882,0.03522689,0.04285757,-0.06539590,0.00805753,0.02916489,-0.06931701,0.08918460,-0.14393976,-0.02275365,-0.06105968,0.05282808,0.00102963,-0.05257513,-0.06722634,-0.05082610,-0.06752843,-0.05679690,-0.03957775,0.01307269,-0.01243727,-0.15706101,-0.00495011,-0.03325492,-0.05022011,-0.00061215,-0.04359883,-0.02155102,-0.03651673,-0.00504188,0.20677479,-0.04257490,0.02869540,-0.00816373,0.00263694,0.06358466,0.05623747,0.15272051,-0.03983855,-0.01748885,0.05123408,-0.07412372,-0.01725099,-0.04528855,-0.08314143,-0.06272772,0.05774844,-0.02742242,0.07750228,0.06016059,-0.00942099,0.04474694,-0.00880448,-0.00963449,0.02689918,0.07913513,-0.07229188,-0.01626554,-0.01239468,-0.04546930,0.18129012,-0.01443101,-0.04724096,-0.00451174,-0.01550722,-0.00416934,-0.06035928,-0.15259372,0.03057490
0.07876663,-0.07347276,-0.00089050,-0.11408659,0.21573870,0.09485960,-0.04676900,0.02671465,-0.00132676,0.01129599,0.02509560,-0.08370709,-0.05584018,0.11193296,-0.11232399,-0.03106363,0.09819097,-0.01222716,-0.10664067,0.09102873,-0.04292832,0.17324118,-0.03197794,0.04070443,0.04205703,0.25386813,-0.01878719,0.07681531,0.05443837,0.00991318,-0.07511554,-0.05963813,-0.08805323,-0.05019241,-0.05503885,0.00364189,0.07448465,0.04866084,-0.00863346,0.09766921,-0.03601630,0.03572214,0.10718076,-0.03079896,0.06870557,-0.04055626,-0.06712145,-0.04163860,0.05669430,0.05488235,-0.05713953,-0.00297666,0.01434556,-0.01741839,-0.02680891,0.04811969,-0.02410644,-0.06402031,-0.04161771,0.06849135,-0.19350463,0.02134636,-0.09633569,0.09689543,-0.09510736,-0.00461199,-0.09563210,0.07003546,0.09664890,0.02865854,0.06704767,-0.07762692,-0.04480462,-0.06948546,0.02034908,-0.05319512,-0.19692495,-0.09058701,-0.04527866,0.05101491,-0.04346407,-0.02381708,0.09138135,-0.00211320,-0.03155878,-0.01280375,-0.05613083,-0.00545979,-0.03824261,-0.06932817,-0.11473805,-0.01029040,-0.00481284,0.02281684,0.01816170,0.05264365,-0.00246937,-0.13219909,-0.01881538,-0.02204188,-0.01760400,-0.06334902,0.05227232,0.12566701,0.04963376,0.04316371,-0.00420801,-0.04749358,-0.08546334,-0.06082204,0.05046668,0.15531453,-0.10233405,-0.23140176,-0.03995458,0.04916239,-0.00481359,0.09751916,-0.05817730,0.01459084,-0.14138420,-0.05852525,-0.01709664,-0.07846792,0.02462732,0.09060103,-0.03931780,0.05222174
0.12475239,0.19313076,0.00601018,0.09688737,-0.04702315,0.09363509,-0.02995883,-0.09228861,0.03139119,0.04859462,0.14178242,0.00010298,-0.14759374,-0.01367864,0.12770163,0.08815968,-0.04912144,-0.04839143,-0.00268711,0.04364067,0.10375927,0.07865937,0.05027064,-0.06465845,-0.10347066,0.18896542,-0.07766341,0.07316108,-0.03393139,-0.01658058,-0.08783482,0.05951344,0.03432466,-0.00310038,0.08672985,-0.05413941,-0.02342706,0.10178183,-0.07661825,-0.02022514,0.04592048,0.06186607,-0.02966128,-0.13827182,0.20403336,-0.16629750,-0.16395842,-0.16718671,-0.15891674,0.05552645,-0.16736220,-0.10845440,0.10372674,-0.01506178,0.05028263,-0.00714589,0.14207380,0.02341249,-0.01352504,0.01300983,-0.04313736,-0.01449531,-0.08297261,-0.05368469,0.12029783,-0.01435927,0.05348442,-0.14034253,-0.08598420,0.13279550,0.06637374,0.12063286,0.06243953,0.06662811,-0.05629116,-0.03769760,-0.07584248,0.02799222,0.03585681,0.00319529,-0.05607331,-0.02155174,-0.13125008,-0.07843615,-0.06893470,0.13403650,-0.04808845,-0.05461637,0.06254846,-0.04039457,0.04962205,0.01776363,0.15748851,-0.04377991,-0.07357757,-0.00621689,-0.05626011,-0.01950780,-0.02764750,-0.03415162,0.00438676,-0.09053750,0.06527008,-0.06152917,-0.03809739,-0.00653499,0.04582345,0.06812240,-0.08330673,-0.01715724,0.03514597,-0.05520746,-0.12365179,0.04134694,0.15943411,-0.10455350,-0.07302222,-0.05136264,-0.21671622,0.18361282,0.08060929,-0.05052501,0.03549645,0.11958046,0.00327548,0.09934049,-0.00241493,0.01640809
-0.11219770,-0.24636747,0.00287414,0.12181970,0.06038273,0.08593901,0.09152087,0.06806313,-0.13992758,0.05257491,-0.00109536,-0.06728813,0.00008585,-0.07954533,0.17057784,0.09629969,0.02959472,-0.11924259,-0.05896377,0.05821321,0.03044336,0.05803913,-0.08266404,-0.07817495,0.05174677,0.11203638,-0.09342393,0.00881320,0.04178575,0.09538715,0.06426031,-0.03414607,0.03265169,0.07117909,-0.00354748,-0.10620212,0.12905975,-0.00196469,0.14502987,-0.07552094,-0.04583358,0.10169020,-0.09520753,-0.07316276,-0.00853030,-0.05111327,0.04736583,-0.02352661,0.10924894,0.11432943,-0.04928304,-0.00935900,0.01977371,0.05804317,-0.04666975,0.01250006,-0.12900110,0.02453184,0.16442354,-0.00352372,-0.03608907,0.00432924,0.07219596,0.00946592,-0.04785021,0.00937227,0.08988059,0.00979504,0.07646724,-0.20029122,-0.11378717,0.14297104,-0.04312750,-0.00217199,0.10328405,0.00034355,-0.01249170,-0.19131435,-0.00621779,0.03162537,0.00941775,0.01997322,-0.04397582,-0.00154005,0.07233805,0.04673487,-0.15319070,0.03772261,-0.08803199,0.04202152,-0.01001964,-0.05100589,0.04249060,-0.03434031,0.04664800,-0.06007255,0.14181717,-0.08397039,0.01608424,-0.06415735,-0.01031420,-0.13564269,-0.12810661,-0.02091600,0.14001970,0.04243214,0.13068132,0.02436983,-0.00224789,-0.04671990,-0.05593900,-0.03876511,0.11042744,0.13362917,0.00274551,-0.14623921,0.15400365,0.00605669,0.00857325,-0.10418154,-0.10981347,-0.05825900,-0.05389728,-0.01307474,0.09648131,0.03032495,0.09960458,0.00359880
0.08470647,-0.14018786,0.04114936,0.01369073,-0.03828667,-0.11687707,0.18179755,-0.10826179,-0.00805937,0.01345015,0.01457369,-0.04809273,-0.03606470,0.07807373,-0.02328044,-0.00449940,0.05028300,-0.10091849,0.02676602,0.02558454,0.12428046,0.07478161,-0.03304463,-0.08676796,-0.07402214,-0.00622067,-0.05167351,-0.03893358,0.06943335,0.04421509,0.02917677,0.06420456,-0.10070040,0.10296243,-0.03896057,-0.16525540,-0.10706676,0.17181307,-0.13678949,-0.06256170,-0.02655044,-0.15745258,-0.05059182,-0.03027841,-0.00715458,-0.03010030,0.02861616,-0.08193848,0.01198207,-0.05524214,0.00519400,0.02409179,0.02937550,-0.02092003,0.08463028,-0.00095147,-0.11102614,0.13579167,0.12066797,0.07048590,0.04927868,-0.11166855,0.08972831,0.00305331,-0.01615744,-0.04662070,-0.06907220,-0.08797220,0.17374986,-0.01649489,-0.02920688,0.00742553,-0.07474944,-0.03919244,-0.11864027,0.00064746,-0.11275537,0.17473413,-0.05898773,0.04263715,-0.05139322,-0.04027183,-0.10559366,-0.09792183,0.10634489,-0.03651582,0.04980766,0.12881158,-0.01077992,0.00334396,0.03262338,0.13808528,0.00901401,0.01068183,0.18300407,-0.04771107,-0.00307350,-0.00762604,-0.05114935,0.09370975,-0.08918534,0.05259777,0.11372279,0.04941459,-0.04993107,-0.03636185,-0.05257303,-0.05293031,-0.04839715,0.05744210,-0.03738794,-0.07008284,0.08046268,-0.00867585,0.02700955,0.09776819,-0.14978448,-0.02472272,-0.04961266,-0.05887689,0.15564530,-0.06920514,0.01737456,0.04272804,0.10150977,0.08898342,-0.00065217,-0.01114607
0.03875758,0.03400826,0.01750246,-0.02433987,0.07410655,-0.11526731,-0.07898147,0.01239673,0.07324915,-0.00471280,0.06408239,0.11137582,0.07877905,0.05899466,0.02420035,0.00498367,-0.00935291,-0.03752321,0.04120007,0.09005857,-0.09551837,-0.09484184,0.08926435,0.00649454,-0.00874384,-0.08485559,-0.06057577,0.06947736,-0.04424769,-0.09684486,0.02658877,-0.11952308,-0.06901512,-0.09727513,-0.02438447,-0.05251054,-0.07560345,-0.02154234,-0.02029094,-0.02513446,-0.06822002,-0.01690359,0.00819917,-0.04406017,0.05534491,-0.04021836,0.03652923,-0.06113228,-0.14437288,0.13007279,-0.10430342,0.01810787,0.08896456,0.01234958,0.11016269,-0.10348575,0.01219716,-0.01247099,0.03950035,-0.01372124,-0.06687681,0.01499949,0.07641582,-0.05412218,0.01237889,0.08563036,-0.02019510,-0.03901872,0.06655321,-0.04385394,-0.05383503,-0.07552007,0.05021563,0.05880997,-0.07976825,0.05680177,0.19254014,0.20404898,-0.03515958,-0.01877451,-0.01943246,0.05544628,-0.10262717,-0.02029548,-0.03786583,0.00195889,0.00151754,-0.01591026,0.06118802,-0.03258720,-0.02620632,0.01351031,0.01238595,-0.02881180,0.04070306,0.04967666,-0.00883095,0.00432791,-0.07919376,0.04809915,-0.09297484,-0.00107160,0.02312991,0.02271807,0.15498666,0.03715091,-0.08341719,0.03758038,-0.04482125,0.00673702,0.07442083,0.01027636,-0.02811374,0.03391804,-0.12986536,0.03058103,0.06541315,0.09231648,0.08892118,0.01816892,-0.01832507,0.09783942,0.09173059,0.00121782,-0.13239506,-0.04283747,-0.08065197,0.09343065
0.14373070,0.04852248,0.06183081,-0.08546682,-0.10496079,-0.04904251,-0.10006648,0.19377562,0.06230770,0.09055480,0.14384417,-0.00359137,-0.07971507,-0.02936157,0.12969677,0.15833132,-0.19219793,-0.00863554,-0.00529898,0.01106606,-0.11775823,0.00542743,0.06340282,0.02473177,0.05213906,-0.15425563,0.00646486,0.04438749,0.05836624,-0.01217545,-0.08812227,0.05511427,-0.01040656,0.05398666,-0.08479662,0.06805037,0.01736665,0.07503916,-0.11499105,-0.00895451,-0.02513613,0.10141674,0.04141749,0.15959239,-0.05331733,0.13862358,-0.01841781,0.03533041,-0.05336883,-0.01171236,-0.04389057,0.08742093,0.04436705,-0.05146700,0.12986182,-0.04250470,-0.14697531,-0.01962881,0.07828476,0.02591457,-0.04172969,0.07984211,-0.03238161,0.12610056,0.01665600,-0.01054851,0.01471646,0.01468158,0.14279971,-0.20336501,0.01711076,0.05423061,-0.12055574,-0.01100009,-0.10438176,-0.10180398,-0.00663706,0.02237471,0.02531929,-0.01861482,-0.09504630,0.02176532,-0.04591355,-0.04892480,0.06015633,-0.00929569,-0.16227774,0.15788269,-0.17252162,0.05853769,0.00148845,-0.03661152,-0.02797643,0.04537546,0.02302936,0.01420568,-0.03557273,-0.22183929,0.02684138,0.13616404,-0.04328084,-0.07303152,0.07495794,-0.00813855,0.02239383,-0.08290067,-0.12868530,-0.15976278,0.16086082,0.07031782,-0.06374824,0.05682661,-0.01410079,0.03633486,0.11483426,-0.00905257,-0.23270732,-0.04588684,-0.00081711,0.01577311,0.02938466,-0.09876116,0.00101194,0.06900892,0.08156025,0.04426983,-0.08424654,-0.03586926
0.08577108,0.12149754,0.02570273,-0.09194478,0.02269548,0.03137547,0.02325887,0.03512571,0.02900164,-0.00784589,-0.00447231,0.02204549,0.10488907,0.03661350,0.02344858,-0.13532329,0.02153176,-0.02198503,-0.06323043,0.06678389,0.03339791,0.01929045,0.09740746,-0.02103839,0.05312296,-0.03530803,-0.00203853,0.05827204,0.03781847,-0.05256822,0.08531910,-0.09353885,-0.04448806,-0.01223812,-0.04409454,-0.11946509,0.16168815,-0.03825838,0.22437127,0.00213007,0.11410907,0.04338873,0.04212293,-0.14897855,-0.13334566,0.01026486,-0.21537599,-0.00815509,-0.01720363,0.07394420,0.07201824,0.02934581,0.09279186,-0.00217057,0.10178515,-0.04430199,-0.05445176,-0.00069805,0.03630407,-0.02254844,0.06977031,0.05453116,-0.00387966,0.07138855,-0.04776083,-0.14532636,-0.00177567,-0.04483457,-0.08597320,-0.06329029,-0.08752175,0.14040871,0.13391078,-0.04506529,0.07677757,-0.01027135,0.05200052,0.03327663,0.01502898,-0.03942184,-0.17168275,0.11627614,-0.01652976,0.02001328,0.04099389,-0.02198644,0.06180764,-0.04632960,0.04898665,-0.07365181,0.03646422,0.01792286,-0.05228776,-0.04372083,-0.07823305,0.09959991,0.00159523,0.04635429,-0.09681323,-0.00356308,0.00990592,-0.03437805,-0.06672005,0.01431373,-0.01460460,-0.01099179,-0.03748513,-0.11370923,0.01821847,0.02798667,0.00471630,-0.05329495,-0.07615408,-0.00425619,-0.04540112,0.00904774,0.06789915,-0.02276362,0.08785617,0.03932191,-0.05211504,-0.04674736,-0.00561002,0.00843411,0.11804705,0.15951522,-0.02329036,-0.15669356
-0.01333889,0.05936827,-0.04405880,0.00716584,-0.13026293,-0.04889002,0.04999071,0.03211535,0.01930395,0.05396507,0.05064220,-0.00267645,-0.06016573,0.11133796,-0.09058593,0.05982071,0.02971000,-0.04523725,0.00774920,-0.03434391,0.00278323,-0.04092164,0.03022717,0.02415135,0.01550884,-0.21911775,-0.15086110,-0.10285410,-0.02103917,-0.05936584,0.06413097,0.00532657,0.03086325,0.01787113,0.02797976,-0.03479742,0.12958691,0.00633133,-0.00209170,-0.08362225,0.01483811,-0.15064961,-0.07356267,-0.04246720,-0.00364826,-0.02581016,0.07122352,0.10990524,-0.06842669,0.04293614,0.04544803,0.09670530,0.00020567,-0.08731562,-0.00189747,-0.02698991,0.00207489,-0.09500449,-0.06630589,-0.04816448,-0.03931291,0.00096377,-0.04184986,-0.03591768,-0.01646481,0.03651298,0.07205616,0.06409398,0.05978168,0.07845459,-0.10373794,-0.05192113,0.08157352,-0.02255007,0.03625118,0.03200949,-0.08814913,-0.00075018,-0.00163420,0.00234587,-0.02254585,0.01648717,0.04471175,0.06394838,0.03356742,0.07044464,-0.16592379,-0.01833055,-0.05559844,0.01707580,-0.00128536,0.10803845,0.07635904,0.01622058,0.00641010,-0.00780643,0.02692562,0.06609082,0.12992756,0.02033887,0.09756368,-0.08420698,0.00451248,0.03979214,-0.03794627,0.06122821,-0.01419544,-0.07913136,-0.03712900,0.06146849,0.01865333,-0.01594228,-0.31884485,0.08206712,-0.01854782,0.06699473,-0.14708947,0.11209220,-0.05844162,-0.01644658,0.05677651,-0.06461224,0.02187812,0.04449838,-0.15186979,0.02264162,-0.03646502,0.28195843
0.05536876,0.05819844,-0.03388058,0.07879789,0.05420680,0.11173569,-0.15366417,-0.04243270,0.05455858,-0.05475355,0.05637869,0.08297799,0.10907089,0.07355759,0.08565295,-0.05047454,-0.04451513,-0.02113105,0.05410800,-0.05745098,0.05854409,0.19317311,-0.02772165,0.04719636,0.08584112,0.04649891,-0.06677693,0.05308764,0.03110648,-0.11678126,0.12333360,0.03362995,0.09424193,-0.05904246,0.08555427,0.20631197,-0.10119959,0.00819435,0.02488899,-0.08625353,0.04275737,-0.07026482,-0.03780165,0.07407569,-0.03155064,-0.04674430,0.00309765,-0.05876076,0.08171351,0.03246275,-0.02537475,-0.01992756,0.07248419,-0.01302631,0.00374480,-0.08735800,-0.07680332,-0.13367586,0.15041493,0.04654098,0.02669984,-0.02185179,-0.05215172,-0.00552003,-0.00242425,0.00711929,0.09736248,0.08929431,0.04669711,0.15927307,-0.05291444,-0.13923734,0.00870616,0.00262045,-0.18124433,-0.14446355,0.10286348,0.11919428,-0.05020396,-0.04851732,0.06987885,-0.05095903,0.00771932,-0.03661747,0.01215925,0.10860842,-0.15659745,0.07667066,0.16217099,0.00134405,0.01653476,-0.01599457,0.07500248,-0.07257485,-0.01746716,0.10385127,-0.15488033,0.06730735,0.00213553,-0.07678075,0.03373138,-0.07735057,-0.01865243,0.05065568,0.11949068,0.08658435,-0.08539170,-0.02900288,0.10038342,0.01102678,0.00306616,-0.02011660,-0.01972065,-0.11812079,-0.03991953,0.04451173,0.04872369,0.03358261,0.00828005,-0.05204843,0.07855920,-0.02267546,-0.03628018,0.06647669,-0.07065032,0.05351045,0.06956340,0.06608680
-0.03066506,-0.08049523,0.02833301,-0.05093240,0.03769493,0.05755010,-0.01271047,0.07079732,-0.04061270,-0.05658504,0.16402857,0.06805212,-0.03273937,-0.03827306,0.05603617,0.05101757,0.01523015,0.04247107,0.05744699,-0.03545753,0.00035999,-0.10278665,-0.07870649,-0.06928937,0.01161102,-0.01962834,-0.04397644,-0.10397325,0.12312682,-0.13009012,0.05103366,0.16081204,-0.06234103,0.03690886,-0.11579602,-0.00091803,-0.03922375,-0.04764673,0.10365913,-0.07018736,-0.09905911,0.14408347,0.02689176,-0.10597285,0.09551982,-0.10352750,-0.06343442,-0.16107196,-0.01615974,-0.01913270,-0.04917053,0.04632657,0.01315079,0.01558034,0.17845920,0.01822331,-0.09130630,-0.07868219,-0.04774768,0.11816847,0.02109232,0.05798550,-0.05987618,0.07647867,0.01049644,-0.11473060,0.04272285,0.02847599,-0.20936045,0.15691619,-0.01331620,-0.11547188,-0.00058899,-0.01678035,0.03049199,-0.08712258,-0.13175260,0.04889241,0.09705467,-0.01036562,0.03100365,-0.06001555,0.05659942,-0.02872418,0.02234441,0.02544910,0.06386462,-0.18534733,0.01927474,-0.12863989,0.01935384,0.05162491,0.02190319,-0.10313960,-0.01154774,-0.01505762,0.26960143,-0.00725080,0.05018181,0.07702864,-0.01959586,-0.08085138,-0.09481896,0.04195838,-0.09073220,0.13850792,0.01614478,-0.08357176,-0.03693572,-0.07384719,-0.16724208,-0.06335405,0.06004756,-0.04210571,0.03144844,-0.05620444,-0.01583278,-0.14420046,0.09728942,-0.14241661,-0.04016151,0.07491376,-0.03629935,-0.06018794,0.01690814,-0.05552121,0.09286765,-0.01805751
0.08245684,0.08384574,0.03819548,-0.10029902,-0.04935082,0.01432340,-0.04197353,-0.03137193,-0.10866050,-0.00033101,0.05356918,-0.01912626,-0.12101039,0.03795351,0.10652900,0.09381980,0.16299419,-0.13971736,0.01123638,-0.08384639,-0.16225070,-0.06292179,-0.12757674,0.08504332,-0.03587123,0.12583397,-0.08146860,0.01071203,-0.13111190,0.20020735,-0.01673633,-0.01438347,-0.00779919,-0.18459903,-0.05526807,0.07884490,0.08024125,0.05437172,-0.07885937,-0.01296497,-0.05563457,0.01006514,0.05686654,-0.18007402,-0.08313237,0.10525847,-0.08294063,0.05404072,-0.09956159,0.02612310,0.02145424,0.05656546,0.00692736,0.08934069,0.18215805,-0.01264776,0.05188640,-0.12544586,0.09717356,-0.00049312,0.09695543,-0.05121107,-0.13152073,-0.02793434,0.02517232,0.05609815,-0.03314070,-0.08255213,0.07514474,-0.00541497,-0.17406605,0.10733289,0.05826445,-0.03111566,0.14595835,-0.03353949,0.02121538,0.07955555,-0.10294247,-0.06629015,0.14678639,0.06023657,-0.08190259,0.07620347,-0.00884429,0.03325582,-0.04857222,0.05269026,-0.01277068,0.01494342,0.06659506,-0.07763885,-0.10632168,0.06252815,0.03776338,0.01684486,-0.01804241,-0.00203796,0.11053743,-0.03714408,0.08239653,0.00511108,0.05182141,0.05658772,0.08683266,0.02658681,0.03190691,0.00332489,-0.07572250,0.04493048,0.02236590,-0.02160584,-0.07094406,-0.03667304,-0.18029220,0.04863590,0.06981351,-0.09015361,-0.23541597,0.09285069,0.04779326,-0.14849204,0.00074308,-0.08058572,-0.14624929,-0.02417604,-0.11794095,-0.07549761
-0.00687960,-0.02814279,-0.06135872,-0.02000662,-0.02640829,-0.16386449,0.17209648,-0.09937656,-0.01531018,0.08337088,0.09920070,0.04423373,0.01337933,0.02745016,0.03535944,0.37158036,-0.04332720,0.12437169,0.09729706,0.01972542,0.01489641,-0.06221648,-0.00567296,0.05611968,-0.04563092,0.05522788,0.06903647,-0.09455574,0.06974106,0.04136732,0.08398752,-0.00818078,0.04442946,-0.10967405,0.05229818,-0.00329061,0.05288046,0.03222853,-0.04200623,-0.06773204,-0.03612610,0.16653284,0.08714867,-0.00074285,-0.10174233,0.01138849,0.02583572,-0.06588466,0.09010744,0.03980374,-0.04913251,0.04637090,-0.03911478,-0.19987050,-0.04917802,0.04686097,-0.04974842,-0.00361182,0.03106733,0.07902136,-0.04744630,-0.06594642,-0.03605639,-0.10300998,-0.07057800,-0.06459922,0.04352336,-0.04188927,-0.09942504,-0.02637381,0.14930387,0.14453268,-0.00095978,0.00366223,-0.05583295,0.08570396,0.05869194,0.00640937,-0.12717719,-0.03229964,0.05714844,-0.05418334,-0.02705242,-0.08591432,0.02881393,0.01821500,0.03866768,0.01431576,0.05890278,-0.08837997,-0.02414677,-0.03514096,-0.05647074,0.01323478,0.11979235,0.05318970,-0.01621096,-0.03158161,0.06917606,-0.09932572,-0.06018354,-0.02472594,-0.24034920,-0.00001338,-0.02837175,0.12507384,-0.03707350,0.00223779,0.06904163,-0.01863671,0.04889997,0.04837575,-0.07966755,0.16526861,-0.07081734,0.03283728,-0.06347574,-0.01896454,0.05197917,-0.07651047,-0.06590712,0.10935926,0.01735072,-0.00057838,0.09700114,0.09022307,0.01104157,-0.02392716
0.11839941,0.03219103,0.00308932,0.05058843,0.00268695,0.11361605,0.01872974,0.02756204,-0.00657168,-0.03245768,-0.07296205,-0.04178957,0.01184851,-0.07929502,-0.14410909,0.09270190,0.01779820,0.04205544,-0.02105009,-0.01459076,0.03540067,0.04852033,-0.13976040,0.06116929,-0.00923322,-0.08632094,0.09461628,0.05038986,-0.01917415,0.11263057,-0.07026302,-0.08464802,-0.01255364,0.08684419,-0.03345682,-0.01941606,-0.04502056,-0.08465426,-0.07039063,0.01214273,0.02835978,-0.01038171,-0.05038132,-0.03120296,-0.06673746,-0.01156296,0.03066484,0.13972387,-0.01743210,0.06056742,0.03090403,-0.03049859,0.06959864,-0.08014908,-0.02350947,-0.01681080,0.04501577,-0.00681850,0.02157456,0.15179370,-0.05017884,-0.03531662,-0.06678338,-0.04634083,-0.00701205,-0.05339577,-0.00026809,-0.09138633,0.02511753,-0.04202276,0.02700075,0.04109036,0.09157920,0.06614856,-0.14398625,-0.00439158,0.04390606,0.05381091,0.02925760,0.00132177,-0.04753628,-0.02131264,0.07709032,-0.02487284,0.11719323,-0.01935433,0.02571695,-0.12573028,-0.06861680,0.18383881,-0.03888060,-0.09770370,0.21560261,-0.00781246,0.06392553,-0.05549080,0.09395411,0.07484740,-0.06805862,0.02195794,-0.02386035,-0.05066654,-0.13349938,-0.01109350,-0.01694057,0.03560463,-0.02840347,0.02411542,-0.06196090,0.07993183,-0.11605770,0.13362497,0.09154806,-0.01214484,-0.04949126,-0.05238932,0.05978156,0.01876398,-0.06634078,0.08096825,-0.03439859,0.13353598,0.00877735,-0.07334711,0.10018731,-0.06252189,0.14714685,-0.04377241
-0.01992659,0.12256248,-0.04913585,-0.07972725,0.04294006,0.00050846,0.17049076,0.07532576,0.03539032,0.06978506,0.05874749,0.07623429,-0.03889270,0.02683955,-0.03271697,-0.08385314,0.03055721,0.07790595,-0.11709853,-0.05497839,0.15108514,0.06285014,0.04798829,0.02690288,-0.01246202,0.03302308,-0.05921742,0.04206777,-0.08252701,0.05505569,0.02050164,0.13591741,0.03340448,-0.05139585,0.04437094,0.09742617,-0.08709786,-0.06476831,0.08506023,0.08591243,0.05961908,0.04147980,0.02489679,-0.03472062,0.10495278,0.02935918,0.01415890,-0.00785709,0.05526743,0.00393951,-0.08202697,-0.01640781,-0.07957788,-0.05437232,0.03740416,0.12078302,-0.05913209,-0.00733784,0.13738009,0.00482755,-0.03788419,-0.06167234,-0.01512773,-0.16068219,-0.15208888,-0.12716305,0.05954770,-0.04812041,0.08028036,-0.16635977,0.02636725,-0.14908805,-0.15637967,-0.05834192,0.00451911,0.03031096,-0.03054463,-0.09341504,-0.07905228,0.02229565,-0.05503956,-0.01878681,-0.00322646,-0.05791327,-0.00498783,-0.04598863,0.00013359,0.00725490,-0.00985214,-0.09560506,-0.04800736,-0.07842515,-0.09774338,-0.00205339,-0.08359310,0.00011432,0.01872450,0.04785724,0.02189671,0.02209484,0.01964465,0.11664009,0.00111405,-0.11765175,0.05310703,0.04835142,0.05364465,0.06502184,-0.02434395,-0.03075661,0.00968354,0.06701225,-0.02031848,0.07895061,0.01563542,0.04240532,-0.08312313,-0.01310074,-0.00143966,0.06388231,-0.06035043,0.03720095,-0.05090856,-0.06948638,0.05391920,-0.05426956,0.09676015,0.02710841
0.24328360,-0.11587741,0.02155158,-0.04019711,0.07894196,0.11168794,-0.00295484,-0.09295274,-0.01170090,0.12639885,-0.01738947,0.02608260,0.05642625,-0.03428632,-0.14611584,0.02093716,0.02843872,0.05083711,-0.07052864,-0.01986901,-0.02917179,0.07606719,0.07579073,-0.00135228,-0.10899273,-0.12538834,0.14805669,0.05550492,-0.11310018,0.09641171,0.20265345,-0.01696230,-0.00379872,-0.09291667,0.10404469,0.05235207,-0.01932454,-0.04261893,-0.04120535,-0.02934486,0.08750533,0.02677724,0.08007682,0.10300042,0.01370872,0.02561124,-0.09992672,0.09166434,0.06190709,0.00621227,0.10581099,-0.05228665,0.07473269,-0.05133219,0.04353528,-0.08318727,-0.06851450,0.02599034,0.05123337,-0.08239248,0.00490045,-0.04608521,0.03608186,-0.06270649,0.03203758,-0.03919763,-0.04605067,-0.17867075,0.00495353,0.03858703,0.03217540,0.01920930,-0.11781938,-0.01829925,0.07498511,-0.00407741,-0.17870094,0.06199374,0.01325711,-0.01759197,0.11411795,-0.03820358,0.21551679,-0.01686263,-0.02695571,0.01700597,-0.10497458,-0.07931744,-0.00346695,-0.25604150,-0.08136559,0.04355275,0.00731196,-0.06577583,0.04188590,-0.01579006,-0.00862936,0.00354404,0.09531032,0.07552880,-0.10374381,0.07262175,-0.04657324,-0.06576730,0.00695848,-0.00283559,0.03641818,-0.03137941,0.01555251,-0.00721630,0.00342473,0.02439077,-0.03288199,0.00014176,0.00709362,-0.14494857,0.00130964,-0.04599478,-0.10930531,-0.00607909,0.01708701,0.01149117,-0.06502064,-0.16599706,-0.10014211,0.00023798,0.02932574,-0.04896178
0.00995377,0.00778448,0.04519040,-0.03680823,0.04870115,-0.10043238,0.07270145,-0.04631628,-0.00918901,0.01023761,0.01092837,-0.05976053,0.17565235,-0.01665556,-0.06045287,-0.05398271,-0.07757519,-0.02975328,-0.04633065,-0.05664586,0.00589498,0.06330407,0.03089973,0.08019421,0.02497423,0.00170364,0.04381675,0.00731465,-0.04664597,0.17099987,-0.11070329,-0.02081626,-0.00226027,-0.11527941,0.00609921,0.00114593,0.05447500,0.09668306,-0.06646506,0.01981116,-0.06681562,0.03356829,0.04709513,0.00694454,0.07364607,-0.03204133,0.05235933,0.01084423,0.00079606,-0.16047059,-0.05412796,-0.09764522,-0.04571487,0.11181471,-0.10247710,0.08323824,-0.01195598,-0.00747170,-0.15195362,0.05046510,-0.06870257,0.05067895,-0.02881755,-0.01529719,-0.06869590,-0.07174618,0.02781037,-0.00655464,-0.10038447,-0.03365978,0.06759364,-0.11672656,0.03967878,0.10264987,-0.03454671,-0.07619637,-0.08485888,-0.00892121,0.04350492,-0.04311457,-0.04607308,0.08389124,-0.08802415,-0.06014091,0.11272910,-0.15023635,-0.05396872,0.03158381,0.08209392,-0.12115016,0.05753307,0.04560590,0.07102181,-0.01880982,0.12964180,0.00071555,0.06231822,-0.06982747,-0.00791649,-0.10346570,0.10115378,0.03653010,-0.01480272,-0.03757467,-0.06626850,-0.00819137,0.11198628,0.01163478,0.05336703,0.01316046,-0.07283308,-0.11653144,0.07140072,0.01165812,-0.00727302,-0.08741700,-0.02105728,0.09935723,0.10045277,-0.05480413,-0.04964789,0.03877788,0.16949484,0.01679133,-0.08555862,0.02965307,-0.03222664,0.13973337
-0.05574443,-0.14327653,-0.01092620,0.04381152,0.03493713,-0.19965583,-0.02725880,0.00669697,0.09505476,0.06860599,-0.08842871,-0.03607818,-0.06456596,-0.01037783,-0.06569043,0.00874568,-0.20750564,0.04915399,-0.04216407,-0.14000088,0.05735263,0.18469250,-0.01080819,0.00897678,-0.00507938,-0.00097946,-0.01895509,-0.05078717,0.03195563,-0.03636380,-0.17725688,-0.07350897,-0.01776796,0.08930027,-0.04876048,0.13123770,0.10703491,0.04416868,-0.05207059,-0.05160849,-0.02133906,-0.03072269,-0.04903859,-0.06402896,-0.06169041,-0.12067110,0.01946269,-0.09068726,0.09271279,-0.00751417,-0.10979355,-0.08388582,0.07209402,0.01816015,0.06970913,0.09768847,0.04487639,-0.07512422,0.07688961,-0.00928278,0.13322073,-0.06170269,-0.07345722,0.06638797,-0.03969875,-0.00217132,-0.08102851,-0.13126622,0.19491082,0.16608343,-0.09291793,-0.01531180,-0.12167581,0.08966389,0.16888149,-0.01814793,0.09407571,0.08990126,-0.04284928,-0.02663262,-0.08764355,0.03283526,0.15898035,-0.06255296,-0.00179078,0.04932822,-0.11138304,-0.09365301,-0.07068916,-0.00499744,0.00845108,-0.04042266,0.02713225,0.09761581,-0.01428439,0.06833088,0.08933573,-0.02151076,-0.03298856,0.08924694,-0.05050791,-0.02879339,-0.01520194,0.12488218,0.09547642,0.05629088,0.07291722,0.11231486,0.01265270,-0.02258459,-0.03457554,0.00326508,0.06205476,-0.10834984,0.02260799,-0.05788381,-0.12756796,-0.00529961,0.19632266,0.11030117,-0.03365360,-0.17310010,0.12119555,0.01665750,0.00247595,0.04761698,-0.09764177,-0.02169344
0.09499242,-0.06835479,0.01512647,0.02458237,0.04821781,0.02898659,0.04865921,-0.00283941,-0.00688830,-0.02180257,-0.04512039,-0.02064886,-0.12706766,0.00942638,0.06694739,0.02194775,-0.02498338,0.01163339,-0.05146497,0.04920880,0.01114963,0.02485211,0.07749544,-0.04982391,-0.02688683,-0.08040548,0.07279988,-0.00415199,-0.14005801,0.08111977,0.00541333,0.02893823,-0.03175283,-0.02276295,0.03012700,-0.08325075,-0.02240303,0.07659545,0.02599436,-0.02650429,-0.13859491,0.01688688,-0.05283528,0.05667046,0.09294276,0.09265660,0.01737095,-0.15918088,0.11906062,-0.04030753,0.13870540,-0.09475798,0.05763088,0.05280209,-0.17088500,-0.11027789,0.00157769,-0.07669005,0.00665724,-0.04046398,0.00094689,0.03626389,-0.11569481,-0.00897737,0.08226850,0.03727951,-0.03205279,0.17140552,-0.02656705,-0.16773576,-0.00081286,0.07149245,0.07549598,0.03941923,0.00049780,0.05191431,-0.09104167,0.08196129,-0.00885534,0.02894379,-0.11679205,-0.07686646,0.02553572,-0.15444998,0.08057724,0.15224579,0.07374797,-0.01010733,-0.09407832,0.06187687,0.07028625,-0.06808984,-0.03622751,-0.06788680,-0.08322000,0.08305004,-0.09622857,0.07768865,0.05344068,-0.05667741,0.08447800,0.09315373,-0.04687513,-0.02108505,-0.02021943,-0.08506851,-0.03383083,0.00680613,0.14115243,-0.00353946,0.05084804,0.01885289,0.07887749,0.05927864,0.16262729,0.06175356,0.14693205,-0.11337090,0.08289328,-0.10104623,0.02178484,0.01356319,-0.03531697,-0.00327067,0.04410342,0.04571781,-0.00360948,0.04299003
-0.03396621,-0.12357371,0.07684246,-0.05385460,0.06358225,0.11667801,-0.03999297,-0.08519790,0.01776204,-0.06185675,0.02141528,-0.01666127,0.08992170,0.01831419,-0.02918179,0.02596997,0.07585790,-0.08575677,0.01079702,-0.03970728,-0.02611435,-0.01935449,-0.01033506,0.02238799,-0.03242037,0.04598779,0.00351112,-0.01100568,0.03559984,-0.13404602,-0.23877715,0.11280890,0.01341346,0.11235388,0.01640594,0.04486950,0.00167546,-0.04491718,0.02055563,0.08214538,0.05732157,-0.11130948,-0.00208565,0.04449166,0.03772040,-0.18619569,0.11517899,0.08130545,-0.00263595,0.02103281,0.08365098,0.04208365,0.08622665,0.05023504,0.00386488,-0.09766285,0.15089343,0.00195254,-0.02821377,0.06025473,-0.08663701,0.04556656,0.01461836,-0.05372363,0.02060345,-0.10071298,-0.03758335,0.16111575,0.13875812,-0.10555534,-0.01774852,0.18492389,-0.10679191,0.02810617,0.06656393,0.04249261,-0.10886020,-0.05781653,-0.16037084,-0.02730584,-0.04768310,0.09214243,-0.03378418,-0.08612919,0.09298483,0.02323003,-0.10204343,0.03968024,0.00290861,0.09771612,0.00371169,-0.01015449,-0.01285979,-0.08875629,-0.01035910,-0.01843275,0.11319823,0.02407864,0.00105488,-0.03492722,0.07914471,0.05345742,-0.06404326,-0.03400163,-0.01143102,0.08473850,-0.07449968,-0.13717963,-0.06843610,-0.01855363,0.05720600,-0.02021830,0.02608274,0.06395928,0.02617625,-0.00911647,-0.04386944,0.04313974,-0.09019013,0.02792504,0.03724357,0.00590431,-0.02515618,-0.02679954,0.06335366,0.00476285,-0.01866044,-0.14274517
0.05103277,0.06052318,0.04161931,-0.03268668,0.04948471,0.08146712,-0.01145362,-0.08926933,-0.11865483,-0.15780728,-0.04969387,0.01484896,-0.07108013,-0.11349887,0.03418573,0.05361370,0.02813466,-0.07204373,-0.00431622,0.03427316,-0.04775957,-0.01549763,0.03872235,-0.04594469,-0.02572967,0.01838771,-0.02335316,-0.10805438,-0.06448455,-0.21537594,-0.00279554,-0.12263525,0.06692501,-0.01445474,-0.02493806,0.03044695,-0.03320990,-0.06427065,-0.11484434,-0.00640362,0.08419762,0.07409141,-0.07696374,-0.03489598,0.03226314,0.05658868,-0.11187150,-0.07358436,0.00308938,-0.03359041,0.05859019,0.07014361,0.09976294,0.02945144,0.02145831,0.00352703,0.04464491,0.08320948,-0.13780607,-0.10327468,0.16111633,-0.03708181,-0.04014451,0.00999689,-0.14478606,0.08102150,-0.03589378,-0.03606564,-0.11615035,0.00297580,-0.16608930,-0.07410114,0.01027724,-0.02842538,-0.05508724,-0.01393749,0.05723945,0.13657653,-0.11570191,-0.04711834,0.34213525,-0.04783943,-0.04923777,0.00264875,-0.09042167,-0.15057953,0.04103019,0.00292029,0.02022739,0.00727968,0.00965218,0.00703771,0.06165622,0.08227362,-0.03202805,-0.06159946,0.04372765,-0.00238248,0.08424214,0.05082472,-0.02061937,-0.02220587,-0.08215001,-0.06809348,0.03315812,0.01871979,0.09052930,-0.06158188,0.05001973,-0.01193519,0.19352220,-0.06045171,0.12678428,0.00789568,0.02832255,-0.05122425,-0.18985485,0.03113285,0.01691387,-0.03465462,-0.04144000,-0.05104198,0.01864762,-0.07595652,0.13796465,0.03257189,-0.00525912,0.12082332
0.03996652,-0.07723065,-0.02562543,0.05476764,0.00984970,0.02705463,0.18018527,0.09064514,-0.04662236,0.05055727,-0.00381950,0.03599086,-0.04693366,0.09961057,-0.09050673,-0.06086330,0.05131824,0.00267700,0.00810747,-0.05351246,0.00220829,0.01482039,-0.00630488,-0.03230306,-0.04744247,0.08400796,0.08598575,0.10424747,-0.04233912,0.00677224,-0.12379239,0.09718578,-0.00586236,0.04029017,-0.12931807,0.00468515,-0.00324008,0.00328641,-0.06160087,0.02551703,-0.07234012,0.00854029,-0.01403521,-0.04049951,0.03466045,0.07355099,0.09066845,0.07177754,0.00911804,0.01668139,0.02475600,-0.19989191,0.16375978,0.01292405,-0.13936816,0.06069520,-0.03869212,0.03551145,0.07261642,-0.10763185,-0.05415821,0.00139500,0.05203545,0.00098243,-0.04391127,-0.06622900,0.07298523,0.04719554,0.11392914,0.03096269,0.02987594,-0.05816661,-0.07029662,-0.03133939,0.01645706,-0.00317621,-0.00950015,0.07366932,0.11857496,0.06491902,0.19599141,-0.01817938,-0.06116554,-0.04711258,-0.09010033,-0.02305000,-0.07770276,-0.07526856,0.13587050,0.19991757,0.04544411,0.03921386,-0.11120715,0.03247831,0.08114475,0.07714331,-0.11474096,0.13087073,-0.01264274,-0.07855798,0.07874819,-0.07742868,-0.15661499,-0.10993467,-0.07096811,0.08831894,-0.00787789,0.01011209,0.09970264,0.04343463,0.02799650,0.02315022,0.12161150,0.12496421,-0.00454833,-0.17341493,-0.17518641,-0.13416746,-0.01770087,-0.07557279,-0.12202796,0.02764533,0.05474305,-0.07136147,0.17639045,-0.09938151,-0.09850990,0.07422593
-0.07043171,0.05492679,0.02276090,0.01039321,0.06349567,-0.04835394,-0.03206336,-0.00546669,-0.01125547,-0.06589348,-0.08020060,0.13649820,0.14574151,-0.04330240,0.02635404,-0.12635359,-0.04858416,0.10807982,-0.06078941,-0.03684802,0.06910796,-0.03219695,-0.02047629,-0.01735559,-0.01822373,-0.04736373,0.13059236,-0.11705315,-0.14869626,0.10652429,-0.04697747,-0.07644267,0.09174590,0.00999729,-0.10972199,0.05587763,0.04152036,0.00721450,0.02045102,0.07950442,0.12187508,-0.07577918,0.01620959,0.05214859,-0.09680459,-0.03553995,0.09862171,-0.03155677,-0.06355769,0.02867406,-0.04949182,0.03368443,0.05478016,0.01473515,-0.07223939,0.00830598,-0.03953180,-0.04060096,0.00026029,0.02601931,0.01457027,-0.02378115,-0.05078815,0.04405572,0.02753543,0.12106882,0.06458112,-0.06354752,0.02704342,-0.03921497,-0.09123867,-0.01831890,-0.01159784,0.00907645,-0.00319228,0.03250057,-0.01606750,0.05776785,-0.02412979,-0.00319152,0.00736885,-0.07321778,-0.02846069,0.08976524,0.03468917,0.06674802,0.04030962,-0.07750933,-0.07509311,-0.04738847,-0.06923488,-0.03539300,-0.02711828,0.07631160,0.07394005,-0.05324421,-0.04958665,-0.00840874,-0.04471581,-0.02211426,-0.03082387,-0.09554423,-0.05585860,-0.09173343,0.02080114,0.06680848,0.01771621,0.05432646,-0.02587949,0.04216351,0.07656440,0.13247070,-0.01347266,-0.00064743,-0.09647894,0.07174461,-0.03472627,0.01410435,0.05629575,0.01381263,0.05684298,-0.02964136,-0.05046712,0.03426757,-0.00864465,0.02848973,0.01951982,0.04563975
0.03398790,-0.01228225,0.01829506,-0.02882561,0.08640622,0.03917982,-0.07845353,-0.05008251,-0.10879656,-0.05798054,0.06082254,0.02230444,-0.07497671,-0.00982995,0.02236179,0.07848945,-0.07771528,0.06084950,-0.11537318,-0.09636144,-0.02159129,0.07972828,0.02734775,-0.00826432,-0.00054328,-0.00171243,0.19882418,0.11513548,0.02271943,0.02885976,-0.07138087,-0.06616721,-0.04225255,-0.12757614,0.09069844,-0.00742738,-0.09926507,-0.08665033,-0.08455256,0.12146647,-0.03930508,-0.03503462,0.02305702,0.08859398,-0.12475269,0.09792432,0.05981496,-0.02135560,0.05984791,-0.03304037,-0.03046838,-0.09900380,0.01818596,-0.03522178,-0.01773324,-0.01217707,-0.00656098,-0.01679777,0.06955631,-0.05107649,0.03359670,0.02648665,0.08472576,-0.05781969,-0.06781158,0.00052906,-0.07630422,-0.06651521,0.02453013,-0.01826943,0.16496719,-0.01092283,-0.04338569,-0.01948410,-0.00616070,0.05675949,-0.08751393,0.15684395,-0.00891568,-0.06146136,0.07999065,-0.06029037,0.00876382,0.08168931,0.09069326,-0.20991956,-0.06073872,0.10451412,-0.05230428,-0.01879837,0.08699623,-0.05635964,-0.12821428,-0.00622818,-0.04985173,-0.00490385,-0.03168467,-0.05620201,0.06727393,0.10459964,0.05740133,-0.06167921,-0.03753406,-0.01707882,0.05200000,0.05070838,-0.00137682,0.01575046,0.06093511,-0.00003544,0.00703615,0.03020988,0.04373805,0.02823970,0.10799075,-0.06706460,-0.01064947,-0.01797903,-0.05591098,0.04270870,0.02935256,0.11108600,-0.00301410,-0.07160047,-0.00401263,-0.02157375,-0.02410816,-0.01888115
0.02005445,0.03059836,0.01694284,0.02458149,0.04450878,0.06428699,0.08410978,0.13821791,-0.04470074,0.00973004,0.00701530,-0.07689580,0.05189836,0.13755697,0.09949643,-0.00700393,0.04768225,0.15231229,0.08165979,0.01856259,-0.01470671,0.02400062,0.15154254,0.03070084,0.09917679,-0.03159364,-0.05629166,0.08611533,-0.18288879,0.03918639,-0.16368331,0.00638691,0.01847358,-0.07044067,-0.15541819,0.00821116,-0.00837237,0.03258442,-0.08009548,-0.03603287,-0.04671618,-0.02278719,-0.02087355,0.03224392,-0.03739601,0.00638303,-0.04762402,0.01407165,0.01014564,0.01707041,-0.02892343,0.04174604,-0.01366056,-0.03804715,0.04285434,-0.10550798,0.03204619,-0.05594832,-0.08811061,0.04471155,0.04189494,0.02586370,0.05980841,0.00907437,-0.02444189,0.03639694,-0.05318586,0.05116775,-0.05384918,0.02194110,0.04459276,-0.03399340,0.05009003,0.00081749,-0.18295217,0.02955687,0.01859626,0.03805692,-0.17348820,0.11797743,0.01732877,0.06087236,-0.00779180,0.04579132,-0.01916323,0.06058603,-0.04166956,-0.06164048,0.01773344,-0.00497318,-0.11090081,0.04060081,0.02617839,-0.08148224,-0.06562264,-0.03809601,0.00719912,-0.08844747,0.06810385,0.01611436,0.02440433,-0.00164358,-0.10866982,0.01885159,0.02915072,-0.06037667,0.03841194,0.01372923,-0.09602440,0.05781404,-0.00821092,-0.01458626,-0.01565528,0.03889214,-0.03022069,0.04492801,-0.03992864,-0.05195530,-0.05188635,0.02002611,-0.02637171,-0.07936990,0.00862927,0.00988537,0.04176116,-0.00666359,-0.01553430,0.09732677
