-0.13167347
-0.20975587
-0.35786384
-0.07314461
0.24228114
-0.45862284
-0.03134141
0.07296356
0.25301221
-0.31986213
-0.36770365
0.21019489
-0.13614933
0.09036263
0.38564968
-0.17443240
0.15284370
0.19893470
0.22108683
0.24982333
-0.01508162
-0.26926842
-0.11836954
0.28709072
-0.34732300
-0.03488981
0.29375190
0.01846994
-0.26167163
0.26387623
-0.31646493
-0.25363043
0.28291264
0.02947758
0.16922732
0.31329796
0.15945266
0.11210325
-0.06069557
0.35560262
0.09403368
-0.44710761
-0.13605142
-0.11464689
-0.11323075
0.18377243
0.15133403
0.24756987
0.26440319
-0.36643520
0.24286312
0.12246055
0.36207151
0.34042418
-0.30098861
0.36341238
0.52734369
-0.36019525
0.07056685
-0.04666167
0.43420133
0.11306686
0.19344646
-0.24739110
0.24330248
-0.23226146
-0.45970151
-0.37050095
0.18046555
-0.32951558
0.05218494
0.19483998
0.26953447
0.42676616
-0.21224223
0.31994641
0.23450935
0.04121435
-0.02341638
0.16748701
-0.10529643
-0.23796760
0.11778795
0.09864269
-0.02538907
-0.46797088
-0.18609086
-0.17680709
0.32272702
0.12863283
0.24553366
-0.16976941
0.11058135
0.02494766
-0.04987454
0.06682801
0.19312651
0.15171158
-0.09174611
0.06857287
0.03783629
-0.04664994
-0.03893970
-0.02814883
0.32791039
-0.09336156
0.07886415
0.15813190
-0.33096650
0.16437939
-0.05965087
-0.02390857
-0.39256173
-0.25234091
-0.09301689
0.29094759
0.13048533
-0.16730589
0.30647662
0.19282600
-0.25700191
0.21098046
-0.35103717
-0.12057173
0.15992074
0.01835085
0.16479650
-0.10909391
