-0.12166549
-0.03597879
0.20138159
-0.27642974
-0.08262984
0.13201891
0.16642398
-0.01935651
-0.20066734
0.07020639
-0.06538295
-0.11975975
-0.12857898
-0.01510168
-0.11203472
-0.12740029
-0.16016939
0.14885658
0.09332760
0.10017972
0.05439091
0.11320895
-0.06598274
-0.14311297
0.13227439
0.07426998
0.20222858
0.12960996
0.05415215
0.00206655
0.08331940
-0.11151337
0.03767346
0.10628820
0.15554102
0.23289947
-0.10504169
-0.00258271
-0.09532955
0.12590599
0.11869836
0.05851109
-0.00400372
0.19991131
0.19170952
0.05816529
0.00687798
0.05229830
0.13151297
0.23937686
-0.04248533
-0.03644652
-0.16416328
-0.10520869
-0.10466607
0.18577988
-0.14535530
-0.21008143
0.28750026
-0.08776062
0.10164075
-0.12710896
-0.06642869
-0.01761953
0.11500205
-0.01551934
-0.04756681
0.10185736
0.01066857
-0.01387786
-0.00158361
-0.04049736
0.05423599
-0.02823075
-0.08328503
0.01378383
0.04053130
-0.05133592
0.00565765
-0.04712649
0.01284991
0.04082849
0.06244214
0.07104830
-0.04508214
-0.09162542
-0.01230016
-0.03164573
-0.01202685
-0.03252338
0.03515740
-0.02244490
0.00875131
0.03358476
0.01556420
0.07397030
0.05646197
-0.08489712
-0.06128436
0.10036648
-0.03049167
0.04376524
-0.11222494
0.03365939
0.02031665
-0.02132764
-0.12877259
0.03544367
-0.00483814
0.03943058
-0.02303368
0.03880351
-0.05454317
-0.00974599
-0.03223516
-0.01851479
-0.02536166
-0.01703377
0.01897365
0.06336835
0.02344681
0.00141153
-0.09802381
-0.01536343
0.02196858
-0.03253045
0.04574880
-0.00103174
