0.00170297,0.01239384,-0.03701465,0.01841237,-0.03651354,-0.03188244,-0.02499828,-0.00148588,-0.01776870,0.02617154,-0.02171671,0.03172806,0.04950679,0.00456608,0.01043390,-0.01770044,-0.00492702,0.05961868,-0.02975862,-0.02298820,0.03745850,-0.02216394,0.00557709,0.00830237,0.01516692,-0.04538261,-0.02755030,-0.02329221,0.00223355,-0.00347975,-0.02014486,0.00620239,0.00097742,0.01673037,-0.01796019,0.02133697,0.02805717,-0.01828507,0.00805929,0.02458116,0.01168515,-0.00279538,0.01554030,0.02111818,-0.01183403,-0.04892069,0.01342134,-0.00680635,0.02709273,0.00350720,-0.01062013,0.01351101,-0.02001172,0.01160140,0.03425240,-0.01196113,-0.02108052,0.03216241,-0.05251418,0.01680056,0.02211542,-0.00123135,0.02446867,-0.00555358,0.01386732,-0.01113880,-0.02166796,-0.05770792,0.03983163,-0.00355135,0.01096992,0.01755303,0.01342004,-0.01441554,0.01190251,-0.01322834,0.01939150,0.01571442,-0.01144439,-0.02954903,-0.00757522,0.01453806,0.01923399,-0.02001442,-0.00793701,-0.01419449,-0.01350061,-0.00540137,0.03400089,0.03255862,0.02492160,0.01565270,-0.03572935,-0.01892127,0.02040918,-0.00871324,0.01842483,0.00925746,0.01289179,-0.02260771,-0.02944528,0.04349075,0.03619124,-0.00025532,0.01668268,0.02684996,-0.03329622,-0.03059857,0.00548416,-0.01838758,0.02198477,0.01366712,-0.01455795,-0.02685506,-0.03929656,0.04689023,-0.00880986,-0.00912240,-0.02784064,0.01533030,-0.00730953,-0.01972399,0.02907041,0.02161445,-0.01624219,-0.00088561,0.02254750,0.00284794
0.02274474,0.04390758,0.02027339,-0.00315331,0.03101308,-0.02900769,0.00755332,-0.01695676,0.01722118,-0.02070600,-0.02212572,-0.00541653,-0.02169248,-0.00918150,-0.00204893,-0.00733651,0.02447521,-0.06363393,0.01235982,0.00262927,-0.01813428,0.02034075,-0.02402580,0.01908985,-0.01255243,0.02633804,-0.00894083,0.03552304,-0.02889668,0.02490447,0.02395446,-0.02380996,0.01563054,-0.04275241,-0.01347004,-0.01759577,-0.00591959,0.02765031,-0.02058276,0.01253511,-0.01507224,-0.01599672,-0.02462458,-0.01023024,-0.03497357,0.00214854,-0.00236495,0.03804848,0.00563303,-0.01913277,0.01623224,-0.00431767,0.02645609,-0.05851921,-0.00089804,0.00403742,0.01259784,-0.01218324,0.00956993,0.01327093,-0.03674816,-0.00099344,-0.01828829,0.01807069,0.03764495,-0.00851637,0.02677415,0.04056086,-0.00263219,0.00768996,-0.02127143,-0.03927723,0.01682430,-0.05170686,-0.00310057,-0.00681775,-0.02171343,-0.01973520,0.02278510,0.02836858,0.04885110,-0.04282160,0.00738192,0.01490341,0.02572105,-0.01761917,0.00787001,0.01153697,0.00207104,0.01759492,-0.01659135,0.00499351,-0.02312788,0.05435803,-0.02460388,-0.02592769,-0.02249286,0.03165831,0.01928173,-0.02622340,-0.02600778,-0.01975021,0.00830754,0.01764130,-0.04265641,-0.01102963,-0.00008611,0.01274430,0.01910204,0.02238443,-0.00370268,0.01876699,0.00413877,-0.00423359,0.00294622,-0.00478543,0.02171514,-0.00866933,0.03535298,0.01642836,0.04507786,0.03897800,-0.00598522,-0.03506233,0.02407168,0.02604046,-0.02749270,-0.02303793
