-0.01171290
-0.03209404
-0.08646043
0.03760341
-0.13841423
-0.02181411
-0.09913442
-0.08627430
0.00159324
-0.01381357
-0.00513824
-0.03025615
0.00507647
-0.10088944
-0.03757175
-0.09455415
-0.08811565
-0.06774405
-0.01339708
-0.09737383
-0.14342724
0.01925663
-0.10515455
-0.16314848
-0.03921995
-0.14828323
-0.08366587
0.00926295
0.06364367
-0.07676614
-0.05333209
-0.03037099
-0.11593904
0.07344179
-0.09513104
-0.00417021
0.03384792
-0.04847388
-0.12355323
0.15332733
-0.01767286
0.05700403
-0.04351742
-0.03290038
-0.03483656
-0.00586953
-0.01605820
-0.00591179
-0.02445609
0.02587452
0.05431733
0.00658599
-0.16349708
0.03980112
-0.09190688
-0.06916561
-0.07750292
0.05144922
0.01707481
-0.00792571
0.00992972
-0.09899553
-0.01103682
-0.03047441
-0.02905768
-0.11637659
-0.01623750
-0.03801836
-0.02555492
0.03573184
0.04607254
-0.09061411
0.00124969
-0.01716701
-0.08446034
-0.05118613
-0.00650189
-0.02704747
-0.08351273
-0.08027156
-0.02932156
-0.06408565
-0.02224284
-0.07618749
-0.03661881
0.01469105
0.00164823
-0.04284175
-0.01945115
-0.07322626
-0.01888897
0.04413162
-0.24549899
-0.05926735
-0.12391984
0.02967804
-0.11625939
0.05707095
0.01005388
-0.00245892
-0.00550538
-0.03747455
-0.00151731
-0.00610284
-0.04077942
-0.00486450
0.01742981
-0.01274233
0.06009367
-0.06111174
0.03565046
0.00045236
0.03430555
0.04161419
-0.01541668
-0.03620697
-0.06847706
-0.02881515
0.03916385
-0.11379504
0.02742814
0.02591423
-0.01478310
-0.07881597
-0.10449916
0.02285633
0.02644744
-0.13939822
-0.01858230
-0.01179564
-0.05135962
-0.12013649
0.01689308
0.03591684
-0.03919613
0.00521477
-0.08198548
-0.05553333
0.08300550
-0.00836504
0.01296442
-0.05394337
-0.05204720
-0.07641450
-0.08093596
0.14973144
-0.00397471
-0.04237805
0.04248676
-0.13446102
-0.04674282
-0.09274263
0.03608310
-0.05837201
-0.07097182
-0.05248836
-0.07411747
-0.07939324
-0.06244266
0.06168843
-0.07026940
0.01933677
-0.04466186
-0.09354945
-0.02890263
-0.10123815
-0.07190828
-0.07311309
0.12333006
-0.00881243
-0.00849827
-0.04249847
-0.01218349
-0.10581789
-0.02591989
-0.11905693
-0.08484694
-0.10354005
-0.10666863
-0.02767080
-0.03328602
-0.08269583
0.02489892
-0.10306122
-0.03539612
0.01325765
-0.15426421
-0.09650979
-0.12668261
-0.06667081
-0.00710651
0.08670629
-0.18146519
0.00507208
-0.07507577
-0.08477004
-0.00595403
-0.09499111
-0.03671435
0.00163846
0.01978101
-0.06315514
-0.08302255
-0.06231814
0.04419653
-0.11761779
-0.06658345
-0.00492644
-0.04912855
-0.07090690
0.02387145
0.00635874
-0.13064393
-0.07390065
-0.07839650
-0.02675602
0.03850211
-0.03137317
-0.05099342
-0.03246672
-0.07017392
-0.13856222
0.01450432
-0.03791301
0.02439982
-0.14438757
-0.08699989
-0.00187812
-0.06376243
0.03135344
-0.03374334
-0.00365316
-0.04433843
-0.05428431
-0.01227167
-0.04229203
-0.04172646
0.02237864
-0.07645264
0.06498022
-0.05341827
-0.05607775
-0.00584596
-0.06622949
-0.03008479
-0.04055316
0.02626251
-0.07466473
0.06883214
0.08286653
-0.03994153
-0.20698169
-0.01303582
-0.02294634
-0.04621946
0.00480324
0.09339311
-0.01626124
-0.05164206
-0.04661842
-0.03513386
-0.01601200
-0.01676106
-0.05477807
-0.02234155
0.03579043
-0.03822732
-0.01864889
-0.06624157
0.00231256
-0.03996468
-0.03786703
0.00905422
-0.06225666
0.01335938
-0.02807353
0.01521548
0.05034066
0.01039238
0.02378792
-0.09430946
-0.03615855
-0.02463015
0.03734557
0.01806705
-0.10619242
-0.09737458
-0.11488307
-0.07604317
-0.02059414
-0.09434164
-0.00528094
0.03955812
-0.01492482
-0.13751970
-0.06367996
-0.06587834
-0.18662946
-0.05527425
-0.02458324
-0.10946789
-0.07723836
0.01785158
-0.11289901
-0.21690443
0.02689005
0.00689761
0.00838940
0.78485608
-0.04219726
0.02588504
0.05368679
-0.05735236
-0.02219307
-0.00347035
-0.07049689
-0.08361438
-0.07747778
0.03494719
-0.04326088
0.05286594
-0.09665311
-0.14863451
0.07068666
-0.02960513
-0.06875722
0.01477760
0.02483427
-0.02553871
0.04183959
-0.02213293
-0.08372463
-0.05037741
-0.11988227
0.01715733
-0.04823986
0.01628958
-0.00627906
-0.01736470
0.01787011
-0.03880950
-0.10041224
-0.06410637
-0.04372698
-0.05266965
-0.04096285
-0.05565793
0.02521303
0.01066272
0.05811757
0.06308920
-0.04102493
-0.09462854
-0.04066599
-0.01710311
0.02835002
-0.07668650
-0.06712037
-0.01756319
-0.01495005
-0.08764399
-0.04945485
-0.05487635
-0.05110138
-0.05898170
-0.02139233
0.00932886
-0.09801799
0.02751157
-0.04124464
-0.02436304
-0.01349162
-0.06482913
0.02320696
-0.01754830
-0.05309583
-0.05784258
0.01938081
0.01167829
-0.07420454
-0.04594859
-0.33700094
-0.03260896
0.03660977
-0.06224432
0.00806652
0.08464714
-0.08334548
-0.01221301
0.00409494
-0.07738076
-0.09800423
-0.12739861
-0.03092044
-0.08362830
-0.04429486
0.06936599
0.04893559
-0.07838669
0.01764160
-0.01909047
0.01870737
-0.06100228
-0.05354483
-0.00486187
0.02357693
-0.05652702
-0.05767113
-0.13271673
0.04752156
-0.00178928
-0.06438338
-0.07939050
-0.02078762
0.03035532
-0.06056131
-0.02157808
-0.01947141
-0.04622808
-0.01695587
0.00849205
0.03850578
-0.04622251
0.00294622
0.06395560
-0.07562931
-0.05752918
0.05677609
0.06067358
-0.09491273
-0.05140606
0.04340658
0.06222158
-0.09784284
0.04142991
-0.08182886
0.08109136
-0.05804811
0.00596776
0.01224280
-0.04929205
-0.07363979
-0.10125019
-0.01563038
-0.01246599
-0.04666432
0.10486237
-0.05069313
-0.01326642
0.03560388
-0.06414146
-0.02324959
-0.09735748
0.00937558
-0.10903235
-0.08094196
0.02592085
-0.00825260
0.05800310
0.00187262
-0.04327546
0.07259551
-0.00286834
-0.09476616
-0.10365077
0.02304208
-0.05376615
-0.01108387
-0.07252114
-0.02931388
-0.05004298
0.01926368
-0.02903426
-0.04253661
-0.00623117
-0.00778286
0.03262617
-0.03472400
0.04854071
0.07949810
-0.06716445
-0.10242975
-0.01046491
-0.04474122
0.01748786
-0.03391133
-0.09947044
-0.07705372
0.04992994
0.00349396
-0.02274925
0.00524069
-0.07868338
-0.03071444
-0.00594294
-0.02131163
-0.02777944
-0.00000660
-0.02296726
-0.06202605
-0.02526443
-0.06129818
-0.03550098
0.02899884
-0.03253133
-0.08977500
0.01616658
-0.05181092
-0.04040946
-0.07352748
0.03032605
-0.01700980
-0.04724270
-0.00726382
-0.01076041
-0.14436042
0.02834161
-0.04195338
0.12527893
-0.07277844
0.05314133
-0.14012192
-0.09166276
0.06162916
-0.02813208
-0.01827640
-0.05423217
0.05043377
-0.06290628
-0.05743260
0.03848426
0.01693957
-0.01113268
-0.04158943
-0.11444902
-0.02342080
0.00483991
-0.08740523
-0.06188253
0.12142482
-0.08899361
-0.00672861
0.02467954
-0.04495755
0.02924967
0.16069406
0.07329394
-0.07324918
-0.16951324
-0.07494894
0.01460709
0.01743341
-0.09181722
-0.08126999
-0.03215212
0.01200930
-0.03257876
-0.11201786
-0.08513767
-0.02700027
0.00286643
-0.01313208
-0.00639805
-0.07516787
0.04072419
-0.02540526
-0.05327179
0.00883663
0.00063617
0.00874824
0.00099915
-0.08371205
-0.08893408
-0.03515935
0.04772588
-0.04719226
0.00905107
-0.05045991
-0.09720708
0.00807492
0.02716740
-0.11259270
-0.10161195
0.01753283
0.01595622
0.00958556
-0.23948348
-0.00164616
-0.02749180
-0.06342431
-0.02718791
-0.03036222
-0.09308887
-0.07050999
-0.07283390
-0.01837386
-0.04548821
-0.06930607
-0.05289017
-0.09905225
-0.07679888
-0.04533561
-0.01642138
-0.05055987
-0.05493923
-0.06774137
-0.07619825
-0.09425151
-0.08745021
-0.08405413
-0.05659609
0.04765208
0.02968623
-0.03309751
0.03423150
-0.00771274
0.03539949
-0.03264733
-0.06410202
0.02527117
-0.07702034
-0.04871370
-0.08549970
-0.04148709
-0.02762198
-0.06114796
-0.08222167
0.04070785
-0.07050491
-0.03956144
-0.12733935
-0.08491040
-0.07499371
-0.15190896
-0.03779138
-0.07178022
-0.05507721
-0.06153119
-0.10718770
-0.10699585
0.04882524
-0.07354281
-0.05766138
0.00907125
-0.05980056
0.02803957
-0.06700636
-0.07063898
0.01666524
-0.04171381
-0.04910263
-0.11483757
-0.08187838
-0.07027955
-0.00230943
-0.02431447
-0.08733799
-0.03477826
-0.01284495
-0.01015526
-0.10938784
-0.00679447
-0.10916857
0.00275544
-0.05099817
0.01416636
-0.10409839
-0.08796687
-0.05629499
-0.07914741
-0.07391994
-0.05597350
0.00956800
0.01785027
-0.08303297
-0.04075321
-0.14371797
-0.10969079
-0.12301364
-0.00709071
-0.05754754
-0.05337912
-0.15343219
-0.02059420
0.06325638
-0.01023449
-0.10678863
-0.06165250
0.01803754
-0.04816221
0.00879423
-0.05675198
-0.04652608
-0.05994136
-0.07007344
-0.04612238
0.03890540
-0.04292858
-0.03702199
-0.02093537
-0.07925349
0.01330382
0.04666897
-0.04299127
-0.10442308
-0.05566972
-0.09229537
-0.05899105
-0.07804199
-0.09162687
-0.04464116
-0.02571614
-0.03771190
-0.07466134
-0.02288080
-0.09294219
-0.00710906
-0.05936757
-0.01960126
-0.05984087
0.00614672
-0.01655250
-0.03059165
-0.03293991
-0.06218728
-0.02236593
-0.00314419
0.04240400
0.01722447
-0.07447337
-0.02747303
-0.12695517
-0.08128566
-0.12140507
-0.17467335
-0.02867397
-0.04125442
-0.04956717
-0.00754993
-0.02385046
-0.03465255
-0.01169192
-0.01107596
-0.01076198
-0.05149051
-0.04973890
-0.03865678
0.00912596
-0.07120652
-0.07189523
-0.03449446
0.07318050
-0.02100920
-0.08502385
0.05797134
-0.00559119
0.05412534
-0.11317986
-0.03594913
-0.04900042
-0.07948023
-0.08120806
-0.03788137
0.08894771
0.01761682
-0.05357582
-0.02589913
-0.04824212
