-0.03254414
0.05681704
0.03720434
0.01936359
0.09134153
0.03267486
0.06588046
0.13847364
-0.01640737
0.00823231
0.06206488
0.06667665
-0.06756079
0.02702064
-0.01358418
0.03039520
0.12203915
0.04759169
-0.04539432
0.01005361
-0.02154665
-0.01128528
0.04045648
-0.00412227
0.02974292
0.10182802
-0.07575248
0.03528616
-0.13755630
0.09984637
0.04081637
-0.05701740
0.04263800
-0.05783035
0.00464558
0.03860896
-0.05287343
-0.01538061
-0.07008530
-0.07242566
-0.02731854
-0.03986421
-0.02567184
0.03412762
-0.02901354
0.00959192
0.03567372
0.14043297
-0.02471344
-0.06085152
0.01985860
-0.04034961
0.07413294
-0.13085131
0.02130076
0.14058104
0.06933877
-0.17016089
-0.00902912
-0.06610232
0.04705998
0.13334878
-0.11466797
0.06716905
0.02017706
0.04423047
-0.01940909
-0.01460948
-0.06188164
-0.02338296
-0.04831500
0.01174692
0.00605632
-0.00320718
0.02400522
-0.00241572
0.03478710
-0.05910202
-0.02624707
0.03929518
0.08296735
0.01339169
0.03942540
0.06803645
0.05276589
-0.10490987
0.07457229
0.02701530
-0.09074891
0.08323909
-0.09913386
-0.10054082
0.15462312
-0.10747057
0.07917127
-0.11429924
0.20448050
0.00770326
0.00804503
-0.03473081
0.00906490
-0.05646233
0.10704780
-0.06880438
0.04672948
0.05184392
0.06326732
-0.05944971
-0.09795851
-0.08414301
-0.09557301
0.02678521
-0.11267541
0.02134987
-0.02435713
0.07665514
0.02322357
-0.00540673
-0.06670836
0.01000632
-0.03246072
0.01915433
0.01157702
0.03208299
0.12288930
-0.12657817
-0.01511151
0.05169420
-0.03740077
-0.00462146
0.02776857
-0.01061775
-0.08743807
0.02342571
-0.00339911
-0.00845685
0.03834951
0.07560399
0.05048005
-0.08976088
-0.02678238
0.09970997
0.03018163
0.00391309
-0.00848529
0.04549199
0.01381501
0.00684323
-0.12965140
0.06954282
-0.02010553
0.05041576
-0.08832890
-0.02379443
-0.09168386
-0.04170969
0.06609251
0.04386443
-0.03905182
-0.02297631
-0.00392215
-0.01854566
-0.00004036
-0.06381870
-0.09455467
0.08368547
0.08915953
-0.00849374
-0.10614945
-0.05624704
0.04369180
0.02318924
-0.04652007
-0.03597760
0.01437231
0.14120862
0.00806658
-0.00433690
-0.04220295
-0.07433347
-0.04266261
0.04656546
-0.08176527
0.02375971
0.00464590
-0.09308764
-0.01993767
0.00111597
-0.01350570
-0.04769173
-0.03079173
-0.01465588
0.04897397
-0.06975932
0.08137675
-0.01620930
0.07057623
0.14894886
0.01237842
0.05310778
-0.10627421
-0.09475447
0.05944796
-0.09834044
-0.03687974
-0.01357112
0.03446718
-0.00227396
0.04393198
0.01149050
-0.00480523
0.00002315
0.05706999
0.10821396
-0.04064841
0.04813833
-0.05405850
-0.01609765
0.24344383
-0.04487753
0.09152289
0.11393181
-0.00029625
-0.04029793
-0.03064975
0.11410688
-0.09567590
0.02273872
0.09684721
0.03235963
-0.10303264
0.06158767
0.06516715
-0.00944393
-0.05042420
0.00693299
-0.03825679
0.05586230
-0.04003636
-0.07975779
0.08868761
-0.08718938
-0.05160244
0.11264157
0.10115619
0.07720818
-0.01645680
-0.06003375
-0.05894264
0.02167981
-0.11666206
0.00216849
0.02706368
0.06119861
0.06823339
-0.07353494
0.04846060
-0.04412310
-0.00333753
-0.02952065
0.03817540
-0.03329483
-0.02166552
0.06327040
-0.01777546
-0.14033636
-0.04599878
-0.04367880
0.05002869
-0.05337283
-0.01202666
0.06154708
-0.06849529
0.07777655
0.06960269
-0.17343843
-0.01741845
0.02262118
0.08935006
-0.08413919
0.04695392
0.04110390
-0.08050258
0.05418850
-0.01464120
0.01336490
0.04579959
0.02337519
-0.05246294
-0.00239851
-0.06648123
-0.03501676
-0.08091678
-0.07716186
0.03132763
0.01879582
0.15080145
0.05617006
0.05874178
0.00328225
0.07152655
0.07694127
0.03649497
0.07967426
0.07610082
-0.08101422
-0.01529347
0.03131310
-0.51907271
-0.04509675
-0.06027059
-0.06069997
0.02462283
0.07087060
-0.01137688
0.08039537
-0.03017035
-0.04716966
-0.02399945
0.12968926
-0.03687503
0.06809503
-0.02027134
-0.13561729
0.01762025
-0.11701220
0.05624492
0.12073783
-0.03857522
-0.00884334
0.07210656
-0.06686447
-0.07379305
0.14920586
-0.02347966
-0.01306430
-0.10265730
-0.04262486
-0.07049096
-0.01221678
0.08981919
0.06164097
0.00545615
0.07826772
-0.02439338
-0.11474025
0.06530703
-0.05585587
0.03214479
-0.00250300
-0.06118025
-0.10853079
-0.00289865
-0.14289764
0.09715548
-0.00461893
-0.02330016
-0.02291483
0.02208847
0.09224829
0.07279904
-0.02924703
0.11473378
0.04088254
0.11421180
0.03898755
-0.12530662
0.00167924
-0.00798154
-0.03497315
-0.03202771
0.01955561
-0.03698996
-0.04633937
-0.06708047
-0.02305099
-0.01214753
-0.09685189
-0.08269035
0.05500127
0.00582136
-0.55032718
-0.03786865
-0.11841166
0.01032395
-0.02586339
-0.06876605
0.04843324
-0.02615578
-0.07440328
0.00793973
-0.03522759
-0.00122693
-0.08226129
0.06823302
-0.00107151
-0.07752910
-0.07058440
-0.04605633
-0.02906536
-0.08635101
-0.03864976
-0.04229224
0.00751008
-0.09213827
-0.03844375
-0.02762623
-0.03702128
-0.02798867
0.00175659
-0.04174466
0.00790092
0.02699815
0.06296955
-0.08637054
0.05735625
-0.09533595
-0.08953632
0.04516000
0.02659087
0.06701817
-0.22639036
0.00813849
-0.00764149
-0.06459816
0.00513528
-0.00832489
-0.01912177
-0.02162698
0.05933104
-0.00411708
-0.04342266
0.02002343
0.03013102
-0.12384498
0.03394939
-0.00305634
-0.09571125
0.01887794
-0.02561924
-0.02386627
0.01630235
0.00871927
0.00890521
-0.00095401
-0.05659057
0.05665549
0.00952413
-0.04360878
-0.03786924
0.00082998
-0.00483833
0.01809035
0.00631124
0.04211131
0.14497411
0.06554513
0.04947497
-0.04617501
-0.06142553
0.03453354
-0.05532148
-0.04436251
-0.01692703
0.13033096
0.03033338
0.05634641
-0.07962137
-0.04013437
0.05230858
-0.00924702
-0.03306842
0.05453744
-0.03766210
0.04189402
-0.07346888
-0.00724902
0.01959904
-0.07606801
-0.12602423
0.04875624
-0.00136455
-0.07866149
-0.17226851
-0.08589421
-0.05593539
0.09046563
0.08008044
-0.07074028
0.01113984
-0.02097046
0.02158275
-0.04926533
0.08506535
0.00578742
-0.04533195
0.01627948
-0.00700013
0.05094132
0.04012490
0.03266552
0.00506119
-0.08687408
-0.02481072
0.04081594
0.10424535
0.06362735
-0.01535951
-0.08892114
0.00030089
-0.03602171
-0.07692114
0.00670745
-0.00464664
0.06726270
0.16610013
-0.06330210
-0.00465255
0.06381559
0.07465420
-0.02627519
0.01136813
0.04878323
0.04863653
-0.06018766
0.04818575
-0.07465632
-0.05769566
0.00878055
0.14223887
0.10934498
0.01621840
-0.07147500
-0.03423826
0.03154436
-0.10248164
-0.01459602
0.02766140
0.03366801
-0.10898097
0.06010891
-0.04649453
0.01141203
-0.01242672
0.00952747
0.04698489
-0.04008350
0.07927860
0.03512120
0.06733237
-0.04321257
0.03528689
0.05959095
0.01188792
-0.05432410
-0.02619287
-0.08988661
0.03982232
-0.01612478
-0.06701862
-0.04790519
0.02951547
-0.00344118
-0.02571746
-0.05860606
0.06415460
0.02273239
0.01991634
0.01251565
-0.02945625
-0.02724365
0.03463065
0.01810135
0.06122212
-0.07286543
-0.00228312
0.05505215
-0.18557882
-0.01414438
0.03323770
-0.11685628
0.08422143
0.12430782
-0.04445111
0.01709601
-0.02624059
0.16177292
0.05004666
-0.03309796
0.01155091
0.04553832
-0.09305437
0.01828078
0.04939839
0.02766571
-0.08766606
-0.02556380
0.07371601
-0.01273681
0.03432356
0.07619146
0.06521764
-0.02253140
0.03103187
0.06406455
0.01869325
0.02413154
-0.01713342
-0.02665283
0.04662884
0.00405074
-0.01337516
0.04295278
-0.00957619
-0.11710671
0.02594296
-0.03989297
0.02143148
0.03744324
-0.03318753
0.09272153
0.07610050
-0.02287946
0.05437854
-0.07173370
0.06818266
0.07793128
-0.09883475
-0.09616963
-0.05511178
0.07480715
0.04304888
0.03960890
0.09297377
-0.08216763
-0.04999863
-0.01487097
0.03128434
0.02084122
-0.07239484
-0.08471611
0.05977556
-0.01995135
-0.07255864
0.00403246
-0.00305001
0.03237930
0.10088687
0.01519220
0.12464610
0.05164458
-0.01479924
0.03662455
0.06430170
-0.08904313
-0.05805818
0.05629715
-0.05069574
0.00997561
-0.04456683
0.04029330
-0.02939447
0.02388567
-0.03061948
-0.01558680
-0.00991044
0.05524165
0.20336969
0.05074717
0.01368915
0.10028281
0.00998227
-0.01768821
0.03314517
0.06334036
-0.01934654
0.06976378
-0.01903679
-0.00793677
0.01282377
-0.03268615
-0.03628881
0.11228029
0.00721049
0.05494126
0.02803941
0.03673900
0.09778028
-0.01510663
-0.06976833
-0.01991040
-0.06582723
0.05919705
-0.01345703
0.06083643
0.02239593
-0.10204387
0.00589277
-0.11251947
-0.08627961
0.07668306
-0.07488906
0.10437094
0.05207137
0.02231671
0.06963775
0.03998441
-0.03573733
0.11387308
0.03898381
0.03759057
0.08684620
0.11662787
0.05458178
-0.05705408
0.00469361
0.02078800
-0.00673845
0.03572620
-0.02133898
-0.09252589
-0.01603058
-0.05804021
-0.02833957
0.11059840
-0.01700745
0.03147088
-0.09776966
-0.01247659
0.06448099
0.10773143
0.04681217
0.03644500
-0.00706402
0.18941639
-0.18768589
0.00746882
0.16733044
0.00546387
0.05466107
-0.00105733
0.01098406
-0.00125735
0.05742303
-0.08623255
0.04979789
-0.01926340
-0.06346958
0.12976953
-0.02556106
-0.04509213
0.01557507
-0.07358381
0.09393576
-0.14514472
0.02103616
-0.11701388
0.02909377
0.14522038
-0.13163938
-0.07412624
0.08222653
-0.05898342
0.03081769
-0.06527318
0.03114991
-0.00552710
0.00526802
