-0.00634605
-0.01989403
0.04628465
0.01585056
-0.04256899
-0.01328332
-0.00913692
-0.03353379
0.02584639
-0.03645137
-0.06115474
0.03041781
0.01719957
0.01217988
-0.00330433
-0.04850163
0.00054115
-0.09239421
0.01037972
0.01192610
-0.05875353
-0.00682117
0.00437545
-0.04526833
0.00558105
-0.04108746
-0.04818485
-0.05164076
-0.09153496
-0.04045721
-0.02714979
-0.04666529
-0.01159013
-0.07627697
-0.04205629
-0.05751519
-0.02773347
-0.07736351
0.00699315
-0.05946632
0.05358895
-0.02096063
-0.04583525
-0.06921969
-0.10842055
-0.01913534
-0.13538657
-0.00173332
-0.10962985
-0.11798490
-0.02124463
0.04496782
0.03434744
-0.02508188
-0.08845327
-0.00891321
-0.00221332
-0.06207320
-0.00052548
-0.06964003
0.04389021
-0.08395271
0.02046428
0.05053702
-0.04389488
-0.04746955
-0.00093629
-0.05914379
0.03308681
0.00090344
0.02195949
-0.02325986
-0.06660017
-0.05418341
-0.01276021
-0.08529949
0.04883666
-0.04911619
0.04088917
0.03160502
0.03465303
-0.03489795
-0.05103336
0.01956049
-0.05774192
-0.03724904
0.02869210
-0.01331561
-0.04723376
0.02997478
0.01481747
-0.07745405
0.05353159
-0.01510089
-0.04197480
-0.11652775
-0.04004049
-0.01451093
0.02963247
-0.00977413
-0.08177405
-0.07563549
-0.09047063
-0.02886253
-0.10929180
-0.01905907
-0.02831084
0.04834899
-0.05120067
-0.02303411
-0.03579872
-0.03808320
0.01237489
0.02001784
-0.02049452
0.03575145
-0.00295062
0.03564909
-0.00226518
-0.00736491
0.03499161
0.11655474
-0.00322040
-0.03299194
0.01113328
0.05005914
0.01010943
-0.00364961
-0.03448385
-0.12807322
-0.00634181
-0.00138546
-0.00636143
-0.03401055
0.06441412
-0.11152286
-0.04530854
-0.00244576
0.03895762
-0.03537673
-0.01189219
-0.00476900
0.03992403
-0.02877558
-0.01547913
-0.08642050
-0.03714413
0.02978765
-0.06655246
0.03195077
0.00560702
0.05741527
0.07299335
-0.07093115
0.01595701
0.08328285
-0.01419991
-0.07054427
-0.11788813
-0.01168397
0.02376837
0.05185612
-0.01854136
0.05104419
-0.06601401
-0.07092426
0.00367431
-0.09464047
-0.05043558
-0.05254581
-0.02414302
-0.01713404
0.01874743
-0.00514278
-0.07900085
0.05767110
0.09369823
-0.03337893
-0.05037610
-0.07951095
0.13051741
0.01497576
-0.01726624
-0.03818592
-0.01468575
-0.06008005
-0.06196812
0.00644663
0.03390428
0.00916570
-0.03373246
-0.11071051
-0.01051885
-0.00060141
0.04402389
-0.05110621
0.01025289
0.12217962
-0.00700532
0.02815785
-0.04482126
-0.02744242
0.03920932
0.05116377
-0.08578316
0.04380389
0.04288051
-0.06272067
0.04404645
-0.06124046
-0.01341325
-0.06939566
0.04297359
-0.08876415
-0.00451215
-0.02966174
0.05599394
-0.06859696
-0.04912122
0.00448773
0.03283755
-0.06260177
-0.01914815
0.00554412
-0.07563176
-0.11891229
0.03670860
-0.10152695
-0.03300678
0.00129961
-0.05409282
-0.04586442
-0.10290986
0.00175345
0.06172670
-0.02126618
-0.00812503
-0.03641677
0.04239090
0.03133205
-0.04267086
-0.00196080
-0.04937708
0.01915652
-0.00312820
-0.03278871
0.04470183
-0.07585680
-0.07627239
-0.04377025
-0.05809497
-0.09665462
-0.02240030
-0.02843628
0.07773712
-0.08033136
-0.04747246
0.00738873
0.02676286
-0.05778586
-0.06098721
-0.03246938
-0.03162914
-0.12727349
-0.05139155
-0.06668780
-0.19218926
-0.05179394
0.00245533
0.02990439
0.08093433
-0.03043572
0.01557732
-0.07266042
-0.03333595
-0.05306518
0.11671343
0.00010026
0.00197895
-0.06562445
-0.04301429
-0.01048156
0.04835084
-0.08967623
0.06546709
-0.02485040
0.01441043
-0.09789863
-0.11840781
0.01164842
0.01564244
0.04335352
-0.02942079
-0.05175734
-0.01109230
-0.03344481
-0.02270213
0.08932805
-0.06574936
0.01344208
0.03751843
0.03198787
-0.09530182
-0.04402838
-0.01563796
-0.03150018
-0.01350424
0.00279244
0.22506146
-0.05385065
-0.02085727
0.00411861
-0.02537416
-0.02385303
0.06708710
-0.01581520
-0.00375281
0.03489336
-0.02687985
0.04424837
-0.03147026
-0.03457410
-0.00988931
0.06647350
-0.07795160
-0.03065079
-0.04472286
0.01692216
-0.08113533
-0.03121180
-0.02733566
-0.04248757
-0.09142187
0.06779373
-0.03846521
-0.00085077
-0.04907969
-0.01664793
-0.05030744
0.07396499
-0.02546926
-0.01533959
-0.01384079
-0.05339473
0.03123493
-0.04460108
-0.03087425
0.01388661
-0.01526429
-0.04424187
-0.08178764
0.03641463
-0.10787817
-0.06935088
-0.02413269
-0.01906214
0.03499239
-0.06976236
-0.05681695
-0.01001376
-0.05210871
0.06180736
-0.09621300
-0.03592985
-0.09849066
-0.00826797
0.00412268
-0.09154845
-0.03526177
-0.00720055
-0.03600797
-0.03189364
-0.09391125
0.01245188
0.03733428
-0.03683307
0.01254881
0.06333594
-0.02829319
-0.06219614
-0.05117857
-0.02116920
-0.02233006
0.01772056
-0.05789932
-0.10315061
-0.00894049
-0.00520782
-0.05555516
0.01666968
0.12779981
0.05613041
0.00613528
-0.05018084
0.05376124
-0.00157009
-0.02882684
0.05817158
0.02389558
-0.07496666
-0.05991714
-0.01245006
0.02428977
0.10784784
-0.01616888
-0.06523161
0.02771370
-0.06451987
0.08373091
-0.04512966
-0.00193436
-0.04918019
-0.02659463
-0.02376442
-0.05182057
-0.05282758
0.00590514
-0.03138650
0.01591737
-0.00637098
-0.00967386
-0.17171369
-0.01513326
-0.03491917
-0.06683386
-0.02950435
0.00754065
-0.00519222
-0.07484577
-0.01515123
-0.07963119
-0.02634063
-0.15011762
0.02245956
0.01010704
-0.02577779
-0.00002685
-0.02012748
-0.03976901
-0.01552813
-0.02534815
-0.06882875
0.03471740
-0.00200527
-0.05009610
0.05881578
0.04740249
-0.10247166
-0.02646186
-0.04491038
-0.02162695
-0.04081754
-0.01412780
-0.00093792
-0.06759617
-0.06201062
-0.04646725
-0.00680636
0.07305352
-0.04734053
-0.01468696
-0.03710600
-0.14128916
-0.09291320
-0.01163195
-0.05404851
-0.05860018
0.05455009
-0.03970757
-0.09086699
-0.05562384
-0.02022626
-0.01331019
0.04234192
-0.02749809
-0.01526080
-0.05225010
-0.07436182
0.05741687
-0.06425092
-0.05546390
0.00594135
0.01305353
0.03205480
0.00927864
0.00096044
0.09521096
0.03842231
-0.00162258
-0.02533774
-0.00626561
-0.00869457
-0.04583950
-0.05940527
-0.02912398
0.01000840
-0.04245618
0.06583174
0.04861279
-0.04050108
-0.04653074
-0.01597552
-0.04682347
-0.01707277
-0.00017184
0.09757887
0.01238537
-0.01857968
-0.02377144
0.00537075
-0.06286616
-0.06628194
0.03254605
-0.05418397
0.09178992
-0.10412003
-0.09068106
0.00569001
-0.03883979
-0.07424492
-0.04625813
-0.01014093
0.00279477
-0.09840207
-0.05745411
0.00893713
-0.04765311
-0.00003598
0.03637011
-0.00680597
-0.12730666
-0.02867537
0.02925218
0.07489245
-0.01244704
-0.02855744
0.10087194
0.01011852
0.03537818
0.04135384
-0.03499946
0.06807348
-0.08319983
0.00127701
-0.05231525
-0.00747847
-0.06494622
0.01344309
-0.03503741
0.00295209
-0.03437685
-0.06358375
-0.05147163
0.02872508
-0.00785376
-0.00109907
0.01742614
-0.06571063
-0.01687125
0.02338290
0.02213280
-0.04096029
0.01228365
-0.08191907
-0.02273058
-0.04788443
-0.04979643
-0.04843208
-0.03719082
0.00804794
-0.04770074
0.01864985
-0.10813668
0.07414406
-0.03518594
-0.13575612
-0.06660409
0.03810545
0.01371442
0.00772521
0.05048903
0.04159445
0.05236278
-0.05893420
-0.02508194
0.01939352
-0.00639429
-0.00372953
0.03885755
0.01087657
-0.07362368
-0.04536775
-0.04772222
-0.01053700
0.01577897
-0.09488481
0.01139146
0.04553431
-0.02094609
0.02219410
-0.02365875
-0.02059305
-0.09239604
-0.05132172
0.03702961
-0.02616334
-0.00570349
-0.01951887
-0.00745898
0.05513886
-0.05292808
-0.09310503
-0.09036824
-0.05139124
0.00419798
-0.11539691
-0.02466062
-0.01278355
0.03771753
0.00985297
-0.05950309
-0.01661528
-0.10032530
-0.12804838
0.03395132
-0.06690270
-0.10695550
-0.02251076
0.01013641
-0.08929534
-0.05810608
-0.01891651
0.03079851
-0.08420911
-0.04749021
0.03465886
-0.02382795
0.01010914
-0.02201372
0.13713443
-0.08513773
0.00427179
0.00310695
0.02603835
-0.01789045
-0.03198701
-0.07945604
-0.02147516
-0.09436982
0.00878952
-0.02821931
-0.04046458
-0.01344567
-0.05423539
0.03691430
-0.05940532
-0.04199864
0.00769362
-0.02391151
0.02720093
-0.08104477
-0.06267422
0.00603157
-0.00839555
-0.09736636
-0.02890499
-0.06446611
-0.04108448
-0.01580917
-0.03362835
-0.00075521
0.01106020
-0.03086078
-0.02745335
-0.02256045
-0.04038490
0.01112838
0.03261592
0.01992343
-0.05231504
-0.06348059
0.02891487
-0.04100418
0.02958455
0.07344313
-0.03700753
-0.01361835
0.07096665
0.06385367
-0.03653891
0.00568406
-0.02355196
-0.02307480
-0.10181028
-0.03165786
0.07515433
-0.06894954
0.01745265
-0.04265061
-0.08930111
-0.11394518
-0.05516648
-0.06537371
-0.10342173
-0.10613649
-0.00274432
-0.02723262
-0.00750340
0.01607910
-0.03173190
0.02191073
-0.03805780
0.01208683
0.01956580
-0.02159002
-0.01840119
-0.05678120
0.06994728
0.03718488
-0.00600961
-0.05588887
-0.00071291
-0.02157054
-0.11586882
-0.01209141
0.01687080
0.02591937
-0.11262026
-0.09133597
-0.04091985
-0.00813537
0.06357789
-0.01026885
0.06288667
-0.07690590
-0.02219022
-0.00030619
-0.01726369
0.01400053
-0.06217508
-0.03061445
-0.00775980
0.07868063
-0.11139217
-0.09424849
-0.05592479
0.01997879
-0.04389095
-0.05617383
-0.07682718
0.05894906
0.02087009
-0.06911084
-0.07908026
-0.00201769
-0.02229100
-0.10346005
0.02172956
0.07474196
-0.03967830
-0.07250940
-0.01793846
0.00805886
-0.04561122
-0.00889494
0.01648829
0.03757301
-0.01707914
