-0.06574099
0.04207807
0.01201084
0.00229322
0.05551811
0.04591327
0.02202174
-0.05516801
-0.02174147
-0.10106789
-0.09893706
0.05276425
-0.07348263
0.08620808
0.06088813
0.12143727
0.01073332
0.00410133
0.02867434
-0.03396974
0.02277241
-0.00679025
0.00495641
0.01436395
0.02970907
-0.00641623
0.05627782
0.06353962
-0.01516205
-0.01725370
-0.00028550
0.04713260
0.03497163
-0.07612802
0.02452625
-0.02557135
-0.03028307
-0.00538218
0.02415206
-0.05910943
-0.00452848
-0.01788610
-0.04109072
0.01037583
0.04984474
0.04767437
-0.08875410
0.07548633
-0.10166407
-0.07969183
0.00433098
0.05889561
0.07948191
0.00276340
-0.02259619
0.06175357
-0.02995149
0.06247056
0.03718949
0.04294252
-0.01505778
-0.02458067
0.06893110
-0.00880804
-0.02256012
-0.05498502
0.05412844
0.07572381
0.02878814
0.04665973
-0.00448138
0.03181188
-0.03751102
-0.08000249
0.10748842
-0.06584971
0.04558764
0.02360058
0.05321603
0.08713149
0.07393807
-0.03217084
0.02577375
0.00988979
0.00240244
-0.06337189
-0.09003661
-0.03031031
-0.01573018
0.09742571
-0.07601194
-0.00502954
0.08420791
0.05390438
0.03987553
-0.15031023
0.01334217
0.00557090
0.08600378
-0.03264388
-0.06383987
-0.04007306
0.00147587
-0.00294626
-0.13734442
-0.07934938
-0.05982621
-0.07397729
-0.07990653
-0.09266787
-0.02602730
0.02427139
-0.09101674
0.01441022
-0.05372359
0.01560926
0.04085493
0.04593155
-0.04246606
-0.03392334
0.05157288
0.14564358
0.03845185
-0.00341907
0.04336063
0.03621110
0.05322096
-0.02261876
-0.01557696
-0.07831596
-0.01272031
0.06633122
0.00754865
-0.00572613
-0.01333251
-0.08140834
0.04194840
0.01438214
0.08552654
-0.03435085
-0.05056566
-0.04042051
-0.11631010
0.03703693
0.06931249
0.00631020
-0.07919163
-0.10396382
-0.09430830
0.11845782
-0.06812183
0.06970686
0.00872485
0.00076877
-0.04463196
0.08977917
-0.00596216
0.03306383
-0.01061756
0.02463184
0.04564303
-0.00752170
0.05280060
-0.03728602
0.00203123
0.02866164
0.03206747
-0.01733313
0.04454184
0.03436944
-0.07047065
-0.00438328
-0.02441964
-0.05778323
-0.02871987
-0.01135579
-0.00236305
-0.00200512
-0.07473666
-0.00862639
-0.16156913
0.00395664
-0.03232682
-0.05704400
-0.06049922
0.02515697
0.05564233
-0.02299214
0.07624829
0.01839157
0.04470936
-0.09986906
0.05471819
-0.00045948
0.06203170
-0.07735666
0.01879249
0.04105654
0.06476708
0.04743213
-0.09008624
-0.02493271
0.04975994
-0.09522941
0.02113117
0.12651835
0.02136548
0.03072605
0.03972415
0.02130517
0.01090247
-0.05331031
-0.00568730
0.01028229
0.09956321
-0.08423870
-0.02700612
-0.11545700
0.04010162
-0.08965964
0.04613360
0.04168067
0.00090483
0.00421672
0.00773661
0.05371036
0.02287662
-0.03459154
0.04541335
-0.09425035
-0.05722431
0.01996327
0.03354437
0.02642934
0.04397824
0.07090580
-0.01417215
0.03170744
0.11555999
0.02250991
0.13776432
0.00340429
0.01921688
0.09730109
-0.09227954
-0.01060761
0.05268341
-0.00146303
-0.02550107
0.01840788
-0.01015319
-0.05919141
-0.00069154
-0.05081021
-0.00590287
-0.03410723
-0.08146823
-0.04783411
0.05125415
0.11035465
-0.07332531
-0.02877195
-0.02704333
-0.01888504
0.05334730
-0.00794096
-0.07506967
-0.04768421
0.05505704
0.08866481
0.07763732
0.01462169
0.00744729
-0.12827219
0.02786048
0.09505900
0.00655008
-0.01109010
-0.05427046
-0.02454655
0.00789270
0.02287472
0.00307931
-0.01258739
-0.07192299
-0.03439624
0.07332369
-0.08363085
-0.06453168
0.08552112
0.04470874
-0.01589810
-0.02545665
0.10278170
0.03418301
0.00678144
0.00359586
0.07065801
-0.04962296
-0.00329838
0.00248554
0.04914488
-0.00916894
0.01470440
0.02115174
-0.08301270
-0.07553929
-0.07528146
-0.57309341
-0.06081904
-0.08597936
-0.01902528
0.04483302
-0.02685141
-0.01323093
-0.01728776
-0.03016536
0.03588937
-0.05521755
0.04394458
-0.04371898
0.00934197
0.03941439
0.06302983
-0.08183069
-0.03709114
0.03632037
0.11275931
-0.01158097
-0.05286232
-0.01259769
-0.03164689
0.00480746
0.01483265
-0.06502800
-0.00768950
-0.07351188
-0.02548646
-0.04181349
0.00015875
0.02744423
-0.07887109
0.06826822
-0.00636868
0.02261278
-0.03209408
0.04074258
0.02380263
-0.04966477
-0.00383020
0.00172028
-0.06681472
0.02789341
0.02889538
0.01144658
-0.02933046
-0.02449474
0.07268576
-0.06283084
-0.03819802
0.05316998
-0.00224702
0.01309390
-0.00287676
-0.05770878
0.01263658
0.03592141
0.07717764
-0.01278551
0.06842404
0.04264689
-0.03622993
0.06633493
0.01834537
0.05502572
-0.01604428
0.09508893
-0.05774267
-0.00399529
-0.05632063
0.01765364
-0.11354843
-0.02011068
-0.01202548
-0.02234218
-0.03811053
-0.01849265
0.04778846
-0.11699830
0.02932941
0.10777495
0.08169088
0.01010272
-0.03928616
0.04397415
-0.10192616
0.00046519
0.03498188
0.01768120
-0.02253114
0.00593544
-0.04454454
0.08480924
0.01284542
0.00724128
-0.08996612
-0.02019530
-0.05565981
0.00516816
-0.02953681
0.03073359
-0.06415296
-0.08241630
-0.04165835
0.03552381
0.08405610
0.02615841
-0.07057904
0.05037513
-0.01594489
-0.03687131
-0.05409705
0.07004584
-0.05900058
-0.06690608
0.02893092
0.02115650
0.01446470
-0.04268816
0.03084257
-0.09584098
0.03104917
-0.01726736
0.05821072
-0.01121521
0.02501082
-0.05227121
-0.00725238
0.04163609
-0.01292248
0.03301193
-0.13942875
-0.02398311
-0.10884416
-0.04554050
0.00824178
-0.01139857
0.01926192
0.03514855
0.02122566
0.04166186
0.05587955
0.05578900
0.07193077
0.01161322
-0.03014782
-0.00647315
0.01699428
0.04702381
-0.01623716
0.07867002
-0.03557977
-0.00927188
-0.08030122
0.07584864
0.00164079
-0.01335038
-0.01330332
-0.01052925
-0.06105597
-0.04696645
-0.02098199
-0.01962831
0.01806356
-0.05406661
-0.04424300
-0.01263887
-0.00357935
0.05359359
-0.06111975
-0.03542904
0.02907887
-0.01081829
-0.02024044
-0.04463994
0.05470894
0.05551358
0.04517561
0.05277439
0.00204490
0.02414760
0.07569880
0.00985546
-0.01459888
-0.03267691
-0.01833006
-0.04171471
0.03653025
0.07176759
0.00234523
0.00144399
0.09141219
-0.06861332
-0.01972918
-0.05902100
0.00237608
-0.04159115
-0.01187509
-0.05717145
-0.03990467
-0.18020765
0.01444555
-0.02028296
-0.03460360
0.10933740
0.09348708
-0.01699350
-0.02219825
-0.07073940
-0.03305107
0.00363692
0.02681253
0.03774191
0.00530207
-0.02676332
-0.01991239
0.07540771
-0.14838956
0.05485127
-0.02835862
-0.08457541
-0.07148244
-0.03525502
0.04368741
-0.00731698
-0.10373470
0.01885679
-0.00164316
0.04457709
-0.10059518
0.04617724
0.05707521
0.13574420
-0.03141442
-0.01541908
0.06432301
-0.01941104
0.09228187
0.05188146
-0.02168653
-0.00527536
-0.01728396
-0.07640430
-0.00775674
0.00397887
-0.06311693
-0.00705996
0.08344876
0.04499437
-0.00065175
-0.01251296
0.02403855
-0.01745241
0.08610238
0.00931576
0.01550444
0.01660969
0.03581645
0.05166472
-0.00286901
-0.05912326
0.01699467
0.02797578
0.09584517
-0.02879603
-0.03964866
0.02744898
0.04144948
0.02418311
-0.05361276
-0.01295601
0.07529271
0.02570893
-0.04071993
0.00104583
-0.02555069
0.02903880
0.01078363
0.12268095
0.03731331
-0.02216769
0.08997773
0.04820050
-0.01357818
0.02682348
0.01470945
-0.01729344
0.07118088
-0.02504903
0.06088752
-0.01351662
-0.01144061
-0.04599554
-0.08626040
0.05193182
0.10900282
-0.05602213
-0.00757369
-0.01926148
0.03779799
0.02151355
0.04505454
0.03143246
-0.04182117
0.05240977
-0.04633950
-0.05297642
-0.01767111
0.06415747
-0.14843327
0.00822636
0.00485908
-0.05757637
0.01232547
0.02747587
-0.01567456
-0.00397091
0.01900655
0.00984418
-0.02185060
0.00912093
-0.04720384
0.06909093
0.04122444
-0.00571853
-0.02436347
0.04159631
0.06043990
0.06695822
-0.01557125
-0.06277952
0.02343955
-0.06904539
-0.09752958
0.00084682
-0.12317441
-0.02813209
0.01530086
0.00604229
0.04285333
0.03268317
0.00377577
0.01286136
0.03931452
-0.05909996
-0.02753004
-0.01827982
0.01007155
0.03507626
-0.06396824
-0.05906641
-0.12942678
-0.00856898
-0.03718127
0.04022380
-0.02346344
0.02049948
-0.07872079
0.01668064
0.09079735
0.09137188
-0.00015501
-0.02496421
-0.02665335
0.07820952
0.05034823
0.00658851
0.07973161
-0.05801284
0.04990867
0.05538165
-0.02649783
0.05431183
0.02964564
-0.01837821
-0.01365910
0.03904962
0.03035857
0.06967890
-0.02757914
-0.05637175
-0.09097935
-0.00806178
-0.07025480
0.01012252
0.07288464
-0.05682025
-0.06669813
0.09619222
-0.06948197
0.06389653
0.05152607
-0.06774320
0.03171386
0.05653152
0.07824089
-0.01051889
0.07610500
0.12452128
0.08534029
-0.03311945
-0.01750543
-0.06994491
0.06271509
-0.02016067
0.00814231
-0.00279608
0.06657018
0.13823448
-0.04067360
-0.03499252
0.02411727
0.01508212
0.06232645
0.07510637
0.00438862
-0.06808655
-0.04514589
-0.00090466
-0.04933526
0.00132948
-0.00646559
0.02474715
0.03995001
0.06827275
-0.03384024
0.03339249
0.09567436
0.02111539
-0.00850062
0.01820937
-0.04212305
-0.05653789
-0.02250437
0.01865214
-0.02237950
-0.03043859
-0.09472520
-0.08108676
-0.02883111
0.02881798
0.05268963
-0.18964182
-0.05852672
-0.09244994
0.00924848
-0.04206255
0.08491328
0.02138681
-0.04871021
-0.04653453
0.01563615
0.03854091
-0.00005652
-0.06690048
0.05615996
0.03065120
0.04575240
