0.58488506
-0.33124319
-0.43010172
0.37446147
-0.29811692
0.41032815
0.01364609
0.29376382
0.23382585
-0.12944901
0.13668986
0.45210186
-0.10081701
0.11044388
0.43167183
0.56540668
0.03079370
-0.04662934
-0.31482244
-0.11942448
0.00613456
0.00624275
0.00233957
0.47037363
-0.02288618
-0.06237483
-0.07107332
0.58564049
-0.42026263
-0.00345396
0.32105032
-0.01825438
-0.13706221
-0.23993066
0.05932123
-0.07809429
-0.07229070
-0.12547046
0.54022747
-0.07840542
-0.25014460
-0.40590325
-0.37391454
-0.13887918
-0.71713138
-0.46858075
-0.12957063
-0.36053875
0.03252471
0.20976266
0.42818257
-0.00193576
0.67248499
-0.17650907
0.29992157
-0.29333061
0.41232479
0.08083858
-0.17654474
-0.27399078
0.64751536
0.06084292
-0.33029684
0.17245850
0.00279141
-0.31521067
0.08264396
-0.01995817
0.21808559
0.17398597
-0.26624048
-0.40962014
0.07997380
0.19369084
-0.04829347
-0.12613912
-0.19763030
-0.06517055
0.15967298
-0.13999516
0.06287986
-0.27355805
-0.05993387
0.23065802
-0.27861547
0.19154128
0.23167647
0.26202202
-0.08612394
0.22699186
0.35046959
-0.23871474
-0.15331133
-0.22481495
0.13997231
0.14192289
-0.08362012
0.00403017
-0.18221551
0.15280224
0.04088675
-0.05883786
0.27807221
0.17974553
0.77741557
-0.24235088
-0.24670886
0.14598611
0.00632806
-0.11179206
0.01102529
0.28745538
0.17988199
0.07757870
0.11463398
-0.66895759
0.11586912
0.07570583
-0.08869548
-0.25169361
0.14984384
-0.07279477
-0.08806285
-0.12027934
-0.17058127
0.07666661
-0.21374509
0.20072909
0.19582525
0.80407721
-0.53779399
-0.01170183
-0.01056742
0.10581714
-0.07599837
0.23730648
-0.15354459
-0.05448678
-0.20449309
-0.22857210
0.18505877
-0.05709098
0.25378299
-0.79124779
-0.09303167
0.02827932
0.19584438
-0.05033084
-0.07986660
-0.30853206
0.22362892
0.84720176
0.23934525
0.22835408
-0.52847546
0.28211471
0.25440633
0.08012336
-0.15332180
0.67468458
0.56863630
-0.52057254
0.39703041
0.26251015
-0.59846896
0.41608596
-0.00791053
-0.69897616
-0.20898606
-0.04814249
-0.46933001
-0.68432724
0.14433771
0.34654304
-0.17597629
-0.07165488
-0.69112682
-0.24736291
-0.12397340
0.84315991
-0.49705529
0.56945711
0.44711265
0.06405199
0.30407724
-0.09850626
-0.65088916
-0.18741460
0.57123429
-0.11437050
-0.49258223
-0.29164845
-0.80385721
0.10949984
0.16420944
-0.15547262
0.09860615
-0.01641246
0.48571208
-0.08260590
0.03563121
0.07286391
0.08759812
0.59678882
-0.08758241
-0.29564449
0.10701986
-0.15818362
0.11893646
0.14497451
0.48878652
0.00301764
0.22842284
-0.42859218
-0.27235481
-0.53010923
-0.55786383
-0.05899673
0.79631937
-0.05862639
-0.09891941
0.32998025
-1.05072343
0.13437790
0.01400795
-0.09298063
0.15251651
-0.09176514
0.10014508
0.63314229
0.65774459
0.06155453
-0.14644732
-0.35250336
-0.22083223
-0.19873548
-0.18764323
0.30088127
0.02373489
0.06513274
-0.42922723
0.07160023
-0.13129042
0.08251452
-0.10583773
-0.07949518
0.00931828
0.04621840
0.12027158
0.24648815
-0.69315565
-0.01257849
-0.03033101
0.12410491
-0.11399609
-0.15678312
-0.16650832
0.03619506
-0.23504239
-0.00367264
-0.10160548
0.36750305
0.31852451
-0.05910602
0.03421661
-0.21754041
-0.23551193
0.03610301
0.21071327
0.27610716
-0.05021283
-0.37366492
-0.12156515
0.42924699
-0.03181216
0.29548725
0.04018234
0.01343416
-0.09994853
0.14389768
0.31267813
0.18283656
0.37053668
0.35790396
-0.50184488
0.32586831
-0.04459209
-0.04046516
-0.05285921
-0.23923601
0.20781694
-0.11638176
0.13379829
0.00002281
-0.33404291
0.01205669
-0.49895129
0.03353560
0.00062386
-0.12601493
0.43579245
0.29639754
-0.24240156
0.19249992
-0.26213685
-0.23480979
-0.22642149
0.16777340
0.06169010
-0.22819453
-0.12937826
0.13654193
-0.21470280
0.02126504
0.46026981
0.18301070
-0.14005908
-0.17720927
0.11944082
0.34722298
-0.33318833
-0.26829493
0.38216174
-0.23281093
0.21406326
-0.30430663
-0.19030556
0.17175063
0.21221170
-0.25500843
0.09768483
-0.15391658
0.26572853
-0.02466506
0.08498120
0.44930059
0.03478013
-0.58936644
0.06645774
-0.08572347
-0.01542693
0.40723217
-0.44214240
-0.21413368
-0.20542048
-0.03194934
-0.47779861
0.09847784
0.12286974
-0.00893702
-0.44877687
0.02818563
0.19152178
-0.31188244
-0.40081066
-0.32499647
-0.62002033
0.40042853
0.15840909
0.00686616
-0.38604149
0.20595074
-0.00828567
-0.33911195
0.46290931
0.13700001
0.18121882
0.38649100
0.03133840
-0.10855246
-0.23737283
0.17962660
0.23471609
-0.13365391
-0.26631206
0.13512264
-0.29655880
-0.35300463
-0.11167014
0.10655899
0.00923644
0.41374335
-0.18846023
0.06819522
0.25160602
0.20155106
0.17244942
-0.30406013
-0.53753775
-0.09880179
-0.61821687
0.06003372
-0.11062120
-0.34003976
-0.33975106
-0.34870845
-0.62920964
-0.16037503
-0.20738539
-0.52668554
0.64462852
0.19417223
0.19178575
0.31633890
0.07540616
0.31964219
-0.19367419
0.17779772
-0.24590525
0.44233000
0.07640754
0.18459804
-0.26213884
-0.24561928
-0.01647237
-0.48756644
0.10493499
0.31760046
0.41077629
0.08852188
-0.16434744
0.67121375
-0.31974420
-0.29294026
-0.07992330
0.26306808
-0.23832960
0.26378101
-0.00391192
0.08473656
0.08589374
0.01847958
0.04693275
0.04969665
-0.06478307
-0.01695540
0.24568801
-0.15758729
0.42825776
0.29506880
-0.52655250
-0.03563876
0.16804384
0.18988115
-0.46369749
-0.40560532
-0.10396619
0.54172266
-0.09585419
-0.08352979
0.16633488
0.09789973
0.18278959
0.02348927
0.30400202
0.12060601
-0.03866120
-0.02325620
-0.00783099
-0.13773434
-0.06375299
-0.01206733
0.06379431
-0.08213986
-0.30763730
0.07075475
-0.02227120
0.01331745
-0.18396252
0.53561926
-0.34545097
-0.16798930
0.21539588
-0.13484012
-0.25041676
0.15494227
0.13750552
0.31873503
-0.35635585
-0.39094868
0.05492653
0.17744371
-0.04064696
-0.34815890
-0.33861580
0.12013560
0.10037105
0.07256646
0.19097479
-0.02924850
-0.14208008
-0.02411528
0.34547868
-0.01691286
-0.05950297
-0.12606743
0.12016520
-0.09728526
0.18290664
-0.12640341
0.16645344
0.35463005
-0.35150906
-0.10328460
0.01279570
-0.06929349
-0.01590280
-0.27751747
-0.02855436
-0.08344401
0.16626121
0.07450463
-0.03831047
0.23651940
0.07421116
0.32458022
-0.09523035
-0.12735125
-0.14911048
0.00429447
0.12328545
0.04551051
0.16726986
0.15782052
-0.07655121
0.09597415
-0.11993641
0.42694128
0.12615682
0.58837652
-0.09542313
-0.18001476
0.20003204
-0.16516450
-0.12686932
0.05868260
-0.41033158
-0.40684906
-0.22603399
-0.12122386
-0.03015647
0.29536214
-0.25042567
0.49294657
-0.09233627
-0.01644334
0.18238051
0.17238729
0.10355182
0.13262202
-0.15994871
-0.08955699
-0.01027989
0.18755454
-0.14477573
0.21210805
0.08229148
-0.14416076
-0.05951763
-0.27809802
-0.36406264
0.20068872
-0.07534154
0.53549755
0.22564465
0.37749478
-0.20449159
-0.33005857
-0.18983559
-0.23725437
0.08516788
0.11236237
-0.02421888
-0.01299153
-0.29712486
0.77757454
-0.34465665
-0.31202292
0.03080362
-0.09862814
0.35855025
0.18863922
0.08657952
0.08143750
-0.16036102
-0.45755970
0.11505293
0.20563278
-0.24954444
0.29659441
-0.01983725
-0.27788022
0.14430296
-0.17584671
-0.15642756
0.21242611
0.54224926
-0.12717244
0.03575207
-0.45371273
0.63445061
0.44255662
-0.13321064
0.24148490
-0.21610317
0.00840874
0.57335788
0.00594368
-0.01861409
0.08532293
0.24100655
-0.16398703
-0.01798551
0.35469031
-0.42489517
-0.20144501
0.31705287
0.22076139
-0.03360182
-0.02142977
0.44791919
-0.29725683
-0.35472780
0.09768699
-0.18860219
-0.39589176
0.26746050
0.26481754
-0.51057303
0.12502815
0.05304529
-0.15927145
0.55048221
-0.20582052
-0.37131456
0.17404889
0.41754496
0.41048285
-0.11611605
-0.34100595
-0.22326051
0.26614779
0.18053217
0.21056710
0.81299251
-0.33158565
0.30037931
0.57479608
0.21211857
0.28897968
0.11549428
0.12007637
-0.60377455
-0.21496648
0.09490019
-0.28877953
0.54185581
0.05394473
0.07649636
0.12586819
-0.11556710
0.06971549
-0.38355744
0.12183879
0.86198860
-0.00819789
-0.04318967
0.17236748
-0.13229820
0.28381124
0.03771905
0.07277322
0.62168831
0.06902153
-0.05297452
0.20351000
0.25533152
-0.21431236
-0.50972772
0.42319408
0.44430906
0.06415191
-0.35148633
0.08854001
-0.18373829
0.10901015
0.09615542
0.64958006
0.21728335
-0.32294655
0.16695213
0.06991050
0.01508410
0.10387909
-0.20168789
0.13433227
-0.09276302
-0.65764523
0.04147782
-0.02619981
-0.46310171
0.40829736
-0.07659824
0.42069012
0.12944484
0.24123918
-0.07137443
-0.32460076
-0.00962000
-0.11448319
-0.14035809
0.38452646
-0.26108325
-0.04560268
-0.09794571
-0.30830917
0.34762350
0.19456990
0.00947045
-0.11947734
0.13706090
-0.21642874
-0.02999536
0.32655770
0.33157986
-0.08004438
0.05486396
-0.06131015
-0.16047093
-0.31117710
0.02746018
-0.07008250
0.36355931
-0.25511754
0.26981840
-0.50740594
0.09173530
0.03177153
-0.13808127
-0.06655839
-0.21381393
-0.26413539
-0.35044008
0.05439043
-0.14076598
0.21260731
0.47680929
-0.04156377
0.23639332
0.21278170
0.20353901
0.12607533
-0.01307350
-0.14924952
0.02851187
0.14976016
-0.00733368
-0.15981370
-0.13514395
-0.01706533
0.20873839
0.05181973
0.31308398
0.01659171
-0.22513480
0.18470828
-0.11108745
-0.07685991
