-0.01184616
-0.01596605
-0.00251847
0.01736802
0.00449983
0.01184758
-0.02888610
0.01242525
0.01089939
0.00848341
-0.02119853
0.04104841
-0.00480031
-0.00657618
0.00797784
-0.00239722
0.02308384
0.00344416
-0.00870960
0.01733128
-0.03893883
0.01013663
-0.01905653
0.01896159
0.00307408
0.00347237
-0.00434600
0.02263800
0.01044143
-0.00111953
-0.01562431
-0.00968226
0.00901635
0.01870976
-0.00014124
0.00821895
0.02382424
-0.00266099
0.01751750
-0.00046827
-0.01051538
0.00692360
-0.02330662
-0.00915324
0.00560126
-0.00551792
0.00121006
0.01738936
-0.01729647
-0.00867647
0.01258889
-0.01235098
0.00028404
-0.00937215
0.01236225
0.00779171
0.00852429
-0.00329508
0.00863183
0.01055071
-0.00942009
-0.00342345
0.01281984
-0.00504224
-0.00760990
0.01867419
0.01688915
-0.04281009
0.02479805
-0.00950917
0.02584379
0.02800864
0.02576003
0.03400491
0.01511211
-0.00580316
0.00019347
0.03211062
0.02395411
-0.02508115
0.04894891
-0.01838841
-0.00613937
0.01682868
0.02174370
0.00251638
-0.00309709
-0.06064536
-0.00202008
-0.00635199
0.05318919
-0.00880293
0.06384689
-0.02310809
0.03849778
0.00859386
-0.00419272
-0.01282430
0.04793430
0.03664550
0.00890344
0.04063204
0.03942453
0.04119632
0.01605266
0.00040430
-0.00082938
0.00041957
-0.02010645
-0.01002439
-0.05493841
0.00563650
0.02924917
0.02453477
0.02261192
-0.00809322
0.00838927
0.04666068
-0.01340449
-0.02944983
0.02491103
0.04027003
0.05392765
-0.02844725
-0.01825003
-0.00460997
-0.02898366
0.00191478
-0.01065878
0.02895941
0.04586944
0.04612344
0.00277359
-0.01181137
-0.04237481
-0.02254022
0.05861324
-0.08926570
0.04743359
-0.04737381
-0.00296922
-0.00744026
0.07054560
0.09536272
0.01309794
0.04533043
0.00968315
-0.02747853
-0.02357090
0.01836417
0.01915943
-0.09516319
-0.11010621
0.03047154
-0.02976059
0.00648909
0.00488563
0.01383858
0.04619337
0.01144850
0.04387227
-0.03614175
-0.02268199
0.02368427
-0.00055558
-0.06828803
-0.01336710
0.00703980
-0.02171357
0.01086022
0.01270573
0.00848488
0.06725380
0.06199580
-0.01443897
-0.06601945
0.03612906
-0.03295508
-0.02600723
-0.10230440
0.00062563
-0.06726760
-0.04791547
0.03900298
0.00039243
-0.01424895
-0.04106259
0.02528526
0.04602073
-0.00025360
-0.02493295
-0.06107173
0.12097586
-0.17095982
0.08057081
0.08585596
0.07795998
0.03109623
0.01882644
0.12627187
-0.04174151
-0.01155288
0.11237795
-0.00212736
0.03466615
0.04568299
-0.07357517
-0.01031694
0.12073164
-0.06192708
-0.00501600
0.04941226
0.10922311
0.12830305
-0.10275570
0.00063105
0.05868604
-0.16816486
0.14065972
-0.05408606
-0.02131711
0.01850909
-0.09545365
0.10354863
0.06854893
0.03184376
-0.04994895
-0.07418065
0.01654278
0.00729160
0.07603198
0.01831955
0.05801937
-0.11559146
-0.01507821
0.02717373
0.11706125
0.14624104
-0.12408839
-0.06847046
-0.03297940
0.05913544
-0.05628874
-0.05378361
0.12101582
-0.08881287
0.05156920
-0.08960999
-0.03539325
-0.06545193
0.01553411
-0.07884481
-0.17886831
0.02264575
-0.10187000
-0.08881715
0.03486986
-0.00060237
-0.00044521
0.03688677
-0.02590367
0.01066749
0.01898810
-0.01960189
0.01746087
-0.02714147
-0.08708201
0.10681073
-0.02135278
0.00302014
0.02359423
0.00183950
-0.00313492
-0.02181358
0.02237637
-0.00972613
-0.04550352
0.03177378
-0.02139852
-0.02584442
-0.01606115
0.03500804
0.01109546
-0.00646595
-0.01834928
0.02377881
0.01336773
-0.00371771
-0.02742868
-0.00388629
-0.01489323
-0.01471488
-0.00778085
0.02467563
0.03767962
-0.00858205
-0.01988236
-0.01624204
-0.00046268
-0.01190815
0.02403864
0.08717773
-0.13648984
0.00496169
-0.00044030
-0.04823700
0.00252006
-0.01038924
0.00522118
-0.00942996
-0.03024264
-0.00428100
0.00213836
0.01048657
-0.01275389
-0.00200376
-0.01480516
-0.00332466
-0.00393330
0.00383106
0.02825717
-0.02618237
0.00059667
-0.03424466
0.01480560
-0.01994226
-0.02547086
-0.00803406
0.00402245
-0.01586425
0.02465974
-0.04308735
-0.02633304
-0.01670528
0.01381794
0.00338020
-0.00590184
-0.01772280
-0.01120814
0.01412695
0.00276248
-0.00758333
-0.02157716
0.00172278
0.00567063
-0.03211003
-0.03949396
0.00852179
0.01553515
-0.00498443
-0.00903534
0.00122820
0.01487767
0.01173749
0.01429289
0.02717378
0.00752946
-0.01018463
0.01568727
0.00581799
0.04114459
0.02673051
-0.01312860
0.02955086
0.00137994
-0.03173175
-0.01976851
0.01379470
0.01253785
-0.00515809
-0.01048157
0.02149862
0.01142699
-0.01418823
-0.04456574
0.00191026
0.00946432
-0.03194929
-0.00732708
0.00302206
-0.00412450
0.03098165
0.00484383
-0.01865985
-0.00021112
-0.00254539
0.01129040
-0.00355582
0.00392704
0.00848727
0.01005671
-0.02012691
0.00030911
-0.01771994
0.00468434
-0.02290098
0.01861373
-0.01297044
0.02866640
-0.00009264
-0.01050775
-0.00078812
-0.00534302
0.00591661
0.01654383
0.00223826
0.00555747
0.01649000
-0.01301622
0.00471681
0.05162269
-0.00896022
0.00232912
-0.01171636
0.00290576
0.00042935
-0.00261871
0.00990918
-0.00147343
-0.01118032
-0.00940862
0.07780101
0.01283608
-0.00401520
-0.00806667
-0.00772744
-0.02018355
-0.05376518
0.01001657
0.00078626
-0.01376614
-0.00119995
-0.00587808
-0.00063563
0.00650096
-0.00234665
0.00420763
0.00154656
-0.07612205
0.00264075
0.00697546
-0.00842820
-0.00013767
0.01020438
0.01275707
-0.00639699
-0.01135870
-0.01309179
0.02264350
0.00437133
0.01792157
-0.01333357
-0.00208626
0.02143909
-0.01354547
0.00071561
0.00272535
0.02714659
0.01550566
0.01664363
0.01767614
-0.00890603
0.01738062
-0.01371191
-0.00491864
-0.01405630
0.09097195
0.00752660
-0.00137550
-0.00498014
-0.00319732
-0.00555173
0.01610529
0.00059129
-0.00118292
-0.00153322
-0.01252563
-0.00701584
0.00429032
-0.01544670
-0.05323780
-0.00265760
0.01265975
-0.00596781
0.00565059
0.00185512
-0.00907747
0.00379923
0.01348138
-0.03823267
0.00096478
-0.00014476
0.04030867
0.03722273
0.03695596
-0.02168481
0.01337405
0.01176598
0.00876345
0.02173792
-0.00328708
0.01552731
-0.01613677
-0.01686563
0.01110956
0.00016648
0.00336647
0.00444593
0.00133721
-0.00235847
-0.01917920
-0.01501185
-0.01441016
0.02834998
0.05106772
0.02898422
0.04661684
-0.01423858
0.00275752
0.02448487
0.02600475
0.00340423
0.03420102
-0.04622985
0.00392651
0.00606025
-0.02235876
0.01520476
-0.01785995
0.00082818
-0.02493560
0.01904788
0.03145550
0.05718082
0.06821261
-0.03107992
-0.01252307
0.01558443
0.00843468
-0.06346950
-0.03700003
0.02204829
-0.03278877
-0.00337423
-0.03199440
0.03262401
-0.03386641
-0.03959364
0.00558486
-0.03185130
0.00068542
0.02971896
-0.02332837
-0.00751364
0.00202316
0.00214431
-0.02059762
-0.01664824
0.00449086
-0.02797018
-0.01410863
-0.02439281
0.02368490
0.00528143
-0.00521840
0.01665107
-0.05246907
-0.00603968
0.02522850
-0.00621220
0.01026006
0.00235716
0.04424375
0.01872596
0.05782502
-0.00314431
-0.00342599
0.00827467
0.00234259
0.01827528
0.01271042
0.00946546
0.00257598
-0.01401626
0.02773836
0.01941928
-0.00316339
0.00285680
0.06403665
0.00769445
0.01934446
0.00295774
0.02747047
-0.00971377
0.02707611
0.01582701
0.01470080
0.00401923
-0.01195943
0.00897974
0.03528175
-0.01049307
0.03389799
0.00347810
-0.01271784
0.00033890
0.03698722
-0.01951490
-0.00490227
0.00071703
-0.02204902
-0.03962918
-0.00249480
0.00050526
0.03268885
0.00550081
0.00554635
-0.00097768
-0.01030004
-0.00933072
-0.02862999
-0.01839687
0.05497053
-0.03122859
0.02387146
-0.00832102
0.01176694
0.02046675
0.09086788
0.01066716
-0.00302011
0.01415408
0.02038873
0.00389805
-0.02071710
-0.04288246
-0.00711331
0.00914622
0.00520708
-0.04755032
-0.00845425
0.15704232
-0.06413472
0.03373404
0.09635135
-0.07944749
-0.00446989
0.04160262
0.07461977
-0.01208774
0.02043891
-0.11951084
0.08407578
-0.10767930
-0.04430588
-0.00530922
-0.01455063
-0.04947928
0.09807099
0.01011761
-0.16170181
-0.01387580
-0.01708821
0.12245716
0.05780899
0.04127044
-0.06569197
0.09869206
0.03469265
-0.17254001
-0.05533176
0.06620735
0.00163136
-0.05548124
0.05435339
0.02173363
-0.07711570
0.10439795
0.25031704
0.03947553
-0.05453163
0.10968307
0.08669138
-0.05293382
0.09163968
-0.02430119
-0.03637191
0.06769742
0.04816919
-0.04829748
-0.11262242
-0.09994505
-0.05439374
0.13241307
-0.02014558
0.02801600
-0.02745292
-0.11129735
0.00060655
0.02287893
0.08575613
-0.05377060
-0.06878491
0.06600369
0.01402642
0.00293826
0.00888085
-0.02125458
-0.01090788
0.00541257
0.01243359
-0.00643259
-0.01664851
0.00664948
0.00774508
0.01349229
-0.00006709
0.02454508
0.00945247
0.01441647
-0.00813624
0.01321790
0.00694183
-0.01874266
-0.00371775
-0.00418669
-0.01549575
0.01370821
0.00907924
-0.01977371
0.02768344
-0.01715054
0.00309631
0.01640044
0.02214029
0.00050949
-0.00261571
-0.01264315
-0.00111064
-0.00416752
-0.00805459
-0.00686556
-0.00504516
-0.00660309
-0.03573855
0.01955177
0.00167606
0.00881933
-0.00441569
0.02696604
0.02076486
-0.02113401
0.00417604
0.01040173
0.01223425
0.02114526
0.00369795
0.00218452
0.01166388
0.00463971
-0.01295185
0.02624938
0.00470671
-0.00298997
0.00060352
-0.01994921
-0.00627057
-0.00220582
