-0.01216252,-0.04359901,0.01874714,-0.02721664,0.02629302,-0.01494861,0.00578326,-0.02673818,-0.02209897,-0.01155432,-0.04156679,0.04570711,0.02712637,0.01143241,0.01298609,-0.01883791,0.01949684,0.02204282,0.03408489,-0.03488002,0.01060069,-0.03347975,-0.01344067,-0.05839091,-0.00252235,-0.04020075,0.00919088,-0.04108220,0.02459688,-0.03080783,0.01812526,-0.02796610,-0.02007915,-0.00684124,0.01492559,0.01791512,-0.03688057,0.01327422,0.03893270,0.01924311,-0.02443819,-0.00817575,-0.03218735,-0.03955439,-0.00526081,-0.03617897,-0.01853707,-0.00332509,0.02130095,-0.01755267,0.01832905,0.00343126,0.05321066,0.06136063,-0.02282346,0.02448517,-0.00914175,-0.01146246,0.03042042,0.00290706,-0.02445938,0.00050259,-0.05076059,0.00715507,-0.04587864,-0.03823568,-0.03513674,0.02647344,-0.03531441,-0.00669792,-0.00893582,0.06714900,0.00129086,-0.03088423,-0.01153311,-0.01091108,0.03635059,0.06763285,-0.05072128,-0.04631985,0.03075541,-0.06029309,0.00926065,0.01632097,0.03969752,-0.04562445,0.01604345,0.00905844,-0.00059855,0.02435082,0.01007569,0.01026164,-0.01070534,-0.00890488,-0.00749529,0.00623317,-0.02108535,0.02663147,-0.03393558,0.01917633,0.00932416,-0.01572018,-0.01148489,-0.01257572,-0.03520694,-0.01092800,0.00464358,0.01570073,-0.03624553,-0.03260732,0.04727941,-0.02486736,-0.01386416,0.00034253,-0.00959649,-0.01419984,0.01565340,0.01254375,-0.03073828,0.02197942,-0.02506170,-0.05540873,0.05261227,-0.02521297,-0.00746869,0.01318504,-0.02226114,-0.00836259
-0.01883385,0.03865832,0.00899068,0.02271145,-0.02161393,0.03370192,0.01438720,0.01980315,0.04428891,0.06561651,0.03041354,-0.04045176,-0.04710342,-0.02821442,-0.00866198,0.00777153,-0.01356385,-0.02788872,-0.03718247,0.03448447,-0.02806728,0.04159171,0.00302014,-0.00437883,-0.01379524,0.03698067,-0.00349489,0.01710683,-0.02506102,0.01289609,-0.03530862,0.02823840,0.00955184,-0.05750501,-0.02381649,0.02502470,0.04549694,-0.04761993,-0.04737318,-0.01134589,0.03655497,0.00868057,0.00660132,0.00310364,0.03470152,0.03188185,0.00473206,0.03213506,-0.03609974,0.02092420,-0.00655012,0.00819919,-0.02502027,-0.00501881,-0.00429801,0.01075722,-0.04182625,0.05096099,-0.01222610,-0.03749560,0.02735744,-0.04231146,0.02554735,-0.00871662,0.01321532,-0.00283395,0.01744646,0.02083235,0.01492292,-0.03073220,0.01566597,-0.04218881,0.03104907,0.03112341,0.02848650,0.01770514,-0.06205526,0.00226207,0.03986578,0.02329477,0.03557483,0.02653904,0.05687615,0.01498249,-0.00640431,0.02934816,-0.02202905,0.01896832,0.02668645,-0.02199928,-0.01679966,-0.03537525,0.01808098,0.00380806,0.01903534,0.01769717,0.00581135,-0.04475185,0.01571472,-0.00026181,-0.02314153,0.03871497,0.02930746,0.00726093,0.03574979,0.02784531,0.02857829,0.01984092,0.00866426,0.00443403,0.02885281,0.01541600,0.00261047,0.01320327,0.01985382,0.03771024,0.01916767,-0.01279875,0.04002177,-0.02077214,0.06373275,-0.03689594,-0.01249144,0.01345721,-0.01290030,-0.00254322,0.03782602,0.00676103
