-0.09429703
-0.09374759
0.09109816
-0.25167978
-0.08692400
0.09175623
0.01566475
0.19519785
-0.12213888
-0.11463054
0.05321254
-0.24139179
-0.01748905
-0.28643671
0.03151979
-0.23541346
-0.33994669
-0.08112156
-0.03089246
-0.24858245
-0.45070010
-0.02256238
-0.34558219
0.23171487
-0.12814108
-0.02066603
-0.03810663
0.12079874
-0.31085962
-0.03337501
0.27090883
-0.16890498
-0.38282609
-0.57985204
0.08810551
-0.55387908
-0.36276314
0.31906831
-0.07112227
-0.21066058
-0.17846459
0.02509225
-0.04782821
-0.09133145
-0.21178058
-0.22652632
-0.10366683
0.10607684
0.17335060
-0.39676985
0.05889804
-0.50968945
0.20582019
-0.29887417
-0.04323464
-0.22788925
-0.41980410
0.03073695
0.02363765
-0.07648361
0.02493332
-0.03744381
-0.52572072
-0.14954390
-0.06444882
-0.44642839
-0.48792553
0.11693103
-0.10178587
0.15867926
-0.03034262
-0.16531990
-0.15567777
-0.22598320
0.12458606
-0.38146374
-0.36529917
0.17002451
-0.08159140
-0.10897324
-0.12332217
0.04269179
-0.09811514
-0.20195799
-0.26651263
-0.19532630
-0.07738086
0.17925373
-0.01365499
0.00721185
-0.26444411
0.00439382
0.00904737
-0.49817666
-0.15670861
-0.45119336
-0.12530404
0.01474871
-0.10979787
-0.08775610
-0.37556869
-0.29588324
0.38960838
-0.05915987
-0.19091889
-0.32142636
-0.03590500
-0.35967597
-0.22106300
-0.13961913
-0.13331065
-0.08731077
0.05867885
-0.21280232
0.10432927
0.17420095
-0.20483591
-0.21045288
-0.12215515
0.32133251
0.00174182
0.18919410
-0.12866624
-0.05366293
-0.03517935
-0.32908827
-0.10505401
-0.05925887
-0.02434700
-0.05258945
0.27310929
-0.39316764
0.05851355
-0.03566511
-0.17354782
0.00292045
0.02985188
0.01776167
-0.03691831
-0.18948981
0.06493066
-0.02523385
0.36718041
0.01912073
-0.31488144
0.19873925
-0.39202479
-0.00166499
0.15004358
-0.48054302
-0.91770083
0.14078338
-0.11385866
-0.02931155
0.17808962
-0.39224482
0.19963738
-0.00012996
0.13411090
0.40190208
0.06587131
-0.26551002
0.03974273
-0.16343711
0.05256367
-0.53030384
-0.02290848
-0.09399270
-0.54159069
-0.32411587
0.20708480
-0.01422644
-0.52761459
0.00023752
-0.03538562
-0.14750908
-0.11182868
-0.23187919
-0.16432808
0.12145741
0.00472479
0.09664036
-0.12521879
0.01586554
0.06859500
-0.08191941
-0.65562040
-0.43306708
0.06400365
-0.44503134
0.15877518
0.03918260
0.08773657
-0.08011433
0.12186668
-0.29825282
0.03829879
-0.03006804
-0.23147477
-0.32979521
-0.32440272
-0.28540421
0.01603542
-0.12391613
-0.43297303
-0.17317693
0.10048954
-0.30076349
-0.37179205
-0.31873000
0.03119254
-0.61139643
0.04287830
-0.12820581
-0.03092292
-0.14806844
-0.29113522
-0.20555975
0.09239451
0.24702580
-0.13807599
-0.20457378
-0.14857496
-0.14865321
-0.03088062
-0.28147903
-0.13443303
0.03960420
0.07821339
-0.05681947
0.00364753
-0.09016152
0.00005334
-0.04673918
-0.02822516
-0.38205802
-0.48046559
-0.06546067
-0.26356372
-0.18527940
0.08714968
-0.29180139
-0.46570522
-0.08462282
-0.35138249
-0.87992215
-0.69650441
-0.33515787
-0.42710441
-0.13991022
-0.12515055
0.02166566
-0.25654942
-0.04490118
-0.00384556
0.13913697
-0.42570838
-0.35460132
-0.03777636
-0.12728527
-0.23917040
-0.42068613
-0.52095520
-0.09788296
-0.51546353
-0.01931255
-0.59773797
-0.03747506
0.03571990
-0.03040438
0.05166214
0.22681016
-0.52543491
0.11769136
-0.07961871
-0.02346335
-0.33119637
-0.30782127
-0.18278737
-0.06113745
-0.07692807
-0.12646587
-0.24209285
0.00163221
-0.24082202
0.04007067
0.21978372
-0.36972648
-0.46307170
-0.05083380
-0.07099784
-0.50624329
-0.07725278
-0.08978747
-0.09791013
-0.19833238
0.17987762
-0.42505065
-0.24543011
-0.16916022
-0.01178026
0.01713970
0.00712720
-0.02349903
-0.50303733
-0.21200140
-0.37221193
-0.22489947
-0.02844689
-0.35548294
0.00952890
-0.06614957
0.08521268
0.02368758
-0.25519758
0.13969453
0.05126150
0.07327391
0.06746979
-0.25620139
-0.04021762
-0.49052942
-0.09844683
-0.00163692
0.02426020
-0.19866097
0.04303680
-0.39244393
-0.19122924
0.11291537
-0.25228077
-0.21592999
-0.20526309
-0.00995501
-0.04488819
-0.23642887
-0.47819835
-0.28913420
0.08315972
0.15417799
-0.22914006
-0.44155151
-0.07127488
0.04863413
-0.27733299
-0.38116553
0.02383233
-0.22075768
-0.33560562
-0.00633830
0.11361932
0.00184349
0.02766619
-0.05750486
-0.18431337
-0.17750044
0.20850839
-0.27728310
-0.09513860
-0.14714748
-0.14473872
-0.00557478
-0.04095139
-0.05744210
0.03751513
-0.27818182
0.04325109
-0.18172799
0.04084547
-0.34143075
-0.44333991
-0.55630249
-0.24426141
0.52717280
-0.17277612
-0.07074021
-0.35442439
-0.07267850
-0.04191109
-0.31706709
-0.42840397
0.01703697
-0.54962015
-0.20837365
-0.14341663
-0.13424270
-0.01097561
-0.38365763
-0.55452561
-0.08408456
0.16492322
-0.06124483
-0.35060510
-0.51625007
0.12565532
-0.08572103
-0.41208702
-0.14215311
0.08594057
-0.40210512
0.05172525
-0.46062714
0.01211295
0.01025411
-0.21795927
0.08414977
-0.19232202
0.35145277
0.00847326
-0.31913811
-0.38425112
-0.10585943
0.01257162
-0.22640918
-0.22834803
-0.06835175
0.12935171
-0.01075589
-0.32862756
-0.09131458
-0.16408695
-0.00295694
-0.03977322
-0.15258348
-0.20086071
-0.42017496
-0.02520168
-0.06216786
0.04227706
0.00730479
-0.10181588
0.07937626
-0.12300303
-0.14025500
-0.38795066
-0.02297738
0.14860237
-0.57693762
-0.07107650
-0.07985497
-0.21231139
0.02171914
-0.06248262
0.00662278
-0.25663251
-0.30905089
-0.34520283
0.21543516
0.08411891
-0.09138308
-0.58515215
-0.07804470
-0.06321642
-0.22088397
0.08898595
-0.12407088
-0.18619210
0.16529354
-0.32711723
-0.10140548
0.08333062
0.04456392
-0.26651058
-0.24314292
-0.18593152
-0.34524393
-0.14399683
0.16195631
0.07310041
-0.12323116
-0.08168636
0.10919165
0.22915196
-0.23360461
0.17005335
-0.08417728
0.29059109
-0.10285647
-0.31287807
0.01153997
-0.50333351
-0.03418835
0.11354269
-0.15901074
-0.12708572
-0.37323314
-0.08348168
-0.20241445
-0.41609269
-0.07687483
0.04369192
0.03329826
0.04517140
-0.55341172
0.09763005
-0.29688200
0.01822646
-0.03529309
-0.15695523
-0.10150857
-0.13208352
-0.32419422
-0.04875613
-0.56245059
-0.16546607
0.06851587
-0.02037411
-0.01330993
-0.12757735
-0.01582053
0.13811520
0.29421613
