0.11800175
-0.01035838
-0.03916826
-0.03845391
-0.04989742
0.08243953
-0.02023987
-0.02322189
-0.08399285
-0.01452233
-0.03164127
0.02161459
-0.11398735
-0.03805039
-0.00476715
0.13789538
-0.03875770
-0.04444558
-0.05399917
0.03730530
-0.00964058
-0.11247545
-0.18600461
0.09884555
-0.10683559
-0.03766808
0.00359388
0.01724807
0.19046786
0.03617285
-0.04865804
-0.01222949
-0.01557422
0.10449734
-0.00462714
-0.06432899
-0.00175479
-0.06563241
-0.08911510
-0.07802429
0.06490195
0.06119785
0.04848679
-0.01926462
0.16153544
-0.03727647
-0.20249879
0.03737444
0.07359110
0.00855786
-0.09257193
0.08777574
-0.07135821
-0.08705895
-0.07773123
-0.00504680
0.01187985
0.07019144
-0.00903342
-0.01593223
-0.01287096
-0.01411506
-0.09533255
-0.17217501
0.05628753
0.05922569
0.05764233
0.10668719
-0.03665536
0.08218299
0.08122369
-0.10094064
-0.04964540
0.09452436
0.02254608
0.05982388
-0.03658680
-0.04310170
0.14778909
0.24745673
0.08042267
-0.00745260
0.00034484
-0.19945565
0.11281957
0.00186463
-0.09386753
0.12022357
-0.06713393
-0.05242341
0.11170047
0.11975698
0.01801096
0.00253954
0.10264024
-0.05470911
-0.04908933
-0.09025607
-0.11359120
-0.11934481
0.00854718
0.05405118
0.08185297
0.14183563
-0.02431774
-0.12007428
-0.07164278
0.04661353
-0.02065438
-0.07070468
0.01817470
0.12680493
-0.11230627
0.02161504
0.03050116
0.02915028
0.00805923
0.08643927
0.12076676
0.03594216
0.04532631
-0.01743257
-0.05341775
-0.12052382
0.18191145
-0.02438378
0.05412948
-0.06393290
