-0.07729095
0.06051021
-0.25790095
-0.22159842
-0.05957187
-0.02727400
-0.25996217
0.23128070
-0.03904405
-0.05974717
0.03156580
0.29088879
-0.15943272
0.02057737
0.19740812
-0.02849334
-0.20342518
0.05352222
-0.08428898
0.07734079
-0.13985151
-0.21308795
0.16423562
0.07320083
0.19267482
-0.25190106
0.01656406
0.07323294
-0.18109050
-0.15279238
-0.15040492
-0.37806067
-0.21395764
-0.00040853
-0.01285270
-0.12682344
-0.09011085
-0.04734917
-0.46129972
-0.05868856
-0.15430823
-0.01769632
0.04672955
-0.06670601
-0.21543656
-0.32063445
-0.29126340
-0.05285061
-0.04264176
-0.11165249
0.14994031
0.16426383
0.09847463
0.04957739
-0.14245300
-0.03976547
0.10423147
-0.28171498
-0.04590481
0.28402537
-0.11672492
-0.19208886
-0.18637037
-0.02197871
-0.21751803
0.15819903
-0.01140556
0.10656508
-0.03322128
0.07950638
-0.28242192
-0.01798395
0.13520905
0.06999151
-0.14954317
0.01267524
-0.09451812
0.06161492
0.02326273
-0.04522944
-0.15539999
0.02712836
-0.02292274
0.12742923
-0.10490433
-0.04151901
-0.23346443
-0.22854507
-0.03848279
-0.22034355
0.05701062
0.08708408
-0.20079583
0.01222153
-0.03984170
-0.01992237
0.15924716
0.03458897
0.07055113
0.18299115
0.01500563
-0.06169952
0.05496149
-0.21582060
0.19899870
-0.29034907
0.00334817
0.01932777
-0.14275543
0.01112485
0.05579523
-0.12808137
-0.04234941
-0.13271490
-0.08543684
0.06063113
-0.04670880
-0.13600726
-0.15870872
0.04000776
0.06555824
-0.14767620
0.13015963
-0.26673287
-0.31425497
0.11599699
-0.15806307
0.11447221
